float saved_weights[640] = {
                       0.12625736,0.19053185,-0.20145753,-0.15607321,-0.11846142,0.0011061266,0.12682007,-0.03253507,0.16046773,-0.1698823,-0.1091768,-0.14393148,-0.12132737,-0.15481482,0.027731854,0.120422035,0.18572558,0.12418989,-0.09469407,0.10049253,0.04089499,0.0984247,-0.06513091,0.17550474,-0.16241789,0.036724437,-0.0690448,0.081827864,-0.18591826,-0.06595378,-0.030562922,0.10236713,-0.13304947,
                       0.20945829,0.0156203555,0.17777252,-0.14516437,-0.027915765,0.06703086,0.03285683,0.16507007,-0.051943947,0.045014177,0.0027835444,0.112373926,0.14254059,0.015604825,-0.07352497,0.06653544,-0.13665527,0.21973293,0.10698048,0.02304965,-0.11201265,-0.18402359,-0.18222842,-0.1525719,0.017333174,-0.013559695,0.17808415,0.15899363,-0.19983447,0.17045465,0.05302807,0.08985784,
                       -0.1713054,0.12804133,0.153152,-0.1287995,0.02092752,-0.043512437,0.15762918,-0.21370892,0.2029546,-0.111579485,0.19283828,-0.10444816,-0.057145424,0.12746534,-0.06968856,0.10439715,-0.017904624,0.16995603,-0.17925961,0.1497028,-0.18617508,0.17338796,0.009325563,0.058210045,-0.2098293,0.02677013,0.046484828,0.04427822,-0.17110692,0.14354025,-0.016674079,0.19029444,
                       0.048415598,0.17236045,0.028034274,0.20142628,0.09648177,0.15087166,0.1987085,0.07740353,-0.0009368703,-0.1992877,-0.11883143,-0.08033452,-0.06706591,0.052127525,-0.21136166,-0.082703635,0.0026080725,0.084578685,-0.06500079,-0.026050486,0.17406233,-0.1377639,0.04445881,-0.15050843,-0.1266116,-0.19730967,-0.1988473,0.19700548,-0.09014863,-0.120307304,0.00079437933,
                       -0.17187722,0.11200178,-0.061522484,-0.08999446,-0.010474982,-0.087655626,-0.095956765,0.009397401,0.0019352062,-0.14888772,-0.07807582,0.14351112,-0.09781839,0.22027107,0.084034234,0.1834037,0.14022258,0.06884658,0.168582,0.19960849,-0.09863775,-0.1380414,0.14661974,0.19244775,-0.07317355,0.16392006,0.12917985,-0.10406634,0.20915556,0.046120837,-0.09023729,0.057887275,0.12030145,
                       0.12494909,0.09170123,-0.117792934,-0.06202926,-0.032747865,0.010895486,-0.18370649,0.09364527,-0.042296812,-0.15894163,-0.13759914,-0.06536523,0.103419214,0.10079284,0.04387515,-0.03510134,-0.18669689,0.025384229,0.15183444,-0.050196275,0.110561125,0.14072308,0.14231162,-0.08231072,0.100141376,-0.0869137,0.16177134,0.023350585,-0.027816014,-0.1196037,-0.21702303,-0.054325897,
                       0.08363793,0.006816256,0.15574402,0.08217056,-0.051210295,-0.11141411,-0.13172434,-0.0017946063,0.15318471,-0.15613677,0.097580954,0.19367982,0.088331774,-0.19818352,0.035047837,0.014895909,-0.006873414,0.08459089,-0.15678407,0.19123341,0.1631898,0.20698923,-0.10370144,-0.12328888,-0.19986871,-0.05116942,0.12677741,0.18787923,-0.17365834,-0.017406873,0.14479445,0.07113775,
                       -0.03296099,0.17201582,0.18129425,0.07727162,0.09794592,0.13125777,-0.08849126,-0.1107182,0.10097826,0.07796891,0.19416416,0.14887121,-0.00132671,0.15613124,0.10774371,-0.17344734,-0.017691057,-0.07041762,0.12834127,0.056145042,0.033494063,0.07263212,0.024871102,-0.084011495,0.12816842,0.05108517,0.18479432,-0.12634218,0.05427959,-0.11209335,-0.09027891,
                       0.11027517,0.00060530007,0.036280878,-0.043103058,-0.056689683,0.024887802,0.086316116,-0.22367491,-0.17144498,-0.19463438,0.13323711,0.017528975,0.17165464,0.03105656,-0.16271456,-0.1240829,-0.09882332,-0.18393485,0.12746103,0.030804193,0.18573385,0.039935928,-0.16562365,-0.10210075,-0.029289309,0.14037137,0.15454601,0.0524463,0.10575394,-0.1638618,-0.030990183,-0.064275324,0.1709311,
                       0.07566766,0.030832093,-0.012992137,-0.066397265,0.18325162,-0.1463723,-0.16795573,0.060636777,0.046138346,0.012748432,0.059266645,0.18178566,0.08332931,0.1261825,-0.11780414,-0.0867649,0.08337132,-0.10530585,-0.13192475,0.14407896,0.12230262,0.0056703594,-0.17306574,-0.18842444,-0.18735115,0.17774217,0.007202866,-0.14495786,-0.11079939,0.135092,-0.035284422,-0.10153184,
                       -0.0876267,-0.036495112,-0.06312197,0.01044254,-0.009780929,-0.114444435,0.19306566,-0.1813578,0.16643126,0.15737404,-0.008336183,-0.06631225,0.09792339,0.06717268,0.1616247,0.032592364,-0.025756955,-0.01084287,-0.19070849,0.022449184,-0.08879626,-0.13054822,0.021623218,0.077036045,-0.09108724,-0.14233235,-0.020378048,-0.031015968,0.011999614,-0.045889758,0.09478754,0.15391101,
                       0.099339426,-0.016729519,-0.09118377,-0.044025913,-0.081222996,-0.020453798,-0.024195785,-0.1608879,-0.09751176,0.16116576,0.09137179,-0.12447449,-0.07072842,-0.14656496,-0.135284,-0.05372746,0.17710352,0.101342455,0.1956799,-0.07556293,0.107684635,0.058592923,0.057335973,0.086014144,0.17044947,0.08879711,0.13283893,-0.08939496,-0.019497754,0.031882614,0.11536711,
                       0.2007118,-0.025547653,0.06268802,-0.029036252,-0.081327006,-0.1181901,0.18556517,0.13038132,-0.09571503,-0.20380728,0.07566481,0.021867389,0.1203219,0.11225762,0.06553324,0.13672312,0.12435633,-0.10684258,-0.009306691,-0.1194022,-0.0016661094,-0.0820812,-0.06676926,0.039404735,-0.17100386,-0.009587338,-0.15043528,-0.19667023,0.04027702,-0.004186183,-0.102936596,-0.024842113,-0.015630612,
                       0.041032065,-0.0070101614,-1.8778206e-05,0.11994004,-0.15324709,0.00597651,0.16595414,-0.18302184,0.15032384,0.13978902,0.02282001,0.121464744,-0.14340557,0.07407975,0.10693195,0.1563714,-0.08169772,-0.19002452,0.030863406,-0.0010019195,0.17873989,-0.10894042,-0.1506389,0.10840422,-0.20471057,-0.047526825,-0.11612698,-0.0018727962,0.104112625,-0.07929548,0.12481296,-0.20465687,
                       -0.0057737357,0.012268208,0.05090939,-0.05762042,-0.08200116,-0.1805898,0.18999457,0.06909986,0.15831333,0.034028467,-0.08830908,-0.09403047,0.17667603,0.09691973,0.14683373,0.1873448,0.021565935,-0.014973863,0.07551185,-0.08101447,-0.14929104,0.06149048,-0.028554497,-0.15690474,-0.12143394,0.05743837,0.13876185,0.018632654,-0.059316054,0.07555966,-0.022414379,0.1441515,
                       -0.12398099,-0.10799017,0.1138539,0.10182463,0.07870148,0.047236126,-0.09515391,0.19390415,-0.18804799,-0.0028968784,0.078457445,-0.04013952,0.00068581366,0.0931698,0.060871854,-0.18420148,0.1918338,0.039345827,-0.09413928,-0.119155146,-0.024862897,0.14529978,-0.1098065,-0.11949622,-0.1924706,0.10289287,0.18554096,0.09897796,-0.14462961,-0.1293085,-0.09586652,
                       -0.10290968,-0.2109607,-0.10602795,-0.1998117,-0.12991917,-0.19663599,0.16987875,-0.1412901,0.019962626,-0.08808207,0.08248944,0.0066726417,0.16637069,0.13491881,-0.042533863,0.07251466,-0.13847205,0.13993382,0.15334135,0.06282204,0.079055324,0.10261171,0.09273783,-0.16621053,0.1551726,0.08790925,-0.022996029,0.04266046,0.01510541,0.049260993,0.17599687,-0.07532074,-0.014864314,
                       -0.08627244,-0.1347909,0.07896263,0.11383759,-0.13765082,0.112768844,0.14255399,-0.112653226,-0.008052577,0.01692805,0.17471437,-0.17817055,-0.07528373,-0.019822445,0.09586251,-0.121016145,-0.12903704,-0.15406856,-0.06043562,0.05842453,-0.1486345,-0.109499164,0.022769582,-0.013894167,-0.115604214,0.025285473,0.17546465,-0.029263493,0.0046678483,0.106186815,0.038904987,-0.10716833,
                       0.19680165,0.03576299,0.13269998,0.19207868,-0.04854977,-0.22104111,0.044605713,0.04847956,0.05750352,0.17390378,0.059841946,-0.04186216,-0.12506628,-0.068259545,-0.08169636,0.12654546,-0.064698115,0.08863878,0.12446566,0.0013174322,-0.20652598,-0.089677595,-0.19205678,-0.15114695,-0.18800525,-0.013527432,0.09019299,0.18248248,-0.034299195,-0.16349596,-0.09428037,-0.01079725,
                       -0.16683976,-0.10914255,-0.00886156,-0.085815735,0.17814687,0.12861264,0.13577399,0.1365231,-0.1997609,-0.052875716,-0.1349782,0.0056424914,0.025726078,-0.0633842,-0.013488044,-0.11024295,0.00555368,-0.14381625,0.1815817,0.002554575,-0.014402339,-0.111804016,0.16294059,-0.11776275,0.1032202,0.019861484,-0.12062422,0.03296359,0.09487995,-0.043497298,-0.1508031};



float saved_biases[5] = {-0.010473903,-0.0012006547,0.0081612365,-0.002724024,0.004169082};
