0.004964505,0.24496533,0.5229814,-0.033654556,0.029471623,0.04804398,-0.10912266,0.027879002,0.042689193,0.025021838,0.025967313,0.046262164,0.010454829,-0.027165528,0.5199637,0.06674791,0.01547405,0.1398429,-0.04636204,0.061129265,0.029830392,-0.009729013,0.088410884,0.14365576,-0.09796488,-0.1312152,0.5819464,-0.17566508,-0.10637309,-0.1944128,-0.105746895,-0.040671665,-0.011705638,-0.020877825,0.026626213,-0.22634074,-0.1867339,-0.25512946,0.6023095,-0.06986812,-0.2637923,-0.07361902,-0.15907276,-0.16128322,-0.07457589,0.014781485,-0.049359325,-0.18225509,0.011930802,0.25832397,0.5005069,-0.14550522,-0.2543403,-0.113346964,-0.19520706,-0.104158275,-0.30025896,-0.029579615,-0.10375885,-0.013993626,0.066572994,-0.26253527,0.3252073,0.08587582,-0.27287346,0.13625044,-0.045673437,-0.055226065,0.121143445,0.070768006,-0.24579915,0.07829116,-0.30999577,-0.6106002,0.42996794,-0.065875426,-0.27443472,-0.1677685,0.13080943,-0.0030203839,-0.013338239,0.03535036,-0.05038811,-0.17040737,-0.33903593,0.14300764,0.4186252,-0.2592135,-0.1483569,-0.40777278,-0.14757791,-0.05822401,-0.27066916,0.03214706,-0.20163624,-0.34537205,-0.08972688,-0.03880919,0.44693384,0.069793776,0.09297433,-0.27062604,-0.3518775,-0.27163807,-0.36554524,0.049883634,-0.31201836,-0.11864078,-0.2749836,-0.22747421,0.5348635,-0.20058686,-0.25980803,-0.20826817,0.004433502,0.035057746,-0.03385286,-0.07284437,-0.0906538,-0.14928253,-0.25289878,0.14082532,0.4980322,-0.17547245,-0.07675624,-0.34247133,-0.17028446,-0.24411516,-0.29894423,-0.04356947,-0.20259747,-0.3226954,-0.088986054,-0.06690081,0.59433323,-0.06575345,-0.017738864,0.0067502456,-0.10567225,-0.010226038,0.044973053,0.0036061318,-0.07767646,-0.07348002,-0.07127246,0.01361968,0.50895786,-0.030703867,-0.050615303,-0.06666001,-0.03322981,0.023913981,-0.06755047,0.0011923148,-0.061717693,-0.0059747198,-0.05190548,0.28863493,0.5862452,0.004890034,0.0627741,-0.057728443,-0.07770855,0.05828194,0.06412427,0.034420356,0.030610606,0.06850091,-0.21079719,-0.28428292,0.57643944,-0.30656973,-0.2007571,-0.22316064,-0.014703505,-0.03839863,-0.09137991,-0.02258652,-0.05792632,-0.43249622,-0.03525694,-0.24757138,0.61932224,-0.05694214,-0.012604141,-0.04298798,-0.11161978,-0.32190928,-0.29528815,-0.0035371291,-0.36680123,0.003954865,0.057724282,-0.083540246,-0.09327781,0.1517861,0.07832102,0.08181375,-0.13498308,0.021825055,0.0760783,-0.18994248,0.0011434399,0.033114728,0.107813105,-0.11658315,0.013104364,0.009795089,0.04782861,-0.04144591,-0.27133006,-0.014695051,0.044448,-0.11187442,0.091295525,0.08033277,-0.15272722,-0.22197741,-0.043775376,-0.17691632,0.11322578,-0.10752002,-0.025285369,0.14708877,0.0036011282,-0.18508066,0.059299566,-0.010425693,0.029032009,-0.10483298,-0.17088825,-0.002447604,-0.0112449955,-0.1075796,0.29954532,0.08135735,-0.17484392,-0.42252755,-0.005596515,-0.06258788,0.01317423,0.243895,-0.026650038,-0.31473067,-0.26106244,-0.16403511,0.13428128,-0.1919264,-0.17152005,-0.03542402,-0.16707216,-0.25754508,0.074608415,-0.14952864,-0.030389797,-0.10792169,-0.08270351,-0.14872153,-0.39011827,-0.34575257,-0.27873856,-0.046525747,-0.37717822,-0.10852689,-0.4514462,-0.13343254,-0.03280885,-0.10206412,-0.14802688,0.046816684,0.103028335,0.09385411,0.11457099,-0.15369137,0.064976424,-0.04615031,-0.34992036,-0.34746063,-0.0031632895,-0.4212066,-0.16530058,-0.32871726,-0.19866438,-0.2917291,-0.22935027,0.025379885,-0.24989183,-0.28228664,-0.35340825,-0.117633075,0.239086,-0.17353277,0.02363041,-0.17502737,-0.28389144,-0.18401173,-0.07771124,0.028843261,-0.16909553,-0.19958818,-0.104457825,0.02696279,0.5158526,-0.19567521,-0.12902637,-0.1613501,-0.20705703,-0.07452585,-0.1333488,-0.06085879,-0.14915796,-0.1626443,-0.060780562,-0.022136707,0.5152847,-0.06674318,-0.0803716,-0.059427433,-0.03340317,0.03282148,-0.06068659,-0.07706997,-0.036368184,-0.036321506,0.0072974055,-0.10124567,-0.26943862,-0.21311443,-0.07947031,-0.20900933,-0.09975678,-0.23060264,-0.23370174,-0.17138216,-0.22539936,-0.0205663,0.07643167,-0.057270933
-0.5442929,0.021444404,0.01327818,-0.071099296,-0.19638331,0.16367906,0.0007930813,-0.38639024,0.116723746,0.06841977,-0.030931264,-0.12289864,-0.16496581,-0.20115115,-0.08969512,-0.12336895,0.043418907,0.13689831,0.007034537,-0.17411956,0.19281234,-0.1284615,-0.058492575,-0.22756429,-0.5579664,0.0390082,-0.07125378,0.008661932,-0.41277927,0.017571265,0.035852678,-0.5208366,0.02491555,-0.05918367,-0.18700303,-0.6467576,-0.31203863,0.025146272,-0.18335061,0.060838707,-0.011376657,-0.061508507,0.02423664,-0.47346538,0.0063221348,0.062067855,-0.031987227,-0.19511141,-0.046408784,-0.056305025,-0.14097607,0.018976822,-0.08218044,0.0059099747,-0.026022587,-0.019013733,-0.09662501,-0.087260805,-0.24953482,-0.29454738,-0.11301165,-0.12393084,-0.11485048,-0.06315842,0.15425384,-0.1510099,-0.031840697,-0.14170556,-0.17050053,-0.08184728,-0.4196902,-0.094260246,-0.19880798,-0.15275142,-0.17738493,-0.15248843,-0.27616426,-0.097669646,-0.031913053,-0.13144794,-0.16281377,-0.18732437,-0.19702,-0.09072304,-0.13667837,0.09725877,0.07235005,-0.023009015,-0.14963083,-0.0043249843,-0.087580144,-0.16345884,-0.15332992,-0.00685862,-0.3190205,0.2833956,-0.005922278,-0.14115155,-0.12625,0.0011186559,-0.051733483,-0.29405308,-0.050161377,0.19030905,-0.21476704,-0.001854325,-0.32120475,0.18121083,-0.49005988,0.0034387123,-0.19176422,-0.011564657,0.036843106,-0.04340397,-0.030661108,-0.19237193,-0.15284325,-0.1499842,-0.22134411,-0.07108797,-0.60182846,-0.22754337,-0.33069456,-0.013256152,-0.18239573,-0.094641834,-0.013557687,-0.10100676,-0.16553397,-0.17556004,-0.03939108,-0.09832456,0.50191027,-0.09535895,-0.097076304,-0.10120778,-0.028317286,-0.062794976,-0.045029156,-0.068034254,-0.027841091,-0.049889185,0.020018607,-0.02712126,-0.17720173,-0.272171,-0.07827898,-0.27612758,-0.09463545,-0.2808741,-0.16129091,-0.08538274,-0.22920375,-0.012758322,-0.0006999189,-0.025322732,-0.4068194,0.12923001,0.026506696,0.08564944,-0.1715766,0.054901466,0.076849386,-0.28213578,0.097049676,-0.056713138,0.09018961,0.018716492,-0.20515849,-0.1784541,-0.048219062,-0.07188548,0.049690578,-0.14950357,-0.108229734,-0.13745572,-0.0812704,0.002611861,0.06807551,-0.0063704955,-0.25806004,0.030596381,-0.086591,-0.014348737,-0.018489705,0.017570563,0.14327997,-0.32194215,0.12311824,0.040068015,-0.21295658,-0.2711097,-0.24506196,0.10742073,0.06875046,0.048293862,0.19942933,-0.014920976,-0.09545479,-0.3018884,-0.07259065,0.0033234085,-0.13342412,-0.16173819,-0.061334208,0.04984786,0.013285839,-0.004759768,-0.06799638,-0.0025967106,-0.0030495585,-0.13126919,0.040256087,0.05375411,-0.19096743,0.0049072704,0.13449676,0.046646655,-0.0066454485,0.09447526,-0.10558241,0.028050914,0.058673497,0.14876284,0.011408484,0.0507903,-0.18649375,0.19357778,-0.13293803,0.0986866,0.040980466,0.057328243,0.18134023,-0.029297804,0.09270604,0.19882324,0.062460613,0.09549462,-0.4053722,0.48439988,-0.39055243,0.18799752,0.15222715,0.1135958,0.08900858,0.020140678,0.01888896,-0.21503681,-0.0953198,0.15732309,-0.4922112,0.44985068,-0.08702443,0.0803465,0.07955125,0.05607425,0.13465446,-0.005177135,0.080166474,0.25096923,0.022500116,0.19197546,-0.49281475,0.4472164,-0.11272208,0.12059158,0.13417913,0.058876507,0.21978676,-0.10304527,0.01595019,-0.013924514,0.023495136,0.18943167,-0.13201688,0.23583564,-0.15309833,0.06171975,-0.16851346,0.010447394,-0.02896091,-0.17534073,-0.19023289,0.045170564,0.05688047,-0.21925707,0.053163964,0.2487066,0.5344345,0.26749268,0.14441068,0.12637891,-0.10198708,0.027544154,-0.08450846,0.058537774,0.13769011,0.14476274,-0.09754261,0.008107342,-0.38705602,-0.30528554,-0.06295401,-0.15726258,-0.054877117,-0.03836575,-0.044978965,-0.14855625,-0.1429997,-0.09407162,0.3257418,0.18638068,-0.6533461,0.102759086,-0.009701817,0.058486108,0.10481138,0.14905293,-0.054485187,-0.27286386,0.012107992,0.14500332,0.14977702,0.012907828,-0.5717045,0.045487247,0.08648155,0.004409562,0.027689861,-0.053787276,0.06405201,-0.40971312,0.12577102,0.085810825,0.0035518627,-0.10177058,-0.20021711,0.028078968
0.02710867,0.03646033,0.29990903,0.20479207,0.090642504,-0.3769532,0.04950206,0.030866163,0.098734125,-0.10042767,-0.26919556,-0.050098248,0.008081891,0.05579555,0.116125666,-0.018456291,0.0731129,-0.19946714,0.08779213,-0.03050116,0.08859238,-0.04835459,-0.13510673,0.10483073,0.027505873,0.07417803,0.11144053,0.12363201,0.08736195,-0.09383669,0.14232163,0.1125056,-0.1365091,0.26091516,-0.14752726,0.21080174,0.14970633,0.09958013,0.13313228,0.08010488,0.019969163,-0.028895237,-0.028846981,0.09674355,-0.38347685,0.29324853,-0.054040078,0.08257117,0.108869836,0.11530396,0.26982704,0.028455617,0.03259952,0.13370548,0.00018577461,0.086384475,-0.34418994,0.46825513,-0.39603832,0.23197617,0.118025124,0.200152,0.3746105,0.02581207,0.037372407,0.11617225,-0.06162944,0.111269735,-0.192924,0.47344095,-0.1520554,0.1897528,0.12230574,0.09811906,0.3608335,-0.019799188,0.02800244,0.23243277,0.02278089,0.17839248,-0.019135311,0.35035276,-0.13940196,0.2983088,0.15667377,0.18603726,0.2614028,0.104862735,0.13321981,-0.099687226,0.1486238,0.25915805,-0.11044646,-0.77072823,-0.5168986,-0.18448423,-0.17190386,-0.090833046,0.22957164,-0.033781845,-0.18534318,-0.29979682,0.13634165,-0.0496971,-0.06285507,0.117248125,0.39432898,0.118231095,-0.097320825,0.07174996,-0.019014305,0.23959626,0.02115459,0.06789702,0.10482882,0.051369835,0.2502014,0.120722584,-0.119511716,-0.07835509,0.010896396,-0.16599308,0.028105343,-0.06966503,-0.053658694,-0.13273336,-0.09251941,0.1325257,0.31255654,0.2172417,-0.51748055,0.18256113,0.048030086,0.2355183,0.09092567,0.24804012,0.19185986,-0.1890307,0.19269162,0.1204037,0.20045575,-0.046087332,-0.3622616,0.12377021,0.13929565,0.1563656,0.3832386,0.015315748,0.1832228,-0.26323184,0.15630315,0.13690405,0.31447506,0.097155765,-0.39038646,0.02979765,-0.039407752,0.14047204,0.40946755,0.17335708,0.082019575,-0.34504554,0.15658633,0.08265521,0.0056098434,-0.23857537,-0.5293914,0.015635785,-0.016218096,0.08732692,0.3122379,0.19235611,0.18006241,-0.48803568,0.12701046,-0.09651611,-0.361841,-0.07190449,-0.12932496,0.014352923,-0.055681467,-0.1263103,0.35800564,0.054238576,-0.105176866,-0.23657179,-0.044137124,-0.10195599,-0.2358704,0.4464296,0.013063182,-0.026810568,-0.09994086,-0.015920883,0.29119998,-0.027098615,-0.031272717,-0.02723077,-0.09913798,-0.033619642,-0.1447915,0.2874326,-0.25133258,0.22116654,0.0468973,-0.042058043,0.20731278,-0.075906165,-0.18063514,-0.06335343,-0.18535747,0.030696955,-0.026863866,0.19117583,-0.4017972,0.031850293,0.051115885,0.06985765,0.15763734,0.06709259,0.07773185,0.039594166,0.0009876344,0.032547507,0.31981835,0.37044492,-0.61754024,0.2657845,0.23689601,0.19491538,0.306438,0.2162325,0.0537124,-0.15626122,0.12115342,0.19189104,0.19565304,0.50490326,-0.49394324,0.32011402,0.175526,0.23097478,0.34504843,0.34516907,0.14448449,-0.2839764,0.18937674,0.05746513,-0.34400347,-0.7634734,-0.668593,-0.1936553,-0.02220748,-0.081711754,0.29926595,0.0269129,0.04028021,-0.4556046,0.10411689,0.16568373,-0.28456798,-0.11803664,-0.063738644,-0.13807815,-0.07541738,-0.200604,-0.11367647,-0.066749305,-0.06928355,-0.03613789,-0.050000593,-0.15185434,0.30616277,0.27091396,-0.28524393,-0.08518891,0.0832547,-0.11934948,0.1996072,-0.117661424,-0.19984713,-0.01684845,-0.10558164,0.19895676,0.27025187,0.027694777,-0.9334614,0.18983842,0.06441459,0.16004752,0.35048553,0.49697998,0.3065381,-0.4421322,0.33317232,0.0006493985,0.29517573,-0.20191301,-0.7022709,0.18595417,0.15731125,0.094210394,0.40569228,0.24216685,0.26972744,-0.7345018,0.24934395,0.14866926,0.32993707,-0.024643034,-0.35901523,0.14657083,0.095243506,0.19480397,0.6141702,0.31645668,0.24647318,-0.51038086,0.18255438,0.16140842,0.0117893135,-0.3179572,-0.78983104,0.20365548,0.04757012,0.19741039,0.5697624,0.1858135,0.2028121,-0.793114,0.03391852,0.0047903466,-0.22927852,-0.3322011,-0.45675,-0.0055255573,-0.21637014,0.023396522
0.78359854,-0.018327605,0.038694173,-0.5273944,0.07530588,-0.14162987,0.069639124,0.17779605,-0.48845255,-0.17098317,-0.13660632,-0.22567473,0.17195794,-0.27436346,-0.31177574,-0.33843708,-0.36723602,-0.23039141,0.33928332,0.3219139,-0.42703167,0.09528834,-0.022180513,0.03056802,0.2124807,0.10401971,0.048132297,0.060609657,0.03880273,0.05353206,0.07438121,0.017786704,-0.25004014,0.020476988,0.11292657,0.07875031,0.08671103,0.03098531,0.15684831,-0.1089045,0.08507906,0.085288875,0.0019434245,0.30371976,-0.2674595,0.15274146,0.08224482,0.16419914,0.3287469,0.16876958,0.008715327,-0.13658592,0.09022856,0.11880451,0.18547349,0.41604647,-0.2507563,0.18445404,0.18245372,0.19353583,0.297557,0.22268103,0.17442088,-0.28864494,0.124188855,0.21117298,-0.18518724,-0.81647384,-0.44719478,0.075985,0.09263874,0.11286648,0.33061045,0.121205464,0.07211411,-0.4939365,0.17851521,0.34153536,-0.25076512,-0.43571162,-0.5622687,-0.13675714,-0.28850985,-0.14468831,-0.07575371,-0.20165743,-0.31973115,-0.28072813,-0.5688459,-0.22472714,0.18353339,0.16140829,-0.28374586,-0.025197044,0.018640606,0.07021759,-0.043056127,-0.11354527,-0.0049021137,-0.0319386,0.012418633,0.12239555,-0.045727514,0.12839362,-0.44623074,0.11162035,0.11308836,0.09871867,0.24150373,0.10029875,0.11905713,-0.14868444,0.15606232,0.14143834,0.25447884,0.07305229,-0.70957804,0.0856897,0.045728944,0.14592402,0.6534662,0.28888968,0.18795134,-0.46651423,0.3211049,0.038580846,0.28529772,0.11814475,-0.69026375,0.24399704,0.12743853,0.19605622,0.27795073,0.34546992,0.07301102,-0.65262216,0.21441373,0.14924097,-0.20902716,-0.26754522,-0.47388983,0.13656622,-0.009206417,0.100756265,0.53242785,0.1560348,0.11113989,-0.67002815,0.019403365,0.044324435,0.30832145,-0.17064132,-0.30204102,-0.23706713,-0.15448515,-0.121251784,0.7679464,-0.32177505,-0.31176585,-0.30315942,-0.21925333,-0.19448635,0.2292116,0.04684643,-0.6361579,-0.17593427,-0.23101671,-0.092512555,-0.27789453,-0.17467672,0.0077196695,-0.43316385,0.02326232,-0.084248714,0.18971772,0.18197885,0.033590056,-0.011203485,-0.033516217,0.005391691,0.28862235,0.1667979,-0.038383305,-0.049349777,0.094813704,-0.13624139,0.35258335,-0.02883825,0.065574184,0.07484649,0.10806816,0.0063225133,0.2628068,0.20050247,0.10792118,-0.0507194,0.12388186,0.0011797345,0.4621998,0.15792662,-0.046334952,0.101761766,0.03636967,0.042691402,0.09899536,0.060262054,-0.07454013,-0.21534468,0.00263918,-0.063957386,-0.22337182,-0.07056955,-0.28208864,0.18243417,0.120368846,0.13442196,0.13507806,0.26644748,0.2811871,-0.2820553,0.16740747,0.1785267,-0.08481162,-0.6626917,-0.4013774,0.112266034,0.18299346,0.18040136,0.21707849,0.14313793,0.05818007,-0.266742,0.20604964,0.18010119,-0.2537254,-0.27658868,-0.22112696,-0.06746421,-0.280823,-0.080582716,-0.081477195,0.03502352,0.042572495,-0.24120505,-0.16598205,-0.26675776,0.037162814,0.088537686,-0.029654972,0.1214995,0.049268037,0.0051473044,-0.09349319,0.17021729,0.1917155,0.049315825,0.24082895,0.042002693,-0.056810282,0.07420788,-0.1653105,0.079240866,0.075959556,-0.054507997,0.2293366,0.0637183,0.022257071,-0.015223989,0.10490567,0.007770978,0.009191486,0.21701802,-0.52437603,0.2065533,0.117654495,0.073505305,0.36150545,0.01470724,0.12638192,-0.19007988,0.025107104,0.117296435,0.18666817,-0.04824326,-0.4684224,-0.09332528,0.052073676,0.01493912,0.24721473,0.13689733,0.039299697,-0.2365796,0.12474412,-0.006361503,-0.031856604,-0.38964805,-0.54776835,-0.0065206503,0.04974466,0.05159686,0.41042918,0.18315856,0.004002494,-0.49852315,0.09302416,-0.07440478,0.2806051,-0.17294124,-0.44362682,-0.24289668,-0.17077781,-0.12241025,0.2760902,-0.24129087,-0.16684759,-0.26261175,-0.113115735,-0.124714985,0.1305891,-0.09797331,0.12568405,-0.11611739,-0.13908158,0.026577324,0.043813914,0.06909827,0.03205968,0.085978664,0.09924975,-0.013116197,0.38418913,-0.0036191908,0.12651323,-0.08085762,-0.092251614,0.009812523,0.12180688,-0.02303388
-0.008101537,0.0879397,0.049021482,-0.06638368,0.5566746,-0.16600706,-0.1005832,-0.014994464,-0.030771283,-0.08076626,0.15139675,0.13221294,0.086285695,-0.24265893,0.004092559,-0.12696548,0.38480562,-0.19482991,-0.3484294,-0.046714477,-0.055965114,-0.13216569,-0.15650678,0.018410204,0.05103115,-0.39525104,-0.027561957,-0.028606223,0.039623473,0.058349106,-0.15877779,0.17986605,0.16038412,0.18191348,0.09364851,0.24592438,0.17919385,-0.16842802,0.10946993,0.08579819,-0.1017295,-0.27876008,-0.24086554,-0.05771177,0.04464758,0.02620894,0.17195323,-0.067951635,-0.056159057,-0.07286317,-0.014325586,0.13545066,-0.028011642,-0.100958854,-0.41417715,-0.36138117,-0.08000099,-0.19839656,-0.061400644,-0.26696867,-0.4205847,-0.0756227,-0.36792716,-0.1663434,-0.08715019,0.09596727,-0.15107,-0.15514672,0.009887567,-0.020071337,-0.11968809,0.13705319,0.10003157,0.07202259,0.02389584,-0.1693634,-0.0055413204,0.020235624,-0.35230848,0.025406774,0.019248437,-0.09609938,0.2091635,-0.07195759,-0.05811623,-0.1512015,-0.06355272,0.016122969,-0.22544302,0.10621644,-0.31783336,0.0047946093,-0.02648026,0.022947235,0.36079544,0.029602641,-0.052496992,-0.052107397,0.06864868,-0.04174903,0.10547844,0.1902797,-0.2531092,0.06291319,0.08687913,-0.036483817,0.2607389,-0.019934358,-0.073470324,0.14035746,0.0065270113,-0.002295697,0.016347112,0.15128538,-0.1839836,-0.0055782213,0.02136161,-0.017338654,0.087634474,0.043487366,-0.0683917,-0.00066044787,-0.000510059,0.03178506,0.1303179,-0.5040781,0.039996862,-0.07591981,-0.044331342,-0.08798088,0.364172,0.1026486,0.07471897,-0.2092054,0.0048195785,-0.091984004,0.27441904,-0.25846758,0.058267202,-0.047093153,0.016143557,-0.06857294,-0.11123986,-0.050692968,-0.10433131,0.03212143,0.034809805,-0.05332652,0.20425205,-0.26774168,0.10289834,-0.092863284,-0.044648945,-0.013312048,-0.29303133,-0.040520664,-0.055253662,-0.03711531,0.037758663,0.007577416,0.024321048,-0.57273936,-0.11819804,-0.11681418,0.029126886,0.016025968,-0.13173895,0.019448772,-0.007786866,-0.10386456,0.08094726,-0.12348993,0.09650869,-0.34712553,0.03543151,-0.012494904,-0.011904033,-0.07106465,-0.11104546,0.12992862,0.008261264,-0.092446715,0.024025423,-0.075365245,0.102570616,-0.1722371,0.10615228,-0.011615523,0.062752806,-0.037125982,0.052126523,-0.049505245,-0.03254909,-0.118562885,-0.060444683,-0.0053616962,0.031526007,-0.40284783,-0.08629698,-0.15570258,0.0669857,-0.04334126,0.1574464,-0.24054505,0.030346619,-0.13661091,-0.033160012,0.17258854,-0.15465733,-0.12828839,0.07104118,-0.039443966,-0.2777712,-0.16655247,-0.04623752,-0.29753566,-0.161292,0.0001857564,-0.0518341,-0.10364353,-0.13452713,-0.15841585,-0.16464978,-0.09765508,-0.02784031,-0.19276386,-0.11377708,-0.17398006,-0.21705851,-0.05926222,-0.25447154,-0.15230021,-0.063035,0.12648685,-0.1987411,-0.07667876,-0.067659505,-0.046844095,0.021920387,-0.14848745,0.075010575,0.036577225,-0.0870719,0.049644113,-0.4992942,-0.07486349,-0.33459663,0.033335775,-0.053058844,0.062067468,0.099078566,-0.00016521962,0.041049544,-0.27606073,-0.12541185,0.06869581,-0.3227415,0.080388136,-0.08940878,-0.013515432,-0.13568112,-0.060115248,0.35940722,-0.089009464,0.023779783,0.022784634,0.025977721,-0.059505794,-0.31397447,0.18287697,0.15165177,0.032776877,0.10528617,-0.012007823,0.22820467,-0.062106527,-0.043666575,0.2676446,-0.03993257,0.014025589,-0.106568985,-0.16252925,0.023437029,0.0049901507,-0.00858583,-0.02386724,-0.24313328,-0.15661798,-0.07055566,0.050714668,-0.0994205,0.048533488,-0.12965748,-0.61786336,-0.08571249,-0.078330725,-0.14044388,-0.014542598,-0.2537889,0.10470157,0.05187904,-0.19007733,0.04419351,0.0006571776,-0.20743307,-0.42012075,0.0028498883,-0.085829616,-0.017463528,-0.14130566,-0.29699627,-0.055302784,-0.06000399,-0.1314368,-0.06155744,-0.025827227,0.058372892,-0.44541243,-0.07347744,-0.026276665,-0.02680972,-0.051236384,-0.31184214,-0.12120541,0.011037057,-0.2325965,-0.112046294,0.10049574,-0.09421222,-0.60201895,-0.22047734,-0.10056354,-0.09583027,0.027999142,-0.30432525,0.15015496,0.13777865,-0.40986606
0.054952916,0.038055997,0.12721409,-0.5399709,-0.18001549,-0.13938726,-0.04731294,-0.045190305,-0.16047642,0.14906341,0.07389442,-0.31059808,0.1669364,-0.023346584,0.0094533255,-0.022838444,0.2496012,0.04619292,0.057965018,-0.24518438,-0.03252272,-0.26447362,-0.13706051,0.014798787,-0.23266612,0.013560517,-0.12980981,-0.3391022,-0.2501893,0.0059848586,-0.21887322,0.004867608,-0.12078654,0.06441853,-0.11872193,-0.26770976,-0.18609485,-0.20114407,0.14497615,-0.109301746,-0.18499586,-0.3640943,-0.38821718,-0.33056483,-0.0053983536,-0.28561467,-0.21505013,-0.1515593,-0.013228746,-0.23759817,-0.24527963,0.09084221,0.026460316,0.05693448,0.010978903,-0.0011730333,-0.16386846,-0.05171992,-0.049866788,0.10490398,0.053759154,-0.15954667,-0.3104085,0.13182305,0.03694433,0.111843325,0.11044346,0.00035529747,-0.39212778,-0.108152784,-0.07235534,0.12955132,0.05313677,0.0032779672,-0.32348904,-0.024223674,0.14649598,0.16331553,0.11368006,0.05840169,-0.15871304,-0.037900165,-0.072645135,0.16341086,-0.042201933,0.034551658,-0.074221246,0.052857947,0.1540952,-0.0649148,0.07939516,0.033037003,0.05432533,0.03440977,0.06017243,0.05375573,-0.037352055,0.00030786582,-0.61527187,0.06555669,0.03362204,0.029396743,0.026873203,0.040225975,-0.31026152,0.12322078,0.10611872,0.048922032,0.034258865,0.14730603,-0.24862997,-0.20618686,-0.01830667,0.051906023,0.06350684,0.024678381,-0.40845746,-0.10008661,0.027580675,-0.020125175,0.0006312599,0.20719226,-0.37754446,-0.34320033,-0.06284185,-0.11504335,-0.06799933,-0.012549836,-0.18784463,0.05533322,0.24417132,-0.13104649,0.025024613,0.087991044,-0.24750723,-0.03332567,-0.037354328,-0.1337608,-0.074475095,-0.2682933,-0.37041926,-0.189935,-0.08524465,-0.096588016,-0.07496953,-0.29870498,-0.1320506,0.022229016,0.21483764,0.069986,-0.05831732,-0.15485853,-0.21522613,0.07214167,0.11592287,0.13364802,0.06379491,-0.32060143,0.029416857,-0.40234044,0.006630721,-0.10770038,-0.078757204,-0.27990082,-0.09429516,-0.2518747,-0.33322972,-0.13081695,-0.39228383,-0.3183926,-0.01640101,-0.27672604,-0.019424757,-0.24658337,-0.29798767,-0.22282614,-0.09260031,-0.22306691,-0.097279556,-0.07369002,-0.17783019,-0.32301623,-0.075262375,-0.05952591,0.5256198,-0.060307387,-0.029835174,-0.07102636,-0.10999388,-0.05127402,-0.01793171,-0.050390597,0.011509371,-0.009528853,-0.11066786,-0.03849822,0.034191087,-0.080157064,-0.13331267,-0.089449346,-0.09403012,0.26716763,0.28515276,-0.021636782,0.3138809,-0.08457827,-0.05124787,-0.27141398,-0.2630599,0.1640601,0.016050734,-0.11501807,-0.06018434,-0.07616337,-0.26269206,-0.19822837,-0.31771588,-0.17946896,-0.17254813,-0.17099996,-0.089893416,-0.21080269,-0.27750185,-0.3488248,-0.21529123,-0.10916502,-0.15913203,-0.0984583,-0.18331298,-0.31268674,-0.20228022,-0.028034654,0.008770117,0.02916848,-0.07017009,-0.2735467,-0.312851,0.20963793,-0.31840438,-0.112641975,-0.28996456,-0.3017234,-0.09173389,0.0955167,0.15145858,-0.050485596,-0.08136945,-0.32308447,-0.21437639,-0.09638048,-0.23818363,0.018810252,-0.1478843,-0.34651563,0.038894974,0.14047325,0.18426304,-0.08990765,-0.03927674,-0.18909015,-0.104947194,-0.04632946,-0.06516656,0.014997998,-0.06328288,-0.122849815,-0.26450542,0.13801141,0.15398553,-0.07365891,-0.084596045,-0.16433282,-0.32054156,0.22760554,-0.24577555,0.025962614,-0.05122681,-0.3123474,-0.07692805,0.038179114,0.1303339,0.24881433,0.059054445,-0.13979656,0.020391814,-0.3096481,-0.36994195,-0.08234118,-0.55330443,-0.25165614,-0.027564513,-0.4202016,-0.2939549,-0.36077887,-0.40277493,-0.37810427,-0.20444164,-0.50610745,-0.1573625,-0.3389867,-0.44517764,-0.400534,-0.14887741,-0.4721399,-0.556863,-0.21747689,-0.21855374,-0.14930378,-0.12106482,-0.41181654,-0.1991464,-0.0845076,-0.3958576,-0.1376253,-0.10127471,-0.40829566,-0.31590188,-0.26941624,-0.1902993,-0.15070376,-0.13738282,-0.3336418,-0.18420658,-0.07330692,-0.19394556,-0.053672023,-0.07942301,0.007588078,-0.048251223,-0.07058115,-0.13447684,-0.052452754,-0.049702413,-0.034843314,-0.063648544,-0.054167323,-0.04275242,-0.032271877
0.28477344,0.031315874,0.5913658,-0.011835902,0.010516433,0.07447022,0.29219827,0.06985575,0.08869524,0.2139029,0.027995711,0.033483688,0.24620846,-0.069178626,0.61251587,0.001282217,0.080976896,0.055458974,0.22382587,0.0030061167,0.0025894162,0.26955545,0.004673646,0.0024310844,0.2799107,-0.093010485,0.58955383,-0.07171506,-0.02739406,-0.0878143,0.23005703,0.027436528,-0.07600928,0.22924614,0.02922503,-0.10087846,-0.006726936,-0.36975282,0.5963708,-0.32885012,-0.36690962,-0.26118383,0.30086666,-0.068385266,-0.18166324,0.27647066,-0.09237893,-0.35268748,0.25250313,0.020988608,0.784611,-0.3107728,-0.46319437,-0.38907853,0.113004945,-0.15374951,-0.2841338,0.37878475,-0.24015516,-0.3010774,0.31849676,0.4014878,0.7562756,-0.045839146,0.4189737,-0.2311344,0.1038948,-0.45227844,-0.33304507,0.33173665,-0.1828646,0.1826679,-0.024222588,0.49586,0.56961733,0.018365348,0.42549685,-0.13232037,0.42133006,0.24241562,0.22304967,0.2284214,0.43658304,-0.0072260606,0.30465537,-0.0424967,0.14030215,0.15788133,0.36566338,0.024019765,0.25189406,0.177431,0.082189806,0.14644232,0.36323208,0.096814275,0.27057415,0.25362328,0.5228179,0.12279016,-0.118145056,0.0017893289,0.35525873,0.3082252,0.2192355,0.18548006,0.31741056,0.009966264,0.075141,-0.08470422,0.5182293,-0.017195508,0.08763431,-0.38990563,0.2955353,0.07201657,-0.3322119,0.27259225,0.15716955,-0.35745105,0.108556576,-0.24066412,0.5843685,-0.20193672,-0.2949436,-0.45639706,0.10855656,-0.37389016,-0.4998122,0.24588966,-0.34172878,-0.55397195,0.240812,0.06895029,0.5944553,-0.18077594,-0.16697648,-0.32019547,0.13354743,-0.2846276,-0.33238488,0.2530552,-0.3523302,-0.24875133,0.27959582,0.05283979,0.57788044,0.07798176,0.06431235,-0.053639024,0.22865655,0.020193206,-0.063458085,0.29129854,0.02469508,-0.04665253,0.30339682,0.15350889,0.5838773,0.03781287,0.09256014,0.08564108,0.24022219,0.102657616,0.10692807,0.21286811,0.05795683,0.07069381,0.32750726,0.4585742,0.5876496,0.19355649,0.18401785,0.19079132,0.23496838,0.014123358,0.04109177,0.20777985,-0.004801219,0.32239488,0.33447373,-0.08996801,0.5952746,0.3930964,0.17562301,0.35180464,0.3433153,0.21259104,0.30320433,0.22430539,0.0477536,0.22187376,-0.3234702,-0.21254677,-0.30202693,-0.2421937,-0.095220774,-0.06385479,0.36891258,-0.093618065,-0.10286717,-0.0106938975,-0.15268736,-0.25444576,0.12556842,0.36498135,-0.07191742,-0.124951124,-0.26925248,-0.11091998,0.6462961,0.51403546,-0.06640276,0.19180739,0.28336692,-0.23416354,0.16321178,0.3192033,-0.91915697,-0.08233616,-0.098081976,-0.07863277,0.34053105,-0.09660628,-0.1632093,-0.3823184,-0.20377657,-0.032229304,0.20080683,0.12877694,-1.2032903,-0.044409495,-0.08640879,0.034173455,0.48228556,-0.042976648,-0.056433883,-1.1189021,-0.056839753,-0.02678379,0.33896834,-0.14533564,-0.5234922,-0.14200728,-0.19305788,0.0053892047,0.28501248,0.13527055,0.12482037,-0.57670057,0.16454831,-0.08861414,0.22808017,0.6162798,-0.34188664,0.03831159,-0.08161851,0.11366577,0.32009602,0.1007952,0.051627953,0.1642143,0.1412241,0.029225912,0.5292102,0.32242033,-0.399721,-0.11689138,-0.3631731,-0.010628946,0.26782593,0.06783185,0.01228522,0.16763952,0.10248949,-0.13319115,0.36099228,0.2713573,-0.3321915,-0.18432757,-0.20610228,0.06561234,0.062198658,0.18846764,0.14875157,0.09198249,-0.07880905,-0.026584815,0.10518437,0.038188115,0.37415066,-0.054535463,0.019010508,-0.0021531645,0.035162557,0.07282753,0.073420115,0.2765901,0.023989946,-0.12979428,0.23024544,0.07219909,0.34280178,-0.056970447,-0.13316154,-0.2652191,0.08569021,-0.27159142,-0.282535,0.30238342,-0.2565728,-0.12229276,0.0887468,-0.36985686,0.65998363,-0.3303062,-0.21838234,-0.28745636,0.23671691,0.021820372,-0.09722663,0.34293345,0.029738085,-0.27390012,0.24402308,0.3171458,0.6188797,-0.23428212,0.13388093,-0.3331578,0.1318546,-0.35695347,-0.17738703,0.40492183,0.042327516,-0.0084353415,0.05281894,0.010369477
0.4465647,0.120967396,0.06955839,-0.0071652285,0.25202972,0.065129966,-0.032735363,0.34573898,-0.03970842,0.03365737,-0.18538168,-0.28206953,-0.2083718,-0.23161837,-0.21718675,-0.16953525,0.49483222,-0.50465745,-0.20997421,-0.15454759,-0.426986,-0.16390395,-0.21595153,0.15257502,-0.8661813,0.0049424837,-0.14269152,0.015337357,0.42961168,-0.4619141,-0.0980619,-0.1833282,-0.40465194,-0.12255051,0.0707702,-0.035898417,-0.6651629,-0.039045535,-0.06905851,-0.19567698,0.09601256,0.038963053,-0.04043528,-0.16483748,-0.054008152,-0.120044015,0.10090857,-0.24113736,-0.42360398,-0.03685378,-0.12105149,-0.062200747,0.18437505,0.02822819,0.048480604,-0.25774354,0.09672265,-0.06929023,0.20944303,-0.008497759,-0.58492166,-0.025931602,-0.017906023,-0.01644018,0.36946222,-0.015990745,-0.022073999,-0.23164144,-0.029134806,0.003928364,0.75590503,0.12382702,-0.54200095,0.014892492,0.02233182,0.056331187,0.11898151,0.09910889,-0.03076787,-0.2959826,-0.04019619,0.029621014,0.48679417,-0.1095536,-0.21789576,0.009990989,-0.061175525,0.14440161,0.15600877,0.21624976,0.15444152,-0.21947905,0.23525241,-0.060719293,0.14453968,-0.05796326,-0.3185232,0.18130174,-0.025708275,0.0912517,0.04995905,0.19774722,0.00806755,-0.28437075,0.058365203,-0.09029514,0.020645548,-0.4662362,-0.15045348,0.023930041,-0.014814084,0.059104733,0.1553579,0.13446873,0.027032984,-0.10077816,0.07170942,-0.080795504,0.2923228,-0.13597743,-0.16007315,-0.34421113,-0.31229928,-0.30938855,-0.03580641,-0.12786427,-0.23684947,0.2244057,-0.15782136,-0.31335974,-0.034946125,-0.33193436,-0.2824031,-0.35019273,-0.3099546,-0.33294076,0.18366873,-0.28456,-0.28320888,0.10660015,-0.34158495,-0.31020692,0.122318745,0.038083985,0.328356,-0.5770415,-0.59020823,-0.4013162,0.041615877,-0.30772886,-0.35085422,0.19359706,-0.3928147,-0.6464934,0.26030874,-0.04011527,-0.11994938,0.11791187,0.09388374,-0.0029646135,0.21070386,-0.26414898,-0.2602653,0.058181,-0.30711687,0.161463,-0.026508374,-0.07666153,-0.09425028,-0.068427,-0.007850353,0.0051016323,0.19403541,-0.40298325,-0.1749199,0.04638293,-0.17265902,0.10093778,-0.17802568,0.02917028,-0.34346715,0.1791881,-0.07277912,0.15888149,-0.05452944,-0.13350596,-0.026168708,0.19072418,-0.20357811,-0.050056156,0.049951065,0.036733743,-0.42214906,-0.046202693,-0.08506878,-0.10452186,0.19817998,0.0065249917,-0.10492948,-0.099537015,-0.07749568,-0.009972387,0.12983316,-0.13931376,-0.34133938,-0.11937941,-0.004946752,0.083675854,0.11286451,0.10588217,0.14840578,-0.33704728,0.025658796,-0.06204591,0.115498096,-0.35865343,-0.5944308,-0.015829356,0.026877858,0.088269785,0.19791576,0.084001236,0.10738738,-0.23660237,0.11907365,-0.01595355,0.32835224,-0.36224988,-0.7282788,-0.042341273,0.024658596,-0.05986986,-0.20745467,-0.039615422,-0.118896864,-0.6740314,-0.11749702,-0.041661683,0.047842484,-0.81933206,-0.39134282,0.041539002,-0.072581105,0.15619484,0.01474256,0.22736084,0.2102937,-0.680913,0.16040637,0.027913373,0.05239686,-0.69674927,-0.20987976,0.028559325,-0.021805217,0.021587005,0.14323139,0.04561595,-0.007968131,-0.3716723,-0.16939248,-0.08821191,-0.18623298,-0.6142082,-0.39279497,-0.1920897,-0.17294088,-0.11863875,0.22087708,-0.20442027,-0.17384936,-0.3125543,-0.22420251,-0.1448576,0.15707082,-0.42266136,-0.57059973,-0.4596825,-0.31170732,-0.22299536,-0.07204955,-0.5616013,-0.25956848,0.13782795,-0.23297514,-0.08063476,0.15015107,-0.36368203,-0.25826183,-0.36926404,-0.23048025,-0.25576398,0.22744422,-0.3187243,-0.17151855,0.04834146,-0.33911258,-0.2352227,-0.011324677,-0.39865226,-0.18570521,-0.5342556,-0.6568478,-0.36946976,0.19251335,-0.5675469,-0.49150556,0.12055769,-0.26979995,-0.5313798,0.09172933,0.18518537,0.3619829,-0.1758372,-0.047009792,-0.2156202,0.071847655,-0.105660945,-0.20719732,0.3441575,-0.13366581,-0.11655468,-0.3826372,0.08688945,0.23654556,-0.0075680064,0.055035666,0.059592813,-0.0057831835,-0.08103712,0.14923897,0.17627977,0.10404167,0.048658706,-0.098720245,-0.07938815,0.14610979,0.071714275
0.19592735,-0.082242966,-0.59649867,-0.053125165,0.022096336,0.123436615,0.025108632,0.10492523,-0.1983022,-0.12872992,-0.34630403,-0.11481011,-0.032777313,-0.057026926,-0.40421742,-0.103185296,0.16142844,-0.12053222,0.024582623,0.09721979,-0.18156491,-0.034320347,-0.6097618,0.09554232,0.06232364,0.08160492,-0.043690562,-0.060497284,0.058753878,-0.2789763,0.0020165092,0.106395744,-0.030263312,-0.2914811,-0.51397204,0.062326625,0.05146415,0.064625725,0.21713461,-0.09984762,-0.018930612,-0.014794348,-0.016893439,0.11018576,-0.2765329,-0.3795591,-0.52940094,0.028845895,0.012598163,0.009210434,0.07797514,-0.019886428,0.095739335,-0.50382406,0.10053322,0.20297244,0.060683962,-0.57054025,-0.10954516,0.15395771,0.19515225,0.19486177,0.3163675,0.05701035,0.035376016,-0.5421407,0.041096434,0.1414669,0.18669808,-0.56169885,-0.07746007,0.2899167,0.10126706,0.1736627,0.12524174,0.17781757,0.24747115,-0.16984586,0.10988197,0.08207894,0.21676794,-0.73263645,-0.3443256,-0.26272136,-0.13052382,-0.16456535,0.37099013,-0.30756414,0.0373798,-0.3139785,-0.12617756,0.051692568,0.18983145,-0.51668704,-0.54322034,-0.3885991,-0.23259754,-0.38786215,0.07250064,-0.5694331,-0.4556506,0.06810501,-0.4555894,-0.12295121,0.287242,-0.3034176,-0.16579022,-0.05881675,-0.028859772,-0.00236549,0.30570146,-0.02455022,-0.045339353,0.21882768,-0.09055661,0.002096342,-0.032239407,-0.39511016,-0.34516358,-0.14458513,-0.3558459,-0.1631267,0.29756287,-0.37984374,-0.33123565,-0.07978038,-0.6208766,-0.28053457,0.12725468,-0.14901112,-0.15695356,-0.32920745,-0.3111625,-0.30726218,0.14608319,-0.4455612,-0.10628254,0.07464258,-0.15060529,-0.1365682,0.02314759,-0.122266136,-0.004079311,-0.23678038,-0.12906542,-0.122702174,-0.051849853,-0.14550179,-0.17315018,-0.040679157,-0.031669237,-0.170312,0.06915195,-0.00753444,-0.05440412,-0.16202784,-0.025795192,-0.09892944,-0.44622746,0.026867744,-0.045993883,-0.042443912,-0.02513237,-0.026438544,0.0648441,0.14238259,-0.18814336,-0.064488776,-0.10037368,-0.08108745,-0.37669033,0.01475061,0.124140695,-0.3724556,-0.07127881,0.064706855,0.038067564,0.14732964,-0.5234893,0.23311296,0.1303927,0.25350502,0.07742147,0.21831834,0.13411112,0.008834994,0.12597856,0.08166133,-0.37504083,-0.0007052993,-0.7167147,0.20273532,0.13927752,0.11298921,0.1415447,0.02165857,0.032026403,-0.02259162,0.015297505,0.15759395,0.24466981,0.016924223,-0.23371333,0.015145281,0.15483284,0.0113681415,0.21023855,0.06661561,0.068798065,-0.25400698,0.15540408,0.163685,0.48491204,-0.049385484,0.122898735,-0.15935159,0.1369891,-0.12084089,0.22049622,-0.029523209,-0.13404246,0.040572647,-0.053674992,0.048370183,-0.015398856,-0.5343306,0.066133715,0.29344997,0.20658165,0.10194175,0.004154859,0.15404736,-0.008434997,0.14198714,0.10419836,-0.040335577,0.2956926,-0.043079548,0.19837533,-0.058810264,-0.109964184,-0.14755113,0.2741325,-0.37438256,-0.21623914,0.24797505,-0.35729325,-0.36571166,0.27060914,0.05546175,-0.03033163,-0.4491015,-0.59187245,-0.33308437,0.033058964,-0.31523997,-0.38063794,0.31928042,-0.40469652,-0.4289216,0.22815323,0.1986857,0.5972605,-0.015260202,0.034341257,0.019044528,0.2512552,0.059795268,0.035736375,0.2745529,0.016255112,0.13035388,0.1724726,-0.16345447,-0.0033223394,-0.31137285,-0.13934787,-0.17778002,0.32675645,-0.06277127,-0.22788788,0.17126401,-0.30235642,-0.17507635,0.12577198,-0.08076205,0.013421399,-0.46582174,-0.20428124,-0.23350337,0.16629872,0.12518993,0.025635118,0.06251697,0.06432935,-0.23248626,0.04274964,-0.18661939,0.05942053,-0.0956219,-0.18991664,0.007569756,0.048709795,-0.0018204127,-0.051685236,-0.061261922,-0.07799435,-0.114859365,0.00032665944,-0.20915176,0.11590001,-0.38423753,-0.31501666,-0.31016725,0.22364742,-0.10184401,-0.150017,0.003170123,0.06261769,-0.17113946,0.38440946,0.11376699,-0.34273827,-0.045984894,0.028685378,-0.081812106,-0.42900503,0.049085137,0.060848612,-0.22830352,0.019669775,0.018344624,0.25467706,0.17742994,-0.92231387,0.1758729,0.1204905,0.06066541
0.13848197,0.07114955,0.09592073,-0.60193,-0.026832087,0.085608155,-0.21798356,0.20756017,-0.5474945,0.14529382,0.105020046,0.15347022,0.33410046,0.1849012,0.08124933,0.20216888,0.08112497,0.068370044,0.4577214,-0.06808843,-0.36773866,0.035063736,-0.07241199,-0.04076948,0.16027233,0.047951903,-0.041078683,-0.11862985,0.038883377,-0.18431513,0.30917925,-0.10172613,-0.088648066,-0.2766605,-0.19452299,-0.33591732,-0.28821817,-0.30332732,-0.24262398,0.019511316,-0.3929843,-0.4497275,-0.12114103,-0.5577877,-0.1990039,-0.022942351,-0.209352,-0.16046382,-0.09873893,0.0063844477,-0.20130208,0.02685131,-0.16828448,-0.44629073,0.18994169,-0.33414015,-0.26547784,-0.43985352,-0.12577474,-0.31772608,0.0067559546,-0.5651321,-0.26808283,0.033467747,-0.48819393,-0.32762858,0.1990342,-0.15671033,-0.33105716,-0.4029094,-0.42010635,-0.29953706,0.11010568,-0.089903906,-0.19592085,0.12620057,-0.05817552,-0.3201157,0.23730333,0.12993702,0.47892043,0.054411814,0.019536925,-0.02805289,0.27136305,0.15948164,0.12035699,0.217457,0.12106511,-0.0578823,0.08754245,0.15632612,0.1716177,-0.4099746,-0.1680075,-0.25218692,0.23581141,-0.24618433,-0.40166894,0.20248705,-0.19358276,-0.07738778,0.027909437,-0.18994102,0.12423341,-0.41753316,-0.23324838,-0.29005495,0.17278616,-0.425229,-0.060986076,0.03697889,-0.046806276,-0.11568273,-0.073524736,-0.2778923,0.15220085,-0.09284567,-0.115834266,-0.0838399,-0.18792586,-0.13065098,-0.09019885,0.070941836,-0.033631057,-0.08962804,0.23510441,-0.33653882,-0.06874423,-0.40657875,-0.3617912,-0.30684444,0.46100163,-0.06854503,-0.15241952,-0.1463585,-0.014675203,-0.24781288,0.12527536,-0.0020075461,-0.50074744,-0.23749372,-0.18313384,-0.06343631,-0.107534416,-0.02623598,0.042962346,-0.30066124,-0.033684563,-0.21161479,0.016715826,0.18651971,-0.87122583,0.12882532,0.10121255,0.17771763,0.13139644,0.18229981,0.010144079,-0.16934526,0.014876865,0.13161567,-0.42362133,-0.30940545,-0.21617615,0.0412817,0.060215417,0.11134028,0.29124692,0.037144493,0.009847076,0.19093868,0.12270098,0.08029586,0.17191783,-0.6552368,-0.44863603,-0.1756222,-0.1396266,-0.09185038,0.05916626,-0.18952203,-0.34406164,-0.6192841,-0.33454433,-0.23169173,0.027832374,-0.30798602,-0.42321074,-0.5043224,-0.49244258,-0.33435458,-0.26430675,-0.4271463,-0.27266815,-0.064786546,-0.26016614,-0.5979269,-0.18987839,-0.07968435,0.023631494,-0.124778934,-0.27906287,-0.25242937,0.047018476,-0.36330736,-0.44801006,0.37969095,-0.49036998,-0.37842318,0.24688971,0.17803562,0.23617887,-0.51951504,-0.47684914,-0.43092617,-0.014754946,-0.49628326,-0.40006396,0.38687268,-0.45071438,-0.31676257,0.14090374,0.39433327,0.29522878,-0.19574979,0.15330972,-0.13030404,0.2337371,-0.10635694,-0.07990462,0.30868912,-0.09716441,-0.079406254,0.16237362,-0.39277527,0.4019092,-0.0722515,-0.22838299,-0.06549684,0.21567735,0.040502552,-0.047569327,0.26667628,-0.083063714,-0.29262528,-0.49711925,-0.4055808,0.076835275,-0.67419505,-0.55222714,-0.58854455,0.26074046,-0.57549,-0.5350731,0.14740957,-0.1808463,-0.7515754,-0.017048987,-0.23632756,0.16981964,-0.38456804,-0.28466302,-0.55757093,-0.028078124,-0.35255915,-0.39976987,0.053759325,-0.13484946,-0.2830755,0.05103595,-0.38510743,0.2491916,-0.37500215,-0.319536,-0.17372648,-0.40836275,0.08946515,-0.0010951452,0.099611044,0.18900956,-0.2149693,-0.051972006,-0.27738324,0.009438802,-0.37367633,-0.30613947,-0.2663149,-0.18005648,-0.23933601,-0.21967906,-0.12529433,-0.27119112,-0.279322,-0.14535053,-0.064320646,-0.6381094,-0.15077125,-0.2427386,-0.12210209,0.018909829,-0.2614869,-0.16028363,-0.16277777,-0.26875198,-0.16684206,0.031401843,0.31897932,-0.24121046,0.14424229,0.024411215,0.14389338,0.17170586,0.04595367,-0.11480311,0.23342946,-0.074275404,-0.01026804,-0.19299193,-0.38848904,-0.20190613,0.09121155,0.096985646,0.04751008,0.16600642,-0.053030927,-0.10249924,0.042054333,-0.022072623,0.033555552,0.13815717,-0.6182802,-0.6664251,-0.026841393,-0.09194419,-0.071486466,-0.07317455,-0.20075826
0.021714572,-0.12450934,-0.090768754,0.10905611,-0.33790377,-0.7001038,-0.070295334,-0.15934989,-0.047999553,-0.019412737,0.09348249,-0.2697381,-0.04343565,0.37451807,0.09145206,0.0018267494,-0.104976304,0.2416494,0.15871413,-0.14681922,-0.09498211,-0.0036790273,0.19036838,0.02078884,0.033471346,0.36456406,-0.05668317,-0.1120556,-0.080632046,-0.24604997,-0.4992487,-0.04353011,-0.22693287,-0.110514246,-0.019749518,-0.2096781,-0.12970264,-0.11665402,-0.28887305,0.00034790297,0.16409053,0.12774543,-0.28892472,-0.099990346,-0.11143496,0.074406154,0.27776277,0.035141166,0.14166099,0.123257786,-0.15273118,0.15770161,0.28246942,-0.09075188,-0.07534091,0.18593685,-0.08361321,0.06344572,0.31665313,-0.056738723,-0.14984475,0.21393825,-0.29305992,0.04706679,-0.07051474,-0.87483346,-0.83531326,0.013912295,-0.43920392,-0.014370265,0.28618237,-0.43307617,-0.2706196,-0.4707207,-0.55532396,-0.18369064,0.2746771,-0.42739278,-0.02601592,-0.25935772,-0.39694405,-0.08656676,-0.2461916,-0.3176726,-0.240267,0.14180532,-0.10807456,-0.029803576,0.35832983,-0.24433473,0.05028074,-0.16147038,-0.13054949,-0.11272448,-0.20136534,-0.29937878,-0.23481603,-0.011013328,-0.07071003,0.065446414,0.23079088,-0.26116908,-0.11295145,-0.116718784,-0.03200038,-0.013272771,-0.38981998,-0.101036444,0.11823495,-0.26565707,-0.16204162,0.048243523,-0.09835342,0.007460089,-0.19099306,-0.15066986,-0.08063581,-0.0046031973,0.33603594,-0.25126603,-0.0313977,-0.14421281,-0.12500457,0.00055139716,0.033536434,0.20637763,-0.44187903,-0.121444866,-0.041787002,0.030974342,-0.06308458,-0.098025344,-0.13796951,-0.11132035,-0.08403151,-0.097409256,-0.38056263,-0.1919901,-0.69305193,0.04277848,0.002949109,-0.04901204,-0.07194031,-0.25570884,-0.09188201,-0.15890847,-0.16713391,0.0857486,-0.17792581,0.11934109,-0.12781096,0.07325325,-0.020405035,-0.0003827994,0.0607318,0.139298,0.1376961,0.14142418,0.1775737,0.18397285,-0.41539577,0.4121506,0.1630267,0.14643627,0.054011337,0.08616121,0.27029276,-0.14864399,-0.12536488,0.255525,-0.12837508,0.05171184,0.043391585,0.09706438,-0.06567529,0.14180867,-0.08309286,-0.043030232,0.16675839,-0.17412403,-0.06724965,0.15083568,-0.15187265,-0.08066204,0.3110698,-0.31160223,-0.3207861,0.046971157,-0.039139193,-0.049261414,0.009893086,-0.12461346,-0.06031475,-0.14377604,-0.07503713,0.08320944,0.1762336,0.1272015,-0.13239476,0.32784954,0.21370928,0.2454765,0.37568334,0.35329777,0.2895616,0.3156855,0.3295663,0.3807583,0.23337756,0.100535564,0.20784742,-0.2938688,0.09734157,-0.21067078,0.23100787,-0.0837215,0.12968957,0.25724748,0.2493961,0.10277335,0.4011275,0.12063328,-0.17369203,0.07932683,0.1805625,0.090427406,0.27670613,0.16798677,0.060490973,0.01994979,-0.041128937,0.15520774,0.105218165,-0.0913051,-0.14426896,-0.09566597,-0.064983845,0.05498513,0.29880485,0.39223278,0.23262493,-0.049968578,0.2197619,-0.032410614,0.37702143,0.13450842,0.25317708,-0.120276354,0.033490866,-0.12703179,0.44352624,0.21035527,0.0023482859,0.23342918,0.22351985,0.07257468,0.00581902,0.05429185,0.04982117,-0.18990871,0.02355626,-0.10715285,0.23243843,0.051893316,-0.0029308528,0.093064,0.0949465,-0.14127861,0.113447666,0.13991176,-0.2924098,-0.028256593,0.06617179,-0.12568481,0.26403683,-0.262304,-0.07401851,-0.09806725,-0.08641321,-0.062269524,-0.41482863,0.16617441,-0.46945766,0.029040175,-0.018489996,-0.037507296,0.15127674,-0.32683036,-0.18649483,-0.059746355,-0.2751522,0.02189375,-1.0481155,0.03117957,-0.17373544,-0.16787095,-0.08032236,-0.12654634,-0.12658302,-0.1033452,-0.050653428,0.08172404,-0.048297953,-0.021555144,0.23617575,0.35693938,0.08169619,0.03618121,0.04382168,-0.017919827,0.16694641,-0.045980833,-0.04131146,0.24163747,0.009212693,-0.040273484,-0.19020803,0.420514,0.17525719,-0.031488646,0.0642497,-0.08189973,0.17895606,-0.16181868,-0.2736963,0.18673158,-0.32747948,0.075751044,0.2726614,0.19242415,0.09375423,0.01243659,-0.05383663,0.120158985,0.21375181,-0.106680036,0.07429926,0.19504635
-0.041230954,0.002174399,0.070845135,0.12612891,-0.059484284,-0.050719194,-0.15378767,-0.021893369,-0.024001068,-0.009523796,-0.05288685,0.34358445,0.02816075,-0.07252023,0.16960874,0.012857575,0.13923387,0.12433128,0.3307507,0.25803798,0.3092886,-0.0711768,0.10806053,0.2646749,0.107701585,0.36873457,0.21906197,-0.1136282,-0.03555325,-0.06855002,-0.32480314,-0.09157712,0.27447602,-0.3077834,-0.29269296,0.16655463,-0.16078882,-0.31504658,0.45082313,0.36230138,0.30010977,-0.29278603,-0.07132335,-0.19567597,0.2556553,0.14662908,-0.04417054,0.32570204,0.3117572,0.16434026,0.029530047,0.06167601,0.09895943,0.3210908,0.23287989,0.18534835,0.4643695,0.09606128,0.13562332,0.09487212,0.051340014,0.10707558,0.2530871,0.042151645,-0.07318334,-0.22983846,-0.13595535,0.0039852923,0.37115437,-0.030694986,0.0884607,0.00832979,-0.026023533,0.011081576,0.24994013,-0.04776058,-0.05237191,-0.00808784,-0.054008402,-0.06127586,0.5551619,-0.0842174,0.010710291,-0.0725253,-0.057311922,-0.1588434,0.066474766,0.02572354,-0.2387527,0.07741631,-0.007883616,0.06475894,0.32407638,-0.119910315,-0.058165997,-0.07924078,-0.009848148,-0.102837525,-0.47501004,0.049855914,-0.117576376,0.09323411,-0.010689731,0.021594761,0.062943235,0.07192304,-0.13992731,0.0988925,-0.07440703,-0.06558241,-0.32123214,-0.05968441,-0.09334528,0.11211299,-0.002220339,-0.009826589,0.18810834,-0.18905343,-0.20957926,0.034439642,-0.22916923,0.06458642,0.5523528,0.2745762,0.012674241,0.022228679,-0.14814709,-0.12616378,0.14160062,0.07249875,-0.1079566,0.17448832,-0.074176155,-0.13523671,0.19340463,0.00010537576,-0.03835245,-0.071272165,-0.028924936,-0.12493272,0.113163956,0.05352258,-0.19286475,0.21086486,-0.021371186,-0.021108843,0.2597651,0.25998592,0.011185063,0.16322386,0.105986066,-0.008654995,0.33005926,-0.43249443,-0.21523505,0.2813704,-0.27579513,0.017347641,-0.012944595,-0.1160913,-0.2478607,-0.4291502,-0.33516178,-0.5024489,0.14074746,-0.480418,-0.33277497,0.17565791,-0.43989694,-0.48935622,0.24932447,0.4730472,0.092324376,0.027308688,-0.07385718,-0.14447352,0.21537021,-0.1442009,-0.18870601,0.29937804,-0.28091878,-0.31565294,0.21892264,-0.33747125,-0.08151308,0.066690706,0.030770885,0.045440122,0.2770001,-0.093628705,-0.08951707,0.2164296,-0.2979112,-0.068788975,0.2814713,-0.19172952,-0.021662718,-0.13808504,-0.16933595,-0.11103761,0.24266966,-0.17874283,-0.05854867,0.14480639,-0.15396002,-0.031004824,0.25350377,0.020801784,0.01642692,0.09556079,-0.09033659,-0.043533042,0.25481206,-0.10675063,0.09432267,0.16429546,0.017063472,-0.004811047,0.098146215,-0.19099896,-0.16880235,0.08053873,0.08409678,-0.20629022,0.21853736,-0.1378174,-0.04199368,-0.045330837,0.001912983,0.00097503996,0.24647424,-0.070732124,-0.09813165,-0.14705,-0.041605216,-0.1404974,0.3809782,-0.0507685,-0.19066553,0.085046425,0.03895664,-0.22431207,-0.046481676,-0.095225014,-0.1443807,-0.010000371,0.14770609,-0.046685226,0.030063959,-0.16189297,-0.16404727,0.0055439523,-0.2838442,-0.021796837,0.084101446,-0.16706918,-0.054023948,-0.24582483,-0.11821437,0.0670882,0.17575265,-0.093562916,-0.27824092,-0.06797526,-0.0988624,0.21165395,0.19814157,0.011215798,-0.018460318,-0.06872196,-0.23580247,-0.22288913,0.31168258,-0.12746972,-0.1420543,-0.0012474245,-0.4224969,-0.5773122,0.31052077,0.16866107,-0.02512806,-0.32158,-0.5403847,-0.39965597,0.14201766,0.104694806,-0.18143024,0.12508099,-0.39721364,-0.642544,0.6057965,0.08467004,-0.053548582,-0.2480024,-0.38019437,-0.17108667,0.22473349,-0.0078020385,-0.080345,0.20356353,-0.16419688,-0.22792144,0.20637713,-0.09095174,-0.15263228,-0.090789914,-0.17921999,-0.166874,0.25439677,0.08981693,-0.24461968,0.15613571,-0.47289848,-0.16767748,0.19667569,-0.52089995,-0.16770428,-0.21483131,-0.2817334,-0.14738707,0.24557383,-0.36383963,-0.052626353,0.21587837,-0.3546454,-0.09364685,0.25436515,-0.11440883,0.1355058,-0.14234588,-0.1725845,-0.016057916,0.24908713,0.06461609,0.033102848,0.26342437,0.0776922,-0.04704182
-0.04464018,-0.029875144,-0.6029675,-0.008464856,-0.05462378,-0.024863,0.015969094,0.003598671,0.0049675256,-0.004188328,0.019168679,-0.08462836,-0.019974206,0.07196712,-0.6328542,-0.034415055,0.010194704,-0.05534558,0.052040022,-0.06625046,-0.047520187,0.0033660503,-0.014418471,-0.017779669,-0.17104052,-0.33984247,-0.57742405,0.04525599,0.07552338,-0.027883628,0.041694764,-0.094866335,0.0751571,0.0064994576,0.07879652,-0.15103602,-0.21422985,0.1904824,-0.6637058,-0.09054111,0.34394214,-0.16530485,-0.03986516,-0.19902644,-0.24856,-0.08566957,0.048354063,0.038209718,0.014429983,0.3833988,-0.7055766,0.20813292,0.5992007,0.002706886,0.07096432,0.2153343,0.3194797,-0.1519981,0.1332138,0.15407197,-0.14091538,0.004473776,-0.73636436,0.117182,-0.03518617,0.050092883,0.2174414,0.4828804,0.17507206,-0.1473769,0.54109013,-0.04119063,-0.11966311,-0.1591892,0.28184506,-0.18402039,-0.25300702,-0.05515948,-8.395204e-05,0.24545948,0.08861517,0.17566806,0.13809635,-0.1664443,-0.05047343,0.36450917,0.40990987,0.015662815,0.0038376874,-0.05358401,-0.20244186,-0.21591364,-0.1994465,0.22586788,-0.344986,-0.034514546,-0.12739502,0.0490224,-0.46586615,-0.02097854,0.17986841,0.098543346,0.0019501031,-0.10643995,0.103304826,-0.050727684,-0.10174459,0.011858622,-0.19160235,0.19186707,-0.56848866,-0.25975612,-0.035055816,-0.056348078,-0.018908564,-0.01638709,0.04610123,-0.05140081,0.03863697,-0.19669205,0.11442017,0.2104371,-0.52436227,0.19467919,0.1459252,0.17921601,-0.068610586,-0.07348223,0.18765923,-0.056042064,-0.090056956,0.35231224,0.0515368,0.030584149,-0.5242908,0.21102503,0.09980906,0.16234508,0.11591724,0.24462804,0.2003717,0.016921766,0.28605333,0.07340024,0.040297687,-0.09129287,-0.6103023,0.021098828,-0.017309763,-0.01763863,0.07422638,0.060161576,-0.0004856058,-0.07074433,0.045479428,-0.021337692,-0.056400392,-0.48033512,-0.70600307,-0.10211604,-0.06855042,-0.13431536,-0.03507552,-0.022071797,-0.030062187,-0.06298936,-0.10378458,-0.14370997,-0.05282952,-0.16692708,-0.58817184,-0.18801142,-0.08026613,-0.2947824,0.045697045,-0.11918159,-0.13684699,-0.082985,-0.29887903,-0.035732236,0.006428235,-0.117125854,-0.29080293,-0.09908532,0.008747707,-0.071980834,-0.08122018,-0.24943215,-0.06516798,0.07046756,-0.1395655,-0.050667882,0.029318282,-0.22837949,0.41856265,0.042902175,0.03426167,0.019568915,-0.15297413,-0.36332306,0.07463692,-0.025863424,0.060393088,0.021085463,-0.10460856,-0.1360937,0.28835732,0.037554394,0.03021604,0.07989453,0.123595394,-0.0814671,0.034292474,0.049394805,-0.10588605,-0.014050387,0.051250417,-0.13662802,0.50305367,0.1578432,-0.030133635,0.14696124,0.19401965,-0.08476056,-0.055105794,0.3550995,-0.032668192,0.14255355,-0.25976843,0.085774735,0.57292753,-0.11550618,-0.036963873,-0.03570243,0.086328536,-0.13877466,-0.043013025,0.47693208,-0.15950172,-0.059170786,-0.16331398,0.119791515,0.1358133,0.08884417,-0.021390274,-0.058864288,-0.22973803,-0.09720719,0.0059624836,0.4873163,-0.05589709,-0.103069946,-0.2796099,-0.5385179,0.106337965,0.047572434,0.0614557,-0.117721856,-0.16588047,-0.13264564,-0.094508536,0.11314864,-0.2069698,-0.02552103,-0.00027872346,-0.7212549,0.10464504,0.08665354,0.07493953,-0.13730653,-0.124843284,-0.19023694,-0.18673836,0.1688037,-0.15290734,-0.06584817,-0.17247002,-0.08309917,-0.065491095,0.12333995,-0.107221305,0.010272827,-0.07504044,-0.036915157,0.012734409,0.049524944,-0.09385524,-0.027563374,-0.06814238,-0.03726807,-0.3521752,-0.33198863,-0.18787685,-0.199741,-0.10202279,-0.08638785,-0.14220779,-0.037104517,-0.2850907,-0.19788866,-0.015864871,-0.063251756,-0.3833171,-0.0042510587,-0.013631875,0.06761314,-0.017233297,0.05337063,0.058781423,-0.03933563,-0.033565618,0.13877146,0.11097416,0.09455443,-0.73266435,0.16546178,-0.082104765,0.18645518,0.039657123,-0.06464289,0.08824629,-0.039430916,-0.0413298,0.16035292,-0.029584693,-0.24736305,-0.3295174,-0.22991696,-0.17155634,-0.011374167,0.006071331,0.090242766,0.10451753,-0.18912593,0.040720813,-0.044203553,0.024635475,-0.2656001
0.20374803,-0.081823684,-0.11937202,-0.02362622,-0.043695047,0.09109048,0.052399755,-0.057381883,0.09898142,-0.109679684,0.020470655,-0.17477737,0.41455606,-0.0036089579,0.036756918,-0.023207782,-0.45165873,0.19870003,0.09947556,0.15540472,0.16657197,-0.004645592,0.08295904,0.045413278,0.4589272,0.07230277,0.09462056,-0.010969255,-0.3840103,0.1416945,0.10549725,0.18927644,0.10634017,0.035605878,0.007928095,0.10557559,0.15391594,0.12804772,0.04480452,0.06287223,-0.20658994,0.22961874,0.06434593,0.010245182,0.053149354,-0.029741064,-0.058878437,-0.043337148,0.17397812,0.083395585,0.055122323,0.12174332,0.018485816,-0.23606165,0.022787435,0.1168003,-0.12567931,0.14292036,-0.14980204,0.17901699,0.17900608,0.17046875,0.057385392,0.00039558727,-0.030108871,-0.11717672,0.013343806,0.23989867,0.110061884,0.085055165,-0.43479222,0.17358424,0.025203275,0.1596954,0.092645004,-0.013316269,-0.03431812,-0.15527387,0.009315569,0.23450996,0.03442546,0.052855697,-0.6600632,0.16010307,-0.01698614,-0.0015759458,-0.028632931,-0.07552983,0.0037235697,-0.13674891,0.0115171885,0.37297288,-0.016884219,-0.003261328,-0.73756677,0.32288137,-0.8139721,0.13020484,0.024966452,-0.0944656,0.05152137,-0.14214075,-0.13159257,-0.31390107,-0.20751905,0.00719538,-0.25847384,0.3893618,-1.0380989,-0.08313183,-0.11895431,-0.20143625,-0.09010518,-0.30497205,-0.24767235,-0.09157487,-0.18289544,-0.0335821,0.03278236,-0.05295361,-0.4615049,-0.024389181,-0.11244309,-0.013511072,-0.1019286,-0.12851332,-0.06685918,-0.0033798483,-0.09051956,-0.3423943,0.072822414,0.18598975,-0.123606615,0.11271677,0.04928322,0.1715584,0.045722753,0.21949281,0.029102521,-0.037574716,0.06869111,-0.028727263,-0.0294269,0.08552781,-0.15847258,-0.19039476,0.13172364,-0.03921964,0.20161505,-0.07872597,-0.042004365,-0.031089164,-0.087896876,0.047561135,-0.06519746,-0.13180244,0.25657195,-0.15654333,-0.053734086,-0.11192927,0.23549174,0.18919663,0.048223227,0.08661017,0.10756534,-0.169485,0.02621194,-0.072255954,0.33435866,-0.17083175,0.050431672,-0.0005509704,-0.45779398,0.051454756,-0.050496753,0.11416947,-0.058733374,0.034637067,0.024900043,-0.2537744,0.05553716,0.03353827,-0.09245758,0.105831794,-0.49277988,0.065377474,0.22138202,-0.07389858,0.17547317,0.040858977,-0.13978209,-0.026697533,0.1858044,0.0054319296,0.031463686,0.052963153,-0.21185394,0.052645292,0.1568945,0.16774808,0.114930205,0.03671914,-0.32500666,0.17012756,0.17932366,0.13079,0.08297467,0.022495283,0.11732387,-0.027370904,-0.14605033,0.1302982,-0.11183223,0.07071991,-0.17222561,0.23574105,-0.05430702,0.057628043,-0.0046270317,-0.0752462,0.104296744,-0.031741485,-0.082282595,0.05455619,-0.04682852,-0.023929786,-0.17746145,0.3678383,-0.07252983,0.05998862,0.047805645,0.100796804,0.1740294,0.02696358,0.021670597,0.11432096,-0.025298553,0.084458694,-0.09768273,0.14478724,-0.30821458,0.112235524,-0.019101664,-0.04802002,0.061693862,-0.23101963,-0.11619472,0.010029596,-0.20530096,0.02960587,-0.14174092,0.08144462,-0.40562454,0.076548316,-0.034071892,0.017431138,0.08563651,0.031988744,0.0260791,-0.2127079,-0.008615348,-0.0060509997,-0.029470416,-0.479596,-0.26526287,-0.17782846,-0.17388213,-0.15762766,0.020002233,0.012548538,-0.07317657,-0.32469812,-0.030662002,-0.17097032,0.014489522,-0.32341108,-0.075809784,-0.23269215,-0.25638694,-0.3693815,-0.22411734,-0.37861568,-0.60095286,-0.020577753,-0.5063378,-0.5318251,0.03233627,0.11633811,0.025703317,0.18461609,-0.029638397,0.053660683,0.01639276,-0.22251154,-0.046798546,0.10998855,-0.07856011,0.02818931,-0.10099354,0.06124848,0.13334806,-0.11034367,-0.02125577,-0.024879636,0.052534476,-0.37420398,-0.30789888,0.20483081,-0.09438115,-0.06523998,-0.07890993,-0.23477317,0.13079073,-0.042203605,-0.098779485,-0.081164815,-0.030777039,-0.10873136,-0.12490792,0.065701865,-0.054492794,-0.114579625,-0.06426864,-0.17254585,0.33410656,-0.22050978,-0.22144735,-0.28422704,-0.34010422,-0.07871074,-0.13489714,0.087917395,-0.22557928,-0.1656899,-0.4266724,0.00411239,0.15270652,-0.0895495
-0.11391851,-0.20396353,-0.62884814,0.12448486,-0.17304353,-0.024525683,-0.18637949,-0.26645306,-0.49591267,-0.002136872,0.068902306,-0.084025465,-0.06063623,-0.20508404,-0.11070172,-0.0699679,-0.24729557,0.028182859,-0.17392161,-0.2500845,-0.31163397,0.2542246,0.21111417,-0.03486817,0.057600033,-0.06946014,-0.08561639,-0.19423836,-0.22087859,0.37712663,-0.17361864,-0.16428864,-0.16418606,0.24847904,-0.20005324,0.07553296,-0.036479603,-0.02086587,-0.17247106,-0.08612239,0.0025643262,-0.07326599,-0.12861499,-0.010326859,0.1400126,0.2009576,-0.23761186,0.10904325,0.06471877,0.07739282,0.12936091,0.1012978,0.058381595,0.117837265,0.022815257,0.0039605377,0.3191329,0.10504965,-0.33448488,0.048666816,0.005294947,0.0446608,0.058992576,0.13381743,0.050893296,-0.31879723,0.15747046,-0.0043173297,0.21747357,0.058183346,-0.22996832,-0.011675876,0.048178032,0.03009111,0.06451789,0.18038547,0.18793184,-0.52084476,0.11400096,-0.015462789,0.47135267,-0.69902265,-0.27640736,-0.13997251,-0.110996075,-0.0148721,0.011807177,0.009782423,-0.09180072,-0.56905115,-0.13415639,-0.105349965,-0.016270606,-0.10608799,-0.48470768,-0.48169324,-0.526439,-0.10600944,-0.12889093,-0.24843127,-0.13598225,-0.0500615,-0.14185551,-0.46426612,-0.2241802,-0.1520133,0.070809424,-0.3887278,-0.36257058,-0.41480276,0.027873412,-0.22673139,-0.13809992,-0.07562124,-0.049966402,-0.40684852,-0.04941642,-0.13238555,0.2604871,-0.19908674,-0.13662176,-0.28680438,0.0017434472,-0.113776036,-0.21744902,0.020618621,-0.1591159,-0.035504766,-0.015607662,-0.13873424,0.5706443,-0.13941602,-0.08730268,-0.11772293,-0.19149251,-0.018188229,-0.16401793,0.23543558,-0.13518654,-0.17247653,-0.25231665,-0.25058377,0.2775404,-0.045335263,-0.2637103,-0.06685622,-0.35356662,-0.16711876,-0.18525513,0.10572392,-0.31033492,-0.1531016,-0.25104615,-0.19737796,0.36674008,-0.2059309,-0.22184451,-0.20099261,-0.52765054,-0.42835343,-0.30164766,0.025461473,-0.33479592,-0.19794616,-0.14278677,0.00018864812,0.4156919,-0.19373535,-0.15663044,-0.087822795,-0.42159334,-0.3527176,-0.3118297,0.41589972,-0.37568712,-0.08869018,-0.07771463,0.038133908,0.04798948,-0.14764534,-0.22492331,-0.12283914,0.14911875,-0.21040723,-0.17167722,-0.08177022,-0.1853608,-0.14628223,0.1934194,0.119278185,-0.06556093,-0.120592184,-0.07785953,-0.16460828,-0.07085673,-0.047532223,-0.1401361,-0.10166706,-0.06927887,-0.13421814,0.22710523,0.054822333,-0.39981967,-0.013810432,-0.06751544,-0.044094477,-0.0072474624,0.08277106,0.029660601,-0.6007702,0.0078008585,-0.0930455,0.0077020503,0.19610089,-0.21809442,0.06972865,0.018310945,0.0060163257,-0.02631495,0.0653456,-0.0065691145,-0.080941975,0.109081715,-0.060137108,0.5878101,-0.15235892,-0.077605695,0.1648512,0.08138148,0.017985286,-0.027599383,0.050566524,0.07348323,-0.3315635,0.0468491,0.01337759,0.40544274,-0.29870817,-0.21652307,-0.13774121,-0.08760825,0.06380548,-0.0054423683,0.1788368,0.086351775,-0.003463931,0.2713347,0.13521309,0.015814373,-0.15755989,0.121744245,0.44618294,0.28373578,0.38023654,0.16770987,0.28705782,0.26285833,0.042311557,0.24930876,0.09755719,0.17065117,0.04953394,-0.6357268,0.0130335055,-0.021949936,0.1489321,-0.014602243,-0.24690165,-0.04303103,-0.09690668,-0.22933261,0.14032032,0.20355488,-0.13844796,0.08187898,0.10314327,0.07474641,0.05029619,-0.13201712,-0.0939186,-0.047322977,-0.25126478,-0.16205616,0.1173008,0.36970016,-0.10603448,0.5350634,0.030659132,0.08084935,0.03339409,-0.41012955,-0.16311328,0.06282331,0.10186097,0.13158436,0.23435272,0.43950534,-0.14889427,0.5199527,0.010302642,0.061593767,0.1557121,-0.6096516,0.095480874,-0.018349385,0.1649297,0.17241918,0.030981708,0.19177884,-0.41993067,0.41229153,-0.09184615,-0.04455251,0.04743043,-0.85831505,-0.112098195,0.026141463,0.15610735,0.108715646,0.0015530747,0.19748276,-0.27287236,0.3681689,-0.271601,-0.13812594,-0.123060435,-0.35357225,-0.16741018,-0.045606043,0.15545256,0.016057974,-0.06631245,-0.12126053,-0.30019614,0.072711155,-0.16309236,-0.1750435,-0.012543811
0.11175997,-0.024732057,-0.09325924,0.014248678,-0.13433656,-0.04942334,0.37432823,-0.30455106,-0.39143404,-0.16336328,-0.15483882,0.003964854,0.14541899,0.010745882,0.014872492,-0.3538207,-0.0684425,-0.04270797,0.34547684,-0.36747268,-0.2025791,-0.21153563,-0.15785679,-0.09003634,-0.00900237,-0.0057134153,0.028828228,-0.31157142,0.02912007,-0.040378474,0.51762,-0.45722482,-0.3822938,-0.16517912,-0.1810834,-0.0867354,0.030175792,0.08689074,-0.02045481,-0.47703275,-0.07260311,-0.12995124,0.21954288,-1.0068387,0.11956958,-0.33360645,-0.12597777,-0.24295217,-0.17505774,0.040308792,0.020950453,-0.24464221,0.021754988,-0.28824848,0.43726715,-0.43382207,0.6584138,-0.21859723,0.065634936,-0.2251491,-0.33628464,-0.12707454,-0.16385517,0.18266086,-0.08570492,-0.047752783,0.23780935,0.3207484,0.6300989,0.10337755,0.14427398,0.2026141,-0.088868365,0.22252724,0.13522898,0.18573284,0.06365145,0.04585905,0.17528614,0.12330041,-0.19021179,0.03321625,0.16256738,0.046807095,-0.014965963,0.022051828,0.42636406,0.010038568,0.41216597,0.2629755,-0.015832512,-0.11474244,-0.31323248,0.10238259,-0.06452738,0.0049425643,0.19157968,0.092356265,0.12802403,-0.24685468,0.15787864,0.02211209,0.47717533,0.089159474,0.08469452,0.10348488,0.08016088,0.006637893,-0.43511137,0.24604523,-0.010378562,-0.06309864,0.119926564,0.11092257,0.4113049,-0.15656133,0.2592094,0.083246216,0.24052092,0.07070074,-0.6121362,0.18996531,0.17106122,-0.10363078,0.25576696,0.20519462,0.3898525,-0.35731962,0.2090122,0.18736652,0.27715045,0.13175286,-0.4711937,0.2681491,0.28855956,-0.36165377,0.45080104,0.23416926,0.40556508,-0.43495542,0.07267215,0.17860077,0.19060901,0.2948116,-0.20473756,0.3013232,0.36785832,-0.34598914,0.41680974,0.1963519,0.09854665,-0.29047376,0.055538148,0.053753506,0.04273098,0.185858,0.10841411,0.19386634,0.2556991,-0.30499595,0.15140784,0.2031067,0.45880964,-0.31451464,-0.07810541,-0.043717887,0.004733556,0.08434143,0.24662428,0.13926786,0.018819341,-0.45415354,0.13975236,0.08252629,0.16488966,-0.44391188,-0.16390353,0.03988909,0.024756344,0.0067036217,-0.056299288,0.13852544,0.05079213,-0.21749103,0.1299009,0.0024526666,0.22097194,-0.27220094,0.15836687,-0.15780416,-0.19352466,-0.056798343,-0.29196027,-0.16434525,-0.08378852,0.047040075,-0.111264914,-0.11005482,-0.05288263,-0.6639592,0.30457455,-0.22341746,-0.072762236,-0.03714023,-0.21211043,-0.13718568,0.038836274,0.057594676,0.0411054,0.04428592,0.6870104,-0.3035847,0.5135519,-0.40968063,-0.18819265,-0.2990486,-0.33043733,-0.20330915,-0.1809161,0.19538406,-0.18752931,-0.21409622,-0.06254914,0.5156875,0.31751114,-0.024617,0.046897225,0.055231024,-0.032906298,0.10413161,0.03139797,0.1917544,0.16993599,-0.08432279,0.040756553,0.0368567,0.35625473,0.13165458,0.086435,0.115382485,0.042836953,0.17968634,0.05059987,0.2735835,0.13617621,-0.041071158,-0.033100374,-0.013390973,-0.15334843,0.20322707,0.14646848,0.08629381,-0.07934912,0.032227017,0.1280901,-0.0929447,-0.0030466563,0.21750331,0.2931102,-0.051140346,-0.3656536,0.06032095,0.11457316,0.09761903,-0.2467631,0.25567695,0.15814766,-0.17366947,0.20712523,0.15061067,0.24532844,-0.08694104,-0.18380935,0.25239608,0.17219512,0.14955209,0.14035977,0.23874041,0.3380991,-0.34062293,0.27034983,0.15067323,0.44213295,-0.14945416,-0.105716206,0.3035992,0.11183984,0.23559546,0.18904695,0.4121593,0.20638807,-0.23280732,0.36730433,0.16781357,0.35521194,-0.2838636,0.014076012,0.14495994,0.09515058,0.17684974,-0.15212692,0.3304946,0.29344946,-0.35432482,0.238189,0.107821934,0.26795492,-0.4719097,0.1094264,0.11821962,0.013973119,0.06283294,0.063595414,0.38452712,0.105877675,-0.2351829,0.28069186,0.023068242,0.62167645,-0.034727704,0.089877106,0.017416589,0.019890161,0.03516596,-0.029874675,0.2070186,0.11625391,-0.15411642,0.23574005,-0.05632473,0.042025954,-0.24167308,0.22635046,-0.09718815,-0.13621551,-0.04057273,-0.24109332,-0.016861336
-0.011862068,-0.049440425,-0.10563936,-0.026344057,0.19544956,-0.24912323,0.45099017,-0.21122158,-0.058039345,-0.13266937,-0.27730498,-0.08672323,-0.11515842,0.26686323,0.0064227674,-0.08848473,-0.06384116,-0.09887631,0.5237112,-0.19807005,-0.09904996,-0.15200917,-0.06778031,-0.32965735,-0.28430095,0.3919851,-0.17535031,-0.16655941,0.6222885,0.22446519,0.39554363,-0.37975433,-0.20916072,-0.14286149,-0.17464927,-0.25917375,-0.04835857,0.35326406,0.012096557,-0.17378967,-0.031259328,-0.044839475,0.32160583,0.08777445,0.09480874,0.07633828,-0.11511137,-0.08649534,0.07387955,0.15467791,0.04001275,-0.05222915,-0.08997045,-0.024762476,-0.06492453,0.2552178,0.059577066,0.039661355,-0.03436054,0.1378218,0.18514858,-0.08910409,0.010348241,0.17720348,0.051077038,0.00052635674,-0.0043266886,0.070823096,0.12763415,0.014577962,-0.20434877,0.28416222,0.25331533,-0.09993789,0.112463884,-0.032155707,0.011216629,0.05459199,-0.09592558,-0.07380905,0.02246967,-0.031413976,-0.2398706,0.15938576,0.11965677,-0.17284226,0.25259334,0.039579082,0.13409272,0.034289584,-0.10858747,0.20804287,0.09337832,0.072572924,0.32911983,0.21025044,0.16300763,-0.2655228,0.15130772,0.08441886,0.2726856,-0.08618902,-0.24252369,0.16965511,0.03461231,0.07252838,0.5966825,0.23816705,0.12944382,-0.28420663,0.14860936,0.107978076,0.12470527,-0.39156657,-0.07054187,0.1522396,0.07247831,0.12869722,0.17242564,0.112870455,0.14218646,-0.27849436,0.12951115,0.0721771,0.18732661,-0.20964763,0.08108409,-0.09178895,0.034384288,-0.08481891,-0.015099835,0.023532363,-0.0011569222,0.07069286,0.13003795,0.028769935,0.2953367,0.19716117,0.11139546,-0.031985953,-0.006206024,-0.062093478,-0.027370999,-0.01600717,-0.018669566,0.090249695,0.06937505,0.014115486,-0.39447746,0.07313566,0.38012183,-0.06235278,0.059998833,0.124504246,-0.1940953,0.13633813,0.0021002544,0.32413083,0.06352412,0.034527794,0.06260955,0.0070842616,0.5098304,-0.24832973,-0.08306503,-0.17981254,-0.13218242,-0.29720062,0.022346996,0.49546963,0.022648335,-0.014855503,-0.12873527,0.38546255,0.49943182,-0.24227907,0.11730747,-0.014161256,0.057462066,-0.22139451,-0.07656407,0.68011814,0.008608989,0.027981183,-0.24928258,0.6426231,0.37601775,-0.10118916,-0.00093951926,-0.018825866,0.038764138,-0.16565348,-0.07533664,0.395974,-0.106192335,-0.19302072,0.007498994,0.59390914,0.2521014,-0.06101581,-0.078961104,-0.15468712,-0.1556105,0.009922816,-0.09576792,0.19057915,-0.19973965,-0.39345312,-0.014568859,0.11310513,0.027927935,0.35974675,0.20183995,0.26804206,-0.019509867,0.37197766,0.4096914,0.08847712,0.25532523,0.038754802,0.1575402,-0.06424504,-0.0581336,0.13625255,0.058576282,-0.074625656,-0.01767351,0.09336104,0.19219421,-0.0012371979,0.24193701,0.011373555,0.0744439,-0.22008489,-0.17973164,0.058561135,0.013021395,0.032825917,0.25432548,0.09522869,0.14440824,-0.13285998,0.19842575,0.025581757,0.028144635,-0.17595287,-0.3138821,0.014123659,0.004065766,0.00059705647,0.032156847,-0.028736707,0.066841766,-0.23482235,0.0026268356,-0.015441767,0.07551881,0.029951872,-0.14724393,0.01401026,0.023907542,0.02141499,0.28478816,0.09686699,0.016449014,-0.14788413,0.14416617,0.03753057,-0.10098227,0.085031636,-0.087155,0.11900854,0.03279686,0.07609397,0.052394047,0.11087748,0.011073711,-0.006849532,0.003687531,0.076316066,-0.123380646,0.011234646,-0.12259743,0.10197138,-0.039594673,-0.06519948,-0.018154582,-0.031289604,-0.04773273,-0.056363296,-0.04407436,0.047371205,-0.5783144,0.27750233,0.033787426,0.1396938,-0.02236037,0.123342335,-0.19695523,-0.00095710746,-0.034094736,0.14070444,-0.0039002125,0.045961235,-0.6400092,0.30951998,0.2932726,0.021473942,0.12676035,0.0315317,-0.14775816,-0.21283782,-0.0029452932,0.3070044,-0.10778465,0.1644919,-0.21741907,0.39667964,0.33187175,-0.10226984,0.15011226,-0.0029106853,0.1448686,-0.07692381,0.017709056,0.4365377,0.23582701,0.08884098,0.059732318,0.7392854,0.21102753,0.05455771,0.16388363,-0.10926616,-0.019887293,-0.33416426,-0.246975,0.30514577
-0.1952307,-0.027958453,0.033583477,0.4424507,0.20561503,-0.01778196,-0.07165364,-0.109320685,0.05461225,-0.19445945,0.04085305,0.26854056,-0.102936305,-0.12720928,0.026642611,0.21209368,0.08248933,0.005740379,-0.11757564,-0.084462635,-0.034166966,-0.017487131,-0.057656985,0.052310936,-0.011761866,-0.119971566,-0.16392325,0.05061708,-0.03900717,0.09228916,-0.10694752,0.08313263,0.042189766,0.40025973,0.15207711,-0.021565946,0.06569867,-0.27817854,-0.09826643,-0.07257317,0.046364352,0.20505041,-0.10379095,0.0969727,-0.016917428,0.088437185,0.0750592,0.010926312,0.011815031,-0.16933836,-0.20706974,-0.22977531,-0.026195941,0.14528562,-0.018290851,0.09510352,0.23491898,0.04766169,0.1034882,-0.1626727,-0.10600993,-0.020752134,-0.19554363,-0.0138035845,-0.031035881,0.00042341874,-0.11186597,-0.07198116,0.5014956,0.113566644,0.028678333,-0.18026486,-0.17298584,-0.10180517,-0.46545053,-0.0003974152,-0.09725863,0.011355858,-0.16430674,-0.01767325,-0.035373542,-0.051203355,-0.017466139,-0.22829008,-0.18496446,-0.0045040273,-0.61781085,0.11989656,-0.010581501,0.0766793,-0.009940143,0.05085132,-0.37783408,-0.0059454353,-0.016972393,-0.02408068,-0.071558535,-0.052265782,-0.895956,0.16738221,-0.014678,0.18230435,0.19673769,0.027374728,-0.41702598,-0.38987005,-0.18365514,0.06327509,-0.12825692,0.13508746,-1.1383643,0.1525298,0.0032350447,0.19730388,0.11032632,0.090480745,-0.43118906,-0.08451576,-0.12831981,0.110969536,-0.07935876,0.15288602,-0.6207768,0.3974019,0.37765527,0.26357394,0.30514303,0.225848,-0.011011261,-0.030265149,-0.10363862,0.38682204,0.23376644,0.2455266,-0.24399927,0.32046175,0.3285876,-0.0785483,0.14923055,0.104652815,0.08744798,-0.36551327,-0.16825871,0.33915505,0.024852624,0.1157983,-0.09106543,0.21150315,0.20617798,-0.006838064,0.07765276,0.07934644,-0.13190699,-0.09101634,0.008294429,0.29242378,0.0014030691,-0.082785465,-0.07842628,0.039682757,0.19463865,-0.03550948,0.11441209,0.11978908,0.03993994,0.014127473,-0.12669899,0.15161209,-0.008563429,-0.027871618,0.018635683,-0.22660579,0.12455494,-0.053957015,-0.058787335,-0.0107866805,-0.019129971,-0.016592998,-0.024803434,-0.05566029,-0.14630625,-0.11953276,-0.02840117,-0.4805783,-0.63572663,-0.0062472015,-0.07985353,-0.025119938,-0.011612133,-0.1371033,-0.23483938,-0.08797957,-0.36436713,-0.16555367,-0.049412623,-0.28843924,-0.32659334,-0.17376111,-0.2652537,-0.15026912,0.0023796137,-0.05255214,-0.0741878,-0.15789217,-0.07183915,-0.23743808,-0.12944461,-0.12896967,-0.07523089,-0.29886228,-0.3158047,-0.28646246,0.020570401,0.1542575,-0.030632248,-0.06745796,-0.13055462,-0.3167922,-0.024897495,0.071029834,-0.04735615,-0.015239984,-0.228931,-0.21985583,0.26004452,-0.04572979,-0.09828443,0.025113529,-0.12169322,-0.5226555,0.06835152,0.050012853,-0.009115471,-0.05326387,-0.08708724,-0.40131634,0.03454983,0.11685115,-0.3670608,-0.013871802,-0.27094808,-0.42951226,-0.43199766,-0.014343865,-0.022184137,-0.2689523,-0.18838955,-0.36963928,-0.07365298,-0.17355269,-0.30713677,-0.12049067,-0.3398954,-0.3261954,-0.3782646,0.18795502,0.04786561,-0.14543374,0.048711274,-0.43956935,-0.5971902,0.040557377,-0.14742215,0.011176232,0.13190316,0.15160584,-0.7477422,-0.015352534,0.004966601,0.20393604,0.22930671,0.037833333,-0.5427031,-0.18583407,-0.33543542,-0.03147793,0.008889517,0.28629968,-0.6296769,0.028533032,0.13735019,0.024569293,0.06366716,-0.27576253,-0.18711025,-0.1290759,-0.30778375,-0.01730313,-0.08192109,0.10223024,-0.06813602,-0.055271585,0.06307558,0.0379134,0.04024119,-0.3116849,-0.12414557,-0.41447783,-0.5651844,-0.17255287,-0.44187373,0.10712325,-0.09901457,0.22143286,0.110196196,0.029448833,-0.17805421,-0.1289749,-0.15462372,-0.23297097,-0.21270148,0.08674008,-0.16015236,-0.47400633,0.058468055,-0.13800086,-0.06340726,-0.22762293,-0.22174318,-0.34270492,-0.08753616,-0.28961405,-0.24992523,-0.17364295,-0.30814803,-0.21307315,0.03857015,0.22586684,-0.21842156,-0.009886439,-0.1368974,0.021832684,-0.084492914,6.302304e-05,0.025578229,-0.0057468195,-0.007970284,-0.22381148
-0.11741329,-0.035109665,-0.20489387,-0.06488816,-0.05965281,-0.043777578,-0.16068213,-0.078474894,-0.063145645,-0.10264524,-0.09572608,-0.03403748,-0.1530912,-0.054508924,-0.13815044,0.009338556,0.016232777,0.043949988,-0.16464336,-0.061124947,0.035579458,-0.14057131,-0.022272307,-0.026257018,-0.04175593,0.30490866,-0.20136692,0.03381863,-0.05241837,0.028925335,-0.12343851,0.02426519,0.003422342,-0.12727898,-0.09063126,0.18044406,0.17809375,0.26327908,-0.21105953,0.1441872,-0.15445742,0.22540917,-0.091314875,0.2105744,0.23840766,-0.1074548,-0.07565442,0.12698448,-0.20296331,-0.16446897,-0.20652376,-0.06504281,-0.0821195,0.107084826,-0.17666346,-0.0814206,-0.30501515,-0.13252947,0.018100629,0.06098362,-0.09382574,-0.14183155,-0.14210337,0.018338002,-0.069572136,0.046950746,-0.21957886,-0.20353322,-0.014434829,-0.13575752,-0.35656258,-0.029177325,0.03265482,-0.2903607,-0.37484026,0.20409761,-0.15284385,0.12168434,-0.33412334,-0.48886186,-0.22875103,-0.143049,-0.4480511,0.1930983,-0.061201792,-0.22474295,-0.27358684,0.04356072,-0.39322284,0.2386775,-0.19241144,-0.003066708,0.2824565,-0.08998785,-0.33436933,0.17362037,0.090898655,-0.5433513,-0.12552157,0.21618246,-0.057985947,0.26314056,-0.26112604,-0.021991793,0.023223573,-0.06628222,-0.13683762,0.31167495,0.31206664,-0.3414803,-0.20109613,0.29408482,-0.028115101,0.4759345,-0.10209124,0.093032725,0.35077706,-0.18111068,-0.19895191,0.63393104,-0.1909391,-0.11436109,-0.13559546,-0.30384976,-0.100372456,0.29087368,0.14609595,0.3697832,0.3374427,-0.1741969,0.41148114,0.04446706,-0.156001,-0.012302115,-0.1701684,-0.15386698,-0.1681235,-0.30633098,-0.1467091,-0.43201712,-0.27032787,-0.12888938,-0.46356973,-0.09992982,-0.10161229,0.038922343,-0.20601504,-0.030415649,-0.05400373,-0.101264544,-0.16665617,-0.14058271,-0.11652317,-0.12369323,-0.14022943,-0.13398346,-0.10963824,0.4530048,-0.05905987,0.052090403,0.06252593,0.011107603,-0.17141066,-0.037018735,-0.024191698,-0.1431582,-0.06166239,0.044326395,0.0076372297,0.15900682,0.06927694,0.18918084,0.13551463,0.3839693,-0.11856675,0.08444757,0.08840857,-0.07827363,0.33827543,0.043682452,0.036201715,0.27155522,-0.15393873,-0.018077435,-0.07675042,0.066559,-0.08799539,0.24145341,0.03578651,-0.120165445,0.16561922,0.0063004657,-0.17152755,0.25011578,0.07566243,0.12872642,0.047420178,0.10579285,0.0030240065,0.34119248,-0.01447621,0.12316694,0.002568933,-0.0011246921,-0.06588094,0.120485894,0.20018001,0.08722544,0.22051015,-0.0892554,-0.32369378,-0.11895346,-0.05321711,0.22532332,-0.023080109,0.11275921,-0.069996744,0.06843048,0.23102991,0.086955294,0.20477471,0.076357506,0.18024328,0.051924072,0.027181638,0.30319056,0.20286,0.038006607,-0.10350651,0.028317926,0.48152813,0.088110276,0.01907774,0.055013962,-0.061759207,0.042191047,0.035780754,0.67447054,0.024900846,0.06433818,-0.22547989,0.16697508,-0.0685913,0.19185837,0.17504036,0.13339457,-0.17636089,-0.0276466,-0.00082992174,0.17284364,-0.08415199,0.18400943,-0.47683936,0.083120525,-0.33636966,0.008879006,0.022827454,0.0138605,-0.09844556,0.1035841,0.11078269,-0.12702395,0.003291258,0.024715768,-0.30279842,0.0023937253,-0.3429841,0.13980949,0.12261273,0.08515678,-0.11536789,-0.047306135,0.13039622,-0.24858662,-0.05403791,0.024833102,-0.35784456,-0.431941,-0.17688693,0.3838442,0.38468915,0.16935933,0.034232616,-0.08850454,0.005418289,-0.3147328,-0.15282005,0.27988917,-0.16198899,-0.2660252,-0.29200962,-0.25792733,-0.4683126,-0.08748031,0.042260572,-0.06461825,-0.107874766,-0.18624353,-0.09419396,-0.093067534,-0.20962508,0.04222992,-0.20361881,-0.064908415,-0.108319394,-0.3126568,-0.12558448,-0.4328321,-0.4240886,-0.13361348,-0.4278085,-0.3135713,-0.07386397,0.1889699,0.3154286,0.26292723,0.12530994,0.12341638,-0.21396247,0.07018215,0.10829743,-0.07162105,0.08925838,0.052081767,0.0045231804,0.17394097,0.3554692,0.16204561,0.12699966,0.11649334,-0.17130181,0.0911784,0.018229168,0.14428434,0.10520768,0.06402846,-0.007648895,0.08482153
0.15411128,0.1767722,0.06528211,0.10378991,-0.10249157,0.15256767,0.11574964,0.043221354,0.106746756,0.04796497,0.10207006,0.15759662,0.22154152,0.13357943,0.08987453,0.0493028,-0.0255022,-0.27401692,-0.13384087,0.24756646,-0.2359191,0.048425782,0.13955092,-0.09029638,0.39627925,-0.05181944,-0.09533199,0.0789976,-0.18055734,-0.0505565,0.022031058,0.14331876,0.1372673,0.0032307887,0.05743757,0.19368526,0.46674684,0.09391867,0.06894976,0.014252654,-0.052359704,-0.24117666,-0.11032879,0.4452976,-0.105074905,0.10452505,0.024344511,0.22442469,0.10521792,0.124374494,0.14905299,-0.022368012,-0.15434527,-0.04709993,0.0022144583,0.28860742,-0.045247503,0.017841479,-0.3406415,0.25344232,-0.11825309,0.086873956,0.069602504,-0.056684166,-0.13568829,-0.05913037,-0.05615513,-0.030468762,-0.08895868,0.020339571,-0.50798273,0.20058282,-0.22318612,0.089753784,0.15715446,0.0532452,-0.031106526,-0.08212456,-0.040005602,-0.14808515,-0.1705739,0.17707276,-0.43492457,0.5547267,-0.5063381,0.15687387,0.056896824,0.124295495,0.0038829395,0.07141093,0.048640195,-0.23517404,0.04846684,-0.00364559,-0.57268035,0.23800595,-0.56545526,0.12440729,0.15573639,0.052600708,0.09413793,0.07206876,0.04906074,-0.16639172,-0.006859268,0.13213092,-0.26588175,-0.17017515,-0.54404306,0.122655585,0.23491296,-0.00037052867,0.07783885,0.058499724,-0.022664491,-0.25693017,0.06366889,0.27858144,-0.17163919,-0.27740553,-0.48182997,-0.30033836,0.0046451353,-0.08010909,-0.054102372,0.16957848,0.077123754,-0.13403006,0.18689859,0.038117927,-0.031234391,0.03226746,0.17027025,0.39795664,0.22123538,0.19130363,-0.21745203,0.16707692,0.15605742,-0.044406407,0.17719495,0.19979383,-0.037436336,-0.03127907,0.27003452,0.122685455,0.0894207,0.056471013,-0.22939809,0.044252567,0.052509796,-0.03927924,0.19204073,0.10747734,0.059815742,-0.019075401,0.34234643,0.14725894,0.13814348,0.029040389,-0.41663897,-0.059593044,0.0009252446,0.06566581,0.09433836,0.13358109,0.24657688,-0.088777594,0.42797834,0.02083309,0.09286548,-0.046821292,-0.68872195,0.041539527,0.12094648,0.12748249,0.26461652,0.088148676,0.15668543,-0.0076830266,0.4747349,-0.008042782,0.11200873,-0.04707516,-0.6606134,0.15425119,0.029037133,0.28757086,0.17927085,-0.0066926028,0.3540574,-0.07867556,0.20314215,0.1619395,0.102798834,-0.014557883,-0.9414465,0.08956701,0.08526023,0.13742504,0.16306496,-0.08402877,0.24986456,0.1251808,0.1854773,0.14899635,0.1850377,0.09485706,-0.35320625,0.051883765,0.017688703,0.27469385,0.21719131,0.13001338,0.2539166,0.106981,0.030999122,0.07872486,0.08430712,0.122811005,-0.020864667,0.12547345,0.04597522,0.12838893,0.14489362,0.15379111,-0.015578999,0.18604533,-0.18853725,-0.023547739,-0.041006133,-0.013209135,0.16242057,0.056192424,0.08309379,-0.33739084,0.0705157,0.07093923,0.073863626,0.048206884,-0.34859934,0.06719418,-0.0704467,0.073582426,0.23560202,0.13117799,0.015847908,-0.25567403,0.09489788,0.056467433,-0.22904395,0.3432369,-0.5914218,0.12260585,0.011961637,0.08081722,0.15111133,0.17065403,0.122326635,-0.4898006,0.11143345,0.0662691,-0.40317926,-0.8746517,-0.11587764,-0.066265516,-0.007033962,0.040301185,0.088054605,0.12442705,0.12877026,-0.37313256,0.18218635,0.081285626,-0.17374642,-0.55866313,0.16331367,-0.33533925,0.06283026,-0.7015611,-0.19737001,-0.84985095,-0.7342038,-0.13323909,-0.6050149,0.069806226,0.04172894,0.20372294,0.21370672,-0.1576296,0.17520797,0.12427691,-0.12616654,0.400973,0.19034801,-0.060023062,0.26902035,0.09436161,-0.028259212,-0.06668385,0.07857697,0.034324408,0.12148411,-0.047971483,-0.18679583,0.2746937,0.3595015,-0.1349666,0.12745892,0.1546295,-0.07634021,-0.03501729,0.5039191,-0.061510175,0.09868133,0.01958009,-0.6363278,0.1763248,0.17827174,0.28909975,0.29037815,0.11096989,0.213506,-0.10496723,0.30507368,-0.20566292,-0.012850102,-0.16562234,-0.6358915,0.15276726,0.058443528,0.109750934,0.21292286,-0.10588785,0.42952928,-0.20620409,0.6022742,-0.24352367
0.020104013,-0.13830842,-0.60891336,-0.12537219,-0.07172996,0.12103284,0.18583106,-0.080318145,0.39593536,-0.25253388,0.58115625,-0.13287762,-0.019329807,-0.09584169,-0.781001,-0.008898189,0.087124676,0.21055904,0.23382087,-0.024988985,0.3812891,-0.15199992,0.20672017,0.067236565,0.033047367,0.03958056,-0.38237193,0.089882046,0.01252997,-0.0695581,0.12957937,0.065010294,0.3825739,-0.18345165,0.28100413,-0.04140205,0.04761996,-0.02969947,0.049692318,0.29983887,0.09603961,0.011888994,0.2907367,0.006601569,0.20531222,-0.5022896,0.04053097,-0.01733428,-0.037527513,-0.009323199,-0.11845863,0.14415894,0.13546106,-0.3640766,0.15080157,-0.05460332,0.35172734,-0.591144,-0.09365245,-0.003343318,0.01990282,-0.11881478,-0.1106334,0.107248105,0.121905655,-0.25308987,0.050715595,0.030544069,0.050995357,-0.80213624,-0.26322106,0.053374123,0.03094962,-0.056435604,0.1484732,0.14268522,0.054924857,-0.3833252,0.12243848,0.0040208017,-0.39898404,-0.9427495,-0.44971573,-0.118283905,-0.05517589,0.045960203,0.02274385,-0.047445968,-0.036745507,-0.6310396,-0.16305482,0.010754554,-0.19586661,-0.635245,-0.77398115,-0.21084467,-0.8356703,-0.30976385,-0.46895295,-0.49230263,-0.50217885,-0.18554921,-0.51423436,-0.727019,0.020966396,0.22346073,0.10343958,-0.28165773,0.26748034,-0.2779869,-0.16623169,-0.22563377,0.13434874,0.024560416,0.07300431,0.21563065,-0.17936033,0.070532516,0.09004895,0.19765873,-0.006021461,0.2051624,-0.21577068,0.1981738,0.22145672,0.11141039,0.27947924,-0.0977032,-0.2229689,-0.20640886,0.2611503,-0.3467483,-0.1029051,-0.3286474,-0.18365301,0.11414126,-0.08499278,0.020790175,0.1530593,-0.20068376,0.4455693,-0.058476526,0.2589021,-0.43679976,-0.18743433,-0.29277045,-0.37472093,-0.06488475,-0.01205648,-0.0768215,0.07718611,-0.2918991,0.18676376,-0.22368751,0.29404035,-0.21184121,-0.10365029,-0.1997859,-0.66052055,0.10538901,-0.033233076,0.06927282,0.19508635,-0.23033373,0.32032174,-0.36336556,0.2826046,-0.1580314,-0.13644151,-0.09535207,-0.5592077,-0.1192127,-0.07720422,0.11895305,0.12832029,-0.10639043,0.5848944,-0.18398397,0.1150683,-0.020656541,0.037626166,-0.01732833,-0.7372218,0.051079076,0.16115168,0.09910252,0.27640212,0.07369953,0.10885737,-0.47559422,0.15109074,-0.1090729,0.06574362,-0.053906236,-0.25033206,0.24575393,0.20584777,-0.05803216,0.39162067,0.094294086,0.14540145,-0.64942056,0.42337364,-0.107951425,-0.09274481,0.010310822,-0.24861547,0.008518604,0.0623636,0.13487332,0.19007789,-0.01622967,0.13315882,-0.74251175,0.27072993,-0.13163666,-0.07460802,-0.13405958,0.022909602,0.1435172,0.06871138,-0.17636567,0.08464522,-0.10213495,-0.060052127,-0.8052721,0.38558984,-0.38668376,-0.1852227,-0.21869688,-0.064634606,-0.014392972,0.010514155,-0.089950435,-0.0028189973,-0.21728796,0.016481241,-0.50436646,-0.1948786,-0.17514691,-0.109713815,-0.33024564,-0.26678172,-0.53864104,-0.35794657,-0.527182,-0.5664508,-0.24022768,-0.30687866,0.19497563,-0.8147206,0.016282825,-0.3880998,-0.055914514,-0.4096352,-0.07235513,-0.39483014,-0.14312927,-0.3096175,-0.1938136,-0.17351547,0.014847648,0.19838496,0.051619567,0.028664377,-0.02278476,-0.19146016,0.12701257,0.26752374,-0.1061729,0.16249163,-0.019504502,-0.36467555,-0.15594602,0.22036774,0.029051749,-0.0068115257,-0.074352846,-0.23447669,0.23348555,-0.06011925,0.0105680125,0.06034915,-0.14657757,-0.28819793,-0.27042237,0.1448339,-0.31227157,-0.33597243,-0.21555719,0.3319184,-0.3531139,-0.5615019,0.0073313997,-0.32005742,-0.44589376,-0.18248597,-0.021179521,0.07252086,-0.30137143,-0.20671405,-0.28806826,0.30228096,-0.52144516,-0.29813954,0.0988299,-0.37576294,-0.2482585,-0.1824383,-0.08431151,-0.054052014,-0.26360327,-0.29778415,-0.24360247,-0.117373385,-0.08955128,-0.18626277,0.14130992,-0.1541286,-0.35013396,-0.045221362,0.06045405,0.20415789,-0.054898832,-0.096724726,-0.18696323,-0.69491667,-0.30434433,-0.29607084,0.24781564,-0.20254186,-0.146324,0.012927181,0.10225189,0.282562,0.22324243,0.20112057,0.047119465
-0.33682796,0.13006566,0.093067005,0.18010029,0.16782928,0.09621046,-0.069117434,-0.17915808,0.35052696,0.1887731,0.07900722,0.026292544,-0.4336384,-0.026871054,0.0847483,0.12892844,0.12033327,0.17807728,-0.42485124,-0.22968848,0.5612792,-0.0059507233,0.01499031,0.08005889,-0.06454655,-0.09077792,-0.11499886,0.16537118,-0.11211114,-0.059423834,-0.060590807,0.028859178,0.55494654,0.042415287,0.010367487,0.0100659,-0.04658149,-0.18616922,-0.008590279,0.21345466,-0.11851594,-0.034919154,0.026829544,-0.28610262,-0.1488,-0.124024086,-0.1767237,-0.043447286,-0.11345415,-0.30173296,-0.12903889,-0.32003844,-0.31686503,0.0250446,-0.20240107,-0.23697002,-0.6611241,-0.20216206,-0.38674235,-0.04502954,-0.034382924,-0.13152683,-0.08132735,-0.41714063,-0.29997745,-0.2664767,-0.281772,0.18235059,-0.5176359,-0.116218664,-0.4438941,-0.22285478,-0.27866253,-0.066922985,-0.34008843,-0.13761036,-0.2541015,-0.4035879,-0.076474346,0.09444315,-0.07438778,0.3449488,0.04935588,0.288364,-0.22025672,0.2450824,-0.09950465,-0.20698783,-0.05012258,0.09769145,-0.18750688,-0.026594179,-0.52763987,-0.026773058,-0.09678154,0.015468065,-0.084694445,0.0775838,0.057837583,-0.31322646,-0.14907509,-0.033453118,-0.450692,-0.098776475,-0.34650984,-0.091152355,-0.18344027,-0.046224218,0.16137342,-0.34743693,-0.20876719,-0.16187242,-0.39015758,-0.15745421,-0.2877818,0.22347604,0.1838572,-0.24214832,-0.23847988,-0.2495642,0.20651186,-0.1879828,-0.2744424,0.40676636,-0.22152565,-0.31262788,-0.4447844,0.0830588,0.12232091,-0.40373376,-0.28871012,-0.17945142,-0.17190653,-0.39394212,-0.342852,0.3215376,-0.4564666,-0.26796588,-0.25242716,0.27945408,0.08935395,-0.2794636,-0.32251182,-0.37660253,-0.6411894,-0.28338528,-0.38085568,0.30957827,-0.291135,-0.26894894,-0.46468765,0.08795047,0.23189245,-0.0010580812,-0.027610954,-0.09799745,-0.68390644,-0.033999324,-0.046935607,0.368656,0.0071079037,-0.090297915,-0.5176569,0.13333023,0.16808936,-0.009752105,0.006433935,-0.13334383,-0.49316695,-0.13737553,-0.102044016,0.24152365,-0.10635408,-0.046139948,-0.26647615,0.22822517,0.41346547,0.046178076,0.05823329,-0.018780777,0.049533185,-0.2042753,0.044752616,0.29270798,-0.038837213,0.14972118,-0.48847497,0.17649014,0.09382849,0.103023164,0.107928336,0.08468895,0.13781892,0.026765123,-0.017846365,-0.08626738,-0.03798053,0.043823402,-0.07148482,0.15386955,-0.25044802,0.10137231,-0.08452863,0.06643766,0.05084025,0.078852214,-0.046281107,-0.26279142,-0.040950775,-0.0013475637,-0.20119725,-0.16236001,-0.67023313,0.20755887,0.14986925,0.2368233,0.12174383,0.11927815,0.11936135,-0.5017109,0.1812701,0.21271838,-0.25685352,-0.27773917,-0.67211246,-0.420365,-0.19228312,-0.13544895,-0.10210386,0.12295353,0.052769657,-0.20644723,-0.043430436,-0.05996798,0.052295342,0.30637676,-0.2547474,-0.03385225,0.40013543,-0.092880666,-0.21257308,0.24404652,0.019196728,-0.20927757,-0.00039579146,0.20570889,-0.04682372,0.014478575,-0.54463303,-0.13162526,-0.18872425,0.079452634,0.03229348,0.022279901,0.056606326,-0.41710278,-0.22002935,-0.15086605,-0.2990644,0.16616496,-0.028064528,0.038807873,-0.10147802,0.07055523,0.1719229,-0.30031323,-0.21626379,0.093157664,-0.37847772,-0.0722606,-0.22637063,0.08068141,0.16705266,-0.27189216,-0.16835828,-0.24212965,-0.351302,-0.24345975,-0.33761445,0.28464466,-0.21116407,-0.17313923,-0.16007687,0.060453247,0.24365316,-0.16000497,-0.036913063,-0.20990644,-0.22247383,-0.29905504,-0.19657993,0.5037093,-0.21584989,-0.047956984,-0.058575403,0.31856158,0.46368256,-0.03731322,-0.029823083,0.010337753,-0.16941753,-0.35794047,-0.1725833,0.672731,-0.20633848,0.077728264,-0.37766558,0.29184347,0.37892222,-0.09662875,0.015830357,0.061310723,-0.3888915,-0.2884643,0.052343156,0.53182185,-0.18923537,0.010881488,-0.15524401,0.18641324,0.13483983,-0.067947604,-0.122804314,-0.08235346,-0.28547513,-0.156185,-0.14638823,0.17688678,-0.2524821,0.0015798486,-0.009594543,0.304818,0.046930373,0.06776344,0.17484789,0.098575555,0.20354626,0.06253555
0.06476071,0.19455676,0.0077611143,0.13673496,-0.34573522,0.24588317,-0.28904137,0.14997134,0.08306556,0.13030367,0.29947653,0.09305642,0.1657743,-0.18682428,0.031383283,0.05675826,-0.19492213,-0.06812582,-0.70125794,0.10333744,0.20137382,0.045334272,0.09757232,0.0016095106,0.17681158,-0.5981646,0.043287724,0.19459152,-0.51906705,-0.40741035,-0.25200075,0.12592003,0.073373884,0.20482653,0.17423002,0.19651397,0.13269094,-0.24784067,0.16409892,0.16238254,-0.10939242,-0.8547245,-0.42240378,-0.31010908,-0.108049266,-0.09420896,-0.00080480595,-0.24559836,-0.13045692,-0.24329151,0.085889876,0.17193548,-0.00728518,0.18032292,0.11477685,-0.34191188,-0.080915436,-0.28649616,-0.17375258,-0.21453376,-0.24283412,0.027682643,-0.043047514,-0.10826848,-0.048438217,0.12318538,0.009941205,0.017874978,0.025901446,0.036530398,-0.21433753,-0.28439,-0.22772954,0.102903664,-0.21549867,0.059798095,-0.20381437,0.21506986,0.081200935,0.16180162,0.17064819,0.114526525,0.13031112,-0.085072085,0.019471291,0.22692885,-0.019894332,0.04632143,-0.22255635,0.05559466,0.025581993,-0.02016953,-0.014278603,0.026579442,-0.32184383,0.0412727,0.05762528,0.12646073,-0.06473048,0.009228149,-0.39433187,0.1012742,0.21419932,-0.0850901,-0.038787127,-0.08487094,-0.20694274,-0.2032233,-0.15013601,0.25291544,-0.23301315,-0.1795177,-0.117515005,0.23504297,0.26394224,0.00895632,-0.003960881,-0.13069019,-0.4309953,0.033677325,-0.13897675,0.2807669,0.033770714,-0.040656198,-0.23996319,0.029611198,0.28436852,0.10843701,-0.0060120863,-0.061652794,-0.38278124,-0.07828403,-0.058367047,0.16099451,-0.012882121,0.0845487,-0.266209,-0.043501142,0.35310957,0.0322139,0.10566251,0.09750728,-0.12051395,0.08705469,0.10138121,0.24835093,-0.026750688,0.07658996,0.25340712,-0.16759722,-0.20535326,-0.0051241093,-0.005446038,-0.009422535,0.108713515,0.04863852,0.08935024,-0.30194905,0.09559512,0.002452311,0.04786494,0.065241784,-0.20374738,0.22399116,0.04130419,0.09861162,0.093019396,0.15299647,0.059085205,-0.48278752,0.049798965,0.06694537,0.024829553,-0.08492759,-0.35282683,0.14575243,-0.06437275,0.17612235,-0.103694364,0.30164298,0.09089033,-0.61515355,0.15547378,-0.021156354,-0.0061016465,-0.6129462,-0.14254408,0.041304894,0.040469367,0.01715223,-0.0010337185,-0.040376272,-0.06252361,-0.3256194,0.03714605,0.21900375,-0.24285448,-0.53745544,-0.20031692,-0.21156976,0.13610826,-0.082637504,0.025435878,-0.4117323,-0.07810292,-0.18267891,-0.036143273,0.24825081,0.0050062113,-0.15344024,-0.18034688,-0.14306246,-0.063505866,-0.14074571,-0.12383177,-0.46910882,-0.29999653,-0.11849996,-0.20995018,0.045122422,-0.17889173,0.0639603,0.04558232,-0.10609842,0.032511193,0.20124449,-0.13821733,-0.05548139,-0.053524166,0.011156424,-0.095758416,0.07907066,-0.0700853,0.19429195,0.12687199,0.09478655,0.04996751,0.014970941,-0.092380464,-0.29555726,-0.1960225,0.109952934,-0.17257126,0.05903976,-0.33874017,0.13454492,0.1881444,0.1794649,0.035355605,0.13179655,0.024370324,-0.2234717,-0.101753674,0.18716429,-0.22618484,-0.0063930517,-0.24602984,-0.016394775,0.2133187,0.18174195,0.09958371,0.14354382,-0.5063776,-0.10984171,-0.056470815,0.18319651,-0.10471706,0.15546271,0.23702015,-0.17716075,0.11239569,-0.1608243,-0.09191915,-0.00833394,-0.47964996,-0.04807127,0.093482435,0.028733445,0.013216364,0.06808183,0.1407349,-0.23524843,0.3140329,-0.1392054,-0.09220299,0.022075363,-0.33810017,0.21390384,0.12288376,0.061190084,0.13876288,-0.059142567,0.47359103,-0.20994402,0.22637609,0.0051626535,0.0648443,-0.060877237,0.04536501,-0.09890117,-0.021169188,-0.048938707,-0.0047156303,0.064130284,0.30895865,-0.39500654,-0.20784499,0.008005953,-0.0840448,0.06037593,0.026315132,0.06211452,0.0074468595,-0.29655677,0.06981129,-0.027298275,0.1248211,-0.63898575,-0.28303087,0.11214412,-0.01645802,0.0653985,-0.07816232,0.1098224,0.08591301,-0.36492077,0.04994759,0.046480007,-0.31572634,-0.86262184,-0.21313804,-0.0024520908,-0.08253512,0.018750386,-0.06793567,0.10179066,0.09867167,-0.4893837
0.0015959609,0.026829652,-0.08818469,-0.45648232,-0.27139673,0.035592932,-0.066750064,-0.050675493,-0.0926225,0.0027083368,-0.2961672,-0.24697796,-0.14385991,0.009506503,-0.11625069,-0.5432681,0.095773354,-0.2812843,-0.17748488,-0.05173279,-0.041738972,0.16688138,0.024297822,-0.1221863,0.13090453,-0.24098964,-0.023036133,0.20865762,0.14228635,-0.09227602,0.16838495,-0.12318611,-0.10668384,-0.17094785,0.12002245,0.056493886,0.22238873,0.2596813,-0.02507998,0.038414843,0.06640164,0.13920319,0.30135217,0.29691467,-0.19727011,0.14309798,0.1944052,0.0029405293,0.077521816,0.21536805,0.16871694,0.11711474,0.018590838,0.020654006,0.099445365,-0.01859527,-0.43590048,-0.011980475,-0.06884296,0.10243578,0.099592976,0.15360773,0.059780832,0.019267296,0.07870021,0.12216524,0.14852582,0.08655503,-0.48331717,0.058009546,-0.015869586,0.083338626,0.11853363,0.12449949,0.2737004,0.07091361,0.14603506,-0.13515687,0.14154631,-0.07498017,-0.5985355,0.08316623,-0.007852232,0.13508964,0.19119237,0.036957547,0.4682123,-0.059061512,0.076395385,-0.00983174,0.025230626,0.036301423,-0.42176658,-0.015682174,0.05033988,0.010187226,0.1484213,0.0060854787,0.4061452,-0.25404242,0.07592433,-0.07246518,-0.12330024,-0.050570954,-0.18051991,0.08124315,0.1524021,-0.005350356,0.12626927,-0.031809784,0.63788515,-0.084190436,0.14071505,-0.17119366,-0.040764607,0.030750725,-0.0813013,0.24910444,0.122146174,-0.072613545,0.16398846,-0.033800583,0.054272037,-0.23842598,-0.097038954,-0.0984144,-0.07570204,-0.19218925,-0.11462351,-0.10360848,0.05546891,-0.30756363,-0.14379442,-0.11723411,0.026487527,-0.15014227,-0.14806873,0.16052134,0.030842964,0.0028433376,-0.023241887,0.057926793,0.14375599,-0.20358191,-0.031138666,-0.0125454515,-0.17663735,-0.4041359,-0.22906555,-0.02278075,-0.05594755,-0.098383196,0.057941016,-0.1377817,-0.054914426,-0.4007586,-0.21981679,-0.012382912,-0.055966623,0.12977964,-0.12000902,-0.24158368,-0.23697874,-0.092688784,-0.22607513,0.08848136,0.07755411,-0.14812177,0.19535637,-0.121294886,-0.07283142,-0.39654073,0.2159227,0.1738374,0.14452302,0.056090083,-0.0596816,-0.13585313,0.0087259,-0.15931395,0.2277077,0.13275436,-0.12317706,0.25005925,0.38034624,-0.05300716,-0.23293774,-0.011446695,-0.18739587,-0.025213413,-0.03432619,-0.07818278,0.14072521,-0.101793244,0.022031128,0.4613624,0.2998383,0.123052135,0.25917432,0.06326558,-0.17335105,0.08815378,-0.0701874,0.1453239,0.04090072,0.0757261,-0.059866305,0.09874648,0.17584853,0.20195027,0.32603088,0.3538129,-0.12493532,-0.11500526,-0.025183445,0.08697092,0.14438231,0.48032993,-0.12257229,0.049506105,0.023674661,0.086910345,0.25645,0.14854182,-0.28751627,0.002963707,0.09904433,0.060744204,0.03134422,0.47010383,-0.12694448,0.08181745,0.08021274,0.0126149785,0.12570648,0.46935079,-0.11577866,0.06408944,0.4299187,0.024808927,0.34253222,0.45148656,0.15839455,0.06573338,-0.00616093,0.03906504,0.13914356,0.18752226,0.08913985,0.16631527,0.14499012,0.04754359,0.20074508,0.1400596,-0.054534204,-0.1392077,-0.032213245,-0.068618156,-0.12124193,0.038385358,0.37548593,0.24237049,0.04918263,-0.092084035,-0.031094627,-0.37959656,0.43285367,-0.078898296,0.021831451,-0.21298946,-0.20937744,-0.2642933,-0.08706886,0.04106991,0.059845854,-0.09586367,-0.096970305,-0.34476778,0.21635938,-0.045274794,-0.11776963,0.041857935,0.11940852,0.19358526,-0.110353395,-0.01302117,0.28190586,-0.08370372,0.049641255,0.17011097,-0.22525948,0.052836988,-0.08440475,0.10017783,0.01256224,0.35896838,-0.06591579,0.41739872,0.46167415,0.12873091,0.49520585,0.034886338,-0.11956951,-0.3686473,0.012218482,0.06435756,0.22737311,0.26644346,0.09413292,0.1677052,0.12756804,-0.20390782,0.21115692,0.27052566,-0.2077754,-0.16325532,-0.2822743,-0.046712674,-0.040707856,-0.056984976,-0.11433398,-0.085962676,-0.01006172,-0.17971133,-0.09443647,0.054627307,-0.17383555,0.0064237923,-0.23230855,-0.09193176,-0.13853946,-0.0978092,-0.16329335,-0.05086855,-0.0726919,-0.17233966,-0.12642784,-0.082079165
-0.21524778,-0.2776154,0.30158415,0.04085636,-0.08038454,-0.030985678,-0.14587234,-0.04170616,0.035673402,-0.061582826,-0.0054145358,-0.11702456,-0.2309833,0.049085382,0.32201302,-0.0013707444,0.00065338035,-0.1148928,-0.25558522,-0.032523565,-0.039258957,-0.07945161,-0.10578362,-0.12893176,-0.06868406,0.22856252,0.29928926,0.2167041,0.10306472,0.18684892,-0.1639025,0.046371307,-0.017916739,-0.1017209,0.024281396,0.13200997,-0.12946488,-0.43474823,0.3102531,0.121619,0.021731805,0.094535515,-0.16130322,0.106400855,0.093491994,-0.08047285,0.07290184,0.059135772,-0.40180147,-0.38274693,0.14589944,-0.3260171,-0.36463085,-0.2810857,-0.19288391,0.053831283,-0.18779123,-0.12921117,0.053044584,-0.35414585,-0.24803004,-0.18797609,0.03885647,-0.13785988,-0.19312276,-0.27108955,-0.3060263,-0.29454684,-0.28960985,-0.20068525,-0.31033298,-0.29981735,0.33219954,-0.075248204,-0.46754536,0.14727463,-0.13826935,0.10857147,-0.22106072,-0.3354174,-0.16313168,-0.36805123,-0.30966464,0.12529533,0.04168353,-0.6913865,-0.51860064,-0.23336585,-0.44988462,0.094012566,0.10330389,0.18013303,0.08179953,-0.42263553,0.20543945,-0.11885411,-0.26559773,-0.10937127,-0.09946681,-0.52825177,-0.54736716,-0.52457994,-0.41242707,-0.45622897,-0.49940324,-0.16263805,-0.5271513,-0.50453085,-0.11883645,-0.12835427,0.30233964,-0.13330173,-0.17675029,-0.25202066,-0.35313192,-0.46410084,-0.26994163,-0.07875775,-0.51908654,-0.17956482,-0.18196149,-0.06084399,0.3383165,-0.28104046,-0.06727998,-0.2426006,-0.22405976,-0.045457426,-0.18449795,-0.09155646,-0.064259976,-0.22519326,-0.13592798,0.06632833,0.31831434,0.017414408,0.022858396,-0.20401439,-0.1877109,-0.23698065,-0.14370914,-0.076034956,-0.33798704,-0.091957875,-0.15971391,-0.018147761,0.3861207,0.052383643,-0.0027327978,-0.052697953,-0.23142913,-0.09737299,-0.018423958,-0.08097918,-0.08794519,0.06532601,-0.1591354,-0.3219885,-0.05444986,0.032542937,-0.058683608,0.032050848,-0.19532888,0.0010426944,-0.003703412,-0.0867394,-0.082106575,-0.030810673,-0.19919126,-0.12918013,-0.09402744,0.042310026,0.0020352511,0.006125699,-0.16648127,0.0060605383,0.11703146,-0.11947179,0.07497506,0.022716548,-0.090084285,0.3490539,0.17023996,0.083371095,0.14434358,-0.018868966,-0.075982794,0.17205623,0.0665458,-0.1390206,0.40766034,0.087877646,0.036425553,-0.09532773,-0.24337985,0.008212147,0.13200942,-0.12826476,0.07006981,0.20269841,0.12490949,-0.18675195,0.21552716,0.004603422,-0.08249265,-0.39261907,-0.44001794,-0.074136354,-0.14978614,-0.107458375,0.19597824,0.045068085,0.027872972,-0.38374642,0.060502097,-0.08581677,0.00987237,-0.09945429,-0.4820875,-0.28991562,-0.27647614,-0.14600384,0.019204436,0.1727958,-0.061511494,-0.33749697,0.024755485,-0.18976603,0.20116079,0.23054138,-0.68373257,0.1878099,-0.04939542,0.09177761,0.05442801,0.42331085,0.23206912,-0.39921862,0.33617336,0.018972946,0.07926169,-0.052305475,-0.14733599,-0.011637275,0.011391889,0.065241605,0.24482928,0.38262814,-0.04140155,-0.49658352,0.13094774,0.0651677,0.44354638,0.3345486,-0.26038775,0.14919347,-0.1574771,-0.064790085,0.17585513,0.22821255,-0.05279448,-0.39558893,0.3000565,0.025414914,0.25360018,0.66729045,-0.44302878,0.03445512,0.0708812,0.01559247,0.14121273,0.07654592,0.07624177,-0.1901213,0.13442257,0.06450057,0.21344902,0.14419042,-0.2701449,0.0074008806,0.17629874,0.06582132,0.051776554,0.04603818,0.03258952,-0.27933168,0.15879384,0.04789512,0.11544669,0.19664529,0.11905547,0.2596138,-0.079434395,0.21594079,0.005953951,0.10632732,0.14644319,-0.1298134,0.17117915,0.12515305,-0.25978404,0.07441611,0.21034028,0.14984313,0.17460763,0.20211314,-0.075858295,0.24042971,0.25104353,-0.09528657,0.15745807,0.17050028,-0.16631374,0.0024227975,0.26885095,-0.03904345,-0.05892137,-0.046403453,-0.21326481,-0.010884882,-0.036537077,-0.112263925,-0.0213649,-0.08491978,-0.11934282,0.18295209,-0.43905315,0.14516543,0.11055318,0.12733169,-0.20313367,0.15770665,-0.024341073,-0.12218438,-0.06842737,0.065229885,-0.10672256,0.17551818
