0.5364562,0.20445168,0.0069033466,-0.03050489,0.06043842,-0.008437015,-0.033043087,0.07720448,0.03355639,-0.13131724,-0.032469247,0.3963733,0.5086831,0.0012548012,-0.0020484643,0.07564493,0.046907376,-0.0030021772,-0.030658247,0.09874774,-0.018505052,-0.100793816,0.101679265,0.40294516,-0.038091667,-0.22014694,-0.04729402,-0.033773787,-0.07153683,-0.05418594,-0.08816261,-0.29919612,-0.025621831,-0.032601204,-0.047945507,0.43583983,-0.32298303,-0.24930349,-0.13598669,-0.0077221314,-0.15790409,-0.22209054,-0.186878,-0.34388125,-0.1837256,-0.122190304,-0.25108573,0.39170367,-0.09883833,0.01566165,-0.19417462,-0.08737091,-0.29215324,-0.14030457,-0.0711902,-0.043908723,-0.17598672,-0.17732869,-0.38069794,0.3566267,0.10924872,-0.18641734,-0.22434571,0.0067136846,-0.10688367,0.08689864,0.03323616,0.16918337,-0.06068016,-0.08763507,-0.018618844,0.37428182,-0.122155584,-0.21490231,0.1006959,-0.327742,-0.11833811,-0.11623189,-0.2557803,-0.057365287,-0.19944994,0.11652199,-0.192252,0.4677791,-0.28282577,0.05435648,-0.25052553,-0.244344,-0.30597514,-0.3057331,-0.21766241,-0.20012033,-0.28339985,-0.22079979,-0.17352583,0.34201849,-0.31369835,0.0038930054,-0.26729292,-0.0014662484,-0.15835647,-0.114557974,-0.042647272,-0.024927998,-0.14674073,-0.2279784,-0.062020756,0.40047988,-0.26415765,-0.17278723,-0.19655758,-0.19187796,-0.27214655,-0.23544024,-0.27211842,-0.14536801,-0.141377,-0.12511261,-0.25421298,0.37237146,-0.3463246,-0.09706586,-0.20121244,-0.19737887,-0.34538406,-0.28527606,-0.15255797,-0.2544516,-0.16481148,-0.14828654,-0.37323335,0.38043398,-0.064685464,-0.062307555,0.054376606,-0.1243382,0.09112129,-0.03185963,-0.044745285,0.030330323,-0.044724185,-0.1028707,0.0387774,0.4302338,0.34172285,0.018851517,-0.013892249,-0.053140506,0.06867168,0.033498637,-0.071669415,0.0039094854,0.011043012,-0.12528649,-0.035194665,0.37567773,0.4385484,0.22159874,0.009579064,0.052704934,0.093246534,-0.010906504,-0.072874695,0.038418148,0.022837183,-0.06400307,0.058431055,0.4626335,-0.28109306,-0.100415066,0.018483322,0.026228352,-0.051534798,-0.13050088,-0.099589474,-0.2813295,-0.022634337,-0.018324109,-0.025586186,0.41593954,-0.14992678,-0.1668612,-0.26546496,-0.15096866,-0.07654471,-0.14161167,-0.16422375,-0.15837376,-0.30141714,-0.16801666,-0.18397689,0.5149772,-0.1295501,-0.08688553,-0.15490453,-0.03819769,-0.06462668,-0.062334694,-0.16209646,-0.050653234,-0.105918124,-0.09442398,-0.022123238,-0.07263628,-0.06686102,-0.12435398,-0.284198,0.019575594,-0.005784244,0.05243749,-0.03233984,0.020159736,-0.012339123,-0.31058797,0.027576433,-0.15204962,-0.14817464,0.010039029,0.17733149,0.054210506,-0.11941386,-0.05615102,-0.17893435,-0.14556448,0.012025237,0.01186086,-0.085004315,-0.2846196,-0.00889687,0.19534397,0.02451276,0.035454717,-0.09279778,0.03800867,0.08731646,0.14395577,-0.17947511,0.30349436,-0.119380355,-0.091433935,-0.021217676,-0.009316038,-0.07562231,-0.16770089,-0.07721415,-0.05118612,0.052737284,-0.14649783,-0.20711002,-0.08893126,-0.06353362,-0.000118603944,0.017250985,-0.15477334,-0.6044273,-0.25764114,0.074767716,-0.024742015,0.10843279,-0.0016564575,-0.12901883,-0.19218336,0.0671064,-0.051969685,0.093899675,-0.1998544,0.16403802,-0.04387747,-0.13841301,0.20770177,-0.455041,-0.12256087,-0.10331061,0.13921866,-0.32746854,0.05546118,-0.16779588,-0.30510947,-0.27594337,-0.22443044,-0.20795177,-0.34493482,-0.23935942,-0.2767611,-0.058302008,-0.3098368,-0.14952949,0.07775288,-0.1687692,-0.256,-0.0828515,0.027526451,-0.26581332,-0.0035025063,-0.36071825,-0.25202507,-0.19920716,-0.09262694,-0.4329331,0.19376002,-0.26600942,-0.06821831,-0.15061663,-0.16188952,-0.30414116,-0.103656664,-0.044545893,-0.07638175,-0.14810291,-0.13142118,-0.1979511,0.29408592,0.42120346,0.007311874,-0.03172616,-0.016857846,-0.0615019,-0.013626734,-0.039248668,0.02400616,-0.06269667,-0.053633403,-0.051314488,0.39017507,-0.1125144,-0.11262188,-0.038460348,-0.13904764,-0.17347756,-0.082827345,-0.12147496,-0.084964864,-0.17801708,-0.05799052,-0.25307256,-0.21516047,0.022803541,-0.22748108
-0.023669789,0.010525997,-0.045633707,-0.025842167,-0.03327955,0.010143634,-0.13754472,-0.2327153,-0.111735426,-0.51754135,-0.06569564,-0.20765574,-0.16773549,-0.09566778,-0.03468306,-0.008736692,-0.051776014,-0.07705731,-0.024920275,-0.11199284,-0.08074519,-0.5200193,-0.14706773,-0.2726706,-0.15433732,-0.08766971,0.051938925,0.07622546,-0.12908274,-0.04485809,0.10267259,-0.3238824,-0.049307328,-0.84747815,-0.0043461085,-0.21629155,-0.081883825,-0.19266213,-0.026193323,-0.06767394,-0.120650515,-0.012591471,-0.010439859,0.07990108,-0.19120662,-0.4527166,0.023206957,-0.090832554,-0.13892123,0.001089319,0.02595756,0.06585297,-0.04677231,0.02028952,0.086883314,0.193268,-0.12527034,-0.23607652,0.06924399,-0.16258094,-0.21620765,-0.08428898,-0.12790528,0.015070184,-0.12624784,0.01550979,-0.059951045,0.2708065,-0.054019287,-0.17252599,-0.015221033,0.0415918,-0.16045508,-0.10290709,-0.025382819,0.04125521,-0.23941636,0.08075132,-0.033130303,-0.27197206,-0.3528755,-0.15076332,0.11062325,-0.09555714,-0.036206022,0.016266532,0.06974903,0.06832492,-0.29123777,0.09049795,0.09322143,-0.14352798,-0.2871219,-0.2572347,0.14521328,-0.13626604,-0.13010167,-0.11669446,0.071849965,0.16241693,-0.19118308,0.03534521,-0.07386634,0.006387118,-0.07628244,-0.10629507,0.104401626,-0.02226747,-0.07596285,-0.12827103,-0.088466436,0.20989785,-0.5297734,0.05681181,-0.09845565,0.05500516,-0.51067704,-0.30913857,-0.10688596,-0.28465185,-0.07072358,-0.41327864,-0.103617676,-0.1733573,-0.15790628,-0.33034965,-0.18932234,-0.20891005,0.10312084,-0.46198294,0.22739023,-0.09191458,-0.0070005637,-0.03822577,-0.057864636,-0.12863033,-0.11488094,-0.040798914,-0.12155183,-0.09297013,-0.058127984,0.3664718,-0.14875264,-0.014223726,-0.06996839,-0.12918302,-0.055852585,-0.16286229,-0.04061438,-0.17227058,-0.13950297,-0.11108995,-0.110413484,-0.054600716,-0.14155434,-0.12115973,0.04147163,0.058330536,0.008027363,0.01390147,-0.09328078,-0.080184884,0.1164758,-0.16928421,-0.0045674285,-0.21751165,-0.031614438,-0.02787913,0.040935323,-0.027693285,-0.0041830153,-0.046422984,-0.015616751,0.030744763,-0.11815366,-0.22093941,0.010358927,-0.20499313,-0.104321495,-0.10382818,0.123838335,0.011191455,0.06572641,0.08763799,0.098091,-0.011810602,0.050547503,-0.11596304,0.06963711,-0.3551755,-0.09660588,-0.09632622,-0.1373094,-0.040844925,0.031395286,0.0044111162,-0.1707229,0.041273132,-0.086657405,0.151415,-0.09257249,-0.18567023,-0.07674714,-0.09714933,-0.04970043,0.031235931,-0.10274894,0.06886629,-0.11425942,0.10544699,0.0057046493,-0.1841333,-0.18760242,-0.03010761,0.17477526,0.12618615,-0.1131817,0.05787686,0.057550203,0.055732332,-0.24010868,0.07544261,0.03475047,0.036062144,-0.20871748,0.12052359,0.34898078,0.2559662,-0.051296536,0.10248828,0.12726618,0.09071032,-0.38331687,0.0822023,0.0778955,0.078926384,-0.22091255,0.07549636,0.08810468,0.29524535,-0.08041218,0.06565597,0.011481104,0.15028447,-0.26822117,0.21038505,-0.04836669,-0.004236656,-0.14592247,-0.12564616,0.13615237,0.35379875,0.076229304,0.14066726,0.09279122,0.16796802,-0.12220173,0.14029443,-0.036745384,0.16415082,-0.20220396,0.15592878,-0.02937917,0.2945122,0.022699391,0.03890784,0.034832034,0.07845644,-0.15691851,0.16746514,-0.040314287,0.09898111,0.091081016,-0.03396194,-0.029069437,-0.021635965,0.051061593,0.008509256,-0.5131516,-0.16805026,-0.11727544,-0.05499266,-0.3710274,0.014110727,-0.5767825,-0.119525716,0.25524762,0.18427935,-0.03674779,0.18422225,0.14150003,-0.041782714,0.072421,0.27036104,0.063904755,-0.09002781,0.21784398,0.30970365,-0.13708258,-0.07655796,-0.029457603,0.106074415,-0.27953237,-0.019354206,-0.09328282,-0.21521357,-0.1577356,0.0045994846,-0.3013861,-0.040183023,0.09298382,0.17511058,0.15346046,0.009381269,0.10216113,0.04664717,0.16620499,0.1056276,0.027449638,0.19299859,0.12738,-0.39044294,0.14148293,-0.034149215,0.16028075,0.06697434,0.10078092,0.08748106,0.012495209,0.012300378,0.15408917,0.0076678763,0.021037837,-0.48400792,-0.09077879,0.044516157,0.17699654,0.06648486
0.055201627,-0.028509786,0.051100284,0.0026379835,0.12316939,0.25804436,0.07539586,-0.21946509,-0.22736298,-0.041117597,0.039535247,0.051139545,-0.08280687,0.018734636,-0.06651183,-0.04951644,0.13291153,-0.028344499,-0.051009953,-0.26815826,-0.20524788,-3.096131e-05,-0.05600631,-0.0640134,0.11045488,-0.053537007,-0.016108481,0.0081122285,-0.0039778007,-0.05783301,0.024577163,-0.038629994,-0.14062227,0.19949181,-0.0101766,-0.053484052,0.08881277,0.016985748,0.058911238,0.18035969,-0.036832828,0.11451627,0.13896416,-0.050199524,-0.07465328,0.18798609,0.044075027,-0.0064481157,-0.058045592,0.10860385,-0.10615149,0.053054605,-0.059725273,0.3063794,0.0359745,-0.04889686,-0.2780092,0.32833531,-0.008913111,-0.09329953,0.17099783,0.054488406,0.066767976,0.1257645,0.090625204,0.23239939,0.19675605,-0.3095921,-0.081918105,0.22880058,0.08438844,0.0150587605,0.019976681,0.13991891,0.17866655,0.1939317,-0.0667564,0.2528732,0.01959303,-0.108993284,-0.11279709,0.09388912,0.16862887,-0.05468843,0.044295695,0.033907812,0.3302259,0.112764604,0.094671845,0.2676933,0.23957483,-0.23650251,-0.07276522,-0.77738786,-0.3515692,0.13504487,-0.39351487,0.04225271,-0.10439981,-0.5231059,-0.3149134,0.074942335,-0.4556909,-0.6718928,0.010964542,0.0813863,0.018572237,0.019514704,-0.11388053,0.0072689475,-0.061321333,0.02117932,-0.09228729,-0.1200299,0.07415926,0.32735434,0.083012894,0.2068888,0.16757683,-0.14068061,-0.02889408,-0.22771974,0.057656318,0.039924208,-0.2477609,-0.054567385,0.015085472,-0.116890274,0.14424412,0.10688243,0.34864348,0.11613265,0.15056095,0.17152995,0.210017,0.1724067,0.1536834,-0.013155788,0.2558541,-0.59562236,0.1788131,-0.118903056,0.17550598,0.06841402,0.16965099,0.028423391,0.1615369,0.2325467,0.12617403,0.28480583,0.18764602,-0.3429587,0.04084004,-0.08804437,0.15944135,0.13902849,0.1913588,0.00015841286,0.14859341,-0.05500717,0.15265629,0.08125945,0.13092442,-0.39280838,-0.2512016,-0.27712768,0.09933667,-0.021189425,-0.03792829,0.012035418,-0.021181852,-0.020294247,-0.011739612,0.29749388,0.025749661,-0.58685195,-0.6978198,-0.119934924,0.046075966,-0.09903103,-0.17246245,-0.15671355,0.046796534,-0.07131331,-0.15770963,0.2975696,0.059971675,-0.13156883,-1.1891627,0.35578364,-0.32771227,-0.1102566,-0.04301723,-0.22164553,0.15194687,-0.10774106,-0.14088646,0.15761207,0.14397864,0.0840611,-0.49248424,0.16853632,-0.0923715,-0.040143512,0.05288778,-0.09636198,0.30516374,0.063251436,-0.13951164,0.109735385,0.11033307,-0.19492215,-0.1526857,0.16638866,-0.1304132,-0.062667385,0.073294125,0.023717364,0.24189311,0.050898246,0.04774676,0.04740316,0.22482339,-0.20232037,-0.14632677,0.20150052,0.17497404,0.11458251,0.17277549,0.15792337,0.30688372,0.16194841,0.16490377,0.33945328,0.33846122,-0.36326432,0.0740626,0.40682706,0.084924854,0.10913626,0.19471192,0.09751243,0.2937398,0.07369653,0.1350139,0.35571173,0.40268207,-0.5066767,-0.06504932,-0.64980143,-0.06477238,-0.098836586,-0.33359727,0.11352914,-0.17129268,-0.26300514,-0.15857346,0.12093405,-0.52711916,-0.5916652,-0.23183915,-0.16987154,-0.02379259,-0.1160642,-0.051642854,-0.06626575,-0.16255319,-0.22569439,-0.09964935,-0.055197243,-0.12779112,-0.19659616,-0.082812734,0.29054958,0.07566541,0.02560259,0.08476269,-0.19598038,0.106810205,-0.015284241,-0.14976053,0.026189758,0.069537975,-0.07374729,-0.27486184,0.098853104,0.4941157,0.28672042,0.15932065,0.20859124,0.20143121,0.15288672,0.3991885,0.20750208,0.28880376,-0.79438096,-0.1273394,-0.11825691,0.15217434,0.13094182,0.25866985,0.14096251,0.16662374,0.26841155,0.39107642,0.12974906,0.2639444,-0.689513,-0.13049245,-0.13207625,0.33410046,0.23128259,0.18947305,0.23090748,0.54954374,0.090216786,0.24161693,0.2411951,0.36231917,-0.41903976,-0.7460278,-0.28929198,0.2773941,-0.016970187,-0.013706434,0.06306762,0.20102607,0.035325978,0.12772214,0.36197266,0.17649223,-0.7066461,-1.0084772,-0.4958408,0.12058571,-0.15905863,-0.11319328,-0.1473124
-0.35836414,-0.20930059,-0.10710858,0.7108692,-0.43533617,-0.59417975,-0.77940625,-0.06096377,-0.4262324,-0.35434705,-0.24801773,-0.4467861,0.46655005,-0.28194392,-0.30793118,0.19003536,0.19931537,-0.6456054,-0.22565235,0.19922031,-0.07687883,-0.080227196,0.048980687,-0.06350839,0.46336976,-0.008933444,0.111693315,0.09270497,0.24043907,-0.15063348,-0.30665252,0.107242145,-0.003938035,0.088635735,0.073260814,0.05333917,0.15725133,0.07712621,-0.0022265215,-0.07398881,0.13032773,-0.19990413,-0.4191694,0.15856256,0.1357645,0.22940671,0.047488388,0.1267961,0.52699053,0.05912474,0.0388914,0.23077586,0.39565623,-0.2520198,-0.36030492,0.29107225,0.1553969,0.08365992,0.17204477,0.18442531,0.09769513,0.29206845,0.05666655,0.24365248,0.31760952,-0.17058653,-0.25849855,-0.40781948,0.2189689,0.07273245,-0.013319634,0.15400718,-0.19470803,-0.055727594,0.096612126,0.12471509,-0.45789388,-0.5920628,-0.55647004,-0.37114462,-0.101510726,-0.25456777,-0.2639303,-0.2126338,-0.3119582,-0.21940945,-0.1264204,-0.12666078,-0.40176073,-0.57406485,-0.049570944,0.13307932,-0.22122806,-0.1856759,0.10916709,-0.08021572,0.15009524,0.074664235,-0.11486568,0.03919036,0.24710603,0.044886425,-0.20447966,0.17682917,0.06861077,0.04851744,0.2686003,0.12170201,0.29759413,0.19833927,0.20069155,0.4656925,0.47358787,-0.3416461,-0.3467334,0.21359064,0.36699098,0.081999384,0.061947923,0.16385311,0.3512568,0.16491216,0.23920122,0.39137587,0.27075067,-0.6117746,-0.69597673,-0.063584596,0.3812714,0.24465455,0.21877053,0.23749804,0.44700855,0.15424582,0.30933663,0.15920244,0.2935183,-0.7418144,-0.7827366,-0.17403404,0.34693277,0.04815051,0.08255962,0.04919544,0.10694264,-0.000707138,0.1367483,0.37429628,0.2031541,-0.37556195,-0.4531018,-0.3588549,-0.09314792,-0.03008715,-0.21070303,-0.22311515,0.20846142,-0.25564304,-0.37310633,0.58519703,-0.0008839469,-0.51022696,-0.13108322,-0.19714741,-0.2225561,-0.23532753,-0.18108752,-0.19639602,0.4795455,-0.240016,-0.16720074,-0.24296084,0.120820634,-0.98054695,-0.108992785,0.1626141,0.07152386,-0.033641078,-0.012663514,-0.14114003,0.495962,-0.14791858,-0.0060187797,0.2039375,0.40244904,0.062300198,-0.26470065,-0.021875327,0.012637439,0.037241634,0.094335996,0.05847414,0.034144167,0.0678954,0.07741905,0.15233529,0.10900546,0.21897684,-0.4549761,0.25364804,-0.04830948,0.06365089,0.11721501,0.027399756,0.34030816,0.06215726,-0.027463788,0.11746673,0.43446416,0.06021068,-0.58382267,0.100035824,0.10537875,0.00072878756,0.16408715,0.11512677,0.021424295,0.1681957,0.2742179,0.15586717,0.20667237,-0.48776743,-0.18742372,-0.37969354,0.07093815,0.1523909,0.004711158,0.09132586,-0.12611867,-0.014243182,-0.010522955,0.07975163,-0.43452772,-0.6005958,-0.14754802,-0.34242913,-0.03449801,-0.19450514,-0.25976583,-0.18053433,-0.24389564,-0.42934987,-0.13373213,-0.07698953,-0.27175012,-0.25481167,-0.31681818,0.020612415,-0.15008652,0.112486444,0.166075,-0.04365832,0.036422543,0.07603463,0.21871105,-0.27718088,0.21832089,0.04777504,-0.42030984,0.17848985,0.002822747,0.042820983,0.13410747,-0.066612296,-0.021977225,0.12538742,0.18655498,0.21043442,0.084023274,0.113038406,-0.2651264,0.11292159,0.05080487,0.09664364,0.16708836,0.13068634,0.12829663,0.15746287,0.27565873,0.2733382,0.28964505,-0.30111057,-0.42596504,-0.113613255,0.16376199,0.14519656,-0.01393045,0.107707806,0.26324996,-0.08302075,0.11291213,0.2515654,0.2001785,-0.537127,-0.44905257,-0.2941768,0.35113236,0.03760399,-0.18726793,-0.025725082,0.13721351,-0.04686409,-0.011126174,0.32523718,-0.052853018,-0.87322783,-0.12188032,-0.22043264,-0.14358045,-0.19554377,-0.13137154,-0.19173686,0.28205648,-0.19613007,-0.16115022,0.08410236,-0.09009661,-0.7206453,0.084124506,-0.18217312,0.20961404,0.03974512,-0.16269346,-0.16554762,0.20792003,-0.14909856,-0.025296325,-0.14943933,-0.054338366,0.19569999,0.041944295,0.097509705,-0.025840577,-0.008654136,-0.09731998,-0.065888695,0.11338554,-0.16041407
-0.04585315,0.004200219,0.17326094,0.33613446,-0.1356069,-0.075894065,-0.09128434,-0.14150761,-0.059680544,-0.11668999,0.3769939,-0.021117037,0.037422437,-0.005012545,0.20308039,-0.10354313,-0.46832505,-0.14484514,0.02055736,-0.05405312,0.18623868,-0.04315172,0.3787868,-0.051188555,0.11432138,-0.20821671,0.51770025,-0.33144078,-0.42792216,-0.16549423,0.13091193,0.17517409,0.12228899,0.0864066,0.037117414,0.039751984,0.25901034,0.035507765,0.1976982,-0.10933706,-0.37167576,-0.15654713,-0.09403832,-0.008738608,-0.20440164,-0.025311753,-0.096893996,-0.1953675,-0.12716,0.06322625,-0.239682,-0.0820621,0.09789098,-0.2422829,0.05264622,0.053005956,-0.3245319,-0.060757488,-0.20910324,-0.11913031,0.003288324,-0.003505172,-0.32973748,-0.5201034,-0.0824423,0.069481775,-0.15190874,0.14637046,0.021733366,-0.19552246,-0.018089112,-0.19984956,0.14818826,-0.15743771,0.106001034,-0.2728938,-0.5049014,0.066972785,-0.21816663,0.0052209743,-0.018276522,-0.081723616,-0.096045844,-0.06427304,0.012494181,0.1280575,0.016994135,-0.35632205,-0.41059607,0.13784216,0.17999884,0.074647695,0.02302853,0.02256354,-0.055333156,-0.027471147,0.079834074,0.17231208,0.13013026,-0.28207475,-0.28635904,0.12782127,0.12202834,0.1283378,-0.02852002,0.009275838,0.048544854,0.14553052,-0.037469186,0.1886509,-0.03521119,-0.07259298,-0.10539155,-0.06549319,0.16732673,0.022623911,0.03621291,0.05359984,-0.0163345,0.020714112,-0.031738322,0.08196698,-0.07202898,-0.2407867,0.05266494,-0.29273313,-0.078727685,-0.072468005,-0.06608567,-0.035157885,-0.11379932,-0.047977302,-0.04593716,0.21186364,-0.15320799,-0.089151874,0.09687328,-0.28979784,-0.06294322,-0.03235571,-0.114969574,-0.018568628,0.14749616,-0.10238521,-0.10737818,-0.012765441,-0.046671554,-0.065462686,0.1805939,-0.2377494,-0.22633462,-0.0854678,-0.14847146,-0.16241106,0.10436142,-0.09642778,-0.15712525,-0.293461,0.046860255,-0.123214655,0.029511165,-0.1367659,0.116500765,0.13449207,-0.06615343,-0.018643249,0.00909112,-0.1927204,0.06649543,-0.21063374,-0.0032805947,-0.024038853,-0.25534195,-0.09578015,0.14424853,0.028717654,-0.14616056,-0.085574456,0.010415664,-0.03864263,0.10145475,-0.22304308,0.092932284,0.19697943,-0.4778669,-0.11799477,-0.09361628,-0.0257019,-0.111872785,-0.04257347,0.12165394,-0.08897059,-0.123880476,-0.106411435,0.20432799,-0.03872145,-0.083592296,-0.3164318,-0.24671337,-0.027167423,-0.32178694,-0.0035620467,0.018437462,-0.02264864,-0.3844683,-0.00066395133,0.047674377,-0.2652546,0.11539886,-0.031388756,-0.19457728,-0.16519073,-0.18870196,-0.17315692,-0.09167801,-0.032507513,-0.2393711,-0.00991716,-0.079459354,0.05650366,-0.56305826,-0.07829817,-0.21427973,-0.07992261,-0.032331992,-0.025395988,-0.10916901,0.09553527,-0.016487805,-0.07210886,-0.18887849,-0.056439724,-0.5713517,0.09940353,-0.12847638,-0.116040036,0.05508206,0.04842919,-0.041463885,0.035100766,0.06621808,0.26205102,0.045673136,-0.07914395,-0.756909,-0.07962583,-0.089457475,-0.11663804,-0.17394379,0.093875505,-0.2578183,0.13644536,-0.055850662,0.25495374,-0.08537082,-0.21152075,-0.17553608,0.10142281,-0.10365561,-0.08744371,0.08420404,-0.095103696,-0.045735218,-0.0310419,0.06443557,0.10904042,0.023007354,0.054475013,0.0984805,0.05133136,0.004772354,0.031916507,0.121786654,0.027066289,-0.029036319,0.08917416,0.10161185,0.13629565,0.08728205,0.24888451,0.04382701,-0.18020645,-0.1019235,0.034007434,-0.102135085,-0.009381773,-0.5985301,-0.048659656,-0.19775781,-0.3909049,-0.3061511,0.039724,-0.109599456,-0.28953558,-0.066740215,0.055633817,0.0829189,-0.012634178,-0.47384283,-0.08597101,-0.004868797,-0.31212914,-0.2524417,-0.17008428,-0.13424838,-0.095442355,0.04817278,0.07454581,-0.107046455,0.15898992,-0.40662977,0.08039363,-0.13587399,-0.23586439,-0.2983751,-0.053333737,-0.10189564,-0.27920872,-0.122445494,-0.13924275,-0.03296029,-0.09339499,-0.06841638,-0.04858782,-0.15463877,-0.3340874,0.0561162,-0.110254616,-0.14412966,-0.43872553,-0.1005186,-0.15536167,0.17853326,-0.07267296,-0.099396095,-0.11562516,-0.0722661,-0.43007195
-0.030558169,-0.3284625,-0.038003754,-0.32268402,-0.015264631,0.054553617,-0.008894181,0.039681755,-0.088135354,-0.13773409,-0.06228906,-0.12533864,-0.09411558,-0.26658425,0.17926341,-0.18454713,-0.34890902,-0.22174059,-0.104679294,-0.44696,-0.03340284,-0.27008033,-0.05658997,-0.045605544,0.029599482,0.07733849,0.45466217,-0.09689426,-0.06359904,-0.025888225,-0.06680827,-0.16211951,-0.00080908334,-0.090425074,-0.09706028,-0.13239801,0.006431317,0.0074616293,0.28614467,0.17256662,-0.2298367,-0.17198312,-0.19904207,-0.111027986,-0.015690198,0.09296408,-0.28750303,-0.062446386,0.086359054,0.14389709,-0.54970235,0.015314119,0.17028776,0.12504965,0.11089109,0.11118641,-0.013076733,0.061513737,0.136837,-0.20614764,0.113287024,0.18155575,-0.25201046,0.08735454,-0.17870285,-0.051010676,-0.0136066405,0.06153943,-0.23821424,0.15200245,-0.0853923,-0.07878749,-0.024831634,0.17831607,0.21447283,-0.009195164,0.032867663,0.024081888,0.10318101,0.06160553,-0.28191805,0.04829777,0.026454918,-0.16166365,-0.040454205,0.17473653,0.36336318,0.03436613,-0.0078051076,-0.014449244,-0.011692468,0.082181394,-0.066248044,0.06836712,-0.054702435,0.021530118,0.09947708,0.1186961,0.4197546,-0.017012278,0.017756764,-0.046128985,0.087090164,0.022162156,-0.34029165,0.020475594,0.111807086,-0.3442461,-0.16261828,0.039770544,0.20804541,-0.080624215,-0.069750845,0.0023625994,0.020150322,-0.011023368,-0.79611933,0.08322411,-0.07039208,-0.4681028,-0.5286726,-0.023456782,0.14580959,-0.10788079,0.040113755,-0.0075234855,0.08265583,-0.033615585,-0.48629776,-0.005244278,0.07438185,-0.27861267,-0.22425821,-0.06784931,-0.5259117,-0.0125283655,-0.0018013353,-0.02081764,-0.15123318,0.11715515,-0.46696106,0.103500254,-0.050260656,-0.41061908,-0.5920757,-0.15233383,-0.31707126,0.1379026,0.12969999,0.1633037,-0.32455963,0.08556137,-0.39418286,0.13167754,0.027156131,-0.2804217,-0.72064054,0.17607771,-0.2052905,0.035908062,-0.018049506,-0.038103588,-0.27914256,0.04492534,-0.21016723,0.09632811,-0.2755749,-0.12434875,-0.30539015,0.108860835,0.0891811,-0.22380526,-0.0881868,-0.31034178,-0.07714202,-0.12421192,-0.014315696,-0.25526965,-0.11772534,-0.08111341,-0.029363286,0.16967224,0.47576153,-0.032876365,0.022648528,0.007040807,-0.009043279,-0.034135703,-0.07666717,-0.050105065,0.026171593,-0.100168675,-0.030285705,0.3937968,0.4191265,0.09922117,-0.0016634244,0.17844284,0.0051959627,0.080364786,-0.02199189,-0.03095938,0.013913528,-0.116062626,0.11525334,0.09839281,0.062226437,-0.3572617,0.20152546,-0.11556309,-0.2081116,0.02113449,-0.41917738,0.0057849353,-0.04844243,-0.06545642,-0.41233462,-0.30232424,-0.044739187,-0.23274097,-0.27772078,-0.31423357,-0.15511136,-0.06930628,-0.25142282,-0.21592507,-0.24222164,-0.20897885,-0.28202498,-0.28389838,0.35627365,0.03614327,-0.0084997285,-0.19019659,-0.27710092,0.12082644,-0.5269524,0.2514758,0.054106567,-0.27931818,-0.61746734,-0.11174533,0.35329926,0.021388851,-0.2183549,-0.3107329,-0.23340498,-0.32434398,-0.033860914,0.021339027,-0.12793078,-0.22461179,0.018376121,0.100654036,0.047880683,0.009674306,-0.013023498,-0.111872464,-0.06462079,-0.15568525,-0.018739782,-0.019685622,0.058899786,-0.21788368,0.24292578,-0.012337243,0.060285397,-0.006734196,0.050131697,-0.022662837,-0.16713499,0.15320455,-0.22719628,-0.029915236,0.062127993,-0.21231665,-0.3462484,0.023550369,0.37521467,0.16861112,0.20066066,-0.13203944,-0.07446799,-0.019745786,-0.14246534,0.18858452,0.10896986,-0.16236787,-0.37293297,0.17143606,0.0023544254,-0.20620869,-0.14804392,-0.1663155,-0.124947175,-0.24568018,-0.11420542,-0.06948345,-0.16723575,-0.108539745,-0.24817775,0.030361952,0.44296366,-0.34328744,-0.17428084,-0.204135,-0.14677326,-0.17409912,-0.1247722,-0.13214393,-0.160953,-0.15750724,-0.30171007,-0.2959974,0.5004278,-0.32470283,-0.04340785,-0.067784555,-0.08067887,-0.13150539,-0.09099749,-0.118237264,-0.08551967,-0.12512822,-0.0396823,-0.11712523,0.40582627,0.011450266,-0.08172656,-0.05795229,-0.12703377,-0.082739525,-0.051806934,-0.078630984,-0.11071307,-0.07646829,-0.09036137,0.20234962
0.51471114,0.03384601,0.084560916,0.07657197,0.04736593,0.07674546,0.21084106,0.044342432,0.015449876,0.271103,0.0037534148,0.44097865,0.4522267,0.013280269,0.04160901,0.09453937,0.05816792,0.07382138,0.1778707,-0.025632568,0.02958635,0.22064269,0.039295714,0.4689976,0.32688394,0.000937218,0.09263995,-0.017818112,0.015722062,-0.06754142,0.17398132,-0.21114865,-0.015582384,0.23531649,0.0033885292,0.45725095,-0.27682766,-0.3983217,0.0006152771,-0.08864809,-0.32977265,-0.32016262,-0.052823354,-0.18838088,-0.16072828,0.22303993,-0.33373007,0.43370897,-0.29093182,-0.29594186,0.11733531,-0.3831835,-0.5268071,-0.520746,0.036654506,-0.095460534,-0.5246335,0.15185884,-0.22151284,0.7180596,-0.041396562,0.27571806,-0.44623214,-0.10742606,0.4033652,-0.40285856,0.34226736,-0.09831117,-0.0809908,0.12224099,0.57378423,0.6613935,-0.14473526,0.37869817,0.45185053,0.2061841,0.2376904,-0.25721756,0.18141125,-0.45046946,0.2878808,0.3921212,0.36824462,0.48779553,-0.18684676,0.054844003,0.26443386,0.36745453,0.096741855,-0.2152035,0.30679667,-0.119527064,0.39075112,0.2271667,0.19902214,0.05450174,-0.0012117117,-0.018782638,0.15582342,0.2550032,-0.3532883,-0.07856441,0.29141435,0.027893944,0.0035011445,0.31611043,0.056965794,0.44533503,-0.08739868,-0.01616259,0.040514264,-0.4316408,-0.14843082,-0.3619047,0.39502075,0.12306479,-0.097701475,0.2329545,0.171874,0.41119283,-0.118834145,-0.25858137,-0.111879714,-0.073925115,-0.35872504,-0.357618,0.16106398,-0.42509487,-0.28542697,0.22694659,-0.29444075,0.39385873,-0.3579672,0.0016711953,-0.25274622,-0.34206918,-0.34128776,-0.3232099,0.22857739,-0.25717354,-0.32357985,0.19696783,-0.16850248,0.46435487,0.3211139,0.043899298,0.070500135,-0.15962566,-0.0026444537,-0.009358858,0.21496385,0.0020263814,0.02222744,0.301905,0.08835214,0.4066707,0.49760368,0.005350632,0.051804096,0.06887843,0.0961022,0.06693234,0.21124098,0.00080065284,0.03246835,0.27916726,0.03909682,0.44252667,0.48241383,0.21538717,0.064521804,0.118182,-0.024725316,0.1124189,0.38647184,0.31041536,-0.04818412,0.2574979,-0.16294047,0.44431347,0.2998499,-0.09611569,-0.067321874,-0.11741947,0.24859945,0.28662163,0.3338093,0.29567727,0.00044252467,0.3418399,0.25796443,0.56160456,-0.1675716,0.06084927,0.18706875,-0.17169575,-0.14304848,-0.040820114,-0.08606783,-0.24516748,-0.05228342,0.31353083,-0.19587249,-0.4018774,-0.094723746,0.10770057,0.6260211,-0.06744528,-0.24336323,-0.042116947,0.09535558,-0.11727639,-0.20570892,0.44054702,-0.10823757,-0.28695756,-0.10843941,0.024630543,-0.0969414,-0.19159372,-0.14509152,0.055111088,0.18959732,0.04492095,-0.31045106,0.44579038,0.14890672,-1.0151561,-0.3812392,-0.03989586,0.28471178,-0.14187488,0.09078698,-0.06267158,0.26489905,-0.001705865,0.038982656,0.20927738,0.14486493,-1.2839326,-0.24144085,-0.18472512,0.029147308,-0.0051114466,-0.014051984,-0.07985822,0.3842403,-0.15727565,0.01677346,0.14816935,0.37011743,-0.7121424,-0.18991095,0.15120347,0.22616945,-0.10086847,-0.049992297,-0.07113486,0.26203784,-0.24126916,-0.015151949,0.11595918,0.29649913,-0.1842209,-0.1081239,0.07709113,0.062348977,-0.120455384,0.07891415,-0.15284243,0.5758068,-0.14480257,0.08602153,0.08303291,0.4171244,-0.06527146,-0.06844297,0.078376845,0.22773981,-0.18002373,0.05855594,0.042326506,0.30620116,-0.122485064,0.107491225,0.01235163,0.17526908,-0.43990585,-0.04416898,-0.07951465,0.052827932,-0.22297467,-0.016094401,-0.098175265,0.07227183,-0.08617409,0.08757788,-0.08785002,0.033408362,0.25287086,-0.1570639,0.0043242476,-0.30400923,-0.2692285,-0.41171023,-0.28687036,0.23203598,-0.1440279,-0.1564374,0.1646092,-0.11029461,0.31143838,-0.31231433,-0.33791354,-0.11148823,0.0049978173,-0.30470362,-0.020225625,0.16390747,-0.33629254,0.03557078,0.26136646,-0.31143406,0.4756855,-0.06031186,0.38492694,-0.035967223,-0.055225596,0.055908557,-0.3164375,0.35885832,-0.21717006,-0.1306399,0.22158617,0.44236058,0.58398527,-0.029020939,-0.033160012
-0.1143976,0.14118446,-0.20416823,0.032605484,0.06824054,0.08110673,0.014015623,0.44552597,-0.18025465,0.3611982,-0.34928575,-0.12553948,-0.5789435,-0.20573767,-0.2665684,-0.17754538,-0.10139002,0.024485964,-0.48761836,0.4992386,-0.3060577,-0.23058434,-0.13487309,0.14569804,-0.24102977,-0.2963594,-0.013720634,-0.077114314,0.03333704,0.09005993,-0.05329175,0.42876148,-0.03700659,-0.82650167,-0.18907292,-0.03877806,0.31923172,0.07015299,0.03489285,-0.16583125,0.17960843,-0.066124104,-0.033461913,0.17511539,0.23531897,-0.64172244,-0.24707349,-0.11667728,0.19904006,0.06590368,0.032308213,-0.20079753,0.2564328,-0.09318514,0.036663745,0.083323784,0.265192,-0.5135626,-0.33028385,-0.068030864,0.0899048,-0.048078112,-0.008357368,-0.085436076,0.19570751,-0.1072825,0.0721932,0.227282,0.14894031,-0.47014672,-0.017280772,-0.14618462,-0.020944873,0.040664423,-0.06879171,-0.070480846,0.5291723,0.001875961,-0.082432166,0.11130331,0.17156449,-0.5348507,0.08882182,-0.17538902,0.08884768,-0.12596591,-0.11513452,0.084205404,0.4141461,-0.008372184,-0.012273945,0.08757629,0.30109188,-0.5008803,0.004977931,-0.12157333,0.105802424,-0.0927973,-0.06291155,-0.039667644,0.41873232,0.11547939,0.06570748,-0.052560728,0.2974606,-0.501589,-0.16723284,-0.49792427,0.119340196,-0.06337118,-0.11343544,-0.083095714,0.027707754,-0.06159095,-0.021766061,0.016141143,-0.10936551,-0.5262629,-0.2995316,-0.10861707,-0.3140507,-0.27328265,-0.27169174,-0.27485135,0.30582964,-0.34640867,-0.33857343,0.041356754,-0.035995677,-0.42468926,-0.21927305,-0.44741514,-0.27796218,-0.26157954,-0.34708253,-0.06343075,0.040138174,-0.28568712,-0.3019117,0.29074663,-0.29786125,-0.24362612,-0.41545773,-0.07996792,-0.40309903,-0.42401156,-0.31541732,-0.5708066,0.097307384,-0.34911317,-0.4142224,0.19135082,-0.043181363,0.18408307,-0.044426084,-0.025981195,-0.49302742,-0.18652503,0.033420112,-0.23717529,0.08091136,-0.003991014,-0.20242108,0.17954993,-0.05859475,-0.19517848,0.045872495,-0.06571174,-0.6103416,-0.1185852,0.072109565,-0.053897608,0.060629822,0.027295705,-0.30879894,0.36963502,-0.022624062,-0.01241451,-0.0050805327,0.010459443,-0.09778879,0.052460045,0.08085134,0.11186473,-0.020165272,0.1561064,0.0697628,0.25269014,-0.018888094,-0.21132712,-0.20148204,0.023751374,-0.08377588,-0.07083971,-0.04510673,-0.06965715,0.015302338,-0.03635953,-0.026806662,0.36411506,-0.11763765,-0.39272124,-0.19293807,-0.20215704,-0.09155032,-0.003365816,-0.08664026,0.053129982,-0.03132133,-0.06299217,-0.009585768,0.043057956,-0.055098873,-0.44426987,-0.42797908,-0.35318843,0.045934964,0.037336506,-0.11334495,0.05759055,0.11356138,0.07860781,0.0073510627,0.21330827,-0.030630587,-0.79476583,-0.4851988,-0.29396993,-0.19847713,-0.15865,-0.08307084,-0.14623106,0.30768916,-0.08419474,-0.20397745,-0.1949899,0.22651884,-0.9535348,-0.3145647,-0.5786344,0.15582846,0.07338293,0.030149689,0.10579312,0.22762112,-0.029343814,0.08865287,-0.04273585,0.1451982,-0.6194215,-0.19404078,-0.35553575,0.039492283,-0.1186685,0.19007447,-0.067225836,0.4861482,0.05475484,0.0079348525,0.06382387,0.41862205,-0.25741446,-0.41270742,-0.4886371,-0.15356645,-0.046796374,-0.20721863,-0.08597396,0.10172565,-0.16914546,-0.17538469,0.3029067,-0.10660111,-0.5668216,-0.6289997,-0.5899853,-0.29706988,-0.35994434,-0.37515065,-0.1812545,0.2747777,-0.43399212,-0.3783832,-0.10286927,-0.15340376,-0.68623084,0.42160147,-0.3395443,-0.29979563,-0.28071293,-0.2261252,-0.07728009,0.1513478,-0.22696486,-0.27582085,0.24410507,-0.3115507,-0.2726524,-0.27064994,-0.45475176,-0.24957506,-0.5399349,-0.53602576,-0.3789502,-0.0939296,-0.5539281,-0.45952994,0.21235234,-0.33116528,-0.26896903,-0.24098898,-0.025035385,-0.21788107,-0.23068236,-0.2623199,-0.5048592,0.13076332,-0.38990596,-0.28013688,0.055336043,-0.14039299,0.19453527,-0.05241082,-0.02770151,-0.2670668,0.051658493,-0.011259703,0.01574666,-0.011244755,0.015013503,0.06705644,-0.07221074,-0.10893573,0.19804451,0.0698621,-0.008224192,-0.16953555,0.18387027
0.07414779,-0.10500243,0.04346233,0.107859984,0.07346824,-0.50237346,-0.0301913,0.12278738,-0.17637439,0.016249774,-0.2563513,0.042816795,0.034096062,0.100222774,-0.055515125,0.06483095,0.0063326275,-0.1071063,-0.028616792,-0.27535757,-0.10279284,-0.03712332,0.037850194,0.060607783,0.13636914,0.063168176,0.11137738,0.043917652,0.027276332,0.058854334,0.094593756,-0.59581286,-0.018489543,-0.07399941,-0.071208686,0.11214989,0.018824063,0.17793979,-0.069282845,0.06754428,-0.031740386,0.1948958,-0.15395765,-0.61540526,-0.33381367,0.03278145,0.021498905,-0.04381231,-0.015761828,0.036105506,0.043388493,1.7960207e-05,-0.088951476,0.010679153,0.043169837,-0.7549023,-0.47339508,-0.30758113,0.056252137,0.1987616,-0.04007468,0.27646416,0.21075933,0.17316023,-0.04606543,0.085257865,-0.020388553,-0.24070488,-0.103120975,-0.09896374,0.24039644,0.06647848,0.36377895,0.20199026,0.35425073,0.2364756,0.2718443,0.027861383,0.30820724,-0.053273324,-0.15956004,-0.44416654,-0.088452026,-0.0344935,0.005083766,0.088766195,0.20654517,-0.08798362,-0.16656974,0.46784785,-0.25979137,-0.26717257,-0.21357077,-0.46514365,-0.5340321,-0.09826896,-0.22269644,-0.11726381,0.2534597,-0.11988649,-0.38035998,0.21116425,0.16724478,-0.44816816,0.5443408,-0.27002457,-0.027994573,-0.1359391,-0.055206403,-0.03911849,0.18104361,0.011237732,-0.12983464,0.2547826,-0.086304575,-0.13103749,0.45824823,-0.39306152,0.057976864,-0.28424278,-0.3201279,-0.18945782,-0.055380806,-0.39544538,-0.13763672,0.29127315,-0.3305347,-0.37669924,0.26993328,-0.07635095,-0.32278213,-0.39577112,-0.093724884,-0.1870094,0.12226529,-0.1815884,-0.27180052,0.17796327,0.065438546,-0.113103025,0.35767347,-0.15701643,0.12887733,0.10279978,-0.07840196,-0.011973449,-0.034335647,-0.12537172,-0.10751687,-0.18792154,-0.11017348,0.002863631,-0.24654843,-0.049382117,0.035364795,0.071355425,0.08407644,-0.17097235,0.010778543,-0.021139007,-0.06394459,-0.6882744,-0.072306454,0.059139792,-0.5274368,0.10310195,-0.05245289,-0.08463148,0.054310337,0.07549231,0.03384919,0.025509305,0.040975403,-0.5515181,0.13110071,-0.22260347,-0.19041097,0.11135369,0.17202812,0.07645935,0.10417376,0.18137711,0.11621535,0.17657697,0.2555151,-0.039212763,-0.04927174,-0.24719357,-0.16759081,0.13200413,0.042838912,-0.06749804,0.07294654,0.14828919,-0.19975397,0.17785911,0.0802282,0.19889767,-0.050973207,-0.3475731,-0.4448927,0.14339948,0.13799949,0.10656015,0.13843006,0.03604948,-0.079760246,0.07067403,0.049490154,0.21308695,-0.28823242,-0.28239074,-0.6812799,0.004336189,-0.15406048,0.114175886,0.07579946,-0.048111625,0.4789098,0.0025636132,-0.16217393,0.12543935,0.44288692,0.10432882,-0.6333648,0.016343672,0.32595712,0.21460412,0.08267886,0.11364224,0.2225086,0.29675874,0.28001904,0.012712086,-0.07244828,0.19789186,-0.22786224,-0.056937534,-0.16170363,-0.07137335,-0.2585853,-0.2151047,0.21584135,0.005112465,-0.15634044,0.26956367,0.17680548,0.25002477,-0.13392931,-0.11631273,-0.29340369,-0.3542968,-0.25762057,-0.33312413,0.24679263,-0.47130087,-0.11448209,0.21628769,0.12458654,0.030344965,0.5122916,0.1744093,0.09384572,0.03949849,0.16008808,0.035405025,0.2592025,0.020475173,0.111634366,0.24721931,0.268867,0.532102,0.19512446,-0.017317541,0.19049169,-0.12077182,-0.2772672,-0.2214434,0.10620662,-0.3598368,-0.214642,0.23813409,-0.030570446,-0.02619578,-0.13903198,-0.12131632,0.28486282,0.06104035,-0.25902352,-0.29776055,0.048054382,-0.31275883,-0.047732767,0.19292828,-0.20291631,0.2084341,0.04670899,-0.0067466497,0.18702942,-0.008539754,-0.16832706,0.11251757,0.13212124,-0.033511393,-0.13835001,0.049742613,0.050789814,0.23902625,0.0038014017,-0.19398297,0.106908135,-0.10469492,-0.13197057,-0.29770353,-0.086021885,-0.27519646,-0.115436405,0.07736384,-0.17376441,0.12784763,-0.35425073,-0.08906764,-0.19381517,0.063195586,0.2680122,0.007889917,0.16598852,0.15088387,0.08163671,-0.7845935,0.1742905,-0.44053477,-0.53950393,0.13824892,0.21701966,-0.043070193,0.1847761,0.0015064025
0.30515578,0.17281997,0.13842575,-0.14502423,0.23240909,-0.6655498,-0.30339867,0.2284005,0.14009053,-0.002603642,0.13690265,0.17351328,0.046727907,0.08836917,0.14043733,0.24048355,0.20202574,-0.43050328,-0.62119156,-0.36810818,0.16448772,0.08826905,-0.071471475,-0.045453016,0.57435906,-0.08492452,0.10174957,0.15561363,0.34731117,-0.4218759,-0.30555522,-0.20044409,-0.35979456,-0.318722,-0.23323248,-0.50839156,0.46917513,-0.22632483,-0.18906973,-0.38305795,0.12620437,-0.09406489,-0.33044913,-0.225436,-0.10541146,-0.24884976,-0.21069913,-0.39357612,0.09003225,-0.23238969,-0.068847336,-0.11821205,-0.1243004,-0.12287813,-0.3219373,-0.12991165,-0.3205618,-0.26512903,-0.4318627,-0.2783343,0.05592278,-0.12481315,-0.43278682,0.073079735,-0.42165822,-0.18685122,0.20785439,-0.15908599,-0.2796571,-0.0012517379,-0.18110304,-0.08228676,0.28862903,-0.2029771,-0.15349194,0.26013696,0.21285008,-0.12338547,0.32389906,0.085498266,0.093818605,0.09674436,0.051883556,0.02986225,0.25941616,0.046588574,0.043882947,0.26115322,-0.0024381194,0.38470766,-0.03636181,0.0703053,-0.105268754,-0.24488401,-0.30599165,-0.3620249,0.23743773,-0.15526907,-0.35723242,0.24839947,0.021434685,0.15949026,-0.033576775,-0.26386288,-0.061033428,-0.23511975,-0.21526507,-0.41049638,-0.09049221,-0.25327018,-0.42106566,0.13074589,-0.2265344,0.15786518,-0.029637234,-0.26811486,0.028466195,-0.023419034,-0.12226079,-0.22214971,0.040753257,-0.19778548,-0.076325774,-0.10788353,-0.09772613,0.16113587,0.037024457,-0.19751528,0.10083542,-0.044259306,-0.20742936,-0.2646457,-0.04178237,-0.20417422,-0.1806857,0.2207281,-0.16894291,-0.12172236,-0.54418504,0.025157256,-0.309059,-0.033287164,-0.0065303175,0.06765802,0.21481822,-0.03395284,-0.0501359,-0.60411125,0.12232823,-0.48182184,-0.9281583,0.051525332,0.11518144,-0.032238584,0.10434547,0.1523832,0.268243,0.1208821,0.046875186,-0.092065476,0.10514014,-0.36308035,-0.50663847,0.05741532,0.117374815,0.048773702,-0.007496832,0.16621907,-0.3171981,0.121664286,0.010826905,0.298061,-0.15276605,-0.06117039,-0.608386,-0.7843547,-0.21344446,-0.08544011,-0.2504925,-0.06864114,0.24589929,-0.1257935,-0.17412016,0.12929317,-0.21475856,-0.5126627,-0.09624606,-0.32409474,-0.49983275,-0.23509368,-0.41791368,-0.43125418,0.19674069,-0.47483644,-0.38723028,-0.3228282,-0.17033954,-0.43263736,-0.13756905,-0.20638408,-0.26588324,-0.20930956,-0.49508187,-0.19936748,-0.07407414,-0.09579762,-0.53448683,0.07861561,-0.36929065,0.27226016,-0.08224905,0.12464813,-0.5987877,-0.4452321,-0.21857278,-0.34456763,0.1483785,-0.1633582,-0.5036611,0.0141069405,-0.20561521,0.291161,0.0039431583,0.3284217,0.13598302,-0.041811857,-0.24902721,0.036508396,0.13976379,0.0128914565,0.0012764976,0.32456228,-0.31100017,0.5380805,-0.056247193,-0.30806747,-0.003142958,-0.061937854,-0.039377794,-0.11440167,0.17420067,-0.23420344,-0.09010213,0.24167144,-0.15747775,0.2163632,-1.0736912,-0.29728082,-0.31454888,-0.4293665,-0.4106303,-0.6097996,-0.19401723,-0.8242945,-0.6138321,0.19024915,-0.29839975,0.05612929,-0.25827903,-0.22343948,-0.21575598,-0.16553998,-0.33834067,-0.48244286,-0.15417834,-0.15866959,-0.4625966,-0.17754975,-0.3961608,0.0075371056,0.03744205,-0.3113689,0.12826313,0.10840838,-0.11502984,-0.09511221,-0.020394381,-0.28174555,0.0074414904,-0.6994033,-0.19159973,0.17134,0.023666391,-0.16506013,0.037729837,0.007789324,-0.17153142,-0.036663484,0.080249205,-0.20702407,-0.14524207,-0.27738672,0.008267296,-0.047331095,-0.4932848,-0.04229455,-0.24293888,-0.22337535,-0.17678551,-0.10115649,-0.08702255,-0.1217749,-0.07943881,-0.24102953,-0.17532088,-0.38666525,-0.67135006,0.20811655,0.046271626,-0.13775322,-0.11263926,-0.043936737,0.13304776,0.10315578,-0.0027781758,0.16570374,0.033193674,0.0067873364,-0.29296198,-0.09067972,0.09619381,0.011017198,-0.06712824,0.07654426,-0.40701565,-0.0321666,-0.0065686717,0.21443383,-0.43025297,-0.1740936,-0.12018304,-0.25391325,-0.28885648,-0.1015576,-0.0060414826,0.021704001,-0.00242219,0.05188404
-0.060259726,0.053085793,-0.23875712,-0.9891001,0.17471209,-0.5377402,-0.16785705,0.07722529,-0.037736345,0.10149628,-0.08600265,-0.10142243,-0.103000455,0.068260305,-0.18532431,-0.36254278,0.14056106,-0.03835371,0.08076495,0.003848334,-0.14887255,0.009937971,-0.14301653,-0.27566415,-0.13557316,0.31182092,-0.26976904,0.1238421,-0.04710438,-0.08980778,-0.4137154,-0.38251618,-0.116850495,-0.15879549,0.2638853,-0.04323803,-0.2400393,-0.02471771,-0.06075608,-0.34892946,0.1940611,-0.31267968,0.13757813,-0.02628666,-0.0044991616,0.08316211,0.22523226,0.054934703,-0.011159416,0.32489422,0.16643177,-0.38093042,0.21956812,-0.19996294,0.011696826,-0.06833708,-0.2197037,-0.06319237,0.19834073,0.16900991,-0.118042156,0.30013633,-0.24607703,-0.11369817,0.22340856,-0.72615707,-0.0987196,-0.28806204,-0.13090888,-0.0492471,-0.10689606,0.023775246,-0.37705332,0.33965898,-0.45143107,-0.71958685,0.18836801,-0.25361156,-0.15851669,-0.15665297,0.058471706,-0.18569915,0.06375222,-0.12621821,-0.19668373,-0.3951143,-0.100919455,-0.16851905,0.3130674,-0.17940252,0.07807228,-0.0349804,-0.09524375,-0.11530479,0.09585544,-0.08494239,-0.18748018,-0.46570465,-0.03783347,-0.018519022,0.23903331,-0.14948797,-0.052893277,-0.023438606,-0.015109266,0.020507617,0.08330874,-0.060239024,-0.07275791,-0.14677058,0.07159299,-0.20924513,0.0354841,0.059313834,-0.15089299,-0.093351535,-0.11552941,-0.15282539,-0.08769205,-0.06493718,-0.24818628,0.4540987,-0.07014672,-0.19414917,-0.12412381,0.05232801,-0.076633446,-0.02500493,-0.18693116,0.006360648,0.2507268,-0.014496618,-0.09810703,-0.03110406,-0.016577082,-0.4808247,-0.31369337,-0.000246841,-0.1834323,-0.23541714,0.10003303,0.048651405,-0.111508384,0.056360096,-0.1261064,-0.13517173,-0.19847941,-0.6093294,0.014390601,0.33443984,0.06955959,0.0011273158,0.13420649,0.13770969,-0.27693337,0.080709115,0.0356051,-0.029223401,-0.25229546,-0.074621305,0.043402627,0.40248817,-0.1000646,0.0920168,-0.010535686,0.22800419,-0.37201437,0.08586518,0.06454612,0.32945415,-0.480774,0.250682,-0.026297925,0.03521768,-0.03827235,-0.168297,-0.2129597,-0.0736705,0.10657964,0.010537984,-0.10771749,0.19410907,-0.17330651,0.018905021,-0.1430258,0.04966837,-0.009023932,-0.19464114,0.20035535,-0.20748457,0.4250954,-0.08706854,0.059340492,-0.08073581,0.37158155,-0.19089587,0.24265753,0.12517712,0.42712435,0.21579194,0.058128398,0.3588347,0.18271147,0.33726302,0.31976035,0.39542744,0.089944474,0.099469036,0.0029609294,0.0075481995,-0.03684331,0.036156263,-0.10819694,-0.19367127,0.14904025,-0.2681386,-0.15461667,0.247186,0.09921612,0.0549442,0.5233514,0.13727203,0.31918806,0.15740086,0.063606806,0.023810085,0.23874633,0.07673426,0.22623248,0.25928396,0.04203495,-0.001627974,0.33632576,-0.019106524,0.394294,0.15337786,-0.018841643,0.0686677,0.0666211,-0.20594862,0.06475978,0.20264058,0.052070156,0.010157928,0.2669634,0.17151284,0.25769594,0.07476423,0.09071906,-0.23225799,0.15168399,-0.20655438,0.031099917,0.15170176,0.07449899,0.29233336,-0.016274948,0.03840124,0.14604352,0.16054775,-0.049615625,-0.06784068,0.09521444,-0.16584125,-0.10680075,0.13262251,0.1082207,0.10022705,-0.29458386,0.19093853,-0.15151316,-0.13850969,-0.08588612,-0.17539082,-0.019922903,-0.058936723,-0.12676956,0.35790858,0.062350836,-0.30534223,-0.5246836,0.11296579,-0.22738153,-0.13127734,-0.053407013,-0.09858852,0.21419534,-0.059396587,-0.18718758,0.16193925,0.06658286,-0.31792945,-0.43209141,0.13504267,-0.034842037,-0.024626104,-0.07254354,-0.007081376,-0.28599596,-0.111529924,-0.07765689,-0.20139368,-0.24318448,-0.1060767,-0.1063527,0.29509634,0.0077134045,0.07511655,-0.07045396,0.07758347,-0.03279774,0.058375567,0.055870365,0.17392534,-0.20347115,0.29470718,-0.0062154196,0.32194224,-0.16436343,-0.116236135,-0.12884346,-0.17077707,0.36919454,0.039771624,-0.0881605,0.17713997,-0.027384937,0.2044844,0.12738971,0.12653483,0.16652851,-0.04432065,-0.10499065,0.049747057,0.12402397,0.0014238122,-0.082676984,0.26660475
-0.24470648,0.062384423,-0.13554583,0.23592865,0.24679942,-0.075547434,0.183426,-0.06955894,0.31319132,-0.08159184,0.17482436,0.06769634,0.17440067,0.14749815,0.11743221,0.14959021,0.10039259,0.17801318,0.06044177,0.2707766,0.20321296,0.12582004,-0.09371561,0.4338985,0.31815994,0.41198778,0.08020282,-0.21540174,-0.10672495,-0.31475466,-0.07583946,-0.29660472,0.14785336,-0.13345048,-0.21411657,0.23819673,-0.15542822,-0.110635616,-0.1672229,0.25001946,0.11998912,0.115341954,0.07378063,-0.027792824,0.40286705,0.1187223,0.0005919015,0.3107126,0.402375,0.27247742,-0.1691121,-0.05302764,0.06872579,0.059760097,-0.05053764,0.22272423,0.023495363,0.23109859,-0.014767978,0.44880867,-0.0132766925,-0.097530134,-0.32873103,-0.114225045,-0.16071339,-0.09926528,-0.20121376,-0.051400032,0.030576473,-0.091877244,-0.1385909,0.41013408,-0.0023479962,-0.08408294,-0.35689962,-0.15857986,0.085693724,-0.09219933,0.0203178,-0.050169926,0.1809208,-0.034785204,-0.0015796572,0.7499033,0.032075107,-0.11088072,-0.7371997,0.051274136,-0.04451271,-0.0924047,0.054093044,-0.047497883,0.24180785,-0.1270374,-0.03279647,0.43811065,0.090399735,-0.13517615,-0.49396038,0.032049563,-0.1032212,-0.12594996,-0.059997007,-0.12697971,-0.06597113,0.084338434,-0.10041071,0.15797663,0.004717715,-0.052121423,-0.3301142,-0.14182107,0.06232296,-0.03267306,-0.024321841,-0.033404827,-0.23648398,0.114548415,-0.10637686,0.23611273,-0.19550054,-0.027505023,0.055746935,0.08834477,-0.11612099,-0.14399458,0.0054713218,-0.13092382,0.4592316,-0.09324039,0.008339709,0.3670834,0.3477525,0.051234268,0.09066896,0.034318183,-0.1208967,-0.171521,0.2511118,-0.30917373,0.6031215,-0.3317545,0.18897562,0.121493354,0.28084326,-0.04118488,-0.13728945,0.1469851,-0.006994234,-0.007918431,-0.19683023,-0.18193178,0.21569687,0.18637139,-0.23662847,0.31300667,0.04680805,0.11418145,-0.10950503,-0.13104531,-0.49521044,-0.26156655,-0.4484042,-0.31248695,0.1393717,-0.3039837,-0.3937847,0.1263195,-0.38808593,-0.14993195,-0.099636,0.2595981,-0.28171995,-0.28246373,-0.2599501,-0.35263634,0.23992324,-0.13857086,-0.22850019,0.1864744,0.11951219,0.33363304,0.53833514,-0.30620232,0.060165174,-0.12943695,-0.038551565,-0.030807057,0.19780983,-0.085782535,-0.029425949,0.28689924,-0.18600261,-0.10600764,0.52359694,-0.23534809,-0.15260857,-0.12368478,-0.011370849,-0.19359927,0.23543413,-0.18276507,-0.23370975,0.22436339,-0.20329842,0.008953526,0.36630198,0.04228464,-0.16074632,-0.038986742,0.0029211766,-0.14729401,0.22910334,-0.16907331,-0.14131582,0.27038804,0.10426138,0.06010785,0.44534072,-0.17074655,0.011577406,-0.080802046,-0.04741696,-0.08266847,0.09430539,-0.059713054,0.039698444,0.16649915,-0.0767269,-0.06981827,0.13978083,-0.062399432,-0.13471416,-0.15017541,-0.3707724,-0.19918248,0.14530098,-0.06443579,-0.20552847,0.30817953,0.13986619,-0.06366371,0.120775856,-0.141983,0.010018877,0.043848105,0.15587488,-0.38392377,0.08504062,-0.32389107,0.14883792,0.055664767,-0.06042832,-0.106452025,0.04383952,-0.05717842,-0.077500775,0.03714666,-0.09382812,0.03423288,-0.34196573,-0.21942203,-0.22200496,0.1557318,-0.4169905,-0.072820336,0.5811811,0.083372414,-0.10342498,-0.12210424,-0.3806343,-0.12865138,0.07540245,0.17350356,-0.30485418,0.25542587,-0.10662826,0.118982725,0.41844383,0.12265655,-0.31091276,-0.40202317,-0.3537592,-0.41864648,0.55912095,-0.105083935,-0.21391083,0.21404162,0.3910599,0.0011667457,0.069739215,0.0037308326,-0.16747022,-0.3498723,-0.07611628,-0.37856957,0.2910637,-0.23331362,-0.2084848,0.33043334,-0.17728762,-0.070975706,-0.22280273,-0.14262801,0.024812402,-0.24143447,-0.1766856,0.017035767,0.19908582,-0.107488744,0.07674922,0.21071787,-0.07578072,-0.25543788,-0.10069311,-0.45244378,-0.28768867,-0.4022072,-0.16275457,-0.2632353,0.19941899,-0.4075994,-0.32726175,0.22738169,-0.33380434,-0.26634446,0.32681465,-0.25325188,-0.108937934,-0.09839529,-0.020530883,0.021648016,0.232914,-0.21893288,-0.07505516,0.2590025,0.028909767,-0.12121812
-0.41433132,-0.04889876,0.030881662,0.0210402,-0.045253716,-0.024588605,0.02152828,-0.0050327503,-0.0336773,-0.02587412,0.02139187,-0.49779668,-0.20881315,-0.002512649,-0.031072887,-0.08320645,-0.019360904,-0.022475945,0.041722666,0.05254923,0.021130757,0.06469588,0.018037144,-0.44270685,-0.31123954,-0.050758015,-0.02764431,0.05874948,0.15354887,0.060336165,-0.033185482,-0.13213564,0.032011285,0.058166202,0.07319446,-0.49655977,-0.28666034,0.57914716,0.11861756,0.20026444,0.019900735,0.030898752,0.011076232,-0.11162876,0.21623147,-0.072854154,-0.3727783,-0.45993108,0.022854632,0.54473186,0.39194897,0.37935677,0.2789585,0.09471063,0.2639773,0.14663407,0.56728256,0.05260089,0.32269013,-0.58472705,0.09420598,-0.11593427,0.51390344,0.31578264,-0.114385694,0.23155437,-0.058347516,-0.031184306,0.031890966,0.27611452,-0.25187293,-0.62957704,-0.09045178,0.0026753752,-0.16247526,0.09062431,-0.14714928,-0.011323911,-0.0651894,0.055891983,0.114242405,-0.12679084,-0.11461349,0.27779603,0.020693313,0.32107157,-0.110584125,-0.057736885,-0.15567285,0.21100023,-0.046989217,0.20291768,-0.38521698,-0.12899844,-0.16036536,0.46360573,0.059620142,0.25906023,-0.009303148,-0.0326289,0.20977306,0.09045536,-0.058616664,-0.09804184,0.0997615,0.05945197,0.026243916,-0.46056488,-0.1320548,0.06031282,0.009042115,0.20043465,-0.20420213,-0.2757338,-0.20360632,-0.46173385,-0.025430758,7.954775e-06,-0.24599779,-0.4401385,-0.49789816,0.024076765,-0.33752587,0.09298451,-0.12632535,0.11434809,0.060784783,0.22957729,-0.19510311,-0.16182795,0.31175095,-0.4557285,0.1362392,0.055539362,0.23683845,0.26074478,0.14250802,0.10271863,0.03503007,0.10569977,0.19445498,0.057571143,0.18845153,-0.52262455,-0.117740154,-0.007944537,-0.0029972151,0.103187546,-0.023048578,0.058228627,0.058098275,0.054095436,-0.012000204,0.08388753,0.022193745,-0.43850425,-0.43604353,-0.33686993,0.02449449,-0.08588343,-0.11859814,-0.12275933,0.042969838,-0.03964499,-0.10911069,0.032218456,-0.08642717,-0.60129195,-0.21125549,-0.08558102,-0.12427574,-0.2983267,-0.09004399,-0.2909974,-0.10575471,-0.20022641,-0.0596942,-0.037340973,0.0553865,-0.6615592,-0.099330634,-0.110859185,0.11378018,-0.20760708,-0.009046856,-0.33005068,-0.15227436,-0.22729169,-0.040238563,-0.04808788,-0.06839445,-0.41266045,0.070748605,-0.3090234,-0.41306114,-0.034762073,-0.03911813,0.10414477,0.02381653,0.15222058,-0.089373805,-0.022619065,-0.05953601,0.4402694,0.09431793,-0.06102297,-0.44679865,-0.06919701,0.06663656,0.14772035,-0.0060786004,0.11780479,0.11976101,0.14792477,-0.004871923,0.41116363,0.2502721,0.11348773,0.057050683,-0.12481016,0.14758836,0.017253429,-0.01543903,0.1979318,-0.0064317444,-0.029924635,0.10389291,0.67224425,0.15896834,0.115731224,-0.28252867,-0.054734856,-0.0021223929,-0.075249575,-0.26717007,-0.14096086,0.0010940909,0.027074836,-0.21785444,0.80052716,0.0990256,0.19306274,-0.16471376,-0.11721332,-0.11201429,-0.009592484,-0.1693226,0.12013671,-0.05425511,-0.08578134,-0.2789434,0.35987362,0.019746678,-0.1752085,-0.005243639,-0.024013883,-0.044111133,-0.018370505,-0.38073415,0.13608797,0.047534365,-0.12193678,-0.44203213,0.09254725,-0.044893786,-0.23716131,-0.057723407,0.10383257,-0.123889945,-0.09116137,-0.29954192,-0.023696331,-0.16855404,-0.05826491,-0.50621116,-0.057238925,0.10351344,-0.15473868,-0.29154107,-0.22011127,-0.09485343,0.23808657,-0.13024682,0.14667553,-0.27865818,0.06286215,-0.036896322,0.0038705717,-0.041917834,-0.30018803,-0.111155175,-0.33093384,-0.040575683,-0.14928062,-0.02394816,-0.122264795,-0.14743246,-0.09395096,-0.1534132,-0.36786366,-0.22077297,-0.11884921,0.24915563,-0.13260067,0.17038795,0.1554686,-0.0056865565,-0.04765324,0.094814524,-0.017389143,0.10262708,-0.375477,0.10837683,0.09287318,-0.011119117,-0.028586382,0.07870961,-0.09458545,0.15077884,0.043087214,-0.12560287,0.0058325734,0.18990588,-0.47051534,0.1788566,-0.30014804,-0.17188917,-0.023562321,-0.034527723,0.025406908,-0.0052166283,0.21909644,-0.20919672,-0.01015093,-0.10522919,-0.35459733,0.17273183,-0.24644369
0.02065382,-0.027431633,0.12362812,-0.07368272,0.0010686064,-0.054709706,-0.04063872,0.0104515655,0.0464454,0.16967449,-0.039736535,-0.13662465,0.015565732,0.103085086,0.112961076,-0.036284387,-0.10876694,-0.19283248,0.117923774,-0.40035513,0.09645767,0.36230764,-0.010076341,0.0018619979,0.017711123,0.10648742,0.09390002,0.10235753,-0.12923892,-0.023778753,0.19586767,-0.13647981,0.06308293,0.4173248,0.06303964,-0.057200793,0.0634704,0.098642476,0.091928504,0.095362544,-0.15178406,0.10726477,0.23266873,0.002030971,-0.11588904,0.049446013,0.10951666,-0.08011111,-0.11175486,-0.09139719,0.12663227,0.07691669,-0.10235259,0.08731485,0.024091972,0.14988513,-0.012717721,0.036820848,0.17820266,0.15467553,-0.10191281,0.18172894,-0.01374914,0.12136151,-0.2572865,0.090291895,-0.03532084,-0.05137177,-0.16417302,0.26232472,-0.032781083,0.21887502,0.020975081,0.029554103,0.11081925,0.034746516,-0.47741038,0.0932469,-0.001554768,0.12059514,-0.2598755,0.14205131,-0.13972144,0.28871375,-0.3019462,-0.003199978,-0.28998226,-0.030682702,-0.51249236,-0.052870438,-0.24570139,-0.009952129,-0.418403,0.34410542,-0.017772168,0.30024365,-0.011524294,-0.24150887,0.16967611,-0.11766323,-0.493271,0.08889116,0.040067848,-0.03221201,-0.36696917,-0.8372475,-0.2478707,-0.036603145,-0.21848758,-0.10653898,-0.424577,-0.17650026,-0.15478201,-0.19749035,-0.27788925,-0.020080086,-0.864771,-1.0022581,-0.7207844,-0.083012074,-0.059519853,-0.20264237,-0.11535583,-0.22083811,0.0017336527,0.05254825,0.00226824,-0.2000336,0.04588762,-0.46778744,-0.14419878,0.1336631,0.2654776,0.039636392,-0.074673146,-0.0125464825,0.08093321,-0.014266521,0.15769911,0.09554513,-0.008825761,-0.06954724,-0.0036978896,0.27240962,0.020992987,0.031574573,0.13365613,0.15509593,-0.028413016,0.038100112,0.1886064,0.12042094,0.14717066,-0.07994166,-0.045209773,-0.04616045,0.38988167,0.20097223,-0.06256806,-0.012555448,-0.15134001,-0.30456832,0.1789303,0.27575287,-0.0446095,0.24892467,0.042735215,-0.07431387,0.111644186,-0.0019393892,-0.08498256,-0.12099958,-0.11907407,-0.07667572,0.07841524,-0.2564153,-0.10077483,0.27328375,0.1807413,-0.18455146,0.016813133,0.097811915,-0.015398859,0.12418932,-0.0532487,0.034794696,0.036758922,-0.31452015,0.0540727,0.20980261,-0.009020791,0.080414675,-0.018317984,0.06881912,0.14632751,0.11177647,-0.031089822,0.094949275,0.080801286,-0.28435528,0.07447968,0.18009639,0.0422819,0.16297631,-0.02231618,-0.04514983,0.1110354,0.108148605,-0.055885617,0.19193435,-0.022611178,0.14789218,-0.0064803762,0.16667576,-0.08073627,0.17094892,-0.09594304,0.009111743,0.030752832,-0.07912861,-0.08731525,-0.086464696,0.06660155,0.24424341,-0.031527,-0.010182088,-0.27831435,0.120842,0.05867979,-0.11140249,0.057334922,0.0032398675,0.06514359,0.044952333,0.022160623,0.20510401,0.049853053,0.11425614,-0.14020355,0.036521748,-0.13781953,-0.11788467,0.040646646,-0.14379384,0.12351183,-0.07521427,-0.10894738,0.017450131,0.14851734,-0.30896333,-0.048530526,0.056933135,0.012095026,-0.026045134,0.06921027,-0.08378109,-0.07733652,0.033021644,0.04734873,0.10017041,0.0362194,-0.552515,-0.09965578,-0.7925216,-0.316929,-0.16040112,-0.27658573,-0.20862882,-0.017784987,-0.27897137,-0.22175893,0.13045725,-0.31121174,-0.6873819,-0.76141125,-0.19703142,-0.5796663,-0.53882736,-0.42740595,-0.5467539,0.03353554,-0.2972867,-0.41929442,-0.30884758,-0.071282946,-0.5285327,-0.451747,-0.1062183,0.1395086,-0.21710834,-0.042103082,-0.13479315,-0.083159246,-0.24391136,-0.079660885,-2.0302352e-05,-0.07044556,0.029103296,0.029005975,0.2812971,-0.42101786,-0.017773002,-0.03240836,-0.11058231,0.086450554,0.068531975,-0.12467456,0.09897063,0.029343035,0.27468193,0.32214758,-0.14362071,0.06473452,-0.10108966,-0.10386928,0.063490875,-0.05123209,0.021178912,-0.16291255,0.08480569,-0.0031137185,0.0809377,0.09379417,-0.09447193,-0.1800904,-0.08800997,-0.09438356,-0.15087508,-0.015016853,-0.27353543,-0.18450002,-0.2591314,0.057857648,0.2718871,-0.08630315,0.112283796,-0.14355227,-0.123361915
-0.2093643,-0.0020440363,-0.29452622,0.06238605,-0.09947531,-0.6647136,-0.18674482,0.15337844,-0.08369703,0.029496739,-0.1922201,-0.18482982,-0.16484879,-0.15012787,-0.6181524,-0.17558531,-0.20312355,-0.11613822,-0.2174926,0.06605167,-0.12331843,0.10184764,-0.10735735,-0.115778215,-0.14363083,-0.16954388,-0.24573766,-0.024978999,-0.013766071,0.1240229,-0.056574102,0.42144978,-0.17946768,0.079547815,-0.10400281,-0.15237233,-0.033819437,-0.14690982,0.03239862,-0.081047185,-0.09293753,-0.00062699127,0.06971512,-0.06296193,-0.25730413,0.14341472,0.0063641435,-0.043192457,-0.08033472,0.025514914,0.16024978,0.0011795722,0.0871112,0.12325925,0.0561015,-0.09814225,-0.31039983,0.11571264,0.154377,-0.032472946,-0.056124266,-0.056179497,0.20827594,-0.053720955,0.049748786,0.09981219,0.11100854,-0.23917663,-0.19239469,0.013356905,0.049906418,-0.02544658,-0.053974926,-0.011968499,0.30078447,-0.08611967,-0.045680262,0.06599815,0.18510315,-0.37256718,-0.05996984,-0.6811476,-0.19771086,-0.13037658,-0.19626798,-0.13738483,0.12921934,-0.077161945,-0.12736477,0.013460073,-0.12128999,-0.39224517,0.16380762,-0.24172637,-0.2501458,-0.71473676,0.08011306,-0.5965186,0.033590976,-0.526881,-0.23053263,-0.23690794,0.32365462,-0.5687671,-0.31131792,-0.19376938,-0.1422643,-0.051844537,-0.23842023,0.0030160388,-0.11321052,-0.20638487,-0.17287697,-0.012035581,-0.2743211,-0.041645236,0.08802544,0.018136906,-0.4019066,-0.2602041,-0.09987543,-0.27356914,-0.0036915916,-0.20581199,-0.19713783,-0.074071385,-0.042229623,0.21276638,0.10753637,-0.11295678,0.10878235,0.08958471,-0.15625261,-0.10270053,-0.009291259,-0.18438028,0.16547625,-0.19844677,0.025777956,0.6026407,0.2269763,-0.26014066,-0.14276396,-0.24310932,-0.2254844,-0.253368,-0.29872575,-0.19888344,-0.33145648,-0.39437327,-0.31532943,0.3959393,0.16513073,-0.026361072,-0.6410875,-0.25263512,-0.12862852,-0.20273729,-0.35347667,-0.23456126,-0.17566642,-0.35685223,-0.26337212,0.45528033,0.31494966,-0.09159042,-0.18513368,-0.1340574,-0.088349335,-0.2938907,-0.41136187,-0.17753664,-0.19381577,-0.049980443,-0.48393473,0.48452803,0.06272946,-0.060508125,-0.21897843,-0.0733217,0.01640504,-0.2005901,-0.120302334,-0.24958597,-0.096982144,0.27167812,-0.112103835,0.19669156,-0.20936428,-0.029309027,-0.023548672,-0.111488976,-0.23314868,-0.23454759,0.19427519,-0.15593886,-0.21868071,-0.014791804,0.04029903,0.07161701,-0.6079131,-0.1255692,-0.046659794,-0.1070803,0.04034645,-0.10554054,0.18091153,-0.0664803,0.071541905,-0.090986185,0.060989924,-0.26423904,-0.5005225,-0.029503837,0.07495164,-0.14146787,0.041466556,-0.11479259,0.36163694,-0.11156289,0.11354746,0.024214746,0.22778687,-0.14973092,-0.24317953,-0.3274429,0.06572827,0.009818193,-0.031712692,-0.07277424,0.70777154,-0.07553093,0.03938557,-0.032551773,0.45452556,-0.19619454,0.15433638,0.03931921,-0.00031920726,-0.009816689,0.19619136,-0.07911826,0.6430674,-0.07286702,-0.10751126,-0.09764288,0.5965937,-0.0050036428,0.36347735,0.319794,0.18843463,0.21457407,0.24047725,-0.006859193,0.09471503,0.16124071,0.295305,0.11132975,0.26067612,0.1790812,0.16326031,-0.08334801,-0.2380111,-0.017034503,-0.13239634,-0.11494105,0.043981016,0.30221403,-0.10223223,-0.0026458153,-0.29782468,-0.64394665,0.3887096,-0.12518199,-0.25306946,-0.17950329,0.01557683,-0.022025352,-0.013669609,0.020048859,-0.14607981,0.044363715,-0.041067366,0.02718143,0.36562404,-0.16157728,-0.10192414,-0.16421254,0.023434827,-0.010188174,0.03398622,0.060170628,-0.01802954,-0.25561896,-0.0018580857,0.14849739,0.6000522,-0.30170402,0.12200589,0.13446236,-0.15105045,-0.041991256,0.16585459,-0.10779129,-0.029721716,-0.7009641,-0.22484475,0.404495,0.5801778,-0.21583523,-0.009478619,0.06743387,0.05524736,-0.17449297,-0.19692713,-0.15956162,-0.013292567,-0.6849118,-0.21159081,0.34455362,0.40166518,-0.1577453,0.042583425,0.09586687,-0.091163434,-0.050836243,-0.10769415,-0.23127796,-0.15344368,-0.2166085,-0.23123603,0.16424514,0.15112185,-0.27770272,-0.20028892,-0.12769048,-0.14146686,-0.085585676
0.018967228,-0.22450353,-0.13235639,0.0965051,-0.105401196,-0.045804687,-0.08350501,-0.26099977,-0.012576429,-0.041340884,-0.07729136,-0.031448793,0.03256909,-0.1624627,-0.09372583,0.10456015,0.033876874,-0.38671747,-0.04845894,-0.17820115,-0.0035408156,-0.075702354,0.013818888,-0.058466554,0.2904834,-0.07211285,-0.051844917,-0.26245812,0.19910711,-0.19375105,-0.2013104,-0.39801496,0.03682267,0.00013022561,-0.045841835,-0.0114926025,0.20804457,-0.12286106,0.043721233,-0.098788425,0.16188174,-0.315629,-0.11081882,-0.33665687,-0.14766559,-0.11559073,-0.14806014,-0.19233824,0.11478806,-0.31496873,-0.010439113,-0.21136309,0.20876995,0.029678822,-0.0013656439,-0.16011474,-0.110293314,0.036676638,-0.1808438,-0.07904176,0.31858116,-0.11550718,-0.12455271,-0.31202516,0.289696,0.4971977,0.17366,0.35261387,0.02553552,0.12834923,0.36587492,0.055463657,0.15884867,0.10513893,0.17975153,-0.04273762,0.33412215,0.49583656,0.13956794,0.10050765,-0.24286017,-0.03736629,0.44374025,-0.009916446,0.20359214,0.17254129,0.31994674,-0.07221529,0.38139755,-0.35148224,0.11346916,-0.033584267,0.32937443,0.13295227,0.079102755,0.07250244,0.13184138,0.14035316,0.11936349,0.08007594,0.00046583114,-0.53986967,0.13755345,0.023458058,0.5265308,0.069802,0.0454636,0.04779947,0.16099286,0.05720889,0.011886503,-0.57073075,0.09046071,-0.26201773,0.275071,-0.20774549,0.07600917,0.16252932,0.11653313,0.09050408,0.13698755,0.04329404,0.12847197,-0.71127546,0.076986164,-0.015325318,0.20588107,-0.11023904,0.4040471,0.19765522,0.20818,0.14890851,0.27688822,0.06529507,0.2000749,-0.61046964,0.25409403,-0.14955455,0.06943709,-0.27038103,0.26456162,0.20228317,0.11517333,0.12354481,0.16933417,0.056111276,0.20194268,-0.3933865,0.23347147,-0.21717137,0.060606234,-0.18466872,0.3186579,0.208614,0.18348312,0.13287304,0.07228875,0.07781843,0.22000012,0.010621642,0.06423397,-0.030207131,-0.0040718913,-0.20129615,0.10751533,0.0638494,0.051958162,-0.08223921,0.362771,-0.11609001,0.0087105585,-0.029225893,0.15873155,-0.1648182,-0.10239321,-0.19461015,0.20997632,0.004560668,-0.03237323,0.018772202,0.1226527,-0.049995005,0.11688291,-0.27161607,0.17227603,-0.22915713,-0.03030292,-0.12218323,-0.11199506,-0.09046805,-0.12586637,-0.042703416,0.15832426,-0.0884129,-0.0821341,-0.26608235,0.086459994,0.18530397,0.18875577,-0.33331555,-0.09768437,-0.102648936,-0.05213983,0.025922492,-0.3847698,-0.075602785,-0.037436668,-0.26033705,-0.1138934,0.37674183,0.39910898,-0.16482551,-0.2834942,0.029659845,-0.18777898,-0.15812165,-0.22029202,-0.20200622,-0.24578151,-0.19993986,-0.3297336,0.5939993,0.42202312,0.5451279,0.13377564,0.21987638,0.3017223,0.18676041,-0.05184026,0.27978572,0.06806178,-0.0077061392,0.26245174,0.48369825,-0.015387559,0.0013575866,-0.120924614,0.27962607,0.12745327,0.13450152,0.060129005,0.17664418,0.29108408,-0.028644698,0.15259154,0.24642017,-0.026031617,0.0015865519,-0.06954605,0.065176025,0.15324378,0.15877143,0.026970495,0.07653127,0.09046069,-0.103970714,0.101236634,-0.123366565,0.009460909,0.02153888,0.49583715,0.16545688,0.13763767,0.17028509,0.300504,0.15321654,0.2738364,-0.056605823,0.26706475,-0.28064904,-0.008935076,-0.020434005,0.30569765,0.20383677,0.20622149,0.2503531,0.27814206,0.32370177,0.27608642,-0.24694459,0.34868512,-0.19616906,-0.12418571,-0.014877232,0.41523343,0.15970688,0.2518604,0.15588395,0.34461087,0.24522613,0.3308873,-0.13316128,0.29807633,-0.20728032,-0.33802256,-0.12935346,0.34642553,0.2688634,0.18597603,0.1872969,0.34541386,0.09838636,0.24445935,-0.2938718,0.41350204,-0.12320985,-0.0701498,-0.22665264,0.37871507,0.17273001,0.07815592,0.14665356,0.06364565,0.06516408,0.25170425,-0.14082623,0.18800728,0.018299147,0.15277556,-0.2269852,0.09953043,0.10938436,0.09656052,0.04978042,0.3216195,0.05834167,0.0066709723,-0.24843417,0.26043928,0.088838905,0.03761315,-0.14713229,0.011164212,0.0394476,0.03888954,-0.021915486,0.11737474,-0.07370039
0.053199083,-0.24196304,0.1871409,0.3069304,0.42629242,0.08276395,-0.03324544,0.038932476,-0.18486185,-0.08810997,-0.111112356,-0.10645147,-0.15949915,-0.31555328,-0.13759238,0.45781532,0.4534597,0.04481146,-0.032880656,0.029571835,-0.15260781,-0.051522356,-0.4099275,0.031388972,-0.17260468,-0.046847075,-0.23031427,0.55471265,0.4503834,0.035707146,-0.19560148,0.016061958,-0.09440179,-0.08600779,-0.22862548,-0.2455138,-0.20539008,-0.08127544,-0.2221314,0.3973295,0.21144009,0.40862033,0.23239875,0.20109355,0.36526564,0.11775198,-0.01977944,0.23596461,0.27420637,-0.062010758,0.12770051,0.49442428,-0.010040908,0.09866585,-0.10357446,0.019902265,0.21848446,-0.06362753,0.08917589,0.2365298,-0.076833226,-0.04257875,0.117476515,0.055992175,-0.4421561,-0.055313826,0.43792653,0.20557201,0.008878133,0.08998951,0.004532502,0.05582211,0.20478642,-0.32107273,0.1279732,0.09367285,-0.3213155,0.061980974,0.3869622,0.114397556,0.1656635,0.06566867,0.1767999,0.11447495,0.22356212,-0.17458764,0.15561749,-0.06283066,-0.3764843,0.06272466,0.31991974,0.111541174,0.09808359,0.22639784,0.30671817,0.22622024,0.3293364,-0.11556444,0.28324077,-0.08342791,-0.29748023,0.015296963,0.3186556,0.20122507,0.23702958,0.096311904,0.36754423,0.21444821,0.2131584,0.056427356,0.2686247,-0.22860649,-0.12880024,-0.19027591,0.27619785,0.22640614,0.11242736,0.06898461,0.14082311,0.081371464,0.105720215,-0.15313941,0.25824445,-0.08705909,0.09882498,-0.052638017,0.14516254,0.07456102,-0.04016209,-0.04653922,-0.03330688,-0.05645472,-0.018482767,-0.14881648,0.11024599,-0.0008720459,0.46953696,0.1283498,0.012621421,0.11159861,-0.016386881,-0.05318864,0.2873147,0.013520278,-0.105229385,-0.08043736,0.18466781,0.17039728,0.34037325,0.11713756,-0.044828374,0.05339516,-0.053895712,0.11307207,-0.31732652,0.11256673,-0.13958226,-0.08026652,-0.14368951,0.40906656,0.56017506,0.11257779,-0.15502909,-0.043341435,0.021423252,-0.0991445,-0.3637805,0.03326457,-0.07987115,-0.0139919855,-0.27879894,0.4054119,0.694355,0.2928531,-0.20910235,0.16144547,-0.059311323,0.049794927,-0.40598032,0.08925693,-0.18644139,0.2701156,-0.30856,0.5057544,0.6293425,0.22071435,-0.037057012,0.14500412,-0.20860803,0.047679782,-0.30506384,0.084985346,-0.13234614,0.093904376,-0.31551564,0.43068692,0.13386059,0.43428832,-0.21659307,-0.058891144,-0.02804584,-0.23165838,0.015661675,-0.19578758,-0.027140673,-0.12302967,-0.017134776,0.32319194,0.13900335,0.22017302,0.28710395,0.30148557,0.2820765,0.34816504,0.18130472,0.3248812,0.34825993,-0.014275923,0.3053717,0.1613789,0.014127627,0.041523118,0.27566555,0.1276071,0.12072556,0.20746611,0.080403514,0.24625076,-0.0641685,0.0042240545,0.12559688,-0.020059997,-0.5504055,0.04315376,0.31411856,0.033475753,0.102360584,0.2198059,0.17162625,0.12709263,0.16858952,-0.15133455,0.274926,-0.06943728,-0.4615233,-0.07668678,0.14324607,0.06222942,0.035890162,0.09865065,0.18155026,0.12332639,0.022190347,-0.03551076,0.1819197,-0.19485281,-0.5407506,0.053817637,0.19265874,0.110750325,-0.0066163335,0.13651408,0.17353597,0.09901072,0.088982195,0.19068655,0.23550156,-0.16983314,-0.34726438,0.070301,0.12809768,0.0116576,-0.031120913,0.07230612,0.14813359,0.16113935,0.07096993,0.060476728,0.05219891,-0.057834726,0.06383096,-0.045900833,-0.14072607,-0.09315394,0.019553319,-0.05040211,-0.14748698,0.08795235,-0.0457075,0.015794434,-0.27115998,-0.23297566,0.15711437,-0.017451717,-0.08532507,-0.017406484,-0.08572424,0.035364944,-0.057918005,-0.022897048,-0.05063781,0.27490985,0.069547586,-0.051827963,0.48508,0.2802288,-0.1335372,-0.11664453,0.09535612,-0.041291572,-0.47797173,0.047414076,-0.111111045,0.09666111,-0.33936068,0.31597978,0.71941286,0.24689133,-0.15693037,0.119709395,-0.087524734,0.026116544,-0.44119188,0.067702375,-0.11082318,0.51465374,-0.27202833,0.20726123,0.70281315,0.26449737,-0.2674747,-0.10522381,-0.18124701,-0.12409697,-0.16574518,-0.0928939,-0.16228928,-0.029268563
-0.26914135,0.21347764,1.0154408,0.11817963,-0.3406277,-0.1975077,-0.1939231,-0.34285045,-0.22943355,-0.11519673,-0.25547284,0.08708717,-0.18732145,0.30905178,0.16568017,0.16896608,-0.1472491,-0.1503883,-0.18521336,-0.14906389,0.027539773,-0.10549118,-0.1643994,-0.09015544,-0.19480819,0.07818433,-0.5932079,0.19501883,0.21280451,0.2469868,-0.031757023,0.25792694,0.0772028,0.105710655,0.20649125,0.0376917,0.16473724,0.19140892,-0.6802602,0.16869849,0.05012961,0.17748533,0.045653436,0.1843953,0.13620844,0.24013051,0.23630835,-0.005356069,0.1471693,0.24073002,-0.61204267,-0.00031015085,0.2292672,0.1002246,0.17368984,0.19467072,-0.027450996,0.2310296,0.15546139,0.18697655,0.09616784,0.05343656,-1.0856966,-0.0019006316,-0.0119233895,-0.0707747,0.09533823,-0.026818518,0.10019131,0.05926868,-0.04959531,0.23995769,-0.010345045,-0.04347905,-0.72584224,-0.09122257,-0.06768561,-0.08109032,-0.17846698,0.14506197,0.070669375,0.16030379,-0.112325355,-0.21882115,0.07801351,-0.06612922,-0.4439041,7.8420984e-05,-0.028744383,-0.06644672,-0.030109126,-0.024090206,-0.11640254,0.08900042,0.09281612,-0.50493115,-0.0095594935,-0.114037775,-0.36510414,0.15146595,-0.4160707,-0.16450484,0.00013797966,-0.058160007,-0.39222953,0.021548904,-0.075677276,-0.22118177,-0.16513096,-0.13284072,0.026719622,0.1377714,-0.23923203,-0.07116485,-0.04850355,0.010006799,-0.6299922,0.057963453,-0.12946858,0.004167974,-0.42018673,-0.0024147546,0.79959506,0.23780592,0.06925207,0.2176196,-0.1326882,0.10648583,-0.30720553,-0.020213172,-0.034065854,0.2703973,-0.38049352,0.38821483,0.8681893,0.18745697,-0.28739884,0.09900553,-0.039361123,-0.2406123,-0.14767902,-0.0693783,-0.25946924,0.41821587,-0.07420358,0.30913195,0.43068042,-0.01391829,0.05258852,0.00623895,0.28788036,0.01729953,0.0361309,-0.13984847,0.052031267,0.16958258,0.11309224,0.04241379,0.12680143,-0.009103032,0.029460931,0.025669867,-0.031012444,0.17284198,-0.17777614,0.051943418,-0.06899653,0.0736236,-0.15962996,-0.059875164,-0.093456164,-0.2553491,-0.14335355,-0.15758233,0.27945775,-0.0520707,0.08012027,-0.059487816,-0.07011302,-0.023800524,-0.012143539,-0.1475693,-0.34375024,-0.54765505,-0.07032724,-0.17380118,-0.16710874,-0.16763458,-0.05944832,-0.18426996,-0.16883714,0.055928215,-0.45880842,-0.6692128,-0.36647353,-0.399524,-0.14578865,-0.19203104,-0.19293855,-0.14451762,-0.0683952,-0.22087589,-0.06823961,-0.017034044,-0.22812688,-0.4458316,-0.55806476,0.088906705,0.09848644,0.13095853,0.124749586,-0.049007505,0.046738826,0.076275066,0.098901935,-0.028884638,0.023949515,-0.031644132,-0.87135047,0.023215264,-0.12606522,0.04017631,-0.22058427,-0.08054188,-0.10575459,-0.12093417,-0.20510349,0.12433192,-0.19931926,-0.0010780427,0.019524502,0.0003677793,-0.07687516,-0.0447783,-0.14550605,-0.14894786,-0.20108041,0.004073161,0.0558135,-0.039059594,-0.28215396,-0.0068648825,-0.11249434,-0.22250625,-0.21415135,-0.037709318,-0.04627345,-0.2245097,-0.5598061,-0.05074897,-0.11753707,-0.18457009,-0.59245795,-0.11111581,-0.22214614,0.05739475,-0.034901418,0.089537725,0.28263065,-0.15139826,-0.30576423,-0.23144197,0.19613555,-0.3707072,-0.21378782,-0.058333233,-0.4805387,-0.041572385,0.19342509,0.038542517,-0.08896849,-0.007535535,-0.77617145,-0.14534639,-0.049125608,-0.3613059,-0.84129447,-0.019899966,-0.48039138,-0.27147114,-0.30070502,-0.21490334,-0.52208126,-0.19863924,-0.7616994,-0.14050306,-0.36354473,-0.2933914,-0.92458636,-0.16979498,-0.008174309,-0.108651415,-0.5487093,-0.38108847,-0.10623039,-0.39720717,-0.076174594,-0.11495798,-0.37847075,-0.29036936,-0.116110265,-0.18662561,0.24980772,0.3661397,-0.048654,0.01313706,-0.048471924,-0.19678552,0.04971095,0.14044484,-0.0122789545,-0.15734851,-0.09316879,0.1270861,0.0094398875,0.05462509,0.013082277,-0.06563228,-0.09239233,0.027389849,0.044962257,-0.06002644,-0.06282334,0.021938857,-0.09134617,0.14757337,-0.35408118,0.2386913,0.14894585,-0.06999737,0.08475276,0.031942572,0.042579774,0.22242123,0.106145464,-0.028399307,0.01404463,0.09991603
-0.24719754,-0.04155974,-0.043928154,0.00076213793,0.013888603,-0.0318721,-0.11740035,-0.03115067,-0.02195447,-0.10512925,-0.022390446,-0.04256677,-0.11571589,0.06745117,-0.07230073,0.036125787,0.07341724,0.030150425,-0.08693787,0.05251365,-0.035141148,-0.077675916,0.01265182,-0.012419061,0.3186132,0.12048736,-0.02214229,-0.05594703,-0.11193597,-0.044277497,-0.035676826,0.18914926,-0.00019071053,-0.1260173,-0.095191486,-0.009789681,0.3411194,-0.31144243,-0.18756324,-0.12839146,0.2479576,0.09598034,0.06975805,0.12644105,-0.045411006,-0.03168468,0.58090925,-0.038683817,-0.018671846,-0.10133526,-0.49690285,0.0037789536,0.051923025,0.05593966,-0.23953183,-0.2545347,-0.34055945,-0.11335869,-0.13569865,-0.14259295,-0.06816065,-8.0002705e-05,-0.27389356,0.05231894,-0.0031621915,-0.018443415,-0.099026695,0.055339333,-0.08239081,-0.14553148,-0.11409891,0.004617426,0.041934732,0.051497187,-0.21287948,-0.015295541,0.063429244,0.20625116,-0.0052632606,0.30491897,-0.26711756,-0.04092702,-0.10456144,-0.196267,0.18632157,-0.10575543,-0.11629565,-0.18570007,0.1455532,0.30287856,0.021499384,0.1903038,0.24637507,-0.054890987,-0.076306574,-0.09313569,0.22823818,-0.23146904,0.10252001,-0.19155422,0.30810088,0.32039565,-0.07535701,0.3369121,0.035310857,-0.038970977,0.18973836,0.04807822,0.3054353,-0.12239151,0.25021166,-0.020684458,0.53853273,0.6557087,0.019619869,0.4564379,0.38601282,-0.04985218,0.2481759,0.031850096,0.53624785,-0.09297386,0.20171924,-0.05524275,0.11946868,0.11741445,-0.0973014,-0.10332126,0.1737623,0.1123265,-0.11574638,0.016860746,-0.15120408,-0.037491802,-0.1840415,-0.15081403,-0.1264902,-0.22568417,-0.09766584,-0.112610295,-0.13393264,-0.10859282,-0.09465894,0.019908456,-0.26110238,-0.028236404,0.02028716,-0.047332607,-0.09498599,-0.09585854,-0.092469394,-0.06652792,-0.123594955,-0.05916023,-0.07116838,-0.020292565,0.0992581,0.3447123,0.004907017,0.066585265,0.046884347,0.08860021,-0.06658561,0.05760767,0.049471226,-0.064084955,-0.037994906,0.08209129,0.12068359,0.16155536,0.046473157,0.3714211,0.22280803,0.3312438,-0.090209775,0.104625426,0.20134601,-0.124089904,-0.049065005,0.3459419,0.15237194,0.15280756,-0.045393687,0.2864175,-0.06365461,0.25771824,0.023868702,0.20441493,0.2096707,-0.10669176,-0.122911826,0.1718053,-0.041510493,0.24597739,0.32466358,0.17401594,0.25593102,0.13586673,-0.088547915,-0.09136275,0.16016613,-0.07667629,0.19637327,0.075203866,-0.068113744,0.1374329,0.0898047,0.20088471,0.02724448,-0.16875271,-0.021703737,-0.10734141,-0.13722488,-0.21560545,-0.055114128,0.19888677,0.06629915,0.007928765,0.163953,0.37035248,-0.1225245,0.06644307,-0.09605233,0.062240437,0.11577806,0.09569182,-0.060533803,0.24280222,0.15358935,0.21126087,-0.15002246,0.23076907,-0.08744511,0.13200037,-0.107653044,0.15389411,-0.13858674,0.24508585,-0.1171746,0.6191047,0.19403678,0.21736579,-0.17797191,-0.054839738,0.041154187,0.15485299,-0.28289863,0.14535442,0.003342078,0.014176765,-0.10880204,-0.05136325,0.18270338,0.1964129,-0.20234539,0.12533678,-0.1639993,0.23559009,-0.5511916,0.15132006,-0.100151055,-0.057892054,-0.5747219,-0.18506084,0.027165009,0.16178721,-0.025618508,-0.06924657,0.13212155,0.13968599,-0.32493323,0.24615893,0.06898593,-0.12908597,-0.16862854,-0.4443024,0.053784534,-0.4674171,0.06811304,0.1491109,0.092805795,0.18441048,-0.48858902,0.22169724,0.14221248,0.039012298,-0.5511027,-0.46495762,-0.04956688,-0.16045268,-0.38393444,0.00038117173,-0.3529782,-0.12960747,-0.07638922,-0.08858775,-0.3490517,0.012988922,-0.15396155,-0.27020362,-0.12316895,-0.07827338,-0.12907146,-0.14486355,-0.12280471,-0.16805121,-0.07040068,-0.13941793,-0.17920148,-0.06547835,-0.09200127,-0.03594767,0.09445169,0.1387732,-0.04311179,0.13219485,0.091477044,0.15860736,-0.08668738,0.108342424,0.08751536,-0.13111858,0.0030932045,0.26119196,-0.03600874,0.22878379,0.2705046,0.05008626,0.16480133,0.1341799,0.040117443,-0.12500761,0.25593248,-0.10944254,0.16162622,0.29672748,-0.035419066,0.16746473
0.14111678,0.045572374,0.042661425,0.02185348,-0.06837301,0.04356701,0.099099055,-0.10291917,-0.014885352,0.27172428,0.19097632,0.08394414,0.045850232,-0.09274718,-0.08780768,0.006195983,0.086571544,0.17727455,-0.053744677,0.22147137,-0.08921566,0.31430918,0.12551384,-0.14335942,-0.14220397,0.038944103,-0.049276393,-0.07667149,-0.07900931,-0.048721235,-0.08650567,-0.1761817,-0.01941286,0.5043476,0.14246622,0.24766524,-0.280853,-0.03922874,0.032809444,-0.057475444,-0.073154256,0.05615066,-0.08772188,-0.016150149,0.0053913747,0.6782178,0.23194422,0.28705385,-0.17357785,0.1159544,0.00034291658,0.064912856,-0.23256907,0.17270468,-0.07788826,0.03396009,-0.19420843,0.2443924,0.008855859,0.14579532,0.03460291,-0.07646292,0.104423724,0.026114209,-0.24455555,0.08713854,0.12201915,0.029362718,-0.12694886,-0.17457257,-0.06134502,0.05072367,0.049086113,0.023308733,0.031919938,0.12503539,-0.47972462,0.047140963,0.056196354,-0.12411254,-0.33809716,-0.18279426,-0.072772056,0.2821067,0.17257853,0.11429176,0.09589021,0.07650323,-0.3504037,0.08490093,0.245474,0.04647463,-0.18583465,-0.39819783,-0.13604543,0.07934216,-0.107300885,0.06510312,0.013934272,0.05196508,-0.7074634,0.095960915,0.031196931,0.07683193,-0.7195751,-0.5828922,-0.039270796,-0.35572943,-0.07801261,-0.21461637,0.010443027,0.048513386,-0.17888181,0.030596955,-0.018411048,0.07379475,-0.30456927,-0.7672593,0.15372752,-0.2662245,0.2683356,0.2768837,-0.37188092,0.18324423,-0.12929495,-0.18354726,-0.29923466,0.016366307,-0.25187135,-0.30660906,0.33066067,0.06534029,0.011186323,0.16893238,0.17619933,0.09868174,0.010079201,0.22499247,0.21311878,-0.12433304,0.17677434,0.16307579,0.19453351,-0.13560042,0.10636439,0.109612115,0.065611,0.08595484,-0.0077978508,0.13218391,0.15338111,-0.10678124,-0.047357354,0.18648836,0.27280536,0.06664013,-0.16861568,-0.018805774,0.08951158,0.045776673,-0.01920449,0.19523461,-0.039539445,-0.4217271,-0.003879611,0.4920262,0.37736836,-0.08098106,0.09581888,0.13410242,0.08203267,-0.003926522,-0.0076918155,0.0074563636,0.03146012,-0.69522953,0.10443261,0.4724654,0.29109186,0.028118664,0.00088705466,0.10411347,-0.044817112,-0.10859096,-0.23960878,-0.04602842,0.0004702226,-0.8435587,-0.030769601,0.39463758,0.4073923,0.11290756,0.03273829,0.17193191,0.052852627,-0.07308266,-0.15696108,0.030017363,0.092564754,-0.60876936,0.005827912,0.3299898,0.4560974,0.20802149,0.13138984,0.2099934,0.18285257,-0.09023487,0.053615358,0.025595728,0.1120808,-0.21368223,0.119768895,0.21028587,0.08412858,0.050090525,0.32945287,0.15592515,0.13257334,0.116241574,0.060264923,0.045988407,0.034493223,0.017413102,0.057475727,0.0529907,-0.12176779,-0.009697288,0.12539227,0.119583294,0.12226256,0.015401097,-0.029310076,0.07824589,0.14252205,0.11598865,-0.0066145686,-0.4254624,-0.4243755,-0.13243592,0.18989176,0.023220392,0.1184971,0.07121139,0.14401937,0.0014158424,0.10436801,0.30165824,0.07344197,-0.3417721,-0.36561766,0.12945522,0.11514433,-0.069364294,0.090471126,0.09251095,-0.12486112,0.09902677,0.1745539,0.11055978,-0.06259502,-0.6079279,-0.2972614,-0.37356737,0.14016637,0.13587876,0.027945781,0.11693398,-0.3647071,-0.06060026,0.11334606,0.05393854,-0.9025315,-0.26394278,-1.0449511,-0.4655971,-0.79838717,-0.26246673,-0.6593127,-0.45126188,-0.050769538,-0.03762669,-0.73971736,-0.18761186,-0.29804203,0.094428465,0.4940756,0.2778006,0.14676489,0.28688353,0.069765896,0.19529048,0.10922514,0.31213436,0.21602729,-0.09730732,0.14275615,0.16514498,0.16059355,-0.12192864,0.4053316,0.16374767,0.08399769,0.12384751,-0.1327168,0.014242286,0.16373895,-0.18612167,-0.015545208,-0.012334867,0.18546967,-0.0006158992,-0.059835825,0.13985828,0.13805231,-0.062218573,-0.1107027,-0.13507493,0.15804562,-0.660448,-0.05682166,0.49116766,0.3282919,0.018436732,0.21889986,0.081520654,-0.04530133,-0.09827711,-0.12677053,-0.0054211,-0.039386064,-0.9427247,0.016619693,0.32501256,0.28337196,-0.21192239,0.028862739,0.047946826
-0.044957753,-0.08657162,0.059146717,-0.24284944,-0.10930813,-0.71842384,0.026579138,0.51577777,0.12673678,-0.18922816,0.10495155,0.16200395,0.015109494,-0.096035525,0.1102701,-0.08429656,0.11772199,-0.97311246,0.08827927,0.5315607,0.15166959,-0.03688972,0.23932087,0.12306537,0.14548455,0.104833744,0.07726763,0.10420296,0.07967347,-0.48982495,0.09969055,0.10802431,0.13770734,-0.06644844,0.20552276,0.265986,0.104879834,0.043888055,0.15553345,0.111930095,0.21029249,-0.1553201,0.2830882,0.18063311,-0.1519697,-0.2892854,0.16269945,0.09110558,0.12180437,0.06330716,0.25830355,0.006862632,0.14362161,-0.12691611,0.3488946,-0.06401108,-0.29602167,-0.12124059,-0.10240978,-0.00309636,0.1604773,-0.0004152178,0.35317954,0.0977931,0.08671854,-0.09308123,0.36776578,-0.22385517,-0.8093162,-0.17536213,0.11056579,0.16861905,0.25477022,0.08348543,0.096357435,0.20300789,0.24167149,0.14755708,0.32883844,-0.42262816,-0.6300906,-0.87684476,0.11830555,-0.076350674,-0.18059453,0.20208532,-0.2195375,-0.06436144,0.00094121223,0.14752941,-0.7350289,-0.6714233,-1.0036855,-0.8604634,-0.69408107,-0.93535197,-0.23016348,-0.73618436,-0.0151314335,-0.86806977,-0.3387594,-0.45078665,0.19454321,-1.0271863,0.07380115,0.32089582,-0.36611792,-0.10195911,0.108602345,0.044534177,0.0047223596,0.068214834,-0.1944069,-0.14907457,0.20536152,0.21351515,-0.03132904,-0.042871375,0.2969169,0.08284292,-0.1268354,0.24605544,-0.042467557,0.16519387,-0.004211825,-0.09705669,-0.015632937,0.058745,0.23794813,-0.06295331,0.09013477,-0.12299989,-0.30118337,-0.29430944,-0.25049403,-0.3379278,-0.24439104,-0.17178456,-0.2699699,0.22275738,0.06569904,-0.11855703,-0.052611936,0.037859116,-0.19643036,-0.19028193,0.14651167,-0.30723816,-0.139734,-0.4979571,0.03250587,0.30207923,0.093905024,-0.10064864,0.33367842,-0.03478413,-0.14274944,-0.16513692,0.35374638,-0.0898007,-0.1032215,-0.8006672,0.14720705,0.22744878,0.17733635,-0.15647252,-0.13685352,0.06638662,0.01211507,0.07550556,0.22846235,-0.025982091,-0.090740666,-0.77589196,0.118666,0.3460108,0.16919564,-0.042882368,0.15359414,0.11807252,0.13541281,0.06187608,0.25785407,0.1235839,0.088798694,-0.79103875,0.25206903,0.06472053,0.35090333,-0.10421934,0.13774244,0.29013726,0.052468777,0.18114737,-0.16494773,0.13391884,0.14949672,-0.4638481,0.06269676,0.044318687,0.22953844,-0.1440819,0.18830507,0.12817876,-0.061249323,0.17219625,-0.23428799,0.13238575,-0.015313123,-0.3334769,-0.0024535393,0.16263764,0.080303654,-0.26393786,0.11494731,0.05295037,-0.05198376,0.070263945,-0.37458804,-0.006092659,-0.07125534,-0.10631429,0.05564229,0.10196945,-0.3367054,-0.0040783067,0.0013426035,0.082391575,-0.16339734,0.07820355,-0.66919965,-0.1983421,-0.03815639,-0.1300499,-0.3300816,0.36280033,-0.87807226,-0.555225,-0.23302904,-0.15847008,-0.4981872,-0.1667378,-0.27637237,-0.12949698,-0.33301225,-0.030233866,-0.5309144,-0.29762194,-1.0975564,-0.18222874,-0.15812762,-0.7249006,-0.23818065,-0.29246855,-0.039910235,-0.3060544,-0.21425422,-0.4444052,0.17540227,-0.9463815,-0.2714624,-0.0017936375,0.19389991,-0.02679624,0.09902266,0.06554686,-0.14011481,-0.37109345,0.11168448,-0.10390375,0.084628016,0.21148868,-0.006937741,-0.14364439,0.3232625,0.100145064,-0.22726339,-0.11939304,-0.10913561,-0.23472151,-0.046442423,-0.16081773,-0.2305806,0.1278207,0.21716647,-0.27427304,-0.25712153,-0.31769294,-0.21160133,-0.30189002,-0.21986103,-0.39153412,-0.40824968,0.291968,-0.23236574,0.14253409,0.022337303,-0.16708684,-0.54949635,-0.40396464,-0.117237255,-0.29325184,-0.02827856,-0.2581305,-0.39820862,0.51061076,-0.012408635,0.035070956,-0.13893321,-0.041479588,-0.35078996,-0.19363949,-0.2993639,-0.023437196,0.01716997,-0.17961389,-0.21218358,0.05655025,-0.03989093,-0.06157928,0.23113005,0.0745307,-0.2639609,-0.1310436,-0.123874106,-0.08975465,0.102244094,-0.019763434,-0.084518656,-0.513684,0.012022525,0.30868804,0.2993278,0.25173303,0.08233262,0.140629,0.08589561,0.20485939
-0.020512806,0.2777615,0.068974234,-0.4563913,0.13883342,0.32890663,0.30817124,0.024140537,-0.08266265,0.14563666,0.054323554,0.20931539,-0.37902388,0.14980173,-0.01590427,-0.325839,-0.08855462,0.25224122,0.23565996,-0.0104472255,0.026181655,0.1545941,0.024793347,0.085538134,-0.53042746,0.022508744,-0.026897756,-0.040429708,-0.29615945,0.43678764,0.27897638,-0.0042352043,-0.031198014,-0.041154474,0.011265478,0.111595474,-0.2854136,0.101956934,0.010341314,0.040143482,-0.15488213,0.53708535,0.23062138,-0.3885275,-0.12669595,-0.14621332,-0.06370569,0.0051083392,-0.4963673,0.10510639,-0.18515354,-0.108518414,-0.6424795,-0.16978644,0.22128534,-0.54998815,-0.125885,-0.16811983,0.1409877,-0.07330775,-0.21137713,-0.3297802,-0.019997826,-0.09645073,-0.30477813,-0.7336427,-0.33328384,-0.026791532,-0.1459703,-0.20896178,-0.2726321,-0.21137078,-0.10064385,-0.30177364,0.0066675544,-0.26469868,-0.041314397,-0.9091481,-0.013072731,-0.11403068,0.23628508,0.19757389,-0.19959827,0.16106796,-0.21970204,0.020818125,-0.08053611,-0.012972546,-0.39392766,-0.054583717,-0.022536365,-0.16012065,0.027772008,-0.2605189,-0.13368757,0.08761021,-0.219061,-0.14842492,0.0136599,-0.25330517,-0.2899943,-0.44871336,-0.077591985,-0.075140014,-0.37846124,-0.28949523,-0.34225553,-0.0651807,-0.33637917,-0.09991109,-0.0685777,0.23831865,-0.532302,-0.2878623,-0.11356734,0.13644119,-0.4345701,-0.21323678,-0.26168746,-0.24893546,-0.19174121,-0.18445058,-0.16083223,0.47354606,-0.16494064,0.21800746,0.010383245,-0.044623204,-0.4555114,-0.2146994,-0.2792539,-0.14479697,-0.39834198,-0.17374423,-0.37004128,0.11852038,-0.3233283,0.20740633,0.3239784,0.13842024,-0.38373438,-0.096089415,-0.18572162,-0.19433713,-0.1880816,-0.11964777,-0.2225624,-0.47795853,-0.11660609,0.17030871,0.1000688,0.2137832,-0.26111144,-0.09542101,-0.049247153,-0.047057603,-0.4529998,0.031066936,-0.059521228,-0.3976278,-0.09803805,0.25294846,0.17810261,0.13409853,-0.039911173,0.0022921935,0.018448563,0.028413687,-0.5275994,0.05338872,0.07834794,-0.15842941,-0.18481621,0.19892149,0.52842,0.22224292,-0.16083111,0.036513045,0.025257876,0.03845925,-0.36971712,0.083523385,-0.07504014,0.04967174,-0.24744248,0.4158998,0.17653695,-0.04222359,0.10870766,0.012372233,-0.0034307046,0.076313704,-0.25372916,0.1002038,0.06949362,0.12102826,-0.11808047,-0.07883022,-0.1304807,0.16632654,0.022713955,0.022950664,-0.09183762,0.099353224,-0.117181785,-0.0058879,-0.056499235,0.109290704,-0.12790628,-0.37775597,-0.11943564,-0.10095809,0.16996303,0.15950733,0.19053999,0.24037117,-0.21153374,0.17078286,0.0847454,0.024354191,0.062074732,-1.0775776,-0.107294634,-0.6668377,-0.20537582,-0.0395316,-0.6873756,0.13523623,-0.15364012,-0.19230568,-0.4155697,-0.07735492,-0.59168607,-0.8232756,0.04293434,0.21154857,0.25933346,-0.025770895,0.12332816,-0.26148248,-0.03716305,-0.1080133,-0.0595251,-0.11082112,-0.05577164,-0.19134697,0.0741302,0.023937803,0.21140209,-0.07013869,-0.16637067,0.1337284,-0.06978157,0.16996191,-0.13533475,0.21756604,-0.14191256,-0.6461546,0.19031006,-0.031394344,-0.29978493,-0.22928813,-0.16645277,0.020493912,-0.12667471,-0.120827675,-0.23494916,0.22636193,-0.2924956,-0.16382849,0.14480534,0.092100024,-0.39293125,-0.29248244,-0.26310468,-0.33686176,-0.17029583,-0.30666497,-0.33636066,0.06804263,-0.31200504,0.09956213,0.29745477,0.095096976,-0.37252375,-0.25203335,-0.22881047,-0.30801082,-0.26376152,-0.1538058,-0.30607176,0.070476495,-0.18538843,0.4069716,0.6805787,0.11254168,-0.46897587,-0.15742497,-0.08535295,-0.18947114,-0.11642484,-0.056587093,-0.2637245,-0.008966208,-0.22827318,0.69961405,0.4774824,0.25716516,-0.3628513,-0.13513684,-0.059691556,0.053452875,-0.3861636,-0.015438222,-0.1645014,-0.053685002,-0.34068605,0.5546038,0.024759624,0.24712487,-0.18139575,-0.15592404,-0.04125039,-0.049249202,-0.21656355,0.00048334527,-0.014205775,-0.01706465,-0.082506545,0.1279636,0.13395727,0.20859106,0.13321896,-0.077913135,0.07116744,0.032754567,-0.13861704,0.11833581
0.037163254,0.22471362,0.0022217422,0.21028562,-0.42161456,0.014622507,0.07675695,-0.040302042,0.14844632,0.01825151,-0.11218066,-0.0049324,0.20002267,0.24214807,0.11565343,-0.23912191,-0.541367,-0.15869096,-0.010680102,-0.08218614,0.13342957,0.034922905,0.0943747,0.058322836,0.047644172,0.00024053868,0.10149359,-0.57204777,-0.31727406,-0.057823073,0.113243364,0.035272084,0.003862202,0.11574262,-0.17620268,0.14183755,0.111787625,0.051825143,-0.108649604,-0.2636375,-0.44975504,-0.67958045,-0.17756814,-0.10005928,-0.42141876,-0.019914277,-0.1089292,-0.39967102,-0.41493344,-0.00029468775,-0.28478366,-0.6132025,-0.20847517,0.10003016,-0.30733782,-0.13099426,-0.14198194,0.09729085,-0.026072403,-0.13496152,-0.23961659,-0.030150943,0.01288685,0.07264213,0.09038205,0.17149569,-0.33607948,-0.0432605,0.048371047,0.030116685,-0.03651317,0.015683992,-0.13288347,0.05419865,-0.045061097,0.058337115,0.12653333,0.19196044,-0.19338402,-0.03630354,-0.13627382,0.12743509,0.0068103056,0.065863766,-0.08789402,0.14280911,-0.031703684,0.10331293,0.24831538,0.01781322,-0.19856605,-0.15283415,-0.032630425,0.02168451,-0.17496026,-0.07163942,-0.10154818,-0.008053113,-0.2473845,-0.028551267,0.19763012,0.055703226,-0.29321003,-0.2418618,-0.1635557,-0.072633095,-0.2801461,-0.14358233,-0.17154732,0.07160922,-0.25058317,0.14300013,0.091559276,0.11361124,-0.29622445,-0.1322202,-0.14230894,-0.066049665,-0.13219851,-0.08445476,-0.095978834,-0.15965767,-0.13580915,0.10905466,0.1223676,-0.10678333,0.00083972944,0.038501006,0.051122587,-0.11915587,-0.20220734,-0.041890718,0.025135884,-0.2453071,-0.24093512,0.21647248,0.060303487,0.03456037,0.034151934,-0.002695985,0.04318628,-0.03658734,-0.21366283,-0.027051045,0.10811021,0.032308742,-0.09370847,0.35787958,-0.086072974,-0.1829833,0.057317317,0.087198816,0.03628134,-0.0019280512,0.016737126,-0.09113857,0.16458587,0.12671156,0.18535489,-0.11900427,-0.3087123,-0.07721562,0.08461884,0.067925766,-0.035208456,0.055250067,0.15748924,0.13873447,0.04797292,0.11795912,0.24026412,-0.1301191,-0.729094,-0.19817723,0.21811736,-0.05738522,0.0804799,0.07526484,0.07261609,-0.05483686,0.2391708,-0.18459216,0.04115815,-0.48826173,-0.5102912,-0.3476593,-0.10805093,-0.16426449,0.29126343,-0.20159946,-0.038775027,-0.0925504,0.075266466,-0.09206157,0.081596434,-0.29200703,-0.20189261,-0.51888573,-0.19870663,0.05286676,-0.31818494,0.16763487,-0.09453655,-0.09932709,-0.3501889,-0.03553269,-0.04288372,-0.4937834,0.04192353,-0.1628941,-0.3970798,-0.27012932,-0.083895475,-0.31239542,-0.22162966,-0.23563094,-0.33098224,-0.051303606,-0.17987779,-0.13317785,0.32322922,0.0631323,-0.39378014,0.0061895098,-0.05713781,-0.14935808,-0.11643726,-0.05390567,-0.03913229,-0.015117107,-0.008038776,0.04282515,0.40978542,0.106503844,-0.4005081,-0.01073638,-0.06561173,-0.035885494,-0.15147628,0.05772367,-0.12807815,0.19795717,-0.080014534,0.057684034,0.3801807,0.089686505,-0.31990063,-0.08339928,0.13910775,0.025027538,-0.10545919,0.10829425,0.018098732,0.2162104,-0.11090098,0.12241442,0.18225424,-0.13913411,-0.39406273,-0.06183618,0.058320064,0.0268237,-0.3512148,0.05002176,0.038906317,-0.23176119,-0.3361779,0.13207579,0.32820985,-0.15878193,-0.060367905,0.026697803,0.043021098,-0.0584576,-0.19418567,-0.11246693,0.008323266,-0.5379646,-0.1679249,0.07164779,0.14658132,-0.15928675,0.11455855,0.11837719,0.031305857,0.07713551,-0.10544759,-0.108518645,0.11502954,-0.38329414,0.005797715,0.37173134,0.1779503,3.6449142e-05,-0.061082397,-0.037881285,0.042331446,0.034003768,0.081643306,0.06201788,0.015275689,-0.15378262,-0.014619835,0.1591583,0.02494956,-0.4438696,0.061094195,0.09875391,0.052706737,0.050437007,0.15802422,-0.04706382,0.03214039,-0.07762606,0.15298943,-0.15342177,-0.2912258,-0.36346155,0.16729178,0.027449278,0.1307809,0.10078213,-0.001107957,0.055417083,0.20700613,-0.34075698,-0.09005904,-0.22931516,-0.7705104,-0.47601837,0.078027904,0.018978411,0.11213709,0.023207631,-0.08658267,0.025508907,0.04325423,0.05208098
0.082060724,-0.3196379,-0.98998815,-0.2119676,0.2728521,0.1639041,-0.1295715,0.3074233,-0.16277675,0.123816304,0.039590243,-0.1542406,-0.30848604,-0.31435576,-0.11803187,-0.3417932,-0.2811556,-0.24550991,-0.06436555,-0.40210366,-0.08324769,-0.24092384,-0.08765339,-0.10058859,-0.113235734,0.106841125,0.09123105,0.030486763,-0.13313225,-0.09479311,0.098646276,-0.10154075,-0.13759373,-0.09849209,-0.09592435,-0.13738966,0.064840205,-0.080478124,0.13988009,-0.051008478,-0.070479624,-0.07088711,0.13368006,-0.13840954,-0.04442809,-0.051132135,0.0074972087,-0.14131737,0.008501373,-0.24887225,0.25009972,-0.003000114,-0.10743606,0.027658738,0.10695232,-0.07942832,-0.06564231,-0.13582012,-0.074234344,-0.3352975,-0.073867634,-0.062078957,0.36011064,0.040364943,0.12168588,0.16129255,0.08047361,0.020337304,-0.11063842,0.1007316,0.123391666,-0.25613648,-0.023908455,0.07690953,0.40874022,0.101199344,-0.033117894,0.10565823,-0.036865894,-0.015631407,-0.012705919,-0.032571055,-0.035402015,-0.33644757,-0.004391155,0.14734897,0.28555512,0.11618158,0.12429945,0.102941796,0.14842865,0.008228446,0.17144443,-0.0019873437,-0.0043221097,-0.4902588,0.02220069,0.18256912,0.24854907,-0.09308844,0.2012215,0.14487801,-0.07401723,0.031869557,0.099364705,-0.03685939,0.06547273,-0.24867962,0.046130408,0.11323859,0.0910597,0.0007927943,0.2561709,0.15425779,-0.028637141,-0.007292138,0.3822969,-0.0011166845,0.1880603,-0.257335,0.21669611,0.0573949,-0.40622556,-0.07230911,-0.085870154,-0.014065885,0.0432044,-0.06373867,0.024804445,0.03903406,0.034942582,-0.38430443,0.114179574,-0.16078126,-0.70344687,-0.11799811,0.050161142,-0.017693691,-0.04916183,0.09662705,-0.26502165,0.11423068,0.0885171,-0.2568463,-0.24678636,-0.26236194,-0.4952636,-0.12226853,-0.14657605,-0.0922326,-0.23450753,-0.11587863,-0.28893313,0.08379776,-0.185587,-0.12597428,-0.32400808,-0.10161467,-0.29657435,-0.20430246,-0.08760551,-0.1652176,-0.11616086,-0.1620132,-0.089248165,-0.06913364,-0.02515676,-0.14935493,-0.07755102,-0.05933681,0.049403865,-0.09052294,-0.12003819,0.022977602,-0.10211107,-0.034425125,-0.061438084,-0.15817723,-0.12260844,-0.09675748,-0.03171693,-0.0951683,-0.2399033,0.2870166,-0.08998304,-0.0120719625,0.016642127,-0.005756327,-0.07174325,0.0232873,-0.054364435,-0.083646975,0.16251141,0.4058416,-0.19723868,0.3473518,0.248883,0.20161468,0.30775213,0.12339856,0.05006798,0.34818938,0.296018,-0.09531061,0.29511043,0.35000205,0.08981035,0.124767154,0.107456796,0.16098197,0.0003356125,0.08491084,-0.08359509,0.1913395,-0.00889715,-0.1254375,0.036349487,0.07343301,0.3340745,0.07663627,0.042942747,0.1165732,0.29426423,0.051560905,0.11805345,-0.0256792,0.0967152,-0.15727943,0.30154547,0.04921163,0.22011384,0.06439809,0.19215465,0.16281109,-0.009930609,0.34056392,-0.043353926,0.19646856,0.044630475,0.009702467,0.0047606234,0.018552624,0.35713744,0.12052197,-0.027578838,-0.039212894,0.17249961,0.1390732,0.19486944,-0.06539704,0.04712642,-0.028163096,0.3408946,0.030929195,0.16331321,-0.043374345,-0.029452104,-0.12977494,-0.39732257,0.29987726,-0.007105215,0.24881427,-0.10048455,0.27796876,0.03819994,-0.09710445,0.12588689,-0.08509935,-0.25102633,-0.18800142,0.010097514,-0.07906094,0.36225134,0.025510827,0.028144518,-0.07716968,0.40472758,-0.077473484,0.3595085,0.03585959,0.08564382,0.15943009,0.5055507,0.009260275,0.43932563,-0.06281063,0.20541613,0.012266362,0.556472,-0.037239105,-0.05331487,-0.027981073,0.36944386,0.34401533,-0.07435895,0.30114,-0.091389015,0.018607963,0.1580106,0.04362445,0.05314429,0.019627798,-0.5455281,-0.40960103,-0.03286846,0.09234992,-0.06947868,0.18716438,-0.15267181,-0.20770182,-0.13940005,0.11440848,-0.27149418,-0.27623492,-0.27499324,-0.15896852,-0.11265764,-0.09189926,-0.20120744,-0.02686151,-0.08088802,0.027873173,-0.20019667,-0.045147635,-0.084959,-0.36358634,-0.21247941,-0.073862515,-0.039978996,-0.16210139,-0.14067887,-0.15536681,-0.09750582,-0.11432241,-0.10004508,-0.08860332,-0.042013053,-0.04329562
-0.05860824,-0.22092143,0.00010097852,0.00019614902,-0.023494704,0.00075609126,-0.30367047,-0.04281776,0.013042647,-0.26702914,-0.02623678,0.29511592,-0.17360614,-0.012890616,-0.03277022,-0.07854796,-0.12969013,-0.004762228,-0.3088912,-0.123478524,-0.0095842695,-0.29848313,-0.17896914,0.35148615,0.28347594,0.2163275,0.01751154,-0.005089421,0.096834995,0.05811947,-0.13965417,0.282655,0.04702392,-0.28881532,0.02411116,0.32822317,0.22768246,-0.25345093,0.0968604,-0.037187696,0.13857616,0.17502679,-0.16614056,0.21038523,0.14346679,-0.24750184,0.151727,0.30187443,-0.20520037,-0.39849317,0.12491655,-0.17639819,-0.2464686,-0.20360133,-0.41030565,-0.3040953,-0.11762541,-0.2647461,-0.3291401,0.035614338,-0.30890375,-0.27273962,-0.23838909,-0.20982982,-0.083244495,-0.19084065,-0.19398485,-0.2549921,-0.107513756,-0.41914552,-0.018045494,-0.019694911,0.021890404,-0.2303603,-0.18210661,-0.24802186,-0.24785404,-0.07268893,-0.10075648,0.017051348,-0.26927316,-0.26627797,-0.23271923,-0.43871263,-0.037520558,-0.52626365,-0.04944251,-0.18911587,-0.16426054,-0.14159976,-0.2441918,-0.26068646,-0.25401595,-0.15569386,-0.09745376,-0.574878,-0.38726068,-0.5201705,-0.41564673,-0.45433596,-0.352045,-0.4251254,-0.23348105,-0.33374116,-0.27771574,-0.4444959,-0.40164122,0.017477084,-0.037028175,0.11756059,-0.43453848,-0.39240688,0.17068925,-0.15473808,0.003034335,0.19341557,-0.09284682,-0.2974184,0.21493909,0.35696957,0.21394645,0.05498726,0.24288864,0.06957936,-0.031098183,-0.17175584,-0.24707869,-0.22883818,0.19690765,-0.17607072,-0.19254237,0.36759743,-0.18066926,0.024050456,-0.34074,-0.14669687,-0.20459738,-0.17677188,-0.24496706,-0.028627843,-0.129537,-0.21159087,-0.15433532,0.36637324,0.22003095,-0.024916206,0.011455688,0.0053639486,-0.061305832,-0.0028221514,-0.2623886,-0.015595139,-0.0044644354,-0.21375203,0.03947555,0.29612848,0.16356888,-0.21195908,0.022898208,-0.08112893,-0.08755919,-0.0060099093,-0.26882267,-0.08082592,-0.031672128,-0.24130529,-0.11504925,-0.039844394,0.0327822,-0.030724626,0.0014548553,-0.03273803,-0.0057423958,-0.026802158,-0.2737037,-0.07490622,0.02119241,-0.23469569,0.013404018,-0.059860732,0.064071365,0.33603415,0.20089659,0.102456786,0.15781292,0.048432525,0.001064013,0.071463294,0.1503363,-0.22313327,0.24320841,0.26150858,0.12476059,0.14134383,0.2415848,0.13590741,0.034019608,0.06562456,0.09387619,-0.026923146,0.19061403,0.046707544,0.25098103,-0.34081593,0.09725215,-0.57052916,0.30558878,-0.06778579,-0.13212551,-0.0395574,-0.14570034,0.095019095,-0.023156283,0.15819544,-0.121250615,-0.4201884,-0.14258184,-0.17044836,-0.06606137,-0.14392214,-0.015756242,-0.34499738,0.056598514,-0.28363386,0.055947907,-0.24706997,0.051327042,-0.616493,-0.06387097,-0.10073973,0.36247706,-0.004743163,0.0016160118,0.0044977595,0.087210804,0.12518072,0.09805465,-0.11356887,0.13765799,-0.7327201,-0.08934287,-0.1206316,0.10391629,0.036970675,-0.08403877,-0.12074025,0.032544073,-0.06500694,-0.124704905,-0.06961119,0.06864693,-0.29672244,-0.2155376,-0.12709762,0.2332315,0.12182324,-0.074476235,-0.34937283,0.34605095,-0.15731011,0.14512022,-0.021904048,0.3888754,-0.42265263,-0.16589637,0.3674227,-0.035053317,0.062361147,0.011277169,-0.086679384,0.3484121,-0.12730294,0.07886399,-0.14794572,0.43298575,-0.2649009,-0.005914582,0.050846476,0.18680093,0.23819003,-0.098498255,4.833877e-05,0.0819025,0.051689856,0.08924875,0.037143186,0.060987346,-0.18955384,0.18729685,0.36957633,0.11310673,0.3556261,0.16535307,0.19375503,0.0038938855,0.28120574,0.2016413,0.05865387,0.20418075,0.18408741,0.12140458,0.091706134,0.277449,0.24425678,0.34111694,0.10493033,-0.31633487,-0.06493565,0.27115914,-0.11759473,-0.16440298,0.4584213,0.034231745,-0.05603924,-0.013571129,-0.050885815,-0.12140002,-0.10994935,-0.24842188,-0.059921592,-0.014613263,-0.19726999,-0.07453343,0.33311763,0.17901349,0.090544626,0.03458331,-0.00064943725,0.053123515,0.10120284,-0.082362734,0.19615434,0.045222104,-0.20375298,0.005635722,-0.24664056,-0.0613913,0.04661319
