#include "main.h" 


float OL_weights[128,5] = {
    {0.10232086,0.17978987,0.14611247,0.19415945,-0.17620058},
    {0.09735808,-0.049106285,-0.11820287,0.20525843,-0.09965341},
    {0.16859457,0.030098334,0.0755935,-0.17928728,-0.16326334},
    {0.021458771,0.12798248,-0.12468338,0.05559852,0.1730693},
    {0.012939586,-0.013169199,0.04817133,0.1691428,0.11823025},
    {-0.16403922,-0.10929844,-0.20760916,0.12728481,-0.1684235},
    {0.13946906,0.031786956,-0.18374367,-0.1912586,-0.21418494},
    {0.1924046,-0.026401533,-0.011121874,0.12328854,0.044614352},
    {-0.12444239,0.17094682,0.12621954,-0.15545203,0.17472789},
    {-0.18944617,-0.028841354,-0.05656293,-0.08111526,-0.19733596},
    {0.05291283,-0.03175439,-0.18110695,0.02666846,0.06919566},
    {-0.011182652,0.16768564,0.038741503,-0.17121333,-0.057673767},
    {0.18608062,0.07292127,0.18653268,-0.0047826017,0.1815215},
    {0.043973785,0.10272213,-0.18705176,0.05685664,-0.06287066},
    {0.017527241,-0.04551904,0.16051386,-0.15510093,-0.1846045},
    {-0.027633203,-0.20839414,0.1270324,0.05031649,-0.045677364},
    {0.17450087,-0.17045428,0.13518964,-0.20330653,-0.09314271},
    {-0.103471585,-0.07091554,0.06362772,-0.14466849,-0.12116889},
    {0.069586016,-0.052298494,-0.08519977,0.04756728,0.1257253},
    {-0.18822995,0.045775093,0.20188163,0.037619423,-0.023158628},
    {0.19155245,-0.0023804172,0.05354159,-0.12765278,0.14470983},
    {-0.14289743,0.12773918,-0.050298117,0.1397394,-0.07313669},
    {0.15487438,-0.021921324,0.03309104,0.025741473,0.19236617},
    {-0.022903765,0.14939186,0.10658848,-0.1644056,-0.028140074},
    {0.18467031,0.053089257,0.1390688,0.030961145,-0.17102309},
    {-0.06367882,0.026635721,-0.009530005,-0.15836616,-0.16572225},
    {-0.001108801,-0.14597906,-0.121602565,0.05964974,-0.024436155},
    {-0.06486581,0.07498134,-0.14932816,-0.05308222,0.20838806},
    {-0.15194084,0.1421858,-0.09952313,-0.01586243,0.061438534},
    {-0.15511897,0.17223756,0.086591505,0.15127045,-0.17118436},
    {-0.05360847,0.014533398,-0.11297338,-0.08017128,-0.108428836},
    {0.21193591,-0.1367236,-0.033214755,-0.1438828,-0.083347544},
    {0.0814234,-0.16910896,-0.039077327,0.20295781,-0.058088183},
    {0.20462371,0.04173849,0.0068841754,0.0058470024,-0.16024688},
    {-0.036742516,0.18534505,-0.0494203,-0.15118343,0.14958782},
    {-0.1009759,0.17700036,-0.07285353,-0.1067675,-0.21318653},
    {-0.044275437,-0.16731925,0.02359329,0.10362023,-0.14499767},
    {0.18101496,0.11609723,0.11553456,0.08718592,0.10918859},
    {-0.1481016,-0.14185034,0.15746999,0.12461475,0.08803719},
    {0.08759437,0.17714393,0.070588484,-0.028810699,-0.17391928},
    {-0.16364847,0.08892586,0.16413033,0.2002598,-0.14296854},
    {-0.09468058,0.04305922,0.14198613,-0.12501931,0.05343836},
    {0.036288325,0.124079384,0.14484589,-0.17878251,0.13055074},
    {0.0701448,-0.10836343,0.19492185,-0.13012695,0.12627682},
    {0.03016051,-0.040758517,0.10221026,-0.06480716,-0.14857963},
    {0.010613212,-0.05373755,-0.0082858475,-0.045879595,-0.0935817},
    {-0.13486934,-0.011432362,0.0831492,-0.19661726,-0.105124734},
    {0.06629484,-0.17003734,-0.15062624,-0.18467382,0.029960949},
    {0.13476922,0.049242623,0.09553557,0.13518299,0.11423029},
    {0.05241959,0.097225256,-0.018963614,0.051203705,0.12722991},
    {-0.17756161,0.15467295,-0.1082736,0.086430095,0.15477644},
    {-0.1036482,-0.1421523,0.10136381,0.15724455,0.018700074},
    {-0.19207074,-0.09516965,0.084171094,0.12614095,-0.075858735},
    {0.060308024,0.15065022,0.018284837,-0.06540033,0.16876808},
    {-0.07057103,0.05069517,-0.032468364,-0.0210748,0.0059889317},
    {-0.048226666,-0.12699291,0.18006398,-0.073004685,0.061134804},
    {-0.03714211,-0.16001777,-0.09460978,0.20548545,-0.050080754},
    {0.0020984963,0.18689534,-0.10194597,-0.13872708,-0.1245627},
    {-0.06959028,0.11106587,-0.1839663,0.16703725,-0.14695752},
    {0.06052372,-0.0020220175,0.15469712,-0.052437004,-0.038023785},
    {-0.12006888,-0.15355955,0.15230943,0.0067992574,0.17310983},
    {-0.092445806,-0.17933853,0.1864241,0.08112979,-0.15874346},
    {0.1967899,-0.18386535,-0.15316577,-0.18048905,0.18283601},
    {-0.12656744,0.14634697,0.02540429,-0.009425819,-0.019693842},
    {0.06843991,-0.06179248,0.09217552,-0.12993924,0.058004007},
    {-0.025594259,0.16180319,0.0010175492,-0.1437878,0.042214006},
    {-0.013181257,0.106906794,0.083603986,0.040486883,0.14826293},
    {0.004657224,-0.0273768,0.1367218,0.05453848,-0.01045762},
    {-0.08788439,0.13966048,-0.19520463,-0.2071267,-0.051241588},
    {0.15408304,0.06303619,0.07673538,0.12101043,-0.11699708},
    {-0.09082366,0.030044556,0.113309294,-0.15061526,0.065856285},
    {0.08316788,0.07710773,-0.16545098,-0.052568465,-0.010223672},
    {0.0069216504,0.1713564,-0.15840085,-0.20735799,-0.08527032},
    {0.075828336,-0.11222114,0.10808133,0.20194139,0.14323512},
    {-0.030185727,-0.035653997,-0.10174293,-0.20245081,-0.09276219},
    {0.0017473251,-0.15943106,0.017585015,0.06442965,-0.16227375},
    {-0.043231174,0.13584265,-0.1762829,0.02645059,-0.08803649},
    {0.026035385,-0.090374894,-0.113253325,0.13244125,-0.15966031},
    {-0.17004827,-0.081669606,0.008935107,0.010212476,0.028019035},
    {-0.19377069,0.1075172,-0.07127404,-0.22648808,-0.10568171},
    {0.14381921,-0.07099237,0.13516162,-0.04561471,-0.016112344},
    {-0.14853673,0.0054795844,0.17972554,0.13482937,0.09281817},
    {0.09259205,-0.14877371,-0.07104941,-0.09405712,0.16663599},
    {0.017415375,0.020102283,0.09439707,0.18559146,0.03199372},
    {0.183799,-0.06787774,0.088182695,0.054239437,0.21111958},
    {-0.054028895,-0.08008136,0.034481604,0.14180848,-0.1470154},
    {-0.14494894,0.19261593,-0.219862,-0.15269955,-0.019083945},
    {0.05229821,-0.13931781,-0.1923248,-0.08427359,0.015749987},
    {0.18972644,-0.113443576,-0.006213717,0.006640917,-0.16783555},
    {-0.024684295,-0.056561664,0.12134927,0.15155117,-0.10993404},
    {0.12631635,0.13135387,0.08192728,0.07877794,-0.0044740587},
    {-0.1834056,-0.10335465,0.17701864,0.114701316,-0.15362997},
    {-0.043670736,-0.014499699,-0.0018419104,0.033824686,0.12662788},
    {-0.11209463,0.032388575,0.09783153,0.1923731,-0.07274024},
    {-0.03292883,0.19409859,-0.05258667,-0.12689339,-0.12278305},
    {0.19513118,-0.017401347,-0.19386461,-0.17605111,0.14772114},
    {0.16649981,-0.20134965,-0.0035343736,0.11461622,-0.19628884},
    {-0.0048180693,0.16903931,-0.108019315,0.06237963,-0.116675586},
    {0.15886568,-0.0654574,0.16098702,0.07491803,-0.014060863},
    {0.028082773,-0.16995586,-0.16341293,-0.14223237,0.10091526},
    {-0.05285355,0.167439,0.19317639,0.10875098,0.16229193},
    {-0.17484967,-0.090873815,0.05286227,-0.008052621,0.20408833},
    {0.05599222,-0.20921482,0.14350244,-0.094998844,-0.10282361},
    {0.027454361,0.1599202,-0.19553232,0.12073948,0.12173267},
    {-0.13481776,0.09459113,0.16148266,-0.027510813,0.07653835},
    {0.14947052,-0.18892944,0.16696656,0.20572601,-0.1315422},
    {0.10733161,0.21847041,0.004778129,-0.04333555,-0.05490059},
    {-0.15170005,0.09017336,-0.051647052,-0.09810451,-0.1000033},
    {-0.09686948,-0.14829974,0.051179748,-0.045983095,0.032582648},
    {0.15989777,-0.117113315,-0.17611678,-0.0038369596,-0.19279633},
    {-0.16197938,-0.15720087,-0.120996535,-0.08547841,-0.19948508},
    {-0.05792895,-0.2283918,-0.20068963,0.021115944,0.048650797},
    {-0.16647702,-0.12261912,-0.12448144,-0.009246237,-0.05393003},
    {0.02969124,0.14454204,0.11547693,-0.041389424,0.13549083},
    {0.0393363,0.14380564,-0.08285799,0.10349645,-0.054950222},
    {-0.076966055,0.06240782,0.03960703,0.20762454,0.1383927},
    {0.098719425,-0.06455934,0.11391009,-0.21059936,-0.043386675},
    {-0.15490493,0.12192714,0.19057287,0.11328022,-0.07101375},
    {0.087031856,0.054033175,-0.02092972,0.11752563,0.055952907},
    {-0.014203847,0.0462482,-0.14411592,0.056513797,0.092941605},
    {0.15083127,0.100890934,-0.13420546,-0.0039346106,-0.03427345},
    {-0.057921782,-0.06218356,0.05152321,-0.08001019,0.106871605},
    {0.048774473,0.1395672,-0.010238403,-0.0479139,0.08388623},
    {-0.1265875,-0.20475383,0.019032517,0.008925079,0.15970795},
    {-0.038345363,0.2005753,-0.14770997,0.20947926,-0.1496697},
    {0.108172625,-0.119853966,0.048142254,0.09990892,0.16520076},
    {-0.18014659,-0.12524164,0.16604139,0.15585378,-0.08697008},
    {-0.10899262,-0.09395638,-0.06549951,-0.07039364,-0.048068974}  };