-0.31918338,-0.023990218,-0.35308304,0.0650127,-0.16521005,-0.0458676,0.031041363,0.11516775,-0.17004259,0.040514693,-0.20504794,-0.10429877,-0.08397351,0.228364,-0.12029076,-0.07549838,-0.18015616,-0.08564953,-0.05758209,0.07931995,0.020487027,-0.10647462,-0.07341181,0.094243094,0.18397985,0.28901958,-0.013363244,-0.094864234,0.12396456,0.073283516,0.101698466,-0.057277557,0.17247237,-0.1572,0.022193126,-0.27753472,-0.27567163,-0.16206081,-0.19075708,0.18010804,-0.07409555,0.12862623,0.13405213,0.05634305,0.17409219,0.23172581,-0.13425797,0.16924867,0.09545431,-0.3788052,-0.06369692,0.08635877,-0.1199365,-0.17919247,-0.3184085,0.16437729,0.09210098,-0.17757125,0.18676694,-0.021456344,-0.27426806,0.16119282,-0.29318926,-0.319657,-0.31242898,-0.13207571,0.21930018,-0.21820912,-0.097063616,-0.04499406,-0.23120783,-0.16891561,0.08976292,-0.3623043,0.12950696,-0.23160382,-0.38084432,0.21834879,0.0110404575,0.104236804,0.0896253,-0.13687782,-0.43522763,0.010378458,-0.0321526,-0.004576478,0.15094346,0.14023785,0.01936364,-0.27268088,-0.15551347,0.16558015,-0.15550742,0.24289075,-0.21319923,0.045796424,-0.06003587,0.26273784,-0.2987994,-0.054177593,0.02051991,0.22507931,-0.31635645,-0.25837132,0.08683239,-0.11099875,-0.13474305,-0.40108395,-0.06809749,0.2306246,-0.08840032,0.10782367,-0.11496035,-0.10117573,0.122057766,-0.20792681,-0.030269884,-0.29262367,-0.16691008,0.054366946,0.14821139,-0.1931112,0.2345458,0.10945544,-0.09773636,0.26488703,0.31116158,-0.12340635
-0.17921549,-0.1367418,0.101530746,0.013653781,-0.09460845,-0.17260373,-0.24001876,0.0370019,0.011084756,-0.19126183,-0.36817664,0.006912677,0.05856198,-0.19909742,0.0077064424,-0.24722946,0.12509994,0.025552476,-0.16255978,-0.24756062,-0.14600052,0.07100468,0.12171873,-0.17504638,-0.28461802,-0.43011826,0.15768753,-0.13054848,-0.17502105,0.14408508,-0.2239442,0.079584576,-0.06460427,-0.18645535,0.049782217,-0.12514356,0.043323517,-0.18908447,-0.029292954,-0.043463904,-0.20404689,0.19738367,-0.035212535,0.12276599,-0.1284704,0.05334456,0.16667122,-0.02272322,-0.18464898,0.32486343,-0.078326754,-0.26030636,0.11258285,0.20911911,0.048793085,0.040816642,-0.27666375,-0.03910842,-0.18347384,0.18477371,0.11652408,0.18772808,0.318143,0.13433623,-0.02977318,-0.04984168,0.111253485,0.11719167,0.058098987,-0.19002703,-0.2741135,-0.26277152,-0.07683065,0.2289071,-0.23491399,0.22272672,0.09157494,-0.23687303,0.022029772,0.013575958,-0.095801465,-0.0746459,-0.14187059,-0.27547577,-0.14419518,0.30565864,0.14464553,-0.38573265,0.1930041,0.05316703,-0.12753455,0.20024718,0.022567034,0.112472355,-0.16828369,0.04501835,0.20265603,0.25713432,-0.23781767,0.3167747,-0.0011600569,0.15520975,0.16851026,0.18689021,0.10362179,0.06641297,0.45135006,0.030169334,-0.24899939,-0.26780868,0.15285936,-0.013084797,0.15150563,-0.16914128,-0.08457537,0.118304804,-0.18557869,-0.21159118,-0.2969822,-0.20553675,-0.02910602,0.13864821,-0.2954084,0.021542257,0.025960773,-0.29362586,0.36901185,0.10186137
-0.0012487691,0.05514961,0.010773056,-0.10293787,-0.15658502,-0.02991834,-0.19138418,-0.15956149,-0.51141524,0.22664839,-0.23301892,0.005942872,-0.117567755,-0.06663864,0.19042222,-0.07296731,0.13179167,0.1964443,0.007477606,0.13045448,0.16731371,0.06012509,-0.26021972,0.13215925,0.002191247,-0.27541074,0.1391004,0.17906232,0.02182851,0.10564162,-0.27932423,0.15206668,-0.24428768,0.1760702,0.048367396,0.18900988,-0.3276535,-0.05291142,0.06860743,-0.020282783,0.19570576,-0.33060667,0.02030246,-0.2624889,0.19616057,-0.18169203,0.08561577,-0.21610327,0.09653081,-0.30518195,0.3264823,0.08216975,0.09676796,0.16580144,0.017130984,0.19761069,0.020922374,-0.12059936,0.17807905,0.16627413,0.14571045,-0.24072003,-0.10379192,-0.41240326,-0.18665922,-0.0717756,0.13810325,-0.16648203,0.12845467,0.032922674,0.113966756,0.060761344,-0.29729542,0.17347677,-0.17873247,-0.32472593,-0.28487977,-0.26248488,-0.23387861,0.07546996,-0.31226295,0.10131255,-0.1339709,0.19718842,-0.16004418,-0.21723613,0.22252929,-0.26148486,-0.14348167,0.08362404,-0.19141045,0.039197117,0.18649091,0.06360557,0.18822372,0.1013455,0.12649429,-0.3107823,-0.120781146,-0.28744057,0.12003148,-0.3069868,0.12335602,-0.3156678,0.16059032,-0.22166732,-0.26907232,-0.234462,-0.3217649,0.16810748,0.037656117,0.113567606,0.14395604,0.10459436,0.16332047,-0.3595868,0.14347509,0.046177678,-0.29174745,0.21444245,-0.09431701,0.06709595,-0.12138853,-0.1213764,0.09575448,0.19954775,-0.13249318,0.14673522
0.03938287,-0.19722302,-0.2279672,0.065543674,0.18410215,-0.1039121,-0.11203643,0.05500429,-0.29086775,-0.15450698,0.12839043,-0.18143469,0.061490104,-0.328317,-0.17625186,0.13858798,0.141002,0.18757182,0.116199315,0.056014784,0.13274625,0.17272006,0.14648284,0.053219378,0.1373165,-0.27499774,-0.022739103,0.20237876,-0.11396434,-0.2587914,-0.041875973,0.1306096,-0.25274867,0.047828533,0.16755931,0.053849027,-0.35908183,0.018966787,0.02611724,0.14783587,-0.1305072,0.022303328,-0.029645173,-0.23320228,-0.17422245,-0.20468482,-0.14891095,0.13656257,0.100054204,-0.117046215,-0.18129042,-0.1300357,0.061699122,-0.17626926,-0.20073044,0.012908162,-0.13536394,0.03740431,0.033979036,0.09295674,-0.22201185,-0.43166292,0.0872008,0.16413195,0.14248677,0.005437159,-0.15679754,0.10373728,-0.22815582,0.12228666,0.028913854,-0.23981006,0.05910262,0.16614775,0.118706375,0.16881192,0.1961882,0.045814488,0.18857269,-0.12345939,0.04500821,0.1567667,0.103296645,0.18623008,-0.16871592,-0.18973023,-0.2844461,-0.22970483,0.12516983,-0.16363695,0.19001418,-0.26324317,0.15873887,-0.13450624,-0.21254955,-0.17454189,-0.08736532,-0.08208246,0.17859378,0.12629697,0.15567888,-0.29573166,0.12267632,0.17855503,-0.2436286,-0.17125301,-0.2944289,0.18713973,-0.28170472,-0.23954031,0.12185702,-0.11830556,-0.3541201,0.11494091,-0.15924975,0.06751706,0.037125167,0.23508751,0.17001826,-0.12228784,0.003601849,-0.15083086,-0.083506875,-0.26078185,0.10079204,0.062103912,-0.2478266,0.09608458
0.18683538,0.025310066,0.11022562,0.066413745,0.08120032,-0.031203566,-0.1040511,-0.0660968,-0.1806212,-0.111857824,-0.34463656,0.035655916,-0.15592195,-0.14994256,0.17236379,0.11200346,-0.3172717,0.075676546,0.14020465,-0.31639344,-0.27824268,0.15919904,0.07825402,0.1313299,-0.36202842,0.057879463,0.17052129,0.12435899,0.1839242,-0.11182444,-0.0017225444,-0.11194231,-0.1165764,0.13544886,-0.04211085,0.24709669,0.05740581,0.004734554,0.04688727,-0.073502555,-0.30749613,0.17887825,-0.03576935,-0.27557844,-0.05154133,0.21058127,0.18677944,-0.35188687,-0.29066253,-0.16893555,0.23420751,0.025636464,0.1603893,-0.079065725,-0.27728498,-0.39456147,0.015922524,-0.16623105,0.0060769273,-0.44398952,-0.11499035,0.060811907,-0.13878159,-0.10509082,0.109814234,-0.16987313,0.08530477,-0.08626751,0.09689281,0.005651118,-0.42750815,0.06506303,0.1234955,-0.354163,0.061593864,0.034323946,0.04586516,-0.26967877,0.04707806,0.08596044,0.13836814,-0.2980586,0.17175832,-0.071630836,-0.13450263,0.28321117,-0.07433894,0.03314037,-0.28369623,0.14201967,-0.09464747,-0.37549114,-0.283049,-0.23555438,0.22950563,-0.12654614,0.20377707,-0.32660675,0.13984078,0.021742588,-0.17227791,-0.028017756,-0.2817904,0.21683405,0.15896465,0.14442973,-0.11837494,-0.32901344,0.06036379,-0.10106541,-0.16547564,-0.3227578,0.16928244,0.018469235,-0.13918303,-0.35010928,-0.24561685,0.043907885,-0.04232383,-0.1440386,0.07415773,0.042784523,-0.28231895,0.10971492,-0.31617105,0.25864586,0.029315608,0.1665348
0.016368339,-0.2383474,0.23984298,-0.027101455,0.14155282,0.18241917,0.22428164,-0.17792323,0.20205957,0.19120286,0.11167639,0.19761872,-0.26550907,-0.030375047,-0.26561823,-0.17168672,-0.08511438,-0.094597116,-0.18676087,0.20896316,0.1346601,-0.2730715,-0.048924893,-0.16665618,0.12824555,0.121473186,-0.28840274,0.19436705,0.15419145,-0.32816938,0.0007390769,-0.3533317,-0.20354158,-0.048041888,0.0690541,0.1585578,0.079625994,0.109152004,-0.34579566,0.051752947,-0.057598848,-0.21174318,-0.057233587,0.20335999,-0.0069150296,-0.1473706,-0.27375528,0.035723142,0.03130767,0.09244551,-0.1528038,0.09669417,-0.22939329,0.11535297,0.03578451,-0.270892,0.11895992,0.18724291,-0.31910712,0.10731959,-0.37418953,-0.2722761,-0.30367488,-0.05792246,-0.36746585,0.16773587,-0.29290605,-0.09956207,0.14426361,-0.20888732,-0.092249356,0.14336307,0.14432196,-0.0054408032,0.073994406,0.12887646,0.18407802,0.10267044,0.15911415,-0.3427261,0.038289327,0.1458626,-0.07822866,0.19178048,0.16707355,0.2942899,-0.24662168,0.11498063,-0.23448646,0.19027483,0.15334567,0.16032597,-0.3944897,0.17634024,0.13998243,-0.19120286,-0.31902015,0.21727327,0.16203612,0.16777498,-0.13181691,0.048689276,0.05822361,0.18382472,-0.103094116,0.13851596,0.17731048,0.07280283,0.21154442,-0.31570488,-0.10717847,-0.23504767,0.032576032,-0.05780883,-0.16828194,0.10435205,0.1268287,-0.041249376,0.078921594,0.21321432,0.19812042,-0.27640614,0.13812637,0.09765557,-0.21663846,-0.1183545,-0.06933786,-0.016328946
