float saved_weights[1500] = {
                       -0.06669801,-0.13217519,0.05980541,-0.02428437,-0.06785928,0.076827034,0.060909305,0.109950505,0.020875057,-0.051298898,0.019290313,-0.09420027,-0.057983074,-0.08447708,-0.0012153274,-0.109428264,0.097336285,0.006785459,-0.0887573,0.08454129,0.0951787,0.12262415,0.0251911,0.0069505367,0.06810897,-0.061023585,-0.02535782,-0.019803721,-0.042201415,0.049813922,0.022291098,-0.11195748,-0.14142248,
                       -0.017630065,0.08133025,-0.12303379,-0.13093032,-0.10049741,0.09319282,0.03231048,-0.0142327575,-0.009739063,0.042595077,-0.11227437,0.017552732,-0.016102768,0.066758566,-0.044054855,-0.014792166,0.036005605,0.060463846,0.029302867,-0.06645664,0.06884609,0.04092767,-0.08982529,0.07895616,-0.035814207,-0.041974064,0.049480636,-0.050611977,0.08046272,0.024336196,0.020739645,0.034469042,
                       0.06636834,0.09131618,-0.05067469,0.0006387525,-0.107642055,0.07233087,0.050520003,-0.13575616,0.13720317,-0.00495243,-0.09314691,-0.01797209,-0.06466165,0.101267576,-0.12530851,-0.0272924,0.093906455,-0.08452394,-0.03292395,0.11999514,-0.045073017,0.032685593,0.05387957,-0.027461324,-0.031763703,0.006217803,0.044892047,0.02881838,0.1405513,-0.11530243,-0.10970711,0.12249785,
                       0.08405894,0.121652156,-0.020479428,-0.036664262,0.07449277,-0.019334983,0.11819351,0.031779993,-0.013128885,-0.0456455,0.0472024,0.088116504,-0.10830432,0.12780042,-0.061659034,0.069483496,0.06595224,-0.07787924,-0.12858276,-0.07750712,0.118042134,-0.08016229,0.028781103,-0.05693552,0.025739163,0.1201872,-0.014231018,-0.01601201,-0.14022331,-0.06256208,-0.08956355,-0.14219673,
                       -0.06589843,0.13583472,0.048517395,0.07669092,-0.102018684,-0.06286232,0.042184293,0.086533524,-0.09014089,-0.1365347,0.028828807,0.08959311,-0.07321459,-0.072753005,-0.035832137,0.08456428,0.04530816,0.12850522,0.058481444,0.10124791,-0.06749774,0.034059092,-0.012563435,0.06259073,0.033401974,-0.11072818,-0.0968814,0.069060065,0.07629815,0.10042476,0.09023353,-0.004229474,
                       0.14440814,0.07777824,0.07551565,-0.0466856,0.02588569,0.056160234,0.12422191,0.003933191,0.06458842,-0.011971699,0.08522427,-0.08798623,0.02068852,-0.07396389,-0.07253225,0.01892926,0.035037894,-0.11259577,-0.01867223,-0.13669895,-0.08314616,-0.068140276,0.049045574,-0.103520244,-0.105354965,0.013087913,0.075402424,-0.10635922,0.075036466,0.11312112,0.048939425,0.12267368,
                       -0.053948503,-0.013168617,-0.11728296,0.08082501,-0.09965313,-0.07831675,0.038262494,0.12537815,-0.10643493,-0.07977596,0.018735884,0.07398321,-0.09044201,0.09830273,0.004885095,0.090136096,0.13031724,-0.060482595,0.0025336994,0.13440613,-0.08550169,0.113089144,0.13082777,0.038005017,-0.012194489,0.11060951,-0.017358879,0.013504636,-0.03235752,-0.03436012,0.115919895,-0.07147942,
                       0.037933826,0.13592556,0.06528326,-0.1121743,-0.027652273,-0.077262335,0.006585288,-0.12718923,0.056967348,0.07480868,-0.020540461,0.039298974,0.04749185,-0.050442487,0.08626656,-0.1208122,0.11173805,0.14720567,0.047085978,0.071952395,0.017270843,0.118855774,0.08948187,0.095942676,0.022206355,-0.018585429,-0.022467067,-0.075374685,-0.09017356,-0.08688566,-0.04606778,-0.015104017,
                       0.11317149,0.04405941,0.07273049,0.054295808,-0.04621724,-0.057137776,0.056107327,0.028974185,-0.13868402,0.11725338,0.06728253,-0.042800155,-0.11066438,-0.08220129,-0.1229174,0.049256515,-0.036604296,-0.064707756,-0.017641572,-0.096297346,0.06539759,-0.045087736,-0.0017370464,0.086781405,0.12180866,-0.044525426,0.021041183,-0.12688191,-0.046308666,0.13703187,-0.02526713,0.101849526,
                       -0.03596357,0.037010316,-0.087763615,0.018287156,0.036350936,0.14937541,-0.09412483,-0.11491924,-0.10464447,0.06723886,-0.048367385,
                       0.04560464,-0.0077902516,0.14084038,-0.0053284615,-0.1124558,0.038513873,0.02349523,-0.08414742,-0.09787571,0.02004582,-0.10073413,-0.10453358,-0.09213762,-0.16083948,0.11768298,0.13415384,-0.07119233,0.0154140685,-0.083797276,-0.13629042,-0.067339405,-0.0035353003,-0.027146474,-0.044868104,0.08399377,-0.08552185,-0.12462842,0.095061205,-0.06896042,0.14126153,0.12110544,0.08215684,-0.11968959,
                       0.0006578122,-0.030986032,-0.13091767,0.021241102,-0.13293986,-0.11732636,-0.013084597,-0.06008849,-0.10296761,0.09480046,0.051975895,-0.088062584,0.09735644,0.13989446,0.1265648,0.010857739,0.045615252,-0.09262355,0.09207649,0.0106850155,0.10323094,-0.034538504,-0.0933376,-0.13033742,-0.09384365,-0.0071590273,0.06896834,0.05435112,-0.11982728,-0.10436123,-0.026359597,0.05558,
                       -0.06703807,-0.048377685,-0.096168846,-0.07969615,0.041083563,-0.062063683,0.13497181,-0.061307438,0.06531236,0.096813396,-0.10406463,-0.06021168,0.07402802,-0.12340808,-0.065098755,-0.019188127,-0.07750044,-0.12156265,0.11218011,0.10117429,0.040476687,0.054243468,-0.13390733,0.09117477,0.13139746,-0.014682113,0.12157964,0.025122365,0.017192345,-0.049621686,-0.043100473,-0.082665585,
                       0.13898255,0.035812706,0.06211099,-0.07087851,0.10615589,-0.082126215,0.034312896,-0.12360852,0.142639,0.10339568,-0.06311048,-0.014306829,-0.049119905,-0.01826181,-0.051481035,0.06600705,0.018421497,-0.07749303,-0.02341403,-0.08640261,-0.09120082,-0.018277615,-0.1282924,-0.06965063,0.09410665,-0.009682403,0.09696264,-0.013789352,-0.08670163,-0.0735063,-0.09190359,0.029964453,
                       0.124004744,0.0816565,-0.03797385,0.020926138,-0.12160826,-0.090312324,-0.11940369,-0.033199754,0.0016186632,-0.097859226,0.09761413,0.004863926,-0.09211233,0.017542973,0.06356946,-0.020246038,-0.0029169698,0.11613104,0.011782052,-0.05141876,-0.120427705,-0.094541796,0.14222787,-0.10382311,-0.03613313,0.059389547,0.0033483938,-0.016303742,0.013015054,0.07243792,0.1126108,0.047107827,
                       -0.021530088,0.1462798,0.13513167,0.07640515,0.037776127,-0.039978802,0.0712602,0.059795924,0.0030394143,-0.0955783,0.09087569,0.047628883,-0.08430969,0.014679221,-0.11948123,-0.059157223,0.13653308,0.06251515,-0.026120454,-0.08005779,-0.0718118,-0.011460371,-0.060017843,0.104506895,-0.06301901,0.04360505,-0.0025292053,0.09756889,-0.13011646,-0.0681373,0.084518604,-0.027139435,
                       -0.10835121,-0.13159044,0.11158294,0.0112478845,0.13042805,0.013354046,0.02421134,0.036245614,0.02908015,0.15535021,0.11192376,-0.05167464,-0.12584227,0.056072704,-0.07916317,0.05979178,0.0791107,0.08650934,-0.052225742,0.1362082,-0.073541164,0.03445926,0.024145253,0.05648893,0.02739917,0.107780874,0.13801964,-0.1067798,-0.0671279,0.12428488,-0.0556682,0.0028007887,
                       -0.11742077,-0.09370058,0.023664236,-0.09888562,0.04771708,0.1281718,-0.15627785,0.09317441,-0.042466912,0.063022934,0.017132832,0.08408966,0.113918945,-0.11955423,0.08654408,0.0017804491,-0.06916656,0.036074802,0.041934248,-0.06224672,0.033931397,0.014549514,0.047182575,0.14428715,0.022983616,-0.08234828,0.09243706,0.12756409,0.08707003,-0.116807014,0.014460331,-0.119198896,
                       -0.018616386,0.103158586,0.065540954,-0.100458436,-0.04438553,0.103879005,0.002372266,0.00258277,0.029339593,-0.09292369,-0.032365203,-0.062942155,0.030799,-0.10371491,-0.032236125,0.05180447,0.05307957,-0.009228057,0.09648634,0.01187296,0.054053698,-0.093719944,-0.023349755,-0.023052951,-0.10105436,-0.009786313,0.12261631,0.03671189,0.026569212,0.12777025,-0.014765606,0.014503183,
                       0.08317102,-0.023035716,0.01435537,-0.006422865,0.022849072,0.058765516,-0.05639947,0.043094452,0.12737696,0.101506196,-0.098949134,
                       0.106238134,-0.033700902,-0.102233715,0.13641058,-0.029757623,0.046295095,0.01885289,0.044241384,-0.10495227,-0.08082737,-0.10866867,0.07609647,-0.064801335,0.047483806,0.07940968,-0.01623041,-0.078501664,0.07177587,0.037682176,-0.0013663465,-0.022258332,-0.07590198,-0.116168335,-0.025696151,0.087905735,0.07287457,0.070617914,-0.002738821,-0.130252,-0.09875492,0.033762895,0.0008055802,0.063735254,
                       -0.08886125,-0.05114189,-0.052232247,-0.082391664,-0.12569557,0.0642279,0.008631486,0.0008789273,-0.10991091,0.0724372,0.007293582,-0.081583716,0.086122304,-0.07556148,0.027656686,-0.027121155,0.025972793,-0.04755661,0.120142706,-0.056064848,-0.065132365,-0.049425174,0.069320336,-0.10843643,0.096115135,0.04229851,0.09205885,-0.049910087,-0.10250258,-0.11809424,0.04858225,0.014336948,
                       -0.097319104,0.10000628,-0.10826218,0.01939553,0.13432689,0.10741312,0.040527638,-0.10699932,0.080025055,-0.11035164,-0.00019418693,-0.13163267,-0.006209081,-0.13049628,-0.09016382,-0.033145558,0.053272195,-0.13264206,-0.05338276,0.05907557,0.12428413,-0.0032114554,-0.12377097,0.08335937,-0.084253594,-0.013156839,0.051719036,0.12931173,0.11750156,0.12990214,-0.09217622,0.054346796,
                       -0.026603658,-0.002113836,0.031741377,0.09870397,0.07945299,0.0222614,0.11353657,-0.11963737,-0.12454176,0.12257094,-0.05764723,0.076103464,-0.044455465,-0.06168679,0.113304615,-0.014425164,0.004687827,0.09248564,-0.13587439,-0.1259848,-0.0017484678,-0.042029724,-0.11411317,-0.08270539,0.018699681,-0.01938008,-0.114961594,-0.010160719,0.113078244,-0.13212313,0.015548693,-0.087328404,
                       0.086449176,-0.10490067,-0.070283346,-0.038896523,-0.11958981,-0.08043994,0.1285887,0.028457751,-0.002637557,-0.118756,-0.027926268,-0.04937543,0.0460328,0.005061206,-0.08276561,-0.11698974,0.054058626,-0.024583109,-0.056794923,-0.04207212,0.08107373,0.12929423,0.0683458,-0.12268452,0.044410013,0.00047016144,0.07075671,0.026174072,-0.016179828,0.025647853,0.10482842,0.07962108,
                       -0.09951721,0.07756866,0.063619025,-0.09177368,-0.018997377,-0.019891748,0.038445015,0.067692384,-0.052165236,-0.042173572,0.064632,0.007827546,-0.100065365,-0.06193059,-0.11978649,-0.067334965,0.10368953,-0.07590254,-0.10401244,-0.06456132,-0.13492282,0.11881817,-0.12873846,0.053957183,-0.13763492,0.09001657,-0.07554524,-0.12959321,0.11854099,0.02768038,0.08977581,-0.11614867,
                       -0.012295298,0.026764592,-0.118163414,0.10016437,-0.087604575,0.06403866,-0.10297457,-0.010596156,-0.10909096,0.057382073,-0.08092059,-0.004782319,0.082146525,-0.09220276,-8.539746e-05,0.008479732,-0.020648934,0.03752173,0.1564276,0.12075035,-0.027284293,-0.023738362,-0.07013101,-0.08698437,-0.015175305,0.09447031,0.007568216,0.010530382,0.13247165,0.09986251,0.116592355,0.11947909,
                       0.0022721887,0.11518624,0.07697567,0.034465402,0.113245085,-0.1358736,-0.00036394747,0.06188995,-0.077101775,-0.058296423,0.050354213,-0.04241508,-0.12832732,-0.057219088,-0.12982437,-0.09651766,-0.07790269,0.07404885,0.09003767,-0.11490549,0.07658843,-0.09541274,-0.02518201,-0.03574917,-0.04838173,0.06990105,-0.04857448,0.04227954,-0.07200403,-0.047017094,-0.14328341,0.006817579,
                       -0.11163533,0.06894968,0.075642884,0.029703071,-0.13222249,-0.05683616,-0.09435386,-0.056261376,0.07216769,0.12747853,-0.062310074,-0.045134723,0.0019758884,-0.07092414,-0.1289351,0.12423864,-0.09996636,-0.1312012,-0.08673975,-0.015819544,-0.01775358,-0.08098218,-0.11194219,-0.07890548,0.06586514,-0.08810851,0.067614384,-0.027577579,0.021621287,0.016618757,-0.07938839,-0.02536343,
                       -0.13262329,-0.038922146,0.120759405,-0.031209804,-0.027024528,-0.024072904,0.0535739,0.012237932,0.09843139,0.098381974,-0.12574892,
                       -0.00046675533,-0.10694178,-0.08925164,0.03915505,0.09182414,-0.081976414,-0.11817569,0.089581996,0.11164193,-0.011748627,-0.14337301,0.05559062,0.027584419,-0.10986171,-0.11303016,-0.119458556,0.12939025,0.06724895,-0.05700394,-0.05733894,0.12841384,-0.004198553,-0.003881148,0.11847352,-0.12225835,0.07521389,0.088995986,-0.05907159,-0.05907127,-0.10522988,-0.04044065,-0.059131745,-0.050887857,
                       -0.09910824,-0.13049677,0.0061675473,-0.07979895,0.073965386,-0.13306175,-0.06009027,-0.033002317,-0.050440572,-0.0728236,-0.100545116,-0.042086985,0.022231825,-0.035776637,0.032673072,0.051336735,0.05800647,0.05750992,0.10180839,0.062181428,-0.00131302,0.0635976,0.00088417955,-0.031717278,-0.105935045,0.06087795,-0.121787935,0.07642984,-0.00048264323,0.11702723,-0.03567574,0.13039781,
                       -0.110113986,-0.0967764,0.043709133,0.02768238,0.015107286,-0.13086133,-0.09190186,-0.112735815,0.07076046,0.12038682,-0.054972388,-0.13350444,-0.032922868,0.022487134,0.13114536,-0.004256052,0.029193355,-0.06375006,0.11752662,-0.040368542,0.037666038,0.0726345,-0.09812346,-0.06082966,-0.07014362,0.04220354,-0.010139266,0.023219699,0.1135801,-0.07922409,0.061138194,-0.05500935,
                       0.097850084,-0.041566856,-0.08637106,-0.012268457,-0.046895072,-0.05078318,0.07127031,0.045263603,-0.06756319,-0.03325869,0.044175852,0.05542303,-0.06482484,0.12972525,0.12534343,-0.065671116,-0.15610833,-0.07262071,-0.016321981,-0.099074356,-0.083012,-0.056682758,0.033208307,-0.06280861,-0.016984437,0.12009451,0.118351586,-0.07689519,0.01126914,-0.06972958,0.0314846,0.07318215,
                       0.1387364,0.0068072886,0.093990386,-0.0150951315,0.04160862,-0.06669851,-0.095457315,-0.11878223,-0.09706608,-0.081445456,-0.07756802,0.012993655,-0.07193541,0.09728617,-0.08015297,0.10809352,0.10424968,-0.14186588,0.011408464,-0.07268215,0.12310903,0.028913982,-0.11710517,-0.027436385,0.07724942,0.034307525,0.02016664,0.06554653,0.07687012,0.008440168,-0.08386505,0.11683026,
                       0.07265119,-0.013579465,-0.10259104,0.07713169,0.06075228,-0.10305887,0.07460624,0.12156898,-0.119301744,-0.099529095,0.09360049,-0.115665376,-0.043861263,-0.06435824,0.004513655,0.05128015,0.08970095,0.015060447,0.07086024,-0.017539842,-0.101134665,0.043051478,-0.10476112,-0.010592743,0.03435103,-0.006701487,-0.07829035,0.012711167,-0.07570009,-0.0843876,0.10687532,0.053132687,
                       -0.024212146,-0.040889513,-0.04664748,-0.0822807,-0.09962883,0.045161203,-0.034781463,-0.13143516,0.13930188,-0.017125027,0.12340264,-0.11424036,-0.089459084,-0.12025002,0.059200272,-0.063038535,0.101928875,-0.07654177,0.045676075,-0.042649157,0.06255138,0.09862511,-0.09338532,0.031850364,0.091899015,-0.009250974,-0.094607614,0.0664552,-0.044043615,-0.009159066,0.08334282,0.13496637,
                       -0.12519237,-0.10402797,0.05310433,-0.109661974,0.093715675,-0.10810915,0.101443596,-0.06589377,-0.118610285,0.04407839,0.10726772,-0.081833884,0.036612358,-0.049613792,0.102569684,-0.11874504,-0.106266454,-0.06901155,0.038436256,0.05067927,-0.056003027,-0.097674884,-0.05924808,0.060967326,-0.08713149,-0.053864606,0.09813034,-0.022523422,0.023281263,0.006148285,-0.09155966,0.03166997,
                       -0.117377214,0.11984315,-0.05485044,0.11374466,0.054678664,0.010485399,-0.0018626017,0.032878503,0.0011331951,0.0225399,0.022381203,0.07375776,-0.121915184,-0.106367856,0.10195542,0.13831441,-0.05166631,-0.012483385,0.07099565,0.023167022,0.061794948,-0.08428739,0.027181447,-0.0060784267,0.037156507,0.07042914,0.092384,-0.08086548,0.0734635,-0.10171179,-0.070618704,-0.021447916,
                       -0.12902036,-0.12504837,-0.05267506,-0.10741329,0.11908642,-0.09984839,0.11465143,0.10060671,0.04039568,-0.08757436,0.10251839,
                       -0.05347623,0.12628785,-0.07293703,0.09394513,0.08838224,0.018817881,0.055200383,0.044992,0.06805968,-0.09667626,-0.123498164,-0.009065545,-0.07920831,0.026787732,0.10827718,-0.01704099,-0.06664873,-0.08554795,0.0940839,0.07345046,0.109482914,0.07295909,0.031717572,-0.08947638,-0.101459324,-0.021930804,-0.10897148,-0.09707139,-0.057615124,0.13052765,0.0599834,0.03292329,-0.07944378,
                       0.010426526,0.1104552,0.105573975,0.05916266,0.10996337,-0.11839846,-0.06616282,-0.020338127,-0.11146802,-0.06994714,-0.11026954,0.065278865,-0.045563996,0.05625552,0.08054405,-0.06434212,-0.049755335,-0.09674328,-0.061761227,0.11671154,-0.010639918,-0.1147891,0.062028345,0.06542937,0.043964338,-0.029485755,0.040888257,-0.042974353,0.03691533,0.053685892,0.10269279,0.074509524,
                       0.022985566,-0.014788179,-0.014844231,0.06483942,0.09155921,-0.08929216,-0.09812768,0.052121002,-0.06381089,0.060921934,0.016066572,-0.044817794,0.06118376,0.09920879,-0.042253483,-0.02391333,-0.108635455,0.09045548,-0.02308775,-0.09166977,-0.038281642,-0.07096818,-0.13319306,0.11068686,-0.06964406,-0.12028333,-0.06901103,0.05016784,0.052682962,0.12316068,-0.11635133,-0.08318893,
                       -0.10345558,0.09239958,0.033286154,-0.047744118,0.08251308,0.009172679,-0.06942867,0.0068270285,0.032678865,0.117813595,-0.07347583,-0.07290917,-0.123551324,0.016368376,-0.02823962,-0.080820926,0.0734458,-0.08121212,0.09450332,0.09772306,0.07788112,-0.113800645,-0.120331176,0.013568237,-0.1312269,0.094520465,0.020611076,0.09087835,-0.057160374,0.042535942,0.08153216,-0.06896876,
                       0.005903762,0.05449628,0.10967198,-0.0071974783,-0.0499433,0.12419382,-0.08407706,-0.013884619,0.025038188,-0.099794745,-0.07339964,-0.037950177,0.11135222,-0.054135963,0.106160976,0.10043205,0.11925743,-0.05810722,-0.11691114,0.09363512,0.10661117,-0.08010236,0.02214998,-0.11945107,0.021744618,0.08064522,-0.12903571,-0.08938711,-0.10656296,-0.005163787,0.13076308,0.08745179,
                       -0.017574375,-0.012510827,-0.10559415,-0.005560805,0.09025325,0.11523871,-0.07557592,-0.07017695,-0.06773345,0.049422003,-0.1012483,0.0063096522,0.102193035,-0.06347454,-0.047999248,-0.033692878,-0.09010927,-0.03205108,-0.0861646,0.020558367,-0.12821485,-0.08890589,-0.12537877,-0.0015178613,-0.039506946,-0.06816039,0.017331071,0.0050524757,-0.10219453,0.09181251,-0.021509122,0.018463299,
                       -0.07390678,-0.12045254,-0.0810618,-0.06990317,-0.033036064,-0.11874322,0.013794279,-0.09408354,-0.035348475,0.013205774,-0.099672996,0.11265389,0.08980695,-0.030794946,-0.08742039,0.00034460385,0.0035566299,-0.07460602,-0.16426232,0.017586155,0.013956569,-0.096311234,-0.019742198,0.09583967,0.019964535,-0.103453465,0.01533218,0.052382395,-0.12389819,-0.04858135,0.01632174,-0.108613595,
                       -0.05677467,-0.033988684,0.041020926,0.018308135,-0.13425946,0.020226803,-0.058563054,0.08756654,0.07863441,-0.058559388,-0.107047975,0.1195048,0.033783138,-0.0061706644,0.06586965,0.12354341,-0.009850706,0.04392102,-0.01540303,0.04068119,-0.14603367,-0.09769472,0.12861429,0.1119456,-0.08976215,0.023877105,0.1118088,-0.1278727,0.081396826,-0.08982309,0.08357127,-0.07089013,
                       0.09105792,0.119164154,-0.032060895,-0.0752345,0.07968797,0.004709582,0.11711038,0.116775244,-0.11345111,0.12577611,0.10811333,0.07615102,-0.103925325,0.010644189,0.067494124,0.020297756,-0.10558964,0.036370646,-0.019554893,-0.09095621,0.06690381,-0.115877494,-0.039059438,0.009899897,-0.1166126,0.10500138,0.1400437,-0.021652699,-0.04500358,0.09867007,-0.003856051,0.09563975,
                       0.055786066,-0.023100369,0.030969271,-0.0280417,-0.10267531,0.075351685,0.11046775,0.053895727,-0.05234628,0.0448662,0.1265488,}; 



float saved_biases[5] = {-0.002799161,0.0028716887,0.004686441,-0.00012587676,-0.0016889593};