float saved_weights[640] = {
                       0.06919802,-0.09874436,-0.122220516,0.16430941,0.1695531,0.014428119,0.12856175,0.14080845,0.087397255,-0.16916059,-0.18294556,-0.20037231,-0.116800964,-0.18988967,-0.041791674,-0.18722919,-0.063757986,0.15847927,-0.06845387,-0.18418209,-0.19170302,0.039572265,-0.10145072,-0.108722635,0.15129854,-0.19697522,-0.022514386,0.12651347,-0.14690873,-0.14779583,0.16383895,0.16093922,0.116672024,
                       -0.10096265,0.1344364,0.09282414,-0.1491979,0.10709175,-0.108622216,0.18668807,0.12966122,0.16225827,0.19109337,-0.17324537,0.013742685,0.058981884,0.02944888,-0.19436242,-0.14762826,0.012778178,-0.030313568,-0.1306454,-0.083684064,0.12182847,-0.053912003,0.16824019,-0.034809347,-0.13052563,-0.16778055,0.11650282,0.09112964,-0.1922786,0.03896057,-0.107216164,-0.10843652,
                       -0.08211817,-0.13224462,-0.09414042,-0.20635158,0.090681836,0.118316926,0.09702432,-0.10674425,-0.008733349,0.07983928,0.1515292,0.10954089,0.012308615,-0.19287537,-0.07459353,-0.040486857,-0.1355012,-0.037795942,0.042971738,-0.08027407,0.13653612,-0.15380608,-0.11704914,-0.06932701,-0.11512917,0.17347547,0.1517807,-0.0036796094,-0.036530457,-0.15516482,0.14578415,-0.004482793,
                       0.034059778,-0.0719037,0.11993221,0.19976218,0.14317772,0.14775738,0.028341591,-0.1629136,-0.21795504,-0.05742449,-0.19355968,0.05536568,0.06466773,-0.0913796,0.087785564,-0.026164237,-0.03869028,0.016911002,-0.0865311,0.17278308,-0.19894429,-0.18474568,0.016150968,-0.04490475,-0.061351903,0.09016879,0.10753656,0.1378263,-0.13568631,-0.038999084,0.014223689,
                       0.19652206,0.04327404,0.07655276,-0.14392315,0.2081993,-0.18753926,-0.18645458,-0.14102878,-0.10827875,-0.0069089886,-0.054760996,0.07697392,-0.13288705,0.15227808,0.19330299,-0.10830992,-0.045116097,0.16552642,0.20436794,-0.006232681,-0.15827657,-0.19749367,-0.2018892,0.024727046,-0.03136786,-0.1512153,0.15845126,0.1406182,-0.15584207,-0.08072758,-0.13183606,-0.07722755,0.20036645,
                       0.10017643,-0.0016128436,-0.004217392,0.10506022,-0.20075972,-0.0868861,-0.011923362,-0.09948337,-0.0064615365,-0.1600801,0.0771333,-0.15800044,-0.03598824,0.028368825,0.02140722,-0.027758656,-0.040154114,-0.11793021,-0.013579516,0.16331258,0.07016932,-0.12713526,0.15610415,0.05052464,0.028866233,-0.056989655,-0.04294716,0.036783155,0.045988116,-0.09174026,0.098861195,0.20198847,
                       0.010047059,-0.009745818,-0.14594926,0.16985355,0.060686573,0.09761771,0.19144574,-0.009802516,-0.11510488,-0.09559677,0.11519426,-0.1443079,-0.12159586,-0.10998858,-0.00561319,-0.074838914,0.09366048,0.04376333,-0.12678969,-0.054826103,-0.14987141,0.16683294,0.16874464,-0.17161857,-0.1356088,-0.13302198,0.01024557,0.18290716,0.12977244,0.1274075,-0.058817558,0.07601213,
                       -0.04367396,0.07954471,0.2038563,0.110271454,0.101367384,-0.13330306,0.10073787,0.0026652643,0.13033968,-0.20949647,0.115874656,-0.009796303,0.008286456,-0.16253513,0.06659626,0.112122834,0.19431086,-0.16605191,-0.03849711,0.115185745,0.16711412,0.10476892,-0.18828554,0.038911805,0.12676229,-0.10564642,0.18472078,-0.20633192,-0.16560124,0.005500194,0.20339368,
                       -0.1869846,0.027827794,0.05551386,0.12346271,-0.11891808,0.1689435,-0.19756189,0.11445613,-0.14258444,-0.19348478,0.044235863,0.10657883,0.040394902,0.049899317,-0.080825165,0.10862879,-0.022514343,-0.029441789,0.14396654,0.20214456,-0.11699971,-0.12743135,-0.08979183,-0.00034508173,0.20617217,0.20694944,-0.12021779,0.058074128,0.009019657,-0.19432686,-0.15282653,0.100720786,-2.9592833e-05,
                       -0.027997233,0.16173011,0.027965376,0.030129464,-0.070587724,-0.16493724,-0.009339414,-0.102836266,-0.11244012,0.14481065,0.037451327,0.029140312,-0.13864371,0.002748802,-0.08689698,0.21028244,0.18741532,0.043707557,0.01727413,-0.074595794,-0.18636604,-0.17031205,-0.008774534,-0.041716326,0.16266003,-0.13590872,-0.015731087,0.09235949,0.16211599,0.14502372,-0.01805948,-0.0800555,
                       0.1898005,0.0872389,-0.20683913,0.13537554,0.19886926,0.07786524,-0.11185143,-0.035958312,-0.12432417,-0.15317824,0.035161514,-0.18422818,-0.16069603,0.13072021,0.04818382,-0.030036256,-0.116039045,-0.10598734,-0.10532237,0.14076445,0.1370654,-0.114185795,0.020085745,-0.14860456,-0.12113645,-0.18796796,0.20580819,-0.08880295,-0.11152043,0.012781642,-0.020167954,-0.14953773,
                       -0.040365648,0.15868674,-0.03094669,0.09165218,-0.01005464,-0.040516514,0.1057632,-0.16330287,-0.17417248,-0.114105,-0.0038795325,-0.19580968,0.06455376,0.099660985,-0.07750949,-0.17459904,-0.07438062,-0.040541865,-0.12631866,0.17664607,-0.028549638,0.061605226,0.16560753,0.048324138,-0.1409868,0.113188826,0.06852594,-0.034384806,0.12603326,0.0033153426,-0.13939676,
                       0.08882256,-0.09959004,-0.063406765,0.03220835,0.05709417,-0.07594059,-0.14806025,0.15349343,-0.09199606,-0.1670748,0.07768755,-0.0062348167,0.01925007,-0.04338041,0.21175006,-0.025446363,0.057079975,0.1358529,0.19924559,0.09262949,0.2009095,-0.19281375,-0.1596759,0.04606123,-0.14812541,0.12565467,-0.15592563,-0.014030983,0.049551703,0.059987802,-0.19093378,0.12874128,0.07783924,
                       -0.2032417,0.1238726,-0.12825352,-0.15771489,0.016216053,-0.17331786,-0.21469782,-0.038831756,-0.020356802,0.11179751,0.09493445,-0.11675373,-0.10777995,0.09672372,0.101574466,-0.1916919,-0.18472049,-0.042007137,-0.10168693,0.18260138,0.13765211,0.13339594,0.17588004,0.15317927,-0.1905922,-0.14036494,-0.10679675,-0.012993556,-0.04971689,-0.07332963,0.12503587,0.11972055,
                       0.1065913,0.20365182,0.17972907,0.101131484,-0.0673604,0.06648897,0.15670508,0.07913702,0.16310665,-0.08124603,0.07383484,0.044430815,0.121265836,0.20723657,-0.15590435,0.10633758,0.1825746,0.13980517,0.08665632,-0.14587572,0.15468025,-0.17516577,-0.15916318,0.0040694126,-0.18849841,0.05314678,0.10841691,0.046005446,-0.05830909,-0.17684853,0.025290655,0.13720629,
                       0.12987313,0.05617937,-0.059001554,0.16296698,0.071802795,0.057581533,0.11123815,0.00074366515,-0.17212209,0.07013027,-0.107520655,-0.18270881,0.07391728,-0.19630852,-0.10903972,-0.16466776,-0.07197013,0.12990044,-0.18420523,-0.045554064,0.002831732,0.027380709,-0.16595432,0.13906772,-0.118065186,0.049977694,0.11742802,-0.21784352,-0.14011824,0.065267414,-0.20571999,
                       -0.073940866,0.1478761,0.19883788,0.038408443,-0.18772864,0.11914592,-0.047552124,0.09978462,0.13329057,0.16492794,0.07698248,-0.090688944,-0.08906107,0.006634489,0.15936269,-0.18713109,-0.08276647,-0.10498102,0.11270551,-0.096258946,0.10741025,-0.15762831,-0.0495936,-0.16808258,0.19273712,-0.19259648,0.17988661,0.20190346,0.120768115,0.0987832,-0.20953141,0.036382023,-0.01210636,
                       0.13044511,0.17203876,-0.09834879,0.08750767,0.11950197,-0.11809601,-0.047337495,-0.04468896,0.04299778,0.16302565,-0.0026255273,0.0040062703,0.0075268447,0.15965259,0.1011444,-0.043943867,0.16739923,0.009435407,-0.15099138,-0.02088129,-0.007804711,0.19318394,0.12715128,-0.051011946,0.02175437,0.020114183,0.20531316,-0.09941832,-0.17508796,0.15175691,0.15513916,-0.08946218,
                       0.00015961591,0.012028747,0.050216705,-0.0070426594,-0.19670582,-0.08258911,0.2065071,-0.048948895,-0.045081742,-0.09834144,-0.04509308,0.19940728,-0.120941184,-0.02246611,-0.050529163,-0.12924944,-0.12046541,-0.0056395507,-0.14031059,-0.04248087,0.005474578,-0.0844027,-0.15788668,0.11820481,0.15088306,0.06725728,0.11602211,-0.110380545,0.03801297,0.14935769,0.12944396,0.1901917,
                       -0.007716083,0.17093046,-0.18540008,-0.07662541,-0.20366485,-0.16720259,-0.043794155,-0.05047889,0.024036761,0.050669502,-0.015928425,0.15565531,0.098892644,-0.11341145,0.054655828,0.08496217,0.11713753,0.031937554,-0.028108764,0.04643987,0.088970535,-0.07112063,-0.009850103,0.15480267,0.16243318,0.17487141,0.146004,0.028667724,-0.08706642,-0.09026847,0.12863182};



float saved_biases[5] = {0.0035086444,0.0029367385,0.00058737403,-0.0007312397,-0.0010111242};
