0.0,-0.004028684,0.002195152,0.00482084,0.000443152,-0.002668607,5e-05,0.0,0.0
1.0,-0.004028684,0.002195152,0.00482084,0.000443152,-0.002668607,5e-05,0.0,0.0
2.0,-0.004078684,0.002195152,0.00482084,0.000443152,-0.002668607,5e-05,5e-05,0.0
3.0,-0.004078684,0.002195152,0.00477084,0.000443152,-0.002668607,0.0001,5e-05,0.0
4.0,-0.004078684,0.002195152,0.00477084,0.000443152,-0.002668607,0.0001,5e-05,0.0
5.0,-0.004078684,0.002145152,0.00477084,0.000443152,-0.002668607,0.00015,5e-05,0.0
6.0,-0.004078684,0.002145152,0.00477084,0.000443152,-0.002668607,9.9999e-05,0.0001,0.0
7.0,-0.004078684,0.002145152,0.00477084,0.000443152,-0.002668607,9.9999e-05,0.0001,0.0
8.0,-0.004078684,0.002145152,0.00477084,0.000443152,-0.002668607,9.9999e-05,5e-05,5e-05
9.0,-0.004078684,0.002145152,0.00477084,0.000443152,-0.002668607,9.9999e-05,4.9999e-05,5e-05
10.0,-0.004078684,0.002145152,0.00477084,0.000443152,-0.002668607,9.9999e-05,4.9999e-05,5e-05
11.0,-0.004078684,0.002145152,0.00477084,0.000443152,-0.002668607,9.9999e-05,4.9999e-05,5e-05
12.0,-0.004078684,0.002145152,0.00477084,0.000443152,-0.002668607,9.9999e-05,4.9999e-05,5e-05
13.0,-0.004028684,0.002145152,0.00477084,0.000443152,-0.002668607,9.9999e-05,4.9999e-05,0.0
14.0,-0.004028684,0.002195152,0.00472084,0.000443152,-0.002668607,9.9999e-05,4.9999e-05,0.0
15.0,-0.004078684,0.002195152,0.00472084,0.000443152,-0.002668607,9.9999e-05,9.9999e-05,0.0
16.0,-0.004078684,0.002195152,0.00472084,0.000443152,-0.002668607,9.9999e-05,9.9999e-05,0.0
17.0,-0.004078684,0.002195152,0.00472084,0.000443152,-0.002668607,9.9999e-05,4.9999e-05,5e-05
18.0,-0.004078684,0.002195152,0.00477084,0.000443152,-0.002668607,4.9999e-05,4.9999e-05,5e-05
19.0,-0.004078684,0.002195152,0.00482084,0.000443152,-0.002668607,4.9999e-05,4.9999e-05,0.0
20.0,-0.004078684,0.002195152,0.00482084,0.000443152,-0.002668607,4.9999e-05,4.9999e-05,0.0
21.0,-0.004078684,0.002195152,0.00477084,0.000443152,-0.002618607,4.9999e-05,4.9999e-05,0.0
22.0,-0.004078684,0.002145152,0.00477084,0.000443152,-0.002618607,9.9999e-05,4.9999e-05,0.0
23.0,-0.004078684,0.002145152,0.00477084,0.000493152,-0.002668607,9.9999e-05,4.9999e-05,0.0
24.0,-0.004028684,0.002145152,0.00477084,0.000493152,-0.002668607,4.9999e-05,4.9999e-05,0.0
25.0,-0.004028684,0.002145152,0.00477084,0.000493152,-0.002668607,4.9999e-05,4.9999e-05,0.0
26.0,-0.004028684,0.002145152,0.00477084,0.000493152,-0.002668607,4.9999e-05,4.9999e-05,0.0
27.0,-0.004028684,0.002145152,0.00477084,0.000493152,-0.002668607,4.9999e-05,4.9999e-05,0.0
28.0,-0.004028684,0.002145152,0.00477084,0.000493152,-0.002668607,9.9999e-05,4.9999e-05,-5e-05
29.0,-0.004028684,0.002145152,0.00477084,0.000493152,-0.002668607,9.9999e-05,4.9999e-05,-5e-05
30.0,-0.004028684,0.002145152,0.00482084,0.000493152,-0.002668607,4.9999e-05,4.9999e-05,-5e-05
31.0,-0.004028684,0.002145152,0.00482084,0.000493152,-0.002668607,4.9999e-05,4.9999e-05,-5e-05
32.0,-0.004028684,0.002195152,0.00482084,0.000493152,-0.002668607,0.0,4.9999e-05,-5e-05
33.0,-0.004028684,0.002195152,0.00482084,0.000493152,-0.002668607,0.0,4.9999e-05,-5e-05
34.0,-0.004028684,0.002195152,0.00482084,0.000493152,-0.002668607,0.0,4.9999e-05,-5e-05
35.0,-0.004028684,0.002195152,0.00482084,0.000493152,-0.002668607,0.0,4.9999e-05,-5e-05
36.0,-0.004028684,0.002195152,0.00482084,0.000493152,-0.002668607,0.0,0.0,0.0
37.0,-0.004078679,0.002195152,0.00482084,0.000493152,-0.002668607,4.9995e-05,0.0,0.0
38.0,-0.004078679,0.002195152,0.00482084,0.000493152,-0.002668607,4.9995e-05,0.0,0.0
39.0,-0.004078679,0.002195152,0.00482084,0.000493152,-0.002668607,-4e-09,0.0,4.9999e-05
40.0,-0.004078679,0.002195152,0.00482084,0.000493152,-0.002668607,-4e-09,0.0,4.9999e-05
41.0,-0.004078679,0.002195152,0.00482084,0.000493152,-0.002668607,-4e-09,0.0,4.9999e-05
42.0,-0.004078679,0.002245152,0.00482084,0.000493152,-0.002668607,-4e-09,0.0,0.0
43.0,-0.004078679,0.002245152,0.00482084,0.000493152,-0.002668607,4.9995e-05,0.0,-5e-05
44.0,-0.004078679,0.002245152,0.00482084,0.000493152,-0.002668607,4.9995e-05,0.0,-5e-05
45.0,-0.004078679,0.002245152,0.00482084,0.000493152,-0.002668607,-4e-09,0.0,0.0
46.0,-0.004078679,0.002195152,0.00482084,0.000493152,-0.002668607,-4e-09,4.9999e-05,0.0
47.0,-0.004078679,0.002195152,0.00482084,0.000493152,-0.002668607,-4e-09,4.9999e-05,0.0
48.0,-0.004078679,0.002245152,0.00482084,0.000493152,-0.002668607,-4e-09,0.0,0.0
49.0,-0.004078679,0.002245152,0.00482084,0.000493152,-0.002668607,4.9995e-05,0.0,-5e-05
50.0,-0.004078679,0.002245152,0.00482084,0.000493152,-0.002668607,4.9995e-05,0.0,-5e-05
51.0,-0.004078679,0.002245152,0.00482084,0.000493152,-0.002668607,-4e-09,4.9999e-05,-5e-05
52.0,-0.004078679,0.002245152,0.00482084,0.000493152,-0.002668607,4.9832e-05,1.62e-07,-5e-05
53.0,-0.004078679,0.002245152,0.00482084,0.000493152,-0.002668607,4.9832e-05,1.62e-07,-5e-05
54.0,-0.004078679,0.002245152,0.00482084,0.000493152,-0.002668607,4.9832e-05,1.62e-07,-5e-05
55.0,-0.004078679,0.002245152,0.00482084,0.000493152,-0.002668607,-1.67e-07,1.62e-07,0.0
56.0,-0.004078679,0.002245152,0.00482084,0.000493152,-0.002668607,-1.67e-07,1.62e-07,0.0
57.0,-0.004078679,0.002245152,0.00482084,0.000493152,-0.002668607,-1.67e-07,5.0162e-05,-5e-05
58.0,-0.004128679,0.002245152,0.00482084,0.000493152,-0.002668607,-1.67e-07,0.000100162,-5e-05
59.0,-0.004128679,0.002245152,0.00482084,0.000493152,-0.002668607,-1.67e-07,0.000100162,-5e-05
60.0,-0.004128679,0.002245152,0.00482084,0.000493152,-0.002668607,-1.67e-07,0.000100162,-5e-05
61.0,-0.004128679,0.002245152,0.00482084,0.000543152,-0.002718607,-1.67e-07,0.000100162,-5e-05
62.0,-0.004128679,0.002245152,0.00482084,0.000543152,-0.002718607,-1.67e-07,5.0162e-05,0.0
63.0,-0.004128679,0.002245152,0.00482084,0.000543152,-0.002718607,-5.0167e-05,5.0162e-05,4.9999e-05
64.0,-0.004128679,0.002245152,0.00482084,0.000543152,-0.002718607,-5.0167e-05,5.0162e-05,4.9999e-05
65.0,-0.004128679,0.002245152,0.00482084,0.000543152,-0.002718607,-5.0167e-05,5.0162e-05,4.9999e-05
66.0,-0.004128679,0.002245152,0.00482084,0.000543152,-0.002718607,-5.0167e-05,5.0162e-05,4.9999e-05
67.0,-0.004128679,0.002245152,0.00482084,0.000493152,-0.002668607,-5.0167e-05,5.0162e-05,4.9999e-05
68.0,-0.004128679,0.002245152,0.00482084,0.000493152,-0.002668607,-5.0167e-05,5.0162e-05,4.9999e-05
69.0,-0.004128679,0.002245152,0.00482084,0.000493152,-0.002668607,-1.67e-07,5.0162e-05,0.0
70.0,-0.004128679,0.002245152,0.00482084,0.000493152,-0.002668607,-1.67e-07,5.0162e-05,0.0
71.0,-0.004128679,0.002245152,0.00482084,0.000493152,-0.002668607,-1.67e-07,5.0162e-05,0.0
72.0,-0.004128679,0.002245152,0.00482084,0.000493152,-0.002668607,-1.67e-07,5.0162e-05,0.0
73.0,-0.004078679,0.002245152,0.00482084,0.000443152,-0.002668607,-1.67e-07,5.0162e-05,0.0
74.0,-0.004078679,0.002245152,0.00482084,0.000443152,-0.002668607,-1.67e-07,5.0162e-05,0.0
75.0,-0.004078679,0.002245152,0.00482084,0.000443152,-0.002668607,-1.67e-07,5.0162e-05,0.0
76.0,-0.004028679,0.002245152,0.00482084,0.000443152,-0.002668607,-5.0167e-05,5.0162e-05,0.0
77.0,-0.004028679,0.002245152,0.00482084,0.000443152,-0.002668607,-5.0167e-05,1.62e-07,4.9999e-05
78.0,-0.004028679,0.002195206,0.00482084,0.000443152,-0.002668607,-1.67e-07,1.62e-07,4.9947e-05
79.0,-0.004028679,0.002195206,0.00482084,0.000443152,-0.002668607,-1.67e-07,1.62e-07,4.9947e-05
80.0,-0.004028679,0.002195206,0.00482084,0.000443152,-0.002668607,-5.0167e-05,1.62e-07,9.9947e-05
81.0,-0.004028679,0.002195206,0.00482084,0.000443152,-0.002668607,-5.0167e-05,1.62e-07,9.9947e-05
82.0,-0.004028679,0.002195206,0.00482084,0.000443152,-0.002668607,-5.0167e-05,1.62e-07,9.9947e-05
83.0,-0.004028679,0.002195206,0.00482084,0.000443152,-0.002668607,-5.0167e-05,1.62e-07,9.9947e-05
84.0,-0.004028679,0.002195206,0.00482084,0.000443152,-0.002668607,-5.0167e-05,1.62e-07,9.9947e-05
85.0,-0.004028679,0.002195206,0.00487084,0.000443152,-0.002668607,-5.0167e-05,1.62e-07,4.9947e-05
86.0,-0.004028679,0.002195206,0.00487084,0.000443152,-0.002668607,-1.67e-07,1.62e-07,-5.2e-08
87.0,-0.004028679,0.002195206,0.00487084,0.000443152,-0.002668607,-1.67e-07,1.62e-07,-5.2e-08
88.0,-0.004028679,0.002195206,0.00482084,0.000443152,-0.002618607,-1.67e-07,1.62e-07,-5.2e-08
89.0,-0.004028679,0.002195206,0.00477084,0.000493152,-0.002618607,-1.67e-07,1.62e-07,-5.2e-08
90.0,-0.004028679,0.002195206,0.00477084,0.000493152,-0.002618607,-5.0167e-05,1.62e-07,4.9947e-05
91.0,-0.004028679,0.002195206,0.00477084,0.000493152,-0.002618607,-5.0167e-05,1.62e-07,4.9947e-05
92.0,-0.004028679,0.002195206,0.00477084,0.000493152,-0.002618607,-5.0167e-05,1.62e-07,4.9947e-05
93.0,-0.004028679,0.002195206,0.00477084,0.000493152,-0.002618607,-5.0167e-05,1.62e-07,4.9947e-05
94.0,-0.004028679,0.002195206,0.00477084,0.000493152,-0.002618607,-5.0167e-05,1.62e-07,4.9947e-05
95.0,-0.004028679,0.002195206,0.00477084,0.000493152,-0.002618607,-5.0167e-05,1.62e-07,4.9947e-05
96.0,-0.004028679,0.002195206,0.00477084,0.000493152,-0.002618607,-5.0167e-05,1.62e-07,4.9947e-05
97.0,-0.004028679,0.002195206,0.00477084,0.000493152,-0.002618607,-5.0167e-05,1.62e-07,4.9947e-05
98.0,-0.004028679,0.002195206,0.00477084,0.000493152,-0.002618607,-5.0167e-05,5.0162e-05,-5.2e-08
99.0,-0.004028679,0.002195206,0.00477084,0.000493152,-0.002618607,-5.0167e-05,5.0162e-05,-5.2e-08
100.0,-0.003978679,0.002145206,0.00477084,0.000493152,-0.002618607,-5.0167e-05,5.0162e-05,-5.2e-08
101.0,-0.003978679,0.002145206,0.00477084,0.000493152,-0.002568607,-5.0167e-05,1.62e-07,-5.2e-08
102.0,-0.004028679,0.002145206,0.00477084,0.000493152,-0.002568607,-1.67e-07,1.62e-07,-5.2e-08
103.0,-0.004028679,0.002145206,0.00472084,0.000493152,-0.002568607,-1.67e-07,1.62e-07,4.9947e-05
104.0,-0.004028679,0.002145206,0.00472084,0.000493152,-0.002568607,-1.67e-07,1.62e-07,4.9947e-05
105.0,-0.004028679,0.002145206,0.00477084,0.000493152,-0.002618607,-1.67e-07,1.62e-07,4.9947e-05
106.0,-0.004028679,0.002145206,0.00477084,0.000493152,-0.002618607,-5.0167e-05,1.62e-07,9.9947e-05
107.0,-0.004028679,0.002195206,0.00477084,0.000493152,-0.002618607,-5.0167e-05,1.62e-07,4.9947e-05
108.0,-0.003978679,0.002195206,0.00477084,0.000493152,-0.002618607,-5.0167e-05,-4.9837e-05,4.9947e-05
109.0,-0.003978679,0.002195206,0.00477084,0.000493152,-0.002618607,-1.67e-07,-4.9837e-05,-5.2e-08
110.0,-0.003978679,0.002195206,0.00477084,0.000493152,-0.002618607,-1.67e-07,-4.9837e-05,-5.2e-08
111.0,-0.004028679,0.002195206,0.00477084,0.000493152,-0.002618607,-1.67e-07,1.62e-07,-5.2e-08
112.0,-0.004028679,0.002195206,0.00477084,0.000493152,-0.002618607,-1.67e-07,1.62e-07,-5.2e-08
113.0,-0.004028679,0.002195206,0.00477084,0.000493152,-0.002618607,-1.67e-07,1.62e-07,-5.2e-08
114.0,-0.004028679,0.002195206,0.00477084,0.000493152,-0.002618607,-1.67e-07,1.62e-07,-5.2e-08
115.0,-0.004028679,0.002195206,0.00477084,0.000493152,-0.002618607,-5.0167e-05,1.62e-07,4.9947e-05
116.0,-0.004028679,0.002195206,0.00482084,0.000493152,-0.002618607,-5.0167e-05,1.62e-07,-5.2e-08
117.0,-0.004028679,0.002195206,0.00482084,0.000493152,-0.002618607,-5.0167e-05,1.62e-07,-5.2e-08
118.0,-0.004028679,0.002195206,0.00482084,0.000493152,-0.002618607,-5.0167e-05,1.62e-07,-5.2e-08
119.0,-0.004028679,0.002195206,0.00482084,0.000493152,-0.002618607,-5.0167e-05,1.62e-07,-5.2e-08
120.0,-0.004028679,0.002195206,0.00482084,0.000493152,-0.002618607,-5.0167e-05,1.62e-07,-5.2e-08
121.0,-0.003978679,0.002195206,0.00482084,0.000493152,-0.002618607,-5.0167e-05,-4.9837e-05,-5.2e-08
122.0,-0.003978679,0.002195206,0.00482084,0.000493152,-0.002618607,-5.0167e-05,-4.9837e-05,-5.2e-08
123.0,-0.003978679,0.002195206,0.00482084,0.000493152,-0.002618607,-5.0167e-05,-4.9837e-05,-5.2e-08
124.0,-0.003978679,0.002195206,0.00482084,0.000493152,-0.002618607,-1.67e-07,-4.9837e-05,-5.0052e-05
125.0,-0.003978679,0.002195206,0.00482084,0.000493152,-0.002618607,-1.67e-07,-4.9837e-05,-5.0052e-05
126.0,-0.003978679,0.002245206,0.00477084,0.000493152,-0.002618607,-1.67e-07,-4.9837e-05,-5.0052e-05
127.0,-0.003978679,0.002245206,0.00477084,0.000493152,-0.002618607,-5.0167e-05,-4.9837e-05,-5.2e-08
128.0,-0.003978679,0.002245206,0.00477084,0.000493152,-0.002618607,-5.0167e-05,-4.9837e-05,-5.2e-08
129.0,-0.003978679,0.002245206,0.00477084,0.000493152,-0.002618607,-0.000100167,1.62e-07,-5.2e-08
130.0,-0.003978679,0.002245206,0.00477084,0.000493152,-0.002618607,-0.000100167,1.62e-07,-5.2e-08
131.0,-0.003978679,0.002245206,0.00477084,0.000493152,-0.002618607,-0.000100167,1.62e-07,-5.2e-08
132.0,-0.003978679,0.002245206,0.00477084,0.000493152,-0.002618607,-5.0167e-05,1.62e-07,-5.0052e-05
133.0,-0.003978679,0.002245206,0.00477084,0.000493152,-0.002618607,-5.0167e-05,1.62e-07,-5.0052e-05
134.0,-0.003978679,0.002245206,0.00477084,0.000493152,-0.002618607,-5.0167e-05,1.62e-07,-5.0052e-05
135.0,-0.003928679,0.002245206,0.00477084,0.000493152,-0.002618607,-5.0167e-05,-4.9837e-05,-5.0052e-05
136.0,-0.003978679,0.002245206,0.00477084,0.000493152,-0.002618607,-5.0167e-05,1.62e-07,-5.0052e-05
137.0,-0.003978679,0.002245206,0.00477084,0.000493152,-0.002618607,-5.0167e-05,1.62e-07,-5.0052e-05
138.0,-0.003978679,0.002245206,0.00477084,0.000493152,-0.002618607,-0.000100167,1.62e-07,-5.2e-08
139.0,-0.003978679,0.002245206,0.00477084,0.000493152,-0.002618607,-0.000100167,1.62e-07,-5.2e-08
140.0,-0.003978679,0.002245206,0.00477084,0.000493152,-0.002618607,-0.000100167,-4.9837e-05,4.9947e-05
141.0,-0.003978679,0.002245206,0.00477084,0.000493152,-0.002618607,-5.0167e-05,-4.9837e-05,-5.2e-08
142.0,-0.003978679,0.002245206,0.00477084,0.000493152,-0.002618607,-5.0167e-05,-4.9837e-05,-5.2e-08
143.0,-0.003978679,0.002245206,0.00477084,0.000493152,-0.002618607,-5.0167e-05,-4.9837e-05,-5.2e-08
144.0,-0.003978679,0.002245206,0.00477084,0.000493152,-0.002618607,-0.000100167,-4.9837e-05,4.9947e-05
145.0,-0.003978679,0.002245206,0.00477084,0.000493152,-0.002618607,-0.000100167,-4.9837e-05,4.9947e-05
146.0,-0.004028679,0.002245206,0.00477084,0.000493152,-0.002618607,-0.000100167,1.62e-07,4.9947e-05
147.0,-0.004028679,0.002195206,0.00477084,0.000493152,-0.002618607,-5.0167e-05,1.62e-07,4.9947e-05
148.0,-0.004028679,0.002195206,0.00477084,0.000493152,-0.002618607,-5.0167e-05,1.62e-07,4.9947e-05
149.0,-0.004028679,0.002195206,0.00477084,0.000493152,-0.002618607,-0.000100167,1.62e-07,9.9947e-05
150.0,-0.004028679,0.002195206,0.00477084,0.000493152,-0.002618607,-0.000100167,1.62e-07,9.9947e-05
151.0,-0.004028679,0.002195206,0.00477084,0.000493152,-0.002618607,-0.000100167,1.62e-07,9.9947e-05
152.0,-0.004028679,0.002195206,0.00477084,0.000493152,-0.002618607,-5.0167e-05,1.62e-07,4.9947e-05
153.0,-0.004028679,0.002195206,0.00477084,0.000493152,-0.002618607,-5.0167e-05,1.62e-07,4.9947e-05
154.0,-0.004028679,0.002195206,0.00477084,0.000493152,-0.002618607,-5.0167e-05,1.62e-07,4.9947e-05
155.0,-0.004028679,0.002195206,0.00477084,0.000493152,-0.002618607,-5.0167e-05,1.62e-07,4.9947e-05
156.0,-0.004028679,0.002195206,0.00477084,0.000493152,-0.002618607,-5.0167e-05,1.62e-07,4.9947e-05
157.0,-0.004028679,0.002195206,0.00477084,0.000443152,-0.002568607,-5.0167e-05,1.62e-07,4.9947e-05
158.0,-0.004028679,0.002195206,0.00477084,0.000443152,-0.002568607,-5.0167e-05,1.62e-07,4.9947e-05
159.0,-0.004028679,0.002195206,0.00477084,0.000443152,-0.002568607,-5.0167e-05,1.62e-07,4.9947e-05
160.0,-0.003978679,0.002195206,0.00477084,0.000443152,-0.002568607,-5.0167e-05,-4.9837e-05,4.9947e-05
161.0,-0.003978679,0.002195206,0.00477084,0.000443152,-0.002568607,-5.0167e-05,-4.9837e-05,4.9947e-05
162.0,-0.003978679,0.002195206,0.00477084,0.000443152,-0.002568607,-0.000100167,-4.9837e-05,9.9947e-05
163.0,-0.003978679,0.002195206,0.00477084,0.000443152,-0.002568607,-5.0167e-05,-4.9837e-05,4.9947e-05
164.0,-0.003978679,0.002195206,0.00477084,0.000493152,-0.002618607,-5.0167e-05,-4.9837e-05,4.9947e-05
165.0,-0.003978679,0.002195206,0.00477084,0.000493152,-0.002618607,-0.000100167,-4.9837e-05,9.9947e-05
166.0,-0.003978679,0.002195206,0.00477084,0.000493152,-0.002618607,-0.000100167,-4.9837e-05,9.9947e-05
167.0,-0.003978679,0.002195206,0.00477084,0.000493152,-0.002618607,-5.0167e-05,-4.9837e-05,4.9947e-05
168.0,-0.003978679,0.002195206,0.00477084,0.000493152,-0.002618607,-5.0167e-05,-4.9837e-05,4.9947e-05
169.0,-0.003978679,0.002195206,0.00477084,0.000493152,-0.002618607,-5.0167e-05,-4.9837e-05,4.9947e-05
170.0,-0.003978679,0.002195206,0.00477084,0.000493152,-0.002618607,-5.0167e-05,-4.9837e-05,4.9947e-05
171.0,-0.003978679,0.002195206,0.00477084,0.000493152,-0.002618607,-5.0167e-05,-4.9837e-05,4.9947e-05
172.0,-0.003978679,0.002195206,0.00477084,0.000493152,-0.002618607,-5.0167e-05,-4.9837e-05,4.9947e-05
173.0,-0.003978679,0.002195206,0.00477084,0.000493152,-0.002618607,-5.0167e-05,-4.9837e-05,4.9947e-05
174.0,-0.003978679,0.002195206,0.00477084,0.000493152,-0.002618607,-5.0167e-05,-4.9837e-05,4.9947e-05
175.0,-0.003978679,0.002195206,0.00477084,0.000493152,-0.002618607,-5.0167e-05,-4.9837e-05,4.9947e-05
176.0,-0.003978679,0.002195206,0.00477084,0.000493152,-0.002618607,-5.0167e-05,-4.9837e-05,4.9947e-05
177.0,-0.003978679,0.002195206,0.00477084,0.000493152,-0.002618607,-5.0167e-05,-4.9837e-05,4.9947e-05
178.0,-0.003928679,0.002195206,0.00477084,0.000493152,-0.002618607,-0.000100167,-4.9837e-05,4.9947e-05
179.0,-0.003928679,0.002195206,0.00477084,0.000493152,-0.002618607,-0.000100167,-4.9837e-05,4.9947e-05
180.0,-0.003978679,0.002195206,0.00477084,0.000493152,-0.002618607,-5.0167e-05,-4.9837e-05,4.9947e-05
181.0,-0.003978679,0.002195206,0.00477084,0.000493152,-0.002618607,-0.000100167,-4.9837e-05,9.9947e-05
182.0,-0.003978679,0.002195206,0.00477084,0.000493152,-0.002618607,-0.000100167,-4.9837e-05,9.9947e-05
183.0,-0.003978679,0.002195206,0.00477084,0.000493152,-0.002618607,-0.000100167,-4.9837e-05,9.9947e-05
184.0,-0.003978679,0.002195206,0.00477084,0.000493152,-0.002618607,-0.000100167,-4.9837e-05,9.9947e-05
185.0,-0.003928679,0.002195206,0.00477084,0.000493152,-0.002618607,-0.000100167,-4.9837e-05,4.9947e-05
186.0,-0.003928679,0.002195206,0.00477084,0.000493152,-0.002618607,-0.000100167,-4.9837e-05,4.9947e-05
187.0,-0.003928679,0.002195206,0.00477084,0.000493152,-0.002618607,-0.000100167,-4.9837e-05,4.9947e-05
188.0,-0.003928679,0.002195206,0.00477084,0.000493152,-0.002618607,-0.000100167,-4.9837e-05,4.9947e-05
189.0,-0.003928679,0.002195206,0.00477084,0.000493152,-0.002618607,-5.0167e-05,-4.9837e-05,-5.2e-08
190.0,-0.003928679,0.002195206,0.00477084,0.000493152,-0.002618607,-5.0167e-05,-4.9837e-05,-5.2e-08
191.0,-0.003928679,0.002195206,0.00477084,0.000493152,-0.002618607,-5.0167e-05,-4.9837e-05,-5.2e-08
192.0,-0.003928679,0.002195206,0.00477084,0.000493152,-0.002618607,-5.0167e-05,-4.9837e-05,-5.2e-08
193.0,-0.003928679,0.002195206,0.00477084,0.000493152,-0.002618607,-5.0167e-05,-4.9837e-05,-5.2e-08
194.0,-0.003928679,0.002195206,0.00477084,0.000493152,-0.002618607,-5.0167e-05,-4.9837e-05,-5.2e-08
195.0,-0.003928679,0.002195206,0.00477084,0.000493152,-0.002618607,-5.0167e-05,-4.9837e-05,-5.2e-08
196.0,-0.003928679,0.002195206,0.00477084,0.000493152,-0.002618607,-5.0167e-05,-4.9837e-05,-5.2e-08
197.0,-0.003928679,0.002195206,0.00477084,0.000493152,-0.002618607,-5.0167e-05,-4.9837e-05,-5.2e-08
198.0,-0.003928679,0.002195206,0.00477084,0.000493152,-0.002618607,-5.0167e-05,-4.9837e-05,-5.2e-08
199.0,-0.003928679,0.002195206,0.00477084,0.000493152,-0.002618607,-5.0167e-05,-4.9837e-05,-5.2e-08
200.0,-0.003928679,0.002195206,0.00477084,0.000443152,-0.002568607,-5.0167e-05,-4.9837e-05,-5.2e-08
201.0,-0.003928679,0.002195206,0.00477084,0.000443152,-0.002568607,-5.0167e-05,-4.9837e-05,-5.2e-08
202.0,-0.003928679,0.002195206,0.00477084,0.000443152,-0.002568607,-0.000100167,1.62e-07,-5.2e-08
203.0,-0.003928679,0.002195206,0.00477084,0.000493152,-0.002618607,-0.000100167,1.62e-07,-5.2e-08
204.0,-0.003928679,0.002195206,0.00477084,0.000493152,-0.002618607,-0.000100167,1.62e-07,-5.2e-08
205.0,-0.003928679,0.002195206,0.00477084,0.000493152,-0.002618607,-0.000100167,1.62e-07,-5.2e-08
206.0,-0.003928679,0.002195206,0.00482084,0.000493152,-0.002618607,-0.000100167,-4.9837e-05,-5.2e-08
207.0,-0.003928679,0.002195206,0.00477084,0.000493152,-0.002618607,-5.0167e-05,-4.9837e-05,-5.2e-08
208.0,-0.003928679,0.002195206,0.00477084,0.000493152,-0.002618607,-5.0167e-05,-4.9837e-05,-5.2e-08
209.0,-0.003928679,0.002195206,0.00477084,0.000493152,-0.002618607,-0.000100167,-4.9837e-05,4.9947e-05
210.0,-0.003928679,0.002195206,0.00477084,0.000493152,-0.002618607,-0.000100167,-4.9837e-05,4.9947e-05
211.0,-0.003928679,0.002195206,0.00477084,0.000493152,-0.002618607,-0.000100167,-4.9837e-05,4.9947e-05
212.0,-0.003928679,0.002195206,0.00477084,0.000493152,-0.002618607,-0.000100167,-4.9837e-05,4.9947e-05
213.0,-0.003928679,0.002195206,0.00477084,0.000493152,-0.002618607,-0.000100167,-4.9837e-05,4.9947e-05
214.0,-0.003928679,0.002195206,0.00477084,0.000493152,-0.002618607,-0.000100167,-4.9837e-05,4.9947e-05
215.0,-0.003928679,0.002195206,0.00482084,0.000493152,-0.002618607,-0.000100167,-9.9837e-05,4.9947e-05
216.0,-0.003928679,0.002195206,0.00482084,0.000493152,-0.002618607,-5.0167e-05,-9.9837e-05,-5.2e-08
217.0,-0.003928679,0.002195206,0.00482084,0.000493152,-0.002618607,-5.0167e-05,-9.9837e-05,-5.2e-08
218.0,-0.003928679,0.002195206,0.00482084,0.000493152,-0.002618607,-5.0167e-05,-9.9837e-05,-5.2e-08
219.0,-0.003928679,0.002195206,0.00482084,0.000493152,-0.002618607,-0.000100167,-9.9837e-05,4.9947e-05
220.0,-0.003928679,0.002195206,0.00482084,0.000493152,-0.002618607,-0.000100167,-9.9837e-05,4.9947e-05
221.0,-0.003928679,0.002195206,0.00482084,0.000493152,-0.002618607,-0.000100167,-9.9837e-05,4.9947e-05
222.0,-0.003928679,0.002195206,0.00482084,0.000493152,-0.002618607,-0.000100167,-9.9837e-05,4.9947e-05
223.0,-0.003928679,0.002195206,0.00482084,0.000493152,-0.002618607,-0.000100167,-9.9837e-05,4.9947e-05
224.0,-0.003928679,0.002195206,0.00482084,0.000493152,-0.002618607,-0.000150167,-9.9837e-05,9.9947e-05
225.0,-0.003928679,0.002195206,0.00482084,0.000493152,-0.002618607,-0.000150167,-9.9837e-05,9.9947e-05
226.0,-0.003928679,0.002195206,0.00482084,0.000493152,-0.002618607,-0.000150167,-9.9837e-05,9.9947e-05
227.0,-0.003928679,0.002195206,0.00482084,0.000493152,-0.002618607,-0.000150167,-9.9837e-05,9.9947e-05
228.0,-0.003928679,0.002195206,0.00482084,0.000493152,-0.002618607,-0.000150167,-9.9837e-05,9.9947e-05
229.0,-0.003928679,0.002195206,0.00482084,0.000493152,-0.002618607,-0.000150167,-9.9837e-05,9.9947e-05
230.0,-0.003928679,0.002195206,0.00482084,0.000493152,-0.002618607,-0.000150167,-9.9837e-05,9.9947e-05
231.0,-0.003928679,0.002195206,0.00482084,0.000493152,-0.002618607,-0.000150167,-9.9837e-05,9.9947e-05
232.0,-0.003928679,0.002195206,0.00482084,0.000493152,-0.002618607,-0.000100167,-9.9837e-05,4.9947e-05
233.0,-0.003928679,0.002195206,0.00482084,0.000493152,-0.002618607,-0.000100167,-9.9837e-05,4.9947e-05
234.0,-0.003928679,0.002195206,0.00482084,0.000493152,-0.002618607,-0.000100167,-9.9837e-05,4.9947e-05
235.0,-0.003928679,0.002195206,0.00482084,0.000493152,-0.002618607,-0.000100167,-9.9837e-05,4.9947e-05
236.0,-0.003928679,0.002195206,0.00482084,0.000493152,-0.002618607,-0.000100167,-9.9837e-05,4.9947e-05
237.0,-0.003928679,0.002195206,0.00482084,0.000493152,-0.002618607,-0.000100167,-9.9837e-05,4.9947e-05
238.0,-0.003928679,0.002195206,0.00482084,0.000493152,-0.002618607,-0.000100167,-9.9837e-05,4.9947e-05
239.0,-0.003928679,0.002195206,0.00482084,0.000493152,-0.002618607,-0.000100167,-9.9837e-05,4.9947e-05
240.0,-0.003928679,0.002195206,0.00482084,0.000493152,-0.002618607,-0.000100167,-9.9837e-05,4.9947e-05
241.0,-0.003928679,0.002195206,0.00482084,0.000493152,-0.002618607,-0.000100167,-9.9837e-05,4.9947e-05
242.0,-0.003928679,0.002195206,0.00482084,0.000493152,-0.002618607,-0.000100167,-9.9837e-05,4.9947e-05
243.0,-0.003928679,0.002195206,0.00482084,0.000493152,-0.002618607,-0.000150167,-9.9837e-05,9.9947e-05
244.0,-0.003928679,0.002195206,0.00482084,0.000493152,-0.002618607,-0.000150167,-9.9837e-05,9.9947e-05
245.0,-0.003928679,0.002195206,0.00482084,0.000493152,-0.002618607,-0.000150167,-9.9837e-05,9.9947e-05
246.0,-0.003928679,0.002195206,0.00482084,0.000493152,-0.002618607,-0.000100167,-9.9837e-05,4.9947e-05
247.0,-0.003928679,0.002195206,0.00482084,0.000493152,-0.002618607,-0.000100167,-9.9837e-05,4.9947e-05
248.0,-0.003928679,0.002195206,0.00482084,0.000493152,-0.002618607,-0.000100167,-9.9837e-05,4.9947e-05
249.0,-0.003954985,0.002195206,0.00482084,0.000493152,-0.002618607,-7.386e-05,-9.9837e-05,4.9947e-05
250.0,-0.003954985,0.002195206,0.00482084,0.000493152,-0.002618607,-7.386e-05,-9.9837e-05,4.9947e-05
251.0,-0.003954985,0.002195206,0.00482084,0.000493152,-0.002618607,-7.386e-05,-9.9837e-05,4.9947e-05
252.0,-0.003954985,0.002195206,0.00482084,0.000493152,-0.002618607,-0.00012386,-9.9837e-05,9.9947e-05
253.0,-0.003954985,0.002195206,0.00482084,0.000493152,-0.002618607,-0.00012386,-9.9837e-05,9.9947e-05
254.0,-0.003904985,0.002195206,0.00482084,0.000493152,-0.002618607,-0.00012386,-9.9837e-05,4.9947e-05
255.0,-0.003904985,0.002195206,0.00482084,0.000493152,-0.002618607,-0.00012386,-9.9837e-05,4.9947e-05
256.0,-0.003904985,0.002195206,0.00482084,0.000493152,-0.002618607,-7.386e-05,-9.9837e-05,-5.2e-08
257.0,-0.003904985,0.002195206,0.00482084,0.000493152,-0.002618607,-7.386e-05,-9.9837e-05,-5.2e-08
258.0,-0.003904985,0.002195206,0.00482084,0.000493152,-0.002618607,-7.386e-05,-9.9837e-05,-5.2e-08
259.0,-0.003904985,0.002195206,0.00482084,0.000493152,-0.002618607,-7.386e-05,-9.9837e-05,-5.2e-08
260.0,-0.003904985,0.002195206,0.00482084,0.000493152,-0.002618607,-7.386e-05,-9.9837e-05,-5.2e-08
261.0,-0.003904985,0.002195206,0.00482084,0.000493152,-0.002618607,-0.00012386,-9.9837e-05,4.9947e-05
262.0,-0.003954985,0.002195206,0.00482084,0.000493152,-0.002618607,-0.00012386,-4.9837e-05,4.9947e-05
263.0,-0.003954985,0.002195206,0.00482084,0.000493152,-0.002618607,-7.386e-05,-4.9837e-05,-5.2e-08
264.0,-0.003954985,0.002195206,0.00482084,0.000493152,-0.002618607,-7.386e-05,-4.9837e-05,-5.2e-08
265.0,-0.003954985,0.002195206,0.00482084,0.000493152,-0.002618607,-7.386e-05,-4.9837e-05,-5.2e-08
266.0,-0.003954985,0.002195206,0.00482084,0.000493152,-0.002618607,-7.386e-05,-4.9837e-05,-5.2e-08
267.0,-0.003954985,0.002195206,0.00482084,0.000493152,-0.002618607,-7.386e-05,-4.9837e-05,-5.2e-08
268.0,-0.003954985,0.002195206,0.00482084,0.000493152,-0.002618607,-7.386e-05,-4.9837e-05,-5.2e-08
269.0,-0.003954985,0.002195206,0.00482084,0.000443152,-0.002568607,-7.386e-05,-4.9837e-05,-5.2e-08
270.0,-0.003954985,0.002195206,0.00482084,0.000443152,-0.002568607,-7.386e-05,-4.9837e-05,-5.2e-08
271.0,-0.003954985,0.002195206,0.00482084,0.000443152,-0.002568607,-7.386e-05,-4.9837e-05,-5.2e-08
272.0,-0.003954985,0.002195206,0.00482084,0.000443152,-0.002568607,-7.386e-05,-4.9837e-05,-5.2e-08
273.0,-0.003954985,0.002195206,0.00482084,0.000443152,-0.002568607,-7.386e-05,-4.9837e-05,-5.2e-08
274.0,-0.003954985,0.002195206,0.00482084,0.000493152,-0.002618607,-7.386e-05,-4.9837e-05,-5.2e-08
275.0,-0.003954985,0.002195206,0.00482084,0.000493152,-0.002618607,-7.386e-05,-4.9837e-05,-5.2e-08
276.0,-0.003954985,0.002195206,0.00482084,0.000493152,-0.002618607,-7.386e-05,-4.9837e-05,-5.2e-08
277.0,-0.003954985,0.002195206,0.00482084,0.000493152,-0.002618607,-7.386e-05,-4.9837e-05,-5.2e-08
278.0,-0.003904985,0.002145206,0.00482084,0.000493152,-0.002618607,-7.386e-05,-4.9837e-05,-5.2e-08
279.0,-0.003904985,0.002145206,0.00482084,0.000493152,-0.002618607,-7.386e-05,-4.9837e-05,-5.2e-08
280.0,-0.003904985,0.002145206,0.00482084,0.000493152,-0.002618607,-7.386e-05,-4.9837e-05,-5.2e-08
281.0,-0.003904985,0.002145206,0.00482084,0.000493152,-0.002618607,-7.386e-05,-4.9837e-05,-5.2e-08
282.0,-0.003904985,0.002145206,0.00482084,0.000493152,-0.002618607,-7.386e-05,-4.9837e-05,-5.2e-08
283.0,-0.003904985,0.002145206,0.00482084,0.000493152,-0.002618607,-7.386e-05,-4.9837e-05,-5.2e-08
284.0,-0.003904985,0.002145206,0.00482084,0.000493152,-0.002618607,-7.386e-05,-4.9837e-05,-5.2e-08
285.0,-0.003904985,0.002145206,0.00482084,0.000493152,-0.002618607,-7.386e-05,-4.9837e-05,-5.2e-08
286.0,-0.003904985,0.002145206,0.00482084,0.000493152,-0.002618607,-0.00012386,-4.9837e-05,4.9947e-05
287.0,-0.003904985,0.002145206,0.00482084,0.000493152,-0.002618607,-0.00012386,-4.9837e-05,4.9947e-05
288.0,-0.003904985,0.002145206,0.00482084,0.000493152,-0.002618607,-0.00012386,-4.9837e-05,4.9947e-05
289.0,-0.003904985,0.002145206,0.00482084,0.000493152,-0.002618607,-0.00012386,-4.9837e-05,4.9947e-05
290.0,-0.003904985,0.002145206,0.00482084,0.000493152,-0.002618607,-0.00012386,-4.9837e-05,4.9947e-05
291.0,-0.003904985,0.002145206,0.00482084,0.000493152,-0.002618607,-0.00012386,-4.9837e-05,4.9947e-05
292.0,-0.003854985,0.002145206,0.00482084,0.000493152,-0.002618607,-0.00012386,-9.9837e-05,4.9947e-05
293.0,-0.003854985,0.002145206,0.00482084,0.000493152,-0.002618607,-7.386e-05,-9.9837e-05,-5.2e-08
294.0,-0.003854985,0.002145206,0.00482084,0.000493152,-0.002618607,-7.386e-05,-9.9837e-05,-5.2e-08
295.0,-0.003854985,0.002145206,0.00482084,0.000493152,-0.002618607,-7.386e-05,-9.9837e-05,-5.2e-08
296.0,-0.003854985,0.002145206,0.00482084,0.000493152,-0.002618607,-7.386e-05,-9.9837e-05,-5.2e-08
297.0,-0.003854985,0.002145206,0.00482084,0.000493152,-0.002618607,-0.00012386,-9.9837e-05,4.9947e-05
298.0,-0.003854985,0.002145206,0.00482084,0.000493152,-0.002618607,-0.00012386,-9.9837e-05,4.9947e-05
299.0,-0.003854985,0.002145206,0.00482084,0.000493152,-0.002618607,-0.00012386,-9.9837e-05,4.9947e-05
300.0,-0.003854985,0.002145206,0.00482084,0.000493152,-0.002618607,-0.00012386,-9.9837e-05,4.9947e-05
301.0,-0.003904985,0.002145206,0.00482084,0.000493152,-0.002618607,-0.00012386,-4.9837e-05,4.9947e-05
302.0,-0.003904985,0.002145206,0.00482084,0.000493152,-0.002618607,-0.00012386,-4.9837e-05,4.9947e-05
303.0,-0.003904985,0.002145206,0.00482084,0.000493152,-0.002618607,-0.00012386,-4.9837e-05,4.9947e-05
304.0,-0.003904985,0.002145206,0.00482084,0.000493152,-0.002618607,-0.00012386,-4.9837e-05,4.9947e-05
305.0,-0.003904985,0.002145206,0.00482084,0.000493152,-0.002618607,-0.00012386,-4.9837e-05,4.9947e-05
306.0,-0.003904985,0.002145206,0.00487084,0.000493152,-0.002618607,-0.00012386,-9.9837e-05,4.9947e-05
307.0,-0.003954985,0.002145206,0.00492084,0.000493152,-0.002618607,-0.00012386,-9.9837e-05,4.9947e-05
308.0,-0.003954985,0.002145206,0.00487084,0.000493152,-0.002618607,-7.386e-05,-9.9837e-05,4.9947e-05
309.0,-0.003954985,0.002145206,0.00487084,0.000493152,-0.002618607,-7.386e-05,-9.9837e-05,4.9947e-05
310.0,-0.003954985,0.002145206,0.00487084,0.000493152,-0.002618607,-7.386e-05,-9.9837e-05,4.9947e-05
311.0,-0.003954985,0.002145206,0.00482084,0.000493152,-0.002568607,-7.386e-05,-9.9837e-05,4.9947e-05
312.0,-0.003954985,0.002145206,0.00482084,0.000493152,-0.002568607,-7.386e-05,-9.9837e-05,4.9947e-05
313.0,-0.003954985,0.002145206,0.00482084,0.000493152,-0.002568607,-7.386e-05,-9.9837e-05,4.9947e-05
314.0,-0.003954985,0.002145206,0.00482084,0.000493152,-0.002568607,-7.386e-05,-9.9837e-05,4.9947e-05
315.0,-0.003954985,0.002145206,0.00482084,0.000493152,-0.002568607,-7.386e-05,-9.9837e-05,4.9947e-05
316.0,-0.003954985,0.002145206,0.00482084,0.000493152,-0.002568607,-0.00012386,-9.9837e-05,9.9947e-05
317.0,-0.003954985,0.002145206,0.00482084,0.000493152,-0.002568607,-0.00012386,-4.9837e-05,4.9947e-05
318.0,-0.003954985,0.002145206,0.00487084,0.000493152,-0.002618607,-0.00012386,-4.9837e-05,4.9947e-05
319.0,-0.003954985,0.002145206,0.00487084,0.000493152,-0.002618607,-0.00012386,-4.9837e-05,4.9947e-05
320.0,-0.003954985,0.002195206,0.00487084,0.000493152,-0.002618607,-0.00012386,-4.9837e-05,-5.2e-08
321.0,-0.003904985,0.002195206,0.00487084,0.000493152,-0.002618607,-0.00012386,-9.9837e-05,-5.2e-08
322.0,-0.003904985,0.002195206,0.00487084,0.000493152,-0.002618607,-0.00012386,-9.9837e-05,-5.2e-08
323.0,-0.003904985,0.002195206,0.00487084,0.000493152,-0.002618607,-0.00012386,-9.9837e-05,-5.2e-08
324.0,-0.003904985,0.002195206,0.00487084,0.000493152,-0.002618607,-0.00012386,-9.9837e-05,-5.2e-08
325.0,-0.003904985,0.002195206,0.00487084,0.000493152,-0.002618607,-0.00012386,-9.9837e-05,-5.2e-08
326.0,-0.003904985,0.002195206,0.00487084,0.000493152,-0.002618607,-0.00012386,-9.9837e-05,-5.2e-08
327.0,-0.003904985,0.002195206,0.00487084,0.000493152,-0.002618607,-0.00012386,-9.9837e-05,-5.2e-08
328.0,-0.003904985,0.002195206,0.00487084,0.000493152,-0.002618607,-0.00012386,-9.9837e-05,-5.2e-08
329.0,-0.003904985,0.002195206,0.00487084,0.000493152,-0.002618607,-7.386e-05,-9.9837e-05,-5.0052e-05
330.0,-0.003854985,0.002195206,0.00487084,0.000493152,-0.002618607,-0.00012386,-9.9837e-05,-5.0052e-05
331.0,-0.003854985,0.002195206,0.00487084,0.000493152,-0.002618607,-0.00012386,-9.9837e-05,-5.0052e-05
332.0,-0.003854985,0.002195206,0.00487084,0.000493152,-0.002618607,-0.00012386,-9.9837e-05,-5.0052e-05
333.0,-0.003904985,0.002195206,0.00487084,0.000493152,-0.002618607,-0.00012386,-9.9837e-05,-5.2e-08
334.0,-0.003904985,0.002195206,0.00487084,0.000493152,-0.002618607,-0.00012386,-9.9837e-05,-5.2e-08
335.0,-0.003904985,0.002195206,0.00487084,0.000543152,-0.002668607,-0.00012386,-9.9837e-05,-5.2e-08
336.0,-0.003904985,0.002195206,0.00482084,0.000543152,-0.002668607,-0.00012386,-4.9837e-05,-5.2e-08
337.0,-0.003854985,0.002195206,0.00482084,0.000543152,-0.002668607,-0.00012386,-9.9837e-05,-5.2e-08
338.0,-0.003904985,0.002195206,0.00482084,0.000543152,-0.002668607,-0.00012386,-9.9837e-05,4.9947e-05
339.0,-0.003904985,0.002195206,0.00482084,0.000543152,-0.002668607,-0.00012386,-4.9837e-05,-5.2e-08
340.0,-0.003904985,0.002195206,0.00482084,0.000493152,-0.002618607,-0.00012386,-4.9837e-05,-5.2e-08
341.0,-0.003904985,0.002195206,0.00482084,0.000493152,-0.002618607,-0.00012386,-4.9837e-05,-5.2e-08
342.0,-0.003904985,0.002195206,0.00482084,0.000493152,-0.002618607,-0.00012386,-4.9837e-05,-5.2e-08
343.0,-0.003904985,0.002195206,0.00482084,0.000493152,-0.002618607,-0.00012386,-4.9837e-05,-5.2e-08
344.0,-0.003904985,0.002195206,0.00482084,0.000493152,-0.002618607,-0.00012386,-4.9837e-05,-5.2e-08
345.0,-0.003904985,0.002195206,0.00482084,0.000493152,-0.002618607,-0.00012386,-4.9837e-05,-5.2e-08
346.0,-0.003855049,0.002195206,0.00482084,0.000493152,-0.002618607,-0.00012386,-9.9773e-05,-5.2e-08
347.0,-0.003855049,0.002195206,0.00482084,0.000493152,-0.002618607,-0.00012386,-9.9773e-05,-5.2e-08
348.0,-0.003855049,0.002195206,0.00482084,0.000493152,-0.002618607,-0.00012386,-9.9773e-05,-5.2e-08
349.0,-0.003855049,0.002195206,0.00482084,0.000493152,-0.002618607,-0.00012386,-9.9773e-05,-5.2e-08
350.0,-0.003855049,0.002195206,0.00482084,0.000493152,-0.002618607,-0.000129714,-0.000143919,4.9947e-05
351.0,-0.003855049,0.002195206,0.00482084,0.000493152,-0.002618607,-7.9714e-05,-0.000143919,-5.2e-08
352.0,-0.003855049,0.002195206,0.00482084,0.000493152,-0.002618607,-7.9714e-05,-0.000143919,-5.2e-08
353.0,-0.003855049,0.002195206,0.00482084,0.000493152,-0.002618607,-7.9714e-05,-0.000143919,-5.2e-08
354.0,-0.003855049,0.002195206,0.00482084,0.000493152,-0.002618607,-7.9714e-05,-0.000143919,-5.2e-08
355.0,-0.003855049,0.002195206,0.00482084,0.000493152,-0.002618607,-7.9714e-05,-0.000143919,-5.2e-08
356.0,-0.003855049,0.002195206,0.00482084,0.000493152,-0.002618607,-7.9714e-05,-0.000143919,-5.2e-08
357.0,-0.003855049,0.002195206,0.00482084,0.000493152,-0.002618607,-2.9714e-05,-0.000143919,-5.0052e-05
358.0,-0.003855049,0.002195206,0.00482084,0.000493152,-0.002618607,-2.9714e-05,-0.000143919,-5.0052e-05
359.0,-0.003855049,0.002195206,0.00482084,0.000493152,-0.002618607,-2.9714e-05,-0.000143919,-5.0052e-05
360.0,-0.003855049,0.002195206,0.00482084,0.000493152,-0.002618607,-2.9714e-05,-0.000143919,-5.0052e-05
361.0,-0.003855049,0.002195206,0.00482084,0.000493152,-0.002618607,-2.9714e-05,-0.000143919,-5.0052e-05
362.0,-0.003832481,0.002195206,0.00482084,0.000493152,-0.002618607,-5.2281e-05,-0.000143919,-5.0052e-05
363.0,-0.003832481,0.002195206,0.00482084,0.000493152,-0.002618607,-5.2281e-05,-0.000143919,-5.0052e-05
364.0,-0.003832481,0.002195206,0.00482084,0.000493152,-0.002618607,-5.2281e-05,-0.000143919,-5.0052e-05
365.0,-0.003832481,0.002195206,0.00482084,0.000493152,-0.002618607,-5.2281e-05,-0.000143919,-5.0052e-05
366.0,-0.003832481,0.002195206,0.00482084,0.000493152,-0.002618607,-5.2281e-05,-0.000143919,-5.0052e-05
367.0,-0.003832481,0.002195206,0.00482084,0.000493152,-0.002618607,-0.000102281,-0.000143919,-5.2e-08
368.0,-0.003832481,0.002195206,0.00482084,0.000493152,-0.002618607,-0.000102281,-0.000143919,-5.2e-08
369.0,-0.003832481,0.002195206,0.00482084,0.000493152,-0.002618607,-5.2281e-05,-0.000143919,-5.0052e-05
370.0,-0.003832481,0.002195206,0.00482084,0.000493152,-0.002618607,-5.2281e-05,-0.000143919,-5.0052e-05
371.0,-0.003832481,0.002195206,0.00482084,0.000493152,-0.002618607,-0.000102281,-9.3919e-05,-5.0052e-05
372.0,-0.003832481,0.002195206,0.00482084,0.000493152,-0.002618607,-0.000102281,-9.3919e-05,-5.0052e-05
373.0,-0.003832481,0.002195206,0.00482084,0.000493152,-0.002618607,-0.000102281,-9.3919e-05,-5.0052e-05
374.0,-0.003832481,0.002195206,0.00482084,0.000493152,-0.002618607,-0.000102281,-9.3919e-05,-5.0052e-05
375.0,-0.003832481,0.002195206,0.00482084,0.000493152,-0.002618607,-0.000102281,-9.3919e-05,-5.0052e-05
376.0,-0.003832481,0.002195206,0.00482084,0.000493152,-0.002618607,-0.000102281,-9.3919e-05,-5.0052e-05
377.0,-0.003832481,0.002195206,0.00482084,0.000493152,-0.002618607,-0.000102281,-9.3919e-05,-5.0052e-05
378.0,-0.003832481,0.002195206,0.00482084,0.000493152,-0.002618607,-0.000102281,-9.3919e-05,-5.0052e-05
379.0,-0.003832483,0.002195206,0.00482084,0.000493152,-0.002618607,-0.000102281,-9.3919e-05,-5.0052e-05
380.0,-0.003882483,0.002195206,0.00482084,0.000493152,-0.002618607,-0.000102281,-4.3919e-05,-5.0052e-05
381.0,-0.003882483,0.002195206,0.00482084,0.000493152,-0.002618607,-0.000102281,-4.3919e-05,-5.0052e-05
382.0,-0.003882483,0.002195206,0.00482084,0.000493152,-0.002618607,-0.000102281,-4.3919e-05,-5.0052e-05
383.0,-0.003882483,0.002195206,0.00482084,0.000493152,-0.002618607,-0.000102281,-4.3919e-05,-5.0052e-05
384.0,-0.003882483,0.002195206,0.00482084,0.000493152,-0.002618607,-0.000102281,-4.3919e-05,-5.0052e-05
385.0,-0.003882483,0.002195206,0.00482084,0.000493152,-0.002618607,-0.000102281,-4.3919e-05,-5.0052e-05
386.0,-0.003882483,0.002195206,0.00482084,0.000493152,-0.002618607,-0.000102281,-4.3919e-05,-5.0052e-05
387.0,-0.003882483,0.002195206,0.00482084,0.000493152,-0.002618607,-0.000102281,-4.3919e-05,-5.0052e-05
388.0,-0.003882483,0.002195206,0.00482084,0.000493152,-0.002618607,-0.000102281,-4.3919e-05,-5.0052e-05
389.0,-0.003882483,0.002195206,0.00482084,0.000493152,-0.002618607,-0.000102281,-4.3919e-05,-5.0052e-05
390.0,-0.003882483,0.002195206,0.00482084,0.000493152,-0.002618607,-0.000102281,-4.3919e-05,-5.0052e-05
391.0,-0.003882483,0.002195206,0.00482084,0.000493152,-0.002618607,-0.000102281,-4.3919e-05,-5.0052e-05
392.0,-0.003882483,0.002195206,0.00482084,0.000493152,-0.002618607,-0.000102281,-4.3919e-05,-5.0052e-05
393.0,-0.003882483,0.002195206,0.00482084,0.000493152,-0.002618607,-0.000102281,-4.3919e-05,-5.0052e-05
394.0,-0.003882483,0.002195206,0.00482084,0.000493152,-0.002618607,-0.000102281,-4.3919e-05,-5.0052e-05
395.0,-0.003882483,0.002145206,0.00482084,0.000493152,-0.002618607,-5.2281e-05,-4.3919e-05,-5.0052e-05
396.0,-0.003882483,0.002145206,0.00482084,0.000493152,-0.002618607,-5.2281e-05,-4.3919e-05,-5.0052e-05
397.0,-0.003832483,0.002145206,0.00482084,0.000493152,-0.002618607,-5.2281e-05,-9.3919e-05,-5.0052e-05
398.0,-0.003832483,0.002145206,0.00482084,0.000493152,-0.002618607,-5.2281e-05,-9.3919e-05,-5.0052e-05
399.0,-0.003832483,0.002145206,0.00482084,0.000493152,-0.002618607,-5.2281e-05,-9.3919e-05,-5.0052e-05
400.0,-0.003832483,0.002145206,0.00482084,0.000540691,-0.002666146,-5.2281e-05,-9.3919e-05,-5.0052e-05
401.0,-0.003832483,0.002145206,0.00482084,0.000540691,-0.002666146,-5.2281e-05,-9.3919e-05,-5.0052e-05
402.0,-0.003832483,0.002145206,0.00482084,0.000540691,-0.002666146,-5.2281e-05,-9.3919e-05,-5.0052e-05
403.0,-0.003832483,0.002145206,0.00482084,0.000540691,-0.002666146,-5.2281e-05,-9.3919e-05,-5.0052e-05
404.0,-0.003832483,0.002145206,0.00482084,0.000540691,-0.002666146,-5.2281e-05,-9.3919e-05,-5.0052e-05
405.0,-0.003832483,0.002145206,0.00482084,0.000540691,-0.002666146,-5.2281e-05,-9.3919e-05,-5.0052e-05
406.0,-0.003832483,0.002145206,0.00482084,0.000540691,-0.002666146,-5.2281e-05,-9.3919e-05,-5.0052e-05
407.0,-0.003832483,0.002145206,0.00482084,0.000540691,-0.002666146,-5.2281e-05,-9.3919e-05,-5.0052e-05
408.0,-0.003832483,0.002145206,0.00482084,0.000490691,-0.002616146,-5.2281e-05,-9.3919e-05,-5.0052e-05
409.0,-0.003882483,0.002195206,0.00482084,0.000490691,-0.002616146,-5.2281e-05,-9.3919e-05,-5.0052e-05
410.0,-0.003882483,0.002195206,0.00482084,0.000490691,-0.002616146,-5.2281e-05,-9.3919e-05,-5.0052e-05
411.0,-0.003882483,0.002195206,0.00482084,0.000490691,-0.002616146,-5.2281e-05,-9.3919e-05,-5.0052e-05
412.0,-0.003882483,0.002195206,0.00482084,0.000490691,-0.002616146,-5.2281e-05,-9.3919e-05,-5.0052e-05
413.0,-0.003882483,0.002195206,0.00482084,0.000490691,-0.002616146,-5.2281e-05,-9.3919e-05,-5.0052e-05
414.0,-0.003882483,0.002195206,0.00482084,0.000490691,-0.002616146,-5.2281e-05,-9.3919e-05,-5.0052e-05
415.0,-0.003882483,0.002195206,0.00482084,0.000490691,-0.002616146,-0.000102281,-4.3919e-05,-5.0052e-05
416.0,-0.003882483,0.002195206,0.00482084,0.000490691,-0.002616146,-0.000102281,-4.3919e-05,-5.0052e-05
417.0,-0.003882483,0.002195206,0.00482084,0.000490691,-0.002616146,-0.000152281,-4.3919e-05,-5.2e-08
418.0,-0.003882483,0.002195206,0.00482084,0.000490691,-0.002616146,-0.000152281,-4.3919e-05,-5.2e-08
419.0,-0.003876656,0.002195206,0.00482084,0.000490691,-0.002616146,-0.000152281,-4.9747e-05,-5.2e-08
420.0,-0.003876656,0.002195206,0.00482084,0.000490691,-0.002616146,-0.000102281,-4.9747e-05,-5.0052e-05
421.0,-0.003876656,0.002195206,0.00482084,0.000490691,-0.002616146,-0.000102281,-4.9747e-05,-5.0052e-05
422.0,-0.003876656,0.002195206,0.00482084,0.000490691,-0.002616146,-0.000102281,-4.9747e-05,-5.0052e-05
423.0,-0.003876656,0.002195206,0.00482084,0.000490691,-0.002616146,-0.000102281,-4.9747e-05,-5.0052e-05
424.0,-0.003876656,0.002195206,0.00482084,0.000490691,-0.002616146,-0.000102281,-4.9747e-05,-5.0052e-05
425.0,-0.003876656,0.002195206,0.00482084,0.000490691,-0.002616146,-0.000102281,-4.9747e-05,-5.0052e-05
426.0,-0.003876656,0.002195206,0.00482084,0.000490691,-0.002616146,-0.000102281,-4.9747e-05,-5.0052e-05
427.0,-0.003876656,0.002195206,0.00482084,0.000490691,-0.002616146,-0.000102281,-4.9747e-05,-5.0052e-05
428.0,-0.003876656,0.002195206,0.00482084,0.000490691,-0.002616146,-0.000152272,-4.9747e-05,-6.1e-08
429.0,-0.003876656,0.002195206,0.00482084,0.000490691,-0.002616146,-0.000152272,-4.9747e-05,-6.1e-08
430.0,-0.003876656,0.002195206,0.00482084,0.000490691,-0.002616146,-0.000152272,-4.9747e-05,-6.1e-08
431.0,-0.003876656,0.002195206,0.00482084,0.000490691,-0.002616146,-0.000152272,-4.9747e-05,-6.1e-08
432.0,-0.003876656,0.002195206,0.00482084,0.000490691,-0.002616146,-0.000152272,-4.9747e-05,-6.1e-08
433.0,-0.003876656,0.002195206,0.00482084,0.000490691,-0.002616146,-0.000152272,-4.9747e-05,-6.1e-08
434.0,-0.003876656,0.002195206,0.00482084,0.000490691,-0.002616146,-0.000152272,-4.9747e-05,-6.1e-08
435.0,-0.003876656,0.002195206,0.00482084,0.000490691,-0.002616146,-0.000102272,-4.9747e-05,-5.0061e-05
436.0,-0.003876656,0.002195206,0.00482084,0.000490691,-0.002616146,-0.000102272,-4.9747e-05,-5.0061e-05
437.0,-0.003876656,0.002195206,0.00482084,0.000490691,-0.002616146,-0.000102272,-4.9747e-05,-5.0061e-05
438.0,-0.003876656,0.002195206,0.00482084,0.000490691,-0.002616146,-0.000102272,-4.9747e-05,-5.0061e-05
439.0,-0.003876656,0.002195206,0.00482084,0.000490691,-0.002616146,-0.000102272,-4.9747e-05,-5.0061e-05
440.0,-0.003876656,0.002195206,0.00482084,0.000490691,-0.002616146,-0.000102272,-4.9747e-05,-5.0061e-05
441.0,-0.003876656,0.002195206,0.00482084,0.000490691,-0.002616146,-0.000102272,-4.9747e-05,-5.0061e-05
442.0,-0.003826656,0.002195206,0.00482084,0.000490691,-0.002616146,-0.000102272,-9.9747e-05,-5.0061e-05
443.0,-0.003826656,0.002195206,0.00482084,0.000440691,-0.002616146,-0.000102272,-9.9747e-05,-6.1e-08
444.0,-0.003826656,0.002195206,0.00482084,0.000440691,-0.002616146,-0.000102272,-9.9747e-05,-6.1e-08
445.0,-0.003826656,0.002195206,0.00482084,0.000440691,-0.002616146,-0.000102272,-9.9747e-05,-6.1e-08
446.0,-0.003826656,0.002195206,0.00482084,0.000440691,-0.002616146,-0.000102281,-9.9747e-05,-5.2e-08
447.0,-0.003826656,0.002195206,0.00482084,0.000440691,-0.002616146,-0.000102281,-9.9747e-05,-5.2e-08
448.0,-0.003826656,0.002195206,0.00482084,0.000440691,-0.002616146,-0.000102281,-9.9747e-05,-5.2e-08
449.0,-0.003826656,0.002195206,0.00482084,0.000440691,-0.002616146,-0.000152281,-9.9747e-05,4.9947e-05
450.0,-0.003826656,0.002195206,0.00482084,0.000440691,-0.002616146,-0.000152281,-9.9747e-05,4.9947e-05
451.0,-0.003826656,0.002195206,0.00482084,0.000440691,-0.002616146,-0.000102281,-9.9747e-05,-5.2e-08
452.0,-0.003826656,0.002195206,0.00482084,0.000440691,-0.002616146,-0.000102281,-9.9747e-05,-5.2e-08
453.0,-0.003826656,0.002145206,0.00482084,0.000490691,-0.002616146,-0.000102281,-9.9747e-05,-5.2e-08
454.0,-0.003826656,0.002145206,0.00482084,0.000490691,-0.002616146,-0.000102281,-9.9747e-05,-5.2e-08
455.0,-0.003826656,0.002145206,0.00482084,0.000490691,-0.002616146,-5.2281e-05,-9.9747e-05,-5.0052e-05
456.0,-0.003826656,0.002145206,0.00482084,0.000490691,-0.002616146,-5.2281e-05,-9.9747e-05,-5.0052e-05
457.0,-0.003826656,0.002145206,0.00482084,0.000490691,-0.002616146,-0.000102281,-4.9747e-05,-5.0052e-05
458.0,-0.003826656,0.002145206,0.00482084,0.000490691,-0.002616146,-0.000145633,-5.6372e-05,-7.4e-08
459.0,-0.003826656,0.002145206,0.00482084,0.000490691,-0.002616146,-0.000145633,-5.6372e-05,-7.4e-08
460.0,-0.003826656,0.002145206,0.00482084,0.000490691,-0.002616146,-0.000145633,-5.6372e-05,-7.4e-08
461.0,-0.003826656,0.002145206,0.00482084,0.000490691,-0.002616146,-9.5633e-05,-0.000106372,-7.4e-08
462.0,-0.003826656,0.002145206,0.00482084,0.000490691,-0.002616146,-9.5633e-05,-0.000106372,-7.4e-08
463.0,-0.003876656,0.002145206,0.00482084,0.000490691,-0.002616146,-9.5633e-05,-5.6372e-05,-7.4e-08
464.0,-0.003876656,0.002145206,0.00482084,0.000490691,-0.002616146,-9.5633e-05,-5.6372e-05,-7.4e-08
465.0,-0.003876656,0.002145206,0.00482084,0.000490691,-0.002616146,-9.5633e-05,-5.6372e-05,-7.4e-08
466.0,-0.003876656,0.002145206,0.00482084,0.000490691,-0.002616146,-9.5633e-05,-5.6372e-05,-7.4e-08
467.0,-0.003876656,0.002145206,0.00482084,0.000490691,-0.002616146,-9.5633e-05,-5.6372e-05,-7.4e-08
468.0,-0.003876656,0.002145206,0.00482084,0.000490691,-0.002616146,-9.5633e-05,-5.6372e-05,-7.4e-08
469.0,-0.003876656,0.002145206,0.00482084,0.000490691,-0.002616146,-9.5633e-05,-5.6372e-05,-7.4e-08
470.0,-0.003876656,0.002145206,0.00482084,0.000490691,-0.002616146,-9.5633e-05,-5.6372e-05,-7.4e-08
471.0,-0.003876656,0.002145206,0.00482084,0.000490691,-0.002616146,-9.5633e-05,-5.6372e-05,-7.4e-08
472.0,-0.003876656,0.002145206,0.00482084,0.000490691,-0.002616146,-9.5633e-05,-5.6372e-05,-7.4e-08
473.0,-0.003876656,0.002145206,0.00482084,0.000490691,-0.002616146,-9.5633e-05,-5.6372e-05,-7.4e-08
474.0,-0.003876656,0.002145206,0.00482084,0.000490691,-0.002616146,-9.5633e-05,-5.6372e-05,-7.4e-08
475.0,-0.003876656,0.002145206,0.00482084,0.000490691,-0.002616146,-9.5633e-05,-5.6372e-05,-7.4e-08
476.0,-0.003876656,0.002145206,0.00482084,0.000490691,-0.002616146,-9.5633e-05,-5.6372e-05,-7.4e-08
477.0,-0.003876656,0.002145206,0.00482084,0.000490691,-0.002616146,-9.5633e-05,-5.6372e-05,-7.4e-08
478.0,-0.003876656,0.002145206,0.00482084,0.000490691,-0.002616146,-9.5633e-05,-5.6372e-05,-7.4e-08
479.0,-0.003876656,0.002145206,0.00482084,0.000490691,-0.002616146,-9.5633e-05,-5.6372e-05,-7.4e-08
480.0,-0.003876656,0.002145206,0.00482084,0.000490691,-0.002616146,-9.5633e-05,-5.6372e-05,-7.4e-08
481.0,-0.003876656,0.002145206,0.00482084,0.000490691,-0.002616146,-9.5633e-05,-5.6372e-05,-7.4e-08
482.0,-0.003876656,0.002195206,0.00482084,0.000490691,-0.002616146,-9.5633e-05,-5.6372e-05,-5.0074e-05
483.0,-0.003876656,0.002195206,0.00482084,0.000490691,-0.002616146,-9.5633e-05,-5.6372e-05,-5.0074e-05
484.0,-0.003876656,0.002195206,0.00482084,0.000490691,-0.002616146,-9.5633e-05,-5.6372e-05,-5.0074e-05
485.0,-0.003876656,0.002195206,0.00482084,0.000490691,-0.002616146,-9.5633e-05,-5.6372e-05,-5.0074e-05
486.0,-0.003876656,0.002195206,0.00482084,0.000490691,-0.002616146,-9.5633e-05,-5.6372e-05,-5.0074e-05
487.0,-0.003876656,0.002195206,0.00482084,0.000490691,-0.002616146,-9.5633e-05,-5.6372e-05,-5.0074e-05
488.0,-0.003876656,0.002195206,0.00482084,0.000490691,-0.002616146,-9.5633e-05,-5.6372e-05,-5.0074e-05
489.0,-0.003876656,0.002195206,0.00482084,0.000490691,-0.002616146,-9.5633e-05,-5.6372e-05,-5.0074e-05
490.0,-0.003876656,0.002195206,0.00482084,0.000490691,-0.002616146,-0.000145633,-5.6372e-05,-7.4e-08
491.0,-0.003876656,0.002195206,0.00482084,0.000490691,-0.002616146,-0.000145633,-5.6372e-05,-7.4e-08
492.0,-0.003876656,0.002195206,0.00482084,0.000490691,-0.002616146,-0.000145633,-5.6372e-05,-7.4e-08
493.0,-0.003876656,0.002195206,0.00482084,0.000490691,-0.002616146,-0.000145633,-5.6372e-05,-7.4e-08
494.0,-0.003876656,0.002195206,0.00482084,0.000490691,-0.002616146,-0.000145633,-5.6372e-05,-7.4e-08
495.0,-0.003876656,0.002195206,0.00482084,0.000490691,-0.002616146,-0.000145633,-5.6372e-05,-7.4e-08
496.0,-0.003876656,0.002195206,0.00482084,0.000490691,-0.002616146,-0.000145633,-5.6372e-05,-7.4e-08
497.0,-0.003876656,0.002195206,0.00482084,0.000490691,-0.002616146,-0.000145633,-5.6372e-05,-7.4e-08
498.0,-0.003876656,0.002195206,0.00482084,0.000490691,-0.002616146,-0.000145633,-5.6372e-05,-7.4e-08
499.0,-0.003876656,0.002195206,0.00482084,0.000490691,-0.002616146,-0.000145633,-0.000106372,4.9925e-05
500.0,-0.003876656,0.002195206,0.00482084,0.000490691,-0.002616146,-0.000145633,-0.000106372,4.9925e-05
501.0,-0.003876656,0.002195206,0.00482084,0.000490691,-0.002616146,-0.000145633,-0.000106372,4.9925e-05
502.0,-0.003876656,0.002195206,0.00482084,0.000490691,-0.002616146,-0.000145633,-0.000106372,4.9925e-05
503.0,-0.003876656,0.002195206,0.00482084,0.000490691,-0.002616146,-0.000145633,-0.000106372,4.9925e-05
504.0,-0.003876656,0.002195206,0.00482084,0.000490691,-0.002616146,-0.000145633,-0.000106372,4.9925e-05
505.0,-0.003876656,0.002195206,0.00482084,0.000490691,-0.002616146,-0.000145633,-0.000106372,4.9925e-05
506.0,-0.003876656,0.002195206,0.00482084,0.000490691,-0.002616146,-0.000145633,-0.000106372,4.9925e-05
507.0,-0.003876656,0.002195206,0.00482084,0.000490691,-0.002616146,-0.000145633,-0.000106372,4.9925e-05
508.0,-0.003876656,0.002195206,0.00482084,0.000490691,-0.002616146,-0.000145633,-0.000106372,4.9925e-05
509.0,-0.003876656,0.002195206,0.00482084,0.000490691,-0.002616146,-0.000145633,-0.000106372,4.9925e-05
510.0,-0.003876656,0.002195206,0.00482084,0.000490691,-0.002616146,-0.000145633,-0.000106372,4.9925e-05
511.0,-0.003876656,0.002195206,0.00482084,0.000490691,-0.002616146,-0.000145633,-0.000106372,4.9925e-05
512.0,-0.003876656,0.002195206,0.00482084,0.000490691,-0.002616146,-9.5633e-05,-0.000106372,-7.4e-08
513.0,-0.003876656,0.002195206,0.00482084,0.000490691,-0.002616146,-9.5633e-05,-0.000106372,-7.4e-08
514.0,-0.003876656,0.002195206,0.00482084,0.000490691,-0.002616146,-0.000145633,-0.000106372,4.9925e-05
515.0,-0.003876656,0.002195206,0.00482084,0.000490691,-0.002616146,-9.5633e-05,-0.000106372,-7.4e-08
516.0,-0.003876656,0.002195206,0.00482084,0.000490691,-0.002616146,-9.5633e-05,-0.000106372,-7.4e-08
517.0,-0.003876656,0.002195206,0.00482084,0.000490691,-0.002616146,-9.5633e-05,-0.000106372,-7.4e-08
518.0,-0.003876656,0.002195206,0.00482084,0.000490691,-0.002616146,-9.5633e-05,-0.000106372,-7.4e-08
519.0,-0.003876656,0.002195206,0.00482084,0.000540691,-0.002666146,-9.5633e-05,-0.000106372,-7.4e-08
520.0,-0.003876656,0.002195206,0.00482084,0.000540691,-0.002666146,-0.000145633,-0.000106372,4.9925e-05
521.0,-0.003876656,0.002195206,0.00482084,0.000540691,-0.002666146,-0.000145633,-0.000106372,4.9925e-05
522.0,-0.003876656,0.002195206,0.00482084,0.000540691,-0.002666146,-0.000145633,-0.000106372,4.9925e-05
523.0,-0.003876656,0.002195206,0.00482084,0.000540691,-0.002666146,-0.000145633,-0.000106372,4.9925e-05
524.0,-0.003926656,0.002195206,0.00482084,0.000540691,-0.002666146,-0.000145633,-5.6372e-05,4.9925e-05
525.0,-0.003926656,0.002195206,0.00482084,0.000540691,-0.002666146,-0.000145633,-5.6372e-05,4.9925e-05
526.0,-0.003926656,0.002195206,0.00482084,0.000540691,-0.002666146,-0.000145633,-5.6372e-05,4.9925e-05
527.0,-0.003926656,0.002195206,0.00482084,0.000540691,-0.002666146,-0.000145633,-5.6372e-05,4.9925e-05
528.0,-0.003926656,0.002195206,0.00482084,0.000540691,-0.002666146,-0.000145633,-5.6372e-05,4.9925e-05
529.0,-0.003926656,0.002195206,0.00482084,0.000540691,-0.002666146,-0.000145633,-5.6372e-05,4.9925e-05
530.0,-0.003926656,0.002195206,0.00482084,0.000540691,-0.002666146,-0.000145633,-5.6372e-05,4.9925e-05
531.0,-0.003926656,0.002195206,0.00482084,0.000540691,-0.002666146,-0.000145633,-5.6372e-05,4.9925e-05
532.0,-0.003926656,0.002195206,0.00482084,0.000540691,-0.002666146,-9.5633e-05,-5.6372e-05,-7.4e-08
533.0,-0.003926656,0.002195206,0.00482084,0.000540691,-0.002666146,-9.5633e-05,-5.6372e-05,-7.4e-08
534.0,-0.003926656,0.002195206,0.00482084,0.000540691,-0.002666146,-9.5633e-05,-5.6372e-05,-7.4e-08
535.0,-0.003926656,0.002195206,0.00482084,0.000540691,-0.002666146,-9.5633e-05,-5.6372e-05,-7.4e-08
536.0,-0.003926656,0.002195206,0.00482084,0.000540691,-0.002666146,-9.5633e-05,-5.6372e-05,-7.4e-08
537.0,-0.003926656,0.002195206,0.00482084,0.000540691,-0.002666146,-9.5633e-05,-5.6372e-05,-7.4e-08
538.0,-0.003926656,0.002195206,0.00482084,0.000540691,-0.002666146,-9.5633e-05,-5.6372e-05,-7.4e-08
539.0,-0.003926656,0.002195206,0.00482084,0.000540691,-0.002666146,-9.5633e-05,-5.6372e-05,-7.4e-08
540.0,-0.003926656,0.002195206,0.00482084,0.000540691,-0.002666146,-9.5633e-05,-5.6372e-05,-7.4e-08
541.0,-0.003926656,0.002195206,0.00482084,0.000540691,-0.002666146,-9.5633e-05,-5.6372e-05,-7.4e-08
542.0,-0.003926656,0.002195206,0.00482084,0.000540691,-0.002666146,-9.5633e-05,-5.6372e-05,-7.4e-08
543.0,-0.003926656,0.002195206,0.00482084,0.000490691,-0.002616146,-9.5633e-05,-5.6372e-05,-7.4e-08
544.0,-0.003926656,0.002195206,0.00482084,0.000540691,-0.002616146,-9.5633e-05,-0.000106372,-7.4e-08
545.0,-0.003926656,0.002195206,0.00482084,0.000540691,-0.002616146,-9.5633e-05,-0.000106372,-7.4e-08
546.0,-0.003926656,0.002195206,0.00482084,0.000540691,-0.002616146,-9.5633e-05,-0.000106372,-7.4e-08
547.0,-0.003926656,0.002195206,0.00482084,0.000540691,-0.002616146,-9.5633e-05,-0.000106372,-7.4e-08
548.0,-0.003926656,0.002195206,0.00482084,0.000490691,-0.002566146,-9.5633e-05,-0.000106372,-7.4e-08
549.0,-0.003926656,0.002195206,0.00482084,0.000490691,-0.002566146,-9.5633e-05,-0.000106372,-7.4e-08
550.0,-0.003926656,0.002195206,0.00482084,0.000490691,-0.002566146,-0.000145633,-0.000106372,4.9925e-05
551.0,-0.003926656,0.002195206,0.00482084,0.000490691,-0.002566146,-0.000145633,-0.000106372,4.9925e-05
552.0,-0.003926656,0.002195206,0.00487084,0.000490691,-0.002616146,-0.000145633,-0.000106372,4.9925e-05
553.0,-0.003926656,0.002195206,0.00487084,0.000490691,-0.002616146,-0.000145633,-0.000106372,4.9925e-05
554.0,-0.003926656,0.002195206,0.00487084,0.000490691,-0.002616146,-0.000145633,-0.000106372,4.9925e-05
555.0,-0.003926656,0.002195206,0.00487084,0.000490691,-0.002616146,-0.000145633,-0.000106372,4.9925e-05
556.0,-0.003926656,0.002146203,0.004870688,0.000490691,-0.002616146,-9.5633e-05,-0.000106372,4.908e-05
557.0,-0.003926656,0.002146203,0.004870688,0.000490691,-0.002616146,-9.5633e-05,-0.000106372,4.908e-05
558.0,-0.003926656,0.002146203,0.004870688,0.000490691,-0.002616146,-9.5633e-05,-0.000106372,4.908e-05
559.0,-0.003926656,0.002146203,0.004870688,0.000490691,-0.002616146,-9.5633e-05,-7.3245e-05,1.5953e-05
560.0,-0.003926656,0.002146203,0.004870688,0.000490691,-0.002616146,-9.5633e-05,-7.3245e-05,1.5953e-05
561.0,-0.003926656,0.002146203,0.004870688,0.000490691,-0.002616146,-9.5633e-05,-7.3245e-05,1.5953e-05
562.0,-0.003926656,0.002146203,0.004870688,0.000490691,-0.002616146,-9.5633e-05,-7.3245e-05,1.5953e-05
563.0,-0.003926656,0.002146203,0.004870688,0.000490691,-0.002616146,-9.5633e-05,-7.3245e-05,1.5953e-05
564.0,-0.003926656,0.002146203,0.004870688,0.000490691,-0.002616146,-9.5633e-05,-7.3245e-05,1.5953e-05
565.0,-0.003926656,0.002146203,0.004870688,0.000490691,-0.002616146,-9.5633e-05,-7.3245e-05,1.5953e-05
566.0,-0.003926656,0.002146203,0.004870688,0.000490691,-0.002616146,-9.5633e-05,-7.3245e-05,1.5953e-05
567.0,-0.003926656,0.002146203,0.004870688,0.000490691,-0.002616146,-9.5633e-05,-7.3245e-05,1.5953e-05
568.0,-0.003926656,0.002146203,0.004870688,0.000490691,-0.002616146,-9.5633e-05,-7.3245e-05,1.5953e-05
569.0,-0.003926656,0.002146203,0.004870688,0.000490691,-0.002616146,-9.5633e-05,-7.3245e-05,1.5953e-05
570.0,-0.003926656,0.002146203,0.004870688,0.000490691,-0.002616146,-9.5633e-05,-7.3245e-05,1.5953e-05
571.0,-0.003926656,0.002146203,0.004870688,0.000490691,-0.002616146,-9.5633e-05,-7.3245e-05,1.5953e-05
572.0,-0.003926656,0.002146203,0.004870688,0.000490691,-0.002616146,-9.5633e-05,-7.3245e-05,1.5953e-05
573.0,-0.003926656,0.002146203,0.004870688,0.000490691,-0.002616146,-9.5633e-05,-7.3245e-05,1.5953e-05
574.0,-0.003926656,0.002146203,0.004870688,0.000490691,-0.002616146,-9.5633e-05,-7.3245e-05,1.5953e-05
575.0,-0.003926656,0.002146203,0.004870688,0.000490691,-0.002616146,-4.5633e-05,-0.000123245,1.5953e-05
576.0,-0.003926656,0.002146203,0.004870688,0.000490691,-0.002616146,-4.5633e-05,-0.000123245,1.5953e-05
577.0,-0.003926656,0.002146203,0.004870688,0.000490691,-0.002616146,-4.5633e-05,-0.000123245,1.5953e-05
578.0,-0.003926656,0.002146203,0.004870688,0.000490691,-0.002616146,-9.5633e-05,-0.000123245,6.5953e-05
579.0,-0.003926656,0.002146203,0.004870688,0.000490691,-0.002616146,-9.5633e-05,-0.000123245,6.5953e-05
580.0,-0.003926656,0.002146203,0.004870688,0.000490691,-0.002616146,-9.5633e-05,-0.000123245,6.5953e-05
581.0,-0.003876656,0.002146203,0.004870688,0.000490691,-0.002616146,-0.000145633,-0.000123245,6.5953e-05
582.0,-0.003876656,0.002146203,0.004870688,0.000490691,-0.002616146,-0.000145633,-0.000123245,6.5953e-05
583.0,-0.003876656,0.002146203,0.004870688,0.000490691,-0.002616146,-0.000145633,-0.000123245,6.5953e-05
584.0,-0.003876656,0.002146203,0.004870688,0.000490691,-0.002616146,-0.000145633,-0.000123245,6.5953e-05
585.0,-0.003876656,0.002146203,0.004870688,0.000490691,-0.002616146,-0.000145633,-0.000123245,6.5953e-05
586.0,-0.003876656,0.002146203,0.004870688,0.000490691,-0.002616146,-0.000145633,-0.000123245,6.5953e-05
587.0,-0.003876656,0.002146203,0.004870688,0.000490691,-0.002616146,-9.5633e-05,-0.000123245,1.5953e-05
588.0,-0.003876656,0.002146203,0.004870688,0.000490691,-0.002616146,-9.5633e-05,-0.000123245,1.5953e-05
589.0,-0.003876656,0.002146203,0.004870688,0.000490691,-0.002616146,-0.000145633,-0.000123245,6.5953e-05
590.0,-0.003876656,0.002146203,0.004870688,0.000490691,-0.002616146,-0.000145633,-0.000123245,6.5953e-05
591.0,-0.003876656,0.002146203,0.004870688,0.000490691,-0.002616146,-0.000145633,-0.000123245,6.5953e-05
592.0,-0.003876656,0.002146203,0.004870688,0.000490691,-0.002616146,-0.000145633,-0.000123245,6.5953e-05
593.0,-0.003876656,0.002146203,0.004870688,0.000490691,-0.002616146,-0.000145633,-0.000123245,6.5953e-05
594.0,-0.003876656,0.002146203,0.004870688,0.000490691,-0.002616146,-9.5633e-05,-0.000123245,1.5953e-05
595.0,-0.003876656,0.002146203,0.004870688,0.000490691,-0.002616146,-9.5633e-05,-0.000123245,1.5953e-05
596.0,-0.003876656,0.002146203,0.004870688,0.000490691,-0.002616146,-0.000145633,-0.000123245,6.5953e-05
597.0,-0.003876656,0.002146203,0.004870688,0.000490691,-0.002616146,-0.000145633,-0.000123245,6.5953e-05
598.0,-0.003876656,0.002146203,0.004870688,0.000490691,-0.002616146,-0.000145633,-0.000123245,6.5953e-05
599.0,-0.003876656,0.002146203,0.004870688,0.000490691,-0.002616146,-0.000145633,-0.000123245,6.5953e-05
600.0,-0.003876656,0.002146203,0.004870688,0.000540691,-0.002666146,-0.000145633,-0.000123245,6.5953e-05
601.0,-0.003876656,0.002146203,0.004870688,0.000540691,-0.002666146,-0.000145633,-0.000123245,6.5953e-05
602.0,-0.003876656,0.002146203,0.004870688,0.000540691,-0.002666146,-0.000145633,-0.000123245,6.5953e-05
603.0,-0.003876656,0.002146203,0.004870688,0.000540691,-0.002666146,-0.000145633,-0.000123245,6.5953e-05
604.0,-0.003876656,0.002146203,0.004870688,0.000540691,-0.002666146,-0.000145633,-0.000123245,6.5953e-05
605.0,-0.003876656,0.002146203,0.004870688,0.000540691,-0.002666146,-0.000145633,-0.000123245,6.5953e-05
606.0,-0.003876656,0.002146203,0.004870688,0.000540691,-0.002666146,-0.000145633,-0.000123245,6.5953e-05
607.0,-0.003876656,0.002146203,0.004870688,0.000540691,-0.002666146,-0.000145633,-0.000123245,6.5953e-05
608.0,-0.003876656,0.002146203,0.004870688,0.000540691,-0.002666146,-0.000145633,-0.000123245,6.5953e-05
609.0,-0.003876656,0.002146203,0.004870688,0.000490691,-0.002616146,-0.000145633,-0.000123245,6.5953e-05
610.0,-0.003876656,0.002146203,0.004870688,0.000490691,-0.002616146,-0.000145633,-0.000123245,6.5953e-05
611.0,-0.003876656,0.002146203,0.004870688,0.000490691,-0.002616146,-0.000145633,-0.000123245,6.5953e-05
612.0,-0.003876656,0.002146203,0.004870688,0.000490691,-0.002616146,-0.000145633,-0.000123245,6.5953e-05
613.0,-0.003876656,0.002146203,0.004870688,0.000490691,-0.002616146,-9.5633e-05,-0.000123245,1.5953e-05
614.0,-0.003876656,0.002146203,0.004870688,0.000490691,-0.002616146,-9.5633e-05,-0.000123245,1.5953e-05
615.0,-0.003876656,0.002146203,0.004870688,0.000490691,-0.002616146,-4.5633e-05,-0.000123245,-3.4046e-05
616.0,-0.003876656,0.002146203,0.004870688,0.000490691,-0.002616146,-4.5633e-05,-0.000123245,-3.4046e-05
617.0,-0.003876656,0.002146203,0.004870688,0.000490691,-0.002616146,-9.5633e-05,-0.000123245,1.5953e-05
618.0,-0.003876656,0.002146203,0.004870688,0.000490691,-0.002616146,-9.5633e-05,-0.000123245,1.5953e-05
619.0,-0.003876656,0.002146203,0.004870688,0.000490691,-0.002616146,-9.5633e-05,-0.000123245,1.5953e-05
620.0,-0.003876656,0.002146203,0.004870688,0.000490691,-0.002616146,-9.5633e-05,-0.000123245,1.5953e-05
621.0,-0.003876656,0.002146203,0.004870688,0.000490691,-0.002616146,-9.5633e-05,-0.000123245,1.5953e-05
622.0,-0.003876656,0.002146203,0.004870688,0.000490691,-0.002616146,-9.5633e-05,-0.000123245,1.5953e-05
623.0,-0.003876656,0.002146203,0.004870688,0.000490691,-0.002616146,-9.5633e-05,-0.000123245,1.5953e-05
624.0,-0.003876656,0.002146203,0.004870688,0.000490691,-0.002616146,-9.5633e-05,-0.000123245,1.5953e-05
625.0,-0.003876656,0.002146203,0.004870688,0.000490691,-0.002616146,-9.5633e-05,-0.000123245,1.5953e-05
626.0,-0.003876656,0.002146203,0.004870688,0.000490691,-0.002616146,-9.5633e-05,-0.000123245,1.5953e-05
627.0,-0.003876656,0.002146203,0.004870688,0.000490691,-0.002616146,-9.5633e-05,-0.000123245,1.5953e-05
628.0,-0.003826656,0.002146203,0.004870688,0.000490691,-0.002616146,-0.000145633,-0.000123245,1.5953e-05
629.0,-0.003826656,0.002146203,0.004870688,0.000490691,-0.002616146,-0.000145633,-0.000123245,1.5953e-05
630.0,-0.003826656,0.002146203,0.004870688,0.000490691,-0.002616146,-0.000145633,-0.000123245,1.5953e-05
631.0,-0.003826656,0.002146203,0.004870688,0.000490691,-0.002616146,-0.000145633,-0.000123245,1.5953e-05
632.0,-0.003826656,0.002146203,0.004870688,0.000490691,-0.002616146,-0.000145633,-0.000123245,1.5953e-05
633.0,-0.003876656,0.002146203,0.004870688,0.000490691,-0.002616146,-0.000145633,-7.3245e-05,1.5953e-05
634.0,-0.003876656,0.002146203,0.004870688,0.000490691,-0.002616146,-0.000145633,-7.3245e-05,1.5953e-05
635.0,-0.003876656,0.002146203,0.004870688,0.000490691,-0.002616146,-0.000145633,-7.3245e-05,1.5953e-05
636.0,-0.003876656,0.002146203,0.004870688,0.000490691,-0.002616146,-0.000145633,-7.3245e-05,1.5953e-05
637.0,-0.003876656,0.002146203,0.004870688,0.000490691,-0.002616146,-0.000145633,-7.3245e-05,1.5953e-05
638.0,-0.003876656,0.002146203,0.004870688,0.000490691,-0.002616146,-0.000145633,-7.3245e-05,1.5953e-05
639.0,-0.003876656,0.002146203,0.004870688,0.000490691,-0.002616146,-0.000145633,-7.3245e-05,1.5953e-05
640.0,-0.003876656,0.002146203,0.004870688,0.000490691,-0.002616146,-0.000145633,-7.3245e-05,1.5953e-05
641.0,-0.003876656,0.002146203,0.004870688,0.000490691,-0.002616146,-0.000145633,-7.3245e-05,1.5953e-05
642.0,-0.003876656,0.002146203,0.004870688,0.000490691,-0.002616146,-0.000145633,-7.3245e-05,1.5953e-05
643.0,-0.003876656,0.002146203,0.004870688,0.000490691,-0.002616146,-0.000145633,-7.3245e-05,1.5953e-05
644.0,-0.003876656,0.002146203,0.004820688,0.000540691,-0.002616146,-0.000145633,-7.3245e-05,1.5953e-05
645.0,-0.003876656,0.002146203,0.004820688,0.000540691,-0.002616146,-0.000145633,-7.3245e-05,1.5953e-05
646.0,-0.003876656,0.002146203,0.004820688,0.000540691,-0.002616146,-0.000145633,-7.3245e-05,1.5953e-05
647.0,-0.003876656,0.002146203,0.004820688,0.000540691,-0.002616146,-0.000145633,-7.3245e-05,1.5953e-05
648.0,-0.003876656,0.002146203,0.004820688,0.000540691,-0.002616146,-0.000195633,-7.3245e-05,6.5953e-05
649.0,-0.003826656,0.002146203,0.004820688,0.000540691,-0.002616146,-0.000195633,-0.000123245,6.5953e-05
650.0,-0.003826656,0.002146203,0.004870688,0.000490691,-0.002616146,-0.000195633,-0.000123245,6.5953e-05
651.0,-0.003826656,0.002146203,0.004870688,0.000490691,-0.002616146,-0.000195633,-0.000123245,6.5953e-05
652.0,-0.003826656,0.002146203,0.004870688,0.000490691,-0.002616146,-0.000195633,-0.000123245,6.5953e-05
653.0,-0.003826656,0.002146203,0.004870688,0.000490691,-0.002616146,-0.000195633,-0.000123245,6.5953e-05
654.0,-0.003826656,0.002146203,0.004870688,0.000490691,-0.002616146,-0.000195633,-0.000123245,6.5953e-05
655.0,-0.003826656,0.002146203,0.004870688,0.000490691,-0.002616146,-0.000195633,-0.000123245,6.5953e-05
656.0,-0.003826656,0.002146203,0.004870688,0.000490691,-0.002616146,-0.000195633,-0.000123245,6.5953e-05
657.0,-0.003826656,0.002146203,0.004870688,0.000490691,-0.002616146,-0.000195633,-0.000123245,6.5953e-05
658.0,-0.003826656,0.002146203,0.004870688,0.000490691,-0.002616146,-0.000145634,-0.000123245,1.5955e-05
659.0,-0.003876656,0.002146203,0.004870688,0.000490691,-0.002616146,-9.5634e-05,-0.000123245,1.5955e-05
660.0,-0.003876656,0.002146203,0.004870688,0.000490691,-0.002616146,-9.5634e-05,-0.000123245,1.5955e-05
661.0,-0.003876656,0.002146203,0.004870688,0.000490691,-0.002616146,-9.5634e-05,-0.000123245,1.5955e-05
662.0,-0.003876656,0.002146203,0.004870688,0.000490691,-0.002616146,-9.5634e-05,-0.000123245,1.5955e-05
663.0,-0.003876656,0.002146203,0.004870688,0.000490691,-0.002616146,-9.5634e-05,-0.000123245,1.5955e-05
664.0,-0.003876656,0.002146203,0.004870688,0.000440691,-0.002566146,-9.5634e-05,-0.000123245,1.5955e-05
665.0,-0.003876656,0.002146203,0.004870688,0.000440691,-0.002566146,-9.5634e-05,-0.000123245,1.5955e-05
666.0,-0.003876656,0.002146203,0.004870688,0.000490691,-0.002616146,-9.5634e-05,-0.000123245,1.5955e-05
667.0,-0.003876656,0.002146203,0.004870688,0.000490691,-0.002616146,-9.5634e-05,-0.000123245,1.5955e-05
668.0,-0.003876656,0.002146203,0.004870688,0.000490691,-0.002616146,-9.5634e-05,-0.000123245,1.5955e-05
669.0,-0.003876656,0.002146203,0.004870688,0.000490691,-0.002616146,-9.5634e-05,-0.000123245,1.5955e-05
670.0,-0.003876656,0.002146203,0.004870688,0.000490691,-0.002616146,-9.5634e-05,-0.000123245,1.5955e-05
671.0,-0.003876656,0.002146203,0.004870688,0.000490691,-0.002616146,-9.5634e-05,-0.000123245,1.5955e-05
672.0,-0.003876656,0.002196203,0.004820688,0.000490691,-0.002616146,-9.5634e-05,-0.000123245,1.5955e-05
673.0,-0.003876656,0.002196203,0.004820688,0.000490691,-0.002616146,-0.000145634,-0.000123245,6.5955e-05
674.0,-0.003826656,0.002196203,0.004820688,0.000490691,-0.002616146,-0.000145634,-0.000123245,1.5955e-05
675.0,-0.003826656,0.002196203,0.004820688,0.000490691,-0.002616146,-0.000145634,-0.000123245,1.5955e-05
676.0,-0.003826656,0.002196203,0.004820688,0.000490691,-0.002616146,-0.000195634,-0.000123245,6.5955e-05
677.0,-0.003826656,0.002196203,0.004820688,0.000490691,-0.002616146,-0.000195634,-0.000123245,6.5955e-05
678.0,-0.003876656,0.002196203,0.004820688,0.000490691,-0.002616146,-0.000195634,-7.3245e-05,6.5955e-05
679.0,-0.003876656,0.002196203,0.004820688,0.000490691,-0.002616146,-0.000195634,-7.3245e-05,6.5955e-05
680.0,-0.003876656,0.002196203,0.004820688,0.000490691,-0.002616146,-0.000195634,-7.3245e-05,6.5955e-05
681.0,-0.003876656,0.002196203,0.004820688,0.000490691,-0.002616146,-0.000195634,-7.3245e-05,6.5955e-05
682.0,-0.003876656,0.002196203,0.004820688,0.000490691,-0.002616146,-0.000195634,-7.3245e-05,6.5955e-05
683.0,-0.003876656,0.002196203,0.004820688,0.000490691,-0.002616146,-0.000195634,-7.3245e-05,6.5955e-05
684.0,-0.003876656,0.002196203,0.004820688,0.000490691,-0.002616146,-0.000145634,-0.000123245,6.5955e-05
685.0,-0.003876656,0.002196203,0.004820688,0.000490691,-0.002616146,-0.000145634,-0.000123245,6.5955e-05
686.0,-0.003876656,0.002196203,0.004820688,0.000490691,-0.002616146,-0.000145634,-0.000123245,6.5955e-05
687.0,-0.003876656,0.002196203,0.004820688,0.000490691,-0.002616146,-0.000145634,-0.000123245,6.5955e-05
688.0,-0.003876656,0.002196203,0.004820688,0.000490691,-0.002616146,-9.5634e-05,-0.000123245,1.5955e-05
689.0,-0.003876656,0.002196203,0.004820688,0.000490691,-0.002616146,-9.5634e-05,-0.000123245,1.5955e-05
690.0,-0.003876656,0.002196203,0.004820688,0.000490691,-0.002616146,-9.5634e-05,-0.000123245,1.5955e-05
691.0,-0.003876656,0.002196203,0.004820688,0.000490691,-0.002616146,-9.5634e-05,-0.000123245,1.5955e-05
692.0,-0.003876656,0.002196203,0.004820688,0.000490691,-0.002616146,-0.000145634,-7.3245e-05,1.5955e-05
693.0,-0.003876656,0.002196203,0.004820688,0.000490691,-0.002616146,-0.000145634,-7.3245e-05,1.5955e-05
694.0,-0.003876656,0.002196203,0.004820688,0.000490691,-0.002616146,-0.000145634,-7.3245e-05,1.5955e-05
695.0,-0.003876656,0.002196203,0.004820688,0.000490691,-0.002616146,-0.000145634,-7.3245e-05,1.5955e-05
696.0,-0.003876656,0.002196203,0.004820688,0.000490691,-0.002616146,-0.000145634,-7.3245e-05,1.5955e-05
697.0,-0.003876656,0.002196203,0.004820688,0.000490691,-0.002616146,-0.000145634,-7.3245e-05,1.5955e-05
698.0,-0.003876656,0.002196203,0.004820688,0.000490691,-0.002616146,-0.000145634,-7.3245e-05,1.5955e-05
699.0,-0.003876656,0.002196203,0.004820688,0.000490691,-0.002616146,-0.000145634,-7.3245e-05,1.5955e-05
700.0,-0.003876656,0.002196203,0.004820688,0.000490691,-0.002616146,-0.000145634,-7.3245e-05,1.5955e-05
701.0,-0.003876656,0.002196203,0.004820688,0.000490691,-0.002616146,-0.000145634,-7.3245e-05,1.5955e-05
702.0,-0.003876656,0.002196203,0.004820688,0.000490691,-0.002616146,-0.000145634,-7.3245e-05,1.5955e-05
703.0,-0.003826656,0.002196203,0.004820688,0.000490691,-0.002616146,-0.000145634,-0.000123245,1.5955e-05
704.0,-0.003826773,0.002196203,0.004820688,0.000490691,-0.002616146,-0.000145517,-0.000123245,1.5955e-05
705.0,-0.003826773,0.002196203,0.004820688,0.000490691,-0.002616146,-0.000145517,-0.000123245,1.5955e-05
706.0,-0.003826773,0.002196203,0.004820688,0.000490691,-0.002616146,-0.000145517,-0.000123245,1.5955e-05
707.0,-0.003826773,0.002196203,0.004820688,0.000490691,-0.002616146,-0.000145517,-0.000123245,1.5955e-05
708.0,-0.003826773,0.002196203,0.004820688,0.000490691,-0.002616146,-0.000145517,-0.000123245,1.5955e-05
709.0,-0.003826773,0.002196203,0.004820688,0.000490691,-0.002616146,-0.000145517,-0.000123245,1.5955e-05
710.0,-0.003826773,0.002196203,0.004820688,0.000490691,-0.002616146,-0.000145517,-0.000123245,1.5955e-05
711.0,-0.003826773,0.002196203,0.004820688,0.000490691,-0.002616146,-0.000145517,-0.000123245,1.5955e-05
712.0,-0.003826773,0.002196203,0.004820688,0.000490691,-0.002616146,-0.000145517,-0.000123245,1.5955e-05
713.0,-0.003826773,0.002196203,0.004820688,0.000490691,-0.002616146,-0.000145517,-0.000123245,1.5955e-05
714.0,-0.003826773,0.002196203,0.004820688,0.000490691,-0.002616146,-0.000145517,-0.000123245,1.5955e-05
715.0,-0.003826773,0.002196203,0.004820688,0.000490691,-0.002616146,-0.000195517,-0.000123245,6.5955e-05
716.0,-0.003826773,0.002196203,0.004820688,0.000490691,-0.002616146,-0.000195517,-0.000123245,6.5955e-05
717.0,-0.003826773,0.002196203,0.004820688,0.000490691,-0.002616146,-0.000195517,-0.000123245,6.5955e-05
718.0,-0.003826773,0.002196203,0.004820688,0.000490691,-0.002616146,-0.000195517,-0.000123245,6.5955e-05
719.0,-0.003826773,0.002196203,0.004820688,0.000490691,-0.002616146,-0.000195517,-0.000123245,6.5955e-05
720.0,-0.003826773,0.002196203,0.004820688,0.000490691,-0.002616146,-0.000195517,-0.000123245,6.5955e-05
721.0,-0.003826773,0.002196203,0.004820688,0.000490691,-0.002616146,-0.000145517,-0.000123245,1.5955e-05
722.0,-0.003826773,0.002196203,0.004820688,0.000490691,-0.002616146,-0.000145517,-0.000123245,1.5955e-05
723.0,-0.003826773,0.002196203,0.004820688,0.000490691,-0.002616146,-0.000145517,-0.000123245,1.5955e-05
724.0,-0.003826773,0.002196203,0.004820688,0.000490691,-0.002616146,-0.000145517,-0.000123245,1.5955e-05
725.0,-0.003876773,0.002196203,0.004820688,0.000490691,-0.002616146,-0.000145517,-7.3245e-05,1.5955e-05
726.0,-0.003876773,0.002196203,0.004820688,0.000490691,-0.002616146,-0.000145517,-7.3245e-05,1.5955e-05
727.0,-0.003876773,0.002196203,0.004820688,0.000490691,-0.002616146,-0.000145517,-7.3245e-05,1.5955e-05
728.0,-0.003876773,0.002196203,0.004820688,0.000490691,-0.002616146,-0.000145517,-0.000123245,6.5955e-05
729.0,-0.003876773,0.002196203,0.004820688,0.000490691,-0.002616146,-0.000145517,-0.000123245,6.5955e-05
730.0,-0.003876773,0.002196203,0.004820688,0.000490691,-0.002616146,-0.000145517,-0.000123245,6.5955e-05
731.0,-0.003876773,0.002196203,0.004820688,0.000490691,-0.002616146,-9.5517e-05,-0.000123245,1.5955e-05
732.0,-0.003876773,0.002196203,0.004820688,0.000490691,-0.002616146,-9.5517e-05,-0.000123245,1.5955e-05
733.0,-0.003826773,0.002196203,0.004820688,0.000490691,-0.002616146,-0.000145517,-0.000123245,1.5955e-05
734.0,-0.003826773,0.002196203,0.004820688,0.000490691,-0.002616146,-0.000145517,-0.000123245,1.5955e-05
735.0,-0.003826773,0.002196203,0.004820688,0.000490691,-0.002616146,-0.000145517,-0.000123245,1.5955e-05
736.0,-0.003826773,0.002196203,0.004820688,0.000490691,-0.002616146,-0.000145517,-0.000123245,1.5955e-05
737.0,-0.003826773,0.002196203,0.004820688,0.000490691,-0.002616146,-0.000145517,-0.000123245,1.5955e-05
738.0,-0.003826773,0.002196203,0.004820688,0.000490691,-0.002616146,-0.000145517,-0.000123245,1.5955e-05
739.0,-0.003826773,0.002196203,0.004820688,0.000490691,-0.002616146,-0.000145517,-0.000123245,1.5955e-05
740.0,-0.003826773,0.002196203,0.004820688,0.000490691,-0.002616146,-0.000145517,-0.000123245,1.5955e-05
741.0,-0.003826773,0.002146203,0.004820688,0.000490691,-0.002616146,-0.000145517,-7.3245e-05,1.5955e-05
742.0,-0.003826773,0.002146203,0.004820688,0.000490691,-0.002616146,-0.000145517,-7.3245e-05,1.5955e-05
743.0,-0.003826773,0.002146203,0.004820688,0.000490691,-0.002616146,-0.000145517,-7.3245e-05,1.5955e-05
744.0,-0.003826773,0.002146203,0.004820688,0.000490691,-0.002616146,-0.000145517,-7.3245e-05,1.5955e-05
745.0,-0.003826773,0.002146203,0.004820688,0.000490691,-0.002616146,-0.000195517,-7.3245e-05,6.5955e-05
746.0,-0.003826773,0.002146203,0.004820688,0.000490691,-0.002616146,-0.000195517,-7.3245e-05,6.5955e-05
747.0,-0.003826773,0.002146203,0.004820688,0.000490691,-0.002616146,-0.000195517,-7.3245e-05,6.5955e-05
748.0,-0.003826773,0.002146203,0.004820688,0.000490691,-0.002616146,-0.000195517,-7.3245e-05,6.5955e-05
749.0,-0.003826773,0.002146203,0.004820688,0.000490691,-0.002616146,-0.000195517,-7.3245e-05,6.5955e-05
750.0,-0.003826773,0.002146203,0.004820688,0.000490691,-0.002616146,-0.000195517,-7.3245e-05,6.5955e-05
751.0,-0.003826773,0.002146203,0.004820688,0.000490691,-0.002616146,-0.000195517,-7.3245e-05,6.5955e-05
752.0,-0.003826773,0.002146203,0.004820688,0.000490691,-0.002616146,-0.000195517,-7.3245e-05,6.5955e-05
753.0,-0.003826773,0.002146203,0.004820688,0.000490691,-0.002616146,-0.000195517,-7.3245e-05,6.5955e-05
754.0,-0.003826773,0.002146203,0.004820688,0.000490691,-0.002616146,-0.000195517,-7.3245e-05,6.5955e-05
755.0,-0.003826773,0.002146203,0.004820688,0.000490691,-0.002616146,-0.000195517,-7.3245e-05,6.5955e-05
756.0,-0.003826773,0.002146203,0.004820688,0.000490691,-0.002616146,-0.000195517,-7.3245e-05,6.5955e-05
757.0,-0.003826773,0.002146203,0.004820688,0.000490691,-0.002616146,-0.000195517,-7.3245e-05,6.5955e-05
758.0,-0.003826773,0.002146203,0.004820688,0.000490691,-0.002616146,-0.000195517,-7.3245e-05,6.5955e-05
759.0,-0.003826773,0.002146203,0.004820688,0.000490691,-0.002616146,-0.000195517,-7.3245e-05,6.5955e-05
760.0,-0.003826773,0.002146203,0.004820688,0.000490691,-0.002616146,-0.000195517,-7.3245e-05,6.5955e-05
761.0,-0.003826773,0.002146203,0.004820688,0.000490691,-0.002616146,-0.000145517,-7.3245e-05,1.5955e-05
762.0,-0.003826773,0.002146203,0.004820688,0.000490691,-0.002616146,-0.000145517,-7.3245e-05,1.5955e-05
763.0,-0.003826773,0.002146203,0.004820688,0.000490691,-0.002616146,-0.000145517,-7.3245e-05,1.5955e-05
764.0,-0.003826773,0.002146203,0.004820688,0.000490691,-0.002616146,-0.000195517,-7.3245e-05,6.5955e-05
765.0,-0.003826773,0.002146203,0.004820688,0.000490691,-0.002616146,-0.000195517,-7.3245e-05,6.5955e-05
766.0,-0.003826773,0.002146203,0.004820688,0.000490691,-0.002616146,-0.000194505,-7.3245e-05,6.4942e-05
767.0,-0.003826773,0.002146203,0.004820688,0.000490691,-0.002616146,-0.000144505,-7.3245e-05,1.4942e-05
768.0,-0.003826773,0.002146203,0.004820688,0.000490691,-0.002616146,-0.000144505,-7.3245e-05,1.4942e-05
769.0,-0.003826773,0.002146203,0.004820688,0.000490691,-0.002616146,-0.000144505,-7.3245e-05,1.4942e-05
770.0,-0.003826773,0.002146203,0.004820688,0.000490691,-0.002616146,-0.000144505,-7.3245e-05,1.4942e-05
771.0,-0.003826773,0.002146203,0.004820688,0.000490691,-0.002616146,-0.000144505,-7.3245e-05,1.4942e-05
