float saved_weights[640] = {
                       -0.101813264,0.18916997,0.019282408,0.11665607,0.0650649,-0.19272372,0.10817651,-0.21074976,0.03872328,0.08669203,0.031174907,-0.16657262,-0.15194762,-0.1373607,-0.14773867,-0.005892366,-0.020217441,0.16441305,-0.09957042,-5.21681e-06,-0.14936079,0.1486777,-0.01834005,0.12403315,0.035676196,0.015579675,0.20300177,-0.08167027,-0.044142637,-0.13667841,0.18964517,-0.17688075,0.1119517,
                       0.05314805,-0.11740294,-0.20866472,0.13606486,-0.11405303,-0.11491661,0.03572958,-0.17779095,0.0075617456,0.12719852,-0.0746628,-0.19349462,0.051701657,0.07809871,0.058244854,-0.057966493,-0.04371779,-0.10098785,0.18243243,0.119480714,0.14001423,-0.096086286,-0.04085308,0.08747381,0.07500544,-0.1640349,-0.035259496,-0.07931246,-0.052084412,0.16557468,-0.16724433,0.11229808,
                       0.071549036,-0.081383124,0.03961027,-0.021117851,0.020658081,0.17288502,-0.06404358,-0.12199431,0.024029203,0.018689174,-0.07559822,-0.0088438215,-0.17412876,-0.06141616,-0.0021045215,-0.18152106,0.13189878,0.15042137,0.07362048,0.051502183,0.018659549,0.14489025,-0.21689236,0.04348196,0.16678604,0.04293132,-0.049083654,-0.09714119,0.18325984,0.14195582,-0.02440223,-0.039930027,
                       -0.15709919,0.0071092164,-0.069231085,-0.06885963,0.06037358,0.18844362,0.06109297,-0.021557225,-0.11737317,0.15791775,0.11486802,-0.06161651,-0.19739394,0.016730087,0.06620899,-0.21578458,0.027310729,-0.17637327,-0.15010907,-0.12135182,0.18491153,0.13799839,-0.08513188,-0.2084819,0.15552185,-0.091907635,-0.17719848,0.14410056,0.20003042,0.05851225,0.02778779,
                       0.17036897,0.14643666,0.13828936,0.13640063,0.042228628,-0.0033186271,0.19159497,-0.043640714,-0.17790364,0.12332578,0.18449175,-0.21785173,0.017647032,0.18288928,0.20220545,-0.20540594,0.07947734,-0.091859005,-0.09645164,0.003652435,-0.1059006,-0.027010614,-0.14514866,-0.06131654,0.033228807,-0.01711271,-0.027109914,-0.15245973,0.19834727,0.01684108,-0.061486162,0.024513567,-0.13529368,
                       -0.12613112,0.09224749,0.053620648,-0.12978394,-0.009944556,-0.083751276,0.13512537,0.17396337,0.13353048,-0.05942911,-0.16776946,-0.030444356,0.15519044,0.11085202,0.1363176,0.010756599,0.13901775,-0.0007436963,0.1541325,0.206035,-0.16923875,-0.076345414,-0.016164316,0.13320777,0.024040105,-0.04987205,0.084809214,-0.17311265,-0.19427352,-0.083629794,0.09733707,-0.07182865,
                       -0.14166477,0.019373175,0.09229213,0.057255507,0.19849141,-0.09107461,-0.059726477,0.030784817,0.018761983,-0.15082511,-0.069694646,-0.085581444,-0.115035236,0.061449572,-0.13586631,0.081751086,0.098642655,0.18519643,-0.021744084,0.002219571,-0.038033802,-0.12377776,0.20540792,-0.08014238,0.13748345,-0.11785323,-0.18446058,-0.021358294,0.05688176,0.104445815,0.16331916,-0.1632182,
                       -0.025189584,-0.0054968805,0.17997234,0.07919782,-0.12564602,-0.09225206,-0.12817776,-0.21117158,-0.08049375,-0.15947385,-0.15008302,-0.05938869,-0.16161346,-0.07956258,0.15673205,-0.15439598,-0.0047358572,-0.016947214,-0.0035305007,0.17696314,-0.13203374,0.04034185,0.046011038,0.14658172,-0.14035398,0.2060368,-0.057269733,-0.0075295256,-0.12963858,0.05190988,-0.15949503,
                       0.0011956791,0.16990185,-0.10229704,-0.08834203,-0.1734517,-0.168734,-0.18158884,0.106686845,0.15997139,0.054235943,0.1798981,-0.05963991,-0.13274477,0.19078498,-0.06229956,0.028575346,-0.0069446284,-0.012426548,0.061442997,0.17077675,-0.03681897,-0.074231975,0.0858768,-0.14748508,0.062044296,0.11567284,-0.20649716,0.15003406,-0.10006398,-0.11524635,0.16589418,0.05683597,-0.068430014,
                       0.03524703,-0.15026946,0.029573997,-0.13297865,0.17208032,0.18182056,-0.09687267,0.15132304,-0.045066204,0.17109522,-0.053734135,-0.10556825,-0.124622546,-0.013720125,0.14737102,-0.16709103,-0.11763386,-0.1912634,-0.059582047,-0.043373585,-0.05226021,0.21355546,-0.13346268,-0.18467923,-0.18319851,0.17382015,-0.14960636,-0.10099693,0.1643263,0.024458684,-0.15766974,0.19788782,
                       0.022801936,0.13012704,-0.077828795,0.20240752,0.10148642,0.0070000524,0.10550587,-0.016586635,-0.08073309,0.121663705,-0.10411335,0.14226094,0.18553877,-0.17186652,-0.026359966,-0.027756149,0.13700294,0.098317884,-0.15825206,-0.067790695,-0.09263079,0.17973831,0.17631117,0.013756534,-0.10603402,-0.18401045,-0.0145409405,0.16801423,-0.14548641,-0.09106575,0.16926518,0.14239337,
                       -0.100982085,-0.12697646,0.009845435,0.009713987,0.06913885,-0.009883127,-0.05594599,-0.15095532,-0.041683428,0.100887634,0.15423264,0.07836033,0.045306902,0.048714675,-0.02039413,-0.17220697,0.08758521,-0.14144774,-0.055792436,0.22061352,-0.18355438,-0.057691474,0.1016129,-0.11999206,0.01138449,0.05677447,-0.18248624,0.083069235,-0.17309454,0.08048153,0.025119988,
                       0.04557672,0.019436318,-0.04959105,0.09586327,0.18407197,-0.012953902,-0.21040787,0.04948063,-0.15184547,0.08295514,0.025597963,0.10341179,0.14314815,0.005069485,0.032151382,-0.068323046,-0.18177351,-0.104639366,-0.11462551,0.1369399,0.13448676,-0.19748682,-0.009755446,-0.0027289256,0.18445328,-0.12613499,-0.17122196,0.090588905,-0.14120393,-0.1415536,-0.18036558,-0.039252467,-0.02846644,
                       -0.1609783,-0.006343205,0.16390756,-0.048123416,0.16433525,0.11097365,-0.17413582,0.19603457,-0.18192755,-0.034762084,-0.06088689,0.019905385,0.15176919,-0.07191857,0.05309859,0.0976985,0.17261164,-0.028404078,-0.107806794,0.08388734,0.11711993,0.008368409,-0.15502101,-0.056776334,-0.09465939,-0.057289176,-0.13731399,-0.13459995,0.12698004,-0.12038035,0.13295974,0.097891964,
                       -0.07386044,-0.14285472,-0.13131095,-0.09952057,-0.010605763,0.023954235,0.14181162,-0.032015614,0.1941441,-0.012027688,-0.16532983,0.053498585,-0.14709914,0.12953506,-0.017639553,-0.16904347,0.1318448,0.10653015,0.025606299,-0.047029417,0.09558518,0.026312053,-0.0046565193,0.10950463,-0.07139251,-0.0471579,0.20841588,0.012122559,-0.031481616,0.14514177,0.15991065,0.062754735,
                       -0.14335805,0.04106591,-0.03230112,-0.096949205,-0.034448504,-0.114728376,0.015150105,-0.08271265,0.05567711,-0.060063694,0.05852811,0.13348144,-0.028466806,0.17628317,-0.0425064,-0.1652994,0.042094406,-0.07998725,-0.009140994,-0.06318831,-0.025080347,0.0726325,0.0804533,0.20299037,-0.16376998,-0.18516704,-0.019645195,-0.021907555,-0.17011467,0.03914351,-0.11042843,
                       0.082220614,-0.07621266,0.0029103823,0.09632196,0.00029806912,-0.18085304,-0.20534998,0.10548249,-0.0050052777,0.057552706,0.11021143,-0.20080625,-0.06175336,-0.097704306,-0.09055504,-0.008871138,0.051020198,-0.11597259,0.09595482,-0.005191664,-0.114613354,0.08583236,-0.10122483,-0.20306586,0.173644,-0.170513,0.03725562,-0.015573863,-0.03533618,0.073868245,0.00023283527,0.1456682,0.0265453,
                       0.14844516,-0.1306979,-0.0021588062,-0.1522346,0.04956416,0.05428451,0.17378071,-0.17614773,-0.1761131,0.07198793,-0.1422027,-0.1727306,0.043540146,0.08960893,0.10281247,0.039286345,0.045626685,0.06177433,-0.05400247,0.013181634,-0.10133522,-0.030660845,-0.051001098,-0.17238915,0.1668266,-0.02325374,-0.20059909,0.05369975,-0.12277462,0.03996147,0.03677417,-0.16215213,
                       0.08432245,0.15704177,-0.123336785,0.08205968,-0.0527923,0.0023110835,-0.03504095,0.015303616,-0.067824595,0.034506608,0.09086816,0.14620501,-0.0020346928,-0.10846911,-0.10905029,0.1840091,-0.017442932,-0.1763962,0.1306752,0.14028876,0.14483385,0.10882157,0.09446592,0.13224044,0.17973554,-0.014859512,0.14768317,-0.08025006,-0.14799502,0.09261899,0.045710206,-0.18287621,
                       0.018320575,0.08143994,-0.02196985,-0.07286435,-0.010537607,0.1108712,0.18567497,-0.0833944,0.08096451,0.049735393,-0.1788267,0.09848953,-0.17970976,-0.11395613,0.050271653,-0.026280953,0.08765075,0.033336196,0.017062243,0.04213876,0.046376627,-0.08728794,-0.05991669,-0.010675679,-0.13084626,0.14771113,-0.11847258,-0.10991637,-0.067947745,-0.13793987,-0.18735366}; 



float saved_biases[5] = {-0.0033093637,-0.0032617967,0.0065535866,0.003247895,0.00030356884};