float saved_weights[640] = {
                       0.00046135468,-0.17158441,0.16136251,-0.18804547,0.14226414,-0.14983308,-0.18005534,-0.13838339,0.16485506,-0.08446007,-0.029726686,-0.089147285,-0.074861504,-0.059033357,-0.1829991,-0.08104791,0.1056321,0.08745311,0.21865384,-0.16842696,-0.15130429,-0.028617492,0.097615846,-0.07922746,-0.07953574,0.18687697,-0.08664176,0.15855636,0.018712172,-0.04758213,-0.045479953,0.12337345,0.12927498,
                       0.18615676,-0.15761897,-0.08850225,0.049681712,0.03949564,0.051062107,0.08910063,0.11879558,0.030097576,0.19109891,0.045042038,0.06272385,0.18105198,-0.20514052,0.00081710087,-0.1374928,-0.09166478,0.05309454,-0.060804278,0.05044774,0.15146638,-0.11594472,0.11856384,-0.13557994,0.21292572,-0.04053337,-0.053309385,0.18065825,-0.08458147,0.0110790515,0.11043205,0.19169725,
                       -0.1712074,-0.13339978,-0.015243158,0.09701016,0.08610272,0.08070413,0.06163861,0.026888352,0.08377971,-0.18811727,0.18563488,0.12044522,0.18932071,-0.07828858,0.044706628,0.127444,-0.07640217,0.13858354,0.21963021,0.05521362,-0.13130023,-0.09597476,0.09906137,0.19899458,-0.16191918,-0.12262327,0.10675368,-0.19087642,-0.033102214,-0.025765514,-0.09289791,0.1344322,
                       -0.1438908,0.046201218,-0.026271505,0.1704982,-0.13877462,-0.16534255,0.003166482,0.15911734,-0.13815404,0.107372224,-0.1825671,0.0708793,-0.09840355,0.17582044,0.07999951,-0.08348315,-0.007743718,-0.11448531,0.10206987,-0.049569927,-0.10356866,-0.12068877,-0.19105588,-0.14380944,0.1544378,0.0055072545,0.13641591,-0.14425921,-0.06743153,-0.13211605,-0.06474632,
                       -0.090645894,0.09840876,-0.052389927,0.039639268,-0.025227213,0.079846084,-0.16822048,-0.022553151,-0.08786961,-0.16132082,0.053225674,-0.0058270316,0.13002044,-0.09460192,-0.13170847,0.09977036,-0.15163738,-0.0054640863,-0.12359682,-0.029675892,0.09712303,0.15920347,-0.13895756,0.0077331,0.17978074,0.03715425,0.08600187,0.05451654,-0.09126639,0.116985545,0.07155409,-0.020377826,0.18812266,
                       -0.112677254,0.1113166,-0.18475677,0.0030263236,-0.0067515415,0.12500545,-0.014938812,-0.08370449,0.014382214,-0.09757964,0.14007,-0.13420151,-0.14171788,-0.11573585,-0.07907277,0.11291929,-0.09460864,-0.19270368,-0.13906938,-0.0972152,-0.12635629,0.024610199,-0.13222326,-0.055943593,0.2193402,0.0067773676,-0.08420803,0.028359165,0.14063258,-0.13921657,-0.12630002,-0.18051127,
                       -0.022731908,-0.08460271,0.17606625,-0.022711191,-0.07891494,0.0067912396,-0.104507655,-0.20200267,-0.121431544,0.006446454,0.22134855,0.12851396,0.055928662,0.121950395,-0.09330463,-0.08732246,0.054994352,-0.079116896,0.20730153,0.21174437,-0.0983792,-0.020180922,-0.08491792,-0.1105148,0.11115095,-0.11621795,0.085452154,-0.11071755,-0.20520222,-0.18733266,0.119654566,-0.0407095,
                       0.057996307,-0.18068735,-0.19175294,-0.15630126,0.077571794,0.11655905,-0.04075005,0.008407678,0.184918,0.21091352,0.06210843,-0.1793242,-0.07841218,-0.078982756,-0.016849458,-0.0582421,0.088642634,0.0397482,0.21314314,0.03493447,0.08637599,0.17798996,-0.1947513,0.2097066,-0.18179056,0.1602373,0.12782119,0.05988302,-0.11996977,-0.07436538,0.10311115,
                       -0.021494191,-0.045557193,-0.022298114,-0.1501226,0.07200072,-0.19399083,-0.14446893,0.11789077,0.19405898,-0.14559707,0.15898195,0.06636614,0.07061328,-0.087065026,-0.049475227,0.15767802,0.009973258,0.06347235,-0.026210114,0.046531502,-0.15260573,0.15397528,-0.10178306,-0.033167433,0.1414021,-0.06471184,-0.07354391,0.019915268,-0.036105484,0.19652937,0.09894603,0.053315714,-0.15353398,
                       -0.043426786,-0.01439078,0.14708108,-0.1643799,-0.0114709,0.0818859,0.15272087,0.01993542,0.04925929,-0.093337014,0.05826355,-0.17977986,0.13240363,-0.09890759,-0.11366857,-0.0036584295,-0.06312076,-0.16743882,-0.074285954,-0.016245564,-0.16102752,-0.10788476,-0.101554066,-0.055543717,-0.042885747,0.19667009,0.17620312,0.17669463,-0.12218112,0.14804564,0.053102173,0.021485653,
                       -0.09108576,-0.21750735,-0.12646347,-0.012232282,-0.00010918468,-0.06745793,-0.1976383,0.036774617,-0.20211633,-0.052955803,-0.02979564,-0.1954162,-0.096318856,-0.042841606,0.13464245,0.085043594,0.21095292,-0.15911815,-0.013283895,0.08426394,0.16333985,0.1881821,-0.1371059,0.1337995,-0.1776103,-0.12718481,0.048356753,0.08458571,0.20305642,0.050518136,0.050600898,-0.18569094,
                       0.18480611,0.10432403,-0.10875253,-0.18804039,-0.096606426,0.09832039,0.13680696,0.059506606,0.07913666,-0.21183418,-0.12708333,-0.11792159,0.1626784,-0.16194087,-0.026006952,0.07577104,-0.1679304,-0.015807498,0.0905487,0.011512215,0.09346626,-0.011283816,-0.18173829,0.17416188,-0.022770738,0.07575332,0.069481894,0.18619107,0.1923518,0.08381317,0.15277737,
                       -0.19217084,-0.14437503,-0.1530471,0.08487437,0.04292544,0.13186511,0.19458017,-0.13390023,-0.06693917,-0.06606419,-0.07138069,0.041817807,-0.083114676,0.04441943,-0.077976234,-0.16165449,-0.06163107,-0.1795081,0.027402645,0.068469614,-0.033966277,0.030838568,-0.14528716,-0.17929651,0.19703087,0.19771996,-0.1372783,-0.07318871,-0.0039399755,-0.049315598,-0.180028,0.10216018,0.037219852,
                       -0.056249704,-0.098717734,0.018696107,-0.015130297,-0.14716788,0.08228022,-0.16481644,-0.038357038,0.11996274,-0.06367849,0.082051575,-0.11609237,-0.069591954,0.1325382,0.020634117,-0.21012712,-0.05348662,-0.08405358,0.19221736,-0.024417276,-0.068382934,0.11672514,0.052722815,0.11352416,0.15564401,-0.13954845,-0.11440517,-0.18408282,-0.16541886,0.1758911,0.14524697,-0.0024853891,
                       0.1911801,0.1324329,-0.18136005,0.0984261,-0.007666206,0.17833683,0.11309692,0.14361459,-0.048690364,-0.12869877,0.05764514,0.13494606,-0.08500333,0.045458652,-0.15111844,0.09627814,0.11426253,0.15547656,-0.03202838,0.08035589,-0.16211371,-0.19520125,0.13554935,0.112360865,0.033180397,-0.054838207,-0.026399184,0.004406896,0.16781712,-0.18852815,0.014905385,0.09339605,
                       -0.023094883,0.1271489,-0.17414671,0.12348936,0.16681144,-0.12465444,0.058353864,-0.103821106,-0.11979325,0.10323377,0.16076756,0.18277691,0.021803085,0.04649784,-0.056876585,0.081962034,-0.1012788,-0.072763756,-0.07965344,0.03423169,-0.20079105,0.077396564,0.19043425,0.13812482,0.15839452,0.13051526,-0.04719655,-0.15085238,0.07049929,0.022921959,-0.020318821,
                       0.088390395,-0.038044248,-0.095719725,-0.14210545,0.065141514,-0.022868931,-0.018625537,-0.13505195,-0.098824605,0.17405154,-0.018554006,-0.15978172,0.014438959,-0.1962269,0.025406145,0.105611846,0.0099648535,-0.009450987,0.13994929,0.14113793,0.115861125,0.08496348,0.03352673,0.1298846,0.15079199,0.12946318,-0.11888496,0.11462307,-0.16483705,-0.019334164,0.062544405,-0.13987982,0.19069505,
                       -0.071306,0.01857567,0.19525631,-0.20071478,-0.09335922,-0.061406776,-0.0135241505,-0.1073115,0.1052217,-0.052967504,0.025471643,0.10072641,-0.06755557,0.116851635,0.11011834,0.18678293,0.07028393,-0.027068045,-0.0028193593,0.08515751,-0.03725253,0.09836579,-0.13718265,0.14170638,0.0746238,-0.22340249,0.09262386,0.14315368,-0.20937909,0.08525152,0.19274539,0.19632456,
                       -0.15254372,0.056477334,0.010173038,-0.032493312,0.17066748,-0.050346512,-0.14799869,-0.15811355,-0.17729625,0.090953656,0.18353857,0.1155803,0.18060313,0.04223618,-0.026003003,-0.046384327,-0.09760072,-0.13321693,-0.16751586,-0.16393091,-0.009721134,0.0038374215,0.060042087,0.009020671,0.1417028,-0.23201093,-0.096059896,0.09746802,-0.2119473,-0.19560255,0.07085388,0.07154201,
                       0.055312593,0.17423983,0.00015992744,-0.07759181,0.17981316,0.09685533,0.10474046,-0.10612576,-0.12444833,-0.17478545,-0.19929747,-0.028541565,-0.1698281,0.14343524,0.065244466,-0.16930895,0.0058455765,-0.011058125,-0.21123204,-0.15688817,0.13215677,-0.1778113,0.19438906,-0.083124496,-0.17474651,-0.15738867,0.19772707,-0.009049669,-0.16448958,0.1297501,0.062844545}; 



float saved_biases[5] = {-0.0044941604,0.00062110974,0.0042466437,-0.0028409094,0.00010651881};