float saved_weights[640] = {
                       0.030960914,-0.16658427,-0.08094441,-0.062759094,0.15795134,-0.007824142,0.019374106,0.19137527,0.19394355,0.108546585,0.13201253,-0.11337918,0.096723,-0.018696254,-0.18791404,0.13495459,0.13104573,0.07631834,-0.022046305,-0.11004436,-0.024158921,0.05013299,0.14812627,0.10239552,0.06760155,-0.033909753,0.18821995,0.10900224,0.21784899,0.02417523,0.13981646,0.042530235,-0.14719798,
                       -0.014043592,-0.0045041707,-0.053338528,-0.019141812,-0.15001939,-0.18056627,0.14531592,-0.20705149,0.10063883,0.0950476,0.159916,0.033871602,-0.1710934,-0.07919459,-0.14667006,0.123840086,0.07318582,0.08644313,0.0884004,0.16093823,-0.037980676,-0.17994267,-0.08090825,0.1145075,0.12394749,-0.062903,-0.01880487,0.024840625,0.12645596,0.12029922,-0.16786808,0.11493957,
                       0.06316593,0.045141432,0.042779513,-0.10395872,-0.1666873,0.1513072,0.11034465,0.17903788,-0.03093911,0.19628774,-0.049428776,-0.096066184,0.0639991,-0.09306748,0.16929598,0.07950803,-0.15017937,0.099931516,-0.037237544,-0.025384737,-0.080846645,-0.17968377,0.011773964,0.11497724,0.14892001,-0.18107578,0.17926657,-0.046466146,-0.11663561,-0.14658818,0.10228537,0.057816323,
                       -0.006012468,-0.13710943,0.13511868,0.19320899,-0.12701464,-0.2226982,0.035662517,0.047092028,-0.19482633,-0.09546477,0.14591753,-0.17902008,0.07553506,-0.022488512,0.1599169,0.18687986,-0.09519544,0.12405951,-0.073732905,-0.20276283,0.07382741,-0.16788718,-0.14967795,0.113372855,-0.1347443,-0.14977813,0.030221863,-0.20519334,0.06395629,-0.0761903,-0.13602214,
                       -0.06272481,-0.12506858,-0.19875655,0.02686665,-0.040660955,0.072802275,-0.11639352,-0.12685339,0.1082218,-0.12990615,0.07705986,-0.12382139,-0.19133422,-0.09627043,0.11264672,0.17973295,-0.13305935,0.18911736,-0.111454815,-0.058741987,0.07472095,-0.044438712,-0.10741264,0.04128892,0.117918916,-0.12858446,-0.110448174,-0.0725274,0.09346878,-0.1712332,-0.09525063,-0.014304691,-0.08592684,
                       0.1178095,-0.13626459,0.10667244,0.014026631,0.07740422,-0.11886953,-0.11077677,0.16287088,0.030188354,-0.04436212,0.05434212,0.0954559,0.037336994,-0.1730171,-0.05218733,0.05693891,0.04118714,0.104777746,0.19857234,-0.17089747,-0.19416793,-0.063037045,0.06273572,0.019482117,0.0666707,0.11369626,-0.05930972,-0.023784356,0.0730337,0.14099859,0.19834986,-0.1653338,
                       0.19135435,0.1614072,0.04589902,-0.18078406,0.10105892,-0.11955527,-0.027509686,-0.022881132,-0.20259187,-0.03398314,-0.060768448,-0.12826087,-0.16069302,0.1549346,0.19703902,0.1342565,-0.17488024,-0.121300705,0.19530854,-0.09992975,0.21113515,0.061194144,0.09817875,-0.14520472,-0.14338136,0.015228069,0.07495464,0.11505735,0.030941239,-0.17717963,0.19846472,0.18102428,
                       -0.106742,-0.10967024,0.20669807,-0.023838453,-0.081019975,-0.1357235,-0.093677334,-0.14722238,-0.16905457,-0.025741892,-0.1527335,-0.09524446,-0.114106566,-0.024142398,-0.12194047,0.15160038,-0.058864467,0.18111372,0.0971054,0.13236775,0.17355765,0.08453994,-0.12075808,0.17802626,0.115779676,0.06706639,0.18654531,-0.02680925,-0.17704464,-0.11478127,0.07269828,
                       0.14334878,0.19019917,-0.06170866,0.083920434,-0.051047232,-0.123933114,0.08514293,-0.002171604,0.21722324,0.14230639,-0.15102705,0.20684129,0.07130709,0.10541826,0.116377585,-0.08356295,0.044298574,0.00064421893,0.19682989,0.021484716,0.031138474,0.013800273,-0.15970452,-0.19159894,0.10155844,0.053692043,0.04263712,-0.05424627,-0.07109186,0.13132086,-0.017515153,-0.18031627,0.20011878,
                       -0.035239365,-0.17826782,-0.057130106,-0.09468272,-0.024143614,0.16620514,-0.10773978,0.19006397,-0.11760851,0.034710288,0.12997343,-0.14714243,0.02437747,0.13767618,-0.110799186,-0.0381377,0.14937975,0.047694735,0.061302166,0.11568058,0.13601811,0.066291176,-0.10999889,0.20517257,-0.18694556,-0.11628009,-0.04613862,-0.08462576,0.08303046,-0.15324543,-0.10962752,-0.029574016,
                       0.11060254,0.02379669,0.14523862,0.033362824,0.13090242,-0.13437824,-0.085865475,0.10572228,0.05399129,-0.14932516,-0.12826274,-0.018295508,-0.013957538,-0.16215785,-0.023082115,-0.19992924,0.01627785,0.15426204,-0.12911753,-0.0018986386,-0.18413337,0.033235677,0.1407223,-0.020348981,0.040109824,0.14926809,-0.16247715,-0.12681481,-0.18223773,0.13456693,0.19345038,-0.19258802,
                       0.051632706,0.018910747,0.084852256,-0.15330233,0.15975945,0.18400778,-0.21487032,-0.14117824,0.05042195,-0.11713024,0.056906916,0.13883778,0.19955446,-0.18824576,-0.10242569,-0.035001628,0.10703826,0.009253903,0.028279657,-0.0395308,0.19950883,-0.10229022,0.012731878,0.09965552,0.20403418,-0.1343541,0.051047124,-0.1432626,0.085117824,-0.10171883,-0.09668654,
                       -0.16105364,-0.117722556,-0.05985414,0.076184064,0.05625087,-0.12798871,-0.17274113,-0.082653716,-0.09698177,-0.1945542,-0.009139699,0.0967479,-0.06702232,-0.08029572,-0.14921997,-0.059139844,-0.032700315,0.07983765,-0.16469817,-0.1393781,0.15363519,0.09447916,0.17242937,-0.103891976,0.050286166,0.046991087,-0.15692124,-0.15414278,-0.07687051,-0.04370329,-0.17586839,0.035795417,0.04054222,
                       -0.18911417,0.012912501,0.1785562,0.099221446,-0.18891256,0.04222009,-0.02288497,0.09087467,-0.12712324,-0.034933038,0.104292616,-0.13372798,0.11637254,-0.11924887,-0.036048993,0.12211866,0.07436739,-0.00918168,0.16153404,-0.10519625,-0.1820271,0.1816539,-0.06322942,0.013919804,0.17976832,-0.091100946,-0.06214378,0.09453593,-0.07786072,-0.10666672,0.20146891,-0.17014788,
                       -0.15197593,0.093223915,-0.024355795,-0.14503066,-0.19825278,-0.14460911,0.11724106,0.09286559,0.1841012,0.18198831,-0.08511414,0.1184027,0.19879629,-0.19960226,0.069832996,0.12851332,0.16279425,0.1554522,-0.099211656,-0.040086105,-0.028773503,0.20021059,-0.017798873,-0.15873618,-0.0028465446,0.15903695,-0.028791208,-0.04359737,-0.017645767,0.019297417,0.1255723,0.018119851,
                       0.031249397,-0.15267509,0.08481811,0.07590929,-0.10688123,-0.13375317,0.061133064,-0.135592,0.16250677,-0.14344423,0.054490764,0.1466047,0.06524678,0.07054389,0.094333455,0.100683406,0.026127823,0.13912262,0.12638381,0.027794674,-0.038948808,-0.011796461,0.14842667,0.13537109,-0.13200772,-0.09764041,-0.038663562,0.111956015,-0.06967725,-0.13879551,-0.09314577,
                       -0.06353109,-0.0025313138,0.118909,0.16364206,0.037867565,0.12585469,-0.08418936,0.0011224893,-0.0508089,0.018144777,0.09608297,0.21360235,-0.19113459,-0.07385871,-0.14188774,0.15001105,0.089544825,0.14216457,0.1687678,0.13889001,0.17495517,0.011012654,0.09274058,0.0009774718,-0.10191058,0.019343587,0.051474553,-0.01707136,0.048319504,-0.14344743,-0.16227897,-0.064087175,-0.18792169,
                       -0.099612474,-0.17489834,0.004935095,-0.13787124,0.09534148,0.07276865,-0.03633173,0.19458304,-0.015117101,0.033032373,-0.09536131,-0.11742453,0.08588632,-0.028901964,0.038662087,-0.059790928,-0.20006394,0.09734435,0.040849548,-0.033372182,-0.0018424882,0.110688016,-0.17263941,0.12130898,0.18966573,-0.1983281,-0.1713935,0.069445446,-0.098113686,0.0010504167,-0.0620213,0.09771112,
                       0.11787439,0.110452965,0.022742651,0.19389981,-0.06778379,-0.20026399,0.14715832,-0.14228249,-0.16406639,0.01806164,-0.1798604,0.12683864,-0.01129191,-0.19073679,-0.07024768,0.1297731,-0.06018049,-0.024161005,-0.07715198,-0.013435306,0.010713183,0.1023208,0.052436393,0.114586055,-0.14360377,0.15828197,-0.20556554,-0.14284103,0.102661364,-0.11191454,0.051952712,-0.056420397,
                       -0.13677402,0.0836232,0.042312667,0.15365481,-0.16276738,-0.21064697,0.052211717,-0.15124044,-0.115838364,0.05260959,0.13126068,0.18552937,-0.13048007,-0.066142984,0.16198474,0.055911563,0.069588445,-0.07244052,-0.00903667,0.021934757,-0.20042074,0.1434814,0.094168395,0.13449818,-0.0089862505,0.17779917,0.020437833,-0.12467513,0.15165718,-0.051958285,-0.07869672}; 



float saved_biases[5] = {-0.003978684,0.0021951527,0.00482084,0.0004431524,-0.0026686073};