float saved_weights[640] = {
                       -0.03527423,-0.1651666,0.21093091,-0.058398273,-0.14278832,0.09743049,-0.1177474,0.019693052,0.004870356,0.1962479,-0.1123676,0.050853226,0.20989373,0.14137009,0.12939431,0.044180226,-0.11292886,0.16388606,-0.091985814,-0.032308195,0.106020525,-0.12364654,0.14378604,-0.13550766,0.05908947,-0.1511689,0.011654791,-0.02795983,-0.097234435,-0.060717124,-0.03605511,0.063122265,-0.17974962,
                       0.08954881,0.021248637,0.011207743,0.031674523,-0.04076132,0.14116144,0.17062685,-0.17791314,-0.17816629,-0.050079547,-0.14817658,0.12032845,-0.023342306,-0.04168153,0.043984532,0.0537805,0.12091878,-0.17348124,-0.1880163,0.19848825,-0.032944962,0.19006716,0.053022306,-0.017685717,-0.054538622,-0.115660846,-0.06905593,0.09287754,-0.03953871,0.031505436,-0.11151134,-0.12370889,
                       -0.16897614,-0.13613129,0.05036016,0.17209266,0.022150781,0.10831462,0.006010444,-0.11230563,0.05177641,0.12710983,-0.047056682,0.046013962,0.0932294,0.1669866,0.21098025,0.19466622,-0.08351732,0.0733506,-0.09393642,-0.21799554,-0.02311009,0.10599562,-0.14013681,-0.07314631,-0.09848526,0.105406635,0.17252229,-0.08170611,0.11688029,0.17795326,0.0043624304,0.20423494,
                       0.03218818,0.17391385,-0.20149747,0.00704079,0.05873843,0.0713606,-0.20078412,0.06323892,0.10948005,-0.035109457,-0.01513007,0.20684542,-0.17516541,0.19395815,0.007781318,0.07933509,0.1283817,-0.17997587,0.01464446,-0.16911606,0.1055137,0.0980079,-0.066889,0.12064076,-0.21639697,-0.20709667,-0.15173823,0.088444285,0.16794682,-0.12381425,0.044832487,
                       -0.1852931,0.08489378,-0.17579998,0.15811965,0.025734,-0.13711815,-0.17838442,0.12546948,-0.14942646,0.1723042,0.13146897,0.085250445,-0.13310863,-0.14275578,-0.14850038,-0.18742204,0.038054727,-0.07659527,-0.0771779,-0.19061993,0.1914556,0.08355183,-0.12483497,-0.06670307,-0.08317386,0.119661935,-0.13849777,-0.07742913,0.016606746,-0.11071829,0.0312136,0.098136626,-0.020071998,
                       -0.1432108,0.11012266,-0.17032798,-0.071427196,0.038565744,-0.021145245,0.012806612,-0.15357399,0.15952171,0.09828693,-0.097392194,0.034476742,-0.18536755,0.09413381,-0.1983783,-0.038290426,0.015793193,0.072882846,0.14863694,0.111923896,0.047973994,-0.16237901,0.20587343,0.044930797,-0.19713889,-0.115350045,0.009615129,0.093381464,-0.070236884,0.089982025,-0.07018946,0.035881568,
                       -0.17180428,0.13153078,-0.009122381,0.043138057,0.14893544,0.14335331,-0.09846284,0.10339222,0.18505563,-0.17029326,0.07960913,-0.13054898,0.17734797,0.109574,0.056740995,0.16498624,0.018751374,0.21451923,0.18869548,0.18210837,0.11989022,0.20237854,0.090336114,-0.065495916,-0.103407316,-0.019987902,0.03005771,0.0008319069,0.087211795,0.08243696,-0.0155496,0.098242745,
                       -0.20367429,0.017798865,0.07974481,-0.09012472,0.023310961,0.15057105,0.06125429,0.14023499,-0.07773316,-0.18079893,0.025945567,0.1388046,-0.1943455,0.023337504,-0.020557338,-0.09926307,0.14941674,0.02077949,0.13680857,0.019256353,0.002238328,-0.011118927,-0.045166567,-0.16380636,-0.11268907,0.07227594,0.10300615,-0.021890813,-0.08443427,-0.15773964,-0.14653395,
                       -0.05564289,-0.16089524,-0.06949279,-0.17649268,-0.016730243,0.16740023,-0.108451545,-0.19064918,-0.13570447,-0.1843,-0.043502774,0.05531997,-0.14923716,-0.18935445,-0.14263068,-0.17598578,-0.14818394,0.122404665,-0.061740424,0.046435796,-0.11685107,-0.02274887,0.004914618,0.18838777,0.17734115,-0.11202969,-0.20030156,-0.09432002,0.12489759,-0.15343364,-0.20589083,-0.074840195,0.18972509,
                       -0.05221249,0.04570852,0.11412454,0.11442307,-0.022176636,0.010255318,-0.18464446,0.15329511,-0.1850829,-0.078759596,-0.16988726,0.12066137,0.08730761,-0.08869528,0.071749695,0.04006665,0.13727996,-0.20146345,0.054603532,0.098426595,0.1883922,0.018772287,-0.2025241,-0.042665213,-0.12854443,0.12680426,0.054158103,-0.022267288,-0.018014427,0.05333891,-0.047677875,0.04369094,
                       -0.09720756,-0.12959445,-0.04845463,0.18926904,-0.14960527,0.11409112,0.13475604,0.097379066,0.18895878,-0.12177315,-0.022169888,0.048600066,-0.034161042,-0.117870286,-0.09982521,0.004954094,-0.096901655,-0.10422748,-0.1295426,-0.17573237,0.14699918,0.09496467,-0.11136396,-0.027568713,0.09044566,-0.100574926,-0.17879999,-0.16179328,0.009762191,-0.011145253,-0.19071038,-0.12982976,
                       0.062194847,-0.11986951,-0.085302494,-0.013636607,-0.10840115,-0.053239252,0.09907899,0.15684605,-0.0936184,-0.025393946,-0.07206476,0.19334346,-0.14561793,-0.14131212,-0.14120929,-0.17713274,0.03941676,0.027807342,0.20786148,-0.07060372,0.13459946,0.03176696,-0.13622215,-0.19782937,-0.009675482,0.077372596,0.1906079,0.15953855,0.00859392,-0.07430012,-0.084020615,
                       -0.02051606,-0.09071086,-0.09181417,-0.09194431,-0.12948637,-0.053973436,0.028356694,0.052006535,0.00959936,0.19876413,0.13003892,-0.09636453,0.11689548,0.19921921,-0.053843785,-0.16134554,0.16651765,0.060281154,-0.010180601,0.18493132,0.08838921,-0.17936186,0.14951216,0.13178746,-0.12332957,0.08431034,0.19440186,0.19576645,0.18089345,0.137802,0.034512345,0.08597824,-0.014890969,
                       0.037084214,-0.025649892,0.11948303,0.03356292,0.022817776,-0.06778575,-0.17005667,0.15019621,-0.12917903,0.13995713,0.18034123,-0.1136641,-0.13312906,0.0997897,0.03498298,0.06489478,0.15618306,0.0034146146,-0.017751172,0.14127937,0.012759272,-0.054678876,0.011296677,-0.17599243,0.13167836,0.03679427,0.05850861,0.19113332,0.008030895,-0.02259866,-0.13987367,0.1572141,
                       0.18946223,0.19575657,0.09387604,-0.18500051,-0.0016786495,-0.018648459,-0.1583215,0.10346085,0.039194435,0.16045924,0.08331927,-0.12133989,0.20443058,-0.015116682,-0.104699954,-0.15673533,0.16324194,-0.10809522,0.1889919,-0.18078427,0.08902913,-0.09760846,-0.021086758,-0.07104121,0.16853851,-0.13005847,0.0053039156,-0.20287366,0.027804019,-0.18908505,-0.089601696,-0.09832903,
                       -0.007636238,0.14574973,0.14919098,0.17985938,0.16287412,-0.19523229,-0.16858234,-0.21224934,0.171381,0.011091566,-0.05363332,-0.050519735,-0.17191935,0.053468924,-0.13897553,-0.20823099,-0.11356246,0.107663676,-0.052896768,0.1753352,-0.19607167,0.12566264,-0.16695873,0.10807432,0.058984622,0.14440969,0.1502231,-0.02769985,0.08260917,-0.02320808,0.04143341,
                       -0.04950614,-0.2172731,-0.13380645,0.11134909,-0.071276434,-0.12708552,-0.09159371,0.04578439,0.19537699,-0.07130397,0.1118358,-0.12471596,0.05197102,0.07942984,-0.14550824,0.12231805,0.18039072,0.08151494,0.0648674,-0.18139966,-0.2107542,0.07872065,0.008284388,-0.03663332,-0.10299798,-0.17846987,-0.10730193,0.04176438,0.16678278,0.16826493,0.106456906,-0.1868316,-0.05827917,
                       0.18125273,-0.19236472,0.044034783,-0.11741526,0.1612321,0.0024044972,-0.15485093,0.08637911,-0.2311756,-0.1861167,-0.12807123,-0.02048951,-0.19049361,-0.16863206,-0.17666441,-0.15289523,0.0050691995,0.1295448,0.041139938,0.037233867,-0.08714101,-0.19020618,-0.1301291,0.12155566,0.12779318,0.17232776,0.100093625,-0.038307466,-0.054926854,0.1644843,0.116545916,-0.06785276,
                       -0.17892805,0.18753757,0.14189191,0.18234277,-0.03921086,0.14211164,0.07247642,0.1959592,-0.03389383,-0.12667455,0.0026621046,0.008510208,-0.16927159,-0.23114853,0.1662341,-0.1000009,-0.13104787,0.12331688,-0.101849146,0.08638094,0.01228484,0.1788959,0.04062043,-0.06664418,-0.12976983,-0.1626238,0.015323986,-0.18082014,0.15015796,-0.0843458,0.13476694,-0.035455592,
                       -0.058741543,-0.21154097,0.0007373949,0.024207678,0.06937675,0.040709514,0.15650009,0.13138163,0.1565798,-0.112707354,0.10415747,-0.07797728,0.14664274,0.0406184,-0.06894175,-0.18778071,-0.12719175,0.10661355,-0.18655479,-0.09653426,0.19580743,0.06951715,-0.119401656,0.0450549,0.10811852,0.11993552,-0.013104636,0.08632775,0.11565423,-0.077534914,-0.17410804}; 



float saved_biases[5] = {-0.0027720574,-0.00016165915,0.01033222,-0.0026555862,0.0029960359};