float saved_weights[640] = {
                       0.09812707,0.1682494,0.015884012,0.13591425,0.13914941,0.019622622,-0.1847279,0.05625593,-0.101752505,0.19832855,0.19118322,-0.17051303,-0.02249244,-0.17432794,-0.047558654,0.17000659,0.18411814,-0.014893615,-0.023696024,-0.16101313,-0.03727335,-0.14634497,-0.1330859,-0.0008516999,-0.17407751,-0.18698326,0.18961556,-0.12801924,0.1398032,0.16433917,-0.106649816,0.143572,-0.05952007,
                       -0.12466072,0.12809378,0.14036502,-0.111349665,-0.18949085,-0.07302727,-0.10193798,-0.11446812,0.10658092,-0.1554945,-0.19448553,0.049283408,-0.029316228,-0.16783541,-0.20235349,0.16258825,-0.0149782235,0.17179388,-0.13567646,-0.01256907,0.11880866,0.019737102,-0.13489711,-0.1358859,-0.08378776,-0.08920621,-0.0010337058,0.18436676,-0.033657506,0.048604462,-0.08758672,0.010509324,
                       0.13633783,0.01656476,-0.19993675,-0.07989895,0.06801626,0.032821976,0.1046078,-0.10840958,-0.15410447,-0.1404011,0.040530123,-0.19665866,0.028667105,-0.028146343,0.07591441,-0.056393124,0.13137408,-0.042753007,-0.086513765,-0.071207345,0.017516315,0.060904536,-0.14871006,-0.02330487,-0.15995564,0.046747103,0.1611023,0.16067052,-0.013573748,0.13734843,-0.014462706,0.15054256,
                       0.14119855,-0.10397002,-0.1984297,0.12918557,0.13128382,-0.016607301,0.11285102,-0.20066161,0.19636957,0.13070379,-0.062808335,0.09418977,0.020982781,-0.05125007,0.14929695,-0.0053197294,-0.018682707,-0.1293642,0.1564089,-0.049833465,0.0021672128,0.124062,0.03032864,0.1147283,0.044760134,-0.17768973,-0.19788876,-0.1833918,-0.051103044,-0.20471922,-0.17157547,
                       -0.0071665123,0.05447281,-0.12444828,0.052712448,0.102453336,0.20996734,-0.044716496,-0.1551937,0.034540605,0.10277256,-0.027347768,0.17116556,-0.026610428,-0.058352035,-0.109742165,0.0776853,-0.18305713,-0.039235737,0.1884964,-0.08091206,0.112526014,0.11700762,0.21194443,0.19313705,0.05719015,-0.113443464,-0.0034688306,-0.025025394,-0.08226051,-0.19710366,-0.12164645,0.1810008,0.0006287119,
                       -0.033224,0.12348584,0.0957037,0.17997602,-0.16038837,-0.1298967,0.019470869,0.0053748954,-0.07289571,0.087732784,0.09066525,-0.06902356,0.1304466,-0.14629363,-0.019174976,-0.11515,-0.09605253,-0.06498674,-0.15171316,-0.17379057,0.182465,0.068625644,0.22469296,-0.097344644,0.0051466315,0.087491736,0.029763598,-0.049252406,0.09248154,0.1055921,0.1649547,0.12380287,
                       -0.06335632,0.029001428,0.173404,0.20785104,-0.026683621,-0.1858069,-0.010825245,-0.15029435,-0.09085994,0.013624029,0.12941143,0.10472224,0.00966853,0.12366684,-0.21383153,-0.10669974,0.14458205,0.07415685,0.0068346397,-0.07537746,-0.20683943,0.13658507,0.14848852,-0.0680937,0.026892545,0.11807831,0.044964388,0.13624063,0.1535964,-0.08163115,-0.14357816,-0.18130949,
                       -0.040693168,-0.19340602,-0.15676925,0.16905482,-0.012561613,-0.093874365,0.16661328,0.18195345,-0.18298179,-0.09912292,-0.18160565,0.165219,0.06280149,0.08573601,0.022968395,-0.17461284,-0.12522821,0.047052745,-0.16020687,-0.11487309,-0.059008002,-0.070027515,0.18080051,-0.11974345,0.09064573,0.05838706,0.0065421737,0.037202496,-0.13328095,0.14854005,-0.14252451,
                       0.13787992,-0.026622733,0.0027823448,0.13755801,-0.081089616,-0.012777486,-0.13181476,0.12568595,-0.17225322,-0.07887758,-0.09236777,-0.16731,-0.020213185,-0.146307,-0.20695911,0.20686853,-0.15371796,-0.09602148,-0.030517936,-0.20806585,0.15453961,-0.12697947,-0.12828049,0.17910929,0.033447817,-0.10817181,0.033066906,0.15557879,0.17149547,-0.09422807,0.08761637,-0.014665462,-0.07426855,
                       -0.13199624,0.16349578,0.06072693,0.16722496,-0.02909287,0.13719778,-0.1630187,-0.13953304,-0.16111168,-0.0686994,-0.12621225,-0.12666437,0.17996553,0.18734387,-0.17469364,0.15062734,-0.05560722,0.013274425,0.028484276,0.09433031,0.02770512,-0.16024248,0.0813722,0.09195651,0.17426947,0.15850137,-0.20383349,0.12843505,0.15718871,0.17005287,-0.09267488,-0.1586971,
                       0.017052166,-0.00088959397,-0.18892403,0.07967766,0.08189754,0.13760786,-0.21041888,0.15279543,-0.13291092,-0.19465986,0.067253254,0.09649472,0.036840748,-0.07566494,-0.07995255,0.19698586,-0.023444671,-0.101552464,0.09191803,-0.18906562,-0.07011815,-0.08859192,0.1997751,-0.12194425,0.025992861,-0.017035427,-0.03968998,0.03398263,0.12335933,-0.18195431,-0.08543278,-0.029641014,
                       0.11382307,-0.13480844,0.1593689,0.11316311,0.016689295,-0.13738222,0.062307104,0.07075225,-0.041390706,0.08190925,-0.018374871,0.07081304,0.16301191,0.12541842,-0.0031917274,-0.19975963,0.030944405,0.09894336,0.14313534,-0.03554572,0.20817502,0.13713935,0.020415924,-0.12872908,-0.058388904,0.14115086,-0.09909854,0.029134767,0.087966,0.123815805,0.107366085,
                       0.0579021,-0.14808819,0.06327295,0.07984129,-0.06194133,0.176314,-0.1753933,0.059765983,0.027049225,0.1803253,-0.10281244,-0.033185165,0.062385257,0.06744863,0.08023802,0.10912718,-0.19160075,0.008545197,-0.16250092,-0.20206901,-0.14552462,-0.057925127,-0.16173048,0.11746181,-0.047409657,0.20766953,-0.075013615,0.08469108,0.054600924,0.14831287,-0.08186804,0.19276015,-0.034250516,
                       0.19911951,-0.009490882,0.15084508,0.040453203,0.14938131,-0.0036265384,-0.086298846,0.040347826,0.19022836,0.08850544,0.10950588,0.1229232,-0.018288428,0.09451475,-0.021847518,0.109509654,0.11845777,-0.1037055,0.1289618,-0.19174775,0.09719564,0.13751061,-0.0067262542,0.20869046,0.028443867,0.11681703,-0.097343504,-0.076423265,0.12997085,-0.10578818,-0.1276015,-0.18852855,
                       -0.106238075,-0.08820652,-0.024202734,-0.19813345,-0.11489783,-0.20443355,0.19630222,0.18475667,0.059678968,-0.165171,-0.042050466,0.18867718,-0.12776844,-0.16152072,0.084597714,0.19109017,-0.15053289,-0.0001244247,0.19834092,0.030737057,-0.051672194,-0.03155526,0.17769903,-0.10845142,0.11512449,-0.11240434,-0.10191677,-0.0638142,0.11556108,-0.16456553,-0.10267989,0.016540164,
                       0.118645474,-0.025446886,0.12598611,-0.007972735,-0.15091357,-0.13493738,0.20498379,-0.20891061,-0.19392852,0.10178414,-0.04447377,-0.16728345,0.026331233,-0.10400074,-0.13158616,0.0694325,0.18719606,-0.03907288,0.1386711,-0.1300592,0.15353438,0.19502833,-0.1593561,0.09936098,0.1436091,-0.10959153,0.15988843,0.035255603,0.04678553,0.06184699,-0.19193584,
                       0.1659203,-0.20654465,0.19501334,-0.15021649,-0.20423044,-0.08400525,-0.044878554,0.029701127,0.15522747,-0.10667168,0.13706715,0.05558427,-0.12539512,0.05409796,-0.17456086,-0.074804164,-0.06620427,0.109867975,0.07746895,-0.21318732,-0.09302653,0.0061675115,-0.11136727,0.15209639,0.059152815,0.123885326,-0.059449874,-0.19366962,-0.20311597,-0.01715269,-0.1921012,-0.10208798,-0.07835033,
                       0.20581739,-0.08686498,0.042313695,0.19375789,-0.046939936,0.008805659,0.1577887,0.07322372,-0.15859994,0.16162884,0.12383138,-0.03701243,-0.046471197,-0.16466865,0.11898855,-0.17266522,-0.09884578,-0.034522805,0.048920244,-0.12076172,-0.006751963,0.13279325,-0.16154656,-0.18046305,0.025842523,0.117220454,0.10487623,0.09892354,-0.0689639,0.1257756,0.0024146028,-0.13418135,
                       0.07391374,0.026018472,0.066082805,0.013544942,0.044579566,-0.14324732,-0.056628875,0.026058702,0.02859081,-0.15300854,0.048795503,0.08441551,0.124962024,-0.060331915,-0.18835843,-0.051358417,-0.14662598,0.19017929,0.17505896,0.10960032,0.14538343,0.0018991403,0.023354191,0.024467837,0.09545425,0.061535053,-0.121698,-0.040659226,-0.07898878,-0.17484374,-0.064756915,-0.09749049,
                       0.09264431,-0.17866524,-0.13610065,0.19905007,-0.17592202,-0.18147118,-0.052783564,0.11632309,0.16075817,-0.096302144,0.14480938,0.055562794,0.1995808,-0.16822466,0.072062835,0.03831622,0.18578407,0.15568024,-0.15043022,0.13737117,0.033331342,-0.20475867,0.18842714,0.09303541,-0.1099116,-0.039033346,0.1840619,0.09733208,0.029357905,0.14093538,-0.02008006}; 



float saved_biases[5] = {0.0011145113,-0.00022164566,0.0010976973,0.002845119,-0.0031753392};