float saved_weights[640] = {
                       0.2173465,-0.13187452,-0.19230735,-0.2106976,-0.15241714,0.18623723,-0.15979558,-0.15092777,-0.18212147,-0.1153362,-0.030179963,-0.092676155,-0.114326306,0.21813226,0.035732094,0.19379535,-0.09681233,0.01631956,0.061796673,-0.1768289,0.021110348,0.13461238,0.088670634,0.0274194,-0.1750696,0.058357246,-0.02807211,0.06831172,0.079028755,-0.039213814,-0.013406209,0.13909802,-0.107139654,
                       0.16857986,-0.008916249,-0.19503608,0.11480251,-0.13321306,-0.19725078,0.08684261,-0.16499767,-0.09821099,0.1102565,0.05812113,-0.019890219,-0.09685101,-0.00671628,-0.08820186,-0.12409987,-0.021686,-0.16879675,-0.09029442,-0.046547614,0.062123843,0.21379922,0.017808104,0.07035778,0.069398664,0.0364975,0.13147475,-0.07987403,-0.04534085,0.046043795,0.13092606,0.13400711,
                       0.14990208,0.08128588,0.05524558,-0.049690012,-0.14874415,-0.10128498,0.13831536,-0.16486466,0.12446483,0.012143427,-0.020423478,-0.013364206,0.13610941,-0.115728766,0.13684607,-0.054787304,0.118295304,0.18864216,-0.16252626,0.21569735,0.16800994,-0.12301688,-0.023598112,0.09659344,-0.13673164,0.07626547,-0.13694003,0.109124675,-0.072417945,-0.023772718,-0.18377933,-0.19141635,
                       0.19954422,-0.02961193,-0.032592256,-0.16241726,0.14010978,-0.19699198,-0.14631502,-0.13234067,-0.06624728,-0.14418034,-0.18336053,-0.1187336,-0.19296917,-0.15127605,-0.16540878,-0.019376663,-0.09782772,0.14125869,0.07633023,-0.18096578,-0.18231538,0.0039512473,-0.07721194,0.1936074,-0.19242267,-0.071046196,0.14499676,0.084186815,0.15511048,0.22156678,0.05642529,
                       -0.0879287,0.05553636,0.122119114,0.10274697,0.159103,-0.096981406,-0.05960067,0.07849639,0.01611875,-0.14224799,0.1124127,-0.17316516,-0.100256085,0.18262123,-0.01580981,-0.112132505,0.07171648,0.08846206,0.20157605,-0.10138901,0.07674296,0.00842855,0.066115774,0.06555018,-0.10207001,-0.13730155,0.120681524,-0.07341734,-0.16538192,0.17874834,-0.054853167,-0.14826253,-0.02791535,
                       0.047492817,-0.14932466,-0.09174588,0.104815446,-0.09896818,-0.12422905,0.16991234,-0.14331427,-0.11922421,0.02959305,0.11372182,0.14862072,-0.010353353,0.051330913,0.013297009,0.18064627,0.047282502,0.13611725,-0.17449604,-0.10192272,-0.19949645,-0.11299765,0.14780861,-0.02427812,0.09847892,0.01542078,0.027268566,0.15316717,-0.13832904,-0.15995178,-0.06331576,-0.14863293,
                       0.17572209,0.14784905,-0.15730245,-0.032235254,-0.1869409,-0.11694383,-0.006271085,0.11929583,0.09468481,0.20808959,0.12986276,-0.031294618,0.19129607,-0.03574035,0.12688348,0.1747125,0.07887054,0.09120188,-0.1112198,0.15913934,-0.14945325,0.22862181,0.051770635,0.096111454,0.14932252,-0.028953793,0.07222508,0.14701554,0.044686403,-0.138536,-0.04422199,0.0618878,
                       0.08582264,-0.009053027,-0.19317418,0.085400246,0.052753642,-0.020561025,-0.19110657,0.09188148,-0.04146833,-0.054002926,-0.075017944,-0.1711476,0.03168815,-0.1798168,0.06248314,0.10726903,-0.014709612,0.07943702,0.007228473,0.16310269,0.057643224,-0.06489113,-0.09934276,-0.12049169,-0.06935467,0.10897402,0.013258924,-0.09222209,0.14478597,-0.18499574,0.05241417,
                       0.16918093,0.0039728633,-0.056961667,-0.16068931,0.05363978,0.04522125,0.07272464,-0.14370488,-0.19669469,-0.16436988,-0.17737462,-0.054456696,0.083996184,0.12414449,0.10656777,0.1106981,0.06707176,-0.08408445,-0.10296114,-0.018972794,0.16998214,0.13234742,-0.09131741,-0.07774502,0.014259016,0.08305673,0.1350738,-0.018111227,0.19544575,0.06866554,0.108688205,-0.0049597314,-0.08997875,
                       -0.0907246,0.054548495,0.11813216,0.08472681,0.18811953,0.04258969,-0.09159318,0.1423815,-0.08702082,0.16563405,0.011719421,-0.027463533,-0.112340465,-0.05603425,0.03015392,-0.1646852,-0.033356212,-0.09026017,-0.033157352,-0.19940686,-0.11036592,-0.18118094,-0.07798123,0.039486323,-0.18379675,0.05802574,-0.17162985,-0.13034502,0.14319263,0.10033447,0.018373614,0.0023237704,
                       -0.16218875,0.11149165,-0.1946288,0.066195846,0.1715438,0.0034165003,-0.16492794,0.1629174,0.076803885,0.075535454,-0.13474557,0.16778265,-0.13154967,-0.14775649,-0.017391019,0.13787681,-0.016068134,0.08711316,0.13325194,0.14355813,-0.20437968,0.07347506,-0.1721962,-0.14484197,0.110778004,0.048596084,-0.18812811,0.08682304,-0.06655092,-0.006921191,-0.03817187,0.0022509415,
                       0.00582398,-0.017076835,-0.08524448,0.16823137,-0.14957722,-0.17620365,-0.16841885,-0.16299723,-0.15384796,-0.060828436,-0.2308316,-0.11188424,0.14240423,-0.18684466,0.08909552,0.13854015,0.13424867,-0.07924624,0.1720523,0.014489134,0.11840097,0.11063713,0.079785764,-0.18869382,0.1501688,0.18006174,-0.09246871,-0.0027043847,-0.1357247,-0.11940333,0.13946794,
                       0.12465921,-0.13094285,-0.10476377,-0.07787156,-0.03134684,0.17043854,-0.20503157,-0.12663092,-0.10903942,0.13676234,0.19534887,0.18420602,0.065352716,-0.1809307,-0.12982926,-0.16283092,0.15875922,-0.038707614,0.04607568,0.17232078,0.042008206,-0.07452791,0.014634853,-0.089446954,0.16224469,-0.0767686,0.08634293,0.17919602,-0.042199206,0.088530615,-0.1527344,-0.045865186,-0.06824734,
                       -0.21188484,-0.05971942,0.15149482,-0.012340164,0.056207262,0.03583396,0.116975576,-0.04154999,-0.15061843,-0.07259076,-0.06617487,-0.0069447677,-0.09815921,-0.07767222,-0.16050436,0.19038059,0.06293451,-0.2043328,0.15626158,-0.029246598,-0.11444071,-0.13949162,-0.1533934,0.011857118,0.06400127,0.19064198,-0.06839641,-0.11372083,0.086602405,-0.1583698,0.083038636,-0.17163925,
                       0.07995551,-0.16332163,0.028206645,0.047601506,0.06941874,0.02699901,-0.10310634,0.05852871,-0.18709585,0.20160908,-0.099274725,-0.1879242,-0.16895775,-0.04758208,0.13801426,-0.07343911,0.022758394,-0.10559074,0.041829526,-0.14995253,0.14881952,-0.13605282,0.077736735,0.10743687,-0.08082359,0.103149705,-0.05762425,-0.031763837,-0.12859239,-0.014404771,0.03206664,-0.03333288,
                       0.17905688,0.15558875,0.14771774,0.11525702,0.12123021,-0.054179583,-0.16681767,-0.044492938,0.15639026,0.059635162,-0.01860276,-0.16079597,-0.0683042,0.0835244,-0.12241563,0.0757023,-0.12146624,0.16872022,0.12859371,-0.20407416,-0.064595826,-0.12916437,-0.0842124,-0.10235009,-0.13997994,-0.12494045,-0.00026768446,-0.17701392,0.084106036,0.022794496,-0.11758342,
                       0.07736337,0.1520128,0.16710387,-0.023048852,0.14201231,0.028752161,-0.11082423,-0.1711349,0.09646754,0.17690413,-0.10622,-0.18256038,0.08906195,-0.02291994,-0.17888777,-0.14097854,-0.07211119,0.1870107,0.1443374,-0.11764937,0.12674056,0.048881315,-0.17039968,0.17386648,-0.062114015,0.1684122,0.035378966,-0.08046153,0.11163381,0.06988312,0.12066701,0.021646887,0.0057684453,
                       -0.12043167,-0.13387395,0.039193287,0.19442707,0.19616653,-0.0016179163,-0.00832987,0.11669976,0.008915643,0.11778471,-0.1328109,0.117727205,0.05496098,-0.21132249,0.0345812,0.035558183,0.076652445,-0.14746834,-0.18304919,-0.18339434,0.19865379,0.15316841,0.16219766,-0.046170358,-0.04979612,-0.091473535,0.1626222,-0.09468672,0.14927036,0.09026573,0.17189735,0.13387077,
                       0.138718,0.021685341,0.1217032,0.08817066,-0.1231672,0.15427329,-0.14700982,-0.11451031,-0.07513663,-0.19175728,-0.19283877,0.027030868,-0.020014713,0.14366159,0.06568261,0.15985483,0.18041094,0.07601616,0.01966186,-0.057774656,0.018358374,0.1619742,-0.07385046,0.027386919,0.07248223,0.17653461,0.10216,0.029849641,-0.11925836,0.055238403,0.16504665,-0.0485516,
                       -0.14774412,0.15662654,-0.1118291,0.14437355,0.056667503,-0.18494706,0.124274194,-0.20881738,-0.0032907235,0.1796641,-0.16483396,-0.012624349,-0.19179216,0.045908846,-0.02178738,-0.12505776,-0.15454644,0.047949836,0.019091154,-0.15003978,-0.17804256,0.1638356,0.023172721,0.101124145,-0.05907705,-0.19037186,-0.20615116,0.15011242,-0.21789517,0.087246954,-0.15588267}; 



float saved_biases[5] = {0.0029387856,-0.0051930137,0.0035867412,0.00058905326,-0.0005686195};