float saved_weights[640] = {
                       -0.16797458,0.09340061,-0.12994279,0.08135014,0.05181012,-0.15629308,0.0974269,-0.09650051,0.02936678,0.027499255,-0.08022589,0.08050191,0.038602173,0.06409207,-0.036541324,0.09062052,0.032804806,0.2062422,0.19704545,-0.075379066,-0.17857014,-0.06055346,0.15006788,-0.16542993,0.20742546,0.10019736,0.061296497,0.21646258,0.08298391,-0.19707346,0.045160986,-0.08520682,0.010671707,
                       0.14694397,-0.18346429,0.07694482,-0.08970557,0.13542822,0.16079116,-0.03216502,0.16457382,0.114023514,0.16936693,-0.055838704,0.022050295,-0.13077392,-0.1380975,-0.17192295,-0.16496132,0.1361559,-0.026227875,-0.064871505,-0.116552584,-0.16735479,-0.12536673,0.17501959,-0.07166758,0.21202117,0.0474488,-0.16401133,0.19223617,0.14292823,-0.12064658,0.01107887,0.061411355,
                       -0.16783923,-0.12568973,0.10136129,0.14523159,-0.10911689,0.19226515,0.12820752,-0.1386485,-0.13262412,0.07667337,-0.10953717,0.13124348,0.01756931,0.15655524,-0.013459965,-0.11856276,-0.16355787,0.07265176,0.039632384,0.073420584,0.116909675,-0.20368607,0.10378682,-0.19686197,0.013905376,0.09729964,0.21390498,0.21324478,-0.12476194,-0.0118845925,-0.06548422,-0.0038240144,
                       0.17180318,-0.11542582,-0.12630938,-0.13114393,-0.08014682,-0.06332186,0.005471795,0.09179901,0.10628777,0.18874978,-0.15139116,0.18852362,-0.15570699,-0.2077344,0.15691067,-0.09939149,-0.17577004,-0.110473536,-0.17151712,0.17555605,0.14804019,0.07883904,0.20316266,-0.19976105,-0.16331854,0.16060577,0.13937084,0.14876884,-0.090853415,-0.08657506,-0.12154686,
                       -0.17717054,-0.08446374,-0.17196399,0.05356013,0.16586159,-0.19426064,0.0048170327,-0.0034167974,0.12510027,-0.14590462,0.18672168,-0.15192953,-0.03990276,-0.025851693,-0.13987818,-0.116817966,-0.11665689,-0.056764014,0.10945988,0.0070504756,-0.027246447,-0.06215073,-0.057093874,-0.11304282,0.04699371,-0.0063082776,-0.10580502,0.11550917,-0.061335444,0.18636258,0.022747835,-0.13584666,0.045375615,
                       -0.06328397,0.038801122,-0.13573581,0.058309227,-0.1958341,-0.20516884,0.19770135,0.1082497,0.05922614,0.048137724,-0.19176559,-0.16973335,0.021859618,0.048226178,0.008962873,-0.11174393,0.077008456,0.19448966,-0.13962066,-0.15341017,-0.08710902,-0.06509055,0.011671363,-0.09898067,0.22201282,-0.16251747,0.015809702,-0.031726334,0.092245564,-0.18415262,-0.14557803,-0.018982172,
                       0.14683257,-0.14135884,0.12018324,0.07209293,-0.106734455,-0.08597612,-0.024043122,0.16700676,0.038738072,0.17505828,0.02340072,-0.039005492,0.20946714,0.14017557,0.1575059,-0.20090728,-0.2017476,-0.10010923,0.16337824,0.13811891,-0.13368334,-0.13763678,0.12571262,0.009840204,0.08876315,0.11988477,0.16683409,0.03507854,0.12502147,-0.098123655,0.060341727,0.12392786,
                       0.074969746,-0.20172144,0.16533281,0.07420546,0.046173304,0.12437006,0.009600391,0.053398937,0.09713374,0.06622216,-0.04116887,0.0075862887,-0.047247723,0.035630852,-0.17236546,0.093725376,0.011351528,0.1856004,0.08565852,0.01620332,-0.06921498,-0.009449276,-0.14187945,-0.070778735,-0.19336872,0.0061972304,-0.0848363,-0.12882294,0.0010231293,-0.15818839,0.017590081,
                       -0.0032731679,-0.1560383,0.1296131,-0.09302396,-0.20754036,-0.11737449,0.006324108,0.011083849,0.19962174,0.16865736,0.07844429,-0.016543867,-0.019006643,-0.03505756,-0.15921752,0.12997092,0.15810353,-0.11310098,0.038670234,0.14855497,-0.19404325,-0.051180735,0.054622557,-0.026721928,0.16969638,-0.11829969,-0.1839507,0.059973802,0.15043625,0.054697912,-0.16343835,-0.09308705,-0.17624189,
                       0.2180116,0.047740467,0.043624893,-0.064180434,0.08663996,-0.15591882,0.09612002,-0.16167367,-0.1045435,0.02097219,-0.1373822,-0.12388351,-0.027384069,0.01543696,0.13233119,-0.14561525,-0.14650407,0.121226445,-0.20073064,-0.018596888,-0.18777457,0.031437438,-0.19006269,0.13486095,0.077945895,0.07428355,-0.18667881,0.013009774,0.18900621,-0.016873196,0.19278394,0.16555287,
                       -0.18893112,0.018504927,-0.07692623,-0.1905589,-0.10450413,0.14733626,-0.012745704,-0.07710926,0.10260819,0.059110645,0.1851749,-0.13118882,-0.0824316,0.051450778,-0.10233493,0.00035093026,0.17745572,-0.15610448,0.15016489,-0.1417324,0.19161755,-0.058131333,-0.13891608,-0.052526176,-0.03396131,0.07850692,0.17031877,0.17244647,-0.0894156,-0.009312897,0.026587768,0.065993875,
                       0.036540262,-0.18354663,0.0035903396,0.09475156,-0.00310378,-0.12086599,-0.21560061,-0.1415648,0.16815853,0.042455625,-0.103489764,0.18633124,0.031254604,0.0068580257,-0.2118016,-0.13686405,0.051854994,0.13032192,-0.019560037,-0.19485778,-0.16634269,0.0395083,-0.14595808,0.064297445,0.013880467,-0.009547317,-0.20008934,-0.17973647,0.19505417,0.12920807,0.058133878,
                       0.16493769,-0.15651692,-0.19262877,0.17866197,0.15938301,-0.20262197,-0.10699732,0.028723981,-0.017090544,-0.18109559,0.035412997,0.20149817,-0.1384804,-0.04940071,0.07440494,0.10434668,-0.10708361,0.19162282,-0.057795964,-0.037218444,-0.036114313,0.15380737,-0.01687866,-0.16396213,-0.14942397,0.1772423,-0.046468697,0.109673806,-0.1024902,-0.11206629,0.04515827,-0.019815326,-0.113029495,
                       0.15528321,0.019638628,-0.15486513,-0.022149157,0.06607906,0.1380354,0.14405094,-0.07307083,-0.058795705,0.11500765,0.18168253,0.10224415,-0.06295804,0.14409319,-0.17873646,0.071075566,-0.17022176,0.121212415,0.086029775,0.01074646,-0.045431007,0.11349375,0.024170086,-0.14939512,-0.03302947,0.014581232,-0.042729888,-0.16932298,-0.1301056,-0.014892983,-0.19651629,0.20599355,
                       0.023295738,0.04634348,-0.15337716,0.13299227,-0.13917822,0.18966116,0.17452085,-0.00949553,-0.13344572,-0.0074627777,-0.020401997,0.090186946,-0.19733486,0.098166436,0.08344382,0.18520646,0.19788262,0.1834773,-0.11310736,0.057939306,0.19393414,-0.09987239,0.0009854996,0.13556443,0.060322046,-0.05718359,-0.15026239,0.19893947,-0.17078961,0.1821477,0.1877925,-0.15354313,
                       -0.09956949,0.1140706,0.14214519,-0.0339612,-0.08276122,-0.011545701,0.074009396,-0.012404897,-0.16408622,-0.050141547,0.06591884,-0.17472422,0.19333489,-0.14133976,0.19096097,0.12756178,-0.1303167,-0.100253046,0.17409253,0.037640452,-0.19396909,-0.04848593,-0.03761948,-0.15744437,-0.19006786,-0.20453309,-0.09636441,-0.055908263,-0.079689115,0.041290164,-0.11297312,
                       0.1492776,-0.030654151,-0.07907942,0.015297107,0.029160282,-0.0319564,-0.052426506,-0.20137982,0.20636532,0.18988079,0.17011705,0.008765901,0.16048434,0.18261427,-0.08262051,0.17949936,-0.12172212,0.0797205,-0.11602539,0.11675806,-0.0051967762,-0.11347094,0.07918302,-0.16197513,0.055656787,0.1566475,0.015933452,0.022188375,-0.09410371,-0.08405232,-0.05901354,0.1354342,0.087556064,
                       0.18777856,-0.0030544093,-0.114558294,0.031936936,-0.10595588,-0.059955314,0.040324755,0.17578787,-0.047169823,-0.022639506,-0.059461575,-0.07790071,-0.009998949,-0.19867389,-0.16916163,-0.18484063,-0.011518276,-0.14600891,0.18041445,0.009478079,-0.07627471,-0.058338445,0.10580048,0.0053041293,0.052733146,-0.07631494,0.19990727,0.11976182,0.04942656,-0.19032548,0.05287078,0.030889504,
                       0.1661191,0.15491544,-0.19277719,0.07421134,-0.11346644,0.10793997,0.038048457,-0.11034039,-0.17338103,-0.17143643,-0.078884035,-0.103675626,0.09285152,-0.09043083,0.11637541,-0.124323264,-0.18720983,0.12321435,-0.011075876,0.10306998,0.053490948,0.028511267,-0.14933655,-0.12719719,-0.045265034,-0.20330681,0.10025916,0.080175035,-0.19616747,0.19229808,0.04451754,-0.1658716,
                       0.012552173,0.056890074,-0.038383126,0.17703491,-0.17657264,0.20185617,-0.13686638,-0.1359243,-0.01821599,0.09915066,0.008808675,0.07911922,0.12200696,-0.085590295,-0.18022662,-0.05115465,0.0466749,0.044169337,-0.17546882,-0.006807976,0.024085764,-0.19825666,0.04047375,-0.17213687,-0.006932258,0.12455164,0.0007959423,0.07733331,-0.059841473,-0.008417045,-0.10389925}; 



float saved_biases[5] = {-0.007633989,-0.0010333695,0.002994661,0.0022517722,0.0014424392};