float saved_weights[640] = {
                       -0.16152923,-0.14416847,-0.17691137,-0.14018042,0.11678034,-0.05005496,0.06999063,0.20036983,0.064220026,-0.040782113,-0.017453836,0.1699157,-0.1747484,-0.17359003,0.17334957,0.1463463,-0.060689475,-0.07592598,0.08076437,-0.13231856,0.05284183,-0.14699544,0.12907726,0.13398774,-0.176911,0.046434294,0.20315747,-0.14780039,-0.13195853,0.02656724,0.21219012,-0.17214073,0.057045158,
                       0.058547445,0.120972425,-4.3231663e-05,-0.053403176,-0.012149117,-0.08406287,-0.14096925,-0.09654482,0.11867672,-0.17716749,0.015095596,0.12970555,0.16155285,-0.09873117,-0.01504924,0.10553554,-0.083255485,0.054692402,-0.018252473,-0.19195539,0.1959556,-0.04840661,-0.12766834,0.11605539,0.07784588,-0.046150994,0.16619594,0.098383665,0.13930221,0.16855064,-0.095782734,-0.20278221,
                       -0.082497135,0.16804862,0.14508426,0.07776155,-0.15447816,-0.17923406,0.06600003,-0.050582502,-0.015597337,0.2123339,0.08017835,0.07739726,0.18339874,-0.0988904,0.07140625,0.19707441,0.122124344,0.2090567,0.07904578,0.14291903,0.095751084,0.030371267,-0.1714914,-0.09238551,-0.031001253,0.13247456,-0.057613283,-0.20394382,0.045930564,-0.19559383,0.07844641,-0.05285423,
                       -0.11439259,0.053374358,-0.11492823,0.17055798,0.072515465,0.12780409,-0.029093524,-0.11658365,-0.18519413,-0.02424439,-0.050493557,-0.15924087,-0.012155764,0.008887089,0.10596204,0.0012545426,-0.18832155,0.04443024,-0.06838411,-0.1747368,-0.07665168,-0.112817846,0.03528901,-0.040979072,0.014880864,-0.0074942308,-0.04395831,0.12857486,-0.07081941,0.08415756,-0.03628046,
                       -0.07381542,0.089302175,0.17364569,0.1676309,-0.010271849,0.013743454,0.04700516,0.12327811,0.15975937,0.10196907,0.16199128,0.13270941,0.083923556,-0.087342516,0.06504108,-0.11523691,-0.069017075,-0.19597277,0.1137104,0.2036971,0.15333672,0.12818378,0.024453098,0.024775626,0.124357305,0.0019870098,0.15079105,0.11460043,0.028333588,0.0118611595,0.014781766,-0.1538948,0.024715489,
                       0.19592227,-0.07559576,-0.009172,0.044895563,-0.13424982,-0.055424497,0.18091612,-0.010054726,0.055801407,0.21774893,-0.038568415,0.1432329,-0.12688094,-0.17494003,0.10497916,0.22505434,-0.10560099,0.13588591,0.17777494,-0.10039744,-0.039158076,0.05711486,0.14530039,0.18601486,0.20158571,-0.124624304,-0.15696564,-0.010879756,-0.012304282,-0.03841199,0.028765127,-0.14785935,
                       0.19514883,0.119729914,-0.16215369,0.15853086,-0.09798763,0.06848079,0.13183095,-0.0679342,0.15190086,-0.0015020444,-0.14188233,0.13599129,-0.1633077,-0.085305266,-0.20525613,-0.20226538,0.030560479,-0.1310249,-0.19790009,0.12453258,0.12194119,0.010757951,0.079516515,0.18595235,0.10366543,-0.06789426,-0.19473168,0.15054758,-0.14106774,0.016854012,-0.15090403,0.15284523,
                       -0.08116899,-0.10898207,-0.10213266,0.04775094,0.15727682,-0.14495863,-0.15284844,-0.11093753,-0.20831245,0.17997521,-0.19032945,-0.005748419,0.16403846,0.047817156,0.036619302,0.028427085,-0.018578162,-0.13469595,-0.124581344,-0.08397696,0.10308605,-0.03975288,-0.1482764,-0.1801331,0.03394537,0.0844271,-0.20480627,-0.024647463,0.16341591,0.095638245,0.17229894,
                       0.100673586,-0.04250903,-0.17564535,0.023817185,-0.10077606,0.20185553,0.11937851,-0.13154484,-0.015319328,-0.18118355,-0.12960613,-7.302191e-05,0.13132414,0.09045195,0.17947291,0.101615176,0.06766943,-0.2041822,0.10292548,-0.10307775,0.13981941,0.09769932,0.102801874,-0.15824513,-0.18562105,0.07054958,-0.18024139,0.18007076,0.07567217,-0.17313835,0.1545576,0.22449407,-0.08146924,
                       0.16187328,-0.108669646,-0.18256871,-0.20210157,0.19163333,-0.13901384,0.19062078,-0.08181175,0.039894678,0.17979962,-0.06723187,0.040989794,0.07784576,0.10609732,-0.07804988,-0.19139431,-0.016653731,-0.0833913,0.18316045,0.19095743,0.17949897,0.1003441,-0.030894438,-0.16924918,0.09559029,0.11836887,0.010225582,-0.12484432,-0.097747914,-0.19856514,0.086054996,-0.12423414,
                       -0.106267676,0.055173002,0.052409366,-0.09344285,-0.20727833,-0.19494279,-0.13283192,0.13873684,0.15335467,0.062275108,-0.13689803,0.040172525,-0.17662765,-0.1144856,-0.13832329,0.11471291,-0.12134805,0.049630433,-0.027234867,0.04980302,0.1634926,-0.053039584,-0.025411392,-0.01012524,-0.005821923,-0.1376817,0.20949787,-0.1258873,0.12146824,0.017639484,-0.052786145,0.18208377,
                       0.19640706,0.05009736,-0.12176878,-0.06505218,0.1422801,0.15239103,-0.07610669,0.12359049,-0.05966861,-0.1790801,0.057182495,0.05764058,-0.19444814,0.04912173,0.060959548,-0.045105115,-0.12754184,-0.13152479,-0.18020996,-0.16174017,0.05616775,0.15269762,0.17172082,0.034136653,-0.054620914,-0.15218964,0.1530399,0.05625121,0.11521877,-0.11711922,-0.002509298,
                       -0.122087784,-0.20051634,-0.16163315,-0.043362174,0.17254354,0.0059742043,0.17652006,-0.1090094,0.04301582,0.18885203,0.03328712,-0.1363638,0.06485655,-0.129627,0.20842531,0.010851063,-0.09225085,-0.012030998,-0.0039588567,-0.009402762,-0.010908709,-0.20232342,0.04440018,0.17816266,-0.079213046,0.19474633,-0.0013056755,-0.0006419146,0.17408341,-0.13367157,0.029983453,-0.033422656,-0.17334063,
                       -0.04863768,-0.1729308,0.18609294,-0.14447147,-0.115056336,-0.0051767468,-0.12467249,0.05650926,0.118536316,0.099703945,-0.15402809,0.010538366,-0.05107677,0.18002976,-0.07177712,0.14931433,-0.11865867,-0.0021970482,0.12642813,-0.033538505,0.14420448,-0.20633452,0.15041696,0.13067023,0.019686125,0.17089121,-0.20306534,-0.118227124,0.045648895,0.07963318,0.058800876,-0.18349946,
                       -0.03241203,-0.083117686,-0.024862021,0.12717573,-0.10837575,0.0013909006,-0.19692309,-0.09962763,0.14676245,0.07391846,-0.03738176,0.045568895,0.0280524,0.00011359821,-0.03992622,0.018208858,-0.17003085,0.073838726,0.020602856,-0.07921315,-0.06554931,-0.07009746,-0.061780076,0.15963183,0.20598044,-0.05717457,-0.112333745,0.16023971,0.13131183,0.12071729,0.13761932,-0.035687428,
                       0.107498325,0.091914274,-0.12263357,0.06560392,0.123660825,0.18337694,0.049640436,-0.16860874,-0.13942386,0.18341112,0.09527774,-0.18642358,0.06813834,-0.04112962,0.0360111,0.19225985,0.028348396,-0.11226306,0.075878076,-0.0020607228,0.1378766,0.1060998,0.03412161,-0.064953975,0.011722111,-0.15654303,0.17256752,0.1485694,-0.015301782,-0.19472994,-0.22726208,
                       0.10456553,-0.14686342,0.060725063,0.004470184,-0.052350447,0.10510185,0.060924936,-0.13959673,-0.20326158,-0.13108464,-0.04045859,-0.02102837,-0.013340607,-0.0378995,0.18139629,-0.14994067,0.1513831,-0.14345218,0.08310307,-0.09677463,-0.050436787,0.06439284,0.022576453,0.10023487,0.0929093,-0.11617666,0.15080748,-0.14042476,0.10259349,-0.14056535,-0.19016792,0.17058337,0.14927779,
                       -0.10220496,-0.045781963,0.10881653,-0.03951093,-0.07138965,0.069734514,0.109381,-0.04970135,-0.08001175,0.13938999,0.16966678,-0.08058458,-0.1856592,-0.15036374,-0.12525183,0.028613541,-0.17836666,-0.08045557,-0.033763856,-0.1852118,-0.17758569,-0.019400988,-0.1898005,0.103859685,0.06279791,0.0024410547,-0.028771821,0.06319655,-0.051525533,-0.11600908,-0.20031014,0.012201611,
                       -0.13749094,0.05687098,-0.04034285,-0.05754495,0.095293835,-0.18416089,0.12287694,0.12093796,0.20277001,0.09293979,0.03945821,0.16102473,-0.113267794,0.011810001,-0.00045582576,-0.16359603,-0.058990516,-0.13750705,-0.05012811,0.0046094167,0.13541445,-0.09595947,-0.046322655,-0.07259371,-0.18363477,-0.17475338,0.17556036,-0.07926801,0.041140825,0.07349539,-0.035145573,0.13383289,
                       0.022977347,-0.15044393,-0.030803777,-0.14570339,0.17907548,-0.20205504,-0.17805703,0.16552582,0.08902199,0.013822997,-0.12667523,0.09361783,-0.024763035,0.13870612,0.13883688,-0.07376663,-0.05271458,0.00538774,0.20955797,-0.18051702,-0.18179603,-0.12284744,-0.15957421,0.02203616,-0.14854775,-0.09823341,-0.07233975,-0.032728374,0.16429013,-0.12727885,-0.005688128}; 



float saved_biases[5] = {-0.0058227796,-0.0020235698,0.003199049,0.005316451,0.0015157042};