float saved_weights[640] = {
                       0.03946722,0.18613872,0.106707655,0.07677593,-0.05148505,-0.101634376,-0.17676233,-0.12289213,-0.06029503,-0.06147079,-0.06869588,-0.13903944,-0.037503853,0.07676337,-0.011141865,-0.06759011,-0.1285451,-0.15291132,0.037187703,-0.12592363,-0.0013898077,-0.12378045,-0.06176087,-0.034860954,0.074481875,-0.049712252,0.18967274,0.10338938,0.18375055,0.007907003,-0.011140311,0.112243935,0.1572824,
                       0.17681196,0.20082174,0.15912805,0.029725496,0.055202223,-0.072782554,-0.05754782,0.12770826,0.035599165,0.17535558,0.19003096,-0.16201246,-0.02965871,-0.1484029,0.16949941,0.022281159,0.03508762,0.08023093,0.04344308,-0.13381429,0.14621532,-0.13940084,0.16051972,0.09672255,0.11874477,0.109073095,0.16883124,0.087739825,-0.009149041,0.0028812152,0.15373226,-0.17816357,
                       0.05898602,0.18260065,0.0483529,-0.037897717,0.01883041,0.07287288,-0.19825348,-0.06402491,-0.20212741,-0.19068858,0.13694979,-0.124501936,0.07150008,-0.07961837,-0.1759625,0.10434652,0.059337694,-0.030456236,0.20007993,-0.061893392,0.013406027,-0.007261752,0.19400345,-0.16770516,0.09223418,0.08627451,-0.059472512,0.12199277,-0.058123015,-0.20848133,-0.021507092,0.06829185,
                       -0.02378203,0.101537116,-0.21282856,-0.20309004,-0.15888958,0.20226651,0.21378852,0.14101534,-0.06849532,0.049288493,-0.17374128,-0.14042737,-0.18466486,0.16251186,0.16722463,-0.12394204,-0.06626047,0.013158947,-0.07267601,-0.082420774,0.015964188,-0.1952837,-0.1846186,-0.10778379,-0.014675041,0.2099423,0.1433445,0.14597696,-0.16911672,0.18832992,-0.04900702,
                       -0.059811067,0.05698939,-0.14050378,0.06709527,-0.18151589,-0.15390779,-0.026132723,-0.20368278,0.10911168,-0.1548939,0.008645037,0.10489245,-0.07066892,0.008733791,0.11743057,0.104898,0.107827455,0.09034127,0.02545579,0.08425057,0.09028375,-0.1417404,0.12937222,0.033668593,0.11538005,0.22016963,0.10541335,0.105373815,0.18387468,0.079998426,-0.11731893,-0.19011904,-0.040231563,
                       -0.030547585,-0.02346613,-0.02802797,-0.09337946,0.0418479,-0.09454562,-0.12421081,0.06539021,0.15441978,0.13421151,-0.07432767,-0.19153509,-0.10356573,0.06420055,0.08103184,-0.10432266,0.02092543,0.15027459,0.09393028,0.19139217,0.059278756,-0.19804642,0.10607927,0.02186341,0.18845108,-0.032147128,-0.17317402,-0.04358021,-0.005226589,0.13685657,-0.1356366,-0.017792359,
                       -0.06203584,0.07886604,0.11574929,-0.14366208,-0.15254962,0.12134172,-0.0018177194,-0.11569022,-0.07840318,0.07334209,-0.20183465,0.13236624,0.042363834,-0.12162693,0.17012271,-0.013834858,-0.08454654,-0.14473341,-0.059666324,0.15894443,-0.15049885,0.18428776,0.0671317,-0.03781157,0.18931338,0.083642885,0.038474843,0.028063007,-0.04612927,0.088136785,0.13282453,0.0634836,
                       -0.091061905,-0.04578857,0.0020478452,0.1610527,0.13474078,-0.114925556,-0.15609005,0.0071347947,-0.043570373,-0.036012683,0.13923982,-0.18530835,-0.17869703,-0.059385717,-0.10565825,0.1171372,0.07906101,0.15292892,-0.06543755,-0.09411101,-0.20627059,0.16238217,0.20685123,0.06610069,0.032223605,-0.05388763,-0.015900902,0.09382025,0.0035575635,-0.114390515,-0.11110752,
                       -0.03613142,-0.1748839,0.17837386,-0.03383567,0.10430161,-0.03684088,-0.060906645,-0.059998453,-0.08954249,0.0029970347,-0.069792934,0.19282693,-0.07165234,-0.10889155,-0.18398574,-0.13837184,0.17408872,-0.17542513,0.10874457,0.12636934,-0.15725724,-0.1022562,0.16178973,0.046989746,0.02227275,0.14729543,-0.0658597,0.18955338,0.03984191,0.0421518,-0.14512835,-0.02841727,0.04475437,
                       -0.09788169,-0.2272774,0.16570261,-0.12276577,0.041902248,0.027521051,-0.031906303,-0.17207079,-0.0067351474,-0.17154145,0.026101368,0.1959594,0.03945616,0.16558863,-0.122948624,-0.22352104,0.09485976,0.052885134,0.10294973,-0.16087021,0.061718944,0.07523878,-0.19516806,0.18216579,-0.13535346,-0.079926774,0.11965784,-0.13382782,-0.048307292,-0.03438821,-0.089110926,-0.069249846,
                       0.11189374,-0.19026677,-0.06141994,-0.0071610543,-0.03622304,-0.21276851,0.202716,-0.18504617,0.07754794,0.04703298,-0.1734502,0.04228022,0.13738613,0.08489698,0.13450716,0.123613685,-0.13429396,-0.031431478,0.12739526,0.17686398,0.06379319,0.11874032,-0.008090936,0.07484695,0.11208563,-0.0049698856,0.068650566,-0.09577659,-0.13315435,-0.18210706,-0.057445258,0.11457218,
                       0.1096914,0.06528912,0.033279806,-0.1411763,0.1954394,0.026631195,0.1988172,-0.0034678224,0.12949972,-0.18206306,0.17218946,-0.07958219,0.084638506,0.18724433,-0.066126905,-0.09448349,-0.17456074,-0.19082743,0.2072014,0.04979315,0.0950806,0.08608714,-0.034450535,0.06388466,-0.20039858,0.08203296,0.03658594,-0.017520191,0.07188931,0.038357753,-0.09989386,
                       0.158763,0.16974144,0.11138335,0.1310142,-0.04906584,-0.12879725,-0.19444756,0.05861494,-0.09535524,0.11554261,-0.14190687,-0.17679511,0.15413661,-0.17541403,-0.18781671,-0.103998445,0.037182543,-0.027298352,-0.18262653,0.08154728,-0.029059246,-0.17053069,0.08654979,0.08422766,-0.02664952,-0.025186766,-0.0797078,-0.079991505,-0.1493604,0.06913381,-0.15660824,-0.2079322,0.11720463,
                       0.11343087,-0.06113112,0.041162755,-0.100643426,0.11437478,-0.008975651,-0.028224075,-0.030836787,0.18052407,0.20850594,0.16841505,0.19093147,0.069396,-0.14569245,-0.15191954,0.084561475,-0.1671517,-0.11056746,-0.121323146,0.15535,-0.09844052,0.15817793,0.19991235,-0.16214314,0.10309862,-0.12301454,-0.16893218,-0.19073305,-0.0629166,0.011277067,0.021889243,-0.102151826,
                       -0.16538575,-0.15000437,-0.123895675,-0.057600066,-0.024027364,-0.037019078,-0.03873732,-0.017856734,-0.15796392,-0.093462475,0.14840126,-0.14505284,-0.13463335,-0.02687424,-0.15012915,-0.008622237,-0.1109548,-0.11036994,0.116471775,0.11897359,-0.18856204,0.176983,0.09777134,-0.084860496,0.09101814,-0.039368253,-0.17131302,0.10997142,0.16882707,-0.0677423,0.08366346,-0.07857165,
                       0.14054206,-0.15920521,-0.0018367182,0.05820226,-0.16690108,-0.005420292,-0.13372843,0.04478279,0.14131892,-0.02097885,-0.031261116,-0.17711946,0.10784323,0.0005873363,-0.021758396,0.031829823,0.077746265,0.11878151,-0.056520358,-0.1089159,-0.12682639,-0.06388955,-0.084285885,-0.032261565,-0.010239272,0.053056672,0.16568318,-0.0714494,0.052737057,0.08042876,0.13986464,
                       -0.19120748,0.06417928,-0.14401112,0.14335006,-0.19128107,-0.20988305,-0.055974014,-0.14463888,-0.12817591,0.10590632,-0.006163862,0.161842,0.096896775,0.084602475,-0.15193523,-0.20153624,0.059783015,-0.17410555,0.011252784,-0.07056794,-0.044366054,-0.1430025,0.020562358,-0.051146485,0.18539941,0.14000109,-0.16422859,0.16209126,0.1312728,-0.065328315,0.18575516,0.18625383,0.16333891,
                       0.027076205,-0.18194029,0.003585644,0.024592532,0.13194345,0.17658181,0.082580075,0.13527556,0.09342941,0.06922345,-0.030469317,0.06648739,0.104380235,0.04955308,-0.112310186,-0.01927558,-0.045005538,0.0028882222,0.030478701,0.02902487,0.029899566,-0.1052319,-0.1416704,0.15741493,0.019865774,0.17731303,0.017940575,-0.2148448,-0.007925079,0.13975646,-0.10039015,0.15059434,
                       -0.15461698,-0.030167785,-0.15082055,-0.09329599,0.0620875,0.036594052,0.14159921,-0.17323723,-0.13518326,-0.04754718,0.043377563,-0.13049775,-0.1430125,-0.08794829,0.108832814,0.12234521,-0.041433316,-0.19340463,-0.11139025,0.004915923,0.06557192,0.111019656,-0.19436726,0.16488893,0.086432375,-0.036354233,0.17001465,-0.032842092,-0.15637057,0.032808986,-0.100921966,0.044086624,
                       -0.0753887,-0.1492782,0.09323342,0.02947548,0.12644042,0.026398018,-0.022492228,0.021582166,0.083961636,-0.00861048,-0.037080485,0.075646415,-0.1918508,0.069988824,0.07737369,-0.082612775,-0.033790246,0.12851432,0.07164173,0.16859077,0.12375562,-0.09477917,0.10507024,-0.1450841,0.19638757,-0.07073882,-0.18038385,-0.13719034,0.13367651,0.07803103,0.14924961}; 



float saved_biases[5] = {-0.0050053946,-0.00041401267,-0.000406508,0.006620637,-0.00011774098};