float saved_weights[640] = {
                       0.046477348,-0.17453407,0.12844169,0.16718613,-0.2016716,0.09329485,0.010980796,0.19238438,-0.06558534,0.17975572,-0.21654767,-0.035941225,0.002157286,-0.12435275,0.115900576,-0.11763928,0.02822504,-0.120349675,0.09173311,-0.044765983,0.1840824,-0.1894119,0.19557215,0.10947924,0.100174025,0.06879115,0.17868036,-0.14805809,0.023971058,-0.18597946,0.054591637,-0.12753908,0.10109288,
                       0.08443127,0.1712934,-0.022803634,-0.022024132,-0.12618153,0.15686655,-0.18275942,-0.03290297,0.12263253,0.110857956,0.028822208,-0.02339098,0.0015031485,-0.15813302,0.06842164,0.17558965,0.06342897,0.14774598,0.2033993,0.18814369,0.042166725,-0.21289453,-0.07630342,0.08489431,0.012653159,-0.20403542,0.1807632,0.09078067,0.05556419,-0.11975601,-0.05609289,-0.19032075,
                       -0.017867453,0.072951294,0.19306707,0.20717949,-0.163713,0.09148683,-0.1718375,-0.1875712,0.17315747,-0.15255089,-0.08861747,0.06474003,-0.0010279914,-0.0005401626,0.0013076531,0.051568996,-0.07256437,0.14891651,0.17560506,0.09025253,0.005221681,-0.16708665,-0.06111027,0.20478676,-0.16582616,-0.1670048,0.15523939,0.1397067,-0.04360098,-0.17603011,0.07190812,0.10223003,
                       0.07579337,-0.16497345,-0.064146206,0.048041847,-0.18576561,0.16181894,-0.08729578,0.10993938,0.07311795,-0.17644267,0.08980037,0.10484031,0.01042749,0.031871714,0.106767885,0.13749595,0.15265502,0.17706059,0.084636554,0.18537238,-0.09088662,-0.112958565,-0.1684457,-0.14974144,0.13444474,0.033903074,0.026180193,-0.1263322,-0.028048705,0.09644368,0.090261415,
                       -0.011965542,-0.12944856,-0.1639903,0.20282383,0.20685677,-0.034828737,0.070299074,0.13628158,0.10233334,0.19789016,0.05131616,0.0044219494,0.16319476,0.12339359,0.18334562,0.07757373,-0.1167729,-0.12681292,-0.055513293,0.092109896,-0.18503234,0.219914,-0.12779407,-0.047177568,-0.12038962,-0.037767183,0.12105853,-0.1819911,0.036644377,0.19354388,0.21161218,0.0009229304,0.07915365,
                       -0.11780601,0.19004601,-0.09584532,-0.06425988,-0.1946319,-0.14545985,0.068268836,0.056569442,-0.08960389,0.05550059,-0.05855373,0.16468102,-0.15475379,0.0931251,0.11374106,0.21359192,-0.1569457,-0.031655088,0.06270197,0.06910934,-0.13769716,0.054699272,0.21634708,-0.06936213,-0.17658968,0.15808585,0.07757073,0.08126638,0.17603268,-0.04979625,0.11159618,0.15876366,
                       0.1503733,-0.11399793,0.18927087,-0.0050605675,-0.08892318,-0.19980891,0.1321552,-0.18823779,0.12002002,0.030823244,-0.039462212,0.17804427,-0.17346741,0.14263666,-0.1844563,0.10892247,0.051414408,-0.13634226,-0.048409104,-0.019871669,0.016725855,-0.0469563,-0.16143027,0.11695817,-0.198308,0.15949096,-0.18333548,0.14539376,-0.032294996,-0.17814371,0.05327371,0.16084576,
                       0.10510139,-0.054695208,-0.0869493,0.078015946,0.10843727,0.017757101,0.17349711,0.18525067,0.16388299,-0.18793014,0.036026258,-0.008357804,-0.013460086,0.19609007,-0.14204636,-0.0074139577,-0.095515564,0.00652055,-0.16878806,-0.17629194,-0.14858203,0.046683706,-0.10335481,0.15799569,-0.1435629,-0.05178325,-0.06549689,-0.10012983,-0.18460405,-0.084524184,-0.004905766,
                       0.07016153,0.17020057,-0.09278275,-0.0508851,-0.09422548,-0.12587658,-0.10282512,0.14260674,0.1766284,-0.11730688,0.06985828,-0.12450024,0.16163042,0.072351865,-0.033827662,-0.1852856,-0.14391258,0.11524966,0.01777786,0.18543087,-0.08195958,0.101971805,-0.1878817,-0.07750942,-0.20273736,-0.15791892,-0.18320586,0.15732726,-0.045339983,-0.097603574,-0.13831948,-0.11745636,0.12552518,
                       -0.058365688,-0.022375682,0.06555543,0.2021269,-0.1492903,0.13066721,-0.17041393,-0.009597443,-0.14681959,0.15728053,0.11893789,0.13464382,-0.15852368,-0.17422163,-0.18635648,0.098386765,0.08226141,-0.11285094,-0.028514951,-0.0083293915,0.114179306,0.074873336,0.06550804,0.18224032,0.049099576,0.024065861,0.12736663,0.17037615,-0.009373658,-0.008353426,-0.12505186,0.16383982,
                       0.017204514,0.06630246,-0.05169161,-0.09800208,-0.061383907,-0.11744858,-0.13088931,-0.15825458,-0.081254885,0.026424631,-0.09629121,0.19082853,0.12097248,-0.053963542,0.0384202,-0.08999694,-0.12078775,-0.05288416,0.11704355,0.093840376,-0.06281186,-0.009181137,0.13996096,-0.07265762,-0.21496907,0.049111944,-0.10913765,-0.03304841,-0.109061934,-0.16718508,-0.04652335,0.055406455,
                       0.08217425,-0.14752698,-0.042337924,-0.09028829,0.2049466,-0.059171956,0.17823835,0.08455264,0.110581614,-0.15278926,0.15580077,0.035165697,0.14703795,-0.055523947,-0.2090867,-0.059829075,0.10167364,-0.043509882,-0.028639512,-0.17276663,-0.20476979,0.008156469,-0.14168909,0.16819151,0.17587385,-0.111891694,0.04902485,0.14072052,-0.102698274,0.09083935,0.14709647,
                       -0.040570844,0.07048875,-0.058276776,-0.10847894,-0.059685964,-0.12685855,0.05703961,0.11145112,-0.097993314,0.043535046,0.06376904,0.039692547,-0.12411644,0.048937514,0.061737854,-0.1052441,-0.14726838,-0.03919447,-0.13629997,0.0225607,-0.09137513,-0.11239501,0.19490746,0.15014614,-0.12706104,0.1751194,-0.043903634,0.12349282,0.23413862,0.18376738,0.05608064,-0.1157559,-0.13651161,
                       0.08914441,0.11559007,-0.17502293,0.0003578646,0.11918442,0.18384065,0.119150504,-0.025860863,0.09447397,-0.019978756,-0.07158375,-0.051287152,0.04291712,0.04423492,0.114484504,0.029207662,0.16831979,-0.18229175,-0.06333957,0.10295125,-0.20092712,0.20048113,0.14330164,0.09246091,0.058232732,-0.18296377,0.17787169,-0.07341027,0.11543212,-0.16223264,-0.029762536,-0.2025143,
                       0.10752663,0.025361972,-0.09345365,0.07403027,-0.0097081745,-0.009766037,0.054280113,0.18790455,0.14405607,0.19231148,0.2025715,-0.12064937,0.15075144,-0.11595921,0.07247003,-0.06472635,0.11548607,-0.10787597,0.08140436,-0.067870975,0.20202145,-0.12842377,-0.016070167,-0.048741218,0.083416216,-0.09145245,-0.11592752,0.1298451,-0.04738792,0.04742361,-0.08701261,-0.049222436,
                       -0.19243181,0.20475894,-0.032741696,0.018407088,0.2116454,0.10077837,0.13256231,0.080387644,0.16089165,0.21583815,-0.17772244,-0.19608322,0.08018051,-0.06907294,0.13232102,-0.0076710037,-0.020382922,-0.07287317,0.19017343,-0.20074148,-0.06674724,0.17784217,-0.15213673,0.1532523,-0.09307924,0.01993931,-0.0839334,-0.20276913,-0.16855244,-0.08276448,-0.0883131,
                       -0.10662637,0.068443365,0.011999455,-0.09144535,-0.18223132,-0.008949888,0.046384916,0.089115396,-0.12413543,-0.044302266,-0.037513524,0.010863451,0.1697083,-0.011482592,0.15942746,0.08034325,0.10078119,-0.17968939,0.0035085753,0.089896806,-0.030634163,0.09756146,0.01256846,-0.05479456,0.13369374,0.021833966,-0.08153203,-0.005045139,-0.19744267,-0.08873913,-0.15497553,0.1025286,0.07632638,
                       -0.002821709,0.013184111,-0.01986837,-0.10636344,-0.04628902,-0.01037432,-0.18550539,0.12331518,0.030034542,-0.013944969,-0.15898806,0.14778423,-0.13124229,0.1823656,0.07636412,0.036895692,0.19230509,0.027007166,0.14960705,-0.02717313,-0.14219627,-0.14883341,-0.011792093,-0.14579996,-0.119503915,0.03714222,0.038947478,-0.10486023,-0.17226823,0.046020664,0.047393475,-0.069433115,
                       -0.041518364,0.15770225,-0.06305444,0.1099972,-0.024779662,-0.04033247,-0.15089963,0.20911172,-0.150431,0.0020795194,-0.003165036,0.095689505,-0.1717636,-0.09508241,0.10412339,0.02320896,0.14808156,-0.15944967,0.09162354,0.00035328692,-0.11672205,0.022776013,-0.15086618,0.18374832,-0.17269927,0.13738436,0.027228244,-0.1874589,-0.106673114,0.19396614,0.10653195,-0.12988332,
                       0.13217793,-0.14700888,-0.07673932,-0.070977785,-0.05329061,-0.062447663,0.108939104,-0.14733386,0.1660985,0.10426342,-0.110118836,-0.058910616,0.07930262,0.17803691,0.09461068,0.11083525,-0.22302805,0.15987255,0.17790326,-0.05848494,0.07809766,0.13410316,-0.18364036,0.05517843,-0.15428393,0.0043852115,0.06136784,-0.072805524,0.17797367,0.0028160927,0.016180472}; 



float saved_biases[5] = {-0.0025582574,-0.0028228848,0.005206014,0.0015356817,0.0020974514};