float saved_weights[1500] = {
                       -0.004993724,0.09897248,-0.12018812,-0.11376782,-0.0735449,-0.11930877,0.11011348,0.08855529,-0.123595215,-0.026849616,0.091553874,0.08656964,0.09288018,-0.10493983,0.08607956,0.09836005,0.112192765,0.029671092,0.032698005,0.121130906,0.10429148,0.024232836,-0.0027593214,0.067286156,0.037142105,0.08036282,0.10738603,-0.070607826,-0.066587985,-0.10187124,0.06813575,-0.11539401,0.032416932,
                       -0.051145256,-0.091701075,0.008785352,-0.12984243,-0.06675935,-0.06646763,0.025090197,-0.02610122,-0.03754661,-0.02807837,0.0806052,-0.043905355,0.09339661,-0.041106753,-0.057369124,-0.019602483,0.07500744,-0.005573515,-0.08048708,0.029987993,-0.09348827,0.13106823,0.10368207,0.016397698,0.046208873,0.02924819,-0.062107023,0.004464598,-0.062282432,-0.14152382,-0.007614508,0.0014969499,
                       -0.0047789556,-0.09387665,-0.0866995,-0.06308169,-0.118668176,0.116659954,0.099594556,-0.07783708,-0.11914717,0.054568596,0.010949733,0.10352372,-0.11448047,0.074992746,0.060123492,0.014176204,0.042319145,-0.13926397,-0.11178863,0.048301008,-0.025368875,0.07099324,0.034218147,-0.071638,-0.117199466,0.11914885,-0.040993486,0.07521525,-0.113492034,0.064006865,0.073010266,-0.07676881,
                       -0.08042689,-0.097627684,-0.03557725,-0.11890839,0.08463321,0.025032908,-0.10090095,0.0013246025,-0.10656852,-0.086361304,0.082858704,-0.08135973,0.06321526,0.06757453,0.070238404,0.07217411,-0.028514538,0.075583115,-0.03642475,-0.03722604,0.04842332,0.0012820053,0.026716666,0.05567809,0.015701871,0.12620574,0.1356373,0.114816085,-0.08864002,0.023056967,-0.039578043,-0.0916526,
                       0.06953981,-0.13547504,0.026370972,0.12654448,0.13445257,0.030024726,-0.078980185,-0.039838176,0.011683658,-0.036535975,-0.04233574,-0.0668144,0.09386413,0.10262608,-0.08841915,0.08177437,0.11854678,-0.005312252,-0.112265006,-0.093288526,-0.10472841,0.09732735,0.053053122,-0.019333743,0.025656784,-0.005527336,0.044578988,0.094240345,0.032820746,-0.027079083,0.11724664,0.03308719,
                       -0.05578125,-0.045165904,0.13615221,0.08499879,-0.07650426,-0.11349217,-0.046692207,0.052924745,0.07055976,0.12372574,-0.020887211,0.09876874,0.043168027,-0.08570575,-0.04208561,-0.10133535,-0.0028647557,-0.13122581,0.011534951,0.116725214,0.029301835,0.032833334,0.032185633,-0.08616782,-0.09576854,-0.06524211,-0.11291361,0.0542265,-0.08755282,-0.10176866,-0.01928219,0.12292773,
                       -0.03927808,-0.017452832,0.11740165,0.03491214,-0.104518846,0.008141227,-0.03797587,-0.06173645,0.015247302,-0.061870784,0.023595262,0.10619306,-0.002046369,0.11170674,-0.0375608,0.047717616,-0.030718846,-0.13420665,0.040853612,-0.08614667,0.05051461,-0.03138823,-0.022552092,-0.039177332,-0.013520912,-0.06885219,-0.03268221,-0.09489791,0.12602495,0.03477762,-0.11446727,0.015446261,
                       -0.041923877,-0.06405759,0.11820805,0.05556241,-0.08611952,-0.024580989,0.13186523,-0.0919944,-0.075360775,-0.102914624,-0.12507413,0.094395295,0.040197257,0.029726818,0.14291398,0.068719536,0.07919063,-0.0960619,-0.073509686,-0.043992553,0.14018227,0.036525585,0.05905257,0.12614384,-0.009292421,-0.06340369,-0.018559793,-0.093269624,-0.023698136,0.09527692,-0.026578935,0.10811043,
                       0.11230406,-0.11845589,0.015662622,0.056537725,0.06358209,0.0027036008,-0.02011495,0.061941,-0.10482145,0.1390571,0.09234499,0.071246766,0.041505374,0.062392667,-0.09394755,0.13314642,0.011475512,0.13295797,0.04949107,0.11791687,0.024401916,0.008679142,-0.03654004,0.025537916,0.062186077,0.15626784,-0.003644549,0.030917995,-0.089762054,-0.018167978,-0.06680592,0.110375546,
                       -0.09161906,0.14113833,0.011892501,0.059074894,0.010595192,0.019339519,0.12707865,-0.12660524,-0.11552877,0.10221977,0.123597085,
                       0.1147113,-0.07041857,0.10390762,-0.048769236,-0.048733257,0.09322944,-0.070844896,-0.057625152,0.07221046,-0.0857377,-0.11573312,-0.08292171,0.061959863,-0.0694903,-0.03676096,0.10505141,-0.06041608,0.091248035,-0.04979545,0.040196486,-0.0033440907,-0.07894405,-0.026931055,-0.061298776,-0.060022764,0.13696921,-0.017674744,0.020065548,-0.04726893,0.05566164,-0.08448368,-0.11192107,0.09605318,
                       -0.019773997,0.12886156,-0.044118308,-0.015952364,0.03129717,0.030484226,-0.09211701,-0.052108333,0.0482478,-0.015622228,-0.12958135,0.014525733,0.11489196,0.0031073662,-0.024726354,-0.006773377,0.07178794,-0.023178931,-0.076200195,0.036198433,-0.14330451,0.063814975,0.017391477,-0.00067483744,0.03475194,-0.12759396,0.005367044,0.054478057,-0.1126483,0.0018036959,-0.121398106,0.11035619,
                       0.009424333,0.15488069,-0.08918358,-0.056929182,-0.14089929,-0.08291161,0.013318664,-0.1061721,0.07756222,0.047279872,0.08408704,-0.05484664,0.04977029,-0.029942181,-0.11901987,-0.04758119,-0.009912227,0.12734061,0.01625372,-0.09748804,0.01019845,0.11371687,-0.002284109,-0.0023730397,0.05012806,-0.12244671,0.013902447,0.018877687,-0.048862774,0.09219137,0.10326412,-0.09624071,
                       -0.011506852,-0.04411974,0.07543911,0.01583147,0.029263876,0.072927326,-0.07389411,-0.07801755,0.028637445,0.019670533,-0.013470526,0.0054341615,-0.10909734,0.084646195,0.092834465,0.095697485,0.024955193,-0.06221599,0.016762689,0.024762683,0.07097978,0.074145295,-0.06211139,-0.11114222,0.059482872,-0.09016992,0.021750832,0.048361056,0.04675211,0.0059387973,-0.084078886,-0.13079181,
                       0.031791806,0.039574664,-0.029204348,0.12892897,-0.11185691,-0.09401429,-0.07936303,-0.047984853,0.11340785,-0.04466441,-0.07978484,-0.09377898,0.008871448,-0.1292938,-0.008381621,0.14764157,0.103563204,0.064233474,-0.1188369,-0.026780352,0.0378732,-0.07181825,0.05561186,0.025636084,0.08891867,-0.034171276,0.040191192,-0.01295805,0.025974166,-0.07828587,-0.022178939,0.087463,
                       0.08563477,0.024276188,-0.14019987,0.10375627,0.0036191698,0.027720612,0.08562732,-0.06842459,0.06980772,-0.084471986,0.07156129,0.09201388,0.03710422,0.022130506,0.13102202,-0.044491045,0.120796114,0.03366825,0.030426107,-0.03831797,0.03955832,0.12964404,-0.036704194,0.008579178,-0.121065035,-0.029011015,-0.070868835,0.006153708,0.049742687,-0.0046074316,-0.082378164,0.014572463,
                       0.1164466,-0.04958894,-0.11526959,0.0038817795,0.06803072,-0.06626936,0.05688685,-0.040050175,0.0004549133,0.09767838,0.032597438,-0.022641236,-0.05414897,0.08842938,-0.001112371,-0.13542299,0.13339166,-0.031016897,-0.15362872,-0.008955514,0.08786548,-0.066724226,-0.078442365,-0.09368684,0.025634775,-0.0669446,0.116895154,0.086617894,-0.1168119,0.008888957,-0.07655038,0.12298004,
                       0.054611225,0.0057162503,-0.09926705,-0.1223565,0.1073108,0.051324576,0.085426636,0.12803884,0.060593154,0.056976594,0.062497366,-0.123638965,-0.037229545,0.10153061,-0.14311182,-0.07479116,-0.02112625,-0.05755967,0.035158318,-0.101876326,-0.065043144,0.083930284,0.11553315,-0.14641339,0.07578856,-0.08241957,0.067459084,-0.09127925,-0.08994503,0.01260469,-0.08305219,-0.12116391,
                       -0.004533492,-0.1123812,-0.11852222,0.13055587,-0.10630312,0.109118864,-0.09076198,0.0449169,-0.09455249,-0.097364,0.14000757,-0.09176903,0.030775014,-0.12373499,-0.08216339,-0.038983185,0.0393021,-0.07218143,0.075281136,-0.069420636,-0.051951986,-0.1067382,0.039727796,-0.060205646,-0.034567926,-0.12511773,0.084860556,-0.036740195,-0.010585432,-0.1056494,0.028660841,0.056983806,
                       0.006893059,-0.04758765,-0.09861273,0.12448101,-0.005864239,-0.025700932,0.044639196,-0.058113065,-0.032516845,-0.06917131,-0.0698721,
                       0.015913704,-0.13024324,-0.099838324,-0.033426326,0.08789898,0.10236791,0.030040422,0.050692346,0.11758493,0.036349937,0.036179356,-0.014046364,0.092618294,-0.0055973125,0.04839918,-0.009924819,-0.13733603,-0.05833499,0.004888187,-0.062189292,-0.014742967,-0.024819598,-0.050708316,0.060335852,0.08313203,-0.053626504,0.09522583,-0.018158631,0.11282623,0.007937525,0.0011407655,0.1443505,0.09771602,
                       -0.07132478,0.088248305,0.09740514,-0.06682744,-0.10494756,0.11233837,0.13051738,-0.044356402,0.041860227,-0.0076286527,0.02497051,0.0056798905,0.09730001,-0.074885726,-0.081943676,-0.07890522,-0.060246054,0.122881375,-0.12728877,-0.00051877036,-0.011182215,0.090768054,-0.117596686,-0.07243877,-0.045127265,0.03563878,0.058006953,-0.1312004,-0.066425055,0.07499618,0.009380979,-0.0043191356,
                       0.051874813,-0.09521879,-0.09527878,-0.04181394,0.07430937,0.047088638,-0.10959847,0.015207644,-0.11610328,-0.02654434,-0.06972155,-0.12957197,-0.095382,0.08077568,0.02678822,-0.09194169,-0.057313323,-0.057512168,-0.037933946,0.024325734,-0.13514715,0.058221348,-0.12915632,-0.05583892,-0.1045937,-0.029235154,-0.11132772,0.024286428,-0.07483126,-0.0900479,-0.01916762,-0.023784675,
                       0.10042806,-0.00058711297,0.035944276,-0.023203032,0.070314966,-0.08134844,-0.09404928,-0.07508898,-0.0029600596,-0.086483486,-0.06946436,-0.08021028,-0.05691383,0.02145242,-0.1096072,0.115377605,-0.042937193,0.11442493,0.042252526,-0.100486785,0.057017896,0.11646699,0.010300285,-0.1117521,-0.066812284,-0.11812096,-0.12345836,0.10513716,0.11754082,-0.14544944,0.028161364,0.1150553,
                       -0.00815521,0.087666936,-0.020765591,-0.037838027,-0.017150339,0.060272787,0.056473427,-0.09931611,0.07602963,0.06296476,-0.029360024,-0.12823224,-0.13176416,0.102850035,0.07234676,-0.08967265,0.03482979,-0.101832606,-0.10354374,0.066520214,0.102525905,0.10743563,-0.10369296,0.019466467,0.1126025,-0.037966087,0.09541252,-0.05444771,0.012462979,-0.016002277,-0.015570987,0.12002937,
                       -0.010041301,-0.10737062,-0.11293704,-0.092699796,-0.08335828,-0.097914465,-0.11733786,0.02063471,-0.111958675,0.037286207,-0.016856303,-0.03920034,0.0781101,-0.065982796,0.13456659,0.045493577,0.09631953,0.09514633,0.05631118,-0.077797465,-0.04369081,0.048565958,-0.025943922,-0.07527137,0.081862316,0.11696278,0.10252237,0.084196806,0.018488823,-0.07121603,-0.08486997,0.11049481,
                       -0.031048907,0.028514454,-0.056071546,-0.115293466,0.07451494,0.075217344,0.03872639,0.10716317,-0.045592938,0.040996112,-0.11099775,-0.0074957022,-0.09552015,0.049493283,-0.08099809,0.05412091,-0.032153524,-0.057792142,-0.11025688,0.059141725,-0.03883835,-0.049686696,-0.083897255,-0.02424108,-0.043787833,-0.096193366,0.09823853,-0.023390463,0.040014304,-0.065982126,0.030214755,-0.061744947,
                       -0.04301282,-0.114836976,-0.025507197,0.07384025,0.09644292,0.018362753,0.045566853,0.03435477,-0.006806595,0.028505404,0.1053527,-0.045343976,0.090024166,0.11993987,0.02763607,-0.057291187,-0.020152584,-0.03171024,-0.02943126,-0.090233274,0.03732076,0.10031674,0.0326989,-0.12646408,-0.039168112,-0.015289381,0.1342712,-0.016996486,-0.052442845,-0.03650382,0.07426756,0.013316665,
                       -0.06430025,-0.109282956,-0.08553108,0.038589492,-0.10119328,0.04893885,0.038998924,-0.11647138,0.015674047,0.008718378,0.12580691,-0.06695734,0.034259614,-0.034062617,0.13335565,-0.0746554,0.052456457,-0.04893953,-0.08170226,0.12579513,-0.03715926,-0.09203794,0.059916154,0.07883358,0.06332354,0.0611815,0.120212436,-0.0873897,-0.06357495,-0.051305134,0.10094586,-0.019588899,
                       0.093810566,0.039453685,0.10608258,-0.038086683,-0.04075117,-0.0053907335,0.00782857,0.09964059,0.04968252,0.122172445,-0.0012604768,
                       -0.103843115,0.013763481,0.017953156,-0.054131728,-0.12803648,-0.14196514,0.03038692,-0.12270745,-0.022278713,-0.10682302,-0.031868856,-0.029422587,-0.025756322,-0.08673779,0.055100985,-0.06752152,0.005823508,-0.115192965,-0.044165384,0.13005519,-0.04438004,0.0038040301,-0.037883222,0.08331508,-0.11411205,0.042047787,-0.12037789,0.055790648,-0.042778704,0.082919456,-0.020741204,0.12518305,0.12854327,
                       0.13252054,-0.007751083,-0.035601217,0.068768956,-0.004157922,0.13469578,-0.12185153,0.030502293,-0.07587634,-0.11624404,-0.1445557,-0.075315595,0.12590078,0.006342261,0.07894271,0.12216803,-0.11761536,0.10783257,-0.097600155,-0.049685016,-0.10145784,0.096211165,0.03677181,-0.022440687,-0.037205767,0.051230572,0.006685893,0.113035135,0.11981787,-0.07992084,0.080147475,0.12593146,
                       0.060236976,0.055000585,-0.10344446,-0.029975466,0.14016852,0.0027728698,-0.0823894,-0.054666545,-0.02317552,-0.039695967,-0.13429078,0.08015703,0.1064564,0.122810215,0.1235691,0.07604815,0.010392026,-0.023619613,0.10473925,0.04914876,-0.0051436275,0.0406226,0.06670912,-0.03384489,0.019176759,-0.020657532,-0.11355842,-0.11145953,0.113264635,0.027277566,0.10692165,-0.034873478,
                       -0.07461511,0.113577046,-0.08618702,-0.016181773,0.10677587,0.106821805,-0.122532316,-0.057441078,-0.115201965,-0.042184606,-0.10411235,-0.054418072,-0.09916026,-0.12771279,0.11959589,0.07897782,0.052815627,-0.05866413,-0.012742772,0.06579331,0.06518225,0.02626403,0.02432973,0.016163051,-0.04848788,0.052585807,-0.10075326,-0.0025606805,0.13520776,0.13930744,0.08437896,0.012042863,
                       0.12238143,0.057707183,-0.080163784,0.1026987,0.108167924,0.040378083,0.07418044,-0.06150905,0.014380658,-0.0019228215,0.027261347,0.044348836,-0.05276338,0.064156264,-0.07698276,-0.086287394,0.11364597,0.0130302245,0.117361635,0.09901358,-0.088333204,0.0049756975,0.023660017,0.06844496,0.055772893,-0.010915419,0.040858615,0.04887384,-0.12419878,0.016581802,-0.107349284,0.0644228,
                       0.007279637,-0.07415047,-0.03541323,0.120104134,-0.11000519,-0.03580324,-0.009419367,0.04157697,-0.060387697,-0.026855635,0.062345795,-0.09227784,0.09056294,-0.021353444,0.11216563,-0.04637212,-0.003497857,0.04443198,-0.045593806,-0.0034322878,0.09363679,-0.043494925,-0.112140164,-0.007840047,-0.10580391,0.10405679,-0.09464882,-0.059440807,-0.08028923,-0.122532465,-0.046014026,0.040789075,
                       -0.058522202,0.09453899,0.065871984,0.018125169,-0.1254013,-0.02574559,0.10306498,0.082492046,-0.09724554,0.027977705,0.06743672,0.117809124,0.07602971,-0.020020239,-0.07728386,-0.05901064,-0.030358333,-0.069775485,-0.012538146,0.01677046,-0.08832163,-0.06339546,0.11652135,-0.12457177,0.12174807,-0.12895393,-0.101227865,-0.021420209,-0.132114,-0.09881201,0.032480165,0.0813517,
                       -0.13016485,0.029036375,-0.07311704,-0.07443876,0.13762741,-0.13520375,0.08285861,-0.07145915,-0.029215971,-0.02255941,0.081697695,-0.107542835,0.035727095,-0.0011595747,-0.10732724,-0.040926978,-0.041867197,0.04916579,0.02737693,0.12734267,-0.1338908,-0.0559251,-0.09465674,-0.1165827,0.05549583,0.021308474,0.05413505,-0.13483755,-0.033404518,-0.025680222,0.105345555,0.05033838,
                       -0.1320449,0.061359644,0.05716776,-0.009005634,-0.030125538,-0.086613245,-0.06377687,0.09735933,-0.03256111,-0.033846915,0.1112642,0.07470601,0.06455005,0.08955464,-0.11910142,-0.073902756,0.08313884,0.09088449,-0.070558995,0.010984505,0.035475004,0.12950544,-0.02149875,-0.001639516,-0.13456762,0.05461687,0.088935636,0.021867942,-0.0469088,-0.052989572,0.06833434,0.09041305,
                       -0.088799365,-0.08677122,-0.0031710211,-0.10830023,-0.10133201,-0.08249565,0.005814283,0.006969882,-0.040815327,-0.07462837,0.14272475,
                       0.09454616,-0.06550354,-0.11237963,-0.047727928,0.118216634,-0.07801403,-0.0809311,0.017458675,-0.098045535,-0.074130416,0.057760864,-0.012587404,0.095902175,-0.10831765,-0.13018773,0.08611921,0.03625217,0.02213201,0.07223799,-0.006342038,0.077712536,-0.03790271,0.079462945,-0.10674367,-0.03981664,-0.10915816,0.043001927,0.048753724,0.0343018,-0.029553447,0.046994194,-0.11009186,-0.11517662,
                       -0.09555691,0.015431091,0.04136698,-0.07459878,-0.12151631,-0.078023575,0.05344696,0.06829839,-0.009961869,-0.08276289,-0.0014962568,0.12949459,0.009416898,-0.08856116,0.08027089,-0.07241651,-0.088243306,-0.12311182,-0.11686436,0.0034693219,-0.031817615,-0.12193469,-0.04775926,-0.05101651,-0.06339081,0.08838551,0.0857021,0.127484,0.1280341,0.14610897,-0.042202435,0.019112425,
                       0.11441304,0.12839584,0.10954371,0.096973926,0.042740244,-0.02818932,-0.1256536,0.081544906,0.11801259,-0.059087124,-0.067577526,-0.07356981,0.00066050526,0.05880108,0.044618208,0.04823157,0.10076522,0.09627786,0.10002451,0.07895006,-0.00023936247,0.12747313,-0.058105066,0.10096148,-0.10893056,0.09874638,0.08002825,-0.0075219646,-0.07004479,0.09293674,-0.03567304,0.106719345,
                       0.1103046,-0.13855886,-0.04046558,0.12330104,-0.060790498,-0.11032847,-0.014547896,-0.036149208,0.06397669,-0.15423666,-0.037076395,-0.015629977,0.08297319,-0.113820985,0.11157035,-0.089574814,0.05362649,-0.093668945,-0.072384946,-0.08991879,0.016804628,0.05320029,-0.018930778,-0.022132646,0.060747217,-0.08763348,-0.08963313,-0.099418156,0.10583284,0.049821116,0.12139401,-0.117444865,
                       -0.0027594166,-0.10326438,0.03570817,0.11203315,0.07778549,-0.041210152,0.04041563,-0.13880137,-0.13257973,-0.13940446,0.095524184,-0.05994265,-0.102450274,-0.10601495,0.029467098,0.04866381,0.059885968,0.034636956,-0.06923778,-0.023853898,0.10739562,0.07847685,-0.0013029354,-0.061688,-0.059687138,0.071636096,0.12492964,-0.029342834,0.03518579,-0.100165255,0.07401641,0.11095994,
                       0.14126621,-0.069668956,0.012319291,-0.08350015,0.04124036,-0.051053476,-0.1411149,-0.08949687,0.057199225,0.052100133,0.095466495,0.09412745,-0.0136094745,-0.06309656,-0.06139008,0.13335018,0.034055397,-0.04024465,-0.10150257,0.028513992,-0.01112929,-0.12529317,0.065881014,-0.0058335024,-0.0711204,-0.14903246,0.029246652,0.12080948,0.10968029,-0.10705605,0.1294008,-0.04933938,
                       -0.10391563,0.011721141,0.003956086,0.09245389,0.091812685,0.06253054,0.04078085,-0.12693082,-0.0037991446,0.042579696,0.054151047,0.067025214,-0.028778205,0.056080606,-0.08335801,0.073739894,0.042521622,-0.09438293,0.14993301,0.0031006082,-0.12134127,0.0048715384,0.008655185,-0.03545617,0.12737349,0.07453629,-0.09479169,-0.08574783,0.06476028,0.15111332,0.12062665,-0.111099906,
                       0.13114144,-0.0968826,0.12604347,-0.09794306,-0.12547737,-0.057442978,-0.04137296,-0.066803366,0.14112717,-0.007827881,0.04142139,-0.11530006,-0.11409359,0.106184326,0.07240854,0.010489401,0.0809067,0.023426255,-0.016256155,0.05770066,0.11387009,-0.112982005,-0.07682091,-0.057136133,-0.059910804,0.051450267,0.02693093,-0.039658654,0.01002437,0.08128833,0.07955867,0.13475606,
                       0.06757804,-0.050681252,0.034992166,0.01718625,-0.025623998,-0.03466622,0.070275046,-0.1036618,-0.069928706,-0.06253822,0.04729317,-0.0694376,0.04975497,0.05748592,-0.011703639,0.012911372,-0.052337576,0.108221896,-0.07039795,0.025899518,-0.12218066,0.05645841,-0.056273624,-0.055856854,0.063252255,0.08805727,-0.1274609,-0.06856848,-0.017280243,-0.03755491,-0.11707899,0.026144423,
                       -0.11776874,0.13248837,0.084371135,0.03999073,0.022954645,-0.008390494,0.022109352,0.035117984,0.0024410028,-0.06125485,-0.07556867,}; 



float saved_biases[5] = {-0.0023448218,0.0013438467,0.0002574799,-0.0020929314,0.0054141376};