float saved_weights[1500] = {
                       -0.016171856,-0.086666524,0.0044024386,-0.090648845,-0.11088308,0.011874619,0.02530028,0.022283854,-0.034907985,0.055438533,-0.004239565,-0.02706434,-0.0021825482,-0.11948861,0.025234537,0.09942705,0.089561984,-0.1052292,0.07220641,-0.037574288,0.031238742,0.039899163,-0.019444263,0.122178994,-0.06453735,0.01529564,-0.039870672,-0.11469265,-0.10490547,-0.054508645,-0.00383672,0.013793364,0.018994726,
                       0.115562044,-0.02146793,0.09308921,-0.016150136,-0.06642749,0.11053475,-0.10521591,0.009003925,-0.046813615,0.005677047,-0.055871073,0.070485316,-0.11889047,0.00018850357,-0.06376618,0.05070613,0.028995434,-0.12426699,-0.057404645,0.122093216,0.12787229,-0.00984843,0.06394498,-0.064589396,0.10834752,0.118890375,0.024090534,-0.011698552,-0.12998709,-0.078220055,0.005446922,0.0010988782,
                       0.02350194,0.042012956,0.053077985,0.09765429,-0.019344063,0.05154585,-0.08574647,0.0039644027,0.061171815,-0.003175716,0.004096983,0.042902283,-0.060924385,-0.04250012,-0.07077623,0.02058999,-0.02793518,-0.04510588,-0.12244541,-0.107124135,-0.1146815,0.0258005,-0.030660609,-0.10008326,-0.06172736,0.02285114,0.06979902,0.094108984,0.06680436,-0.043796115,0.11552369,0.08519869,
                       0.087625705,0.02479282,-0.116460234,0.121332206,0.013129204,0.1335745,0.09578004,0.0790704,-0.1170275,0.05403026,0.10675345,-0.039815385,0.044072017,0.04834306,-0.046315283,-0.042823315,0.07248358,0.09921658,0.09674231,0.12045301,0.05107815,0.022275537,0.011581608,0.042879798,0.13163425,-0.12929755,0.062272612,-0.043643583,0.0908606,0.07841698,-0.08670123,-0.11531047,
                       -0.048434485,-0.040036418,-0.071831845,-0.064723015,-0.028569698,0.04183708,0.103186734,0.06016594,0.060626876,0.101156786,0.08190651,0.019709507,0.11653413,0.009333703,-0.0154481875,0.12938985,-0.11201135,0.09908205,0.06523866,-0.11911583,-0.06803405,-0.07402342,-0.0039902925,-0.08867107,-0.07787484,-0.05543063,-0.05621459,-0.13234231,0.061451007,0.06848147,0.10393869,0.1290099,
                       -0.13286254,-0.07343974,0.047645863,0.06640961,0.12697352,-0.04971313,-0.12889597,-0.0031216876,0.03716943,-0.12876114,-0.0018417893,0.044556685,0.090458944,0.020185433,0.07489242,0.048278507,0.031936295,0.018692635,0.11847142,-0.009529717,0.044563122,0.074981354,0.07715472,0.051556442,-0.06261922,-0.041969508,0.021550257,0.05318681,-0.14455898,0.088547386,0.01941315,0.015082552,
                       -0.104398414,-0.12527628,0.013200149,0.105759114,0.041938692,-0.1292251,-0.11343667,-0.034133025,0.05662574,0.005144457,0.11809434,0.028655479,-0.09401868,0.08258314,-0.13481943,-0.0014585744,-0.134079,-0.057392344,-0.048102103,0.0667296,0.098288134,-0.0035750815,0.13654985,0.08618816,0.09905276,-0.13427135,-0.13324375,-0.057842538,0.012843739,0.005448503,-0.09568342,-0.12937438,
                       0.092391364,-0.12427884,-0.119131535,-0.0965229,-0.07463807,-0.07938329,-0.050502013,0.058443192,0.11749062,0.071390815,0.12415176,-0.04105764,-0.030091096,-0.10022994,0.030861773,0.063573964,-0.0003220588,-0.10428626,-0.06978003,-0.055965923,-0.10453802,0.08648623,0.06305466,0.06372127,-0.13254592,-0.024204837,0.09598211,-0.047643382,-0.0173644,0.0058737276,0.085630774,0.037943304,
                       0.022467928,0.055877924,0.12796676,-0.004870964,0.090763286,0.05943109,-0.093299024,-0.010452833,-0.10217259,0.08998077,-0.091280654,-0.020503843,0.09051009,0.058262285,-0.14139377,-0.07874784,-0.010171511,-0.02035694,-0.047227133,0.014188376,-0.005051161,0.02318836,0.07985639,-0.053777758,-0.087010704,0.13058634,0.029649297,-0.014392176,-0.006457472,-0.05595667,0.0077285487,0.11298481,
                       -0.04395599,0.033294875,-0.10888981,0.11381275,-0.0897339,-0.10765521,-0.11934079,0.07502509,-0.06563701,0.094067685,0.106261104,
                       -0.074164085,0.061604477,0.041208867,-0.008553638,-0.07914348,-0.11833374,-0.019909352,0.0433841,0.023246791,-0.0018731,0.00656484,-0.11508677,0.07200318,-0.10833298,0.024241567,0.13538414,-0.05687967,0.1345437,-0.014907895,0.099738486,-0.034149237,0.116556995,-0.09454489,0.12220339,-0.10317207,0.12317445,-0.024300681,-0.08090452,0.11576396,-0.022450527,0.114092395,-0.12208696,-0.08312686,
                       -0.05240332,0.028332425,0.08802361,-0.092665404,0.0017385547,-0.003315462,0.010986827,0.00023479448,-0.08267638,-0.06340302,-0.056688406,0.096077055,-0.1389382,0.1152955,0.03163807,-0.016420957,0.0082336245,-0.106967986,-0.028754458,-0.04490351,0.04652738,-0.09547569,-0.0034936431,-0.09523109,-0.0014021209,0.0038943815,-0.0030907881,-0.0077161994,0.04215662,-0.03212201,0.079484284,-0.12594233,
                       -0.058991354,0.10392445,0.108043514,0.031687804,0.0763086,-0.10428317,0.124842145,-0.11878751,-0.08340517,0.05010123,0.110154115,-0.024325404,0.038187396,0.10712555,0.041217588,-0.019437814,-0.12301777,0.05785291,0.124981515,-0.051206585,0.05104596,-0.13140574,0.018123664,-0.122602284,-0.12975544,-0.08966277,0.024316527,-0.096349835,0.1250175,-0.123279564,-0.057739962,-0.11794217,
                       0.014799751,-0.062492352,0.07495414,-0.12763596,0.032706354,-0.024144843,-0.056982804,0.14543444,-0.06607209,-0.13735884,-0.10693647,0.084033765,-0.050617814,0.11843019,-0.11609762,0.13918974,-0.075097375,0.0735672,-0.07454056,-0.11526345,0.032768264,0.092362195,-0.1033506,0.13254336,-0.12665291,0.040325817,-0.0952226,0.11216086,-0.033046495,-0.06945229,-0.09821352,0.094513044,
                       0.10612569,-0.1308036,-0.08069293,0.040083677,0.10115005,0.11263911,0.07369095,-0.11520835,0.032381237,0.06608261,-0.084888786,-0.09508522,-0.04089244,0.041884836,-0.054010227,0.024696363,-0.08025974,-0.08057126,0.08288323,0.087402105,-0.0849972,0.09381767,-0.12611102,0.05165962,-0.076032855,-0.020311594,-0.030875009,-0.02789996,0.05486684,0.049779385,0.023947198,-0.04476128,
                       -0.105620794,-0.09581076,-0.032641478,0.039181266,-0.055693634,0.08813627,-0.087875836,-0.015452319,-0.091387756,0.08914808,0.009664435,0.12281908,-0.05820103,0.07666843,0.14282739,-0.030796573,-0.04509743,0.11219073,-0.070915274,-0.08843451,0.1278751,0.036305804,-0.06702091,0.09540236,0.10366647,0.012909086,-0.08442074,-0.11216203,-0.11650449,0.063086666,-0.03815999,0.12061588,
                       -0.10545112,0.0784623,-0.09362895,0.08455446,0.10915545,0.010605279,0.004042814,0.056994013,-0.023124713,-0.11308944,0.09884228,0.07352519,-0.061555896,-0.008655441,0.071090594,-0.04533046,-0.09693154,0.010379801,0.059201162,-0.116930954,0.058793828,-0.09771679,0.1089533,0.023949556,0.0681682,-0.11112409,0.015825285,0.069790594,0.023001019,-0.043560833,0.07521183,0.074173555,
                       -0.047411606,-0.059777416,0.043452315,0.03506566,-0.13726719,0.048459373,-0.06068732,-0.014379945,0.13083525,-0.021181224,0.07705804,-0.029078238,0.029811509,-0.119043924,0.037638362,-0.01639583,-0.11596689,-0.09035356,0.13099301,-0.04899216,-0.051055,0.07560214,-0.008057439,-0.08949072,-0.1295884,0.1293864,0.042818896,0.027111528,0.055586413,-0.050320588,0.044426445,0.04780094,
                       -0.024563266,-0.11525165,0.011440577,-0.077191,0.09093502,-0.065688215,-0.04221409,-0.08301503,-0.022978649,-0.10371092,-0.0399262,-0.010171575,0.02963602,0.015490912,0.10595089,0.08860797,0.10783695,0.04904169,0.027859382,0.089179195,-0.12576833,0.10588752,0.08447068,-0.07067506,-0.009872052,-0.04094623,0.10617998,-0.09348909,0.105539925,-0.027242592,0.11320076,-0.028146109,
                       0.13535853,-0.05583674,0.13309246,-0.124010466,-0.10063084,-0.030283166,0.11210436,0.02784696,0.07146573,0.04542956,-0.10412732,
                       0.04953833,-0.06320743,0.08826147,-0.09533482,0.06946417,-0.07233007,-0.09303285,0.07309842,-0.09794198,-0.12970695,-0.020306008,0.100977354,0.10427924,0.023194682,0.009528679,0.13028184,0.061806913,-0.11890076,-0.12751098,-0.11998786,-0.045511395,0.10668117,-0.10340675,0.008913348,-0.072672814,0.118547365,-0.11081822,-0.012786728,0.076085016,0.088737465,-0.070595615,0.11452386,-0.05165609,
                       -0.024191115,-0.07250152,-0.0022859373,0.12223364,-0.087543584,-0.08938681,0.10729112,-0.13180386,-0.013311375,0.0052534556,0.0003141947,0.094408415,0.0038150698,0.1278003,-0.12141031,0.09489431,0.013976683,-0.022450857,-0.12526634,-0.12710077,0.027593097,0.042796165,-0.0067626326,-0.10566845,-0.04122118,-0.0653226,-0.034493886,0.08609882,-0.095575996,0.056877404,0.006917375,0.12530205,
                       -0.09635854,-0.112029254,0.029627249,0.024184154,-0.019833863,0.02592119,0.114876926,-0.041823626,0.1054326,-0.09226768,-0.038946666,0.013098415,-0.0692017,-0.015724713,0.05476641,0.10589903,-0.048809852,-0.09605485,-0.04747478,-0.06184238,-0.050673038,-0.07342387,0.096220255,-0.11991431,-0.12973355,0.065915614,-0.0277203,0.025356352,-0.038248736,-0.12837741,-0.045431882,-0.09943258,
                       -0.13176174,0.014078796,-0.071607254,0.065130055,0.06749254,-0.09729171,0.009105295,-0.13831607,-0.10159827,-0.11745753,-0.0023412392,-0.117369354,0.066657856,0.0271605,-0.021529285,0.047293544,-0.022942273,-0.017917626,-0.12961504,0.11597243,0.12019936,-0.13822733,-0.03377416,-0.07995361,-0.024861587,-0.04985077,0.12282887,-0.010910197,0.10934619,0.102803,0.044456698,0.07144233,
                       0.014635668,-0.07476544,0.10346139,0.1373745,0.037095875,-0.060305055,-0.07916275,0.064864606,-0.097268976,-0.09134169,0.1326768,-0.046442155,-0.07956764,-0.038502242,0.043232523,-0.06243491,0.10979174,-0.062409822,0.03469981,-0.01184084,-0.06795051,-0.08191643,0.0919069,0.007797176,-0.015572986,0.059447035,-0.10802902,-0.13047644,0.09336389,0.006783057,0.02873485,-0.07480514,
                       -0.089784354,0.11351072,-0.011416395,0.11992125,0.03440834,0.016141228,-0.10351762,-0.06293968,0.044559658,0.10687631,-0.13207352,0.121338405,-0.08748424,-0.10254021,-0.12641598,-0.06129743,-0.11305775,0.009492215,0.052353445,-0.010520395,0.012464076,0.061783016,0.09318506,-0.111843824,-0.02367163,-0.05434123,-0.06161328,0.07381338,-0.106254734,-0.038923834,0.05996791,0.10917224,
                       0.12356704,0.082389295,0.10916773,0.08127133,-0.07636723,0.01380265,-0.07112377,-0.12470792,0.10920248,0.08427009,-0.017738046,0.040863115,0.10084991,0.12006189,0.013105903,0.054632884,-0.08503974,-0.046842057,-0.012361242,-0.0069122533,-0.05191783,0.12058795,-0.04583451,0.13834278,-0.1227451,0.1074179,-0.10303409,-0.062127363,0.017451711,0.028654128,-0.10020168,-0.013794616,
                       -0.13080247,0.10531621,-0.12246704,0.087214805,-0.06559409,0.09784947,0.100308344,0.1284675,0.083995625,-0.12188462,-0.077364594,0.13145588,-0.085611455,-0.008458124,0.025469454,0.029644886,-0.07190616,-0.005214313,0.09443061,-0.044365037,0.11808622,0.1156358,-0.05703732,0.12031232,0.09168302,-0.07926346,0.027725028,-0.072756045,0.04666589,-0.010853523,0.09627115,-0.015925122,
                       0.08025289,0.11493884,0.022543292,0.1138674,-0.13939068,0.012193827,0.07367851,-0.022366768,0.05907532,-0.09218452,0.07429641,0.025591798,0.068273924,-0.1085999,-0.018145705,-0.055949964,-0.026545279,-0.033042993,0.11481287,0.029461954,-0.015684754,-0.14434692,-0.039338294,0.12664708,0.08499385,0.0102953315,-0.03808516,0.08083627,0.08900195,0.046817843,-0.038760856,0.11201501,
                       -0.052608028,-0.09660019,-0.04072106,-0.06857662,0.10983091,-0.055438753,0.051911827,-0.08526564,0.1263991,0.059683174,-0.1505108,
                       0.030002829,-0.0178504,-0.039056826,-0.015302376,-0.001504373,-0.11784891,0.026878744,0.015938258,0.017840115,-0.007272052,-0.08859063,0.10329414,-0.06673106,-0.10066404,0.12330638,0.10074995,0.12329112,0.1324768,0.04339519,0.05736561,0.03446429,-0.045208618,0.022618596,0.112158,0.07553108,0.059103996,-0.1178807,0.10447239,-0.09035351,0.0119631775,0.04953424,0.018706976,-0.017914463,
                       -0.030114535,0.04147421,0.064006016,0.03668323,0.089370914,-0.018908104,0.08603852,-0.060349885,-0.007403644,-0.04807682,-0.0025022074,0.11324559,0.10088883,-0.018688794,-0.10019918,0.0005695965,0.07207804,-0.12176681,0.088770166,-0.011887908,-0.028504193,0.118141755,-0.051588964,0.042584203,-0.025583504,-0.047468055,-0.08160825,0.074604034,-0.06397724,0.124439195,0.028817669,0.0629348,
                       0.022747189,0.04333924,-0.13987772,0.051143754,0.11921372,0.1321795,0.1282795,0.015915306,0.004045141,-0.09586274,0.12938231,-0.021956684,-0.13670559,-0.11510667,-0.08461593,-0.06762375,-0.00625928,0.0017941622,0.045699544,-0.13304447,-0.045161214,-0.072957024,-0.11264913,0.07343128,0.1357405,-0.112354964,0.008297115,-0.095066175,0.039849818,-0.14055017,0.0021107853,0.08969563,
                       -0.06506077,0.058552284,0.031516276,0.014968755,-0.12422802,-0.0105786165,-0.05378406,-0.044669315,-0.072152324,0.044629212,0.017632725,-0.03913043,-0.082060166,0.048559967,-0.087880746,0.07546617,-0.114509925,0.040175427,0.1180953,-0.017008584,-0.14293657,-0.077316046,-0.080991015,0.0015801042,-0.08643293,-0.09452633,0.0899429,0.00025160753,0.084389746,-0.12686224,-0.056976847,-0.10075039,
                       -0.0058394047,-0.04642836,0.09888933,0.12669867,-0.107067056,-0.051595766,0.08801669,0.09760725,0.13217384,-0.07597074,-0.111249104,0.12168525,0.005449474,-0.083120465,0.11798275,0.039373223,0.056760617,0.09850535,0.060812786,0.020315975,0.120157965,0.048288714,0.117392674,-0.09567003,-0.08388205,0.06514937,-0.034666922,-0.012213389,-0.075077236,-0.07459617,0.027387168,0.060774308,
                       -0.052889004,-0.119815044,0.0061638947,-0.03191221,0.077151716,-0.06423938,0.003283028,0.055555202,-0.047173575,-0.018876985,-0.051750448,-0.010199382,-0.13129087,-0.012619338,0.0038461704,0.027973788,-0.10627048,-0.048176214,-0.053169772,-0.072410084,0.06330077,0.09540317,0.054597553,-0.09097014,0.013051154,0.07811595,0.101031914,0.021987507,-0.07480873,-0.029752795,-0.04556867,-0.019803097,
                       0.03824744,-0.0036551422,-0.104559384,0.097868316,-0.12494962,0.009951388,-0.051136516,-0.018073373,-0.07660533,0.09232429,0.10565459,-0.01760924,-0.12641242,-0.041636705,0.097243406,0.071355544,0.11051403,0.0042924643,0.08783104,0.12637101,0.0729024,0.013518732,-0.013638811,0.08437869,0.11659743,0.0077917017,0.024828447,-0.0799304,-0.08125922,0.1094096,0.05436667,0.09018215,
                       -0.003895605,-0.016128588,-0.029513055,-0.059528247,0.06436627,-0.046243202,-0.12424585,0.048646014,0.0914526,-0.12908855,-0.09787738,-0.048945263,-0.09342671,0.007150768,-0.058948718,0.023879955,0.08372672,-0.023780093,-0.017610013,0.004869223,0.09945184,-0.07321791,-0.067793675,-0.06105203,0.05076428,-0.005764745,0.12780975,0.017213177,-0.028602567,-0.119257554,0.12778892,-0.076891564,
                       -0.106042966,-0.061587784,-0.13744645,-0.07355334,-0.09194693,-0.05362104,0.028691793,0.04324496,-0.1296524,-0.018645873,-0.12266417,0.055737354,-0.10710997,-0.0067283367,0.094194934,0.08783434,0.07891339,0.10570343,0.054753482,-0.122543186,0.118751906,0.10100659,-0.0046335054,-0.10112712,-0.0528992,-0.065076545,0.14464328,-0.057340782,0.09484933,-0.019241909,-0.059099503,-0.028959032,
                       -0.029022789,-0.06824557,-0.06288864,0.026531829,-0.03858666,0.11683633,0.079696216,-0.03652347,0.09789243,0.044464696,0.04618228,
                       0.0996434,-0.12135359,0.059792474,-0.024258858,-0.12076631,-0.07091802,0.13033636,-0.10297008,-0.013644104,-0.101416856,-0.07702906,-0.03984662,0.05727515,-0.09419597,-0.0740651,-0.06069351,-0.014931574,-0.00985742,-0.0077642733,-0.08656553,-0.018135509,0.040401638,-0.0479446,0.07740627,-0.13079056,0.08391149,-0.05003187,-0.03461634,-0.027452987,0.117563605,0.04162819,0.13033167,0.08631516,
                       0.12886481,-0.012968214,0.005964266,-0.122758396,-0.011870862,0.082143076,-0.111229226,0.12124637,-0.12533824,-0.041824616,-0.11346891,0.058912374,-0.037079602,0.030006902,0.090440996,0.044997327,-0.04148359,-0.13629705,-0.09345878,-0.0011220579,-0.12546411,-0.09839822,-0.047114357,0.10874352,-0.006977934,-0.11369218,0.13850343,0.09063127,-0.06037405,-0.08954255,0.06950936,-0.097351864,
                       0.027115677,0.10788755,-0.073039696,-0.01973844,0.053830907,0.03565952,-0.083318666,0.03596743,-0.12478623,0.03620904,-0.015557597,-0.06703216,-0.05684736,0.09377989,-0.06493554,0.107620746,-0.07848041,-0.018291803,0.092477284,-0.053170756,0.0068020653,0.12722614,0.13615936,0.02010527,0.08271407,0.051730584,0.030574214,-0.005608484,0.106418304,-0.09870701,-0.10543564,-0.023980664,
                       -0.0736121,0.033291653,0.10701731,-0.09089921,0.1090938,0.11961015,-0.10894877,-0.12303679,-0.044056907,0.09777752,0.03317696,-0.07657624,-0.023068268,-0.04295628,-0.119123526,-0.028514825,0.053641863,-0.1300225,0.11764597,-0.14757447,0.05702794,0.0012108922,-0.0031810452,-0.12369974,-0.029342802,0.061831035,-0.11059186,0.0134029165,0.038500577,0.032626033,-0.02219821,-0.05414914,
                       0.036147114,-0.056357138,-0.02395585,0.08946246,0.041262265,0.11392961,0.00016285483,0.07853021,0.066234514,-0.06828463,-0.07159292,0.07822548,-0.045644782,-0.12169738,-0.017222047,0.056857333,0.08127189,-0.070045896,0.031285193,0.09461859,0.065062605,0.00034808734,0.0013566848,0.031408772,-0.052274153,-0.11731293,-0.070420764,0.11304738,0.08611364,-0.02483174,0.12494701,0.1286157,
                       0.10079507,-0.03945433,-0.0017531149,-0.10738926,0.028439313,0.010745894,0.04341768,0.020081833,0.13939424,0.12100599,0.07852966,0.032250777,-0.094889574,0.083115906,-0.059381235,-0.09478353,-0.13131765,0.0638699,0.023908446,-0.11569814,0.012624514,-0.13019274,0.01061086,-0.13953778,-0.10766035,0.049088553,0.10517663,0.11721341,-0.039346814,-0.024086539,0.007059651,0.029789258,
                       -0.09916861,0.053719744,-0.08453544,0.06307503,-0.028475827,-0.11906183,0.009967151,-0.0071802153,-0.09690305,0.14717849,0.051370405,-0.11463583,-0.046462677,-0.13034756,0.1336933,-0.050440103,-0.10330902,0.044375192,-0.041601308,0.07007763,-0.10707024,-0.015626987,0.10476064,0.008336274,0.06158407,-0.05787323,0.09226399,-0.0037209804,-0.079664566,0.07385135,-0.0028372363,-0.0006031272,
                       -0.016251577,-0.026873637,0.060484048,-0.044889744,0.12370929,0.11685606,0.08639541,-0.10942429,0.06615647,0.005894497,-0.079347886,-0.0067091007,-0.046635903,0.10851432,0.071837075,0.10843063,0.033803716,0.06954229,0.0692873,-0.06696268,0.0040751677,0.13028027,-0.072011225,0.070865065,-0.022443047,0.035555087,-0.09282516,-0.051890146,-0.015857881,-0.12692906,-0.034913704,0.0049344166,
                       -0.035363108,-0.11954144,0.03783298,-0.11798404,0.060278207,-0.009850487,0.00067675114,-0.036080264,0.07884595,0.065917134,-0.045701165,0.08225698,0.09428498,-0.06368742,-0.020008141,0.040156946,-0.09223045,0.022600837,-0.020296909,-0.08303585,0.052612863,0.11026309,-0.1404377,-0.026465932,-0.14642672,-0.11882924,0.0038170672,0.089525476,-0.07214369,0.08550651,-0.019916652,0.13238305,
                       0.12510417,-0.10178328,-0.109678835,0.032471776,-0.042098064,-0.118700676,-0.05125178,-0.04191086,0.06247339,0.012630464,-0.09459202,}; 



float saved_biases[5] = {-0.0009658667,0.00020087295,0.0019083662,0.00078661606,0.0026419857};