float saved_weights[1500] = {
                       0.11701184,0.05270568,-0.027668219,0.01300837,0.028829439,0.016954182,-0.009277275,0.062193356,-0.0601167,-0.07163938,0.11900538,-0.09983745,-0.06661129,-0.042228136,-0.120135605,0.02079908,0.12926355,-0.024175817,-0.02504691,0.0076727797,0.029752167,0.046806104,-0.040151723,0.057613812,-0.10968131,-0.032374535,0.03925913,-0.10897879,-0.12438626,0.068570845,-0.123202175,-0.065747544,0.11099925,
                       0.056954123,-0.0475873,-0.037889544,-0.08649851,0.006783681,-0.11666967,-0.06865612,0.14021315,0.11373192,0.09297553,-0.001512811,-0.04204033,-0.114456266,0.083149046,0.054794155,0.07518182,0.14709903,0.06767938,0.051011324,-0.117893524,0.021183575,-0.070651814,0.020054294,-0.1004969,-0.08581329,0.077015765,-0.09226528,-0.075826444,-0.07854059,0.106085345,0.0180727,-0.0985882,
                       -0.07233809,-0.046328496,-0.108443886,-0.101160996,-0.10902844,-0.03162379,-0.03465039,-0.07145937,0.026864793,-0.05191063,0.052274287,-0.074327506,-0.11352193,-0.11279141,-0.07322967,-0.019334342,0.06539774,0.07986378,0.084078334,-0.027476743,-0.14513998,0.0028118836,-0.020376284,0.087565124,-0.045244984,0.08033017,-0.026895609,-0.11045291,-0.09965174,0.09210641,0.018693592,-0.06863647,
                       -0.08228829,0.062211126,0.010284063,0.0082967635,0.08719381,-0.03239648,0.10504962,0.14266644,0.11375811,0.107062146,0.112300605,0.03532438,-0.008038288,0.1330565,-0.011622458,-0.020169023,0.060825605,0.12238261,0.09153748,-0.040553566,0.12759043,0.06427861,-0.09285009,-0.030981906,-0.0645502,-0.09859408,0.095698476,0.09440109,0.11778713,-0.070065424,0.048789065,0.06655085,
                       0.025760965,0.026532793,0.053669248,-0.04683929,0.09581208,-0.020345863,0.11765785,-0.05734013,0.05452853,0.05664067,0.011259948,0.10722921,0.12326843,-0.065269105,-0.07939283,-0.12988573,0.02148492,0.016091816,0.08289587,0.09850936,-0.017311575,-0.04880774,0.053618476,0.079318054,0.10263398,0.07247799,0.09301485,0.07747417,0.031170767,-0.09475736,-0.05649568,0.088661455,
                       -0.03261724,0.03329125,0.02326259,-0.07588387,-0.07869559,-0.05911114,-0.089336716,-0.07191659,-0.11154711,0.064250655,0.028999722,0.10985784,0.07843071,-0.07850192,0.12536167,0.11862841,0.058196563,-0.110419445,-0.00559835,-0.062266715,0.020082247,0.09371958,-0.124429226,0.018765915,0.09503641,0.12114965,0.11409573,-0.07276259,-0.064130396,-0.13616177,-0.010261563,0.01812581,
                       0.11159844,-0.10129525,-0.0505132,-0.07702406,-0.06161921,0.031068811,-0.012483723,-0.036560383,-0.09765022,0.099739976,0.07649456,-0.1433143,0.124711454,-0.070008405,0.040676586,0.062212538,-0.061638374,-0.08811478,0.02958553,-0.14075959,0.14765121,-0.03991446,-0.054081984,-0.06244578,-0.12711291,-0.023029873,0.10468655,-0.14538454,-0.04036972,-0.024521649,-0.095306024,0.044147767,
                       -0.058543254,-0.018390805,0.12857008,0.09646484,-0.11675749,-0.10543563,-0.024958491,0.030140387,0.08415223,-0.14846969,0.022338752,-0.024239691,0.018496264,-0.097027056,0.004095087,0.025418097,0.13438506,0.0005393386,-0.054268666,0.00330634,-0.06602173,-0.044988815,-0.020657208,-0.012361621,0.06141745,0.0333694,0.058474563,-0.110778086,0.098322846,-0.15147594,0.0007746491,-0.06254286,
                       0.11551038,-0.047393035,-0.0027561416,0.10799245,0.099154316,-0.04721196,0.084310465,-0.101456024,-0.046042446,0.116696045,0.041196745,-0.055344973,-0.065218695,0.097440585,0.10180182,-0.09191132,0.0107821105,0.10525465,-0.028051045,0.093645036,0.14125869,0.080446586,0.026781868,0.0731266,0.096581824,-0.00044353245,0.048053388,-0.12800539,0.11501231,0.05304376,0.041372754,0.12562995,
                       0.124752685,0.089484215,-0.11337806,0.059601072,-0.12519349,-0.090845205,-0.049693435,-0.016529413,0.034341484,0.029005133,0.0024921054,
                       0.10141406,0.07963387,0.108713396,-0.093878314,-0.009790499,-0.009927584,-0.039836485,-0.11260359,-0.04540205,0.08079728,-0.06419897,0.08175574,-0.037454274,0.030809872,-0.14263819,0.043558452,-0.07696537,-0.018671421,0.04634382,0.10071273,-0.08150408,-0.11015377,0.14897712,-0.081395105,0.13261494,-0.09477956,-0.12847668,-0.06497066,-0.031240126,-0.055630524,0.041891646,-0.01889236,0.054015964,
                       0.09284807,-0.09442674,-0.03095433,-0.13959932,-0.09889464,0.031624086,-0.057488136,-0.12609787,0.005688172,-0.023164855,0.025537398,0.07565079,-0.12733561,-0.02613835,0.12270871,-0.109604806,-0.072590455,0.06623315,-0.12734108,0.037338514,-0.07486067,0.007450689,-0.1212145,0.043226734,0.035480943,-0.10705078,-0.012347783,-0.13686839,0.0119325975,0.09945303,0.14424759,0.03930307,
                       -0.10478254,0.09543525,-0.00988194,-0.03574327,-0.07641363,-0.019554496,-0.067764215,-0.08343353,0.080391884,-0.03278003,-0.11370812,-0.10952508,0.08633864,0.05091998,0.12848751,0.05378485,0.024304673,0.03751973,0.1315439,-0.07577942,0.021668285,0.0024300897,-0.020333529,-0.027656337,0.011049805,0.09891313,0.050854765,0.08900445,0.07998303,-0.06464693,-0.0039772796,-0.01173454,
                       -0.005538022,0.04054093,-0.061728243,-0.106213026,-0.06922161,0.04709386,0.04323567,-0.058617055,-0.0016442293,0.05066125,0.046162087,0.036457617,-0.093570925,-0.043421052,0.0602354,-0.050681442,-0.03155088,-0.13928606,-0.11725537,-0.02333889,0.061650354,0.02576919,0.11148161,0.14350523,0.060578912,-0.008663476,0.05784648,-0.09791487,0.125459,0.06144824,0.10592947,-0.003593425,
                       0.018812682,-0.08264337,-0.11376061,0.09608815,-0.06158045,0.11254613,0.014415761,0.10229687,0.045888424,0.02690642,0.12462684,0.012937786,-0.04398327,-0.106865756,-0.013282216,0.120698705,-0.009437775,0.107503586,-0.017176637,0.03670381,-0.029725704,-0.074186996,0.10619009,0.07178369,0.03726607,0.07141103,0.008373339,0.055804223,0.038029063,-0.0662961,0.0007951643,-0.019997703,
                       -0.01914488,-0.016130365,-0.0061650733,0.06342441,-0.011108803,0.10063409,-0.124756865,-0.04000786,0.09275223,0.010031719,-0.09827503,-0.09874997,-0.0071889767,0.047374062,-0.04606501,-0.12191372,0.090203464,0.08296575,0.02040574,-0.13761808,0.06427525,-0.115848646,-0.058129244,-0.0065676863,0.110234775,0.045423467,-0.019775024,-0.040570322,-0.03986261,0.099642225,-0.117582455,0.098463446,
                       0.023302723,0.07042876,0.09277839,-0.047899477,-0.12012672,0.07338134,0.068372846,0.10301976,0.10257099,0.06505283,-0.00038092927,0.16117822,0.055883598,0.10965169,-0.12490502,-0.10783756,-0.07691758,0.03321717,0.07711416,-0.06388671,0.013425748,0.12707166,-0.09689795,0.049424637,-0.021325316,0.124145836,-0.0006445156,-0.015983412,-0.074883565,-0.1162018,-0.06035431,-0.09974206,
                       0.12890473,0.0452808,-0.058564004,-0.077899285,-0.047162507,0.089363456,0.0129801715,0.036910217,0.01137297,-0.03771605,-0.04192387,0.01630032,0.024291046,-0.12955946,0.028258355,-0.09945382,0.05913194,0.031150613,-0.026646253,-0.031171443,-0.13882196,0.050188694,0.024183981,-0.10010975,-0.09529783,0.13545014,0.090343855,0.041186757,-0.11865991,-0.102925934,0.11960331,-0.01996765,
                       -0.020642748,-0.075128675,0.08347722,-0.12077236,0.044071868,0.12818788,0.12994039,0.03503768,-0.104005456,0.029125165,0.004774449,0.0444929,-0.0619034,0.09465313,0.065451734,-0.06369212,0.05732523,0.048798595,0.0034361198,0.09979883,0.05098358,-0.01270497,0.13587624,0.06023336,0.11334083,-0.05692588,0.13865024,0.02608987,-0.11801163,0.118398786,0.01630244,0.07459239,
                       0.0021079592,0.039063048,0.022590343,-0.0049215103,0.045563936,0.021399671,0.004294538,0.019407481,0.06095332,0.08528957,-0.01601095,
                       0.08961543,0.046621967,-0.028782275,0.1260297,0.065405145,0.118405335,-0.10320293,-0.08965539,0.09993295,0.06300687,0.037178278,-0.014475424,0.009764303,-0.030884638,0.024166616,0.117318295,0.020452416,-0.073593765,-0.05109853,-0.021883901,-0.04509817,-0.037292298,-0.10609082,0.1179414,0.05586599,0.042348314,0.08703379,0.091576606,-0.10389412,-0.07972509,0.12117695,-0.016048135,0.0032523626,
                       0.07478626,0.051851973,0.00984635,-0.06896766,0.057884436,-0.05280036,0.028617635,0.07468991,-0.027936004,0.13735084,-0.026814455,-0.056402266,0.0402986,-0.0016984578,-0.033443242,0.03754858,0.09931275,-0.11400117,0.04315507,-0.06374037,0.030014249,-0.024458406,-0.058794133,-0.043093633,0.12067871,-0.067952365,0.0800766,0.102974236,0.08794046,0.15184425,0.080346525,0.0427089,
                       -0.10306952,0.12654895,-0.10070241,0.0049803406,0.10954271,0.09055994,-0.09948305,-0.094073474,-0.03448467,0.09739517,0.0526263,-0.13532373,0.015001641,0.12477309,0.11271896,-0.11653177,-0.019846475,-0.00847709,-0.023131436,-0.11462655,-0.031342078,0.08488631,0.054488428,-0.105680816,-0.019321335,-0.040428907,0.13123024,-0.008594877,-0.004178091,0.11526264,-0.07355034,0.040002447,
                       -0.01564513,0.102253124,-0.012493082,-0.099694796,0.14085571,0.069963425,-0.09882542,-0.09127802,0.0352974,-0.082244344,0.111708865,-0.03464619,-0.07632491,0.037052143,0.025331413,0.11019589,-0.10029988,-0.10513097,-0.10008625,-0.14260575,0.027636241,0.009411732,-0.011472153,-0.058125477,0.015898064,-0.021751005,-0.07614271,0.10602007,-0.123288915,-0.09085022,0.046626274,0.0550713,
                       -0.07054099,0.10111898,0.13161586,-0.01618162,0.021307468,-0.12919834,-0.077896655,-0.0767171,0.031991385,0.040471062,0.12071943,0.11340612,-0.11121681,-0.13148762,0.007917434,0.08198779,0.13165817,-0.0069352677,0.009328304,-0.040972427,0.08843578,-0.054585364,-0.062362105,-0.014630376,-0.100142196,-0.08391523,-0.02853199,-0.10406805,0.101916835,-0.075491086,0.07560864,0.013603967,
                       0.023626493,-0.059885457,-0.073991336,0.09948216,0.08009633,0.043712996,-0.098603636,0.086873345,0.043041945,0.038961604,-0.03483759,-0.0462578,0.14060305,0.103470586,-0.037308205,0.06877637,-0.004613115,-0.016477102,-0.07071614,-0.0232928,-0.11372435,-0.04378604,0.045392573,-0.08762713,0.047954455,-0.10823208,-0.03545465,-0.020949082,-0.10636467,-0.11493949,0.0396354,-0.05039881,
                       0.053113267,0.07067683,0.0082394695,0.053275686,-0.13796964,0.11423099,0.011264163,0.12407201,-0.034391217,-0.06625114,-0.12615879,-0.048300065,0.120243594,-0.004847095,-0.04861754,-0.0352463,-0.10689444,-0.09044206,0.0666154,-0.01674563,0.0055176076,-0.13770077,-0.124182336,-0.06575532,0.07663499,-0.045810685,-0.11236769,0.0253401,-0.10585863,-0.016763967,0.04824389,-0.09585718,
                       -0.0738858,0.11864709,0.053854268,0.015323675,0.04716604,-0.0666138,-0.02825687,-0.07657425,0.09108465,-0.13433819,0.089443386,0.06660409,-0.06924503,0.13330203,1.0574626e-05,0.15743667,-0.028334415,-0.12513779,0.13346015,-0.06968047,-0.0882568,0.052349277,-0.09275292,-0.011677731,0.11811996,-0.12315119,0.088649526,0.1026023,-0.027514853,-0.08738861,0.084552266,0.13356918,
                       0.06322542,-0.038726076,0.04803628,0.003599442,-0.009249955,-0.1289066,0.026442315,-0.12837009,0.052995414,-0.04546994,0.12877232,0.03141557,0.041852012,-0.09425004,-0.13801126,-0.011901636,-0.04785368,-0.07909727,-0.056963198,-0.10355039,-0.07890824,0.09770566,-0.10266103,-0.1117761,-0.0132540045,-0.08877215,0.105857104,0.0416082,-0.12952143,-0.07086189,0.06886445,0.06249138,
                       -0.018495126,-0.11694815,-0.119354196,-0.05034876,-0.10757097,-0.1419991,-0.040235862,-0.11121047,0.07842833,-0.07689147,0.061407916,
                       -0.039973088,-0.06315886,-0.04418538,0.019650865,0.011160844,0.022547234,0.030998416,-0.026646877,0.04178937,-0.09006372,-0.061140742,-0.06265032,-0.027936054,0.020585809,-0.10258372,0.11706965,-0.1342236,-0.13214052,0.06113285,-0.11426635,-0.10011129,-0.0336157,-0.09795266,0.03555824,-0.114025116,-0.018091947,-0.12564498,0.11235218,0.12508386,0.041725267,-0.107536,-0.027700488,0.016053066,
                       0.04111756,-0.008921683,0.046343498,0.10849199,-0.08425042,0.039308388,-0.027152898,0.12788409,-0.031752184,0.028789511,-0.11935781,0.14144723,-0.00808998,0.07902989,-0.092714995,0.12151775,0.08427421,-0.0547779,0.07126257,0.060419,0.12479723,-0.1267568,0.07271845,-0.1278899,-0.06437816,0.02598042,-0.023731498,-0.04901711,0.11119245,0.097586334,-0.10119328,-0.07618821,
                       -0.06640788,0.07125817,-0.07059817,0.13923441,-0.09100121,-0.09227923,-0.095330946,0.06746351,-0.06317334,0.09325801,0.116775535,0.06690473,-0.119544946,0.07850315,0.06926035,-0.094338164,-0.00442486,0.037882324,-0.086413376,0.05377288,0.04144028,-0.00326802,0.089389354,0.023019144,0.103046596,0.13048203,0.107761964,0.07760771,0.09952943,0.11006927,-0.007586926,-0.036426026,
                       0.05803997,0.080767,-0.018483914,-0.05013299,0.10871859,-0.13239856,-0.101555645,-0.03283743,0.10739391,0.079331055,-0.039234538,-0.12179887,0.041613605,-0.0713471,-0.0043839137,-0.035895564,0.13956954,0.008228845,-0.03689265,0.077332094,0.0136531675,-0.14312796,-0.017555665,-0.09090572,-0.13105902,0.10028141,-0.051275127,0.090254925,0.08435136,0.09431669,-0.039486084,-0.063794225,
                       0.10423567,-0.043110844,-0.094483435,-0.115090646,-0.10056057,0.13509208,0.062170565,0.01608237,-0.12709081,-0.02738233,0.10096625,0.022823205,0.10940927,-0.018622478,0.12008581,-0.0073761623,-0.06772829,-0.07516682,-0.07679835,0.083605915,-0.022151817,-0.11180573,-0.025421886,-0.11703789,0.034646846,0.10278554,0.1056377,-0.03210751,0.11866915,-0.005951384,0.066476025,0.07942469,
                       -0.031837557,0.078750685,-0.13924655,0.022201601,0.04922336,0.039712686,0.10104166,-0.02064197,-0.06826698,-0.062147647,-0.13427094,0.03277014,0.017980145,-0.0037929323,-0.0983597,0.03509265,-0.05733803,-0.009695217,-0.013402195,-0.064226665,-0.13190895,0.11326872,0.11561023,-0.03205239,-0.12864932,-0.079953514,-0.060753025,0.09382587,0.014624566,0.03441443,-0.023575291,0.074291736,
                       -0.07952452,-0.102089465,-0.04908878,0.11597503,0.09686241,-0.12180752,-0.10933466,-0.08777185,-0.1151532,0.0016500714,-0.041664466,-0.035868928,-0.09108299,-0.017085698,0.08631931,0.032458797,-0.10673985,0.028161298,-0.011707695,-0.058484334,-0.04376607,0.033382457,-0.08469792,-0.11460181,-0.101448536,0.09265599,0.03805952,-0.054617345,-0.11168049,-0.032596286,0.10208923,-0.033320084,
                       0.12304611,-0.08607659,0.015652698,0.05104652,-0.092809126,0.082857594,0.07781198,0.09220651,-0.09101064,0.006268095,0.035991266,0.05367137,0.09317596,0.051733956,-0.082742974,0.04648157,0.060482047,-0.085409105,-0.029607747,0.09830745,-0.065939635,0.11186202,-0.093449816,0.04679558,0.10920599,0.12812048,0.003338126,0.130063,0.00058222975,0.0062579433,0.028732918,0.1339668,
                       -0.101531886,-0.032574207,-0.07959497,-0.11266727,0.036584556,-0.06908558,-0.102836944,-0.0661346,0.04035063,0.1407848,0.002620865,-0.060879115,-0.101053305,0.14425977,-0.1036193,0.08754953,-0.06212827,0.038867697,-0.059586108,0.012490036,0.12263335,0.062493518,-0.023511168,-0.059922118,0.028535085,0.051114343,-0.043203086,0.12379205,0.08805284,-0.08324405,0.024364416,0.034002457,
                       -0.14107478,0.12371539,0.005642023,0.0693069,-0.023731573,0.075410455,-0.043964043,-0.057060223,0.07346868,0.04851391,0.05539015,
                       0.008606217,-0.12186236,-0.12738453,0.06429443,0.06018491,0.09199659,-0.07024683,0.051229626,0.06296273,-0.055803806,0.124644004,0.10036635,0.10300718,-0.1001509,0.08338029,-0.005373497,-0.0738681,-0.09725957,-0.008964487,0.06291709,0.03657019,-0.0040002875,0.0007144078,0.13226864,0.10951784,0.07653617,0.11239554,0.095713474,0.035689402,-0.016825672,-0.05703566,-0.04929604,-0.0915317,
                       -0.0060591716,-0.022647921,0.10338431,0.104904056,-0.11732704,0.00020132023,-0.10918798,0.10279729,-0.111904904,-0.049165517,0.06460507,-0.11762561,-0.12188278,0.041782703,0.12481591,-0.052848894,0.12047845,0.11529325,0.030373031,-0.028281342,0.02130391,-0.08032054,-0.11671021,-0.12976144,-0.15277039,-0.07376119,-0.06653873,-0.08016494,0.11268264,0.11849036,-0.02320815,0.048419677,
                       -0.08820857,-0.12065849,-0.068495706,0.13085805,-0.12292791,-0.059193227,-0.10169999,0.095470116,0.028710308,0.052424535,0.0070112417,0.020186586,0.01672034,-0.10687531,0.066861466,-0.013467894,0.08232071,0.07122857,0.09164796,-0.044166785,0.119623326,-0.08571141,-0.12635879,0.022924509,0.13617812,-0.07375931,-0.10091896,-0.095277466,-0.025092388,-0.021430166,-0.0730179,-0.1365839,
                       0.087425575,0.062979735,0.011606848,0.06637875,0.05711849,0.088173814,0.023100387,-0.11031692,-0.050402258,0.082898535,-0.024341255,0.057756554,0.1253603,-0.08135146,0.098787524,-0.113176,0.06932435,-0.09915597,0.09821048,-0.036282964,0.12278018,-0.08895928,0.0061607086,0.01122359,-0.036340453,0.11887708,0.100246556,-0.07340059,0.060211238,0.10392127,-0.12967262,-0.08638422,
                       0.044767655,0.1095648,-0.09627812,0.0041290456,0.041193686,0.05482895,0.007974904,-0.071216,-0.07889798,-0.014376292,-0.120780006,-0.06350059,-0.1106997,0.10052249,0.12214626,-0.004463238,-0.023985965,-0.097707115,0.07639609,-0.004890149,0.100289755,-0.114132464,0.10444332,-0.12866643,0.1358167,0.05452375,0.0307262,0.021380892,0.07759136,-0.13620658,-0.060025305,-0.09618195,
                       -0.06732019,-0.06404258,0.035111476,-0.027756361,0.056672465,-0.07989299,0.053540267,0.059685934,-0.08077131,0.082408056,0.0075693536,-0.08107167,0.01532797,-0.07531007,-0.15080059,-0.12485305,0.008616716,0.112322316,-0.11103263,0.08804352,-0.06199164,0.11807295,-0.12316858,-0.016618436,0.0294554,0.004703587,0.12317423,-0.03310125,0.11001943,-0.06431353,0.051944386,-0.037648797,
                       0.0014894684,-0.04376556,-0.026370276,0.12457063,0.005845377,0.09024851,-0.09726054,0.041965358,0.03210641,-0.01797904,0.08785369,0.09250783,-0.04442841,0.017384296,-0.10800475,-0.11763998,0.12012087,0.11030975,0.1259943,0.03998402,-0.06298177,0.02827287,-0.026680391,0.07510568,-0.1285079,-0.06577161,-0.070610166,-0.02937867,0.00956912,-0.13899507,0.06310001,-0.10893691,
                       -0.13733737,-0.012047581,0.07211993,0.082839474,0.12148216,-0.062515266,-0.04545235,0.06997619,-0.1362565,0.12033502,0.11205952,-0.045805726,-0.03614619,0.033818703,-0.14124887,0.006550566,0.11959658,-0.030866351,0.060870454,0.08993553,0.004367268,-0.0048632403,-0.07496528,-0.0009545577,0.10793899,-0.12397855,-0.09676493,-0.13171582,-0.14309238,-0.028242728,0.10923245,-0.08939894,
                       0.00724705,0.11686564,-0.0553946,-0.05175295,0.033802316,0.11597802,0.052175213,-0.10765828,0.08570058,0.12591246,-0.006370268,-0.07212329,-0.005012974,0.119525336,0.07337574,0.003643249,-0.025948076,0.04154509,0.041637246,0.06472426,-0.09677223,-0.13351056,0.08537788,0.014863697,-0.03552192,0.02104043,0.055280335,0.1000051,-0.08531859,0.09716984,0.05114685,-0.027677795,
                       0.08047718,-0.09547649,0.070400745,0.10651426,0.016746629,-0.09682215,-0.105876125,-0.06670787,0.11753254,-0.037465498,0.008107894}; 



float saved_biases[5] = {-0.0035271223,-0.0044866754,0.0028687797,0.008254102,-0.00012555056};