float saved_weights[640] = {
                       0.10341577,0.0486313,0.1807973,0.016689245,-0.09108511,0.09712908,0.17478365,0.0775166,-0.03148676,0.052592386,-0.13799275,0.1324997,-0.115318574,0.18777725,-0.027334347,-0.096171215,-0.06946442,-0.094581604,0.21552438,-0.0009682308,-0.10393676,0.1823066,-0.11298891,0.19535482,-0.13212322,0.20532523,0.036052566,-0.047971297,-0.18909405,-0.14522177,0.12163314,-0.19823435,-0.09147468,
                       0.04149841,-0.1881703,0.045432672,-0.05883382,0.16280225,-0.01278015,-0.090501696,-0.13522913,0.043122567,-0.12754261,-0.03358082,-0.071719185,0.07440423,-0.09551673,-0.11899967,-0.16291094,0.1194686,0.023880571,0.17953843,-0.023956727,-0.11716312,0.21333534,-0.050956845,0.09895104,0.1917795,-0.1302311,-0.10089949,0.08777157,0.07629925,0.1701597,0.010205834,0.07089347,
                       0.126602,-0.046719372,-0.21469085,0.017844671,0.13496023,0.13926528,-0.009388232,0.059187252,0.13181065,0.19582018,0.003450504,0.17012879,-0.15925702,-0.07602763,0.1379491,0.055505693,-0.17736469,0.040335733,0.17223673,-0.054685503,0.03173658,-0.0027377196,-0.08970929,0.061612595,-0.20441249,0.04070968,0.10908608,-0.18496928,-0.13856487,-0.11102559,0.07473417,-0.123723626,
                       -0.022975745,0.017668944,0.108976364,0.008740971,-0.07713913,-0.17647666,-0.052594244,0.15446487,-0.014726402,0.13918754,0.12963726,-0.19677451,0.14924932,0.097256884,-0.017769828,-0.17647201,0.16611995,-0.10950029,-0.19651318,0.1370775,-0.1363715,0.15912585,-0.0011244306,-0.0276147,-0.17964701,0.0826733,0.199844,0.00058199634,-0.05575976,-0.073448464,-0.16352034,
                       0.008490989,0.07769165,0.055736512,-0.11838602,0.12928689,-0.13022815,-0.1478539,-0.12311479,-0.043802388,0.13944598,-0.18667719,-0.11555076,0.0632275,-0.16086401,0.18815348,0.03196934,-0.094030626,-0.15532641,0.02047043,0.062148288,0.010891089,-0.060498234,-0.17255875,0.19730915,0.1289207,-0.13639721,0.008540776,0.115676485,0.017375676,-0.10820981,-0.014169962,-0.044881385,0.1933583,
                       -0.18599173,-0.09085183,-0.0006279763,0.18148698,-0.15456112,-0.029678967,-0.11116871,-0.12972194,0.02218146,0.023499625,0.0037719114,0.062468488,0.10488819,0.037905123,0.00085281034,0.105582096,0.027276702,-0.06886409,0.10376468,-0.18702443,-0.017338108,-0.16099642,0.13702057,-0.09007328,0.09388077,-0.17488891,-0.1367652,0.1834178,0.08053284,-0.024957895,0.18549658,-0.109919526,
                       -0.20045754,0.17456822,-0.08701222,0.09366079,-0.08404803,-0.04711273,-0.19308856,0.14221352,0.09350533,-0.05400874,0.12248337,-0.09326895,0.21132691,0.17161784,-0.016566731,0.110445134,-0.078983605,0.040171873,0.13745433,0.19199952,-0.14882176,0.04877643,0.13434425,-0.052269697,-0.07133479,0.08815979,0.07494157,0.19934858,0.16812639,-0.06516108,-0.17294422,-0.03628673,
                       -0.18757744,-0.10529251,0.21148914,-0.08372112,-0.042659033,0.144136,0.18984218,0.13766931,0.1705952,-0.119947195,0.13848262,-0.060164947,-0.07062353,0.08049374,-0.06054189,-0.123619385,0.18698315,0.025811605,-0.119466215,-0.004927568,-0.056323014,-0.14915806,-0.18779598,0.16607437,-0.063136145,0.035898395,-0.15258792,-0.06215006,-0.015098503,0.1647509,-0.13195987,
                       -0.16451885,0.033338692,0.13330163,0.051477943,0.014035931,-0.06039436,0.065459326,0.17409691,0.15810388,0.16972327,-0.0062504527,0.08305922,-0.099039264,0.12616943,0.11704949,0.16730902,-0.0041500237,0.04029501,0.11494284,-0.17570832,-0.010682572,-0.19809495,-0.052987903,-0.0064445385,-0.014663282,0.089891426,-0.1315041,0.2054469,-0.049319763,-0.029062789,-0.098317556,-0.18144336,0.025886297,
                       0.19780031,0.07482868,0.18059634,0.10123068,-0.20429833,-0.16701522,-0.14334574,-0.1088983,-0.16881052,-0.21042086,-0.029061144,-0.11992597,-0.037335176,-0.124423094,-0.06843701,0.20542149,0.13122588,-0.14309148,0.059801947,-0.1425147,-0.14825891,0.08285629,0.011381773,-0.05096282,-0.10902915,0.20041606,-0.07026676,0.018954935,-0.16782783,-0.07227853,-0.07945021,0.10735788,
                       -0.084208444,0.1837924,-0.08211913,0.010368299,0.11939611,-0.08200132,0.12312407,-0.15489165,-0.17947103,-0.025706084,-0.19816658,0.13173698,0.083197586,0.18221234,-0.21738325,-0.21082598,-0.026392153,0.012414159,0.056469854,-0.1112131,0.10265791,0.08028375,0.20297277,-0.01628299,-0.10113714,-0.14447546,0.17649087,-0.15760972,-0.13787849,0.17225075,0.16411531,0.07445415,
                       0.05211569,-0.06277503,0.16919734,0.033223707,0.17602648,-0.20611724,-0.19137712,0.16915247,0.104993,-0.09644175,-0.0074096103,-0.07597106,-0.0688521,-0.00023502606,-0.15009286,-0.001065012,0.076658726,0.08957076,0.110173754,-0.09400761,0.014083446,0.004622734,-0.22061662,-0.026576275,0.1761694,0.16115825,-0.07132819,0.06513149,0.1387416,-0.050693143,-0.02674261,
                       -0.16377352,-0.14259705,-0.20022522,-0.03428428,-0.16536047,0.1847933,0.1943234,-0.18435061,-0.1356055,0.09443444,-0.16180927,0.030816698,-0.064909436,-0.1606713,-0.08004029,0.15184027,-0.05242215,-0.20393914,0.14931986,0.2071453,-0.16941552,-0.05757677,0.14567071,-0.06645535,-0.070403814,0.15280236,0.14836249,-0.1650109,-0.16001812,0.15403001,0.10483044,0.11156603,-0.0045763375,
                       0.15733524,-0.08858669,-0.1604505,0.054731105,0.17494157,-0.11371488,-0.0343875,-0.15393601,-0.11733533,-0.18272771,0.10538358,0.104051985,-0.20270301,-0.056526676,-0.14051999,0.1176103,0.02912855,-0.09039738,-0.088338986,0.042164672,-0.067531735,-0.1526269,-0.17083631,0.20005849,0.17140007,-0.07152877,-0.12974614,0.060567107,-0.1399439,0.20732461,-0.02318879,-0.03882796,
                       0.09917154,0.056321636,0.05522359,0.03194666,-0.04136604,-0.058883436,0.18028714,-0.059611306,-0.007373442,-0.120036766,0.19768104,0.030189876,-0.16547842,0.129165,0.0530218,0.034062475,-0.12667367,0.06353507,0.05599228,0.11062401,0.20313145,0.019702034,-0.12985112,0.07460016,-0.096544266,0.14482939,0.032395337,0.17578426,-0.048090346,-0.13642408,-0.029019907,0.1580737,
                       -0.09792167,-0.1873033,0.19828245,0.038134735,-0.15093014,-0.19497524,0.1415954,0.15057465,-0.17082484,0.12022129,-0.12641539,-0.10761946,-0.09227419,-0.15967627,-0.07469437,0.08954875,0.053301048,0.07199834,0.190924,0.023881808,-0.0026145838,0.1291353,0.14006244,0.13890594,0.12155061,0.19881344,0.13024297,0.13111503,0.13646954,0.0914809,-0.084842704,
                       0.04700227,-0.19210283,-0.024284145,-0.13804317,-0.10051568,0.21596281,0.10093206,-0.047330428,-0.2109627,-0.03576793,-0.078832485,-0.002819095,0.18453436,-0.008777201,0.20577525,-0.20005797,0.18262525,-0.076802686,0.007442384,-0.09614208,-0.16124406,0.053962708,-0.10664368,-0.10595809,0.20259652,-0.11857032,-0.10468124,0.06933312,-0.16409045,0.13113435,0.12883066,-0.026341744,0.030321494,
                       0.02790133,-0.10462577,0.00365051,-0.034583986,-0.13796791,0.17161225,-0.03887467,-0.19644356,-0.014973167,-0.076946355,0.037925486,-0.14029752,0.17948322,0.15957385,0.13583097,0.14583316,0.17111984,0.20985115,-0.05810122,0.14045484,0.14342324,-0.20689388,0.049252357,-0.14480624,-0.05448143,0.16629517,-0.09806579,-0.06189371,-0.016544586,-0.03607795,0.029555762,-0.0543375,
                       0.15532143,0.12388392,-0.028483775,-0.017092744,-0.1328797,-0.13776559,0.07689443,0.20271152,-0.05554793,-0.17044379,-0.049011867,0.11082602,-0.08755785,0.1144666,-0.011721026,0.1363294,-0.013186693,0.12371578,-0.040420678,0.017329805,-0.19589657,0.025234362,0.0118267955,-0.15721895,-0.15837856,0.03087063,0.18742493,-0.024860887,-0.14325006,0.12041098,0.033786293,-0.14664169,
                       -0.07481919,0.1214839,-0.1394439,-0.17252207,0.09982588,0.16047199,0.18925582,0.020777972,0.04787107,-0.19753516,-0.122020215,0.123152144,-0.16875927,-0.03252232,0.026783198,0.17978379,0.13157097,-0.11376263,0.06406069,-0.19433855,-0.09913396,-0.075199604,-0.13830695,0.16709939,0.20046315,-0.057724677,-0.14115235,-0.10080084,-0.14601955,-0.09809123,0.117891625,}; 



float saved_biases[5] = {0.00065833103,-0.0019101382,0.0016681481,-0.0012615655,0.006273033};