float saved_weights[1500] = {
                       0.15159945,-0.10585103,-0.09938265,-0.07425535,0.035640437,0.011810114,-0.05350233,0.06514267,-0.12235978,-0.07086662,0.07143571,-0.074552946,-0.08573591,0.004337058,-0.042186398,-0.043994293,-0.028964331,-0.0702678,0.121676825,-0.023868375,-0.110183366,-0.011407539,0.05398626,0.046848703,0.09869033,-0.11019075,-0.09249257,-0.05378438,-0.12041786,0.08065364,0.068074666,-0.0026304275,-0.11555744,
                       0.12769705,-0.0530549,-0.051793225,0.00011463785,-0.04409844,-0.08074746,0.119469665,0.004226151,0.011243849,0.05085338,0.00555345,-0.02692483,0.03202663,0.07622282,0.024147708,-0.06621701,-0.076444104,-0.10236471,0.007321503,-0.10376145,-0.05188395,-0.06089418,0.09592094,0.046351712,0.08973265,-0.05621892,0.13459927,-0.058803514,0.024997976,0.011453902,0.10808999,0.05240035,
                       -0.03919106,-0.13823336,0.014921723,0.09570757,0.111134544,-0.06453445,0.05509373,0.110957354,0.09967267,0.09151593,0.109935865,0.06349918,-0.12206396,-0.056026883,-0.10956565,-0.13512632,0.123633854,0.103516996,0.045365125,0.025145119,-0.0032006786,0.077464975,0.09219565,-0.058623273,0.001074827,0.08968878,-0.056411356,-0.01445589,-0.07494288,-0.096878104,-0.0341513,-0.056622885,
                       -0.060418557,-0.07336435,0.10671294,-0.039609607,0.098330066,0.038813632,-0.091559276,0.035800774,-0.10247762,-0.09133084,-0.011968161,0.003328634,-0.1013022,0.027622128,-0.11556321,-0.03554959,-0.035949133,0.048652664,-0.132383,0.050396014,0.14343368,-0.06256842,-0.07332001,0.078417875,0.13529888,-0.09166435,-0.0040666745,-0.00996891,-0.084632866,0.07210892,0.111345544,0.13246587,
                       0.12775467,0.04318636,0.0039348355,-0.10923973,-0.1068916,-0.09138512,0.086391814,0.08842668,-0.12364929,0.13333833,0.107826225,-0.072228126,0.0028316665,-0.05542175,-0.13321199,0.032451022,0.022795502,-0.051488478,0.04314474,0.12214616,-0.034678925,-0.0026529343,-0.020828024,0.028790312,0.08839389,-0.08852759,-0.10382071,-0.07203111,-0.12532076,0.036248732,-0.076561674,-0.10857934,
                       -0.12903295,-0.042682365,0.04252231,-0.009591891,0.075953014,0.039254196,0.047380697,0.09240024,0.115428574,-0.100759506,0.030531704,0.0251461,-0.09285995,0.029001651,-0.040793814,0.061532795,0.07215214,0.05925817,-0.11577356,0.14101513,0.11658849,0.023891713,-0.07568984,-0.05465027,-0.036598574,0.11752302,-0.076814346,0.092218906,0.10389049,-0.06698904,0.12561646,-0.008694122,
                       -0.13632523,-0.06306106,0.053561993,0.005990984,0.04002458,-0.11063667,0.11072084,0.048234697,0.002249129,0.097576976,-0.082204886,0.034154236,0.007636953,0.025718577,0.03271254,-0.05505347,0.13327488,0.13086674,0.08999333,-0.09660229,-0.07508761,-0.033638034,-0.12040578,0.033655602,-0.046573143,0.107240275,0.070204265,-0.01070685,-0.12050903,0.13336258,0.05473832,0.03703358,
                       0.020129079,0.02658143,-0.021149063,0.08296251,-0.024488645,-0.019353658,0.09906044,0.1076856,0.115345165,-0.075056,0.070861906,-0.0389272,0.09034162,-0.054798406,-0.07687217,-0.0049150353,0.077655144,-0.12051876,-0.08439248,0.1213392,0.049819145,0.10039204,-0.09752377,0.06298727,0.037456926,-0.004020201,-0.07821173,0.063145034,0.11703415,-0.048588898,0.011415127,0.02207613,
                       -0.043908816,-0.10301627,0.08676631,-0.049607344,0.08288128,0.0019619772,0.02048605,-0.043968152,0.021161674,0.08869748,-0.12112704,0.018214406,0.06668339,0.045360036,0.023488814,-0.08846201,0.06530253,0.032774188,-0.10316225,0.042728316,-0.1336084,-0.1278533,-0.118794896,0.03965051,-0.05286802,0.10876455,-0.13111165,-0.018776314,0.12408393,-0.019611523,0.055222504,-0.009040856,
                       0.016170064,-0.066532604,-0.027561935,-0.04898463,0.039751586,-0.086961806,0.11590836,0.051808313,-0.07652941,-0.07950404,-0.09482871,
                       -0.064026065,0.0572776,-0.12104201,0.13992393,0.018175796,-0.085208446,-0.0929655,-0.03766753,-0.053431477,0.08300976,-0.012348123,0.08934486,0.0927806,0.13672458,0.06184635,-0.114856,-0.122111194,0.10923822,0.09340671,-0.08745278,0.13326983,0.0066625807,-0.091392666,-0.09302172,0.118691534,0.042052448,0.03599353,0.0015594123,-0.097747326,0.0906036,0.11220451,0.05501309,-0.071293674,
                       -0.06988641,-0.009880757,-0.06574729,0.11894959,-0.016678805,0.0006222888,0.11811118,-0.09577632,0.12377538,0.12537631,0.0086539425,0.011359363,-0.09277092,-0.05489009,-0.1304659,0.025518538,0.0718638,-0.004643442,0.065098636,-0.0035066386,0.057575267,-0.058606505,-0.09146267,0.09491825,-0.029163197,0.09581345,-0.028086478,0.14398636,0.10135694,0.07183799,-0.016445227,-0.010546471,
                       0.038129613,-0.061712682,-0.038233332,-0.12283245,-0.13606034,-0.03157747,-0.10618294,-0.111903794,-0.05400419,-0.005804424,0.015731266,0.08045319,-0.1270593,-0.11099502,0.008226684,-0.12444199,0.073563814,0.1321546,-0.013914527,-0.12019035,-0.09133173,0.119798355,-0.11238632,-0.059923977,-0.012415053,0.08055888,-0.008469048,0.1130258,-0.08364303,0.018555406,-0.045529395,-0.08402833,
                       -0.009042059,0.11151636,-0.114868514,-0.09819744,-0.07818227,-0.051261086,0.020186957,0.006088262,0.13662873,-0.023612872,-0.006683258,0.11675438,0.071471825,0.071857914,0.075621046,-0.02562862,0.056113303,0.040420257,-0.08291584,-0.035968166,0.1379181,0.070812896,0.1411606,-0.12470093,0.1180725,-0.059132565,0.03172019,0.034040824,0.14285201,-0.104602985,0.03070216,0.054580458,
                       -0.11106784,0.031839035,0.009179526,0.095860995,0.085276976,-0.11714685,0.10955734,0.032815173,0.09536084,0.019944575,0.07942619,-0.11080812,0.076996215,-0.13798602,0.040144604,0.033925634,-0.13353375,-0.111986,0.018079918,0.046850115,-0.052744698,0.014447916,-0.11935518,0.10288993,0.022769274,-0.10036172,-0.09065724,0.10994843,-0.061913133,0.0046651317,-0.008513936,-0.09111725,
                       0.11214167,-0.08390328,0.09377112,0.050710585,0.06440385,-0.032303307,0.024865307,0.031619396,0.06825256,0.12248313,-0.0605837,0.06955322,-0.09289315,0.030700441,-0.12485708,0.103055134,0.13691936,0.019426957,0.11232308,-0.088676065,-0.1194188,0.08001363,0.12095906,0.0037388888,-0.009770105,0.0144984,0.1190964,0.068590194,0.09005709,0.10562296,-0.08103211,-0.053024564,
                       -0.11400716,0.08155777,-0.13134779,0.02194354,-0.02715071,0.12591806,0.07987691,0.02306614,0.010830883,0.0738182,0.03151579,0.06290039,0.10267649,-0.075255096,-0.0031038476,-0.12695643,-0.08244641,0.12579414,-0.14078316,-0.08337872,-0.058000363,0.13177693,-0.0303883,-0.11498292,0.06929989,-0.017784702,0.0019651416,-0.09157165,-0.08186935,-0.07023234,-0.029718673,-0.11069398,
                       -0.112589985,-0.024755033,0.02242353,0.087140195,0.047399394,0.047461852,0.011609436,0.050720576,0.021289308,-0.05773335,-0.14249742,-0.06339504,-0.06378095,-0.122865126,-0.12242552,-0.045500144,-0.10997767,-0.05100426,-0.029439105,-0.10823442,-0.1251631,-0.12951413,0.09137237,0.14271635,-0.1053193,0.090219475,0.069355935,-0.12078376,-0.021331377,0.019232137,-0.03961424,-0.0372841,
                       0.12672113,-0.08119753,-0.0978327,-0.0063080224,0.068854965,0.045458198,0.065096065,0.03474802,0.110724844,-0.10570313,-0.071859,-0.09306215,0.069474116,-0.0075588184,-0.019818299,-0.03737699,0.0014515746,-0.07556586,0.08312662,0.08201125,-0.0949104,0.02076526,-0.005178392,-0.032409273,0.016219234,0.12196558,-0.04723565,0.01065346,-0.10043484,0.057712924,0.13273628,0.084417865,
                       0.047410578,0.072252735,0.036756556,0.0018311255,0.14244834,0.12217867,0.11217022,0.06744789,0.021476287,-0.10302559,0.04730289,
                       0.011794953,0.08667902,0.067190275,-0.03789242,0.01726213,0.08890092,-0.12744959,-0.11784064,0.05298132,0.0407259,0.007200022,0.079128385,0.022714125,0.012973942,0.12263166,0.08019741,0.119080305,0.1158076,0.09673212,0.0031720279,0.010261302,0.016966434,-0.07318965,-0.058850802,-0.09946496,-0.03245936,0.041103557,-0.048183683,-0.13087063,-0.10451588,0.09457702,-0.090450026,-0.022052888,
                       -0.10866893,0.07192755,0.12328053,-0.046987496,-0.024218924,0.11136188,-0.08073741,-0.098968394,0.11617331,0.13130806,-0.027164811,0.13431932,-0.02854895,0.079972245,-0.06924938,-0.08143176,0.07116612,-0.056712218,0.1114118,-0.03341676,0.103600636,-0.06788314,0.052002896,0.13896982,-0.1048777,-0.08368372,-0.09830555,0.09108595,-0.006068516,0.085688874,-0.025647262,0.059600644,
                       -0.014637401,-0.10771208,-0.058672808,-0.10547165,0.117187165,-0.12470526,0.039914902,-0.027357254,0.06966033,-0.095882185,-0.04651541,-0.114829645,0.12232583,0.046797127,-0.09943425,0.10166634,-0.0115862815,-0.029681584,-0.011640102,0.10836232,0.09640319,-0.051514488,0.0886538,0.050133515,0.033964816,-0.07087497,-0.11310271,-0.12377074,0.11972178,0.08623172,-0.12542169,-0.0797903,
                       0.03718796,-0.08902347,-0.06695097,-0.09809699,-0.06462052,-0.060556542,-0.0914448,-0.08577037,-0.00029463728,0.030137999,-0.023442186,0.09412431,-0.04738259,0.03868101,0.017212074,0.014128352,-0.0398486,-0.13301465,-0.17484689,0.016441988,0.005952041,-0.116957344,0.025254186,-0.06739523,-0.1513643,0.038226012,0.103691205,0.13172406,0.10467084,0.12349528,0.13473596,0.0633983,
                       -0.06861412,-0.010011784,0.04402383,-0.0032775076,-0.09959835,0.04215414,0.07166161,0.09692257,-0.12741244,-0.0482458,0.008900838,-0.099672325,0.090598434,-0.02883012,0.008329131,0.08798826,-0.122233495,0.09639773,-0.076396175,-0.11972911,0.083918385,-0.11601927,0.102640085,0.022909129,-0.10486208,0.026990445,-0.07515768,0.0501674,-0.13311356,-0.030510258,0.09920489,0.016713597,
                       0.07903569,-0.026088072,0.11368304,-0.11141811,0.12134812,-0.07268546,0.07552393,0.10907508,-0.104482286,-0.053248804,-0.011753343,-0.09118259,0.02315835,0.113073796,0.096679375,-0.12230641,0.07374589,-0.10632957,0.054798555,-0.033237223,0.10998392,-0.093622,0.10938914,0.035369318,0.07402219,0.075186364,-0.016164206,0.024895329,-0.039486296,0.1149657,-0.06724013,0.08259509,
                       -0.12254267,-0.011620965,0.03094695,0.04180629,0.11064331,0.038373806,0.07513073,-0.029127609,-0.1278705,0.10969933,-0.02896642,0.009068575,0.06436943,0.09437497,-0.054226577,0.10348107,-0.038647145,-0.09975415,-0.09572811,0.020305809,0.14293468,0.11472956,-0.057077404,0.04928166,-0.08981591,0.078735076,0.1068034,0.036598776,-0.107743494,0.03397877,0.036998775,-0.08031348,
                       0.100754276,0.05485382,-0.035218425,-0.056888677,0.016059808,0.1314957,-0.085378364,-0.08484501,-0.08090228,0.11905289,-0.058322124,0.034461815,-0.053912334,0.12592249,-0.030724376,-0.06713106,-0.011889637,-0.056862157,0.07877909,-0.08271502,0.13203597,0.112459034,-0.12146828,-0.0021533798,-0.0815523,-0.0066697653,0.10741104,-0.064152546,0.11353703,-0.016304107,-0.04411783,-0.06360059,
                       -0.034693297,0.054074757,0.027809378,-0.10765737,-0.10209575,-0.08446875,0.10909129,-0.07806279,-0.021347472,0.014625784,0.06966817,-0.04959848,0.107214786,-0.017160775,0.065431066,0.12049499,-0.0830162,-0.012441643,-0.03125439,-0.012887486,-0.009918861,0.077171,-0.009471815,0.028824262,0.08862285,0.124991246,0.09897178,-0.077649325,-0.063570455,0.09352411,-0.005231886,0.07787813,
                       0.06579153,0.034541238,-0.07572098,0.036602903,-0.07961115,-0.02459088,0.09364649,0.061888397,-0.0045943335,-0.04566032,0.1036353,
                       0.0038766954,-0.14142515,0.03759591,-0.054013528,-0.04467806,0.06690604,-0.0103087835,0.077237055,0.0674425,0.08759563,0.011466334,0.009592909,-0.065894045,0.016787777,0.06690143,0.011863525,0.03639507,0.1327235,-0.105665125,-0.13459183,0.002781713,-0.08307987,0.041751817,0.08997244,-0.082607314,0.020077892,0.13281219,0.10671854,-0.01898647,0.044516206,-0.122089215,-0.12606783,-0.1010432,
                       0.04058404,-0.10537924,0.11486377,-0.026535733,0.10992375,-0.10623119,0.10429261,0.009872083,0.0821544,0.10207962,-0.047760967,0.048965372,0.028711144,-0.1099301,-0.05827901,-0.051534634,-0.053331926,0.07980008,0.12897217,0.073868945,0.0040601334,0.11688371,0.13625382,-0.043722652,0.05913761,-0.05069498,0.08586354,-0.13393497,-0.003959527,0.066791095,-0.091559775,0.042168193,
                       0.025176428,0.041188885,-0.0968711,0.11866744,-0.034349494,-0.064822,-0.107134245,0.04977004,0.07923737,-0.049332026,0.045857098,-0.058421973,-0.122133896,0.039647315,0.11268398,0.06038002,-0.012583391,-0.05049654,0.09912551,-0.021917267,-0.09262783,-0.047763318,-0.017004844,0.10185906,0.04637307,-0.07299501,0.08020995,-0.03152622,0.0190494,-0.006264258,0.041264504,-0.07424341,
                       -0.0007866389,-0.16198671,0.06621042,0.09904506,0.056827754,0.06860737,-0.10774133,-0.027663076,0.057857316,0.1126475,0.059899617,0.09086208,0.0016806392,-0.0025419558,0.06585904,-0.039829075,0.0060555013,-0.06075847,-0.0152167585,0.0448762,-0.054675896,0.085221484,-0.09564809,-0.059329163,0.08762082,0.027879247,-0.121435255,0.11913978,0.107171714,0.11828424,0.015976246,0.11459469,
                       0.07949457,-0.059166614,-0.016276093,-0.09417642,-0.00991165,0.024478905,-0.09426133,0.09970134,-0.002578284,-0.073139034,-0.028654598,0.025239687,-0.059920564,0.10663634,-0.13656043,0.09164048,0.08990035,0.043793026,0.03193211,0.016684314,0.13543,-0.11586083,0.08744679,-0.06880563,0.12630278,-0.041371297,0.072432876,-0.10090874,0.047128443,-0.10052115,0.04263678,-0.12771706,
                       0.062037274,-0.06568122,-0.114263296,0.09903722,-0.023673862,-0.048580382,0.010513593,0.107674815,-0.118611485,0.071952485,-0.09835734,-0.10940574,-0.015943198,-0.065528974,0.033285182,0.029786088,-0.053226594,0.032643087,-0.08596365,-0.07682351,0.093450606,-0.029720696,-0.09636599,0.03469321,-0.011358774,-0.04802053,0.071846545,0.07033909,0.045929674,0.0825278,-0.0018225665,-0.07924073,
                       0.103475414,0.091669984,0.09765447,0.058035936,0.04166923,0.11609918,0.10018535,0.10208762,-0.054480787,-0.02995424,-0.07236573,0.005900543,0.0014021439,0.02620966,-0.02888352,-0.08992979,0.100546636,0.013299473,0.07561807,-0.075404525,0.045201942,-0.045236938,-0.048178475,0.11402444,-0.027664721,0.110929266,-0.041828286,0.06374419,-0.05165451,0.040846966,-0.05483599,0.04690251,
                       0.10966494,0.12992822,0.06501064,0.035802834,-0.11767471,0.08595433,-0.10241387,-0.03361775,-0.13333315,0.11983505,-0.12066153,-0.075822234,-0.019317962,0.08661827,-0.03148247,0.09375918,-0.052787278,-0.11558316,0.066663295,-0.111702636,-0.1245476,-0.09602885,-0.12253508,-0.032771785,0.059666384,0.068773665,-0.06611254,-0.10681833,0.11431839,-0.04138961,0.06747102,0.011033226,
                       0.08672111,-0.06762955,-0.032387014,-0.07779899,-0.11782167,0.060137097,-0.010354147,0.0941969,0.016577188,-0.014223656,-0.113120236,-0.06688786,0.09743119,-0.07795425,0.1268318,0.0052272817,0.10024806,0.051237177,0.006225886,0.022216829,-0.008447064,0.051585212,-0.08161775,-0.12182909,0.108599566,-0.046681233,-0.010766372,-0.03781821,-0.12934485,-0.10494585,0.05178648,0.08174364,
                       0.015877359,-0.106511034,-0.009268055,-0.032925587,0.05541655,-0.074436106,0.11771403,0.018267429,-0.019738486,0.087435775,0.13133636,
                       -0.05333203,0.051560313,-0.10445619,0.12796706,0.020844039,-0.12966391,0.121445075,0.083577365,-0.032546848,0.104093924,0.106818564,-0.12310024,-0.030503208,0.043548107,-0.096416906,-0.07548014,-0.056946043,0.051833697,0.054121375,0.043905504,0.1141562,0.092461534,0.14069608,-0.106714934,-0.1300851,-0.10114947,0.06351409,-0.04745539,0.065448165,-0.08380715,0.06261044,0.14563815,0.09888313,
                       0.015192035,-0.0059136725,0.11969024,0.03588084,0.13186672,0.05589186,-0.1323868,-0.053357188,0.09545789,-0.064603746,0.038430903,-0.0952164,-0.022658631,-0.011932608,-0.08234081,-0.14123224,0.011062056,0.11165698,0.106485285,-0.07468365,-0.10712127,0.002378907,0.08146443,-0.13281085,-0.04305717,-0.13276742,0.111591674,0.07440749,0.109669775,-0.090328515,0.042178143,0.010814467,
                       -0.09925575,-0.13070633,0.13170405,0.06181278,0.100036554,-0.09805114,-0.07076785,0.077922605,0.078668244,-0.11715394,-0.081987284,0.021124968,-0.13189685,-0.11702606,-0.034561913,0.009279719,0.04668366,-0.10597419,-0.07233727,0.10080812,0.012757601,-0.121370815,0.08359623,-0.032969646,0.0130588105,-0.0823794,0.07048459,0.101996966,0.13055687,-0.0054521123,-0.0013171614,-0.09315805,
                       0.0012728826,-0.0058325864,0.050950598,-0.061561674,0.13117863,0.012784064,0.1283836,0.043196484,0.0872771,0.045259498,0.13611545,0.14978084,0.05082072,-0.113383085,-0.115339085,0.0141464155,0.049522884,-0.09026286,-0.08089767,-0.08473345,-0.08652992,0.12544034,0.115435004,-0.035378788,0.11659379,-0.01626406,-0.03138999,0.12361738,0.09775793,0.09876071,0.12714235,-0.010196202,
                       0.09715693,0.09732588,-0.0032516865,-0.110131,-0.03624126,0.087225765,0.112664334,-0.13048638,0.09889301,-0.0039688856,0.0060166093,-0.025587657,0.04579111,-0.021072527,0.012221871,0.08325319,-0.10292011,0.0008892893,0.04361933,-0.07158133,0.07806839,0.0023415794,-0.034634423,0.0011005218,-0.04714432,-0.11294543,-0.02974492,0.002762814,0.12663494,0.008967715,-0.044753667,-0.055206224,
                       -0.08957688,0.057310324,0.074817516,0.025899343,0.0007808678,-0.07427745,-0.10632383,0.048606288,-0.13459663,0.030003717,-0.11320663,0.12707531,-0.12237128,-0.014173377,0.0703421,-0.019008841,0.10354139,-0.01925237,-0.0053941165,0.06853655,0.001789762,-0.027222263,-0.09934154,-0.006431811,0.039691396,-0.026040304,-0.0019064245,-0.030541988,0.13703094,0.10199676,0.06398572,0.0875643,
                       -0.025660733,-0.011496996,-0.10284355,0.035524532,-0.040983245,-0.087100334,-0.10126971,-0.07541082,-0.050483327,0.02322986,0.00885124,0.12186185,-0.018410226,-0.10429438,0.08184629,0.09610848,0.105482176,-0.08473411,-0.035196055,0.12394189,-0.106908895,-0.09612838,0.031644654,0.06253144,-0.09341606,0.07569304,-0.019104516,-0.11538485,0.0004014599,-0.0467818,-0.13416454,0.022407869,
                       0.075803846,0.062127385,0.028262975,-0.044262193,-7.780893e-05,-0.07070741,-0.041362785,0.045835648,0.06079558,0.10715851,-0.09130475,-0.0020355165,0.08647878,0.12350273,0.053638704,0.11012729,0.031636693,-0.11673859,-0.13840793,0.0992684,-0.071338184,-0.066923305,-0.016088076,-0.064084396,0.04361689,0.07570585,0.08390364,0.022979358,0.08101047,0.04772204,-0.03601853,0.033634886,
                       0.0783306,0.08352373,-0.06420573,0.098203,-0.030929197,0.12895003,0.13666128,0.06280348,0.046257176,-0.018838773,0.10139607,0.10666336,0.057574287,0.07831446,-0.018083952,0.105527505,-0.046516277,-0.0961721,-0.07912181,0.08974481,-0.08590391,-0.03128141,0.033222333,0.12832831,0.11375829,-0.019848632,-0.001836801,-0.046600092,-0.06596283,0.089170374,-0.07304257,-0.104179695,
                       -0.09167064,-0.08277111,-0.02363955,0.06355596,-0.06529122,-0.11165244,0.13193235,-0.12583777,-0.08757001,-0.09161923,-0.12403675,}; 



float saved_biases[5] = {-0.006118198,0.00043303665,0.00876429,0.0008525516,-0.0004888218};