float saved_weights[1500] = {
                       0.09220461,0.1297217,0.044742297,-0.055854414,-0.088711314,0.10780377,0.028543076,0.037325755,-0.030718125,-0.1253827,0.004981396,0.13123952,0.11335167,0.08374239,0.0053663678,-0.0006783117,-0.016882446,0.11968487,-0.053461753,0.1346994,-0.07598936,-0.10735554,-0.06627134,-0.034994017,-0.06308369,-0.10023545,-0.02485493,0.100828335,0.09471001,0.08439967,-0.09185442,0.020267675,0.007640161,
                       0.09316997,0.03910512,0.053745415,-0.059858654,-0.12552845,0.02118923,0.11480942,0.13245408,-0.032646462,0.03165519,-0.06892789,-0.0041163396,0.020867756,0.021151355,-0.03099551,0.08961167,0.038202923,0.06801317,0.026116924,0.069074385,-0.000495812,0.08152487,-0.036434285,0.0109802345,0.045307275,0.09894557,-0.05748719,0.068305425,0.02315218,-0.044356704,-0.04608058,-0.014368346,
                       -0.05381383,-0.05692424,-0.019418206,0.062533006,0.043770384,-0.09334066,0.053557176,0.0035459779,0.032724146,-0.08246713,-0.10414537,0.023881804,-0.12199138,0.010033208,0.040073838,-0.08060894,0.009179829,0.09809649,0.091054074,-0.014416742,-0.034408767,-0.05600075,-0.08359061,0.08851013,-0.010644535,-0.14120004,-0.08441584,-0.119236976,0.017838003,0.106350444,-0.0668278,0.007720519,
                       -0.005950461,-0.13958783,-0.027253626,0.09320702,-0.06230383,0.09420519,0.05728466,0.0038398614,0.09173673,-0.13563696,-0.12218522,-0.10060655,0.06210359,0.0077515016,-0.05240864,0.00072507607,-0.118668206,0.052472923,0.11219502,0.14326271,0.03849054,-0.08637142,0.11150257,-0.12482733,0.086846836,0.080662385,0.031416386,0.0666539,0.12686755,0.025362432,-0.04101976,0.027269412,
                       0.03199312,-0.053731665,0.115375906,-0.082364626,-0.02732628,0.05977909,0.04491451,-0.06746585,0.10733028,-0.115005694,0.119349845,-0.13828617,-0.0837325,-0.10650057,-0.14219742,-0.13878348,-0.121456414,-0.019928837,0.000600177,0.009513603,0.098713264,0.026152952,0.12248301,0.106778085,-0.031811334,0.14688751,-0.0010065903,0.06245062,-0.01618815,0.0012455968,0.025708504,-0.068621375,
                       0.06026547,0.059217654,-0.09969719,-0.00444412,-0.08576405,-0.028263431,-0.13075197,-0.12813313,-0.086499,-0.0072612986,-0.005924681,0.09598938,-0.082363866,0.028902654,0.04182202,0.12320461,0.093085125,0.08878304,0.029406548,-0.12814468,0.06630974,-0.015348074,-0.07862504,0.015220224,0.07067042,-0.03286873,-0.08400844,-0.030205375,0.06312813,-0.1348609,0.03530554,-0.0044554695,
                       0.051183276,-0.09662535,-0.11233441,0.07286989,-0.14085782,0.031996295,-0.03539162,-0.10656982,-0.0010458229,-0.0924178,-0.13355312,0.108648814,0.11236546,-0.12314639,0.036654893,-0.0117707485,0.06129863,0.101812705,-0.10219501,-0.047621734,0.042117916,-0.046813317,-0.06003723,-0.07749272,-0.11737352,-0.0033774374,-0.044756133,-0.04804938,0.103434615,-0.049963556,0.11980953,0.05227152,
                       0.060144063,-0.05392221,-0.14636923,0.04471215,-0.027747838,0.10763939,0.07089639,-0.009639519,0.0031424135,-0.07390747,-0.1166272,0.09655463,-0.12643988,-0.10717214,0.10331355,-0.043554403,0.090014555,-0.05125156,0.033058334,-0.12708691,-0.04595915,-0.08697633,-0.058787044,-0.10146962,0.11272726,-0.09800987,0.1322488,-0.097204685,-0.024755204,0.07425938,0.029110044,-0.116265714,
                       -0.06201498,0.037371524,0.06793961,0.060340878,0.10661475,-0.10637803,0.068466835,0.09300086,-0.030467475,0.013216711,0.0736375,-0.12016822,0.061840646,-0.089438446,0.015013209,0.080103934,0.08739879,-0.038119793,-0.081515424,0.05655991,-0.018239759,-0.024105122,-0.03896119,-0.026049389,0.080747634,0.08270962,0.12363934,0.11927888,-0.052339945,-0.05197727,0.026998878,0.08699199,
                       0.063503936,0.10985446,-0.019712951,-0.10498476,0.12479915,-0.013247274,-0.067422315,-0.04577688,0.0124628935,-0.068936825,-0.089139126,
                       -0.11164983,0.08663391,0.002810656,-0.041140635,-0.12000352,0.06318915,0.034562215,-0.056072243,0.1309947,0.1380154,-0.032745775,0.051230505,0.017545566,0.012090759,-0.06422299,0.05446705,-0.13235438,0.039528843,0.084934354,-0.057905663,0.0693522,-0.13144921,-0.07156071,-0.049814977,-0.11505196,0.1266133,-0.069997616,0.0717177,-0.02165825,0.06651328,-0.08009644,0.06874785,0.072142184,
                       0.11412482,0.11107937,-0.08288434,-0.08801936,-0.08175443,-0.104467176,-0.09125468,-0.14021263,0.114245676,-0.105063386,0.0017621901,0.056203946,0.061217364,0.12597753,0.11978266,0.05479781,0.07113758,0.028124733,0.0059160753,-0.10598077,0.0650328,0.014068517,0.04982303,0.095224604,-0.02639644,-0.012554453,-0.04732631,-0.11495652,-0.0316025,0.104116686,0.048539866,0.09348361,
                       -0.06653306,0.090663835,-0.051226087,0.12957838,0.033695657,-0.059614338,-0.07736887,0.025375726,0.024752185,0.0054398016,0.038997177,-0.0611295,-0.10832892,-0.083861336,0.0505517,-0.13618708,-0.06608458,-0.13834096,-0.11659041,0.13592269,-0.059029307,-0.013885146,0.07274502,-0.044953145,0.070114754,-0.12102602,0.062560834,0.094676286,0.04581753,-0.006209828,0.047419086,-0.011597106,
                       -0.0723829,0.12485494,-0.020014651,-0.0421729,0.038157582,0.06078487,-0.029485831,0.008379447,-0.04787843,0.056631528,-0.04550823,-0.06531235,0.0900287,0.0013904333,0.11285795,-0.110922724,0.037383214,0.046739947,0.08166059,-0.12114652,0.10220979,-0.022853376,0.022851644,-0.07568952,-0.015214017,0.056957062,0.0859249,0.056097742,0.05047294,0.06892154,0.03925297,-0.1043435,
                       0.00087867305,0.023763284,-0.01506784,0.12224297,0.021982893,-0.03916261,-0.10904124,0.0060693985,-0.014386788,0.034813836,-0.072201036,0.009927681,0.059297405,-0.060554106,0.056380056,0.13614368,0.041734174,-0.08611844,0.08641309,0.12921464,0.1395741,0.03780113,0.069868214,-0.04562858,-0.014327768,0.11929551,-0.04759832,0.100772746,0.011191825,0.006841646,-0.044585556,0.022946693,
                       -0.12448735,0.07050758,0.09898557,-0.07915899,0.123872526,-0.035420757,0.057352852,0.009602911,-0.080272384,0.06435061,0.124994315,-0.045199893,-0.12707254,-0.061223727,-0.11630698,-0.09298374,0.06448186,0.116613664,-0.083969876,-0.014554096,-0.07905301,-0.026213873,0.11425372,0.09430968,-0.04919533,0.1479257,0.05356437,0.042598564,-0.036262386,-0.022039985,-0.061449148,-0.046161436,
                       0.04553286,-0.014603734,-0.09840003,0.06953043,-0.090256736,0.09520777,-0.052862607,0.02587471,0.09756554,-0.11296613,0.056282934,-0.13124432,-0.1314738,-0.13146578,-0.033297922,0.05363757,0.039292447,0.12793007,0.13382366,0.05263896,-0.11886586,-0.13333912,-0.12893875,0.061663646,-0.09933774,0.11640356,-0.031448167,0.08228975,-0.0149154905,0.11810608,-0.05488736,0.04679396,
                       -0.11647402,-0.050512936,-0.053992245,-0.02872795,0.014273422,-0.103198476,0.12550022,0.11031445,-0.060893822,-0.09133952,0.013836665,-0.1376274,-0.003307292,0.040587854,-0.13996829,-0.024126671,-0.08449982,0.012919185,-0.08044994,0.022503458,-0.053475246,-0.04921065,-0.1181251,0.022495745,0.023883047,-0.0887542,-0.05882242,-0.07733745,-0.10944707,0.08455359,-0.019747162,-0.015824521,
                       -0.06262137,0.09166533,0.12419781,-0.09025456,-0.10162179,-0.07493621,-0.12615989,-0.024099953,0.10079617,-0.006722967,0.029292207,0.04899816,0.10010466,-0.088269964,-0.12837048,0.11757105,-0.106184795,-0.09102392,0.098118804,-0.13009736,0.058709577,-0.11636953,0.096039385,0.08509245,0.05444344,0.070973106,0.06462583,0.007276601,0.07886977,0.0978839,-0.08984155,0.062469497,
                       0.07137949,0.03747662,-0.040304106,0.04376215,-0.10145923,0.05452861,-0.049684886,-0.10497733,0.06916669,-0.11281591,0.06259858,
                       0.074085325,-0.019295247,0.051878177,0.0146799,0.0069534923,0.11304246,0.101366624,-0.050198566,-0.009885688,-0.099648885,-0.04725027,0.11648656,0.013229823,0.005687485,-0.029510815,0.06370806,0.058761604,-0.020911653,0.035936642,0.08900115,0.06734841,0.04848055,0.11309392,-0.05356104,0.056802932,-0.0014702269,0.048387557,-0.025472255,-0.063947,0.054791786,0.026674327,-0.08555458,-0.118936114,
                       -0.10876241,-0.11246656,0.1502112,0.040233642,0.021552578,-0.059995137,-0.10191268,-0.08581847,0.086333886,0.08206818,0.016423935,-0.055657215,-0.068829164,-0.061155405,-0.01230835,0.10305262,-0.0049429964,-0.053369712,0.041745383,0.046633452,-0.11844343,-0.10967734,0.09390131,-0.05656482,-0.04537336,0.088602595,-0.076205686,0.11051494,0.016945904,-0.01817772,0.042546038,0.0025675038,
                       0.10644428,-0.057890847,0.030355647,0.08258649,-0.03953847,0.031070085,-0.017576583,0.111783504,-0.12225111,0.012722972,0.05139339,-0.17522262,-0.034452535,-0.037750933,-0.101916105,-0.09732339,-0.01600882,0.02252379,-0.046165768,0.108450495,-0.059576783,-0.06196156,0.057533283,-0.02358972,0.06193109,0.0680095,-0.014772959,-0.12103663,0.004836396,0.045753498,0.01751683,-0.057687815,
                       -0.012060558,-0.14308287,0.011412607,0.001994037,0.15520708,-0.011209083,0.08832627,0.06083077,-0.034875955,0.04628965,-0.024995476,-0.014435855,-0.051961564,-0.09272763,-0.015418859,0.09583881,-0.062719665,-0.011176966,-0.038235832,0.05808176,0.054936007,0.01389667,0.14075394,-0.0699594,0.008951533,0.114571616,-0.078873865,-0.13838603,0.11366897,0.01305392,-0.052891713,-0.0783225,
                       0.025656547,-0.12306303,0.024024216,-0.02269844,0.0825396,-0.08812365,0.030297512,-0.11271924,-0.11476855,0.05870193,0.06307963,-0.045157667,-0.101339236,0.054704715,-0.06243726,-0.059418805,-0.08957312,-0.04374155,-0.14958514,0.08780818,-0.023803132,-0.04666846,-0.07548458,0.10299333,0.03401963,-0.012171523,-0.084291875,-0.07922272,0.16871393,-0.1256385,0.096997984,-0.12484393,
                       0.10591629,0.0040464033,0.12386946,-0.038788315,-0.12892596,0.07528259,0.037142765,-0.114918604,-0.0006472835,0.05990754,0.0061544473,0.015600956,-0.089359626,-0.097871535,-0.07128294,0.03718388,-0.06867122,-0.098224446,0.09662878,-0.111360036,0.027044104,-0.030958567,-0.04180575,-0.108846724,0.13642554,0.106427014,-0.118630625,-0.048100956,0.06952751,-0.07439803,-0.05584723,0.0367394,
                       0.06913675,0.012772452,-0.10287692,0.111376055,0.06423544,-0.012272242,-0.007978017,0.09959163,0.114442095,0.059005827,0.10621988,0.0646445,-0.039324913,0.05454755,0.12107879,0.08255049,0.04984175,-0.05963012,-0.008839693,-0.06594784,-0.088916026,0.027718052,0.03332931,-0.07141404,-0.12732355,0.015149666,0.09194379,-0.07716957,-0.012186582,-0.035622776,0.09349677,0.13029139,
                       -0.005963441,0.012629864,0.011366096,0.00976413,0.11246641,0.09215041,-0.071940094,0.014416545,0.10447977,-0.026258392,0.11681353,-0.05913051,0.037917733,0.106932886,-0.008447432,-0.08952203,-0.10483525,-0.09357727,0.050166495,0.01986173,-0.11039754,0.06181608,0.017683353,0.062587805,0.051520254,0.01870747,-0.07686992,-0.03946333,-0.1260843,0.035132688,-0.088666506,0.020208627,
                       -0.024901917,-0.05859152,-0.07807574,0.116484545,0.06002544,-0.08292068,0.03405472,-0.009577668,-0.103787564,-0.09507444,-0.09681305,0.11212253,0.11921795,0.09256586,-0.09574508,-0.048143998,-0.106349975,-0.08883663,-0.00025472877,-0.07649648,0.083880424,0.0999574,-0.0554251,-0.0776519,-0.11761299,0.11709171,-0.04846002,0.061442077,0.013599329,-0.005634169,0.036541224,-0.0028190694,
                       0.112092175,-0.12336072,0.015768353,-0.039539807,0.011995491,0.009189938,-0.00858451,0.103205085,0.10138245,-0.07125495,-0.12128478,
                       -0.16021499,-0.036831945,0.024515413,0.010872859,-0.113504745,-0.12684679,0.023377385,-0.12539145,0.033021856,0.124712,0.1414324,0.0057162554,0.13376588,-0.086822815,0.099127784,-0.057944007,0.13018042,0.015911972,-0.10177616,-0.0576898,0.09658194,-0.09671095,-0.028848395,-0.029691054,0.043131385,0.094659925,-0.1571443,-0.06586283,-0.12142373,-0.05893036,-0.094388895,-0.08929995,-0.059861887,
                       -0.08498726,0.035857514,-0.0009485438,-0.13587068,0.07138507,-0.056157757,-0.099509686,0.037887353,-0.08413664,0.048184372,-0.02436837,0.030217774,0.13406415,-0.09238937,-0.10604744,-0.07870548,-0.083351865,-0.12875599,0.04765746,-0.024399372,0.078234375,-0.10535323,0.0889555,-0.13465393,0.057999685,-0.12994972,-0.09689006,-0.06911716,0.006430075,0.055884413,-0.11572929,0.0068638166,
                       -0.08762093,-0.061851088,-0.0011114072,0.13940516,-0.038285453,-0.058654077,0.054969247,0.0729271,0.020701375,0.13098426,0.13938439,-0.0050787223,-0.047155812,0.030801434,-0.0062133316,0.033514716,0.016062908,0.08813387,0.10032484,0.12082796,0.1257052,-0.069767244,0.09044009,0.05628856,-0.08993446,0.12080685,0.09259886,0.10242304,-0.102222085,-0.10654694,0.013845341,0.031060582,
                       0.06371836,-0.09876944,0.031503227,0.10642273,0.05226846,0.030509505,0.038450453,-0.0063426015,-0.122849934,0.040720332,0.11320431,0.05482441,-0.09924988,-0.047746457,0.07636698,0.11054117,-0.11749249,0.08339213,-0.0803643,-0.086220875,0.11643164,0.035976317,0.031783238,-0.106126554,0.09161993,-0.10625853,0.0625728,0.11996494,-0.1196299,-0.10611516,-0.02528573,0.093948394,
                       -0.06027261,-0.07000869,0.055916354,-0.10718152,-0.10439453,0.0015895887,0.010049254,-0.019971766,-0.025070751,-0.036299925,-0.03829062,-0.043333553,0.011680677,0.059303112,0.0012528427,-0.11830525,0.08061197,0.069007196,0.006939177,-0.119334884,0.073900625,0.046525422,-0.07427344,-0.03716982,-0.041294537,0.09718354,-0.03240073,-0.103808895,-0.070497185,-0.045501687,0.04376413,0.10957371,
                       -0.03111015,-0.045061998,0.034324117,0.10276484,-0.042714175,-0.12012852,0.062388692,0.0006133016,0.060542487,-0.0945321,-0.09245112,0.16328792,-0.014398638,0.11893214,-0.069549374,0.06823464,-0.08620271,0.056755006,0.04203503,0.095585264,0.030466713,0.054268867,-0.13560362,-0.09431595,0.056762617,-0.079859845,0.08241143,-0.021596577,0.06300201,0.13261795,-0.07460744,0.0010034533,
                       0.028653117,-0.123123914,-0.07347643,-0.110241756,-0.107990704,-0.0020192903,-0.09693592,-0.13324818,-0.02516921,0.0013820147,-0.12463538,0.09002033,-0.10699931,-0.071688,0.018800247,0.03824255,0.008680347,0.12544745,-0.09837798,0.051036503,-0.092067726,0.09815433,-0.045354433,0.10883892,0.023110116,0.0022951064,0.037236296,-0.0907196,0.07161928,0.1033619,0.12990882,-0.0060347845,
                       -0.1010724,-0.0027941111,-0.106146075,-0.057598226,-0.051146954,-0.045266364,0.038508702,-0.10487699,0.056793764,-0.11343618,0.014358759,0.023088316,-0.0029742045,0.08723618,0.043861683,0.09085689,-0.07808141,0.05788299,0.11190618,-0.012858447,-0.04367935,-0.049448967,-0.010044191,0.055847213,0.07884443,0.06496688,-0.13755405,-0.060589414,-0.06257996,0.12670468,-0.08327244,0.03263424,
                       0.11033425,0.030150808,-0.05644875,0.03901535,0.060320873,-0.14730035,-0.10514588,-0.10472446,0.006928556,-0.09237598,-0.10158084,-0.11846342,0.11511083,-0.008573837,0.07717761,-0.10933894,-0.054369994,-0.1248267,-0.012483759,0.06724617,-0.036333006,0.031556614,-0.0749965,0.1269481,-0.06743624,0.105404034,0.039825134,-0.1037681,0.07423313,-0.04841364,0.13042341,0.06125085,
                       0.03526402,0.016013073,-0.0923414,-0.07726988,0.031312976,0.0714521,0.0053482447,-0.08432419,-0.046684932,-0.09082746,-0.0832847,
                       -0.05255062,-0.010608041,0.049919806,0.11885598,-0.11491949,0.1491844,-0.09172987,-0.018647466,-0.086799204,-0.04071553,-0.03706828,0.024767404,-0.09017808,0.08658225,-0.0022665365,-0.04136291,0.11746415,-0.08207309,0.0522025,0.05467133,0.03548529,-0.085314535,0.042545233,-0.019470364,-0.12564659,-0.048991453,0.07846499,0.059769124,0.062198777,-0.024199788,0.11121588,-0.057624646,0.112484425,
                       -0.13394599,-0.12842134,0.064391844,0.01518057,0.043726273,-0.13205105,-0.058564253,-0.09709633,-0.031643946,-0.024321148,-0.017552227,-0.07545976,0.1317616,0.06730932,0.047160037,-0.06076623,-0.0663506,0.00573699,-0.08979136,-0.011222097,-0.122717455,-0.07614273,-0.08199306,-0.07471731,0.0576628,-0.11707283,0.038131077,0.09308496,-0.040367257,0.10403521,-0.042701375,-0.124587215,
                       -0.11771128,0.06404008,-0.04984398,-0.045802586,-0.07283329,-0.105142325,0.04638709,-0.111642614,0.025005436,-0.1221913,0.11835362,0.011571486,0.009730302,-0.07398669,0.013509862,0.1104061,-0.016254662,-0.124637425,-0.024527958,0.078907,-0.04052039,0.013619732,0.12800084,-0.059876915,0.03755137,-0.13686332,0.084860474,-0.13177972,-0.037921596,0.02425003,-0.039145757,0.100383274,
                       -0.08919272,-0.096881345,-0.07028659,-0.090711765,0.10107352,0.011493034,-0.09394515,-0.044226438,-0.06966905,0.06041742,-0.09916811,0.023636468,-0.022351759,-0.13322452,-0.0058000884,0.12179592,0.025197536,-0.068704024,-0.076025315,-0.11137484,0.06633406,-0.03948672,0.099528536,0.08577001,0.0889205,0.0048153806,0.105855115,0.058957428,-0.029059911,0.0022427214,0.0022873299,-0.06637221,
                       -0.07750704,-0.045466192,0.062431265,-0.009848986,0.03412903,0.10813668,-0.13344888,0.09211044,-0.02276435,0.06505236,-0.11682403,-0.1370197,0.07147888,0.060830776,0.027955728,-0.080622286,0.023217404,-0.10930538,-0.10405284,0.016347637,0.03738783,0.07791767,-0.092736155,-0.08175162,-0.04353789,0.056261342,0.044057112,0.028704606,-0.107128195,0.07369572,-0.06278218,0.009617966,
                       0.052304696,-0.032056715,-0.08499155,0.02109837,-0.13005328,0.00857552,-0.09485236,-0.07766395,-0.08772726,-0.14311922,0.08427533,0.03287998,-0.11740742,0.10345241,-0.08415478,-0.102550395,-0.08135343,0.0594085,0.10415315,0.06031902,-0.04403088,-0.10324896,-0.05381075,0.064782344,0.08321415,0.13396811,-0.054028504,0.08562502,0.1354566,0.03422896,-0.06914717,-0.014249945,
                       -0.08741076,0.022117093,0.055093754,-0.106658205,-0.03984137,0.075327,0.046124414,0.09278953,0.029610282,0.10838637,0.094249465,0.032215673,0.06408514,0.051436115,0.04345449,0.089570895,-0.10382095,0.04093101,0.05625786,-0.09361364,0.04923219,-0.02438947,0.033911183,-0.06840299,0.03305413,-0.060831383,-0.016036062,-0.09363925,0.09135018,0.116011284,-0.038863964,0.028084822,
                       -0.112343274,-0.06313293,-0.09587111,0.1008715,0.072596386,-0.03614117,0.008110541,-0.010942059,0.08700886,-0.08385437,-0.11931536,0.070186265,0.11314926,-0.124319576,0.12990646,-0.07882216,-0.08911054,0.09001178,0.015249232,-0.031670474,-0.118233755,-0.04904302,-0.19425769,0.025367614,0.113672934,-0.060229708,-0.06560912,-0.012715787,-0.012140861,0.059220657,0.078169495,0.124266244,
                       0.12207532,-0.12798366,-0.02075415,-0.119937554,0.05113264,-0.10317241,-0.09036716,-0.12086545,-0.076764554,0.09817997,0.12593225,0.1277697,0.15210794,-0.07464884,0.08406172,0.010662517,-0.07208845,0.028456353,0.08595234,0.07041303,0.008436216,0.08883589,-0.12532303,0.11344874,-0.13427588,0.056282166,0.08104005,-0.1471784,0.13504569,-0.013753113,0.095213346,0.102239296,
                       -0.022164064,-0.07323803,0.1098613,-0.00088275,-0.091844164,-0.0048734,0.07846662,0.09307925,0.03829627,0.1084746,-0.07990538}; 



float saved_biases[5] = {-0.007474434,-0.00059233647,0.0060137296,0.00687945,-0.0022907644};