float saved_weights[1500] = {
                       0.04562589,-0.0663398,0.01621621,0.13078569,0.10410904,-0.08449448,0.054081064,-0.055337023,0.0065115876,-0.004432129,0.078989156,0.08476511,-0.03649106,0.0553847,0.11452096,-0.051962603,0.07762584,0.088628165,-0.05745566,0.03055822,0.12514958,-0.124106616,-0.11793135,-0.001084897,0.0530235,0.030468363,-0.02630858,-0.13698041,0.071288384,-0.02397946,0.038626883,0.11502051,0.04249081,
                       0.12987846,0.10294703,0.023668392,-0.016252115,0.13377148,-0.017438045,0.012235331,-0.07557911,0.12729627,-0.08339226,-0.14106093,0.03136751,-0.010499783,0.017139424,0.01836631,0.094235994,-0.04359381,-0.09411183,0.038840577,0.059017394,-0.06518087,-0.0940353,-0.10700927,-0.11216559,0.0031880545,0.11615178,0.05787685,0.101838365,0.0363025,-0.028583737,-0.11611372,0.054891523,
                       -0.116153866,0.12032928,-0.039323118,-0.020387668,-0.10974967,-0.051079962,0.024420321,-0.07785908,0.085005686,-0.06992193,0.048628405,0.12769412,0.04679601,0.07055953,0.07137821,0.09481467,-0.06886781,0.07107308,-0.1203153,0.009465019,-0.022737743,-0.08401663,0.11348175,-0.090447515,0.05959378,0.11285008,0.012972239,-0.048755247,0.107049175,0.09323678,0.068457,0.15380616,
                       0.018240092,0.12947084,-0.07393173,-0.004429346,-0.081952974,-0.05875167,-0.08918513,0.1535899,-0.054300822,-0.051170547,-0.112430975,0.06637482,0.11218849,-0.08835869,-0.13682424,0.07949634,0.06877644,-0.038233623,0.022099556,0.05649819,-0.02843574,-0.07227062,-0.013521119,-0.1414741,0.0059414976,0.1378652,-0.04455261,0.08418713,-0.0703868,0.017238587,-0.028232422,0.032979853,
                       -0.06488351,-0.09873583,0.012563348,0.012149253,0.12839206,-0.1520227,0.06445016,-0.13180827,0.05600078,-0.024815448,0.12063163,-0.10373077,-0.099365674,0.043830708,0.061541267,0.061234195,-0.11578882,0.055451673,0.04864064,-0.019852394,0.1003837,0.0013130334,0.017200533,-0.019848604,-0.09573986,-0.08799426,-0.010310195,0.09244031,-0.06678513,-0.071586035,-0.13242094,0.03226871,
                       0.06624254,-0.07809356,0.04219948,-0.08511971,-0.018829871,0.09391396,-0.09478572,-0.014414548,-0.04967481,-0.019522661,0.13452245,0.02541967,0.052931495,-0.08538145,-0.049614713,-0.10164907,-0.028199371,-0.07861493,-0.08897056,-0.12136542,-0.021344747,0.010180003,0.12615438,-0.09661875,-0.050558556,0.13328733,0.0994329,0.11384982,-0.055988934,-0.078083694,0.118394054,-0.08380813,
                       -0.0017563041,0.14100997,-0.020628363,-0.13899937,-0.05589569,-0.021104423,-0.03876796,0.03126574,0.013277826,0.0010392915,-0.053743478,-0.1021135,-0.120724395,-0.10652644,-0.11960736,0.01378914,-0.12047853,0.12508638,0.025873175,0.13109462,-0.05053427,-0.05135771,0.023891358,-0.08757664,0.002584277,0.058260575,-0.12580921,0.11631222,-0.09351691,0.05539846,0.106110774,-0.12858914,
                       -0.033005595,0.12717463,-0.096250236,0.053423654,-0.08803776,0.11729035,0.121552564,0.036990177,0.069997,0.11600762,-0.081971146,0.0060873637,-0.043541547,0.07492567,-0.105159916,-0.1302021,-0.12262406,0.042697895,0.10761058,-0.0028850702,-0.06925583,0.15346783,0.003630542,0.124759965,-0.047743455,-0.015277524,0.054968987,0.07055998,0.04251239,0.012896794,0.006968891,-0.118658945,
                       -0.13010576,-0.029887356,-0.12949722,-0.09909202,0.122737765,0.08970532,-0.11269169,-0.018970521,0.07674226,-0.057794377,-0.034812387,-0.001428929,0.10731788,-0.08366697,-0.07020492,-0.005182555,-0.12295114,-0.022763146,-0.03609722,0.014056392,-0.1328945,-0.0021882688,0.09176511,0.09025991,0.089307226,-0.06549658,0.041843493,0.08827985,-0.0015328025,0.006188926,0.10175873,0.022425737,
                       0.09637519,-0.12271795,-0.12691562,0.068867765,-0.0182248,0.0790868,-0.066015996,0.12076636,0.021408118,-0.034444775,0.05191914,
                       0.034828257,0.13462366,-0.029183352,0.1267672,-0.12591419,-0.05410329,-0.06313786,0.035337176,0.030501395,0.086655356,-0.05677916,-0.0070286966,-0.12520912,0.13175625,0.019858057,0.13583025,-0.03007293,0.092949696,-0.012845248,-0.039965164,-0.13345587,-0.006669642,0.12984385,-0.013972498,-0.027184192,-0.057655886,0.06290235,0.13119274,-0.014023847,-0.076076865,0.05025822,0.11361993,0.104809046,
                       -0.12445234,0.123641774,-0.11093694,0.09456438,0.059851535,0.12003873,0.06598708,0.04214043,0.10518188,0.021149037,-0.038986396,0.08670275,-0.08270867,-0.08533801,0.058649354,0.07225342,-0.056352593,-0.10232332,-0.11984303,-0.11305406,0.13392273,-0.10585593,0.037442785,-0.07093171,0.12109959,0.044529617,0.12625226,0.11161646,0.10889422,0.03928359,-0.031477004,0.11207358,
                       0.11023338,0.06693131,-0.122181416,-0.10775446,0.11877028,-0.079403654,0.12554148,0.044210847,-0.00273314,0.103739224,-0.04718263,0.053700984,-0.03945089,-0.12044326,0.1113454,0.06101532,-0.0011627228,-0.09082171,0.07049818,0.02088263,-0.017275665,0.044075664,-0.10865786,-0.132637,0.08395026,0.0015965189,0.092593685,0.029061258,0.044430565,-0.12705304,-0.11528565,-0.13662444,
                       -0.06738992,0.0010259207,-0.061645195,0.058928978,0.04924757,0.048271913,0.027485056,0.07171021,-0.033139594,0.09251802,0.09206818,-0.11715381,-0.11780713,0.021289792,-0.097172104,-0.114778414,-0.10855245,-0.10537716,0.12553747,0.030171387,-0.045714635,0.114198886,0.02871998,-0.036349006,0.09276208,-0.047373813,-0.04754117,0.05279047,-0.09069796,-0.076076224,0.10141351,0.12364223,
                       -0.034308128,0.060729865,0.057307955,-0.07403146,0.04745941,-0.026734231,0.068653844,-0.12576671,-0.09944479,0.084615484,-0.053083245,0.123412326,-0.094467565,-0.08342155,0.11720812,0.12447946,0.04702897,-0.052630033,-0.002784416,0.0500229,-0.04428421,0.059782337,-0.12701383,0.0686642,0.065506585,0.003008488,0.005188759,0.048524242,-0.0463663,0.0044096033,-0.06707947,-0.008015637,
                       -0.0059318068,-0.105281636,-0.046532348,0.058474235,0.06532333,0.13825178,-0.08819065,-0.021585623,-0.06706428,0.061093934,-0.032865297,-0.09184142,0.044600375,-0.107971594,-0.043547057,0.023787238,0.04093965,-0.11059926,0.07529877,-0.13008824,0.059673082,0.07007556,-0.0132513745,0.12653321,-0.08096782,0.08169388,0.06141959,-0.10521599,0.067704424,-0.07900246,-0.09976616,0.026398119,
                       0.12730773,0.11174933,0.1273825,-0.06385613,0.07009988,0.13971627,0.031662002,-0.08833354,-0.09539612,-0.027763424,0.11152393,-0.0064784656,0.07763965,0.05572763,-0.053214565,-0.12272816,0.08215843,0.00039303937,0.08128011,0.0237157,0.12437472,-0.13017015,0.046386335,0.017444637,-0.05567237,0.028767237,-0.13924047,-0.056883805,0.025399847,0.013835135,-0.07288609,0.0037757566,
                       -0.05373747,-0.1303898,0.11840718,-0.12577038,-0.13876261,0.113649145,0.12756626,0.07529202,0.0635114,0.12329157,-0.017731946,-0.10588372,-0.13751137,0.10100858,-0.09920605,-0.13361774,-0.061699215,-0.09026543,0.028009973,-0.019076753,0.116896495,0.111283936,0.004428433,0.116383724,0.13094224,-0.012473397,-0.04084293,-0.149255,-0.0859562,0.012268082,-0.00965551,0.11347941,
                       0.01634319,-0.03614746,0.02013948,0.1191083,0.05233574,-0.09929832,-0.05497621,-0.029689744,-0.12483376,-0.13984185,0.07210944,-0.058677763,0.08262839,0.080447964,0.11749448,-0.11706527,-0.061499957,0.085202895,0.02909429,0.09897083,0.13288982,-0.03754725,0.09732578,-0.0004300279,-0.10612954,0.092529245,0.004662274,0.03210404,0.12360308,0.005334953,-0.02933956,0.11065168,
                       0.08059172,-0.019848293,0.044116482,-0.07198964,-0.07946272,-0.030558957,-0.082111865,0.009369187,0.06113887,-0.12510714,-0.090033665,
                       -0.0872273,0.12555917,0.042939566,0.10305636,0.039307218,-0.066782944,0.08436496,-0.056082796,-0.02096014,0.14031667,0.0027975447,-0.10860597,-0.09254739,0.058562823,-0.054428227,0.096717164,-0.10345309,0.097610556,0.020835146,0.035181437,0.029046584,-0.09564375,-0.027657326,0.03781102,-0.12644681,-0.051418364,0.0824961,-0.12871003,0.0582088,-0.09815793,0.06716044,-0.027208459,-0.0052009574,
                       -0.0361816,0.003031291,0.13044035,0.11675653,0.114871,-0.068897575,0.052195143,0.07669491,-0.015777407,-0.018098038,0.03731588,-0.022813233,-0.12835674,-0.06593368,-0.047592584,0.011809873,0.114208505,0.022166625,0.13116355,0.022884337,-0.07066183,-0.072179966,-0.11736078,-0.00143655,-0.07050216,-0.05812274,0.084756315,-0.112180986,0.014496926,-0.11713262,-0.093934305,0.121145874,
                       0.14495221,0.12173151,0.13954528,-0.13008134,0.08277556,0.07425391,0.022937,0.019084556,-0.0155454725,0.0901176,0.07210156,-0.05571177,0.07354312,-0.131847,0.11714207,0.03014758,0.15229256,-0.118157886,0.098731615,0.08223357,-0.021647243,-0.00019634518,-0.10739546,-0.058237016,-0.024608715,0.096915506,-0.09839812,-0.052806795,0.0028115883,-0.08413229,-0.07194013,-0.04533321,
                       0.10457276,0.13491854,0.0998228,-0.055018302,0.037021115,-0.12168299,-0.0968537,0.009636854,-0.037123412,0.05205103,0.0057464996,-0.09261531,-0.08144645,-0.1297625,0.06458105,0.057300437,0.021168388,-0.0706808,-0.10914108,-0.08677875,-0.05172171,-0.10356276,0.053699,-0.034892894,-0.051162954,0.09114811,0.12174681,-0.011271684,-0.109261215,0.06932081,-0.12100143,0.07820476,
                       0.004993882,-0.01607927,0.05367338,-0.14499058,-0.08448314,0.04923272,0.120275676,-0.1210495,0.04725288,0.11033036,0.09294066,-0.03360427,-0.079217345,0.056795664,-0.12309567,0.12189263,0.0035767595,-0.055066187,-0.0069970656,0.14064094,0.0625475,0.072523765,-0.0011760743,-0.06580785,0.0046845404,-0.029812044,-0.035422012,-0.0033859438,0.04966123,0.14356378,0.09825123,0.12968522,
                       -0.07153918,0.11922309,0.04418314,0.0856307,-0.08700431,0.05357347,0.09985167,-0.08581911,-0.08960774,0.073988065,-0.080453895,0.10425835,0.055697694,0.04755348,-0.026774665,-0.07541777,-0.07117263,-0.09593874,0.051138792,-0.079978615,-0.10921841,0.009486011,-0.1185747,0.006222675,0.06080362,0.05257759,-0.042341657,-0.034916706,0.14197044,-0.02535041,0.044751167,-0.059852052,
                       -0.070533164,0.021381712,-0.12746388,0.016637774,-0.036911566,0.10736105,0.06549136,-0.04064296,-0.019770786,-0.12829146,-0.11321976,-0.06359745,-0.07320171,-0.11194691,-0.06803464,0.13091266,-0.12285969,0.019870356,-0.12089875,0.108179934,-0.057351217,0.05335327,0.0624392,-0.0056543066,0.025764719,-0.061322954,-0.13338207,0.04240335,0.12729648,-0.039027758,0.029072506,-0.07722394,
                       -0.038703024,-0.06533911,-0.016825067,0.0021293184,0.106011555,-0.013703771,0.14561003,-0.008478666,-0.0694126,-0.016917368,0.0979067,-0.02732991,-0.012555444,-0.10246737,-0.075792536,-0.059259485,-0.079515666,0.05503503,-0.109488286,0.06770689,0.11008327,0.048500136,-0.0289262,-0.10354031,-0.044334836,0.07521568,0.07674775,-0.098210715,0.089565516,0.07217581,0.020022167,0.14121743,
                       -0.06571332,0.043198843,-0.07401317,-0.049609363,-0.1193345,-0.06215481,-0.0360481,-0.0052750697,0.019071894,0.11092151,-0.030226275,0.1282006,-0.064761944,0.03559366,-0.06388257,-0.10728617,-0.0063074264,0.12985902,-0.0857598,0.013432324,-0.114132136,0.06309826,-0.039083872,-0.014943963,-0.054831464,0.11359888,-0.06337606,-0.054402113,-0.061076272,-0.09723244,0.098329246,0.108095184,
                       -0.07637248,-0.047340106,0.053832438,0.012561817,0.12719853,-0.079186745,0.029744385,0.08258603,0.05641671,0.08441712,-0.060905267,
                       0.03153296,0.022685517,0.101089746,0.041649394,0.011905131,-0.043982573,0.077758804,0.115973465,-0.055516988,0.0009906485,0.01281516,-0.0046616774,0.09939245,-0.12647681,0.077269286,-0.01502838,0.011668684,0.04521304,0.13172643,0.030860838,0.084681556,-0.122059,0.0660541,0.06432493,0.018399235,-0.069176786,-0.084776215,-0.1070684,-0.10086118,0.09080449,-0.058375068,0.08273967,-0.1161759,
                       -0.01996823,-0.029284405,-0.08227615,-0.034197044,-0.107652314,-0.13201633,-0.12104402,-0.08336946,0.03019898,0.07626064,0.079579644,0.11951777,-0.024336124,0.09479329,-0.12792464,-0.07091854,-0.0764152,-0.012165402,0.019765755,0.0076558897,-0.12548682,0.11970303,-0.081415094,-0.09788932,-0.054585315,0.08339715,0.040385306,0.0082483385,0.017504606,0.05473553,-0.09807784,-0.11739579,
                       -0.07888774,-0.02540273,-0.10685776,-0.0992135,-0.028673738,-0.035492174,-0.10185411,0.014718463,-0.11294209,0.024537431,-0.038403004,0.122056834,-0.06582564,-0.0061208364,0.097405076,-0.09804402,0.06881115,0.012281042,0.03476191,0.046472903,0.044646394,0.034642316,0.08784563,0.07373426,0.121846445,0.12818943,-0.06508887,0.03271587,-0.08475019,0.054057118,-0.093484186,-0.13086553,
                       -0.13064381,0.12781067,-0.03624134,-0.09888731,-0.062236287,-0.050413355,0.069046974,0.04711801,-0.10140245,0.035695896,0.09098399,0.050366182,0.04424526,0.11311062,-0.057112135,0.048728224,-0.09465395,-0.05221362,0.08649887,-0.11724043,-0.07709922,0.07409136,0.0852513,0.033454996,0.025449254,-0.038621113,0.12315854,-0.11602237,-0.049469624,-0.121692814,-0.1193498,-0.1384841,
                       0.10015849,-0.09281642,-0.13205399,0.16125849,-0.07472995,0.05843486,-0.10419306,-0.00847914,0.108396746,-0.0015482495,-0.0667942,-0.017280387,0.086066015,0.08111101,0.12390173,-0.07419962,-0.047926817,-0.009630483,-0.08978208,-0.08291627,-0.04822671,-0.1132325,0.11082288,0.02583059,-0.13417394,-0.1117777,-0.01412712,0.092544094,0.026871897,0.08195505,0.10389247,-0.08693315,
                       0.10049613,0.06793668,0.07868411,-0.029441295,-0.10694428,-0.13879208,0.056515764,0.018164974,-0.12070833,0.13222006,-0.037821587,-0.0041606673,-0.011732219,0.090045124,-0.07687988,0.035008844,0.0508543,-0.010044685,-0.10556412,-0.09176783,-0.006971876,0.012518359,-0.050631065,-0.1326199,0.016329162,-0.13681321,0.09499132,0.09356945,0.07850373,-0.042756766,-0.045802016,-0.07453294,
                       0.12953378,-0.10696003,0.02685213,0.04859942,0.09388388,0.09702342,-0.036201574,-0.086260505,-0.044038367,0.12040809,-0.1165464,-0.050306182,-0.032779906,-0.13138922,0.01629909,0.0112225255,0.009318103,0.10129542,0.12494093,0.08063528,0.12111079,0.062168255,0.09120653,-0.018298652,-0.028479062,-0.09749322,-0.025186269,-0.09422158,0.13810237,0.09461651,-0.052429542,0.08291044,
                       0.1234088,0.10835294,0.0049799774,0.098499976,-0.059920073,0.10057856,0.06557805,-0.06738573,0.04801427,0.054238368,0.12454476,0.060203705,-0.115250744,-0.021184234,0.09693551,-0.02903695,-0.0073233577,-0.13999389,0.12481398,0.018625714,0.082182854,0.12758961,0.12058794,-0.1168012,0.008541446,0.14166933,0.060132246,-0.02594829,0.024728237,-0.054581817,0.024505466,-0.1410629,
                       0.018607045,0.09240425,0.07638695,-0.021624947,0.10790627,-0.038927555,0.03843536,0.045623142,-0.0034633945,0.13144165,-0.090430245,-0.018434921,-0.0246332,0.018118715,-0.029317854,-0.07272244,0.067595385,-0.038905904,-0.10547729,0.0797438,0.101378195,0.010833899,0.006170596,0.09341023,0.05492885,0.08045762,0.12936696,0.057724077,-0.01407649,-0.1166562,0.10206901,-0.07652307,
                       -0.02501872,0.04996937,-0.03248711,-0.122737266,-0.08623069,0.085289165,0.0550031,-0.12797272,-0.021174088,0.12801577,-0.02614587,
                       -0.015804384,-0.00559506,-0.102709986,-0.11889307,-0.113800585,0.11817089,-0.10086325,0.10121981,-0.047296368,0.14635351,-0.043338157,-0.0066944,-0.09075223,-0.115261465,-0.050009932,-0.11975993,0.03714205,0.03374704,-0.113689885,0.044494368,0.075628966,-0.026109086,0.12359752,-0.1097761,0.063923135,-0.1024876,-0.05614591,-0.12181308,-0.014256055,-0.03255032,-0.06880191,0.038887948,-0.09869151,
                       0.05374731,-0.08517297,-0.04605774,0.113175966,-0.06704554,-0.059014093,0.08634449,0.012071634,-0.12772979,-0.15274143,-0.12952167,-0.049231328,-0.0545547,-0.080159016,0.1202717,0.0010058231,0.05938971,0.075575836,0.06501316,-0.14341643,-0.005839502,0.0064624655,-0.11471469,0.087264344,-0.12176381,-0.06644954,-0.12175648,0.029987775,-0.057305377,-0.08310488,-0.023132756,0.030834017,
                       0.07145572,-0.14118981,0.047919445,0.0918454,0.11717454,-0.100433186,0.014372343,-0.10071524,-0.053647418,0.06340422,0.08438726,-0.03079481,0.073782705,-0.06885195,-0.05571755,-0.1107079,0.018674143,-0.1125865,0.06747069,0.024886936,-0.10559519,-0.131513,-0.009627293,-0.0417776,0.01813379,-0.07368879,0.019476542,-0.024044381,-0.11657667,-0.12759827,-0.05506875,0.04867254,
                       0.06842421,0.106528364,-0.05875121,0.074879006,0.012956356,-0.05713861,0.106118105,0.06961918,0.026163079,0.04787661,-0.07787605,0.0030715964,0.116694495,0.09119941,-0.0819901,0.047033694,-0.07083442,-0.10616791,-0.061997816,-0.026798625,0.048529245,0.09188947,0.08093064,-0.09408536,0.11968293,0.023748092,0.0974674,0.0509852,0.07982817,0.02649389,-0.15319249,-0.09229855,
                       0.07220962,0.053847726,-0.1432355,0.061353385,-0.09011001,-0.10538797,-0.06996409,-0.12322934,0.12216848,-0.008768123,0.115182206,0.058736388,0.016514448,-0.13323338,-0.048559047,0.08105435,-0.1276416,0.080955654,0.06651051,0.13179658,0.005934228,-0.056013912,0.0071049035,-0.073097944,0.12265279,-0.120073445,0.13032298,0.027515925,0.06946518,0.0047548013,0.093102776,0.12877485,
                       0.11480479,0.015974762,0.009409252,-0.12901162,-0.018244945,0.107731186,-0.111139156,-0.026436104,0.069966465,0.09424907,0.05603808,-0.071450576,-0.096077405,0.14693752,-0.02735518,-0.03886413,-0.011683605,0.041420367,-0.045938086,-0.13688965,0.04435571,0.050116032,0.0336782,0.090931594,-0.029270211,-0.0020089347,0.105778925,0.0012707859,0.110070914,-0.0005740061,0.0057533085,0.056482837,
                       0.10953208,-0.09757544,-0.11084553,-0.0660305,0.032325774,-0.08165923,0.01861584,-0.038332306,0.12016348,0.1058558,0.081879176,0.0014340892,0.06588605,-0.09554868,-0.120467305,0.10612616,-0.13545501,-0.02258593,0.09813669,-0.10063049,0.074010305,0.05662864,0.14271845,-0.09262384,0.052359786,0.061742745,0.09625492,-0.023141244,0.05292509,-0.16601472,-0.044970788,0.13683976,
                       0.02373142,0.0101055,-0.13258192,-0.028906083,0.13089146,0.014972043,0.0044006165,0.10905735,0.006536196,0.10951488,-0.008317755,-0.056891665,0.00961744,-0.092793696,-0.04013266,-0.046760038,0.045022663,-0.053924136,0.08638399,0.012545706,-0.13535705,0.11894918,0.04851248,0.030144038,-0.0022494828,-0.10683122,0.0200296,0.11521487,-0.11258984,0.045240756,0.110709526,-0.05052388,
                       -0.016109528,-0.011477488,-0.07302166,0.017224425,-0.119483285,0.0892645,0.054604053,-0.08984238,-0.03995708,-0.037970144,0.06060116,0.116428114,0.044878114,-0.09880046,-0.08955727,-0.074551165,-0.064604454,-0.10702471,0.09203394,0.061118543,0.0070001925,0.105735876,-0.14061874,0.082687825,0.08126347,0.045941822,-0.11768246,-0.08690036,0.075639114,-0.10773602,0.086997315,-0.060865194,
                       -0.057712194,0.122500554,-0.010369975,-0.08237518,-0.096058495,0.07260909,0.07119035,0.021377387,0.09060587,-0.025782967,-0.13117853}; 



float saved_biases[5] = {-0.0033689498,-0.0050566634,0.0067824097,0.003976899,-0.0018893109};