float saved_weights[1500] = {
                       -0.018575836,0.019364381,-0.017668715,0.12336875,0.041017428,0.0654488,-0.036320746,-0.06448154,0.07386935,0.049006708,-0.0029709227,0.044819523,0.073878646,-0.067825206,0.09701447,0.032659326,0.092965715,0.03379795,0.043462604,0.09867217,-0.045757342,0.09007713,0.1272806,0.09096173,-0.099349655,0.052819822,0.06627812,-0.06883947,0.120805144,0.06555643,0.019485772,0.022535535,-0.033141773,
                       -0.0783737,-0.1068093,0.07303437,-0.08974885,-0.110918574,0.08420349,0.06661043,-0.13011418,0.0060586846,-0.077211,-0.024556536,-0.10586637,-0.12160451,0.011560396,0.080481924,0.00060381496,0.04038065,-0.10478034,-0.013732032,0.13372986,-0.11074168,-0.13222449,-0.08638976,-0.12460945,0.12470965,-0.017796338,-0.069909625,-0.0015217969,-0.06474711,-0.118288405,-0.0045784996,0.1300678,
                       -0.09196399,-0.1404093,-0.06568522,0.10186261,-0.09733548,-0.09338271,-0.029237771,0.032589607,-0.120797135,0.112294175,0.0092028985,-0.04489485,-0.037238356,-0.006809166,-0.13190049,0.10965372,0.050095033,-0.12892605,-0.03641049,0.101993375,-0.030075744,0.08615979,-0.121276684,0.105371825,0.04563575,-0.115335256,-0.099121906,0.061226703,-0.03611116,-0.07695602,0.020491032,0.037310094,
                       -0.11834063,0.13740522,0.023072068,0.11146129,0.027283007,0.08917147,-0.0130600585,0.008319376,-0.04738199,-0.03808914,-0.07311199,0.109248295,-0.06701055,-0.013719467,0.044290535,0.07120177,-0.012339928,0.10294849,-0.12234462,0.13866085,-0.018653966,0.0027382602,-0.012088424,0.1346664,-0.065086715,-0.084272936,0.018996358,-0.07324824,-0.046966933,0.016103378,0.028461099,0.09663146,
                       0.012920926,-0.023627471,0.042551097,-0.0063649276,-0.124353684,-0.11384274,0.020376485,0.049625978,-0.11724685,-0.12893634,-0.1252499,0.0035464603,0.010169832,0.017674109,0.08932152,-0.09543061,0.03502095,0.085215166,0.04803388,-0.0026451254,0.10662964,0.004704782,0.05259618,-0.08334433,0.06433536,0.05118107,0.082934655,-0.08052779,0.1167109,0.042364147,0.113748826,-0.060716096,
                       0.061167866,-0.08909798,-0.028111944,0.1220774,-0.021586647,0.01541139,-0.10830808,-0.08898588,-0.052420355,0.04656279,0.08217266,-0.06186351,-0.10565468,-0.0723071,0.019598791,0.0893595,-0.011231416,-0.058400746,-0.040555134,0.089750625,-0.12530954,0.10317575,-0.0817997,0.019006733,-0.06086679,0.035016373,-0.086497545,0.071442075,0.031807233,0.096132115,0.09129802,0.014884482,
                       0.087015904,0.09440139,0.118092574,0.13209763,0.054817792,-0.12971129,0.056714177,0.056528017,-0.02697195,-0.1363037,0.063940264,-0.09243021,0.10906904,0.0021100165,0.08184525,0.11642546,0.040980652,-0.06640215,0.10807338,0.08045175,0.11189873,-0.018223673,-0.04367325,-0.07977125,-0.011334073,0.12489958,0.044004798,-0.110453576,0.062365025,-0.027899763,-0.121207505,-0.13110784,
                       0.08953821,0.064074926,0.06908027,0.07832766,-0.066161014,-0.1319477,-0.09185654,-0.14108968,-0.1358147,-0.07123521,-0.09808271,-0.087159164,0.004704699,0.03193305,-0.08229152,-0.00065752864,-0.019261159,0.099010356,0.11040503,0.092892736,0.08266901,0.050717972,0.09992445,0.045465223,-0.006672256,0.13676651,0.047816902,-0.020387894,0.100644216,-0.09215215,0.067836255,-0.017823948,
                       0.081464075,-0.07634728,0.048037946,-0.036312293,-0.13676395,0.12264005,0.05140364,0.06784678,0.0056912787,0.13860796,-0.15567674,0.084236704,0.04197174,-0.1266366,-0.11569001,0.042278547,-0.08703196,-0.037680075,-0.09673219,-0.13327271,0.037346475,0.0915255,-0.10476415,-0.078231126,0.038933046,-0.07103054,0.07885336,-0.07991123,-0.11463562,-0.10271128,-0.06555849,-0.006376966,
                       0.12900932,0.09398109,-0.12477138,0.11374328,-0.043271195,-0.068824835,-0.11506607,0.024637474,-0.058818467,0.058455635,-0.115461856,
                       0.06932125,-0.110603966,-0.07535663,-0.052483376,0.085841745,0.005560491,-0.0145119475,0.02199967,-0.030299393,-0.02519246,-0.04125543,-0.03937531,0.060052752,-0.08496368,0.09273183,-0.00047733335,-0.12293475,-0.12853263,0.07948792,-0.06985765,-0.025051178,0.08342776,-0.09139283,0.023522355,-0.0031512857,0.112209186,-0.08167515,-0.013259035,0.004915889,0.10120241,0.011423858,-0.0675759,-0.054094434,
                       0.12531787,0.08756531,0.08983749,-0.050297998,0.016963866,0.037366714,-0.09045973,-0.13531041,-0.04306665,-0.037965514,-0.04341458,0.13343662,0.104301974,-0.11893572,0.1154526,-0.10297601,-0.029935604,0.05732778,0.11639121,-0.11007051,-0.04186355,0.06188988,0.070823185,-0.060025945,-0.10186111,0.09968198,0.09493066,-0.09869017,0.02274259,-0.12566918,-0.024863908,0.08357406,
                       0.03869957,-0.05586329,-0.120677345,-0.078063756,0.09966978,-0.024898892,-0.02636137,0.052953858,0.11216512,0.13059668,-0.083373144,-0.010170554,-0.0106490925,0.07994866,0.11667116,-0.08062171,0.09507823,0.11079655,0.09162517,0.06237125,0.004965685,-0.0025241533,0.08401658,-0.114216074,0.066160865,-0.08268386,-0.030921163,0.086072505,-0.116968066,-0.13324064,0.06837282,0.12569922,
                       0.049737047,-0.121610194,0.13218303,0.0955787,-0.1080209,-0.0720843,-0.056323815,-0.07629739,-0.0015841573,0.037418652,0.021258682,-0.09709073,0.10456789,0.029040573,-0.0697846,0.1563928,0.016166633,0.111047,-0.029646812,0.10741827,0.0568031,-0.035396148,0.05172776,-0.12304996,-0.0033686212,-0.030489642,0.11000663,0.010304398,0.053391498,0.052831803,0.046117146,-0.11728508,
                       -0.046972897,-0.13069297,-0.07630331,-0.12912488,0.032878302,-0.08480947,-0.10964768,0.08675142,-0.010429492,0.103457406,-0.11615865,0.008472526,-0.11014902,-0.043390054,-0.018728463,-0.0086427815,0.08964452,0.08173375,0.058630448,-0.006524722,-0.008039594,-0.023409987,-0.014070538,-0.032991596,-0.123850614,0.049584027,0.09636713,-0.0147744175,-0.05104896,-0.06564703,-0.09376462,0.11904352,
                       0.12062588,-0.12105141,-0.007005232,0.11351858,0.0045920652,-0.034238596,-0.106783114,-0.064031206,-0.011145526,-0.10850162,0.14396787,-0.012191248,-0.016548239,-0.099925175,-0.115076154,-0.05307584,0.035845097,0.014191321,-0.0026144886,0.124482766,0.1433756,-0.119999014,0.058953255,-0.06252729,0.009505081,0.011997095,-0.10357973,0.08854517,0.12537964,-0.045474056,-0.069808155,0.02791855,
                       0.101862,-0.047627367,0.11924007,0.06856363,-0.042614345,0.00082075596,0.025873698,0.099701755,-0.10415511,-0.012129413,-0.018212527,-0.09186183,-0.072039224,-0.03399317,0.09169193,0.08342919,-0.014086624,-0.121028386,0.14180218,-0.110033765,0.09462394,-0.04029794,0.06841235,0.09363258,-0.021881606,-0.11435412,0.12777452,-0.02123992,0.082144514,-0.05212204,0.026658466,-0.115934946,
                       -0.13088033,0.038972013,-0.061550956,0.08792607,-0.035021212,-0.034958083,-0.017258298,-0.116658434,-0.07175332,-0.091218956,-0.02618894,0.14003302,0.08194438,0.1096477,0.05126267,-0.12064032,0.12533014,-0.123118244,0.04686776,0.071284145,-0.05551025,0.074665375,-0.10870637,-0.13302466,-0.02909901,-0.004950323,0.09036347,0.06285969,0.044243228,0.023371072,0.12563574,0.12854788,
                       -0.12013869,0.08794599,-0.057406235,0.030960388,-0.13028331,0.06067653,0.12227635,0.04493526,-0.023082599,-0.115007915,0.037994757,0.12818113,-0.1045555,0.09486646,-0.11130855,0.052580528,0.11961824,0.08464417,-0.018686365,0.03919003,0.020041687,-0.0935485,0.13030796,-0.12128382,0.112307295,-0.05696335,-0.10653654,-0.1334494,-0.074104995,0.07341173,0.0611773,-0.031216243,
                       -0.028916063,-0.031076256,0.016394192,0.07654528,0.060287457,0.065337576,-0.11151561,0.081204824,-0.0340393,0.087687396,-0.06280428,
                       -0.049201313,-0.06961486,0.0916319,0.028778007,-0.04172346,-0.13060112,-0.013263079,-0.07115617,0.002079782,-0.12193642,0.027326366,0.056015752,-0.095542595,-0.062492225,-0.105098255,-0.0987117,0.043094154,-0.069036104,-0.046498615,0.028881706,-0.010293293,0.087618366,-0.11604895,-0.13536356,0.09522743,0.10649875,0.03620507,0.07060495,0.034593236,0.09364322,0.052018438,0.02784662,-0.10441182,
                       -0.030949818,0.13397287,0.07103415,0.12464716,0.13278408,0.11636058,0.044130683,0.060089152,0.12980616,0.12915818,0.100464456,0.11442618,-0.060737543,0.067586005,-0.12595272,-0.13932517,-0.07196002,0.10133138,0.10958869,-0.033943485,-0.09802597,0.025356917,0.05174119,-0.06725024,-0.01688482,0.06906279,-0.03586428,-0.043033928,0.012245333,-0.055240642,-0.103363946,-0.0132138925,
                       -0.107187256,0.10078295,-0.019663418,0.017313901,0.06488817,0.15542705,0.07015563,-0.088090524,-0.1089801,0.09627924,0.06810288,-0.13318367,-0.066030376,0.060025223,-0.06946207,0.012179587,0.09853886,-0.023886979,0.11175801,-0.119641155,-0.00722226,0.10318118,0.1043965,-0.08483213,-0.09708542,0.1186785,-0.0058780257,0.10302042,0.0722438,-0.09658274,-0.06472722,0.076141156,
                       0.115382195,0.027563516,-0.04563908,-0.051793467,-0.057098564,-0.107283145,0.124045864,0.096081235,0.064163,-0.10360741,0.00645902,-0.0046250075,-0.08118686,-0.11253313,-0.07451955,0.05378659,0.11382576,0.06312779,0.031235289,0.11274115,-0.0709082,-0.039117813,0.0893012,0.068356104,0.12313063,-0.056273166,-0.102753274,-0.05640841,0.11674768,0.09850105,0.09929893,0.019983992,
                       0.0421382,-0.12164472,-0.12511173,0.061306655,0.13796584,0.09707909,0.014493184,-0.11991556,0.110511,-0.102967784,-0.07846809,0.06675506,0.0054632965,0.07394377,-0.099360414,-0.1298304,0.12632374,-0.033351205,-0.11290272,0.030201992,0.12316548,0.13853776,0.030197158,0.03437356,-0.067562066,0.05666434,0.0689263,0.032337468,0.13909756,-0.1104688,0.11122646,-0.017391033,
                       -0.104873575,-0.008591687,-0.03205591,-0.12168458,0.1002263,-0.06489282,0.011569532,0.013488119,0.10641949,-0.033987176,-0.008079159,0.028527224,0.04437734,0.110281795,-0.10086714,0.046624098,0.0562814,0.043196954,0.033774767,-0.029291235,-0.072149195,-0.045885276,0.083665624,-0.01811058,0.072268985,0.059630908,0.12947433,0.10560643,0.07636754,0.13115974,-0.078350395,0.0354783,
                       0.0300003,0.05416336,0.051467177,0.038728118,-0.007516385,-0.101638585,0.007882226,-0.033914495,0.03058774,0.06987187,-0.1256934,-0.10975791,0.12735844,0.09260991,0.020000532,0.068359636,-0.020495998,-0.0007695194,-0.12462839,-0.08331868,-0.13945541,-0.10154527,0.12755328,-0.033527743,0.085058585,0.11793893,0.035042953,-0.08026541,-0.1180247,0.11104641,-0.06607321,0.009859058,
                       0.09846238,-0.07656537,0.09281834,0.11984067,-0.10510865,0.052524514,0.12692073,0.049215965,0.13000989,-0.06880536,-0.023166357,-0.11160441,-0.023132466,-0.033130787,0.07101039,0.119515255,-0.028967546,-0.049273238,-0.10081685,-0.098336466,-0.0012414055,0.11665568,-0.04347483,-0.057100594,-0.025167843,0.040235102,0.11927672,0.10718729,-0.13250126,0.10814558,-0.12550817,-0.102782,
                       0.04169236,0.12245343,0.08359541,0.1320857,-0.10186335,-0.061259545,0.0643373,-0.07729178,-0.04670922,0.06398487,-0.10003758,0.00506553,0.0840536,0.056119114,-0.06952286,0.070810996,0.0032377134,-0.09770161,-0.048820958,-0.059654158,0.08607233,0.049154405,0.13018286,0.12866825,-0.039300196,-0.103573784,0.0745879,-0.01675635,-0.08842602,-0.033731572,-0.04713486,-0.06774432,
                       0.09908118,-0.08374904,-0.03891084,-0.116982065,-0.033210553,0.11875645,0.09234284,0.013184744,0.10086768,-0.06868159,-0.1096802,
                       -0.022074603,-0.1301886,-0.069930606,0.052769203,0.0007041347,-0.08153653,-0.05075922,-0.08041848,-0.06203836,-0.12051361,0.13524707,0.0042414307,0.077802524,0.030500587,0.11979072,-0.07239523,-0.05849181,-0.07039475,-0.053758036,-0.12607077,0.021128464,-0.026674565,-0.04126617,-0.059330527,0.082004495,-0.06521435,0.0588086,0.04878055,0.115411125,-0.11971238,0.08415969,0.042084824,0.12180994,
                       0.05156772,0.035407364,0.0900841,0.11089902,0.10020077,-0.05294165,0.13591082,0.03844816,0.061122045,0.0571643,-0.12346619,0.0690174,-0.08310517,0.03332616,-0.031246401,-0.1133938,-0.057845753,0.07869583,-0.13145716,0.025495272,-0.10595319,-0.045664586,0.08258501,-0.06790653,0.013319259,-0.022577213,0.05834581,-0.07059656,0.12614624,-0.1291384,0.026375536,0.1456528,
                       -0.10213755,-0.12826033,0.099154755,-0.00868143,-0.10815648,-0.054725625,0.024267145,0.07825465,0.017481714,0.14832021,-0.10564129,0.06334722,-0.06676755,-0.12962924,0.040773414,-0.0738005,0.08247208,0.08443119,0.0504573,-0.0110998275,0.032519665,-0.13031186,0.04895797,-0.081377834,0.09006597,0.010353001,0.103679925,0.035677247,0.13314843,-0.077899694,-0.07320793,0.043183,
                       -0.038160127,0.031743452,-0.12929359,0.09017693,-0.023984242,0.022176126,-0.09182005,-0.07119093,-0.027424313,0.09143932,-0.0012600616,-0.123285994,-0.08447782,0.12438382,-0.017090723,0.10636944,-0.012533438,-0.10807591,0.110771805,0.04424934,0.07564212,-0.12476925,-0.036877785,0.123230144,0.12979881,0.038250484,0.014068764,-0.07959339,0.044532593,-0.08891059,0.030926252,0.10151984,
                       -0.08130062,-0.08781152,0.08389983,0.013844556,0.019638678,0.10774114,0.00437592,-0.11174366,-0.03705111,0.06448864,0.04008178,0.0018821451,0.008069262,0.041139953,-0.056247003,0.022184597,-0.030825524,-0.049684685,0.14636983,-0.011813269,0.03474809,0.02025112,-0.07080002,0.1317129,0.111353554,-0.08112595,-0.057562172,0.02664117,-0.019983714,0.01009778,0.024681766,0.098867744,
                       0.1101015,-0.019338485,-0.10903974,0.08032515,0.074293554,0.12789324,-0.07596874,0.044699837,0.035632554,-0.0629983,0.03764464,0.002874931,0.015699837,0.083124876,-0.021565812,0.0250209,0.00022533168,-0.031966686,-0.007564494,0.055393502,-0.07586157,0.13541387,-0.064119145,-0.041425113,0.06734825,-0.020838695,0.12838067,0.12835507,-0.13295259,0.020615283,-0.08183608,0.12401719,
                       0.036242567,-0.08860395,0.087860316,0.10242554,-0.066224515,-0.039688323,0.085382424,-0.119489856,0.04338175,-0.07450281,0.112318076,-0.036617223,-0.07363123,-0.03601912,0.11932905,0.043123566,0.12240374,0.015669847,-0.110389344,0.12735508,0.05937208,-0.028080486,0.11833088,-0.101932146,-0.013488418,0.05872669,0.01754365,0.06325904,-0.051686995,-0.13546768,0.041501176,-0.07074578,
                       -0.0712026,-0.015108925,0.033077233,0.10135512,-0.08854682,0.08747177,0.00037532055,-0.0052238987,-0.11377993,0.018043837,-0.06917687,-0.12222632,-0.115539856,0.015279898,0.09009764,-0.11678903,0.11842701,-0.10556401,0.05723858,-0.12263018,0.017647432,-0.07578791,-0.11624509,0.034487683,0.065334156,-0.079807736,0.011038601,0.13400269,0.13467535,-0.050767273,-0.05848511,0.080505624,
                       -0.06404647,-0.13671842,0.12592511,-0.01152456,-0.099373884,0.044978652,0.06934436,-0.052640695,-0.1343894,-0.038940694,-0.008540948,0.12422687,0.13017167,-0.117038,-0.010303112,-0.0025804634,0.008363841,0.10264961,0.043843824,0.041515466,7.054823e-05,0.106953196,0.019681783,-0.03254703,0.08368822,-0.07491,-0.108999334,0.08285479,0.01636508,-0.09779938,-0.10084898,0.068020746,
                       0.04701229,-0.019974148,-0.1324786,-0.06348146,0.0863314,0.099246874,0.032460187,-0.009026372,-0.04768765,0.08101456,-0.019869087,
                       -0.13728347,-0.12168461,0.03298113,0.09803755,0.03469604,-0.11208922,-0.050970417,-0.015300527,0.030681817,-0.13396604,0.007362945,-0.0791491,0.032338217,0.091921285,0.027356677,-0.039295066,-0.090536565,-0.033834133,-0.03658797,-0.060622763,0.0009685926,0.012234053,0.04702465,-0.10502747,0.07979698,0.029365638,-0.03772026,-0.00037598133,0.07025421,-0.017684957,0.07862142,-0.10552617,0.09460044,
                       -0.0029042584,0.107744604,0.08260678,-0.10452698,0.118723854,-0.0817961,0.11400403,-0.0868644,0.11778472,0.13504195,-0.105013505,0.108547196,0.04282975,-0.03010761,0.10328517,-0.0390921,-0.02449697,0.05110453,0.14322057,-0.0370158,0.04020929,0.046083573,-0.026651733,-0.07331542,-0.0044166767,-0.031309884,0.108383656,-0.021929044,-0.07965832,0.04867597,-0.1375252,-0.0034704555,
                       0.0231856,-0.03560101,0.11467406,0.11528473,-0.09455848,0.08625535,0.10165388,-0.008039309,0.030525038,0.06848345,-0.08308419,-0.10220619,0.09225332,-0.01871365,0.09134243,-0.038482245,-0.030931544,0.088409066,-0.016326273,0.08474824,-0.09066085,-0.08798036,0.097379,0.047274318,-0.0306458,0.130517,0.009736793,-0.014601455,0.054541156,0.10000228,0.11897989,-0.1261071,
                       -0.041359853,0.07852798,0.033593982,0.06260318,0.038145818,0.025798535,0.073445246,-0.062427353,-0.120927,0.05039276,-0.048354056,0.08539738,-0.0609338,0.070143215,-0.09324828,0.0557123,-0.036946896,0.10708232,0.09956524,0.02601444,0.123662785,-0.014557013,-0.04343467,0.10085464,-0.0025848788,-0.057542313,-0.08532571,-0.09537223,0.031515405,0.10830893,-0.028457817,-0.042165674,
                       -0.054160293,0.065292746,0.01394545,-0.09677723,0.05364548,0.08231876,-0.034832723,0.00699367,-0.10780561,-0.05315205,-0.12571849,0.10495064,0.036770627,0.093193725,0.12093994,0.0070414995,-0.03776979,-0.14019881,0.012864828,-0.00920932,-0.060497586,0.016822627,0.05066763,0.12983045,-0.05693093,-0.11090103,-0.108583935,0.09318709,0.01034924,0.08611535,0.04581191,0.05676039,
                       -0.093906865,-0.08348289,-0.05770806,-0.098662354,-0.070399515,-0.05205866,-0.1410602,-0.09668527,0.09376787,-0.02220214,-0.100649334,-0.0032522858,0.0022873762,-0.1411074,-0.09636836,0.07940017,-0.06458647,0.0015108715,-0.12826268,0.1103044,0.06308559,0.11166069,0.025203802,-0.1128603,-0.10077165,0.059077356,0.06555919,0.118918195,-0.11495602,0.06186974,-0.119619004,-0.06057198,
                       -0.12336061,-0.09047145,-0.06216931,-0.12492249,0.073720485,0.01456622,-0.057456378,-0.023828994,0.05075885,0.07416482,0.02896413,-0.033926148,-0.009925292,-0.026697604,0.08961589,-0.037032746,0.05380041,-0.09293612,0.03526491,-0.07672811,0.009158982,-0.04621426,0.040591024,-0.04794199,0.017240992,0.09393356,-0.008800774,-0.10444456,-0.05704701,0.014557805,0.11353407,0.011668436,
                       0.094878666,-0.13127398,0.11073525,0.024773452,-0.027930096,0.012669663,0.016656991,0.020711543,-0.045203373,0.005186179,0.09260863,0.005996522,0.07298387,0.08251247,-0.09116695,-0.031089684,0.08314804,0.019345526,-0.0006777341,0.085122705,0.032154113,-0.01478678,-0.03960238,-0.10809955,0.036100805,0.02153374,-0.027406327,-0.03633227,0.00935344,0.13015972,0.08843263,-0.010497116,
                       -0.09136886,0.1220691,0.13323689,-0.07985752,-0.06757876,0.032203075,0.03150552,0.13020624,0.12563153,-0.046642236,-0.08122429,-0.07355706,-0.03075334,0.023315994,-0.028574148,0.013632936,-0.021004805,0.014816252,-0.101073705,0.021055344,-0.0012827724,-0.03941832,0.120028,0.068056405,-0.01913365,-0.039494056,0.092193216,0.12014084,-0.12414048,-0.05884723,0.08114346,0.10270812,
                       0.046935484,-0.085122086,-0.024258386,0.015375918,0.07513235,-0.038178183,-0.12541802,-0.083451554,0.10837596,-0.0721256,0.023013188}; 



float saved_biases[5] = {-0.0056278473,0.0027786933,-0.0002525711,-0.00022461146,0.006302465};