float saved_weights[1500] = {
                       0.0020558732,-0.10762473,0.014229945,0.017173203,0.022535158,-0.12459719,0.06462744,-0.0025052915,-0.1257071,-0.07469993,-0.039145682,-0.013700009,0.0032767307,-0.08147719,0.13713828,0.077379726,-0.09785245,0.032229465,0.08260251,-0.09076895,0.08778554,0.080455765,0.06816934,-0.04365831,-0.0014223938,-0.07027439,0.00056283106,0.11993238,-0.02364031,0.054599423,0.10041502,0.10879146,0.05157205,
                       -0.09201322,-0.07388629,-0.032195054,0.034175303,0.07737307,-0.031599324,-0.047314532,0.019128492,-0.08748872,-0.006028987,0.08547767,-0.044545338,0.033922963,-0.1132214,0.04820335,0.011459724,-0.06544044,-0.13251469,0.014449743,-0.12626685,0.03125547,0.04408593,0.02109137,-0.045622315,-0.12524898,0.046693247,-0.009222753,0.08992294,0.09384576,0.08559727,-0.028174317,0.12906478,
                       0.062371127,0.09343296,-0.026273828,0.040999327,-0.1338818,0.035062157,0.056135807,-0.08922837,-0.112790115,-0.069115266,0.034013618,-0.103224225,-0.06383927,-0.118761905,-0.11279248,-0.13789956,-0.09642521,-0.065477915,-0.103277415,0.07182114,-0.06967896,0.116497934,-0.04873257,-0.055907845,-0.04970235,0.0127226245,0.048810713,0.0036345653,0.0925634,0.03904041,-0.031103874,-0.0048158,
                       0.06233255,0.12778245,0.10722121,0.053185616,0.100841746,0.051218957,-0.04367904,0.024931464,-0.009974392,-0.11518998,0.0006436534,-0.11276627,0.0042929444,-0.07021154,-0.07537934,-0.122232765,-0.027339665,0.12485234,-0.12555425,-0.1210601,0.11791941,-0.11150951,0.09555179,-0.081081145,-0.044491354,0.15685494,0.045242053,-0.05244433,-0.13559486,-0.074863814,0.116493255,0.042374562,
                       0.032274842,-0.019634314,-0.047052838,-0.06274771,0.09443291,-0.006712356,-0.05256912,0.13790417,0.008254296,-0.06894527,-0.052528977,-0.01255953,0.04471984,0.10846895,-0.004947246,-0.0075008967,-0.02248984,-0.016844774,0.039458342,0.06856914,0.06631927,-0.07343022,0.0870829,0.12883376,-0.011838767,-0.11876526,-0.088111736,0.003389245,-0.0011492084,-0.05318485,0.060240954,0.12128973,
                       0.06195991,-0.11235894,0.060071856,0.13933499,-0.11683722,0.03559209,0.11951219,-0.07487753,0.0065904227,-0.07450254,-0.099114925,0.023197964,-0.05589958,-0.066961706,0.088063076,0.030704223,0.05200109,-0.12567806,-0.012521753,0.12568262,-0.00083604665,0.0548075,-0.055117507,0.073297046,0.12698072,0.13290216,0.008129696,0.029010052,0.050085783,-0.11838352,0.08097221,0.037974834,
                       0.00668301,0.038982112,0.13085045,0.09578433,-0.086607605,0.066547744,0.02526797,-0.06815635,-0.12235515,-0.11074208,0.13425276,-0.021982066,0.05887612,-0.111097045,-0.12854096,-0.121418975,-0.05883799,0.10462049,-0.050277635,0.00038769987,0.11833223,-0.10614737,0.06520204,-0.032294087,-0.10328104,0.07085586,-0.03519457,0.06484912,-0.11968417,-0.07100321,0.022549616,0.010232671,
                       0.02637751,-0.041619938,0.11902539,-0.11084356,0.025977056,-0.07136153,-0.04549987,-0.08383877,0.10866677,-0.11866832,-0.033096805,0.02940527,0.07740319,0.07253802,-0.04184229,-0.10404285,-0.11755647,0.1025278,0.03001253,-0.02674594,0.09589963,-0.112467244,-0.048172068,-0.06451957,0.12176925,-0.10279408,0.12923388,-0.08504417,0.06579057,0.062506184,0.12193529,-0.07903947,
                       0.019822367,0.02413952,0.1156302,0.09999662,-0.032953996,-0.015731461,-0.056312475,0.03935582,0.09422552,-0.039080437,0.09142194,-0.046659946,0.000918063,0.073486045,-0.00044677325,0.04043537,0.032452524,0.048153304,0.037298895,-0.004612306,-0.13494143,-0.03691979,0.12532838,-0.0031528852,-0.049495142,0.13111135,-0.044013854,-0.13372974,-0.076640695,0.039639212,-0.020534994,-0.055783976,
                       -0.040911872,0.052543044,-0.06181002,0.06648135,0.00027912486,0.1248533,-0.1113181,0.032816343,-0.10932139,-0.020063939,-0.022970779,
                       0.03182314,0.08571989,-0.046035007,0.12419052,0.103947975,0.015507677,0.009958233,-0.0994363,0.025705006,0.025352566,0.03432888,0.13124178,0.02559138,-0.050972342,-0.05487582,-0.051494356,0.014913864,0.095172055,0.10217469,-0.0687226,0.08655796,0.101126656,0.09653125,0.1186353,0.084309414,-0.088336505,0.03561092,0.113727,-0.04261175,-0.1266752,-0.10647759,0.008746029,0.030572968,
                       0.11915646,-0.093821414,-0.05091869,0.06471088,0.122251995,0.08606434,0.10626767,0.09740013,0.14035273,-0.036412597,0.035977233,0.05856004,0.14763068,0.11365634,0.12425627,0.04368644,-0.10391081,-0.11076542,-0.022404356,-0.04039864,0.08391348,0.10896733,-0.1083841,0.0918823,0.023576818,-0.05103761,-0.12733348,-0.044216298,0.09632434,0.08232754,-0.06305174,0.0050584776,
                       0.00011184573,0.026536731,0.10019332,-0.10652748,-0.08252505,-0.03990378,0.08067928,-0.08229718,0.0587481,-0.11256386,0.069689125,0.08344719,0.018763008,-0.109849915,0.099718876,-0.13113049,0.06710841,0.00802162,0.093806975,-0.06972377,-0.12943508,-0.11196303,0.11660302,-0.09341614,-0.006348681,-0.085784085,0.09365835,-0.05273186,0.0075444384,0.021939933,0.053873368,-0.058213245,
                       -0.09703154,0.03851889,-0.057993967,-0.086985745,0.014328493,-0.048488338,0.005686783,0.0065245135,-0.023113752,0.06666949,0.09492582,0.08654199,-0.11479644,-0.0033300326,0.07690967,0.111716606,0.0690118,-0.043956943,0.05194919,-0.022541374,0.023588551,0.07304482,-0.06766318,0.096962646,-0.14915857,0.09615242,-0.0795812,-0.06441104,0.046851225,-0.08505278,-0.10048023,0.08090671,
                       -0.111245245,-0.08555125,-0.13784133,-0.043237425,0.084192075,0.13232096,-0.012191764,0.019656636,0.112569064,-0.12799014,0.010917329,0.11434227,0.140576,0.03979125,0.12177099,0.05729526,0.12961191,0.016079077,-0.07183257,-0.08547962,0.034425557,-0.0047246325,0.12133824,0.092225775,0.10462094,0.11072876,0.030849094,-0.017852277,-0.06321543,-0.08740746,0.092297405,0.0940571,
                       0.015060826,-0.051372394,0.09473134,-0.1371051,0.11238821,-0.05080138,-0.056602333,-0.10184916,-0.056959234,-0.020337963,-0.03943289,0.11490307,0.056338225,-0.081513986,-0.03213984,0.1308101,0.053833626,-0.06598756,-0.10349029,-0.14323255,-0.085692674,-0.10398367,-0.11788384,-0.025476271,-0.010173359,0.06086123,-0.032366894,0.07524926,0.013085127,-0.10512742,-0.122334026,0.012806403,
                       0.14499584,0.07136009,-0.1119309,0.06395465,0.0848757,0.014940994,0.12573333,0.08929955,-0.1007296,-0.029251643,-0.094123594,-0.05040076,0.062240563,0.059987187,-0.005432597,-0.058076248,0.031967144,0.10275051,-0.1367288,0.0837843,-0.07775136,0.123387985,0.078178935,0.15754513,0.13852935,-0.021349449,-0.10973092,0.042936895,0.11218019,-0.081347466,0.09047341,0.037070166,
                       -0.101514764,-0.10923063,-0.030963503,0.093872815,0.034950912,0.02288158,0.09560707,0.11705578,-0.12131603,-0.016123226,0.03272303,0.043738164,-0.0076045054,-0.048552413,0.11755524,-0.064225666,-0.025738416,0.033154566,-0.011768422,-0.03535568,-0.10689463,0.12016706,0.07274806,-0.009037154,-0.011337386,-0.09691874,-0.015971601,0.03452609,0.10444936,-0.15160295,-0.06393415,-0.04955491,
                       0.09178746,-0.049895033,-0.1240035,0.13991344,0.013454252,0.11232657,0.009960403,0.022483336,-0.029584251,-0.11320385,-0.12589966,-0.08630889,-0.12069832,0.07113517,-0.11485462,-0.11808231,-0.089186795,-0.005399804,0.022013864,0.06499565,-0.11338739,0.056127217,-0.004283019,0.04727469,-0.13260798,-0.085529335,-0.009314456,0.044600826,-0.04975109,-0.047936052,0.026481964,0.07233854,
                       -0.111686416,-0.0787524,0.11318465,-0.059506685,0.04699902,-0.10111415,0.049633704,-0.11378857,-0.09623802,-0.123767525,-0.10389297,
                       -0.067470744,0.107124545,0.019270072,0.09603788,-0.040010944,-0.106427,-0.052553907,0.015047374,0.03118946,-0.1145786,0.10463426,-0.06434226,-0.12347886,-0.10059588,0.10351265,-0.04254087,0.12708917,-0.089314215,-0.036088914,-0.09928665,-0.13479176,-0.042047884,0.0059524947,0.067822106,0.1043287,-0.08495277,-0.09350908,0.033274356,0.06726542,0.048416633,-0.06768694,0.07045506,0.08546681,
                       -0.008131267,-0.07433481,0.043483857,0.13571721,-0.042757813,-0.025915274,0.049534276,0.021670679,0.052366965,0.10151029,0.03331785,-0.07658266,-0.11825471,0.13168718,0.084058724,0.13472764,0.0050028265,-0.014231139,0.08292556,-0.08749122,-0.08134862,0.013730499,-0.05691964,-0.046524875,0.104681574,-0.093515754,-0.13184832,-0.05900932,0.031619232,0.07000446,-0.042928092,-0.020873083,
                       0.04065592,-0.060845472,-0.08782729,-0.11287043,0.07856997,0.072745055,0.02153594,0.06595353,0.084547564,0.029936632,0.13409401,-0.084219985,0.046937723,-0.016319217,-0.0659954,0.113706194,-0.063445225,0.019189129,-0.034163214,-0.031033635,0.0445257,-0.040175464,-0.11221429,-0.10589128,-0.1312515,-0.090403825,0.091404125,-0.049583744,0.11874472,-0.07034653,0.012466775,-0.024840975,
                       0.10061525,0.00010281881,0.13821957,0.06961722,0.0021376798,-0.09016336,0.1191319,0.04874744,0.07445,0.13839935,-0.10813109,-0.10172467,-0.09429166,-0.064840004,-0.12187888,-0.0031335712,0.08740345,-0.059898365,-0.08621517,-0.08421912,0.08425028,-0.096432224,0.0051552164,-0.121835455,0.08325601,-0.06498869,-0.09881717,-0.080125995,-0.06999595,-0.11692798,-0.07265775,0.12677532,
                       0.061985172,0.013962112,0.1296822,-0.034162585,0.02937779,-0.10053032,0.061289392,-0.12598674,-0.025850331,-0.075815044,-0.11044478,0.12663986,0.051414587,0.024378,0.03804032,-0.08746371,0.13805857,-0.00040185783,0.02733041,0.08773764,0.0130939325,-0.039879806,0.044888593,0.017549744,-0.09945132,-0.09632538,-0.022143066,0.03739173,0.04370232,-0.106623664,0.025988465,-0.04212356,
                       -0.074717864,0.10128739,-0.029594284,0.08062318,-0.045567207,0.113971986,-0.03701962,-0.013738238,-0.02657468,-0.122814946,-0.0079170475,-0.050886918,0.03724274,0.048427984,0.061944544,-0.12412861,0.038921732,-0.122601375,-0.039724566,0.06484434,-0.0010716696,0.06869134,-0.10583465,0.014644061,-0.038033307,-0.111226924,-0.023565385,0.06255373,-0.07599491,0.05404208,-0.11107606,0.08819768,
                       0.026461542,0.04849853,0.08219817,0.05425046,0.12291749,-0.011157107,0.12109592,0.03313682,-0.057047993,-0.111746155,-0.051858958,0.044745803,0.04923896,0.11975857,-0.008074917,-0.004036775,0.0297236,-0.11689686,0.100451134,-0.017797854,0.060641155,0.0061204676,-0.00022080004,0.07223919,0.07245596,0.012077987,-0.1116931,-0.108686656,-0.023460919,-0.06678716,-0.048525583,-0.12463475,
                       0.122007035,-0.10779441,0.042608112,-0.08279323,-0.022632612,0.04418141,-0.009103366,0.019819504,-0.06877853,0.0109944595,-0.111311436,-0.031067442,-0.01995934,-0.003061047,0.05810363,-0.11508253,0.068994574,0.06775845,-0.107918955,0.11546031,-0.07486879,0.11158139,-0.10955794,-0.09845516,-0.003877487,-0.009761152,0.09052595,-0.020188434,0.076325946,-0.10101664,0.002258981,-0.08472692,
                       -0.040831476,-0.08645138,-0.100912146,-0.065695845,0.03475271,0.15133226,0.09993213,0.090308376,0.114644766,0.0031065503,-0.07610848,-0.09982958,0.10203007,0.031236654,-0.10353825,-0.023743566,-0.08497603,-0.0350563,-0.06719327,-0.09985356,0.11197065,0.12638436,-0.03792754,0.10769032,0.0062083555,-0.03801999,0.065680444,0.09727453,-0.010030985,0.06850607,-0.0676445,-0.04906861,
                       0.095846266,-0.088596724,0.09526941,-0.092553705,0.12385168,0.13651098,0.13667196,-0.11198947,-0.06049971,0.047478847,-0.08798074,
                       -0.110379234,-0.0974965,-0.097552836,0.021184176,0.041201964,-0.053289175,0.093137145,-0.07288088,0.0030149277,-0.012089947,-0.032318715,0.044012554,0.10304163,-0.10522934,0.1250286,-0.06135647,0.08830301,0.06636845,-0.0857372,0.0442251,-0.018183459,-0.09189833,0.11457166,0.068297975,-0.13640034,0.044253904,-0.1347973,-0.011751294,-0.049928594,0.0965188,0.050836243,0.009216585,-0.017340345,
                       0.052481543,-0.0359857,0.016420938,-0.06312434,-0.056767404,0.11370736,0.1320603,-0.08416174,0.119513854,0.02405234,0.057294097,-0.0777202,0.08704595,-0.08238674,-0.08326088,-0.1251312,0.08993314,0.12605695,0.06107103,-0.14903682,0.092999026,0.06502591,-0.04472344,-0.0063509736,-0.044567976,-0.04471453,0.03071188,-0.068716645,0.060367364,0.10578839,-0.07264405,-0.05358644,
                       -0.089286216,-0.07116115,-0.023155296,-0.1288116,0.045214996,-0.08885351,-0.008402448,0.00076598884,-0.0044428706,0.11029451,-0.13851592,-0.041341677,-0.0117462715,0.03309353,-0.10072173,-0.123512745,-0.13758467,0.049646106,0.027461149,-0.07388794,0.09012528,0.11885864,0.099604815,-0.110337384,-0.012143859,-0.13670343,-0.06794492,-0.12463753,-0.06087608,0.015891857,0.059425868,-0.04420202,
                       -0.1109116,-0.0942365,0.083327785,0.115178436,0.11820761,-0.056582417,-0.03646771,-0.070752814,0.046611626,0.11602086,-0.08550372,-0.12812379,0.0433969,-0.13064478,0.11072852,0.03730669,0.07728892,-0.039740097,-0.06946361,-0.12211674,0.032016367,0.10360538,0.093553,0.00791332,-0.0021562614,0.101518385,-0.108399086,-0.063338116,-0.019416302,0.09127912,0.0084534595,0.084154144,
                       0.113671824,0.047389142,0.07644602,0.046382695,-0.0061002444,0.074689835,-0.073664576,0.018919088,-0.07373162,-0.08834702,-0.08299627,0.04542373,0.046981387,0.016985986,0.08912271,0.04092091,-0.008968702,-0.09693989,0.13246396,0.017515713,-0.112867974,-0.07333232,-0.14199081,0.002833562,0.041218624,0.112505764,0.11743912,0.02998196,-0.13108365,0.07081442,0.056744955,0.0041538253,
                       -0.11790922,-0.030129671,0.013379167,-0.12867515,-0.12090896,-0.096823946,-0.14392953,0.105370045,0.07647978,0.019966692,-0.04132413,0.06092807,-0.13339774,0.04541505,0.109857455,0.07784987,0.06768532,0.08220334,0.07201128,-0.03731542,-0.09453786,-0.016695604,-0.05639843,0.12801383,-0.012886126,-0.13271679,0.09567669,0.08926745,-0.14220244,-0.009518033,-0.12832883,0.0014484029,
                       0.043149736,0.1210035,-0.12077566,0.08441202,0.12142433,-0.0068685794,-0.07328343,0.0018467527,0.031765968,0.05846095,0.006878454,0.026965208,-0.06407642,0.11897075,-0.021907931,0.059617843,-0.09575312,0.07471668,-0.0643411,0.038517293,0.11242486,0.14462286,0.09579113,0.09710206,-0.028706498,-0.14000694,-0.016258784,-0.03820535,-0.089468576,0.0529645,0.0078320205,-0.039638076,
                       -0.04178311,-0.08826016,0.0689662,0.028958427,0.13841668,0.061829116,0.013439309,0.13337104,0.047138758,0.12100497,-0.11021799,-0.0665548,0.10730402,-0.016772613,0.08163621,-0.014032788,-0.006163992,0.07282519,0.09037522,0.112220675,0.016082672,-0.08570896,-0.0019951346,-0.09923273,0.0054361983,0.09143707,-0.13507986,0.042802665,0.1373086,0.034743156,-0.022373436,0.071978614,
                       -0.0331031,0.060761824,0.07049069,-0.07355321,-0.041068137,0.10102334,-0.047255717,0.0008551135,0.081679165,-0.07981701,0.06649482,0.13822582,-0.045811754,0.09432149,0.113314874,-0.07240456,0.015000785,0.12621683,0.09464817,0.113838345,-0.13434719,-0.026870556,0.01575464,0.05269088,-0.07633987,0.04432906,0.041649505,0.01687259,0.05496674,0.06367104,-0.10560717,0.05430357,
                       -0.019070055,0.051359236,-0.07593955,0.053061396,-0.023261746,0.05386691,0.0138964355,-0.13355811,-0.072638385,-0.07208536,-0.0025228695,
                       0.025348369,-0.07249445,0.118480235,-0.038154412,0.061404906,0.02381667,0.04452782,-0.028276898,-0.058939148,-0.05903035,-0.07574952,-0.016329264,-0.06884221,-0.053728137,0.03025368,0.12916668,0.06815863,0.047840945,-0.14772715,-0.12713663,-0.08453731,0.03149645,0.09808221,0.0962122,-0.09468987,0.1337604,0.11307966,-0.12575634,-0.008207785,-0.085434705,-0.11116069,0.032133985,0.016534708,
                       -0.06334537,-0.029490314,-0.13277142,-0.0541637,0.042394504,0.03580978,-0.075795695,-0.0060890303,0.0675983,0.04255366,-0.089670576,0.03950006,-0.11149809,-0.061925944,0.123311326,-0.080854334,-0.03970504,-0.015102639,6.9120295e-05,-0.12511306,0.03509897,0.08362236,0.020416051,0.12836528,-0.012190439,-0.023386499,-0.089313984,-0.13139677,0.08818769,-0.12218347,-0.088067725,0.09309697,
                       0.09874532,0.03115621,0.06385999,0.13229181,-0.0463894,0.03313014,-0.09979245,0.047885757,0.07998648,0.0049918545,0.07220698,0.12937959,-0.13797471,0.13095954,-0.09631476,-0.12058974,0.04090856,-0.014413755,-0.05507095,-0.013768726,0.017252482,0.011700842,0.024922019,0.06538946,-0.092396885,-0.024980182,0.024309948,0.06828959,-0.07838895,0.11832909,-0.116099745,-0.09208701,
                       0.030289123,-0.016566776,-0.048644893,-0.12691393,-0.07330755,0.02150421,-0.0903356,-0.11039629,-0.10258352,-0.053246323,0.019900817,-0.03342808,-0.012498409,-0.115587525,-0.13171077,0.12245259,0.10607364,0.061592914,0.022592412,-0.09760939,0.100164354,-0.020776512,-0.086076654,-0.11744334,-0.12820761,-0.06417303,0.08225366,-0.06268119,0.060219403,-0.030287543,0.027883511,0.11456812,
                       -0.012789776,0.09916441,0.03275642,0.11530887,-0.04908423,-0.003510986,0.12745164,-0.009865501,0.08840429,-0.04480165,0.0030818693,0.048358772,0.091928706,0.0035219279,-0.12519659,-0.13830456,-0.07087653,-0.1228001,-0.1024509,-0.04212345,-0.03557089,-0.0966953,-0.064835586,0.09375434,0.08817893,0.1310759,0.04816611,0.14246772,0.051556535,-0.066305205,-0.1107745,0.13251978,
                       -0.07554597,-0.04013111,0.05334896,0.03006964,-0.06292923,0.044528343,-0.0086430805,-0.10392309,-0.10253515,0.13382839,0.023851896,-0.14116034,0.027750045,0.027916472,-0.012819017,0.09537693,-0.0974257,-0.073368855,0.08955581,0.011563111,-0.067293964,-0.045477144,0.10567085,-0.05515611,-0.12577365,-0.112609155,0.107165575,-0.008596611,-0.045322753,-0.110788435,-0.005429955,-0.10068934,
                       -0.11138548,0.081852876,0.12378045,0.0033134404,0.038495854,-0.09269888,0.11732096,0.10036828,0.008623053,0.05925064,-0.0012181007,-0.10346383,-0.053651355,-0.00015783274,-0.026700066,0.045257345,0.017322345,-0.07016623,0.085799314,-0.10689757,0.034737732,0.033678677,-0.03500152,0.06529771,-0.018682599,-0.013413186,-0.08209435,-0.030368203,-0.117691,-0.088474035,0.03534861,0.009979937,
                       -0.013404985,0.118020855,0.0588769,0.10808256,0.09650766,-0.082139656,-0.109070815,-0.060476284,-0.029183293,0.05249136,-0.042919572,0.030740121,0.11117729,0.06337816,0.1069452,0.06219499,0.103073835,-0.12979162,-0.0038566508,0.026894694,0.10769139,-0.097441725,0.04884102,-0.01322962,-0.0416455,-0.113439865,0.045411065,-0.08401876,-0.067304604,-0.029762067,-0.12971364,0.009125221,
                       -0.04916198,0.12137717,-0.110955566,-0.14507231,0.02488597,0.094359584,0.08652419,-0.084350154,0.06520411,-0.12983651,-0.022950346,-0.04820272,0.021725059,0.050061077,0.07895728,-0.0036597583,0.0037603388,0.12096869,0.03649275,-0.09656765,0.014584492,-0.049155913,-0.00016455304,0.097344786,-0.0686602,0.05939742,-0.047649637,0.08750178,0.09947029,0.010751065,-0.08092104,-0.034491614,
                       0.09220987,-0.11708661,-0.042600926,0.11053492,-0.069481015,0.026766218,-0.089766,-0.0079588825,0.001955931,-0.114865534,0.01830163,}; 



float saved_biases[5] = {-0.0036730717,0.0006705737,0.0031753457,-0.00059908314,0.0010061127};