float saved_weights[1500] = {
                       -0.09987501,0.12888983,0.002092414,-0.05686381,-0.016407039,0.09173399,0.098209724,0.123340435,0.03806841,-0.078455225,0.11785373,0.05813757,-0.058056556,0.07366239,0.0080923345,0.09503566,-0.09444104,-0.007805747,-0.09093202,-0.0715211,-0.12353033,-0.06920542,0.053125866,0.098576196,0.13835825,0.12547813,0.0028618607,-0.13074522,-0.13032414,-0.09363805,-0.12522179,-0.12785618,0.0883475,
                       0.107973106,-0.015130246,-0.035970826,0.11453285,-0.12725504,0.053257816,-0.0267788,-0.110988624,-0.09537864,0.1329571,0.02130691,0.089030236,0.10760357,0.060638756,0.07378681,-0.103839755,-0.023461284,0.03310893,-0.09216276,-0.03861879,0.031269208,-0.053590592,-0.011907027,0.06575743,0.03321679,0.09081075,-0.07497775,0.047239676,-0.058765113,-0.11567667,0.14224376,-0.099385016,
                       0.09640884,-0.116474174,-0.08816087,-0.002667372,0.08518342,0.10569024,0.13123344,-0.11600371,-0.024183702,-0.12615398,0.052310035,0.049277615,0.08847966,-0.123300515,0.11895672,-0.0057668267,0.058313098,0.032879688,0.090908825,0.042403787,0.12390513,-0.11002159,0.027499681,0.050061777,-0.044292986,-0.0020090702,0.07133241,-0.05367616,0.06911405,0.0860406,0.12193554,-0.071815,
                       0.120651476,0.035304714,-0.02705208,0.0052781347,-0.10863476,-0.082802944,-0.07370369,0.096384354,0.11665541,0.08423596,0.06801858,0.0068083173,-0.069104694,0.10506538,-0.10040041,0.13455555,0.04583451,-0.003713936,0.13257359,0.040691886,-0.0898357,0.086396486,0.062026873,-0.120562114,-0.112539366,0.0063596447,0.08286298,-0.013651145,-0.012852249,0.11205609,0.04594756,0.106083654,
                       0.055340465,0.06380747,-0.12527087,0.0667883,-0.11177388,-0.114807636,-0.016164977,0.13128036,-0.08076489,0.05776465,-0.051483978,-0.05253246,-0.078780815,-0.044191774,0.12922023,0.02958967,-0.09361108,0.076080434,0.12563843,-0.09859884,0.04616951,0.049582053,-0.034200445,-0.115113854,-0.092503734,-0.12501651,0.124196865,-0.08787194,-0.005408463,0.124991275,0.086062714,0.1227425,
                       -0.02840521,-0.09796457,-0.07341852,-0.0833202,-0.06929046,0.134953,0.06475097,-0.05408604,0.094055444,-0.103429206,0.03469254,0.061270636,0.022305982,-0.062012203,-0.07475483,0.0070657623,0.122159645,-0.08251041,0.021951448,0.06060879,0.0193754,0.024498997,0.047356624,-0.019023387,-0.03298509,-0.0037849953,0.1234078,0.13682036,-0.039642714,-0.12461998,-0.099836394,0.03720709,
                       -0.13985637,-0.04531461,0.14283738,-0.08079591,-0.048838995,0.12933062,-0.049389996,0.047767982,0.11061666,0.026159555,0.068934344,-0.0662726,-0.029066589,0.120109744,0.087420076,-0.025426967,0.11046201,-0.07542235,-0.03203569,-0.03427513,-0.03215918,0.10486301,-0.044818975,-0.00014120177,-0.13547032,0.07697811,-0.13360664,0.04034135,0.03756291,0.11583744,0.09128781,-0.058576632,
                       -0.112328544,-0.066522665,0.113967314,-0.0767222,-0.12578613,-0.03722058,0.027309947,-0.116460495,0.005466754,-0.12740533,0.007847622,-0.0018134279,0.05423694,-0.11374369,-0.07400178,0.004535355,0.03086326,0.022452049,0.06877081,0.13253053,0.040562544,0.0010432028,0.09316179,-0.013499241,-0.07098941,-0.123547606,0.12469366,-0.094686046,0.11492883,-0.05098602,-0.104769856,-0.11999654,
                       -0.088692926,0.03183539,0.047051955,0.022294773,0.13619207,0.1250487,0.09758118,0.0036275035,-0.11226551,-0.13754068,-0.0043206178,-0.0036299266,-0.06728164,5.3366384e-05,-0.08803161,-0.042723596,0.029988218,0.025188968,0.10049988,0.12713851,0.010641484,-0.0074206335,0.01688074,0.005212821,0.13898158,-0.04823535,-0.029476715,0.025732374,-0.06291954,-0.06136775,-0.1010629,0.006568024,
                       -0.10242091,0.079402335,-0.12152484,0.0921586,0.051414188,-0.087692186,0.11232755,-0.08082494,0.0134630725,-0.12376954,-0.099033944,
                       0.06320667,0.030498449,0.05120867,0.06768496,0.10805803,0.013490472,-0.13224888,-0.076325245,-0.09495907,0.056026835,0.058387384,0.076488286,-0.033434313,-0.062355958,0.07852958,-0.11956589,0.12724566,-0.070461534,0.03379954,-0.017459031,-0.023105308,-0.033043895,-0.05826026,0.024578653,-0.11230535,-0.008951515,0.13326998,-0.082735024,-0.13662891,-0.030360816,-0.026237728,-0.04748157,-0.026965205,
                       0.017541971,0.028194994,-0.09580213,-0.0414448,-0.12801771,0.09383098,0.050703615,-0.11149909,-0.0028918418,0.048811615,0.105141215,-0.11614545,0.14142218,-0.13110779,0.05026967,0.0569032,-0.12290567,-0.006935533,0.011184069,-0.08767289,0.09938923,0.017621798,0.039361373,0.037497424,-0.08751504,-0.10961999,-0.07408689,-0.119978,-0.0045766756,-0.055171933,-0.08938439,-0.05595229,
                       -0.124609515,0.06114016,0.0695643,-0.055600002,0.08518479,-0.05229425,0.09539732,0.11397601,-0.07070448,-0.11860724,-0.09568806,-0.09058042,0.019661957,-0.087351225,0.12707423,0.045632526,0.011647053,-0.05972796,-0.047340948,0.071001396,0.13569646,0.046742126,-0.08305158,-0.08605795,-0.130504,0.11035097,0.020587966,-0.06374341,0.112950526,0.13582022,-0.12319922,0.06347539,
                       -0.020722538,0.014376035,-0.02953052,0.03697418,-0.12348534,-0.018284624,0.06790414,0.04276276,-0.12825523,0.06915999,0.03199939,-0.070397206,0.06648234,-0.04607453,-0.11441664,-0.07704884,-0.1171646,0.057971254,0.08020047,-0.046364013,-0.08620137,-0.118762195,0.0045142877,0.07672041,-0.12914057,0.124756426,0.114048965,-0.028856535,-0.08383788,0.11421453,0.122585915,0.02697298,
                       -0.12859169,-0.08167847,0.09761407,0.090327755,0.08230408,0.050452914,0.006331413,-0.09260876,0.12704732,0.11199706,-0.06816391,-0.10987894,0.039964102,0.03262386,-0.14338557,-0.05789688,-0.049970523,-0.110752486,0.033052057,-0.05785089,-0.060936343,-0.0698388,0.09521468,0.021282513,0.09882656,0.07938126,-0.08084958,-0.07842845,-0.08312952,-0.04009811,0.0634439,0.093350194,
                       -0.10483985,-0.059258956,0.048148315,0.021409476,0.026147623,0.0068360413,0.03788306,-0.084159106,-0.0014601056,0.06572528,0.03730214,-0.09528972,-0.03851467,0.0809221,0.047277085,0.012367117,0.073505014,-0.07466302,0.10173354,-0.06554424,-0.025846137,-0.026320532,-0.115174025,0.052956235,0.0041012987,0.06914842,0.108942114,-0.025830446,-0.004529381,0.08929898,0.102747984,0.039374337,
                       -0.060194917,-0.10391395,0.12260642,-0.00069043535,-0.041937962,0.13793913,0.06843548,0.11557272,0.029996833,-0.11762291,-0.061139405,0.03005417,0.08351166,-0.096447885,-0.06929426,-0.06968642,0.11734924,-0.015502167,0.12864691,-0.13376543,0.07889865,-0.0053028064,-0.07335344,0.06851353,0.019333852,0.07399957,-0.05250997,0.07882405,0.09502091,-0.1031903,-0.06645216,-0.05585453,
                       0.11038292,-0.031462915,0.1367377,0.13446078,0.11246812,-0.010130316,-0.0225622,0.014085048,-0.04504799,0.13049598,-0.034782678,0.088302396,-0.055910476,-0.14050949,-0.034381162,-0.006647236,-0.0928057,-0.019829175,0.005217484,0.10984899,-0.12036764,-0.06366702,0.13978906,-0.11637823,-0.085879244,0.033727784,-0.11899459,-0.10121591,-0.09588545,0.005054006,0.026769651,0.048272975,
                       0.13800028,0.083830945,-0.08105152,0.07578947,0.040169045,0.09442962,-0.03416053,0.01996267,-0.051270824,-0.016915366,0.029807279,0.09914065,-0.012323172,-0.033047706,0.11389364,0.07193824,-0.017932247,-0.10432964,-0.061947033,0.01613125,0.13143156,-0.07687624,0.033585332,0.10677469,0.030657783,0.05460458,-0.024601372,0.047289282,0.10323396,-0.114815354,0.018544113,-0.041329756,
                       -0.020328797,0.012464485,0.1068972,0.017833367,0.12379663,-0.07478994,-0.0088543,-0.024885764,0.026954463,-0.13634588,0.10088953,
                       0.06928814,-0.05156032,0.064733654,0.023279157,-0.10904032,-0.11013668,0.08326574,0.008297265,-0.003440634,-0.009480069,0.05016238,0.07344128,0.115477346,0.026601946,-0.066104546,0.11508552,-0.037919406,-0.052049,0.07139975,-0.07239255,-0.0034005046,-0.071614824,-0.028382843,0.061472528,-0.13735259,-0.12339347,0.01983447,0.028032353,-0.07613037,-0.11392798,-0.03840816,0.091752045,0.1186267,
                       -0.039912432,0.10761352,-0.07780107,-0.087673575,0.037214145,