float saved_weights[1500] = {
                       -0.12426404,0.07218359,-0.11508894,0.0590923,0.13789923,0.08078628,-0.04072084,0.013976254,-0.0059700673,-0.09212726,0.16900894,0.07202034,0.01055549,-0.14244555,0.10344305,0.10561506,0.08545846,0.014726916,-0.007992665,0.071703106,-0.05215995,-0.055407606,0.006506011,-0.110147476,0.048900567,-0.09851804,0.006365749,-0.02484019,-0.06644242,-0.05706306,-0.024181563,0.059003636,0.027356315,
                       0.13123749,-0.0008540609,0.060371175,-0.13773437,0.011160694,-0.077651136,-0.0076758275,0.048580877,-0.035616517,0.06252446,-0.018698348,-0.046111833,0.1357062,0.036303908,0.039351083,0.10358605,0.06753756,0.07776045,-0.03196034,-0.085435174,-0.044886556,0.085307434,0.041048773,0.04584262,0.11946159,-0.061774164,0.056260996,0.081412315,-0.03951755,0.05013911,-0.11016618,-0.021273294,
                       0.07287264,-0.11806701,-0.057480194,0.029318215,0.101825595,-0.09288874,-0.08556653,0.02724239,0.1129717,0.084688865,-0.050324965,-0.09600601,0.13780414,-0.0826163,0.05813679,-0.067689076,0.050872777,-0.13471024,-0.09293991,0.0686785,-0.10070203,0.14683233,0.051211692,0.058756024,-0.12503628,-0.0154305305,0.022936508,0.05153731,0.023377186,-0.040552255,-0.073924795,-0.041204106,
                       -0.103561915,-0.07296847,-0.121596344,-0.098648004,-0.015463965,0.036379606,0.01249117,-0.048394445,-0.017364286,-0.09510328,0.024794495,-0.12708771,-0.072835214,-0.06571159,-0.037231322,-0.092421316,0.07320537,-0.11832318,-0.080590926,0.03028534,0.03469539,0.10100234,-0.05383459,0.11976835,-0.1421015,-0.017381473,0.13053064,-0.0017717668,0.016546275,-0.021305442,-0.12476036,-0.09710878,
                       -0.06099815,0.051004376,0.024916684,0.07534557,0.08285772,0.07684801,-0.02364023,0.12383342,0.007587863,-0.0745168,0.01782806,-0.09487822,0.08011318,-0.09535178,0.1403568,-0.13128594,-0.05401073,-0.033135336,0.08265509,-0.048578788,0.12752244,-0.035947405,0.036334313,0.10895545,0.020101001,-0.05206334,-0.10780753,0.04916445,-0.038170982,-0.023834104,-0.107491024,0.12694407,
                       0.043489937,0.009888234,0.10981435,0.040710576,-0.09404661,0.05787413,-0.0025334929,0.120603904,-0.0020878974,0.08266925,-0.112726904,0.111141145,-0.0694916,-0.113566004,0.0967514,-0.069619894,-0.032646626,0.033873346,-0.11908396,-0.004040408,-0.05954359,0.011635359,-0.12863551,-0.056394693,-0.044466067,0.08265977,-0.094399795,0.085865684,0.06790881,-0.04505738,0.10126138,0.11320223,
                       -0.040057283,-0.0004269152,0.022225056,0.0243856,-0.06587473,0.10899479,-0.029125312,0.037351377,0.12375364,-0.025033725,-0.07907891,0.013484008,0.07179505,-0.12865026,0.069522604,0.02406445,0.024671892,-0.12865074,-0.0076832664,0.02840454,-0.09235807,-0.09726502,0.019642692,-0.09822705,0.10077496,0.032639034,-0.009748687,-0.051904324,0.09767281,-0.08353579,-0.093863286,-0.054143347,
                       -0.080570646,0.100198425,0.04637465,0.09673098,-0.06451597,0.077626795,0.09106937,-0.08781952,0.06736666,-0.027402114,0.016130516,0.12501279,-0.058195166,0.121336795,-0.14392397,-0.07475849,-0.13817535,0.021662263,0.09309003,0.0635218,0.10658999,0.12898262,0.043969743,0.119312905,-0.055838767,0.10419101,-0.096966155,0.08043309,-0.0649646,-0.08349848,0.05221714,-0.08725721,
                       -0.12792346,0.08389084,0.029635565,0.10221819,0.108495586,-0.04264181,-0.061634168,-0.02695718,0.010299998,-0.12786788,-0.006369454,0.10541687,-0.112369545,-0.09170852,0.025740027,0.0638449,-0.066840224,-0.078427024,0.06708148,0.0109196305,-0.052331932,0.110576734,0.091906145,0.09962666,-0.026588373,-0.031857096,0.099668175,-0.12334527,0.024829961,-0.111781515,-0.05971852,-0.10920191,
                       -0.009157724,-0.09801482,0.086437434,-0.120076515,0.016792398,-0.019469662,0.10608106,0.07049731,-0.023654599,-0.025798932,0.099615656,
                       -0.0888145,-0.073317334,0.060279224,-0.061430022,0.015857328,0.1036162,0.039753757,-0.03129688,-0.088193394,0.08482543,0.053360134,-0.15478404,-0.11387214,-0.035852008,-0.017826319,-0.09160788,0.014251372,-0.010857656,0.058937583,-0.042368796,0.08838521,0.022743156,0.18365443,-0.06396239,-0.111101374,0.08276726,0.024513362,0.018541958,-0.12889121,0.07085711,0.06487,0.0058669816,0.10341533,
                       0.09207474,0.025428103,-0.08253645,0.03833678,-0.009230462,0.007659739,0.086304925,0.051756304,-0.106573366,0.13873348,0.07193168,-0.14531574,0.04355774,-0.046424847,-0.072069176,0.089995295,0.04361402,-0.10939883,-0.088200904,-0.10060999,0.091725156,-0.0077114934,0.023542386,0.00066043856,0.052148122,-0.12695318,0.115858175,-0.015669784,0.018964127,0.041682553,-0.0041074427,-0.036175042,
                       0.07128697,-0.123381086,0.075350784,0.128013,-0.11244853,0.08884065,-0.0009737563,-0.087252736,-0.110211685,0.068975866,-0.046568267,-0.0661262,0.09062324,0.14848933,0.11151578,0.09223213,-0.061417576,-0.085838355,-0.09539412,0.052033894,-0.00857372,-0.09215747,0.06541955,0.092900135,0.03621397,0.090048775,0.006591017,-0.019166341,-0.0005169855,0.042523444,0.10951194,-0.13705347,
                       -0.1332273,0.08994308,-0.088487595,0.039310507,-0.08694053,-0.06438222,-0.14707366,-0.07710344,0.025132515,0.10948307,-0.060426123,0.07908445,-0.04038015,-0.119189925,0.13329978,-0.06452658,-0.007934888,-0.08836005,-0.048643306,-0.019416692,-0.103349075,-0.12825918,-0.0013418657,0.014813427,-0.010763463,0.052412853,0.09859226,0.13307191,0.017865697,0.028432347,0.09893832,-0.011587875,
                       -0.011599086,-1.5847516e-05,0.11168336,0.10925008,0.04019836,0.08292964,-0.106185146,-0.116755344,-0.09858329,-0.027669612,-0.07555442,-0.051779784,0.094302304,0.11516432,0.07638591,-0.10849881,-0.116833605,0.029697994,-0.012959883,-0.052614152,0.010323721,-0.07676336,-0.08159228,-0.026089597,-0.13334472,-0.063040644,-0.044840135,0.086170815,-0.09234808,0.11419455,0.105080545,-0.07617605,
                       -0.0058190967,0.03965231,-0.046184793,-0.10381282,0.05646407,-0.087874316,0.09096186,0.02119582,-0.04532895,0.10939747,0.043476187,0.09546391,0.07326282,0.045982786,-0.037915643,-0.015472762,-0.019179,0.12532584,-0.036569867,-0.13636167,-0.08310913,-0.12842162,-0.11657989,0.00038486786,0.05289225,-0.042413168,0.069056876,0.005744113,0.033414934,0.047517255,-0.10666198,0.08332297,
                       -0.089261234,-0.03449535,0.10524158,-0.049199365,-0.007462044,0.0035572967,-0.11688928,-0.03433999,-0.05783034,-0.12210318,0.03543331,-0.09853247,0.088883825,0.03744847,-0.07444026,-0.07794629,-0.039523035,-0.07259408,-0.09434123,0.038163308,-0.09414115,0.12895855,0.0858212,-0.07572835,-0.08246741,0.106718935,-0.04978061,0.10608699,0.09879855,0.0033237701,-0.08911186,0.11569952,
                       0.043058716,0.059619695,0.116039634,0.14539628,-0.12624611,-0.028271008,-0.13121437,0.01813069,-0.10860878,-0.07387739,0.0799135,-0.058114804,-0.032675907,-0.07076148,0.063699976,-0.13937585,-0.014835494,0.049437676,-0.06321393,0.07889684,-0.013081115,0.13744332,-0.06433872,0.084245056,0.13477899,0.05439359,0.124205776,-0.062373273,-0.0024690242,-0.068140194,-0.118692406,-0.054208662,
                       0.021029666,-0.06568787,-0.08805137,0.042518605,-0.026526254,-0.068844624,0.019955775,0.07646972,-0.09987942,-0.0738185,0.023142034,0.0033087644,0.053356953,0.105425306,0.022469074,-0.009466335,-0.10795799,0.12030861,0.066483386,0.01170975,0.053696856,-0.04171268,0.1112897,0.11442941,0.10978602,0.114587456,0.019240484,-0.053892337,0.12172965,0.044755224,0.09880744,-0.13179779,
                       0.051077306,0.03534601,0.044095863,-0.08049213,0.04622527,0.01680243,0.0033642643,-0.13112633,-0.08280969,-0.0707697,-0.079279624,
                       0.033945374,0.03555751,-0.11613335,0.083328374,0.09586418,0.015483476,-0.13930415,-0.067215234,-0.08088222,-0.122706294,-0.084360376,0.007156007,0.000978642,-0.012522457,-0.029707067,-0.042749804,-0.08499846,0.08131098,0.025296053,-0.12882353,0.1009562,0.042911254,-0.00028325772,0.07926627,-0.06885699,0.052476905,0.020604508,0.06272926,0.06733277,0.085072994,0.017685931,0.0013403553,-0.07519906,
                       -0.08228707,0.024897138,0.07866161,-0.046876065,-0.011473759,0.04622111,-0.052801885,0.14486058,0.0016840403,-0.0069354237,0.026913296,0.058445144,0.0243349,0.030500082,-0.014316169,0.08820283,0.09462401,0.06644753,0.08201629,0.07225467,0.09200888,0.011624404,-0.057246007,-0.07188151,0.06672623,-0.03145515,-0.09260433,0.071846135,-0.10209867,-0.04660508,0.03264826,-0.06770788,
                       0.015968993,-0.073938146,0.046804518,0.0164431,-0.1223293,0.05345177,-0.10805713,-0.030921273,0.005726826,-0.045698334,0.05673326,-0.06734787,0.056385312,-0.1412057,0.05943691,0.06421094,0.083395876,-0.014600683,0.118631065,-0.041284587,0.015875675,0.1049849,0.08247159,0.040922478,0.104484774,0.07883532,-0.043629725,0.08323184,-0.08946185,0.07330398,-0.056006834,-0.11110452,
                       -0.09382758,-0.023384344,0.07806501,0.13363434,0.09353073,-0.013064482,-0.11474644,-0.0019495096,-0.113008566,0.061012313,0.121537454,-0.051445648,-0.025384381,-0.020584062,0.018809963,0.015637955,-0.12760945,0.09423834,0.10413094,-0.01509246,0.021545885,0.118474476,-0.002424638,-0.034339737,0.1034528,-0.0662181,-0.01441933,-0.08180306,-0.09285143,0.042944554,0.13949005,-0.09154828,
                       -0.03606131,-0.075371586,0.060279775,-0.12938192,0.018775484,-0.0618193,0.043492556,-0.015868194,0.09329586,0.07802963,-0.13394277,0.056919836,-0.11284069,-0.08373452,0.07370831,-0.038707778,-0.0020554417,0.06751173,-0.07237467,0.022740157,-0.01913812,0.090719566,0.024724947,0.042947024,0.033186313,-0.010149499,0.115692586,-0.04502223,-0.030398749,0.0851296,-0.058944266,-0.04364409,
                       -0.009415833,-0.018010126,0.08123583,0.139355,-0.13016109,-0.03198011,-0.041741423,0.035009883,0.09470674,0.12877505,-0.037373222,-0.06745946,-0.12975243,0.045173176,-0.100385286,0.03622847,0.03172802,0.09508846,0.044555187,0.12786523,0.071569815,-0.096072264,-0.07735417,0.053575695,0.06980762,0.09851816,0.037908632,-0.11135618,0.03267222,0.023636704,-0.058138628,-0.007138725,
                       -0.08648976,-0.001966666,-0.08026202,-0.13480836,0.020075548,0.05314011,0.00054277654,0.025461202,-0.057377633,0.006475666,-0.061293803,-0.10712382,0.0362516,-0.10050822,0.00872971,-0.07940631,-0.04400725,-0.033779636,-0.012699575,0.061711077,-0.00800504,-0.057188522,-0.11675415,-0.10083713,0.05883684,-0.061834347,0.025654865,0.09194614,0.053639445,-0.11661785,-0.08464508,0.109718926,
                       0.030651344,0.062160656,-0.016649526,0.11857376,-0.051031183,-0.040803596,-0.049894705,-0.021118466,-0.091791935,-0.058202554,-0.1030916,0.09445928,-0.1096405,-0.08631911,0.08154375,0.020278059,-0.0051408457,-0.102245234,0.08876624,-0.059009682,0.116380185,0.0017518301,-0.023676276,-0.13762613,-0.007642378,-0.043903515,-0.017400548,0.11287108,0.10348167,0.11118102,-0.052884534,0.10801783,
                       0.050022777,-0.03900708,0.049441118,0.038237564,-0.044148605,0.045641966,0.0075140176,-0.05437778,-0.11151672,0.10838704,-0.001814133,-0.043912474,-0.04620195,-0.10204299,0.10576624,-0.14992349,0.01404897,-0.066028245,-0.034956217,0.0270523,-0.068763144,-0.07324209,0.022632157,0.009864217,-0.09848825,0.1188646,0.043716524,-0.0032625785,0.079488404,-0.097137235,-0.045281682,0.0032784236,
                       0.083620995,-0.03661629,0.02275302,0.12100107,-0.099112526,-0.093132615,-0.0043422896,-0.11902763,0.073722556,-0.08479324,0.09132468,
                       0.12560508,0.00011800988,0.0968047,-0.11623273,-0.015058309,0.037263736,0.08890335,-0.14266267,0.10486122,-0.13098887,-0.14226039,-0.05180725,-0.13597596,0.008495316,0.020680113,0.11471537,-0.045725722,0.010325883,0.037479024,-0.034436803,-0.00091679563,0.10617234,-0.0046647238,-0.08828873,0.090414375,0.08095096,0.085317954,-0.09741841,0.09565345,0.06855008,0.1347132,-0.1031196,-0.024376405,
                       0.0005716692,-0.014244407,0.103173375,-0.051666413,-0.12606934,0.08258069,-0.08108728,0.083367035,-0.09639088,-0.053587683,0.11321911,-0.11515327,0.096350804,-0.03613385,-0.06392134,-0.09687837,0.020110391,-0.040438104,0.072555065,-0.061830446,0.08087478,0.015727483,0.112900764,-0.16239335,-0.10947043,0.08394885,-0.05305717,-0.07988719,0.11275828,-0.042239543,-0.015686557,-0.08404494,
                       0.07986104,-0.022079572,-0.083540246,-0.033783186,-0.066852905,-0.01533952,0.006489064,-0.075141914,0.07114794,-0.053064846,-0.046178598,-0.11552031,-0.08849095,0.036916032,-0.051241614,-0.13447791,-0.1159451,0.09033626,0.11704039,0.00036370405,0.08603199,0.054569878,-0.10220875,-0.037697125,-0.013042059,0.12492058,0.014743729,0.1204802,-0.009360235,0.0751471,0.007885142,-0.11364427,
                       -0.10843629,-0.024948359,0.12639236,0.13329251,0.12348755,-0.061647475,0.057229362,0.07377266,-0.117460154,0.004148551,-0.10427423,0.02824993,0.1209211,-0.0046406104,-0.035658587,-0.11193604,-0.04607739,0.06861576,0.029581068,-0.06554582,0.0101219965,0.056866445,0.1325544,-0.11205766,0.111873426,0.091197945,0.106808245,0.11321734,0.10481349,0.030463185,0.05856287,-0.036083493,
                       -0.07619119,0.14277065,0.13148835,0.025355102,0.07734127,-0.07596496,-0.12836742,-0.015530109,0.0010596409,0.050013237,0.026792288,0.023160966,0.026382828,-0.009429818,0.10875241,-0.118729085,-0.070848644,0.030381344,-0.10850426,-0.031863555,0.10981544,-0.024760194,-0.06138504,-0.022953998,-0.107650526,0.12638293,-0.05384514,0.008981934,-0.040261388,-0.116651595,-0.06967155,-0.07074833,
                       0.028571473,-0.09540502,-0.018627487,0.08831377,-0.086117476,-0.038108055,-0.017266821,0.06757184,-0.09552585,0.029564606,0.10285305,-0.11007177,0.006017154,-0.11764323,-0.06451888,-0.040383104,-0.045235556,0.09066458,-0.09797309,0.05161657,-0.0034077596,-0.08396752,0.028617177,-0.034086004,0.11357732,-0.006761217,0.07322859,0.11208468,-0.051666316,-0.13004425,0.10768583,-0.062810004,
                       -0.11331073,0.0857944,-0.10414074,0.060044527,0.019467337,0.10714795,-0.110847995,0.04109769,0.04071857,0.12126056,0.10831019,0.11042662,0.13387801,-0.003297329,-0.13481721,0.0075886524,-0.065105624,0.07286051,-0.107680306,0.08003607,-0.077506,0.005667609,0.043868203,0.060269214,-0.11309552,0.109634206,0.056213427,0.05709133,-0.007509385,0.12611707,-0.019157358,-0.05858772,
                       0.088439636,-0.040320236,-0.04346068,0.108033486,-0.02987949,0.016945323,-0.057270672,0.088680275,-0.034355108,-0.021613183,0.027551863,0.13006301,0.101203546,0.036413938,-0.025169602,-0.08685336,-0.06621013,-0.11736063,-0.08486026,-0.056750607,-0.077661715,0.06290735,0.061358992,0.1297388,-0.0050345915,-0.03106476,0.054694097,-0.009564199,-0.16075857,-0.137309,0.09929051,0.056069665,
                       -0.094784655,0.00019837318,0.07313943,0.08020162,-0.0068058283,0.086302,0.11358019,0.043652967,0.00087674346,0.12306929,-0.026407674,0.12618884,-0.097752504,-0.034472905,-0.14769241,-0.05626077,-0.078862906,0.05976411,0.048878565,0.08865917,-0.051617116,-0.09497906,0.10911474,0.027777601,0.04411382,-0.046779316,-0.060377862,0.1398172,0.07036488,0.0614081,-0.027446322,-0.026899174,
                       0.096283615,-0.043478146,0.012582431,-0.064011864,0.10214561,0.087956384,0.012398229,0.09535534,-0.062519625,-0.07179555,-0.06723719,
                       -0.03009989,0.11559513,0.10528963,-0.037422493,-0.08861372,-0.1059302,0.10144148,0.018168453,-0.13276154,-0.059824362,0.053926002,0.004481906,0.0010933925,0.020910319,-0.059890237,0.121240586,-0.11991836,0.045538545,0.0030890284,-0.04387032,0.115583375,-0.124560274,-0.060394358,-0.009125911,-0.093295835,0.11932558,0.011945471,0.023832643,-0.022898087,-0.11661183,-0.0398067,0.08127597,0.07230532,
                       -0.11884826,-0.14797099,0.050044212,0.04284719,-0.031000458,-0.015876256,0.104745,0.09854952,0.044619173,-0.06605405,-0.07067764,-0.08755453,-0.034231476,-0.0032859643,0.063710645,0.05178703,0.00673465,-0.05828124,0.1150523,0.10232807,-0.07208262,0.071795754,0.061314326,0.010243974,-0.04275032,0.13701421,0.041827634,-0.057687026,-0.009200423,-0.050285883,0.04410433,0.0007342833,
                       0.018299378,-0.097463876,0.06635814,0.10853275,0.037775405,-0.08163465,0.012372485,-0.09043166,0.056579106,0.007596333,-0.07879708,0.09941344,-0.04424214,-0.026094424,-0.07398451,-0.11223852,-0.082575716,-0.027411683,0.09016119,0.06772496,0.09713611,-0.0655149,0.0656765,0.0771972,-0.0758885,-0.036488943,0.12055513,-0.098633505,0.03650657,-0.05674668,0.091260396,-0.05390071,
                       0.005663052,-0.110904336,-0.09994314,0.10762843,0.10838443,-0.04016693,0.03594712,-0.06081025,-0.11916104,-0.09995309,-0.025274202,0.046635903,-0.1251727,-0.100825526,-0.10899666,0.045240197,-0.08948634,-0.1201412,0.01737825,0.116654545,0.14139406,-0.06361813,-0.004104644,-0.10922578,-0.00424087,0.104048565,-0.012402867,0.12946467,0.10162779,0.07388947,-0.08297971,-0.06494775,
                       0.10605496,-0.036258556,0.13726588,-0.032839477,0.005507703,-0.084459946,-0.06445622,0.111552395,-0.030349152,0.06443306,-0.04347116,0.07456496,0.05747986,-0.10828739,-0.017401395,0.0148149235,-0.10435068,-0.10383491,-0.06496864,0.0825961,0.036087647,-0.0718838,-0.06900411,-0.075624205,-0.068177775,0.08865136,0.09272211,0.01418207,-0.05173769,0.037349097,-0.0024571843,-0.08927901,
                       -0.015949534,0.0019824489,-0.035886876,0.11180201,-0.08673334,-0.01699244,0.0007943752,0.050312076,0.013961938,0.055551298,-0.094221115,-0.04694455,0.084560536,0.06268863,-0.09897073,0.0009939427,0.008604446,0.06529028,0.016680973,-0.11242835,-0.08781084,-0.12142664,-0.115642086,-0.10972487,-0.06355401,0.06737839,-0.01275402,0.06753996,0.0351443,-0.14817029,-0.11020161,-0.047629297,
                       0.055598278,-0.0041921954,0.037315965,-0.0064615393,0.1057917,0.1311923,-0.0045123887,0.0021197223,0.030893998,-0.08374834,-0.124442585,-0.060356434,0.076173134,0.05858224,-0.08468096,0.058624398,0.028441463,0.10590693,-0.04789844,-0.104928814,0.0612721,0.109898746,-0.1086007,-0.10924221,-0.11660484,0.09790932,-0.07812685,0.051491395,-0.022217067,-0.022399474,0.025672676,0.11655346,
                       -0.03409264,0.087888494,0.11939118,0.02277213,-0.06077402,-0.09047686,0.07708037,-0.044654742,0.10601054,0.02388388,-0.09759375,0.073073566,0.005945642,-0.064579196,0.042689774,-0.108083755,0.0033505184,0.11643026,-0.075771295,-0.06663959,0.046459332,-0.03163015,-0.061873253,0.022353431,-0.08261662,0.085681185,-0.09761904,-0.05786106,-0.11965311,-0.10322856,0.12935673,0.0066966885,
                       -0.13005707,-0.06878877,0.040233415,0.07218972,0.06330321,-0.10247993,0.12268128,-0.07912974,0.14764069,0.051477965,-0.015805239,-0.08272383,0.09172234,-0.14128534,0.10661968,-0.021864787,0.058755737,-0.06070487,-0.009924848,-0.03236137,0.10616578,-0.071900256,-0.016183103,-0.010338185,-0.13060537,0.113337725,-0.008303624,-0.048476867,0.10057173,-0.029824572,-0.08176298,-0.041210465,
                       -0.019092958,0.008312803,-0.1158068,0.019543288,0.070376344,0.012750531,0.040943112,0.043131858,0.015641695,-0.1219294,-0.030462865}; 



float saved_biases[5] = {-0.018299477,0.0008967754,0.009014958,-0.0011817504,0.0052742003};