float saved_weights[1500] = {
                       0.10179472,0.064573035,0.11281272,0.07863002,0.1155901,-0.07366276,0.11197096,0.0062879534,0.0102151185,-0.0097954,-0.0060123187,-0.031522762,-0.1254888,0.0531912,0.09662543,-0.09980313,0.047939792,-0.035538334,-0.12894407,0.12554751,0.09720692,-0.02214621,-0.09436559,-0.00560229,-0.103167795,-0.103251725,0.058638327,-0.13042186,0.031701215,0.0013072164,-0.023853887,-0.122680075,0.017709788,
                       0.009726482,-0.096210316,0.017625244,0.0728643,0.059308767,-0.09981108,-0.09341424,-0.13786575,-0.04994026,0.0031313677,0.047276948,0.020313697,-0.043265875,-0.048509937,0.1100945,0.025780568,-0.05480373,-0.07731869,-0.073024556,0.002619227,0.12612131,-0.07208328,-0.011631417,-0.11645722,0.14419258,-0.10669342,-0.038842455,0.052323263,-0.059282854,0.038909942,0.048916012,-0.15043494,
                       -0.03613796,-0.012737386,-0.012904846,-0.081056565,0.018375542,0.06074499,-0.029823815,-0.003477696,-0.13061562,0.11310916,0.039985534,0.116389975,0.092956215,-0.10453131,0.13894303,0.051037073,0.11230624,0.13267687,0.056714118,0.1056644,0.120761745,0.11129896,-0.068220645,-0.0638743,0.04434,0.110005945,-0.06582686,-0.01830377,-0.055979237,-0.012891426,0.10745896,0.04160218,
                       -0.09098368,-0.12419636,0.08277487,0.047061652,0.018522665,-0.12988149,0.12401556,-0.04262507,0.047271863,0.06875881,0.014989897,0.09754682,0.06407974,0.005468734,0.012912386,-0.095593065,-0.052427426,-0.09362297,-0.07101615,0.087011896,-0.11760652,-0.04899069,-0.1009364,0.1347675,0.0920349,-0.092089556,-0.0015929006,-0.017249545,0.09256343,-0.12644935,-0.08007085,-0.016151758,
                       -0.013198169,-0.13979834,-0.029711902,-0.02359328,0.014764552,0.03223781,0.013389905,0.120986246,0.09496841,-0.10946001,-0.13081977,0.13616832,-0.10621277,0.124981165,-0.10467593,-0.041612323,-0.09882308,-0.06524958,0.08474599,-0.0652452,0.053715546,-0.074774206,0.04606122,-0.026821077,-0.008566669,0.08318587,0.084861495,0.077049516,-0.122330494,-0.076035954,-0.035337172,-0.0976596,
                       0.039442103,0.10318529,0.06302172,-0.057361744,-0.101165384,-0.04519423,0.12118853,0.13427313,-0.0092733465,0.0037047048,0.12652941,0.06750702,-0.08672747,-0.07843372,0.067609556,0.083310835,-0.086137414,-0.108683795,-0.084523514,0.06432618,-0.116718605,-0.039790753,-0.0424068,0.0078762,-0.13574658,-0.10486457,-0.12081387,-0.12032913,-0.034104284,0.071178384,0.017083567,0.10694242,
                       0.015302599,-0.13082421,0.045494735,-0.09839291,-0.09919538,-0.043051712,0.0840966,0.03259138,0.003949872,-0.1057897,-0.120231554,-0.081559405,0.061778862,-0.03125462,-0.049581043,0.14119855,0.07620127,0.06982288,0.12807746,0.015035064,0.11037393,-0.11432821,0.049890555,0.111695625,0.13576841,0.14799832,0.12282255,0.02866631,-0.061445832,0.13801101,0.12490315,-0.038909927,
                       0.093398176,0.09811405,0.024955595,-0.06143541,-0.07874368,0.07415224,0.01585129,0.103007525,0.08158555,-0.05068946,-0.104586795,0.12063235,0.11471304,0.038577564,-0.10125845,0.120519154,0.06101068,-0.1252723,0.02598068,-0.0708667,0.10629337,0.0045931274,-0.09335257,0.0848957,-0.029948171,-0.02301271,-0.14113393,0.06555048,0.08512295,-0.05986727,-0.09419396,0.09356288,
                       0.14604634,0.011469128,0.10134764,0.022493163,-0.053445138,0.05421032,0.06938069,0.08402107,0.0034617882,-0.084748104,0.12878583,-0.0667434,-0.024664965,0.053160213,-0.14184414,0.03405781,-0.052393243,0.028216653,0.059026536,-0.13225001,0.08437022,-0.0467147,0.027091626,0.145772,-0.029367248,-0.09708225,-0.026873585,0.07134077,-0.07131966,-0.024511622,-0.005288236,0.060879346,
                       -0.061981797,-0.08511717,0.11974498,0.011296728,-0.06623494,-0.037757806,-0.06813796,0.13264397,-0.0018274233,0.12919664,0.022224361,
                       0.041845102,0.10853818,0.11125809,-0.041390784,0.097234495,0.1196448,-0.06897822,0.09191582,0.04242922,0.13936758,0.036170438,0.08894009,-0.027860768,0.1312531,-0.060999755,-0.11390707,0.08444668,0.093154326,0.015025439,-0.08299227,0.13113664,0.008468256,0.0345733,-0.07870163,-0.07045739,-0.0788719,-0.07088874,0.0715942,-0.057295546,-0.07911726,0.06543719,-0.13731433,0.13022618,
                       -0.10299678,0.09796551,-0.031823043,-0.03581835,0.13746364,0.0671103,-0.0747519,0.08433873,-0.02852805,-0.08264863,-0.006971592,0.044706482,0.08407073,-0.12725052,0.08529934,-0.09737176,-0.022045659,-0.056962818,-0.08922619,0.055888534,0.14066364,0.1365258,-0.06324782,-0.05742764,-0.019527096,0.042878766,-0.06488892,0.09442965,-0.024239613,-0.064391196,-0.008118048,0.11161599,
                       -0.05444796,0.12981746,0.045571767,-0.034003902,0.057965063,-0.13710807,0.07274519,0.13043444,0.11265414,-0.026616989,-0.0829664,-0.039101183,0.08232329,-0.10806027,-0.06722877,-0.018759685,-0.021885755,0.019767273,-0.035255246,0.0043863696,0.009871425,-0.006505021,-0.029779166,-0.13126087,0.0064778943,0.013662598,0.045661457,0.04725515,-0.03331259,-0.118618205,-0.028971057,-0.005415405,
                       -0.08484609,-0.07941258,-0.08791385,0.11434548,0.015842393,-0.13790964,0.08972398,0.09199863,-0.054908957,0.039030936,0.040350154,0.08021307,0.034099706,-0.027538087,0.10389302,-0.04789237,0.11159005,0.07218872,0.02747555,-0.07652547,0.0908674,0.09468522,-0.12011123,0.09321997,0.04593736,0.11940736,-0.06588734,-0.0004940891,0.06733681,0.052129537,-0.063946985,-0.11486245,
                       0.02356901,0.034339845,-0.08318374,-0.052619163,0.115709536,-0.10195926,-0.121032245,-0.11451467,0.11249561,-0.08596332,0.00079986954,-0.06327696,0.07752227,-0.12903471,-0.10424635,0.07648448,0.11661073,-0.12031728,-0.004018205,-0.080801405,0.045807146,-0.104698464,-0.096951865,-0.018963305,0.046653856,-0.08953821,-0.03101624,0.0022250947,0.10724449,0.13055143,0.0141358245,0.092829,
                       -0.12565915,-0.03027617,0.019609977,0.027099809,-0.035778277,-0.07028636,0.10106712,-0.040321805,0.08745762,0.065614246,0.101389445,-0.0017740768,0.05553048,0.109029025,-0.0765107,0.07243857,-0.020079436,0.009563013,-0.010008948,-0.014584557,-0.037052657,0.06697574,0.08125904,-0.00012770324,0.044387966,-0.10513966,0.12796456,0.03440567,0.058938913,-0.07376991,0.056263644,0.009409347,
                       0.051215183,0.0002179842,0.09765597,-0.09839709,-0.105483316,-0.063054204,0.09001827,-0.0006058918,-0.051195726,0.051914454,0.12308329,-0.10703412,-0.11402803,0.07792433,0.012242455,0.061585214,0.06583877,-0.12218547,0.07831374,-0.017966934,-0.020886887,-0.091878265,-0.12678315,-0.054020897,0.005632061,-0.11632827,-0.10398514,0.05009994,0.058001045,0.023401365,-0.06862036,0.094099835,
                       -0.024468776,0.016291443,-0.07385598,0.019430948,0.05404335,-0.07557767,0.07387999,0.12209698,0.019976685,0.019403853,0.093622625,0.13206208,0.08210935,-0.08937858,-0.08190443,0.06538922,-0.06256776,0.10163917,-0.073270515,0.06964264,-0.019143488,-0.032473773,0.06196284,-0.09142724,0.038322642,-0.04828556,-0.0053116665,0.03166531,0.111464046,0.0683007,0.018694248,-0.024513582,
                       0.0144593585,-0.01696282,0.12868504,0.09284481,0.08666527,0.097749986,0.115931794,-0.09070274,0.02451187,0.045051467,-0.08477353,-0.094737664,0.14481926,0.0007857858,-0.047736388,-0.0005425821,-0.029503904,-0.09312246,0.059096277,-0.054424565,0.020375462,-0.029300867,0.063912734,0.0067146234,-0.100136645,-0.02263979,0.0961285,-0.10066112,-0.013029544,-0.073822215,0.06703251,0.123327225,
                       0.14416201,-0.013131853,-0.1177532,0.0870062,0.044587336,0.092916384,-0.050523825,0.09038489,-0.03048426,0.124416985,0.03949729,
                       0.10152151,0.02171269,0.10408074,-0.11779726,0.058460724,-0.06647147,-0.099544734,0.11187804,0.013843829,-0.05964999,0.107453875,-0.06921805,-0.105440184,-0.079419896,-0.043817416,-0.08848386,-0.048628356,-0.0833066,-0.09436635,-0.04596322,-0.062690414,-0.037194233,-0.06240839,-0.058711614,0.030554345,0.08237824,-0.12170615,0.13915396,0.02167119,-0.13473287,0.13339941,0.0006332841,-0.1070155,
                       -0.02056031,0.06024928,-0.10572822,-0.009237669,-0.064710714,-0.044345602,-0.05660028,-0.12509584,0.13344833,-0.098750845,-0.108938344,0.06483179,0.0754287,-0.088205986,0.059463114,0.018690465,-0.028629933,-0.014721267,-0.06320016,0.09286303,-0.08541825,0.09102602,-0.13297954,0.09630091,-0.0012426178,-0.046626423,-0.05588963,-0.07361592,0.07761892,0.08031245,0.05621479,0.09670262,
                       0.112559155,-0.046634696,0.042525053,0.054313973,-0.02616712,0.042497795,-0.08959142,0.08154551,0.11592571,0.0827738,-0.03399446,-0.0018097315,-0.013866694,-0.125632,0.13276337,-0.07856139,-0.06376028,-0.12991577,-0.04755684,0.037767645,0.016236527,-0.09406806,-0.028286591,-0.009510797,-0.11226273,0.07872904,0.03149322,-0.018690072,0.10735515,0.03205651,-0.11917207,-0.07686021,
                       -0.06173329,0.035056785,-0.091509685,0.047145177,0.06656992,0.09204597,0.037011806,0.012777733,-0.02233056,-0.02529973,0.11396134,-0.025272878,-0.14781646,0.0012099626,0.03667206,0.10861425,-0.12069359,-0.017285867,0.11271476,-0.07548031,-0.08635334,-0.029961944,0.020449609,0.082711615,0.1493754,-0.04244521,0.1337155,0.023132114,-0.008273326,0.018115185,-0.12409522,-0.036581162,
                       -0.077659905,-0.04909149,0.069883585,0.11215333,0.11998022,-0.08933001,0.08547472,-0.07421032,0.08398147,0.03094619,0.09999099,-0.123075515,0.067486815,0.087128624,-0.011645903,0.023653407,-0.051193807,0.074149355,0.13488705,0.04967182,-0.13173789,0.0557343,-0.09957543,-0.048239853,-0.0902933,-0.011678259,-0.050375286,0.0498459,-0.08823092,0.020202763,-0.09868236,-0.1206385,
                       -0.080355555,0.08053296,-0.06518942,-0.08784204,0.036407128,0.0693537,-0.12197364,0.04178259,0.0344037,-0.09365153,0.021791015,-0.07737289,-0.008306951,0.00496985,0.0020032367,0.07570092,-0.06930645,-0.041191407,-0.011848384,-0.026850915,0.0034110576,-0.1228047,-0.040478747,-0.081220664,0.08482146,0.045848243,0.112267554,0.08853919,0.009659088,-0.045455568,-0.037115496,-0.054360896,
                       0.055602837,0.043017633,0.012143053,-0.038170606,-0.019166656,-0.08067057,-0.044303674,-0.14243263,-0.013587823,0.022464773,0.074418485,-0.040633082,-0.037319906,-0.01015655,-0.10057346,-0.05548259,0.06031977,0.10270676,-0.058747344,0.028437981,0.10750037,-0.08391749,0.108459085,-0.09127114,0.06865545,0.09233975,-0.11493462,-0.09221475,-0.07855625,-0.108390294,0.050313767,-0.12561734,
                       0.0509139,0.06275538,0.09427906,-0.09568101,0.04020477,-0.075752266,0.07103958,0.018152809,-0.08457444,-0.09167414,0.093447745,-0.03759292,0.10557926,0.021942025,-0.015199237,0.011776306,0.099979915,-0.07157404,0.08523689,0.0054580164,-0.053292647,-0.032651484,-0.028830947,-0.019044738,-0.08773316,0.055897463,-0.06851252,-0.07627447,-0.01638829,-0.041543484,0.011116205,0.09801391,
                       0.11335407,0.054458328,0.04920495,0.041790355,-0.027421674,-0.118980356,-0.11484486,0.04893069,0.063115254,0.09205452,-0.10514591,0.00050209905,0.019842714,-0.10446494,0.10501384,0.02333585,-0.07062087,-0.12011047,0.10305692,-0.09867176,0.083384566,-0.0480969,0.12524572,0.021272475,0.07733975,-0.112693496,-0.045184355,-0.073454425,-0.061939728,-0.023235293,0.029542537,-0.11810102,
                       0.14462042,0.042683665,0.054291237,0.086198285,0.05469156,0.031687304,-0.04483914,-0.11453819,0.117553115,-0.008773124,0.054566808,
                       0.03007275,0.09571453,-0.0551399,-0.08260405,0.118467905,0.08022769,0.06319321,-0.076468796,-0.08896414,0.13490103,0.1106184,0.012446456,0.11873932,0.0147683015,0.09535123,0.069006234,-0.034729004,-0.015113313,0.09287181,-0.05960138,0.011487215,0.0634332,0.101890035,-0.107780345,-0.11601173,-0.03969486,-0.0071213213,0.09730796,-0.118560314,0.07149855,-0.010376575,-0.10667633,0.031175815,
                       -0.05922357,0.08318916,-0.09825634,0.10108526,0.013571971,0.00021559,-0.022450147,-0.089229725,-0.1082761,0.039068,0.0153473,0.009437223,0.052244373,-0.112764955,-0.015641375,0.064670034,0.13455741,0.08830028,0.0058069443,-0.0026148097,-0.045687236,-0.033104476,-0.103813626,-0.039566692,-0.03728973,-0.08280062,-0.018439932,-0.14833683,0.08901894,-0.07185488,-0.103368886,-0.0010903382,
                       -0.08993558,0.06005735,-0.11276129,0.03414865,0.081779726,0.048502684,-0.077633075,-0.11951789,0.023658225,-0.096521676,-0.01888803,0.0797729,0.11738085,-0.06064007,0.023545738,-0.11607885,0.037277505,0.028480459,0.036595766,-0.08563364,0.10752392,0.032586038,-0.10257949,-0.044282254,-0.0032500727,-0.11469153,0.05522832,0.054321215,0.0639154,-0.009587016,-0.1264161,0.0535066,
                       0.06636604,0.036570862,0.029275797,-0.12427109,0.102333084,-0.09687323,0.013332332,0.08504732,-0.06327406,0.10153313,-0.10058673,0.13087432,0.16294347,-0.10230243,0.046970397,-0.009510357,-0.13016814,0.005555743,0.11116104,-0.04313395,-0.07829862,-0.110827684,-0.09329979,-0.06553416,0.085609496,0.11634104,0.034788273,0.05298586,-0.00024174478,-0.05923253,-0.08878391,0.03100678,
                       0.10357996,-0.0979234,0.07204135,0.10923194,-0.086816706,0.091653325,0.040734798,-0.0423235,0.12802173,-0.07191582,0.026117472,0.12309626,-0.057672504,-0.10605474,-0.020464847,0.051922873,-2.964271e-05,0.06421771,-0.07066925,0.059894606,0.09270711,0.009314296,0.09495142,0.03852353,0.07287091,-0.08165441,0.03503534,-0.1017031,-0.09807449,-0.037835114,-0.03286489,0.013666364,
                       0.07807306,-0.047651447,0.004283342,0.064328834,0.006823561,0.06886929,0.13040407,-0.035938546,-0.0016143888,-0.043791655,-0.0712582,-0.1263066,0.1120559,0.07607624,-0.060520362,-0.05475292,0.0883481,0.07697542,0.011635279,0.06120311,0.045880046,0.022854693,-0.07671298,-0.08545789,-0.10496437,-0.038173556,0.07687421,0.072744824,0.005342438,0.06269661,-0.06291,-0.05987444,
                       -0.12954748,0.045429528,0.040791456,-0.049348056,0.13777006,-0.081735,-0.102659166,0.09287652,0.03845101,-0.055960175,-0.050439976,0.04993108,0.115422875,0.017470505,-0.08969208,-0.0032623427,0.045556568,-0.13073975,-0.03526322,-0.11688057,0.046403106,0.054130092,0.01849329,0.099787146,-0.10111056,-0.10418867,0.014035269,-0.07006455,0.06706326,-0.09547946,-0.11239017,-0.031194706,
                       -0.06447577,-0.012068278,-0.08471433,0.042477217,-0.07172426,0.014410468,0.11273213,-0.116100736,0.0949653,-0.06360071,-0.05832257,-0.06598375,-0.12781604,0.024167664,-0.077574275,-0.10361889,-0.051862355,0.0842944,0.080834076,-0.055581655,-0.09871147,0.039893482,-0.0066952514,0.05282845,-0.10300197,-0.014915749,-0.047791228,-0.068695,0.039661568,-0.094831735,0.028318245,0.02150531,
                       0.015247917,-0.10045384,-0.09094318,0.10296346,-5.351715e-05,-0.06764583,0.019828241,0.115017205,-0.007295078,0.11616094,-0.046160392,-0.083336465,0.05262553,-0.09232523,-0.039649103,-0.11345234,-0.09805797,9.2694914e-05,-0.057701156,-0.14666466,0.06255068,-0.099801786,-0.11335557,0.03534192,-0.012096188,-0.123129226,-0.0006904956,-0.007353805,-0.120410986,-0.12116063,-0.0857436,0.06798717,
                       0.11424782,-0.09790819,0.12723744,0.1255135,-0.0077016237,-0.08042939,0.08436033,0.11892747,0.097558714,-0.0789791,-0.124950945,
                       0.023112569,-0.03688179,0.03082893,-0.051188443,-0.07506187,0.015374621,0.11843305,0.11933882,-0.10317338,0.09399056,0.12784778,-0.066837534,-0.13734016,0.07011249,0.07984725,0.004173165,-0.043858983,0.12776747,0.045561522,-0.12044907,-0.016524585,-0.046275258,-0.007616334,-0.06369647,-0.04192904,-0.07845296,-0.045950927,0.12833063,-0.10665129,-0.037927184,-0.049129337,0.12006334,0.102216445,
                       -0.09313175,-0.11165421,-0.09268768,-0.112568416,0.020591509,-0.101150125,0.07414119,-0.12837568,-0.06953738,-0.015519859,-0.1358062,-0.09458862,0.12206783,-0.0064093466,-0.056407083,0.058681745,0.001194799,-0.043261655,0.035560884,-0.048767447,-0.004097345,-0.108070746,-0.0027018269,-0.010802596,-0.104390725,-0.111890964,0.11662657,-0.030485332,0.050044075,-0.09538589,-0.042947248,0.03204159,
                       0.070010714,-0.029339384,-0.05139671,0.037955374,0.048615634,0.04897341,0.006982606,0.105242684,-0.060199298,0.0092541855,-0.1512338,-0.09624681,-0.097577125,0.027481835,-0.08680298,0.052400842,0.029193321,0.10685414,-0.107392795,-0.04067253,-0.018613882,0.088516034,0.08240997,-0.01817485,0.009252481,-0.08289402,0.15163177,-0.11266004,0.09316418,0.15809616,0.05378582,0.13296556,
                       -0.09959597,-0.0645229,0.106794536,-0.023819054,-0.09048534,-0.08072917,-0.08779157,0.04017684,-0.022188978,-0.120799884,-0.022693848,-0.013809689,-0.01034216,0.13042928,0.014787316,0.12732017,-0.08033007,0.08066281,0.12107363,0.1075333,0.058869816,0.036499754,-0.098986104,-0.0934213,-0.031210244,-0.102360025,-0.041892692,-0.004015534,0.047583833,0.049649734,0.05535563,0.108892046,
                       -0.054551832,-0.09414282,-0.043482333,0.013682898,0.09588917,-0.028429221,-0.03352867,-0.113766685,-0.03875908,-0.03651663,-0.04909997,-0.12942213,0.0586337,0.014362611,0.121960126,-0.019001964,0.07148012,0.059217397,-0.06927631,0.13303141,0.07367596,0.08921232,-0.016881905,0.05446614,0.033852693,0.03550995,0.123711005,-0.1284109,-0.101746745,-0.091650665,0.11092612,-0.088679515,
                       0.0568369,0.1202491,0.05908844,-0.15837857,0.119025335,0.12077588,0.075320445,0.10025296,0.09935051,0.14601557,-0.108584024,0.030966204,-0.111037895,-0.044436865,0.042752467,0.006912304,-0.10504189,-0.14824216,-0.10122627,-0.07816258,-0.115549535,0.099043384,0.09232441,-0.072735325,-0.03549521,0.053027634,-0.031481616,0.12371906,0.045215964,-0.018346192,-0.114697695,-0.009144527,
                       -0.05536917,0.10719953,-0.1298811,-0.11668387,0.007626734,0.09350864,0.029498674,-0.10165588,-0.1113956,0.12596793,0.12761319,-0.07979361,0.020922555,0.06399779,0.114450514,-0.060147654,0.01613622,0.043553162,0.005562291,-0.05163261,-0.11877325,0.058503352,0.031354256,0.11248448,-0.11302725,0.08241877,-0.06620136,-0.06232147,-0.07506906,0.08062241,0.020741671,0.087744474,
                       0.0822155,-0.12354775,-0.02081427,0.05923663,0.14475045,-0.08467956,-0.040325724,-0.0420093,0.09414038,-0.13878588,-0.078110516,0.059886023,-0.01855617,-0.14152859,0.059350796,0.045455337,0.09401732,0.11083317,-0.13289781,0.017630372,-0.08464561,0.11374766,0.035387915,-0.02124393,0.08131286,-0.008085825,0.09106307,-0.008327974,0.098336376,-0.042161018,-0.02789791,0.05523683,
                       0.11564553,-0.072152376,-0.02577453,-0.024835456,0.078852944,0.0420292,0.07973497,-0.14635031,-0.06258075,-0.07559597,0.14000483,0.09425479,0.07516085,0.08362759,0.091538,0.08042464,0.04552091,0.008287422,0.0959254,0.0876173,-0.018910384,0.059148066,-0.05438122,-0.04772613,-0.11718064,-0.09304205,0.016171895,0.026773814,0.0026955705,0.059011307,0.09156933,0.10797218,
                       0.055177808,-0.012642224,-0.1317437,0.102111876,0.11998693,0.067650504,0.044739254,-0.06416474,-0.08487244,0.024759566,-0.068547495};



float saved_biases[5] = {-0.007221068,0.00041566318,0.0002367919,0.003830088,-0.0001435953};
