float saved_weights[640] = {
                       -0.1569586,0.13430479,-0.15488912,-0.03756628,-0.11516166,-0.043654002,-0.111702025,-0.18134932,-0.109171495,0.12440031,0.15920894,-0.08997864,-0.18150978,0.17819548,-0.20484494,-0.15400323,-0.08507722,0.15483955,-0.032959376,0.13934046,-0.0072611226,-0.121701255,0.1645165,-0.010630101,0.19474813,-0.11192762,0.19240902,-0.14914168,-0.09321178,0.05028192,-0.117940284,-0.16787098,-0.21027723,
                       0.07607576,0.16690104,-0.08303681,0.15900376,0.086084574,0.09483044,-0.11347975,0.082859546,0.15546913,-0.12739646,-0.20279242,-0.16994469,0.08550988,-0.018710399,-0.05676261,0.07822742,-0.0083746705,0.01693868,0.18247572,0.18341203,0.06810833,0.0043909894,-0.11284837,-0.13101822,-0.0055615236,0.074777745,0.018155595,0.097340524,-0.009803206,0.12689215,0.13115118,-0.17341284,
                       -0.18174751,0.019995654,-0.14891271,0.20638879,0.07959072,0.20105669,-0.16455838,0.046147227,0.015632877,0.0068368376,0.17711112,0.040110204,-0.13434966,-0.02788212,0.12118329,-0.09408958,0.16380851,-0.07345308,-0.049851667,-0.028452516,0.17286833,0.09637648,0.0004975484,0.038397793,0.022181677,0.19374439,0.011168757,0.15685329,-0.19461119,0.060396105,-0.17757872,-0.09081277,
                       0.21283892,-0.009701024,0.14185777,-0.10806817,0.061763432,0.069714926,0.11072818,-0.13074383,-0.07810767,0.016455729,-0.12229381,0.062255435,0.0031324178,-0.010386159,-0.015285447,0.14203177,0.15642142,-0.1274305,-0.13492444,-0.11506535,-0.16350709,0.17433965,-0.20112012,-0.17355102,0.19725525,0.039513845,0.048923977,-0.21054146,-0.035408746,-0.18835616,-0.010108936,
                       0.12523016,0.10833592,-0.0012806613,-0.028717324,0.029917376,-0.17663231,-0.13515083,0.17946537,0.10636486,0.21420068,0.08642082,0.038085338,0.10297671,-0.05201663,0.051415768,-0.048317477,-0.09260757,-0.031580407,-0.0076622316,0.04827989,-0.15776883,-0.020073624,-0.159093,-0.10422568,0.1878787,0.028921738,0.057546526,-0.15058963,-0.0017477961,-0.1271053,-0.1711158,-0.116800345,0.071383215,
                       -0.14277852,0.19567582,0.01200892,-0.0058808085,0.046344377,0.15612632,0.048146393,-0.013361979,0.06104621,-0.11143607,0.011405312,0.14925234,-0.06781089,0.14313677,-0.15922514,0.18189584,0.047137223,0.086956665,0.13081184,-0.166489,-0.16607451,0.08559124,-0.10873653,-0.16018558,-0.1649618,-0.0031518922,0.024034651,0.12868688,-0.036864325,0.20279162,-0.09690353,-0.024973065,
                       -0.1666013,-0.122394405,0.14435177,-0.09951226,0.10733696,-0.10287811,-0.20876093,0.041557755,0.17316252,0.06875037,-0.07722879,-0.056998212,0.11972796,-0.03616112,-0.09448395,-0.1429508,-0.19448334,0.076647125,0.10382023,0.05080309,-0.10983816,-0.07353824,0.16757178,0.18543954,-0.09992363,0.13050772,0.20524059,0.05233633,0.09088009,0.19160081,0.16858405,-0.13138703,
                       0.124028295,0.15360959,-0.13957193,-0.16747315,0.14749572,0.12914863,-0.03402672,0.08927128,-0.08996026,-0.082746655,0.035835437,-0.18623349,0.117789894,0.16984499,-0.19653885,-0.11042699,0.057842012,-0.20100394,0.10760899,0.02605114,-0.10577546,-0.1186553,-0.18935347,0.06949082,0.06049799,0.19737671,-0.17058001,0.1811386,0.058503684,0.21620542,-0.083110124,
                       0.03398894,0.04284196,0.013287701,0.16051629,-0.16732675,-0.04874121,0.18817171,0.028399214,0.059529055,0.18678394,-0.058162957,0.16585882,0.111304365,0.141189,0.035240535,-0.031235307,0.059432413,-0.0010553421,-0.1571158,-0.17530271,0.17568508,-0.087693684,-0.17495437,-0.0852126,0.113662116,0.022536827,0.14938287,-0.076569416,-0.04674529,0.060845263,-0.20697305,0.0867858,0.08422028,
                       0.026428102,0.12774104,-0.15914668,0.049448412,0.06378029,-0.12144711,-0.05582152,0.12338334,0.0924743,-0.16324979,0.09719117,-0.18689144,0.020264704,0.09203306,0.19671044,0.015790468,0.008713245,-0.0030480544,0.18643792,0.06294463,-0.13076703,0.034895625,-0.00044259394,-0.1140932,-0.15109068,0.05709818,-0.08373976,0.12990943,0.16455452,-0.124392435,-0.08060172,-0.12393634,
                       -0.06523881,-0.17386138,0.1704592,0.15182637,-0.21110438,0.04532389,-0.021509485,0.15709943,0.19959915,0.19489966,-0.087718144,-0.10451381,-0.016166337,-0.20701295,0.19147895,-0.20738469,-0.06100708,0.19836196,-0.1426577,-0.20876127,0.12733237,0.09985329,0.0005590507,0.092594355,0.15610297,-0.12030061,-0.026712859,0.18956208,-0.16018316,0.008755576,0.20061499,0.120870866,
                       -0.06995746,-0.027908286,-0.13719112,-0.12295191,-0.1905098,0.07915587,0.035921045,-0.0193855,-0.12771687,-0.022070246,0.01939715,0.10384388,-0.08779633,-0.13743906,0.13281362,0.19132927,0.204163,-0.20343952,0.04741714,0.1919331,-0.078329004,0.009596776,-0.15732646,0.06910374,0.09197834,0.163779,0.140783,0.14001423,0.05692944,0.11182484,-0.20618263,
                       0.06444009,-0.07336372,-0.15360461,0.19391862,-0.043851454,-0.03467355,0.060235497,-0.03540632,-0.04313543,0.12597212,0.1277533,-0.057262618,-0.10006677,-0.065023296,-0.093955,-0.12933305,0.11545692,0.17739108,-0.17293273,0.11832993,-0.043397844,-0.14852895,0.15611279,-0.12630843,0.14276971,-0.21868831,-0.088293456,0.16570492,0.14011306,-0.12769218,0.07462368,0.077463426,-0.03353125,
                       -0.18271933,0.167862,-0.01982607,0.11422807,0.023429003,0.18967605,0.055041846,0.053267624,0.054208744,-0.05034917,0.0833089,-0.14738643,-0.036161073,0.07174584,0.030412773,-0.13611865,0.14034985,0.17392816,0.032374967,-0.07545086,0.20147805,-0.116955385,-0.13879858,-0.13700649,0.09471651,0.09079533,-0.13978797,-0.11985432,-0.2038988,-0.19850111,-0.031708643,0.0070683695,
                       0.1325485,0.039352823,0.00023052216,-0.16050836,-0.1603734,-0.05493455,0.08947242,-0.11618452,-0.17699273,-0.016841346,0.09917997,-0.15085591,0.14034396,0.1957104,-0.123633906,0.13550949,-0.18960434,0.045271777,-0.16085695,-0.04656799,0.1234608,0.06694922,-0.10592278,0.035440303,0.14385843,0.008707446,-0.12011078,0.031848513,0.16375864,-0.043573074,0.07711377,0.023653626,
                       0.15428972,-0.0061614793,-0.10324668,0.12377397,-0.0052094557,-0.18283524,0.042488627,0.002594779,-0.0029127896,0.09451407,0.06977433,0.077977724,0.040196866,-0.15281372,0.028920649,0.12725347,0.08761043,0.1951146,0.03012816,0.00877437,0.066312425,0.059945427,0.1876028,-0.10485075,-0.13357954,-0.0029082522,0.08952842,-0.09262243,-0.02540353,-0.02278448,-0.06044075,
                       -0.05648523,-0.12279348,0.04932015,0.19968398,-0.1174979,0.054980963,-0.18398677,0.20990846,-0.058426213,0.014763029,-0.16017297,0.19425361,-0.14123254,0.07936342,0.0400762,-0.17777388,0.20426562,0.10798346,0.0026352967,0.06405007,0.12230695,0.020573802,0.09441515,-0.099298045,-0.14691198,0.06033405,-0.048759725,0.04593847,0.20309868,-0.17644133,0.17984374,0.038593784,0.11339491,
                       0.013824483,0.07955747,-0.036374062,0.16149141,-0.18796557,0.055107713,-0.037997015,0.07687504,-0.16206643,-0.037496585,0.12440851,0.106578454,0.040018518,0.17610072,0.082914285,0.090546645,0.060304172,-0.14489335,0.012756957,-0.060311034,0.12763007,0.20286249,-0.11361941,0.2113888,0.00981951,-0.10868814,-0.1693824,0.06927322,-0.1938198,0.04101954,-0.12098963,-0.036784694,
                       -0.09030892,-0.0870553,0.018099,-0.10959498,0.1513908,-0.1530756,0.059492018,-0.08825153,0.05193435,0.191474,-0.21025284,-0.016638523,0.15293333,0.06885445,0.10312148,0.09575681,-0.18052799,-0.027498312,-0.17634282,-0.1366163,-0.08375579,-0.19542134,0.1456893,0.011249122,0.1604224,-0.13934962,0.07081252,-0.029050557,0.039515756,-0.045887392,0.03643992,0.1539408,
                       0.17052,-0.0015025758,-0.048776437,-0.05016064,-0.1308174,0.17815398,-0.1252721,0.025511451,0.08136967,0.08224323,-0.17015472,0.0021100738,0.1477445,-0.16462268,-0.049704224,-0.11364066,-0.16989046,0.1749862,0.11560643,-0.09637956,0.083981976,-0.027053755,0.051120974,0.08116013,0.15282223,-0.06677377,0.024196675,0.11783996,0.025127754,0.12421078,0.12239886};



float saved_biases[5] = {0.00222525,0.00014905879,0.0022839317,-0.00022457662,-0.00041365836};
