float saved_weights[640] = {
                       0.10964663,-0.052930363,-0.21046443,-0.17634143,0.20864105,-0.19748494,0.030723508,0.07718832,-0.16047555,-0.07272067,-0.031410307,-0.1117121,0.07137859,0.16861409,-0.038617574,0.16703297,-0.19421804,-0.001431703,0.031346094,0.10915959,0.13832854,-0.12776119,0.08140194,0.13099468,-0.039194874,-0.08329621,-0.045512263,0.17626669,0.07168765,0.06780349,-0.16884153,-0.009133367,-0.16893615,
                       0.20804094,-0.008014557,0.0039703283,-0.09856305,-0.13540924,0.13508126,0.00080057984,0.053607285,0.15635754,0.04491216,-0.16852118,0.06602372,-0.20454827,-0.12863944,-0.050409216,0.11487101,-0.14998509,-0.1804385,-0.17723104,0.023436286,0.1172257,0.011782836,-0.027477685,0.11057392,-0.17766353,0.03198572,0.18600586,-0.20346484,-0.08815211,-0.17071944,0.1448143,-0.17416231,
                       0.050706197,-0.13710056,-0.22135732,-0.18312825,-0.0078084352,0.11969324,0.13501412,0.17904395,-0.1664934,0.065662734,0.0069181984,-0.14254773,0.08584429,0.01857095,0.1546431,0.0785235,-0.03585508,0.089638926,0.061631102,-0.16529618,0.0955233,0.085982926,0.03695171,-0.19653492,-0.068273395,0.031026458,0.108907774,0.1359585,0.14935617,0.22118776,0.10097471,0.056004938,
                       0.07462458,0.16718285,-0.09181131,-0.17401883,0.10069721,0.12151732,-0.145615,0.061766606,0.20273966,-0.17593502,-0.12516852,0.07923589,0.19008817,-0.15953031,0.15398704,-0.006200684,0.06993469,-0.104995504,-0.0990885,0.17418014,0.093815625,0.10190672,-0.025809905,0.06524586,-0.13997926,0.1507134,0.08190378,0.0025934621,-0.19377452,-0.107625335,0.14329371,
                       0.18774846,0.19393574,-0.12855282,0.21839388,0.08305017,-0.092710234,0.048620597,-0.15543939,0.05603438,0.1910877,0.1726651,-0.030606965,-0.13592473,-0.05415769,0.0011800735,-0.055455208,-0.007201358,-0.040475372,-0.0011047897,-0.035277214,0.14309825,0.0004051795,-0.08033514,0.14493075,0.16114073,0.034295287,0.0027922005,-0.045541245,0.049875163,-0.01688226,-0.14202856,-0.024499383,0.186671,
                       0.022066701,0.07228284,-0.0020982353,0.13868351,0.17458095,-0.17329857,0.1053925,0.048868895,0.21134847,0.100316554,-0.112190455,-0.1845349,-0.11355326,-0.1265375,0.13437966,-0.047842808,-0.17033178,0.12619726,0.05872164,-0.1827083,-0.19378918,-0.12122645,0.18052645,-0.023825279,-0.0057601244,-0.028412648,-0.034823865,-0.1363153,-0.19038928,-0.18067001,0.0018479422,-0.06547904,
                       0.19186623,-0.08388463,-0.10605024,0.1066619,-0.19413146,-0.1749333,0.0055685015,-0.03310467,-0.14552175,0.11786834,0.15941231,0.09430754,0.096792534,-0.15088394,-0.0972094,-0.020030022,0.04565857,-0.021185508,-0.007735187,-0.03098101,-0.058014713,0.023896575,-0.09757164,0.16943413,-0.04906617,0.120277114,-0.04470195,-0.18195048,-0.1425162,-0.11549244,-0.121593505,-0.03149394,
                       -0.010253627,-0.050181523,0.22310339,-0.11932619,0.106954515,0.11047272,-0.19341059,-0.09837046,-0.11845346,0.07332495,-0.056915965,-0.025964746,-0.14068426,0.07960477,-0.09820164,0.07545564,0.20334606,-0.11946291,-0.043592513,0.17428759,-0.18012387,-0.04782671,-0.072096065,-0.042994484,-0.15728423,0.17575915,-0.12888655,-0.1917536,0.11960396,0.07434605,-0.11303613,
                       0.17629272,0.12137091,0.02870966,0.037608318,-0.088492066,0.1630147,-0.11293237,-0.19139722,0.18134616,0.17635007,-0.176257,-0.15127008,-0.027128045,0.018610343,0.17939033,-0.07659053,-0.02871989,-0.121410854,-0.06402563,-0.09056929,-0.09450407,-0.11763299,-0.17113215,-0.05410547,-0.02729688,0.1683857,0.029044112,0.06434048,-0.17896396,-0.1914617,0.0749005,-0.18747069,-0.0476964,
                       0.102202326,-0.104148224,-0.13315487,-0.04863531,-0.18592495,0.12014717,0.10998812,0.013899088,-0.14743431,0.024991274,-0.16777892,0.013935072,0.09981182,0.070072636,0.019346038,-0.19878435,-0.061223622,0.16566639,-0.11722271,-0.009049235,0.15040746,0.14317547,0.06274627,0.06483045,0.14237706,0.094337404,-0.0754496,0.20587067,-0.06352908,0.14907643,-0.10258115,0.04046665,
                       -0.14196096,0.1513424,-0.11640483,0.03411651,-0.06731878,0.17073523,0.16501363,0.14544705,-0.13868812,0.19860102,-0.19360985,-0.00064817676,-0.054142073,-0.0999143,0.16973953,0.024900017,0.001990637,-0.19028208,-0.1021052,0.15867311,0.17877549,-0.018009055,0.043881275,-0.048697375,-0.120776355,-0.122813486,-0.12973525,-0.069315225,-0.06338781,0.11820363,-0.1248325,-0.0403823,
                       0.06524966,0.09616977,-0.0753407,-0.20173793,0.1668294,-0.08736434,-0.09762573,-0.02251598,-0.0076260893,-0.08237965,0.02760322,-0.0957847,0.08539448,0.04958055,0.15960021,-0.052937753,0.025108518,-0.07524171,-0.09570643,-0.0029428396,-0.111282095,0.05499504,0.059609085,-0.003041476,-0.20569965,-0.029499698,0.18277055,0.029756406,-0.10435436,0.19576664,-0.08373366,
                       -0.1501341,0.100238085,0.039772995,-0.036579914,-0.07720669,0.06423608,-0.041944865,-0.1467966,-0.16662364,0.04918782,0.18341865,0.06621812,-0.11270928,0.060685694,-0.02191749,-0.20915093,-0.05457182,0.13917772,-0.09284534,-0.024718847,-0.11612134,0.0037915811,-0.12452621,0.15121816,-0.101125136,-0.0020918155,-0.10428743,0.06663318,0.06234865,0.1757355,0.09843227,0.0037468886,-0.09941693,
                       0.15624191,0.03040966,-0.05832731,-0.035713594,-0.16436805,0.06189567,0.22894388,0.09790671,0.11826638,0.07919642,0.025545124,-0.09463306,0.17655076,-0.15965223,-0.18009217,-0.09023658,-0.00024420721,-0.11505638,0.111105494,-0.016070021,-0.19990183,-0.04857751,-0.12537158,0.13614741,0.043628886,-0.046257075,0.114303,-0.13016686,0.13973846,-0.11098606,0.061059795,-0.16286317,
                       0.13215284,-0.13108712,-0.10235379,-0.13887544,0.061034486,-0.08939464,-0.024860904,0.11789453,0.06914461,0.12585297,-0.16350245,-0.008422895,0.1948465,-0.0785316,-0.016734427,-0.016032636,0.045828152,-0.071409635,0.09089702,-0.04033321,0.010582388,0.038959354,-0.01905669,-0.1677731,-0.1705973,-0.1970283,0.06786273,-0.15558869,-0.0005836636,-0.1072945,0.12588578,-0.19974,
                       0.17333043,-0.20050813,0.0011584023,0.19869615,0.012646983,-0.05321658,0.0071329484,0.052607,-0.11600645,-0.0029334354,0.057734694,0.072486065,0.17349519,0.14462245,0.016288524,-0.16588458,-0.14490213,-0.04412468,-0.11222151,0.10118421,0.117854096,-0.06629616,0.14785835,0.10568975,0.1407354,0.12326723,-0.12396338,-0.08018164,0.17492741,0.1778363,0.11546934,
                       0.15846927,-0.13853769,-0.07600558,0.12437591,-0.11709318,-0.19661728,0.19435655,-0.156441,0.14392345,-0.18333897,-0.06711515,-0.18401532,0.016204776,0.017889798,-0.015834728,0.039721064,-0.17617479,-0.17932917,0.13122544,0.08665089,-0.113160074,-0.08644971,0.16253145,0.026267244,-0.084873304,-0.0760763,-0.1699554,-0.026011856,-0.0051568937,0.08867999,-0.061143663,-0.069552995,-0.023606203,
                       -0.11427559,-0.108024135,0.17293578,-0.20090856,-0.09643982,0.12367454,-0.09122719,0.1658459,-0.1185652,-0.10645133,-0.03143754,0.17316325,-0.14513865,0.143566,0.0036056035,0.18733189,0.08821133,-0.14314604,0.173811,-0.20154016,-0.09814575,-0.16444942,0.03214984,0.020750288,-0.13721438,0.1992399,-0.1564028,0.20213377,-0.12406964,-0.09596146,-0.056928605,0.046907682,
                       0.011671886,0.18668717,-0.06062917,0.15903255,-0.14865129,-0.042271238,0.1256752,0.19300401,0.15367436,-0.054935604,0.16872062,0.17957985,0.044399522,-0.007991868,-0.1380874,-0.18105069,0.09255437,-0.11314079,0.04025828,0.15113786,0.15633197,-0.14941198,0.096196465,-0.13933985,-0.18715209,0.08197212,0.01086085,-0.10477548,0.2075158,-0.12559018,0.16857894,-0.15754186,
                       -0.1578326,-0.1346556,0.0058222455,-0.10442303,0.117502615,0.03735949,0.010610202,-0.18490848,-0.09987475,-0.02899293,-0.07642838,0.045333162,0.037898667,0.13288684,0.15535773,0.14980215,-0.08604393,-0.14915256,0.010774985,-0.11433618,0.073963225,0.02033928,-0.08738255,0.020932658,-0.08245943,-0.10828313,0.16252944,-0.10804229,-0.09044607,0.023163907,0.17647032}; 



float saved_biases[5] = {-0.00361596,-0.0011443108,0.0027870357,0.002104458,0.0012242062};