float saved_weights[1500] = {
                       0.01521703,-0.03310814,0.04558265,-0.047326848,0.12811501,0.04631943,0.1195292,0.069401965,0.042583626,-0.11802051,0.11896394,-0.014155762,-0.046161726,-0.064394236,0.09984001,-0.07488307,0.03779311,0.12710306,-0.041003983,-0.12467262,0.12818407,0.10955044,0.0814434,0.08632513,-0.04235916,0.11129553,0.08943939,0.04703746,0.10563138,-0.12532163,0.007328018,-0.09219676,-0.109071545,
                       -0.10224283,0.11246684,0.026063012,-0.098406255,0.112443365,0.04411542,0.10548866,-0.016972464,0.034805983,-0.101172596,0.044502582,0.13044661,-0.023919314,-0.14659481,-0.046227515,-0.052120186,0.03796807,0.041963857,-0.11646601,0.07920823,-0.027982771,0.12537208,0.103556655,0.049284317,-0.136129,-0.018799726,-0.13407075,0.021754874,-0.03828766,0.10719178,-0.027384192,-0.03389577,
                       0.014567091,0.031362858,-0.022848085,0.06828095,-0.07070812,0.11708748,-0.12372375,-0.1012329,-0.0037894833,0.08684673,-0.034300964,0.12259308,0.097281456,-0.15424325,0.080475785,0.08640582,0.10230816,-0.050832283,0.043905664,-0.0005500201,0.094388284,-0.031122671,0.08164309,0.030792506,0.0303005,0.107846044,0.121664055,0.023987511,-0.06587104,-0.07659507,-0.037246067,0.05549081,
                       0.01874902,-0.12623262,0.0494283,0.060509365,-0.036708184,-0.061861128,0.112792894,0.027813945,0.055133507,0.12230239,0.01886043,0.0627028,0.087898985,-0.054909606,0.12770791,0.1170098,0.0069896104,-0.082185864,-0.00946689,0.075529434,-0.11834008,0.12758708,0.08090523,-0.12796007,0.12933812,-0.04560906,0.015644759,-0.01042815,-0.021439614,0.13329265,0.12711388,0.035455592,
                       -0.066265985,0.0522829,0.10475941,0.041219175,0.08140416,-0.039106317,-0.13087326,0.12798804,0.097518615,0.12137292,0.08152367,0.117844276,0.11388279,0.07038825,-0.11815477,-0.006621109,0.092908576,0.1070058,-0.047835466,-0.026986385,-0.045638315,0.0903258,0.10714884,0.045251165,-0.08395541,0.08450127,0.02511161,-0.11484983,-0.03179769,-0.12746558,-0.08692702,0.09896562,
                       -0.0015247166,-0.10784668,0.009391357,-0.0057394416,-0.05708505,0.0033296417,-0.104456864,-0.06909014,0.060038026,-0.08023881,0.072409354,-0.025712332,0.020709876,0.06402073,-0.07067989,-0.0015499813,-0.06244224,-0.08191764,-0.07563916,0.052550577,-0.026210763,-0.085928604,0.07467501,0.06013658,0.08369791,-0.004339087,-0.0899314,0.014076943,-0.06581505,-0.059004944,0.11094074,0.11927133,
                       -0.10743823,0.045318805,0.114833586,0.10162814,0.03367893,0.11240553,-0.066223636,0.06735159,0.10688617,-0.012159184,-0.13378297,0.063314095,0.034440357,-0.12147072,-0.043023057,0.07119732,0.024866853,0.117443964,0.026428415,-0.05620089,-0.058872633,-0.139064,0.05601698,-0.05770747,0.11633288,0.13381898,-0.08758854,0.07348377,-0.06886713,0.004213612,-0.041964006,0.09364341,
                       0.031059425,0.06544293,0.005550183,-0.06155512,-0.02189462,0.07012093,-0.06429814,-0.05075407,-0.1089803,0.052882608,-0.06388643,-0.12737033,-0.07952111,-0.057577133,-0.05344137,0.08981434,0.07628481,0.026709214,-0.032055207,0.057448115,-0.0011721142,0.08933941,-0.0054063518,-0.12816384,0.08633466,-0.056099117,-0.03975142,0.03940224,0.12369723,-0.1334474,0.12959825,-0.039335046,
                       -0.01211198,-0.018215267,0.10501403,0.032830905,0.128232,0.10845503,0.12855996,0.12624288,0.028134469,0.025979102,0.07255779,0.05329493,-0.013794016,0.05533565,-0.12431178,-0.0037357958,0.0934714,-0.10152032,-0.11191076,-0.1354997,0.070306025,0.06879891,-0.10613247,0.067301266,-0.03953993,-0.113350876,0.1285492,-0.089635655,0.0041851215,0.085606195,0.035951033,-0.062280003,
                       -0.0038787324,-0.05525374,0.10154865,0.08442113,0.11529921,0.0333018,-0.056397233,0.12721902,0.07499795,0.04289271,-0.009506111,
                       -0.03099193,-0.12640055,-0.02562046,-0.08349863,-0.11150905,-0.076245435,-0.0035891763,-0.03354136,0.0092623085,0.07381816,0.09713228,-0.049151096,0.12873954,0.063507125,-0.114938706,-0.0015118218,-0.028539842,-0.05005999,0.06140529,0.025785659,-0.07378398,-0.13753958,-0.08412719,0.09377892,-0.12289273,0.07017324,-0.053205125,-0.00040097858,0.043893762,-0.11036237,0.026450824,0.057920538,-0.039965566,
                       -0.13452639,-0.015826676,-0.12746862,0.01116904,-0.09520485,-0.09892038,0.025819767,-0.055485204,-0.06757549,-0.12405095,0.11358536,0.08156948,-0.0050803074,-0.009179443,0.08366049,0.08427575,0.11101043,-0.031649362,-0.04518846,0.00082120096,-0.12557213,-0.062159378,0.02655514,-0.06872919,0.08939884,-0.041332055,0.087240905,-0.10497783,0.005475972,-0.090880945,-0.0016240785,-0.10731439,
                       0.11746464,-0.03703263,-0.118579336,-0.11018508,0.0052592587,-0.08886748,0.03789388,-0.0068208226,-0.008498215,0.0034282682,0.021578763,-0.060422834,-0.037858598,0.00051211636,0.09229607,0.0052539296,-0.04945906,0.051410798,0.029699268,0.03234422,0.094022125,0.08046954,0.1350253,0.037561554,0.095696725,-0.13767262,0.013924902,-0.020397259,-0.109711915,0.07856954,0.11841172,-0.038075242,
                       0.0019352986,-0.08690506,-0.10588101,-0.0062873615,-0.034331053,-0.009735416,-0.010095639,0.014793386,0.079380885,0.032090127,-0.09411358,0.04040402,-0.009777069,0.06752609,-0.011714724,-0.08296678,0.08723125,0.03497331,0.024623659,-0.019691113,-0.03238353,-0.003432729,0.07970416,-0.09340735,-0.10606353,-0.0009109166,0.039522342,0.05771227,-0.050503567,-0.036220524,0.124295734,0.01005257,
                       0.063780315,0.022580788,0.12808117,-0.013784859,0.044713717,-0.017943515,-0.09739727,0.12652592,-0.064962246,-0.1015565,0.11201372,-0.09801471,-0.112839185,-0.112357356,0.09084302,0.049824946,-0.051945366,0.10866121,-0.09693884,-0.09589467,-0.09347449,0.06797017,0.10334552,-0.123726875,0.045134313,-0.071253024,0.06769501,-0.023471482,-0.12462947,-0.013206062,0.052842453,-0.04468487,
                       0.13542832,-0.13851537,-0.040983215,0.025938649,0.08907712,-0.024727376,-0.062329218,-0.0075101387,0.011441991,-0.052769065,0.10323054,-0.024655292,-0.12598605,-0.012096584,-0.05822625,-0.0466886,0.10199012,-0.08956225,-0.089021094,0.051602993,0.083821416,0.028903931,0.1317734,-0.0010059242,-0.023184212,-0.088548206,0.13115908,0.053498916,-0.07448541,0.1281649,0.021118006,-0.09699882,
                       0.062326327,-0.12891886,0.122827634,0.1224422,-0.08048329,0.082667835,0.032059148,-0.12082417,0.039861657,0.10967597,0.08797424,0.055631842,0.005269861,0.12385682,-0.018850738,-0.06811373,0.027904408,0.11714274,-0.13087037,0.13634771,-0.03509165,-0.005110718,0.12206405,-0.02742205,-0.0077591087,-0.072179295,0.09723262,0.088577926,0.10917364,-0.10591838,0.08791104,0.0088299755,
                       0.0060380157,-0.034152713,-0.062360875,-0.031757325,0.08540306,0.017790928,-0.07872365,0.009842478,0.03315144,0.043855008,-0.050488666,-0.0019744807,-0.018549839,0.12435077,-0.044111565,0.095394485,-0.10851569,-0.09939704,0.018690268,0.067992866,-0.096048586,-0.078687154,0.073034756,-0.05289865,-0.12447985,-0.057936423,0.08136888,-0.048384897,0.0827678,-0.034604527,-0.1300758,0.06506186,
                       -0.09388682,-0.057803333,0.13224056,-0.029022949,0.02025014,-0.022647552,0.1119898,-0.122164264,-0.0839198,-0.0020608455,-0.072814934,-0.10971917,-0.043988608,-0.07780168,-0.04689395,-0.08408084,-0.024185998,0.12689425,-0.010626626,-0.07080198,0.025656363,0.0913335,-0.1019847,-0.0048275464,-0.064973615,-0.027450288,0.11786561,0.089258395,-0.07200137,0.099319115,0.11814878,0.05602333,
                       -0.014750395,0.06866066,-0.09292982,-0.07391321,-0.11321686,0.054159503,-0.103216685,-0.10705161,0.01139886,0.06429954,0.023096947,
                       0.1021941,0.05718303,-0.026230464,0.07290087,-0.0062789484,0.12289781,0.07255783,-0.014241687,0.049514882,-0.015651321,0.11219477,0.051045313,-0.09574915,0.104412824,-0.0053251125,0.102180645,0.025036177,-0.0049709897,0.03569129,-0.10151316,-0.09601588,-0.004119521,0.09265757,0.001160143,-0.026331805,0.051969945,-0.112322226,-0.13105984,0.13199034,0.041261893,0.03473548,0.07631079,0.106955014,
                       -0.12416043,0.011803972,-0.050996564,-0.061674666,0.11020328,0.0039301896,0.05558779,-0.06363314,-0.08810639,-0.05314194,-0.020980584,0.06905084,0.06372574,0.007922891,0.022286508,-0.09741754,0.05782341,-0.009612569,0.12323925,0.106959805,-0.047034476,-0.024035843,0.017767577,-0.08146152,-0.09510036,-0.09956211,0.12013718,0.1053687,0.08780003,-0.00070086203,-0.117667645,-0.102696694,
                       -0.10684389,-0.041127756,0.12371266,0.0995813,0.028798895,-0.106931016,0.10174894,0.055017024,-0.04835037,-0.0824695,0.11732267,0.005319363,0.0793849,0.10489655,-0.09210774,-0.10638628,-0.118233286,0.06455887,0.003995721,0.10504469,-0.120255545,0.07401227,-0.063796684,0.0758753,0.007458138,-0.036887065,-0.08238417,0.0075673065,0.025347156,-0.032179464,0.10346501,0.09666565,
                       -0.10583289,-0.06263297,-0.030724974,0.0016947568,0.02173945,-0.023157079,0.061593402,-0.06398863,-0.09112116,0.0281266,0.036214888,0.021415189,0.111303076,0.13199309,0.11835608,-0.12236829,0.07009509,0.107890524,-0.0023233574,-0.0015329502,-0.0104625,0.040489268,-0.03425724,0.12428738,0.082287915,-0.12223857,0.002091134,-0.07734014,-0.050977774,0.012750141,0.13596714,-0.07856596,
                       0.032819234,-0.10090308,0.112717986,0.01703146,-0.048681986,0.01895403,-0.12940796,0.13425703,0.06292457,-0.038508873,-0.039759066,-0.028543672,0.06541602,-0.035218976,-0.11286308,-0.07548125,-0.08440609,0.09763321,0.062902614,0.050339747,-0.055433527,-0.02632324,0.120415434,-0.053934567,0.047226556,0.053164665,-0.09962351,-0.004920226,-0.052087225,0.04095327,-0.12336917,-0.11741059,
                       -0.06670799,0.058580022,0.025104353,0.102159984,-0.042734955,0.12009587,-0.023954531,0.013940545,-0.084281586,-0.10958036,0.0169871,0.021010995,0.0029366997,-0.06725974,-0.030220738,-0.103089854,-0.027150113,-0.07254323,-0.12450228,0.032241542,0.12496374,-0.01388751,0.086311355,-0.0058884807,-0.090797246,-0.02353543,-0.051428366,0.03450797,-0.027073601,0.076477855,0.030316157,-0.14902686,
                       0.09491062,0.106979735,-0.13741241,0.08406878,0.057637874,0.07151621,-0.13139053,-0.036497746,0.102561116,0.08205,0.035452563,0.0038147257,-0.09458565,-0.07261695,0.15755047,-0.022301428,-0.08424044,-0.018067049,0.008549948,0.017202005,-0.021416664,-0.008354727,-0.12701884,-0.13411857,-0.0033781598,-0.09133276,0.09986337,-0.07750124,-7.380539e-05,0.096292265,-0.04654066,0.010773041,
                       -0.07789424,0.13007313,-0.03563577,0.07347435,-0.028633233,-0.10481864,0.0048397174,-0.030923069,0.064330705,-0.086122364,0.04265026,-0.095361285,0.1189634,-0.079705015,-0.020820415,0.13322924,0.005434543,-0.0867055,-0.10954564,0.026278788,0.059557006,-0.074720435,0.04880042,0.018065631,-0.07710023,-0.10904172,-0.04564372,-0.12301629,0.08330622,-0.028063694,-0.049354073,-0.03411009,
                       -0.07350642,0.10815431,-0.05468147,0.07328583,0.05973434,0.06892646,0.048305035,-0.06864232,-0.101534456,0.00953121,0.015611464,-0.1251986,0.08501844,0.028435968,0.0970181,-0.10762457,-0.002388891,0.016799528,-0.11895224,-0.095289476,-0.09784072,0.014129413,0.000357242,-0.015808376,0.028992115,0.009742788,-0.14368418,-0.002102604,0.061942052,0.015396785,0.058428906,-0.04436318,
                       0.12804425,0.009872946,0.096120976,-0.10290803,0.0532184,-0.09446216,-0.040903434,0.024104217,0.109519124,-0.12449846,0.11491688,
                       -0.10471282,0.07477211,-0.112189144,-0.12281325,-0.098618984,0.069944784,0.008050797,-0.093272604,-0.07829842,-0.09451299,-0.07109379,-0.0031415941,-0.119610555,0.15007612,-0.05401732,0.028259581,-0.042865153,-0.031727184,-0.005774085,-0.11943494,0.09629903,0.08676232,-0.08591717,-0.062595844,0.10665069,0.12410642,-0.020849988,0.017201649,0.0016143974,0.12094078,0.054073595,0.057116438,-0.0931844,
                       -0.059826493,0.08415631,-0.056614388,0.010859363,-0.095469706,-0.049490374,0.123180665,0.052103292,-0.032455757,-0.08267513,0.034435455,0.0021759348,0.11505758,0.11201879,0.09667027,0.08204883,-0.029920517,0.009682755,-0.14747857,-0.110681325,-0.047904238,-0.039170742,0.13448064,-0.12348011,-0.083897,-0.067559324,-0.011152115,-0.045994498,-0.11178169,0.05670759,-0.028117364,0.084220625,
                       -0.080590695,-0.13303763,0.106679045,-0.06805865,-0.08294503,-0.06570576,0.03028753,-0.114129245,0.020531153,0.07906985,-0.08214128,-0.019004414,0.110088386,0.09390089,-0.0388553,0.09531297,0.10082716,-0.050619792,0.09975232,-0.097429305,0.13125233,-0.044788167,-0.12590885,-0.044433925,-0.0060440293,-0.040592544,0.035127208,0.04175149,-0.04134559,-0.017258251,-0.024034651,-0.12382839,
                       -0.025035385,-0.13403304,-0.044559523,-0.063378185,-0.020132385,-0.113329805,-0.02436381,-0.070386104,0.02015327,0.020126075,0.064372264,-0.12636326,0.025176046,0.11275802,0.032698877,0.051163778,-0.049805485,-0.07146084,-0.13423441,0.13246933,0.10722307,-0.12683706,0.0758602,-0.06685584,0.09318415,0.022423148,-0.101641655,0.11980111,-0.1241162,0.06088037,-0.02765397,-0.10039296,
                       -0.045683812,0.050142758,-0.09221633,0.079576485,-0.08852185,0.03433888,0.09709122,0.09485717,-0.030411305,0.111313105,-0.12622297,-0.10438978,0.045824938,-0.007259691,-0.08051087,0.00081148744,0.14005569,-0.124878176,-0.13175143,-0.1155587,0.033663068,-0.062468156,0.11255281,-0.045608636,-0.058335554,0.10395518,-0.07193121,0.13029602,-0.06330022,-0.101034686,0.046169538,0.124614425,
                       0.08450708,0.112693295,-0.13038151,-0.09474952,0.0014587998,0.065069586,0.037903607,0.11448607,0.004310663,0.138078,0.06943645,0.025132105,-0.13147382,0.11072438,0.1296329,-0.08753376,0.056754127,0.027926566,-0.037225485,0.11948497,-0.07103863,-0.01594869,0.020897372,-0.085629515,-0.1445521,0.032982003,-0.054605108,0.043431044,0.07415257,-0.004064098,0.025559742,-0.13656232,
                       -0.0014250294,0.028557062,-0.09367447,-0.07631962,0.0010251321,-0.019716484,-0.09986102,-0.12446427,0.09270778,0.1257458,-0.055179227,-0.119268484,0.04989242,-0.09487224,-0.010660962,0.036762152,-0.07397547,0.07421107,-0.09841822,0.031173693,-0.033583205,0.04616147,0.10581878,-0.12879266,-0.06980667,0.00069904677,0.0153071815,-0.13419427,-0.12987213,0.100248575,-0.0023730523,0.060736876,
                       0.10965063,-0.04717236,0.13912441,0.12896107,-0.044809286,0.11597993,-0.043230034,0.052601073,-0.050837398,-0.06352132,0.022976073,0.024214977,0.09463214,-0.058040813,0.05427864,-0.11138366,0.092206836,-0.07061934,0.037949175,-0.030733231,-0.065067545,0.016190251,-0.07034577,-0.0070594447,0.09880958,0.074713886,0.019219782,-0.013981106,-0.048742574,0.080039285,-0.0049908687,-0.07692032,
                       0.12535125,0.049614463,0.10033486,-0.06935667,0.04773417,0.10665991,-0.09926272,0.09845088,0.10921837,-0.10316673,-0.0038264438,0.0622528,-0.026304971,0.049962062,-0.07019038,-0.021194914,0.04855399,0.06581761,-0.063136056,-0.13306876,0.021506509,0.05786905,0.07700532,-0.0767931,0.12834102,-0.121106595,-0.044286687,0.026317364,-0.024808515,0.077569835,-0.05506246,-0.05360537,
                       -0.027189147,0.02927591,-0.13804503,-0.009856831,-0.119433194,0.0018135902,-0.019067256,-0.094777994,0.022732224,0.122437075,-0.07448267,
                       -0.0830888,-0.13264138,0.11615121,0.12215568,0.11155937,0.038291123,-0.08814534,0.11783309,-0.092132054,-0.09682541,-0.057334453,0.042639773,0.085264,0.10666974,0.0018604804,-0.11807464,-0.056664623,-0.019869154,-0.005409959,0.08351068,-0.07775883,0.06698196,-0.033301663,0.046289045,0.007144472,0.12845625,0.097500965,0.10490536,0.11082457,0.08954352,-0.022743583,-0.045539025,-0.10512243,
                       0.012026936,0.12613553,-0.12721044,-0.06097197,-0.00802181,0.05297931,-0.054728743,-0.014514975,0.029684229,0.11917167,0.007468654,0.012871106,0.12512968,-0.093985416,-0.08489235,-0.049032655,-0.010444343,0.12190646,0.034545794,-0.101704426,0.13460924,0.04256813,0.06615259,-0.039689675,0.088334195,0.13881233,0.05046469,0.0846864,-0.101839736,-0.06440058,-0.023992993,-0.047038462,
                       -0.037262857,-0.04021939,-0.092503004,0.030445298,0.119885996,-0.0111656515,0.011129625,-0.021410976,-0.12351966,-0.018145612,0.025993168,0.12436945,-0.06170455,0.1133272,-0.13192081,-0.10373653,0.12199691,0.13491474,-0.11186402,-0.13429804,-0.020876523,-0.014925556,0.11051315,0.13394609,0.09214207,-0.10397393,-0.0046031177,0.085884005,0.0937967,0.11033491,-0.111832485,0.11588559,
                       0.13854697,-0.051631093,-0.098354466,0.009625867,-0.03362454,-0.068417795,0.023066474,0.04089249,-0.07494892,0.09707184,-0.057443272,-0.12202467,-0.011516996,-0.115023635,-0.042942595,-0.1433647,-0.14675316,-0.09196285,0.12734367,0.06312907,-0.10637715,-0.0769676,-0.12148911,-0.09576138,-0.002650797,-0.06393095,0.020651212,-0.13441429,-0.07198788,0.075747564,-0.0740535,-0.03259373,
                       -0.008367302,0.033220027,0.0054069506,0.09671984,0.10456044,-0.06634616,-0.061809644,-0.084133394,-0.11273261,-0.008285952,-0.0972992,0.09899305,0.084012024,0.13474071,0.13100992,0.076569825,0.13215646,-0.014403653,0.10323609,0.006069293,-0.008601938,0.13629863,-0.07323492,0.10011098,0.021206617,-0.11017436,0.103103854,0.09983649,0.050955456,-0.010966585,-0.077619374,0.024791228,
                       0.109711155,-0.030985555,0.002845777,0.060714632,-0.06006137,0.032795094,0.031129178,0.109400086,0.12609722,-0.036247086,0.07556525,0.07663605,0.009321833,0.056059305,0.111260265,-0.06643016,-0.10952463,-0.05863634,0.060503554,0.007908597,0.116458826,-0.11401613,0.09914501,-0.0024996363,-0.010227391,-0.060980488,-0.0166186,-0.10919147,-0.010201974,-0.05320698,-0.12523897,-0.051013887,
                       0.11861276,0.11655775,-0.012843014,0.0042767585,-0.03184298,-0.13173226,0.1274598,-0.12966877,-0.027944049,-0.05873635,0.043930642,0.019093733,0.10462843,0.06278158,0.054868754,-0.1391622,-0.083223484,-0.02267932,0.061949797,0.0042993533,-0.015717383,-0.08253847,-0.050096963,-0.012528971,-0.004271822,0.1068512,-0.0048716743,-0.04217876,-0.10709439,-0.048269436,-0.102589116,0.021886097,
                       0.026621576,0.009413622,0.13366993,-0.09474871,-0.10202072,-0.03735604,0.13158518,0.119652055,0.12012874,-0.08943389,0.121599264,0.13436782,0.05341199,0.03282881,-0.043853376,0.040897068,-0.10051445,-0.093108535,-0.024394209,0.13572949,-0.093105145,0.08779789,-0.06729369,-0.04683017,0.09303305,-0.05566449,-0.072899,0.088248566,-0.028337497,-0.009237855,-0.11185694,-0.090317816,
                       0.09509681,0.07126368,-0.071880266,-0.0065820217,-0.07624903,-0.008964997,-0.12046379,-0.021588888,0.09069708,0.10751283,-0.058499016,-0.037380252,0.068901695,0.11601647,0.02282179,0.06051919,-0.03216657,0.12987682,0.056952123,-0.09816719,-0.05272241,0.09658294,0.005234994,-0.10653898,0.011852254,-0.11890581,-0.09391192,0.091856256,-0.10167926,-0.026814314,-0.048794456,-0.13737541,
                       0.11074167,-0.01977786,0.13237083,-0.09865622,0.114900164,0.030010391,-0.046844464,-0.075704984,-0.012804259,-0.12184981,-0.06815925};



float saved_biases[5] = {-0.001179505,0.0016016518,-0.0004843905,0.002364846,-0.00025760283};
