float saved_weights[640] = {
                       0.033729438,0.17332084,-0.1487379,0.056802817,-0.09065559,-0.17543666,0.12026942,0.2119253,-0.16779694,-0.15961859,-0.20377745,-0.14682706,-0.044085275,-0.1748703,0.032967255,-0.08816231,-0.0840403,0.0033536986,-0.09718182,0.10136876,-0.08911031,0.1509713,0.20692621,0.12888107,0.022796037,0.15495546,-0.06532253,-0.037455868,-0.0716573,-0.1497377,0.06620525,-0.08449569,0.16655287,
                       0.13715969,0.026644154,0.07770648,-0.21702959,-0.18708822,0.030999722,0.107829,-0.11426279,-0.15964165,-0.1385446,-0.096506745,0.011635813,-0.1658694,0.10730953,0.14526632,0.058686927,-0.18308029,-0.076591454,-0.04438089,-0.042084955,0.012243683,-0.19295244,-0.18059617,-0.033852115,0.071105875,0.11781532,-0.15778188,-0.057118125,0.056640636,0.021976026,-0.14983197,-0.12092476,
                       -0.12316625,-0.14110604,0.054891422,0.18038899,0.14796954,-0.018876329,-0.022519052,-0.041722596,0.17816088,-0.08126985,0.15008098,-0.012678448,0.103390835,0.011144398,0.1353082,0.0756268,-0.15787351,0.004749957,0.12032368,0.02177172,-0.113457136,-0.1525497,0.0933124,0.153529,0.1235104,-0.14260022,0.072670564,-0.10145316,-0.18998449,0.056262303,0.12117718,-0.08520671,
                       -0.14753817,0.20471482,0.0025285669,0.08464423,0.013951843,-0.104246475,0.037204612,-0.119391166,0.052454356,0.088456444,0.018545277,0.035003234,-0.0495359,0.1704896,0.14865969,0.21035045,-0.06310341,0.1298218,0.17010851,-0.084438145,0.13303912,0.13805676,0.12405656,0.20416492,0.0059749302,-0.14637649,-0.11223243,-0.02972353,0.03151635,-0.20950846,0.11046402,
                       -0.06818409,-0.17004177,-0.19750383,-0.1584577,-0.05567185,0.18740736,0.17794858,-0.002885901,0.00030809626,-0.16852218,-0.16430317,-0.09463525,0.14042358,0.09058109,0.10418139,0.0068038017,-0.19144301,-0.03751852,0.14445789,0.09514234,0.12727042,0.018906275,-0.19606332,-0.08662307,0.06396093,0.0247808,0.19710252,0.01839757,0.07900999,-0.13029136,0.07405126,0.043290723,0.1360799,
                       0.1714743,-0.14913854,0.055170383,0.19362305,-0.021789318,-0.010375221,0.14641857,-0.17805612,0.007483098,0.06416356,-0.11157358,-0.031487424,0.090649806,0.1982971,-0.15182011,0.1860964,-0.05418195,0.060340583,-0.031074518,0.065962166,-0.0506965,0.11950577,0.061046258,-0.20999123,-0.012537585,-0.16594948,-0.17604898,-0.020623084,-0.10469867,-0.10007573,0.1539092,-0.1738062,
                       0.07640814,-0.15761855,0.035677556,0.1122344,0.013865578,-0.028628077,0.14032364,0.127759,0.062782004,0.06587544,0.17384472,-0.026207235,0.17669429,-0.029861832,0.013167383,0.18661977,-0.080633484,-0.13403164,0.09351632,0.14441231,-0.15185848,-0.15226428,-0.030123947,-0.12796843,-0.042106383,0.1821365,-0.024855642,-0.07682034,-0.05460744,-0.038377527,-0.044969182,0.026647879,
                       0.0909084,-0.07260046,0.012082759,-0.20721424,-0.22643131,0.11150682,0.10469194,-0.1620486,-0.19988056,-0.08852412,-0.0076750517,0.05225903,-0.040659767,-0.055364966,0.069501616,0.17276059,-0.15123986,0.033094004,-0.08088423,-0.15669551,0.16068383,0.030751454,-0.0023924918,-0.006473109,-0.08235572,0.0065650893,0.069084145,-0.122999005,0.10796716,0.2007422,-0.13990991,
                       -0.09221664,-0.03009069,0.051875744,-0.07998271,-0.16368271,-0.07944218,-0.15594101,0.024361169,0.04805227,0.12141316,0.14001615,0.08279756,-0.20232521,0.03787687,0.13989538,0.083597794,0.04480234,0.058681294,-0.18289104,0.011262312,0.06243278,-0.022639958,0.103234604,0.14042607,-0.18873344,-0.14026216,0.039788797,0.098472215,0.08584826,-0.19702719,-0.0015414751,0.0017060429,0.074474685,
                       0.17623714,0.07414476,-0.055676024,-0.028498495,-0.13628326,0.09022579,-0.039038092,0.10552849,-0.12330509,0.056891028,-0.11245897,-0.10605109,0.08943312,0.19043401,0.052577212,0.092860915,0.037616923,-0.10994523,-0.011639985,0.061701052,0.13442338,-0.110305294,-0.0696953,0.14271234,0.07576145,0.12621595,0.15420549,-0.036886934,0.123439506,0.116478704,-0.014651535,-0.07603011,
                       -0.124743685,0.102216914,0.051381346,-0.15999457,-0.059011564,-0.008845315,0.14848071,0.14997983,-0.04838716,-0.037417017,0.08112833,-0.10629106,0.012871573,0.06092163,0.026205506,0.12424114,-0.14791723,0.15380777,-0.20186362,0.15935673,-0.010927692,0.12525007,0.16510908,0.044906836,0.16998865,-0.061076228,0.025998656,0.10790194,-0.13612427,0.15539129,0.13100383,0.05315563,
                       -0.09459947,0.06114307,0.17627425,0.07739084,-0.17351587,-0.09576309,0.10937233,-0.020437274,-0.16663389,-0.14765197,-0.09557573,-0.037655156,0.07798773,0.067040086,-0.08561769,-0.17250423,-0.03513563,0.10306058,-0.11033733,-0.16603379,-0.085303955,-0.12630631,-0.014668803,0.11330878,-0.023972478,0.10989592,-0.1727245,0.052913718,-0.011213476,0.08178469,0.061568305,
                       -0.09644888,0.07520197,-0.09173252,-0.0005648477,0.17051543,-0.1266451,0.00513265,-0.21451138,-0.02907483,-0.087595634,0.02846897,0.118609756,0.17000303,-0.028620707,0.038199086,-0.048846055,-0.039805703,0.04156691,0.1418493,-0.017721057,0.18352544,0.067439415,-0.071169846,-0.14632359,-0.030868508,-0.10474702,-0.05667296,-0.0459287,-0.09969597,-0.16333722,0.1721616,-0.13917468,-0.17318405,
                       0.10599832,-0.045410264,0.16569495,0.017900107,0.1107084,-0.018958626,-0.14835346,0.13732933,0.10626967,0.042079125,0.19509679,-0.13753597,0.15484925,-0.060207054,-0.12381197,-0.024374222,-0.101510815,-0.115644135,0.08480588,0.009555198,0.0230516,-0.12038045,-0.024716346,0.1721215,0.011562242,-0.017923834,-0.04396775,-0.15465178,0.044762593,0.005525337,0.051900692,-0.09425909,
                       -0.13234386,-0.19078292,0.20603086,-0.16290632,0.09685176,0.20051394,0.09060741,0.20101485,0.15930398,-0.013134393,0.039028037,0.105786264,0.1892826,-0.093079574,-0.053276464,-0.16266508,-0.033281878,-0.022099653,0.028736023,-0.09543282,0.14603785,0.13697,0.20106341,-0.07243001,-0.008780404,-0.0768012,-0.060962,-0.044451028,-0.17523704,0.1624514,0.0060699168,-0.15663807,
                       0.031339314,0.17689843,-0.012832296,-0.20969562,-0.017667636,-0.057989188,0.046220377,0.14823551,0.0015908754,-0.12309892,-0.12341619,0.17734131,-0.025927104,0.11476353,0.13492087,0.108363934,-0.14401904,-0.09312623,-0.014222438,-0.15036766,0.1806633,0.049867515,-0.12846988,-0.17041984,0.09405421,0.055206493,-0.1870711,-0.12231904,0.019927092,0.14604676,-0.18764596,
                       -0.15659362,0.06809509,-0.09853688,0.09101564,-0.13054468,0.0024702037,-0.09737946,-0.120549835,-0.0005233502,-0.06973322,0.1908102,-0.028403403,-0.12963653,-0.075729355,-0.03939969,0.1773574,-0.15871932,-0.14809856,-0.026566664,0.11993326,0.03923099,-0.15795706,0.06716518,0.11855664,-0.06864305,0.14406767,-0.16866408,0.15817462,0.18332054,0.038718093,0.06990613,0.14248456,-0.13502248,
                       -0.0036636454,-0.15111233,-0.08989893,0.03825771,-0.045974962,0.043170508,-0.1287508,0.13173719,0.08928647,-0.044430133,-0.13706481,-0.08514485,0.18627936,-0.12642683,-0.22971448,0.10622201,0.045755845,-0.03381967,0.013121123,0.16790207,-0.02465502,-0.099299856,0.04081195,0.025201663,0.14288217,0.08439061,0.121742964,0.08647672,0.08148519,0.14517455,0.16807547,-0.13194332,
                       -0.084714994,0.04908472,-0.12746273,0.1147106,0.112821855,0.039266963,-0.093153104,0.10596635,0.02027461,-0.105180934,-0.037145022,-0.043666393,0.024863696,0.12073874,-0.18100393,0.084738344,-0.028019678,-0.015276503,-0.12850478,0.05690967,0.07296656,0.19347867,0.049534973,0.070075504,-0.046696935,-0.11915509,-0.11628761,0.038764,0.17197208,0.027588781,-0.15048452,-0.08665785,
                       -0.18142457,0.00617996,-0.10239783,0.09318267,0.04748807,0.17510542,-0.07691635,0.1849379,-0.18768644,0.043038126,0.08965078,0.18789797,0.015236488,0.1702031,0.119710974,-0.1766264,-0.17782253,0.13770221,0.18254499,-0.080438554,-0.17873499,0.02136589,0.060203888,-0.05164228,-0.1621719,0.050947696,0.059032723,0.16255963,-0.19692521,-0.03025592,-0.09684111}; 



float saved_biases[5] = {0.00021693882,-0.0017242683,-0.00020214968,-0.0029411218,0.0053924327};