0.3189453,0.0072715688,-0.2056477,-0.12305721,0.23689856,-0.18480165,-0.061286535,0.06560476,-0.001084017,0.47212243,-0.1178048,0.47691318,0.017642885,-0.2856655,0.16007246,0.20951997,-0.3029694,-0.21407515,0.11266515,-0.33615246,-0.042339083,-0.19568858,-0.24090199,-0.11924927,-0.16769159,0.28897905,0.05209124,0.13586102,0.030855594,0.067599535,0.09043101,-0.06987963,-0.020537749,-0.16992483,0.17398588,0.2558836,-0.33914837,-0.18281919,0.06480389,0.2233646,0.22558191,-0.22578114,-0.28821167,0.3092566,-0.392396,0.15801542,0.18739086,0.27200583,0.0201463,-0.04549184,0.16434132,-0.11876764,-0.117088504,0.18387647,-0.3438895,-0.17459683,0.13001144,0.09879465,-0.33109722,0.030448752,-0.14005452,-0.086427584,-0.14912184,0.31940162,0.24738626,-0.38948634,0.19857292,0.2577422,-0.3288929,-0.20800862,0.024715021,0.34968203,-0.046000216,-0.48744538,-0.17700094,-0.119465835,-0.3643244,0.15902029,0.03574243,-0.30131537,-0.3530125,0.30959427,-0.21648362,0.33066067,-0.12884045,0.21724664,-0.040849816,0.035106067,-0.019696195,-0.22394219,-0.037607927,0.08171004,-0.3234682,0.036066,-0.23940533,0.16737041,0.20880349,-0.21630466,0.18010399,0.13020548,-0.15217076,0.10161811,0.030563377,-0.196406,-0.29681426,-0.02478536,0.09396316,-0.5205338,-0.29431066,-0.065508395,-0.14589605,-0.044936553,0.22633076,-0.33703095,0.07387123,0.38442913,0.20336272,0.1378616,-0.08889746,0.047153108,-0.5341765,-0.023740849,0.093694724,0.1500471,0.022263918,-0.12266645,0.17600615,0.035731617
0.105487205,-0.0210962,-0.20676653,0.12960139,0.38907975,0.102341145,0.058637913,-0.15210293,0.24308152,-0.31958184,0.061974026,-0.19421674,0.048784114,0.016937807,0.058694884,0.22334729,0.28530386,0.2243338,0.3067117,0.18602392,-0.065780446,-0.006597114,0.0034914766,0.052817546,0.11751519,-0.46512994,0.2925617,0.14964686,0.121131055,0.011938045,-0.068859525,-0.14896962,-0.1019497,0.014188446,0.121622026,-0.14543585,-0.4342231,0.065037265,-0.32110116,-0.17222957,0.04903517,0.09722913,0.35778895,-0.042130783,0.3087652,-0.021667501,-0.2856617,-0.034471452,0.022704106,0.40549648,-0.040589336,0.07991486,0.027194511,-0.34222266,0.12973098,0.06409473,-0.20863181,-0.32370883,0.024146674,0.016844545,-0.03866641,-0.12620948,0.0140557,-0.15806891,-0.22911198,0.17840637,-0.11391406,0.34599778,0.5294171,0.08004496,-0.044909175,0.2647126,0.18781608,0.14805032,-0.3350372,0.06680376,0.15563928,0.14731492,-0.45159048,0.046644974,0.26244146,-0.30800134,-0.19222184,0.2537835,0.10835763,0.27292204,-0.20454377,-0.025992764,0.2793775,0.0024122733,-0.092664644,0.04496561,0.2020162,-0.20958635,0.05252354,-0.1470392,0.35355687,0.22242656,-0.13146491,-0.12737645,-0.04594551,0.005995033,0.32042783,0.17830426,0.04788806,0.20831348,0.0040525766,0.19556983,0.1718833,0.09815989,-0.17412914,-0.2185493,-0.36561742,0.18095833,-0.21149936,0.14181185,-0.23998135,0.2464156,-0.10482329,0.0028717062,-0.29467472,0.37956288,-0.113903455,-0.14663179,-0.09629912,-0.07024129,-0.023394179,0.134646
0.14506012,0.037752114,0.36370987,0.0019496635,-0.45650843,0.040806264,0.19190322,0.13018079,-0.3966139,-0.17356868,-0.09059234,0.33602113,-0.241986,0.053694047,0.17631322,-0.26883292,-0.103063844,0.19859879,-0.3164696,-0.31627834,0.14981402,0.04281577,0.13748147,0.18339339,-0.058114704,-0.24920449,-0.21620487,0.10404462,-0.23093952,0.123213775,0.10912871,-0.3422578,0.11850976,-0.08934879,-0.1344185,0.007760943,-0.21104597,0.108370245,-0.037731674,-0.004856198,-0.37259898,0.1537471,0.2200932,-0.11866278,0.27724254,0.03707929,-0.16902398,-0.27684972,0.06675895,-0.015019816,0.20033775,0.21523462,0.3185687,-0.21242154,0.25542593,0.08830373,0.21955563,0.04083219,-0.013935758,0.094004065,0.13219632,-0.008762301,0.030093133,0.47516668,-0.19930486,-0.4501752,0.07957957,-0.16453698,-0.36005676,-0.115210496,-0.30139583,0.12051864,-0.14556944,-0.2097194,0.015539926,-0.33130518,0.013865813,0.11483462,0.03506016,0.09036794,0.12157231,0.019119957,-0.14496721,0.24690834,-0.2599392,-0.31926876,-0.08134427,0.07889798,-0.36095986,-0.11728303,0.2048038,0.117186874,0.1683896,0.029383043,-0.055353507,-0.040216763,-0.29602966,0.10100058,-0.29014954,-0.03404312,-0.26805937,-0.27836922,0.23273052,-0.15521298,0.065432906,0.1349341,-0.07960655,0.49616733,-0.015619291,0.12594488,-0.009913135,0.13275625,0.2280989,-0.099072754,0.13286375,-0.16858782,0.027182719,0.05326589,0.12662101,0.13898037,-0.6046393,0.26423058,0.15529762,-0.58606607,0.07150742,-0.22825052,0.28989884,-0.25312802
-0.21274385,-0.19520399,-0.020859467,0.02609445,-0.043102443,0.14761929,0.19423884,0.20681226,-0.46785492,0.21278958,0.054482616,-0.09829762,0.08242793,-0.09701734,0.079601675,-0.15235466,0.09673144,0.25000235,-0.10956032,0.009119446,0.056500454,0.1661118,-0.42229137,0.07724354,-0.43319508,0.10780485,-0.002998747,-0.33473456,0.014816485,-0.026336627,-0.03463836,0.18632218,-0.22184026,0.24239458,-0.27679664,-0.034779888,0.20246726,0.19510901,0.09171135,-0.10471708,0.07020395,0.05635895,-0.38265958,0.05473136,-0.38661072,-0.28937906,0.011223789,-0.07711623,0.28242844,-0.024376808,0.016511751,-0.28253084,-0.10862012,-0.12677401,-0.32190385,0.1596093,0.16480069,-0.15611614,-0.3589568,0.16444387,0.19173186,0.18514968,0.08877622,-0.20728983,0.18742895,0.31845975,-0.31544206,-0.6229368,-0.2646923,0.027488422,-0.037504204,-0.25198692,-0.22889598,-0.116019666,-0.38574553,0.16524498,0.16001031,-0.2687899,0.13612197,-0.27551353,-0.3390002,-0.17653537,0.28658515,-0.29428598,-0.51992166,0.067865185,0.065190926,0.050970998,-0.33869535,0.18147588,-0.38767108,0.16962796,-0.34958583,0.13384765,-0.28658032,0.1383144,-0.2742562,0.18218903,-0.346041,-0.084378354,0.16599672,0.19657852,0.29302648,0.19267075,0.08345992,-0.3454402,-0.20749907,-0.40807143,-0.3548921,0.07236115,0.0045311437,-0.01775256,-0.092283525,0.10245101,0.15248597,-0.028192032,-0.3055281,0.22437008,0.069118105,0.12296577,0.40229887,0.007133605,-0.41469374,0.1197355,-0.25025204,0.024844497,-0.6498319,-0.13499644
-0.5092908,0.050535735,-0.26787585,0.18256636,-0.42033553,-0.036323685,0.04359558,-0.18976893,0.33987966,0.07569452,-0.24043837,-0.64763135,0.19193684,0.040843632,-0.28434646,0.20993477,0.28291428,0.077608414,0.26453555,-0.23039073,0.03836215,-0.11104068,0.20815125,-0.03337232,0.40793672,0.003847777,0.07198991,0.3311,0.29190442,-0.320154,-0.112001434,-0.21689014,0.08337105,0.03983039,-0.27790308,-0.19336255,0.122776635,-0.33940244,-0.012719183,-0.27962914,-0.274051,-0.014649497,-0.056441158,0.33010465,0.046514664,0.18064089,0.061936576,0.21025008,0.23950015,-0.4834998,-0.1547586,0.3212183,-0.18209215,0.08370692,0.21044448,0.11581179,0.09751278,0.2402764,0.14693053,-0.083057925,-0.23192048,-0.27671602,-0.42321998,-0.6374959,-0.15482765,-0.11905647,0.077981606,-0.31263936,-0.301242,-0.13394059,-0.17805162,-0.27243868,0.21807368,0.12581858,0.4786395,-0.0065547214,0.12449278,-0.13606709,0.05274343,-0.1697025,0.094662815,-0.12318524,0.18477751,-0.23966727,-0.12729056,0.09532583,0.14019169,-0.0666419,0.41722786,0.024762528,0.28523338,-0.32008174,-0.19173256,-0.18421577,-0.18950006,-0.06043584,0.18797022,-0.46509454,-0.1958631,0.11320786,0.08776982,-0.2241441,-0.25061935,0.077176735,-0.04916346,0.005259349,0.15098225,0.031376675,0.3677096,0.095825166,-0.03942299,-0.1342589,-0.11427415,0.14492647,-0.33873463,-0.26687554,-0.053860314,-0.054316815,0.20582786,-0.16043821,-0.12779579,-0.22860512,0.023491528,-0.14437884,0.22195025,0.084593765,-0.14231813,0.21419655
-0.09637495,-0.2400994,0.20149463,-0.13694121,0.013854966,0.0065120007,0.01923952,0.1717222,0.18173301,-0.35703155,-0.049015213,-0.008714129,0.14061949,0.050617967,-0.20766063,0.05236248,0.23497042,-0.17322843,-0.15828189,0.3642345,-0.18805008,-0.14740859,0.010193285,-0.20037295,-0.3303446,0.1519501,-0.4930763,-0.23998454,-0.29032508,-0.079604656,-0.2895114,0.119129345,-0.068601966,-0.27324253,0.23973688,0.15652631,0.20765427,-0.15483356,0.2427977,0.31311786,0.054543365,-0.24730417,0.33832067,-0.42746538,-0.069366604,-0.24544236,0.09905142,0.19613452,-0.48380914,0.32081258,-0.21599433,-0.25007054,-0.231689,-0.088738,-0.25903964,-0.3560396,-0.038066734,-0.028982028,0.10386192,0.0916978,0.2516418,0.15533578,-0.00031452064,0.11953047,-0.11480797,0.26035646,-0.07304921,0.061602566,0.37358773,-0.09566243,0.058922358,-0.06760876,0.09826561,-0.35207805,-0.23449707,0.19363035,0.2563121,0.2565996,0.19968879,0.1502453,0.3661343,-0.16999166,0.17014387,-0.6085548,0.4081109,0.35325003,-0.0363953,0.018172514,-0.17504396,0.12343843,-0.28335062,0.010059929,-0.08981893,-0.116174944,0.21429025,-0.02862316,-0.09591971,-0.15000968,0.27511084,-0.032255236,0.094895035,0.2756489,-0.46983013,-0.08928018,0.021684388,0.016285468,0.062383264,-0.2313642,-0.16627014,-0.1511526,-0.19708705,-0.098296516,0.15544692,0.28070593,0.16417633,-0.16532284,0.14439668,-0.39205304,-0.3610199,-0.03550216,-0.08984208,-0.38808516,0.17867394,0.22742973,-0.3435125,-0.26628143,-0.262585,0.15984997
