0.030256609,-0.014107444,0.18691224,0.0054516285,0.05572796,0.17311127,-0.026166622,0.025470711,0.12267128,0.117505476,0.39606112,0.2699807,0.016573317,-0.017996171,0.1908569,0.002574306,-0.04223148,0.2814597,0.34139296,-0.050819255,0.08534499,-0.0027285484,0.39727533,0.32769904,-0.028064387,-0.19679682,-0.18265782,-0.06468032,-0.28116834,-0.26534376,-0.07393927,-0.008937832,-0.35207045,0.008300197,0.3489315,-0.046493143,-0.121969156,-0.14464913,-0.34276304,-0.12032554,-0.3176083,-0.31537855,-0.27944782,-0.026840651,-0.24603066,-0.25301895,0.27145162,-0.27078018,-0.11426013,-0.11075563,0.041804567,-0.28394905,-0.014457366,0.0455133,-0.39508924,-0.01660577,-0.029165825,-0.10601554,0.32823375,-0.024259357,0.108381614,-0.21235467,-0.026184155,-0.13086459,0.27564368,0.0539413,0.07741552,0.026274085,0.13119629,-0.25563723,0.21657218,0.11140435,0.041575693,-0.36281005,-0.24442576,-0.4544986,-0.020685643,-0.20279004,0.093190946,-0.005548173,-0.088321686,-0.14294477,0.26468587,0.009540833,-0.23601499,-0.33288404,-0.09773864,-0.4643906,-0.21454427,-0.14703281,-0.16021411,-0.04577832,-0.17259656,-0.021371711,0.16871366,-0.25074893,-0.18724224,-0.22192794,-0.11470828,-0.14633892,-0.10628989,0.07377403,-0.2853142,0.04395487,-0.091591895,0.103880025,0.2210386,-0.21555464,-0.10365199,-0.21685718,-0.11040399,-0.16966951,-0.031030862,-0.04653215,0.013296528,0.047272913,-0.09555836,-0.0301194,0.21908522,-0.14497219,-0.084705606,-0.057544716,-0.12964685,-0.29129332,-0.2522014,-0.27604535,-0.056613423,-0.0047228,-0.254408,-0.026722353,0.32181904,-0.11097071,-0.07719096,-0.14850216,-0.0028774294,-0.11225177,-0.058856875,0.015576849,-0.112960406,-0.038435344,-0.08183941,-0.018814648,0.36863405,-0.046543777,-0.033884987,-0.045821846,-0.03285454,-0.007173801,-0.024909219,-0.014901644,-0.008748197,0.03639919,-0.07281865,-0.014311116,0.36314955,0.24100482,0.0040202234,0.17985052,0.189307,0.08959473,0.013607966,0.21546246,0.020865262,0.049278688,0.12972996,0.19058502,0.5054764,0.27166557,0.03270235,-0.07599153,-0.14589252,0.08593175,-0.3730439,-0.06408799,-0.120670676,0.038505934,-0.30037856,0.101840734,0.4697316,-0.021006133,-0.05998246,-0.32538706,-0.17043617,-0.34397003,-0.21298331,-0.1292579,-0.31763822,0.04675152,-0.14898784,-0.29463384,0.33526722,-0.21754436,-0.10350412,-0.2560853,-0.045730725,-0.039653633,-0.043700743,-0.020287285,-0.08535944,0.010270785,-0.0697979,-0.26782548,-0.21507442,-0.07283242,-0.1439337,0.03161028,0.06363716,-0.040937144,-0.005759651,0.0144811,-0.10902534,0.029724274,0.04621456,-0.06627146,-0.08366868,-0.035536155,-0.12051689,-0.0026046552,-0.17004849,-0.030403549,-0.06534517,-0.1980106,-0.04392404,-0.05815102,-0.095893346,0.17957564,-0.23119898,-0.09521938,0.18185446,-0.12981436,0.027165655,-0.0034412383,-0.06077514,-0.019436758,-0.10894007,0.26795152,-0.08949829,0.06698565,-0.26781932,0.01530311,-0.063140325,-0.18209405,0.07475387,-0.23279504,-0.013513326,0.020935811,-0.011737619,0.18652543,-0.046150785,-0.22065285,0.15407874,0.10612403,-0.0896359,-0.09130573,-0.07172329,-0.21548782,0.05044221,0.0692208,-0.025295505,-0.63440627,0.025571847,-0.05875754,-0.026616327,-0.022236843,0.13422184,0.014044215,-0.51200575,0.09461221,0.0076585147,-0.3488427,0.09473418,-0.03679351,-0.13950296,-0.08522332,0.21017691,0.06298752,-0.11719202,-0.15561374,-0.08007793,-0.16431415,-0.1550463,-0.1923423,-0.098407,-0.16813177,-0.14233762,-0.1912477,0.1869876,-0.059576396,-0.13789225,0.004932213,-0.37612474,-0.04669483,-0.17641024,-0.45115006,-0.18422802,-0.06957328,-0.2382489,-0.12159881,0.19738838,-0.20758426,-0.12941933,-0.013882712,-0.045708366,-0.031692658,-0.06762841,-0.041523952,-0.20923813,0.008999504,-0.13198444,-0.10110179,0.36691472,-0.3227285,0.025539225,-0.013808398,-0.002357985,0.0099166995,0.004216379,-0.019591985,-0.017204456,0.0037541718,-0.08520757,0.0014523056,0.37415126,0.24463004,-0.010177559,-0.3126022,-0.13005635,-0.2012439,-0.048566967,-0.12638073,-0.052444894,0.04233764,-0.04416036,-0.13260578,-0.17722477,0.004280131,-0.0026485217,-0.03494114,-0.081178464,-0.024039669,-0.043917045,-0.07588299,-0.11070309,-0.0023796274,-0.03281202,-0.1861194,-0.5604642,-0.03010636,-0.3045982,-0.058874372,-0.09557542,0.005148646,-0.020976773,0.0023221495,-0.083975665,0.1417475,-0.04817836,-0.15749085,-0.27904037,-0.109965295,-0.09940758,0.07063962,-0.044900082,0.025956096,-0.04220964,0.025398478,-0.05454315,-0.11412012,-0.038452387,-0.031524822,-0.7086645,-0.07459525,-0.2262192,-0.07739505,-0.16725238,-0.11418002,0.0699016,-0.15779316,-0.04862671,0.052421153,0.053207953,-0.26235664,-0.5794822,-0.05240326,0.10041602,0.03162676,-0.11439857,0.029373901,0.09058266,-0.15895212,0.008170763,-0.032829557,0.0019244651,0.024237042,-0.25899884,0.041102525,0.13675733,0.018832672,-0.077845156,0.018760657,0.046464015,-0.0922569,-0.062030625,-0.40331095,-0.01177198,-0.032917388,-0.32586998,0.05148693,-0.056397304,-0.01716976,-0.14856416,-0.120075345,0.036509003,-0.20759952,-0.036177427,-0.97319084,0.06561573,-0.089496695,-0.119595684,-0.022903578,0.0507214,0.034650937,-0.2071977,0.025913669,0.05710328,-0.2861479,0.04659195,-0.4715625,0.07587398,0.0054061627,-0.017223144,0.043169107,0.22368817,0.07158295,-0.07863291,0.0106670195,0.03636833,-0.22938886,0.11133985,-0.48308122,0.027548103,-0.1163718,0.08852863,0.11067351,0.11071369,-0.10073492,-0.3744119,-0.04784125,-0.012074106,-0.6178653,0.13343295,-0.3293198,-0.15154299,-0.19261664,-0.35894516,0.007241372,-0.13527195,-0.24153171,-0.34338766,-0.29767874,-0.28443518,-0.4577167,-0.12856798,-0.2358665,-0.22310719,-0.27138007,-0.07722987,-0.15369196,0.013504565,-0.08634011,0.19753884,-0.074501395,-0.102583416,0.21375062,-0.09007208,-0.03021761,-0.08871492,-0.09121362,0.28395596,0.33406588,0.061425988,-0.13827394,-0.111046344,-0.20593509,-0.249097,-0.07671054,-0.11653702,0.009885977,-0.08858789,-0.020608414,-0.022180075,-0.13667245,-0.11504743,-0.06577778,-0.044908773,0.015981553,-0.058171317,0.006253337,0.035969004,0.020018212,-0.04605082,-0.07569452,-0.44589114,-0.22325766,-0.31251186,0.019271366,-0.07581699,-0.118738435,-0.05913434,-0.0034607456,-0.017735682,0.11313581,-0.08909585,-0.1338711,-0.39023307,-0.13995156,-0.14894678,0.0032215728,-0.0042022225,0.06485962,0.0035140961,0.020204367,0.06240582,-0.2374836,0.017417636,-0.06169273,-0.38989982,-0.09341399,-0.26355284,0.025259312,-0.09914135,-0.1081829,0.047227044,-0.13659593,-0.010151557,-0.050658625,-0.03553765,0.049687263,-0.2251689,-0.25784862,-0.15651283,0.002808841,-0.09728973,-0.061093617,0.06005702,-0.06570551,0.03938715,-0.35561863,0.030120164,0.040890336,-0.026964204,-0.18136697,0.17159332,0.10329817,0.021520723,0.018760331,0.065693974,-0.08678349,0.10174482,-0.3007942,0.011349451,0.0754394,0.17746846,0.012192961,0.3655779,0.067315444,-0.009007917,0.015142157,0.030671375,-0.22429773,0.084139355,-0.5770601,0.12788226,0.08951366,0.44032586,0.16369934,0.25234613,0.07521419,0.32595196,0.0080574155,0.09542586,0.07774605,0.1523263,-0.7716543,0.08503632,0.076599576,-0.041658536,0.058894835,0.28400046,-0.037533917,0.14709496,-0.010091339,-0.0037871606,-0.0057606436,0.12297947,-0.27581334,0.07749235,0.028873762,0.22476019,-0.11757656,0.12163612,-0.035817407,0.18441972,0.042044073,-0.0075152186,-0.048431184,0.09263794,-0.09618725,0.012912556,-0.012772591,0.10892121,-0.12497071,0.026667729,0.099077955,-0.17298837,-0.056444142,-0.38825792,-0.45226008,-0.063428044,-0.11575799,-0.36591616,-0.18786563,0.0370537,-0.32585907,0.22444881,0.3691559,0.31827927,0.013642566,0.24964239,0.4043815,0.27536422,-0.018631913,0.18730824,0.3248417,0.50694156,0.3981214,0.23857984,-0.0826434,-0.21257472,0.12540431,-0.07270981,-0.1998946,0.13594788,0.06879346,-0.08926214,-0.0525412,-0.13896452,-0.03853509,-0.08571486,-0.04762659,0.17089085,0.0364773,0.11193064,0.15350212,-0.014636066,0.24220888,0.082518496,-0.06127503,-0.4410646,0.08693707,0.06998797,0.13009472,0.01288768,0.052836798,0.027821807,0.033258077,0.08805873,-0.092855394,0.12125177,-0.054661103,-0.3787032,0.042424433,0.18166536,0.100046694,0.026400572,0.044932388,0.044947494,-0.0316426,0.10140424,0.27181754,-0.028916344,0.0065829917,-0.16212289,-0.09773992,-0.13578296,-0.04553842,-0.161889,0.039637815,-0.008600736,-0.11612345,0.03249445,0.09083642,-0.023974173,-0.05348823,-0.21172903,-0.14828055,-0.22561908,0.026620602,0.17584427,-0.0005856287,-0.03136293,0.025070518,0.034350537,-0.0910963,0.050840862,-0.005275387,-0.14161496,-0.22568572,0.087918825,-0.07347527,0.3489627,0.14471556,0.004837786,0.24382424,0.080588356,-0.20770712,0.014910562,0.0653708,0.056359626,-0.2267978,0.38565865,-0.05829211,0.2708047,0.0062481742,0.03379157,0.13348715,0.0427568,-0.24396943,0.054414447,0.10536922,0.13569403,-0.0719086,0.20514365,3.198082e-05,0.32624808,-0.010823094,0.020828122,0.29037684,-0.020194398,-0.6443579,0.034143206,0.15834592,-0.12749308,-0.44324523,0.2545085,-0.15809754,0.3853461,-0.051502883,0.013468463,0.24863179,0.013324286,-0.29043576,-0.038858134,-0.0033311653,-0.009705051,-0.33319786,0.28273323,-0.023902265,0.4779972,0.059208434,0.13282347,0.58884716,0.089682,-0.15009682,0.06954383,0.020070195,-0.21632156,-0.12342755,0.04138428,-0.14615494,-0.30820817,-0.20097405,-0.22502224,0.07324928,-0.09906189,-0.023762783,-0.26183295,-0.4748193,-0.5254557,-0.1891639,0.019153157,0.26784003,0.1769628,0.39387053,0.2069856,0.20978709,-0.16821702,-0.024863059,0.061097458,0.24550378,0.44506317,0.16730228,0.07131795,0.011892495,0.054714676,-0.17803055,0.04132102,0.08203675,0.06880355,0.044511516,0.073178224,-0.0036999083,-0.17998144,0.15501282,0.16947463,0.096718214,0.21793778,0.1871179,0.12546493,0.22552736,0.20571958,0.013087188,0.1525953,0.07488172,-0.52613026,-0.012694828,0.094846494,0.0948247,0.16103166,0.02666367,0.18147747,0.09463006,0.14177327,0.22804797,0.16264625,0.04843295,-0.17961442,-0.09802405,-0.059377614,0.13389671,0.13925649,0.18132995,0.02182424,0.113302976,0.26449874,0.24824409,0.09026357,0.01811791,-0.39022517,-0.16990826,-0.037740964,-0.09397763,-0.124324724,0.08637317,-0.08023613,-0.10360905,0.087088756,0.04899885,-0.107202426,-0.09998459,-0.4424591,-0.38190517,-0.21848519,-0.21699497,0.19438063,0.02522157,-0.20772506,0.03745944,-0.20319158,0.08286489,-0.23414533,-0.0722801,-0.0055994675,-0.68674654,-0.47753388,-0.30316287,0.61421674,-0.22795007,-0.17764397,0.19696766,-0.3370273,0.0024018374,-0.20727581,0.027710022,0.16172987,-1.0625271,-0.10044961,-0.28696293,0.47192582,-0.19795927,-0.09973831,0.39484903,-0.12110249,0.0690565,-0.04191777,0.028639045,-0.16029456,-0.3655433,-0.039527938,-0.005959067,0.31078523,-0.026264654,0.07022551,0.25044405,-0.071618766,-0.26903313,0.089961424,0.029421005,-0.101056784,-0.27457035,0.2277539,0.11206205,0.4282799,0.13404466,0.1699184,0.35863325,0.10833685,-0.12516892,0.12824897,0.07044361,-0.41691858,-0.32682183,0.26239127,0.07600028,0.58100283,0.13145946,0.2096263,0.63859105,0.08415227,-0.12671678,0.2650518,0.24737442,-0.48464632,-0.09072089,0.11165893,-0.07170398,-0.23303533,-0.082531564,-0.097480014,-0.09217289,0.19794528,0.014264663,-0.17850475,-0.24789637,-0.851461,-0.13044997,0.008434038,0.017752042,-0.06996814,-0.14151096,-0.11136726,-0.0638482,-0.07751387,-0.0066413553,-0.11256541,-0.06455956,-0.17449312,0.00090563163,-0.21254972,0.12672468,0.20273937,-0.036056068,0.14677739,0.11902067,-0.063679755,-0.0033849294,0.20885603,0.16402423,-0.31793517,-0.37448734,-0.25308558,0.25990602,0.27469486,0.36603588,0.15415432,0.32074448,0.34530938,0.04039272,0.18705977,-0.00068769197,-0.8667114,-0.43252045,-0.048913877,0.25239307,0.22200468,0.2108191,0.2341362,0.15312605,0.22129865,0.30629918,0.23650084,0.0021367401,-0.82730424,-0.21190974,-0.22797056,0.21018407,0.49989447,0.20383514,0.17720065,0.541107,0.25684673,0.198084,0.12166231,0.050293352,-0.46610424,-0.28014565,0.042048533,-0.098387755,0.30160132,0.05811922,0.016279241,0.17543155,0.22763768,0.17115435,-0.028890515,-0.10135416,-0.6754455,-0.7149845,0.13704199,-0.29727307,-0.14146583,-0.19897877,-0.32618797,-0.33377102,-0.058464795,0.3657837,-0.3094443,-0.41920027,-0.52915007,-0.9350188,-0.28964552,-0.43128493,0.27916494,-0.39019033,-0.33993196,0.31239802,-0.43841022,0.13413215,-0.28037125,-0.29517493,-0.44926777,-0.59085906,-0.2687455,-0.05621364,0.41968617,-0.04688756,0.042867046,0.47095335,-0.04841543,0.17845406,0.053161602,0.013505681,-0.10292561,-0.21928625,-0.23136806,0.18237567,0.24175958,0.043859467,0.072283395,0.1727443,-0.054330636,0.08995309,0.14121588,0.06864458,-0.30679193,-0.25719607,-0.04174936,0.09932119,0.4960773,0.24031088,0.18320839,0.49779257,0.21958242,-0.043113317,0.10109726,0.10169851,-0.2542037,-0.5209173,0.038830128,0.2699076,0.41944405,0.11054989,0.23003483,0.41399294,0.14972278,-0.20407496,0.29590613,0.28665173,-0.11355146,-0.5229824,0.19987115,0.34684172,-0.37253422,0.19734897,0.119291104,-0.095821925,0.2866703,0.04528804,0.17732431,-0.10817736,-0.65611196,-0.21158114,0.020660246,-0.27091902,-0.2440879,-0.3180973,-0.17585713,-0.2254357,-0.11944979,0.044821266,-0.21063371,-0.26349705,-0.52681684,-0.2756282,-0.055001765,0.06892162,0.29367068,0.011158259,0.1415691,0.22286639,-0.034429085,-0.17060675,0.1845109,0.13491786,-0.082435615,-0.2299956,-0.24778503,0.38003322,0.3989476,0.22160193,0.3210241,0.4792287,0.24176118,0.11282931,0.25947684,0.21658814,-0.28056294,-0.44026247,-0.019328171,0.23986737,0.41797134,0.2630462,0.19020188,0.41749117,0.42488173,0.25632814,0.21847215,0.12092018,-0.8262663,-0.63249695,-0.33274126,0.09987377,0.39406657,0.26727462,0.2815959,0.46978426,0.16301192,0.09403705,0.17708866,0.11953236,-0.8313,-0.79182065,-0.15713108,-0.08735853,0.020512205,-0.012046517,0.021269672,0.253449,0.12087059,0.42792058,0.09657527,-0.13613036,-0.677281,-0.630187,0.10194991,-0.3759042,0.15048166,-0.30156726,-0.36611825,0.14249909,-0.13399582,0.6014499,-0.25372255,-0.41930127,-0.69985294,-0.3877194,-0.15323274,-0.14894207,0.23981981,-0.30313647,-0.15081728,0.39333975,-0.123126276,-0.17108415,-0.23890214,-0.3090219,-0.865646,-0.18609135,-0.24995767,-0.009949213,0.38872638,-0.010086368,-0.0379924,0.3563839,-0.14834663,0.3888113,0.0004826669,0.032643158,0.090834826,-0.11421323,-0.183788,0.117427245,0.14145993,0.12185809,0.1578578,0.05441823,0.07088856,0.34896922,0.0716495,0.076945424,0.2388882,-0.25898853,-0.3149745,0.11487369,0.35394123,0.082293466,0.059216835,0.37047446,-0.057608575,0.113534786,0.07463645,0.17293945,0.09256743,-0.29735485,-0.006888119,0.29534945,0.19339813,0.16536155,0.21573305,0.31540215,0.15594423,-0.026938336,0.24933551,0.15753934,-0.22697516,-0.699257,0.047432482,-0.13514677,-0.05250315,0.046121795,0.016111534,-0.3228388,0.17826001,0.10290466,-0.022687064,0.11861491,-0.3874899,-0.42345452,0.049355425,-0.27242202,-0.1868091,-0.12538785,-0.29597715,-0.2032393,-0.12768571,-0.034010455,-0.27016717,-0.256862,-0.16820851,0.02994647,-0.35351756,0.18333139,0.17526096,0.12254058,0.13089256,0.123134844,-0.008383982,-0.088148534,0.124972515,0.07787199,0.09044035,-0.34271356,-0.06698134,0.07424557,0.13215022,0.057950426,0.14693831,0.11292786,-0.018672515,0.22068825,0.15724483,0.28973782,0.29268357,-0.729921,0.0013042877,0.09615858,0.24167095,0.10860727,0.17423286,0.23258926,0.16327941,0.2552301,0.22585882,0.30134982,-0.1567293,-0.39473122,-0.16011418,0.10152473,0.2542019,0.22304358,0.16755472,0.4120894,0.12310503,0.15858552,0.13946559,0.11043547,-0.59072125,-0.4850186,-0.032159068,0.03814146,-0.14071143,0.102442086,-0.006201342,0.12519486,0.16353276,0.35656023,-0.033695225,0.02855033,-0.7133538,-0.44441837,0.04311211,-0.073101,0.0227572,-0.112318665,-0.10167768,0.075396456,-0.0430465,0.26558787,-0.18771385,-0.22338058,-0.38593274,-0.09469043,-0.2154537,-0.057883553,0.05193817,-0.04157016,-0.087973356,0.067248724,-0.047519118,0.45796224,-0.14583454,-0.1340327,-0.111792386,0.1081856,0.03743249,0.062154368,-0.015305703,0.10064302,-0.06704275,0.07579634,0.0040717493,0.27435604,-0.028514326,0.008319957,0.3616784,0.08595525,-0.2180723,0.051159397,0.2589271,0.054783598,0.04514911,0.3529011,-0.11752162,0.14037071,0.047730424,0.084665045,-0.1339698,-0.06675102,-0.29612952,0.043435894,0.21540558,0.033508155,0.07945923,0.2634777,-0.06370132,-0.092379205,-0.016461663,-0.034024727,-0.45945895,-0.28125572,-0.13745207,0.034365743,0.22332792,0.06975782,0.11817078,0.2583169,0.033709485,0.043635644,0.14073496,0.20175996,-0.23882705,-0.39460418,-0.06312261,-0.011100209,0.19858325,-0.04491174,-0.1013773,-0.08758413,-0.036005516,0.099202365,-0.04670251,-0.15366857,-0.09403905,-0.28927144,-0.005432738,-0.20820595,-0.048001945,-0.2736775,-0.06586228,-0.079827696,-0.017072095,0.052933328,-0.15662865,-0.119536184,-0.49591538,0.19944327,-0.1998825,0.09863935,0.039333656,0.22165851,0.045200445,0.061235797,0.13188282,-0.054852482,-0.056944147,0.041752387,-0.09428633,-0.13731122,-0.09382748,0.017829588,0.021203857,0.0361296,-0.020453675,-0.042411245,-0.24020472,-0.1434977,-0.0004440913,0.07810523,-0.12486755,-0.5056042,-0.043459147,0.0045747985,0.037228316,0.06750135,0.00948532,-0.054823007,-0.005067635,0.041604567,0.081742994,0.065557934,-0.061883748,-0.46833047,0.05946372,0.04092786,0.16958481,0.10472068,0.13928412,0.24160136,0.035433117,-0.129554,0.088228256,0.21033385,-0.042919647,-0.32372528,-0.12009482,0.075608656,0.14535867,0.09316543,-0.055981573,0.031200187,0.18578668,-0.21331814,-0.060667723,-0.05255632,-0.13560729,-0.22062261,-0.003678289,0.048261564,-0.32435158,-0.046807878,-0.09964641,-0.24663058,-0.09591524,0.29710454,-0.066674106,-0.14149792,0.17732874,0.05955122,-0.24279717,-0.06899485,0.077505276,0.07172247,-0.12905464,0.07203679,-0.090938546,0.29533425,-0.12278274,-0.026068382,-0.006877789,0.23948886,-0.2387786,-0.084198,-0.2977531,-0.19063935,-0.081977,-0.14533822,-0.12852535,0.17301388,-0.09843949,-0.046648316,0.050701644,0.08039665,-0.17281838,0.08954082,-0.13348576,0.16691892,0.027945867,-0.13424581,0.08714077,-0.02423575,0.04484686,-0.08175352,-0.24848863,0.055168565,-0.3645165,0.12851337,-0.09610273,0.085487254,0.0074209343,0.04100409,-0.03945191,0.19558768,0.013477697,0.013881495,-0.12547967,-0.10211005,-0.19895726,-0.11633733,0.27056694,-0.13493599,-0.07470812,0.28187716,-0.19166012,0.11003875,-0.05551828,-0.03726504,-0.057209358,-0.25171587,0.11872387,-0.21792416,0.05702623,-0.24443832,-0.20197609,0.10958221,-0.030153029,0.036412228,-0.15032303,-0.24446741,-0.028571405,0.085584424,0.06522062,0.045806225,0.15496393,0.011930382,0.017592747,0.12997504,0.0031112179,0.055499926,-0.003654291,0.11106912,0.20432042,0.1273146,-0.10634434,-0.16585135,-0.05203641,-0.089618124,0.12891482,-0.1409077,-0.103906475,0.13964799,0.051845636,-0.06804325,-0.093105964,-0.30349842,-0.092848875,0.021792758,0.10071344,-0.0264538,0.044186775,-0.031363863,0.12508813,-0.40497348,0.051344387,0.0037504148,-0.15796451,-0.58121663,-0.123782285,0.038367108,-0.015995711,-0.07598983,0.049552046,-0.073795944,0.031543806,-0.003957583,0.0637191,-0.04617301,-0.13602991,-0.862683,0.12897338,-0.027385054,0.0153145585,-0.07336772,0.025138898,0.119514555,0.06782214,-0.2684183,0.084393926,0.07045497,0.040956795,-0.12439722,0.19773832,0.045830533,-0.0051002027,-0.021915356,0.059169494,0.09192175,0.03967362,-0.039601218,0.07310318,0.12127993,0.23850857,0.071328886,-0.13407275,-0.028632652,-0.3472417,-0.021224743,-0.11601404,-0.55300367,0.019366147,-0.15538475,-0.09625772,0.017145041,0.07802565,0.02666864,-0.3715619,0.097946905,-0.66907966,0.08549013,0.062058974,-0.5150476,0.031441264,-0.09524286,0.019961698,-0.1204331,-0.22253199,0.026540892,-0.48016188,-0.022009213,-0.56933415,0.102850996,0.06714645,-0.5433413,-0.090496376,0.022473076,-0.08051342,0.048406117,-0.10627393,0.006670108,-0.5817609,-0.14708087,-0.62474567,-0.102310136,-0.058225013,-0.18871926,-0.16090968,0.10903417,-0.05466535,-0.011460781,-0.017864522,-0.054683123,-0.40638298,0.13193974,-0.47395816,-0.030969193,-0.011148928,-0.31576046,0.02669193,-0.056927793,0.07230662,-0.17535704,-0.25990483,0.03448632,-0.26585352,0.06513045,-0.28970215,0.051727783,-0.067439556,0.037506733,0.019563932,0.012231651,0.004049392,-0.030403376,-0.26231405,0.13269591,0.058959268,-0.04232278,-0.0018557633,-0.25604695,-0.21675344,0.101649255,-0.038334053,0.029036436,-0.109349884,0.0027092665,-0.01960476,0.16298549,-0.02679848,0.050090477,-0.018764254,-0.012382902,-0.08139462,-0.014271182,-0.021543575,-0.045125015,-0.09571436,-0.030954061,0.007881337,0.21125744,0.10798608,0.12289267,0.15564586,0.026553055,0.028111177,0.081543736,-0.2618526,0.031488482,0.13169554,0.10956893,0.20583713,0.32700273,-0.2575728,0.01725382,0.065837346,0.06913606,0.040336646,0.049502347,-0.011966787,0.055863783,0.013859844,0.10547632,0.12207606,-0.28713375,0.23239483,0.06583037,0.060535435,-0.054798175,0.021708315,-0.031726643,-0.14348139,-0.19327095,0.07708583,0.16702314,0.16855475,-0.21363342,0.21008201,-0.1189487,-0.25679514,0.0010786157,-0.08559977,-0.24671768,-0.04946776,0.0891418,0.104177974,0.06325835,0.00047855577,0.13249588,0.2794997,-0.048605103,-0.040400043,0.013551157,0.04669679,-0.009413281,-0.09588747,0.05267461,-0.06385646,0.005150212,0.16711582,-0.043260455,0.093898125,-0.116659366,-0.0153933875,-0.08650179,-0.016225573,-0.3182254,-0.058500756,-0.27650106,0.0058444915,0.036244787,0.09390814,0.2632541,-0.4202954,-0.12444391,-0.47326154,-0.114978656,-0.0017584236,-0.6418241,-0.05235661,-0.17993808,0.001750893,0.024036884,-0.048611794,0.26862985,-0.14036584,-0.044715304,-0.62968105,-0.07977152,-0.06405406,-0.7145961,0.076769754,0.0055988487,-0.045139078,-0.06511553,-0.012195411,0.20739552,-0.28655416,-0.092340395,-0.7387265,-0.085381866,-0.070280135,-0.74099714,-0.17813759,-0.124376215,-0.06914896,0.050636593,0.08565551,-0.15303397,-0.34129867,0.046881173,-0.5691672,0.029834647,0.07471821,-0.56630844,-0.12570527,0.14926048,0.053512223,0.15416303,0.15705593,-0.2318348,-0.123625286,-0.32932335,-0.36483532,-0.027467176,-0.09715684,-0.32819596,-0.2819228,0.07644055,-0.1041666,0.05761132,0.0029249734,-0.10208453,-0.045013696,-0.2817274,-0.022334574,-0.39112386,-0.19052376,-0.013914063,-0.39120457,-0.018068613,-0.081480384,-0.07386322,0.076268315,0.09002868,0.049516365,-0.04076835,0.013883039,-0.01899975,-0.06712993,-0.00060486456,-0.016807074,-0.033565518,-0.0154971415,-0.026522856,0.40326393,0.24410494,0.06503605,0.22686493,0.118840985,0.31855792,0.18884751,0.11452209,0.120014384,0.035510167,0.0780843,0.15879051,0.23746997,0.2625535,-0.07090987,-0.35118732,-0.41025442,-0.15651964,-0.14286685,-0.4030945,-0.31401607,0.16490664,-0.11490474,-0.118874356,-0.10438153,-0.09220535,-0.02617326,-0.4423837,-0.31233174,-0.29366094,-0.22458623,-0.39085925,-0.4627162,-0.1948986,-0.16376632,-0.2294044,-0.2231156,-0.1833532,0.09282187,-0.606495,-0.6213189,-0.25639337,-0.10266952,-0.68266904,-0.54888135,-0.19959418,-0.23043312,-0.171569,-0.11227088,0.21405406,0.04836578,-0.16543904,-0.1012318,-0.25175264,-0.18788096,-0.116925955,-0.6137313,-0.1572417,-0.22845714,-0.07650952,0.08321996,0.09253597,-0.07025882,-0.23842007,0.064790964,-0.18953958,-0.037747793,0.22017111,-0.60199964,-0.1461062,-0.083244056,0.0031920818,0.0782068,0.016465591,-0.017439818,-0.13748923,-0.12906978,0.013439435,0.027986616,-0.15249108,-0.2837015,-0.03472071,0.013224785,0.052528538,0.09553965,0.13567226,0.014135256,-0.47871673,-0.4255202,-0.11252773,0.001920251,-0.36949816,-0.38173538,0.16474272,-0.0721135,-0.06213939,0.05955618,0.26583496,-0.18036397,-0.5077602,-0.11510615,-0.49510723,-0.42339745,-0.1875133,-0.32709175,-0.08052785,-0.27522373,-0.26726013,-0.15848508,0.23179021,-0.060592405,-0.33924067,-0.29273668,-0.32827836,-0.12638189,-0.2110289,-0.1297106,-0.14256822,-0.12919109,-0.27892184,-0.3006309,0.24368705,-0.0076402808,-0.13528678,-0.0983756,-0.2789453,-0.17360225,-0.1350672,-0.055069365,0.020569758,-0.16556771,-0.3615574,-0.2503577,0.17628302,0.025909398,0.026822578,0.024215646,0.01689764,-0.004296185,-0.04118363,-0.042466495,0.01216978,-0.15558463,-0.2128516,-0.023297695,0.20172025
0.19721146,0.052511644,0.1323408,0.0249494,0.015345081,0.11150987,0.072810434,0.32023227,0.045205917,0.14546186,0.40011317,0.21160048,0.23504461,0.023466725,0.1157925,0.075796574,0.009738406,0.074454874,0.079904065,0.2520283,0.009106331,0.11523457,0.4299407,0.21243365,0.17687806,-0.10635289,-0.08806586,0.06768161,-0.20754129,-0.13245225,-0.019068299,0.26460826,-0.22283624,0.14733662,0.4193276,0.01541118,0.11424944,-0.120274246,-0.324125,-0.047548726,-0.3141225,-0.31721774,-0.31607294,0.3127398,-0.2916815,-0.25154158,0.3235067,-0.26743948,-0.010742868,-0.43523458,0.10312939,-0.36786294,-0.16034988,0.030794853,-0.44032824,0.3024239,-0.2515517,-0.26546538,0.3192073,-0.12439252,0.100420624,-0.24955834,0.18280123,-0.29138264,-0.110193856,0.18155225,-0.06386849,0.32730293,-0.07789223,0.32447577,0.22400211,0.052598067,-0.008010285,-0.0006023496,-0.10681755,0.25631726,-0.21963175,-0.0057409983,-0.049910493,0.18871316,-0.1445174,0.2533325,0.25017947,-0.1491176,-0.0629086,0.10002044,0.27672794,0.2101346,-0.121063255,0.13062178,-0.17895438,0.37328425,-0.09760543,-0.23068285,0.10214905,-0.18574923,0.12963772,-0.004251884,0.29523844,0.02317725,-0.13870831,0.12383237,-0.020449527,0.40611902,-0.21125123,-0.39181468,0.26275733,0.077345915,0.059157748,-0.19037214,0.50552136,-0.5075499,-0.13412084,0.34419903,-0.08431841,0.19839181,-0.06486602,0.042133994,0.32233232,0.0506983,0.22838548,-0.20619307,-0.18385524,-0.26793647,-0.3030328,-0.45794132,-0.07987573,0.31255502,-0.3982152,-0.17265101,0.3502997,0.048628528,0.08246956,-0.40326756,-0.13158303,-0.36651745,-0.34035286,-0.27921394,-0.4558222,0.31893831,-0.43239704,-0.0832134,0.34901777,-0.31389186,0.21569483,-0.052712414,0.036219634,-0.117705986,-0.047202423,0.042336542,-0.1816402,0.26832455,-0.015074218,0.07287573,0.440762,0.12700261,0.18669209,0.026079128,0.086626716,0.08941038,0.020679116,0.097715236,0.10196003,0.25102302,0.032580193,0.07333671,0.37775373,0.2267047,0.22340311,0.15578078,0.26894218,0.11048479,0.2535404,0.22634569,-0.013604492,0.22832604,0.23615783,0.15570283,0.43040133,0.29782107,0.3966634,-0.03818131,0.12467466,-0.0030704068,0.18137291,0.18698356,0.20552354,0.29045278,0.0891061,-0.07237833,0.411304,0.25108975,0.1392748,-0.12272325,-0.12498626,-0.15959246,-0.13720866,-0.13822353,-0.16051352,0.29144156,-0.13474894,0.07936729,-0.49237126,-0.08624793,0.14383723,0.02230213,0.19970979,0.14948666,-0.13587335,0.06904896,-0.021473493,0.22871338,-0.103713594,0.035807,-0.033001952,-0.14223172,0.17554006,-0.07547129,0.20167008,-0.00043838948,0.030068427,0.14591762,-0.1383251,0.4625369,-0.09896022,-0.028903842,-0.290378,-0.139863,-0.03230255,-0.23665422,0.28409538,-0.24993533,0.10194035,0.11725746,-0.044778664,0.6283966,0.033160772,-0.31389278,-1.1481291,-0.23923895,-0.08659505,-0.021055704,0.3278274,-0.07683196,-0.11457752,0.3153423,0.06307079,0.2918379,-0.16311602,-0.2906399,-0.58063436,-0.20015389,-0.1475115,-0.1269711,0.41549948,-0.09975549,0.00764103,0.2480051,0.026824288,0.55321354,-0.107823126,-0.24168867,-0.3962219,-0.12426136,-0.12370173,-0.059386805,0.64429903,-0.1306359,-0.042011723,0.8002753,-0.034243744,0.5049972,-0.027018012,-0.0714346,-0.05945254,0.018034836,0.028899139,-0.04374224,0.15038368,0.007147717,0.040116206,0.17416018,0.0564029,0.28486726,0.024745064,-0.318647,0.23054507,0.027245104,0.0052998033,-0.094452545,-0.18301578,-0.13830559,0.016368764,-0.0883009,-0.017440444,0.12448556,0.020293962,-0.3466795,0.25030705,-0.018372446,0.06733962,-0.22661902,0.11608513,-0.31517762,-0.08466814,0.10260027,-0.18730886,0.25415924,-0.055163313,-0.016803484,0.24451885,0.021546409,0.13248542,-0.06762463,-0.3271393,-0.22375287,-0.3623506,-0.4069001,-0.24271029,0.23710717,-0.29333928,-0.34250608,0.4566149,-0.27071077,0.1657585,0.013401328,0.2818396,-0.08074888,-0.11625864,0.27761057,-0.36170337,0.28818953,0.0029485913,0.22975066,0.48828447,0.06310947,0.4445161,0.034746025,-0.10997392,-0.003705762,0.033326767,-0.047132935,0.10092014,0.21605705,0.012478972,0.077734925,0.22733389,0.12767038,0.2140129,-0.05345096,-0.10764367,-0.34869957,-0.2720218,-0.15906589,-0.25059694,0.27569416,-0.15436201,-0.11875952,0.07241124,-0.1731739,0.37108454,-0.09086016,0.038099416,-0.14130737,-0.03378705,0.0395832,-0.036388405,-0.064579666,-0.08156541,-0.11072135,-0.6751019,-0.21794085,-0.029698296,-0.22296886,0.07988514,-0.05985324,-0.13551147,0.059459254,-0.16437724,0.033920437,-0.10719798,-0.11234499,-0.67477846,-0.30553567,-0.20444055,0.008889055,0.036287628,-0.06620179,-0.045861986,0.14202076,-0.14833145,0.2640179,0.03997065,0.00843782,-0.46543008,-0.2591379,-0.030844007,-0.068796195,0.16311337,-0.12532553,-0.010571201,0.110142305,-0.016641583,0.588906,-0.030171124,-0.16140246,-0.5037183,-0.16903327,0.024406744,0.031489126,0.41804543,0.10388523,-0.049856108,0.27845955,-0.07953415,0.44179475,-0.05218341,-0.14955255,-0.3607814,-0.034221876,0.14469631,0.12807283,0.30946583,0.14266007,0.013547443,0.3017061,0.113968536,-0.0040227314,0.0077888696,-0.08285867,-0.4468989,0.14896294,0.015224103,-0.10927615,0.3360041,0.040648244,-0.021924816,0.3418475,0.08398332,0.04949769,0.017085865,0.038352527,-0.6637986,0.045846306,-0.06015406,-0.09537259,0.10346848,-0.045463704,-0.062199384,0.044283364,-0.10180512,0.08326568,-0.104311824,-0.10230932,-0.59124297,-0.2000873,-0.08443353,-0.24167958,-0.1545453,-0.24644208,-0.1932871,-0.21356265,-0.38500464,0.1641139,-0.2821614,-0.15950784,0.21948151,-0.26952395,0.13772947,-0.3219433,-0.32867444,-0.35039768,-0.34720087,-0.37948895,-0.23001362,0.28846332,-0.31351906,-0.36846864,-0.42854482,-0.06631461,0.034286637,-0.18372,0.092142284,-0.20126805,-0.45379224,0.05240867,-0.48535258,0.18801011,-0.37719357,-0.050571825,0.36826813,0.008408781,0.119547606,-0.20128533,-0.105815955,-0.24144414,0.013462235,-0.114988744,-0.34225708,0.23297632,-0.028652376,0.0086190095,-0.18622865,0.07096558,0.5033583,-0.20286846,-0.07822234,-0.43478867,-0.111724965,-0.033273295,-0.18842953,-0.22956753,-0.10006197,-0.12632917,0.070994295,0.15159594,0.6284394,0.085624866,-0.12048835,-0.047893673,0.07973627,-1.4369929e-05,0.11104254,-0.20376843,0.07801497,0.003760399,-0.3378343,0.041987017,0.19993801,-0.019247642,-0.006454192,-0.035852805,-0.05696018,-0.0367549,-0.031879842,0.064331904,0.017113157,-0.0845591,-0.6056502,-0.32304707,-0.14795154,0.11389305,-0.067338005,0.020173874,0.0031944057,-0.11043749,-0.02402626,0.03564492,-0.04877836,-0.114992656,-0.40135992,-0.29565734,-0.3179592,0.05871917,-0.17272872,0.086044066,0.118207395,0.006807241,0.032468837,0.36590242,0.08105279,-0.24470691,-0.5212312,-0.36539498,-0.5315905,-0.0009048631,0.05544625,-0.073876455,-0.013332288,0.05708461,-0.10226698,-0.0741777,-0.09202993,-0.087467656,-0.94860446,-0.34070083,-0.1438826,0.10599878,-0.16934617,0.18228877,0.028574746,0.06371343,0.16331944,0.1734529,0.031967297,-0.18259557,-0.8771691,-0.331374,-0.061951753,0.06260473,0.5646805,0.05568532,0.04253311,0.45390952,-0.044521797,0.113144204,0.04283508,0.07381462,-0.48531142,-0.20263164,0.14500424,-0.175665,-0.39499453,-0.09571356,-0.1737188,-0.1950579,-0.017648794,0.1855331,-0.21848628,-0.38164288,-0.73336995,-0.29852113,-0.018141404,-0.35197222,0.081692934,-0.47345483,-0.34048608,-0.03797195,-0.429068,0.003673064,-0.23365472,-0.45919943,-0.59424406,-0.6515926,0.2010017,-0.2554036,-0.27141976,-0.25454178,-0.2502442,-0.29641145,-0.24863347,0.25125492,-0.29099688,-0.33815444,-0.31533778,0.22160526,0.17668651,-0.3938293,-0.31978348,-0.5059588,-0.6167521,-0.3636546,-0.21920438,0.25532034,-0.5991605,-0.6381373,0.046958424,-0.29562268,-0.10940779,-0.23038054,-0.08744048,-0.36982286,-0.1933218,-0.066055074,-0.5367856,0.12985253,-0.15653609,-0.069956616,0.16347106,-0.25470838,0.23402195,0.04278039,-0.1266687,-0.025097767,-0.07842337,-0.04102541,-0.080465555,0.11282573,-0.032230716,0.0059960047,0.3601478,-0.02607926,0.12096781,-0.02641224,-0.22038141,-0.058422826,-0.05137507,-0.08637579,-0.22878338,0.004120978,0.015307608,0.06630945,0.18975963,0.12555638,0.024478234,0.085498974,-0.004622548,0.025048163,0.052941058,0.0050389445,-0.12680943,-0.111892365,0.10872255,0.12583287,-0.19767962,-0.32345766,-0.04950878,0.1492746,0.15050374,-0.070675395,0.14988495,0.020393342,0.1156292,-0.4307579,0.19737609,0.02515829,-0.39640173,-0.3786722,0.18507938,-0.010336893,0.009242235,-0.036389675,0.074143134,-0.13732775,-0.038735405,-0.10880999,0.10662014,0.16750175,-0.35189128,-0.26416132,-0.25269035,0.0174158,-0.24689367,-0.08838229,-0.047495294,-0.12471817,0.01637176,-0.113779105,0.033672217,-0.09499125,-1.0410061,-0.44594675,-0.22419545,-0.11109606,-0.015558226,0.022961676,0.018602109,-0.083988495,0.07968912,0.18773767,-0.07677657,0.01019672,-0.42864627,-0.45230487,-0.25314388,0.091014676,0.25647628,0.17791887,0.16716495,0.3445991,0.115234874,0.14665951,0.17389806,-0.04200282,-0.20471527,0.004535864,0.27687967,-0.38336876,-0.07494457,-0.21033318,-0.14347279,-0.25475347,0.06578701,0.25521445,-0.22543667,-0.18752922,-0.31841275,-0.25922206,0.18197943,-0.4720935,0.12600376,-0.55955154,-0.31676343,0.16748652,-0.42317882,0.18512754,-0.20624751,-0.31392908,-0.4425041,-0.0905117,0.2586395,-0.07770617,-0.09357985,-0.1163344,-0.02958859,-0.16541846,-0.10292415,0.24677445,-0.07455101,-0.15877397,-0.09509272,0.2711421,0.24251884,-0.44989,-0.40623394,-0.38122827,-0.3997647,-0.41801816,-0.03442491,0.3050424,-0.3951229,-0.58557034,-0.438532,0.38226247,0.28561604,-0.097167596,-0.024443028,-0.32728654,-0.22213161,0.05786786,-0.061267577,0.15792215,-0.1325322,-0.2205543,-0.21965672,0.21187654,0.18016388,-0.21220857,-0.19021708,-0.13447726,-0.24451375,-0.098973684,-0.13745584,0.18070978,-0.1506951,-0.145578,-0.07149374,0.40286002,-0.38469917,-0.15039687,-0.07436566,-0.063458614,-0.020482497,-0.10626114,-0.29081142,0.2237266,-0.023499144,-0.00980006,-0.110490866,0.08054021,-0.687015,0.08024839,0.14380905,0.0050994903,0.07391898,0.05349697,-0.029080011,0.24807227,0.099831924,0.037146945,-0.28487685,-0.60307086,-0.09696433,0.1257532,0.0885769,0.22194408,0.1271969,0.0014018639,0.21296372,-0.07391427,0.113722906,0.111362696,-0.19509679,-0.5108711,0.4307859,-0.009392973,-0.15111887,-0.08309252,0.100406066,0.09801471,0.15242395,-0.35444638,0.06346665,0.14243686,-0.46886814,-0.44972616,0.05178102,-0.002982962,-0.040485017,-0.07079547,-0.025122533,-0.26337135,0.0033493964,0.27550974,0.08558607,0.07916807,-0.8606671,-0.37039402,-0.23033582,-0.11911234,-0.025722628,-0.21695113,-0.17568012,0.24823399,-0.13387889,0.5240661,-0.20936689,0.1287423,0.08384303,-0.39128205,-0.24941999,0.0028478848,-0.059754044,0.2127018,0.16600238,-0.05150728,-0.104202576,0.35952878,0.07743074,0.2636924,0.037731335,-0.46107385,0.1516583,-0.44550285,0.10986369,-0.40153193,-0.2802923,0.11557395,-0.21330513,0.38098153,-0.2105194,0.06531196,0.22485018,-0.029047951,0.1494853,-0.3274025,0.12281843,-0.2982639,-0.1430743,0.2104588,-0.38209003,0.2918387,-0.2537226,-0.31685445,-0.13302656,0.025008444,0.24997023,0.07210576,0.3221514,0.037713237,0.20570661,0.25815284,0.038716372,0.24913469,0.13149093,0.13938826,0.4724117,0.42864552,0.23951131,-0.35042182,0.0033569993,-0.13070473,-0.36141706,0.03057776,0.25361288,0.2964473,-0.27528787,-0.014295569,-0.04211102,0.24693204,0.03860171,-0.044552363,-0.11266097,0.11867525,-0.17141569,-0.041381173,0.019648796,0.3730805,-0.14464976,-0.048189186,0.051996894,-0.09892546,0.041074026,-0.10406599,-0.1717972,-0.0031090756,-0.13906075,-0.020248955,-0.087965205,0.3647938,-0.16155754,-0.12080086,-0.004024969,-0.034864925,-0.19534792,-0.23145305,-0.17150196,-0.23050706,-0.3654268,-0.278073,-0.32643646,0.50328743,-0.33690754,-0.14838472,0.12164148,0.02615246,-1.1196446,0.07179127,0.30863145,0.06450629,0.06370657,0.20842673,-0.14306511,0.5547533,0.18230158,0.04913798,-0.21059784,-0.37529624,-0.23648617,0.11494486,0.19629854,0.06880186,0.19692814,0.2196405,0.048224863,0.036030848,0.22572781,0.17280068,-0.8005976,-0.570604,0.17882311,0.06420588,0.14577974,0.10371318,0.09720342,0.08453989,0.15153731,-0.06389021,0.15529726,0.059974194,-0.5900958,-0.51878655,-0.22044602,-0.068671666,0.45662573,-0.04426171,-0.073207594,0.23478761,-0.100528784,0.23175004,-0.08939946,-0.19479689,-0.42671072,-0.6737659,-0.4482303,-0.52157074,0.24288394,-0.44433245,-0.33096877,0.32062632,-0.4672976,0.15417583,-0.2803542,-0.041238748,-0.149949,-0.07441222,-0.04490211,-0.11856273,-0.10289708,-0.17246118,-0.21770705,0.060676582,-0.2346238,0.14621769,-0.21796659,-0.14798024,0.036100842,0.10227777,0.069938265,-0.15795803,-0.13064395,-0.09172277,-0.21815172,-0.30658308,-0.4230831,0.29259032,-0.2796408,-0.08594333,-0.18322821,-0.1819222,0.25674024,-0.08475009,0.3923101,0.00431639,-0.08758279,0.40799028,-0.08617589,0.22537042,-0.14965405,-0.1923799,-0.12771179,0.29127648,0.2773416,0.3229725,0.27994564,0.43394068,0.044910144,0.30264372,0.28810385,0.24886452,0.08941198,0.34300026,0.6823459,0.24083598,0.20596652,-0.29294643,0.0467875,0.19822979,-0.18701254,0.07840205,-0.13062389,0.24450105,-0.19146113,0.016294567,0.28721032,-0.04756981,-0.017129444,-0.33572897,-0.30573437,-0.22970363,-0.28199968,-0.36573735,-0.36547762,0.39492932,-0.32473218,-0.27250132,-0.021488033,-0.072330385,0.06476571,-0.16651024,-0.22734232,-0.16570808,-0.1539816,-0.07444825,-0.21573736,0.3087579,-0.12536505,-0.30363923,-0.0105336625,-0.16749911,0.04603623,-0.25759834,-0.25222415,-0.20013136,-0.3064687,-0.29971892,-0.24757814,0.8158842,-0.26935634,-0.25821996,-0.22337563,-0.033592388,-1.335055,0.08011205,0.14121827,0.054204915,0.035872698,0.11463049,-0.04781749,0.28460374,0.023877684,-0.04942772,-0.4869337,-0.56214195,-0.29925507,0.09554142,0.04966851,0.2112151,0.16784258,0.1525945,0.11991968,-0.023766024,0.17175984,0.20094794,-0.5378551,-1.411832,0.24158761,-0.008366744,-0.28110173,0.05451658,0.123487,-0.33469194,0.21492352,0.24686302,0.053150497,0.085221775,-0.28919363,-0.70239115,-0.05049028,-0.46055704,-0.15900177,-0.29325154,-0.19969206,-0.023332236,-0.18740746,0.16264425,-0.30831522,-0.4471703,-0.637465,-0.26264235,-0.18805079,-0.07027215,-0.107475765,-0.14631069,-0.28449836,0.08617351,-0.1661349,-0.14139894,-0.27695584,-0.2534421,-0.3534742,0.032585353,0.09463211,-0.33967835,-0.41904372,-0.20327753,-0.2652266,-0.23679361,-0.26127148,0.16749625,-0.333612,-0.23641944,0.0483608,-0.14311121,-0.11198376,-0.45119184,0.06674414,-0.590197,-0.35772347,-0.13991693,-0.39499834,0.15928122,-0.2021522,-0.04199154,0.14634834,-0.1317682,0.22485963,-0.034541324,0.06780243,-0.04766114,0.079523295,-0.03438693,0.03222067,0.35051432,-0.0013128693,0.083303735,0.3241793,0.046983983,0.19097427,-0.21439625,-0.0724926,-0.0054863794,-0.3158175,-0.0974354,0.02196354,0.2255764,-0.2736538,-0.1190645,0.33296442,-0.04230885,0.12953588,-0.51943344,-0.70217526,-0.31792814,-0.70073247,-0.608994,-0.44163668,0.34406248,-0.57911074,-0.30006677,-0.020035235,-0.6229455,-0.55662805,-0.4478305,-0.11872998,-0.3912585,-0.33897164,-0.2532221,-0.80726373,0.4385241,-0.31070608,-0.16143323,0.10987745,-0.10334353,-0.32788727,-0.10951206,-0.1839397,-0.038963854,-0.100316085,-0.13443442,0.028277198,0.80527335,-0.038429424,-0.30358654,0.0057967966,0.14214753,-0.22465755,0.044248365,-0.16412199,-0.17218435,-0.18085398,-0.18289621,-0.16992784,0.33039424,-0.17686754,-0.2146918,-0.32894477,-0.030471819,-0.5249603,-0.08468478,-0.14103921,-0.20119497,-0.049613237,-0.15959473,-0.27192026,0.0845492,-0.013111487,0.0480329,-0.5279506,-0.5862535,-0.023442972,-0.06581824,0.04729941,0.059520118,0.1785629,0.09534081,-0.04869392,0.15298907,0.058364015,0.25248885,-0.04744807,-0.7996541,-0.03469832,-0.057144746,-0.129796,0.068303905,0.031708788,-0.2021607,0.109215245,0.15598387,-0.003536138,0.13853636,0.02092114,-0.48096162,0.09773869,-0.13794924,-0.31397447,-0.2700644,-0.019486524,-0.16967279,-0.16176535,-0.1648369,-0.024942854,-0.16159186,-0.6685589,0.09691583,0.25134927,0.16457811,-0.39854553,0.0057498747,0.04807611,-0.14270376,0.09050723,0.030287672,-0.004097014,-0.117504835,-0.4199995,0.23575991,0.33019483,0.01494278,-0.41199672,-0.0057344227,-0.065942764,-0.16742928,-0.034955308,0.34735507,-0.047902595,-0.11470356,-0.13856056,0.16265129,0.11804447,-0.1638998,0.13823894,-0.22887352,-0.065037474,-0.033553917,-0.20887215,-0.026249709,-0.07969997,-0.20546968,-0.4889438,0.16083801,0.27358434,-0.052669458,0.18543118,-0.09193515,0.17651407,0.0015890411,0.10762899,0.14935088,0.0834547,-0.064422324,-0.46670428,0.27866647,0.27306616,-0.17209098,-0.092699215,-0.123414256,-0.05073915,-0.08851049,0.046937615,0.2962587,-0.10506311,-0.24086545,-0.09617815,0.13118345,0.43144178,-0.40327594,-0.30243543,-0.5100154,-0.24767064,-0.30107158,-0.11122586,0.22791472,-0.29406062,-0.8180558,-0.7995576,0.2879555,-0.10821759,-0.04807466,-0.07799766,-0.3229414,-0.12884286,-0.081659086,-0.16840203,0.23568316,-0.17203762,-0.2446347,0.07706659,0.2410317,-0.019697186,-0.028124876,0.032300636,-0.06667829,-0.049052726,-0.012588808,-0.09328523,0.67098033,-0.065656394,0.0080824755,-0.13364704,0.22149757,-0.07453648,0.0048141065,-0.08721366,-0.031071879,-0.001122016,-0.022465775,0.058888175,0.44556376,0.07060333,-0.12083652,-0.54602677,0.18298434,0.434488,-0.049015697,-0.025751984,-0.24692757,0.043860488,-0.18911865,-0.08890277,0.3829688,0.11044829,0.05550127,-0.5409875,-0.013425984,0.32847035,-0.1513971,0.28016874,-0.063495755,-0.03950873,0.08515572,0.083262645,0.035154626,-0.0102748135,0.05329037,-0.42065266,-0.20186898,0.0666517,-0.13373181,-0.061002728,-0.18133968,-0.052349985,-0.0058310213,0.018881079,-0.2759059,0.0216722,-0.008429482,-0.5485772,-0.66643834,0.122092165,0.10180734,-0.23984908,0.04981782,0.069340125,-0.20684801,-0.005221728,-0.3912687,0.09380117,-0.006601636,-0.13320263,-0.14312631,0.25374275,-0.03050836,-0.4717795,-0.03162841,0.08034275,-0.41127378,0.030852586,0.24546535,0.008583728,0.14953443,0.04201728,0.06361643,0.06812184,-0.33859584,-0.16565078,-0.27584553,-0.09713684,-0.17953508,-0.008066376,0.02794601,-0.087559305,-0.029407796,0.093956366,-0.10393509,0.12853043,-0.07416542,0.28904745,-0.23012446,0.12107665,0.31455332,-0.06582439,-0.051708683,0.19799048,0.023432879,-0.1978906,-0.12349572,0.54323846,0.4556212,0.22249459,0.41595492,0.22246817,0.08891759,0.5495889,0.3878161,0.24205735,0.24578847,-0.20211007,0.44624785,0.22313544,-0.15161599,-0.19228032,0.04859389,-0.3776854,-0.25997382,0.09725963,0.26743707,-0.29556805,-0.3059169,0.009949166,-0.14896618,0.06334717,-0.14305355,0.11563387,-0.056261517,0.033854146,0.13108194,-0.10680137,0.36727956,-0.038361043,0.010193847,-0.036305707,0.29069,0.23548183,0.0621267,-0.12131494,0.1607843,0.014018603,0.005559058,0.17456637,0.6893646,-0.03701806,-0.045144796,-0.11969381,0.18214238,-0.0027040672,-0.022414716,0.09772883,-0.0885428,-0.0588673,0.097520486,-0.18423016,0.4935622,-0.029865418,0.110787496,0.22263469,0.04444266,-0.051529393,-0.03473784,0.04042547,0.11327003,-0.06134031,0.069448635,-0.02869628,0.67782646,-0.030540017,0.08238871,-0.006067744,-0.035557218,0.17341158,-0.104545645,0.08062589,-0.055240434,0.0067124926,-0.057187065,-0.13806485,0.0048837764,-0.019765073,0.12876624,-0.22981173,-0.55171996,0.102599755,-0.14085713,0.11256323,-0.2554692,-0.075892456,0.18651555,-0.13372271,-0.09190599,-0.025381044,-0.0038660094,-0.3204352,-0.71267444,0.053041454,-0.027311232,-0.34088764,-0.014624313,0.01994442,-0.16361862,-0.03603157,-0.173872,-0.04471439,-0.03256581,-0.0640363,-0.72766143,0.16261563,0.05648175,-0.05174744,0.06310768,-0.055355553,0.0053785928,0.0365902,0.010946566,0.0069326605,-0.011845816,0.17949912,-0.1798831,0.23223647,-0.2785544,0.116429575,-0.3077637,-0.12121796,-0.016294288,-0.10543919,-0.042812143,-0.07197946,0.08510652,-0.020214047,0.058819972,0.43704343,-0.04247767,0.021770256,-0.0075083505,-0.068189,-0.20429362,0.18038957,0.054329365,0.035661906,-0.028051661,0.016963724,0.17547105,0.083358176,-0.02294908,0.2919532,0.051635448,0.24004844,0.20855378,-0.20419852,0.07367902,0.25316757,0.110567614,0.28810653,-0.19448575,0.35066274,0.29613036,0.10649646,0.37583506,0.20015453,0.24847926,0.20957522,0.56632936,0.2716838,0.3744226,0.5228755,0.09445036,0.2721978,-0.36190024,-0.22310463,-0.34264547,-0.37949777,-0.27175203,-0.100575395,0.33072582,-0.2655594,-0.36144727,-0.31975847,0.16664477,0.20793822,0.240257,0.25583515,0.17453791,0.043828513,0.33531892,-0.187593,0.13073374,0.004769172,0.030976897,0.16718243,-0.1518365,0.15096048,-0.103891775,-0.068478994,-0.04088992,-0.07200467,0.017957287,0.06440274,0.48600632,-0.07539845,-0.042098932,-0.049975637,-0.17613778,0.049841616,-0.087846,-0.0750672,-0.05338273,-0.14919381,-0.07524244,0.053710982,0.16496347,-0.16045406,-0.14998065,-0.100225575,-0.17343159,0.13336995,-0.14083834,0.12866294,-0.13756336,-0.042102262,0.2050574,-0.06820711,0.25707275,0.049512625,-0.0748385,-0.012769554,-0.12663203,0.08875269,-0.008679623,0.28225788,-0.009346309,-0.01950773,0.19692138,0.028355474,0.031433675,0.032322228,-0.058811408,-0.16430293,-0.41348037,0.048540156,0.03695499,-0.11714305,-0.013217871,0.032382835,-0.11389577,-0.15723309,-0.00859846,-0.013842799,-0.00983947,-0.045570955,-0.5336322,0.19405583,-0.20165858,-0.2717923,-0.17728308,0.0074398485,-0.2543946,0.04877529,0.10872676,0.08219492,-0.022832962,0.08394862,-0.52598554,0.3642453,-0.27863923,0.4485828,-0.12710164,0.0030152027,0.4698301,-0.12075863,-0.056768224,-0.006609468,-0.007667865,0.043049738,-0.35096747,0.23307386,-0.20579256,0.35383838,-0.23363556,-0.026148079,0.47120184,-0.06952883,0.054737873,0.0122793345,-0.027198149,0.0231905,-0.0076499716,0.30887032,-0.60413724,-0.08601744,-0.18826732,-0.1622037,-0.03789071,-0.2600625,0.31861308,-0.17197783,0.13635333,0.1593292,-0.1298307,0.1185577,-0.31926003,-0.1340796,-0.38292605,-0.41300592,-0.2606972,-0.34604415,0.21281062,-0.16021654,-0.13433582,0.018843394,0.057460994,0.20287453,-0.2858087,0.100292385,-0.21057598,-0.010300002,0.09234219,-0.24554694,0.30354506,-0.099098235,0.08205473,0.29846504,0.16729675,0.24804765,-0.20178218,-0.04405818,-0.1790132,-0.036574364,-0.15059683,0.0073044477,0.24254808,-0.053739805,-0.15960638,-0.08370429,0.28134564,0.22872083,-0.17754671,-0.010966392,-0.24408849,-0.23824039,-0.1338028,-0.030566065,0.30961555,-0.19779733,-0.1854926,-0.13521908,0.27593783,0.22297399,0.005951863,0.16989318,-0.11953032,-0.12620902,0.11971597,0.09830907,0.27834156,-0.076203905,-0.11175737,-0.006990926,0.2360934,0.2850916,0.069631785,0.09356543,0.05447857,0.038377278,0.07074434,0.17365235,0.24105993,-0.055691797,-0.124527745,-0.041299716,0.21861963,0.27462056,0.0154217305,-0.034852266,0.015654756,-0.099117644,-0.0049713813,-0.2819428,0.1888121,-0.29432407,-0.020409858,0.010406284,0.15410438,-0.1705393,-0.23348323,-0.031240173,-0.18243118,-0.04538051,0.16769987,-0.2584583,0.104773335,0.022573343,-0.015413948,-0.041862544,0.29793674,0.66051984,-0.1456292,-0.42222896,-0.0071533183,-0.13644204,-0.52679753,-0.18147948,-0.0381262,-0.18640096,-0.08201919,-0.045409333,0.26796326,0.10079611,-0.24287239,-0.14442112,-0.13184568,-0.18749551,-0.111623675,-0.37136272,0.13397439,-0.2209253,-0.048403785,0.18342482,0.34396178,0.18003948,-0.22224285,0.47578707,0.042832818,0.10163757,0.65497893,-0.65098804,0.060416546,-0.24012315,-0.12533619,0.16500932,0.31322628,0.20479561,-0.5240943,-0.29164788,-0.1672061,-0.031124707,0.09170673,-0.2993245,0.15337951,-0.113846846,-0.17904598,0.0041731657,0.31696376,0.14610979,-0.3042016,-0.112221844,-0.36053827,-0.050026223,0.023654344,-0.21920924,0.21834055,-0.18078312,-0.33763975,-0.27806938,0.19478056,0.20413339,-0.23014176,-0.10176329,-0.2891302,-0.27578375,-0.17839755,-0.10853649,0.19686598,-0.19211455,-0.36348024,-0.3110095,0.13831037,0.17691766,0.0057578958,0.041739088,0.0039065056,-0.04161284,0.035168026,-0.0047037196,0.28511155,-0.06912831,-0.21770686,-0.011328164,0.29407543
-0.016291998,0.0045714513,-0.04973339,0.014898763,-0.06390902,-0.050146244,-0.040699027,-0.056704078,-0.09631939,-0.05625681,-0.42934644,-0.24006799,-0.008071277,-0.074944966,-0.06365773,-0.02890464,-0.047063515,0.021331051,0.005424113,-0.030155929,0.0045614652,-0.11592595,-0.46161023,-0.19293138,-0.00880795,-0.05839207,-0.14717712,0.042532463,-0.12090386,-0.14134844,-0.014234262,-0.06868173,-0.06366378,-0.099125974,-0.47145525,-0.11793846,-0.20519115,0.086644284,-0.123091556,-0.0592633,0.06347896,-0.1330676,-0.15120001,-0.09695296,0.08140744,0.4259214,-0.30794227,-0.14143611,-0.027260374,0.43601838,0.1336753,0.4656978,-0.051562373,0.13246186,0.076593876,-0.07480485,0.017217193,0.51288706,-0.26289344,-0.12311235,0.0064460305,0.40324542,0.09039567,0.4880825,-0.038053352,-0.037890915,-0.022140065,-0.07503023,-0.021053337,0.21913365,-0.24591373,-0.06847818,0.030176397,0.2986211,0.017101886,0.16625316,-0.023743575,-0.03454702,-0.02593164,-0.07522909,-0.02743538,0.14698014,0.38512176,0.027244039,0.049435172,0.00019004935,-0.03192797,0.08590175,0.045559358,0.03268382,0.066566244,-0.11654953,0.08081588,0.53322536,0.32573152,0.03967493,0.07055002,0.013184247,-0.1665303,-0.019876277,-0.03784537,-0.08232317,0.18770403,-0.06677552,0.019032493,0.5251572,-0.25592726,0.122439,-0.008912304,-0.12154713,-0.35020635,0.17300943,-0.34226593,-0.4043198,-0.08888274,0.005367124,-0.26918188,-0.07530639,-0.3132094,-0.104016215,-0.31232318,-0.22725175,0.35012832,0.00044186806,0.1287308,0.47773048,-0.39153123,-0.0006348966,0.08590731,0.20428793,-0.3951644,-0.3361409,0.12330821,0.48253447,0.28980365,0.32955062,0.32079673,0.37773255,0.49274868,-0.06287238,0.31071094,0.18156888,-0.43046686,0.3567693,0.00951231,0.028444804,-0.02979901,0.30239484,0.051649548,-0.016558703,0.3176091,-0.048902936,0.0036757614,-0.116295144,-0.45039275,0.049084693,-0.017202655,-0.11847527,-0.2550108,-0.088904835,-0.110266894,-0.18397702,-0.090662904,-0.007263128,-0.027343698,-0.18609542,-0.45445576,-0.32327986,-0.085332714,-0.33600768,-0.25075865,-0.28712717,-0.35726228,-0.2755054,-0.24191147,0.0016964893,-0.21492286,-0.26403505,-0.37371013,-0.35820284,-0.18503898,-0.093277544,-0.026172392,-0.15232976,-0.16153826,-0.043681145,-0.3041134,-0.07157525,-0.04191027,0.054998282,-0.2632251,-0.12285317,-0.0051282933,0.1830232,0.021420399,0.03164963,0.025637154,0.009782278,-0.008272259,-0.1245392,0.025932776,-0.038791753,0.59692794,0.062757894,0.11214163,0.047095254,-0.07259023,0.16824175,0.17346844,-0.07029852,0.1712518,0.041434515,0.13019776,-0.05441047,0.26640883,0.09376739,0.03237337,-0.03518826,0.048617426,-0.057502627,0.09396331,0.024801005,0.17746031,-0.061353832,0.10592379,0.084595814,0.38180152,0.2501105,0.04830237,0.044011798,-0.24738945,-0.073424146,-0.11040205,-0.14944674,0.095920846,-0.4086563,0.015738396,0.07951677,1.0182065,0.10287175,0.09459973,0.012056955,-0.179213,0.07797721,0.07172534,-0.15993246,0.0057384493,-0.75962216,0.05329826,0.22741304,0.30349997,0.09230946,-0.06166998,0.009391866,-0.4719871,-0.0264154,0.016485596,-0.36390293,-0.04893713,-0.47791854,0.08755421,0.12849511,-0.1762964,0.06909152,-0.035043832,-0.07454491,-0.2777847,-0.15708971,0.037343822,-0.28162402,-0.081267804,-0.21268085,-0.0034081887,-0.12720194,-0.17736946,-0.04207452,0.17660539,-0.09877011,-0.36114845,-0.018196443,-0.009091965,-0.32095653,0.12825836,-0.23074298,-0.124755375,0.095867336,0.011662451,0.084168375,-0.2420207,-0.23022446,-0.066037625,-0.2492188,-0.02164019,-0.022359438,-0.1573266,-0.0031162368,-0.014512384,0.20473327,-0.36175284,-0.21068197,-0.049580403,-0.34403417,-0.017268691,-0.045394436,-0.033953607,-0.006191934,-0.37142488,-0.045246877,-0.08021062,0.10312855,-0.2309642,-0.35156453,0.058498163,-0.042790398,0.061807618,0.100595735,0.13897076,0.1282678,0.122528926,0.008288331,0.07151298,-0.123064965,-0.665961,0.15188845,0.054044675,-0.2636816,-0.05810054,-0.039230175,0.0566439,-0.10360028,0.004203655,-0.02034176,0.013700354,-0.37376708,-0.26654857,0.07368495,-0.09555587,0.03146697,0.062577404,-0.0518373,-0.033279635,-0.055841856,0.0183012,-0.15001182,-0.023537269,-0.103840604,0.20947567,0.026612407,-0.33596742,0.08493776,-0.112419955,0.08074014,0.05875882,-0.06291497,-0.09319278,-0.031221269,-0.00369654,0.008626192,0.3830558,-0.021513162,-0.09886664,0.010263183,-0.002992424,0.12409411,0.06640259,-0.13895346,-0.037474044,-0.15685196,0.070266366,0.22322339,0.34976113,0.07175645,0.011790411,0.0026014175,0.020779347,0.15701458,0.16593677,-0.10542979,0.08783899,-0.28617018,0.076263815,0.18789628,0.04365691,0.094843954,0.19536681,0.09905871,0.0815998,-0.0824755,0.0064019295,-0.011601874,-0.0071997726,-0.22886068,0.101371974,-0.014292053,0.16551156,0.11061563,0.13030794,-0.03879053,-0.12048139,0.062001094,-0.031752918,-0.1308334,0.023197189,-0.689527,0.038458113,0.2066569,0.3512549,0.15470995,0.15536375,0.020244041,-0.29446945,-0.09185382,-0.048504394,-0.20602036,0.026340818,-0.60347974,0.08355582,0.16796415,0.33247888,-0.033052612,0.06482006,-0.11894381,-0.39521968,-0.16795008,-0.16096766,-0.36849874,-0.12857457,-0.33257663,-0.15614751,0.0045181583,0.23659909,-0.25353965,0.04290734,-0.3037465,-0.30625385,-0.229704,-0.07691446,-0.4170914,-0.04743309,-0.13370185,0.08022367,-0.011713105,-0.664978,-0.080148585,-0.1685141,-0.22027011,0.059132993,-0.39004368,-0.4088208,-0.45038325,-0.2571295,-0.14534712,-0.35976434,-0.23972951,-0.98157364,-0.23926811,-0.13180028,-0.20161957,0.17226993,-0.30912042,-0.21901888,0.20288944,-0.1714715,-0.14101563,-0.18253592,-0.21610962,-0.64501435,-0.2880814,-0.007455317,0.22431946,0.10518547,0.26320586,0.1308206,0.08292432,0.17739266,-0.005318591,0.09763036,0.22372608,-0.018275708,-0.043256607,-0.32122162,0.13248028,0.06674486,0.028940363,0.18294558,0.032571424,0.16356388,-0.18507676,0.14261246,0.1078716,-0.31417152,-0.09314911,0.030251246,0.023313044,-0.07593204,0.1266433,-0.14699496,-0.14326346,0.1337565,0.035986014,-0.10204144,-0.054772113,0.24157621,-0.09394446,-0.32294658,-0.033061534,-0.14723743,0.03200872,0.0202428,-0.2407373,-0.064346954,0.15039966,0.03220162,0.069159746,0.29640514,0.12213969,-0.18304853,0.112555765,-0.0211386,0.07226893,0.08502434,-0.13947453,0.16999905,-0.055998746,0.07401909,0.0024465856,0.08459736,0.25771844,-0.03225987,0.1517662,0.015358073,0.08545125,0.12646505,-0.13826467,0.08532027,-0.12974353,0.16484532,0.03237703,0.16628256,0.17565249,0.13089173,-0.029397907,0.051463954,0.04279991,0.04701678,-0.075949274,0.05732073,0.01832938,-0.0032930789,0.011599049,0.09675544,0.09449307,0.21320364,-0.038569685,0.10021946,-0.048502147,-0.0090837255,-0.06392588,-0.119200826,-0.3530829,-0.023932828,0.075522825,0.028397469,-0.09712222,0.19502366,-0.1925939,0.06904277,-0.09701532,-0.08978873,0.14044224,0.051410705,-0.34568974,-0.090013124,0.028933559,0.20358928,-0.46147004,0.08499264,-0.2933426,0.20467919,-0.27019355,-0.1520688,0.18447326,-0.10127002,-0.2825937,-0.09242563,-0.14381708,-0.16595945,-0.28940615,0.03750133,0.0046956507,-0.04516305,-0.044133466,-0.019668153,0.0410619,-0.03689715,-0.035431307,0.030495716,-0.050011557,-0.75204074,-0.2116629,-0.11225633,-0.17897289,0.2043615,-0.3103995,-0.35095525,-0.003694822,-0.12178205,0.024387939,-0.23314631,-0.40744048,-0.7838471,-0.2820087,-0.3049081,-0.37842062,-0.24884225,-0.25969687,-0.3995823,-0.3808208,-0.429821,-0.12953748,-0.46160764,-0.25555328,-0.3289906,-0.5978087,-0.026762636,0.029813496,-0.029619087,-0.09885618,-0.14211833,-0.07790469,-0.18967627,-0.011825163,-0.010807118,0.009756401,0.043770533,-0.33817878,-0.16619287,-0.13598645,0.06175424,-0.25146484,-0.026697148,0.009841477,-0.43532068,-0.004517738,0.10047077,0.2059516,0.32816026,-0.13284189,0.10453377,-0.15080693,-0.17958266,-0.1034931,-0.16736856,-0.14709395,-0.10592631,0.17815097,-0.14073507,-0.07705592,-0.09040688,0.23934105,-0.025407212,-0.16833706,-0.080127284,-0.08458646,-0.1715716,-0.092577904,-0.1732347,0.055539522,-0.14292845,-0.03573765,0.32282844,0.19138995,-0.4982751,-0.21191792,-0.14942542,0.051439777,0.002934623,-0.2609209,-0.25598043,-0.19115709,-0.100143336,0.0882414,0.19767731,-0.18805727,0.11638744,-0.20041744,-0.42729792,-0.10253661,-0.16702585,-0.56900704,-0.25152615,-0.15345061,-0.11378051,0.048929173,0.06306669,-0.16642044,0.12933576,-0.2061791,0.017320083,-0.03708474,-0.069498695,-0.07338304,-0.23584637,0.01753813,-0.12757304,0.16103144,0.32952404,-0.27440852,-0.07198756,-0.062947996,0.006289339,-0.15245214,-0.027480446,0.022770682,-0.0824382,0.0010398378,-0.0066249687,-0.07070822,-0.049915627,-0.17266785,0.07394198,-0.08445286,0.12750062,-0.01205076,0.031224582,0.085193664,0.013837377,-0.08244981,-0.10136384,-0.03823355,-0.15881917,-0.28930777,0.009699893,-0.027650233,0.3287221,0.09966757,-0.008412646,0.2547047,0.039902523,-0.21242021,-0.07482802,-0.10192339,-0.17512551,-0.31843564,-0.16335258,-0.06371403,0.20739801,0.010941443,-0.060999613,0.2767366,0.0006549494,0.04778658,-0.057684574,-0.009450083,-0.55913895,-0.18527648,-0.11205376,-0.118914306,0.27759165,0.013721949,-0.17702878,0.24951191,-0.05743866,-0.014817857,-0.22619866,-0.26228443,-0.50962526,-0.129061,-0.061954968,-0.18189667,0.13943997,-0.39359304,-0.25665033,-0.036468882,-0.006672114,-0.21294083,-0.3347766,-0.55796427,-0.6620935,0.10186946,-0.049743995,-0.1980074,-0.29779443,-0.06450965,-0.24614999,-0.24577934,-0.28924683,-0.029846273,-0.31185162,-0.2780073,-0.08764246,-0.16956659,-0.019834597,-0.24317865,-0.12056974,-0.25511733,-0.2381585,-0.2273378,-0.5732518,-0.28016278,-0.10169947,-0.058965117,0.24341653,0.017083885,-0.01191331,-0.07122806,-0.23460254,-0.069934905,-0.17513765,-0.25672597,-0.18020874,0.16302992,-0.19633448,0.017227806,0.4851149,0.21988529,-0.030778393,-0.26910636,-0.27676657,-0.25171632,-0.16115609,-0.29172352,-0.21873507,0.05502099,-0.1286458,-0.17728001,0.42835167,0.5354216,0.14765173,-0.11883938,-0.59112334,-0.35730776,-0.08737783,-0.5276085,-0.30662024,-0.27231562,-0.07607847,-0.18128504,0.59596807,0.27205518,0.29355255,-0.25571606,-0.48356742,-0.23053698,-0.16957486,-0.43060276,-0.23853005,0.07372458,-0.10128953,-0.07477868,0.49078813,0.22265214,0.41611245,-0.1831303,-0.1958374,-0.09253281,-0.079792485,-0.19665846,0.020684194,0.08224267,-0.1714418,-0.11443441,0.12762867,0.057857577,-0.22124265,-0.18899675,0.036768023,-0.21732682,-0.1775127,0.09383338,-0.23047015,0.18260628,-0.14206804,-0.120523795,-0.008866514,-0.32031778,-0.3971577,-0.01149424,0.2225011,-0.08870182,-0.0902075,0.08666555,-0.08124054,0.12117586,-0.06515574,-0.12088969,-0.15891078,-0.6611869,-0.4148488,-0.16341168,0.26324597,-0.05173086,0.07167195,0.33003005,-0.0126270605,-0.05271652,0.027799325,-0.16667116,-0.3889271,-0.5565314,-0.28065127,0.06387179,0.37621537,0.054492783,-0.0015609135,0.50401664,0.0017056077,0.097345665,0.058397252,-0.005501573,-0.33177686,-0.06617263,0.0056878333,-0.019831995,0.46201587,-0.14871673,-0.035808172,0.7001461,-0.0045555253,-0.0042417073,-0.0074094594,-0.20504816,-0.28349385,0.12641418,0.12656945,0.09724895,0.26577696,0.102337055,0.22364919,0.47550058,0.23341201,0.085206285,0.22515625,0.13337372,-0.028599637,0.17145953,-0.04440016,-0.10572756,0.15835974,-0.04631439,0.19909312,0.07474749,-0.014294126,-0.03998894,0.117987,-0.014235914,-0.44714028,0.18872616,0.1697536,7.739608e-05,-0.09947537,-0.15118603,-0.09592968,-0.122400396,0.04122653,0.0067197867,-0.116420686,-0.22717074,0.027636148,0.22997332,-0.09712603,-0.18716024,-0.12878792,-0.29422918,-0.18175028,-0.11435923,-0.13232182,0.24444832,-0.11061975,-0.12061923,0.20931439,0.507676,-0.025999155,0.00085804245,-0.20280714,0.0036576665,-0.12506941,-0.11826094,-0.063459724,0.15455465,-0.19113466,-0.12619425,0.30170044,0.6435331,0.12751798,-0.075453445,-0.54208004,-0.11761927,-0.128911,-0.34397408,-0.09826152,0.11125782,-0.11525358,-0.12646008,0.31323817,0.5807214,0.08477708,0.047535677,-0.41036978,-0.07079066,-0.11776619,-0.14250991,-0.08278971,0.24635419,-0.11251691,-0.08192883,0.20649256,0.4102833,0.024832359,-0.15312213,-0.1376132,-0.21509774,-0.093776934,-0.1282004,-0.0141776875,0.093544826,-0.23016396,-0.2136785,-0.022835635,0.23868547,-0.18883169,-0.02974221,-0.04188643,-0.14334618,-0.09808676,-0.014408823,0.030375237,0.27297512,-0.096030496,-0.1840838,-0.252936,-0.052235723,-0.4078438,-0.038994707,0.17266306,-0.07549188,-0.04810096,0.21336462,-0.105874255,0.14631803,-0.08592412,-0.14471868,-0.3830524,0.14063428,-0.25640404,0.021578817,-0.015546467,0.11144021,-0.075772084,0.08816464,0.073984675,0.31622773,-0.12845913,-0.1269493,-0.48209065,-0.063846074,-0.3378427,0.024208507,-0.33493719,-0.010127842,-0.2419561,-0.05125682,-0.118958734,0.21070224,-0.21556857,-0.07842403,-0.19444057,0.02096684,-0.2029048,0.042251837,-0.18532173,-0.005216788,-0.047747638,0.071673095,-0.17865394,0.38410628,-0.04588884,0.060161218,0.3748254,0.109630615,-0.1229586,0.04920031,-0.12878886,0.040320493,0.12868969,0.14986786,0.04212974,0.160243,0.097984664,0.24948569,0.47679412,0.08238444,-0.10678379,0.31831366,0.18266381,0.13509046,0.21965611,0.13993797,0.21046706,-0.012427007,0.26529214,0.1629256,-0.1559881,0.037834756,-0.09764441,-0.17833796,-0.05429746,0.03770615,-0.00894123,-0.09719094,0.035941437,0.22251716,-0.1194496,-0.21234845,-0.55557793,-0.013489178,-0.28816152,0.00035662684,0.11272665,-0.048312075,-0.11300578,0.06866458,0.018012691,0.08045491,-0.10935926,-0.09993914,-0.28705695,0.23897068,-0.5260946,0.14184469,-0.14544825,-0.12477274,-0.052517187,-0.0260871,-0.084899195,0.40269682,0.03873117,-0.12766737,-0.1262682,0.35260966,-0.35159677,0.22136042,0.027770743,0.23933698,0.05608421,0.21855135,0.18307352,0.38959688,0.1272252,-0.010310483,-0.14786224,0.37067458,-0.29504684,0.32356492,0.07205274,0.31249768,0.07837957,0.11013922,0.24686524,0.27978742,0.103814326,-0.025821818,-0.28548717,0.14918745,-0.25874066,0.10541362,0.006205105,0.09904203,0.12276645,0.038097728,0.10874222,0.30575264,0.11797824,-0.03637485,-0.08567382,0.13284224,-0.44217885,0.0136471,0.17920265,0.07354272,-0.014709404,0.2915135,0.074498445,0.31231344,0.048449486,-0.0479186,-0.48485392,0.115512684,-0.30947107,0.18288937,-0.18020852,0.22849515,0.048835143,-0.005049636,0.084606476,0.15667358,0.009297917,-0.10073541,-0.32416287,0.030007502,-0.05262628,-0.0880674,-0.046813034,-0.09099402,-0.059926268,0.07995765,-0.07088081,0.083585106,-0.10143011,-0.11988274,0.19002375,0.092454605,0.062573664,0.18511091,-0.7402313,0.047820665,0.09555888,-0.49819037,-0.034350384,0.048052512,0.09002683,-0.12587388,0.23356971,0.18482545,0.08272397,0.11003577,-0.46186525,-0.079366304,-0.23558167,-0.6194048,-0.017217137,0.17488612,-0.23073685,-0.06156204,0.5670349,0.40063953,0.16697071,0.3157792,-0.20476854,0.2742896,0.16462538,-0.08727862,0.20602483,-0.0663946,0.26181147,0.14307837,0.35628054,0.23204668,-0.08323968,0.17905273,0.13910647,0.2199789,0.23077284,0.11895087,0.081471674,-0.063699715,0.23932636,0.21971974,0.15234338,0.07492114,-0.25175494,0.17136234,0.029228952,0.17395104,0.086694725,0.016107587,0.15249513,-0.06422272,0.09377492,0.06655376,-0.3836896,-0.09910847,-0.16426486,0.21544147,0.13776831,0.22082952,0.07076408,0.15327571,0.116456635,0.17749634,0.03610969,-0.012668349,-0.482108,-0.055405874,-0.32837644,0.30609787,0.14952858,0.22972259,0.20588191,0.03627775,0.17654732,0.28336382,0.17945974,0.0131826205,-0.17819047,0.09098512,-0.3735368,0.20056716,0.2229232,0.28024265,0.33002007,0.18069787,0.25543585,0.42162493,0.19603379,0.16127102,-0.18190672,-2.9807212e-05,-0.62165004,0.18575263,0.24799938,0.23900098,0.15719885,0.22088285,0.29661575,0.66988397,0.13304041,0.04776995,-0.25558686,-0.2537843,-0.2609052,0.16961758,-0.0047757025,0.19802527,0.07312546,-0.01670017,0.16296028,0.33759797,0.12485187,-0.017472405,-0.23841865,-0.061682235,-0.2621524,0.24561393,0.13903466,0.18115865,0.15923,0.17790306,0.10525301,0.119351774,0.16294786,0.027935827,-0.003613545,0.3660468,-0.20824555,0.08410153,-0.059463058,0.066405766,0.07300794,0.058130376,0.084378146,0.14943556,0.068658605,-0.05630916,-0.058255285,0.17361881,0.12193896,0.009737637,-0.37993658,0.009466424,0.0036016195,-0.25884053,0.026357627,-0.012650297,-0.030698316,-0.020907879,0.22189231,0.3561696,0.20763208,0.087474555,-0.32112738,0.04731041,0.06651744,-0.45433477,0.07159508,-0.17293379,-0.026291065,0.041871928,0.62874275,0.24329537,0.19013697,0.17183535,-0.16009936,-0.023695117,-0.12348949,-0.33989787,0.086805716,0.06106254,-0.036449697,-0.045845684,0.2144719,0.31845787,0.07795623,0.14649887,0.088655666,0.25074112,0.25988904,0.07321586,0.08041688,-0.06569506,0.34217376,0.34824762,0.44286743,0.103329256,-0.10564874,0.25616413,0.17617255,0.35437393,0.23952523,0.2065215,0.01429074,-0.003778287,0.25302136,0.11174625,0.084996276,0.10497414,-0.5003826,0.06153678,0.030805448,0.21497256,0.073495016,0.043697894,0.082907945,0.16276631,0.0933657,0.051270377,0.021952378,-0.39743632,-0.4895645,-0.0010374923,0.13733765,0.09501458,0.08931295,0.101777,0.0058540106,0.31248346,0.070671394,0.09450456,-0.16356891,-0.29810858,-0.41090617,0.19078118,0.22332898,0.20853202,0.25999647,0.29960582,0.14279738,0.42783275,0.14218356,0.23022097,0.05374201,-0.2517053,-0.29824743,0.14785022,0.37142232,0.15098803,0.24705113,0.32141438,0.085990526,0.2690147,0.16895664,0.2561609,-0.2810273,-0.28042698,-0.2537795,0.12682758,0.12764902,0.23490083,0.06820215,0.16753054,0.10954078,0.32329622,0.12845726,0.13573325,-0.11208035,-0.09957956,-0.15832515,0.07207901,-0.08251976,0.14522436,0.058550123,-0.07487662,-0.0012579496,0.055020694,0.01024244,0.19094187,0.04691644,0.034928985,0.10629943,0.17752032,0.15191293,0.11774921,-0.0765111,0.1762838,0.0949163,0.05348666,-0.02516501,0.107556224,0.15931167,0.39282382,0.20244919,0.13976766,-0.219991,0.11359389,0.025060255,-0.33334553,0.09467221,-0.07439654,0.040054195,0.056184072,0.41643465,0.19453204,0.27337056,-0.041446764,-0.31010997,-0.01390818,-0.030887121,-0.46291813,0.0073093544,-0.23074168,0.0019563776,0.049634863,0.4921363,0.25040182,0.5551306,0.07950103,-0.13589008,0.07307765,-0.028764687,-0.41907787,0.1272137,0.055828225,0.029727101,0.15627074,0.62949574,0.64402,0.30771717,-0.032287825,0.32632256,0.15194973,-0.037952755,-0.13010086,0.113351084,0.13503829,-0.102282666,0.19641964,0.3424343,0.5563004,-0.1805137,-0.03144614,-0.026003202,0.06504399,0.12735096,-0.07135366,-0.1479664,-0.025604052,0.12684657,0.21994352,0.36906862,0.03512174,0.043923702,0.25440636,0.4014891,0.24680269,0.43491122,0.38163066,0.28197673,-0.04148702,0.33200067,0.3221158,0.11040378,0.13097703,-0.1417558,0.23886178,0.08363156,0.049038265,0.13113679,0.07938893,0.3730466,0.25981244,0.17501506,0.008955937,-0.30510715,-0.12957399,-0.7620831,0.090026386,0.0661844,0.05449577,0.11893246,0.17243396,0.3159438,0.19002758,0.09790484,0.013795811,-0.19989875,-0.48506492,-0.43664423,0.09877566,0.10567193,0.10343367,0.1037707,0.19351874,0.017394364,-0.0069723045,0.083221085,0.0064651137,-0.18151084,-0.41673276,-0.17609534,0.07998429,0.20867191,0.105764024,0.0689013,0.07441377,0.04142937,0.08211421,0.049666286,0.13360253,-0.08656197,-0.45716402,-0.14180125,-0.03016052,0.21918641,0.09507804,0.06986759,0.18358205,0.056153737,0.14980917,0.10806578,0.07136666,-0.028110571,-0.36613214,0.22555672,-0.016513905,-0.15078056,0.026049405,0.12441121,-0.2957282,0.06289658,-0.281929,0.02757978,0.07074035,-0.096758954,0.16981794,0.2678253,-0.09364565,0.011932756,-0.04484703,0.0733003,-0.07284869,-0.020138266,-0.24075305,0.049904823,0.037743792,0.14481406,-0.01815394,0.5246193,-0.17836912,-0.10899161,-0.18323949,-0.05670047,-0.36620405,-0.020294683,-0.3023299,0.10787631,0.08728741,0.30432412,0.25012675,0.5719728,0.025486374,-0.027607948,-0.052545827,-0.05564324,-0.355671,-0.0333343,0.0052930913,0.018997824,0.011607843,0.28290108,0.51346904,0.40389535,-0.4442204,0.39842144,-0.17448401,-0.16778901,-0.20848191,-0.30661023,-0.21512529,-0.20402676,0.038743448,0.36084282,0.50368804,0.08373344,0.022006473,0.021451632,-0.20621192,-0.16915984,0.011518155,-0.17336702,-0.14326537,-0.09707078,0.049640007,0.3113183,0.6664619,-0.08605498,0.10726398,-0.074349254,-0.028826665,-0.0032881019,-0.09377637,-0.02483502,-0.06343923,-0.10861975,-0.12792087,-0.07757807,0.23126262,-0.041200507,0.33421585,0.29811922,0.38940582,0.27306324,0.33769718,-0.024691768,-0.09074732,0.23263587,0.3043431,0.37118345,-0.2615928,-0.053037018,0.19504167,0.14250709,0.3393988,0.12849592,0.14545615,-0.044942923,0.09257609,0.20930952,0.28308362,0.4342466,-0.51442254,-0.17669691,0.12732826,-0.029018134,0.22759406,0.30266294,0.0071212263,-0.07721026,0.12852187,0.26400906,0.10459329,0.12567179,-0.60796416,-0.51703376,0.020522537,-0.0062262043,0.11295246,0.14083044,-0.028209884,-0.024227755,0.07699341,0.09487896,0.046356607,0.10335612,-1.1816353,-0.5197711,-0.1252509,0.04317512,-0.013553801,0.007665787,-0.030197997,-0.085679404,0.07504826,-0.04878216,-0.046005916,-0.054133415,-0.7428073,-0.08481912,0.042747412,-0.113560826,0.015629064,0.074981846,-0.10028634,-0.061982412,-0.18464084,0.052861825,-0.022036793,-0.007926433,-0.45425835,0.14954089,-0.05091963,-0.2597462,-0.17163292,0.0709,-0.23243324,-0.12762353,-0.3030235,0.100826465,0.0823504,0.024114067,-0.50795746,0.56579953,-0.18313044,-0.5717672,-0.16819628,-0.07619647,-0.5657765,-0.045645006,-0.25666222,-0.010643401,0.080188565,0.0043934914,-0.45108107,0.7572528,0.056960322,-0.25378114,0.06259431,-0.08376831,-0.43992233,0.09275279,-0.1572821,-0.078817695,0.20142435,0.28002125,0.6368222,0.54565793,-0.052160867,-0.0032774266,-0.098667584,-0.15152848,-0.24355265,-0.12265611,0.041226797,0.012193885,0.08385168,0.34858572,0.71323663,0.4133888,-0.051876877,0.21909344,-0.016293084,-0.05398055,0.07229322,0.10032129,-0.19248177,0.05877065,-0.06881354,-0.1228726,0.62504363,0.23006585,0.2293937,-0.16681619,0.24171878,-0.010939984,-0.20185828,0.11693048,-0.13130109,0.020125793,-0.0415879,-0.11344528,0.15705626,0.037267808,-0.11408575,-0.035872027,0.084595315,0.080267906,-0.020613603,0.016423434,-0.07542915,0.09605366,-0.0056842617,-0.029828425,-0.13803463,-0.07382474,-0.42630082,-0.23252662,-0.31413954,-0.15622808,-0.24465816,-0.035176605,-0.0538441,-0.26005447,-0.38414374,-0.66677934,-0.24945305,-0.077933945,-0.42671844,-0.43724072,-0.47290602,-0.31371483,-0.42474878,-0.17411469,-0.06296931,-0.29879516,-0.50857383,-0.53718734,-0.21081908,-0.092292376,-0.035675827,0.098685116,0.059263304,0.16060223,0.2472258,0.113389365,-0.1447864,-0.015028731,0.08229209,0.044762667,-0.26845825,0.0063241576,0.009659068,-0.11675937,0.039556056,-0.067702524,-0.14908531,-0.005254756,0.024779733,-0.14814368,0.011471009,0.05079883,-0.36503482,0.017859353,-0.17956363,-0.00977127,0.0054205405,-0.05459694,-0.062364604,-0.38441747,0.05778957,-0.13378221,-0.0109864175,0.024229605,-0.20523144,0.058833957,-0.48886347,-0.53776556,-0.23746663,-0.12473025,-0.4614557,-0.18480839,-0.08052492,0.0074159824,-0.11230262,-0.06099515,-0.0069467407,-0.003530163,-0.18886861,-0.23523374,-0.17199293,-0.041312043,-0.1932774,-0.2095777,-0.38043523,0.19997546,0.058796216,-0.08017001,-0.20698753,-0.00045465492,-0.38022053,-0.6349117,-0.103240736,-0.2602363,-0.76789683,-0.15340365,-0.24427913,-0.15699044,-0.053034067,-0.15837115,-0.4477981,-0.2594417,-0.6760986,-0.7694485,-0.30766866,-0.38578075,-0.8894829,-0.5338435,-0.16657417,-0.17671335,-0.24928416,-0.19358511,-0.45176655,0.059254646,-0.5526264,-0.057976786,-0.37717333,-0.27886397,-0.21255216,-0.68575317,-0.2500506,-0.114850126,-0.13964638,0.07938113,-0.20914446,0.05296195,0.045682956,-0.114344165,-0.2144431,0.23695368,-0.20914795,-0.24807367,-0.10401297,0.18731171,0.11485833,0.39094466,-0.13496657,-0.010880131,-0.3080309,-0.16963041,-0.17820692,-0.14051703,-0.23013489,-0.3191656,-0.083529405,-0.12241503,-0.1066916,0.18700156,-0.16612649,-0.072182335,-0.06998709,0.004769474,-0.05559916,-0.017886836,0.024049167,-0.12070119,-0.052333266,0.0077975434,-0.08187932,-0.11932223,-0.20413843
-0.11532924,0.029396115,-0.09236272,-0.032045484,-0.021809224,0.010542872,-0.05997959,-0.08636451,0.0100599425,0.03505251,0.03319124,-0.033492852,-0.120081596,0.08552212,-0.07782432,0.013597659,0.012481069,-0.03218725,-0.02028708,-0.076656595,0.060094103,0.023196474,-0.021396775,-0.1239438,-0.0002508186,0.030838048,0.12826052,0.034168918,0.2236826,0.0972303,0.016470155,-0.09330335,0.21695782,-0.058551252,0.037064616,0.11262966,0.12967782,-0.0035043934,0.18772946,-0.026026124,-0.07131555,0.19299616,0.25208178,-0.1281877,-0.0380764,-0.26538128,-0.026897918,0.17014782,0.047155492,-0.13344714,-0.107277215,-0.26165488,0.0833528,-0.14019375,0.017218383,-0.10410136,0.1384681,-0.28691146,0.0060906713,0.051580045,0.003049442,-0.19800602,-0.24663907,-0.13086906,0.15368572,-0.107288435,-0.032453608,-0.083252385,0.090424486,-0.3272294,0.016101686,-0.0016600101,-0.1288478,-0.24339005,-0.024632307,-0.19038686,0.16132835,0.012142983,0.021337733,-0.09124119,0.14417106,-0.14062177,-0.010040246,-0.02791624,0.119278446,0.1749373,0.086978234,0.031202203,0.20677888,0.06157839,0.11355001,-0.111190535,0.09101892,-0.12154686,-0.09204288,0.12086106,0.07968143,0.030118074,-0.20610611,-0.049327664,0.25975317,-0.03690297,0.15714754,-0.18498474,0.14147416,-0.291106,0.09804594,0.1747251,0.03245265,0.13141194,-0.30397698,-0.11844346,0.5298229,0.12395902,0.07594404,-0.1225403,0.5632892,-0.12247095,0.0143629685,0.22523643,0.15920709,0.2965458,-0.2100437,0.08843405,0.007823577,-0.23631682,0.36757886,-0.05361406,0.07928421,-0.13589843,-0.024033949,0.3458597,-0.09736855,-0.3869809,-0.13498789,-0.22239259,-0.22452612,-0.2182072,-0.48006764,-0.11747451,-0.2318479,-0.07490319,0.03184082,-0.27312154,-0.07211207,-0.106164895,-0.09012098,-0.14010195,-0.114497066,-0.024976764,-0.08781984,-0.13956627,-0.009703074,-0.011201828,-0.021745976,-0.1343194,-0.08133613,-0.0008589679,0.19553076,0.04648762,0.02731429,0.108254015,0.037825156,-0.086396754,0.022018664,0.14530824,0.078730054,0.047173757,0.015355652,0.29673758,0.009862014,0.28914088,0.21723987,0.07765208,0.28170803,-0.07367276,0.13690528,0.25518447,-0.028469639,0.06353035,0.037388675,0.13912286,-0.002412911,0.23417066,0.23087445,0.015819622,0.10828208,-0.048402768,0.1835173,-0.0055845357,0.089690715,0.06552388,-0.09047051,-0.051236074,-0.0685211,-0.022163097,0.058002863,-0.017365726,0.18557161,-0.116281345,0.09738147,0.07216377,-0.30202878,-0.009100595,-0.23970543,0.012269636,-0.046087146,-0.06266684,-0.07012177,-0.014160201,-0.07652251,-0.19235574,0.02148034,0.1354663,0.24565396,-0.06272588,0.17338987,0.19938989,-0.014103885,0.27058023,0.034901522,-0.11320529,0.033735156,-0.460975,-0.030559814,0.26603556,0.32303628,0.037202466,0.19365825,0.19532533,-0.112113744,0.24428481,0.060147148,-0.1006274,0.03283278,-0.28080305,-0.022564722,0.22633035,0.45100176,0.18735267,0.0947123,0.073921844,-0.29691628,0.14278196,0.10047884,-0.25346547,0.0029546195,-0.49531057,0.11701807,0.056073423,0.21310125,0.13017927,0.14191025,0.07493009,-0.38186076,0.056747574,0.07240008,-0.50674087,0.080124184,-0.36067587,0.006908989,0.19519572,-0.19800976,0.108321905,0.0822754,0.060620323,-0.50615144,0.0067476635,0.14938053,-0.3676349,0.14612103,-0.5722204,0.24126294,0.18859072,-0.61424434,0.11472825,-0.043898664,-0.013442512,-0.5509073,-0.07197333,0.27524266,-0.30585828,0.007012208,-0.18948562,0.32554743,-0.091575444,-0.51800466,0.12090448,0.035525974,0.047693662,-0.20684415,-0.16318107,-0.12165884,0.03868816,0.06666089,-0.14757527,-0.2639355,-0.34583822,-0.23316693,0.02705886,-0.083966754,-0.29037735,0.012423799,-0.18155032,-0.12600279,0.004062621,0.005449615,-0.082551084,-0.15264988,-0.14102751,-0.09350182,-0.05015704,-0.09017263,0.017194469,-0.0033665833,-0.12337959,0.09404475,0.09724221,-0.07123108,-0.099830344,0.18788159,0.16042097,0.29406172,-0.10858981,-0.013260068,0.20143144,0.01069616,0.15429363,-0.040060014,-0.062428396,0.14681411,-0.17958571,0.036772452,0.1679973,0.26569253,-0.1354575,-0.021304576,0.13985324,0.0022062417,0.17297448,0.0956911,-0.019037867,-0.010329721,-0.027180078,0.06553333,0.27344283,0.26470137,-0.07098089,0.26299357,-0.12742336,0.07276434,-0.15393595,0.04316894,-0.0131402835,-0.015617637,-0.123511635,-0.023689175,0.026038649,0.28774548,0.14012703,0.04520473,0.14777386,-0.15332705,-0.0806426,-0.05389263,-0.06842338,0.14359887,-0.05806569,-0.051197767,-0.11560703,0.5235709,0.09769701,0.1718069,0.154015,0.0062630265,0.0110141765,0.0133326,0.01057421,0.034947664,-0.54408634,-0.004789737,0.11488525,0.7429401,0.1955084,0.27189738,-0.003803004,-0.06668019,0.10869437,0.084418796,-0.14393522,0.045494102,-0.7647746,0.066443585,0.1469185,0.31092528,0.20228,0.18035983,0.0040802537,-0.10916858,-0.033222906,-0.044311382,0.075215206,0.06172601,-0.49406385,0.07225777,0.06715211,-0.100274235,-0.06302415,0.07413783,-0.08838018,-0.21442337,-0.03418396,-0.01810125,-0.23448868,-0.07056283,-0.39978513,-0.05083192,0.028633187,-0.1159568,-0.054263994,0.06923194,0.016891122,-0.04299587,0.043352723,0.13659316,-0.18413207,0.02436068,-0.23788896,0.09753439,0.17668335,-0.4268795,-0.09577905,-0.035800654,-0.027735429,-0.54037493,-0.09082305,0.08653024,-0.6735002,-0.0018199579,-0.22967461,0.04084447,0.18683988,-0.6279096,-0.22297616,-0.18056218,-0.13793066,-0.34180218,-0.21535327,-0.063746735,-0.2530947,-0.10355009,0.0028101471,-0.0127861975,-0.16884448,-0.60820574,-0.2403812,0.05006257,0.12332135,-0.20569049,0.10196647,-0.3197783,-0.2670088,0.105423726,-0.072365515,-0.39360407,-0.30836383,-0.2362015,-0.005059294,-0.06798507,0.15049006,0.07689255,-0.061805025,0.17294425,0.14069594,0.053390786,-0.16848634,0.19814926,0.048306607,0.18314853,0.06631259,0.30260473,0.027103936,-0.06191878,0.09444076,0.059057105,-0.06512724,0.035146907,-0.02547429,0.045448933,-0.0794631,0.15240064,0.039463695,-0.032162003,-0.0070562605,-0.067071296,-0.14687061,0.054679394,-0.061855838,-0.1797393,-0.17779265,0.11111352,-0.007846235,0.47138482,0.20827878,-0.2036619,0.17427176,0.05263396,0.09388342,-0.04153966,-0.031175599,0.028684756,0.015253859,-0.00017609457,0.009160034,0.46705878,0.3472524,-0.2696771,0.062265594,-0.14261699,0.085522376,-0.15146747,-0.21482311,-0.099970214,-0.020621425,-0.10490516,0.09973406,0.518073,0.37589374,-0.020669172,0.0825558,-0.25413287,0.188782,-0.032462142,-0.25923637,-0.16209209,-0.3902488,-0.10105241,0.12416076,0.31765035,0.4470849,0.2457003,0.05259048,-0.029616559,0.047928065,-0.001909538,0.018458119,0.033503257,-0.27147174,0.14336959,0.16513081,0.185279,0.42505902,-0.033458184,-0.013660637,0.13347211,0.08107393,0.057800923,0.072867915,0.12937297,0.114840716,0.051450875,0.053203374,-0.070217796,0.2710686,-0.09578321,0.080208994,0.15640125,0.012087342,0.054712377,0.074139275,0.14165482,0.05342094,0.034652397,-0.03311645,-0.48607245,-0.015264487,-0.20182988,-0.03332369,0.38630396,-0.0033980738,0.076435216,0.22362758,0.016276145,-0.017054329,0.004106998,-0.09464993,-0.4535663,-0.40884626,0.007327584,-0.030827539,0.281634,-0.0018027783,0.11874086,0.09506866,0.12898703,-0.275451,0.03989658,-0.11848681,-0.5346741,-0.35046196,-0.09768066,0.032876626,-0.3160708,-0.075008735,-0.21801353,-0.66390306,-0.08600322,-0.061660692,-0.19994968,-0.15274397,-0.12342636,-0.29922184,-0.44771448,-0.815674,0.04738173,-0.69736636,-0.7067494,-0.19595605,-0.8685163,-0.10023541,-0.5983535,0.01567304,0.20693658,-0.7894698,-0.15189739,0.14944665,0.11458394,0.37069783,0.26539987,0.12456509,-0.07574438,-0.1385955,0.21507682,0.09834827,0.10800319,0.009073532,0.024803795,0.04884749,-0.16910307,0.21602757,0.0011387827,-0.09833341,0.13780946,-0.08251301,-0.07708803,-0.025454517,0.020161252,0.08315398,-0.38416505,-0.0025044102,-0.025863577,0.046445083,-0.14872342,-0.13727973,-0.13279706,-0.1149433,-0.037610944,0.008336308,0.57525706,0.36812374,-0.6825476,0.026060876,-0.20662919,0.10788101,-0.123870365,-0.19845885,-0.13665494,0.32814354,-0.21308357,0.06481413,0.2529892,0.5839038,-0.5985006,0.010137997,-0.074315295,-0.08731343,-0.21946691,-0.03553103,-0.21708928,0.15144445,-0.13814445,-0.12490165,0.3671209,0.7103406,-0.7956022,0.15586212,-0.13305658,0.01320664,-0.058580756,-0.1425366,-0.092637025,0.3017817,-0.008438896,-0.028045878,0.4596576,0.51881546,-0.46358255,0.1365262,-0.23569268,0.17714654,0.05956481,-0.13724144,0.045121185,0.30922443,0.08063083,0.01680496,-0.06549747,0.4364851,-0.28602764,0.18447092,0.0070090853,0.21301386,0.15324378,0.078303814,0.10261171,0.42681107,0.09335577,0.11743012,-0.08772395,0.31002226,-0.3884667,0.33519667,-0.03964616,0.21104418,0.17383493,0.1511093,0.28280222,0.47449028,0.13875417,0.015026129,-0.22601426,0.062180962,-0.39942273,0.18625462,0.17938204,0.10018535,0.1533755,0.2237811,0.004405337,0.25732696,0.17213613,0.05616735,-0.4276904,-0.1469952,-0.31171545,0.17588429,0.109480225,0.14518704,0.19941798,0.14386939,0.09760159,0.06889046,0.15555249,-0.06573873,-0.68119335,-0.6363371,0.07537143,-0.3132793,-0.047206916,-0.32609093,-0.2348187,-0.30616266,0.04338909,-0.007389914,-0.22773121,-0.33884966,-0.8763574,-0.576786,-0.37962085,-0.7530629,0.1684651,-0.81675744,-0.4243221,0.2150933,-0.7861956,-0.45012558,-0.43375513,-0.84525895,-0.979763,-0.5153642,-0.08026435,0.20550625,0.13687135,-0.303058,-0.14831677,-0.0047957646,-0.34143284,-0.14124534,0.18751338,0.1549017,0.01705269,-0.022108007,-0.016749604,-0.14276983,-0.20918338,0.07054609,-0.25477982,-0.19125848,0.2628959,0.122817315,-0.2923874,-0.11867285,-0.1061328,-0.023051001,-0.25818825,-0.29229042,-0.26389667,-0.10698342,-0.26058656,-0.2087105,-0.3392843,0.1642563,-0.23463175,-0.108477935,0.20503333,0.33473763,-0.508122,-0.15084368,-0.04104958,-0.10415072,-0.345708,-0.037052546,-0.2346674,0.36757538,-0.31696615,-0.20880532,0.060123943,0.2244395,-0.8450265,-0.14321999,0.0012677276,-0.044570252,-0.17493014,0.027049668,-0.1936332,0.20208009,-0.24555899,-0.14574693,0.15514521,0.32747683,-0.42315802,0.16994575,0.015460222,0.05240308,-0.009256415,-0.04755786,-0.031549025,0.0076759625,-0.07128223,-0.0047313846,0.23051228,0.57143295,-0.36110497,0.23834,0.08063765,0.22988507,0.21043366,0.19609137,0.15225941,-0.13875544,0.18795814,0.1452142,0.12318503,0.26629105,-0.25924093,0.4400747,-0.19811152,0.39008886,0.17017815,-0.16198231,0.21680969,0.08714611,0.2005264,0.18147571,0.044623498,0.32802674,-0.14754727,0.19297026,-0.34282556,0.17456023,0.1531185,-0.2538349,0.14589883,0.0039529656,0.14451273,0.20917764,0.19361736,0.18652493,-0.09930787,0.3018227,-0.27554148,0.25244123,-0.0051720194,-0.13324782,0.14644183,0.36076117,0.007300303,0.09159984,-0.14266364,-0.035473876,-0.21463488,0.22239502,-0.9634558,0.14759745,-0.10471307,-0.67046726,0.068176344,0.24392594,-0.04771801,0.028117843,0.2325088,-0.13684708,-0.24012634,-0.4200846,-0.12450385,-0.1698324,-0.40750575,-0.35709012,-0.17479455,0.13915439,-0.40809318,-0.046376724,-0.17886461,-0.47970706,-0.38833216,-0.49027988,0.13824964,-0.19357395,-0.17941895,0.16953479,-0.6384072,-0.3016711,-0.3968785,-0.5291794,-0.6460876,-0.62920403,-0.033349127,-0.027538503,-0.21896343,-0.07024217,-0.34437287,-0.2989744,0.015820742,-0.0820384,-0.26260898,-0.06367919,0.14755055,-0.24954425,0.007006358,-0.36275202,-0.12424204,-0.17523834,-0.14686173,-0.063055195,-0.2910202,-0.10133135,-0.1368702,-0.16072825,0.18662624,0.24430259,0.61028594,-0.14693308,-0.35116836,-0.14936547,-0.27545,-0.19842637,-0.2535364,0.15421495,-0.3116085,-0.31600285,0.25431547,0.38358724,0.3210701,-0.24258208,0.006416416,-0.40082234,-0.20332558,0.09321905,-0.19121835,-0.10185801,-0.039687313,-0.17979808,0.020854251,0.2226977,-0.13579863,0.01111536,-0.00998988,-0.06570414,-0.14310877,-0.14005554,-0.13418633,-0.17030488,-0.20916764,-0.1349348,0.06544357,0.08089559,-0.19486086,-0.053699117,0.12958439,0.01242351,-0.03627664,0.047214966,-0.21783386,-0.30137062,0.0075906655,0.06122842,0.22098403,0.3654223,-0.091125615,0.27278087,0.015889272,0.38560465,0.25127017,0.12320982,0.0637711,-0.32657102,0.22496775,0.23647612,0.3358204,0.20976381,-0.08204809,0.22442128,-0.18272656,0.15032132,0.10152443,-0.23110418,0.1395082,-0.44077262,0.20245542,0.17741443,0.35847354,0.26396072,0.2116929,0.10601396,-0.53066826,0.095027916,0.13362154,-0.53032786,0.042120464,-0.20790663,0.05860528,0.22406642,0.49617463,0.19058819,0.18248707,-0.029952161,-0.16915464,0.048007414,0.100765675,-0.21414834,0.03083776,-0.0691225,0.031567,0.062866144,0.60735995,0.21189679,0.034242123,-0.053717885,-0.44800848,-0.15541442,0.038502995,-0.55052274,-0.041441187,-0.042687923,0.041788306,-0.079870835,-0.105043255,0.10704771,0.043829918,-0.16069086,-0.12109187,-0.051462933,0.09385136,-0.050937667,0.040645227,-0.12893172,0.06485994,-0.4087932,-0.62486076,0.09423804,-0.21187907,0.061570574,-0.18158606,-0.3672525,-0.22772545,-0.10655772,-0.0844123,-0.2895069,-0.36218712,-0.48549834,-0.6876857,-0.20688732,-0.013485498,-0.14370674,-0.0834959,-0.08881847,0.0790355,-0.15378298,-0.06732191,-0.048202302,-0.013164311,-0.10837192,-0.117105536,-0.12169112,-0.04246798,0.0042501623,-0.14083317,-0.0037099968,-0.042988658,-0.061804563,0.1004585,-0.26006588,-0.0018778308,-0.0038053752,-0.37412307,-0.069357,0.13119057,-0.29458508,-0.3845719,-0.120932,-0.1360645,-0.38650632,-0.09564478,-0.3497439,-0.22762023,-0.15535101,-0.21128342,-0.0926558,0.32129857,-0.2348562,-0.121934,-0.16318554,-0.1383475,-0.1336692,-0.26440793,-0.64886546,-0.20730868,0.005886684,0.34283328,-0.004518606,0.46566308,-0.1710937,-0.1550096,-0.22450426,-0.14106283,-0.3319507,-0.07615747,-0.57359004,-0.17537534,-0.13227841,0.22984217,0.049785852,0.23335925,-0.13795274,-0.057377394,-0.12762769,-0.0006334506,-0.040688097,-0.1604169,-0.66966,-0.05615859,0.00020039687,0.28903735,0.26941243,-0.012355234,-0.04831667,-0.07159387,0.061607204,-0.039893504,-0.20371349,-0.018458793,-0.514049,-0.008365296,0.11414004,0.22320965,-0.037217412,0.18087697,0.021452231,-0.2974081,-0.04810182,-0.07337668,-0.29778287,-0.086964294,-0.3907735,-0.004514225,0.15568028,0.26549786,0.010522244,0.2931718,-0.043674648,0.044797964,-0.07848103,0.09604375,-0.27072704,-0.025427353,-0.2591451,0.06524939,0.16541336,0.45267528,0.25131804,-0.014738021,0.017761936,-0.15441969,0.08609409,0.062746406,-0.17336757,0.07690041,-0.21862169,0.077173024,0.050477702,0.059201196,0.008567479,-0.074750386,-0.14828227,0.029870313,-0.04149797,-0.117680915,-0.10359639,0.10161369,-0.13769293,-0.09786085,0.014113849,-0.22707321,-0.18641081,-0.031365994,-0.114134535,0.063354366,-0.025764415,0.15829757,0.12893528,-0.025688853,-0.12781972,0.1439853,-0.08153331,-1.121638,-0.38302928,-0.015535279,-0.13870391,-0.24044105,-0.16345358,-0.49881876,-0.64089805,-0.035483047,-0.06795248,-0.48534808,-0.4815947,-0.9055008,-0.02995356,-0.18426605,0.10724648,0.028022042,-0.119407445,-0.027741913,-0.051447265,-0.13542101,-0.11462138,0.1291247,0.07197268,-0.07536044,-0.18141288,0.13593128,0.016042588,0.015375582,-0.062098425,0.058142703,-0.004333039,0.04378552,-0.1671964,-0.027580258,-0.115106314,-0.27866468,0.014052326,0.43789658,-0.15399294,-0.18331268,-0.2822918,-0.11154865,-0.09232779,0.06296386,-0.38810027,-0.030079056,-0.14942013,0.002019476,0.14460017,0.18618868,-0.28009608,-0.13827299,-0.29363492,-0.3210213,-0.062176637,-0.25530207,-0.4305434,-0.22762564,-0.13610981,0.16561064,0.18749559,0.3092401,-0.17255677,-0.2603645,-0.17567766,-0.22188321,-0.15832217,-0.17094016,-0.19400588,-0.18600251,-0.103361785,0.3478569,0.10069947,0.5435199,-0.13157107,-0.03220704,-0.16394067,-0.02844362,-0.09434786,-0.23098852,-0.4679801,0.034227267,-0.014237638,0.5691565,0.4893671,0.18260898,-0.14569584,-0.27933878,-0.13451183,-0.10443979,-0.34764138,-0.0538146,-0.47543368,-0.03794504,-0.09683991,0.559597,0.32362136,0.0838234,-0.1741998,-0.09937149,-0.21559207,-0.0395927,-0.1750009,-0.12414069,-0.45964265,-0.0421741,-0.009322754,0.31287003,0.0006887558,0.27459934,0.025502123,0.14248146,0.016716514,0.04238027,-0.069316834,0.014880468,-0.30544126,0.045098763,0.1080159,0.34616897,0.014464754,-0.06402793,0.013357403,0.053609904,-0.03952506,0.10823469,0.040083252,0.13767733,-0.064724825,0.05674059,0.0071559763,-0.1306747,-0.55274475,-0.09483529,-0.10197884,0.07864227,-0.07328576,-0.08794623,0.18205747,-0.13002965,-0.10761967,-0.06766407,-0.11264828,-0.6498626,-0.5471622,-0.079904355,0.015478069,-0.14118837,-0.018962802,0.061974257,0.044342995,0.046256136,-0.14538443,-0.018609721,-0.0147737665,-0.37846825,-0.36771864,-0.14057969,-0.35885918,-0.056349445,-0.56366235,-0.5012323,-0.1258413,-0.15864418,0.011079992,-0.33179012,-0.5947131,-0.44972685,-0.23053817,-0.128481,-0.01257917,0.09851803,-0.293554,-0.15956347,-0.12949903,-0.25008234,-0.080429785,-0.029778294,0.03996281,0.16864169,-0.2836387,0.16774195,-0.017535683,0.13574556,-0.0780039,0.0032310402,0.068130575,0.07121012,-0.4531196,0.049828,0.09820577,0.02557969,0.029300757,0.19401814,0.025245065,0.0042201183,-0.04689456,-0.05341076,-0.0006911357,0.084765635,-0.43384078,0.031915523,-0.012409316,-0.07746396,0.106692985,0.22953264,-0.0010883143,-0.07128183,-0.14975478,-0.14054124,-0.15907256,0.09084089,-0.5212802,-0.10313679,-0.19804932,-0.11993874,0.18501455,0.24452569,-0.1403194,-0.35827285,-0.10266562,-0.25061592,-0.24807689,-0.0682844,-0.50323135,-0.20122242,-0.15585488,0.3073177,0.2232355,0.0071982546,-0.124660335,-0.1045021,-0.19401225,-0.12528144,-0.13058506,-0.1583186,-0.57733864,-0.17017429,-0.087380566,0.45488253,0.06620586,-0.0871501,0.0041537476,-0.09750816,-0.21915953,-0.0982452,-0.12478516,-0.076487675,-0.53866076,-0.039691374,-0.06741911,0.17102335,0.21253158,-0.034291103,0.016861828,-0.14964607,-0.077984095,0.07675647,-0.18693715,0.046218306,-0.10090147,-0.00068459526,0.022417469,0.47054276,0.14170568,-0.22872509,0.08859552,0.1671784,0.04330199,0.051301975,0.10575167,0.099260435,0.104828835,0.028174857,0.029786019,-0.20694952,-0.019591274,-0.29668227,0.045639925,0.1725454,-0.034197487,0.037356216,0.17577751,0.043583993,0.055730764,-0.083308175,0.024793204,-0.38722175,-0.19567299,-0.40015885,0.02917041,0.08819411,0.031084333,0.019972218,0.16806011,0.036762804,-0.23473805,-0.013131193,-0.17518558,-0.5468538,-0.71891457,-0.15186079,-0.098769344,-0.6548959,-0.079472825,-0.03247868,-0.22766148,-0.18927808,-0.04031552,0.079725884,-0.08036525,-0.10039727,-0.42777276,0.067881554,-0.2024501,-0.1221461,-0.32030812,-0.31231236,-0.03925786,-0.010349833,-0.06434959,-0.28868657,-0.11405235,-0.5355321,-0.36320344,-0.029438552,-0.06755011,-0.041377805,-0.20295916,-0.1895295,-0.26679948,-0.37270474,-0.14815238,-0.13035473,-0.074657544,-0.07258821,0.14620635,0.2760013,-0.06674271,-0.03034584,-0.03467832,-0.08347882,-0.05135761,-0.16877912,-0.4536483,0.020710766,0.03853998,0.2806499,0.31218037,0.44146067,-0.0048056534,0.112382635,0.0010425173,-0.028513448,-0.08462236,-0.22890592,-0.46011445,0.013537657,0.03843824,0.24685676,0.23725414,0.37625444,-0.056168616,-0.09046279,-0.04338657,-0.0035525225,-0.096519284,0.06030588,-0.5451542,0.047729682,0.006008505,0.12752457,0.2421257,0.015686715,-0.035042137,-0.2702236,-0.15042442,-0.011874551,-0.24735191,-0.05780444,-0.5480697,-0.051963814,-0.14302082,0.14477551,0.096546456,-0.17999664,0.1046556,-0.23417787,-0.07590717,-0.103103615,-0.23358536,0.13678735,-0.2998697,-0.032698434,-0.20536378,0.09707994,0.35067984,-0.27218807,0.047571905,-0.12001193,0.036914166,0.01666722,-0.02237286,0.012266173,0.058342766,-0.04407619,-0.030624246,0.11694481,0.15001367,-0.23936662,-0.012122765,0.08019232,-0.053443156,-0.025295705,0.027591215,0.026106367,0.21470435,0.03782058,-0.013867891,0.18139969,0.33762875,-0.44220427,-0.006296474,0.05112339,0.10944359,0.09599615,0.07238255,0.07764303,0.101570204,9.599539e-05,-0.02773039,-0.24792755,0.06664479,-0.5289247,0.07170947,0.04073147,0.12651818,0.022528153,-0.0030896184,0.11439931,-0.06950896,0.041038148,-0.0017360884,-0.26056474,-0.13711749,-0.63390434,0.061248258,-0.30191812,-0.048128337,0.081120014,0.013439624,0.0013740986,0.12540969,-0.015125498,-0.071230315,-0.40173772,-0.684738,-0.24720798,-0.2553581,-0.09248439,0.083631024,0.12008486,-0.11371578,0.00090764975,-0.034987647,-0.049603045,-0.15124317,-0.40145198,-0.40997636,-0.18002062,-0.30475733,-0.041406374,-0.5162965,-0.08223698,-0.086010076,-0.09721786,-0.111032836,0.0032027797,-0.0040793936,0.17320909,0.048533488,-0.04134436,0.106853366,0.056215912,-0.10092704,-0.0377133,-0.030908026,-0.04104809,-0.15497412,0.054599293,0.08114347,-0.21974614,-0.1430751,-0.15166633,0.069338486,-0.0068864226,-0.08883323,0.10980376,-0.036787383,0.19275603,-0.24803637,0.08898665,-0.05105414,-0.25269958,-0.051108036,0.017813956,-0.0047139884,0.08438035,-0.067477435,-0.06251165,-0.12962686,0.20160629,-0.35488078,-0.037619967,-0.0687092,-0.1276929,0.21262394,0.25792587,0.03904217,0.048559364,-0.016279435,0.0483914,-0.06872682,0.16387385,-0.11738273,0.07809726,0.08658178,0.057911925,0.30887315,0.009378119,0.12493694,-0.093181826,0.056365207,0.013907274,-0.075185515,0.009823798,-0.27758527,-0.037696686,0.056393683,0.18058167,0.34445724,-0.33018452,0.037605383,0.060159057,0.017175986,-0.05198988,0.019900288,-0.02748877,-0.032385163,-0.005574657,-0.0037969223,0.09238038,0.43885475,-0.13876142,0.17419882,0.021027533,0.054301914,-0.1062707,0.026657173,0.16169101,0.133981,-0.074082665,0.023042314,0.024151832,0.38214418,-0.52277565,0.18085673,0.23953564,0.17148805,0.014045296,0.36618945,0.013483445,0.0057606776,0.03243471,0.06988194,0.095596924,0.45430896,-0.63605905,0.07759082,-0.054976974,0.06252843,0.13461842,0.17488684,-0.11383683,-0.053711075,0.09639112,-0.01555836,-0.07425623,-0.3583576,-0.42145672,0.08070688,-0.080154516,0.114173464,0.10551091,0.0058683734,0.04052516,-0.055268157,0.057669092,0.021479465,-0.1704053,-0.44212276,-0.31414664,-0.10519442,-0.4795588,-0.06391109,-0.07834327,-0.456646,-0.16438538,-0.006028936,-0.06716689,-0.07980551,-0.14615974,-0.3919796,-0.11738258,-0.07568043,0.09261816,-0.06078713,-0.013416156,0.039227113,-0.13529119,-0.022864303,-0.105966605,0.03822467,0.05714936,-0.15520659,-0.032474265,0.1593121,-0.04232474,0.1877988,-0.13789128,0.005861701,-0.009449832,-0.13116963,-0.008691601,0.050243866,0.06226509,-0.036180515,-0.026963975,0.12759168,0.23165163,0.11832386,0.030481553,0.24023256,-0.081332736,-0.08518589,-0.013474655,0.1548956,0.4062452,-0.038046602,-0.1405618,0.17505069,0.30875662,0.25930104,0.21506485,0.27195036,-0.21456906,-0.050614893,0.26059765,0.3950373,0.43229318,-0.087277584,-0.067894906,0.22066927,0.03766285,0.13349268,0.18376568,-0.026134407,0.12259549,-0.041144893,0.15421928,0.18262774,0.2374961,0.13811262,0.002722149,0.14638218,0.1732004,0.103771,0.15535817,0.15377395,0.29166842,-0.10690598,0.2108645,0.09880527,0.06986035,0.18668756,-0.0890559,0.27325585,-0.1047938,0.10785202,0.15956503,-0.0692169,0.46761128,-0.12990156,0.0996538,0.01369706,-0.01006545,-0.111609414,-0.17873731,0.35037562,0.18297882,0.1607171,0.028845496,0.18766858,0.4335459,-0.06425561,0.009770782,-0.07400955,-0.0529448,-0.3153072,-0.21532424,0.10185462,-0.07622764,0.22687973,0.09480608,-0.13134237,0.30337444,0.12536523,-0.21148184,-0.15897398,-0.028681314,-0.13063172,-0.20770636,0.18264732,0.19415087,-0.06275867,0.13394904,0.2570406,-0.004281219,-0.17259717,0.008897995,-0.08943813,-0.04895234,-0.011678713,0.10690693,0.5316777,0.45081702,0.11495692,0.17304054,0.5779788,0.51803035,-0.22407295,0.28873473,0.19582629,0.054595366,0.19131176,0.014949708,0.59332645,0.026002176,0.4648624,0.31159753,0.18291633,0.7741179,0.14102513,0.1393044,0.165326,-0.12860183,-0.008390484,-0.004629621,-0.0734738,-0.108307526,0.2719783,-0.33189774,-0.22447233,0.16279721,0.075923964,-0.2050868,-0.0713865,-0.44036376,-0.25348628,-0.04737256,-0.08850732,-0.0031753099,-0.14846383,-0.15663292,-0.085657775,-0.0746816,-0.11556302,-0.17433257,-0.16909258,-0.41466975,-0.08518082,-0.09808295,-0.06917985,-0.089225486,-0.031139659,-0.0048190122,-0.027783753,-0.06370967,-0.061097812,-0.10134893,-0.066154435,0.030831462,-0.10546995
