0.028791701,-0.2438335,0.07442363,0.31532413,0.093128376,0.10576967,0.4108101,-0.074769534,0.0235279,-0.24293114,0.4299884,0.3478309,-0.020654453,0.027878396,0.045678366,0.41526422,-0.21520863,-0.27285555,-0.21682185,0.43344617,-0.26216087,-0.09019969,-0.26388538,0.06906825,0.020860659,-0.27340385,-0.020498348,0.4087655,-0.27990043,-0.24261346,-0.24182293,-0.055738498,-0.44858703,-0.21566802,-0.43793565,0.2584449,-0.18152668,-0.28032357,-0.068820015,-0.12865053,0.20411782,-0.26100376,-0.053320527,0.2880307,0.18372436,0.044094495,0.18485242,-0.116339974,0.21425334,-0.29681477,0.013704202,0.36829522,0.063545905,-0.15160206,0.08881993,-0.13644065,-0.2034035,-0.20199786,-0.2548247,0.032009352,-0.09535708,-0.054611888,-0.25513464,-0.3564462,0.008621558,-0.24683338,-0.0462623,0.17056532,-0.09396206,-0.21412832,-0.17130166,-0.17202795,-0.20960228,-0.41214788,-0.12447813,0.29750484,-0.19549607,-0.1572325,-0.27342692,-0.055552714,-0.54829544,-0.29694206,-0.40858504,0.23054366,-0.49952653,-0.37721062,-0.5766132,-0.24866259,-0.34852758,-0.28259858,-0.46682078,0.30519366,-0.41453537,-0.4046777,-0.4104713,-0.4181667,-0.06314667,-0.21804456,-0.1682687,0.34827697,-0.1489747,-0.11410934,-0.13044117,-0.26759973,0.024878057,-0.2117885,0.35133833,0.4471555,0.10077745,0.11836388,0.016955838,0.38300806,-0.36832616,-0.29939714,-0.052022286,0.21248701,-0.5527307,-0.3342668,-0.503614,0.1258792,-0.22565584,-0.27617046,-0.20199728,-0.038711827,-0.1614062,-0.019725643,-0.14611319,-0.29846084,0.048424996,-0.1797935,0.024098057,-0.32936642,0.06751965,0.081993505,-0.06941238,0.036345538,-0.1317056,-0.053265695,-0.029375346,-0.33115172,-0.013245313,0.037126575,0.020667966,0.02253881,-0.03204511,-0.38187715,-0.003052005,-0.28129938,0.05152064,-0.057955094,-0.006650127,-0.047614396,0.12622604,0.14027977,-0.13126153,-0.2757602,0.0060174004,-0.118315965,0.05255169,-0.123981535,-0.20262931,0.42442283,-0.09135174,0.063974015,-0.16023399,-0.17931345,-0.18267557,-0.13372593,-0.03551259,-0.1080126,-0.078842916,-0.030504324,-0.03777866,0.1968181,-0.056117598,-0.18630567,0.0016022996,-0.39928263,0.09422768,-0.112446494,-0.25926277,-0.27391338,0.09224552,0.147034,-0.105319865,-0.25731096,-0.108470395,-0.27990094,-0.2492539,-0.024988027,-0.17903297,-0.12032616,-0.18327203,-0.4237579,-0.10566287,-0.28675818,-0.32775357,-0.23624551,-0.14697643,0.014632577,-0.31972855,-0.30330265,-0.44067425,-0.3535906,-0.4046602,-0.3275247,-0.44351813,-0.39491355,-0.20693718,-0.25401863,-0.048125573,0.39093426,-0.14825143,-0.08764993,-0.05230155,-0.007272137,-0.28078282,-0.26473957,-0.37313074,-0.6288836,-0.19169961,-0.44905093,-0.07330156,-0.5119548,-0.09379334,-0.088438645,0.046978742,-0.26900625,-0.0073102447,0.046929333,-0.20544933,-0.1259649,-0.13087663,-0.10707631,-0.17935494,-0.52565354,-0.020996703,-0.08541148,-0.055622354,-0.10679285,0.114265755,0.09120221,0.041099958,-0.4526322,0.07184258,0.20962124,0.007730875,-0.14969936,0.16637427,0.061180998,-0.012225413,-0.295198,0.08123575,-0.096434675,0.12477651,-0.041006014,0.016517567,0.039764166,-0.06793674,-0.06296171,0.097478025,-0.046733417,0.14886595,-0.18624271,-0.060568634,0.16538203,-0.06681928,-0.14709185,-0.056956008,-0.19056909,0.043992903,-0.21658471,-0.06250432,-0.7154428,-0.17576577,0.0016025743,-0.20170882,-0.1205607,-0.17711924,-0.16880076,0.14295384,-0.6374036,-0.12805289,-0.12976407,0.07729492,-0.23260868,0.06290475,-0.2598463,0.06325312,-0.64142644,0.037593037,-0.092631765,0.008824106,0.08109685,0.027419725,-0.015369903,0.13940847,-0.39003178,-0.030704716,-0.28393048,0.0055506146,-0.36710003,0.09514183,-0.081063956,-0.32294783,-0.4728467,-0.31847054,-0.7481807,-0.6385405,-0.6511789,-0.3802329,-0.47763342,-0.19372211,-0.2676661,0.10750982,0.37715718,-0.32916728,-0.2531106,-0.39617786,-0.05878952,-0.26747748,-0.17342468,-0.10921521,-0.120107,-0.15256552,-0.07808143,-0.24963339,-0.13447346,-0.06529699,-0.18742852,0.044057775,-0.15891896,0.011283369,-0.045392666,-0.073722094,-0.04035591,-0.09282922,0.09243244
-0.072694235,-0.2928725,0.041905187,-0.07876605,0.044644814,-0.16464776,0.047395166,-0.11124651,0.10989512,-0.21513736,0.10622763,0.075551406,0.08409265,-0.014315676,0.058166366,0.119071186,0.07976865,-0.18364179,0.014119984,-0.1065741,0.033327065,-0.06063388,0.09826288,0.030890113,-0.015957614,0.04791459,0.14979604,-0.071282536,0.03808112,0.0847452,0.16487019,-0.29347238,0.0151774855,-0.038503468,0.030471114,-0.091760404,0.1966554,0.08004023,0.17807408,-0.756152,0.18465735,0.16883588,0.09611437,-0.15145911,0.20591787,0.089764625,0.14815757,-0.69138205,-0.022550564,0.011095681,0.07521432,-0.071104206,0.08037412,0.0015256676,0.064282574,-0.5813478,-0.038373027,0.05776587,0.006819461,-0.039882876,0.054577056,0.0316009,0.12955217,-0.56361246,-0.02887963,-0.18948029,0.030371113,0.104128405,0.07337736,0.11150325,-0.19790445,-0.22041002,-0.17387497,-0.026716653,-0.25641957,-0.9046847,-0.2228246,0.0153322825,0.120095596,-0.29573554,0.07149375,0.11121352,0.23116477,0.13713963,0.30449197,0.09357235,-0.10077381,-0.17692587,-0.16637325,-0.10043166,-0.12485495,-0.1080911,-0.08021536,-0.10775712,0.17303817,0.17708686,-0.046976186,-0.27417365,0.057692323,0.049904548,0.09969719,-0.11843802,0.032839734,0.26708764,0.12689051,-0.031303603,0.042164613,-0.0806254,0.033728555,0.074916735,0.098370865,0.27829868,0.10826512,-0.1841418,0.22487265,0.028865006,0.06630318,0.023198357,0.10839572,0.34258515,0.012694896,-0.105778694,0.061716072,-0.02167977,0.14554264,0.112284355,-0.011790061,-0.11193465,0.06966269,-0.23705931,0.077501796,0.101616934,0.020345539,0.01947209,0.19004291,-0.1279364,0.07012482,-0.20691118,0.15885158,0.24766812,0.1683384,0.024407148,0.2431276,-0.1785228,0.21878366,-0.13779569,0.20003301,0.08187614,0.12547886,0.1795128,0.15427312,-0.25528908,-0.012036522,-0.16711286,0.08668264,0.07299167,0.07663097,-0.08241852,0.12347554,-0.31031477,-0.020727957,-0.10097478,0.10426245,0.17711827,0.21270178,-0.035422303,0.13303629,-0.43685818,0.028271971,-0.08355011,0.020472538,0.38728943,-0.017383378,0.03530468,-0.7286305,0.025133613,-0.6043066,-0.6373409,-0.9534881,-0.933086,-0.061263315,-0.14788046,-0.0979364,-0.22742748,-0.0035327405,0.20220578,0.30470657,0.068921186,0.068197615,0.091029815,-0.053126913,-0.0432426,-0.07614306,-0.34684044,-0.0003106822,0.03287744,0.1648453,-0.1407844,0.21720573,0.15560193,0.23343292,-0.44016448,0.20287384,0.35476792,0.09246064,0.08655499,0.027964631,0.0936207,0.1015306,-0.379065,0.08588226,0.102790974,0.18338622,0.08660821,0.08604022,0.3910239,0.053448416,-0.308666,0.14457726,0.02851057,-0.011343517,-0.040283125,0.050354004,-0.17467831,0.0015180269,-0.28374028,-0.0199585,-0.1537558,-0.038445547,0.021597397,-0.06391012,0.16670378,-0.23077895,-0.35029864,-0.11423063,-0.17283869,-0.2538624,-0.28683594,-0.11161348,0.38463175,-0.22440723,-0.320252,-0.00999334,0.15539692,-0.19817707,-0.38239872,0.22509106,0.1207686,-0.0828827,-0.35953614,0.14023443,0.12741216,0.006086277,-0.17829813,-0.039541747,0.023776421,0.081385,-0.27455306,-0.0104114665,0.18126297,-0.14420618,-0.07623726,0.31231335,0.18308958,0.11658364,-0.20042424,0.18263364,0.40964997,0.29345006,0.1511779,0.38093263,-0.28250846,0.15932637,-0.0928897,0.27115685,0.62816834,0.3456861,0.32559225,-0.28926596,-0.34398547,-0.036814287,-0.1739319,-0.68447787,-0.7571489,0.19375433,0.35454753,-0.29967225,-0.39383098,-0.009731496,-0.093016714,-0.06747485,-0.04762697,-0.58253944,-0.11299536,0.06893899,0.34137383,-0.016897934,-0.41135558,0.22989255,0.28104115,0.2220861,-0.18669537,0.24285528,0.19266012,0.28786168,-0.29597932,0.29809168,0.36577445,0.22503453,0.25337392,0.27032357,0.6478749,0.27447712,-0.53000873,0.22477622,0.24575433,-0.0022353726,0.21318099,0.28705704,0.69578224,0.14736648,-0.42028755,0.20099261,0.41090852,0.22358306,0.03758776,0.29262227,-0.07924111,-0.061955765,-0.56189156,0.03282072,0.07015931,0.19278905,-0.10850919,-0.16673206,0.566171,-0.2210401,-0.76579046
-0.3416435,-0.39168605,-0.30717322,-0.3347053,-0.49242818,0.6349195,-0.4104213,-0.59928423,-0.4081571,0.033760168,-0.4944081,-0.5842927,0.051770087,0.29691023,0.08698494,-0.16457868,0.12484545,0.31368592,-0.08523354,-0.23049037,-0.027130757,0.27274355,0.10014094,-0.16577974,0.07687679,0.15314797,-0.0074315364,0.08356626,0.15806575,0.2729666,0.14594679,-0.33609253,0.22150043,0.47054318,0.121309765,0.019955134,0.25160295,0.14652294,0.23297691,-0.20859711,0.22338265,0.6035067,0.37421176,0.25302452,0.37772053,-0.1608036,0.16503276,-0.39570186,0.031461604,-0.7192484,0.35865086,0.25324777,-0.3659001,-0.4118129,-0.49000424,-0.7176445,-0.1361176,-0.39715192,-0.6190984,-0.6030324,-0.052284125,0.23747489,0.12217886,0.036930088,0.18139233,0.41525102,-0.03849753,0.13110606,0.20561105,0.10531443,0.17230402,-0.1221942,0.2733172,0.47426665,0.17246667,0.111035325,0.30366105,0.5330614,0.121892415,-0.3445984,0.20032343,0.3127529,0.145847,0.041274086,0.2455066,0.72710705,0.20873427,-0.5691373,0.27667037,0.40241486,0.16579494,0.026514826,0.2044354,0.37284365,0.11067517,-0.46790275,0.15236287,0.22465616,0.13216606,0.06410061,-0.2523906,1.1006125,-0.3171608,-0.69830054,-0.3206655,-0.13776691,-0.44973907,-0.44706678,-0.18933576,0.46310797,-0.15916368,-0.3582871,-0.3198328,0.06269124,-0.1520638,-0.16909534,-0.057165094,0.29666853,0.016079972,-0.13699591,-0.04811345,0.3981281,-0.20621906,-0.08828303,0.0723956,0.33220178,0.09066968,-0.09146808,0.13498284,0.12879169,-0.023328086,-0.021267053,0.1102669,0.5543831,0.07224881,-0.008327937,0.09016387,0.20014606,0.07413234,0.020562649,0.18749757,0.24044152,0.120320775,-0.1718986,0.19189923,0.16265136,0.09792937,0.028725095,0.10255541,-0.20994781,-0.09492797,-0.2797065,-0.07394812,-0.5879543,0.12081583,-0.14878651,-0.2496833,-0.35839677,-0.38065743,-0.46524218,-0.34223002,-0.39970157,-0.19289874,-0.39257538,-0.10894304,0.027545914,0.073425636,0.07351409,-0.03517381,0.115974665,-0.20942411,0.14336579,0.09540936,0.024271078,0.02857512,-0.08309769,0.032613028,0.30478182,-0.07115532,-0.05756638,0.22425455,0.32424948,0.13283762,-0.1046101,0.14990306,0.27913764,0.108587764,0.16230854,0.12525694,0.6274085,0.065975234,-0.2885748,0.09587806,0.34926447,0.03432805,0.08821191,0.112654306,0.59564555,-0.030363597,-0.6588908,-0.010062089,-0.13356356,0.088912904,0.067916416,-0.17356639,0.77590215,-0.2627615,-0.5881944,-0.28735766,-0.11214866,-0.2882801,-0.32312477,-0.12420359,0.37231,-0.14127642,-0.046166673,-0.14552063,-0.07351473,-0.19184986,-0.2271184,-0.15778242,0.3633884,0.03914062,-0.104054734,-0.1473364,0.16468355,-0.088510826,0.013128027,-0.01209454,0.65441215,-0.0038997056,-0.06436349,0.04167117,0.22619265,-0.08972918,-0.13451345,0.021263495,0.3171482,0.08357978,-0.19613291,0.039957967,0.24113856,-0.08113846,-0.079667844,0.062252935,0.06508099,0.032235075,-0.17959872,0.06415447,0.10058262,0.07376612,0.014481237,-0.23759198,-0.15298955,-0.1449256,-0.36246377,-0.30212858,-0.6169983,0.153403,-0.08980814,0.09962267,-0.14697589,-0.074034095,-0.27233177,-0.11313833,-0.11992845,0.2016568,0.023547398,0.007175938,-0.015032192,0.025500149,-0.24667911,-0.07173466,-0.06529339,-0.07126118,-0.1176062,0.009680357,0.0040470692,0.00024397986,-0.34282324,-0.0486283,0.09933441,-0.11073785,-0.14759633,0.043693095,-0.24756067,-0.04980937,-0.23572053,-0.024901971,0.225114,-0.034062482,-0.0617466,0.079924285,0.4424052,0.10731866,0.018217359,0.20483088,0.33560923,0.10637624,0.09207457,0.21743141,0.19524994,0.15442783,0.03797748,-0.06885444,0.08641504,0.11516239,0.27640182,-0.029101564,0.159706,-0.010259203,-0.19969152,-0.019442353,-0.11444421,-0.096105434,0.05011469,-0.15396689,0.52015364,-0.06668657,0.11790301,-0.112336606,-0.08792337,-0.15510763,-0.017251449,-0.17455709,0.23251472,-0.0894484,-0.12200726,-0.079487085,-0.048592076,-0.20838344,-0.10734925,-0.17721915,0.18339677,0.05506128,-0.0063034478,-0.06433162,0.01626758
-0.17527482,0.02202793,0.081464075,-0.12582624,-0.0055083125,-0.022098484,-0.030324457,0.082872204,-0.11051244,0.010950627,0.0035113252,0.00058710884,-0.0996257,-0.163896,-0.07950893,0.07531735,0.060093395,-0.07285978,-0.4102378,-0.18772319,-0.33471847,-0.11456014,-0.4621401,-0.26289314,0.013879871,-0.099447854,0.06667252,-0.27877194,0.15820278,0.1524835,-0.0866405,0.09543917,-0.04062693,0.22495542,-0.019400965,-0.27645615,-0.20461832,-0.044858057,0.024649773,-0.19473287,-0.0457409,-0.18452242,0.07398102,-0.44798017,0.030642321,-0.0080926865,0.09717964,0.025955262,0.026446242,-0.0316548,0.082226746,-0.25556508,-0.20416167,-0.25833675,0.024355156,-0.09141656,0.036854316,-0.09242322,0.006888621,-0.44132388,-0.04794337,0.01739479,0.04425314,0.23760168,-0.013412175,-0.01209556,0.102472916,-0.6532197,-0.002167377,0.11428236,0.09146359,0.2072531,0.19274332,-0.026409183,0.028018342,-0.029876316,-0.00092344015,-0.008614816,-0.01060858,-0.088040836,0.18295866,-0.021966996,-0.1521698,-0.031206138,-0.086556874,-0.010962376,-0.013304388,-0.28461376,-0.110651925,-0.050065227,-0.17032182,-0.3241555,-0.13342442,-0.11275138,-0.055081733,-0.3217975,-0.18610765,-0.13727151,-0.13193189,-0.06713865,-0.19579294,-0.055063456,-0.048173483,-0.075100325,-0.037629694,-0.17529881,0.08408595,-0.22020853,0.03446713,-0.21632606,0.021443682,-0.19710326,-0.0814552,0.025855882,-0.14626615,-0.08327181,-0.019940158,-0.11902667,-0.2901742,-0.11628092,0.010927936,0.06373505,-0.4131394,-0.25280696,-0.19856371,-0.2179917,-0.5685814,0.2901928,-0.15839681,-0.08861886,-0.1853808,-0.36669755,-0.20786886,-0.17494911,-0.07050766,-0.23102973,-0.0960672,-0.30725855,-0.34407392,-0.25953162,-0.29634997,-0.25260174,-0.22936809,-0.23259898,0.22851236,-0.1423906,-0.016090462,-0.6946169,-0.10253394,0.016480546,0.08662591,0.20171598,0.0014616135,-0.13556556,0.054596595,-0.4226925,0.0034816654,-0.0049536764,-0.02700193,0.026613912,0.065425314,-0.035982914,0.041344747,-0.5633962,-0.00976009,0.0959435,-0.04464,-0.05356541,0.20048924,-0.0022539007,-0.00047462946,0.049540754,-0.04616313,0.12081021,-0.10950873,0.17348938,0.110966824,0.084354,0.027506325,-0.54805875,0.02726241,0.01098219,0.15283677,-0.027442597,0.047461152,0.13502707,-0.039394308,-0.33384204,0.004996805,0.034572046,0.013189957,-0.37233937,-0.0014834666,0.10128687,-0.054655194,-0.32162887,-0.059741136,-0.15888752,-0.15131773,-0.44117478,-0.10237914,-0.17635986,-0.21510273,-0.28757274,0.0032056195,-0.053582463,-0.099558294,-0.40607753,-0.3050816,-0.120202616,0.07221434,-0.2228431,0.05133708,-0.050744515,0.09245876,-0.48607057,-0.12602697,-0.10011523,-0.0014795058,-0.14347732,-0.33157673,-0.059902746,-0.073697165,-0.5898324,-0.018888403,-0.3654566,-0.33694813,-0.2506509,-0.31071064,-0.5688644,-0.15647836,0.096068665,-0.17678446,-0.5017924,-0.0978996,-0.33664706,0.03786072,0.37716886,0.04034547,-0.033492725,-0.05350353,-0.058458105,-0.017951034,-0.29715812,0.18273664,0.14446208,0.041962158,0.33408603,0.10374408,0.14681342,0.16662054,-0.29045233,-0.31716046,-0.33966252,0.017514288,-0.20731038,0.110041834,-0.23727424,-0.22694354,-0.45486194,-0.3156108,-0.26504034,-0.2943129,-0.43090743,-0.17144534,-0.24526319,-0.19677933,-0.48702547,-0.3064398,-0.25493824,0.12225097,-0.37559006,-0.34037036,-0.49071115,0.047569953,-0.30347812,-0.2537013,-0.24247855,0.23658279,-0.2690074,0.041087974,-0.35149798,0.037934136,-0.20410082,-0.07896477,-0.27455392,0.120816216,-0.16954008,0.06276067,-0.20640336,-0.14379038,-0.31711143,-0.039135672,-0.022371594,0.010217654,-0.32632163,-0.035215866,-0.040164504,0.21528599,-0.2784832,-0.20514117,-0.24507283,0.14895634,-0.6362679,0.123310395,-0.24975047,-0.11316082,-0.23207593,-0.27343318,-0.6041809,-0.13580078,-0.5311287,-0.06544616,-0.41499534,-0.30169672,-0.30904502,-0.33110023,-0.6058608,-0.27614525,-0.4077002,-0.380287,-0.4400747,-0.37746033,-0.3143022,-0.3630069,-0.29786327,-0.4769325,-0.19282103,-0.4631111,-0.1735235,-0.19921128,-0.27122,-0.082434595,0.29228142,-0.23895833,0.00138563,-0.34164894,-0.16740422
0.08449886,0.2391647,0.18797627,0.46688542,0.14115858,0.15790643,0.11084661,0.24393964,0.09637276,0.21714139,0.21657772,0.44172278,0.03405516,0.14908443,0.09058522,0.34828746,0.020065367,0.20555584,0.13416667,0.53023636,0.043933775,0.07898892,-0.046449736,0.2765898,-0.20168835,0.1304153,-0.37855074,0.21809392,-0.2112778,-0.33469734,-0.21347126,-0.1677039,-0.2037214,0.22598532,-0.33374128,0.076522134,-0.026053654,-0.4817731,-0.07600996,-0.3100808,0.10773041,0.31993416,0.14043815,0.15138096,0.1375133,0.35562146,0.029001959,-0.31167743,-0.14100973,0.21307887,0.28703484,0.17042682,0.037056893,0.52470577,-0.13615362,0.4054538,-0.07071585,0.21099518,-0.005192058,0.13589014,-0.07877559,0.011508193,-0.115454555,0.37267897,-0.03070258,0.3325182,-0.12856802,0.25911233,-0.09763953,-0.24312544,-0.069739595,-0.018458338,-0.22500524,0.18385147,-0.06354602,0.2692541,-0.35296047,-0.39183664,-0.23215392,0.00043797374,-0.50058335,0.16607535,-0.4751865,0.36037818,-0.49551257,-0.51026917,-0.5105297,-0.37903088,-0.27782995,0.15940577,-0.3936238,0.3915534,-0.36676478,-0.3866925,-0.30073598,-0.30967548,0.048884623,0.23115118,-0.020622684,0.4854701,-0.113583595,0.051484007,-0.025908487,-0.0083614,0.22138444,0.23742072,0.17065756,0.4392671,0.052181453,0.10182969,0.19787249,0.3375107,0.031101804,0.27583086,0.3823736,0.532267,0.22519064,0.25465238,0.36630344,0.21469912,0.29873443,0.27018493,0.20226394,-0.056888517,0.31070194,0.118681684,0.2955295,-0.0044690557,-0.1693826,0.09488476,0.13079219,-0.44811293,-0.29462397,0.1177622,-0.28412467,0.14573275,-0.18554644,0.2075811,-0.105417036,-0.1204164,-0.4053864,-0.0017013717,-0.2875227,0.026833644,-0.16869839,0.343877,-0.25688154,-0.41361287,-0.08020156,-0.08717222,-0.18930049,-0.16838913,0.06597163,0.6122128,-0.099687025,-0.63237596,0.100495964,0.18023446,-0.13234997,-0.11731533,-0.17805386,0.3132099,0.09543017,-0.18450293,-0.22650428,0.32849345,-0.1176581,0.09595593,-0.20437206,0.7175582,-0.112996,-0.15576164,-0.11069303,0.09093565,-0.11807707,0.060571693,-0.1610278,0.4555795,-0.16670932,-0.16579692,-0.07593108,0.30990326,-0.109502815,-0.027854407,-0.044336703,0.26143265,-0.028980443,-0.30539516,0.050053775,0.14829144,0.074211836,-0.011815144,-0.030008856,0.2108471,-0.18732233,-0.082085766,-0.000968201,0.032695767,-0.2363572,-0.23362002,-0.3320481,0.18516237,-0.19599316,-0.19640112,-0.16391315,-0.12721829,-0.25814986,-0.15652624,-0.3476598,0.12222522,-0.3411911,0.43022114,-0.3608509,-0.09156115,-0.28910887,-0.028233074,-0.0068074586,0.22595419,0.0073777405,0.39395905,-0.05566337,0.054757,-0.18824002,0.15690401,-0.38544226,0.009225365,-0.2776946,-0.05948513,-0.10334344,-0.2565584,-0.27945387,-0.23120199,-0.10389968,0.041173797,-0.33718538,-0.618781,0.03461121,-0.25884137,0.08971688,-0.7209786,0.24059235,-0.13581152,-0.16883118,-0.73341006,-0.019530663,-0.08921968,0.01606345,-0.27405936,0.026393866,0.15435745,-0.06344479,-0.5129421,0.101251766,0.05922485,-0.10910162,-0.17113173,-0.18748677,0.15833691,-0.0463437,-0.5826974,0.010510969,0.0013123173,-0.11800316,-0.05187013,-0.03585876,0.44185665,-0.032753214,-0.671694,-0.030558081,-0.0016330285,-0.08276552,-0.22932929,-0.013135704,0.87764317,0.018337071,-0.49314776,-0.041410904,0.2549098,-0.066088215,-0.11534805,-0.036036827,0.25493106,0.07158056,-0.49219117,0.0035208673,0.15356553,0.044998817,-0.06573313,0.11755988,0.43997818,-0.044040155,-0.3351692,0.09199638,0.23602484,0.027578546,-0.075070225,0.095929496,0.08602946,-0.13258073,-0.43733805,-0.19555016,-0.2927583,-0.07037175,-0.20374799,-0.49116814,0.18824045,-0.4972028,-0.28586033,-0.5494294,-0.44667932,-0.2716593,-0.24692456,-0.29018757,0.22005726,-0.36945647,-0.10669565,-0.308393,-0.3147755,-0.3061293,-0.29167956,-0.26021633,0.14584161,-0.4284052,-0.21288122,-0.40903124,-0.392382,-0.42451805,-0.5307671,-0.33973914,0.24745572,-0.23364297,-0.39961696,-0.1947367,-0.38086012,-0.06321108,-0.4510982,-0.13910766,-0.07516222
0.1161713,-0.015433444,-0.16890034,0.023821179,-0.056575432,-0.05866086,0.23756117,-0.341544,0.035667945,-0.050281394,0.04684139,0.07404045,0.15717998,0.02730349,0.04226066,-0.010406494,-0.07524115,-0.24055961,0.09627635,0.05277634,0.012589401,-0.11607813,-0.07318238,0.24129774,-0.085840754,-0.37770998,-0.046173543,-0.33515054,-0.07147008,-0.029526861,0.009645404,0.24569821,0.027274312,-0.3867417,0.10878348,-0.20996422,0.022919314,-0.050585374,-0.13188845,0.27033848,-0.13988055,-0.39982203,-0.08973278,0.12341721,-0.14870602,-0.096437044,0.074061036,0.40409374,0.030733928,-0.26441917,0.017925305,-0.088119164,0.05296107,-0.045582175,0.00024663907,0.12809275,-0.0076955436,-0.10116887,0.003913497,0.14951257,-0.119403176,-0.052088343,-0.16573945,0.39133587,-0.26287094,-0.38518277,-0.20782697,-0.37894893,-0.13513692,-0.30914667,-0.7063085,-0.025775127,-0.67819035,-0.8542128,-0.82804567,-0.71576124,-0.46744373,-0.5842333,-0.33416456,0.20897005,-0.28378755,-0.09988426,-0.3391787,-0.3490592,-0.28571233,-0.29440543,-0.4694643,0.16034618,-0.40841746,-0.18169059,-0.45810294,-0.51026094,-0.2804602,-0.4129674,-0.3115845,0.11390422,-0.27118313,-0.15596616,-0.22796734,-0.29882348,-0.5188306,-0.38212124,-0.14424486,-0.083910994,-0.13578181,0.034183573,-0.17033906,-0.11291448,-0.23594397,-0.1412208,-0.027063532,-0.12850012,0.0029870472,-0.13668518,0.06584393,0.10607164,-0.07794947,-0.02785438,0.018450934,-0.1444278,0.054209102,-0.54009336,0.037562046,0.2129772,0.089647435,-0.046298485,0.21680851,-0.42577735,0.21915895,-0.44530538,0.26733717,0.1052293,0.18298693,-0.0036339355,0.23613036,-0.3419499,0.02942348,-0.44359294,0.14565687,-0.24134794,0.19836192,0.08483996,0.029221358,-0.2121589,-0.054181393,-0.4006505,-0.12382929,-0.22767651,-0.06987633,-0.07179109,0.110750854,0.14373164,0.059074547,-0.19524863,-0.0074642333,0.044871982,0.02914782,-0.107491575,0.14184959,0.015312917,0.100721955,-0.14335933,0.20511585,0.2930199,-0.09086973,-0.068720944,-0.20767476,0.35014626,-0.2558242,-0.53036517,-0.374506,-0.66708225,-0.15936603,-0.13325144,-0.5911797,-0.16526802,-0.5664342,-0.53165734,-0.6127908,-0.2455934,-0.59398425,-0.50979984,-0.06925562,0.18450132,-0.09217971,0.08836452,-0.06604626,-0.1814735,0.2578097,-0.10180447,-0.24354243,0.11971336,-0.19799219,-0.09898563,-0.34305552,-0.2532803,-0.330513,-0.059836335,-0.10642445,0.031088613,-0.3829548,-0.4407148,-0.3547678,-0.2866995,-0.16453964,-0.54153085,-0.11176632,-0.07403169,-0.12810084,-0.2337597,-0.09569527,-0.21588121,-0.07885168,-0.14376473,-0.43263388,-0.056220382,-0.11342567,-0.087762676,-0.21888219,0.030026069,-0.24594928,-0.07591884,-0.12004429,-0.0147153465,0.01144376,-0.40376157,0.105175555,0.12674296,-0.008339098,-0.16977274,0.47182992,-0.010550534,0.29493022,-0.38020796,0.2944563,0.070897475,0.22954753,0.121415325,0.2247098,-0.53182125,0.1755385,-0.2990224,0.17101184,-0.13785167,0.20893972,0.13830662,0.028126093,-0.06763653,-0.06722342,-0.16107914,-0.053083368,-0.30313835,0.084492356,0.12059813,-0.108394906,0.2763989,-0.02200719,-0.004561915,-0.24547523,0.2114385,-0.05208744,-0.012210376,0.033602037,0.072970845,-0.058127586,0.0319315,0.0620422,-0.2665414,-0.19275129,-0.13421495,-0.30751085,0.39050072,-0.42058805,-0.37885362,-0.5022687,-0.37992778,-0.27752417,-0.34483486,-0.74591506,0.123650186,-0.5450407,-0.27101046,-0.50028056,-0.17712115,-0.6582593,-0.4683237,0.22505058,0.19372717,0.40426457,0.4797712,0.16694659,0.32900327,0.31836516,0.4226379,-0.16153589,0.11777752,-0.08937361,0.1507071,-0.3606643,-0.40092823,-0.3107088,-0.022920692,-0.32657063,0.20332731,-0.16096051,-0.11704093,-0.06288912,-0.22448193,-0.04599628,-0.20709133,0.238996,-0.11154731,0.21854979,0.13909744,0.1810098,0.08887461,0.18542907,0.07983723,-0.3671577,-0.09268246,-0.11566718,-0.24106933,-0.33712062,-0.36354256,-0.37314197,-0.18042025,-0.18410297,0.33232683,-0.021531878,-0.52012146,0.1504415,0.12585367,-0.06770485,-0.33173627,0.32275456,0.11841447,0.117605224,-0.42995563
0.30239534,0.30330852,0.030884773,0.11373177,0.18577208,-0.28398296,0.20110779,-0.31636578,0.14441428,-0.06791536,0.22217874,0.0993896,-0.035678633,0.057462465,-0.12895343,-0.4073651,-0.19314054,-0.21541429,-0.03704035,-0.014161291,-0.31914046,0.47555566,-0.4161357,-0.20970455,-0.28911287,-0.106752545,-0.14469506,-0.34659386,0.017820608,0.11118127,-0.041564822,-0.17392913,-0.08660013,-0.13053925,-0.2546264,-0.17127319,-0.3914276,0.2347608,-0.29488194,-0.26670343,-0.24164177,-0.4300178,-0.27517185,-0.27350438,-0.55035037,0.17539053,-0.25354528,-0.18532498,-0.44575632,-0.20226793,-0.37620848,-0.1396327,0.16076183,0.27315184,0.337176,0.59204656,0.24014026,0.41907078,0.13217159,0.39923343,-0.26975435,0.089012705,-0.4174845,-0.3260294,-0.4544451,-0.5922257,-0.19331668,-0.44137084,-0.5697727,0.2894917,-0.068003245,0.19997577,-0.3331717,-0.1012761,-0.30210105,0.043045633,-0.0048383614,0.058008686,0.021697836,0.10866859,0.22218639,-0.0067869406,-0.07050451,-0.012758052,-0.16543122,0.32953963,-0.025114505,-0.2013353,-0.23309995,-0.23913175,-0.23586659,-0.095646404,-0.21494648,0.1748928,-0.23316349,-0.43743977,-0.14683199,0.0851088,-0.33790392,-0.31770635,0.32144645,0.16180474,0.17683223,-0.19548538,0.35638252,0.3510681,0.05749225,0.11258856,0.12870328,0.11463013,0.14965697,-0.24692376,0.023198789,-0.28380412,0.19542326,0.19106966,-0.4064478,0.3892089,-0.3631327,-0.60408247,-0.43433562,-0.7825667,-0.20845698,-0.20335193,-0.84049827,0.055744033,-0.45334682,-0.64841664,-0.5038769,0.02354457,-0.7265017,-0.52506846,-0.09685426,0.032567184,-0.3129483,-0.12563421,-0.15199545,-0.22802605,-0.16767065,-0.3373525,-0.23146135,0.098995216,-0.20720541,-0.029816972,-0.29524302,-0.34500697,-0.2997833,-0.4843349,-0.06486644,0.25373754,0.06723461,0.070837855,-0.1670274,-0.006303845,0.026147917,0.054718487,0.020702144,0.2278021,0.22577561,0.50684166,-0.03488847,0.105271965,-0.06876442,0.29924595,-0.77303004,-0.18917641,-0.6879678,-0.45821422,-0.9978709,-1.000314,-1.1965276,-0.4731551,-0.7079515,-0.024750127,-0.47832212,-0.42023426,-0.22458827,-0.5304606,-0.38460958,-0.5665191,-0.35712945,0.22114778,-0.08111041,0.035480455,-0.02292107,0.06557694,-0.17723687,-0.13074921,-0.10948675,-0.118263654,-0.16007592,-0.26988256,-0.13059054,-0.105188355,-0.13587819,-0.3204181,-0.0848343,-0.034484737,-0.13747288,-0.38704506,-0.14547431,-0.0063255182,-0.27428392,-0.22903422,0.10179536,0.23930462,0.06951576,-0.10180598,0.21733868,0.24148756,0.06953615,-0.07192679,0.1302336,0.14591491,-0.07157155,-0.3660382,-0.026591042,-0.44779235,0.18706864,0.05772007,-0.15668389,-0.09374733,-0.13064004,-0.7340459,-0.15073283,-0.040262904,-0.04346644,-0.107305,0.044792734,-0.4277441,0.012680934,-0.025293378,-0.014770551,-0.05155572,0.014596837,0.15099312,-0.09400421,0.08675989,-0.05276018,-0.18378568,-0.13341166,-0.18769835,-0.020472204,-0.0051888777,-0.0871631,0.23824744,-0.26271525,-0.6219937,-0.15933883,-0.14243291,-0.14381498,-0.33451396,0.24018237,0.19979264,0.05132529,-0.29181945,0.18339409,0.3465903,0.16581665,-0.054439392,-0.0029534765,0.22488432,-0.052568197,0.24145126,0.018596765,-0.1906265,0.15146776,-0.1267532,0.15938246,0.098095864,-0.2685483,-0.21103789,0.07655589,-0.5369459,0.056735154,-0.27874726,-0.23825826,0.26931402,-0.046528284,0.086902745,-0.07310384,-0.2112017,-0.045285027,0.08038062,-0.41939074,0.29988292,-0.1051716,0.11539185,-0.2122704,-0.051306248,-0.08973504,-0.07514669,-0.10853122,-0.07684273,0.0960315,-0.114668995,0.039934058,0.115123086,-0.094246864,0.025235873,-0.14996707,-0.01918138,-0.09868494,-0.45438227,-0.18180951,-0.110643476,-0.12076307,-0.14575922,-0.14136355,0.053762753,-0.09139401,-0.45207834,-0.008836285,0.087462604,-0.03687278,-0.15160792,-0.00473734,-0.71250415,-0.14168093,-0.29940248,-0.101917155,-0.1965765,0.03163812,-0.068972506,-0.02796153,-0.6675258,0.12907691,0.033480044,0.010547065,0.0976111,-0.0010187523,0.12422512,0.2958697,-0.21890783,0.1827783,0.03549467,0.26627228,-0.24043693
0.31957173,0.13459411,0.2313989,0.13309328,-0.018906662,-0.26500323,0.05481466,-0.123457365,0.113348246,-0.087909825,-0.03966513,0.024593227,0.03985061,-0.19946419,0.09061761,0.3835892,-0.19112292,-0.21285555,0.46707037,0.31510365,0.49770156,0.4223763,0.2992078,0.24946754,0.46297836,0.37729016,-0.107823454,0.16358466,0.068773404,0.2850182,-0.32825533,-0.034085833,-0.351646,0.07863882,-0.15220243,0.45225903,-0.028478513,-0.05119008,0.15569752,0.0649618,0.22485961,-0.0015626174,-0.031824112,0.1471202,0.11350138,0.08818794,0.032618437,0.024495458,0.11775714,0.16354032,-0.29983714,0.5976416,0.15084381,0.29546368,-0.013348652,0.10798167,-0.019511037,0.2512451,-0.17384696,0.30330107,0.09849303,0.13116191,-0.07599584,-0.08250441,-0.2556466,0.06916756,-0.18598539,0.21520421,-0.093539335,-0.2133178,-0.09389834,-0.29715696,-0.17769289,-0.057904534,0.0010513288,-0.37681192,-0.10162121,-0.3283412,-0.014604387,-0.12590824,-0.018712953,-0.18797031,-0.034452643,-0.85665554,-0.1510399,-0.29735315,0.008472136,-0.37289694,-0.0870526,-0.062909484,0.13644649,-0.40127572,-0.048433527,-0.010456156,0.035104245,-0.091778144,0.14541501,-0.039926052,0.057903353,-0.25696015,0.039272763,0.0817637,0.0570719,-0.42014775,0.14290725,-0.008203332,0.0728377,0.06300176,0.12522314,0.02457675,0.08003738,-0.15423602,0.02627304,0.062777385,-0.18225099,-0.015313022,0.10915752,0.11261649,-0.0040826113,0.405399,-0.20960608,-0.029581036,0.55552375,0.29346526,0.38181278,0.560056,0.47032747,0.48945713,0.47119114,0.47759467,-0.07819167,0.083922856,-0.34707102,-0.09830003,-0.18586423,-0.39245075,-0.15117812,-0.32120964,-0.25332657,0.34702954,0.20504005,0.2907053,-0.03009014,0.31293717,-0.33739895,0.27399394,0.3655401,0.06056761,0.047508575,0.058134947,0.20292856,0.06485315,0.379834,0.11024225,0.07480741,0.28674087,-0.066020206,-0.07895483,-0.04022141,-0.058126505,-0.02504436,-0.04892072,0.04154119,0.32550713,0.04038893,-0.043491792,-0.044591106,-0.013111828,-0.0831551,-0.025206279,-0.03352067,-0.28623152,0.036839493,0.0135772675,-0.11394483,0.121853955,-0.11181067,0.009328841,-0.12968029,0.02683403,-0.117921256,0.025487756,0.028739216,-0.015083073,0.042207174,-0.08784521,-0.045763236,-0.12879393,-0.13987832,-0.2147414,-0.10193683,-0.3581332,-0.03428478,-0.14751124,0.11030743,0.27542743,-0.0026885476,0.03847086,0.020777058,0.15690954,-0.017368363,0.015917268,-0.18821667,0.2870858,-0.009934801,-0.035027407,0.041366104,-0.1294433,-0.15134177,0.069694325,0.023390712,0.2121898,-0.1549859,0.040417742,0.04113195,-0.027674982,-0.0917781,-0.03308968,-0.1230187,0.18368715,-0.46538496,-0.15440886,0.040479016,-0.20592952,-0.111901335,-0.25778398,0.21822456,0.26837206,0.10572682,0.18057168,0.23601256,0.35847124,0.05582727,-0.10700881,0.101698525,0.19736938,-0.1565933,-0.018695751,-0.17290334,-0.22178783,-0.09989456,-0.21181111,-0.23354644,0.22345707,-0.35664144,-0.25933748,-0.32229245,-0.5014161,-0.17687273,-0.29848582,-0.35688943,0.1636543,-0.08646849,0.08674517,-0.3749062,-0.0314882,-0.32834676,0.056015532,0.15384223,0.003898908,-0.04636776,-0.0728348,-0.024989024,-0.022490846,-0.023199962,-0.2072091,-0.12228856,0.43969676,-0.28997013,-0.16437791,-0.1556134,-0.18896425,-0.2039833,-0.15906386,-0.11939808,-0.17260727,-0.16147095,-0.2473627,-0.15012226,0.061296906,-0.16332161,-0.27460888,-0.3687246,-0.046488173,-0.17055659,0.015429226,-0.22480224,-0.2430498,-0.15133505,0.009064192,-0.20900072,0.13645333,-0.39785284,-0.29938614,-0.17602026,-0.4974173,-0.16750544,-0.38376337,-0.40208945,0.2585872,-0.4651895,-0.48553795,-0.072845966,0.14438833,-0.24051721,-0.6562633,-0.23031802,0.39011776,-0.21214832,-0.22217889,-0.20294887,-0.1380267,-0.16479939,-0.16185607,-0.3886884,0.082888566,-0.43617713,-0.3488675,-0.4647367,-0.13840218,-0.15660079,-0.42598024,-0.11545925,0.18208095,-0.23797749,-0.13360015,-0.2871936,0.0065840837,-0.27758655,-0.2449224,0.16080466,0.17747979,0.27470106,0.24452254,0.15142049,0.28643832,0.0025228695,0.102621146
-0.010173208,-0.054559782,-0.19766323,-0.5021225,-0.062118456,-0.1391493,-0.100206785,-0.059440874,-0.050663102,-0.006060453,-0.23277532,-0.40912613,0.03282966,-0.035983708,0.050519217,-0.10654238,0.08999934,-0.11289188,0.06313443,-0.4380898,-0.042129587,-0.03643008,0.06707126,0.007823542,-0.23525132,-0.0069651706,-0.047883984,-0.17811656,-0.032344718,0.49373335,-0.058572598,0.23977713,0.2849014,-0.07521256,0.29730076,0.13441287,0.26345012,0.4534684,0.20786472,0.49902546,-0.18324572,-0.122195296,0.06711131,0.07666047,-0.19878067,-0.09768293,-0.0952483,0.4592594,0.10277304,-0.14301176,-0.24286787,-0.023854185,-0.098700985,-0.40426412,-0.0066804937,-0.17704402,0.080872536,-0.053100623,-0.10166574,0.09928875,0.09185239,-0.05055061,0.11699887,-0.24507987,0.13760753,-0.07317133,0.07652514,-0.052018758,0.07120904,0.4192421,0.051770218,-0.07544532,-0.14605768,0.038647946,-0.102895536,-0.26735303,-0.15799662,-0.08042068,-0.03536339,-0.06403143,0.23507512,-0.07406855,-0.08256243,-0.36605725,0.24312823,0.17207515,0.04637382,-0.028119627,0.12363111,-0.021022612,0.22580045,-0.082164094,0.12387078,0.30194035,0.2420686,0.34918815,0.14155875,-0.012143832,0.07640023,0.040992007,0.16694705,0.076498926,0.102110334,0.16552615,-0.17255065,-0.019866416,-0.3072402,-0.6301246,-0.22287159,-0.2761672,-0.08774093,-0.39767817,-0.046941943,-0.08899514,-0.11354841,-0.5789174,-0.093143746,-0.10349447,-0.0588362,-0.4352253,-0.29808682,-0.15400861,0.0719888,-0.001531732,0.013797982,-0.0042522037,-0.058627333,-0.009853031,0.062264413,-0.04824309,-0.023780674,0.26859564,0.14481965,-0.04454097,0.21651676,0.07579527,0.027627248,-0.3195502,0.037997086,0.43223107,0.21880558,0.031621326,0.23555762,-0.025557838,0.20575945,-0.05926132,0.12879011,0.3249495,0.03170082,0.09507109,0.20506969,-0.0584299,-0.08976375,-0.4346738,0.07601024,0.22448583,-0.11440041,0.0022348515,-0.041570988,0.069146246,0.11166491,-0.578219,-0.04041122,-0.057182886,0.15404691,-0.22778192,0.16474874,0.009376766,0.12239575,-0.5690901,0.040337123,0.10416883,0.057208013,-0.14020514,0.017389659,-0.063859314,-0.016881866,-0.53339905,-0.042918,0.13910465,0.1265121,-0.12599699,0.039088238,-0.010593637,0.26587015,-0.2777903,0.120571576,-0.09892601,0.28888422,-0.1906711,0.1859828,0.039311145,-0.24955967,0.0019768435,-0.14206716,-0.7857908,0.009734742,-0.12394229,-0.09372821,-0.49519217,0.19464852,-0.040982552,0.062009666,-0.2179597,0.099046595,-0.17321585,0.11190069,-0.060856905,-0.08643972,-0.015141427,-0.14828868,-0.26688993,0.020145556,-0.14295928,0.042075526,-0.11765699,0.15268251,-0.10718032,-0.0031260117,0.009342564,0.04596644,-0.07452596,-0.036665037,-0.015237127,-0.10452216,-0.18669596,-0.05804205,0.16501318,-0.10743106,0.008999671,-0.09072517,-0.08139821,-0.13724332,-0.10861813,0.028311033,0.32172072,-0.1780864,0.1341813,-0.2256128,0.10317059,-0.11937779,-0.105095066,-0.057109132,0.32808256,-0.049647044,0.006687711,-0.04162495,0.013288664,0.15526666,-0.39084566,-0.037309628,0.17978957,0.12970483,-0.11532195,0.111745626,0.09159688,0.039138414,-0.21757725,0.14033468,0.17634787,0.012488399,0.040007412,0.14388284,0.099925056,0.09406065,-0.75510544,-0.019144306,0.2794579,-0.016611837,0.012652983,-0.014295591,0.06428509,0.06411485,-1.0163921,0.014332728,-0.104611754,-0.06100938,-0.1713557,0.0073193796,-0.043689575,0.0143101085,-0.8927064,-0.06505165,-0.030962495,0.02553829,-0.16730772,-0.008608021,0.027566532,0.26468036,-0.38721815,-0.1375692,-0.5621031,0.28930703,-0.46549687,0.10722197,-0.31491905,-0.2583575,-0.028013151,-0.22890009,-0.5650668,-0.3673402,-0.5078266,-0.10580331,-0.008791216,-0.15681608,-0.17479572,-0.25687778,-0.21478952,-0.14085887,-0.48941693,-0.30361894,-0.19611414,-0.08229936,-0.00040635458,0.05067592,-0.014820383,0.037019867,0.057921465,0.0928576,-0.03122057,0.04394587,-0.21866985,0.051637314,0.11286297,0.046417944,0.051032063,0.040415652,0.02376448,-0.08733855,0.06235597,0.043872554,0.1321008,-0.15517782,0.04086218,-0.05683009,0.07588459,-0.17539546,0.1155096
0.008138586,0.12206783,-0.1291201,-0.00968714,-0.050432045,0.029838352,0.010535563,0.17502175,0.02735957,0.09953242,0.054280642,0.05785314,0.0010551657,0.086325124,0.114232205,-0.31061682,0.15489666,0.13211994,0.08516388,0.091604084,0.11163803,0.13646334,0.24481434,-0.46653798,0.14296493,0.01919409,0.07458969,0.19509389,0.14576487,0.110815816,-0.006560531,-0.21689129,-0.03605202,-0.032753617,0.13391332,0.11460891,0.11662407,-0.045900214,0.19639835,-0.20765243,-0.07599381,-0.1521079,0.066917814,0.13062035,0.05523591,-0.16107972,0.043362547,-0.45843714,-0.106118396,-0.42499563,0.0299733,0.00050390896,0.049002558,-0.17583072,-0.0018744206,-0.28450304,-0.030663803,-0.3326888,0.11496987,-0.013292517,-0.014698217,-0.0914917,-0.2479736,-0.021680446,-0.15367325,-0.19219245,-0.40205464,-0.46967188,0.07326307,0.08011088,-0.751078,-0.18340962,-0.984626,-0.70637167,-0.95614,-0.43189535,-0.76826406,-0.7737394,-0.0629178,-0.15240031,0.08936438,0.25336632,-0.28382272,0.07842482,-0.40713826,0.10991454,-0.0730077,0.044371735,0.016005276,0.14888702,0.16329044,0.17178154,0.34696227,0.051401712,-0.05056835,0.03383009,0.05564784,0.14059645,-0.08381396,0.0015083305,-0.05599719,0.33723977,-0.33046812,0.022017151,0.002314012,0.17455576,-0.1676623,0.08970012,-0.21218564,0.04528041,-0.09691838,-0.568444,-0.03017691,0.14863963,-0.09435875,-0.18944198,-0.14734325,-0.012203035,-0.01741284,-0.65151244,-0.10192991,0.10922747,-0.2038613,-0.26801422,-0.16683762,-0.03129908,-0.062344212,-0.13931583,-0.0914832,0.31408843,-0.120755635,0.0321873,-0.089762315,-0.15255657,-0.042881608,0.24662198,-0.051236063,-0.004940887,-0.07811716,0.12412322,-0.18133244,-0.16478649,0.14404532,0.25762329,0.028067838,-0.29630768,0.00347783,0.16442654,-0.003917554,-0.04413188,-0.0045034047,0.04575343,-0.07300519,-0.120715596,0.025290357,0.15044667,-0.034003418,-0.035531096,0.0049916203,0.0923416,0.077836946,-0.09388868,0.034358643,0.0126655325,0.014774231,0.008312007,0.0581777,0.19600227,-0.07898774,-0.40149716,-0.009929095,-0.36049238,0.20716085,-0.11677081,-0.39820823,-0.22455047,-0.062531054,-0.8177278,-0.301765,0.1693958,-0.44404322,-0.6626016,-0.21292727,-0.19762754,-0.41405135,-0.344736,-0.38537878,-0.41656578,-0.34471288,-0.42016503,-0.45064005,0.022957042,-0.039412294,0.2993421,-0.17508839,-0.051323116,-0.4256881,0.11931443,-0.3323529,-0.25309524,-0.1194852,0.53697824,-0.22134145,-0.28779,-0.17059563,0.08077922,-0.31195685,-0.22299652,-0.24795344,0.320362,-0.22894748,-0.3596092,-0.22199123,-0.21665575,-0.33246636,-0.6059862,-0.14888881,0.26786825,-0.04700321,-0.5379321,-0.027229946,-0.21342383,-0.28616318,-0.40156478,-0.25679633,0.085153736,-0.08564915,-0.51204574,-0.016546639,-0.22466637,-0.24973974,-0.0028902793,-0.1516955,0.039100304,-0.30461055,-0.10309483,-0.24744517,-0.16679166,-0.36954784,0.11639015,-0.3293275,-0.28143302,-0.36064613,0.06676301,-0.33911112,-0.40715796,-0.12012097,0.69056165,-0.045966133,-0.35626996,-0.02289375,0.1292221,-0.2982964,-0.2364453,0.04937929,0.5396129,-0.054287717,-0.22182645,-0.018291797,0.014323125,-0.038317807,-0.06926468,-0.036682565,0.41306755,-0.0663722,-0.1400325,-0.10011934,0.07519924,-0.1283499,-0.1982479,-0.019754674,0.076966844,0.11272189,0.072862744,0.16071838,0.29224545,0.01603442,-0.03288048,0.5379812,0.04800736,0.3401757,0.5196779,0.544428,0.75371003,0.28127295,0.28124696,0.005527602,0.07911084,-0.33371305,-0.56945026,0.10794825,-0.27853805,0.4656331,-0.42591906,-0.34062675,-0.0553851,-0.13750741,0.11065594,-0.1786748,-0.3547949,0.0070283106,-0.0030071274,-0.29064974,0.11417565,-0.053210713,0.25334013,-0.2378518,-0.15215689,-0.116936095,-0.042688478,-0.30100563,-0.16067816,-0.053381324,0.42021948,-0.15226232,-0.17081061,-0.09561314,0.07783415,-0.36003846,-0.35670763,0.05823989,0.41580564,-0.07749463,-0.2862301,-0.04169239,0.18644848,-0.33977872,-0.35337642,0.022795357,0.37201226,-0.15995292,-0.27608252,-0.11625971,0.11265142,-0.08004649,-0.31093502,-0.16989276,-0.032760415
-0.04422783,-0.061951194,0.016909862,-0.2303731,0.004730733,0.63580173,-0.038765654,-0.15862699,-0.07624223,0.0731981,-0.11583494,-0.15443711,-0.17898844,0.6020933,-0.08987815,-0.30806825,-0.11673085,0.04190142,-0.22722661,-0.01313595,-0.1065311,0.41162106,-0.039077584,-0.32682168,0.0090854615,0.066951014,-0.19334084,-0.15615492,-0.3041466,0.41485372,0.054769754,0.06006927,-0.26350763,-0.025172405,-0.24578936,0.116763644,-0.14419924,0.52056545,-0.1759663,0.29656917,-0.09579766,-0.08142787,-0.1644859,-0.09860724,0.21195771,0.19919161,0.3578721,0.6397316,0.52665323,1.1321554,0.25761303,0.31959137,-0.06939617,0.096014455,0.2320265,0.18343318,0.10249763,0.38077468,0.011695863,0.31787163,0.016849183,-0.063979045,0.04133667,-0.1827581,-0.022423824,0.072269306,-0.067504466,0.00046261158,0.03600153,0.39754823,0.025352508,-0.073412225,0.14376959,-0.006404839,0.09343415,0.09664488,-0.16194661,0.46729073,0.22038165,0.07863551,-0.009708272,0.09191025,-0.07353607,0.24989723,-0.07357617,0.32736567,0.19005145,0.17337495,0.15499866,0.23042423,-0.07738827,0.23491876,0.11700799,0.23391312,0.41711792,0.005456873,0.21268792,0.2519445,0.11672223,0.28769255,0.19267972,0.23710123,0.18568912,-0.062067695,0.15463653,0.17847988,0.19409393,0.1494461,0.09608514,0.48739654,0.1706763,0.07332899,0.058023565,0.2853716,0.002898252,-0.026927033,0.027212936,0.22409804,0.026798844,-0.07152918,0.05423877,-0.013214753,0.01090948,0.15186186,-0.1438484,0.26226836,0.045508612,0.16359073,-0.099802345,-0.17468646,-0.09659951,0.04785763,-0.12955281,0.020547403,0.13338917,0.3576279,-0.053294335,-0.46192113,0.039763413,0.14507002,-0.39597955,0.18210165,-0.024855316,0.34195194,-0.23929007,-0.22881493,-0.16721763,0.073466405,0.32106283,-0.15732533,0.46150783,0.71016407,0.4346579,0.9323158,0.18806054,0.3635234,-0.2344847,-0.01991871,0.0015663529,0.088848494,0.10210684,0.1202654,0.14234513,0.18394633,0.08748952,0.07758622,0.25423685,-0.024007002,0.2679323,0.19627108,0.09958103,0.07100739,0.07198564,0.42581293,0.2219949,-0.091586314,0.10090047,0.26006204,0.010720495,0.12881781,0.17968006,0.3886526,0.24523711,0.012878436,0.104584254,0.12934342,0.11351522,0.3408954,0.22343275,0.7703323,0.3488541,0.0034521795,0.3166221,0.46267354,0.01661437,0.30141506,0.19734745,0.736947,0.16394745,0.0045271013,0.30156362,0.3038293,0.109962255,0.2556194,0.23702951,0.548725,0.10570261,-0.03573629,0.124887064,-0.08748137,0.09207032,0.18553509,0.02447055,0.4851488,0.07874627,0.1496358,0.027107323,0.08763282,-0.012565239,0.049066395,0.034964215,-0.15614568,0.043642007,0.32310203,0.01733463,-0.197418,-0.051852226,0.06235404,-0.26476172,-0.2307878,0.053160682,0.6281164,-0.051597137,-0.275875,0.022794867,0.044497423,-0.041719437,-0.51453525,0.0039522476,0.55245006,-0.083595775,-0.3850361,0.0415127,0.09088092,-0.20038,-0.06322475,0.046685606,0.46091783,-0.08822535,-0.382993,0.053851977,0.29829684,0.21385926,-0.057486653,0.3640122,0.65971035,0.4842765,0.5400184,0.0002635948,0.22923249,0.1562051,-0.05079232,0.07914052,0.015787726,0.06495296,-0.019366259,0.06601374,0.119560756,-0.12691185,-0.0766901,0.14601807,0.20999382,0.15270667,0.18577763,-0.08317311,-0.024493514,-0.003793916,0.16516636,0.13232832,-0.106867656,0.12834677,0.13814785,-0.11593273,-0.0007822193,0.12345877,0.21324974,0.013165614,-0.09239301,0.12521394,0.18157484,0.044277705,0.10770218,0.1761269,0.51790214,0.09895892,-0.12047928,0.17021674,0.2813569,0.17807257,0.05368927,0.17414318,0.58780015,0.18031576,0.05439808,0.07167441,0.10347763,0.10281754,0.09824121,0.16255158,0.12646964,0.13353054,0.12657852,-0.0439642,-0.06071288,0.056686394,0.13689849,-0.05236003,-0.1870145,0.06963368,0.3096118,-0.00014660478,0.03479047,0.043344293,0.10917995,0.10467058,-0.43251643,0.18411808,0.42328587,0.10119701,-0.31161532,0.18450639,0.13254511,0.002728927,-0.5007514,0.09219339,0.53184843,0.024261892,-0.252255
0.10483782,0.24818754,-0.08870426,-0.27764386,0.034399223,0.6646262,-0.062892355,-0.16754991,0.22447754,0.31515595,0.10079266,-0.021687675,0.19785024,0.63402486,0.029370945,-0.18550272,0.21184304,0.2493996,-0.075804606,0.17167065,0.10637413,0.17392835,0.13703269,0.025417365,-0.15974355,0.0022955502,0.23714744,0.086638436,0.14689232,0.3123538,0.23343125,0.16396135,0.105556555,0.1611785,0.13099715,0.15420993,0.13905545,-0.059889458,0.100192435,0.1315777,0.08340797,0.019788356,0.07615401,0.10807671,0.0743306,-0.17222635,0.04127929,0.18997337,0.087928176,-0.013627194,0.125486,0.0012668229,-0.04303731,-0.2878334,0.12605712,0.19225636,0.1409211,-0.15426444,0.13261506,0.20095824,-0.031553075,-0.125734,0.19826613,0.21440206,0.012899066,-0.0015113605,0.21125975,0.33762816,0.014322321,-0.149123,0.1247461,0.059672117,0.1856007,-0.057028048,0.07971356,-0.31187445,-0.08658291,-0.089946955,0.0406218,-0.15217729,-0.005450301,-0.08307435,0.018309072,-0.54824275,-0.04285086,0.16232935,-0.06479689,0.063744925,0.023851592,0.011118846,0.0025753805,-0.52011067,0.019628549,0.32693136,0.053713664,-0.12525672,0.15096945,0.071862206,0.08759479,-0.46616444,0.11303269,0.3635357,0.12215056,-0.21569662,0.040957555,0.24957001,-0.13408759,-0.19316207,-0.088615015,0.16417694,-0.08421563,-0.078700356,0.052058417,0.09503295,0.046627905,-0.11982657,0.034397516,0.32276648,0.087966956,0.018685553,0.09377264,0.24149583,-0.10050571,0.013311865,-0.06948129,0.26436672,-0.027779048,-0.25249368,-0.009378884,0.17173693,-0.013108579,-0.15843228,-0.08936374,-0.037242863,0.19084251,0.029478949,-0.3652808,-0.10239569,0.032478526,0.036382295,0.22256652,0.14720309,0.1721383,0.2580012,-0.1694524,0.18050183,0.15308422,0.02566453,0.008904396,-0.07354582,0.18945797,-0.001344582,0.067797646,-0.031601958,0.13245818,0.13145344,-0.033414897,-0.17183624,0.12499738,0.16699952,-0.03538189,-0.12115174,0.2689389,-0.22393739,-0.03425582,-0.19669944,-0.04392645,0.13374482,0.06905851,-0.07648177,0.2045195,-0.51823515,0.011860217,-0.09684682,0.08004308,0.08411382,0.03342765,-0.15588652,0.22312982,-0.6420902,-0.062420677,-0.17992714,0.010741695,-0.20872703,0.12830527,-0.13130939,0.18183401,-0.7093821,-0.1384826,-0.063137956,-0.09577418,-0.324525,0.073362425,-0.15370882,0.054989774,-0.3783692,-0.045270007,0.2132181,0.07086205,-0.067056805,0.14368975,0.14031379,0.04517946,0.053450547,0.113474034,0.40591708,0.050004695,0.1336059,0.23159392,0.27900976,-0.0329215,-0.05046752,0.13369091,0.31897953,-0.04908268,0.279405,0.11596562,0.27620542,-0.04982798,-0.054191083,0.24850745,0.3221668,-0.05207521,0.03344742,0.078130536,0.3048484,-0.03288826,0.034205567,-0.021864507,-0.03133837,-0.053146075,0.025122201,0.15891442,0.070572644,-0.10363648,-0.07458322,-0.6818534,-0.80051136,-0.30885983,-0.6336588,-0.27257705,-0.6305429,-0.45895258,-0.11420719,-0.46280012,-0.4974296,-0.51194286,-0.64706534,-0.5610557,-0.44540474,-0.53386116,0.018569618,-0.18124565,-0.20441338,-0.35176387,-0.1083716,-0.47450203,-0.2786584,-0.3083214,-0.1772397,-0.23798817,-0.19860463,-0.2054411,-0.039464615,-0.27817324,-0.37627655,-0.006356161,-0.008475397,-0.23516533,-0.46925163,-0.13832888,-0.22857736,-0.09247166,-0.3634049,-0.19460563,-0.45461193,-0.2115097,-0.30519128,-0.2910795,-0.19318478,-0.28532213,-0.37856534,-0.3523634,-0.39326766,-0.13064176,-0.17799366,-0.16658525,-0.12916622,-0.3591557,-0.22544062,-0.08297969,-0.52307564,-0.1384793,-0.09769717,-0.22162452,-0.7223783,-0.25716436,-0.06426631,-0.10270466,-0.52355325,-0.16333304,-0.09728204,-0.11586334,-0.4423385,-0.19336791,-0.15240689,-0.011760085,-0.0903043,-0.35372344,-0.37263915,0.26139954,-0.13774425,0.036107313,-0.2869011,0.3582534,-0.124457315,0.2171861,0.05825245,0.6280948,-0.14506419,-0.11378119,0.09333365,-0.112243645,-0.03801997,-0.15402962,-0.27868152,0.1145443,-0.2597149,0.23824275,-0.24453446,0.033917207,-0.01804233,0.1245435,-0.4479232,0.22009292,0.06051459,0.007848621,-0.081820324
-0.117168106,-0.12469459,-0.1051881,-0.13408108,-0.07250411,-0.06827153,-0.046827372,-0.3011973,0.07853933,-0.050542124,-0.09187156,-0.23307768,0.2607943,0.08079174,0.19855419,-0.24310468,0.08416095,-0.05920407,0.095204346,-0.057169132,0.04575313,0.01657475,0.011931598,-0.013075049,0.17425784,-0.0050491933,0.27973932,-0.18642186,0.08560745,-0.040329225,0.1829631,0.031467807,-0.08695367,-0.0625259,0.1534926,-0.049181126,-0.08943662,0.28575116,-0.14297701,0.1696418,0.07164702,-0.02472685,0.11064068,0.05966668,0.09708152,0.29162169,0.008523493,0.23863125,0.05645883,-0.07438806,0.09577287,0.018693795,0.03771579,-0.0018056346,0.007147252,0.2191896,0.14464529,0.10754226,0.07518302,-0.19865057,0.12539521,0.019403694,0.16994496,0.08505418,0.32512015,-0.10156783,0.24754652,-0.0845961,0.38211963,0.017871853,0.38042212,0.098895356,0.52829707,-0.060330886,0.29465428,-0.14155085,0.6221202,0.56154966,0.5937204,-0.034191743,-0.052820876,-0.09779642,0.43962467,-0.28634524,0.06851626,0.06806627,0.13489364,0.2706111,-0.45579705,-0.07937924,-0.6022088,-0.5003725,-0.37605742,-0.3461849,-0.48887134,-0.6462395,-0.19713053,-0.07310368,-0.20624882,-0.19378795,-0.18029948,-0.07872943,-0.2635083,-0.40845153,0.17471121,-0.11854072,0.09939234,0.070377156,0.29344305,0.06632412,0.07945949,0.16924734,0.13059658,-0.008369248,0.33112174,0.45892814,0.22090976,0.4540435,0.124304995,0.5529003,0.21355593,-0.05936868,0.0182673,0.24436359,0.010304086,-0.04970027,0.079088084,0.15787125,0.06441106,-0.12412583,0.052150242,0.17097291,0.012160039,0.12923764,-0.031170666,0.111621946,0.018183457,-0.013602247,0.050700698,0.11213066,-0.08811956,-0.10400719,-0.09952658,0.123200946,-0.012902503,-0.24260306,0.09968444,0.36698422,0.04367986,-0.07787223,0.07396469,0.30693036,0.15691993,-0.3285045,0.023046834,0.37730977,0.09744929,-0.14350817,0.2110577,0.045418043,0.14543472,-0.36447185,0.030561527,-0.030019382,0.02010945,-0.066132,0.15354094,-0.030744676,-0.019448508,-0.5208821,-0.019725863,-0.1323875,0.11672469,-0.21554291,0.043442618,-0.07647383,0.34336805,-0.45747557,-0.029807877,-0.10718444,0.21917363,-0.16585274,0.058630086,-0.06003756,0.025879335,-0.20511027,-0.13026915,-0.1797431,-0.044847324,-0.4715554,0.0477156,-0.14341024,-0.49127635,-0.12016429,-0.45780802,-0.49882615,-0.6540038,-0.539581,-0.5462136,-0.50017774,-0.3618914,-0.06895966,-0.60992455,-0.3820318,-0.33044422,-0.28498623,-0.618039,-0.71454686,0.10224756,-0.040750884,0.12944253,0.089190535,0.09107345,0.185638,0.1476733,0.1518723,0.07367846,-0.09733338,0.11738298,0.31273785,0.07132858,0.06734793,-0.0032457816,0.31367534,-0.0105984025,-0.020378897,-0.072199926,0.41283178,-0.052800983,-0.12511648,0.10002455,0.111445405,0.12645467,-0.19138524,-0.029119505,0.43392316,-0.049641673,-0.08428185,0.10813089,0.11694035,-0.09484968,-0.25593895,-0.026232742,0.49458063,-0.08623498,-0.20343329,0.004178428,0.21661599,-0.071513504,-0.4425612,-0.02302625,0.52932763,-0.028296145,-0.059204552,0.06343809,0.073346645,0.16228196,-0.67032176,-0.06639949,0.25957894,0.022545824,-0.23828983,0.119209014,-0.0027510023,-0.010381755,-0.9121598,0.115411624,-0.06382062,0.1576264,-0.05255093,-0.08400242,0.060082573,0.063266315,-0.789813,-0.06280864,-0.09844976,-0.0059847035,-0.24205679,-0.0074915364,-0.056264147,0.022522524,-0.5472072,0.021113083,-0.18163994,0.04375275,-0.04550072,-0.065738335,-0.01573437,0.16094038,-0.51569766,-0.08689397,-0.38314793,0.049110543,-0.2797342,0.002701028,-0.005789445,-0.043831535,-0.10430616,-0.1479665,-0.47667888,-0.28784868,-0.40400645,-0.0022626359,-0.15823768,-0.34129813,-0.20080993,-0.4018057,-0.6660802,-0.43931028,-0.22706051,-0.50245416,-0.37129983,0.25874004,0.020172242,0.19123212,0.14901878,0.113184355,0.03078103,0.16319661,0.17370194,0.100420706,-0.10188004,0.12002716,0.13155529,0.12325291,-0.008444638,0.17443863,0.052079555,-0.013480944,0.011891987,0.116570905,0.31484497,0.0897282,-0.004626806,0.2082959,0.06398391,-0.07901464,-0.059381906
-0.056020316,0.43924862,-0.06103131,-0.109915644,0.07228403,0.19194287,-0.10421299,-0.33672425,0.037866484,0.41963425,-0.14623004,-0.17330642,-0.110228196,0.12269582,-0.070805125,-0.5062053,-0.0134932315,0.4622894,-0.11421686,-0.122048594,0.017155092,0.11366081,0.028850686,-0.21114159,0.16434784,0.2842043,0.011203829,0.10862328,0.03337939,0.23486137,0.03692246,0.13792528,0.091595076,0.08387665,0.074486695,0.32240677,0.06738704,0.0733277,-0.08200338,0.23055609,0.012517126,-0.23520784,-0.0352577,0.18232943,-0.24336977,0.10634004,0.005004754,0.42617568,-0.08034167,-0.16237514,0.07982924,0.18168052,0.012735883,-0.019004317,0.08302603,-0.12272121,-0.04300842,-0.3403111,0.08190177,0.067717366,-0.023998527,-0.1087655,-0.027793199,-0.30286908,-0.20559017,-0.35472575,-0.080167845,-0.99066377,-0.010814619,-0.10009704,-0.54459524,-0.090693384,-0.97347826,-0.59460294,-0.906494,-0.5228608,-0.59844494,-0.6502922,-0.0019364371,0.14126971,0.090340145,-0.068256825,0.33357325,0.22931996,0.48667657,0.076284446,-0.09030092,-0.12182377,0.1099079,0.07963627,-0.013452785,0.039434474,-0.2065282,0.0807502,-0.23616974,-0.013886862,0.06527111,0.5383648,-0.097970374,0.056799453,-0.054108027,0.11064742,-0.32959437,-0.17964561,0.0031058462,0.41390866,-0.2763555,-0.2360192,-0.01745669,0.31950703,-0.46321326,-0.06781992,0.013687697,0.5275419,-0.32045904,-0.07885109,-0.16262338,0.1784494,-0.35486665,-0.053219445,0.16977587,0.5267601,-0.09360902,-0.052610375,-0.278002,0.20716041,0.08355705,0.15954122,0.22502418,0.25814077,0.21430697,0.20121436,0.062146258,0.25967425,0.07984284,0.62343323,0.23766582,0.07063968,0.18239515,0.33198425,0.03297216,0.29247802,0.09446479,0.5989273,0.16043273,0.053642113,0.039007492,0.3671612,0.08461972,0.21618661,0.07088936,0.78779745,0.03464721,-0.18295927,0.06628936,0.47760224,-0.02128155,0.14918926,0.125492,0.37383282,0.0032530585,-0.16199961,0.06509167,0.61589193,0.015597922,-0.12552617,-0.19818312,0.044875324,-0.34991962,-0.77119476,-0.4867658,-0.7424613,-0.11900517,-0.25833353,-0.43887162,-0.2446012,-0.686105,-1.4007863,-0.4412867,0.04176545,-0.93905395,-0.98503596,-0.025817994,-0.07021693,0.42283672,0.5001485,-0.16152643,0.5018275,-0.19952573,0.63327414,0.21138343,-0.11001007,-0.21207589,-0.014103666,-0.1300896,-0.2058188,0.30646065,-0.074166976,-0.45204374,0.22803733,-0.08223813,0.22227484,-0.34482715,-0.041599814,-0.43188235,0.04383043,-0.40682647,0.4206428,-0.058541983,0.28255504,-0.3155071,-0.05667868,-0.32035315,0.140414,-0.21430656,0.2621705,-0.034758713,0.2889762,-0.23392916,0.040702958,-0.23260368,0.02538222,-0.28145334,0.07439198,0.016488234,0.3186264,-0.09170124,0.004386247,-0.17393783,0.023908705,0.15570247,-0.06092493,0.16545343,0.3602007,0.22476631,0.25422615,0.04049187,0.2111885,0.22634141,0.2666789,0.2999144,0.2816082,0.23486513,0.1067225,0.2029221,0.505127,0.030275606,0.011727756,0.21634953,0.36357778,0.021832526,0.1920342,0.07696425,0.22009322,-0.064880304,0.128944,0.06908219,0.22632778,-0.17655325,0.17888781,-0.00996336,0.1388922,-0.23752582,0.3157402,0.034545925,0.11114029,-0.34242854,-0.042665374,-0.22341838,0.06253785,-0.31301108,0.4062131,-0.5374371,-0.45294645,-0.62231016,-0.4447457,-0.17698681,-0.47001627,-0.3332006,-0.17272769,-0.4435432,-0.7523156,-0.13256913,0.23516865,-0.7094235,-0.7913259,0.046552286,-0.08362494,-0.011689801,0.09984606,-0.09818563,-0.15590821,-0.10157706,0.001321062,-0.004288229,-0.07277673,-0.03009714,0.08175233,-0.11269252,-0.15081033,-0.15048608,0.08439239,-0.012918136,-0.18427491,-0.24128324,0.039817225,-0.20251787,-0.28295612,-0.098317206,-0.19436805,-0.19331105,0.22859682,-0.1797528,0.09703376,-0.25190693,-0.04861068,0.040375907,-0.16517515,-0.14868432,0.0317285,-0.09329884,0.12841806,-0.19372186,-0.011113585,-0.110144205,-0.0005969712,-0.12958023,0.15007882,0.06260283,0.23874259,0.044436775,0.044622462,-0.13497166,0.015109465,0.11399276,-0.15351254,0.30215487,0.4208756
0.19911328,0.24483112,0.16260669,0.27979746,0.12813626,-0.6678911,0.124585144,0.32096842,0.1431304,-0.030910758,0.19304545,0.21035026,0.05106984,-0.66282386,-0.009554008,0.41513965,0.01771558,-0.21139827,0.16685286,0.046423264,0.06507611,-0.26718038,-0.0573665,0.25678307,-0.04922845,-0.23418865,0.09081705,0.022326931,-0.0707057,-0.06270458,-0.18343052,-0.19374782,-0.063969634,-0.69316477,-0.008089682,-0.29217583,-0.3656956,-0.093699194,-0.12015424,-0.54250675,-0.29351103,0.1746814,-0.18297939,-0.28959987,-0.3813148,-0.19775018,-0.19791476,-0.6469795,-0.102546774,-0.07083231,-0.40112734,-0.46002105,0.1393858,0.0460731,-0.23551166,-0.16508494,0.0044456483,-0.14907135,0.29774952,-0.15305181,0.07707423,-0.06312816,0.0423148,-0.15556079,0.01713267,-0.051640324,-0.09799441,0.16056545,-0.01164577,-0.27017766,-0.12968858,0.022221645,-0.12107436,-0.44208658,-0.12185895,-0.1530508,-0.14107868,-0.21146895,-0.26666945,0.21465668,-0.17688549,-0.3084521,-0.17151,-0.3394205,-0.035652846,-0.52420276,-0.4087329,0.095205575,-0.28258425,-0.33310023,0.057782542,-0.31722683,-0.1837781,-0.5053132,-0.13984257,0.29453468,-0.1651858,-0.21380426,-0.05259127,-0.088847786,-0.03393187,-1.0091,-0.06256362,0.35797772,-0.14805484,-0.12773508,0.10169007,0.04994561,0.01622879,-0.37874764,-0.17089519,0.19755448,-0.100399405,-0.15708187,0.0027285372,0.014054285,0.030431427,-0.40513822,0.08361888,0.33203506,0.12647477,-0.07994218,0.053502254,0.029648218,0.050716043,-0.53903633,0.0660238,0.000399966,0.06672548,-0.096254885,0.046004217,0.07832333,0.10189369,-0.30076608,-0.12285451,-0.3659836,-0.09036419,0.026066074,0.011878534,-0.11646022,0.17507775,-0.200142,-0.013283831,-0.22762288,0.18106145,0.23367354,0.1817347,0.0023182358,-0.3697325,-0.056611218,0.04271027,-0.30059037,-0.6012213,-0.3684371,-0.063125394,0.18940374,0.1023412,0.12196266,0.123652846,-0.10623729,-0.05372129,0.33050123,0.045310613,-0.02708476,0.1862837,-0.388652,-0.2107483,-0.55564433,0.07796828,-0.10299846,0.025889484,-0.35433346,0.1164151,-0.3316936,-0.042273577,-0.25826994,0.029090775,-0.32424212,0.16790962,-0.05310835,-0.22301403,-0.3525344,-0.1325294,0.07113622,-0.22092873,-0.3272264,-0.13329919,-0.18905137,-0.21841753,-0.73258233,-0.13996956,0.32908946,-0.20033526,-0.39103067,-0.014028184,-0.03667714,-0.14691031,-0.7558905,-0.011354355,0.5659071,-0.088556655,-0.0865578,0.071379215,-0.062829345,-0.16851221,-0.88763964,-0.011528688,0.21167402,-0.16204026,-0.24081634,0.11370323,-0.06876172,0.004757475,-0.7202533,-0.06494574,0.06068955,-0.016715085,0.03626869,-0.03758172,-0.21850368,0.091065586,-0.16250037,0.10861431,-0.001735043,0.25927743,0.13222595,0.11868704,0.0220778,0.16107878,-0.04988254,0.08134136,-0.4053522,0.080065645,0.2376328,0.05266119,-0.0064183464,0.05654021,-0.12519296,-0.017750463,-0.395755,0.11909699,0.3516414,-0.091610275,-0.08301593,0.088973545,0.029085208,0.073762536,-0.32855234,0.08329404,0.32474238,0.094636984,0.027582755,-0.39580932,-0.013175031,-0.28997254,-0.55815536,-0.6510972,-0.45489234,0.11431444,-0.084467456,-0.3256363,-0.031690836,0.010164946,0.0352989,-0.01938135,0.16906263,-0.057753526,0.08831394,0.19575725,-0.17546043,-0.0382462,-0.10083188,-0.06335703,0.05717705,-0.010677417,-0.03693606,0.24538282,-0.3199367,0.08042391,0.07947487,0.15661506,-0.04079597,0.27242795,0.19756798,0.058693953,-0.31943163,0.025107734,0.17997916,-0.089922905,-0.27736053,0.10451104,0.028404336,-0.022316268,-0.44787282,-0.10639576,0.03212797,-0.116596304,-0.32172644,-0.12830533,-0.14971094,-0.14133446,-0.42287907,-0.10689229,-0.05597439,0.008984857,-0.09646886,-0.07202422,-0.020092214,-0.14634116,-0.7461496,-0.052670784,0.23214994,-0.14018282,0.005096136,-0.1228424,-0.00781342,-0.024310915,-0.3396297,0.14225309,0.12686737,0.113767706,-0.030646889,-0.07713856,0.020978583,0.04279594,0.22983505,-0.013627251,-0.057840623,0.017591778,0.15126544,-0.0047703646,0.08328495,0.052040145,0.29299736,-0.11207045,-0.16631112,0.023045367,0.1955056
0.08099139,-0.01675004,-0.022622501,0.16515735,0.027334599,-0.39910713,0.052194845,-0.07171383,-0.19705082,-0.053656098,-0.053198915,-0.047950074,-0.12017863,-0.36573544,-0.01564715,-0.023578562,-0.058366682,-0.19807105,-0.32929257,-0.1994693,-0.038798895,0.050094213,-0.77241266,-0.35937184,-0.14380682,-0.027974864,-0.279141,-0.08490448,-0.10153753,-0.18041272,-0.17349784,-0.12031507,0.043953333,-0.007205776,0.12557057,-0.2140769,0.024936043,0.092243895,0.024008693,0.0057895132,0.13170624,0.095585115,-0.0043088864,-0.23063631,0.0065088044,0.1631924,0.08989052,0.05809283,0.023952235,-0.054964498,0.18622456,-0.38976204,0.04486367,0.17023695,0.10244919,-0.23450376,0.09639706,0.04831981,0.09770567,-0.3737096,0.0076636337,0.16506724,0.03631903,-0.25861636,0.1980211,0.019728703,-0.12001709,-0.18967411,0.047375206,0.11812692,-0.17628126,-0.08290574,-0.036611486,0.12498651,-0.16675839,0.14278553,0.1263792,0.29210752,0.018254152,-0.007236945,-0.05798052,0.13934606,-0.03629074,0.29359713,0.10028359,0.012684093,0.07901609,0.079240456,-0.056665152,0.020493656,0.037108835,0.47014102,-0.017195042,-0.09704491,-0.02512676,0.23225963,0.06927458,0.038210794,0.025276793,0.30786547,0.021323001,-0.110308826,0.04688691,0.07814658,0.049446393,-0.0062887357,-0.07657737,0.1752449,-0.18544373,-0.40066728,-0.089186445,0.094759,-0.035160847,-0.19454154,-0.17661563,-0.31846276,-0.12943916,-0.31331384,-0.0451166,-0.6878046,-0.23778865,-0.24370073,-0.11385398,0.08868409,0.061453212,-0.28555033,-0.13191585,-0.052172698,0.23114122,-0.33183104,0.0006545132,0.03579063,0.17918646,0.16464362,-0.16671352,0.1372995,0.14774013,0.34238833,0.4202952,-0.034551933,0.15932427,0.021337694,0.15660876,0.019316565,0.16829532,0.04677729,0.037776012,0.030782642,0.13458875,0.07530174,-0.1510452,-0.050680913,0.05259839,0.21514426,-0.014773543,-0.102139875,0.02090324,0.12821224,-0.03770991,-0.10244983,0.07094228,0.13798587,-0.21905322,0.022631941,0.037092544,0.18184108,0.1646288,0.111532636,-0.047837008,0.10375861,-0.06286986,0.31484768,0.07569662,0.19837452,0.03713455,-0.095133856,-0.030957334,0.19320329,-0.24493065,0.4801249,0.13208592,0.24268696,-0.13492478,-0.037021212,-0.17921855,0.22758281,-0.09015037,0.2952775,0.050610885,0.19926423,0.08256855,-0.066817805,-0.052310716,0.12052316,-0.05100554,0.18911575,-0.010710155,0.025812685,-0.004662722,0.04411765,-0.2068345,0.0805583,0.05319515,-0.0132410005,-0.059301443,-0.13394059,-0.003684259,-0.1779898,-0.02819046,-0.0034593027,0.00074393005,-0.07491328,-0.15547292,-0.2900069,-0.03072291,-0.5552185,-0.1533205,-0.25088757,-0.089218244,0.033119593,-0.340972,-0.42528027,-0.029617637,-0.15655436,-0.17857128,-0.32475883,-0.09548454,-0.06492714,-0.21000628,0.17807445,0.024877276,-0.25046456,-0.027248612,-0.0065155723,-0.07346504,-0.10406829,0.05184583,0.25154594,0.14218952,-0.103258155,0.0846616,0.047337517,0.2922204,-0.07443505,0.3697871,0.39981946,0.342598,0.381297,0.341311,0.38435584,0.39512134,-0.014751226,0.055501267,0.21702924,0.22702883,0.089239575,0.33088467,0.14610353,0.049110956,0.13491498,0.1046843,0.13884912,0.11464028,0.04201449,0.15072694,0.29551774,-0.099211015,-0.111712724,0.23633687,0.27350038,0.117010266,0.03293433,0.011515945,0.37046084,0.21596465,0.39905486,0.23593435,0.30428377,0.12851934,0.10161518,0.24370112,0.27432612,0.23169516,0.05113458,-0.0637935,0.09845735,0.13597462,-0.16615435,0.21080233,0.1042121,0.015762152,0.052142825,-0.09745257,-0.099068604,0.099047534,0.14315823,0.11286082,-0.12596783,0.038293846,0.090085715,0.15622538,0.11536353,0.06747288,0.37509593,0.12191298,0.24034454,-0.12218527,-0.02870611,0.34641075,0.43269682,-0.2200622,0.19362596,-0.092053406,0.31304708,-0.06618195,-0.052877355,-0.11749366,-0.10870995,-0.5703445,-0.25467768,0.09166237,-0.16633251,-0.34044164,-0.08311524,-0.42543516,-0.24640337,-0.65282285,-0.26760137,-0.36183655,-0.27796713,-0.2255044,-0.13890684,-0.18531053,-0.30403346,-0.233117,-0.103842504,-0.4706285,-0.37387392
-0.08061659,-0.365683,-0.045664065,0.26683658,-0.18609387,-0.17906742,-0.3387663,0.07805909,-0.1870859,-0.39058504,-0.2879345,0.26702085,-0.23025307,-0.172919,-0.45061442,-0.3754391,0.19560353,-0.33312848,-0.10065436,0.2579224,0.24439876,-0.043035194,0.30676132,-0.10308009,0.11993515,-0.41299048,0.11143883,0.26387715,0.11126103,0.12022181,0.16832659,0.11012373,-0.15605965,-0.38860336,-0.06582829,-0.2665917,-0.18802823,-0.24340303,-0.17190637,-0.1544699,-0.2177132,-0.4457261,-0.05675904,-0.15083565,-0.46625534,-0.27022955,-0.37792668,-0.07751807,-0.28810582,-0.32607034,-0.13510619,-0.28179038,-0.25653884,0.057449,-0.15800384,-0.20502044,-0.13817793,-0.4547886,-0.002282873,-0.27259037,-0.32663235,-0.15174401,-0.26135787,0.044902343,-0.38072696,-0.32806444,-0.37715238,-0.36872157,-0.42142344,-0.57102567,-0.22837134,-0.22086541,0.08884776,-0.32511413,-0.10100588,0.06773883,0.020750117,-0.07166413,-0.09614175,-0.23313244,-0.10915088,-0.34862378,0.03943595,0.13440534,-0.13189825,-0.10801146,-0.07665187,-0.0069066663,-0.24047604,-0.36885694,-0.20530476,0.30369487,-0.34610146,-0.29519808,-0.26260528,-0.1597264,0.05363687,-0.396675,-0.15920582,0.32452598,-0.047138333,-0.00757373,-0.21618757,-0.080760024,-0.070512556,-0.46963534,-0.28136602,-0.30704728,-0.0865767,-0.20569034,-0.1085148,-0.34855238,0.23575203,-0.27808106,0.0050321226,-0.08411847,0.2824941,0.071577735,0.28094706,-0.089240335,0.104932085,-0.19561629,0.21702144,0.019483635,0.22872075,0.13799737,0.2662087,0.16795951,0.09937007,-0.17133291,-0.040412396,0.05116329,-0.018714981,-0.06964863,0.072834395,-0.12045675,-0.19637884,0.016944302,-0.0408465,-0.03098225,-0.23713341,0.018003177,-0.103980824,-0.16730091,0.0058779344,0.1296558,-0.013280602,-0.38603744,-0.043704577,0.16477019,-0.036590923,-0.08001176,-0.047034584,0.034682952,-0.044274364,-0.115602985,0.03706795,-0.020441737,0.035209,-0.0190801,-0.118601404,0.34452736,-0.1510678,-0.4114472,-0.040979046,-0.008896749,-0.1559689,-0.23591223,0.00089143234,0.10527134,-0.10277545,-0.5697437,-0.04539114,-0.20937265,-0.11710238,-0.067654364,-0.09250903,0.05432933,-0.022061935,-0.2996834,0.024513433,0.22017448,-0.1762178,-0.030681852,0.032074243,0.07034632,0.046172194,-0.17015915,0.044807673,0.17542031,0.06747858,0.054446407,0.34035078,-0.39341685,0.43657267,0.41898057,0.2066643,0.28261882,0.3093173,0.42266688,0.020947935,-0.36553308,0.32570544,0.43594736,0.36473092,0.28071576,0.20891537,0.34092975,-0.19114885,-0.4649439,-0.07088349,0.032216128,-0.3325781,-0.15695173,-0.33740062,-0.07517675,-0.105112866,-0.112549886,0.015411848,-0.13304225,0.14623332,0.26719135,0.042648923,-0.053805143,0.26950344,0.02865229,0.086186275,-0.11921153,0.16268957,0.24135919,0.10211354,0.06885342,0.1805086,0.20895356,0.11234053,-0.22447348,0.07699335,0.28471336,0.10158615,0.20161359,0.20433348,0.57875013,0.007950818,-0.31449986,0.07843955,0.14737318,0.23416096,0.09364606,-0.049246248,0.49164847,0.040371798,-0.4578826,-0.055252418,0.30215007,-0.13329564,0.068185456,0.05103563,0.68161,0.045970015,-0.599021,-0.058156796,0.1818084,-0.044882704,-0.24608257,-0.035615426,1.0515116,-0.0780955,-0.64082587,0.0351118,0.15439002,-0.1581627,-0.21264501,-0.2260237,0.7666684,-0.14077558,-0.38467327,-0.0002674887,0.17390437,-0.17036524,-0.24730907,-0.19501993,0.69309515,-0.008105608,-0.16479388,-0.026792476,0.45600283,-0.01780571,-0.07847695,-0.27996954,0.1574601,0.13841812,0.27056378,-0.10903742,0.33500704,-0.044888854,0.24429442,0.24815308,-0.034956917,0.15366344,0.26113328,0.48385933,0.38411182,0.33128682,-0.047312357,0.41212958,-0.22262569,0.27089188,0.10700941,0.28508085,0.1038413,0.4568424,0.16795093,0.03542818,-0.46733895,-0.15585862,-0.28636384,-0.18086529,-0.22406413,-0.20107813,-0.32107356,-0.03683835,-0.041261937,0.054640055,-0.097890876,0.17825082,0.3061978,0.2694334,-0.09719851,0.22901392,-0.23272409,0.058267318,-0.22733778,0.10727846,0.09953578,0.18569337,0.042420626,0.15673411,-0.013614117
0.090248704,-0.40866262,0.1472191,0.10136358,-0.026556583,-0.14146706,-0.048390474,0.43063644,-0.13510609,-0.4464533,-0.16072387,0.15322243,-0.17369162,-0.15300523,-0.09205486,0.55922407,-0.09719388,-0.48974803,-0.11388969,0.09040024,-0.19647712,-0.1159358,-0.17410693,0.69969076,-0.2789586,-0.79793644,-0.03261677,0.15605368,-0.1627061,-0.43332237,-0.08483131,0.9126366,-0.13686797,-0.86552763,-0.15578759,0.039063033,-0.22605848,-0.1848064,-0.22553037,0.7748982,-0.06775402,-0.6669481,-0.14156532,0.22954492,-0.22201513,-0.23508133,-0.17807953,0.4173479,-0.15699105,-0.5113851,-0.23672114,0.34453478,-0.0068887025,-0.0864945,-0.08212739,0.42312708,-0.077372864,-0.28293598,-0.03083474,0.20788507,-0.010616368,-0.06774445,0.09480395,-0.18831804,0.14456992,0.07496203,0.112734444,0.32388064,-0.17172202,0.12309688,0.2582318,-0.25680155,0.24065243,0.3502613,0.19805765,0.2407333,0.20411901,0.26456416,0.020687632,-0.5022755,-0.26221803,-0.4360355,-0.07599795,-0.32121512,-0.14484675,-0.45084447,-0.06647803,-0.22889872,0.1300508,-0.1840127,0.10495505,0.3305836,-0.10086883,-0.06420447,-0.0051420904,-0.38022706,-0.10904168,-0.36133257,0.026725868,-0.13438249,0.07283673,-0.22668341,0.26653802,0.23245418,0.074634254,-0.55129063,0.17142096,0.15558799,0.24075046,-0.18698658,0.17361365,0.5449691,-0.04590544,-0.55562997,-0.031618755,0.06451736,0.26114416,-0.08003087,0.0684136,0.720618,-0.036563635,-0.52149713,0.073212795,0.15874156,-0.029077929,-0.12246731,-0.23858999,0.6370792,-0.26021907,-0.6558214,-0.1868392,0.102290586,-0.21751311,-0.17631751,0.010058618,0.6787379,-0.045577332,-0.44174442,-0.11583452,0.199318,-0.16697335,-0.29050463,-0.065605134,0.7171713,-0.07421663,-0.45761853,0.0036067658,0.013480737,-0.0713726,-0.2564762,-0.0600599,0.6265747,0.007522658,-0.36803874,0.06893146,0.053712457,-0.0058523794,-0.07889898,-0.06366472,0.28874868,0.003158562,-0.14418036,-0.10582079,0.1259269,-0.17338711,-0.14200969,-0.21795541,-0.244983,-0.077033,-0.14437917,-0.14911005,0.07747362,-0.31131122,-0.15147091,-0.17654812,-0.1943206,-0.3060043,-0.2142731,-0.275207,-0.30147055,-0.082487114,-0.30336702,0.29785126,-0.27739793,0.12554291,-0.026189428,0.21222158,0.19116744,0.41182604,0.16311221,0.056869633,-0.15660429,0.26834062,-0.18541053,0.14941108,0.1749955,0.20431645,0.10115996,0.10705862,0.00063950726,0.08096636,-0.43881336,0.14452884,0.120120674,0.28215313,-0.08264923,0.26136515,0.13986063,0.36730018,-0.081488915,0.25115156,0.46342662,0.2859585,0.27401882,0.32487702,0.4189815,0.27374902,-0.16521811,0.23352289,0.48417214,0.27087432,0.17025743,0.46149737,0.285482,0.27504754,-0.17273192,0.19543853,0.411807,0.2683632,0.32049745,-0.23021533,0.36820352,-0.124574356,-0.52042556,-0.30144882,0.018559923,-0.045175742,-0.12595132,0.063234195,0.3298969,-0.015023662,-0.5085079,0.13923945,0.48662877,0.017736776,-0.32173982,0.118576996,0.3755564,0.04446124,-0.27332306,0.07016819,0.32195482,0.23640694,0.20428877,0.2568597,0.33446372,0.16185805,-0.14916798,0.18500102,0.23983495,0.2321553,0.1030287,0.10032495,-0.1313057,0.15632285,-0.19204673,0.042628553,0.30165815,0.14725275,-0.036235575,-0.18163936,-0.15250786,-0.14683242,-0.37080765,-0.1909719,-0.2868753,-0.17723054,-0.26382107,-0.55955756,-0.68232507,-0.484988,-0.5750022,-0.58124477,-0.7194019,-0.3530718,-0.46707475,0.05409022,-0.37326264,0.28687102,0.3160903,0.24701615,0.27035943,0.083728455,0.22406851,0.30295432,-0.27369443,0.24371605,-0.12894851,0.3410843,0.41556972,0.008545066,0.15263975,0.061482858,-0.16321369,0.041409742,-0.17654732,0.17805882,0.15922292,0.1532515,0.19774286,0.27265397,-0.16750251,0.11776658,-0.25362998,0.21291284,0.24903269,0.051508375,0.08337154,0.16990243,0.12326822,0.12291727,-0.09752666,0.18521194,0.32485193,0.0898185,0.058881246,0.14726958,-0.30079964,-0.03537803,0.023176135,-0.06841528,-0.0052181953,-0.02486418,0.0814736,-0.18357688,0.23730274,-0.26985765,-0.3190155
-0.1574284,-0.12909806,-0.1244936,-0.2993257,0.01542663,0.119719535,0.10065914,-0.10250606,0.2392611,0.37346578,-0.020116769,-0.058258608,0.26547012,0.26050538,0.2645682,0.13357687,0.28316256,0.1256569,0.20122126,0.22349037,0.13902171,0.25339308,0.11574981,0.3609621,0.25846437,0.39141995,0.17139246,0.19720583,0.14974405,0.16072561,0.20126458,0.3122898,0.21379642,0.3319809,0.1403709,0.17727706,-0.023730002,-0.14699443,0.0076779043,0.29615515,-0.12726423,-0.090425014,0.029322466,0.16076544,-0.13818808,-0.23000197,-0.21647051,-0.057419714,-0.34619066,-0.61643034,-0.20582712,-0.24830209,-0.007538042,-0.43686026,0.09730021,0.2810664,0.03135898,-0.06075593,-0.20493427,0.13591893,-0.2728544,-0.32720298,-0.18113609,0.16487397,-0.07517733,-0.09077571,-0.02097061,-0.09786748,-0.0954455,-0.057000645,0.0644172,0.031977076,0.09158676,0.099572584,-0.020464528,-0.07104329,0.19543697,-0.40533304,0.05392302,-0.25893515,0.013298096,0.13565777,0.09526321,-0.037374992,0.13413362,-0.47851026,-0.014172039,-0.0011541012,0.02100724,-0.039344262,0.10508493,-0.0297936,-0.07830783,-0.34245896,-0.07087036,0.0038041954,-0.033189435,-0.26386124,0.04360392,-0.13072422,-0.261454,-0.006138977,-0.097489364,0.057701696,-0.058358923,0.01090933,-0.06870506,-0.0983499,0.11269061,0.06152054,0.09565081,0.09073052,0.16947787,0.2104009,0.07500484,0.0891828,0.22569397,0.3391819,0.21170756,0.02915061,0.25802752,0.0440811,0.11094652,0.1553517,0.11760177,-0.01220701,0.12563743,0.04545868,0.19992512,0.2570281,0.1606079,0.058215894,0.10628089,-0.24661826,0.07690077,-0.013091594,0.158455,0.3123098,0.15954879,0.123224385,-0.15392216,-0.06253085,-0.1929774,-0.15307091,-0.06698459,-0.31098843,-0.11916262,-0.1799275,-0.38306704,-0.21832249,-0.49935398,-0.5479264,-0.3880409,-0.45558354,-0.36715323,-0.4868585,-0.06497858,-0.46982324,-0.10829411,-0.07849156,0.19810294,-0.09794164,0.11211871,-0.22619547,-0.50779986,-0.014707633,-0.13527137,0.05892041,-0.3045028,-0.14070496,-0.16685706,-0.037472468,-0.094112635,-0.2873948,0.028424859,0.017354798,-0.014687649,0.046882737,-0.13344742,0.028671117,-0.06927924,-0.47119018,-0.14222775,-0.19843473,-0.034534603,-0.048411228,-0.06666039,-0.18554847,-0.11038022,-0.30165663,-0.17143609,-0.21346071,-0.09908176,-0.22941628,-0.07739833,-0.13323356,-0.037381638,-0.27401534,0.048092984,-0.10236846,0.07471073,0.09284441,0.084343724,0.074890845,-0.0053319037,-0.16857629,0.15003604,-0.019588673,0.07141356,0.22566868,0.11232615,0.21449813,0.14762911,-0.35665375,0.12973227,-0.0050743944,0.110993765,0.20752083,0.102711625,0.11949283,0.11246201,-0.5108696,0.1422635,0.030128993,0.10326098,-0.19679984,0.03614407,0.123392306,0.08295049,-0.31722406,0.21296933,0.09565446,0.15158325,0.14843172,0.17575486,0.09996145,0.15495063,-0.02830904,0.20393358,0.11608864,0.092454635,-0.35264635,0.25120586,0.18033777,-0.1602087,-0.112169,-0.12894931,0.12687483,-0.26446575,-0.31799504,-0.10604518,-0.05931647,-0.4637234,-0.18317376,-0.42335626,-0.25165945,-0.43488175,-0.48804775,-0.3505995,-0.25845027,-0.106953055,-0.28103045,0.11360915,0.05341508,0.11743322,0.081173815,-0.21308708,0.022320883,-0.0007244578,-0.06548537,-0.07133309,-0.054880258,-0.21677516,-0.053468924,0.020548983,0.06053237,-0.24730836,-0.093137555,0.032323275,0.058530327,-0.1408645,-0.008449015,-0.18106863,0.020392897,-0.2473497,0.16037963,-0.06984763,-0.08691542,-0.18666862,-0.07266892,-0.32518673,-0.077489644,-0.23694398,0.2936714,-0.025259394,-0.1439706,-0.095405325,0.053399045,-0.36513513,-0.08671884,0.0013006204,0.28268382,-0.042047013,-0.23399393,-0.05999383,-0.014485205,-0.2189668,-0.060887866,0.15385869,0.2672887,0.080672346,-0.19518323,0.20788294,0.08208749,-0.007846868,-0.12295431,0.13690619,0.07863459,-0.081507616,-0.24937446,0.17309903,0.08114978,0.06921025,-0.022341141,0.1325997,-0.2350787,-0.06267329,-0.16215222,0.1324822,-0.08339551,-0.022168258,0.0594569,0.059578523,-0.31205052,0.079940036,0.022275113,0.095935665,-0.102518976
-0.015658263,0.053736873,0.14092469,-0.1159551,-0.02911048,-0.19134134,0.10379138,-0.4229204,0.016293863,-0.120409034,-0.20823067,-0.44981644,-0.19817463,-0.22589009,-0.093987525,-0.49104938,-0.24919263,-0.14778486,-0.38948438,-0.20726821,-0.38411227,-0.07320433,-0.53899837,-0.21180192,-0.21532784,-0.16640429,-0.0820033,-0.41778925,-0.07528922,-0.05610473,-0.19310161,-0.1347526,-0.30050728,-0.076608606,-0.19282205,-0.32662863,-0.09511878,0.09818703,-0.11126887,-0.048147094,-0.3103029,-0.02166561,-0.12046106,-0.22517931,-0.2711212,-0.39010912,-0.13132003,-0.38668618,-0.1706941,-0.31879318,-0.4512558,0.34377065,-0.10077066,-0.16084878,-0.30566335,-0.090615846,-0.5166824,-0.1111435,-0.19011618,0.31765124,-0.10314621,-0.30831712,-0.14840294,0.10860506,-0.43733776,-0.41010985,-0.20046178,0.44567612,-0.2903727,-0.62946945,-0.2611282,-0.017984176,-0.42462218,-0.44099563,-0.08729241,0.16751972,-0.2605094,-0.5214391,-0.20226298,-0.026306406,-0.29634175,-0.40785232,0.020073995,0.31346664,-0.12330445,-0.30058858,-0.1033598,0.03509421,-0.0407463,-0.17628664,0.20709029,-0.09786713,-0.00077331555,-0.23312564,0.1572056,0.010096737,0.034347344,-0.15050356,0.09538577,-0.22534862,-0.10893447,-0.173355,-0.013106833,0.025281953,0.04770166,-0.13933714,-0.027323414,-0.45759147,-0.090646654,0.11407807,-0.054080557,-0.05742311,-0.07608314,-0.0055599897,-0.071854465,-0.24889866,-0.17324767,0.11372783,-0.1602955,-0.30499506,-0.13523199,-0.09804932,-0.33888453,-0.46275726,-0.40992713,-0.31020504,-0.44753954,-0.08396587,-0.18713783,-0.37289202,-0.10016203,-0.40920758,-0.2541952,-0.16243424,-0.19745956,-0.2928367,-0.09466263,-0.2912713,-0.40989044,-0.39788792,-0.30635568,-0.44444934,-0.46267465,-0.4388372,-0.21918191,-0.43342653,-0.182981,-0.047628056,0.0175399,0.091639504,-0.093226805,0.14622048,-0.12671435,0.233515,-0.10112356,0.101406366,-0.08051636,-0.19258004,-0.21967673,-0.02404407,-0.0005565543,-0.14739332,0.07989779,0.21294753,-0.028348485,-0.45870066,-0.03140728,0.12596405,-0.016062291,-0.14072771,-0.044624276,0.46687102,-0.15297264,-0.39835787,-0.18883136,-0.03579956,-0.093786076,-0.26809457,0.13554253,0.30514705,-0.26519865,-0.4223357,-0.16001046,0.09425247,-0.22341412,-0.25936648,-0.044782322,0.35755154,-0.17938733,-0.25818422,-0.1439235,0.43515918,-0.08507724,-0.21381009,0.22081317,-0.049552288,0.056578837,-0.102898605,0.086585164,0.3439613,0.19780153,-0.17772679,0.29406124,-0.22312787,0.018826721,-0.13044336,0.03697733,0.3556909,0.15936352,-0.07523265,0.025279677,-0.38261572,-0.021927698,-0.19793676,-0.11730038,0.22608598,0.033448283,-0.05699763,-0.09323106,-0.14287293,0.14130114,-0.06814611,-0.18099067,-0.036388315,-0.03383428,0.07186711,-0.23312977,-0.35677454,-0.12256003,0.029964682,-0.32151404,-0.08449781,-0.29497623,-0.028566761,0.0010755144,-0.43958873,0.015830638,0.27705985,-0.11169271,-0.010720429,-0.018753953,0.023557983,-0.17375705,-0.44432044,-0.012723262,0.18889415,-0.18134357,-0.17966373,-0.10603692,-0.040291373,0.04310012,-0.37116745,0.06412395,0.2730675,-0.021157876,0.1900866,0.054668322,-0.1054696,0.17395362,-0.2929971,0.10411793,-0.005717342,0.08931052,0.20075522,0.18910372,0.117890365,0.2018392,-0.30931744,0.26523092,0.12565328,-0.0014106042,0.35076165,0.2558901,0.19862705,-0.024864966,0.120799474,-0.23575363,-0.11657796,-0.040284213,0.016849957,0.123185754,-0.10940508,0.040241793,0.1574253,-0.082667045,-0.12698317,-0.010848271,0.27040476,0.009573445,-0.18749546,-0.15507932,0.028285602,-0.22161089,-0.07127491,-0.24914506,0.32710338,-0.056519866,-0.15645754,-0.057503898,0.008405587,-0.09654321,-0.051820613,0.015831664,0.3149245,0.12847513,-0.012290859,0.2696269,-0.2638042,-0.007146035,-0.032069158,0.23161604,0.2634,0.080396324,-0.086530246,0.07755545,-0.18730226,-0.031830873,-0.056808818,0.18095721,0.08685425,0.21556705,-0.09001661,0.06503325,-0.23438439,0.014705261,0.03075649,0.18986557,-0.03251155,0.123430125,0.07592215,-0.17881879,-0.36038262,-0.22386993,-0.23898105,-0.21130858,-0.13119905,-0.30766687,-0.30454
0.12234726,0.3486334,0.06135552,-0.22809958,0.0742223,0.109851785,0.022428988,0.16201246,-0.08070705,0.28173253,0.034767527,-0.23257872,-0.11198363,0.023484062,-0.09970169,0.11869665,-0.18280096,0.32117426,-0.19677128,-0.23437114,-0.21760495,-0.10261159,-0.23660576,-0.043637767,-0.12810296,0.41938537,-0.25665691,-0.23302943,-0.024391755,-0.19813935,0.044119585,-0.02919709,-0.10191116,0.39533353,-0.18773763,-0.44023022,-0.17673549,-0.48573142,-0.111855716,-0.45674396,-0.28403103,0.4024043,-0.2506411,-0.508154,-0.2499267,-0.5653751,-0.19271435,-0.6292984,-0.038975485,0.37335163,-0.24634667,-0.4641398,0.04790944,-0.27420866,0.09100817,-0.55459934,-0.16722156,0.26793712,0.17573811,-0.08163367,-0.11076697,0.18408073,-0.19272324,-0.090739325,-0.3407876,0.39629024,-0.22718047,0.19381975,-0.32504076,-0.13829653,-0.37265217,0.16394126,-0.25423315,0.43120775,-0.2610346,0.23728652,-0.47078323,-0.48494908,-0.35883355,0.2133495,0.48662382,0.352876,-0.035206944,0.3389435,0.40394363,0.4681444,0.32132927,0.17366566,0.33162782,0.34051654,0.36548817,-0.024766581,0.46139708,0.26774192,0.4879992,0.27475747,-0.18527162,0.31484687,0.008840046,-0.3206227,-0.06211001,-0.01850561,-0.03626059,-0.051660378,-0.0044967295,0.2960412,0.022088867,-0.23860236,-0.25336108,-0.027081814,-0.26769167,0.1886642,-0.33929873,0.27570462,-0.64970505,-0.49188223,-0.44701937,-0.6856135,-0.23817293,-0.47430652,-0.15997957,0.29542685,-0.170452,-0.2560637,-0.20522596,-0.106337465,-0.30926338,-0.4033673,-0.22266638,0.41453433,-0.3695335,-0.4410723,-0.07359099,-0.39983153,0.026112339,-0.3608064,0.048277635,0.22034895,-0.022537034,-0.611752,0.028117592,0.014275387,-0.023432907,-0.22343194,-0.038185716,0.16134006,-0.06148766,-0.57991767,-0.033922162,-0.0034639293,-0.19193646,-0.18235879,-0.13753225,0.064617686,0.07874935,-0.20130177,-0.009341852,0.12291144,-0.12491322,0.10129631,-0.013434338,0.008820881,0.15664616,0.36671278,0.046842184,0.077652335,-0.04824913,0.16503608,0.015653286,0.476081,0.16764261,0.34653223,-0.050176118,0.25843212,0.05507839,0.24676716,-0.36984116,0.7648292,-0.072192594,0.2062654,-0.20270689,0.12112151,-0.17169318,-0.03029043,-0.2871769,0.35533908,0.12954533,0.37310508,0.00940887,0.3274665,-0.25301558,0.17363317,0.18357885,0.36787668,0.29773712,0.62060475,0.28054273,0.3074452,0.3523919,0.42872253,0.072993435,0.38762462,0.105518185,0.051827844,-0.0138705,0.16534822,0.14146993,0.15560964,0.034788605,0.29366508,0.00867186,-0.1371211,-0.18974414,-0.09890298,-0.09123834,-0.056130964,-0.24166109,0.3690329,-0.20595753,-0.5194705,-0.22920255,-0.112976395,-0.15838802,-0.41487217,-0.05588818,0.2114007,-0.03304397,-0.64601964,0.04239083,0.113706484,-0.0014662229,-0.18145837,0.046204466,0.22324222,0.060577996,-0.5836191,0.18172188,0.13014644,0.09049688,-0.040942322,0.021459028,-0.006014705,0.053427346,-0.4800671,0.17782201,0.1988899,-0.031750653,-0.177214,-0.089014776,0.1024981,-0.06910988,-0.2853327,-0.0035841782,-0.017789539,-0.059225548,-0.13992883,-0.14548975,0.17743699,-0.0029763626,0.06550275,-0.14845034,-0.0315589,-0.1372557,0.040537205,0.0071981284,0.120296,0.038661513,0.32611024,-0.039439257,-0.058637664,0.10411826,0.085925944,0.08641166,0.5818717,0.22586831,0.502048,0.09789036,0.0787527,0.1406659,0.2320839,-0.16632043,0.75549614,0.14028864,0.6423261,-0.07763129,-0.04115539,-0.019409535,0.24994627,-0.4000059,0.79489374,0.023122787,0.6955953,-0.29313946,0.12975995,-0.1577193,0.1841562,-0.12416006,0.36349565,0.16317914,0.71485907,0.16714583,0.611733,-0.16898903,0.19999914,0.08491909,0.5526884,0.17200737,0.6994955,0.36123088,0.5419826,0.25082472,0.4139806,0.030676983,0.34650007,-0.17099814,-0.24162799,-0.12343149,-0.30823168,-0.4488596,-0.24550119,-0.2974255,0.27790928,-0.27923506,-0.275903,-0.2696789,-0.2170524,-0.4146196,-0.04515714,0.009374221,0.11839091,-0.114217944,-0.46568322,0.0703425,-0.104422584,-0.14612061,-0.21009961,0.23761414,-0.039875917
0.041759145,-0.42474732,0.22508676,0.163574,-0.018995494,-0.073891886,0.16919604,0.27072188,-0.024702102,-0.2722763,0.08650693,-0.004686083,0.13871008,-0.0718688,0.069848515,0.2612873,-0.020518845,-0.10488144,0.09769477,-0.0008210176,0.04865744,-0.119573645,-0.188267,-0.03400412,-0.077629246,0.16468965,-0.036293384,-0.2500394,-0.027902579,-0.0274486,-0.11477875,-0.61626,-0.1414928,0.540684,-0.10727103,-0.42576563,-0.06455511,0.00830968,0.11982293,-0.61675125,0.18503109,0.85541683,0.021679463,-0.5909673,0.17322282,0.14841706,-0.18395998,-0.11337134,0.28761235,0.85569096,-0.088751644,-0.59505564,0.07090024,0.31476632,-0.359972,0.27248424,0.116883315,0.7831594,-0.29356933,-0.24754936,0.011540633,0.20323543,0.05753986,0.44875133,0.21406312,0.5142073,0.25813088,0.05194576,-0.0065686894,0.07321345,0.3828722,0.49338573,0.3689619,0.23538214,0.4934106,0.23639446,0.31979695,0.2481087,-0.3115323,0.27955988,-0.66374326,-0.6248441,-0.54628617,-0.6503132,-0.64336425,-0.66310996,0.15246855,0.25143299,-0.23722091,-0.2057673,-0.08198539,-0.288228,-0.11950368,-0.14418986,0.2889328,-0.019486647,-0.049906768,-0.6878575,0.22127613,0.10253921,0.044450928,-0.31191447,0.4910792,-0.18823199,-0.03859788,-0.49982604,0.23686028,0.2374233,0.2485511,-0.30061057,0.4468312,0.011512475,0.023374392,-0.28318247,0.18756329,0.099128164,0.21857591,-0.109867625,0.20007828,0.018951971,-0.09709699,-0.11527461,0.16510385,-0.05408069,0.32168353,-0.18947697,-0.036197715,-0.06793167,-0.13831402,0.09688273,-0.13308427,-0.523237,0.028370354,-0.00983647,-0.39447176,-1.3769354,-0.19290031,0.51454556,-0.30984187,-0.8573876,-0.13109696,-0.1050223,-0.29696634,-1.3281653,-0.18684876,0.59465,-0.13634484,-0.9484372,-0.09583324,-0.1677372,-0.22899416,-1.2995266,-0.03167859,0.5435137,-0.25603303,-1.1764427,-0.04346393,0.02099483,-0.37293527,-0.62321955,0.08351503,0.43092963,-0.22097912,-0.9814209,-0.13842356,0.1969473,0.10005672,-0.09675192,0.4081411,0.83472097,0.39467192,-0.05124129,0.045126885,0.42423132,0.5076732,0.5507702,0.7374349,1.1028048,0.7361839,0.54403806,0.5421144,0.79938745,-0.15244882,0.34492105,-0.43594247,-0.6588132,-0.35682103,-0.41690937,-0.13460723,-0.48815137,0.14575103,0.09558916,0.16597825,-0.024589803,0.26262268,0.11404666,0.0051110936,-0.038813658,0.37782776,-0.115204364,0.03569873,-0.20834798,0.28319192,0.08467324,0.19122864,0.026250767,0.36676535,-0.4299176,-0.06740927,-0.29354554,0.21322238,-0.006083213,0.25510797,-0.167581,0.21972184,-0.24564373,-0.12276141,-0.19122703,0.11971562,-0.008513975,0.15124756,-0.046123434,0.14464454,0.1359025,0.12604189,0.0041618445,0.21149328,0.100576006,0.03814122,0.017241564,-0.014959654,-0.41652703,-0.08984316,0.23292048,-0.07456744,-0.2568537,0.043851882,0.07790613,-0.13527873,-0.73883146,-0.04351167,0.30292493,-0.09497381,-0.5567257,-0.043463513,-0.030046435,-0.26132625,-1.4670812,-0.27352324,0.31262374,-0.1382025,-0.8305042,-0.02132083,-0.12124046,-0.14360277,-1.4482899,-0.13289142,0.23486823,-0.015754545,-1.0126966,-0.016544491,-0.046330597,-0.19106711,-1.111592,-0.1082211,0.062070977,-0.06934201,-1.0068344,-0.059685577,-0.042950615,-0.11663552,-0.5071526,0.10279631,0.47460982,0.18326962,-0.66468126,-0.19764984,0.04425232,0.41882598,0.65956104,0.27501887,0.38335553,0.56881076,-0.044755995,0.2222338,0.20263067,-0.094861634,0.37102786,-0.1420695,-0.19477376,-0.35922715,-0.11151008,-0.26310718,0.022470493,-0.02306698,-0.099642366,-0.12192686,0.24156147,-0.11281411,-0.13635923,-0.17214338,0.06492174,-0.16258469,-0.27632934,-0.23316787,0.06777227,0.013899535,-0.18471523,-0.23627162,-0.17977841,0.03551936,-0.4870437,-0.18155,0.054919068,0.015485636,-0.15802974,-0.06559012,-0.26518345,0.19176973,-0.2576588,-0.15439226,0.02767399,0.05794789,0.0026584351,0.07778157,-0.05457109,0.2573401,-0.088196374,0.11215183,0.11528299,0.05700023,0.12134528,0.08570123,0.09778403,-0.08814023,-0.16485174,0.043051146,0.33098838
0.007923903,-0.08614725,0.09028365,0.1356662,-0.18679687,-0.56524783,0.022918342,0.18781176,-0.15315242,-0.26426193,-0.17837612,0.05194721,-0.14108394,-0.5863448,-0.072058566,-0.057017803,-0.13362406,-0.24756412,-0.16863845,-0.06804621,-0.012766455,-1.0348167,-0.13202271,-0.0873282,-0.0625765,-0.33625093,-0.13119629,-0.024302002,-0.095271185,-0.907903,-0.12377218,0.018477013,-0.11567922,-0.35348395,-0.03067979,-0.06707196,0.005176281,-0.6397972,-0.17458113,-0.3127758,-0.19565295,-0.79464597,-0.19863315,-0.13362119,-0.35346276,0.06837146,-0.3254126,-0.2539811,-0.37724218,-0.29180914,-0.3703944,-0.24559337,-0.2683761,0.3479725,-0.2387707,0.039036263,-0.24825181,-0.18806194,-0.14108653,-0.09796964,0.029388072,0.13050713,-0.1837072,0.16970654,-0.18617883,-0.40233985,0.18577157,-0.031241834,-0.19357412,-0.26558262,-0.15048252,0.06505382,-0.34534568,-0.35640478,-0.08832093,-0.047200948,-0.16121396,-0.41714457,-0.1214449,0.07678381,-0.21491195,-0.2657447,-0.09642513,-0.08609085,-0.115009144,-0.33769876,-0.042084053,0.22712034,-0.07628136,0.08124741,-0.092159726,0.028297823,-0.018002462,-0.113411725,-0.17834489,0.20173004,-0.04537612,-0.18229608,-0.04529799,-0.057048004,-0.12653919,-0.046915267,-0.047503475,0.08720162,-0.035537217,-0.24578634,-0.12593003,-0.06987318,-0.10266547,-0.53708166,-0.0703212,0.036433246,0.068558775,-0.14346604,0.0048950603,-0.11113014,-0.07067251,-0.5152662,-0.067811504,-0.13870917,-0.025310881,0.014781374,-0.10688939,-0.2827118,-0.06449299,-0.30296358,-0.10033668,-0.2022127,-0.040963527,0.0581044,0.10661391,-0.020298965,-0.060782567,-0.18323988,-0.13923778,-0.12997763,-0.12889123,0.077352285,-0.05432054,-0.09565009,0.07521683,-0.23029964,0.034817137,-0.071897715,-0.05445048,0.03887847,-0.028586354,-0.09906952,-0.07638474,0.29954687,-0.3760559,-0.08558012,-0.13862292,-0.55652785,-0.067364745,-0.23377071,0.25609446,0.19026177,-0.07282054,0.32903582,-0.19228561,-0.28053054,-0.0798454,0.27183515,0.12719332,0.49781194,0.096465304,0.6297351,-0.043663587,0.024808442,0.16532233,0.2040454,0.069351,0.03347338,-0.049086403,0.44666198,-0.15717448,-0.262913,0.11007366,-0.03285973,0.018955743,-0.1762546,-0.13796584,0.31271183,-0.18500964,-0.24800564,-0.009736988,-0.19885744,-0.12760568,-0.17855686,-0.06573869,0.1528733,-0.15704025,-0.20391104,-0.03778604,-0.29756024,-0.11355989,-0.034379285,-0.19621675,0.042399872,-0.15715384,-0.22418666,-0.14243214,-0.12193774,-0.22058341,-0.17787626,0.0084177,0.15130813,-0.15328725,0.04758483,-0.096124664,-0.058824718,-0.08375038,-0.0947273,0.036540855,0.20509593,0.033578414,0.11187203,-0.081451185,-0.064302616,-0.04612522,0.24650258,-0.103627935,0.006976926,-0.022770682,0.11985705,-0.0049580694,0.041727,0.093993545,0.0759026,-0.04947304,-0.20950422,-0.11178109,-0.02275679,-0.023135902,-0.02990194,-0.043783296,0.13413544,-0.12309097,-0.15756254,-0.111383244,-0.0427803,0.02747161,-0.026736256,0.13031837,-0.049890216,-0.09561446,-0.35272855,-0.007991599,0.1362832,-0.15299301,-0.26605415,0.0965451,0.10889639,-0.19531487,-0.161776,-0.24504699,-0.56174254,-0.16627513,-0.11181319,0.2095043,0.2237766,-0.16356888,-0.04015224,-0.15566054,-0.33100933,-0.21549782,-0.3852222,-0.15537708,0.21564263,-0.0073414827,0.2582448,0.14242439,-0.04134706,0.122329496,0.07205127,-0.0025293538,0.102695525,-0.075199716,0.24056016,0.014577069,-0.1255128,0.1066369,-0.11826469,0.06355479,0.045198064,0.017434774,0.13698846,0.034917332,0.022392659,0.16878222,0.013812504,-0.044675685,-0.42474946,0.025992632,0.37554467,-0.0928161,-0.30275992,0.14214075,0.12222127,-0.08289222,-0.34347624,0.0306031,0.19185974,0.06303345,-0.025061414,0.070163004,-0.13732234,-0.01616912,0.36108336,-0.028683357,0.073258385,0.010656434,0.0047085662,0.12999444,-0.045255195,0.0050821705,0.48164696,-0.022632059,-0.24096577,0.06353635,0.012274569,-0.014700652,-0.1582798,-0.039377283,0.26159415,-0.070876405,-0.20732984,0.026125899,0.10023554,-0.063452706,-0.17115568,-0.056370933,0.28965566,-0.013227468,-0.30014718,0.015272653,0.17710632
-0.00812965,-0.09699618,-0.024678152,0.19519885,-0.075127654,-0.240317,-0.0005076671,0.108015664,0.0333876,-0.06381516,-0.031047747,0.31321073,0.1103136,-0.324783,-0.00072998356,0.16533785,-0.041897785,-0.039921958,0.2615348,0.14461628,0.085078865,-0.44470006,0.2576044,-0.32941848,-0.14389911,-0.15167929,-0.039369028,0.33076906,-0.2916877,-0.33418712,0.23115252,-0.15330489,0.011619749,-0.2774089,-0.2719035,0.066870876,0.040675256,0.07627033,-0.13749336,0.07986977,-0.21407326,0.054097693,-0.13269559,0.4534229,0.028476704,0.09939899,-0.080126725,-0.025312316,0.040230576,0.11551396,-0.084078446,-0.076171875,0.15826926,0.19345655,0.06711816,0.104477555,-0.019306622,0.18977638,0.03964892,-0.002034302,0.09572437,0.08936786,-0.025555784,-0.10166261,0.012145158,0.108160295,0.1089506,-0.3478966,0.124430366,0.25945973,0.0824222,-0.04097716,0.11159837,0.08658865,0.049727596,0.2530066,0.043878566,0.15019289,0.124763094,0.120790154,0.07500708,0.059098326,-0.07843797,0.5013848,0.08261404,0.08398731,-0.03369815,0.19478723,-0.014775438,0.062246084,-0.15000543,0.23303916,-0.03393031,0.025777927,-0.09636724,0.07696317,-0.15816376,0.05975257,0.08122272,0.1825117,-0.019363258,-0.008106746,-0.09970151,0.18092024,-0.065856166,0.083082914,0.10354236,0.20111176,0.1533861,0.2295339,0.09405454,0.12183214,0.07321392,0.12585172,0.1231299,0.54648936,-0.035265215,-0.25739595,0.07198205,0.1524642,0.1437293,-0.055777643,0.2681745,0.13359521,0.25878826,-0.17385072,0.34128758,-0.28181714,-0.13732287,-0.10188281,0.1787853,0.41036478,0.15712453,0.10066953,0.20270799,-0.051823482,0.28782076,0.11481787,-0.23510821,0.16540454,-0.07210285,-0.028477075,-0.1891274,-0.23319174,-0.19674435,-0.10095353,-0.35428438,0.23905274,-0.04341849,-0.108355194,0.057886597,-0.06028151,-0.17382847,-0.17505215,-0.07415751,-0.022603462,-0.05139546,0.12906753,0.09632195,-0.12762572,-0.08947221,-0.030930893,-0.07490439,-0.10759317,0.03214569,0.11026181,-0.0862743,-0.21835245,-0.07290965,0.13631134,0.051078618,0.03313444,0.07865778,0.043483954,0.10713111,-0.11983596,0.0658963,0.0039350823,0.14614552,0.103214525,0.14122358,0.063134186,0.10233593,0.03800554,0.053768136,0.06535982,0.0014210442,0.3194209,0.18957351,-0.004041486,0.1668951,0.06607396,0.052050974,0.15821727,-0.17145924,0.17120773,0.08287338,-0.07583916,0.021087073,-0.16805734,-0.00045821804,0.051273827,0.07296855,0.08042473,-0.110321276,-0.16224821,-0.06928025,-0.09182016,-0.02896508,-0.09588489,-0.03650809,0.30886707,-0.014158809,-0.14056395,-0.09574711,0.28643045,-0.06826154,0.0020225774,-0.041594774,0.20187451,0.035769004,-0.0010465337,0.04813046,0.20622511,0.10010396,0.07864639,0.16629867,0.2606536,0.18176597,-0.10810671,0.2119555,-0.10991544,0.025197288,-0.04995513,0.11553434,0.3377479,0.21225913,0.20403345,0.1124931,0.2820226,0.062341418,0.262281,0.048014797,0.30708623,-0.23289004,-0.33146572,-0.010413314,-0.2440449,0.14037529,-0.25121,-0.2723698,0.25142175,0.04014378,-0.051809594,-0.022369083,-0.04052778,-0.23362236,-0.03311578,-0.0071990034,0.40566912,0.0079384865,0.030834286,0.18391922,-0.057070524,0.065198936,-0.05667129,0.12437472,0.2161788,0.066402756,-0.010034873,0.034615275,0.036462914,0.21465161,-0.10424248,-0.05693406,0.15193442,0.20711836,0.2068822,0.041111223,0.09153294,-0.05091532,0.100158356,0.13734744,0.23702328,0.2844964,0.32899073,0.111414,0.27610898,0.17909808,0.23666432,0.35977048,0.270227,0.44722533,0.2571167,0.17287773,0.35731924,0.18025003,0.47651476,0.18365753,0.26571903,0.26554587,0.39064425,0.012698798,-0.15450598,0.1758343,0.2711336,-0.04267347,0.17732196,-0.011561226,0.072013505,-0.18902926,-0.29631877,0.062865146,0.18808946,-0.23655799,0.38084248,0.17637229,0.087393485,-0.25767744,0.2710292,-0.15407847,0.19356991,0.15944473,0.29473045,0.22441548,0.2708297,0.12444837,0.3137528,0.086504295,0.23098849,0.06714003,0.4061659,0.009016728,0.377975,-0.06936425,0.002892333,0.35135856,0.2828194
