0.0,-0.005822779,-0.002023569,0.003149049,0.005316451,0.001565704,0.0,0.0,0.0
1.0,-0.005822779,-0.002023569,0.003199049,0.005266451,0.001565704,0.0,0.0,0.0
2.0,-0.005822779,-0.002023569,0.003149049,0.005266451,0.001565704,5e-05,0.0,0.0
3.0,-0.005822779,-0.002023569,0.003149049,0.005266451,0.001565704,0.0,5e-05,0.0
4.0,-0.005822779,-0.002023569,0.003149049,0.005266451,0.001565704,0.0,0.0,5e-05
5.0,-0.005772779,-0.002023569,0.003149049,0.005266451,0.001565704,0.0,0.0,0.0
6.0,-0.005822779,-0.002023569,0.003149049,0.005266451,0.001565704,0.0,0.0,5e-05
7.0,-0.005822779,-0.002023569,0.003149049,0.005266451,0.001565704,0.0,0.0,5e-05
8.0,-0.005822779,-0.002023569,0.003149049,0.005316451,0.001565704,0.0,0.0,0.0
9.0,-0.005822779,-0.002023569,0.003149049,0.005316451,0.001565704,0.0,0.0,0.0
10.0,-0.005822779,-0.002073569,0.003149049,0.005316451,0.001565704,5e-05,0.0,0.0
11.0,-0.005822779,-0.002023569,0.003149049,0.005316451,0.001565704,0.0,0.0,0.0
12.0,-0.005822779,-0.002023569,0.003149049,0.005366451,0.001515704,0.0,0.0,0.0
13.0,-0.005822779,-0.002023569,0.003199049,0.005316451,0.001515704,0.0,0.0,0.0
14.0,-0.005822779,-0.002023569,0.003149049,0.005316451,0.001515704,0.0,5e-05,0.0
15.0,-0.005822779,-0.002023569,0.003149049,0.005316451,0.001515704,5e-05,0.0,0.0
16.0,-0.005822779,-0.002023569,0.003149049,0.005316451,0.001515704,0.0,5e-05,0.0
17.0,-0.005822779,-0.002023569,0.003149049,0.005366451,0.001515704,0.0,0.0,0.0
18.0,-0.005822779,-0.002073569,0.003149049,0.005366451,0.001515704,0.0,5e-05,0.0
19.0,-0.005822779,-0.002073569,0.003149049,0.005366451,0.001515704,5e-05,0.0,0.0
20.0,-0.005772779,-0.002073569,0.003149049,0.005366451,0.001515704,0.0,0.0,0.0
21.0,-0.005772779,-0.002073569,0.003199049,0.005316451,0.001515704,0.0,0.0,0.0
22.0,-0.005772779,-0.002073569,0.003199049,0.005316451,0.001515704,0.0,0.0,0.0
23.0,-0.005822779,-0.002073569,0.003199049,0.005316451,0.001515704,0.0,0.0,5e-05
24.0,-0.005822779,-0.002073569,0.003199049,0.005316451,0.001515704,0.0,5e-05,0.0
25.0,-0.005772779,-0.002073569,0.003199049,0.005316451,0.001515704,0.0,0.0,0.0
26.0,-0.005772779,-0.002073569,0.003199049,0.005316451,0.001515704,0.0,0.0,0.0
27.0,-0.005822779,-0.002073569,0.003199049,0.005316451,0.001515704,5e-05,0.0,0.0
28.0,-0.005822779,-0.002023569,0.003199049,0.005316451,0.001515704,4.9949e-05,-4.9949e-05,0.0
29.0,-0.005822779,-0.002023569,0.003199049,0.005316451,0.001515704,4.9949e-05,-4.9949e-05,0.0
30.0,-0.005822779,-0.002023569,0.003199049,0.00536571,0.001466446,4.9949e-05,-4.9949e-05,0.0
31.0,-0.005822779,-0.002023569,0.003199049,0.00536571,0.001466446,4.9949e-05,-4.9949e-05,0.0
32.0,-0.005822779,-0.002023569,0.003149049,0.00536571,0.001466446,4.9949e-05,5e-08,0.0
33.0,-0.005822779,-0.002023569,0.003149049,0.00536571,0.001466446,4.9949e-05,5e-08,0.0
34.0,-0.005822779,-0.002023569,0.003149049,0.00536571,0.001466446,4.9949e-05,5e-08,0.0
35.0,-0.005822779,-0.002023569,0.003149049,0.00536571,0.001466446,4.9949e-05,5e-08,0.0
36.0,-0.005822779,-0.002023569,0.003149049,0.00536571,0.001466446,4.9949e-05,5e-08,0.0
37.0,-0.005822779,-0.002023569,0.003149049,0.00536571,0.001466446,4.9949e-05,5e-08,0.0
38.0,-0.005822779,-0.002023569,0.003149049,0.00531571,0.001516446,4.9949e-05,5e-08,0.0
39.0,-0.005822779,-0.002023569,0.003149049,0.00531571,0.001516446,4.9949e-05,5e-08,0.0
40.0,-0.005822779,-0.002023569,0.003149049,0.00536571,0.001466446,4.9949e-05,5e-08,0.0
41.0,-0.005822779,-0.002023569,0.003149049,0.00531571,0.001516446,4.9949e-05,5e-08,0.0
42.0,-0.005822779,-0.002023569,0.003149049,0.00531571,0.001516446,4.9949e-05,5e-08,0.0
43.0,-0.005822779,-0.002023569,0.003149049,0.00526571,0.001566446,4.9949e-05,5e-08,0.0
44.0,-0.005822779,-0.002023569,0.003149049,0.00526571,0.001566446,4.9949e-05,5e-08,0.0
45.0,-0.005822779,-0.002023569,0.003149049,0.00531571,0.001516446,4.9949e-05,5e-08,0.0
46.0,-0.005872779,-0.002023569,0.003149049,0.00531571,0.001516446,4.9949e-05,5.005e-05,0.0
47.0,-0.005872779,-0.002023569,0.003149049,0.00531571,0.001516446,-5e-08,5.005e-05,5e-05
48.0,-0.005872779,-0.002023569,0.003149049,0.00531571,0.001516446,4.9949e-05,5.005e-05,0.0
49.0,-0.005872779,-0.002023569,0.003149049,0.00531571,0.001516446,-5e-08,5.005e-05,5e-05
50.0,-0.005872779,-0.002023569,0.003149049,0.00531571,0.001516446,4.9949e-05,5.005e-05,0.0
51.0,-0.005872779,-0.002023569,0.003149049,0.00531571,0.001516446,4.9949e-05,5.005e-05,0.0
52.0,-0.005822779,-0.002023569,0.003149049,0.00531571,0.001516446,4.9949e-05,5e-08,0.0
53.0,-0.005872779,-0.002023569,0.003149049,0.00531571,0.001516446,4.9949e-05,5.005e-05,0.0
54.0,-0.005872779,-0.002023569,0.003149049,0.00531571,0.001516446,4.9949e-05,5.005e-05,0.0
55.0,-0.005872779,-0.002023569,0.003149049,0.00531571,0.001516446,4.9949e-05,5.005e-05,0.0
56.0,-0.005822779,-0.002023569,0.003149049,0.00526571,0.001516446,4.9949e-05,5.005e-05,0.0
57.0,-0.005822779,-0.002023569,0.003149049,0.00526571,0.001516446,4.9949e-05,5.005e-05,0.0
58.0,-0.005822779,-0.002023569,0.003149049,0.00526571,0.001516446,4.9949e-05,5.005e-05,0.0
59.0,-0.005822779,-0.002023569,0.003149049,0.00526571,0.001516446,-5e-08,5.005e-05,5e-05
60.0,-0.005822779,-0.002023569,0.003149049,0.00526571,0.001516446,-5e-08,5.005e-05,5e-05
61.0,-0.005822779,-0.002023569,0.003149049,0.00526571,0.001516446,-5e-08,5.005e-05,5e-05
62.0,-0.005822779,-0.002023569,0.003149049,0.00526571,0.001516446,-5e-08,5.005e-05,5e-05
63.0,-0.005822779,-0.002023569,0.003149049,0.00526571,0.001516446,-5e-08,5.005e-05,4.9998e-05
64.0,-0.005822779,-0.002023569,0.003149049,0.00526571,0.001516446,-5e-08,0.00010005,-1e-09
65.0,-0.005822779,-0.002023569,0.003149049,0.00526571,0.001516446,4.9949e-05,5.005e-05,-1e-09
66.0,-0.005822779,-0.002023569,0.003149049,0.00526571,0.001516446,4.9949e-05,5.005e-05,-1e-09
67.0,-0.005822779,-0.002023569,0.003149049,0.00526571,0.001516446,4.9949e-05,5.005e-05,-1e-09
68.0,-0.005822779,-0.002023569,0.003149049,0.00526571,0.001516446,4.9949e-05,5.005e-05,-1e-09
69.0,-0.005822779,-0.002023569,0.003149049,0.00526571,0.001516446,4.9949e-05,5.005e-05,-1e-09
70.0,-0.005822779,-0.002023569,0.003149049,0.00526571,0.001516446,-5e-08,5.005e-05,4.9998e-05
71.0,-0.005822779,-0.002023569,0.003149049,0.00526571,0.001516446,4.9949e-05,5.005e-05,-1e-09
72.0,-0.005822779,-0.002023569,0.003149049,0.00526571,0.001516446,-5e-08,5.005e-05,4.9998e-05
73.0,-0.005822779,-0.002023569,0.003149049,0.00526571,0.001516446,-5e-08,5.005e-05,4.9998e-05
74.0,-0.005822779,-0.002023569,0.003149049,0.00526571,0.001516446,-5e-08,5.005e-05,4.9998e-05
75.0,-0.005822779,-0.002023569,0.003199049,0.00526571,0.001516446,-5e-08,5e-08,4.9998e-05
76.0,-0.005772779,-0.002023569,0.003199049,0.00526571,0.001516446,-5e-08,5e-08,-1e-09
77.0,-0.005822779,-0.002023569,0.003199049,0.00526571,0.001516446,-5e-08,5e-08,4.9998e-05
78.0,-0.005822779,-0.002023569,0.003199049,0.00526571,0.001516446,-5e-08,5e-08,4.9998e-05
79.0,-0.005822779,-0.002023569,0.003199049,0.00526571,0.001516446,-5e-08,5e-08,4.9998e-05
80.0,-0.005772779,-0.002023569,0.003199049,0.00526571,0.001516446,-5e-08,5e-08,-1e-09
81.0,-0.005822779,-0.002023569,0.003199049,0.00526571,0.001516446,4.9949e-05,5e-08,-1e-09
82.0,-0.005822779,-0.002023569,0.003199049,0.00526571,0.001516446,4.9949e-05,5e-08,-1e-09
83.0,-0.005822779,-0.002023569,0.003199049,0.00526571,0.001516446,-5e-08,5e-08,4.9998e-05
84.0,-0.005822779,-0.002023569,0.003199049,0.00526571,0.001516446,-5e-08,5e-08,4.9998e-05
85.0,-0.005822779,-0.002023569,0.003199049,0.00526571,0.001516446,-5e-08,5e-08,4.9998e-05
86.0,-0.005822779,-0.002023569,0.003199049,0.00526571,0.001516446,4.9949e-05,5e-08,-1e-09
87.0,-0.005822779,-0.002023569,0.003199049,0.00526571,0.001516446,4.9949e-05,5e-08,-1e-09
88.0,-0.005822779,-0.002023569,0.003199049,0.00526571,0.001516446,4.9949e-05,5e-08,-1e-09
89.0,-0.005822779,-0.002023569,0.003199049,0.00526571,0.001516446,-5e-08,5.005e-05,-1e-09
90.0,-0.005822779,-0.002023569,0.003199049,0.00526571,0.001516446,-5e-08,5.005e-05,-1e-09
91.0,-0.005822779,-0.002023569,0.003199049,0.00526571,0.001516446,-5e-08,5.005e-05,-1e-09
92.0,-0.005822779,-0.002023569,0.003199049,0.00526571,0.001516446,-5e-08,5.005e-05,-1e-09
93.0,-0.005822779,-0.002023569,0.003199049,0.00526571,0.001516446,-5e-08,5e-08,4.9998e-05
94.0,-0.005822779,-0.002023569,0.003199049,0.00526571,0.001516446,-5e-08,5e-08,4.9998e-05
95.0,-0.00586616,-0.002023569,0.003199049,0.00526571,0.001516446,-5e-08,5.005e-05,4.338e-05
96.0,-0.00586616,-0.002023569,0.003199049,0.00526571,0.001516446,-5e-08,5.005e-05,4.338e-05
97.0,-0.00586616,-0.002023569,0.003199049,0.00526571,0.001516446,-5e-08,5.005e-05,4.338e-05
98.0,-0.00586616,-0.002023569,0.003199049,0.00526571,0.001516446,-5e-08,5.005e-05,4.338e-05
99.0,-0.00586616,-0.002023569,0.003199049,0.00526571,0.001516446,-5e-08,5.005e-05,4.338e-05
100.0,-0.00586616,-0.002023569,0.003199049,0.00526571,0.001516446,-5e-08,5.005e-05,4.338e-05
101.0,-0.00586616,-0.002023569,0.003199049,0.00526571,0.001516446,4.9949e-05,5.005e-05,-6.619e-06
102.0,-0.00586616,-0.002023569,0.003199049,0.00526571,0.001516446,4.9949e-05,5.005e-05,-6.619e-06
103.0,-0.00586616,-0.002023569,0.003199049,0.00526571,0.001516446,4.9949e-05,5.005e-05,-6.619e-06
104.0,-0.00586616,-0.002023569,0.003199049,0.00526571,0.001516446,4.9949e-05,5.005e-05,-6.619e-06
105.0,-0.00586616,-0.002023569,0.003199049,0.00526571,0.001566446,-5e-08,5.005e-05,-6.619e-06
106.0,-0.00586616,-0.002023569,0.003199049,0.00526571,0.001566446,4.9949e-05,5e-08,-6.619e-06
107.0,-0.00586616,-0.002023569,0.003199049,0.00526571,0.001566446,-5e-08,5e-08,4.338e-05
108.0,-0.00586616,-0.002023569,0.003199049,0.00526571,0.001566446,4.7682e-05,5e-08,-4.353e-06
109.0,-0.00586616,-0.002023569,0.003199049,0.00526571,0.001566446,-2.317e-06,5e-08,4.5646e-05
110.0,-0.00586616,-0.002023569,0.003199049,0.00526571,0.001566446,-2.317e-06,5e-08,4.5646e-05
111.0,-0.00586616,-0.002023569,0.003199049,0.00526571,0.001566446,-2.317e-06,4.7081e-05,-1.384e-06
112.0,-0.00586616,-0.002023569,0.003199049,0.00526571,0.001566446,-2.317e-06,4.7081e-05,-1.384e-06
113.0,-0.00586616,-0.002023569,0.003199049,0.00526571,0.001566446,-2.317e-06,4.7081e-05,-1.384e-06
114.0,-0.00586616,-0.002023569,0.003199049,0.00526571,0.001566446,-2.317e-06,4.7081e-05,-1.384e-06
115.0,-0.00581616,-0.002023569,0.003199049,0.00526571,0.001566446,-2.317e-06,-2.918e-06,-1.384e-06
116.0,-0.00586616,-0.002023569,0.003199049,0.00526571,0.001566446,-2.317e-06,-2.918e-06,4.8615e-05
117.0,-0.00586616,-0.002023569,0.003199049,0.00526571,0.001566446,-2.317e-06,4.7081e-05,-1.384e-06
118.0,-0.00586616,-0.002023569,0.003199049,0.00526571,0.001566446,-2.317e-06,4.7081e-05,-1.384e-06
119.0,-0.00586616,-0.002023569,0.003199049,0.00526571,0.001566446,-2.317e-06,4.7081e-05,-1.384e-06
120.0,-0.00586616,-0.002023569,0.003199049,0.00526571,0.001566446,-2.317e-06,4.7081e-05,-1.384e-06
121.0,-0.00586616,-0.002023569,0.003199049,0.00526571,0.001566446,-2.317e-06,4.7081e-05,-1.384e-06
122.0,-0.00586616,-0.002023569,0.003199049,0.00526571,0.001566446,-2.317e-06,4.7081e-05,-1.384e-06
123.0,-0.00586616,-0.002023569,0.003199049,0.00526571,0.001566446,-2.317e-06,4.7081e-05,-1.384e-06
124.0,-0.00586616,-0.002023569,0.003199049,0.00526571,0.001566446,-2.317e-06,4.7081e-05,-1.384e-06
125.0,-0.00586616,-0.002023569,0.003199049,0.00526571,0.001566446,4.7682e-05,4.7081e-05,-5.1384e-05
126.0,-0.00586616,-0.002023569,0.003199049,0.00526571,0.001566446,4.7682e-05,4.7081e-05,-5.1384e-05
127.0,-0.00586616,-0.002023569,0.003199049,0.00526571,0.001566446,4.7682e-05,4.7081e-05,-5.1384e-05
128.0,-0.00586616,-0.002023569,0.003199049,0.00526571,0.001566446,-2.317e-06,9.7081e-05,-5.1384e-05
129.0,-0.00586616,-0.002023569,0.003199049,0.00526571,0.001566446,-2.317e-06,9.7081e-05,-5.1384e-05
130.0,-0.00586616,-0.002023569,0.003199049,0.00526571,0.001566446,4.7682e-05,4.7081e-05,-5.1384e-05
131.0,-0.00586616,-0.002023569,0.003199049,0.00526571,0.001566446,-2.317e-06,4.7081e-05,-1.384e-06
132.0,-0.00586616,-0.002023569,0.003199049,0.00526571,0.001566446,-2.317e-06,4.7081e-05,-1.384e-06
133.0,-0.00586616,-0.002023569,0.003199049,0.00526571,0.001566446,-2.317e-06,4.7081e-05,-1.384e-06
134.0,-0.00586616,-0.002023569,0.003199049,0.00526571,0.001566446,-2.317e-06,4.7081e-05,-1.384e-06
135.0,-0.00586616,-0.002023569,0.003199049,0.00526571,0.001566446,-2.317e-06,4.7081e-05,-1.384e-06
136.0,-0.00586616,-0.002023569,0.003199049,0.00526571,0.001566446,-2.317e-06,4.7081e-05,-1.384e-06
137.0,-0.00586616,-0.002023569,0.003199049,0.00526571,0.001566446,-2.317e-06,4.7081e-05,-1.384e-06
138.0,-0.00586616,-0.002023569,0.003199049,0.00526571,0.001566446,-2.317e-06,4.7081e-05,-1.384e-06
139.0,-0.00586616,-0.002023569,0.003199049,0.00526571,0.001566446,-2.317e-06,4.7081e-05,-1.384e-06
140.0,-0.00586616,-0.002023569,0.003199049,0.00526571,0.001566446,-2.317e-06,4.7081e-05,-1.384e-06
141.0,-0.00586616,-0.002023569,0.003199049,0.00526571,0.001566446,-2.317e-06,4.7081e-05,-1.384e-06
142.0,-0.00586616,-0.002023569,0.003199049,0.00526571,0.001566446,-2.317e-06,4.7081e-05,-1.384e-06
143.0,-0.00586616,-0.002023569,0.003199049,0.00526571,0.001566446,-2.317e-06,4.7081e-05,-1.384e-06
144.0,-0.00586616,-0.002023569,0.003199049,0.00526571,0.001566446,-2.317e-06,4.7081e-05,-1.384e-06
145.0,-0.00586616,-0.002023569,0.003199049,0.00526571,0.001566446,-2.317e-06,4.7081e-05,-1.384e-06
146.0,-0.00586616,-0.002023569,0.003199049,0.00526571,0.001566446,-2.317e-06,4.7081e-05,-1.384e-06
147.0,-0.00586616,-0.002023569,0.003199049,0.00526571,0.001566446,-2.317e-06,4.7081e-05,-1.384e-06
148.0,-0.00586616,-0.002023569,0.003199049,0.00526571,0.001566446,-2.317e-06,4.7081e-05,-1.384e-06
149.0,-0.00586616,-0.002023569,0.003199049,0.00526571,0.001566446,-2.317e-06,4.7081e-05,-1.384e-06
150.0,-0.00586616,-0.002023569,0.003199049,0.00526571,0.001566446,-2.317e-06,4.7081e-05,-1.384e-06
151.0,-0.00586616,-0.002023569,0.003199049,0.00526571,0.001566446,-2.317e-06,4.7081e-05,-1.384e-06
152.0,-0.00586616,-0.002023569,0.003199049,0.00526571,0.001566446,4.7682e-05,4.7081e-05,-5.1384e-05
153.0,-0.00586616,-0.002023569,0.003199049,0.00526571,0.001566446,4.7682e-05,4.7081e-05,-5.1384e-05
154.0,-0.00586616,-0.002023569,0.003199049,0.00526571,0.001566446,4.7682e-05,4.7081e-05,-5.1384e-05
155.0,-0.00586616,-0.002023569,0.003199049,0.00526571,0.001566446,4.7682e-05,4.7081e-05,-5.1384e-05
156.0,-0.00586616,-0.002023569,0.003199049,0.00526571,0.001566446,-2.317e-06,4.7081e-05,-1.384e-06
157.0,-0.00586616,-0.002023569,0.003199049,0.00526571,0.001566446,-2.323e-06,4.7081e-05,-1.378e-06
158.0,-0.00586616,-0.002023569,0.003199049,0.00526571,0.001566446,-2.323e-06,4.7081e-05,-1.378e-06
159.0,-0.00586616,-0.002023569,0.003199049,0.00526571,0.001566446,-2.323e-06,4.7081e-05,-1.378e-06
160.0,-0.00586616,-0.002023569,0.003199049,0.00526571,0.001566446,-2.323e-06,4.7081e-05,-1.378e-06
161.0,-0.00586616,-0.002023569,0.003199049,0.00526571,0.001566446,-2.323e-06,4.7081e-05,-1.378e-06
162.0,-0.00586616,-0.002023569,0.003199049,0.00526571,0.001566446,-2.323e-06,4.7081e-05,-1.378e-06
163.0,-0.00586616,-0.002023569,0.003199049,0.00526571,0.001566446,-2.323e-06,4.7081e-05,-1.378e-06
164.0,-0.00586616,-0.002023569,0.003199049,0.00526571,0.001566446,-2.409e-06,4.7081e-05,-1.293e-06
165.0,-0.00586616,-0.002023569,0.003199049,0.00526571,0.001566446,-5.2409e-05,4.7081e-05,4.8706e-05
166.0,-0.00586616,-0.002023569,0.003199049,0.00526571,0.001566446,-5.2409e-05,4.7081e-05,4.8706e-05
167.0,-0.00586616,-0.002023569,0.003199049,0.00526571,0.001566446,-5.2409e-05,4.7081e-05,4.8706e-05
168.0,-0.00586616,-0.002023569,0.003199049,0.00526571,0.001566446,-2.409e-06,4.7081e-05,-1.293e-06
169.0,-0.00586616,-0.002023569,0.003199049,0.00526571,0.001566446,-2.409e-06,4.7081e-05,-1.293e-06
170.0,-0.00586616,-0.002023569,0.003199049,0.00526571,0.001566446,-2.409e-06,4.7081e-05,-1.293e-06
171.0,-0.00586616,-0.002023569,0.003199049,0.00531571,0.001566446,-2.409e-06,-2.918e-06,-1.293e-06
172.0,-0.00586616,-0.002023569,0.003199049,0.00531571,0.001566446,-2.409e-06,-2.918e-06,-1.293e-06
173.0,-0.00586616,-0.002023569,0.003199049,0.00531571,0.001566446,-2.409e-06,-2.918e-06,-1.293e-06
174.0,-0.00586616,-0.002023569,0.003199049,0.00531571,0.001566446,-2.409e-06,-2.918e-06,-1.293e-06
175.0,-0.00586616,-0.002023569,0.003199049,0.00531571,0.001566446,-2.409e-06,-2.918e-06,-1.293e-06
176.0,-0.00586616,-0.002023569,0.003199049,0.00531571,0.001566446,-2.409e-06,-2.918e-06,-1.293e-06
177.0,-0.00586616,-0.002023569,0.003199049,0.00531571,0.001566446,-2.409e-06,-2.918e-06,-1.293e-06
178.0,-0.00586616,-0.002023569,0.003199049,0.00531571,0.001566446,-2.409e-06,-2.918e-06,-1.293e-06
179.0,-0.00586616,-0.002023569,0.003199049,0.00531571,0.001566446,-5.2409e-05,4.7081e-05,-1.293e-06
180.0,-0.00586616,-0.002023569,0.003199049,0.00531571,0.001566446,-5.2409e-05,4.7081e-05,-1.293e-06
181.0,-0.00581616,-0.002023569,0.003199049,0.00531571,0.001566446,-5.2409e-05,-2.918e-06,-1.293e-06
182.0,-0.00581616,-0.002023569,0.003199049,0.00531571,0.001566446,-5.2409e-05,-2.918e-06,-1.293e-06
183.0,-0.00581616,-0.002023569,0.003149049,0.00531571,0.001566446,-5.2409e-05,4.7081e-05,-1.293e-06
184.0,-0.00581616,-0.002023569,0.003149049,0.00531571,0.001566446,-2.409e-06,-2.918e-06,-1.293e-06
185.0,-0.00581616,-0.002023569,0.003149049,0.00531571,0.001566446,-5.2409e-05,-2.918e-06,4.8706e-05
186.0,-0.00586616,-0.002023569,0.003149049,0.00531571,0.001566446,-5.2409e-05,4.7081e-05,4.8706e-05
187.0,-0.00586616,-0.002023569,0.003149049,0.00531571,0.001566446,-5.2409e-05,4.7081e-05,4.8706e-05
188.0,-0.00586616,-0.002023569,0.003149049,0.00531571,0.001566446,-5.2409e-05,4.7081e-05,4.8706e-05
189.0,-0.00586616,-0.002023569,0.003149049,0.00531571,0.001566446,-5.2409e-05,4.7081e-05,4.8706e-05
190.0,-0.00586616,-0.002023569,0.003199049,0.00531571,0.001566446,-5.2409e-05,-2.918e-06,4.8706e-05
191.0,-0.00586616,-0.001973569,0.003199049,0.00531571,0.001566446,-5.2409e-05,-2.918e-06,-1.293e-06
192.0,-0.00586616,-0.001973569,0.003199049,0.00531571,0.001566446,-5.2409e-05,-2.918e-06,-1.293e-06
193.0,-0.00586616,-0.001973569,0.003199049,0.00531571,0.001566446,-5.2409e-05,-2.918e-06,-1.293e-06
194.0,-0.00586616,-0.001973569,0.003199049,0.00531571,0.001566446,-2.409e-06,-2.918e-06,-5.1293e-05
195.0,-0.00586616,-0.002023569,0.003199049,0.00531571,0.001566446,-2.409e-06,-2.918e-06,-1.293e-06
196.0,-0.00581616,-0.002023569,0.003199049,0.00531571,0.001566446,-2.409e-06,-5.2918e-05,-1.293e-06
197.0,-0.00581616,-0.002023569,0.003199049,0.00531571,0.001566446,-2.409e-06,-5.2918e-05,-1.293e-06
198.0,-0.00581616,-0.002023569,0.003199049,0.00531571,0.001566446,-2.409e-06,-5.2918e-05,-1.293e-06
199.0,-0.00581616,-0.002023569,0.003199049,0.00531571,0.001566446,-2.409e-06,-5.2918e-05,-1.293e-06
200.0,-0.00581616,-0.002023569,0.003199049,0.00531571,0.001566446,4.759e-05,-5.2918e-05,-5.1293e-05
201.0,-0.00581616,-0.002023569,0.003199049,0.00531571,0.001566446,4.759e-05,-5.2918e-05,-5.1293e-05
202.0,-0.00581616,-0.002023569,0.003199049,0.00531571,0.001566446,-2.409e-06,-5.2918e-05,-1.293e-06
203.0,-0.00581616,-0.002023569,0.003199049,0.00531571,0.001566446,-2.409e-06,-5.2918e-05,-1.293e-06
204.0,-0.00581616,-0.002023569,0.003199049,0.00531571,0.001566446,-2.409e-06,-2.918e-06,-5.1293e-05
205.0,-0.00581616,-0.002023569,0.003199049,0.00531571,0.001566446,-2.409e-06,-2.918e-06,-5.1293e-05
206.0,-0.00581616,-0.002023569,0.003199049,0.00531571,0.001566446,-2.409e-06,-2.918e-06,-5.1293e-05
207.0,-0.00581616,-0.002023569,0.003199049,0.00531571,0.001566446,-2.409e-06,-2.918e-06,-5.1293e-05
208.0,-0.00581616,-0.002023569,0.003199049,0.00531571,0.001566446,-2.409e-06,-2.918e-06,-5.1293e-05
209.0,-0.00581616,-0.002023569,0.003199049,0.00531571,0.001566446,4.759e-05,-2.918e-06,-0.000101293
210.0,-0.00581616,-0.002023569,0.003199049,0.00531571,0.001566446,4.759e-05,-2.918e-06,-0.000101293
211.0,-0.00581616,-0.002023569,0.003199049,0.00531571,0.001566446,4.759e-05,-2.918e-06,-0.000101293
212.0,-0.00581616,-0.002023569,0.003199049,0.00531571,0.001566446,4.759e-05,-2.918e-06,-0.000101293
213.0,-0.00581616,-0.002023569,0.003199049,0.00531571,0.001566446,4.759e-05,-2.918e-06,-0.000101293
214.0,-0.00581616,-0.002023569,0.003199049,0.00531571,0.001566446,4.759e-05,-2.918e-06,-0.000101293
215.0,-0.00581616,-0.002023569,0.003199049,0.00531571,0.001566446,4.759e-05,-2.918e-06,-0.000101293
216.0,-0.00581616,-0.002023569,0.003199049,0.00531571,0.001566446,-2.409e-06,-2.918e-06,-5.1293e-05
217.0,-0.00581616,-0.002023569,0.003199049,0.00531571,0.001566446,-2.409e-06,-2.918e-06,-5.1293e-05
218.0,-0.00581616,-0.002023569,0.003199049,0.00531571,0.001566446,-2.409e-06,-2.918e-06,-5.1293e-05
219.0,-0.00581616,-0.002023569,0.003199049,0.00531571,0.001566446,-2.409e-06,-2.918e-06,-5.1293e-05
220.0,-0.00581616,-0.002023569,0.003199049,0.00526571,0.001616446,-2.409e-06,-2.918e-06,-5.1293e-05
221.0,-0.00581616,-0.002023569,0.003199049,0.00526571,0.001616446,-2.409e-06,-2.918e-06,-5.1293e-05
222.0,-0.00581616,-0.002023569,0.003199049,0.00526571,0.001616446,-2.409e-06,-2.918e-06,-5.1293e-05
223.0,-0.00581616,-0.002023569,0.003199049,0.00526571,0.001616446,-2.409e-06,-2.918e-06,-5.1293e-05
224.0,-0.00581616,-0.002023569,0.003199049,0.00526571,0.001616446,-2.409e-06,-2.918e-06,-5.1293e-05
225.0,-0.00581616,-0.002023569,0.003199049,0.00526571,0.001616446,-2.409e-06,-2.918e-06,-5.1293e-05
226.0,-0.00581616,-0.002023569,0.003199049,0.00526571,0.001616446,-2.409e-06,-2.918e-06,-5.1293e-05
227.0,-0.00581616,-0.002023569,0.003199049,0.00526571,0.001616446,-2.409e-06,-2.918e-06,-5.1293e-05
228.0,-0.00581616,-0.002023569,0.003199049,0.00526571,0.001616446,-2.409e-06,-2.918e-06,-5.1293e-05
229.0,-0.00581616,-0.002023569,0.003199049,0.00526571,0.001616446,-2.409e-06,-2.918e-06,-5.1293e-05
230.0,-0.00581616,-0.002023569,0.003199049,0.00526571,0.001616446,-2.409e-06,-2.918e-06,-5.1293e-05
231.0,-0.00581616,-0.002023569,0.003199049,0.00526571,0.001616446,-2.409e-06,-2.918e-06,-5.1293e-05
232.0,-0.00581616,-0.002023569,0.003199049,0.00526571,0.001616446,4.759e-05,-2.918e-06,-0.000101293
233.0,-0.00581616,-0.002023569,0.003199049,0.00526571,0.001616446,4.759e-05,-2.918e-06,-0.000101293
234.0,-0.00581616,-0.002023569,0.003199049,0.00526571,0.001616446,4.759e-05,-2.918e-06,-0.000101293
235.0,-0.00581616,-0.002023569,0.003199049,0.00526571,0.001616446,4.759e-05,-2.918e-06,-0.000101293
236.0,-0.00581616,-0.002023569,0.003199049,0.00526571,0.001616446,4.759e-05,-2.918e-06,-0.000101293
237.0,-0.00581616,-0.002023569,0.003199049,0.00526571,0.001616446,4.759e-05,-2.918e-06,-0.000101293
238.0,-0.00581616,-0.002073569,0.003199049,0.00526571,0.001616446,4.759e-05,-2.918e-06,-5.1293e-05
239.0,-0.00581616,-0.002073569,0.003199049,0.00526571,0.001616446,4.759e-05,-2.918e-06,-5.1293e-05
240.0,-0.00581616,-0.002073569,0.003199049,0.00526571,0.001616446,4.759e-05,-2.918e-06,-5.1293e-05
241.0,-0.00581616,-0.002073569,0.003199049,0.00526571,0.001616446,4.759e-05,-2.918e-06,-5.1293e-05
242.0,-0.00581616,-0.002073569,0.003199049,0.00526571,0.001616446,4.759e-05,-2.918e-06,-5.1293e-05
243.0,-0.00581616,-0.002073569,0.003199049,0.00526571,0.001616446,4.759e-05,-2.918e-06,-5.1293e-05
244.0,-0.00581616,-0.002073569,0.003199049,0.00526571,0.001616446,4.759e-05,-2.918e-06,-5.1293e-05
245.0,-0.00581616,-0.002073569,0.003199049,0.00526571,0.001616446,4.759e-05,-2.918e-06,-5.1293e-05
246.0,-0.00581616,-0.002073569,0.003199049,0.00531571,0.001566446,4.759e-05,-2.918e-06,-5.1293e-05
247.0,-0.00581616,-0.002023569,0.003199049,0.00531571,0.001566446,4.759e-05,-2.918e-06,-0.000101293
248.0,-0.00586616,-0.002023569,0.003199049,0.00536571,0.001566446,4.759e-05,-2.918e-06,-0.000101293
249.0,-0.00586616,-0.002023569,0.003199049,0.00536571,0.001566446,4.759e-05,-2.918e-06,-0.000101293
250.0,-0.00586616,-0.002023569,0.003199049,0.00531571,0.001616446,4.759e-05,-2.918e-06,-0.000101293
251.0,-0.00586616,-0.002023569,0.003199049,0.00531571,0.001616446,4.759e-05,-2.918e-06,-0.000101293
252.0,-0.00586616,-0.002023569,0.003199049,0.00531571,0.001616446,4.759e-05,-2.918e-06,-0.000101293
253.0,-0.00581616,-0.002023569,0.003199049,0.00531571,0.001616446,-2.409e-06,-2.918e-06,-0.000101293
254.0,-0.00581616,-0.002023569,0.003199049,0.00531571,0.001616446,-5.2409e-05,-2.918e-06,-5.1293e-05
255.0,-0.00581616,-0.002023569,0.003199049,0.00531571,0.001616446,-5.2409e-05,-2.918e-06,-5.1293e-05
256.0,-0.00581616,-0.002023569,0.003199049,0.00531571,0.001616446,-5.2409e-05,-2.918e-06,-5.1293e-05
257.0,-0.00581616,-0.002023569,0.003199049,0.00531571,0.001616446,-5.2409e-05,-2.918e-06,-5.1293e-05
258.0,-0.00581616,-0.002023569,0.003199049,0.00531571,0.001616446,-5.2409e-05,-2.918e-06,-5.1293e-05
259.0,-0.00581616,-0.002023569,0.003199049,0.00531571,0.001616446,-5.2409e-05,-2.918e-06,-5.1293e-05
260.0,-0.00581616,-0.002023569,0.003199049,0.00531571,0.001616446,-2.409e-06,-5.2918e-05,-5.1293e-05
261.0,-0.00581616,-0.002023569,0.003199049,0.00531571,0.001616446,-2.409e-06,-5.2918e-05,-5.1293e-05
262.0,-0.00581616,-0.002023569,0.003199049,0.00531571,0.001616446,-2.409e-06,-5.2918e-05,-5.1293e-05
263.0,-0.00581616,-0.002023569,0.003199049,0.00531571,0.001616446,-2.409e-06,-5.2918e-05,-5.1293e-05
264.0,-0.00581616,-0.002023569,0.003199049,0.00531571,0.001616446,-2.409e-06,-5.2918e-05,-5.1293e-05
265.0,-0.00581616,-0.002023569,0.003199049,0.00531571,0.001616446,-2.409e-06,-5.2918e-05,-5.1293e-05
266.0,-0.00586616,-0.002023569,0.003199049,0.00531571,0.001616446,-2.409e-06,-2.918e-06,-5.1293e-05
267.0,-0.00586616,-0.002023569,0.003199049,0.00536571,0.001566446,-2.409e-06,-2.918e-06,-5.1293e-05
268.0,-0.00586616,-0.002023569,0.003199049,0.00536571,0.001566446,-2.409e-06,-2.918e-06,-5.1293e-05
269.0,-0.00586616,-0.002023569,0.003199049,0.00531571,0.001616446,-2.409e-06,-2.918e-06,-5.1293e-05
270.0,-0.00581616,-0.002023569,0.003199049,0.00531571,0.001566446,-2.409e-06,-2.918e-06,-5.1293e-05
271.0,-0.00581616,-0.002023569,0.003199049,0.00531571,0.001566446,-2.409e-06,-2.918e-06,-5.1293e-05
272.0,-0.00581616,-0.002023569,0.003199049,0.00531571,0.001566446,-2.409e-06,-2.918e-06,-5.1293e-05
273.0,-0.00581616,-0.002023569,0.003199049,0.00531571,0.001566446,-2.409e-06,-2.918e-06,-5.1293e-05
274.0,-0.00581616,-0.002023569,0.003199049,0.00531571,0.001566446,-2.409e-06,-2.918e-06,-5.1293e-05
275.0,-0.00581616,-0.002023569,0.003199049,0.00531571,0.001566446,-2.409e-06,-2.918e-06,-5.1293e-05
276.0,-0.00581616,-0.002023569,0.003199049,0.00531571,0.001566446,-2.409e-06,-2.918e-06,-5.1293e-05
277.0,-0.00581616,-0.002023569,0.003199049,0.00531571,0.001566446,-2.409e-06,-2.918e-06,-5.1293e-05
278.0,-0.00581616,-0.002023569,0.003199049,0.00531571,0.001566446,4.1187e-05,-2.918e-06,-9.4889e-05
279.0,-0.00581616,-0.002023569,0.003199049,0.00531571,0.001566446,4.1187e-05,-2.918e-06,-9.4889e-05
280.0,-0.005766161,-0.002073569,0.003199049,0.00531571,0.001566446,4.1187e-05,-2.918e-06,-9.4889e-05
281.0,-0.005766161,-0.002073569,0.003199049,0.00531571,0.001566446,4.1187e-05,-2.918e-06,-9.4889e-05
282.0,-0.005766161,-0.002073569,0.003199049,0.00531571,0.001566446,4.1187e-05,-2.918e-06,-9.4889e-05
283.0,-0.00581616,-0.002023569,0.003199049,0.00531571,0.001566446,4.1187e-05,-2.918e-06,-9.4889e-05
284.0,-0.00581616,-0.002023569,0.003199049,0.00531571,0.001566446,4.1187e-05,-2.918e-06,-9.4889e-05
285.0,-0.00581616,-0.002023569,0.003199049,0.00531571,0.001566446,4.1187e-05,-2.918e-06,-9.4889e-05
286.0,-0.00581616,-0.002023569,0.003199049,0.00531571,0.001566446,4.1187e-05,-2.918e-06,-9.4889e-05
287.0,-0.00581616,-0.002023569,0.003199049,0.00531571,0.001566446,4.1187e-05,-2.918e-06,-9.4889e-05
288.0,-0.00581616,-0.002023569,0.003199049,0.00531571,0.001566446,4.1187e-05,-2.918e-06,-9.4889e-05
289.0,-0.00581616,-0.002023569,0.003199049,0.00531571,0.001566446,4.1187e-05,-2.918e-06,-9.4889e-05
290.0,-0.00581616,-0.002023569,0.003199049,0.00531571,0.001566446,4.1187e-05,-2.918e-06,-9.4889e-05
291.0,-0.00581616,-0.002023569,0.003199049,0.00531571,0.001566446,4.1187e-05,-2.918e-06,-9.4889e-05
292.0,-0.00581616,-0.002023569,0.003199049,0.00531571,0.001566446,4.1187e-05,-2.918e-06,-9.4889e-05
293.0,-0.00581616,-0.002023569,0.003199049,0.00531571,0.001566446,4.1187e-05,-2.918e-06,-9.4889e-05
294.0,-0.00581616,-0.002023569,0.003199049,0.00531571,0.001566446,4.1187e-05,-2.918e-06,-9.4889e-05
295.0,-0.00581616,-0.002023569,0.003199049,0.00531571,0.001566446,4.1187e-05,-2.918e-06,-9.4889e-05
296.0,-0.00581616,-0.002023569,0.003199049,0.00531571,0.001566446,4.1187e-05,-2.918e-06,-9.4889e-05
297.0,-0.00581616,-0.002023569,0.003199049,0.00531571,0.001566446,4.1187e-05,-2.918e-06,-9.4889e-05
298.0,-0.00581616,-0.002023569,0.003199049,0.00531571,0.001566446,4.1187e-05,-2.918e-06,-9.4889e-05
299.0,-0.00581616,-0.002023569,0.003199049,0.00531571,0.001566446,4.1187e-05,-2.918e-06,-9.4889e-05
300.0,-0.00581616,-0.002023569,0.003199049,0.00531571,0.001566446,4.1187e-05,-2.918e-06,-9.4889e-05
301.0,-0.005766161,-0.002023569,0.003199049,0.00531571,0.001566446,4.1187e-05,-5.2918e-05,-9.4889e-05
302.0,-0.005766161,-0.002023569,0.003199049,0.00531571,0.001566446,4.1187e-05,-5.2918e-05,-9.4889e-05
303.0,-0.005766161,-0.002023569,0.003199049,0.00531571,0.001566446,4.1187e-05,-5.2918e-05,-9.4889e-05
304.0,-0.005766161,-0.002023569,0.003199049,0.00531571,0.001566446,4.1187e-05,-5.2918e-05,-9.4889e-05
305.0,-0.005766161,-0.002023569,0.003199049,0.00531571,0.001566446,4.1187e-05,-5.2918e-05,-9.4889e-05
306.0,-0.005766161,-0.002023569,0.003199049,0.00531571,0.001566446,-8.812e-06,-5.2918e-05,-4.4889e-05
307.0,-0.005766161,-0.002023569,0.003199049,0.00531571,0.001566446,-8.812e-06,-5.2918e-05,-4.4889e-05
308.0,-0.005766161,-0.002023569,0.003199049,0.00531571,0.001566446,-8.812e-06,-5.2918e-05,-4.4889e-05
309.0,-0.005766161,-0.002023569,0.003199049,0.00531571,0.001566446,-8.812e-06,-5.2918e-05,-4.4889e-05
310.0,-0.005766161,-0.002023569,0.003199049,0.00531571,0.001566446,-8.812e-06,-5.2918e-05,-4.4889e-05
311.0,-0.005766161,-0.002023569,0.003199049,0.00531571,0.001566446,4.1187e-05,-5.2918e-05,-9.4889e-05
312.0,-0.005766161,-0.002023569,0.003199049,0.00531571,0.001566446,4.1187e-05,-5.2918e-05,-9.4889e-05
313.0,-0.005766161,-0.002023569,0.003199049,0.00531571,0.001566446,4.1187e-05,-5.2918e-05,-9.4889e-05
314.0,-0.005766161,-0.002023569,0.003199049,0.00531571,0.001566446,4.1187e-05,-5.2918e-05,-9.4889e-05
315.0,-0.005766161,-0.002023569,0.003199049,0.00531571,0.001566446,4.1187e-05,-5.2918e-05,-9.4889e-05
316.0,-0.005766161,-0.002023569,0.003199049,0.00531571,0.001566446,4.1187e-05,-5.2918e-05,-9.4889e-05
317.0,-0.005766161,-0.002023569,0.003199049,0.00531571,0.001566446,4.1187e-05,-5.2918e-05,-9.4889e-05
318.0,-0.005766161,-0.002023569,0.003199049,0.00531571,0.001566446,4.1187e-05,-5.2918e-05,-9.4889e-05
319.0,-0.005766161,-0.002023569,0.003199049,0.00531571,0.001566446,4.1187e-05,-5.2918e-05,-9.4889e-05
320.0,-0.005766161,-0.002023569,0.003199049,0.00531571,0.001566446,4.1187e-05,-5.2918e-05,-9.4889e-05
321.0,-0.005766161,-0.002023569,0.003199049,0.00531571,0.001566446,4.1187e-05,-5.2918e-05,-9.4889e-05
322.0,-0.005766161,-0.002023569,0.003199049,0.00531571,0.001566446,-8.812e-06,-5.2918e-05,-4.4889e-05
323.0,-0.005766161,-0.002023569,0.003199049,0.00531571,0.001566446,-8.812e-06,-5.2918e-05,-4.4889e-05
324.0,-0.00581616,-0.002023569,0.003199049,0.00531571,0.001566446,4.1187e-05,-5.2918e-05,-4.4889e-05
325.0,-0.00581616,-0.002023569,0.003199049,0.00531571,0.001566446,-8.812e-06,-5.2918e-05,5.11e-06
326.0,-0.00581616,-0.002023569,0.003199049,0.00531571,0.001566446,-8.812e-06,-5.2918e-05,5.11e-06
327.0,-0.00581616,-0.002023569,0.003199049,0.00531571,0.001566446,-8.812e-06,-5.2918e-05,5.11e-06
328.0,-0.00581616,-0.002023569,0.003199049,0.00531571,0.001566446,-8.812e-06,-5.2918e-05,5.11e-06
329.0,-0.00581616,-0.002023569,0.003199049,0.00531571,0.001566446,-8.812e-06,-2.918e-06,-4.4889e-05
330.0,-0.00581616,-0.002023569,0.003199049,0.00531571,0.001566446,-8.812e-06,-2.918e-06,-4.4889e-05
331.0,-0.00581616,-0.002023569,0.003199049,0.00531571,0.001566446,4.1187e-05,-2.918e-06,-9.4889e-05
332.0,-0.00581616,-0.002023569,0.003199049,0.00531571,0.001566446,4.1187e-05,-2.918e-06,-9.4889e-05
333.0,-0.00581616,-0.002023569,0.003199049,0.00531571,0.001566446,4.1187e-05,-2.918e-06,-9.4889e-05
334.0,-0.00581616,-0.002023569,0.003199049,0.00531571,0.001566446,4.1187e-05,-2.918e-06,-9.4889e-05
335.0,-0.00581616,-0.002023569,0.003199049,0.00531571,0.001566446,4.1187e-05,-2.918e-06,-9.4889e-05
336.0,-0.00581616,-0.002023569,0.003199049,0.00531571,0.001566446,4.1187e-05,-2.918e-06,-9.4889e-05
337.0,-0.00581616,-0.002023569,0.003199049,0.00531571,0.001566446,4.1187e-05,-2.918e-06,-9.4889e-05
338.0,-0.00581616,-0.002023569,0.003199049,0.00531571,0.001566446,4.1187e-05,-2.918e-06,-9.4889e-05
339.0,-0.00581616,-0.002023569,0.003199049,0.00531571,0.001566446,4.1187e-05,-2.918e-06,-9.4889e-05
340.0,-0.00581616,-0.002023569,0.003199049,0.00531571,0.001566446,4.1187e-05,-2.918e-06,-9.4889e-05
341.0,-0.00581616,-0.002023569,0.003199049,0.00531571,0.001566446,4.1187e-05,-2.918e-06,-9.4889e-05
342.0,-0.00581616,-0.002023569,0.003199049,0.00531571,0.001566446,-8.812e-06,4.7081e-05,-9.4889e-05
343.0,-0.00581616,-0.002023569,0.003199049,0.00531571,0.001566446,-8.812e-06,4.7081e-05,-9.4889e-05
344.0,-0.00581616,-0.002023569,0.003199049,0.00531571,0.001566446,-8.812e-06,4.7081e-05,-9.4889e-05
345.0,-0.00581616,-0.002023569,0.003199049,0.00531571,0.001566446,-8.812e-06,-2.918e-06,-4.4889e-05
346.0,-0.00581616,-0.002023569,0.003199049,0.00531571,0.001566446,-8.812e-06,-2.918e-06,-4.4889e-05
347.0,-0.00581616,-0.002023569,0.003199049,0.00531571,0.001566446,4.1187e-05,-2.918e-06,-9.4889e-05
348.0,-0.00581616,-0.002023569,0.003199049,0.00531571,0.001566446,4.1187e-05,-2.918e-06,-9.4889e-05
349.0,-0.00581616,-0.002023569,0.003199049,0.00531571,0.001566446,4.1187e-05,-2.918e-06,-9.4889e-05
350.0,-0.00581616,-0.002023569,0.003199049,0.00531571,0.001566446,4.1187e-05,-2.918e-06,-9.4889e-05
351.0,-0.00581616,-0.002023569,0.003199049,0.00531571,0.001566446,-8.812e-06,-2.918e-06,-4.4889e-05
352.0,-0.00581616,-0.002023569,0.003199049,0.00531571,0.001566446,-8.812e-06,-2.918e-06,-4.4889e-05
353.0,-0.00581616,-0.002023569,0.003199049,0.00531571,0.001566446,-8.812e-06,-2.918e-06,-4.4889e-05
354.0,-0.00581616,-0.002023569,0.003199049,0.00531571,0.001566446,-8.812e-06,-2.918e-06,-4.4889e-05
355.0,-0.00581616,-0.002023569,0.003199049,0.00531571,0.001566446,-5.8812e-05,-2.918e-06,5.11e-06
356.0,-0.00581616,-0.002023569,0.003199049,0.00531571,0.001566446,-8.812e-06,-2.918e-06,-4.4889e-05
357.0,-0.00581616,-0.002023569,0.003199049,0.00531571,0.001566446,-8.812e-06,-2.918e-06,-4.4889e-05
358.0,-0.00581616,-0.002023569,0.003199049,0.00531571,0.001566446,-8.812e-06,-2.918e-06,-4.4889e-05
359.0,-0.00581616,-0.002023569,0.003199049,0.00536571,0.001516446,-8.812e-06,-2.918e-06,-4.4889e-05
360.0,-0.00581616,-0.002023569,0.003199049,0.00536571,0.001516446,-8.812e-06,-2.918e-06,-4.4889e-05
361.0,-0.00581616,-0.002023569,0.003199049,0.00536571,0.001516446,-8.812e-06,-2.918e-06,-4.4889e-05
362.0,-0.00581616,-0.002023569,0.003199049,0.00536571,0.001516446,-8.812e-06,-2.918e-06,-4.4889e-05
363.0,-0.00581616,-0.002023569,0.003199049,0.00531571,0.001566446,-8.812e-06,-2.918e-06,-4.4889e-05
364.0,-0.00581616,-0.002023569,0.003199049,0.00531571,0.001566446,-8.812e-06,-2.918e-06,-4.4889e-05
365.0,-0.00581616,-0.002023569,0.003199049,0.00531571,0.001566446,-8.812e-06,-2.918e-06,-4.4889e-05
366.0,-0.00581616,-0.002023569,0.003199049,0.00531571,0.001566446,-8.812e-06,-2.918e-06,-4.4889e-05
367.0,-0.00581616,-0.002023569,0.003199049,0.00531571,0.001566446,-8.812e-06,-2.918e-06,-4.4889e-05
368.0,-0.00581616,-0.002023569,0.003199049,0.00531571,0.001566446,-8.812e-06,-2.918e-06,-4.4889e-05
369.0,-0.00581616,-0.002023569,0.003199049,0.00531571,0.001566446,-5.8812e-05,-2.918e-06,5.11e-06
370.0,-0.00581616,-0.002023569,0.003199049,0.00531571,0.001566446,-5.8812e-05,-2.918e-06,5.11e-06
371.0,-0.00581616,-0.002023569,0.003199049,0.00531571,0.001566446,-5.8812e-05,-2.918e-06,5.11e-06
372.0,-0.005766161,-0.002023569,0.003199049,0.00531571,0.001566446,-5.8812e-05,-5.2918e-05,5.11e-06
373.0,-0.005766161,-0.002023569,0.003199049,0.00531571,0.001566446,-5.8812e-05,-5.2918e-05,5.11e-06
374.0,-0.00581616,-0.002023569,0.003199049,0.00531571,0.001566446,-5.8812e-05,-2.918e-06,5.11e-06
375.0,-0.00581616,-0.002023569,0.003199049,0.00531571,0.001566446,-5.8812e-05,-2.918e-06,5.11e-06
376.0,-0.00581616,-0.002023569,0.003199049,0.00531571,0.001566446,-8.812e-06,-5.2918e-05,5.11e-06
377.0,-0.00581616,-0.002023569,0.003199049,0.00531571,0.001566446,-8.812e-06,-5.2918e-05,5.11e-06
378.0,-0.00581616,-0.002023569,0.003199049,0.00531571,0.001566446,-8.812e-06,-5.2918e-05,5.11e-06
379.0,-0.00581616,-0.002023569,0.003199049,0.00531571,0.001566446,-8.812e-06,-5.2918e-05,5.11e-06
380.0,-0.00581616,-0.002073569,0.003199049,0.00531571,0.001566446,-8.812e-06,-2.918e-06,5.11e-06
381.0,-0.00581616,-0.002073569,0.003199049,0.00531571,0.001566446,-8.812e-06,-2.918e-06,5.11e-06
382.0,-0.00581616,-0.002073569,0.003199049,0.00531571,0.001566446,4.1187e-05,-2.918e-06,-4.4889e-05
383.0,-0.00581616,-0.002073569,0.003199049,0.00531571,0.001566446,4.1187e-05,-2.918e-06,-4.4889e-05
384.0,-0.00581616,-0.002073569,0.003199049,0.00531571,0.001566446,4.1187e-05,-2.918e-06,-4.4889e-05
385.0,-0.00581616,-0.002073569,0.003199049,0.00531571,0.001566446,4.1187e-05,-2.918e-06,-4.4889e-05
386.0,-0.00581616,-0.002073569,0.003199049,0.00531571,0.001566446,4.1187e-05,-2.918e-06,-4.4889e-05
387.0,-0.00581616,-0.002073569,0.003199049,0.00531571,0.001566446,4.1187e-05,-2.918e-06,-4.4889e-05
388.0,-0.00581616,-0.002073569,0.003199049,0.00531571,0.001566446,4.1187e-05,-2.918e-06,-4.4889e-05
389.0,-0.00581616,-0.002073569,0.003199049,0.00531571,0.001566446,4.1187e-05,-2.918e-06,-4.4889e-05
390.0,-0.00581616,-0.002073569,0.003199049,0.00531571,0.001566446,4.1187e-05,-2.918e-06,-4.4889e-05
391.0,-0.00581616,-0.002073569,0.003199049,0.00531571,0.001566446,4.1187e-05,-2.918e-06,-4.4889e-05
392.0,-0.00581616,-0.002073569,0.003199049,0.00531571,0.001566446,4.1187e-05,-2.918e-06,-4.4889e-05
393.0,-0.00581616,-0.002073569,0.003199049,0.00531571,0.001566446,4.1187e-05,-2.918e-06,-4.4889e-05
394.0,-0.00581616,-0.002073569,0.003199049,0.00531571,0.001566446,4.1187e-05,-2.918e-06,-4.4889e-05
395.0,-0.00581616,-0.002073569,0.003199049,0.00531571,0.001566446,4.1187e-05,-2.918e-06,-4.4889e-05
396.0,-0.00581616,-0.002073569,0.003199049,0.00531571,0.001566446,4.1187e-05,-2.918e-06,-4.4889e-05
397.0,-0.00581616,-0.002073569,0.003199049,0.00531571,0.001566446,4.1187e-05,-2.918e-06,-4.4889e-05
398.0,-0.00581616,-0.002073569,0.003199049,0.00531571,0.001566446,-8.812e-06,-2.918e-06,5.11e-06
399.0,-0.00581616,-0.002073569,0.003199049,0.00531571,0.001566446,-8.812e-06,-2.918e-06,5.11e-06
400.0,-0.00581616,-0.002073569,0.003199049,0.00531571,0.001566446,-8.812e-06,-2.918e-06,5.11e-06
401.0,-0.00581616,-0.002073569,0.003199049,0.00531571,0.001566446,4.1187e-05,-2.918e-06,-4.4889e-05
402.0,-0.00581616,-0.002073569,0.003199049,0.00531571,0.001566446,-8.812e-06,4.7081e-05,-4.4889e-05
403.0,-0.00581616,-0.002073569,0.003199049,0.00531571,0.001566446,-8.812e-06,4.7081e-05,-4.4889e-05
404.0,-0.00581616,-0.002073569,0.003199049,0.00531571,0.001566446,-8.812e-06,4.7081e-05,-4.4889e-05
405.0,-0.00581616,-0.002073569,0.003199049,0.00531571,0.001566446,-8.812e-06,4.7081e-05,-4.4889e-05
406.0,-0.00581616,-0.002073569,0.003199049,0.00531571,0.001566446,-8.812e-06,4.7081e-05,-4.4889e-05
407.0,-0.00581616,-0.002073569,0.003199049,0.00531571,0.001566446,-8.812e-06,4.7081e-05,-4.4889e-05
408.0,-0.005766161,-0.002073569,0.003199049,0.00531571,0.001566446,-8.812e-06,-2.918e-06,-4.4889e-05
409.0,-0.005766161,-0.002073569,0.003199049,0.00531571,0.001566446,-8.812e-06,-2.918e-06,-4.4889e-05
410.0,-0.005766161,-0.002073569,0.003199049,0.00531571,0.001566446,-8.812e-06,-2.918e-06,-4.4889e-05
411.0,-0.005766161,-0.002073569,0.003199049,0.00531571,0.001566446,-8.812e-06,-2.918e-06,-4.4889e-05
412.0,-0.00581616,-0.002073569,0.003199049,0.00531571,0.001566446,4.1187e-05,-2.918e-06,-4.4889e-05
413.0,-0.00581616,-0.002073569,0.003199049,0.00531571,0.001566446,4.1187e-05,-2.918e-06,-4.4889e-05
414.0,-0.00581616,-0.002073569,0.003199049,0.00531571,0.001566446,4.1187e-05,-2.918e-06,-4.4889e-05
415.0,-0.00581616,-0.002073569,0.003199049,0.00531571,0.001566446,4.1187e-05,-2.918e-06,-4.4889e-05
416.0,-0.00581616,-0.002073569,0.003199049,0.00531571,0.001566446,4.1187e-05,-2.918e-06,-4.4889e-05
417.0,-0.00581616,-0.002073569,0.003199049,0.00531571,0.001566446,4.1187e-05,-2.918e-06,-4.4889e-05
418.0,-0.00581616,-0.002073569,0.003199049,0.00531571,0.001566446,4.1187e-05,-2.918e-06,-4.4889e-05
419.0,-0.00581616,-0.002073569,0.003199049,0.00531571,0.001566446,4.1187e-05,-2.918e-06,-4.4889e-05
420.0,-0.00581616,-0.002073569,0.003199049,0.00531571,0.001566446,4.1187e-05,-2.918e-06,-4.4889e-05
421.0,-0.00581616,-0.002073569,0.003199049,0.00531571,0.001566446,4.1187e-05,-2.918e-06,-4.4889e-05
422.0,-0.00581616,-0.002073569,0.003199049,0.00531571,0.001566446,4.1187e-05,-2.918e-06,-4.4889e-05
423.0,-0.00581616,-0.002073569,0.003199049,0.00531571,0.001566446,4.1187e-05,-2.918e-06,-4.4889e-05
424.0,-0.00581616,-0.002073569,0.003199049,0.00531571,0.001566446,-8.812e-06,-2.918e-06,5.11e-06
425.0,-0.00581616,-0.002073569,0.003199049,0.00531571,0.001566446,-8.812e-06,-2.918e-06,5.11e-06
426.0,-0.00581616,-0.002073569,0.003199049,0.00531571,0.001566446,-8.812e-06,-2.918e-06,5.11e-06
427.0,-0.00581616,-0.002073569,0.003199049,0.00531571,0.001566446,-8.812e-06,-2.918e-06,5.11e-06
428.0,-0.00581616,-0.002073569,0.003199049,0.00531571,0.001566446,4.1187e-05,-2.918e-06,-4.4889e-05
429.0,-0.00581616,-0.002073569,0.003199049,0.00531571,0.001566446,4.1187e-05,-2.918e-06,-4.4889e-05
430.0,-0.00581616,-0.002073569,0.003199049,0.00531571,0.001566446,4.1187e-05,-2.918e-06,-4.4889e-05
431.0,-0.00581616,-0.002073569,0.003199049,0.00531571,0.001566446,4.1187e-05,-2.918e-06,-4.4889e-05
432.0,-0.00581616,-0.002073569,0.003199049,0.00531571,0.001566446,4.1187e-05,-2.918e-06,-4.4889e-05
433.0,-0.00581616,-0.002073569,0.003199049,0.00531571,0.001566446,4.1187e-05,-2.918e-06,-4.4889e-05
434.0,-0.00581616,-0.002073569,0.003199049,0.00531571,0.001566446,4.1187e-05,-2.918e-06,-4.4889e-05
435.0,-0.00581616,-0.002073569,0.003199049,0.00531571,0.001566446,4.1187e-05,-2.918e-06,-4.4889e-05
436.0,-0.00581616,-0.002073569,0.003199049,0.00531571,0.001566446,4.1187e-05,-2.918e-06,-4.4889e-05
437.0,-0.00581616,-0.002073569,0.003199049,0.00531571,0.001566446,4.1187e-05,-2.918e-06,-4.4889e-05
438.0,-0.00581616,-0.002073569,0.003199049,0.00531571,0.001566446,4.1187e-05,-2.918e-06,-4.4889e-05
439.0,-0.00581616,-0.002073569,0.003199049,0.00531571,0.001566446,4.1187e-05,-2.918e-06,-4.4889e-05
440.0,-0.00581616,-0.002073569,0.003199049,0.00531571,0.001566446,4.1187e-05,-2.918e-06,-4.4889e-05
441.0,-0.00581616,-0.002073569,0.003199049,0.00531571,0.001566446,4.1187e-05,-2.918e-06,-4.4889e-05
442.0,-0.00581616,-0.002073569,0.003199049,0.00531571,0.001566446,4.1187e-05,-2.918e-06,-4.4889e-05
443.0,-0.00581616,-0.002073569,0.003199049,0.00531571,0.001566446,4.1187e-05,-2.918e-06,-4.4889e-05
444.0,-0.00581616,-0.002073569,0.003199049,0.00531571,0.001566446,4.1187e-05,-2.918e-06,-4.4889e-05
445.0,-0.00581616,-0.002073569,0.003199049,0.00531571,0.001566446,4.1187e-05,-2.918e-06,-4.4889e-05
446.0,-0.00581616,-0.002073569,0.003199049,0.00531571,0.001566446,4.1187e-05,-2.918e-06,-4.4889e-05
447.0,-0.00581616,-0.002073569,0.003199049,0.00531571,0.001566446,4.1187e-05,-2.918e-06,-4.4889e-05
448.0,-0.00581616,-0.002073569,0.003199049,0.00531571,0.001566446,9.1187e-05,-2.918e-06,-9.4889e-05
449.0,-0.00581616,-0.002073569,0.003199049,0.00531571,0.001566446,9.1187e-05,-2.918e-06,-9.4889e-05
450.0,-0.00581616,-0.002073569,0.003199049,0.00531571,0.001566446,4.1187e-05,-2.918e-06,-4.4889e-05
451.0,-0.00581616,-0.002073569,0.003199049,0.00531571,0.001566446,4.1187e-05,-2.918e-06,-4.4889e-05
452.0,-0.00581616,-0.002073569,0.003199049,0.00531571,0.001566446,4.1187e-05,-2.918e-06,-4.4889e-05
453.0,-0.00581616,-0.002073569,0.003199049,0.00531571,0.001566446,4.1187e-05,-2.918e-06,-4.4889e-05
454.0,-0.00581616,-0.002073569,0.003199049,0.00531571,0.001566446,4.1187e-05,-2.918e-06,-4.4889e-05
455.0,-0.00581616,-0.002073569,0.003199049,0.00531571,0.001566446,4.1187e-05,-2.918e-06,-4.4889e-05
456.0,-0.00581616,-0.002073569,0.003199049,0.00536571,0.001516446,4.1187e-05,-2.918e-06,-4.4889e-05
457.0,-0.00581616,-0.002073569,0.003199049,0.00536571,0.001516446,4.1187e-05,-2.918e-06,-4.4889e-05
458.0,-0.00581616,-0.002073569,0.003199049,0.00536571,0.001516446,4.1187e-05,-2.918e-06,-4.4889e-05
459.0,-0.00581616,-0.002073569,0.003199049,0.00536571,0.001516446,4.1187e-05,-2.918e-06,-4.4889e-05
460.0,-0.00581616,-0.002073569,0.003199049,0.00536571,0.001516446,4.1187e-05,-2.918e-06,-4.4889e-05
461.0,-0.00581616,-0.002073569,0.003199049,0.00536571,0.001516446,-8.812e-06,4.7081e-05,-4.4889e-05
462.0,-0.00581616,-0.002073569,0.003199049,0.00536571,0.001516446,-5.8812e-05,4.7081e-05,5.11e-06
463.0,-0.00581616,-0.002073569,0.003199049,0.00536571,0.001516446,-5.8812e-05,4.7081e-05,5.11e-06
464.0,-0.00581616,-0.002073569,0.003199049,0.00536571,0.001516446,-5.8812e-05,4.7081e-05,5.11e-06
465.0,-0.00581616,-0.002073569,0.003199049,0.00536571,0.001516446,-5.8812e-05,4.7081e-05,5.11e-06
466.0,-0.00581616,-0.002073569,0.003199049,0.00536571,0.001516446,-5.8812e-05,4.7081e-05,5.11e-06
467.0,-0.00581616,-0.002073569,0.003199049,0.00536571,0.001516446,-5.8812e-05,4.7081e-05,5.11e-06
468.0,-0.00581616,-0.002073569,0.003199049,0.00536571,0.001516446,-5.8812e-05,4.7081e-05,5.11e-06
469.0,-0.00581616,-0.002073569,0.003199049,0.00536571,0.001516446,-5.8812e-05,4.7081e-05,5.11e-06
470.0,-0.00581616,-0.002073569,0.003199049,0.00536571,0.001516446,-5.8812e-05,4.7081e-05,5.11e-06
471.0,-0.00581616,-0.002073569,0.003199049,0.00536571,0.001516446,-8.812e-06,4.7081e-05,-4.4889e-05
472.0,-0.00581616,-0.002073569,0.003199049,0.00536571,0.001516446,-8.812e-06,4.7081e-05,-4.4889e-05
473.0,-0.005766161,-0.002073569,0.003199049,0.00536571,0.001516446,-8.812e-06,-2.918e-06,-4.4889e-05
474.0,-0.005766161,-0.002073569,0.003199049,0.00536571,0.001516446,4.1187e-05,-2.918e-06,-9.4889e-05
475.0,-0.005766161,-0.002073569,0.003199049,0.00536571,0.001516446,4.1187e-05,-2.918e-06,-9.4889e-05
476.0,-0.005766161,-0.002073569,0.003199049,0.00536571,0.001516446,4.1187e-05,-2.918e-06,-9.4889e-05
477.0,-0.005766161,-0.002073569,0.003199049,0.00536571,0.001516446,4.1187e-05,-2.918e-06,-9.4889e-05
478.0,-0.005766161,-0.002073569,0.003199049,0.00536571,0.001516446,4.1187e-05,-2.918e-06,-9.4889e-05
479.0,-0.005766161,-0.002073569,0.003199049,0.00531571,0.001566446,4.1187e-05,-2.918e-06,-9.4889e-05
480.0,-0.005766161,-0.002073569,0.003199049,0.00531571,0.001566446,-8.812e-06,-2.918e-06,-4.4889e-05
481.0,-0.005766161,-0.002073569,0.003199049,0.00531571,0.001566446,-8.812e-06,-2.918e-06,-4.4889e-05
482.0,-0.005766161,-0.002073569,0.003199049,0.00531571,0.001566446,4.1187e-05,-5.2918e-05,-4.4889e-05
483.0,-0.005766161,-0.002073569,0.003199049,0.00531571,0.001566446,4.1187e-05,-5.2918e-05,-4.4889e-05
484.0,-0.005766161,-0.002073569,0.003199049,0.00531571,0.001566446,4.1187e-05,-5.2918e-05,-4.4889e-05
485.0,-0.005766161,-0.002073569,0.003199049,0.00531571,0.001566446,4.1187e-05,-5.2918e-05,-4.4889e-05
486.0,-0.00581616,-0.002073569,0.003249049,0.00531571,0.001566446,4.1187e-05,-5.2918e-05,-4.4889e-05
487.0,-0.00581616,-0.002073569,0.003249049,0.00531571,0.001566446,4.1187e-05,-5.2918e-05,-4.4889e-05
488.0,-0.00581616,-0.002073569,0.003249049,0.00531571,0.001566446,4.1187e-05,-5.2918e-05,-4.4889e-05
489.0,-0.00581616,-0.002073569,0.003249049,0.00531571,0.001566446,4.1187e-05,-5.2918e-05,-4.4889e-05
490.0,-0.00581616,-0.002073569,0.003249049,0.00531571,0.001566446,4.1187e-05,-5.2918e-05,-4.4889e-05
491.0,-0.00581616,-0.002073569,0.003249049,0.00531571,0.001566446,4.1187e-05,-5.2918e-05,-4.4889e-05
492.0,-0.00581616,-0.002073569,0.003249049,0.00531571,0.001566446,4.1187e-05,-5.2918e-05,-4.4889e-05
493.0,-0.00581616,-0.002073569,0.003249049,0.00531571,0.001566446,4.1187e-05,-5.2918e-05,-4.4889e-05
494.0,-0.00581616,-0.002073569,0.003249049,0.00531571,0.001566446,4.1187e-05,-5.2918e-05,-4.4889e-05
495.0,-0.00581616,-0.002073569,0.003256751,0.00531571,0.001558744,4.1187e-05,-5.2918e-05,-4.4889e-05
496.0,-0.00581616,-0.002073569,0.003256751,0.00531571,0.001558744,4.1187e-05,-5.2918e-05,-4.4889e-05
497.0,-0.00581616,-0.002073569,0.003256751,0.00531571,0.001558744,4.1187e-05,-5.2918e-05,-4.4889e-05
498.0,-0.00581616,-0.002073569,0.003256751,0.00531571,0.001558744,4.1187e-05,-5.2918e-05,-4.4889e-05
499.0,-0.00581616,-0.002073569,0.003256751,0.00531571,0.001558744,4.1187e-05,-5.2918e-05,-4.4889e-05
500.0,-0.00581616,-0.002073569,0.003256751,0.00531571,0.001558744,4.1187e-05,-5.2918e-05,-4.4889e-05
501.0,-0.00581616,-0.002073569,0.003256751,0.00531571,0.001558744,4.1187e-05,-5.2918e-05,-4.4889e-05
502.0,-0.00581616,-0.002073569,0.003256751,0.00531571,0.001558744,4.1187e-05,-5.2918e-05,-4.4889e-05
503.0,-0.00581616,-0.002073569,0.003256751,0.00531571,0.001558744,4.1187e-05,-5.2918e-05,-4.4889e-05
504.0,-0.00581616,-0.002023569,0.003256751,0.00526571,0.001558744,4.1187e-05,-5.2918e-05,-4.4889e-05
505.0,-0.00581616,-0.002023569,0.003256751,0.00526571,0.001558744,4.1187e-05,-5.2918e-05,-4.4889e-05
506.0,-0.00581616,-0.002023569,0.003256751,0.00526571,0.001558744,4.1187e-05,-5.2918e-05,-4.4889e-05
507.0,-0.00581616,-0.002023569,0.003256751,0.00526571,0.001558744,4.1187e-05,-5.2918e-05,-4.4889e-05
508.0,-0.00581616,-0.002023569,0.003256751,0.00526571,0.001558744,4.1187e-05,-5.2918e-05,-4.4889e-05
509.0,-0.00581616,-0.002023569,0.003256751,0.00526571,0.001558744,4.1187e-05,-5.2918e-05,-4.4889e-05
510.0,-0.00581616,-0.002023569,0.003256751,0.00526571,0.001558744,4.1187e-05,-5.2918e-05,-4.4889e-05
511.0,-0.00581616,-0.002023569,0.003206751,0.00531571,0.001558744,4.1187e-05,-5.2918e-05,-4.4889e-05
512.0,-0.00581616,-0.002023569,0.003206751,0.00531571,0.001558744,4.1187e-05,-5.2918e-05,-4.4889e-05
513.0,-0.00581616,-0.002023569,0.003206751,0.00531571,0.001558744,4.1187e-05,-5.2918e-05,-4.4889e-05
514.0,-0.00581616,-0.002023569,0.003206751,0.00531571,0.001558744,4.1187e-05,-5.2918e-05,-4.4889e-05
515.0,-0.00581616,-0.002023569,0.003206751,0.00531571,0.001558744,4.1187e-05,-5.2918e-05,-4.4889e-05
516.0,-0.00581616,-0.002023569,0.003206751,0.00531571,0.001558744,4.1187e-05,-5.2918e-05,-4.4889e-05
517.0,-0.00581616,-0.002023569,0.003206751,0.00531571,0.001558744,4.1187e-05,-5.2918e-05,-4.4889e-05
518.0,-0.00581616,-0.002023569,0.003206751,0.00531571,0.001558744,4.1187e-05,-5.2918e-05,-4.4889e-05
519.0,-0.00581616,-0.002023569,0.003206751,0.00531571,0.001558744,4.1187e-05,-5.2918e-05,-4.4889e-05
520.0,-0.00581616,-0.002023569,0.003206751,0.00531571,0.001558744,-8.812e-06,-2.918e-06,-4.4889e-05
521.0,-0.00581616,-0.002023569,0.003206751,0.00531571,0.001558744,-8.812e-06,-2.918e-06,-4.4889e-05
522.0,-0.00581616,-0.002023569,0.003206751,0.00531571,0.001558744,-8.812e-06,-2.918e-06,-4.4889e-05
523.0,-0.00586616,-0.002023569,0.003206751,0.00531571,0.001558744,4.1187e-05,-2.918e-06,-4.4889e-05
524.0,-0.00586616,-0.002023569,0.003206751,0.00531571,0.001558744,4.1187e-05,-2.918e-06,-4.4889e-05
525.0,-0.00581616,-0.002023569,0.003206751,0.00531571,0.001558744,-8.812e-06,-2.918e-06,-4.4889e-05
526.0,-0.00581616,-0.002023569,0.003206751,0.00531571,0.001558744,-8.812e-06,-2.918e-06,-4.4889e-05
527.0,-0.00581616,-0.002023569,0.003206751,0.00531571,0.001558744,4.1187e-05,-2.918e-06,-9.4889e-05
528.0,-0.00581616,-0.002023569,0.003206751,0.00531571,0.001558744,4.1187e-05,-2.918e-06,-9.4889e-05
529.0,-0.00581616,-0.002023569,0.003206751,0.00531571,0.001558744,4.1187e-05,-2.918e-06,-9.4889e-05
530.0,-0.00581616,-0.002023569,0.003206751,0.00531571,0.001558744,4.1187e-05,-2.918e-06,-9.4889e-05
531.0,-0.00581616,-0.002023569,0.003206751,0.00531571,0.001558744,4.1187e-05,-2.918e-06,-9.4889e-05
532.0,-0.00581616,-0.002023569,0.003206751,0.00531571,0.001558744,4.1187e-05,-2.918e-06,-9.4889e-05
533.0,-0.00581616,-0.002023569,0.003251242,0.00531571,0.001514253,4.1187e-05,-2.918e-06,-9.4889e-05
534.0,-0.00581616,-0.002023569,0.003251242,0.00531571,0.001514253,4.1187e-05,-2.918e-06,-9.4889e-05
535.0,-0.00581616,-0.002023569,0.003251242,0.00531571,0.001514253,4.1187e-05,-2.918e-06,-9.4889e-05
536.0,-0.00581616,-0.002023569,0.003251242,0.00531571,0.001514253,4.1187e-05,-2.918e-06,-9.4889e-05
537.0,-0.00581616,-0.002023569,0.003251242,0.00531571,0.001514253,4.1187e-05,-2.918e-06,-9.4889e-05
538.0,-0.00581616,-0.002023569,0.003251242,0.00531571,0.001514253,4.1187e-05,-2.918e-06,-9.4889e-05
539.0,-0.00581616,-0.002023569,0.003251242,0.00531571,0.001514253,4.1187e-05,-2.918e-06,-9.4889e-05
540.0,-0.00581616,-0.002023569,0.003201279,0.00531571,0.001514253,4.1151e-05,-2.918e-06,-4.4889e-05
541.0,-0.00581616,-0.002023569,0.003201279,0.00531571,0.001514253,4.1151e-05,-2.918e-06,-4.4889e-05
542.0,-0.00581616,-0.002023569,0.003201279,0.00531571,0.001514253,4.1151e-05,-2.918e-06,-4.4889e-05
543.0,-0.00581616,-0.002023569,0.003201279,0.00531571,0.001514253,4.1151e-05,-2.918e-06,-4.4889e-05
544.0,-0.00581616,-0.002023569,0.003201279,0.00531571,0.001514253,4.1151e-05,-2.918e-06,-4.4889e-05
545.0,-0.00581616,-0.002023569,0.003201279,0.00531571,0.001514253,4.1151e-05,-2.918e-06,-4.4889e-05
546.0,-0.00581616,-0.002023569,0.003201279,0.00531571,0.001514253,4.1151e-05,-2.918e-06,-4.4889e-05
547.0,-0.00581616,-0.002023569,0.003201279,0.00531571,0.001514253,4.1151e-05,-2.918e-06,-4.4889e-05
548.0,-0.00581616,-0.002023569,0.003201279,0.00531571,0.001514253,4.1151e-05,-2.918e-06,-4.4889e-05
549.0,-0.00581616,-0.002023569,0.003201279,0.00531571,0.001514253,4.1151e-05,-2.918e-06,-4.4889e-05
550.0,-0.00581616,-0.002023569,0.003201279,0.00531571,0.001514253,4.1151e-05,-2.918e-06,-4.4889e-05
551.0,-0.00581616,-0.002023569,0.003201279,0.00531571,0.001514253,4.1151e-05,-2.918e-06,-4.4889e-05
552.0,-0.00581616,-0.002023569,0.003201279,0.00531571,0.001514253,4.1151e-05,-2.918e-06,-4.4889e-05
553.0,-0.00581616,-0.002023569,0.003201279,0.00531571,0.001514253,4.1151e-05,-2.918e-06,-4.4889e-05
554.0,-0.005766161,-0.002023569,0.003201279,0.00526571,0.001514253,4.1151e-05,-2.918e-06,-4.4889e-05
555.0,-0.005766161,-0.002023569,0.003201279,0.00526571,0.001514253,4.1151e-05,-2.918e-06,-4.4889e-05
556.0,-0.005766161,-0.002023569,0.003201279,0.00526571,0.001514253,4.1151e-05,-2.918e-06,-4.4889e-05
557.0,-0.005766161,-0.002023569,0.003201279,0.00526571,0.001514253,4.1151e-05,-2.918e-06,-4.4889e-05
558.0,-0.005766161,-0.002023569,0.003201279,0.00526571,0.001514253,4.1151e-05,-2.918e-06,-4.4889e-05
559.0,-0.005766161,-0.002023569,0.003201279,0.00526571,0.001514253,4.1151e-05,-2.918e-06,-4.4889e-05
560.0,-0.005766161,-0.002023569,0.003201279,0.00526571,0.001514253,4.1151e-05,-2.918e-06,-4.4889e-05
561.0,-0.005766161,-0.002023569,0.003201279,0.00526571,0.001514253,4.1151e-05,-2.918e-06,-4.4889e-05
562.0,-0.005766161,-0.002023569,0.003201279,0.00526571,0.001514253,4.1151e-05,-2.918e-06,-4.4889e-05
563.0,-0.005766161,-0.002023569,0.003201279,0.00526571,0.001514253,4.1151e-05,-2.918e-06,-4.4889e-05
564.0,-0.005766161,-0.002023569,0.003201279,0.00526571,0.001514253,4.1151e-05,-2.918e-06,-4.4889e-05
565.0,-0.005766161,-0.002023569,0.003201279,0.00526571,0.001514253,4.1151e-05,-2.918e-06,-4.4889e-05
566.0,-0.005766161,-0.002023569,0.003201279,0.00526571,0.001514253,4.1151e-05,-2.918e-06,-4.4889e-05
567.0,-0.00581616,-0.002023569,0.003201279,0.00526571,0.001514253,9.1151e-05,-2.918e-06,-4.4889e-05
568.0,-0.00581616,-0.002023569,0.003201279,0.00526571,0.001514253,9.1151e-05,-2.918e-06,-4.4889e-05
569.0,-0.00581616,-0.002023569,0.003201279,0.00526571,0.001514253,4.1151e-05,-2.918e-06,5.11e-06
570.0,-0.00581616,-0.002023569,0.003201279,0.00526571,0.001514253,4.1151e-05,-2.918e-06,5.11e-06
571.0,-0.00581616,-0.002023569,0.003201279,0.00526571,0.001514253,4.1151e-05,-2.918e-06,5.11e-06
572.0,-0.00581616,-0.002073569,0.003201279,0.00531571,0.001514253,4.1151e-05,-2.918e-06,5.11e-06
573.0,-0.00581616,-0.002073569,0.003201279,0.00531571,0.001514253,4.1151e-05,-2.918e-06,5.11e-06
574.0,-0.00581616,-0.002073569,0.003201279,0.00531571,0.001514253,4.1151e-05,-2.918e-06,5.11e-06
575.0,-0.005766161,-0.002073569,0.003201279,0.00531571,0.001514253,4.1151e-05,-2.918e-06,-4.4889e-05
576.0,-0.005766161,-0.002073569,0.003201279,0.00531571,0.001514253,4.1151e-05,-2.918e-06,-4.4889e-05
577.0,-0.005766161,-0.002073569,0.003201279,0.00531571,0.001514253,4.1151e-05,-2.918e-06,-4.4889e-05
578.0,-0.005766161,-0.002073569,0.003201279,0.00531571,0.001514253,4.1151e-05,-2.918e-06,-4.4889e-05
579.0,-0.005766161,-0.002073569,0.003201279,0.005265712,0.001564249,4.1151e-05,-2.918e-06,-4.4889e-05
580.0,-0.005766161,-0.002073569,0.003201279,0.005265712,0.001564249,4.1151e-05,-2.918e-06,-4.4889e-05
581.0,-0.005766161,-0.002073569,0.003201279,0.005265712,0.001564249,4.1151e-05,-2.918e-06,-4.4889e-05
582.0,-0.00581616,-0.002073569,0.003201279,0.005315712,0.001564249,4.1151e-05,-2.918e-06,-4.4889e-05
583.0,-0.00581616,-0.002073569,0.003201279,0.005315712,0.001564249,4.1151e-05,-2.918e-06,-4.4889e-05
584.0,-0.00581616,-0.002073569,0.003201279,0.005315712,0.001564249,4.1151e-05,-2.918e-06,-4.4889e-05
585.0,-0.00581616,-0.002073569,0.003201279,0.005315712,0.001564249,4.1151e-05,-2.918e-06,-4.4889e-05
586.0,-0.00581616,-0.002073569,0.003201279,0.005315712,0.001564249,4.1151e-05,-2.918e-06,-4.4889e-05
587.0,-0.00581616,-0.002073569,0.003201279,0.005315712,0.001564249,4.1151e-05,-2.918e-06,-4.4889e-05
588.0,-0.00581616,-0.002073569,0.003201279,0.005315712,0.001564249,4.1151e-05,-2.918e-06,-4.4889e-05
589.0,-0.00586616,-0.002023569,0.003201279,0.005315712,0.001564249,4.1151e-05,-2.918e-06,-4.4889e-05
590.0,-0.00586616,-0.002023569,0.003201279,0.005315712,0.001564249,4.1151e-05,-2.918e-06,-4.4889e-05
591.0,-0.00586616,-0.002023569,0.003201279,0.005315712,0.001564249,4.1151e-05,-2.918e-06,-4.4889e-05
592.0,-0.00586616,-0.002023569,0.003201279,0.005315712,0.001564249,4.1151e-05,-2.918e-06,-4.4889e-05
593.0,-0.00586616,-0.002023569,0.003201279,0.005315712,0.001564249,9.1151e-05,-2.918e-06,-9.4889e-05
594.0,-0.00586616,-0.002023569,0.003201279,0.005315712,0.001564249,4.1151e-05,-2.918e-06,-4.4889e-05
595.0,-0.00586616,-0.002023569,0.003201279,0.005315712,0.001564249,4.1151e-05,-2.918e-06,-4.4889e-05
596.0,-0.00586616,-0.002023569,0.003201279,0.005315712,0.001564249,4.1151e-05,-2.918e-06,-4.4889e-05
597.0,-0.00586616,-0.002023569,0.003201279,0.005315712,0.001564249,4.1151e-05,-2.918e-06,-4.4889e-05
598.0,-0.00586616,-0.002023569,0.003201279,0.005315712,0.001564249,4.1151e-05,-2.918e-06,-4.4889e-05
599.0,-0.00586616,-0.002023569,0.003201279,0.005315712,0.001564249,4.1151e-05,-2.918e-06,-4.4889e-05
600.0,-0.00586616,-0.002023569,0.003201279,0.005315712,0.001564249,4.1151e-05,-2.918e-06,-4.4889e-05
601.0,-0.00586616,-0.002023569,0.003201279,0.005315712,0.001564249,4.1151e-05,-2.918e-06,-4.4889e-05
602.0,-0.00586616,-0.002023569,0.003201279,0.005315712,0.001564249,4.1151e-05,-2.918e-06,-4.4889e-05
603.0,-0.00586616,-0.002023569,0.003201279,0.005315712,0.001564249,4.1151e-05,-2.918e-06,-4.4889e-05
604.0,-0.00586616,-0.002023569,0.003201279,0.005315712,0.001564249,4.1151e-05,-2.918e-06,-4.4889e-05
605.0,-0.00586616,-0.002023569,0.003201279,0.005315712,0.001564249,-8.848e-06,-2.918e-06,5.11e-06
606.0,-0.00586616,-0.002023569,0.003201279,0.005315712,0.001564249,-8.848e-06,-2.918e-06,5.11e-06
607.0,-0.00586616,-0.002023569,0.003201279,0.005315712,0.001564249,-8.848e-06,-2.918e-06,5.11e-06
608.0,-0.00586616,-0.002023569,0.003201279,0.005315712,0.001564249,-8.848e-06,-2.918e-06,5.11e-06
609.0,-0.00586616,-0.002023569,0.003201279,0.005315712,0.001564249,-8.848e-06,-2.918e-06,5.11e-06
610.0,-0.00586616,-0.002023569,0.003201279,0.005315712,0.001564249,4.1151e-05,-2.918e-06,-4.4889e-05
611.0,-0.00586616,-0.002023569,0.003201279,0.005315712,0.001564249,4.1151e-05,-2.918e-06,-4.4889e-05
612.0,-0.00586616,-0.002023569,0.003201279,0.005315712,0.001564249,4.1151e-05,-2.918e-06,-4.4889e-05
613.0,-0.00586616,-0.002023569,0.003201279,0.005315712,0.001564249,4.1151e-05,-2.918e-06,-4.4889e-05
614.0,-0.00586616,-0.002023569,0.003201279,0.005315712,0.001564249,4.1151e-05,-2.918e-06,-4.4889e-05
615.0,-0.00586616,-0.002023569,0.003201279,0.005315712,0.001564249,4.1151e-05,-2.918e-06,-4.4889e-05
616.0,-0.00586616,-0.002023569,0.003201279,0.005315712,0.001564249,4.1151e-05,-2.918e-06,-4.4889e-05
617.0,-0.00586616,-0.002023569,0.003201279,0.005315712,0.001564249,9.1151e-05,-2.918e-06,-9.4889e-05
618.0,-0.00586616,-0.002023569,0.003201279,0.005315712,0.001564249,9.1151e-05,-2.918e-06,-9.4889e-05
619.0,-0.00586616,-0.001973569,0.003201279,0.005315712,0.001564249,4.1151e-05,-2.918e-06,-9.4889e-05
620.0,-0.00586616,-0.001973569,0.003201279,0.005315712,0.001564249,9.1151e-05,-5.2918e-05,-9.4889e-05
621.0,-0.00586616,-0.001973569,0.003201279,0.005315712,0.001564249,9.1151e-05,-5.2918e-05,-9.4889e-05
622.0,-0.005864536,-0.001973569,0.003201279,0.005315712,0.001564249,8.9527e-05,-5.2918e-05,-9.4889e-05
623.0,-0.005864536,-0.001973569,0.003201279,0.005315712,0.001564249,8.9527e-05,-5.2918e-05,-9.4889e-05
624.0,-0.005864536,-0.001973569,0.003201279,0.005315712,0.001564249,8.9527e-05,-5.2918e-05,-9.4889e-05
625.0,-0.005864536,-0.001973569,0.003201279,0.005315712,0.001564249,8.9527e-05,-5.2918e-05,-9.4889e-05
626.0,-0.005864536,-0.001973569,0.003201279,0.005315712,0.001564249,3.9527e-05,-5.2918e-05,-4.4889e-05
627.0,-0.005864536,-0.001973569,0.003201279,0.005315712,0.001564249,3.9527e-05,-2.918e-06,-9.4889e-05
628.0,-0.005864536,-0.002023569,0.003201279,0.005315712,0.001564249,3.9527e-05,-2.918e-06,-4.4889e-05
629.0,-0.005864536,-0.002023569,0.003201279,0.005315712,0.001564249,3.9527e-05,-2.918e-06,-4.4889e-05
630.0,-0.005864536,-0.002023569,0.003201279,0.005315712,0.001564249,3.9527e-05,-2.918e-06,-4.4889e-05
631.0,-0.005864536,-0.002023569,0.003201279,0.005315712,0.001564249,3.9527e-05,-2.918e-06,-4.4889e-05
632.0,-0.005864536,-0.002023569,0.003201279,0.005315712,0.001564249,3.9527e-05,-2.918e-06,-4.4889e-05
633.0,-0.005864536,-0.002023569,0.003201279,0.005315712,0.001564249,3.9527e-05,-2.918e-06,-4.4889e-05
634.0,-0.005864536,-0.002023569,0.003201279,0.005315712,0.001564249,3.9527e-05,-2.918e-06,-4.4889e-05
635.0,-0.005864536,-0.002023569,0.003201279,0.005315712,0.001564249,3.9527e-05,-2.918e-06,-4.4889e-05
636.0,-0.005864536,-0.002023569,0.003201279,0.005315712,0.001564249,3.9527e-05,-2.918e-06,-4.4889e-05
637.0,-0.005864536,-0.002023569,0.003201279,0.005315712,0.001564249,3.9527e-05,-2.918e-06,-4.4889e-05
638.0,-0.005864536,-0.002023569,0.003201279,0.005315712,0.001564249,3.9527e-05,-2.918e-06,-4.4889e-05
639.0,-0.005864536,-0.002023569,0.003201279,0.005315712,0.001564249,3.9527e-05,-2.918e-06,-4.4889e-05
640.0,-0.005864536,-0.002023569,0.003201279,0.005315712,0.001564249,3.9527e-05,-2.918e-06,-4.4889e-05
641.0,-0.005864536,-0.002023569,0.003201279,0.005315712,0.001564249,3.9527e-05,-2.918e-06,-4.4889e-05
642.0,-0.005864536,-0.002023569,0.003201284,0.005315712,0.001564249,3.9527e-05,-2.923e-06,-4.4889e-05
643.0,-0.005864536,-0.002023569,0.003201284,0.005315712,0.001564249,3.9527e-05,4.7076e-05,-9.4889e-05
644.0,-0.005864536,-0.002023569,0.003201284,0.005315712,0.001564249,3.9527e-05,4.7076e-05,-9.4889e-05
645.0,-0.005864536,-0.002023569,0.003251284,0.005315712,0.001564249,3.9527e-05,-2.923e-06,-9.4889e-05
646.0,-0.005814536,-0.002023569,0.003251284,0.005315712,0.001564249,3.9527e-05,-5.2923e-05,-9.4889e-05
647.0,-0.005814536,-0.002023569,0.003251284,0.005315712,0.001564249,3.9527e-05,-5.2923e-05,-9.4889e-05
648.0,-0.005864536,-0.002023569,0.003251284,0.005315712,0.001564249,3.9527e-05,-2.923e-06,-9.4889e-05
649.0,-0.005864536,-0.002023569,0.003251284,0.005315712,0.001564249,3.9527e-05,-2.923e-06,-9.4889e-05
650.0,-0.005864536,-0.002023569,0.003251284,0.005315712,0.001564249,3.9527e-05,-2.923e-06,-9.4889e-05
651.0,-0.005864536,-0.002023569,0.003251284,0.005315712,0.001564249,3.9527e-05,-2.923e-06,-9.4889e-05
652.0,-0.005864536,-0.002023569,0.003251284,0.005315712,0.001564249,3.9527e-05,-2.923e-06,-9.4889e-05
653.0,-0.005864536,-0.002023569,0.003251284,0.005315712,0.001564249,3.9527e-05,-2.923e-06,-9.4889e-05
654.0,-0.005864536,-0.002023569,0.003251284,0.005315712,0.001564249,3.9527e-05,-2.923e-06,-9.4889e-05
655.0,-0.005864536,-0.002023569,0.003251284,0.005315712,0.001564249,3.9527e-05,-2.923e-06,-9.4889e-05
656.0,-0.005864536,-0.002023569,0.003251284,0.005315712,0.001564249,3.9527e-05,-2.923e-06,-9.4889e-05
657.0,-0.005864536,-0.002023569,0.003251284,0.005315712,0.001564249,3.9527e-05,-2.923e-06,-9.4889e-05
658.0,-0.005864536,-0.002023569,0.003251284,0.005315712,0.001564249,3.9527e-05,-2.923e-06,-9.4889e-05
659.0,-0.005864536,-0.002023569,0.003251284,0.005315712,0.001564249,3.9527e-05,-2.923e-06,-9.4889e-05
660.0,-0.005864536,-0.002023569,0.003201284,0.005315712,0.001614249,3.9527e-05,-2.923e-06,-9.4889e-05
661.0,-0.005864536,-0.002023569,0.003201284,0.005315712,0.001614249,3.9527e-05,-2.923e-06,-9.4889e-05
662.0,-0.005864536,-0.002023569,0.003201284,0.005315712,0.001614249,-1.0472e-05,-2.923e-06,-4.4889e-05
663.0,-0.005864536,-0.002023569,0.003201284,0.005315712,0.001614249,-1.0472e-05,-2.923e-06,-4.4889e-05
664.0,-0.005864536,-0.002023569,0.003251284,0.005315712,0.001564249,-1.0472e-05,-2.923e-06,-4.4889e-05
665.0,-0.005864536,-0.002023569,0.003251284,0.005315712,0.001564249,-1.0472e-05,-2.923e-06,-4.4889e-05
666.0,-0.005864536,-0.002023569,0.003251284,0.005315712,0.001564249,3.9527e-05,-2.923e-06,-9.4889e-05
667.0,-0.005864536,-0.002023569,0.003251284,0.005315712,0.001564249,3.9527e-05,-2.923e-06,-9.4889e-05
668.0,-0.005864536,-0.002023569,0.003251284,0.005315712,0.001564249,3.9527e-05,-2.923e-06,-9.4889e-05
669.0,-0.005864536,-0.002023569,0.003251284,0.005315712,0.001564249,3.9527e-05,-2.923e-06,-9.4889e-05
670.0,-0.005864536,-0.002023569,0.003251284,0.005315712,0.001564249,3.9527e-05,-2.923e-06,-9.4889e-05
671.0,-0.005864536,-0.002023569,0.003251284,0.005315712,0.001564249,3.9527e-05,-2.923e-06,-9.4889e-05
672.0,-0.005864536,-0.002023569,0.003251284,0.005315712,0.001564249,3.9527e-05,-2.923e-06,-9.4889e-05
673.0,-0.005864536,-0.002023569,0.003251284,0.005315712,0.001564249,3.9527e-05,-2.923e-06,-9.4889e-05
674.0,-0.005864536,-0.002023569,0.003251284,0.005315712,0.001564249,3.9527e-05,-2.923e-06,-9.4889e-05
675.0,-0.005864536,-0.002023569,0.003251284,0.005315712,0.001564249,3.9527e-05,-2.923e-06,-9.4889e-05
676.0,-0.005864536,-0.002023569,0.003251284,0.005315712,0.001564249,3.9527e-05,-2.923e-06,-9.4889e-05
677.0,-0.005864536,-0.002023569,0.003251284,0.005315712,0.001564249,3.9527e-05,-2.923e-06,-9.4889e-05
678.0,-0.005864536,-0.002023569,0.003251284,0.005315712,0.001564249,3.9527e-05,-2.923e-06,-9.4889e-05
679.0,-0.005864536,-0.002023569,0.003251284,0.005315712,0.001564249,3.9527e-05,-2.923e-06,-9.4889e-05
680.0,-0.005864536,-0.002023569,0.003251284,0.005315712,0.001564249,3.9527e-05,-2.923e-06,-9.4889e-05
681.0,-0.005864536,-0.002023569,0.003251284,0.005315712,0.001564249,3.9527e-05,-2.923e-06,-9.4889e-05
682.0,-0.005864536,-0.002023569,0.003251284,0.005315712,0.001564249,3.9527e-05,-2.923e-06,-9.4889e-05
683.0,-0.005864536,-0.002023569,0.003251284,0.005315712,0.001564249,3.9527e-05,-2.923e-06,-9.4889e-05
684.0,-0.005864536,-0.002023569,0.003251284,0.005315712,0.001564249,3.9527e-05,-2.923e-06,-9.4889e-05
685.0,-0.005864536,-0.002023569,0.003251284,0.005315712,0.001564249,3.9527e-05,-2.923e-06,-9.4889e-05
686.0,-0.005864536,-0.001973569,0.003201284,0.005315712,0.001564249,3.9527e-05,-2.923e-06,-9.4889e-05
687.0,-0.005864536,-0.001973569,0.003201284,0.005315712,0.001564249,3.9527e-05,-2.923e-06,-9.4889e-05
688.0,-0.005864536,-0.001973569,0.003201284,0.005315712,0.001564249,3.9527e-05,-2.923e-06,-9.4889e-05
689.0,-0.005864536,-0.001973569,0.003201284,0.005315712,0.001564249,3.9527e-05,-2.923e-06,-9.4889e-05
690.0,-0.005864536,-0.001973569,0.003201284,0.005315712,0.001564249,3.9527e-05,-2.923e-06,-9.4889e-05
691.0,-0.005864536,-0.001973569,0.003251284,0.005315712,0.001514249,3.9527e-05,-2.923e-06,-9.4889e-05
692.0,-0.005864536,-0.001973569,0.003251284,0.005315712,0.001514249,3.9527e-05,-2.923e-06,-9.4889e-05
693.0,-0.005864536,-0.001973569,0.003251284,0.005315712,0.001514249,3.9527e-05,-2.923e-06,-9.4889e-05
694.0,-0.005864536,-0.001973569,0.003251284,0.005315712,0.001514249,3.9527e-05,-2.923e-06,-9.4889e-05
695.0,-0.005864536,-0.001973569,0.003251284,0.005315712,0.001514249,3.9527e-05,-2.923e-06,-9.4889e-05
696.0,-0.005864536,-0.001973569,0.003251284,0.005315712,0.001514249,3.9527e-05,-2.923e-06,-9.4889e-05
697.0,-0.005864536,-0.001973569,0.003251284,0.005315712,0.001514249,3.9527e-05,-2.923e-06,-9.4889e-05
698.0,-0.005864536,-0.001973569,0.003251284,0.005315712,0.001514249,3.9527e-05,-2.923e-06,-9.4889e-05
699.0,-0.005864536,-0.001973569,0.003201284,0.005315712,0.001564249,3.9527e-05,-2.923e-06,-9.4889e-05
700.0,-0.005864536,-0.001973569,0.003201284,0.005315712,0.001564249,3.9527e-05,-2.923e-06,-9.4889e-05
701.0,-0.005864536,-0.001973569,0.003201284,0.005315712,0.001564249,3.9527e-05,-2.923e-06,-9.4889e-05
