0.0,-0.002772057,-0.001161659,0.01033222,-0.002655586,0.002996035,0.001,0.0,0.0
1.0,-0.002772057,-0.001161659,0.01033222,-0.001655586,0.002996035,0.0,0.0,0.0
2.0,-0.002772057,-0.001161659,0.01033222,-0.002655586,0.002996035,0.0,0.001,0.0
3.0,-0.002772057,-0.001161659,0.01033222,-0.002655586,0.002996035,0.0,0.001,0.0
4.0,-0.002772057,-0.001161659,0.01033222,-0.002655586,0.002996035,0.0,0.001,0.0
5.0,-0.002772057,-0.001161659,0.01033222,-0.002655586,0.002996035,0.0,0.001,0.0
6.0,-0.002772057,-0.001161659,0.01033222,-0.002655586,0.002996035,0.0,0.0,0.001
7.0,-0.002772057,-0.001161659,0.01033222,-0.002655586,0.002996035,0.0,0.001,0.0
8.0,-0.002772057,-0.001161659,0.01033222,-0.002655586,0.003996036,0.0,0.0,0.0
9.0,-0.002772057,-0.001161659,0.01033222,-0.002655586,0.003996036,0.0,-0.001,0.001
10.0,-0.002772057,-0.001161659,0.01033222,-0.001655586,0.002996035,0.0,-0.001,0.001
11.0,-0.002772057,-0.001161659,0.01033222,-0.001655586,0.002996035,0.001,-0.001,0.0
12.0,-0.002772057,-0.001161659,0.01033222,-0.001655586,0.002996035,0.0,-0.001,0.001
13.0,-0.001772057,-0.001161659,0.01033222,-0.001655586,0.002996035,0.0,-0.001,0.0
14.0,-0.001772057,-0.001161659,0.01033222,-0.002655586,0.003996036,0.0,-0.001,0.0
15.0,-0.002772057,-0.000161659,0.01033222,-0.002655586,0.003996036,0.0,-0.001,0.0
16.0,-0.002772057,-0.000161659,0.01033222,-0.002655586,0.003996036,-0.001,-0.001,0.001
17.0,-0.002772057,-0.000161659,0.01033222,-0.002655586,0.003996036,0.0,-0.001,0.0
18.0,-0.002772057,-0.000161659,0.01033222,-0.001655586,0.002996035,0.0,-0.001,0.0
19.0,-0.002772057,-0.000161659,0.01033222,-0.002655586,0.003996036,0.0,-0.001,0.0
20.0,-0.002772057,-0.000161659,0.01033222,-0.002655586,0.003996036,0.0,-0.001,0.0
21.0,-0.002772057,-0.000161659,0.01033222,-0.002655586,0.002996035,0.0,-0.001,0.001
22.0,-0.002772057,-0.000161659,0.01033222,-0.002655586,0.002996035,0.0,0.0,0.0
23.0,-0.002772057,-0.000161659,0.01033222,-0.002655586,0.002996035,0.0,-0.001,0.001
24.0,-0.001772057,-0.000161659,0.01033222,-0.002655586,0.002996035,0.0,-0.001,0.0
25.0,-0.002772057,-0.000161659,0.01033222,-0.001655586,0.002996035,0.0,-0.001,0.0
26.0,-0.002772057,-0.000161659,0.01033222,-0.001655586,0.002996035,0.0,-0.001,0.0
27.0,-0.002772057,-0.000161659,0.01033222,-0.001655586,0.002996035,-0.001,0.0,0.0
28.0,-0.003772057,-0.000161659,0.01033222,-0.001655586,0.002996035,0.0,0.0,0.0
29.0,-0.003772057,-0.000161659,0.01033222,-0.001655586,0.002996035,0.001,-0.001,0.0
30.0,-0.003772057,-0.000161659,0.01033222,-0.001655586,0.002996035,0.0,-0.001,0.001
31.0,-0.002772057,-0.000161659,0.01033222,-0.001655586,0.002996035,0.0,-0.001,0.0
32.0,-0.002772057,-0.000161659,0.01033222,-0.001655586,0.002996035,-0.001,0.0,0.0
33.0,-0.003772057,-0.000161659,0.01033222,-0.001655586,0.002996035,-0.001,0.0,0.001
34.0,-0.003772057,0.00083834,0.01033222,-0.001655586,0.002996035,-0.001,-0.001,0.001
35.0,-0.002772057,0.00083834,0.01033222,-0.001655586,0.002996035,-0.001,-0.001,0.0
36.0,-0.003772057,0.00083834,0.01033222,-0.001655586,0.002996035,-0.001,0.0,0.0
37.0,-0.003772057,0.00083834,0.01033222,-0.001655586,0.002996035,0.0,-0.001,0.0
38.0,-0.003772057,0.00083834,0.01033222,-0.001655586,0.002996035,-0.001,0.0,0.0
39.0,-0.003772057,0.00083834,0.01033222,-0.001655586,0.002996035,-0.001,0.0,0.0
40.0,-0.003772057,0.00083834,0.01033222,-0.001655586,0.002996035,0.0,-0.001,0.0
41.0,-0.003772057,-0.000161659,0.01033222,-0.001655586,0.002996035,0.001,-0.001,0.0
42.0,-0.002772057,-0.000161659,0.01033222,-0.001655586,0.002996035,0.001,-0.002,0.0
43.0,-0.002772057,-0.000161659,0.01033222,-0.001655586,0.003996036,0.001,-0.002,-0.001
44.0,-0.002772057,-0.000161659,0.01033222,-0.001655586,0.003996036,0.001,-0.002,-0.001
45.0,-0.002772057,0.00083834,0.01033222,-0.002655586,0.003996036,0.001,-0.002,-0.001
46.0,-0.002772057,0.00083834,0.01033222,-0.002655586,0.003996036,0.0,-0.001,-0.001
47.0,-0.002772057,-0.000161659,0.01033222,-0.001655586,0.003996036,0.0,-0.001,-0.001
48.0,-0.002772057,-0.000161659,0.01033222,-0.001655586,0.003996036,0.0,-0.001,-0.001
49.0,-0.002772057,-0.000161659,0.01033222,-0.001655586,0.003996036,0.001,-0.002,-0.001
50.0,-0.002772057,-0.000161659,0.01133222,-0.001655586,0.002996035,0.001,-0.002,-0.001
51.0,-0.002772057,-0.000161659,0.01033222,-0.001655586,0.002996035,0.001,-0.002,0.0
52.0,-0.002772057,-0.000161659,0.01033222,-0.001655586,0.002996035,0.001,-0.002,0.0
53.0,-0.002772057,-0.000161659,0.01033222,-0.001655586,0.002996035,0.001,-0.002,0.0
54.0,-0.002772057,-0.000161659,0.01033222,-0.001655586,0.002996035,0.001,-0.002,0.0
55.0,-0.002772057,-0.000161659,0.01033222,-0.001655586,0.002996035,0.001,-0.002,0.0
56.0,-0.002772057,-0.000161659,0.01033222,-0.001655586,0.002996035,0.0,-0.001,0.0
57.0,-0.002772057,-0.000161659,0.01033222,-0.001655586,0.002996035,0.001,-0.001,-0.001
58.0,-0.002772057,-0.000161659,0.01033222,-0.001655586,0.002996035,0.001,-0.001,-0.001
59.0,-0.003772057,-0.000161659,0.01033222,-0.001655586,0.002996035,0.001,-0.001,0.0
60.0,-0.003772057,-0.000161659,0.01033222,-0.001655586,0.002996035,0.001,-0.001,0.0
61.0,-0.003772057,-0.000161659,0.01033222,-0.001655586,0.002996035,0.001,-0.001,0.0
62.0,-0.003772057,-0.000161659,0.01033222,-0.001655586,0.002996035,0.001,-0.001,0.0
63.0,-0.003772057,-0.000161659,0.01133222,-0.001655586,0.002996035,0.0,-0.001,0.0
64.0,-0.003772057,-0.000161659,0.01133222,-0.002655586,0.003996036,0.0,-0.001,0.0
65.0,-0.002772057,-0.000161659,0.01133222,-0.002655586,0.003996036,0.0,-0.001,-0.001
66.0,-0.003772057,-0.000161659,0.01133222,-0.002655586,0.003996036,0.001,-0.001,-0.001
67.0,-0.003772057,-0.000161659,0.012332221,-0.002655586,0.003996036,0.0,-0.001,-0.001
68.0,-0.003772057,-0.000161659,0.01133222,-0.002655586,0.003996036,0.0,-0.001,0.0
69.0,-0.003772057,-0.000161659,0.01133222,-0.002655586,0.003996036,-0.001,0.0,0.0
70.0,-0.003772057,-0.000161659,0.012332221,-0.002655586,0.003996036,-0.001,0.0,-0.001
71.0,-0.003772057,-0.000161659,0.012332221,-0.002655586,0.003996036,-0.001,0.0,-0.001
72.0,-0.003772057,0.00083834,0.012332221,-0.002655586,0.003996036,-0.001,-0.001,-0.001
73.0,-0.003772057,0.00083834,0.012332221,-0.002655586,0.003996036,-0.001,-0.001,-0.001
74.0,-0.003772057,0.00083834,0.012332221,-0.002655586,0.003996036,-0.001,-0.001,-0.001
75.0,-0.003772057,-0.000161659,0.013332221,-0.002655586,0.003996036,-0.001,-0.001,-0.001
76.0,-0.003772057,-0.000161659,0.013332221,-0.001655586,0.002996035,-0.001,-0.001,-0.001
77.0,-0.003772057,-0.000161659,0.013332221,-0.001655586,0.002996035,-0.001,-0.001,-0.001
78.0,-0.003772057,-0.000161659,0.013332221,-0.001655586,0.002996035,-0.001,-0.001,-0.001
79.0,-0.003772057,-0.000161659,0.013332221,-0.001655586,0.002996035,-0.001,-0.001,-0.001
80.0,-0.003772057,-0.000161659,0.013332221,-0.001655586,0.002996035,-0.001,-0.001,-0.001
81.0,-0.003772057,-0.001161659,0.013332221,-0.001655586,0.002996035,0.0,-0.001,-0.001
82.0,-0.003772057,-0.001161659,0.013332221,-0.001655586,0.002996035,0.0,-0.001,-0.001
83.0,-0.003772057,-0.001161659,0.013332221,-0.001655586,0.002996035,0.0,-0.001,-0.001
84.0,-0.003772057,-0.001161659,0.013332221,-0.001655586,0.002996035,0.0,-0.001,-0.001
85.0,-0.003772057,-0.001161659,0.012332221,-0.001655586,0.003996036,0.0,-0.001,-0.001
86.0,-0.003772057,-0.001161659,0.012332221,-0.001655586,0.003996036,0.0,-0.001,-0.001
87.0,-0.003772057,-0.001161659,0.012332221,-0.001655586,0.003996036,-0.001,0.0,-0.001
88.0,-0.003772057,-0.001161659,0.012332221,-0.001655586,0.003996036,-0.001,0.0,-0.001
89.0,-0.002772057,-0.001161659,0.012332221,-0.001655586,0.003996036,-0.001,-0.001,-0.001
90.0,-0.002772057,-0.001161659,0.012332221,-0.001655586,0.003996036,-0.001,-0.001,-0.001
91.0,-0.002772057,-0.001161659,0.012332221,-0.001655586,0.003996036,-0.001,-0.001,-0.001
92.0,-0.002772057,-0.001161659,0.012332221,-0.001655586,0.003996036,-0.001,-0.001,-0.001
93.0,-0.002772057,-0.001161659,0.012332221,-0.001655586,0.003996036,0.0,-0.002,-0.001
94.0,-0.002772057,-0.001161659,0.012332221,-0.001655586,0.003996036,0.0,-0.002,-0.001
95.0,-0.003772057,-0.001161659,0.012332221,-0.001655586,0.003996036,0.001,-0.002,-0.001
96.0,-0.003772057,-0.001161659,0.012332221,-0.001655586,0.003996036,0.0,-0.001,-0.001
97.0,-0.003772057,-0.001161659,0.012332221,-0.001655586,0.003996036,0.0,-0.001,-0.001
98.0,-0.003772057,-0.001161659,0.012332221,-0.001655586,0.003996036,0.001,-0.002,-0.001
99.0,-0.003772057,-0.001161659,0.012332221,-0.001655586,0.003996036,0.001,-0.002,-0.001
100.0,-0.003772057,-0.001161659,0.012332221,-0.001655586,0.003996036,0.001,-0.002,-0.001
101.0,-0.003772057,-0.001161659,0.012332221,-0.001655586,0.003996036,0.0,-0.002,0.0
102.0,-0.003772057,-0.001161659,0.012332221,-0.001655586,0.003996036,0.001,-0.002,-0.001
103.0,-0.003772057,-0.001161659,0.012332221,-0.001655586,0.003996036,0.001,-0.002,-0.001
104.0,-0.003772057,-0.001161659,0.012332221,-0.001655586,0.003996036,0.0,-0.001,-0.001
105.0,-0.003772057,-0.001161659,0.012332221,-0.001655586,0.003996036,0.0,-0.001,-0.001
106.0,-0.003772057,-0.001161659,0.012332221,-0.001655586,0.003996036,0.0,-0.001,-0.001
107.0,-0.003772057,-0.001161659,0.012332221,-0.001655586,0.003996036,0.0,-0.001,-0.001
108.0,-0.003772057,-0.001161659,0.012332221,-0.001655586,0.003996036,0.0,-0.002,0.0
109.0,-0.003772057,-0.001161659,0.012332221,-0.000655586,0.003996036,0.0,-0.002,-0.001
110.0,-0.003772057,-0.001161659,0.012332221,-0.000655586,0.003996036,0.0,-0.002,-0.001
111.0,-0.003772057,-0.001161659,0.013332221,-0.000655586,0.003996036,0.0,-0.002,-0.002
112.0,-0.003772057,-0.001161659,0.013332221,-0.000655586,0.003996036,0.0,-0.002,-0.002
113.0,-0.003772057,-0.001161659,0.013332221,-0.000655586,0.003996036,0.0,-0.002,-0.002
114.0,-0.003772057,-0.001161659,0.013332221,-0.000655586,0.003996036,0.0,-0.002,-0.002
115.0,-0.003772057,-0.001161659,0.013332221,-0.000655586,0.003996036,0.0,-0.002,-0.002
116.0,-0.003772057,-0.001161659,0.013332221,-0.000655586,0.003996036,0.001,-0.002,-0.003
117.0,-0.003772057,-0.001161659,0.013332221,-0.000655586,0.003996036,0.001,-0.002,-0.003
118.0,-0.003772057,-0.001161659,0.013332221,-0.000655586,0.003996036,0.0,-0.001,-0.003
119.0,-0.003772057,-0.000161659,0.013332221,-0.001655586,0.003996036,0.0,-0.001,-0.003
120.0,-0.003772057,-0.000161659,0.013332221,-0.001655586,0.003996036,0.0,-0.001,-0.003
121.0,-0.003772057,-0.000161659,0.013332221,-0.001655586,0.003996036,0.0,-0.001,-0.003
122.0,-0.003772057,-0.000161659,0.013332221,-0.001655586,0.003996036,0.0,-0.001,-0.003
123.0,-0.003772057,-0.000161659,0.013332221,-0.001655586,0.003996036,0.001,-0.002,-0.003
124.0,-0.003772057,-0.000161659,0.013332221,-0.001655586,0.003996036,0.0,-0.001,-0.003
125.0,-0.003772057,-0.000161659,0.013332221,-0.001655586,0.003996036,0.0,-0.001,-0.003
126.0,-0.003772057,-0.000161659,0.013332221,-0.001655586,0.003996036,0.0,-0.001,-0.003
127.0,-0.003772057,-0.000161659,0.013332221,-0.001655586,0.003996036,0.0,-0.001,-0.003
128.0,-0.003772057,-0.000161659,0.012332221,-0.001655586,0.003996036,0.0,-0.001,-0.001999999
129.0,-0.003772057,-0.000161659,0.012332221,-0.001655586,0.003996036,0.0,-0.001,-0.001999999
130.0,-0.003772057,-0.000161659,0.012332221,-0.001655586,0.003996036,0.0,-0.001,-0.001999999
131.0,-0.003772057,-0.000161659,0.012332221,-0.001655586,0.003996036,0.0,-0.001,-0.001999999
132.0,-0.003772057,-0.000161659,0.012332221,-0.001655586,0.003996036,0.0,-0.001,-0.001999999
133.0,-0.003772057,-0.000161659,0.012332221,-0.001655586,0.003996036,0.0,-0.001,-0.001999999
134.0,-0.003772057,-0.000161659,0.012332221,-0.001655586,0.003996036,0.0,-0.001,-0.001999999
135.0,-0.003772057,-0.000161659,0.012332221,-0.001655586,0.003996036,0.0,-0.001,-0.001999999
136.0,-0.003772057,-0.001161659,0.012332221,-0.001655586,0.003996036,0.0,0.0,-0.001999999
137.0,-0.003772057,-0.001161659,0.012332221,-0.001655586,0.003996036,0.0,0.0,-0.001999999
138.0,-0.002772057,-0.001161659,0.012332221,-0.001655586,0.003996036,0.0,-0.001,-0.001999999
139.0,-0.002772057,-0.001161659,0.012332221,-0.001655586,0.003996036,0.0,-0.001,-0.001999999
140.0,-0.003772057,-0.001161659,0.012332221,-0.001655586,0.003996036,0.0,-0.001,-0.000999999
141.0,-0.003772057,-0.001161659,0.012332221,-0.001655586,0.003996036,0.0,-0.001,-0.000999999
142.0,-0.003772057,-0.001161659,0.012332221,-0.001655586,0.003996036,0.0,-0.001,-0.000999999
143.0,-0.003772057,-0.001161659,0.012332221,-0.001655586,0.003996036,0.0,0.0,-0.001999999
144.0,-0.003772057,-0.001161659,0.012332221,-0.001655586,0.003996036,0.001,-0.001,-0.001999999
145.0,-0.003772057,-0.001161659,0.012332221,-0.001655586,0.003996036,0.001,-0.001,-0.001999999
146.0,-0.003772057,-0.001161659,0.012332221,-0.001655586,0.003996036,0.001,-0.001,-0.001999999
147.0,-0.003772057,-0.001161659,0.012332221,-0.001655586,0.003996036,0.001,-0.001,-0.001999999
148.0,-0.003772057,-0.001161659,0.012332221,-0.001655586,0.003996036,0.001,-0.001,-0.001999999
149.0,-0.003772057,-0.001161659,0.012332221,-0.001655586,0.003996036,0.001,-0.001,-0.001999999
150.0,-0.003772057,-0.001161659,0.012332221,-0.001655586,0.003996036,0.002,-0.002,-0.001999999
151.0,-0.003772057,-0.001161659,0.012332221,-0.001655586,0.003996036,0.001,-0.002,-0.000999999
152.0,-0.003772057,-0.001161659,0.013332221,-0.001655586,0.003996036,0.0,-0.002,-0.000999999
153.0,-0.003772057,-0.001161659,0.013332221,-0.001655586,0.003996036,0.0,-0.002,-0.000999999
154.0,-0.003772057,-0.001161659,0.013332221,-0.001655586,0.003996036,0.0,-0.002,-0.000999999
155.0,-0.002772057,-0.001161659,0.013332221,-0.001655586,0.003996036,0.0,-0.002,-0.001999999
156.0,-0.002772057,-0.001161659,0.013332221,-0.001655586,0.003996036,0.0,-0.002,-0.001999999
157.0,-0.002772057,-0.001161659,0.013332221,-0.001655586,0.003996036,0.0,-0.002,-0.001999999
158.0,-0.003772057,-0.001161659,0.013332221,-0.001655586,0.003996036,0.0,-0.001,-0.001999999
159.0,-0.003772057,-0.001161659,0.013332221,-0.001655586,0.003996036,0.0,-0.001,-0.001999999
160.0,-0.003772057,-0.001161659,0.013332221,-0.001655586,0.003996036,0.0,-0.001,-0.001999999
161.0,-0.003772057,-0.001161659,0.013332221,-0.001655586,0.003996036,0.0,-0.001,-0.001999999
162.0,-0.003772057,-0.001161659,0.013332221,-0.001655586,0.003996036,0.0,-0.001,-0.001999999
163.0,-0.003772057,-0.001161659,0.013332221,-0.001655586,0.003996036,0.001,-0.002,-0.001999999
164.0,-0.003772057,-0.001161659,0.013332221,-0.001655586,0.003996036,0.0,-0.001,-0.001999999
165.0,-0.003772057,-0.001161659,0.013332221,-0.001655586,0.003996036,0.0,-0.001,-0.001999999
166.0,-0.003772057,-0.001161659,0.013332221,-0.001655586,0.003996036,0.0,-0.001,-0.001999999
167.0,-0.003772057,-0.001161659,0.013332221,-0.001655586,0.003996036,0.0,-0.001,-0.001999999
168.0,-0.003772057,-0.001161659,0.013332221,-0.001655586,0.003996036,0.0,-0.001,-0.001999999
169.0,-0.003772057,-0.001161659,0.013332221,-0.001655586,0.003996036,0.0,-0.002,-0.000999999
170.0,-0.003772057,-0.001161659,0.013332221,-0.001655586,0.003996036,0.0,-0.002,-0.000999999
171.0,-0.003772057,-0.001161659,0.013332221,-0.001655586,0.003996036,0.0,-0.001,-0.001999999
172.0,-0.003772057,-0.001161659,0.013332221,-0.001655586,0.003996036,0.0,-0.001,-0.001999999
173.0,-0.003772057,-0.001161659,0.013332221,-0.001655586,0.003996036,0.0,-0.001,-0.001999999
174.0,-0.003772057,-0.001161659,0.014332221,-0.002655586,0.003996036,0.0,-0.001,-0.001999999
175.0,-0.003772057,-0.001161659,0.014332221,-0.002655586,0.003996036,0.0,-0.001,-0.001999999
176.0,-0.003772057,-0.001161659,0.014332221,-0.002655586,0.003996036,0.0,-0.001,-0.001999999
177.0,-0.003772057,-0.001161659,0.014332221,-0.002655586,0.003996036,0.0,-0.001,-0.001999999
178.0,-0.003772057,-0.001161659,0.013332221,-0.001655586,0.003996036,0.0,-0.001,-0.001999999
179.0,-0.002772057,-0.001161659,0.013332221,-0.001655586,0.003996036,0.0,-0.001,-0.003
180.0,-0.002772057,-0.001161659,0.013332221,-0.001655586,0.003996036,0.0,-0.001,-0.003
181.0,-0.002772057,-0.001161659,0.013332221,-0.001655586,0.003996036,0.0,-0.001,-0.003
182.0,-0.002772057,-0.001161659,0.013332221,-0.001655586,0.003996036,0.0,-0.001,-0.003
183.0,-0.002772057,-0.001161659,0.013332221,-0.001655586,0.003996036,0.0,-0.001,-0.003
184.0,-0.002772057,-0.001161659,0.013332221,-0.001655586,0.003996036,0.0,-0.001,-0.003
185.0,-0.002772057,-0.001161659,0.013332221,-0.001655586,0.003996036,0.0,-0.001,-0.003
186.0,-0.002772057,-0.001161659,0.013332221,-0.001655586,0.003996036,0.0,-0.001,-0.003
187.0,-0.002772057,-0.001161659,0.013332221,-0.001655586,0.003996036,0.001,-0.002,-0.003
188.0,-0.002772057,-0.001161659,0.013332221,-0.001655586,0.003996036,0.001,-0.002,-0.003
189.0,-0.002772057,-0.001161659,0.013332221,-0.001655586,0.003996036,0.001,-0.002,-0.003
190.0,-0.002772057,-0.001161659,0.013332221,-0.001655586,0.003996036,0.001,-0.002,-0.003
191.0,-0.002772057,-0.001161659,0.013332221,-0.001655586,0.003996036,0.001,-0.002,-0.003
192.0,-0.002772057,-0.001161659,0.013332221,-0.001655586,0.003996036,0.001,-0.002,-0.003
193.0,-0.002772057,-0.001161659,0.013332221,-0.001655586,0.003996036,0.0,-0.001,-0.003
194.0,-0.002772057,-0.001161659,0.013332221,-0.001655586,0.003996036,0.0,-0.002,-0.001999999
195.0,-0.002772057,-0.001161659,0.013332221,-0.001655586,0.003996036,0.0,-0.002,-0.001999999
196.0,-0.002772057,-0.001161659,0.013332221,-0.001655586,0.003996036,0.0,-0.002,-0.001999999
197.0,-0.002772057,-0.001161659,0.013332221,-0.001655586,0.003996036,0.0,-0.002,-0.001999999
198.0,-0.003772057,-0.001161659,0.013332221,-0.001655586,0.003996036,0.0,-0.002,-0.000999999
199.0,-0.003772057,-0.001161659,0.013332221,-0.001655586,0.003996036,0.0,-0.002,-0.000999999
200.0,-0.003772057,-0.001161659,0.013332221,-0.001655586,0.003996036,0.0,-0.002,-0.000999999
201.0,-0.003772057,-0.001161659,0.013332221,-0.001655586,0.003996036,0.0,-0.002,-0.000999999
202.0,-0.003772057,-0.001161659,0.013332221,-0.001655586,0.003996036,0.0,-0.002,-0.000999999
203.0,-0.003772057,-0.001161659,0.013332221,-0.001655586,0.003996036,0.0,-0.002,-0.000999999
204.0,-0.003772057,-0.001161659,0.013332221,-0.001655586,0.003996036,0.0,-0.002,-0.000999999
205.0,-0.003772057,-0.001161659,0.013332221,-0.001655586,0.003996036,0.0,-0.001,-0.001999999
206.0,-0.003772057,-0.001161659,0.013332221,-0.001655586,0.003996036,0.0,-0.001,-0.001999999
207.0,-0.003772057,-0.001161659,0.013332221,-0.001655586,0.003996036,0.0,-0.001,-0.001999999
208.0,-0.003772057,-0.001161659,0.013332221,-0.001655586,0.003996036,0.0,-0.001,-0.001999999
209.0,-0.003772057,-0.001161659,0.013332221,-0.001655586,0.003996036,0.001,-0.002,-0.001999999
210.0,-0.003772057,-0.001161659,0.013332221,-0.001655586,0.003996036,0.001,-0.002,-0.001999999
211.0,-0.003772057,-0.001161659,0.013332221,-0.001655586,0.003996036,0.002,-0.002,-0.003
212.0,-0.003772057,-0.001161659,0.013332221,-0.001655586,0.003996036,0.002,-0.002,-0.003
213.0,-0.003772057,-0.001161659,0.013332221,-0.001655586,0.003996036,0.002,-0.002,-0.003
214.0,-0.003772057,-0.001161659,0.013332221,-0.001655586,0.003996036,0.002,-0.002,-0.003
215.0,-0.003772057,-0.001161659,0.013332221,-0.001655586,0.003996036,0.002,-0.002,-0.003
216.0,-0.003772057,-0.001161659,0.013332221,-0.001655586,0.003996036,0.002,-0.002,-0.003
217.0,-0.003772057,-0.001161659,0.013332221,-0.001655586,0.003996036,0.002,-0.002,-0.003
218.0,-0.003772057,-0.001161659,0.013332221,-0.001655586,0.003996036,0.002,-0.002,-0.003
219.0,-0.003772057,-0.001161659,0.013332221,-0.001655586,0.003996036,0.003,-0.002,-0.004
220.0,-0.003772057,-0.001161659,0.013332221,-0.001655586,0.003996036,0.003,-0.002,-0.004
221.0,-0.003772057,-0.001161659,0.013332221,-0.001655586,0.003996036,0.003,-0.002,-0.004
222.0,-0.003772057,-0.001161659,0.013332221,-0.001655586,0.003996036,0.003,-0.002,-0.004
223.0,-0.003772057,-0.001161659,0.013332221,-0.001655586,0.003996036,0.003,-0.002,-0.004
224.0,-0.003772057,-0.001161659,0.013332221,-0.001655586,0.003996036,0.003,-0.002,-0.004
225.0,-0.003772057,-0.001161659,0.013332221,-0.001655586,0.003996036,0.003,-0.002,-0.004
226.0,-0.003772057,-0.001161659,0.013332221,-0.001655586,0.003996036,0.001999999,-0.001,-0.004
227.0,-0.003772057,-0.001161659,0.013332221,-0.001655586,0.003996036,0.001999999,-0.001,-0.004
228.0,-0.003772057,-0.001161659,0.013332221,-0.001655586,0.003996036,0.001999999,-0.001,-0.004
229.0,-0.003772057,-0.000161659,0.013332221,-0.001655586,0.003996036,0.001999999,-0.002,-0.004
230.0,-0.003772057,-0.000161659,0.013332221,-0.001655586,0.003996036,0.001999999,-0.002,-0.004
231.0,-0.003772057,-0.000161659,0.013332221,-0.001655586,0.003996036,0.001999999,-0.002,-0.004
232.0,-0.003772057,-0.000161659,0.013332221,-0.001655586,0.003996036,0.000999999,-0.002,-0.003
233.0,-0.003772057,-0.000161659,0.013332221,-0.001655586,0.003996036,0.000999999,-0.002,-0.003
234.0,-0.003772057,-0.000161659,0.013332221,-0.001655586,0.003996036,0.000999999,-0.002,-0.003
235.0,-0.003772057,-0.000161659,0.013332221,-0.001655586,0.003996036,0.000999999,-0.002,-0.003
236.0,-0.003772057,-0.000161659,0.013332221,-0.001655586,0.003996036,0.000999999,-0.002,-0.003
237.0,-0.003772057,-0.000161659,0.013332221,-0.001655586,0.003996036,0.000999999,-0.002,-0.003
238.0,-0.003772057,-0.000161659,0.012332221,-0.001655586,0.003996036,0.001999999,-0.002,-0.003
239.0,-0.003772057,-0.000161659,0.012332221,-0.001655586,0.003996036,0.003,-0.003,-0.003
240.0,-0.003772057,-0.000161659,0.012332221,-0.001655586,0.003996036,0.003,-0.003,-0.003
241.0,-0.002772057,-0.001161659,0.012332221,-0.001655586,0.003996036,0.003,-0.003,-0.003
242.0,-0.002772057,-0.001161659,0.012332221,-0.001655586,0.003996036,0.003,-0.003,-0.003
243.0,-0.003772057,-0.001161659,0.012332221,-0.001655586,0.003996036,0.003,-0.003,-0.001999999
244.0,-0.003772057,-0.001161659,0.013332221,-0.001655586,0.003996036,0.001999999,-0.003,-0.001999999
245.0,-0.003772057,-0.001161659,0.013332221,-0.001655586,0.003996036,0.001999999,-0.003,-0.001999999
246.0,-0.003772057,-0.001161659,0.013332221,-0.001655586,0.003996036,0.001999999,-0.003,-0.001999999
247.0,-0.003772057,-0.001161659,0.013332221,-0.001655586,0.003996036,0.001999999,-0.003,-0.001999999
248.0,-0.002772057,-0.001161659,0.013332221,-0.001655586,0.003996036,0.001999999,-0.003,-0.003
249.0,-0.002772057,-0.001161659,0.013332221,-0.001655586,0.003996036,0.001999999,-0.003,-0.003
250.0,-0.002772057,-0.001161659,0.013332221,-0.001655586,0.003996036,0.000999999,-0.003,-0.001999999
251.0,-0.002772057,-0.001161659,0.013332221,-0.001655586,0.003996036,0.000999999,-0.003,-0.001999999
252.0,-0.002772057,-0.001161659,0.013332221,-0.001655586,0.003996036,0.000999999,-0.003,-0.001999999
253.0,-0.002772057,-0.001161659,0.013332221,-0.001655586,0.003996036,0.000999999,-0.003,-0.001999999
254.0,-0.002772057,-0.001161659,0.013332221,-0.001655586,0.003996036,0.000999999,-0.003,-0.001999999
255.0,-0.002772057,-0.001161659,0.013332221,-0.001655586,0.003996036,0.001999999,-0.003,-0.003
256.0,-0.002772057,-0.001161659,0.013332221,-0.001655586,0.003996036,0.001999999,-0.003,-0.003
257.0,-0.002772057,-0.001161659,0.013332221,-0.001655586,0.003996036,0.001999999,-0.003,-0.003
258.0,-0.002772057,-0.001161659,0.013332221,-0.001655586,0.003996036,0.001999999,-0.003,-0.003
259.0,-0.002772057,-0.001161659,0.013332221,-0.001655586,0.003996036,0.000999999,-0.001999999,-0.003
260.0,-0.002772057,-0.001161659,0.013332221,-0.001655586,0.003996036,0.000999999,-0.001999999,-0.003
261.0,-0.002772057,-0.001161659,0.012332221,-0.001655586,0.003996036,0.000999999,-0.001999999,-0.001999999
262.0,-0.002772057,-0.001161659,0.012332221,-0.001655586,0.003996036,0.001999999,-0.003,-0.001999999
263.0,-0.002772057,-0.000161659,0.012332221,-0.001655586,0.003996036,0.000999999,-0.003,-0.001999999
264.0,-0.002772057,-0.000161659,0.012332221,-0.001655586,0.003996036,0.000999999,-0.003,-0.001999999
265.0,-0.002772057,-0.000161659,0.012332221,-0.001655586,0.003996036,0.000999999,-0.003,-0.001999999
266.0,-0.002772057,-0.000161659,0.012332221,-0.001655586,0.003996036,0.000999999,-0.003,-0.001999999
267.0,-0.002772057,-0.000161659,0.012332221,-0.001655586,0.003996036,0.000999999,-0.003,-0.001999999
268.0,-0.002772057,-0.001161659,0.012332221,-0.001655586,0.003996036,0.001999999,-0.003,-0.001999999
269.0,-0.002772057,-0.001161659,0.012332221,-0.001655586,0.003996036,0.001999999,-0.003,-0.001999999
270.0,-0.002772057,-0.001161659,0.013332221,-0.001655586,0.003996036,0.001999999,-0.003,-0.003
271.0,-0.002772057,-0.001161659,0.013332221,-0.001655586,0.003996036,0.001999999,-0.003,-0.003
272.0,-0.002772057,-0.001161659,0.013332221,-0.001655586,0.003996036,0.001999999,-0.003,-0.003
273.0,-0.002772057,-0.001161659,0.013332221,-0.001655586,0.003996036,0.001999999,-0.003,-0.003
274.0,-0.002772057,-0.001161659,0.013332221,-0.001655586,0.003996036,0.001999999,-0.003,-0.003
275.0,-0.002772057,-0.000161659,0.013332221,-0.001655586,0.003996036,0.000999999,-0.003,-0.003
276.0,-0.002772057,-0.000161659,0.013332221,-0.001655586,0.003996036,0.000999999,-0.003,-0.003
277.0,-0.002772057,-0.000161659,0.013332221,-0.001655586,0.003996036,0.000999999,-0.003,-0.003
278.0,-0.002772057,-0.000161659,0.013332221,-0.001655586,0.003996036,0.000999999,-0.003,-0.003
279.0,-0.002772057,-0.000161659,0.013332221,-0.001655586,0.003996036,0.001999999,-0.003,-0.004
280.0,-0.002772057,-0.000161659,0.013332221,-0.001655586,0.003996036,0.001999999,-0.003,-0.004
281.0,-0.002772057,-0.000161659,0.013332221,-0.001655586,0.003996036,0.001999999,-0.003,-0.004
282.0,-0.002772057,-0.000161659,0.013332221,-0.001655586,0.003996036,0.001999999,-0.003,-0.004
283.0,-0.002772057,-0.000161659,0.013332221,-0.001655586,0.003996036,0.001999999,-0.003,-0.004
284.0,-0.002772057,-0.000161659,0.013332221,-0.001655586,0.003996036,0.001999999,-0.003,-0.004
285.0,-0.002772057,-0.000161659,0.013332221,-0.001655586,0.003996036,0.001999999,-0.003,-0.004
286.0,-0.002772057,-0.000161659,0.013332221,-0.001655586,0.003996036,0.001999999,-0.003,-0.004
287.0,-0.002772057,-0.000161659,0.013332221,-0.001655586,0.003996036,0.000999999,-0.001999999,-0.004
288.0,-0.002772057,-0.000161659,0.013332221,-0.001655586,0.003996036,0.000999999,-0.001999999,-0.004
289.0,-0.002772057,-0.000161659,0.013332221,-0.001655586,0.003996036,0.000999999,-0.001999999,-0.004
290.0,-0.002772057,-0.000161659,0.013332221,-0.001655586,0.003996036,0.000999999,-0.001999999,-0.004
291.0,-0.002772057,-0.000161659,0.013332221,-0.001655586,0.003996036,0.000999999,-0.001999999,-0.004
292.0,-0.002772057,-0.000161659,0.013332221,-0.001655586,0.003996036,0.001999999,-0.003,-0.004
293.0,-0.003772057,-0.000161659,0.013332221,-0.001655586,0.003996036,0.001999999,-0.001999999,-0.004
294.0,-0.003772057,-0.000161659,0.013332221,-0.001655586,0.003996036,0.001999999,-0.001999999,-0.004
295.0,-0.003772057,-0.000161659,0.013332221,-0.001655586,0.003996036,0.001999999,-0.001999999,-0.004
296.0,-0.003772057,-0.001161659,0.013332221,-0.001655586,0.003996036,0.001999999,-0.001999999,-0.003
297.0,-0.003772057,-0.001161659,0.014332221,-0.002655586,0.003996036,0.001999999,-0.001999999,-0.003
298.0,-0.003772057,-0.001161659,0.014332221,-0.002655586,0.003996036,0.003,-0.003,-0.003
299.0,-0.003772057,-0.001161659,0.014332221,-0.002655586,0.003996036,0.003,-0.003,-0.003
300.0,-0.003772057,-0.001161659,0.014332221,-0.002655586,0.003996036,0.003,-0.003,-0.003
301.0,-0.002772057,-0.001161659,0.014332221,-0.002655586,0.003996036,0.001999999,-0.003,-0.003
302.0,-0.002772057,-0.001161659,0.014332221,-0.002655586,0.003996036,0.001999999,-0.003,-0.003
303.0,-0.002772057,-0.001161659,0.014332221,-0.002655586,0.003996036,0.001999999,-0.003,-0.003
304.0,-0.002772057,-0.001161659,0.014332221,-0.002655586,0.003996036,0.001999999,-0.003,-0.003
305.0,-0.002772057,-0.001161659,0.014332221,-0.002655586,0.003996036,0.003,-0.003,-0.004
306.0,-0.002772057,-0.001161659,0.014332221,-0.002655586,0.003996036,0.001999999,-0.003,-0.003
307.0,-0.002772057,-0.001161659,0.014332221,-0.002655586,0.003996036,0.001999999,-0.003,-0.003
308.0,-0.002772057,-0.001161659,0.014332221,-0.002655586,0.003996036,0.001999999,-0.003,-0.003
309.0,-0.002772057,-0.001161659,0.014332221,-0.002655586,0.003996036,0.001999999,-0.003,-0.003
310.0,-0.002772057,-0.001161659,0.014332221,-0.001655586,0.002996035,0.001999999,-0.003,-0.003
311.0,-0.002772057,-0.001161659,0.014332221,-0.001655586,0.002996035,0.001999999,-0.003,-0.003
312.0,-0.002772057,-0.001161659,0.014332221,-0.001655586,0.002996035,0.001999999,-0.003,-0.003
313.0,-0.002772057,-0.001161659,0.014332221,-0.001655586,0.002996035,0.001999999,-0.003,-0.003
314.0,-0.002772057,-0.001161659,0.014332221,-0.001655586,0.002996035,0.001999999,-0.003,-0.003
315.0,-0.002772057,-0.001161659,0.014332221,-0.001655586,0.002996035,0.001999999,-0.003,-0.003
316.0,-0.002772057,-0.001161659,0.014332221,-0.001655586,0.002996035,0.001999999,-0.003,-0.003
317.0,-0.002772057,-0.001161659,0.014332221,-0.002655586,0.003996036,0.001999999,-0.003,-0.003
318.0,-0.002772057,-0.001161659,0.014332221,-0.002655586,0.003996036,0.001999999,-0.003,-0.003
319.0,-0.002772057,-0.001161659,0.014332221,-0.002655586,0.003996036,0.001999999,-0.003,-0.003
320.0,-0.002772057,-0.001161659,0.014332221,-0.002655586,0.003996036,0.001999999,-0.003,-0.003
321.0,-0.002772057,-0.001161659,0.014332221,-0.002655586,0.003996036,0.001999999,-0.003,-0.003
322.0,-0.002772057,-0.001161659,0.014332221,-0.002655586,0.003996036,0.001999999,-0.003,-0.003
323.0,-0.002772057,-0.001161659,0.014332221,-0.002655586,0.003996036,0.001999999,-0.003,-0.003
324.0,-0.002772057,-0.001161659,0.014332221,-0.002655586,0.003996036,0.001999999,-0.003,-0.003
325.0,-0.002772057,-0.001161659,0.014332221,-0.001655586,0.003996036,0.001999999,-0.003,-0.004
326.0,-0.002772057,-0.001161659,0.014332221,-0.001655586,0.003996036,0.000999999,-0.001999999,-0.004
327.0,-0.002772057,-0.001161659,0.014332221,-0.001655586,0.003996036,0.000999999,-0.001999999,-0.004
328.0,-0.002772057,-0.001161659,0.014332221,-0.001655586,0.003996036,0.000999999,-0.001999999,-0.004
329.0,-0.002772057,-0.001161659,0.014332221,-0.000655586,0.002996035,0.000999999,-0.001999999,-0.004
330.0,-0.002772057,-0.001161659,0.014332221,-0.000655586,0.002996035,0.001999999,-0.003,-0.004
331.0,-0.002772057,-0.001161659,0.014332221,-0.000655586,0.002996035,0.001999999,-0.003,-0.004
332.0,-0.002772057,-0.001161659,0.014332221,-0.000655586,0.002996035,0.001999999,-0.003,-0.004
333.0,-0.002772057,-0.001161659,0.014332221,-0.000655586,0.002996035,0.003,-0.004,-0.004
334.0,-0.002772057,-0.001161659,0.015332221,-0.000655586,0.002996035,0.001999999,-0.004,-0.004
335.0,-0.002772057,-0.001161659,0.015332221,-0.000655586,0.002996035,0.001999999,-0.004,-0.004
336.0,-0.002772057,-0.001161659,0.015332221,-0.001655586,0.003996036,0.001999999,-0.004,-0.004
337.0,-0.002772057,-0.001161659,0.015332221,-0.001655586,0.003996036,0.001999999,-0.004,-0.004
338.0,-0.002772057,-0.001161659,0.015332221,-0.001655586,0.003996036,0.001999999,-0.004,-0.004
339.0,-0.002772057,-0.001161659,0.015332221,-0.001655586,0.003996036,0.001999999,-0.004,-0.004
340.0,-0.002772057,-0.001161659,0.015332221,-0.001655586,0.003996036,0.001999999,-0.004,-0.004
341.0,-0.002772057,-0.001161659,0.014332221,-0.001655586,0.003996036,0.003,-0.004,-0.004
342.0,-0.002772057,-0.001161659,0.014332221,-0.001655586,0.003996036,0.001999999,-0.004,-0.003
343.0,-0.002772057,-0.001161659,0.014332221,-0.001655586,0.003996036,0.001999999,-0.004,-0.003
344.0,-0.002772057,-0.001161659,0.014332221,-0.001655586,0.003996036,0.000999999,-0.003,-0.003
345.0,-0.002772057,-0.001161659,0.014332221,-0.001655586,0.003996036,0.000999999,-0.003,-0.003
346.0,-0.002772057,-0.001161659,0.014332221,-0.001655586,0.003996036,0.000999999,-0.003,-0.003
347.0,-0.002772057,-0.001161659,0.014332221,-0.001655586,0.003996036,0.000999999,-0.003,-0.003
348.0,-0.002772057,-0.001161659,0.014332221,-0.001655586,0.003996036,0.001999999,-0.003,-0.004
349.0,-0.002772057,-0.001161659,0.014332221,-0.001655586,0.003996036,0.001999999,-0.003,-0.004
350.0,-0.002772057,-0.001161659,0.014332221,-0.001655586,0.003996036,0.001999999,-0.003,-0.004
351.0,-0.002772057,-0.001161659,0.014332221,-0.001655586,0.003996036,0.001999999,-0.003,-0.004
352.0,-0.002772057,-0.001161659,0.014332221,-0.001655586,0.003996036,0.001999999,-0.003,-0.004
353.0,-0.002772057,-0.001161659,0.014332221,-0.001655586,0.003996036,0.001999999,-0.003,-0.004
354.0,-0.002772057,-0.001161659,0.014332221,-0.001655586,0.003996036,0.000999999,-0.001999999,-0.004
355.0,-0.002772057,-0.001161659,0.014332221,-0.001655586,0.003996036,0.000999999,-0.001999999,-0.004
356.0,-0.002772057,-0.001161659,0.014332221,-0.001655586,0.003996036,0.001999999,-0.003,-0.004
357.0,-0.002772057,-0.001161659,0.014332221,-0.001655586,0.003996036,0.001999999,-0.003,-0.004
358.0,-0.002772057,-0.001161659,0.014332221,-0.001655586,0.003996036,0.000999999,-0.001999999,-0.004
359.0,-0.002772057,-0.001161659,0.014332221,-0.001655586,0.003996036,0.000999999,-0.001999999,-0.004
360.0,-0.003772057,-0.001161659,0.015332221,-0.001655586,0.003996036,0.000999999,-0.001999999,-0.004
361.0,-0.003772057,-0.001161659,0.015332221,-0.001655586,0.003996036,0.000999999,-0.001999999,-0.004
362.0,-0.003772057,-0.001161659,0.015332221,-0.001655586,0.003996036,0.000999999,-0.001999999,-0.004
363.0,-0.003772057,-0.001161659,0.015332221,-0.001655586,0.003996036,0.000999999,-0.001999999,-0.004
364.0,-0.003772057,-0.001161659,0.015332221,-0.001655586,0.003996036,0.000999999,-0.001999999,-0.004
365.0,-0.003772057,-0.001161659,0.015332221,-0.001655586,0.003996036,0.000999999,-0.001999999,-0.004
366.0,-0.003772057,-0.001161659,0.015332221,-0.001655586,0.003996036,0.000999999,-0.001999999,-0.004
367.0,-0.003772057,-0.001161659,0.015332221,-0.001655586,0.003996036,0.000999999,-0.001999999,-0.004
368.0,-0.003772057,-0.001161659,0.015332221,-0.001655586,0.003996036,0.000999999,-0.001999999,-0.004
369.0,-0.003772057,-0.001161659,0.015332221,-0.001655586,0.003996036,0.000999999,-0.001999999,-0.004
370.0,-0.003772057,-0.001161659,0.015332221,-0.001655586,0.003996036,0.001999999,-0.003,-0.004
371.0,-0.003772057,-0.001161659,0.015332221,-0.001655586,0.003996036,0.001999999,-0.003,-0.004
372.0,-0.003772057,-0.001161659,0.015332221,-0.001655586,0.003996036,0.001999999,-0.003,-0.004
373.0,-0.003772057,-0.001161659,0.015332221,-0.001655586,0.003996036,0.001999999,-0.003,-0.004
374.0,-0.003772057,-0.001161659,0.014332221,-0.001655586,0.003996036,0.003,-0.003,-0.004
375.0,-0.003772057,-0.001161659,0.014332221,-0.001655586,0.003996036,0.003,-0.003,-0.004
376.0,-0.003772057,-0.001161659,0.014332221,-0.001655586,0.003996036,0.001999999,-0.003,-0.003
377.0,-0.003772057,-0.001161659,0.014332221,-0.001655586,0.003996036,0.001999999,-0.001999999,-0.004
378.0,-0.003772057,-0.001161659,0.014332221,-0.001655586,0.003996036,0.001999999,-0.001999999,-0.004
379.0,-0.003772057,-0.001161659,0.014332221,-0.001655586,0.003996036,0.001999999,-0.001999999,-0.004
380.0,-0.003772057,-0.001161659,0.014332221,-0.001655586,0.003996036,0.001999999,-0.001999999,-0.004
381.0,-0.003772057,-0.001161659,0.014332221,-0.001655586,0.003996036,0.001999999,-0.001999999,-0.004
382.0,-0.003772057,-0.001161659,0.014332221,-0.001655586,0.003996036,0.001999999,-0.001999999,-0.004
383.0,-0.003772057,-0.001161659,0.014332221,-0.001655586,0.003996036,0.001999999,-0.001999999,-0.004
384.0,-0.003772057,-0.001161659,0.014332221,-0.001655586,0.003996036,0.001999999,-0.001999999,-0.004
385.0,-0.003772057,-0.001161659,0.014332221,-0.001655586,0.003996036,0.001999999,-0.001999999,-0.004
386.0,-0.003772057,-0.001161659,0.014332221,-0.001655586,0.003996036,0.001999999,-0.001999999,-0.004
387.0,-0.003772057,-0.001161659,0.014332221,-0.001655586,0.003996036,0.001999999,-0.001999999,-0.004
388.0,-0.003772057,-0.001161659,0.014332221,-0.001655586,0.003996036,0.001999999,-0.001999999,-0.004
389.0,-0.003772057,-0.001161659,0.014332221,-0.001655586,0.003996036,0.003,-0.001999999,-0.005
390.0,-0.003772057,-0.001161659,0.014332221,-0.001655586,0.003996036,0.001999999,-0.001999999,-0.004
391.0,-0.003772057,-0.001161659,0.014332221,-0.001655586,0.003996036,0.001999999,-0.001999999,-0.004
392.0,-0.003772057,-0.001161659,0.014332221,-0.001655586,0.003996036,0.001999999,-0.001999999,-0.004
393.0,-0.003772057,-0.001161659,0.014332221,-0.000655586,0.002996035,0.001999999,-0.001999999,-0.004
394.0,-0.003772057,-0.001161659,0.014332221,-0.000655586,0.002996035,0.001999999,-0.001999999,-0.004
395.0,-0.003772057,-0.001161659,0.014332221,-0.000655586,0.002996035,0.001999999,-0.001999999,-0.004
396.0,-0.003772057,-0.001161659,0.014332221,-0.000655586,0.002996035,0.001999999,-0.001999999,-0.004
397.0,-0.003772057,-0.001161659,0.014332221,-0.000655586,0.002996035,0.001999999,-0.001999999,-0.004
398.0,-0.003772057,-0.001161659,0.014332221,-0.000655586,0.002996035,0.001999999,-0.001999999,-0.004
399.0,-0.003772057,-0.001161659,0.014332221,-0.000655586,0.002996035,0.001999999,-0.001999999,-0.004
400.0,-0.003772057,-0.001161659,0.014332221,-0.000655586,0.002996035,0.001999999,-0.001999999,-0.004
401.0,-0.003772057,-0.001161659,0.015332221,-0.001655586,0.002996035,0.001999999,-0.001999999,-0.004
402.0,-0.003772057,-0.001161659,0.015332221,-0.001655586,0.002996035,0.001999999,-0.001999999,-0.004
403.0,-0.003772057,-0.001161659,0.015332221,-0.001655586,0.002996035,0.001999999,-0.001999999,-0.004
404.0,-0.003772057,-0.001161659,0.015332221,-0.001655586,0.002996035,0.001999999,-0.001999999,-0.004
405.0,-0.003772057,-0.001161659,0.015332221,-0.001655586,0.002996035,0.000999999,-0.000999999,-0.004
406.0,-0.003772057,-0.001161659,0.015332221,-0.001655586,0.002996035,0.001999999,-0.001999999,-0.004
407.0,-0.003772057,-0.001161659,0.015332221,-0.001655586,0.002996035,0.001999999,-0.001999999,-0.004
408.0,-0.003772057,-0.001161659,0.015332221,-0.001655586,0.002996035,0.001999999,-0.001999999,-0.004
409.0,-0.003772057,-0.001161659,0.015332221,-0.001655586,0.002996035,0.001999999,-0.001999999,-0.004
410.0,-0.003772057,-0.001161659,0.015332221,-0.001655586,0.002996035,0.001999999,-0.001999999,-0.004
411.0,-0.003772057,-0.001161659,0.015332221,-0.001655586,0.002996035,0.000999999,-0.000999999,-0.004
412.0,-0.003772057,-0.001161659,0.015332221,-0.001655586,0.002996035,0.000999999,-0.000999999,-0.004
413.0,-0.003772057,-0.001161659,0.015332221,-0.001655586,0.002996035,0.000999999,-0.000999999,-0.004
414.0,-0.003772057,-0.001161659,0.015332221,-0.001655586,0.002996035,0.000999999,-0.000999999,-0.004
415.0,-0.003772057,-0.001161659,0.015332221,-0.001655586,0.002996035,0.000999999,-0.000999999,-0.004
416.0,-0.003772057,-0.001161659,0.015332221,-0.001655586,0.002996035,0.000999999,-0.000999999,-0.004
417.0,-0.003772057,-0.001161659,0.015332221,-0.001655586,0.002996035,0.001999999,-0.001999999,-0.004
418.0,-0.003772057,-0.001161659,0.015332221,-0.001655586,0.002996035,0.003,-0.001999999,-0.005
419.0,-0.003772057,-0.001161659,0.015332221,-0.001655586,0.002996035,0.003,-0.001999999,-0.005
420.0,-0.003772057,-0.001161659,0.015332221,-0.001655586,0.002996035,0.003,-0.001999999,-0.005
421.0,-0.003772057,-0.001161659,0.015332221,-0.001655586,0.002996035,0.001999999,-0.000999999,-0.005
422.0,-0.003772057,-0.001161659,0.015332221,-0.001655586,0.002996035,0.001999999,-0.000999999,-0.005
423.0,-0.003772057,-0.001161659,0.015332221,-0.001655586,0.002996035,0.001999999,-0.000999999,-0.005
424.0,-0.003772057,-0.001161659,0.015332221,-0.001655586,0.002996035,0.001999999,-0.000999999,-0.005
425.0,-0.003772057,-0.001161659,0.015332221,-0.001655586,0.002996035,0.001999999,-0.000999999,-0.005
426.0,-0.003772057,-0.001161659,0.015332221,-0.001655586,0.002996035,0.001999999,-0.000999999,-0.005
427.0,-0.003772057,-0.001161659,0.015332221,-0.001655586,0.002996035,0.003,-0.001999999,-0.005
428.0,-0.003772057,-0.001161659,0.015332221,-0.001655586,0.002996035,0.001999999,-0.000999999,-0.005
429.0,-0.003772057,-0.001161659,0.014332221,-0.001655586,0.003996036,0.001999999,-0.000999999,-0.005
430.0,-0.003772057,-0.001161659,0.014332221,-0.001655586,0.003996036,0.003,-0.001999999,-0.005
431.0,-0.003772057,-0.001161659,0.014332221,-0.001655586,0.003996036,0.003,-0.001999999,-0.005
432.0,-0.003772057,-0.001161659,0.014332221,-0.001655586,0.003996036,0.003,-0.001999999,-0.005
433.0,-0.003772057,-0.001161659,0.014332221,-0.001655586,0.003996036,0.003,-0.001999999,-0.005
434.0,-0.003772057,-0.001161659,0.014332221,-0.001655586,0.003996036,0.003,-0.001999999,-0.005
435.0,-0.003772057,-0.001161659,0.014332221,-0.001655586,0.003996036,0.003,-0.001999999,-0.005
436.0,-0.003772057,-0.001161659,0.014332221,-0.001655586,0.003996036,0.003,-0.001999999,-0.005
437.0,-0.003772057,-0.001161659,0.014332221,-0.001655586,0.003996036,0.003,-0.001999999,-0.005
438.0,-0.003772057,-0.001161659,0.014332221,-0.001655586,0.003996036,0.003,-0.001999999,-0.005
439.0,-0.003772057,-0.001161659,0.014332221,-0.001655586,0.003996036,0.003,-0.001999999,-0.005
440.0,-0.003772057,-0.001161659,0.014332221,-0.001655586,0.003996036,0.003,-0.001999999,-0.005
441.0,-0.003772057,-0.001161659,0.014332221,-0.001655586,0.003996036,0.001999999,-0.000999999,-0.005
442.0,-0.003772057,-0.001161659,0.014332221,-0.001655586,0.003996036,0.001999999,-0.000999999,-0.005
443.0,-0.003772057,-0.001161659,0.014332221,-0.001655586,0.003996036,0.001999999,-0.001999999,-0.004
444.0,-0.003772057,-0.001161659,0.014332221,-0.001655586,0.003996036,0.001999999,-0.001999999,-0.004
445.0,-0.003772057,-0.001161659,0.014332221,-0.001655586,0.003996036,0.001999999,-0.001999999,-0.004
446.0,-0.003772057,-0.001161659,0.014332221,-0.001655586,0.003996036,0.003,-0.003,-0.004
447.0,-0.003772057,-0.001161659,0.014332221,-0.001655586,0.003996036,0.003,-0.003,-0.004
448.0,-0.003772057,-0.001161659,0.014332221,-0.001655586,0.003996036,0.003,-0.003,-0.004
449.0,-0.003772057,-0.001161659,0.014332221,-0.001655586,0.003996036,0.003,-0.003,-0.004
450.0,-0.003772057,-0.001161659,0.014332221,-0.001655586,0.003996036,0.003,-0.003,-0.004
451.0,-0.003772057,-0.001161659,0.014332221,-0.001655586,0.003996036,0.003,-0.003,-0.004
452.0,-0.003772057,-0.000161659,0.013332221,-0.001655586,0.003996036,0.003,-0.003,-0.004
453.0,-0.003772057,-0.000161659,0.013332221,-0.001655586,0.003996036,0.003,-0.003,-0.004
454.0,-0.003772057,-0.000161659,0.013332221,-0.001655586,0.003996036,0.003,-0.003,-0.004
455.0,-0.003772057,-0.000161659,0.013332221,-0.001655586,0.003996036,0.003,-0.003,-0.004
456.0,-0.003772057,-0.000161659,0.013332221,-0.001655586,0.003996036,0.003,-0.003,-0.004
457.0,-0.003772057,-0.000161659,0.013332221,-0.001655586,0.003996036,0.003,-0.003,-0.004
458.0,-0.003772057,-0.000161659,0.013332221,-0.001655586,0.003996036,0.001999999,-0.001999999,-0.004
459.0,-0.003772057,-0.000161659,0.013332221,-0.001655586,0.003996036,0.001999999,-0.001999999,-0.004
460.0,-0.003772057,-0.000161659,0.013332221,-0.001655586,0.003996036,0.001999999,-0.001999999,-0.004
461.0,-0.003772057,-0.000161659,0.013332221,-0.001655586,0.003996036,0.001999999,-0.001999999,-0.004
462.0,-0.003772057,-0.000161659,0.013332221,-0.001655586,0.003996036,0.001999999,-0.001999999,-0.004
463.0,-0.003772057,-0.000161659,0.013332221,-0.001655586,0.003996036,0.001999999,-0.001999999,-0.004
464.0,-0.003772057,-0.000161659,0.013332221,-0.001655586,0.003996036,0.001999999,-0.001999999,-0.004
465.0,-0.003772057,-0.000161659,0.013332221,-0.001655586,0.003996036,0.001999999,-0.001999999,-0.004
466.0,-0.003772057,-0.000161659,0.013332221,-0.001655586,0.003996036,0.001999999,-0.001999999,-0.004
467.0,-0.003772057,-0.000161659,0.013332221,-0.001655586,0.003996036,0.001999999,-0.001999999,-0.004
468.0,-0.003772057,-0.000161659,0.013332221,-0.001655586,0.003996036,0.001999999,-0.001999999,-0.004
469.0,-0.003772057,-0.000161659,0.013332221,-0.001655586,0.003996036,0.001999999,-0.001999999,-0.004
470.0,-0.003772057,-0.001161659,0.014332221,-0.001655586,0.003996036,0.001999999,-0.001999999,-0.004
471.0,-0.003772057,-0.001161659,0.014332221,-0.001655586,0.003996036,0.003,-0.001999999,-0.005
472.0,-0.003772057,-0.001161659,0.014332221,-0.001655586,0.003996036,0.003,-0.001999999,-0.005
473.0,-0.003772057,-0.001161659,0.014332221,-0.001655586,0.003996036,0.003,-0.001999999,-0.005
474.0,-0.003772057,-0.001161659,0.014332221,-0.001655586,0.003996036,0.003,-0.001999999,-0.005
475.0,-0.003772057,-0.001161659,0.014332221,-0.001655586,0.003996036,0.001999999,-0.001999999,-0.004
476.0,-0.003772057,-0.001161659,0.014332221,-0.001655586,0.003996036,0.001999999,-0.001999999,-0.004
477.0,-0.003772057,-0.001161659,0.014332221,-0.001655586,0.003996036,0.001999999,-0.001999999,-0.004
478.0,-0.003772057,-0.001161659,0.014332221,-0.001655586,0.003996036,0.003,-0.003,-0.004
479.0,-0.003772057,-0.001161659,0.014332221,-0.001655586,0.003996036,0.003,-0.003,-0.004
480.0,-0.003772057,-0.001161659,0.014332221,-0.001655586,0.003996036,0.003,-0.003,-0.004
481.0,-0.003772057,-0.001161659,0.014332221,-0.001655586,0.003996036,0.003,-0.003,-0.004
482.0,-0.003772057,-0.001161659,0.014332221,-0.001655586,0.003996036,0.001999999,-0.001999999,-0.004
483.0,-0.003772057,-0.001161659,0.014332221,-0.001655586,0.003996036,0.003,-0.001999999,-0.005
484.0,-0.003772057,-0.001161659,0.014332221,-0.001655586,0.003996036,0.003,-0.001999999,-0.005
485.0,-0.003772057,-0.001161659,0.014332221,-0.001655586,0.003996036,0.003,-0.001999999,-0.005
486.0,-0.003772057,-0.001161659,0.014332221,-0.001655586,0.003996036,0.003,-0.001999999,-0.005
487.0,-0.003772057,-0.001161659,0.014332221,-0.001655586,0.003996036,0.003,-0.001999999,-0.005
488.0,-0.003772057,-0.001161659,0.014332221,-0.001655586,0.003996036,0.003,-0.001999999,-0.005
489.0,-0.003772057,-0.001161659,0.014332221,-0.001655586,0.003996036,0.003,-0.001999999,-0.005
490.0,-0.003772057,-0.001161659,0.014332221,-0.001655586,0.003996036,0.003,-0.001999999,-0.005
491.0,-0.003772057,-0.001161659,0.014332221,-0.001655586,0.003996036,0.003,-0.001999999,-0.005
492.0,-0.003772057,-0.001161659,0.014332221,-0.001655586,0.003996036,0.003,-0.001999999,-0.005
493.0,-0.003772057,-0.001161659,0.014332221,-0.001655586,0.003996036,0.003,-0.001999999,-0.005
494.0,-0.003772057,-0.001161659,0.014332221,-0.001655586,0.003996036,0.004,-0.003,-0.005
495.0,-0.003772057,-0.001161659,0.014332221,-0.001655586,0.003996036,0.004,-0.003,-0.005
496.0,-0.003772057,-0.001161659,0.015332221,-0.001655586,0.003996036,0.003,-0.003,-0.005
497.0,-0.003772057,-0.001161659,0.015332221,-0.001655586,0.003996036,0.003,-0.003,-0.005
498.0,-0.003772057,-0.001161659,0.015332221,-0.001655586,0.003996036,0.003,-0.003,-0.005
499.0,-0.003772057,-0.001161659,0.015332221,-0.001655586,0.004996036,0.001999999,-0.003,-0.005
500.0,-0.003772057,-0.001161659,0.015332221,-0.001655586,0.004996036,0.001999999,-0.003,-0.005
501.0,-0.003772057,-0.001161659,0.015332221,-0.001655586,0.004996036,0.001999999,-0.003,-0.005
502.0,-0.003772057,-0.001161659,0.015332221,-0.001655586,0.004996036,0.001999999,-0.003,-0.005
503.0,-0.003772057,-0.001161659,0.015332221,-0.001655586,0.004996036,0.001999999,-0.003,-0.005
504.0,-0.003772057,-0.001161659,0.015332221,-0.001655586,0.004996036,0.001999999,-0.003,-0.005
505.0,-0.003772057,-0.001161659,0.015332221,-0.001655586,0.004996036,0.001999999,-0.003,-0.005
506.0,-0.003772057,-0.001161659,0.015332221,-0.001655586,0.004996036,0.001999999,-0.003,-0.005
507.0,-0.003772057,-0.001161659,0.015332221,-0.001655586,0.004996036,0.001999999,-0.003,-0.005
508.0,-0.003772057,-0.001161659,0.015332221,-0.001655586,0.004996036,0.001999999,-0.003,-0.005
509.0,-0.003772057,-0.001161659,0.015332221,-0.001655586,0.004996036,0.001999999,-0.003,-0.005
510.0,-0.003772057,-0.001161659,0.015332221,-0.001655586,0.004996036,0.001999999,-0.003,-0.005
511.0,-0.003772057,-0.001161659,0.015332221,-0.001655586,0.004996036,0.001999999,-0.003,-0.005
512.0,-0.003772057,-0.001161659,0.015332221,-0.001655586,0.004996036,0.001999999,-0.003,-0.005
513.0,-0.003772057,-0.001161659,0.015332221,-0.001655586,0.004996036,0.003,-0.003,-0.006
514.0,-0.003772057,-0.001161659,0.015332221,-0.001655586,0.004996036,0.003,-0.003,-0.006
515.0,-0.003772057,-0.001161659,0.015332221,-0.001655586,0.004996036,0.003,-0.003,-0.006
516.0,-0.003772057,-0.001161659,0.015332221,-0.001655586,0.004996036,0.003,-0.003,-0.006
517.0,-0.003772057,-0.001161659,0.015332221,-0.001655586,0.004996036,0.003,-0.003,-0.006
518.0,-0.002772057,-0.001161659,0.015332221,-0.001655586,0.003996036,0.003,-0.003,-0.006
519.0,-0.002772057,-0.001161659,0.015332221,-0.001655586,0.003996036,0.001999999,-0.001999999,-0.006
520.0,-0.002772057,-0.001161659,0.015332221,-0.001655586,0.003996036,0.001999999,-0.003,-0.005
521.0,-0.002772057,-0.001161659,0.015332221,-0.001655586,0.003996036,0.001999999,-0.003,-0.005
522.0,-0.002772057,-0.001161659,0.015332221,-0.001655586,0.003996036,0.001999999,-0.003,-0.005
523.0,-0.002772057,-0.001161659,0.015332221,-0.001655586,0.003996036,0.001999999,-0.003,-0.005
524.0,-0.002772057,-0.001161659,0.015332221,-0.001655586,0.003996036,0.001999999,-0.003,-0.005
525.0,-0.002772057,-0.001161659,0.015332221,-0.001655586,0.003996036,0.001999999,-0.003,-0.005
526.0,-0.002772057,-0.001161659,0.015332221,-0.001655586,0.003996036,0.001999999,-0.003,-0.005
527.0,-0.003772057,-0.001161659,0.015332221,-0.001655586,0.003996036,0.001999999,-0.003,-0.004
528.0,-0.003772057,-0.001161659,0.015332221,-0.001655586,0.003996036,0.001999999,-0.003,-0.004
529.0,-0.003772057,-0.001161659,0.015332221,-0.001655586,0.003996036,0.003,-0.003,-0.005
530.0,-0.003772057,-0.001161659,0.015332221,-0.001655586,0.003996036,0.003,-0.003,-0.005
531.0,-0.003772057,-0.001161659,0.015332221,-0.001655586,0.003996036,0.003,-0.003,-0.005
532.0,-0.003772057,-0.001161659,0.015332221,-0.001655586,0.003996036,0.003,-0.003,-0.005
533.0,-0.003772057,-0.001161659,0.015332221,-0.001655586,0.003996036,0.003,-0.003,-0.005
534.0,-0.003772057,-0.001161659,0.015332221,-0.001655586,0.003996036,0.003,-0.003,-0.005
535.0,-0.003772057,-0.001161659,0.015332221,-0.001655586,0.003996036,0.003,-0.003,-0.005
536.0,-0.003772057,-0.001161659,0.015332221,-0.001655586,0.003996036,0.001999999,-0.001999999,-0.005
537.0,-0.003772057,-0.001161659,0.015332221,-0.001655586,0.003996036,0.001999999,-0.001999999,-0.005
538.0,-0.003772057,-0.001161659,0.015332221,-0.001655586,0.003996036,0.001999999,-0.001999999,-0.005
539.0,-0.003772057,-0.001161659,0.014332221,-0.001655586,0.004996036,0.001999999,-0.001999999,-0.005
540.0,-0.003772057,-0.001161659,0.014332221,-0.001655586,0.004996036,0.003,-0.003,-0.005
541.0,-0.003772057,-0.001161659,0.014332221,-0.001655586,0.004996036,0.003,-0.003,-0.005
542.0,-0.003772057,-0.001161659,0.014332221,-0.001655586,0.004996036,0.003,-0.003,-0.005
543.0,-0.003772057,-0.001161659,0.014332221,-0.001655586,0.004996036,0.003,-0.003,-0.005
544.0,-0.003772057,-0.001161659,0.014332221,-0.001655586,0.004996036,0.003,-0.003,-0.005
545.0,-0.003772057,-0.001161659,0.014332221,-0.001655586,0.004996036,0.003,-0.003,-0.005
546.0,-0.003772057,-0.001161659,0.014332221,-0.001655586,0.004996036,0.003,-0.003,-0.005
547.0,-0.003772057,-0.001161659,0.014332221,-0.001655586,0.004996036,0.003,-0.003,-0.005
548.0,-0.003772057,-0.001161659,0.014332221,-0.001655586,0.004996036,0.001999999,-0.003,-0.004
549.0,-0.003772057,-0.001161659,0.014332221,-0.001655586,0.004996036,0.001999999,-0.003,-0.004
550.0,-0.003772057,-0.001161659,0.014332221,-0.001655586,0.004996036,0.001999999,-0.003,-0.004
551.0,-0.002772057,-0.001161659,0.014332221,-0.001655586,0.004996036,0.001999999,-0.003,-0.005
552.0,-0.002772057,-0.001161659,0.014332221,-0.001655586,0.004996036,0.000999999,-0.001999999,-0.005
553.0,-0.002772057,-0.001161659,0.014332221,-0.001655586,0.004996036,0.000999999,-0.001999999,-0.005
554.0,-0.002772057,-0.001161659,0.014332221,-0.001655586,0.004996036,0.000999999,-0.001999999,-0.005
555.0,-0.002772057,-0.001161659,0.014332221,-0.001655586,0.004996036,0.000999999,-0.001999999,-0.005
556.0,-0.002772057,-0.001161659,0.014332221,-0.001655586,0.004996036,0.000999999,-0.003,-0.004
557.0,-0.002772057,-0.001161659,0.014332221,-0.001655586,0.004996036,0.000999999,-0.003,-0.004
558.0,-0.002772057,-0.001161659,0.014332221,-0.001655586,0.004996036,0.000999999,-0.003,-0.004
559.0,-0.003772057,-0.001161659,0.014332221,-0.001655586,0.004996036,0.001999999,-0.003,-0.004
560.0,-0.003772057,-0.001161659,0.014332221,-0.001655586,0.004996036,0.001999999,-0.003,-0.004
561.0,-0.003772057,-0.001161659,0.014332221,-0.001655586,0.004996036,0.001999999,-0.003,-0.004
562.0,-0.003772057,-0.001161659,0.014332221,-0.000655586,0.003996036,0.001999999,-0.003,-0.004
563.0,-0.003772057,-0.001161659,0.014332221,-0.000655586,0.003996036,0.001999999,-0.003,-0.004
564.0,-0.003772057,-0.001161659,0.014332221,-0.000655586,0.003996036,0.001999999,-0.003,-0.004
565.0,-0.003772057,-0.001161659,0.014332221,-0.000655586,0.003996036,0.001999999,-0.003,-0.004
566.0,-0.003772057,-0.001161659,0.014332221,-0.000655586,0.003996036,0.001999999,-0.003,-0.004
567.0,-0.003772057,-0.001161659,0.014332221,-0.000655586,0.003996036,0.001999999,-0.003,-0.004
568.0,-0.003772057,-0.001161659,0.014332221,-0.000655586,0.003996036,0.001999999,-0.003,-0.004
569.0,-0.003772057,-0.001161659,0.014332221,-0.000655586,0.003996036,0.001999999,-0.003,-0.004
570.0,-0.003772057,-0.001161659,0.014332221,-0.000655586,0.003996036,0.001999999,-0.003,-0.004
571.0,-0.003772057,-0.001161659,0.014332221,-0.000655586,0.003996036,0.001999999,-0.003,-0.004
572.0,-0.003772057,-0.001161659,0.014332221,-0.000655586,0.003996036,0.001999999,-0.003,-0.004
573.0,-0.003772057,-0.001161659,0.014332221,-0.000655586,0.003996036,0.001999999,-0.003,-0.004
574.0,-0.003772057,-0.001161659,0.014332221,-0.000655586,0.003996036,0.001999999,-0.003,-0.004
575.0,-0.003772057,-0.001161659,0.014332221,-0.000655586,0.003996036,0.001999999,-0.003,-0.004
576.0,-0.003772057,-0.001161659,0.014332221,-0.000655586,0.003996036,0.001999999,-0.003,-0.004
577.0,-0.003772057,-0.001161659,0.014332221,-0.000655586,0.003996036,0.000999999,-0.001999999,-0.004
578.0,-0.003772057,-0.001161659,0.014332221,-0.000655586,0.003996036,0.000999999,-0.001999999,-0.004
579.0,-0.003772057,-0.001161659,0.014332221,-0.001655586,0.004996036,0.000999999,-0.001999999,-0.004
580.0,-0.003772057,-0.001161659,0.014332221,-0.001655586,0.004996036,0.001999999,-0.003,-0.004
581.0,-0.003772057,-0.001161659,0.014332221,-0.001655586,0.004996036,0.001999999,-0.003,-0.004
582.0,-0.003772057,-0.001161659,0.014332221,-0.001655586,0.004996036,0.000999999,-0.001999999,-0.004
583.0,-0.003772057,-0.001161659,0.014332221,-0.001655586,0.004996036,0.001999999,-0.003,-0.004
584.0,-0.003772057,-0.001161659,0.014332221,-0.001655586,0.004996036,0.001999999,-0.003,-0.004
585.0,-0.003772057,-0.001161659,0.014332221,-0.001655586,0.004996036,0.001999999,-0.003,-0.004
586.0,-0.003772057,-0.001161659,0.014332221,-0.001655586,0.004996036,0.001999999,-0.003,-0.004
587.0,-0.003772057,-0.001161659,0.014332221,-0.001655586,0.004996036,0.001999999,-0.003,-0.004
588.0,-0.003772057,-0.001161659,0.014332221,-0.001655586,0.004996036,0.003,-0.003,-0.005
589.0,-0.003772057,-0.001161659,0.014332221,-0.001655586,0.004996036,0.003,-0.003,-0.005
590.0,-0.003772057,-0.001161659,0.014332221,-0.001655586,0.004996036,0.003,-0.003,-0.005
591.0,-0.003772057,-0.001161659,0.014332221,-0.001655586,0.004996036,0.003,-0.003,-0.005
592.0,-0.003772057,-0.001161659,0.014332221,-0.000655586,0.003996036,0.003,-0.003,-0.005
593.0,-0.003772057,-0.001161659,0.014332221,-0.000655586,0.003996036,0.003,-0.003,-0.005
594.0,-0.003772057,-0.001161659,0.014332221,-0.000655586,0.003996036,0.003,-0.003,-0.005
595.0,-0.003772057,-0.001161659,0.014332221,-0.000655586,0.003996036,0.001999999,-0.001999999,-0.005
596.0,-0.003772057,-0.001161659,0.014332221,-0.001655586,0.004996036,0.001999999,-0.001999999,-0.005
597.0,-0.003772057,-0.001161659,0.014332221,-0.001655586,0.004996036,0.003,-0.003,-0.005
598.0,-0.003772057,-0.001161659,0.014332221,-0.001655586,0.004996036,0.001999999,-0.003,-0.004
599.0,-0.003772057,-0.001161659,0.014332221,-0.001655586,0.004996036,0.001999999,-0.003,-0.004
600.0,-0.003772057,-0.001161659,0.014332221,-0.001655586,0.004996036,0.001999999,-0.003,-0.004
601.0,-0.003772057,-0.001161659,0.014332221,-0.001655586,0.004996036,0.003,-0.003,-0.005
602.0,-0.003772057,-0.001161659,0.014332221,-0.001655586,0.004996036,0.003,-0.003,-0.005
603.0,-0.003772057,-0.001161659,0.014332221,-0.001655586,0.004996036,0.003,-0.003,-0.005
604.0,-0.003772057,-0.001161659,0.014332221,-0.001655586,0.004996036,0.003,-0.003,-0.005
605.0,-0.003772057,-0.001161659,0.014332221,-0.001655586,0.004996036,0.003,-0.003,-0.005
606.0,-0.003772057,-0.001161659,0.014332221,-0.001655586,0.004996036,0.003,-0.003,-0.005
607.0,-0.003772057,-0.001161659,0.014332221,-0.001655586,0.004996036,0.003,-0.003,-0.005
608.0,-0.003772057,-0.001161659,0.014332221,-0.001655586,0.004996036,0.003,-0.003,-0.005
609.0,-0.003772057,-0.001161659,0.014332221,-0.001655586,0.004996036,0.003,-0.003,-0.005
610.0,-0.003772057,-0.001161659,0.014332221,-0.001655586,0.004996036,0.003,-0.003,-0.005
611.0,-0.003772057,-0.001161659,0.014332221,-0.001655586,0.004996036,0.003,-0.003,-0.005
612.0,-0.003772057,-0.001161659,0.014332221,-0.001655586,0.004996036,0.001999999,-0.001999999,-0.005
613.0,-0.003772057,-0.001161659,0.014332221,-0.001655586,0.004996036,0.001999999,-0.001999999,-0.005
614.0,-0.003772057,-0.001161659,0.014332221,-0.001655586,0.004996036,0.001999999,-0.001999999,-0.005
615.0,-0.003772057,-0.001161659,0.014332221,-0.001655586,0.004996036,0.001999999,-0.001999999,-0.005
616.0,-0.003772057,-0.001161659,0.014332221,-0.001655586,0.004996036,0.001999999,-0.001999999,-0.005
617.0,-0.003772057,-0.001161659,0.014332221,-0.001655586,0.004996036,0.003,-0.003,-0.005
618.0,-0.003772057,-0.001161659,0.014332221,-0.001655586,0.004996036,0.001999999,-0.001999999,-0.005
619.0,-0.003772057,-0.001161659,0.014332221,-0.001655586,0.004996036,0.001999999,-0.001999999,-0.005
620.0,-0.003772057,-0.001161659,0.014332221,-0.001655586,0.004996036,0.001999999,-0.001999999,-0.005
621.0,-0.003772057,-0.001161659,0.014332221,-0.001655586,0.004996036,0.003,-0.003,-0.005
622.0,-0.003772057,-0.001161659,0.014332221,-0.001655586,0.004996036,0.003,-0.003,-0.005
623.0,-0.003772057,-0.001161659,0.014332221,-0.000655586,0.003996036,0.003,-0.003,-0.005
624.0,-0.003772057,-0.001161659,0.014332221,-0.000655586,0.003996036,0.003,-0.003,-0.005
625.0,-0.003772057,-0.001161659,0.014332221,-0.000655586,0.003996036,0.003,-0.003,-0.005
626.0,-0.003772057,-0.001161659,0.014332221,-0.001655586,0.004996036,0.003,-0.003,-0.005
627.0,-0.003772057,-0.001161659,0.014332221,-0.001655586,0.004996036,0.003,-0.003,-0.005
628.0,-0.003772057,-0.001161659,0.014332221,-0.001655586,0.004996036,0.003,-0.003,-0.005
629.0,-0.003772057,-0.001161659,0.014332221,-0.001655586,0.004996036,0.003,-0.003,-0.005
630.0,-0.003772057,-0.001161659,0.014332221,-0.001655586,0.004996036,0.003,-0.003,-0.005
631.0,-0.003772057,-0.001161659,0.014332221,-0.001655586,0.004996036,0.003,-0.003,-0.005
632.0,-0.003772057,-0.001161659,0.014332221,-0.001655586,0.004996036,0.001999999,-0.001999999,-0.005
633.0,-0.003772057,-0.000161659,0.014332221,-0.001655586,0.004996036,0.001999999,-0.003,-0.005
634.0,-0.003772057,-0.000161659,0.014332221,-0.001655586,0.004996036,0.001999999,-0.003,-0.005
635.0,-0.003772057,-0.000161659,0.014332221,-0.001655586,0.004996036,0.003,-0.003,-0.006
636.0,-0.003772057,-0.000161659,0.014332221,-0.001655586,0.004996036,0.003,-0.003,-0.006
637.0,-0.003772057,-0.000161659,0.014332221,-0.001655586,0.004996036,0.001999999,-0.001999999,-0.006
638.0,-0.003772057,-0.000161659,0.014332221,-0.001655586,0.004996036,0.001999999,-0.001999999,-0.006
639.0,-0.003772057,-0.000161659,0.014332221,-0.001655586,0.004996036,0.001999999,-0.001999999,-0.006
640.0,-0.003772057,-0.000161659,0.014332221,-0.001655586,0.004996036,0.001999999,-0.001999999,-0.006
641.0,-0.003772057,-0.000161659,0.014332221,-0.001655586,0.004996036,0.001999999,-0.001999999,-0.006
642.0,-0.003772057,-0.000161659,0.014332221,-0.001655586,0.004996036,0.001999999,-0.001999999,-0.006
643.0,-0.003772057,-0.000161659,0.014332221,-0.001655586,0.004996036,0.001999999,-0.001999999,-0.006
644.0,-0.003772057,-0.000161659,0.014332221,-0.001655586,0.004996036,0.001999999,-0.001999999,-0.006
645.0,-0.003772057,-0.000161659,0.014332221,-0.001655586,0.004996036,0.001999999,-0.001999999,-0.006
646.0,-0.003772057,-0.000161659,0.014332221,-0.001655586,0.004996036,0.001999999,-0.001999999,-0.006
647.0,-0.003772057,-0.000161659,0.014332221,-0.001655586,0.004996036,0.001999999,-0.001999999,-0.006
648.0,-0.003772057,-0.000161659,0.014332221,-0.001655586,0.004996036,0.001999999,-0.001999999,-0.006
649.0,-0.003772057,-0.000161659,0.014332221,-0.001655586,0.004996036,0.001999999,-0.001999999,-0.006
650.0,-0.003772057,-0.000161659,0.014332221,-0.001655586,0.004996036,0.001999999,-0.001999999,-0.006
651.0,-0.003772057,-0.000161659,0.014332221,-0.001655586,0.004996036,0.001999999,-0.001999999,-0.006
652.0,-0.003772057,-0.000161659,0.014332221,-0.001655586,0.004996036,0.001999999,-0.003,-0.005
653.0,-0.003772057,-0.000161659,0.014332221,-0.001655586,0.004996036,0.001999999,-0.003,-0.005
654.0,-0.003772057,-0.000161659,0.014332221,-0.001655586,0.004996036,0.001999999,-0.003,-0.005
655.0,-0.003772057,-0.000161659,0.014332221,-0.001655586,0.004996036,0.001999999,-0.003,-0.005
656.0,-0.003772057,-0.000161659,0.014332221,-0.001655586,0.004996036,0.001999999,-0.003,-0.005
657.0,-0.003772057,-0.000161659,0.014332221,-0.001655586,0.004996036,0.001999999,-0.003,-0.005
658.0,-0.003772057,-0.000161659,0.014332221,-0.001655586,0.004996036,0.001999999,-0.003,-0.005
659.0,-0.003772057,-0.000161659,0.014332221,-0.001655586,0.004996036,0.001999999,-0.003,-0.005
660.0,-0.003772057,-0.000161659,0.014332221,-0.001655586,0.004996036,0.001999999,-0.003,-0.005
661.0,-0.003772057,-0.000161659,0.014332221,-0.001655586,0.004996036,0.001999999,-0.003,-0.005
662.0,-0.003772057,-0.000161659,0.014332221,-0.001655586,0.004996036,0.001999999,-0.001999999,-0.006
663.0,-0.003772057,-0.000161659,0.014332221,-0.001655586,0.004996036,0.001999999,-0.001999999,-0.006
664.0,-0.003772057,-0.000161659,0.014332221,-0.001655586,0.004996036,0.003,-0.003,-0.006
665.0,-0.003772057,-0.000161659,0.014332221,-0.001655586,0.004996036,0.003,-0.003,-0.006
666.0,-0.003772057,-0.000161659,0.014332221,-0.001655586,0.004996036,0.003,-0.003,-0.006
667.0,-0.003772057,-0.000161659,0.014332221,-0.001655586,0.004996036,0.001999999,-0.001999999,-0.006
668.0,-0.003772057,-0.000161659,0.014332221,-0.001655586,0.004996036,0.003,-0.003,-0.006
669.0,-0.003772057,-0.000161659,0.014332221,-0.001655586,0.004996036,0.003,-0.003,-0.006
670.0,-0.003772057,-0.000161659,0.014332221,-0.001655586,0.004996036,0.003,-0.003,-0.006
671.0,-0.003772057,-0.000161659,0.014332221,-0.001655586,0.004996036,0.003,-0.003,-0.006
672.0,-0.003772057,-0.000161659,0.014332221,-0.001655586,0.004996036,0.003,-0.003,-0.006
673.0,-0.003772057,-0.000161659,0.014332221,-0.001655586,0.004996036,0.003,-0.003,-0.006
674.0,-0.003772057,-0.000161659,0.014332221,-0.001655586,0.004996036,0.003,-0.003,-0.006
675.0,-0.003772057,-0.000161659,0.014332221,-0.001655586,0.004996036,0.003,-0.003,-0.006
676.0,-0.003772057,-0.000161659,0.014332221,-0.001655586,0.004996036,0.003,-0.003,-0.006
677.0,-0.003772057,-0.000161659,0.014332221,-0.000655586,0.003996036,0.003,-0.003,-0.006
678.0,-0.003772057,-0.000161659,0.014332221,-0.000655586,0.003996036,0.001999999,-0.001999999,-0.006
679.0,-0.003772057,-0.000161659,0.014332221,-0.000655586,0.003996036,0.001999999,-0.001999999,-0.006
680.0,-0.003772057,-0.000161659,0.014332221,-0.000655586,0.003996036,0.001999999,-0.001999999,-0.006
681.0,-0.003772057,-0.000161659,0.014332221,-0.000655586,0.003996036,0.001999999,-0.001999999,-0.006
682.0,-0.003772057,-0.000161659,0.014332221,-0.000655586,0.003996036,0.003,-0.003,-0.006
683.0,-0.003772057,-0.000161659,0.014332221,-0.000655586,0.003996036,0.003,-0.003,-0.006
684.0,-0.003772057,-0.000161659,0.014332221,-0.000655586,0.003996036,0.003,-0.003,-0.006
685.0,-0.003772057,-0.000161659,0.014332221,-0.000655586,0.003996036,0.003,-0.003,-0.006
686.0,-0.003772057,-0.000161659,0.014332221,-0.000655586,0.003996036,0.003,-0.003,-0.006
687.0,-0.003772057,-0.000161659,0.014332221,-0.000655586,0.003996036,0.003,-0.003,-0.006
688.0,-0.003772057,-0.000161659,0.015332221,-0.001655586,0.003996036,0.003,-0.003,-0.006
689.0,-0.003772057,-0.000161659,0.015332221,-0.001655586,0.003996036,0.003,-0.003,-0.006
690.0,-0.003772057,-0.000161659,0.015332221,-0.001655586,0.003996036,0.003,-0.003,-0.006
691.0,-0.004772058,-0.000161659,0.015332221,-0.001655586,0.003996036,0.003,-0.003,-0.005
692.0,-0.004772058,-0.000161659,0.015332221,-0.001655586,0.003996036,0.003,-0.003,-0.005
693.0,-0.004772058,-0.000161659,0.015332221,-0.001655586,0.003996036,0.003,-0.003,-0.005
694.0,-0.004772058,-0.000161659,0.015332221,-0.001655586,0.003996036,0.003,-0.003,-0.005
695.0,-0.004772058,-0.000161659,0.015332221,-0.001655586,0.003996036,0.003,-0.003,-0.005
696.0,-0.004772058,-0.000161659,0.015332221,-0.001655586,0.003996036,0.003,-0.003,-0.005
697.0,-0.004772058,-0.000161659,0.015332221,-0.001655586,0.003996036,0.004,-0.003,-0.006
698.0,-0.004772058,-0.000161659,0.015332221,-0.001655586,0.003996036,0.003,-0.003,-0.005
699.0,-0.004772058,-0.000161659,0.015332221,-0.001655586,0.003996036,0.003,-0.003,-0.005
700.0,-0.004772058,-0.000161659,0.015332221,-0.001655586,0.003996036,0.003,-0.003,-0.005
701.0,-0.004772058,-0.000161659,0.015332221,-0.001655586,0.003996036,0.003,-0.003,-0.005
702.0,-0.004772058,-0.000161659,0.015332221,-0.001655586,0.003996036,0.003,-0.003,-0.005
703.0,-0.004772058,-0.000161659,0.015332221,-0.001655586,0.003996036,0.001999999,-0.003,-0.004
704.0,-0.004772058,-0.000161659,0.015332221,-0.001655586,0.003996036,0.003,-0.003,-0.005
705.0,-0.004772058,-0.000161659,0.015332221,-0.001655586,0.003996036,0.003,-0.003,-0.005
706.0,-0.004772058,-0.000161659,0.015332221,-0.001655586,0.003996036,0.003,-0.003,-0.005
707.0,-0.004772058,-0.000161659,0.015332221,-0.001655586,0.003996036,0.003,-0.003,-0.005
708.0,-0.004772058,-0.000161659,0.015332221,-0.001655586,0.003996036,0.003,-0.003,-0.005
709.0,-0.004772058,-0.000161659,0.015332221,-0.001655586,0.003996036,0.003,-0.003,-0.005
710.0,-0.004772058,-0.000161659,0.015332221,-0.001655586,0.003996036,0.003,-0.003,-0.005
711.0,-0.004772058,-0.000161659,0.015332221,-0.001655586,0.003996036,0.003,-0.003,-0.005
712.0,-0.004772058,-0.000161659,0.015332221,-0.001655586,0.003996036,0.003,-0.003,-0.005
713.0,-0.004772058,-0.000161659,0.015332221,-0.001655586,0.004996036,0.001999999,-0.003,-0.005
714.0,-0.003772057,-0.000161659,0.015332221,-0.001655586,0.003996036,0.001999999,-0.003,-0.005
715.0,-0.003772057,-0.000161659,0.015332221,-0.001655586,0.003996036,0.003,-0.004,-0.005
716.0,-0.003772057,-0.000161659,0.015332221,-0.001655586,0.003996036,0.003,-0.004,-0.005
717.0,-0.003772057,-0.000161659,0.015332221,-0.001655586,0.003996036,0.003,-0.004,-0.005
718.0,-0.003772057,-0.000161659,0.015332221,-0.001655586,0.003996036,0.001999999,-0.003,-0.005
719.0,-0.003772057,-0.000161659,0.015332221,-0.001655586,0.003996036,0.001999999,-0.003,-0.005
720.0,-0.003772057,-0.000161659,0.015332221,-0.001655586,0.003996036,0.001999999,-0.003,-0.005
721.0,-0.003772057,-0.000161659,0.015332221,-0.001655586,0.003996036,0.001999999,-0.003,-0.005
722.0,-0.003772057,-0.000161659,0.015332221,-0.001655586,0.003996036,0.001999999,-0.003,-0.005
723.0,-0.003772057,-0.000161659,0.015332221,-0.001655586,0.003996036,0.001999999,-0.003,-0.005
724.0,-0.003772057,-0.000161659,0.015332221,-0.001655586,0.003996036,0.001999999,-0.003,-0.005
725.0,-0.003772057,-0.000161659,0.015332221,-0.001655586,0.003996036,0.001999999,-0.003,-0.005
726.0,-0.003772057,-0.000161659,0.015332221,-0.001655586,0.003996036,0.001999999,-0.003,-0.005
727.0,-0.003772057,-0.000161659,0.015332221,-0.001655586,0.003996036,0.001999999,-0.003,-0.005
728.0,-0.003772057,-0.000161659,0.015332221,-0.001655586,0.003996036,0.001999999,-0.003,-0.005
729.0,-0.003772057,-0.000161659,0.015332221,-0.001655586,0.003996036,0.003,-0.004,-0.005
730.0,-0.003772057,-0.000161659,0.015332221,-0.001655586,0.003996036,0.003,-0.004,-0.005
731.0,-0.003772057,-0.000161659,0.015332221,-0.001655586,0.003996036,0.003,-0.004,-0.005
732.0,-0.003772057,-0.000161659,0.015332221,-0.001655586,0.003996036,0.003,-0.004,-0.005
733.0,-0.003772057,-0.000161659,0.015332221,-0.001655586,0.003996036,0.003,-0.004,-0.005
734.0,-0.003772057,-0.000161659,0.015332221,-0.001655586,0.003996036,0.003,-0.004,-0.005
735.0,-0.003772057,-0.000161659,0.015332221,-0.001655586,0.003996036,0.003,-0.004,-0.005
736.0,-0.003772057,-0.000161659,0.015332221,-0.001655586,0.003996036,0.003,-0.004,-0.005
737.0,-0.003772057,-0.000161659,0.015332221,-0.001655586,0.003996036,0.003,-0.004,-0.005
738.0,-0.003772057,-0.000161659,0.014332221,-0.001655586,0.003996036,0.003,-0.004,-0.004
739.0,-0.003772057,-0.001161659,0.014332221,-0.001655586,0.003996036,0.003,-0.003,-0.004
740.0,-0.003772057,-0.001161659,0.014332221,-0.001655586,0.003996036,0.003,-0.003,-0.004
741.0,-0.003772057,-0.001161659,0.014332221,-0.001655586,0.003996036,0.003,-0.003,-0.004
742.0,-0.003772057,-0.001161659,0.014332221,-0.001655586,0.003996036,0.003,-0.003,-0.004
743.0,-0.003772057,-0.001161659,0.014332221,-0.001655586,0.003996036,0.003,-0.003,-0.004
744.0,-0.003772057,-0.001161659,0.014332221,-0.001655586,0.003996036,0.003,-0.003,-0.004
745.0,-0.003772057,-0.001161659,0.014332221,-0.001655586,0.003996036,0.003,-0.003,-0.004
746.0,-0.003772057,-0.001161659,0.014332221,-0.001655586,0.003996036,0.003,-0.003,-0.004
747.0,-0.003772057,-0.001161659,0.014332221,-0.001655586,0.003996036,0.003,-0.003,-0.004
748.0,-0.003772057,-0.001161659,0.014332221,-0.001655586,0.003996036,0.003,-0.003,-0.004
749.0,-0.003772057,-0.001161659,0.014332221,-0.001655586,0.003996036,0.003,-0.003,-0.004
750.0,-0.003772057,-0.001161659,0.014332221,-0.001655586,0.003996036,0.003,-0.003,-0.004
751.0,-0.003772057,-0.001161659,0.014332221,-0.001655586,0.003996036,0.003,-0.003,-0.004
752.0,-0.003772057,-0.001161659,0.014332221,-0.001655586,0.003996036,0.003,-0.003,-0.004
753.0,-0.003772057,-0.001161659,0.014332221,-0.001655586,0.003996036,0.003,-0.003,-0.004
754.0,-0.003772057,-0.001161659,0.014332221,-0.001655586,0.003996036,0.004,-0.003,-0.005
755.0,-0.003772057,-0.001161659,0.014332221,-0.001655586,0.003996036,0.004,-0.003,-0.005
756.0,-0.003772057,-0.001161659,0.014332221,-0.001655586,0.003996036,0.003,-0.001999999,-0.005
757.0,-0.003772057,-0.001161659,0.014332221,-0.001655586,0.003996036,0.003,-0.001999999,-0.005
758.0,-0.003772057,-0.001161659,0.014332221,-0.001655586,0.003996036,0.004,-0.003,-0.005
759.0,-0.003772057,-0.001161659,0.014332221,-0.001655586,0.003996036,0.004,-0.003,-0.005
760.0,-0.003772057,-0.001161659,0.014332221,-0.001655586,0.003996036,0.004,-0.003,-0.005
761.0,-0.003772057,-0.001161659,0.014332221,-0.001655586,0.003996036,0.004,-0.003,-0.005
762.0,-0.003772057,-0.001161659,0.014332221,-0.001655586,0.003996036,0.004,-0.003,-0.005
763.0,-0.003772057,-0.001161659,0.014332221,-0.001655586,0.003996036,0.003,-0.003,-0.004
764.0,-0.003772057,-0.001161659,0.014332221,-0.001655586,0.003996036,0.003,-0.003,-0.004
765.0,-0.003772057,-0.001161659,0.014332221,-0.001655586,0.003996036,0.003,-0.003,-0.004
766.0,-0.003772057,-0.001161659,0.014332221,-0.001655586,0.003996036,0.004,-0.003,-0.005
767.0,-0.003772057,-0.001161659,0.014332221,-0.001655586,0.003996036,0.004,-0.003,-0.005
768.0,-0.003772057,-0.001161659,0.014332221,-0.001655586,0.003996036,0.003,-0.003,-0.004
769.0,-0.003772057,-0.001161659,0.014332221,-0.001655586,0.003996036,0.003,-0.003,-0.004
770.0,-0.003772057,-0.001161659,0.014332221,-0.001655586,0.003996036,0.003,-0.003,-0.004
771.0,-0.003772057,-0.001161659,0.014332221,-0.001655586,0.003996036,0.001999999,-0.001999999,-0.004
772.0,-0.003772057,-0.001161659,0.014332221,-0.001655586,0.003996036,0.001999999,-0.001999999,-0.004
773.0,-0.003772057,-0.001161659,0.014332221,-0.001655586,0.003996036,0.001999999,-0.001999999,-0.004
774.0,-0.003772057,-0.001161659,0.014332221,-0.001655586,0.003996036,0.001999999,-0.001999999,-0.004
775.0,-0.003772057,-0.001161659,0.014332221,-0.001655586,0.003996036,0.003,-0.003,-0.004
776.0,-0.003772057,-0.001161659,0.014332221,-0.001655586,0.003996036,0.003,-0.003,-0.004
777.0,-0.003772057,-0.001161659,0.014332221,-0.001655586,0.003996036,0.004,-0.003,-0.005
778.0,-0.003772057,-0.001161659,0.015332221,-0.001655586,0.003996036,0.003,-0.003,-0.005
779.0,-0.003772057,-0.001161659,0.015332221,-0.001655586,0.003996036,0.003,-0.003,-0.005
780.0,-0.003772057,-0.001161659,0.015332221,-0.001655586,0.003996036,0.003,-0.003,-0.005
781.0,-0.003772057,-0.001161659,0.015332221,-0.001655586,0.003996036,0.003,-0.003,-0.005
782.0,-0.003772057,-0.001161659,0.015332221,-0.001655586,0.003996036,0.003,-0.003,-0.005
783.0,-0.003772057,-0.001161659,0.014332221,-0.001655586,0.003996036,0.004,-0.003,-0.005
784.0,-0.003772057,-0.001161659,0.014332221,-0.001655586,0.003996036,0.003,-0.001999999,-0.005
785.0,-0.003772057,-0.001161659,0.014332221,-0.001655586,0.003996036,0.003,-0.001999999,-0.005
786.0,-0.003772057,-0.001161659,0.014332221,-0.001655586,0.003996036,0.003,-0.001999999,-0.005
787.0,-0.003772057,-0.001161659,0.014332221,-0.001655586,0.003996036,0.003,-0.001999999,-0.005
788.0,-0.003772057,-0.001161659,0.014332221,-0.001655586,0.003996036,0.003,-0.001999999,-0.005
789.0,-0.003772057,-0.001161659,0.014332221,-0.001655586,0.003996036,0.003,-0.001999999,-0.005
790.0,-0.003772057,-0.001161659,0.014332221,-0.001655586,0.003996036,0.003,-0.001999999,-0.005
791.0,-0.003772057,-0.000161659,0.014332221,-0.001655586,0.003996036,0.003,-0.003,-0.005
792.0,-0.003772057,-0.000161659,0.014332221,-0.001655586,0.003996036,0.003,-0.003,-0.005
793.0,-0.003772057,-0.000161659,0.014332221,-0.001655586,0.003996036,0.001999999,-0.001999999,-0.005
794.0,-0.003772057,-0.000161659,0.014332221,-0.001655586,0.003996036,0.001999999,-0.001999999,-0.005
795.0,-0.003772057,-0.000161659,0.014332221,-0.001655586,0.003996036,0.001999999,-0.001999999,-0.005
796.0,-0.003772057,-0.000161659,0.014332221,-0.001655586,0.003996036,0.001999999,-0.001999999,-0.005
797.0,-0.003772057,-0.000161659,0.014332221,-0.001655586,0.003996036,0.001999999,-0.001999999,-0.005
798.0,-0.003772057,-0.000161659,0.014332221,-0.001655586,0.003996036,0.003,-0.003,-0.005
799.0,-0.003772057,-0.000161659,0.014332221,-0.001655586,0.003996036,0.001999999,-0.003,-0.004
800.0,-0.003772057,-0.000161659,0.014332221,-0.001655586,0.003996036,0.001999999,-0.003,-0.004
801.0,-0.003772057,-0.000161659,0.014332221,-0.001655586,0.003996036,0.001999999,-0.003,-0.004
802.0,-0.003772057,-0.001161659,0.015332221,-0.001655586,0.003996036,0.001999999,-0.003,-0.004
803.0,-0.003772057,-0.001161659,0.015332221,-0.001655586,0.003996036,0.001999999,-0.003,-0.004
804.0,-0.003772057,-0.001161659,0.015332221,-0.001655586,0.003996036,0.001999999,-0.003,-0.004
805.0,-0.003772057,-0.001161659,0.015332221,-0.001655586,0.003996036,0.001999999,-0.003,-0.004
806.0,-0.003772057,-0.001161659,0.015332221,-0.001655586,0.003996036,0.001999999,-0.003,-0.004
807.0,-0.003772057,-0.001161659,0.015332221,-0.001655586,0.003996036,0.001999999,-0.003,-0.004
808.0,-0.003772057,-0.001161659,0.015332221,-0.001655586,0.003996036,0.001999999,-0.003,-0.004
809.0,-0.003772057,-0.001161659,0.015332221,-0.001655586,0.003996036,0.001999999,-0.003,-0.004
810.0,-0.003772057,-0.001161659,0.015332221,-0.001655586,0.003996036,0.001999999,-0.003,-0.004
811.0,-0.003772057,-0.001161659,0.015332221,-0.001655586,0.003996036,0.001999999,-0.003,-0.004
812.0,-0.003772057,-0.001161659,0.015332221,-0.001655586,0.003996036,0.001999999,-0.003,-0.004
813.0,-0.003772057,-0.001161659,0.015332221,-0.001655586,0.003996036,0.001999999,-0.003,-0.004
814.0,-0.003772057,-0.001161659,0.015332221,-0.001655586,0.003996036,0.001999999,-0.003,-0.004
815.0,-0.003772057,-0.001161659,0.015332221,-0.001655586,0.003996036,0.001999999,-0.003,-0.004
816.0,-0.003772057,-0.001161659,0.015332221,-0.001655586,0.003996036,0.001999999,-0.003,-0.004
817.0,-0.003772057,-0.001161659,0.015332221,-0.001655586,0.003996036,0.001999999,-0.003,-0.004
818.0,-0.003772057,-0.001161659,0.015332221,-0.001655586,0.003996036,0.001999999,-0.003,-0.004
819.0,-0.003772057,-0.001161659,0.015332221,-0.001655586,0.003996036,0.001999999,-0.003,-0.004
820.0,-0.003772057,-0.001161659,0.015332221,-0.001655586,0.003996036,0.001999999,-0.003,-0.004
821.0,-0.003772057,-0.001161659,0.015332221,-0.001655586,0.003996036,0.001999999,-0.003,-0.004
822.0,-0.003772057,-0.001161659,0.015332221,-0.001655586,0.003996036,0.001999999,-0.003,-0.004
823.0,-0.003772057,-0.001161659,0.015332221,-0.001655586,0.003996036,0.001999999,-0.003,-0.004
824.0,-0.003772057,-0.001161659,0.015332221,-0.001655586,0.003996036,0.001999999,-0.003,-0.004
825.0,-0.003772057,-0.001161659,0.015332221,-0.001655586,0.003996036,0.001999999,-0.003,-0.004
826.0,-0.003772057,-0.001161659,0.015332221,-0.001655586,0.003996036,0.001999999,-0.003,-0.004
827.0,-0.003772057,-0.001161659,0.015332221,-0.001655586,0.003996036,0.001999999,-0.003,-0.004
828.0,-0.003772057,-0.001161659,0.015332221,-0.001655586,0.003996036,0.001999999,-0.003,-0.004
829.0,-0.003772057,-0.001161659,0.015332221,-0.001655586,0.003996036,0.001999999,-0.003,-0.004
830.0,-0.003772057,-0.001161659,0.015332221,-0.001655586,0.003996036,0.001999999,-0.003,-0.004
831.0,-0.003772057,-0.001161659,0.015332221,-0.001655586,0.003996036,0.001999999,-0.003,-0.004
832.0,-0.003772057,-0.001161659,0.015332221,-0.001655586,0.003996036,0.003,-0.003,-0.005
833.0,-0.003772057,-0.001161659,0.015332221,-0.001655586,0.003996036,0.003,-0.003,-0.005
834.0,-0.003772057,-0.001161659,0.015332221,-0.001655586,0.003996036,0.003,-0.003,-0.005
835.0,-0.003772057,-0.001161659,0.015332221,-0.001655586,0.003996036,0.001999999,-0.001999999,-0.005
836.0,-0.003772057,-0.001161659,0.015332221,-0.001655586,0.003996036,0.001999999,-0.001999999,-0.005
837.0,-0.003772057,-0.001161659,0.015332221,-0.001655586,0.003996036,0.001999999,-0.001999999,-0.005
838.0,-0.003772057,-0.001161659,0.015332221,-0.001655586,0.003996036,0.001999999,-0.001999999,-0.005
839.0,-0.003772057,-0.001161659,0.015332221,-0.001655586,0.003996036,0.001999999,-0.001999999,-0.005
840.0,-0.003772057,-0.001161659,0.015332221,-0.001655586,0.003996036,0.000999999,-0.001999999,-0.004
841.0,-0.003772057,-0.001161659,0.015332221,-0.001655586,0.003996036,0.000999999,-0.001999999,-0.004
842.0,-0.003772057,-0.001161659,0.015332221,-0.001655586,0.003996036,0.000999999,-0.001999999,-0.004
843.0,-0.003772057,-0.001161659,0.015332221,-0.001655586,0.003996036,0.000999999,-0.001999999,-0.004
844.0,-0.003772057,-0.001161659,0.015332221,-0.001655586,0.003996036,0.000999999,-0.001999999,-0.004
845.0,-0.003772057,-0.001161659,0.015332221,-0.001655586,0.003996036,0.000999999,-0.001999999,-0.004
846.0,-0.003772057,-0.001161659,0.015332221,-0.001655586,0.003996036,0.000999999,-0.001999999,-0.004
847.0,-0.003772057,-0.001161659,0.014332221,-0.001655586,0.003996036,0.000999999,-0.000999999,-0.004
848.0,-0.003772057,-0.001161659,0.014332221,-0.001655586,0.003996036,0.000999999,-0.000999999,-0.004
849.0,-0.003772057,-0.001161659,0.014332221,-0.001655586,0.003996036,0.000999999,-0.000999999,-0.004
850.0,-0.003772057,-0.001161659,0.014332221,-0.001655586,0.003996036,0.001999999,-0.001999999,-0.004
851.0,-0.003772057,-0.001161659,0.014332221,-0.001655586,0.003996036,0.001999999,-0.001999999,-0.004
852.0,-0.003772057,-0.001161659,0.014332221,-0.001655586,0.003996036,0.001999999,-0.001999999,-0.004
853.0,-0.003772057,-0.001161659,0.014332221,-0.001655586,0.003996036,0.001999999,-0.001999999,-0.004
854.0,-0.003772057,-0.001161659,0.014332221,-0.001655586,0.003996036,0.003,-0.003,-0.004
855.0,-0.003772057,-0.001161659,0.014332221,-0.001655586,0.003996036,0.003,-0.003,-0.004
856.0,-0.003772057,-0.001161659,0.014332221,-0.001655586,0.003996036,0.003,-0.003,-0.004
857.0,-0.003772057,-0.001161659,0.014332221,-0.001655586,0.003996036,0.001999999,-0.001999999,-0.004
858.0,-0.003772057,-0.001161659,0.014332221,-0.001655586,0.003996036,0.001999999,-0.001999999,-0.004
859.0,-0.003772057,-0.001161659,0.014332221,-0.001655586,0.003996036,0.001999999,-0.001999999,-0.004
860.0,-0.003772057,-0.001161659,0.014332221,-0.001655586,0.003996036,0.001999999,-0.001999999,-0.004
861.0,-0.003772057,-0.001161659,0.014332221,-0.001655586,0.003996036,0.001999999,-0.001999999,-0.004
862.0,-0.003772057,-0.001161659,0.014332221,-0.001655586,0.003996036,0.001999999,-0.001999999,-0.004
863.0,-0.003772057,-0.001161659,0.014332221,-0.001655586,0.003996036,0.003,-0.003,-0.004
864.0,-0.003772057,-0.001161659,0.014332221,-0.001655586,0.003996036,0.001999999,-0.001999999,-0.004
865.0,-0.003772057,-0.001161659,0.014332221,-0.001655586,0.003996036,0.003,-0.003,-0.004
866.0,-0.003772057,-0.001161659,0.014332221,-0.001655586,0.003996036,0.003,-0.003,-0.004
867.0,-0.003772057,-0.001161659,0.014332221,-0.001655586,0.003996036,0.001999999,-0.001999999,-0.004
868.0,-0.003772057,-0.001161659,0.014332221,-0.001655586,0.003996036,0.001999999,-0.001999999,-0.004
869.0,-0.003772057,-0.001161659,0.014332221,-0.001655586,0.003996036,0.001999999,-0.003,-0.003
870.0,-0.003772057,-0.001161659,0.014332221,-0.001655586,0.003996036,0.001999999,-0.003,-0.003
871.0,-0.003772057,-0.001161659,0.014332221,-0.001655586,0.003996036,0.001999999,-0.003,-0.003
872.0,-0.003772057,-0.001161659,0.014332221,-0.001655586,0.003996036,0.001999999,-0.003,-0.003
873.0,-0.003772057,-0.001161659,0.014332221,-0.001655586,0.003996036,0.001999999,-0.003,-0.003
874.0,-0.003772057,-0.001161659,0.014332221,-0.001655586,0.003996036,0.001999999,-0.003,-0.003
875.0,-0.003772057,-0.001161659,0.014332221,-0.001655586,0.003996036,0.003,-0.003,-0.004
876.0,-0.003772057,-0.001161659,0.015332221,-0.001655586,0.003996036,0.001999999,-0.003,-0.004
877.0,-0.003772057,-0.001161659,0.015332221,-0.001655586,0.003996036,0.003,-0.003,-0.005
878.0,-0.003772057,-0.001161659,0.015332221,-0.001655586,0.003996036,0.003,-0.003,-0.005
879.0,-0.003772057,-0.001161659,0.015332221,-0.001655586,0.003996036,0.003,-0.003,-0.005
880.0,-0.003772057,-0.001161659,0.015332221,-0.001655586,0.003996036,0.003,-0.003,-0.005
881.0,-0.003772057,-0.001161659,0.015332221,-0.001655586,0.003996036,0.003,-0.003,-0.005
882.0,-0.003772057,-0.001161659,0.015332221,-0.001655586,0.003996036,0.003,-0.003,-0.005
883.0,-0.003772057,-0.001161659,0.015332221,-0.001655586,0.003996036,0.001999999,-0.003,-0.004
884.0,-0.003772057,-0.001161659,0.015332221,-0.001655586,0.003996036,0.001999999,-0.003,-0.004
885.0,-0.003772057,-0.001161659,0.015332221,-0.001655586,0.003996036,0.001999999,-0.003,-0.004
886.0,-0.003772057,-0.001161659,0.015332221,-0.001655586,0.003996036,0.001999999,-0.003,-0.004
887.0,-0.003772057,-0.001161659,0.015332221,-0.001655586,0.003996036,0.001999999,-0.003,-0.004
888.0,-0.003772057,-0.001161659,0.015332221,-0.001655586,0.003996036,0.001999999,-0.003,-0.004
889.0,-0.003772057,-0.001161659,0.015332221,-0.001655586,0.003996036,0.001999999,-0.003,-0.004
890.0,-0.003772057,-0.001161659,0.015332221,-0.001655586,0.003996036,0.001999999,-0.003,-0.004
891.0,-0.003772057,-0.001161659,0.015332221,-0.001655586,0.003996036,0.001999999,-0.003,-0.004
892.0,-0.003772057,-0.001161659,0.015332221,-0.001655586,0.003996036,0.001999999,-0.003,-0.004
893.0,-0.003772057,-0.001161659,0.015332221,-0.001655586,0.003996036,0.001999999,-0.003,-0.004
894.0,-0.003772057,-0.001161659,0.015332221,-0.001655586,0.003996036,0.001999999,-0.003,-0.004
895.0,-0.003772057,-0.001161659,0.015332221,-0.001655586,0.003996036,0.001999999,-0.003,-0.004
896.0,-0.003772057,-0.001161659,0.014332221,-0.001655586,0.004996036,0.001999999,-0.003,-0.004
897.0,-0.003772057,-0.001161659,0.014332221,-0.001655586,0.004996036,0.001999999,-0.003,-0.004
898.0,-0.003772057,-0.001161659,0.014332221,-0.001655586,0.004996036,0.001999999,-0.003,-0.004
899.0,-0.003772057,-0.001161659,0.014332221,-0.001655586,0.004996036,0.001999999,-0.003,-0.004
900.0,-0.003772057,-0.001161659,0.014332221,-0.001655586,0.004996036,0.001999999,-0.003,-0.004
901.0,-0.003772057,-0.001161659,0.014332221,-0.001655586,0.004996036,0.001999999,-0.003,-0.004
902.0,-0.003772057,-0.001161659,0.014332221,-0.001655586,0.004996036,0.001999999,-0.003,-0.004
903.0,-0.003772057,-0.001161659,0.014332221,-0.001655586,0.004996036,0.001999999,-0.003,-0.004
904.0,-0.003772057,-0.001161659,0.014332221,-0.001655586,0.004996036,0.001999999,-0.003,-0.004
905.0,-0.003772057,-0.001161659,0.014332221,-0.001655586,0.004996036,0.001999999,-0.003,-0.004
906.0,-0.003772057,-0.001161659,0.014332221,-0.001655586,0.004996036,0.001999999,-0.003,-0.004
907.0,-0.003772057,-0.001161659,0.014332221,-0.001655586,0.004996036,0.001999999,-0.003,-0.004
908.0,-0.003772057,-0.001161659,0.014332221,-0.001655586,0.004996036,0.001999999,-0.003,-0.004
909.0,-0.003772057,-0.001161659,0.014332221,-0.001655586,0.004996036,0.001999999,-0.003,-0.004
910.0,-0.003772057,-0.001161659,0.014332221,-0.001655586,0.004996036,0.001999999,-0.003,-0.004
911.0,-0.003772057,-0.001161659,0.014332221,-0.001655586,0.004996036,0.003,-0.003,-0.005
912.0,-0.003772057,-0.001161659,0.014332221,-0.001655586,0.004996036,0.003,-0.003,-0.005
913.0,-0.003772057,-0.001161659,0.014332221,-0.001655586,0.004996036,0.003,-0.003,-0.005
914.0,-0.003772057,-0.001161659,0.014332221,-0.001655586,0.004996036,0.003,-0.003,-0.005
915.0,-0.003772057,-0.001161659,0.014332221,-0.001655586,0.004996036,0.001999999,-0.001999999,-0.005
916.0,-0.003772057,-0.001161659,0.014332221,-0.001655586,0.004996036,0.001999999,-0.001999999,-0.005
917.0,-0.003772057,-0.001161659,0.014332221,-0.001655586,0.004996036,0.001999999,-0.001999999,-0.005
918.0,-0.003772057,-0.001161659,0.014332221,-0.001655586,0.004996036,0.001999999,-0.001999999,-0.005
919.0,-0.003772057,-0.001161659,0.014332221,-0.001655586,0.004996036,0.003,-0.003,-0.005
920.0,-0.003772057,-0.001161659,0.014332221,-0.001655586,0.004996036,0.003,-0.003,-0.005
921.0,-0.003772057,-0.001161659,0.014332221,-0.001655586,0.004996036,0.003,-0.003,-0.005
922.0,-0.003772057,-0.001161659,0.014332221,-0.001655586,0.004996036,0.003,-0.003,-0.005
923.0,-0.003772057,-0.001161659,0.014332221,-0.001655586,0.004996036,0.004,-0.004,-0.005
924.0,-0.003772057,-0.001161659,0.014332221,-0.001655586,0.004996036,0.004,-0.004,-0.005
925.0,-0.003772057,-0.001161659,0.014332221,-0.001655586,0.004996036,0.004,-0.004,-0.005
926.0,-0.003772057,-0.001161659,0.014332221,-0.001655586,0.004996036,0.004,-0.004,-0.005
927.0,-0.003772057,-0.001161659,0.014332221,-0.001655586,0.004996036,0.004,-0.004,-0.005
928.0,-0.003772057,-0.001161659,0.014332221,-0.001655586,0.004996036,0.004,-0.004,-0.005
929.0,-0.003772057,-0.001161659,0.014332221,-0.001655586,0.004996036,0.004,-0.004,-0.005
930.0,-0.003772057,-0.001161659,0.014332221,-0.001655586,0.004996036,0.004,-0.004,-0.005
931.0,-0.003772057,-0.001161659,0.014332221,-0.001655586,0.004996036,0.004,-0.004,-0.005
932.0,-0.003772057,-0.001161659,0.014332221,-0.001655586,0.004996036,0.003,-0.004,-0.004
933.0,-0.003772057,-0.001161659,0.014332221,-0.001655586,0.004996036,0.003,-0.004,-0.004
934.0,-0.003772057,-0.001161659,0.015332221,-0.001655586,0.004996036,0.003,-0.004,-0.005
935.0,-0.003772057,-0.001161659,0.015332221,-0.001655586,0.004996036,0.003,-0.004,-0.005
936.0,-0.003772057,-0.001161659,0.015332221,-0.001655586,0.004996036,0.003,-0.004,-0.005
937.0,-0.003772057,-0.001161659,0.015332221,-0.001655586,0.004996036,0.003,-0.004,-0.005
938.0,-0.003772057,-0.001161659,0.015332221,-0.001655586,0.004996036,0.003,-0.004,-0.005
939.0,-0.003772057,-0.001161659,0.015332221,-0.001655586,0.004996036,0.003,-0.004,-0.005
940.0,-0.003772057,-0.001161659,0.015332221,-0.001655586,0.004996036,0.003,-0.004,-0.005
941.0,-0.003772057,-0.001161659,0.015332221,-0.001655586,0.004996036,0.003,-0.004,-0.005
