0.0,-0.005872709,-0.002023569,0.003198979,0.005316451,0.001515704,5e-05,0.0,0.0
1.0,-0.005872709,-0.002023569,0.003198979,0.005316451,0.001515704,5e-05,0.0,0.0
2.0,-0.005872709,-0.002023569,0.003198979,0.005316451,0.001515704,5e-05,0.0,0.0
3.0,-0.00582271,-0.002023569,0.003198979,0.005316451,0.001515704,0.0,0.0,0.0
4.0,-0.00582271,-0.002023569,0.003148979,0.005316451,0.001515704,0.0,5e-05,0.0
5.0,-0.00582271,-0.002023569,0.003148979,0.005316451,0.001515704,0.0,5e-05,0.0
6.0,-0.00582271,-0.002023569,0.003148979,0.005366451,0.001515704,0.0,0.0,0.0
7.0,-0.00582271,-0.002023569,0.003148979,0.005316451,0.001515704,0.0,0.0,5e-05
8.0,-0.00582271,-0.002023569,0.003198979,0.005316451,0.001515704,0.0,0.0,0.0
9.0,-0.00582271,-0.002024161,0.003149571,0.005316451,0.001515704,0.0,5e-05,0.0
10.0,-0.00582271,-0.002024161,0.003149571,0.005316451,0.001515704,0.0,0.0,5e-05
11.0,-0.00582271,-0.002024161,0.003149571,0.005316451,0.001515704,0.0,0.0,5e-05
12.0,-0.00582271,-0.002024161,0.003149571,0.005316451,0.001515704,0.0,0.0,5e-05
13.0,-0.00582271,-0.002024161,0.003149571,0.005316451,0.001515704,0.0,0.0,5e-05
14.0,-0.00582271,-0.002024161,0.003149571,0.005316451,0.001515704,0.0,5e-05,0.0
15.0,-0.00582271,-0.002024161,0.003149571,0.005316451,0.001515704,5e-05,0.0,0.0
16.0,-0.00582271,-0.002024161,0.003149571,0.005316451,0.001515704,0.0,5e-05,0.0
17.0,-0.00582271,-0.001974161,0.003099571,0.005316451,0.001515704,0.0,5e-05,0.0
18.0,-0.00582271,-0.002024161,0.003099571,0.005316451,0.001515704,0.0,5e-05,5e-05
19.0,-0.00582271,-0.002024161,0.003099571,0.005316451,0.001565704,0.0,5e-05,0.0
20.0,-0.00582271,-0.002024161,0.003099571,0.005316451,0.001565704,0.0,5e-05,0.0
21.0,-0.00577271,-0.002024161,0.003099571,0.005316451,0.001565704,0.0,0.0,0.0
22.0,-0.00582271,-0.002024161,0.003099571,0.005316451,0.001565704,0.0,5e-05,0.0
23.0,-0.00582271,-0.002024161,0.003099571,0.005316451,0.001565704,0.0,5e-05,0.0
24.0,-0.00582271,-0.002024161,0.003149571,0.005316451,0.001565704,0.0,0.0,0.0
25.0,-0.00582271,-0.002074161,0.003149571,0.005316451,0.001565704,5e-05,0.0,0.0
26.0,-0.00582271,-0.002074161,0.003149571,0.005316451,0.001565704,5e-05,0.0,0.0
27.0,-0.00582271,-0.002074161,0.003149571,0.005316451,0.001565704,5e-05,0.0,0.0
28.0,-0.00582271,-0.002074161,0.003199571,0.005316451,0.001515704,5e-05,0.0,0.0
29.0,-0.00582271,-0.002074161,0.003199571,0.005316451,0.001515704,0.0,5e-05,0.0
30.0,-0.00582271,-0.002074161,0.003199571,0.005316451,0.001515704,0.0,5e-05,0.0
31.0,-0.00582271,-0.002074161,0.003199571,0.005316451,0.001515704,5e-05,0.0,0.0
32.0,-0.00582271,-0.002074161,0.003199571,0.005316451,0.001515704,5e-05,0.0,0.0
33.0,-0.00582271,-0.002074161,0.003199571,0.005316451,0.001515704,5e-05,0.0,0.0
34.0,-0.00582271,-0.002074161,0.003199571,0.005316451,0.001515704,5e-05,0.0,0.0
35.0,-0.00582271,-0.002074161,0.003199571,0.005316451,0.001515704,5e-05,0.0,0.0
36.0,-0.00582271,-0.002074161,0.003199571,0.005316451,0.001515704,5e-05,0.0,0.0
37.0,-0.00582271,-0.002074161,0.003199571,0.005316451,0.001515704,5e-05,0.0,0.0
38.0,-0.00582271,-0.002074161,0.003199571,0.005316451,0.001515704,5e-05,0.0,0.0
39.0,-0.00582271,-0.002074161,0.003199571,0.005316451,0.001515704,5e-05,0.0,0.0
40.0,-0.00582271,-0.002074161,0.003199571,0.005316451,0.001515704,5e-05,0.0,0.0
41.0,-0.00582271,-0.002074161,0.003199571,0.005316451,0.001515704,5e-05,0.0,0.0
42.0,-0.00582271,-0.002074161,0.003199571,0.005316451,0.001515704,5e-05,0.0,0.0
43.0,-0.00582271,-0.002074161,0.003199571,0.005316451,0.001515704,5e-05,0.0,0.0
44.0,-0.00582271,-0.002074161,0.003199571,0.005316451,0.001515704,5e-05,0.0,0.0
45.0,-0.00582271,-0.002074161,0.003199571,0.005316451,0.001515704,5e-05,0.0,0.0
46.0,-0.00582271,-0.002074161,0.003199571,0.005316451,0.001515704,5e-05,0.0,0.0
47.0,-0.00582271,-0.002074161,0.003149571,0.005316451,0.001515704,5e-05,0.0,5e-05
48.0,-0.00582271,-0.002074161,0.003149571,0.005316451,0.001515704,5e-05,0.0,5e-05
49.0,-0.00582271,-0.002074161,0.003149571,0.005316451,0.001515704,5e-05,5e-05,0.0
50.0,-0.00582271,-0.002074161,0.003199571,0.005316451,0.001515704,5e-05,0.0,0.0
51.0,-0.00582271,-0.002074161,0.003199571,0.005316451,0.001515704,5e-05,0.0,0.0
52.0,-0.00582271,-0.002074161,0.003199571,0.005316451,0.001515704,5e-05,0.0,0.0
53.0,-0.00582271,-0.002074161,0.003199571,0.005316451,0.001515704,5e-05,0.0,0.0
54.0,-0.005872709,-0.002074161,0.003199571,0.005316451,0.001515704,5e-05,0.0,5e-05
55.0,-0.005872709,-0.002074161,0.003199571,0.005316451,0.001565704,0.0,0.0,5e-05
56.0,-0.005872709,-0.002074161,0.003199571,0.005316451,0.001565704,0.0,0.0,5e-05
57.0,-0.005872709,-0.002074161,0.003199571,0.005316451,0.001565704,5e-05,0.0,0.0
58.0,-0.005872709,-0.002074161,0.003199571,0.005316451,0.001565704,5e-05,0.0,0.0
59.0,-0.005872709,-0.002074161,0.003199571,0.005316451,0.001565704,5e-05,0.0,0.0
60.0,-0.005872709,-0.002074161,0.003199571,0.005366451,0.001515704,5e-05,0.0,0.0
61.0,-0.005872709,-0.002074161,0.003199571,0.005366451,0.001515704,0.0,0.0,5e-05
62.0,-0.005872709,-0.002074161,0.003249571,0.005316451,0.001515704,0.0,0.0,5e-05
63.0,-0.005872709,-0.002074161,0.003249571,0.005316451,0.001515704,5e-05,0.0,0.0
64.0,-0.00582271,-0.002074161,0.003249571,0.005316451,0.001515704,5e-05,0.0,-5e-05
65.0,-0.00582271,-0.002074161,0.003249571,0.005316451,0.001515704,5e-05,0.0,-5e-05
66.0,-0.00582271,-0.002074161,0.003249571,0.005316451,0.001515704,5e-05,0.0,-5e-05
67.0,-0.00582271,-0.002074161,0.003249571,0.005316451,0.001515704,0.0001,-5e-05,-5e-05
68.0,-0.00582271,-0.002074161,0.003199571,0.005316451,0.001565704,0.0001,-5e-05,-5e-05
69.0,-0.00582271,-0.002074161,0.003199571,0.005316451,0.001565704,0.0001,-5e-05,-5e-05
70.0,-0.00582271,-0.002074161,0.003199571,0.005316451,0.001615704,5e-05,-5e-05,-5e-05
71.0,-0.00582271,-0.002074161,0.003199571,0.005316451,0.001615704,0.0,0.0,-5e-05
72.0,-0.00582271,-0.002074161,0.003199571,0.005316451,0.001615704,0.0,0.0,-5e-05
73.0,-0.00582271,-0.002074161,0.003249571,0.005316451,0.001565704,0.0,0.0,-5e-05
74.0,-0.00582271,-0.002074161,0.003249571,0.005316451,0.001565704,5e-05,-5e-05,-5e-05
75.0,-0.00582271,-0.002074161,0.003249571,0.005316451,0.001565704,5e-05,-5e-05,-5e-05
76.0,-0.00582271,-0.002074161,0.003249571,0.005316451,0.001565704,5e-05,-5e-05,-5e-05
77.0,-0.00582271,-0.002074161,0.003199571,0.005316451,0.001565704,5e-05,-5e-05,0.0
78.0,-0.00582271,-0.002024161,0.003199571,0.005316451,0.001565704,5e-05,-5e-05,-5e-05
79.0,-0.00582271,-0.002024161,0.003199571,0.005316451,0.001565704,5.0001e-05,-5e-05,-5e-05
80.0,-0.00582271,-0.002024518,0.003199571,0.005316451,0.001565704,5.0358e-05,-5e-05,-5e-05
81.0,-0.00582271,-0.002024518,0.003199571,0.005316451,0.001565704,5.0358e-05,-5e-05,-5e-05
82.0,-0.00582271,-0.002024518,0.003199571,0.005316451,0.001565704,5.0358e-05,-5e-05,-5e-05
83.0,-0.00582271,-0.002024518,0.003199571,0.005316451,0.001565704,5.0358e-05,-5e-05,-5e-05
84.0,-0.00582271,-0.002024518,0.003199571,0.005316451,0.001565704,5.0358e-05,-5e-05,-5e-05
85.0,-0.00582271,-0.002024518,0.003199571,0.005316451,0.001565704,5.0358e-05,-5e-05,-5e-05
86.0,-0.00582271,-0.002024518,0.003199571,0.005316451,0.001565704,5.0358e-05,-5e-05,-5e-05
87.0,-0.00582271,-0.002024518,0.003199571,0.005316451,0.001565704,5.0358e-05,-5e-05,-5e-05
88.0,-0.00582271,-0.002024518,0.003199571,0.005316451,0.001565704,5.0358e-05,-5e-05,-5e-05
89.0,-0.00582271,-0.002024518,0.003199571,0.005316451,0.001565704,5.0358e-05,-5e-05,-5e-05
90.0,-0.00582271,-0.002024518,0.003199571,0.005316451,0.001565704,5.0358e-05,-5e-05,-5e-05
91.0,-0.00582271,-0.002024518,0.003199571,0.005316451,0.001565704,5.0358e-05,-5e-05,-5e-05
92.0,-0.00582271,-0.002024518,0.003199571,0.005316451,0.001565704,5.0358e-05,-5e-05,-5e-05
93.0,-0.00582271,-0.002024518,0.003199571,0.005316451,0.001565704,5.0358e-05,-5e-05,-5e-05
94.0,-0.00582271,-0.002024518,0.003199571,0.005316451,0.001565704,5.0358e-05,-5e-05,-5e-05
95.0,-0.00582271,-0.002024518,0.003246141,0.005316451,0.001519134,5.0358e-05,-5e-05,-5e-05
96.0,-0.00582271,-0.002024518,0.003246141,0.005316451,0.001519134,5.0358e-05,-5e-05,-5e-05
97.0,-0.00582271,-0.002024518,0.003246141,0.005316451,0.001519134,5.0358e-05,-5e-05,-5e-05
98.0,-0.00582271,-0.002024518,0.003246141,0.005316451,0.001519134,5.0358e-05,-5e-05,-5e-05
99.0,-0.00582271,-0.002024518,0.003246141,0.005316451,0.001519134,5.0358e-05,-5e-05,-5e-05
100.0,-0.00582271,-0.002024518,0.003196141,0.005316451,0.001569134,5.0358e-05,-5e-05,-5e-05
101.0,-0.005772711,-0.002024518,0.003196141,0.005266451,0.001569134,5.0358e-05,-5e-05,-5e-05
102.0,-0.005772711,-0.002024518,0.003196141,0.005316451,0.001519134,5.0358e-05,-5e-05,-5e-05
103.0,-0.005772711,-0.002024518,0.003196141,0.005316451,0.001519134,5.0358e-05,-5e-05,-5e-05
104.0,-0.005772711,-0.002024518,0.003196141,0.005316451,0.001519134,5.0358e-05,-5e-05,-5e-05
105.0,-0.005772711,-0.002024518,0.003196141,0.005316451,0.001519134,5.0358e-05,-5e-05,-5e-05
106.0,-0.005772711,-0.002024518,0.003196141,0.005316451,0.001519134,5.0358e-05,-5e-05,-5e-05
107.0,-0.005772711,-0.002024518,0.003196141,0.005316451,0.001519134,3.58e-07,0.0,-5e-05
108.0,-0.00582271,-0.002024518,0.003196141,0.005316451,0.001519134,3.58e-07,5e-05,-5e-05
109.0,-0.00582271,-0.002024518,0.003196141,0.005316451,0.001519134,3.58e-07,5e-05,-5e-05
110.0,-0.00582271,-0.002024518,0.003196141,0.005316451,0.001519134,3.58e-07,5e-05,-5e-05
111.0,-0.00582271,-0.002024518,0.003196141,0.005316451,0.001519134,3.58e-07,5e-05,-5e-05
112.0,-0.005772711,-0.002024518,0.003196141,0.005316451,0.001519134,3.58e-07,0.0,-5e-05
113.0,-0.00582271,-0.002024518,0.003196141,0.005316451,0.001519134,3.58e-07,0.0,0.0
114.0,-0.00582271,-0.002024518,0.003196141,0.005316451,0.001519134,3.58e-07,0.0,0.0
115.0,-0.00582271,-0.002024518,0.003196141,0.005316451,0.001519134,3.58e-07,0.0,0.0
116.0,-0.00582271,-0.002024518,0.003196141,0.005316451,0.001519134,3.58e-07,0.0,0.0
117.0,-0.00582271,-0.002024518,0.003196141,0.005316451,0.001519134,3.58e-07,0.0,0.0
118.0,-0.00582271,-0.002024518,0.003196141,0.005316451,0.001519134,3.58e-07,0.0,0.0
119.0,-0.00582271,-0.002024518,0.003196141,0.005316451,0.001519134,5.0358e-05,-5e-05,0.0
120.0,-0.00587271,-0.002024518,0.003196141,0.005316451,0.001519134,5.0358e-05,-5e-05,5e-05
121.0,-0.00587271,-0.002024518,0.003196141,0.005316451,0.001519134,5.0358e-05,-5e-05,5e-05
122.0,-0.00587271,-0.002024518,0.003196141,0.005316451,0.001519134,5.0358e-05,-5e-05,5e-05
123.0,-0.00587271,-0.002024518,0.003196141,0.005316451,0.001519134,5.0358e-05,-5e-05,5e-05
124.0,-0.00587271,-0.002024518,0.003196141,0.005316451,0.001519134,5.0358e-05,-5e-05,5e-05
125.0,-0.00587271,-0.002024518,0.003196141,0.005316451,0.001519134,5.0358e-05,-5e-05,5e-05
126.0,-0.00587271,-0.002024518,0.003196141,0.005316451,0.001519134,5.0358e-05,-5e-05,5e-05
127.0,-0.00587271,-0.002024518,0.003246141,0.005316451,0.001469134,5.0358e-05,-5e-05,5e-05
128.0,-0.00587271,-0.002024518,0.003246141,0.005316451,0.001469134,5.0358e-05,-5e-05,5e-05
129.0,-0.00587271,-0.002074518,0.003246141,0.005316451,0.001469134,5.0358e-05,0.0,5e-05
130.0,-0.00587271,-0.002074518,0.003246141,0.005316451,0.001469134,5.0358e-05,0.0,5e-05
131.0,-0.00587271,-0.002074518,0.003246141,0.005316451,0.001469134,5.0358e-05,0.0,5e-05
132.0,-0.00587271,-0.002074518,0.003246141,0.005316451,0.001469134,5.0358e-05,0.0,5e-05
133.0,-0.00582271,-0.002074518,0.003246141,0.005316451,0.001469134,5.0358e-05,0.0,0.0
134.0,-0.00582271,-0.002074518,0.003246141,0.005316451,0.001469134,5.0358e-05,0.0,0.0
135.0,-0.00582271,-0.002074518,0.003246141,0.005316451,0.001469134,5.0358e-05,0.0,0.0
136.0,-0.00582271,-0.002074518,0.003246141,0.005316451,0.001469134,5.0358e-05,0.0,0.0
137.0,-0.00582271,-0.002074518,0.003246141,0.005316451,0.001469134,5.0358e-05,0.0,0.0
138.0,-0.00582271,-0.002074518,0.003196141,0.005316451,0.001519134,5.0358e-05,0.0,0.0
139.0,-0.00582271,-0.002074518,0.003196141,0.005316451,0.001519134,5.0358e-05,0.0,0.0
140.0,-0.00582271,-0.002074518,0.003196141,0.005316451,0.001519134,0.000100358,-5e-05,0.0
141.0,-0.00582271,-0.002074518,0.003196141,0.005316451,0.001519134,5.0358e-05,-5e-05,5e-05
142.0,-0.00582271,-0.002074518,0.003196141,0.005316451,0.001519134,5.0358e-05,-5e-05,5e-05
143.0,-0.00582271,-0.002074518,0.003196141,0.005316451,0.001519134,5.0358e-05,-5e-05,5e-05
144.0,-0.00582271,-0.002074518,0.003196141,0.005316451,0.001519134,5.0358e-05,-5e-05,5e-05
145.0,-0.00582271,-0.002074518,0.003196141,0.005316451,0.001519134,5.0358e-05,-5e-05,5e-05
146.0,-0.00582271,-0.002074518,0.003196141,0.005316451,0.001519134,5.0358e-05,-5e-05,5e-05
147.0,-0.00582271,-0.002074518,0.003196141,0.005316451,0.001519134,0.000100358,-5e-05,0.0
148.0,-0.00582271,-0.002074518,0.003196141,0.005316451,0.001519134,5.0358e-05,0.0,0.0
149.0,-0.00582271,-0.002074518,0.003196141,0.005316451,0.001519134,0.000100358,-5e-05,0.0
150.0,-0.00582271,-0.002074518,0.003196141,0.005316451,0.001519134,0.000100358,-5e-05,0.0
151.0,-0.00582271,-0.002074518,0.003196141,0.005316451,0.001519134,0.000100358,-5e-05,0.0
152.0,-0.00582271,-0.002074518,0.003196141,0.005316451,0.001519134,0.000100358,-5e-05,0.0
153.0,-0.00582271,-0.002074518,0.003246141,0.005316451,0.001519134,5.0358e-05,-5e-05,0.0
154.0,-0.00582271,-0.002074518,0.003246141,0.005316451,0.001519134,5.0358e-05,-5e-05,0.0
155.0,-0.00587271,-0.002074518,0.003246141,0.005316451,0.001519134,5.0358e-05,0.0,0.0
156.0,-0.00587271,-0.002074518,0.003246141,0.005316451,0.001519134,5.0358e-05,0.0,0.0
157.0,-0.00587271,-0.002074518,0.003246141,0.005316451,0.001519134,5.0358e-05,0.0,0.0
158.0,-0.00587271,-0.002074518,0.003246141,0.005316451,0.001519134,5.0358e-05,0.0,0.0
159.0,-0.00587271,-0.002074518,0.003246141,0.005316451,0.001519134,5.0358e-05,0.0,0.0
160.0,-0.00587271,-0.002074518,0.003246141,0.005316451,0.001519134,5.0358e-05,0.0,0.0
161.0,-0.00587271,-0.002074518,0.003246141,0.005316451,0.001519134,5.0358e-05,0.0,0.0
162.0,-0.00587271,-0.002074518,0.003246141,0.005316451,0.001519134,5.0358e-05,0.0,0.0
163.0,-0.00587271,-0.002074518,0.003246141,0.005316451,0.001519134,5.0358e-05,0.0,0.0
164.0,-0.00587271,-0.002074518,0.003246141,0.005316451,0.001519134,5.0358e-05,0.0,0.0
165.0,-0.00587271,-0.002074518,0.003246141,0.005316451,0.001519134,5.0358e-05,0.0,0.0
166.0,-0.00587271,-0.002074518,0.003246141,0.005316451,0.001519134,5.0358e-05,0.0,0.0
167.0,-0.00587271,-0.002074518,0.003246141,0.005316451,0.001519134,5.0358e-05,0.0,0.0
168.0,-0.00587271,-0.002074518,0.003246141,0.005316451,0.001519134,5.0358e-05,0.0,0.0
169.0,-0.00587271,-0.002074518,0.003246141,0.005316451,0.001519134,5.0358e-05,0.0,0.0
170.0,-0.00587271,-0.002074518,0.003246141,0.005316451,0.001519134,5.0358e-05,0.0,0.0
171.0,-0.00587271,-0.002074518,0.003246141,0.005316451,0.001519134,5.0358e-05,0.0,0.0
172.0,-0.00587271,-0.002074518,0.003246141,0.005316451,0.001519134,5.0358e-05,0.0,0.0
173.0,-0.00587271,-0.002074518,0.003246141,0.005316451,0.001519134,5.0358e-05,0.0,0.0
174.0,-0.00587271,-0.002074518,0.003246141,0.005316451,0.001519134,5.0358e-05,0.0,0.0
175.0,-0.00587271,-0.002074518,0.003246141,0.005316451,0.001519134,5.0358e-05,0.0,0.0
176.0,-0.00587271,-0.002074518,0.003246141,0.005316451,0.001519134,5.0358e-05,0.0,1e-09
177.0,-0.00587271,-0.002074518,0.003246141,0.005316451,0.001519134,5.0358e-05,0.0,1e-09
178.0,-0.00587271,-0.002074518,0.003246141,0.005316451,0.001519134,5.0358e-05,0.0,1e-09
179.0,-0.00587271,-0.002074518,0.003246141,0.005316451,0.001519134,5.0358e-05,0.0,1e-09
180.0,-0.00587271,-0.002074518,0.003246141,0.005316451,0.001519134,5.0358e-05,0.0,1e-09
181.0,-0.00587271,-0.002074518,0.003246141,0.005316451,0.001519134,5.0358e-05,0.0,1e-09
182.0,-0.00587271,-0.002074518,0.003246141,0.005316451,0.001519134,5.0358e-05,0.0,1e-09
183.0,-0.00587271,-0.002074518,0.003246141,0.005316451,0.001519134,5.0358e-05,0.0,1e-09
184.0,-0.00587271,-0.002074518,0.003246141,0.005316451,0.001519134,5.0358e-05,0.0,1e-09
185.0,-0.00587271,-0.002074518,0.003246141,0.005316451,0.001519134,5.0358e-05,0.0,1e-09
186.0,-0.00587271,-0.002074518,0.003246141,0.005316451,0.001519134,5.0358e-05,0.0,1e-09
187.0,-0.00587271,-0.002074518,0.003246141,0.005316451,0.001519134,5.0358e-05,0.0,1e-09
188.0,-0.00587271,-0.002074518,0.003246141,0.005316451,0.001519134,5.0358e-05,0.0,1e-09
189.0,-0.00587271,-0.002074518,0.003246141,0.005316451,0.001519134,5.0358e-05,0.0,1e-09
190.0,-0.00587271,-0.002074518,0.003246141,0.005316451,0.001519134,3.58e-07,5e-05,1e-09
191.0,-0.00587271,-0.002074518,0.003246141,0.005316451,0.001519134,3.58e-07,5e-05,1e-09
192.0,-0.00587271,-0.002074518,0.003246141,0.005316451,0.001519134,3.58e-07,5e-05,1e-09
193.0,-0.00587271,-0.002074518,0.003246141,0.005316451,0.001519134,3.58e-07,4.9999e-05,1e-09
194.0,-0.00587271,-0.002074518,0.003246141,0.005316451,0.001519134,3.58e-07,4.9999e-05,1e-09
195.0,-0.00587271,-0.002074518,0.003246141,0.005316451,0.001519134,3.58e-07,4.9999e-05,1e-09
196.0,-0.00587271,-0.002074518,0.003246141,0.005316451,0.001519134,3.58e-07,4.9999e-05,1e-09
197.0,-0.00587271,-0.002074518,0.00329614,0.005266451,0.001519134,3.58e-07,4.9999e-05,1e-09
198.0,-0.00587271,-0.002074518,0.00329614,0.005266451,0.001519134,3.58e-07,0.0,5.0001e-05
199.0,-0.00587271,-0.002074518,0.00329614,0.005266451,0.001519134,3.58e-07,0.0,5.0001e-05
200.0,-0.00587271,-0.002074518,0.003246141,0.005266451,0.001569134,3.58e-07,0.0,5.0001e-05
201.0,-0.00587271,-0.002074518,0.003246141,0.005266451,0.001569134,3.58e-07,0.0,5.0001e-05
202.0,-0.00587271,-0.002074518,0.003246141,0.005266451,0.001569134,3.58e-07,0.0,5.0001e-05
203.0,-0.00587271,-0.002074518,0.003246141,0.005266451,0.001569134,3.58e-07,0.0,5.0001e-05
204.0,-0.00587271,-0.002074518,0.003246141,0.005266451,0.001569134,3.58e-07,0.0,5.0001e-05
205.0,-0.00587271,-0.002074518,0.003246141,0.005266451,0.001569134,3.58e-07,0.0,5.0001e-05
206.0,-0.00587271,-0.002074518,0.003246141,0.005266451,0.001569134,5.0358e-05,-5e-05,5.0001e-05
207.0,-0.00587271,-0.002074518,0.003246141,0.005266451,0.001569134,5.0358e-05,-5e-05,5.0001e-05
208.0,-0.00582271,-0.002074518,0.003246141,0.005266451,0.001569134,5.0358e-05,-5e-05,1e-09
209.0,-0.00582271,-0.002074518,0.003246141,0.005316451,0.001519134,5.0358e-05,-5e-05,1e-09
210.0,-0.00582271,-0.002074518,0.003246141,0.005316451,0.001519134,5.0358e-05,-5e-05,1e-09
211.0,-0.00582271,-0.002074518,0.003246141,0.005316451,0.001519134,5.0358e-05,-5e-05,1e-09
212.0,-0.00582271,-0.002074518,0.003246141,0.005316451,0.001519134,5.0358e-05,-5e-05,1e-09
213.0,-0.00582271,-0.002074518,0.003246141,0.005316451,0.001519134,5.0358e-05,-5e-05,1e-09
214.0,-0.00582271,-0.002074518,0.003246141,0.005316451,0.001519134,3.58e-07,0.0,1e-09
215.0,-0.00582271,-0.002074518,0.003246141,0.005316451,0.001519134,3.58e-07,0.0,1e-09
216.0,-0.00582271,-0.002074518,0.003246141,0.005316451,0.001519134,3.58e-07,0.0,1e-09
217.0,-0.00582271,-0.002074518,0.003246141,0.005316451,0.001519134,3.58e-07,0.0,1e-09
218.0,-0.00582271,-0.002074518,0.003246141,0.005316451,0.001519134,5.0358e-05,-5e-05,1e-09
219.0,-0.00587271,-0.002074518,0.003246141,0.005316451,0.001519134,5.0358e-05,-5e-05,5.0001e-05
220.0,-0.00587271,-0.002074518,0.003246141,0.005316451,0.001519134,5.0358e-05,0.0,1e-09
221.0,-0.00587271,-0.002074518,0.003246141,0.005316451,0.001519134,5.0358e-05,0.0,1e-09
222.0,-0.00582271,-0.002074518,0.003246141,0.005316451,0.001519134,5.0358e-05,0.0,-4.9998e-05
223.0,-0.00582271,-0.002074518,0.003246141,0.005316451,0.001519134,5.0358e-05,0.0,-4.9998e-05
224.0,-0.00582271,-0.002074518,0.003246141,0.005316451,0.001519134,5.0358e-05,0.0,-4.9998e-05
225.0,-0.00582271,-0.002074518,0.003246141,0.005316451,0.001519134,5.0358e-05,0.0,-4.9998e-05
226.0,-0.00587271,-0.002074518,0.003246141,0.005316451,0.001519134,5.0358e-05,0.0,1e-09
227.0,-0.00587271,-0.002074518,0.003246141,0.005316451,0.001519134,5.0358e-05,0.0,1e-09
228.0,-0.00587271,-0.002074518,0.003246141,0.005316451,0.001519134,5.0358e-05,0.0,1e-09
229.0,-0.00587271,-0.002074518,0.003246141,0.005316451,0.001519134,5.0358e-05,0.0,1e-09
230.0,-0.00587271,-0.002074518,0.003246141,0.005316451,0.001519134,5.0358e-05,0.0,1e-09
231.0,-0.00587271,-0.002074518,0.003246141,0.005316451,0.001519134,5.0358e-05,0.0,1e-09
232.0,-0.00587271,-0.002074518,0.003246141,0.005316451,0.001519134,5.0358e-05,0.0,1e-09
233.0,-0.00587271,-0.002074518,0.003246141,0.005316451,0.001519134,0.000100358,-5e-05,1e-09
234.0,-0.00587271,-0.002074518,0.003246141,0.005316451,0.001519134,0.000100358,-5e-05,1e-09
235.0,-0.00587271,-0.002074518,0.003246141,0.005316451,0.001519134,0.000100358,-5e-05,1e-09
236.0,-0.00587271,-0.002074518,0.003246141,0.005316451,0.001519134,0.000100358,-5e-05,1e-09
237.0,-0.00582271,-0.002074518,0.003246141,0.005316451,0.001519134,5.0358e-05,-5e-05,1e-09
238.0,-0.00582271,-0.002074518,0.003246141,0.005316451,0.001519134,5.0358e-05,-5e-05,1e-09
239.0,-0.00582271,-0.002074518,0.003246141,0.005316451,0.001519134,5.0358e-05,-5e-05,1e-09
240.0,-0.00582271,-0.002074518,0.003246141,0.005316451,0.001519134,5.0358e-05,-5e-05,1e-09
241.0,-0.00582271,-0.002024518,0.003196141,0.005316451,0.001519134,5.0358e-05,-5e-05,1e-09
242.0,-0.00582271,-0.002024518,0.003196141,0.005316451,0.001519134,5.0358e-05,-5e-05,1e-09
243.0,-0.00582271,-0.002024518,0.003196141,0.005316451,0.001519134,5.0358e-05,-5e-05,1e-09
244.0,-0.00582271,-0.002024518,0.003196141,0.005266451,0.001569134,5.0358e-05,-5e-05,1e-09
245.0,-0.00582271,-0.002024518,0.003196141,0.005266451,0.001569134,5.0358e-05,-5e-05,1e-09
246.0,-0.00582271,-0.002024518,0.003196141,0.005266451,0.001569134,5.0358e-05,-5e-05,1e-09
247.0,-0.00582271,-0.002024518,0.003196141,0.005266451,0.001569134,5.0358e-05,-5e-05,1e-09
248.0,-0.00582271,-0.002024518,0.003196141,0.005266451,0.001569134,5.0358e-05,-5e-05,1e-09
249.0,-0.00582271,-0.002024518,0.003196141,0.005266451,0.001569134,5.0358e-05,-5e-05,1e-09
250.0,-0.00582271,-0.002024518,0.003196141,0.005266451,0.001569134,5.0358e-05,-5e-05,1e-09
251.0,-0.00582271,-0.002024518,0.003196141,0.005266451,0.001569134,5.0358e-05,-5e-05,1e-09
252.0,-0.00582271,-0.002024518,0.003196141,0.005266451,0.001569134,5.0358e-05,-5e-05,1e-09
253.0,-0.00582271,-0.002024518,0.003196141,0.005266451,0.001569134,5.0358e-05,-5e-05,1e-09
254.0,-0.00587271,-0.002024518,0.003196141,0.005266451,0.001569134,0.000100358,-5e-05,1e-09
255.0,-0.00587271,-0.002024518,0.003196141,0.005266451,0.001569134,0.000100358,-5e-05,1e-09
256.0,-0.00587271,-0.002024518,0.003196141,0.005266451,0.001569134,0.000100358,-5e-05,1e-09
257.0,-0.00587271,-0.002024518,0.003196141,0.005266451,0.001569134,0.000100358,-5e-05,1e-09
258.0,-0.00587271,-0.002024518,0.003196141,0.005316451,0.001519134,0.000100358,-5e-05,1e-09
259.0,-0.00587271,-0.002024518,0.003196141,0.005316451,0.001519134,0.000100358,-5e-05,1e-09
260.0,-0.00587271,-0.002024518,0.003196141,0.005316451,0.001519134,0.000100358,-5e-05,1e-09
261.0,-0.00587271,-0.002024518,0.003196141,0.005316451,0.001519134,0.000100358,-5e-05,1e-09
262.0,-0.00582271,-0.002024518,0.003196141,0.005316451,0.001519134,5.0358e-05,-5e-05,1e-09
263.0,-0.00582271,-0.002024518,0.003196141,0.005316451,0.001519134,5.0358e-05,-5e-05,1e-09
264.0,-0.00582271,-0.002024518,0.003196141,0.005316451,0.001519134,5.0358e-05,-5e-05,1e-09
265.0,-0.00582271,-0.002024518,0.003196141,0.005316451,0.001519134,5.0358e-05,-5e-05,1e-09
266.0,-0.00582271,-0.002024518,0.003196141,0.005316451,0.001519134,5.0358e-05,-5e-05,1e-09
267.0,-0.00582271,-0.002024518,0.003196141,0.005316451,0.001519134,5.0358e-05,-5e-05,1e-09
268.0,-0.00582271,-0.002024518,0.003196141,0.005316451,0.001519134,5.0358e-05,-5e-05,1e-09
269.0,-0.00582271,-0.002024518,0.003196141,0.005316451,0.001519134,5.0358e-05,-5e-05,1e-09
270.0,-0.00582271,-0.002024518,0.003196141,0.005316451,0.001519134,5.0358e-05,-5e-05,1e-09
271.0,-0.00582271,-0.002024518,0.003196141,0.005316451,0.001519134,5.0358e-05,-5e-05,1e-09
272.0,-0.00582271,-0.002024518,0.003196141,0.005316451,0.001519134,5.0358e-05,-5e-05,1e-09
273.0,-0.00582271,-0.002024518,0.003196141,0.005316451,0.001519134,5.0358e-05,-5e-05,1e-09
274.0,-0.00582271,-0.002024518,0.003196141,0.005316451,0.001519134,5.0358e-05,-5e-05,1e-09
275.0,-0.00587271,-0.002024518,0.003196141,0.005316451,0.001519134,0.000100358,-5e-05,1e-09
276.0,-0.00587271,-0.002024518,0.003196141,0.005316451,0.001519134,5.0358e-05,0.0,1e-09
277.0,-0.00587271,-0.002024518,0.003196141,0.005316451,0.001519134,5.0358e-05,0.0,1e-09
278.0,-0.00587271,-0.002024518,0.003196141,0.005316451,0.001519134,0.000100358,-5e-05,1e-09
279.0,-0.00587271,-0.002024518,0.003196141,0.005316451,0.001519134,0.000100358,-5e-05,1e-09
280.0,-0.00587271,-0.002024518,0.003196141,0.005316451,0.001519134,0.000100358,-5e-05,1e-09
281.0,-0.00587271,-0.001974518,0.003196141,0.005316451,0.001519134,5.0358e-05,-5e-05,1e-09
282.0,-0.00587271,-0.001974518,0.003196141,0.005316451,0.001519134,5.0358e-05,-5e-05,1e-09
283.0,-0.00587271,-0.001974518,0.003196141,0.005316451,0.001519134,5.0358e-05,-5e-05,1e-09
284.0,-0.00587271,-0.002024518,0.003196141,0.005316451,0.001519134,5.0358e-05,0.0,1e-09
285.0,-0.00587271,-0.002024518,0.003196141,0.005316451,0.001519134,5.0358e-05,0.0,1e-09
286.0,-0.00587271,-0.002024518,0.003196141,0.005316451,0.001519134,5.0358e-05,0.0,1e-09
287.0,-0.00587271,-0.002024518,0.003246141,0.005266451,0.001519134,5.0358e-05,0.0,1e-09
288.0,-0.00587271,-0.002024518,0.003196141,0.005266451,0.001569134,5.0358e-05,0.0,1e-09
289.0,-0.00587271,-0.002024518,0.003196141,0.005266451,0.001569134,5.0358e-05,0.0,1e-09
290.0,-0.00587271,-0.002024518,0.003196141,0.005266451,0.001569134,0.000100358,0.0,-4.9998e-05
291.0,-0.00587271,-0.002024518,0.003196141,0.005266451,0.001569134,0.000100358,0.0,-4.9998e-05
292.0,-0.00587271,-0.002024518,0.003196141,0.005266451,0.001569134,0.000100358,0.0,-4.9998e-05
293.0,-0.00587271,-0.002024518,0.003196141,0.005266451,0.001569134,0.000100358,0.0,-4.9998e-05
294.0,-0.00587271,-0.002024518,0.003196141,0.005266451,0.001569134,0.000100358,0.0,-4.9998e-05
295.0,-0.00582271,-0.002024518,0.003196141,0.005266451,0.001569134,5.0358e-05,0.0,-4.9998e-05
296.0,-0.00582271,-0.002071008,0.003196141,0.005316451,0.001565624,5.0358e-05,0.0,-4.9998e-05
297.0,-0.00582271,-0.002071008,0.003196141,0.005316451,0.001565624,5.0358e-05,0.0,-4.9998e-05
298.0,-0.00582271,-0.002071008,0.003196141,0.005316451,0.001565624,5.0358e-05,0.0,-4.9998e-05
299.0,-0.00582271,-0.002071008,0.003196141,0.005316451,0.001565624,5.0358e-05,0.0,-4.9998e-05
300.0,-0.00587271,-0.002071008,0.003196141,0.005316451,0.001565624,5.0358e-05,0.0,1e-09
301.0,-0.00587271,-0.002071008,0.003196141,0.005316451,0.001565624,5.0358e-05,0.0,1e-09
302.0,-0.00587271,-0.002071008,0.003196141,0.005316451,0.001565624,5.0358e-05,0.0,1e-09
303.0,-0.00587271,-0.002071008,0.003196141,0.005316451,0.001565624,5.0358e-05,0.0,1e-09
304.0,-0.00587271,-0.002071008,0.003196141,0.005316451,0.001565624,5.0358e-05,0.0,1e-09
305.0,-0.00587271,-0.002071008,0.003196141,0.005316451,0.001565624,5.0358e-05,0.0,1e-09
306.0,-0.00587271,-0.002071008,0.003196141,0.005316451,0.001565624,5.0358e-05,0.0,1e-09
307.0,-0.00587271,-0.002071008,0.003196141,0.005316451,0.001565624,5.0358e-05,0.0,1e-09
308.0,-0.00587271,-0.002071008,0.003196141,0.005316451,0.001565624,5.0358e-05,0.0,1e-09
309.0,-0.00587271,-0.002071008,0.003196141,0.005316451,0.001565624,5.0358e-05,0.0,1e-09
310.0,-0.00587271,-0.002071008,0.003196141,0.005316451,0.001565624,5.0358e-05,0.0,1e-09
311.0,-0.00587271,-0.002071008,0.003196141,0.005316451,0.001565624,0.000100358,-5e-05,1e-09
312.0,-0.00587271,-0.002071008,0.003196141,0.005316451,0.001565624,0.000100358,-5e-05,1e-09
313.0,-0.00587271,-0.002071008,0.003196141,0.005316451,0.001565624,0.000100358,-5e-05,1e-09
314.0,-0.00587271,-0.002071008,0.003196141,0.005316451,0.001565624,5.0358e-05,-5e-05,5.0001e-05
315.0,-0.00582271,-0.002071008,0.003196141,0.005316451,0.001565624,5.0358e-05,-5e-05,1e-09
316.0,-0.00582271,-0.002071008,0.003196141,0.005316451,0.001565624,5.0358e-05,-5e-05,1e-09
317.0,-0.00582271,-0.002071008,0.003196141,0.005316451,0.001565624,5.0358e-05,-5e-05,1e-09
318.0,-0.00582271,-0.002071008,0.003196141,0.005316451,0.001565624,0.000100357,-5e-05,-4.9997e-05
319.0,-0.00582271,-0.002071008,0.003196141,0.005316451,0.001565624,0.000100357,-5e-05,-4.9997e-05
320.0,-0.00582271,-0.002071008,0.003196141,0.005316451,0.001565624,0.000100357,-5e-05,-4.9997e-05
321.0,-0.00582271,-0.002071008,0.003196141,0.005316451,0.001565624,5.0357e-05,0.0,-4.9997e-05
322.0,-0.00582271,-0.002071008,0.003196141,0.005316451,0.001565624,5.0357e-05,0.0,-4.9997e-05
323.0,-0.00582271,-0.002071008,0.003196141,0.005316451,0.001565624,5.0357e-05,0.0,-4.9997e-05
324.0,-0.00587271,-0.002071008,0.003196141,0.005316451,0.001565624,5.0357e-05,0.0,2e-09
325.0,-0.00587271,-0.002071008,0.003196141,0.005316451,0.001565624,5.0357e-05,0.0,2e-09
326.0,-0.00587271,-0.002071008,0.003196141,0.005316451,0.001565624,5.0357e-05,0.0,2e-09
327.0,-0.00587271,-0.002071008,0.003196141,0.005316451,0.001565624,5.0357e-05,0.0,2e-09
328.0,-0.00587271,-0.002071008,0.003196141,0.005316451,0.001565624,5.0357e-05,0.0,2e-09
329.0,-0.00587271,-0.002071008,0.003196141,0.005316451,0.001565624,5.0357e-05,0.0,2e-09
330.0,-0.00582271,-0.002071008,0.003196141,0.005316451,0.001565624,5.0357e-05,-5e-05,2e-09
331.0,-0.00582271,-0.002071008,0.003196141,0.005316451,0.001565624,5.0357e-05,-5e-05,2e-09
332.0,-0.00582271,-0.002071008,0.003196141,0.005316451,0.001565624,5.0357e-05,-5e-05,2e-09
333.0,-0.00582271,-0.002071008,0.003196141,0.005316451,0.001565624,5.0357e-05,-5e-05,2e-09
334.0,-0.00582271,-0.002071008,0.003196141,0.005316451,0.001565624,5.0357e-05,-5e-05,2e-09
335.0,-0.00582271,-0.002071008,0.003196141,0.005316451,0.001565624,5.0357e-05,-5e-05,2e-09
336.0,-0.00582271,-0.002071008,0.003196141,0.005316451,0.001565624,5.0357e-05,-5e-05,2e-09
337.0,-0.00582271,-0.002071008,0.003196141,0.005316451,0.001565624,0.000100357,-0.0001,2e-09
338.0,-0.00582271,-0.002071008,0.003196141,0.005316451,0.001565624,0.000100357,-0.0001,2e-09
339.0,-0.00582271,-0.002071008,0.003196141,0.005316451,0.001565624,0.000100357,-0.0001,2e-09
340.0,-0.00582271,-0.002071008,0.003196141,0.005316451,0.001565624,0.000100357,-0.0001,2e-09
341.0,-0.00582271,-0.002071008,0.003196141,0.005316451,0.001565624,0.000100357,-0.0001,2e-09
342.0,-0.00582271,-0.002071008,0.003196141,0.005316451,0.001565624,0.000100357,-0.0001,2e-09
343.0,-0.00582271,-0.002071008,0.003196141,0.005316451,0.001565624,0.000100357,-0.0001,2e-09
344.0,-0.00582271,-0.002071008,0.003196141,0.005316451,0.001565624,0.000100357,-0.0001,2e-09
345.0,-0.00582271,-0.002071008,0.003196141,0.005316451,0.001565624,0.000100357,-0.0001,2e-09
346.0,-0.00582271,-0.002071008,0.003196141,0.005316451,0.001565624,0.000100357,-0.0001,2e-09
347.0,-0.00582271,-0.002071008,0.003196141,0.005316451,0.001565624,0.000100357,-0.0001,2e-09
348.0,-0.00582271,-0.002071008,0.003196141,0.005316451,0.001565624,5.0357e-05,-5e-05,2e-09
349.0,-0.00582271,-0.002071008,0.003196141,0.005316451,0.001565624,5.0357e-05,-5e-05,2e-09
350.0,-0.00582271,-0.002071008,0.003246141,0.005316451,0.001515624,5.0357e-05,-5e-05,2e-09
351.0,-0.00582271,-0.002071008,0.003246141,0.005316451,0.001515624,5.0357e-05,-5e-05,2e-09
352.0,-0.00582271,-0.002071008,0.003246141,0.005316451,0.001515624,5.0357e-05,-5e-05,2e-09
353.0,-0.00582271,-0.002071008,0.003246141,0.005316451,0.001515624,5.0357e-05,-5e-05,2e-09
354.0,-0.00587271,-0.002071008,0.003246141,0.005316451,0.001515624,5.0357e-05,0.0,2e-09
355.0,-0.00587271,-0.002071008,0.003246141,0.005316451,0.001515624,5.0357e-05,0.0,2e-09
356.0,-0.00587271,-0.002071008,0.003246141,0.005316451,0.001515624,5.0357e-05,0.0,2e-09
357.0,-0.00587271,-0.002071008,0.003246141,0.005316451,0.001515624,5.0357e-05,0.0,2e-09
358.0,-0.00587271,-0.002071008,0.003246141,0.005316451,0.001515624,5.0357e-05,0.0,2e-09
359.0,-0.00587271,-0.002071008,0.003246141,0.005316451,0.001515624,5.0357e-05,0.0,2e-09
360.0,-0.00587271,-0.002071008,0.003196141,0.005366451,0.001515624,5.0357e-05,0.0,2e-09
361.0,-0.00587271,-0.002071008,0.003196141,0.005366451,0.001515624,5.0357e-05,0.0,2e-09
362.0,-0.00582271,-0.002071008,0.003196141,0.005366451,0.001515624,5.0357e-05,-5e-05,2e-09
363.0,-0.00582271,-0.002071008,0.003246141,0.005316451,0.001515624,5.0357e-05,-5e-05,2e-09
364.0,-0.00582271,-0.002071008,0.003246141,0.005316451,0.001515624,5.0357e-05,-5e-05,2e-09
365.0,-0.00582271,-0.002071008,0.003246141,0.005316451,0.001515624,5.0357e-05,-5e-05,2e-09
366.0,-0.00582271,-0.002071008,0.003246141,0.005316451,0.001515624,0.000100357,-5e-05,-4.9997e-05
367.0,-0.00582271,-0.002071008,0.003246141,0.005316451,0.001515624,0.000100357,-5e-05,-4.9997e-05
368.0,-0.00582271,-0.002071008,0.003246141,0.005316451,0.001515624,0.000100357,-5e-05,-4.9997e-05
369.0,-0.00582271,-0.002071008,0.003246141,0.005316451,0.001515624,5.0357e-05,-5e-05,2e-09
370.0,-0.00582271,-0.002071008,0.003246141,0.005316451,0.001515624,3.57e-07,0.0,2e-09
371.0,-0.00582271,-0.002071008,0.003246141,0.005316451,0.001515624,3.57e-07,0.0,2e-09
372.0,-0.00582271,-0.002071008,0.003246141,0.005316451,0.001515624,5.0357e-05,-5e-05,2e-09
373.0,-0.00582271,-0.002071008,0.003246141,0.005316451,0.001515624,5.0357e-05,-5e-05,2e-09
374.0,-0.00582271,-0.002071008,0.003246141,0.005316451,0.001515624,5.0357e-05,-5e-05,2e-09
375.0,-0.00582271,-0.002071008,0.003246141,0.005316451,0.001515624,0.000100357,-0.0001,2e-09
376.0,-0.00582271,-0.002071008,0.003246141,0.005316451,0.001515624,0.000100357,-0.0001,2e-09
377.0,-0.00582271,-0.002071008,0.003246141,0.005316451,0.001515624,0.000100357,-0.0001,2e-09
378.0,-0.00582271,-0.002071008,0.003246141,0.005316451,0.001515624,0.000100357,-0.0001,2e-09
379.0,-0.00582271,-0.002071008,0.003246141,0.005316451,0.001515624,0.000100357,-0.0001,2e-09
380.0,-0.00582271,-0.002071008,0.003246141,0.005316451,0.001515624,5.0357e-05,-5e-05,2e-09
381.0,-0.00582271,-0.002071008,0.003246141,0.005316451,0.001515624,5.0357e-05,-5e-05,2e-09
382.0,-0.00587271,-0.002071008,0.003246141,0.005316451,0.001515624,0.000100357,-5e-05,2e-09
383.0,-0.00587271,-0.002071008,0.003246141,0.005316451,0.001515624,0.000100357,-5e-05,2e-09
384.0,-0.00587271,-0.002071008,0.003246141,0.005316451,0.001515624,0.000100357,-5e-05,2e-09
385.0,-0.00587271,-0.002071008,0.003246141,0.005316451,0.001515624,0.000100357,-5e-05,2e-09
386.0,-0.00582271,-0.002071008,0.003246141,0.005316451,0.001515624,0.000100357,-5e-05,-4.9997e-05
387.0,-0.00582271,-0.002071008,0.003246141,0.005316451,0.001515624,0.000100357,-5e-05,-4.9997e-05
388.0,-0.00582271,-0.002071008,0.003246141,0.005316451,0.001515624,0.000100357,-5e-05,-4.9997e-05
389.0,-0.00582271,-0.002071008,0.003246141,0.005316451,0.001515624,0.000100357,-5e-05,-4.9997e-05
390.0,-0.00582271,-0.002071008,0.003246141,0.005316451,0.001515624,0.000100357,-5e-05,-4.9997e-05
391.0,-0.005772711,-0.002071008,0.003246141,0.005316451,0.001515624,5.0357e-05,-5e-05,-4.9997e-05
392.0,-0.005772711,-0.002071008,0.003246141,0.005316451,0.001515624,5.0357e-05,-5e-05,-4.9997e-05
393.0,-0.005772711,-0.002071008,0.003246141,0.005316451,0.001515624,5.0357e-05,-5e-05,-4.9997e-05
394.0,-0.005772711,-0.002071008,0.003246141,0.005316451,0.001515624,5.0357e-05,-5e-05,-4.9997e-05
395.0,-0.005772711,-0.002071008,0.003246141,0.005316451,0.001515624,5.0357e-05,-5e-05,-4.9997e-05
396.0,-0.005772711,-0.002071008,0.003246141,0.005316451,0.001515624,5.0357e-05,-5e-05,-4.9997e-05
397.0,-0.005772711,-0.002071008,0.003246141,0.005316451,0.001515624,5.0357e-05,-5e-05,-4.9997e-05
398.0,-0.005772711,-0.002071008,0.003246141,0.005316451,0.001515624,5.0357e-05,-5e-05,-4.9997e-05
399.0,-0.005772711,-0.002071008,0.003246141,0.005316451,0.001515624,5.0357e-05,-5e-05,-4.9997e-05
400.0,-0.005772711,-0.002071008,0.003246141,0.005316451,0.001515624,5.0357e-05,-5e-05,-4.9997e-05
401.0,-0.005772711,-0.002071008,0.003196141,0.005316451,0.001515624,5.0357e-05,-5e-05,2e-09
402.0,-0.005772711,-0.002071008,0.003196141,0.005316451,0.001515624,5.0357e-05,-5e-05,2e-09
403.0,-0.005772711,-0.002071008,0.003196141,0.005316451,0.001515624,5.0357e-05,-5e-05,2e-09
404.0,-0.005772711,-0.002071008,0.003196141,0.005316451,0.001515624,5.0357e-05,-5e-05,2e-09
405.0,-0.005772711,-0.002071008,0.003196141,0.005316451,0.001515624,0.000100357,-0.0001,2e-09
406.0,-0.005772711,-0.002071008,0.003196141,0.005316451,0.001515624,0.000100357,-0.0001,2e-09
407.0,-0.005772711,-0.002071008,0.003196141,0.005316451,0.001515624,0.000100357,-0.0001,2e-09
408.0,-0.00582271,-0.002071008,0.003196141,0.005316451,0.001515624,0.000150357,-0.0001,2e-09
409.0,-0.00582271,-0.002071008,0.003196141,0.005316451,0.001515624,0.000150357,-0.0001,2e-09
410.0,-0.00582271,-0.002071008,0.003196141,0.005316451,0.001515624,0.000150357,-0.0001,2e-09
411.0,-0.00582271,-0.002071008,0.003196141,0.005316451,0.001515624,0.000100357,-5e-05,2e-09
412.0,-0.00582271,-0.002071008,0.003196141,0.005316451,0.001515624,0.000100357,-5e-05,2e-09
413.0,-0.00582271,-0.002071008,0.003196141,0.005366451,0.001465624,0.000100357,-5e-05,2e-09
414.0,-0.00582271,-0.002071008,0.003196141,0.005366451,0.001465624,0.000100357,-5e-05,2e-09
415.0,-0.00582271,-0.002071008,0.003196141,0.005366451,0.001465624,0.000100357,-5e-05,2e-09
416.0,-0.00582271,-0.002071008,0.003196141,0.005316451,0.001515624,0.000100357,-5e-05,2e-09
417.0,-0.00582271,-0.002071008,0.003196141,0.005316451,0.001515624,0.000100357,-5e-05,2e-09
418.0,-0.00582271,-0.002071008,0.003196141,0.005316451,0.001515624,0.000100357,-5e-05,2e-09
419.0,-0.00582271,-0.002071008,0.003196141,0.005316451,0.001515624,0.000100357,-5e-05,2e-09
420.0,-0.00587271,-0.002071008,0.003196141,0.005316451,0.001515624,0.000100357,-5e-05,5.0002e-05
421.0,-0.00587271,-0.002071008,0.003196141,0.005316451,0.001515624,0.000100357,-5e-05,5.0002e-05
422.0,-0.00587271,-0.002071008,0.003196141,0.005316451,0.001515624,0.000100357,-5e-05,5.0002e-05
423.0,-0.00582271,-0.002071008,0.003196141,0.005316451,0.001515624,0.000100357,-5e-05,2e-09
424.0,-0.00582271,-0.002071008,0.003196141,0.005316451,0.001515624,0.000100357,-5e-05,2e-09
425.0,-0.00582271,-0.002071008,0.003196141,0.005316451,0.001515624,0.000100357,-5e-05,2e-09
426.0,-0.00582271,-0.002071008,0.003196141,0.005316451,0.001515624,5.0357e-05,0.0,2e-09
427.0,-0.00582271,-0.002071008,0.003196141,0.005316451,0.001515624,5.0357e-05,0.0,2e-09
428.0,-0.00582271,-0.002071008,0.003196141,0.005316451,0.001515624,5.0357e-05,0.0,2e-09
429.0,-0.00582271,-0.002071008,0.003196141,0.005316451,0.001515624,5.0357e-05,0.0,2e-09
430.0,-0.00582271,-0.002071008,0.003196141,0.005316451,0.001515624,5.0357e-05,0.0,2e-09
431.0,-0.00582271,-0.002071008,0.003196141,0.005266451,0.001565624,5.0357e-05,0.0,2e-09
432.0,-0.00582271,-0.002071008,0.003196141,0.005266451,0.001565624,0.000100357,-5e-05,2e-09
433.0,-0.00582271,-0.002071008,0.003196141,0.005266451,0.001565624,0.000100357,-5e-05,2e-09
434.0,-0.00582271,-0.002071008,0.003196141,0.005266451,0.001565624,0.000100357,-5e-05,2e-09
435.0,-0.00582271,-0.002071008,0.003196141,0.005266451,0.001565624,0.000100357,-5e-05,2e-09
436.0,-0.00582271,-0.002071008,0.003196141,0.005266451,0.001565624,0.000100357,-5e-05,2e-09
437.0,-0.00582271,-0.002071008,0.003196141,0.005266451,0.001565624,0.000100357,-5e-05,2e-09
438.0,-0.00582271,-0.002071008,0.003196141,0.005266451,0.001565624,0.000100357,-5e-05,2e-09
439.0,-0.00582271,-0.002071008,0.003196141,0.005266451,0.001565624,0.000100357,-5e-05,2e-09
440.0,-0.00582271,-0.002071008,0.003196141,0.005266451,0.001565624,0.000100357,-5e-05,2e-09
441.0,-0.00582271,-0.002071008,0.003196141,0.005266451,0.001565624,0.000100357,-5e-05,2e-09
442.0,-0.00582271,-0.002071008,0.003196141,0.005266451,0.001565624,0.000100357,-5e-05,2e-09
443.0,-0.00582271,-0.002071008,0.003196141,0.005266451,0.001565624,0.000100357,-5e-05,2e-09
444.0,-0.00582271,-0.002071008,0.003196141,0.005266451,0.001565624,0.000100357,-5e-05,2e-09
445.0,-0.00582271,-0.002071008,0.003196141,0.005266451,0.001565624,0.000100357,-5e-05,2e-09
446.0,-0.00582271,-0.002071008,0.003196141,0.005266451,0.001565624,0.000100357,-5e-05,2e-09
447.0,-0.00582271,-0.002071008,0.003196141,0.005266451,0.001565624,0.000100357,-5e-05,2e-09
448.0,-0.00582271,-0.002071008,0.003196141,0.005266451,0.001565624,0.000100357,-5e-05,2e-09
449.0,-0.00582271,-0.002071008,0.003196141,0.005266451,0.001565624,0.000100357,-5e-05,2e-09
450.0,-0.00582271,-0.002071008,0.003196141,0.005266451,0.001565624,0.000100357,-5e-05,2e-09
451.0,-0.00582271,-0.002071008,0.003196141,0.005266451,0.001565624,0.000100357,-5e-05,2e-09
452.0,-0.00582271,-0.002071008,0.003196141,0.005266451,0.001565624,5.0357e-05,-5e-05,5.0002e-05
453.0,-0.00582271,-0.002071008,0.003196141,0.005266451,0.001565624,5.0357e-05,-5e-05,5.0002e-05
454.0,-0.00582271,-0.002071008,0.003196141,0.005266451,0.001565624,5.0357e-05,-5e-05,5.0002e-05
455.0,-0.00582271,-0.002071008,0.003196141,0.005266451,0.001565624,5.0357e-05,-5e-05,5.0002e-05
456.0,-0.00582271,-0.002071008,0.003196141,0.005266451,0.001565624,5.0357e-05,-5e-05,5.0002e-05
457.0,-0.00582271,-0.002071008,0.003196141,0.005266451,0.001565624,0.000100357,-5e-05,2e-09
458.0,-0.00582271,-0.002071008,0.003196141,0.005316451,0.001515624,0.000100357,-5e-05,2e-09
459.0,-0.00582271,-0.002071008,0.003196141,0.005316451,0.001515624,0.000100357,-5e-05,2e-09
460.0,-0.00582271,-0.002071008,0.003196141,0.005316451,0.001515624,0.000100357,-5e-05,2e-09
461.0,-0.00582271,-0.002071008,0.003196141,0.005316451,0.001515624,0.000100357,-5e-05,2e-09
462.0,-0.00582271,-0.002071008,0.003196141,0.005316451,0.001515624,0.000100357,-5e-05,2e-09
463.0,-0.00582271,-0.002071008,0.003196141,0.005266451,0.001565624,0.000100357,-5e-05,2e-09
464.0,-0.00582271,-0.002071008,0.003196141,0.005266451,0.001565624,0.000100357,-5e-05,2e-09
465.0,-0.00582271,-0.002071008,0.003196141,0.005266451,0.001565624,0.000100357,-5e-05,2e-09
466.0,-0.00582271,-0.002071008,0.003196141,0.005266451,0.001565624,0.000100357,-5e-05,2e-09
467.0,-0.00582271,-0.002071008,0.003196141,0.005266451,0.001565624,0.000100357,-5e-05,2e-09
468.0,-0.00582271,-0.002071008,0.003196141,0.005266451,0.001565624,0.000100357,-5e-05,2e-09
469.0,-0.00582271,-0.002071008,0.003196141,0.005266451,0.001565624,0.000100357,-5e-05,2e-09
470.0,-0.00582271,-0.002071008,0.003196141,0.005266451,0.001565624,0.000100357,-5e-05,2e-09
471.0,-0.00582271,-0.002071008,0.003196141,0.005266451,0.001565624,0.000100357,-5e-05,2e-09
472.0,-0.00582271,-0.002071008,0.003196141,0.005266451,0.001565624,0.000100357,-5e-05,2e-09
473.0,-0.00582271,-0.002071008,0.003196141,0.005266451,0.001565624,0.000100357,-5e-05,2e-09
474.0,-0.00582271,-0.002071008,0.003196141,0.005266451,0.001565624,0.000100357,-5e-05,2e-09
475.0,-0.00582271,-0.002071008,0.003196141,0.005266451,0.001565624,0.000100357,-5e-05,2e-09
476.0,-0.00582271,-0.002071008,0.003196141,0.005266451,0.001565624,0.000100357,-5e-05,2e-09
477.0,-0.00582271,-0.002071008,0.003196141,0.005266451,0.001565624,0.000100357,-5e-05,2e-09
478.0,-0.00582271,-0.002071008,0.003196141,0.005266451,0.001565624,0.000100357,-5e-05,2e-09
479.0,-0.00582271,-0.002071008,0.003196141,0.005266451,0.001565624,0.000100357,-5e-05,2e-09
480.0,-0.00582271,-0.002071008,0.003196141,0.005266451,0.001565624,0.000100357,-5e-05,2e-09
481.0,-0.00582271,-0.002071008,0.003196141,0.005266451,0.001565624,0.000100357,-5e-05,2e-09
482.0,-0.00582271,-0.002071008,0.003196141,0.005316389,0.001515686,0.000100357,-5e-05,2e-09
483.0,-0.00582271,-0.002071008,0.003196141,0.005316389,0.001515686,0.000100357,-5e-05,2e-09
484.0,-0.00582271,-0.002071008,0.003196141,0.005316389,0.001515686,0.000100357,-5e-05,2e-09
485.0,-0.00582271,-0.002071008,0.003196141,0.005316389,0.001515686,0.000100357,-5e-05,2e-09
486.0,-0.00582271,-0.002071008,0.003196141,0.005316389,0.001515686,0.000100357,-5e-05,2e-09
487.0,-0.00582271,-0.002071008,0.003196141,0.005316389,0.001515686,0.000100357,-5e-05,2e-09
488.0,-0.00582271,-0.002071008,0.003196141,0.005316389,0.001515686,0.000100357,-5e-05,2e-09
489.0,-0.00582271,-0.002071008,0.003196141,0.005316389,0.001515686,0.000100357,-5e-05,2e-09
490.0,-0.00582271,-0.002071008,0.003196141,0.005316389,0.001515686,0.000100357,-5e-05,2e-09
491.0,-0.00582271,-0.002071008,0.003196141,0.005316389,0.001515686,0.000100357,-5e-05,2e-09
492.0,-0.00582271,-0.002071008,0.003196141,0.005316389,0.001515686,0.000100357,-5e-05,2e-09
493.0,-0.00582271,-0.002071008,0.003196141,0.005316389,0.001515686,0.000100357,-5e-05,2e-09
494.0,-0.00582271,-0.002071008,0.003196141,0.005316389,0.001515686,0.000100357,-5e-05,2e-09
495.0,-0.00582271,-0.002071008,0.003196141,0.005316389,0.001515686,0.000100357,-5e-05,2e-09
496.0,-0.00582271,-0.002071008,0.003196141,0.005316389,0.001515686,0.000100357,-5e-05,2e-09
497.0,-0.005772711,-0.002071008,0.003196141,0.005316389,0.001515686,5.0357e-05,-5e-05,2e-09
498.0,-0.005772711,-0.002071008,0.00324212,0.005316389,0.001515686,5.0357e-05,-5e-05,-4.5977e-05
499.0,-0.005772711,-0.002071008,0.00324212,0.005316389,0.001515686,0.000100357,-0.0001,-4.5977e-05
500.0,-0.005772711,-0.002071008,0.00324212,0.005316389,0.001515686,5.0357e-05,-5e-05,-4.5977e-05
501.0,-0.005772711,-0.002071008,0.00324212,0.005316389,0.001515686,5.0357e-05,-5e-05,-4.5977e-05
502.0,-0.005772711,-0.002071008,0.00324212,0.005316389,0.001515686,5.0357e-05,-5e-05,-4.5977e-05
503.0,-0.00582271,-0.002071008,0.00324212,0.005316389,0.001515686,0.000100357,-5e-05,-4.5977e-05
504.0,-0.00582271,-0.002071008,0.00324212,0.00526639,0.001565686,0.000100357,-5e-05,-4.5977e-05
505.0,-0.00582271,-0.002071008,0.00324212,0.00526639,0.001565686,0.000100357,-5e-05,-4.5977e-05
506.0,-0.00582271,-0.002071008,0.00324212,0.00526639,0.001565686,0.000100357,-5e-05,-4.5977e-05
507.0,-0.00582271,-0.002071008,0.00324212,0.00526639,0.001565686,0.000100357,-5e-05,-4.5977e-05
508.0,-0.00582271,-0.002071008,0.00324212,0.00526639,0.001565686,5.0357e-05,-5e-05,4.022e-06
509.0,-0.00582271,-0.002071008,0.00324212,0.00526639,0.001565686,5.0357e-05,-5e-05,4.022e-06
510.0,-0.00582271,-0.002071008,0.00324212,0.00526639,0.001565686,5.0357e-05,-5e-05,4.022e-06
511.0,-0.00582271,-0.002071008,0.00324212,0.00526639,0.001565686,5.0357e-05,-5e-05,4.022e-06
512.0,-0.00582271,-0.002071008,0.00324212,0.00526639,0.001565686,5.0357e-05,-5e-05,4.022e-06
513.0,-0.00582271,-0.002071008,0.00324212,0.00526639,0.001565686,5.0357e-05,-5e-05,4.022e-06
514.0,-0.00582271,-0.002071008,0.00324212,0.00526639,0.001565686,5.0357e-05,-5e-05,4.022e-06
515.0,-0.00582271,-0.002071008,0.00324212,0.00526639,0.001565686,5.0357e-05,-5e-05,4.022e-06
516.0,-0.00582271,-0.002071008,0.00324212,0.00526639,0.001565686,5.0357e-05,-5e-05,4.022e-06
517.0,-0.00582271,-0.002071008,0.00324212,0.00526639,0.001565686,5.0357e-05,-5e-05,4.022e-06
518.0,-0.00582271,-0.002071008,0.00324212,0.00526639,0.001565686,5.0357e-05,-5e-05,4.022e-06
519.0,-0.00582271,-0.002071008,0.00324212,0.00526639,0.001565686,5.0357e-05,-5e-05,4.022e-06
520.0,-0.00582271,-0.002071008,0.00324212,0.00526639,0.001565686,5.0357e-05,-5e-05,4.022e-06
521.0,-0.00582271,-0.002071008,0.00324212,0.00526639,0.001565686,5.0357e-05,-5e-05,4.022e-06
522.0,-0.00582271,-0.002071008,0.00324212,0.00526639,0.001565686,5.0357e-05,-5e-05,4.022e-06
523.0,-0.00582271,-0.002071008,0.00324212,0.00526639,0.001565686,5.0357e-05,-5e-05,4.022e-06
524.0,-0.00582271,-0.002071008,0.00324212,0.00526639,0.001565686,5.0357e-05,-5e-05,4.022e-06
525.0,-0.00582271,-0.002071008,0.00324212,0.00526639,0.001565686,5.0357e-05,-5e-05,4.022e-06
526.0,-0.00582271,-0.002071008,0.00324212,0.00526639,0.001565686,5.0357e-05,-5e-05,4.022e-06
527.0,-0.00582271,-0.002071008,0.00324212,0.00526639,0.001565686,5.0357e-05,-5e-05,4.022e-06
528.0,-0.00582271,-0.002071008,0.00324212,0.00526639,0.001565686,5.0357e-05,-5e-05,4.022e-06
529.0,-0.00582271,-0.002071008,0.00324212,0.00526639,0.001565686,5.0357e-05,-5e-05,4.022e-06
530.0,-0.00582271,-0.002071008,0.00324212,0.00526639,0.001565686,5.0357e-05,-5e-05,4.022e-06
531.0,-0.00582271,-0.002071008,0.00324212,0.00526639,0.001565686,5.0357e-05,-5e-05,4.022e-06
532.0,-0.00582271,-0.002071008,0.00324212,0.00526639,0.001565686,5.0357e-05,-5e-05,4.022e-06
533.0,-0.00582271,-0.002071008,0.00324212,0.00526639,0.001565686,5.0357e-05,-5e-05,4.022e-06
534.0,-0.00582271,-0.002071008,0.00324212,0.00526639,0.001565686,5.0357e-05,-5e-05,4.022e-06
535.0,-0.00582271,-0.002071008,0.00324212,0.00526639,0.001565686,5.0357e-05,-5e-05,4.022e-06
536.0,-0.00582271,-0.002071008,0.00324212,0.00526639,0.001565686,5.0357e-05,-5e-05,4.022e-06
537.0,-0.00582271,-0.002071008,0.00324212,0.00526639,0.001565686,5.0357e-05,-5e-05,4.022e-06
538.0,-0.00582271,-0.002071008,0.00324212,0.00526639,0.001565686,5.0357e-05,-5e-05,4.022e-06
539.0,-0.00582271,-0.002071008,0.00324212,0.00526639,0.001565686,5.0357e-05,-5e-05,4.022e-06
540.0,-0.00582271,-0.002071008,0.00324212,0.00526639,0.001565686,5.0357e-05,-5e-05,4.022e-06
541.0,-0.00582271,-0.002071008,0.00329212,0.00521639,0.001565686,5.0357e-05,-5e-05,4.022e-06
542.0,-0.00582271,-0.002071008,0.00324212,0.00526639,0.001565686,5.0357e-05,-5e-05,4.022e-06
543.0,-0.00582271,-0.002071008,0.00319212,0.005316389,0.001565686,5.0357e-05,-5e-05,4.022e-06
544.0,-0.00582271,-0.002071008,0.00319212,0.005316389,0.001565686,5.0357e-05,-5e-05,4.022e-06
545.0,-0.00582271,-0.002071008,0.00319212,0.005316389,0.001565686,0.000100357,-5e-05,-4.5977e-05
546.0,-0.00582271,-0.002071008,0.00319212,0.005316389,0.001565686,0.000100357,-5e-05,-4.5977e-05
547.0,-0.00582271,-0.002071008,0.00319212,0.005316389,0.001565686,0.000100357,-5e-05,-4.5977e-05
548.0,-0.00582271,-0.002071008,0.00319212,0.005316389,0.001565686,0.000100357,-5e-05,-4.5977e-05
549.0,-0.00582271,-0.002071008,0.00319212,0.005316389,0.001565686,0.000100357,-5e-05,-4.5977e-05
550.0,-0.00582271,-0.002071008,0.00319212,0.005316389,0.001565686,0.000100357,-5e-05,-4.5977e-05
551.0,-0.00582271,-0.002071008,0.00319212,0.005316389,0.001565686,0.000100357,-5e-05,-4.5977e-05
552.0,-0.00582271,-0.002071008,0.00319212,0.005316389,0.001565686,5.0357e-05,-5e-05,4.022e-06
553.0,-0.00582271,-0.002071008,0.00319212,0.005316389,0.001565686,5.0357e-05,-5e-05,4.022e-06
554.0,-0.00582271,-0.002071008,0.00319212,0.005316389,0.001565686,5.0357e-05,-5e-05,4.022e-06
555.0,-0.00582271,-0.002071008,0.00319212,0.005316389,0.001565686,5.0357e-05,-5e-05,4.022e-06
556.0,-0.00582271,-0.002071008,0.00319212,0.005316389,0.001565686,5.0357e-05,-5e-05,4.022e-06
557.0,-0.00582271,-0.002071008,0.00319212,0.005316389,0.001565686,5.0357e-05,-5e-05,4.022e-06
558.0,-0.00582271,-0.002071008,0.00319212,0.005316389,0.001565686,5.0357e-05,-5e-05,4.022e-06
559.0,-0.00587271,-0.002071008,0.00319212,0.005316389,0.001565686,5.0357e-05,-5e-05,5.4022e-05
560.0,-0.00587271,-0.002071008,0.00324212,0.005316389,0.001515686,5.0357e-05,-5e-05,5.4022e-05
561.0,-0.00587271,-0.002071008,0.00324212,0.005316389,0.001515686,5.0357e-05,-5e-05,5.4022e-05
562.0,-0.00587271,-0.002071008,0.00324212,0.005316389,0.001515686,5.0357e-05,-5e-05,5.4022e-05
563.0,-0.00587271,-0.002071008,0.00324212,0.005316389,0.001515686,5.0357e-05,-5e-05,5.4022e-05
564.0,-0.00582271,-0.002071008,0.00324212,0.005316389,0.001515686,5.0357e-05,-5e-05,4.022e-06
565.0,-0.00582271,-0.002071008,0.00324212,0.005316389,0.001515686,5.0357e-05,-5e-05,4.022e-06
566.0,-0.00582271,-0.002071008,0.00324212,0.005316389,0.001515686,0.000100357,-0.0001,4.022e-06
567.0,-0.00582271,-0.002071008,0.00324212,0.005316389,0.001515686,5.0357e-05,-5e-05,4.022e-06
568.0,-0.00582271,-0.002071008,0.00324212,0.005316389,0.001515686,5.0357e-05,-5e-05,4.022e-06
569.0,-0.00582271,-0.002071008,0.00324212,0.005316389,0.001515686,5.0357e-05,-5e-05,4.022e-06
570.0,-0.00582271,-0.002071008,0.00324212,0.005316389,0.001515686,5.0357e-05,-5e-05,4.022e-06
571.0,-0.00582271,-0.002071008,0.00324212,0.005316389,0.001515686,5.0357e-05,-5e-05,4.022e-06
572.0,-0.00582271,-0.002071008,0.00324212,0.005316389,0.001515686,5.0357e-05,-5e-05,4.022e-06
573.0,-0.00582271,-0.002071008,0.00324212,0.005316389,0.001515686,5.0357e-05,-5e-05,4.022e-06
574.0,-0.00582271,-0.002071008,0.00324212,0.005316389,0.001515686,5.0357e-05,-5e-05,4.022e-06
575.0,-0.00582271,-0.002071008,0.00324212,0.005316389,0.001515686,5.0357e-05,-5e-05,4.022e-06
576.0,-0.00582271,-0.002071008,0.00324212,0.005316389,0.001515686,5.0357e-05,-5e-05,4.022e-06
577.0,-0.00582271,-0.002071008,0.00324212,0.005316389,0.001515686,5.0357e-05,-5e-05,4.022e-06
578.0,-0.00582271,-0.002071008,0.00324212,0.005316389,0.001515686,5.0357e-05,-5e-05,4.022e-06
579.0,-0.00582271,-0.002071008,0.00324212,0.005316389,0.001515686,5.0357e-05,-5e-05,4.022e-06
580.0,-0.00582271,-0.002071008,0.00324212,0.005316389,0.001515686,5.0357e-05,-5e-05,4.022e-06
581.0,-0.00582271,-0.002071008,0.00324212,0.005316389,0.001515686,5.0357e-05,-5e-05,4.022e-06
582.0,-0.00582271,-0.002071008,0.00324212,0.005316389,0.001515686,5.0357e-05,-5e-05,4.022e-06
583.0,-0.00582271,-0.002071008,0.00324212,0.005316389,0.001515686,5.0357e-05,-5e-05,4.022e-06
584.0,-0.00582271,-0.002071008,0.00324212,0.005316389,0.001515686,5.0357e-05,-5e-05,4.022e-06
585.0,-0.00582271,-0.002071008,0.00324212,0.005316389,0.001515686,5.0357e-05,-5e-05,4.022e-06
586.0,-0.00582271,-0.002071008,0.00324212,0.00526639,0.001565686,5.0357e-05,-5e-05,4.022e-06
587.0,-0.00582271,-0.002071008,0.00324212,0.00526639,0.001565686,5.0357e-05,-5e-05,4.022e-06
588.0,-0.00582271,-0.002071008,0.00324212,0.00526639,0.001565686,5.0357e-05,-5e-05,4.022e-06
589.0,-0.00582271,-0.002071008,0.00324212,0.00526639,0.001565686,5.0357e-05,-5e-05,4.022e-06
590.0,-0.00582271,-0.002071008,0.00324212,0.00526639,0.001565686,5.0357e-05,-5e-05,4.022e-06
591.0,-0.00582271,-0.002071008,0.00324212,0.00526639,0.001565686,5.0357e-05,-5e-05,4.022e-06
592.0,-0.00582271,-0.002071008,0.00324212,0.00526639,0.001565686,5.0357e-05,-5e-05,4.022e-06
593.0,-0.00582271,-0.002071008,0.00324212,0.00526639,0.001565686,5.0357e-05,-5e-05,4.022e-06
594.0,-0.00582271,-0.002071008,0.00324212,0.00526639,0.001565686,5.0357e-05,-5e-05,4.022e-06
595.0,-0.00582271,-0.002071008,0.00324212,0.00526639,0.001565686,5.0357e-05,-5e-05,4.022e-06
596.0,-0.00582271,-0.002071008,0.00324212,0.00526639,0.001565686,0.000100357,-0.0001,4.022e-06
597.0,-0.00582271,-0.002071008,0.00324212,0.00526639,0.001565686,0.000100357,-0.0001,4.022e-06
598.0,-0.00582271,-0.002071008,0.00324212,0.00526639,0.001565686,5.0357e-05,-5e-05,4.022e-06
599.0,-0.00582271,-0.002071008,0.00329212,0.00526639,0.001515686,5.0357e-05,-5e-05,4.022e-06
600.0,-0.00582271,-0.002071008,0.00329212,0.00526639,0.001515686,0.000100357,-0.0001,4.022e-06
601.0,-0.00582271,-0.002071008,0.00329212,0.00526639,0.001515686,0.000100357,-0.0001,4.022e-06
602.0,-0.00582271,-0.002071008,0.00329212,0.00526639,0.001515686,5.0357e-05,-5e-05,4.022e-06
603.0,-0.00582271,-0.002071008,0.00329212,0.00526639,0.001515686,5.0357e-05,-5e-05,4.022e-06
604.0,-0.00582271,-0.002071008,0.00329212,0.00526639,0.001515686,0.000100357,-0.0001,4.022e-06
605.0,-0.00582271,-0.002071008,0.00329212,0.00526639,0.001515686,0.000100357,-0.0001,4.022e-06
606.0,-0.00582271,-0.002071008,0.00329212,0.00526639,0.001515686,0.000100357,-0.0001,4.022e-06
607.0,-0.005822764,-0.002071008,0.00329212,0.00526639,0.001515686,0.000100357,-0.0001,4.076e-06
608.0,-0.005822764,-0.002071008,0.00324212,0.005316389,0.001515686,0.000100357,-0.0001,4.076e-06
609.0,-0.005822764,-0.002071008,0.00324212,0.005316389,0.001515686,0.000100357,-0.0001,4.076e-06
610.0,-0.005822764,-0.002071008,0.00324212,0.005316389,0.001515686,0.000100357,-0.0001,4.076e-06
611.0,-0.005822764,-0.002071008,0.00324212,0.005316389,0.001515686,5.0357e-05,-5e-05,4.076e-06
612.0,-0.005822764,-0.002071008,0.003192122,0.005316389,0.001565683,5.0357e-05,-5e-05,4.076e-06
613.0,-0.005822764,-0.002071008,0.003192122,0.005316389,0.001565683,5.0357e-05,-5e-05,4.076e-06
614.0,-0.005872764,-0.002071008,0.003192122,0.005316389,0.001565683,5.0357e-05,-5e-05,5.4076e-05
615.0,-0.005872764,-0.002071008,0.003192122,0.005316389,0.001565683,5.0357e-05,-5e-05,5.4076e-05
616.0,-0.005872764,-0.002071008,0.003192122,0.005316389,0.001565683,5.0357e-05,-5e-05,5.4076e-05
617.0,-0.005872764,-0.002071008,0.003192122,0.005316389,0.001565683,5.0357e-05,-5e-05,5.4076e-05
618.0,-0.005872764,-0.002071008,0.003192122,0.005316389,0.001565683,5.0357e-05,-5e-05,5.4076e-05
619.0,-0.005822764,-0.002071008,0.003192122,0.00526639,0.001565683,5.0357e-05,-5e-05,5.4076e-05
620.0,-0.005822764,-0.002071008,0.003192122,0.005316226,0.001515848,5.0357e-05,-5e-05,5.4076e-05
621.0,-0.005822764,-0.002071008,0.003192122,0.005316226,0.001515848,0.000100357,-5e-05,4.076e-06
622.0,-0.005822764,-0.002071008,0.003192122,0.005316226,0.001515848,0.000100357,-5e-05,4.076e-06
623.0,-0.005822764,-0.002071008,0.003192122,0.005316226,0.001515848,0.000100357,-5e-05,4.076e-06
624.0,-0.005822764,-0.002021008,0.003192122,0.005266226,0.001515848,0.000100357,-5e-05,4.076e-06
625.0,-0.005822764,-0.002021008,0.003192122,0.005266226,0.001515848,0.000100357,-5e-05,4.076e-06
626.0,-0.005822764,-0.002021008,0.003192122,0.005266226,0.001515848,0.000100357,-5e-05,4.076e-06
627.0,-0.005822764,-0.002021008,0.003192122,0.005266226,0.001515848,0.000100357,-5e-05,4.076e-06
628.0,-0.005822764,-0.002021008,0.003192122,0.005266226,0.001515848,0.000100357,-5e-05,4.076e-06
629.0,-0.005822764,-0.002071008,0.003192122,0.005266226,0.001515848,0.000100357,0.0,4.076e-06
630.0,-0.005822764,-0.002071008,0.003192122,0.005266226,0.001515848,0.000100357,0.0,4.076e-06
631.0,-0.005822764,-0.002071008,0.003192122,0.005266226,0.001515848,0.000100357,0.0,4.076e-06
632.0,-0.005822764,-0.002071008,0.003192122,0.005266226,0.001515848,0.000100357,0.0,4.076e-06
633.0,-0.005822764,-0.002071008,0.003192122,0.005266226,0.001515848,0.000100357,0.0,4.076e-06
634.0,-0.005822764,-0.002071008,0.003192122,0.005266226,0.001515848,0.000100357,0.0,4.076e-06
635.0,-0.005822764,-0.002071008,0.003192122,0.005266226,0.001515848,0.000100357,0.0,4.076e-06
636.0,-0.005822804,-0.002071008,0.003192122,0.005266265,0.001515848,0.000100357,0.0,4.076e-06
637.0,-0.005822804,-0.002071008,0.003192122,0.005266265,0.001515848,0.000100357,0.0,4.076e-06
638.0,-0.005822804,-0.002071008,0.003192122,0.005266265,0.001515848,0.000100357,0.0,4.076e-06
639.0,-0.005822804,-0.002071008,0.003192122,0.005266265,0.001515848,0.000100357,0.0,4.076e-06
640.0,-0.005822804,-0.002071008,0.003192122,0.005266265,0.001515848,0.000100357,0.0,4.076e-06
641.0,-0.005822804,-0.002071008,0.003192122,0.005266265,0.001515848,0.000150357,-5e-05,4.076e-06
642.0,-0.005872804,-0.002071008,0.003192122,0.005266265,0.001565848,0.000150357,-5e-05,4.076e-06
643.0,-0.005872804,-0.002071008,0.003192122,0.005266265,0.001565848,0.000150357,-5e-05,4.076e-06
644.0,-0.005872804,-0.002071008,0.003192122,0.005266265,0.001565848,0.000100357,0.0,4.076e-06
645.0,-0.005872804,-0.002071008,0.003192122,0.005266265,0.001565848,0.000100357,0.0,4.076e-06
646.0,-0.005872804,-0.002071008,0.003192122,0.005266265,0.001565848,0.000100357,0.0,4.076e-06
647.0,-0.005872804,-0.002071008,0.003192122,0.005266265,0.001565848,0.000100357,0.0,4.076e-06
648.0,-0.005872804,-0.002071008,0.003192122,0.005266265,0.001565848,0.000100357,0.0,4.076e-06
649.0,-0.005872804,-0.002071008,0.003192122,0.005266265,0.001565848,0.000100357,0.0,4.076e-06
650.0,-0.005872804,-0.002071008,0.003192122,0.005266265,0.001565848,0.000100357,-5e-05,5.4076e-05
651.0,-0.005872804,-0.002071008,0.003192122,0.005266265,0.001565848,0.000100357,-5e-05,5.4076e-05
652.0,-0.005872804,-0.002071008,0.003192122,0.005266265,0.001565848,0.000100357,-5e-05,5.4076e-05
653.0,-0.005872804,-0.002071008,0.003192122,0.005266265,0.001565848,0.000100357,-5e-05,5.4076e-05
654.0,-0.005872804,-0.002071008,0.003192122,0.005266265,0.001565848,0.000100357,-5e-05,5.4076e-05
655.0,-0.005872804,-0.002071008,0.003192122,0.005266265,0.001565848,0.000100357,-5e-05,5.4076e-05
656.0,-0.005872804,-0.002071008,0.003192122,0.005266265,0.001565848,0.000100357,-5e-05,5.4076e-05
657.0,-0.005872804,-0.002071008,0.003192122,0.005266265,0.001565848,0.000100357,-5e-05,5.4076e-05
658.0,-0.005872804,-0.002071008,0.003192122,0.005266265,0.001565848,0.000100357,-5e-05,5.4076e-05
659.0,-0.005872804,-0.002071008,0.003192122,0.005266265,0.001565848,0.000100357,-5e-05,5.4076e-05
660.0,-0.005872804,-0.002071008,0.003192122,0.005266265,0.001565848,0.000100357,-5e-05,5.4076e-05
661.0,-0.005872804,-0.002071008,0.003192122,0.005316265,0.001515848,0.000100357,-5e-05,5.4076e-05
662.0,-0.005872804,-0.002071008,0.003242122,0.005316265,0.001515848,0.000100357,-0.0001,5.4076e-05
663.0,-0.005822804,-0.002071008,0.003242122,0.005316265,0.001515848,0.000100357,-0.0001,4.076e-06
664.0,-0.005822804,-0.002071008,0.003242122,0.005316265,0.001515848,0.000100357,-0.0001,4.076e-06
665.0,-0.005822804,-0.002071008,0.003242122,0.005316265,0.001515848,0.000100357,-0.0001,4.076e-06
666.0,-0.005822804,-0.002071008,0.003242122,0.005316265,0.001515848,0.000100357,-0.0001,4.076e-06
667.0,-0.005822804,-0.002071008,0.003242122,0.005316265,0.001515848,0.000100357,-0.0001,4.076e-06
668.0,-0.005822804,-0.002071008,0.003242122,0.005316265,0.001515848,0.000100357,-0.0001,4.076e-06
669.0,-0.005822804,-0.002071008,0.003242122,0.005266265,0.001565848,0.000100357,-0.0001,4.076e-06
670.0,-0.005822804,-0.002071008,0.003242122,0.005266265,0.001565848,0.000100357,-0.0001,4.076e-06
671.0,-0.005822804,-0.002071008,0.003242122,0.005266265,0.001565848,0.000100357,-0.0001,4.076e-06
672.0,-0.005822804,-0.002071008,0.003242122,0.005266265,0.001565848,0.000100357,-0.0001,4.076e-06
673.0,-0.005822804,-0.002071008,0.003242122,0.005266265,0.001565848,0.000100357,-0.0001,4.076e-06
674.0,-0.005822804,-0.002071008,0.003242122,0.005266265,0.001565848,0.000100357,-0.0001,4.076e-06
675.0,-0.005822804,-0.002071008,0.003242122,0.005266265,0.001565848,0.000100357,-0.0001,4.076e-06
676.0,-0.005822804,-0.002071008,0.003242122,0.005266265,0.001565848,0.000100357,-0.0001,4.076e-06
677.0,-0.005822804,-0.002071008,0.003242122,0.005266265,0.001565848,5.0357e-05,-5e-05,4.076e-06
678.0,-0.005822804,-0.002071008,0.003242122,0.005266265,0.001565848,5.0357e-05,-5e-05,4.076e-06
679.0,-0.005822804,-0.002071008,0.003242122,0.005266265,0.001565848,0.000100357,-0.0001,4.076e-06
680.0,-0.005822804,-0.002071008,0.003242122,0.005266265,0.001565848,5.0357e-05,-5e-05,4.076e-06
681.0,-0.005822804,-0.002071008,0.003242122,0.005266265,0.001565848,0.000100357,-0.0001,4.076e-06
682.0,-0.005822804,-0.002071008,0.003242122,0.005266265,0.001565848,0.000100357,-0.0001,4.076e-06
683.0,-0.005822804,-0.002071008,0.003242122,0.005266265,0.001565848,0.000100357,-0.0001,4.076e-06
684.0,-0.005822804,-0.002071008,0.003242122,0.005266265,0.001565848,0.000100357,-0.0001,4.076e-06
685.0,-0.005822804,-0.002071008,0.003242122,0.005266265,0.001565848,0.000100357,-0.0001,4.076e-06
686.0,-0.005872804,-0.002071008,0.003242122,0.005266265,0.001565848,0.000100357,-0.0001,5.4076e-05
687.0,-0.005872804,-0.002071008,0.003242122,0.005266265,0.001565848,0.000100357,-0.0001,5.4076e-05
688.0,-0.005872804,-0.002071008,0.003242122,0.005266265,0.001565848,0.000100357,-0.0001,5.4076e-05
689.0,-0.005872804,-0.002071008,0.003242122,0.005266265,0.001565848,0.000100357,-0.0001,5.4076e-05
690.0,-0.005872804,-0.002071008,0.003242122,0.005266265,0.001565848,0.000100357,-0.0001,5.4076e-05
691.0,-0.005872804,-0.002071008,0.003242122,0.005266265,0.001565848,0.000100357,-0.0001,5.4076e-05
692.0,-0.005872804,-0.002071008,0.003242122,0.005266265,0.001565848,0.000100357,-0.0001,5.4076e-05
693.0,-0.005872804,-0.002071008,0.003242122,0.005266265,0.001565848,0.000100357,-0.0001,5.4076e-05
694.0,-0.005872804,-0.002071008,0.003242122,0.005266265,0.001565848,0.000100357,-0.0001,5.4076e-05
695.0,-0.005872804,-0.002071008,0.003242122,0.005266265,0.001565848,0.000104222,-0.000103864,5.4076e-05
696.0,-0.005872804,-0.002071008,0.003242122,0.005266265,0.001565848,0.000104222,-0.000103864,5.4076e-05
697.0,-0.005872804,-0.002071008,0.003242122,0.005266265,0.001565848,0.000104222,-0.000103864,5.4076e-05
698.0,-0.005872804,-0.002071008,0.003242122,0.005266265,0.001565848,0.000104222,-0.000103864,5.4076e-05
699.0,-0.005872804,-0.002071008,0.003242122,0.005266265,0.001565848,0.000104222,-0.000103864,5.4076e-05
700.0,-0.005872804,-0.002071008,0.003242122,0.005266265,0.001565848,0.000104222,-0.000103864,5.4076e-05
701.0,-0.005872804,-0.002071008,0.003242122,0.005266265,0.001565848,0.000104222,-0.000103864,5.4076e-05
702.0,-0.005872804,-0.002071008,0.003242122,0.005266265,0.001565848,0.000104222,-0.000103864,5.4076e-05
703.0,-0.005872804,-0.002071008,0.003242122,0.005266265,0.001565848,0.000104222,-0.000103864,5.4076e-05
704.0,-0.005872804,-0.002071008,0.003242122,0.005266265,0.001565848,0.000104222,-0.000103864,5.4076e-05
705.0,-0.005872804,-0.002071008,0.003242122,0.005266265,0.001565848,0.000104222,-0.000103864,5.4076e-05
706.0,-0.005872804,-0.002071008,0.003242122,0.005266265,0.001565848,0.000104222,-0.000103864,5.4076e-05
707.0,-0.005872804,-0.002071008,0.003242122,0.005266265,0.001565848,0.000104222,-0.000103864,5.4076e-05
708.0,-0.005872804,-0.002071008,0.003242122,0.005266265,0.001565848,0.000104222,-0.000103864,5.4076e-05
709.0,-0.005872804,-0.002071008,0.003242122,0.005266265,0.001565848,0.000104222,-0.000103864,5.4076e-05
710.0,-0.005872804,-0.002071008,0.003242122,0.005266265,0.001565848,0.000104222,-0.000103864,5.4076e-05
711.0,-0.005822804,-0.002071008,0.003242122,0.005266265,0.001565848,0.000104222,-0.000103864,4.076e-06
712.0,-0.005872804,-0.002071008,0.003242122,0.005266265,0.001565848,0.000104222,-0.000103864,5.4076e-05
713.0,-0.005872804,-0.002071008,0.003242122,0.005266265,0.001565848,0.000104222,-0.000103864,5.4076e-05
714.0,-0.005872804,-0.002071008,0.003242122,0.005266265,0.001565848,5.4228e-05,-5.387e-05,5.4076e-05
715.0,-0.005872804,-0.002071008,0.003242122,0.005266265,0.001565848,5.4228e-05,-5.387e-05,5.4076e-05
716.0,-0.005872804,-0.002071008,0.003242122,0.005266265,0.001565848,5.4228e-05,-5.387e-05,5.4076e-05
717.0,-0.005872804,-0.002071008,0.003242122,0.005266265,0.001565848,5.4228e-05,-5.387e-05,5.4076e-05
718.0,-0.005872804,-0.002071008,0.003242122,0.005266265,0.001565848,0.000104228,-0.00010387,5.4076e-05
719.0,-0.005872804,-0.002071008,0.003242122,0.005266265,0.001565848,0.000104228,-0.00010387,5.4076e-05
720.0,-0.005872804,-0.002071008,0.003242122,0.005266265,0.001565848,0.000104228,-0.00010387,5.4076e-05
721.0,-0.005872804,-0.002071008,0.003242122,0.005316265,0.001565848,0.000104228,-0.00010387,4.076e-06
722.0,-0.005872804,-0.002071008,0.003242122,0.005316265,0.001565848,0.000104228,-0.00010387,4.076e-06
723.0,-0.005872804,-0.002071008,0.003242122,0.005316265,0.001565848,0.000104228,-0.00010387,4.076e-06
724.0,-0.005872804,-0.002071008,0.003242122,0.005316265,0.001565848,0.000104228,-0.00010387,4.076e-06
725.0,-0.005872804,-0.002071008,0.003242122,0.005316265,0.001565848,0.000104228,-0.00010387,4.076e-06
726.0,-0.005872804,-0.002071008,0.003242122,0.005316265,0.001565848,0.000104228,-0.00010387,4.076e-06
727.0,-0.005872804,-0.002071008,0.003242122,0.005316265,0.001615848,0.000104228,-0.00015387,4.076e-06
728.0,-0.005872804,-0.002071008,0.003242122,0.005316265,0.001615848,0.000104228,-0.00015387,4.076e-06
729.0,-0.005872804,-0.002071008,0.003242122,0.005316265,0.001615848,0.000104228,-0.00015387,4.076e-06
730.0,-0.005872804,-0.002071008,0.003242122,0.005316265,0.001615848,0.000104228,-0.00015387,4.076e-06
731.0,-0.005872804,-0.002071008,0.003242122,0.005316265,0.001615848,0.000104228,-0.00015387,4.076e-06
732.0,-0.005872804,-0.002071008,0.003242122,0.005316265,0.001615848,0.000104228,-0.00015387,4.076e-06
733.0,-0.005872804,-0.002071008,0.003242122,0.005316265,0.001615848,0.000104228,-0.00015387,4.076e-06
734.0,-0.005872804,-0.002071008,0.003242122,0.005316265,0.001615848,0.000104228,-0.00015387,4.076e-06
735.0,-0.005872804,-0.002071008,0.003242122,0.005316265,0.001615848,5.4228e-05,-0.00010387,4.076e-06
736.0,-0.005872804,-0.002071008,0.003242122,0.005316265,0.001615848,5.4228e-05,-0.00010387,4.076e-06
737.0,-0.005872804,-0.002071008,0.003242122,0.005316265,0.001615848,5.4228e-05,-0.00010387,4.076e-06
738.0,-0.005872804,-0.002071008,0.003242122,0.005316265,0.001615848,5.4228e-05,-0.00010387,4.076e-06
739.0,-0.005872804,-0.002071008,0.003242122,0.005316265,0.001615848,5.4228e-05,-0.00010387,4.076e-06
740.0,-0.005872804,-0.002071008,0.003242122,0.005316265,0.001615848,5.4228e-05,-0.00010387,4.076e-06
741.0,-0.005872804,-0.002071008,0.003242122,0.005316265,0.001615848,5.4228e-05,-0.00010387,4.076e-06
742.0,-0.005872804,-0.002071008,0.003242122,0.005316265,0.001615848,5.4228e-05,-0.00010387,4.076e-06
743.0,-0.005872804,-0.002071008,0.003242122,0.005316265,0.001615848,5.4228e-05,-0.00010387,4.076e-06
744.0,-0.005872804,-0.002071008,0.003242122,0.005316265,0.001615848,5.4228e-05,-0.00010387,4.076e-06
745.0,-0.005872804,-0.002071008,0.003242122,0.005316265,0.001615848,5.4228e-05,-0.00010387,4.076e-06
746.0,-0.005872804,-0.002071008,0.003242122,0.005316265,0.001615848,5.4228e-05,-0.00010387,4.076e-06
747.0,-0.005872804,-0.002071008,0.003242122,0.005316265,0.001615848,5.4228e-05,-0.00010387,4.076e-06
748.0,-0.005872804,-0.002071008,0.003242122,0.005316265,0.001615848,5.4228e-05,-0.00010387,4.076e-06
749.0,-0.005872804,-0.002071008,0.003242122,0.005316265,0.001615848,0.000104228,-0.00010387,-4.5923e-05
750.0,-0.005872804,-0.002071008,0.003242122,0.005316265,0.001615848,0.000104228,-0.00010387,-4.5923e-05
751.0,-0.005872804,-0.002071008,0.003242122,0.005316265,0.001615848,0.000104228,-0.00010387,-4.5923e-05
752.0,-0.005872804,-0.002071008,0.003242122,0.005316265,0.001615848,0.000104228,-0.00010387,-4.5923e-05
753.0,-0.005872804,-0.002071008,0.003242122,0.005316265,0.001615848,0.000104228,-0.00010387,-4.5923e-05
754.0,-0.005872804,-0.002071008,0.003242122,0.005316265,0.001615848,0.000104228,-0.00010387,-4.5923e-05
755.0,-0.005872804,-0.002071008,0.003242122,0.005316265,0.001615848,0.000104228,-0.00010387,-4.5923e-05
756.0,-0.005872804,-0.002071008,0.003192122,0.005316265,0.001615848,0.000104228,-0.00010387,4.076e-06
757.0,-0.005872804,-0.002121008,0.003192122,0.005316265,0.001615848,0.000104228,-0.00010387,5.4076e-05
758.0,-0.005872804,-0.002121008,0.003192122,0.005316265,0.001615848,0.000104228,-0.00010387,5.4076e-05
759.0,-0.005872804,-0.002121008,0.003192122,0.005316265,0.001615848,0.000104228,-0.00010387,5.4076e-05
760.0,-0.005872804,-0.002121008,0.003192122,0.005316265,0.001615848,0.000104228,-0.00010387,5.4076e-05
761.0,-0.005872804,-0.002121008,0.003192122,0.005316265,0.001615848,5.4228e-05,-5.387e-05,5.4076e-05
762.0,-0.005872804,-0.002121008,0.003192122,0.005316265,0.001615848,5.4228e-05,-5.387e-05,5.4076e-05
763.0,-0.005872804,-0.002121008,0.003192122,0.005316265,0.001615848,5.4228e-05,-5.387e-05,5.4076e-05
764.0,-0.005872804,-0.002121008,0.003192122,0.005316265,0.001615848,5.4228e-05,-5.387e-05,5.4076e-05
765.0,-0.005872804,-0.002121008,0.003192122,0.005316265,0.001615848,5.4228e-05,-5.387e-05,5.4076e-05
766.0,-0.005872804,-0.002121008,0.003192122,0.005316265,0.001615848,0.000104228,-0.00010387,5.4076e-05
767.0,-0.005872804,-0.002121008,0.003192122,0.005316265,0.001615848,0.000104228,-0.00010387,5.4076e-05
768.0,-0.005872804,-0.002071008,0.003192122,0.005316265,0.001565848,0.000104228,-0.00010387,5.4076e-05
769.0,-0.005872804,-0.002071008,0.003192122,0.005316265,0.001565848,0.000104228,-0.00010387,5.4076e-05
770.0,-0.005872804,-0.002071008,0.003192122,0.005316265,0.001565848,0.000104228,-0.00010387,5.4076e-05
771.0,-0.005872804,-0.002071008,0.003192122,0.005266265,0.001615848,0.000104228,-0.00010387,5.4076e-05
772.0,-0.005872804,-0.002071008,0.003192122,0.005266265,0.001615848,0.000104228,-5.387e-05,4.076e-06
773.0,-0.005872804,-0.002071008,0.003192122,0.005266265,0.001615848,0.000104228,-5.387e-05,4.076e-06
774.0,-0.005872804,-0.002071008,0.003192122,0.005266265,0.001615848,0.000104228,-5.387e-05,4.076e-06
775.0,-0.005872804,-0.002071008,0.003192122,0.005266265,0.001615848,0.000104228,-5.387e-05,4.076e-06
776.0,-0.005872804,-0.002071008,0.003192122,0.005266265,0.001615848,0.000104228,-5.387e-05,4.076e-06
777.0,-0.005872804,-0.002071008,0.003192122,0.005266265,0.001615848,0.000104228,-5.387e-05,4.076e-06
778.0,-0.005872804,-0.002071008,0.003192122,0.005266265,0.001615848,0.000104228,-5.387e-05,4.076e-06
779.0,-0.005872804,-0.002071008,0.003192122,0.005266265,0.001615848,0.000104228,-5.387e-05,4.076e-06
780.0,-0.005872804,-0.002071008,0.003192122,0.005266265,0.001615848,0.000104228,-5.387e-05,4.076e-06
781.0,-0.005872804,-0.002071008,0.003192122,0.005316265,0.001565848,0.000104228,-5.387e-05,4.076e-06
782.0,-0.005872804,-0.002071008,0.003192122,0.005316265,0.001565848,0.000104228,-5.387e-05,4.076e-06
783.0,-0.005872804,-0.002021008,0.003192122,0.005316265,0.001565848,0.000104228,-0.00010387,4.076e-06
784.0,-0.005872804,-0.002021008,0.003192122,0.005316265,0.001565848,0.000104228,-0.00010387,4.076e-06
785.0,-0.005872804,-0.002021008,0.003192122,0.005316265,0.001565848,0.000104228,-0.00010387,4.076e-06
786.0,-0.005872804,-0.002021008,0.003192122,0.005316265,0.001565848,0.000104228,-0.00010387,4.076e-06
787.0,-0.005872804,-0.002021008,0.003192122,0.005316265,0.001565848,0.000104228,-0.00010387,4.076e-06
788.0,-0.005872804,-0.002021008,0.003192122,0.005316265,0.001565848,0.000104228,-0.00010387,4.076e-06
789.0,-0.005872804,-0.002021008,0.003192122,0.005316265,0.001565848,0.000104228,-0.00010387,4.076e-06
790.0,-0.005872804,-0.002021008,0.003192122,0.005316265,0.001565848,0.000104228,-0.00010387,4.076e-06
791.0,-0.005872804,-0.002021008,0.003192122,0.005316265,0.001565848,0.000104228,-0.00010387,4.076e-06
792.0,-0.005872804,-0.002021008,0.003192122,0.005366265,0.001515848,0.000104228,-0.00010387,4.076e-06
793.0,-0.005872804,-0.002021008,0.003192122,0.005366265,0.001515848,0.000104228,-0.00010387,4.076e-06
794.0,-0.005872804,-0.002021008,0.003192122,0.005366265,0.001515848,0.000104228,-0.00010387,4.076e-06
795.0,-0.005872804,-0.002021008,0.003192122,0.005366265,0.001515848,0.000104228,-0.00010387,4.076e-06
796.0,-0.005872804,-0.002021008,0.003192122,0.005366265,0.001515848,0.000104228,-0.00010387,4.076e-06
797.0,-0.005872804,-0.002021008,0.003192122,0.005366265,0.001515848,0.000104228,-0.00010387,4.076e-06
798.0,-0.005872804,-0.002021008,0.003192122,0.005366265,0.001515848,0.000104228,-0.00010387,4.076e-06
799.0,-0.005872804,-0.002021008,0.003192122,0.005366265,0.001515848,0.000104228,-0.00010387,4.076e-06
800.0,-0.005872804,-0.002021008,0.003192122,0.005366265,0.001515848,0.000104228,-0.00010387,4.076e-06
801.0,-0.005872804,-0.002021008,0.003192122,0.005316265,0.001565848,0.000104228,-0.00010387,4.076e-06
802.0,-0.005872804,-0.002021008,0.003192122,0.005316265,0.001565848,0.000104228,-0.00010387,4.076e-06
803.0,-0.005872804,-0.002021008,0.003192122,0.005316265,0.001565848,0.000104228,-0.00010387,4.076e-06
804.0,-0.005872804,-0.002021008,0.003192122,0.005316265,0.001565848,0.000104228,-0.00010387,4.076e-06
805.0,-0.005872804,-0.002021008,0.003192122,0.005366265,0.001515848,0.000104228,-0.00010387,4.076e-06
806.0,-0.005872804,-0.002021008,0.003192122,0.005366265,0.001515848,0.000104228,-0.00010387,4.076e-06
807.0,-0.005872804,-0.002021008,0.003192122,0.005366265,0.001515848,0.000104228,-0.00010387,4.076e-06
808.0,-0.005872804,-0.002021008,0.003192122,0.005366265,0.001515848,0.000104228,-0.00010387,4.076e-06
809.0,-0.005872804,-0.002021008,0.003192122,0.005366265,0.001515848,0.000104228,-0.00010387,4.076e-06
810.0,-0.005872804,-0.002021008,0.003192122,0.005366265,0.001515848,0.000104228,-0.00010387,4.076e-06
811.0,-0.005872804,-0.002021008,0.003192122,0.005366265,0.001515848,0.000104228,-0.00010387,4.076e-06
812.0,-0.005872804,-0.002021008,0.003192122,0.005366265,0.001515848,0.000104228,-0.00010387,4.076e-06
813.0,-0.005872804,-0.002021008,0.003192122,0.005366265,0.001515848,0.000104228,-0.00010387,4.076e-06
814.0,-0.005872804,-0.002021008,0.003192122,0.005366265,0.001515848,0.000104228,-0.00010387,4.076e-06
815.0,-0.005872804,-0.002021008,0.003192122,0.005366265,0.001515848,0.000104228,-0.00010387,4.076e-06
816.0,-0.005872804,-0.002021008,0.003192122,0.005316265,0.001565848,0.000104228,-0.00010387,4.076e-06
817.0,-0.005872804,-0.002021008,0.003192122,0.005316265,0.001565848,0.000104228,-0.00010387,4.076e-06
818.0,-0.005872804,-0.002021008,0.003192122,0.005316265,0.001565848,0.000104228,-0.00010387,4.076e-06
819.0,-0.005872804,-0.002021008,0.003192122,0.005316265,0.001565848,0.000104228,-0.00010387,4.076e-06
820.0,-0.005872804,-0.002021008,0.003192122,0.005316265,0.001565848,0.000104228,-0.00010387,4.076e-06
821.0,-0.005872804,-0.002021008,0.003192122,0.005316265,0.001565848,5.4228e-05,-5.387e-05,4.076e-06
822.0,-0.005872804,-0.002021008,0.003192122,0.005316265,0.001565848,5.4228e-05,-5.387e-05,4.076e-06
823.0,-0.005822804,-0.002021008,0.003192122,0.005316265,0.001565848,5.4228e-05,-0.00010387,4.076e-06
824.0,-0.005822804,-0.002021008,0.003192122,0.005316265,0.001565848,5.4228e-05,-0.00010387,4.076e-06
825.0,-0.005822804,-0.002021008,0.003192122,0.005366265,0.001515848,5.4228e-05,-0.00010387,4.076e-06
