0.0,-0.00449416,0.000621109,0.004196644,-0.002840909,0.000106518,5e-05,0.0,0.0
1.0,-0.00444416,0.000621109,0.004196644,-0.002840909,0.000106518,0.0,0.0,0.0
2.0,-0.00449416,0.000621109,0.004196644,-0.002840909,0.000106518,5e-05,0.0,0.0
3.0,-0.00449416,0.000621109,0.004196644,-0.002790909,0.000106518,0.0,0.0,0.0
4.0,-0.00449416,0.000621109,0.004196644,-0.002790909,0.000106518,0.0,0.0,0.0
5.0,-0.00449416,0.000621109,0.004196644,-0.002840909,0.000156518,0.0,0.0,0.0
6.0,-0.00449416,0.000621109,0.004196644,-0.002840909,0.000156518,0.0,0.0,0.0
7.0,-0.00449416,0.000621109,0.004196644,-0.002840909,0.000156518,0.0,0.0,0.0
8.0,-0.00449416,0.000621109,0.004196644,-0.002840909,0.000156518,-5e-05,5e-05,0.0
9.0,-0.00449416,0.000621109,0.004196644,-0.002840909,0.000156518,-5e-05,0.0,5e-05
10.0,-0.00444416,0.000621109,0.004196644,-0.002840909,0.000156518,-5e-05,0.0,0.0
11.0,-0.00449416,0.000621109,0.004196644,-0.002840909,0.000156518,-5e-05,0.0,5e-05
12.0,-0.00449416,0.000671109,0.004196644,-0.002840909,0.000156518,-5e-05,0.0,0.0
13.0,-0.00449416,0.000671109,0.004196644,-0.002840909,0.000156518,-5e-05,0.0,0.0
14.0,-0.00449416,0.000621109,0.004196644,-0.002840909,0.000156518,-5e-05,0.0,5e-05
15.0,-0.00449416,0.000621109,0.004246643,-0.002840909,0.000156518,-5e-05,0.0,0.0
16.0,-0.00449416,0.000621109,0.004246643,-0.002840909,0.000156518,-5e-05,0.0,0.0
17.0,-0.00449416,0.000621109,0.004246643,-0.002840909,0.000156518,-5e-05,0.0,0.0
18.0,-0.00449416,0.000621109,0.004246643,-0.002840909,0.000156518,-5e-05,0.0,0.0
19.0,-0.00449416,0.000621109,0.004246643,-0.002840909,0.000156518,-5e-05,0.0,0.0
20.0,-0.00449416,0.000621109,0.004246643,-0.002840909,0.000156518,0.0,0.0,-5e-05
21.0,-0.00449416,0.000671109,0.004246643,-0.002840909,0.000156518,-5e-05,0.0,-5e-05
22.0,-0.00449416,0.000621109,0.004246643,-0.002840909,0.000156518,0.0,0.0,-5e-05
23.0,-0.00449416,0.000621109,0.004296643,-0.002840909,0.000156518,-5e-05,0.0,-5e-05
24.0,-0.00449416,0.000621109,0.004246643,-0.002840909,0.000156518,0.0,0.0,-5e-05
25.0,-0.00449416,0.000621109,0.004246643,-0.002840909,0.000156518,-5e-05,5e-05,-5e-05
26.0,-0.00444416,0.000621109,0.004246643,-0.002840909,0.000156518,-5e-05,0.0,-5e-05
27.0,-0.00444416,0.000621109,0.004246643,-0.002840909,0.000156518,-5e-05,0.0,-5e-05
28.0,-0.00444416,0.000621109,0.004246643,-0.002840909,0.000156518,-5e-05,0.0,-5e-05
29.0,-0.00444416,0.000621109,0.004246643,-0.002840909,0.000156518,-5e-05,0.0,-5e-05
30.0,-0.00444416,0.000621109,0.004246643,-0.002840909,0.000156518,-5e-05,0.0,-5e-05
31.0,-0.00449416,0.000621109,0.004246643,-0.002840909,0.000156518,0.0,0.0,-5e-05
32.0,-0.00449416,0.000621109,0.004246643,-0.002840909,0.000156518,0.0,0.0,-5e-05
33.0,-0.00449416,0.000671109,0.004246643,-0.002840909,0.000156518,-5e-05,0.0,-5e-05
34.0,-0.00449416,0.000621109,0.004246643,-0.002840909,0.000156518,-5e-05,0.0,0.0
35.0,-0.00449416,0.000621109,0.004246643,-0.002840909,0.000156518,-5e-05,0.0,0.0
36.0,-0.00449416,0.000621109,0.004246643,-0.002840909,0.000156518,-5e-05,0.0,0.0
37.0,-0.00449416,0.000621109,0.004246643,-0.002840909,0.000156518,-5e-05,0.0,0.0
38.0,-0.00449416,0.000621109,0.004246643,-0.002840909,0.000156518,-5e-05,5e-05,-5e-05
39.0,-0.00449416,0.000621109,0.004246643,-0.002840909,0.000156518,-5e-05,5e-05,-5e-05
40.0,-0.00449416,0.000621109,0.004246643,-0.002840909,0.000156518,-5e-05,5e-05,-5e-05
41.0,-0.00449416,0.000621109,0.004246643,-0.002840909,0.000156518,-5e-05,5e-05,-5e-05
42.0,-0.00449416,0.000621109,0.004246643,-0.002790909,0.000106518,-5e-05,5e-05,-5e-05
43.0,-0.00449416,0.000621109,0.004246643,-0.002790909,0.000106518,0.0,0.0,-5e-05
44.0,-0.00449416,0.000621109,0.004246643,-0.002840909,0.000156518,0.0,0.0,-5e-05
45.0,-0.00449416,0.000621109,0.004246643,-0.002840909,0.000156518,0.0,0.0,-5e-05
46.0,-0.00444416,0.000621109,0.004246643,-0.002840909,0.000156518,-5e-05,0.0,-5e-05
47.0,-0.00439416,0.000621109,0.004246643,-0.002840909,0.000156518,-0.0001,0.0,-5e-05
48.0,-0.00439416,0.000621109,0.004246643,-0.002840909,0.000156518,-0.0001,0.0,-5e-05
49.0,-0.00439416,0.000621109,0.004246643,-0.002840909,0.000156518,-0.0001,0.0,-5e-05
50.0,-0.00444416,0.000621109,0.004246643,-0.002840909,0.000156518,-5e-05,0.0,-5e-05
51.0,-0.00444416,0.000621109,0.004296643,-0.002840909,0.000156518,-0.0001,0.0,-5e-05
52.0,-0.00444416,0.000621109,0.004296643,-0.002840909,0.000156518,-0.0001,0.0,-5e-05
53.0,-0.00449416,0.000621109,0.004296643,-0.002840909,0.000156518,-0.0001,0.0,0.0
54.0,-0.00449416,0.000621109,0.004296643,-0.002790909,0.000106518,-0.0001,0.0,0.0
55.0,-0.00449416,0.000621109,0.004296643,-0.002790909,0.000106518,-0.0001,0.0,0.0
56.0,-0.00449416,0.000621109,0.004296643,-0.002790909,0.000106518,-0.0001,0.0,0.0
57.0,-0.00449416,0.000621109,0.004246643,-0.002790909,0.000106518,-5e-05,0.0,0.0
58.0,-0.00449416,0.000621109,0.004246643,-0.002790909,0.000106518,-0.0001,5e-05,0.0
59.0,-0.00449416,0.000621109,0.004246643,-0.002790909,0.000106518,-0.0001,5e-05,0.0
60.0,-0.00449416,0.000621109,0.004296643,-0.002790909,0.000106518,-0.0001,0.0,0.0
61.0,-0.00449416,0.000621109,0.004296643,-0.002790909,0.000106518,-0.0001,0.0,0.0
62.0,-0.00449416,0.000621109,0.004296643,-0.002790909,0.000106518,-0.0001,0.0,0.0
63.0,-0.00449416,0.000621109,0.004296643,-0.002790909,0.000106518,-0.0001,0.0,0.0
64.0,-0.00449416,0.000621109,0.004296643,-0.002790909,0.000106518,-0.0001,0.0,0.0
65.0,-0.00444416,0.000621109,0.004296643,-0.002790909,0.000106518,-0.0001,0.0,-5e-05
66.0,-0.00444416,0.000621109,0.004296643,-0.002790909,0.000106518,-0.0001,0.0,-5e-05
67.0,-0.00444416,0.000621109,0.004296643,-0.002790909,0.000106518,-0.0001,0.0,-5e-05
68.0,-0.00444416,0.000621109,0.004246643,-0.002790909,0.000106518,-0.0001,5e-05,-5e-05
69.0,-0.00444416,0.000621109,0.004246643,-0.002740909,0.000106518,-0.0001,0.0,-5e-05
70.0,-0.00444416,0.000621109,0.004246643,-0.002740909,0.000106518,-0.0001,0.0,-5e-05
71.0,-0.00444416,0.000621109,0.004246643,-0.002740909,0.000106518,-0.0001,0.0,-5e-05
72.0,-0.00444416,0.000621109,0.004246643,-0.002740909,0.000106518,-0.0001,0.0,-5e-05
73.0,-0.004487556,0.000621109,0.004246643,-0.002747513,0.000106518,-5e-05,0.0,-5e-05
74.0,-0.004487556,0.000621109,0.004246643,-0.002797513,0.000156518,-5e-05,0.0,-5e-05
75.0,-0.004487556,0.000621109,0.004246643,-0.002797513,0.000156518,-0.0001,0.0,0.0
76.0,-0.004487556,0.000621109,0.004246643,-0.002797513,0.000156518,-0.0001,0.0,0.0
77.0,-0.004487556,0.000621109,0.004246643,-0.002797513,0.000156518,-0.0001,0.0,0.0
78.0,-0.004487556,0.000671109,0.004246643,-0.002847513,0.000156518,-0.0001,0.0,0.0
79.0,-0.004487556,0.000671109,0.004246643,-0.002847513,0.000156518,-0.0001,0.0,0.0
80.0,-0.004487556,0.000671109,0.004246643,-0.002847513,0.000156518,-0.0001,0.0,0.0
81.0,-0.004487556,0.000671109,0.004246643,-0.002847513,0.000156518,-0.0001,5e-05,-5e-05
82.0,-0.004487556,0.000671109,0.004296643,-0.002847513,0.000156518,-0.0001,0.0,-5e-05
83.0,-0.004487556,0.000671109,0.004296643,-0.002847513,0.000156518,-0.0001,0.0,-5e-05
84.0,-0.004487556,0.000671109,0.004296643,-0.002847513,0.000156518,-0.0001,0.0,-5e-05
85.0,-0.004487556,0.000621109,0.004296643,-0.002847513,0.000156518,-0.0001,5e-05,-5e-05
86.0,-0.004487556,0.000671109,0.004296643,-0.002847513,0.000156518,-0.0001,0.0,-5e-05
87.0,-0.004487556,0.000671109,0.004296643,-0.002847513,0.000156518,-0.0001,0.0,-5e-05
88.0,-0.004487556,0.000621109,0.004296643,-0.002847513,0.000156518,-0.0001,0.0,0.0
89.0,-0.004487556,0.000621109,0.004296643,-0.002847513,0.000156518,-0.0001,0.0,0.0
90.0,-0.004487556,0.000621109,0.004296643,-0.002847513,0.000156518,-0.0001,0.0,0.0
91.0,-0.004487556,0.000621109,0.004296643,-0.002847513,0.000156518,-0.0001,5e-05,-5e-05
92.0,-0.004487556,0.000621109,0.004296643,-0.002847513,0.000156518,-0.0001,5e-05,-5e-05
93.0,-0.004487556,0.000621109,0.004296643,-0.002847513,0.000156518,-0.0001,5e-05,-5e-05
94.0,-0.004487556,0.000621109,0.004296643,-0.002847513,0.000156518,-0.0001,0.0,0.0
95.0,-0.004487556,0.000621109,0.004296643,-0.002847513,0.000156518,-0.0001,0.0,0.0
96.0,-0.004487556,0.000621109,0.004296643,-0.002847513,0.000156518,-0.0001,0.0,0.0
97.0,-0.004487556,0.000621109,0.004296643,-0.002847513,0.000156518,-0.0001,0.0,0.0
98.0,-0.004487556,0.000621109,0.004296643,-0.002847513,0.000156518,-0.0001,0.0,0.0
99.0,-0.004487556,0.000621109,0.004296643,-0.002847513,0.000156518,-0.0001,0.0,0.0
100.0,-0.004487556,0.000621109,0.004296643,-0.002847513,0.000156518,-0.0001,0.0,0.0
101.0,-0.004487556,0.000621109,0.004296643,-0.002847513,0.000156518,-0.0001,0.0,0.0
102.0,-0.004487556,0.000621109,0.004296643,-0.002847513,0.000156518,-5e-05,0.0,-5e-05
103.0,-0.004487556,0.000621109,0.004296643,-0.002847513,0.000156518,-0.0001,5e-05,-5e-05
104.0,-0.004487556,0.000621109,0.004296643,-0.002847513,0.000156518,-0.0001,0.0,0.0
105.0,-0.004437556,0.000621109,0.004296643,-0.002847513,0.000156518,-0.00015,0.0,0.0
106.0,-0.004437556,0.000621109,0.004296643,-0.002847513,0.000156518,-0.00015,0.0,0.0
107.0,-0.004437556,0.000621109,0.004296643,-0.002847513,0.000156518,-0.00015,0.0,0.0
108.0,-0.004437556,0.000621109,0.004296643,-0.002847513,0.000156518,-0.00015,0.0,0.0
109.0,-0.004437556,0.000621109,0.004296643,-0.002847513,0.000156518,-0.00015,0.0,0.0
110.0,-0.004437556,0.000621109,0.004296643,-0.002847513,0.000156518,-0.00015,-4.114e-06,4.114e-06
111.0,-0.004437556,0.000621109,0.004296643,-0.002847513,0.000156518,-0.00015,-4.114e-06,4.114e-06
112.0,-0.004437556,0.000621109,0.004296643,-0.002847513,0.000156518,-0.00015,-4.114e-06,4.114e-06
113.0,-0.004437556,0.000621109,0.004346643,-0.002847513,0.000156518,-0.00015,-4.114e-06,-4.5885e-05
114.0,-0.004437556,0.000621109,0.004346643,-0.002847513,0.000156518,-0.00015,-4.114e-06,-4.5885e-05
115.0,-0.004437556,0.000621109,0.004346643,-0.002847513,0.000156518,-0.00015,-4.114e-06,-4.5885e-05
116.0,-0.004437556,0.000621109,0.004296643,-0.002847513,0.000156518,-9.9999e-05,-4.114e-06,-4.5885e-05
117.0,-0.004437556,0.000621109,0.004296643,-0.002847513,0.000156518,-9.9999e-05,-4.114e-06,-4.5885e-05
118.0,-0.004437556,0.000621109,0.004296643,-0.002847513,0.000156518,-9.9999e-05,-4.114e-06,-4.5885e-05
119.0,-0.004437556,0.000621109,0.004296643,-0.002847513,0.000156518,-9.9999e-05,-4.114e-06,-4.5885e-05
120.0,-0.004437556,0.000621109,0.004296643,-0.002847513,0.000156518,-0.00015,-4.114e-06,4.114e-06
121.0,-0.004437556,0.000621109,0.004296643,-0.002847513,0.000156518,-0.00015,4.5885e-05,-4.5885e-05
122.0,-0.004437556,0.000621109,0.004296643,-0.002847513,0.000156518,-0.00015,4.5885e-05,-4.5885e-05
123.0,-0.004437556,0.000621109,0.004346643,-0.002847513,0.000156518,-0.00015,-4.114e-06,-4.5885e-05
124.0,-0.004437556,0.000621109,0.004346643,-0.002847513,0.000156518,-0.00015,-4.114e-06,-4.5885e-05
125.0,-0.004437556,0.000621109,0.004346643,-0.002847513,0.000156518,-9.9999e-05,-5.4114e-05,-4.5885e-05
126.0,-0.004487556,0.000621109,0.004346643,-0.002847513,0.000156518,-9.9999e-05,-5.4114e-05,4.114e-06
127.0,-0.004487556,0.000621109,0.004346643,-0.002847513,0.000156518,-9.9999e-05,-5.4114e-05,4.114e-06
128.0,-0.004487556,0.000621109,0.004346643,-0.002847513,0.000156518,-9.9999e-05,-4.114e-06,-4.5885e-05
129.0,-0.004487556,0.000621109,0.004346643,-0.002847513,0.000156518,-9.9999e-05,-5.4114e-05,4.114e-06
130.0,-0.004487556,0.000621109,0.004346643,-0.002847513,0.000156518,-9.9999e-05,-5.4114e-05,4.114e-06
131.0,-0.004487556,0.000621109,0.004346643,-0.002847513,0.000156518,-9.9999e-05,-5.4114e-05,4.114e-06
132.0,-0.004487556,0.000621109,0.004346643,-0.002847513,0.000156518,-9.9999e-05,-5.4114e-05,4.114e-06
133.0,-0.004487556,0.000621109,0.004346643,-0.002847513,0.000156518,-9.9999e-05,-5.4114e-05,4.114e-06
134.0,-0.004487556,0.000621109,0.004346643,-0.002847513,0.000156518,-9.9999e-05,-5.4114e-05,4.114e-06
135.0,-0.004487556,0.000621109,0.004346643,-0.002847513,0.000156518,-9.9999e-05,-5.4114e-05,4.114e-06
136.0,-0.004487556,0.000621109,0.004346643,-0.002847513,0.000156518,-9.9999e-05,-5.4114e-05,4.114e-06
137.0,-0.004487556,0.000621109,0.004346643,-0.002847513,0.000156518,-9.9999e-05,-5.4114e-05,4.114e-06
138.0,-0.004487556,0.000621109,0.004346643,-0.002847513,0.000156518,-9.9999e-05,-4.114e-06,-4.5885e-05
139.0,-0.004487556,0.000621109,0.004296643,-0.002797513,0.000156518,-9.9999e-05,-4.114e-06,-4.5885e-05
140.0,-0.004487556,0.000621109,0.004296643,-0.002847275,0.000206281,-9.9999e-05,-4.114e-06,-4.5885e-05
141.0,-0.004487556,0.000621109,0.004296643,-0.002847275,0.000206281,-9.9999e-05,-4.114e-06,-4.5885e-05
142.0,-0.004487556,0.000621109,0.004346643,-0.002847275,0.000156281,-9.9999e-05,-4.114e-06,-4.5885e-05
143.0,-0.004487556,0.000621109,0.004346643,-0.002847275,0.000156281,-9.9999e-05,-4.114e-06,-4.5885e-05
144.0,-0.004487556,0.000621109,0.004346643,-0.002847275,0.000156281,-9.9999e-05,-4.114e-06,-4.5885e-05
145.0,-0.004487556,0.000621109,0.004346643,-0.002847275,0.000156281,-9.9999e-05,-4.114e-06,-4.5885e-05
146.0,-0.004487556,0.000621109,0.004346643,-0.002847275,0.000156281,-9.9999e-05,-5.4114e-05,4.114e-06
147.0,-0.004487556,0.000621109,0.004346643,-0.002847275,0.000156281,-9.9999e-05,-5.4114e-05,4.114e-06
148.0,-0.004487556,0.000621109,0.004346643,-0.002847275,0.000156281,-9.9999e-05,-5.4114e-05,4.114e-06
149.0,-0.004487556,0.000621109,0.004346643,-0.002847275,0.000156281,-9.9999e-05,-5.4114e-05,4.114e-06
150.0,-0.004487556,0.000621109,0.004346643,-0.002847275,0.000156281,-9.9999e-05,-5.4114e-05,4.114e-06
151.0,-0.004487556,0.000621109,0.004346643,-0.002847275,0.000156281,-9.9999e-05,-5.4114e-05,4.114e-06
152.0,-0.004487556,0.000621109,0.004346643,-0.002847275,0.000156281,-9.9999e-05,-4.114e-06,-4.5885e-05
153.0,-0.004487556,0.000621109,0.004346643,-0.002847275,0.000156281,-9.9999e-05,-5.4114e-05,4.114e-06
154.0,-0.004487556,0.000621109,0.004346643,-0.002847275,0.000156281,-9.9999e-05,-5.4114e-05,4.114e-06
155.0,-0.004487556,0.000621109,0.004346643,-0.002847275,0.000156281,-9.9999e-05,-5.4114e-05,4.114e-06
156.0,-0.004487556,0.000621109,0.004346643,-0.002847275,0.000156281,-9.9999e-05,-4.114e-06,-4.5885e-05
157.0,-0.004487556,0.000621109,0.004346643,-0.002847275,0.000156281,-9.9999e-05,-5.4114e-05,4.114e-06
158.0,-0.004487556,0.000621109,0.004346643,-0.002847275,0.000156281,-9.9999e-05,-5.4114e-05,4.114e-06
159.0,-0.004487556,0.000621109,0.004346643,-0.002847275,0.000156281,-9.9999e-05,-5.4114e-05,4.114e-06
160.0,-0.004487556,0.000621109,0.004346643,-0.002847275,0.000156281,-9.9999e-05,-4.114e-06,-4.5885e-05
161.0,-0.004487556,0.000621109,0.004346643,-0.002847275,0.000156281,-9.9999e-05,-4.114e-06,-4.5885e-05
162.0,-0.004487556,0.000621109,0.004346643,-0.002847275,0.000156281,-9.9999e-05,-4.114e-06,-4.5885e-05
163.0,-0.004487556,0.000621109,0.004346643,-0.002847275,0.000156281,-9.9999e-05,-4.114e-06,-4.5885e-05
164.0,-0.004487556,0.000621109,0.004346643,-0.002847275,0.000156281,-9.9999e-05,-4.114e-06,-4.5885e-05
165.0,-0.004537359,0.000621109,0.004346643,-0.002847275,0.000156281,-5.0196e-05,-4.114e-06,-4.5885e-05
166.0,-0.004537359,0.000621109,0.004346643,-0.002847275,0.000156281,-5.0196e-05,-4.114e-06,-4.5885e-05
167.0,-0.004537359,0.000621109,0.004346643,-0.002847275,0.000156281,-0.000100196,4.5885e-05,-4.5885e-05
168.0,-0.004537359,0.000621109,0.004346643,-0.002847275,0.000156281,-0.000100196,4.5885e-05,-4.5885e-05
169.0,-0.004537359,0.000621109,0.004346643,-0.002847275,0.000156281,-0.000100196,-4.114e-06,4.114e-06
170.0,-0.004537359,0.000621109,0.004346643,-0.002847275,0.000156281,-5.0196e-05,-4.114e-06,-4.5885e-05
171.0,-0.004537359,0.000621109,0.004346643,-0.002847275,0.000156281,-0.000100196,4.5885e-05,-4.5885e-05
172.0,-0.004537359,0.000621109,0.004346643,-0.002847275,0.000156281,-5.0196e-05,-4.114e-06,-4.5885e-05
173.0,-0.004537359,0.000621109,0.004346643,-0.002847275,0.000156281,-5.0196e-05,-4.114e-06,-4.5885e-05
174.0,-0.004537359,0.000621109,0.004346643,-0.002847275,0.000156281,-5.0196e-05,-4.114e-06,-4.5885e-05
175.0,-0.004537359,0.000621109,0.004346643,-0.002847275,0.000156281,-5.0196e-05,-4.114e-06,-4.5885e-05
176.0,-0.004537359,0.000621109,0.004346643,-0.002847275,0.000156281,-5.0196e-05,-5.4114e-05,4.114e-06
177.0,-0.004537359,0.000621109,0.004346643,-0.002847275,0.000156281,-5.0196e-05,-4.114e-06,-4.5885e-05
178.0,-0.004537359,0.000621109,0.004346643,-0.002847275,0.000156281,-5.0196e-05,-4.114e-06,-4.5885e-05
179.0,-0.004537359,0.000621109,0.004346643,-0.002847275,0.000156281,-0.000100196,4.5885e-05,-4.5885e-05
180.0,-0.004537359,0.000621109,0.004346643,-0.002847275,0.000156281,-0.000100196,4.5885e-05,-4.5885e-05
181.0,-0.004537359,0.000621109,0.004346643,-0.002847275,0.000156281,-0.000100196,-4.114e-06,4.114e-06
182.0,-0.004537359,0.000621109,0.004346643,-0.002847275,0.000156281,-0.000100196,-4.114e-06,4.114e-06
183.0,-0.004537359,0.000621109,0.004346643,-0.002847275,0.000156281,-0.000100196,-4.114e-06,4.114e-06
184.0,-0.004537359,0.000621109,0.004346643,-0.002847275,0.000156281,-0.000100196,4.5885e-05,-4.5885e-05
185.0,-0.004537359,0.000621109,0.004346643,-0.002847275,0.000156281,-0.000100196,4.5885e-05,-4.5885e-05
186.0,-0.004537359,0.000621109,0.004346643,-0.002847275,0.000156281,-0.000100196,4.5885e-05,-4.5885e-05
187.0,-0.004537359,0.000621109,0.004346643,-0.002847275,0.000156281,-0.000100196,4.5885e-05,-4.5885e-05
188.0,-0.004537359,0.000621109,0.004346643,-0.002847275,0.000156281,-0.000100196,4.5885e-05,-4.5885e-05
189.0,-0.004537359,0.000621109,0.004346643,-0.002797275,0.000106281,-0.000100196,4.5885e-05,-4.5885e-05
190.0,-0.004537359,0.000621109,0.004346643,-0.002797275,0.000106281,-0.000100196,4.5885e-05,-4.5885e-05
191.0,-0.004537359,0.000621109,0.004346643,-0.002797275,0.000106281,-0.000100196,4.5885e-05,-4.5885e-05
192.0,-0.004537359,0.000621109,0.004346643,-0.002797275,0.000106281,-0.000100196,-4.114e-06,4.114e-06
193.0,-0.004537359,0.000621109,0.004346643,-0.002797275,0.000106281,-0.000100196,4.5885e-05,-4.5885e-05
194.0,-0.004537359,0.000671109,0.004346643,-0.002797275,0.000106281,-0.000100196,-4.114e-06,-4.5885e-05
195.0,-0.004537359,0.000671109,0.004346643,-0.002797275,0.000106281,-0.000100196,-4.114e-06,-4.5885e-05
196.0,-0.004537359,0.000671109,0.004346643,-0.002797275,0.000106281,-0.000100196,-4.114e-06,-4.5885e-05
197.0,-0.004487359,0.000671109,0.004346643,-0.002797275,0.000106281,-0.000100196,-4.114e-06,-9.5885e-05
198.0,-0.004487359,0.000671109,0.004346643,-0.002797275,0.000106281,-0.000100196,-4.114e-06,-9.5885e-05
199.0,-0.004487359,0.000671109,0.004346643,-0.002797275,0.000106281,-0.000100196,-4.114e-06,-9.5885e-05
200.0,-0.004487359,0.000671109,0.004346643,-0.002847275,0.000106281,-0.000100196,-4.114e-06,-4.5885e-05
201.0,-0.004487359,0.000621109,0.004346643,-0.002847275,0.000156281,-0.000100196,-4.114e-06,-4.5885e-05
202.0,-0.004487359,0.000621109,0.004346643,-0.002847275,0.000156281,-0.000100196,4.5885e-05,-9.5885e-05
203.0,-0.004487359,0.000621109,0.004346643,-0.002847275,0.000156281,-0.000100196,4.5885e-05,-9.5885e-05
204.0,-0.004487359,0.000621109,0.004346643,-0.002847275,0.000156281,-0.000100196,4.5885e-05,-9.5885e-05
205.0,-0.004487359,0.000621109,0.004346643,-0.002847275,0.000156281,-5.0196e-05,-4.114e-06,-9.5885e-05
206.0,-0.004487359,0.000621109,0.004346643,-0.002847275,0.000156281,-5.0196e-05,-4.114e-06,-9.5885e-05
207.0,-0.004487359,0.000621109,0.004346643,-0.002847275,0.000156281,-5.0196e-05,-4.114e-06,-9.5885e-05
208.0,-0.004487359,0.000671109,0.004346643,-0.002847275,0.000156281,-0.000100196,-4.114e-06,-9.5885e-05
209.0,-0.004487359,0.000671109,0.004346643,-0.002847275,0.000156281,-0.000100196,-4.114e-06,-9.5885e-05
210.0,-0.004487359,0.000621109,0.004346643,-0.002847275,0.000156281,-0.000100196,-4.114e-06,-4.5885e-05
211.0,-0.004487359,0.000621109,0.004346643,-0.002847275,0.000156281,-0.000100196,-4.114e-06,-4.5885e-05
212.0,-0.004487359,0.000621109,0.004346643,-0.002847275,0.000156281,-5.0196e-05,-4.114e-06,-9.5885e-05
213.0,-0.004487359,0.000621109,0.004346643,-0.002847275,0.000156281,-5.0196e-05,-4.114e-06,-9.5885e-05
214.0,-0.004487359,0.000621109,0.004346643,-0.002847275,0.000156281,-5.0196e-05,-4.114e-06,-9.5885e-05
215.0,-0.004487359,0.000621109,0.004346643,-0.002847275,0.000156281,-5.0196e-05,-4.114e-06,-9.5885e-05
216.0,-0.004487359,0.000621109,0.004346643,-0.002847275,0.000156281,-5.0196e-05,-4.114e-06,-9.5885e-05
217.0,-0.004487359,0.000621109,0.004346643,-0.002847275,0.000156281,-5.0196e-05,-4.114e-06,-9.5885e-05
218.0,-0.004487359,0.000621109,0.004346643,-0.002847275,0.000156281,-5.0196e-05,-4.114e-06,-9.5885e-05
219.0,-0.004487359,0.000621109,0.004346643,-0.002847275,0.000156281,-5.0196e-05,-4.114e-06,-9.5885e-05
220.0,-0.004487359,0.000621109,0.004346643,-0.002847275,0.000156281,-5.0196e-05,-4.114e-06,-9.5885e-05
221.0,-0.004487359,0.000621109,0.004346643,-0.002847275,0.000156281,-5.0196e-05,-4.114e-06,-9.5885e-05
222.0,-0.004487359,0.000621109,0.004346643,-0.002847275,0.000156281,-0.000100196,4.5885e-05,-9.5885e-05
223.0,-0.004487359,0.000621109,0.004346643,-0.002847275,0.000156281,-0.000100196,4.5885e-05,-9.5885e-05
224.0,-0.004487359,0.000621109,0.004346643,-0.002847275,0.000156281,-0.000100196,-4.114e-06,-4.5885e-05
225.0,-0.004487359,0.000671109,0.004346643,-0.002847275,0.000156281,-0.000100196,-5.4114e-05,-4.5885e-05
226.0,-0.004487359,0.000671109,0.004346643,-0.002847275,0.000156281,-0.000100196,-5.4114e-05,-4.5885e-05
227.0,-0.004487359,0.000621109,0.004346643,-0.002797275,0.000156281,-0.000100196,-5.4114e-05,-4.5885e-05
228.0,-0.004487359,0.000571109,0.004346643,-0.002797275,0.000156281,-0.000100196,-4.114e-06,-4.5885e-05
229.0,-0.004487359,0.000571109,0.004346643,-0.002797275,0.000156281,-0.000100196,-4.114e-06,-4.5885e-05
230.0,-0.004487359,0.000571109,0.004346643,-0.002847275,0.000206281,-0.000100196,-4.114e-06,-4.5885e-05
231.0,-0.004487359,0.000571109,0.004346643,-0.002847275,0.000206281,-0.000100196,-4.114e-06,-4.5885e-05
232.0,-0.004487359,0.000571109,0.004346643,-0.002847275,0.000206281,-0.000100196,-4.114e-06,-4.5885e-05
233.0,-0.004487359,0.000571109,0.004346643,-0.002847275,0.000206281,-0.000100196,-4.114e-06,-4.5885e-05
234.0,-0.004487359,0.000571109,0.004346643,-0.002847275,0.000206281,-0.000100196,-4.114e-06,-4.5885e-05
235.0,-0.004487359,0.000571109,0.004346643,-0.002797275,0.000156281,-0.000100196,-4.114e-06,-4.5885e-05
236.0,-0.004487359,0.000571109,0.004346643,-0.002797275,0.000156281,-0.000100196,-4.114e-06,-4.5885e-05
237.0,-0.004487359,0.000571109,0.004346643,-0.002797275,0.000156281,-0.000100196,-4.114e-06,-4.5885e-05
238.0,-0.004487359,0.000571109,0.004346643,-0.002797275,0.000156281,-0.000100196,-4.114e-06,-4.5885e-05
239.0,-0.004487359,0.000571109,0.004346643,-0.002797275,0.000156281,-0.000100196,-4.114e-06,-4.5885e-05
240.0,-0.004487359,0.000571109,0.004346643,-0.002797275,0.000156281,-0.000100196,-4.114e-06,-4.5885e-05
241.0,-0.004487359,0.000571109,0.004346643,-0.002847275,0.000206281,-0.000100196,-4.114e-06,-4.5885e-05
242.0,-0.004487359,0.000571109,0.004346643,-0.002847275,0.000206281,-0.000100196,-4.114e-06,-4.5885e-05
243.0,-0.004487359,0.000571109,0.004346643,-0.002847275,0.000206281,-0.000100196,-4.114e-06,-4.5885e-05
244.0,-0.004487359,0.000571109,0.004346643,-0.002847275,0.000206281,-0.000100196,-4.114e-06,-4.5885e-05
245.0,-0.004487359,0.000571109,0.004346643,-0.002847275,0.000206281,-0.000100196,-4.114e-06,-4.5885e-05
246.0,-0.004487359,0.000571109,0.004346643,-0.002847275,0.000206281,-0.000100196,-4.114e-06,-4.5885e-05
247.0,-0.004487359,0.000571109,0.004346643,-0.002847275,0.000206281,-0.000100196,-4.114e-06,-4.5885e-05
248.0,-0.004487359,0.000571109,0.004346643,-0.002847275,0.000206281,-0.000100196,-4.114e-06,-4.5885e-05
249.0,-0.004487359,0.000571109,0.004346643,-0.002847275,0.000206281,-0.000100196,-4.114e-06,-4.5885e-05
250.0,-0.004487359,0.000571109,0.004346643,-0.002847275,0.000206281,-0.000100196,-4.114e-06,-4.5885e-05
251.0,-0.004487359,0.000571109,0.004346643,-0.002847275,0.000206281,-0.000100196,-4.114e-06,-4.5885e-05
252.0,-0.004487359,0.000571109,0.004346643,-0.002847275,0.000206281,-0.000100196,-4.114e-06,-4.5885e-05
253.0,-0.004487359,0.000571109,0.004346643,-0.002847275,0.000206281,-0.000100196,-4.114e-06,-4.5885e-05
254.0,-0.004487359,0.000571109,0.004346643,-0.002847275,0.000206281,-0.000100196,-4.114e-06,-4.5885e-05
255.0,-0.004487359,0.000621109,0.004346643,-0.002847275,0.000206281,-0.000100196,-5.4114e-05,-4.5885e-05
256.0,-0.004487359,0.000621109,0.004346643,-0.002847275,0.000206281,-0.000100196,-5.4114e-05,-4.5885e-05
257.0,-0.004487359,0.000621109,0.004346643,-0.002847275,0.000206281,-0.000100196,-5.4114e-05,-4.5885e-05
258.0,-0.004487359,0.000621109,0.004346643,-0.002847275,0.000206281,-0.000100196,-5.4114e-05,-4.5885e-05
259.0,-0.004487359,0.000621109,0.004346643,-0.002847275,0.000206281,-0.000100196,-4.114e-06,-9.5885e-05
260.0,-0.004487359,0.000621109,0.004346643,-0.002847275,0.000206281,-0.000100196,-5.4114e-05,-4.5885e-05
261.0,-0.004487359,0.000621109,0.004346643,-0.002797275,0.000156281,-0.000100196,-5.4114e-05,-4.5885e-05
262.0,-0.004487359,0.000621109,0.004346643,-0.002797275,0.000156281,-0.000100196,-4.114e-06,-9.5885e-05
263.0,-0.004487359,0.000621109,0.004346643,-0.002797275,0.000156281,-0.000100196,-4.114e-06,-9.5885e-05
264.0,-0.004487359,0.000621109,0.004346643,-0.002797275,0.000156281,-0.000100196,-4.114e-06,-9.5885e-05
265.0,-0.004487359,0.000621109,0.004346643,-0.002797275,0.000156281,-0.000100196,-4.114e-06,-9.5885e-05
266.0,-0.004487359,0.000621109,0.004346643,-0.002797275,0.000156281,-0.000100196,-4.114e-06,-9.5885e-05
267.0,-0.004487359,0.000621109,0.004346643,-0.002797275,0.000156281,-0.000100196,-5.4114e-05,-4.5885e-05
268.0,-0.004487359,0.000621109,0.004346643,-0.002797275,0.000156281,-0.000100196,-4.114e-06,-9.5885e-05
269.0,-0.004487359,0.000621109,0.004346643,-0.002797275,0.000156281,-0.000100196,-4.114e-06,-9.5885e-05
270.0,-0.004487359,0.000621109,0.004346643,-0.002797275,0.000156281,-0.000100196,-4.114e-06,-9.5885e-05
271.0,-0.004487359,0.000571109,0.004346643,-0.002797275,0.000156281,-0.000100196,4.5885e-05,-9.5885e-05
272.0,-0.004487359,0.000571109,0.004346643,-0.002797275,0.000156281,-0.000100196,4.5885e-05,-9.5885e-05
273.0,-0.004487359,0.000571109,0.004346643,-0.002797275,0.000156281,-0.000100196,4.5885e-05,-9.5885e-05
274.0,-0.004487359,0.000571109,0.004346643,-0.002797275,0.000156281,-0.000100196,4.5885e-05,-9.5885e-05
275.0,-0.004487359,0.000571109,0.004346643,-0.002797275,0.000156281,-0.000100196,4.5885e-05,-9.5885e-05
276.0,-0.004487359,0.000571109,0.004346643,-0.002797275,0.000156281,-5.0196e-05,-4.114e-06,-9.5885e-05
277.0,-0.004487359,0.000571109,0.004346643,-0.002797275,0.000156281,-5.0196e-05,-4.114e-06,-9.5885e-05
278.0,-0.004487359,0.000571109,0.004346643,-0.002797275,0.000156281,-0.000100196,-4.114e-06,-4.5885e-05
279.0,-0.004487359,0.000571109,0.004346643,-0.002797275,0.000156281,-0.000100196,-4.114e-06,-4.5885e-05
280.0,-0.004487359,0.000571109,0.004346643,-0.002797275,0.000156281,-0.000100196,-4.114e-06,-4.5885e-05
281.0,-0.004487359,0.000571109,0.004346643,-0.002797275,0.000156281,-0.000100196,-4.114e-06,-4.5885e-05
282.0,-0.004487359,0.000571109,0.004346643,-0.002797275,0.000156281,-0.000100196,-4.114e-06,-4.5885e-05
283.0,-0.004487359,0.000571109,0.004346643,-0.002797275,0.000156281,-0.000100196,-4.114e-06,-4.5885e-05
284.0,-0.004487359,0.000571109,0.004346643,-0.002797275,0.000156281,-0.000100196,-4.114e-06,-4.5885e-05
285.0,-0.004487359,0.000571109,0.004346643,-0.002797275,0.000156281,-0.000100196,-4.114e-06,-4.5885e-05
286.0,-0.004487359,0.000571109,0.004346643,-0.002797275,0.000156281,-0.000100196,-4.114e-06,-4.5885e-05
287.0,-0.004487359,0.000571109,0.004346643,-0.002797275,0.000156281,-0.000100196,-4.114e-06,-4.5885e-05
288.0,-0.004487359,0.000571109,0.004346643,-0.002797275,0.000156281,-0.000100196,-5.4114e-05,4.114e-06
289.0,-0.004487359,0.000571109,0.004346643,-0.002847275,0.000206281,-0.000100196,-5.4114e-05,4.114e-06
290.0,-0.004487359,0.000571109,0.004346643,-0.002847275,0.000206281,-0.000100196,-5.4114e-05,4.114e-06
291.0,-0.004487359,0.000571109,0.004346643,-0.002847275,0.000206281,-0.000100196,-5.4114e-05,4.114e-06
292.0,-0.004487359,0.000571109,0.004346643,-0.002847275,0.000206281,-0.000100196,-5.4114e-05,4.114e-06
293.0,-0.004487359,0.000571109,0.004346643,-0.002847275,0.000206281,-0.000100196,-4.114e-06,-4.5885e-05
294.0,-0.004487359,0.000571109,0.004346643,-0.002797275,0.000156281,-0.000100196,-4.114e-06,-4.5885e-05
295.0,-0.004487359,0.000571109,0.004346643,-0.002797275,0.000156281,-0.000100196,-4.114e-06,-4.5885e-05
296.0,-0.004487359,0.000571109,0.004346643,-0.002797275,0.000156281,-0.000100196,-4.114e-06,-4.5885e-05
297.0,-0.004487359,0.000571109,0.004346643,-0.002797275,0.000156281,-0.000100196,-4.114e-06,-4.5885e-05
298.0,-0.004487359,0.000571109,0.004346643,-0.002797275,0.000156281,-0.000100196,-4.114e-06,-4.5885e-05
299.0,-0.004487359,0.000571109,0.004346643,-0.002797275,0.000156281,-0.000100196,-4.114e-06,-4.5885e-05
300.0,-0.004487359,0.000571109,0.004346643,-0.002797275,0.000156281,-0.000100196,-4.114e-06,-4.5885e-05
301.0,-0.004487359,0.000571109,0.004346643,-0.002797275,0.000156281,-0.000100196,4.5885e-05,-9.5885e-05
302.0,-0.004487359,0.000571109,0.004346643,-0.002797275,0.000156281,-0.000100196,4.5885e-05,-9.5885e-05
303.0,-0.004487359,0.000571109,0.004346643,-0.002797275,0.000156281,-0.000100196,4.5885e-05,-9.5885e-05
304.0,-0.004487359,0.000571109,0.004346643,-0.002797275,0.000156281,-0.000100196,4.5885e-05,-9.5885e-05
305.0,-0.004487359,0.000571109,0.004346643,-0.002797275,0.000156281,-0.000100196,4.5885e-05,-9.5885e-05
306.0,-0.004487359,0.000571109,0.004396643,-0.002797275,0.000156281,-0.000150196,4.5885e-05,-9.5885e-05
307.0,-0.004487359,0.000571109,0.004396643,-0.002797275,0.000156281,-0.000150196,4.5885e-05,-9.5885e-05
308.0,-0.004487359,0.000571109,0.004396643,-0.002797275,0.000156281,-0.000150196,4.5885e-05,-9.5885e-05
309.0,-0.004487359,0.000571109,0.004396643,-0.002797275,0.000156281,-0.000150196,4.5885e-05,-9.5885e-05
310.0,-0.004487359,0.000571109,0.004346643,-0.002797275,0.000156281,-0.000100196,4.5885e-05,-9.5885e-05
311.0,-0.004487359,0.000571109,0.004346643,-0.002797275,0.000156281,-0.000100196,4.5885e-05,-9.5885e-05
312.0,-0.004487359,0.000571109,0.004346643,-0.002797275,0.000156281,-0.000100196,4.5885e-05,-9.5885e-05
313.0,-0.004487359,0.000571109,0.004346643,-0.002797275,0.000156281,-0.000100196,4.5885e-05,-9.5885e-05
314.0,-0.004487359,0.000571109,0.004346643,-0.002797275,0.000156281,-0.000100196,4.5885e-05,-9.5885e-05
315.0,-0.004487359,0.000571109,0.004346643,-0.002797275,0.000156281,-0.000100196,4.5885e-05,-9.5885e-05
316.0,-0.004487359,0.000571109,0.004346643,-0.002797275,0.000156281,-0.000100196,4.5885e-05,-9.5885e-05
317.0,-0.004487359,0.000571109,0.004346643,-0.002797275,0.000156281,-0.000100196,-4.114e-06,-4.5885e-05
318.0,-0.004487359,0.000571109,0.004346643,-0.002847275,0.000206281,-0.000100196,-4.114e-06,-4.5885e-05
319.0,-0.004487359,0.000571109,0.004346643,-0.002797275,0.000156281,-0.000100196,-4.114e-06,-4.5885e-05
320.0,-0.004487359,0.000571109,0.004346643,-0.002797275,0.000156281,-0.000100196,4.5885e-05,-9.5885e-05
321.0,-0.004487359,0.000571109,0.004346643,-0.002797275,0.000156281,-0.000100196,-4.114e-06,-4.5885e-05
322.0,-0.004487359,0.000571109,0.004346643,-0.002797275,0.000156281,-0.000100196,-4.114e-06,-4.5885e-05
323.0,-0.004487359,0.000571109,0.004346643,-0.002797275,0.000156281,-0.000150196,4.5885e-05,-4.5885e-05
324.0,-0.004487359,0.000571109,0.004346643,-0.002797275,0.000156281,-0.000150196,9.5885e-05,-9.5885e-05
325.0,-0.004487359,0.000621109,0.004346643,-0.002797275,0.000156281,-0.000150196,4.5885e-05,-9.5885e-05
326.0,-0.004487359,0.000621109,0.004346643,-0.002797275,0.000156281,-0.000150196,4.5885e-05,-9.5885e-05
327.0,-0.004487359,0.000621109,0.004346643,-0.002797275,0.000156281,-0.000150196,4.5885e-05,-9.5885e-05
328.0,-0.004487359,0.000621109,0.004346643,-0.002797275,0.000156281,-0.000150196,-4.114e-06,-4.5885e-05
329.0,-0.004487359,0.000621109,0.004346643,-0.002797275,0.000156281,-0.000150196,-4.114e-06,-4.5885e-05
330.0,-0.004487359,0.000621109,0.004346643,-0.002797275,0.000156281,-0.000100196,-4.114e-06,-9.5885e-05
331.0,-0.004487359,0.000621109,0.004346643,-0.002797275,0.000156281,-0.000100196,-4.114e-06,-9.5885e-05
332.0,-0.004487359,0.000621109,0.004346643,-0.002797275,0.000156281,-0.000100196,-4.114e-06,-9.5885e-05
333.0,-0.004487359,0.000621109,0.004346643,-0.002797275,0.000156281,-0.000150196,4.5885e-05,-9.5885e-05
334.0,-0.004487359,0.000621109,0.004346643,-0.002797275,0.000156281,-0.000150196,4.5885e-05,-9.5885e-05
335.0,-0.004487359,0.000621109,0.004346643,-0.002797275,0.000156281,-0.000150196,4.5885e-05,-9.5885e-05
336.0,-0.004487359,0.000621109,0.004346643,-0.002797275,0.000156281,-0.000150196,4.5885e-05,-9.5885e-05
337.0,-0.004487359,0.000621109,0.004346643,-0.002797275,0.000156281,-0.000150196,-4.114e-06,-4.5885e-05
338.0,-0.004487359,0.000621109,0.004346643,-0.002797275,0.000156281,-0.000150196,-4.114e-06,-4.5885e-05
339.0,-0.004487359,0.000621109,0.004346643,-0.002797275,0.000156281,-0.000150196,-4.114e-06,-4.5885e-05
340.0,-0.004487359,0.000621109,0.004346643,-0.002797275,0.000156281,-0.000150196,-4.114e-06,-4.5885e-05
341.0,-0.004487359,0.000621109,0.004346643,-0.002797275,0.000156281,-0.000150196,-4.114e-06,-4.5885e-05
342.0,-0.004487359,0.000621109,0.004346643,-0.002797275,0.000156281,-0.000150196,-4.114e-06,-4.5885e-05
343.0,-0.004487359,0.000571109,0.004346643,-0.002797275,0.000156281,-0.000150196,4.5885e-05,-4.5885e-05
344.0,-0.004487359,0.000571109,0.004346643,-0.002847275,0.000206281,-0.000150196,4.5885e-05,-4.5885e-05
345.0,-0.004487359,0.000571109,0.004346643,-0.002847275,0.000206281,-0.000150196,4.5885e-05,-4.5885e-05
346.0,-0.004487359,0.000571109,0.004346643,-0.002847275,0.000206281,-0.000150196,4.5885e-05,-4.5885e-05
347.0,-0.004487359,0.000571109,0.004346643,-0.002847275,0.000206281,-0.000150196,4.5885e-05,-4.5885e-05
348.0,-0.004487359,0.000571109,0.004346643,-0.002847275,0.000206281,-0.000150196,4.5885e-05,-4.5885e-05
349.0,-0.004487359,0.000571109,0.004346643,-0.002847275,0.000206281,-0.000150196,-4.114e-06,4.114e-06
350.0,-0.004487359,0.000571109,0.004346643,-0.002797275,0.000156281,-0.000150196,-4.114e-06,4.114e-06
351.0,-0.004487359,0.000571109,0.004396643,-0.002797275,0.000156281,-0.000150196,-4.114e-06,-4.5885e-05
352.0,-0.004487359,0.000571109,0.004346643,-0.002797275,0.000156281,-0.000100196,-4.114e-06,-4.5885e-05
353.0,-0.004487359,0.000571109,0.004346643,-0.002797275,0.000156281,-0.000100196,-4.114e-06,-4.5885e-05
354.0,-0.004487359,0.000621109,0.004346643,-0.002797275,0.000156281,-0.000150196,-4.114e-06,-4.5885e-05
355.0,-0.004487359,0.000621109,0.004346643,-0.002797275,0.000156281,-0.000150196,-4.114e-06,-4.5885e-05
356.0,-0.004487359,0.000621109,0.004346643,-0.002797275,0.000156281,-0.000150196,-4.114e-06,-4.5885e-05
357.0,-0.004487359,0.000621109,0.004346643,-0.002797275,0.000156281,-0.000150196,-4.114e-06,-4.5885e-05
358.0,-0.004487359,0.000621109,0.004346643,-0.002797275,0.000156281,-0.000150196,-4.114e-06,-4.5885e-05
359.0,-0.004487359,0.000621109,0.004346643,-0.002797275,0.000156281,-0.000150196,-4.114e-06,-4.5885e-05
360.0,-0.004487359,0.000621109,0.004346643,-0.002797275,0.000156281,-0.000150196,-4.114e-06,-4.5885e-05
361.0,-0.004487359,0.000621109,0.004346643,-0.002797275,0.000156281,-0.000150196,-4.114e-06,-4.5885e-05
362.0,-0.004487359,0.000621109,0.004346643,-0.002797275,0.000156281,-0.000150196,4.5885e-05,-9.5885e-05
363.0,-0.004487359,0.000621109,0.004346643,-0.002797275,0.000156281,-0.000150196,-4.114e-06,-4.5885e-05
364.0,-0.004487359,0.000621109,0.004346643,-0.002797275,0.000156281,-0.000150196,-4.114e-06,-4.5885e-05
365.0,-0.004487359,0.000621109,0.004346643,-0.002797275,0.000156281,-0.000150196,-4.114e-06,-4.5885e-05
366.0,-0.004487359,0.000621109,0.004346643,-0.002797275,0.000156281,-0.000150196,4.5885e-05,-9.5885e-05
367.0,-0.004487359,0.000621109,0.004346643,-0.002797275,0.000156281,-0.000150196,-4.114e-06,-4.5885e-05
368.0,-0.004487359,0.000571109,0.004346643,-0.002797275,0.000156281,-0.000150196,4.5885e-05,-4.5885e-05
369.0,-0.004487359,0.000571109,0.004346643,-0.002797275,0.000156281,-0.000150196,4.5885e-05,-4.5885e-05
370.0,-0.004487359,0.000571109,0.004346643,-0.002847275,0.000206281,-0.000150196,4.5885e-05,-4.5885e-05
371.0,-0.004487359,0.000571109,0.004346643,-0.002847275,0.000206281,-0.000150196,4.5885e-05,-4.5885e-05
372.0,-0.004487359,0.000571109,0.004346643,-0.002847275,0.000206281,-0.000150196,4.5885e-05,-4.5885e-05
373.0,-0.004487359,0.000571109,0.004346643,-0.002847275,0.000206281,-0.000150196,4.5885e-05,-4.5885e-05
374.0,-0.004487359,0.000521109,0.004346643,-0.002797275,0.000206281,-0.000150196,4.5885e-05,-4.5885e-05
375.0,-0.004487359,0.000521109,0.004346643,-0.002797275,0.000206281,-0.000150196,4.5885e-05,-4.5885e-05
376.0,-0.004487359,0.000571109,0.004346643,-0.002797275,0.000206281,-0.000150196,4.5885e-05,-9.5885e-05
377.0,-0.004487359,0.000571109,0.004346643,-0.002797275,0.000206281,-0.000150196,4.5885e-05,-9.5885e-05
378.0,-0.004487359,0.000571109,0.004346643,-0.002797275,0.000206281,-0.000150196,4.5885e-05,-9.5885e-05
379.0,-0.004487359,0.000571109,0.004346643,-0.002797275,0.000206281,-0.000150196,4.5885e-05,-9.5885e-05
380.0,-0.004487359,0.000571109,0.004346643,-0.002797275,0.000206281,-0.000150196,4.5885e-05,-9.5885e-05
381.0,-0.004487359,0.000571109,0.004346643,-0.002797275,0.000206281,-0.000150196,4.5885e-05,-9.5885e-05
382.0,-0.004487359,0.000571109,0.004346643,-0.002797275,0.000206281,-0.000150196,4.5885e-05,-9.5885e-05
383.0,-0.004487359,0.000571109,0.004396643,-0.002797275,0.000156281,-0.000150196,4.5885e-05,-9.5885e-05
384.0,-0.004487359,0.000571109,0.004396643,-0.002797275,0.000156281,-0.000150196,4.5885e-05,-9.5885e-05
385.0,-0.004487359,0.000571109,0.004396643,-0.002797275,0.000156281,-0.000150196,4.5885e-05,-9.5885e-05
386.0,-0.004487359,0.000571109,0.004396643,-0.002797275,0.000156281,-0.000200196,4.5885e-05,-4.5885e-05
387.0,-0.004487359,0.000571109,0.004396643,-0.002797275,0.000156281,-0.000200196,4.5885e-05,-4.5885e-05
388.0,-0.004487359,0.000571109,0.004396643,-0.002797275,0.000156281,-0.000200196,4.5885e-05,-4.5885e-05
389.0,-0.004487359,0.000571109,0.004396643,-0.002797275,0.000156281,-0.000200196,4.5885e-05,-4.5885e-05
390.0,-0.004487359,0.000571109,0.004396643,-0.002797275,0.000156281,-0.000200196,4.5885e-05,-4.5885e-05
391.0,-0.004487359,0.000571109,0.004396643,-0.002797275,0.000156281,-0.000150196,4.5885e-05,-9.5885e-05
392.0,-0.004487359,0.000571109,0.004396643,-0.002797275,0.000156281,-0.000150196,4.5885e-05,-9.5885e-05
393.0,-0.004487359,0.000571109,0.004396643,-0.002847275,0.000206281,-0.000150196,4.5885e-05,-9.5885e-05
394.0,-0.004487359,0.000571109,0.004396643,-0.002847275,0.000206281,-0.000150196,4.5885e-05,-9.5885e-05
395.0,-0.004487359,0.000571109,0.004396643,-0.002847275,0.000206281,-0.000150196,4.5885e-05,-9.5885e-05
396.0,-0.004487359,0.000571109,0.004396643,-0.002847275,0.000206281,-0.000150196,4.5885e-05,-9.5885e-05
397.0,-0.004487359,0.000571109,0.004396643,-0.002847275,0.000206281,-0.000150196,4.5885e-05,-9.5885e-05
398.0,-0.004487359,0.000571109,0.004396643,-0.002847275,0.000206281,-0.000150196,4.5885e-05,-9.5885e-05
399.0,-0.004487359,0.000571109,0.004396643,-0.002847275,0.000206281,-0.000150196,4.5885e-05,-9.5885e-05
400.0,-0.004487359,0.000571109,0.004396643,-0.002797275,0.000156281,-0.000150196,4.5885e-05,-9.5885e-05
401.0,-0.004487359,0.000571109,0.004396643,-0.002797275,0.000156281,-0.000150196,4.5885e-05,-9.5885e-05
402.0,-0.004487359,0.000571109,0.004396643,-0.002797275,0.000156281,-0.000150196,4.5885e-05,-9.5885e-05
403.0,-0.004487359,0.000571109,0.004396643,-0.002797275,0.000156281,-0.000150196,4.5885e-05,-9.5885e-05
404.0,-0.004487359,0.000571109,0.004396643,-0.002797275,0.000156281,-0.000150196,4.5885e-05,-9.5885e-05
405.0,-0.004487359,0.000571109,0.004396643,-0.002797275,0.000156281,-0.000150196,4.5885e-05,-9.5885e-05
406.0,-0.004487359,0.000571109,0.004396643,-0.002797275,0.000156281,-0.000150196,4.5885e-05,-9.5885e-05
407.0,-0.004487359,0.000571109,0.004396643,-0.002797275,0.000156281,-0.000150196,4.5885e-05,-9.5885e-05
408.0,-0.004487359,0.000571109,0.004396643,-0.002797275,0.000156281,-0.000150196,4.5885e-05,-9.5885e-05
409.0,-0.004487359,0.000571109,0.004396643,-0.002797275,0.000156281,-0.000150196,4.5885e-05,-9.5885e-05
410.0,-0.004487359,0.000571109,0.004396643,-0.002797275,0.000156281,-0.000150196,4.5885e-05,-9.5885e-05
411.0,-0.004487359,0.000571109,0.004396643,-0.002797275,0.000156281,-0.000150196,4.5885e-05,-9.5885e-05
412.0,-0.004487359,0.000571109,0.004396643,-0.002797275,0.000156281,-0.000150196,4.5885e-05,-9.5885e-05
413.0,-0.004487359,0.000571109,0.004396643,-0.002797275,0.000156281,-0.000150196,-4.114e-06,-4.5885e-05
414.0,-0.004487359,0.000571109,0.004396643,-0.002797275,0.000156281,-0.000150196,-4.114e-06,-4.5885e-05
415.0,-0.004487359,0.000571109,0.004396643,-0.002797275,0.000156281,-0.000150196,-4.114e-06,-4.5885e-05
416.0,-0.004487359,0.000571109,0.004396643,-0.002797275,0.000156281,-0.000150196,-4.114e-06,-4.5885e-05
417.0,-0.004487359,0.000571109,0.004396643,-0.002797275,0.000156281,-0.000150196,-4.114e-06,-4.5885e-05
418.0,-0.004487359,0.000571109,0.004396643,-0.002797275,0.000156281,-0.000150196,-4.114e-06,-4.5885e-05
419.0,-0.004487359,0.000571109,0.004396643,-0.002797275,0.000156281,-0.000150196,-4.114e-06,-4.5885e-05
420.0,-0.004487359,0.000571109,0.004396643,-0.002797275,0.000156281,-0.000150196,-4.114e-06,-4.5885e-05
421.0,-0.004487359,0.000571109,0.004396643,-0.002797275,0.000156281,-0.000150196,-4.114e-06,-4.5885e-05
422.0,-0.004487359,0.000571109,0.004396643,-0.002797275,0.000156281,-0.000150196,-4.114e-06,-4.5885e-05
423.0,-0.004487359,0.000571109,0.004396643,-0.002797275,0.000156281,-0.000200196,4.5885e-05,-4.5885e-05
424.0,-0.004487359,0.000571109,0.004396643,-0.002797275,0.000156281,-0.000200196,4.5885e-05,-4.5885e-05
425.0,-0.004487359,0.000571109,0.004396643,-0.002797275,0.000156281,-0.000200196,4.5885e-05,-4.5885e-05
426.0,-0.004487359,0.000571109,0.004396643,-0.002797275,0.000156281,-0.000200196,4.5885e-05,-4.5885e-05
427.0,-0.004487359,0.000571109,0.004396643,-0.002797275,0.000156281,-0.000200196,4.5885e-05,-4.5885e-05
428.0,-0.004487359,0.000571109,0.004396643,-0.002797275,0.000156281,-0.000200196,4.5885e-05,-4.5885e-05
429.0,-0.004487359,0.000571109,0.004396643,-0.002797275,0.000156281,-0.000200196,4.5885e-05,-4.5885e-05
430.0,-0.004487359,0.000571109,0.004396643,-0.002797275,0.000156281,-0.000200196,4.5885e-05,-4.5885e-05
431.0,-0.004487359,0.000571109,0.004396643,-0.002797275,0.000156281,-0.000150196,4.5885e-05,-9.5885e-05
432.0,-0.004487359,0.000571109,0.004396643,-0.002797275,0.000156281,-0.000150196,4.5885e-05,-9.5885e-05
433.0,-0.004487359,0.000571109,0.004396643,-0.002797275,0.000156281,-0.000150196,4.5885e-05,-9.5885e-05
434.0,-0.004487359,0.000571109,0.004396643,-0.002797275,0.000156281,-0.000150196,4.5885e-05,-9.5885e-05
435.0,-0.004487359,0.000571109,0.004395418,-0.002797275,0.000157508,-0.000150196,4.5885e-05,-9.5885e-05
436.0,-0.004487359,0.000571109,0.004395418,-0.002797275,0.000157508,-0.000150196,4.5885e-05,-9.5885e-05
437.0,-0.004487359,0.000571109,0.004395418,-0.002797275,0.000157508,-0.000150196,4.5885e-05,-9.5885e-05
438.0,-0.004487359,0.000571109,0.004395418,-0.002797275,0.000157508,-0.000150196,4.5885e-05,-9.5885e-05
439.0,-0.004487359,0.000571109,0.004395418,-0.002797275,0.000157508,-0.000150196,-1.478e-06,-4.8521e-05
440.0,-0.004487359,0.000571109,0.004395418,-0.002797275,0.000157508,-0.000150196,-1.478e-06,-4.8521e-05
441.0,-0.004487359,0.000571109,0.004395418,-0.002847275,0.000207508,-0.000150196,-1.478e-06,-4.8521e-05
442.0,-0.004487359,0.000571109,0.004395418,-0.002847275,0.000207508,-0.000150196,-1.478e-06,-4.8521e-05
443.0,-0.004487359,0.000571109,0.004395418,-0.002847275,0.000207508,-0.000150196,-1.478e-06,-4.8521e-05
444.0,-0.004487359,0.000571109,0.004395418,-0.002797275,0.000157508,-0.000150196,-1.478e-06,-4.8521e-05
445.0,-0.004487359,0.000571109,0.004395418,-0.002797275,0.000157508,-0.000150196,-1.478e-06,-4.8521e-05
446.0,-0.004487359,0.000571109,0.004395418,-0.002797275,0.000157508,-0.000150196,4.8521e-05,-9.8521e-05
447.0,-0.004437359,0.000571109,0.004395418,-0.002847275,0.000157508,-0.000150196,4.8521e-05,-9.8521e-05
448.0,-0.004437359,0.000571109,0.004395418,-0.002847275,0.000157508,-0.000150196,4.8521e-05,-9.8521e-05
449.0,-0.004487359,0.000571109,0.004395418,-0.002847275,0.000157508,-0.000100196,4.8521e-05,-9.8521e-05
450.0,-0.004487359,0.000571109,0.004395418,-0.002847275,0.000157508,-0.000100196,4.8521e-05,-9.8521e-05
451.0,-0.004487359,0.000571109,0.004395418,-0.002847275,0.000157508,-0.000100196,-1.478e-06,-4.8521e-05
452.0,-0.004487359,0.000571109,0.004395418,-0.002847275,0.000157508,-0.000100196,-1.478e-06,-4.8521e-05
453.0,-0.004487359,0.000571109,0.004395418,-0.002847275,0.000157508,-0.000100196,-1.478e-06,-4.8521e-05
454.0,-0.004487359,0.000571109,0.004395418,-0.002847275,0.000157508,-0.000100196,-1.478e-06,-4.8521e-05
455.0,-0.004487359,0.000571109,0.004395418,-0.002847275,0.000157508,-0.000100196,-1.478e-06,-4.8521e-05
456.0,-0.004487359,0.000621109,0.004395418,-0.002847275,0.000157508,-0.000150196,-1.478e-06,-4.8521e-05
457.0,-0.004487359,0.000621109,0.004395418,-0.002847275,0.000157508,-0.000150196,-1.478e-06,-4.8521e-05
458.0,-0.004487359,0.000621109,0.004395418,-0.002847275,0.000157508,-0.000150196,4.8521e-05,-9.8521e-05
459.0,-0.004487359,0.000621109,0.004395418,-0.002847275,0.000157508,-0.000150196,4.8521e-05,-9.8521e-05
460.0,-0.004487359,0.000621109,0.004395418,-0.002847275,0.000157508,-0.000150196,4.8521e-05,-9.8521e-05
461.0,-0.004487359,0.000571109,0.004395418,-0.002847275,0.000157508,-0.000150196,9.8521e-05,-9.8521e-05
462.0,-0.004487359,0.000571109,0.004395418,-0.002847275,0.000157508,-0.000150196,4.8521e-05,-4.8521e-05
463.0,-0.004487359,0.000571109,0.004395418,-0.002847275,0.000157508,-0.000150196,4.8521e-05,-4.8521e-05
464.0,-0.004487359,0.000571109,0.004395418,-0.002847275,0.000157508,-0.000150196,4.8521e-05,-4.8521e-05
465.0,-0.004487359,0.000571109,0.004395418,-0.002847275,0.000157508,-0.000150196,9.8521e-05,-9.8521e-05
466.0,-0.004487359,0.000571109,0.004395418,-0.002847275,0.000157508,-0.000150196,9.8521e-05,-9.8521e-05
467.0,-0.004487359,0.000571109,0.004395418,-0.002847275,0.000157508,-0.000150196,9.8521e-05,-9.8521e-05
468.0,-0.004487359,0.000571109,0.004395418,-0.002847275,0.000157508,-0.000150196,9.8521e-05,-9.8521e-05
469.0,-0.004487359,0.000571109,0.004395418,-0.002847275,0.000157508,-0.000150196,9.8521e-05,-9.8521e-05
470.0,-0.004487359,0.000571109,0.004395418,-0.002897275,0.000207508,-0.000150196,9.8521e-05,-9.8521e-05
471.0,-0.004487359,0.000571109,0.004395418,-0.002847275,0.000157508,-0.000150196,9.8521e-05,-9.8521e-05
472.0,-0.004487359,0.000571109,0.004395418,-0.002846884,0.000157508,-0.000150588,9.8521e-05,-9.8521e-05
473.0,-0.004487359,0.000571109,0.004395418,-0.002846884,0.000157508,-0.000150588,9.8521e-05,-9.8521e-05
474.0,-0.004487359,0.000571109,0.004395418,-0.002846884,0.000157508,-0.000150588,4.8521e-05,-4.8521e-05
475.0,-0.004487359,0.000571109,0.004395418,-0.002846884,0.000157508,-0.000150588,9.8521e-05,-9.8521e-05
476.0,-0.004487359,0.000571109,0.004395418,-0.002846884,0.000157508,-0.000100588,4.8521e-05,-9.8521e-05
477.0,-0.004437359,0.000571109,0.004395418,-0.002846884,0.000157508,-0.000150588,4.8521e-05,-9.8521e-05
478.0,-0.004437359,0.000571109,0.004395418,-0.002846884,0.000157508,-0.000150588,4.8521e-05,-9.8521e-05
479.0,-0.004437359,0.000571109,0.004395418,-0.002846884,0.000157508,-0.000150588,4.8521e-05,-9.8521e-05
480.0,-0.004437359,0.000571109,0.004395418,-0.002846884,0.000157508,-0.000150588,4.8521e-05,-9.8521e-05
481.0,-0.004437359,0.000571109,0.004395418,-0.002846884,0.000157508,-0.000150588,4.8521e-05,-9.8521e-05
482.0,-0.004487359,0.000571109,0.004395418,-0.002846884,0.000157508,-0.000150588,4.8521e-05,-4.8521e-05
483.0,-0.004487359,0.000571109,0.004395418,-0.002846884,0.000157508,-0.000150588,4.8521e-05,-4.8521e-05
484.0,-0.004487359,0.000571109,0.004395418,-0.002846884,0.000157508,-0.000150588,4.8521e-05,-4.8521e-05
485.0,-0.004487359,0.000571109,0.004395418,-0.002846884,0.000157508,-0.000150588,4.8521e-05,-4.8521e-05
486.0,-0.004487359,0.000571109,0.004395418,-0.002846884,0.000157508,-0.000150588,4.8521e-05,-4.8521e-05
487.0,-0.004487359,0.000571109,0.004395418,-0.002846884,0.000157508,-0.000150588,4.8521e-05,-4.8521e-05
488.0,-0.004487359,0.000571109,0.004395418,-0.002846884,0.000157508,-0.000150588,4.8521e-05,-4.8521e-05
489.0,-0.004487359,0.000571109,0.004395418,-0.002846884,0.000157508,-0.000150588,4.8521e-05,-4.8521e-05
490.0,-0.004487359,0.000571109,0.004395418,-0.002846884,0.000157508,-0.000150588,4.8521e-05,-4.8521e-05
491.0,-0.004487359,0.000571109,0.004395418,-0.002846884,0.000157508,-0.000150588,4.8521e-05,-4.8521e-05
492.0,-0.004487359,0.000571109,0.004395418,-0.002846884,0.000157508,-0.000100588,4.8521e-05,-9.8521e-05
493.0,-0.004487359,0.000571109,0.004395418,-0.002846884,0.000157508,-0.000100588,4.8521e-05,-9.8521e-05
494.0,-0.004487359,0.000571109,0.004395418,-0.002846884,0.000157508,-0.000100588,4.8521e-05,-9.8521e-05
495.0,-0.004437359,0.000571109,0.004395418,-0.002846884,0.000157508,-0.000150588,4.8521e-05,-9.8521e-05
496.0,-0.004437359,0.000571109,0.004395418,-0.002846884,0.000157508,-0.000150588,4.8521e-05,-9.8521e-05
497.0,-0.004437359,0.000571109,0.004395418,-0.002846884,0.000157508,-0.000150588,4.8521e-05,-9.8521e-05
498.0,-0.004487359,0.000571109,0.004395418,-0.002846884,0.000157508,-0.000150588,9.8521e-05,-9.8521e-05
499.0,-0.004487359,0.000571109,0.004395418,-0.002846884,0.000157508,-0.000150588,9.8521e-05,-9.8521e-05
500.0,-0.004487359,0.000571109,0.004395418,-0.002846884,0.000157508,-0.000150588,4.8521e-05,-4.8521e-05
501.0,-0.004487359,0.000571109,0.004395418,-0.002846884,0.000157508,-0.000150588,4.8521e-05,-4.8521e-05
502.0,-0.004487359,0.000571109,0.004395418,-0.002846884,0.000157508,-0.000150588,4.8521e-05,-4.8521e-05
503.0,-0.004487359,0.000571109,0.004395418,-0.002846884,0.000157508,-0.000150588,4.8521e-05,-4.8521e-05
504.0,-0.004487359,0.000571109,0.004395418,-0.002846884,0.000157508,-0.000150588,4.8521e-05,-4.8521e-05
505.0,-0.004487359,0.000571109,0.004395418,-0.002846884,0.000157508,-0.000150588,-1.478e-06,1.478e-06
506.0,-0.004487359,0.000571109,0.004395418,-0.002846884,0.000157508,-0.000150588,-1.478e-06,1.478e-06
507.0,-0.004487359,0.000571109,0.004395418,-0.002846884,0.000157508,-0.000150588,-1.478e-06,1.478e-06
508.0,-0.004487359,0.000571109,0.004395418,-0.002846884,0.000157508,-0.000150588,-1.478e-06,1.478e-06
509.0,-0.004487359,0.000571109,0.004395418,-0.002846884,0.000157508,-0.000150588,-1.478e-06,1.478e-06
510.0,-0.004487359,0.000571109,0.004395418,-0.002846884,0.000157508,-0.000150588,-1.478e-06,1.478e-06
511.0,-0.004487359,0.000571109,0.004395418,-0.002846884,0.000157508,-0.000150588,4.8521e-05,-4.8521e-05
512.0,-0.004487359,0.000571109,0.004395418,-0.002846884,0.000157508,-0.000150588,4.8521e-05,-4.8521e-05
513.0,-0.004487359,0.000571109,0.004395418,-0.002846884,0.000157508,-0.000150588,4.8521e-05,-4.8521e-05
514.0,-0.004487359,0.000571109,0.004395418,-0.002846884,0.000157508,-0.000150588,4.8521e-05,-4.8521e-05
515.0,-0.004487359,0.000571109,0.004395418,-0.002846884,0.000157508,-0.000150588,-1.478e-06,1.478e-06
516.0,-0.004487359,0.000571109,0.004395418,-0.002846884,0.000157508,-0.000150588,-1.478e-06,1.478e-06
517.0,-0.004487359,0.000571109,0.004395418,-0.002846884,0.000157508,-0.000150588,-1.478e-06,1.478e-06
518.0,-0.004487359,0.000571109,0.004395418,-0.002846884,0.000157508,-0.000150588,-1.478e-06,1.478e-06
519.0,-0.004487359,0.000571109,0.004395418,-0.002796884,0.000107508,-0.000150588,-1.478e-06,1.478e-06
520.0,-0.004487359,0.000571109,0.004395418,-0.002796884,0.000107508,-0.000150588,-1.478e-06,1.478e-06
521.0,-0.004487359,0.000571109,0.004395418,-0.002796884,0.000107508,-0.000150588,-1.478e-06,1.478e-06
522.0,-0.004487359,0.000571109,0.004395418,-0.002796884,0.000107508,-0.000150588,-1.478e-06,1.478e-06
523.0,-0.004487359,0.000571109,0.004395418,-0.002796884,0.000107508,-0.000150588,-1.478e-06,1.478e-06
524.0,-0.004487359,0.000571109,0.004395418,-0.002796884,0.000107508,-0.000150588,-1.478e-06,1.478e-06
525.0,-0.004487359,0.000571109,0.004395418,-0.002796884,0.000107508,-0.000150588,-1.478e-06,1.478e-06
526.0,-0.004487359,0.000571109,0.004395418,-0.002796884,0.000107508,-0.000150588,-1.478e-06,1.478e-06
527.0,-0.004487359,0.000571109,0.004395418,-0.002796884,0.000107508,-0.000150588,-1.478e-06,1.478e-06
528.0,-0.004487359,0.000571109,0.004395418,-0.002796884,0.000107508,-0.000150588,-1.478e-06,1.478e-06
529.0,-0.004487359,0.000571109,0.004395418,-0.002796884,0.000107508,-0.000150588,-1.478e-06,1.478e-06
530.0,-0.004487359,0.000571109,0.004395418,-0.002796884,0.000107508,-0.000150588,4.8521e-05,-4.8521e-05
531.0,-0.004487359,0.000521109,0.004395418,-0.002796884,0.000107508,-0.000100588,4.8521e-05,-4.8521e-05
532.0,-0.004487359,0.000521109,0.004395418,-0.002796884,0.000107508,-0.000100588,4.8521e-05,-4.8521e-05
533.0,-0.004487359,0.000521109,0.004395418,-0.002796884,0.000107508,-0.000100588,4.8521e-05,-4.8521e-05
534.0,-0.004487359,0.000521109,0.004395418,-0.002796884,0.000107508,-0.000100588,4.8521e-05,-4.8521e-05
535.0,-0.004487359,0.000521109,0.004395418,-0.002846884,0.000157508,-0.000100588,4.8521e-05,-4.8521e-05
536.0,-0.004487359,0.000571109,0.004395418,-0.002846884,0.000157508,-0.000150588,4.8521e-05,-4.8521e-05
537.0,-0.004487359,0.000571109,0.004395418,-0.002846884,0.000157508,-0.000150588,4.8521e-05,-4.8521e-05
538.0,-0.004487359,0.000571109,0.004395418,-0.002846884,0.000157508,-0.000150588,4.8521e-05,-4.8521e-05
539.0,-0.004487307,0.000571109,0.004395418,-0.002846884,0.000157508,-0.00015064,4.8521e-05,-4.8521e-05
540.0,-0.004487307,0.000571109,0.004395418,-0.002846884,0.000157508,-0.00015064,4.8521e-05,-4.8521e-05
541.0,-0.004487307,0.000571109,0.004395418,-0.002846884,0.000157508,-0.00015064,4.8521e-05,-4.8521e-05
542.0,-0.004487307,0.000571109,0.004395418,-0.002846884,0.000157508,-0.00015064,4.8521e-05,-4.8521e-05
543.0,-0.004487307,0.000571109,0.004395418,-0.002846884,0.000157508,-0.00015064,4.8521e-05,-4.8521e-05
544.0,-0.004487307,0.000571109,0.004395418,-0.002846884,0.000157508,-0.00015064,4.8521e-05,-4.8521e-05
545.0,-0.004487307,0.000571109,0.004395418,-0.002846884,0.000157508,-0.00015064,-1.478e-06,1.478e-06
546.0,-0.004487307,0.000571109,0.004395418,-0.002846884,0.000157508,-0.00015064,-1.478e-06,1.478e-06
547.0,-0.004487307,0.000571109,0.004395418,-0.002846884,0.000157508,-0.00015064,-1.478e-06,1.478e-06
548.0,-0.004437308,0.000571109,0.004395418,-0.002846884,0.000157508,-0.00015064,-1.478e-06,-4.8521e-05
549.0,-0.004437308,0.000571109,0.004395418,-0.002846884,0.000157508,-0.00015064,-1.478e-06,-4.8521e-05
550.0,-0.004437308,0.000571109,0.004395418,-0.002846884,0.000157508,-0.00015064,-1.478e-06,-4.8521e-05
551.0,-0.004437308,0.000571109,0.004395418,-0.002846884,0.000157508,-0.00015064,-1.478e-06,-4.8521e-05
552.0,-0.004437308,0.000571109,0.004395418,-0.002846884,0.000157508,-0.00015064,-1.478e-06,-4.8521e-05
553.0,-0.004437308,0.000571109,0.004395418,-0.002846884,0.000157508,-0.00015064,-1.478e-06,-4.8521e-05
554.0,-0.004487307,0.000571109,0.004395418,-0.002846884,0.000157508,-0.00010064,-1.478e-06,-4.8521e-05
555.0,-0.004487307,0.000571109,0.004395418,-0.002846884,0.000157508,-0.00010064,-1.478e-06,-4.8521e-05
556.0,-0.004487307,0.000571109,0.004395418,-0.002846884,0.000157508,-0.00010064,-1.478e-06,-4.8521e-05
557.0,-0.004487307,0.000571109,0.004395418,-0.002846884,0.000157508,-0.00010064,-1.478e-06,-4.8521e-05
558.0,-0.004487307,0.000571109,0.004395418,-0.002846884,0.000157508,-0.00010064,-1.478e-06,-4.8521e-05
559.0,-0.004487307,0.000571109,0.004395418,-0.002846884,0.000157508,-0.00010064,-1.478e-06,-4.8521e-05
560.0,-0.004487307,0.000571109,0.004395418,-0.002846884,0.000157508,-0.00010064,-1.478e-06,-4.8521e-05
561.0,-0.004487307,0.000571109,0.004395418,-0.002846884,0.000157508,-0.00015064,-1.478e-06,1.478e-06
562.0,-0.004487307,0.000571109,0.004395418,-0.002846884,0.000157508,-0.00015064,-1.478e-06,1.478e-06
563.0,-0.004487307,0.000571109,0.004395418,-0.002846884,0.000157508,-0.00015064,-1.478e-06,1.478e-06
564.0,-0.004487307,0.000571109,0.004395418,-0.002846884,0.000157508,-0.00015064,-1.478e-06,1.478e-06
565.0,-0.004487307,0.000571109,0.004395418,-0.002846884,0.000157508,-0.00015064,-1.478e-06,1.478e-06
566.0,-0.004487307,0.000571109,0.004395418,-0.002846884,0.000157508,-0.00015064,-1.478e-06,1.478e-06
567.0,-0.004487307,0.000571109,0.004395418,-0.002846884,0.000157508,-0.00015064,4.8521e-05,-4.8521e-05
568.0,-0.004487307,0.000571109,0.004395418,-0.002846884,0.000157508,-0.00015064,4.8521e-05,-4.8521e-05
569.0,-0.004537307,0.000571109,0.004395418,-0.002846884,0.000157508,-0.00015064,4.8521e-05,1.478e-06
570.0,-0.004537307,0.000571109,0.004395418,-0.002846884,0.000157508,-0.00015064,4.8521e-05,1.478e-06
571.0,-0.004537307,0.000571109,0.004395418,-0.002846884,0.000157508,-0.00015064,4.8521e-05,1.478e-06
572.0,-0.004537307,0.000571109,0.004395418,-0.002846884,0.000157508,-0.00015064,4.8521e-05,1.478e-06
573.0,-0.004537307,0.000571109,0.004395418,-0.002846884,0.000157508,-0.00015064,4.8521e-05,1.478e-06
574.0,-0.004537307,0.000571109,0.004395418,-0.002846884,0.000157508,-0.00015064,4.8521e-05,1.478e-06
575.0,-0.004537307,0.000571109,0.004395418,-0.002846884,0.000157508,-0.00015064,4.8521e-05,1.478e-06
576.0,-0.004537307,0.000571109,0.004395418,-0.002846884,0.000157508,-0.00015064,4.8521e-05,1.478e-06
577.0,-0.004537307,0.000571109,0.004395418,-0.002846884,0.000157508,-0.00015064,9.8521e-05,-4.8521e-05
578.0,-0.004537307,0.000571109,0.004395418,-0.002796884,0.000107508,-0.00015064,9.8521e-05,-4.8521e-05
579.0,-0.004537307,0.000571109,0.004395418,-0.002796884,0.000107508,-0.00010064,4.8521e-05,-4.8521e-05
580.0,-0.004537307,0.000571109,0.004395418,-0.002796884,0.000107508,-0.00010064,4.8521e-05,-4.8521e-05
581.0,-0.004537307,0.000571109,0.004395418,-0.002796884,0.000107508,-0.00010064,4.8521e-05,-4.8521e-05
582.0,-0.004537307,0.000571109,0.004395418,-0.002796884,0.000107508,-0.00015064,4.8521e-05,1.478e-06
583.0,-0.004537307,0.000571109,0.004395418,-0.002796884,0.000107508,-0.00015064,9.8521e-05,-4.8521e-05
584.0,-0.004537307,0.000571109,0.004395418,-0.002796884,0.000107508,-0.00015064,9.8521e-05,-4.8521e-05
585.0,-0.004537307,0.000571109,0.004395418,-0.002796884,0.000107508,-0.00015064,9.8521e-05,-4.8521e-05
586.0,-0.004537307,0.000571109,0.004395418,-0.002796884,0.000107508,-0.00015064,9.8521e-05,-4.8521e-05
587.0,-0.004537307,0.000571109,0.004395418,-0.002796884,0.000107508,-0.00015064,9.8521e-05,-4.8521e-05
588.0,-0.004537307,0.000571109,0.004395418,-0.002796884,0.000107508,-0.00015064,9.8521e-05,-4.8521e-05
589.0,-0.004537307,0.000571109,0.004395418,-0.002796884,0.000107508,-0.00015064,9.8521e-05,-4.8521e-05
590.0,-0.004537307,0.000571109,0.004395418,-0.002796884,0.000107508,-0.00015064,9.8521e-05,-4.8521e-05
591.0,-0.004537307,0.000571109,0.004395418,-0.002796884,0.000107508,-0.00015064,9.8521e-05,-4.8521e-05
592.0,-0.004537307,0.000571109,0.004395418,-0.002796884,0.000107508,-0.00015064,9.8521e-05,-4.8521e-05
593.0,-0.004537307,0.000571109,0.004395418,-0.002796884,0.000107508,-0.00015064,4.8521e-05,1.478e-06
594.0,-0.004537307,0.000571109,0.004395418,-0.002796884,0.000107508,-0.00015064,4.8521e-05,1.478e-06
595.0,-0.004537307,0.000571109,0.004395418,-0.002796884,0.000107508,-0.00015064,4.8521e-05,1.478e-06
596.0,-0.004537307,0.000571109,0.004395418,-0.002796884,0.000107508,-0.00015064,4.8521e-05,1.478e-06
597.0,-0.004537307,0.000571109,0.004395418,-0.002796884,0.000107508,-0.00015064,4.8521e-05,1.478e-06
598.0,-0.004537307,0.000571109,0.004395418,-0.002796884,0.000107508,-0.00015064,4.8521e-05,1.478e-06
599.0,-0.004537307,0.000571109,0.004395418,-0.002796884,0.000107508,-0.00015064,4.8521e-05,1.478e-06
600.0,-0.004537307,0.000571109,0.004395418,-0.002796884,0.000107508,-0.00020064,4.8521e-05,5.1478e-05
601.0,-0.004537307,0.000571109,0.004395418,-0.002796884,0.000107508,-0.00015064,4.8521e-05,1.478e-06
602.0,-0.004537307,0.000571109,0.004395418,-0.002796884,0.000107508,-0.00015064,4.8521e-05,1.478e-06
603.0,-0.004537307,0.000571109,0.004395418,-0.002796884,0.000107508,-0.00015064,9.8521e-05,-4.8521e-05
604.0,-0.004487307,0.000521109,0.004395418,-0.002796884,0.000107508,-0.00015064,9.8521e-05,-4.8521e-05
605.0,-0.004487307,0.000521109,0.004395418,-0.002796884,0.000107508,-0.00015064,4.8521e-05,1.478e-06
606.0,-0.004487307,0.000521109,0.004395418,-0.002796884,0.000107508,-0.00015064,4.8521e-05,1.478e-06
607.0,-0.004437308,0.000521109,0.004395418,-0.002796884,0.000107508,-0.00015064,4.8521e-05,-4.8521e-05
608.0,-0.004437308,0.000521109,0.004395418,-0.002796884,0.000107508,-0.00015064,4.8521e-05,-4.8521e-05
609.0,-0.004437308,0.000521109,0.004395418,-0.002846884,0.000157508,-0.00015064,4.8521e-05,-4.8521e-05
610.0,-0.004437308,0.000521109,0.004395418,-0.002846884,0.000157508,-0.00015064,4.8521e-05,-4.8521e-05
611.0,-0.004437308,0.000521109,0.004395418,-0.002846884,0.000157508,-0.00015064,4.8521e-05,-4.8521e-05
612.0,-0.004437308,0.000521109,0.004395418,-0.002846884,0.000157508,-0.00015064,4.8521e-05,-4.8521e-05
613.0,-0.004437308,0.000521109,0.004395418,-0.002846884,0.000157508,-0.00015064,4.8521e-05,-4.8521e-05
614.0,-0.004437308,0.000521109,0.004395418,-0.002846884,0.000157508,-0.00015064,4.8521e-05,-4.8521e-05
615.0,-0.004437308,0.000571109,0.004395418,-0.002846884,0.000157508,-0.00015064,4.8521e-05,-9.8521e-05
616.0,-0.004437308,0.000571109,0.004395418,-0.002846884,0.000157508,-0.00015064,4.8521e-05,-9.8521e-05
617.0,-0.004437308,0.000571109,0.004395418,-0.002846884,0.000157508,-0.00015064,4.8521e-05,-9.8521e-05
618.0,-0.004437308,0.000571109,0.004395418,-0.002846884,0.000157508,-0.00015064,4.8521e-05,-9.8521e-05
619.0,-0.004437308,0.000571109,0.004395418,-0.002846884,0.000157508,-0.00015064,4.8521e-05,-9.8521e-05
620.0,-0.004437308,0.000571109,0.004395418,-0.002846884,0.000157508,-0.00015064,4.8521e-05,-9.8521e-05
621.0,-0.004437308,0.000571109,0.004395418,-0.002846884,0.000157508,-0.00015064,4.8521e-05,-9.8521e-05
622.0,-0.004437308,0.000571109,0.004395418,-0.002846884,0.000157508,-0.00015064,4.8521e-05,-9.8521e-05
623.0,-0.004437308,0.000571109,0.004395418,-0.002846884,0.000157508,-0.00015064,4.8521e-05,-9.8521e-05
624.0,-0.004437308,0.000571109,0.004395418,-0.002846884,0.000157508,-0.00015064,4.8521e-05,-9.8521e-05
625.0,-0.004437308,0.000571109,0.004395418,-0.002846884,0.000157508,-0.00015064,-1.478e-06,-4.8521e-05
626.0,-0.004437308,0.000571109,0.004395418,-0.002846884,0.000157508,-0.00015064,-1.478e-06,-4.8521e-05
627.0,-0.004437308,0.000571109,0.004395418,-0.002846884,0.000157508,-0.00015064,-1.478e-06,-4.8521e-05
628.0,-0.004437308,0.000571109,0.004395418,-0.002846884,0.000157508,-0.00015064,-1.478e-06,-4.8521e-05
629.0,-0.004437308,0.000571109,0.004395418,-0.002846884,0.000157508,-0.00015064,-1.478e-06,-4.8521e-05
630.0,-0.004437308,0.000571109,0.004395418,-0.002846884,0.000157508,-0.00015064,-1.478e-06,-4.8521e-05
631.0,-0.004437308,0.000571109,0.004395418,-0.002846884,0.000157508,-0.00015064,4.8521e-05,-9.8521e-05
632.0,-0.004437308,0.000571109,0.004395418,-0.002846884,0.000157508,-0.00015064,4.8521e-05,-9.8521e-05
633.0,-0.004437308,0.000571109,0.004395418,-0.002846884,0.000157508,-0.00015064,4.8521e-05,-9.8521e-05
634.0,-0.004437308,0.000571109,0.004395418,-0.002846884,0.000157508,-0.00015064,4.8521e-05,-9.8521e-05
635.0,-0.004437308,0.000571109,0.004395418,-0.002846884,0.000157508,-0.00015064,4.8521e-05,-9.8521e-05
636.0,-0.004437308,0.000571109,0.004395418,-0.002846884,0.000157508,-0.00015064,4.8521e-05,-9.8521e-05
637.0,-0.004437308,0.000571109,0.004395418,-0.002846884,0.000157508,-0.00015064,4.8521e-05,-9.8521e-05
638.0,-0.004437308,0.000571109,0.004395418,-0.002846884,0.000157508,-0.00015064,4.8521e-05,-9.8521e-05
639.0,-0.004437308,0.000571109,0.004395418,-0.002846884,0.000157508,-0.00015064,4.8521e-05,-9.8521e-05
640.0,-0.004437308,0.000571109,0.004395418,-0.002846884,0.000157508,-0.00015064,4.8521e-05,-9.8521e-05
641.0,-0.004437308,0.000571109,0.004395418,-0.002846884,0.000157508,-0.00015064,4.8521e-05,-9.8521e-05
642.0,-0.004437308,0.000571109,0.004395418,-0.002846884,0.000157508,-0.00015064,4.8521e-05,-9.8521e-05
643.0,-0.004437308,0.000571109,0.004395418,-0.002846884,0.000157508,-0.00015064,4.8521e-05,-9.8521e-05
644.0,-0.004437308,0.000571109,0.004395418,-0.002846884,0.000157508,-0.00015064,-1.478e-06,-4.8521e-05
645.0,-0.004437308,0.000571109,0.004395418,-0.002846884,0.000157508,-0.00015064,-1.478e-06,-4.8521e-05
646.0,-0.004437308,0.000571109,0.004395418,-0.002846884,0.000157508,-0.00015064,-1.478e-06,-4.8521e-05
647.0,-0.004437308,0.000571109,0.004395418,-0.002846884,0.000157508,-0.00015064,-1.478e-06,-4.8521e-05
648.0,-0.004437308,0.000571109,0.004395418,-0.002846884,0.000157508,-0.00015064,-1.478e-06,-4.8521e-05
649.0,-0.004437308,0.000571109,0.004395418,-0.002846884,0.000157508,-0.00015064,-1.478e-06,-4.8521e-05
650.0,-0.004437308,0.000571109,0.004395418,-0.002846884,0.000157508,-0.00015064,-1.478e-06,-4.8521e-05
651.0,-0.004437308,0.000571109,0.004395418,-0.002846884,0.000157508,-0.00015064,-1.478e-06,-4.8521e-05
652.0,-0.004437308,0.000571109,0.004395418,-0.002846884,0.000157508,-0.00015064,-1.478e-06,-4.8521e-05
653.0,-0.004437308,0.000521109,0.004395418,-0.002846884,0.000207507,-0.00015064,-1.478e-06,-4.8521e-05
654.0,-0.004437308,0.000521109,0.004395418,-0.002846884,0.000207507,-0.00020064,4.8521e-05,-4.8521e-05
655.0,-0.004437308,0.000521109,0.004395418,-0.002846884,0.000207507,-0.00020064,4.8521e-05,-4.8521e-05
656.0,-0.004487307,0.000521109,0.004395418,-0.002846884,0.000207507,-0.00020064,9.8521e-05,-4.8521e-05
657.0,-0.004487307,0.000521109,0.004395418,-0.002846884,0.000207507,-0.00020064,4.8521e-05,1.478e-06
658.0,-0.004487307,0.000571109,0.004395418,-0.002846884,0.000207507,-0.00020064,4.8521e-05,-4.8521e-05
659.0,-0.004487307,0.000571109,0.004395418,-0.002846884,0.000207507,-0.00020064,4.8521e-05,-4.8521e-05
660.0,-0.004487307,0.000571109,0.004395418,-0.002846884,0.000207507,-0.00020064,4.8521e-05,-4.8521e-05
661.0,-0.004487307,0.000571109,0.004395418,-0.002846884,0.000207507,-0.00020064,4.8521e-05,-4.8521e-05
662.0,-0.004487307,0.000521109,0.004395418,-0.002846884,0.000207507,-0.00015064,4.8521e-05,-4.8521e-05
663.0,-0.004487307,0.000521109,0.004395418,-0.002846884,0.000207507,-0.00015064,4.8521e-05,-4.8521e-05
664.0,-0.004487307,0.000521109,0.004395418,-0.002846884,0.000207507,-0.00015064,4.8521e-05,-4.8521e-05
665.0,-0.004487307,0.000521109,0.004395418,-0.002846884,0.000207507,-0.00015064,4.8521e-05,-4.8521e-05
666.0,-0.004487307,0.000521109,0.004395418,-0.002846884,0.000207507,-0.00015064,4.8521e-05,-4.8521e-05
667.0,-0.004487307,0.000521109,0.004395418,-0.002846884,0.000207507,-0.00015064,4.8521e-05,-4.8521e-05
668.0,-0.004487307,0.000521109,0.004395418,-0.002846884,0.000207507,-0.00015064,4.8521e-05,-4.8521e-05
669.0,-0.004487307,0.000521109,0.004395418,-0.002846884,0.000207507,-0.00015064,4.8521e-05,-4.8521e-05
670.0,-0.004487307,0.000521109,0.004395418,-0.002846884,0.000207507,-0.00015064,4.8521e-05,-4.8521e-05
671.0,-0.004487307,0.000521109,0.004395418,-0.002846884,0.000207507,-0.00015064,4.8521e-05,-4.8521e-05
672.0,-0.004487307,0.000521109,0.004395418,-0.002846884,0.000207507,-0.00015064,4.8521e-05,-4.8521e-05
673.0,-0.004487307,0.000521109,0.004395418,-0.002846884,0.000207507,-0.00015064,4.8521e-05,-4.8521e-05
674.0,-0.004487307,0.000521109,0.004395418,-0.002846884,0.000207507,-0.00015064,4.8521e-05,-4.8521e-05
675.0,-0.004487307,0.000521109,0.004395418,-0.002846884,0.000207507,-0.00015064,4.8521e-05,-4.8521e-05
676.0,-0.004487307,0.000521109,0.004395418,-0.002846884,0.000207507,-0.00015064,4.8521e-05,-4.8521e-05
677.0,-0.004487307,0.000521109,0.004395418,-0.002846884,0.000207507,-0.00015064,4.8521e-05,-4.8521e-05
678.0,-0.004487307,0.000521109,0.004395418,-0.002846884,0.000207507,-0.00015064,4.8521e-05,-4.8521e-05
679.0,-0.004487307,0.000521109,0.004395418,-0.002846884,0.000207507,-0.00015064,4.8521e-05,-4.8521e-05
680.0,-0.004487307,0.000521109,0.004395418,-0.002846884,0.000207507,-0.00015064,4.8521e-05,-4.8521e-05
681.0,-0.004487307,0.000521109,0.004395418,-0.002846884,0.000207507,-0.00015064,4.8521e-05,-4.8521e-05
682.0,-0.004487307,0.000521109,0.004395418,-0.002846884,0.000207507,-0.00015064,4.8521e-05,-4.8521e-05
683.0,-0.004487307,0.000521109,0.004395418,-0.002796884,0.000157507,-0.00015064,4.8521e-05,-4.8521e-05
684.0,-0.004487307,0.000521109,0.004395418,-0.002846884,0.000207507,-0.00015064,4.8521e-05,-4.8521e-05
685.0,-0.004487307,0.000521109,0.004395418,-0.002846884,0.000207507,-0.00015064,9.8521e-05,-9.8521e-05
686.0,-0.004487307,0.000521109,0.004395418,-0.002846884,0.000207507,-0.00015064,9.8521e-05,-9.8521e-05
687.0,-0.004487307,0.000521109,0.004395418,-0.002846884,0.000207507,-0.00015064,4.8521e-05,-4.8521e-05
688.0,-0.004487307,0.000521109,0.004395418,-0.002846884,0.000207507,-0.00015064,4.8521e-05,-4.8521e-05
689.0,-0.004487307,0.000521109,0.004395418,-0.002846884,0.000207507,-0.00015064,4.8521e-05,-4.8521e-05
690.0,-0.004487307,0.000521109,0.004395418,-0.002846884,0.000207507,-0.00015064,4.8521e-05,-4.8521e-05
691.0,-0.004487307,0.000521109,0.004395418,-0.002846884,0.000207507,-0.00015064,4.8521e-05,-4.8521e-05
692.0,-0.004487307,0.000521109,0.004395418,-0.002846884,0.000207507,-0.00015064,4.8521e-05,-4.8521e-05
693.0,-0.004487307,0.000521109,0.004395418,-0.002846884,0.000207507,-0.00015064,4.8521e-05,-4.8521e-05
694.0,-0.004487307,0.000521109,0.004395418,-0.002846884,0.000207507,-0.00015064,4.8521e-05,-4.8521e-05
695.0,-0.004487307,0.000521109,0.004395418,-0.002846884,0.000207507,-0.00015064,4.8521e-05,-4.8521e-05
696.0,-0.004487307,0.000521109,0.004395418,-0.002846884,0.000207507,-0.00015064,4.8521e-05,-4.8521e-05
697.0,-0.004487307,0.000521109,0.004395418,-0.002846884,0.000207507,-0.00015064,9.8521e-05,-9.8521e-05
698.0,-0.004487307,0.000521109,0.004395418,-0.002846884,0.000207507,-0.00015064,9.8521e-05,-9.8521e-05
699.0,-0.004487307,0.000521109,0.004395418,-0.002846884,0.000207507,-0.00015064,9.8521e-05,-9.8521e-05
700.0,-0.004487307,0.000521109,0.004395418,-0.002846884,0.000207507,-0.00020064,9.8521e-05,-4.8521e-05
701.0,-0.004487307,0.000521109,0.004395418,-0.002846884,0.000207507,-0.00020064,9.8521e-05,-4.8521e-05
