0.0,0.002938785,-0.005193013,0.003586741,0.000589053,-0.000568619,0.0,0.0,0.0
1.0,0.002938785,-0.005193013,0.003586741,0.000589053,-0.000568619,0.0,0.0,0.0
2.0,0.002938785,-0.005193013,0.003586741,0.000589053,-0.000568619,0.0,0.0,0.0
3.0,0.002888785,-0.005193013,0.003586741,0.000589053,-0.000568619,5e-05,0.0,0.0
4.0,0.002888785,-0.005243013,0.003586741,0.000589053,-0.000568619,5e-05,5e-05,0.0
5.0,0.002888785,-0.005243013,0.003636741,0.000589053,-0.000568619,5e-05,0.0,0.0
6.0,0.002888785,-0.005243013,0.003636741,0.000589053,-0.000568619,0.0,5e-05,0.0
7.0,0.002938785,-0.005243013,0.003586741,0.000589053,-0.000568619,0.0,5e-05,0.0
8.0,0.002938785,-0.005241454,0.003586741,0.000589053,-0.000568619,0.0,4.8442e-05,0.0
9.0,0.002938785,-0.005241454,0.003586741,0.000589053,-0.000568619,0.0,4.8442e-05,0.0
10.0,0.002938785,-0.005241454,0.003586741,0.000589053,-0.000568619,0.0,4.8442e-05,0.0
11.0,0.002938785,-0.005241454,0.003586741,0.000589053,-0.000568619,0.0,4.8442e-05,0.0
12.0,0.002938785,-0.005241454,0.003586741,0.000589053,-0.000568619,0.0,4.8442e-05,0.0
13.0,0.002938785,-0.005241454,0.003586741,0.000589053,-0.000568619,0.0,4.8442e-05,0.0
14.0,0.002938785,-0.005241454,0.003586741,0.000589053,-0.000568619,0.0,-1.557e-06,5e-05
15.0,0.002938785,-0.005241454,0.003586741,0.000589053,-0.000568619,0.0,-1.557e-06,5e-05
16.0,0.002938785,-0.005241454,0.003636741,0.000589053,-0.000568619,0.0,-1.557e-06,0.0
17.0,0.002938785,-0.005241454,0.003636741,0.000589053,-0.000568619,0.0,-1.557e-06,0.0
18.0,0.002938785,-0.005241454,0.003636741,0.000589053,-0.000568619,0.0,-1.557e-06,0.0
19.0,0.002888785,-0.005241454,0.003636741,0.000589053,-0.000568619,5e-05,-1.557e-06,0.0
20.0,0.002888785,-0.005241454,0.003636741,0.000589053,-0.000568619,5e-05,-1.557e-06,0.0
21.0,0.002888785,-0.005241454,0.003636741,0.000589053,-0.000568619,0.0001,-5.1557e-05,0.0
22.0,0.002888785,-0.005241454,0.003686741,0.000589053,-0.000568619,5e-05,-5.1557e-05,0.0
23.0,0.002888785,-0.005241454,0.003686741,0.000589053,-0.000568619,0.0,-5.1557e-05,5e-05
24.0,0.002888785,-0.005241454,0.003686741,0.000589053,-0.000568619,0.0,-5.1557e-05,5e-05
25.0,0.002888785,-0.005241454,0.003686741,0.000589053,-0.000568619,0.0,-5.1557e-05,5e-05
26.0,0.002888785,-0.005241454,0.003686741,0.000589053,-0.000568619,0.0,-5.1557e-05,5e-05
27.0,0.002888785,-0.005241454,0.003686741,0.000589053,-0.000568619,0.0,-1.557e-06,0.0
28.0,0.002888785,-0.005241454,0.003686741,0.000589053,-0.000568619,0.0,-1.557e-06,0.0
29.0,0.002888785,-0.005241454,0.003636741,0.000589053,-0.000568619,0.0,-1.557e-06,5e-05
30.0,0.002938785,-0.005241454,0.003636741,0.000589053,-0.000568619,0.0,-1.557e-06,0.0
31.0,0.002888785,-0.005241454,0.003636741,0.000589053,-0.000568619,0.0,-1.557e-06,5e-05
32.0,0.002888785,-0.005241454,0.003636741,0.000589053,-0.000568619,0.0,4.8442e-05,0.0
33.0,0.002888785,-0.005241454,0.003636741,0.000589053,-0.000568619,0.0,4.8442e-05,0.0
34.0,0.002888785,-0.005241454,0.003636741,0.000639053,-0.000568619,0.0,4.8442e-05,-5e-05
35.0,0.002888785,-0.005241454,0.003636741,0.000639053,-0.000568619,0.0,4.8442e-05,-5e-05
36.0,0.002888785,-0.005241454,0.003636741,0.000639053,-0.000568619,5e-05,-1.557e-06,-5e-05
37.0,0.002888785,-0.005241454,0.003636741,0.000639053,-0.000568619,5e-05,-1.557e-06,-5e-05
38.0,0.002888785,-0.005241454,0.003636741,0.000639053,-0.000568619,5e-05,-1.557e-06,-5e-05
39.0,0.002938785,-0.005241454,0.003636741,0.000639053,-0.000568619,0.0,-1.557e-06,-5e-05
40.0,0.002938785,-0.005241454,0.003636741,0.000639053,-0.000568619,0.0,-1.557e-06,-5e-05
41.0,0.002938785,-0.005241454,0.003636741,0.000639053,-0.000568619,0.0,-1.557e-06,-5e-05
42.0,0.002938785,-0.005241454,0.003636741,0.000639053,-0.000568619,0.0,-1.557e-06,-5e-05
43.0,0.002938785,-0.005241454,0.003636741,0.000639053,-0.000568619,0.0,-1.557e-06,-5e-05
44.0,0.002938785,-0.005241454,0.003636741,0.000639053,-0.000568619,0.0,-1.557e-06,-5e-05
45.0,0.002938785,-0.005241454,0.003636741,0.000639053,-0.000568619,0.0,-1.557e-06,-5e-05
46.0,0.002938785,-0.005241454,0.003636741,0.000639053,-0.000568619,-5e-05,-1.557e-06,0.0
47.0,0.002938785,-0.005241454,0.003636741,0.000639053,-0.000568619,-5e-05,-1.557e-06,0.0
48.0,0.002938785,-0.005241454,0.003636741,0.000639053,-0.000568619,0.0,-1.557e-06,-5e-05
49.0,0.002938785,-0.005241454,0.003636741,0.000639053,-0.000568619,0.0,-1.557e-06,-5e-05
50.0,0.002938785,-0.005241454,0.003636741,0.000589053,-0.000518619,0.0,-1.557e-06,-5e-05
51.0,0.002938785,-0.005241454,0.003636741,0.000589053,-0.000518619,5e-05,-5.1557e-05,-5e-05
52.0,0.002938785,-0.005241454,0.003636741,0.000589053,-0.000518619,5e-05,-5.1557e-05,-5e-05
53.0,0.002938785,-0.005241454,0.003636741,0.000589053,-0.000518619,5e-05,-5.1557e-05,-5e-05
54.0,0.002938785,-0.005241454,0.003636741,0.000589053,-0.000518619,5e-05,-5.1557e-05,-5e-05
55.0,0.002938785,-0.005241454,0.003636741,0.000589053,-0.000518619,5e-05,-5.1557e-05,-5e-05
56.0,0.002938785,-0.005241454,0.003636741,0.000589053,-0.000518619,5e-05,-5.1557e-05,-5e-05
57.0,0.002938785,-0.005241454,0.003636741,0.000589053,-0.000518619,5e-05,-5.1557e-05,-5e-05
58.0,0.002938785,-0.005241454,0.003636741,0.000589053,-0.000518619,5e-05,-5.1557e-05,-5e-05
59.0,0.002938785,-0.005241454,0.003636741,0.000589053,-0.000518619,5e-05,-5.1557e-05,-5e-05
60.0,0.002938785,-0.005191454,0.003636741,0.000589053,-0.000518619,0.0,-5.1557e-05,-5e-05
61.0,0.002938785,-0.005191454,0.003636741,0.000589053,-0.000518619,0.0,-5.1557e-05,-5e-05
62.0,0.002938785,-0.005191454,0.003636741,0.000589053,-0.000518619,0.0,-5.1557e-05,-5e-05
63.0,0.002938785,-0.005191454,0.003636741,0.000589053,-0.000518619,-5e-05,-1.557e-06,-5e-05
64.0,0.002938785,-0.005191454,0.003636741,0.000589053,-0.000518619,0.0,-5.1557e-05,-5e-05
65.0,0.002888785,-0.005191454,0.003636741,0.000589053,-0.000518619,0.0,-1.557e-06,-5e-05
66.0,0.002888785,-0.005241454,0.003636741,0.000589053,-0.000518619,0.0,4.8442e-05,-5e-05
67.0,0.002888785,-0.005241454,0.003636741,0.000589053,-0.000518619,0.0,4.8442e-05,-5e-05
68.0,0.002888785,-0.005241454,0.003636741,0.000589053,-0.000518619,0.0,4.8442e-05,-5e-05
69.0,0.002888785,-0.005241454,0.003636741,0.000589053,-0.000518619,0.0,4.8442e-05,-5e-05
70.0,0.002888785,-0.005241454,0.003636741,0.000589053,-0.000518619,0.0,4.8442e-05,-5e-05
71.0,0.002888785,-0.005241454,0.003636741,0.000589053,-0.000518619,0.0,-1.557e-06,0.0
72.0,0.002888785,-0.005241454,0.003636741,0.000589053,-0.000518619,0.0,-1.557e-06,0.0
73.0,0.002888785,-0.005241454,0.003636741,0.000589053,-0.000518619,5e-05,-1.557e-06,-5e-05
74.0,0.002888785,-0.005241454,0.003636741,0.000589053,-0.000518619,0.0,4.8442e-05,-5e-05
75.0,0.002888785,-0.005241454,0.003636741,0.000589053,-0.000518619,0.0,4.8442e-05,-5e-05
76.0,0.002888785,-0.005241454,0.003636741,0.000589053,-0.000518619,0.0,4.8442e-05,-5e-05
77.0,0.002888785,-0.005241454,0.003636741,0.000589053,-0.000518619,0.0,4.8442e-05,-5e-05
78.0,0.002888785,-0.005241454,0.003636741,0.000589053,-0.000518619,0.0,4.8442e-05,-5e-05
79.0,0.002888785,-0.005241454,0.003636741,0.000589053,-0.000518619,0.0,4.8442e-05,-5e-05
80.0,0.002888785,-0.005241454,0.003636741,0.000589053,-0.000518619,0.0,4.8442e-05,-5e-05
81.0,0.002888785,-0.005241454,0.003636741,0.000589053,-0.000518619,0.0,-1.557e-06,0.0
82.0,0.002888785,-0.005241454,0.003636741,0.000589053,-0.000518619,0.0,-1.557e-06,0.0
83.0,0.002888785,-0.005241454,0.003636741,0.000589053,-0.000518619,0.0,-1.557e-06,0.0
84.0,0.002888785,-0.005191454,0.003636741,0.000589053,-0.000518619,0.0,-1.557e-06,-5e-05
85.0,0.002888785,-0.005191454,0.003636741,0.000589053,-0.000518619,0.0,-1.557e-06,-5e-05
86.0,0.002888785,-0.005191454,0.003636741,0.000589053,-0.000518619,0.0,-1.557e-06,-5e-05
87.0,0.002888785,-0.005191454,0.003636741,0.000589053,-0.000518619,-5e-05,4.8442e-05,-5e-05
88.0,0.002888785,-0.005191454,0.003636741,0.000589053,-0.000518619,-5e-05,4.8442e-05,-5e-05
89.0,0.002888785,-0.005191454,0.003636741,0.000589053,-0.000518619,-5e-05,4.8442e-05,-5e-05
90.0,0.002888785,-0.005191454,0.003636741,0.000589053,-0.000518619,-5e-05,4.8442e-05,-5e-05
91.0,0.002888785,-0.005241454,0.003636741,0.000589053,-0.000518619,0.0,4.8442e-05,-5e-05
92.0,0.002888785,-0.005241454,0.003636741,0.000589053,-0.000518619,-5e-05,4.8442e-05,0.0
93.0,0.002888785,-0.005241454,0.003636741,0.000589053,-0.000518619,-5e-05,4.8442e-05,0.0
94.0,0.002888785,-0.005241454,0.003636741,0.000589053,-0.000518619,-5e-05,4.8442e-05,0.0
95.0,0.002888785,-0.005241454,0.003636741,0.000589053,-0.000518619,-5e-05,4.8442e-05,0.0
96.0,0.002888785,-0.005241454,0.003636741,0.000589053,-0.000518619,-5e-05,4.8442e-05,0.0
97.0,0.002888785,-0.005241454,0.003636741,0.000589053,-0.000518619,-5e-05,4.8442e-05,0.0
98.0,0.002888785,-0.005241454,0.003636741,0.000589053,-0.000518619,-5e-05,4.8442e-05,0.0
99.0,0.002888785,-0.005241454,0.003636741,0.000589053,-0.000518619,-5e-05,4.8442e-05,0.0
100.0,0.002888785,-0.005241454,0.003636741,0.000589053,-0.000518619,-5e-05,4.8442e-05,0.0
101.0,0.002888785,-0.005241454,0.003636741,0.000589053,-0.000518619,-5e-05,4.8442e-05,0.0
102.0,0.002888785,-0.005191454,0.003636741,0.000589053,-0.000518619,-5e-05,-1.557e-06,0.0
103.0,0.002888785,-0.005191454,0.003636741,0.000589053,-0.000518619,-5e-05,-1.557e-06,0.0
104.0,0.002888785,-0.005191454,0.003636741,0.000589053,-0.000518619,0.0,-1.557e-06,-5e-05
105.0,0.002888785,-0.005191454,0.003636741,0.000589053,-0.000518619,0.0,-1.557e-06,-5e-05
106.0,0.002888785,-0.005191454,0.003636741,0.000589053,-0.000518619,0.0,-1.557e-06,-5e-05
107.0,0.002888785,-0.005191454,0.003636741,0.000589053,-0.000518619,0.0,-1.557e-06,-5e-05
108.0,0.002888785,-0.005191454,0.003636741,0.000589053,-0.000518619,-5e-05,4.8442e-05,-5e-05
109.0,0.002888785,-0.005191454,0.003636741,0.000639053,-0.000568619,-5e-05,4.8442e-05,-5e-05
110.0,0.002938785,-0.005191454,0.003636741,0.000639053,-0.000568619,-5e-05,-1.557e-06,-5e-05
111.0,0.002938785,-0.005191454,0.003636741,0.000639053,-0.000568619,-5e-05,-1.557e-06,-5e-05
112.0,0.002938785,-0.005191454,0.003636741,0.000639053,-0.000568619,-5e-05,-1.557e-06,-5e-05
113.0,0.002938785,-0.005191454,0.003636741,0.000639053,-0.000568619,-5e-05,-1.557e-06,-5e-05
114.0,0.002938785,-0.005191454,0.003636741,0.000589053,-0.000518619,-5e-05,-1.557e-06,-5e-05
115.0,0.002938785,-0.005191454,0.003636741,0.000589053,-0.000518619,-5e-05,-1.557e-06,-5e-05
116.0,0.002938785,-0.005191454,0.003636741,0.000589053,-0.000518619,-5e-05,-1.557e-06,-5e-05
117.0,0.002938785,-0.005191454,0.003636741,0.000589053,-0.000518619,-5e-05,-1.557e-06,-5e-05
118.0,0.002938785,-0.005191454,0.003636741,0.000589053,-0.000518619,-5e-05,-1.557e-06,-5e-05
119.0,0.002938785,-0.005241454,0.003636741,0.000589053,-0.000518619,0.0,-1.557e-06,-5e-05
120.0,0.002938785,-0.005241454,0.003636741,0.000639053,-0.000568619,0.0,-1.557e-06,-5e-05
121.0,0.002938785,-0.005241454,0.003636741,0.000639053,-0.000568619,0.0,-1.557e-06,-5e-05
122.0,0.002938785,-0.005241454,0.003636741,0.000639053,-0.000568619,0.0,-1.557e-06,-5e-05
123.0,0.002938785,-0.005241454,0.003636741,0.000639053,-0.000568619,0.0,-1.557e-06,-5e-05
124.0,0.002938785,-0.005241454,0.003636741,0.000639053,-0.000568619,0.0,-1.557e-06,-5e-05
125.0,0.002938785,-0.005241454,0.003636741,0.000639053,-0.000568619,-5e-05,-1.557e-06,0.0
126.0,0.002938785,-0.005241454,0.003636741,0.000589053,-0.000518619,-5e-05,-1.557e-06,0.0
127.0,0.002938785,-0.005241454,0.003636741,0.000589053,-0.000518619,0.0,-1.557e-06,-5e-05
128.0,0.002938785,-0.005191454,0.003636741,0.000589053,-0.000518619,-5e-05,-1.557e-06,-5e-05
129.0,0.002938785,-0.005191454,0.003636741,0.000589053,-0.000518619,-5e-05,-1.557e-06,-5e-05
130.0,0.002938785,-0.005191454,0.003636741,0.000589053,-0.000518619,-5e-05,-1.557e-06,-5e-05
131.0,0.002938785,-0.005191454,0.003636741,0.000589053,-0.000518619,-5e-05,-1.557e-06,-5e-05
132.0,0.002938785,-0.005191454,0.003636741,0.000589053,-0.000518619,-5e-05,-1.557e-06,-5e-05
133.0,0.002938785,-0.005191454,0.003636741,0.000589053,-0.000518619,-5e-05,-1.557e-06,-5e-05
134.0,0.002938785,-0.005191454,0.003636741,0.000589053,-0.000518619,-5e-05,-1.557e-06,-5e-05
135.0,0.002938785,-0.005191454,0.003636741,0.000589053,-0.000518619,-5e-05,-1.557e-06,-5e-05
136.0,0.002938785,-0.005191454,0.003636741,0.000589053,-0.000518619,-5e-05,-1.557e-06,-5e-05
137.0,0.002938785,-0.005191454,0.003636741,0.000589053,-0.000518619,-5e-05,-1.557e-06,-5e-05
138.0,0.002938785,-0.005191454,0.003686741,0.000589053,-0.000568619,-5e-05,-1.557e-06,-5e-05
139.0,0.002938785,-0.005191454,0.003686741,0.000589053,-0.000568619,0.0,-5.1557e-05,-5e-05
140.0,0.002938785,-0.005191454,0.003686741,0.000589053,-0.000568619,0.0,-5.1557e-05,-5e-05
141.0,0.002938785,-0.005191454,0.003686741,0.000589053,-0.000568619,0.0,-5.1557e-05,-5e-05
142.0,0.002938785,-0.005191454,0.003686741,0.000589053,-0.000568619,0.0,-5.1557e-05,-5e-05
143.0,0.002938785,-0.005191454,0.003686741,0.000589053,-0.000568619,-5e-05,-5.1557e-05,0.0
144.0,0.002938785,-0.005191454,0.003686741,0.000589053,-0.000568619,0.0,-5.1557e-05,-5e-05
145.0,0.002938785,-0.005191454,0.003686741,0.000589053,-0.000568619,0.0,-5.1557e-05,-5e-05
146.0,0.002938785,-0.005191454,0.003686741,0.000589053,-0.000568619,0.0,-5.1557e-05,-5e-05
147.0,0.002938785,-0.005191454,0.003686741,0.000589053,-0.000568619,0.0,-5.1557e-05,-5e-05
148.0,0.002988785,-0.005191454,0.003686741,0.000589053,-0.000568619,-5e-05,-5.1557e-05,-5e-05
149.0,0.002988785,-0.005191454,0.003686741,0.000589053,-0.000568619,-5e-05,-5.1557e-05,-5e-05
150.0,0.002988785,-0.005191454,0.003686741,0.000589053,-0.000568619,-5e-05,-5.1557e-05,-5e-05
151.0,0.002988785,-0.005241454,0.003686741,0.000589053,-0.000568619,0.0,-5.1557e-05,-5e-05
152.0,0.002988785,-0.005241454,0.003686741,0.000589053,-0.000568619,0.0,-5.1557e-05,-5e-05
153.0,0.002988785,-0.005241454,0.003686741,0.000589053,-0.000568619,0.0,-5.1557e-05,-5e-05
154.0,0.002988785,-0.005241454,0.003686741,0.000589053,-0.000568619,0.0,-5.1557e-05,-5e-05
155.0,0.002988785,-0.005241454,0.003686741,0.000589053,-0.000568619,0.0,-5.1557e-05,-5e-05
156.0,0.002988785,-0.005241454,0.003636802,0.000589053,-0.000568619,0.0,-5.1557e-05,-6.1e-08
157.0,0.002988785,-0.005241454,0.003636802,0.000589053,-0.000568619,0.0,-5.1557e-05,-6.1e-08
158.0,0.002988785,-0.005241454,0.003636802,0.000589053,-0.000568619,0.0,-5.1557e-05,-6.1e-08
159.0,0.002988785,-0.005241454,0.003636802,0.000589053,-0.000568619,0.0,-5.1557e-05,-6.1e-08
160.0,0.002988785,-0.005241454,0.003636802,0.000589053,-0.000568619,0.0,-5.1557e-05,-6.1e-08
161.0,0.002988785,-0.005241454,0.003636802,0.000589053,-0.000568619,0.0,-5.1557e-05,-6.1e-08
162.0,0.002988785,-0.005241454,0.003636802,0.000589053,-0.000518619,0.0,-5.1557e-05,-5.0061e-05
163.0,0.002988785,-0.005241454,0.003636802,0.000589053,-0.000518619,0.0,-5.1557e-05,-5.0061e-05
164.0,0.002988785,-0.005241454,0.003636802,0.000589053,-0.000518619,0.0,-5.1557e-05,-5.0061e-05
165.0,0.002988785,-0.005241454,0.003636802,0.000589053,-0.000518619,0.0,-5.1557e-05,-5.0061e-05
166.0,0.002988785,-0.005241454,0.003636802,0.000589053,-0.000518619,0.0,-5.1557e-05,-5.0061e-05
167.0,0.002988785,-0.005241454,0.003636802,0.000589053,-0.000518619,0.0,-5.1557e-05,-5.0061e-05
168.0,0.002988785,-0.005241454,0.003636802,0.000589053,-0.000518619,-5e-05,-1.557e-06,-5.0061e-05
169.0,0.002988785,-0.005241454,0.003636802,0.000589053,-0.000518619,-5e-05,-1.557e-06,-5.0061e-05
170.0,0.002988785,-0.005241454,0.003636802,0.000639053,-0.000568619,-5e-05,-1.557e-06,-5.0061e-05
171.0,0.002988785,-0.005241454,0.003636802,0.000639053,-0.000568619,-5e-05,-1.557e-06,-5.0061e-05
172.0,0.002988785,-0.005191454,0.003636802,0.000639053,-0.000568619,-5e-05,-1.557e-06,-0.000100061
173.0,0.002938785,-0.005191454,0.003636802,0.000639053,-0.000568619,-5e-05,4.8442e-05,-0.000100061
174.0,0.002938785,-0.005191454,0.003636802,0.000639053,-0.000568619,-5e-05,4.8442e-05,-0.000100061
175.0,0.002988785,-0.005191454,0.003636802,0.000639053,-0.000568619,-5e-05,-1.557e-06,-0.000100061
176.0,0.002988785,-0.005191454,0.003636802,0.000639053,-0.000568619,-5e-05,-1.557e-06,-0.000100061
177.0,0.002988785,-0.005241454,0.003636802,0.000689053,-0.000568619,-5e-05,-1.557e-06,-0.000100061
178.0,0.002988785,-0.005241454,0.003636802,0.000689053,-0.000568619,-5e-05,-1.557e-06,-0.000100061
179.0,0.002988785,-0.005241454,0.003636802,0.000689053,-0.000568619,-0.0001,4.8442e-05,-0.000100061
180.0,0.002938785,-0.005241454,0.003636802,0.000689053,-0.000568619,-0.0001,4.8442e-05,-5.0061e-05
181.0,0.002938785,-0.005241454,0.003636802,0.000689053,-0.000568619,-0.0001,4.8442e-05,-5.0061e-05
182.0,0.002938785,-0.005241454,0.003636802,0.000689053,-0.000568619,-0.0001,4.8442e-05,-5.0061e-05
183.0,0.002938785,-0.005241454,0.003636802,0.000689053,-0.000568619,-0.0001,4.8442e-05,-5.0061e-05
184.0,0.002938785,-0.005241454,0.003686802,0.000689053,-0.000568619,-0.0001,-1.557e-06,-5.0061e-05
185.0,0.002938785,-0.005241454,0.003686802,0.000689053,-0.000568619,-0.0001,-1.557e-06,-5.0061e-05
186.0,0.002938785,-0.005241454,0.003686802,0.000639053,-0.000518619,-0.0001,-1.557e-06,-5.0061e-05
187.0,0.002938785,-0.005241454,0.003686802,0.000639053,-0.000518619,-0.0001,-1.557e-06,-5.0061e-05
188.0,0.002938785,-0.005241454,0.003636803,0.000639053,-0.000518619,-5e-05,-1.559e-06,-5.0061e-05
189.0,0.002938785,-0.005241454,0.003636803,0.000639053,-0.000518619,-5e-05,-1.559e-06,-5.0061e-05
190.0,0.002938785,-0.005241454,0.003636803,0.000639053,-0.000518619,-5e-05,-1.559e-06,-5.0061e-05
191.0,0.002938785,-0.005241454,0.003636803,0.000639053,-0.000518619,-5e-05,-1.559e-06,-5.0061e-05
192.0,0.002938785,-0.005241454,0.003636803,0.000639053,-0.000518619,-5e-05,-1.559e-06,-5.0061e-05
193.0,0.002938785,-0.005241454,0.003636803,0.000639053,-0.000518619,-5e-05,-1.559e-06,-5.0061e-05
194.0,0.002938785,-0.005241454,0.003636803,0.000639053,-0.000518619,-5e-05,-1.559e-06,-5.0061e-05
195.0,0.002938785,-0.005241454,0.003636803,0.000639053,-0.000518619,-5e-05,-1.559e-06,-5.0061e-05
196.0,0.002938785,-0.005241454,0.003636803,0.000639053,-0.000518619,-5e-05,-1.559e-06,-5.0061e-05
197.0,0.002938785,-0.005241454,0.003636803,0.000639053,-0.000518619,-5e-05,-1.559e-06,-5.0061e-05
198.0,0.002938785,-0.005241454,0.003636803,0.000639053,-0.000518619,-5e-05,-1.559e-06,-5.0061e-05
199.0,0.002938785,-0.005241454,0.003686803,0.000589053,-0.000518619,-5e-05,-1.559e-06,-5.0061e-05
200.0,0.002938785,-0.005241454,0.003686803,0.000589053,-0.000518619,-0.0001,4.844e-05,-5.0061e-05
201.0,0.002938785,-0.005241454,0.003686803,0.000589053,-0.000518619,-0.0001,4.844e-05,-5.0061e-05
202.0,0.002938785,-0.005241454,0.003686803,0.000589053,-0.000518619,-0.0001,4.844e-05,-5.0061e-05
203.0,0.002988785,-0.005241454,0.003686803,0.000589053,-0.000518619,-0.0001,4.844e-05,-0.000100061
204.0,0.002988785,-0.005241454,0.003686803,0.000589053,-0.000518619,-0.0001,4.844e-05,-0.000100061
205.0,0.002988785,-0.005241454,0.003686803,0.000589053,-0.000518619,-0.0001,4.844e-05,-0.000100061
206.0,0.002988785,-0.005241454,0.003686803,0.000589053,-0.000518619,-0.0001,4.844e-05,-0.000100061
207.0,0.002988785,-0.005241454,0.003686803,0.000589053,-0.000518619,-0.0001,4.844e-05,-0.000100061
208.0,0.002988785,-0.005241454,0.003686803,0.000589053,-0.000518619,-0.0001,4.844e-05,-0.000100061
209.0,0.002988785,-0.005241454,0.003686803,0.000589053,-0.000518619,-0.0001,4.844e-05,-0.000100061
210.0,0.002988785,-0.005241454,0.003686803,0.000589053,-0.000518619,-0.0001,4.844e-05,-0.000100061
211.0,0.002988785,-0.005241454,0.003686803,0.000589053,-0.000518619,-0.0001,4.844e-05,-0.000100061
212.0,0.002988785,-0.005241454,0.003686803,0.000589053,-0.000518619,-0.0001,4.844e-05,-0.000100061
213.0,0.002988785,-0.005241454,0.003686803,0.000589053,-0.000518619,-0.0001,4.844e-05,-0.000100061
214.0,0.002988785,-0.005241454,0.003686803,0.000589053,-0.000518619,-0.0001,4.844e-05,-0.000100061
215.0,0.002988785,-0.005241454,0.003686803,0.000589053,-0.000518619,-0.0001,4.844e-05,-0.000100061
216.0,0.002988785,-0.005241454,0.003686803,0.000589053,-0.000518619,-0.0001,4.844e-05,-0.000100061
217.0,0.002938785,-0.005241454,0.003686803,0.000589053,-0.000518619,-0.0001,9.844e-05,-0.000100061
218.0,0.002938785,-0.005241454,0.003686803,0.000589053,-0.000518619,-0.0001,9.844e-05,-0.000100061
219.0,0.002938785,-0.005241454,0.003686803,0.000589053,-0.000518619,-0.0001,4.844e-05,-5.0061e-05
220.0,0.002938785,-0.005241454,0.003686803,0.000589053,-0.000518619,-0.0001,4.844e-05,-5.0061e-05
221.0,0.002938785,-0.005241454,0.003686803,0.000589053,-0.000518619,-0.0001,4.844e-05,-5.0061e-05
222.0,0.002938785,-0.005241454,0.003686803,0.000589053,-0.000518619,-0.0001,4.844e-05,-5.0061e-05
223.0,0.002938785,-0.005241454,0.003686803,0.000589053,-0.000518619,-5e-05,-1.559e-06,-5.0061e-05
224.0,0.002938785,-0.005241454,0.003686803,0.000589053,-0.000518619,-5e-05,-1.559e-06,-5.0061e-05
225.0,0.002938785,-0.005241454,0.003686803,0.000589053,-0.000518619,-5e-05,-1.559e-06,-5.0061e-05
226.0,0.002938785,-0.005241454,0.003686803,0.000589053,-0.000518619,-5e-05,-1.559e-06,-5.0061e-05
227.0,0.002938785,-0.005241454,0.003686803,0.000589053,-0.000518619,-5e-05,-1.559e-06,-5.0061e-05
228.0,0.002938785,-0.005241454,0.003686803,0.000589053,-0.000518619,-5e-05,-1.559e-06,-5.0061e-05
229.0,0.002938785,-0.005241454,0.003686803,0.000589053,-0.000518619,-5e-05,-1.559e-06,-5.0061e-05
230.0,0.002938785,-0.005241454,0.003636803,0.000589053,-0.000468619,-5e-05,-1.559e-06,-5.0061e-05
231.0,0.002938785,-0.005241454,0.003636803,0.000589053,-0.000468619,-5e-05,-1.559e-06,-5.0061e-05
232.0,0.002938785,-0.005241454,0.003636803,0.000589053,-0.000468619,-5e-05,-1.559e-06,-5.0061e-05
233.0,0.002938785,-0.005241454,0.003636803,0.000589053,-0.000468619,-5e-05,-1.559e-06,-5.0061e-05
234.0,0.002938785,-0.005241454,0.003636803,0.000589053,-0.000468619,-5e-05,-1.559e-06,-5.0061e-05
235.0,0.002938785,-0.005241454,0.003636803,0.000589053,-0.000468619,-5e-05,-1.559e-06,-5.0061e-05
236.0,0.002938785,-0.005241454,0.003586803,0.000639053,-0.000468619,-5e-05,-1.559e-06,-5.0061e-05
237.0,0.002938785,-0.005241454,0.003586803,0.000639053,-0.000468619,-5e-05,-1.559e-06,-5.0061e-05
238.0,0.002938785,-0.005241454,0.003586803,0.000639053,-0.000468619,-0.0001,4.844e-05,-5.0061e-05
239.0,0.002938785,-0.005241454,0.003586803,0.000639053,-0.000468619,-0.0001,4.844e-05,-5.0061e-05
240.0,0.002938785,-0.005241454,0.003586803,0.000639053,-0.000468619,-5e-05,-1.559e-06,-5.0061e-05
241.0,0.002938785,-0.005241454,0.003586803,0.000639053,-0.000468619,-0.0001,4.844e-05,-5.0061e-05
242.0,0.002938785,-0.005241454,0.003586803,0.000639053,-0.000468619,-0.0001,4.844e-05,-5.0061e-05
243.0,0.002938785,-0.005241454,0.003586803,0.000639053,-0.000468619,-0.0001,4.844e-05,-5.0061e-05
244.0,0.002938785,-0.005241454,0.003586803,0.000639053,-0.000468619,-0.0001,4.844e-05,-5.0061e-05
245.0,0.002938785,-0.005241454,0.003586803,0.000639053,-0.000468619,-0.0001,4.844e-05,-5.0061e-05
246.0,0.002938785,-0.005241454,0.003586803,0.000639053,-0.000468619,-0.0001,4.844e-05,-5.0061e-05
247.0,0.002938785,-0.005241454,0.003586803,0.000639053,-0.000468619,-5e-05,-1.559e-06,-5.0061e-05
248.0,0.002938785,-0.005241454,0.003586803,0.000639053,-0.000468619,-5e-05,-1.559e-06,-5.0061e-05
249.0,0.002938785,-0.005241454,0.003586803,0.000639053,-0.000468619,-5e-05,-1.559e-06,-5.0061e-05
250.0,0.002938785,-0.005241454,0.003636803,0.000639053,-0.000468619,-5e-05,-1.559e-06,-0.000100061
251.0,0.002938785,-0.005241454,0.003636803,0.000639053,-0.000468619,-5e-05,-1.559e-06,-0.000100061
252.0,0.002938785,-0.005241454,0.003636803,0.000639053,-0.000468619,-5e-05,-1.559e-06,-0.000100061
253.0,0.002938785,-0.005241454,0.003636803,0.000639053,-0.000468619,-5e-05,-1.559e-06,-0.000100061
254.0,0.002938785,-0.005241454,0.003636803,0.000639053,-0.000468619,-5e-05,-1.559e-06,-0.000100061
255.0,0.002938785,-0.005241454,0.003636803,0.000639053,-0.000468619,-5e-05,-1.559e-06,-0.000100061
256.0,0.002938785,-0.005241454,0.003636803,0.000639053,-0.000468619,-5e-05,-1.559e-06,-0.000100061
257.0,0.002938785,-0.005241454,0.003636803,0.000639053,-0.000468619,-5e-05,-1.559e-06,-0.000100061
258.0,0.002938785,-0.005241454,0.003636803,0.000639053,-0.000468619,-5e-05,-1.559e-06,-0.000100061
259.0,0.002938785,-0.005241454,0.003636803,0.000639053,-0.000468619,-5e-05,-1.559e-06,-0.000100061
260.0,0.002938785,-0.005241454,0.003636803,0.000639053,-0.000468619,-5e-05,-1.559e-06,-0.000100061
261.0,0.002938785,-0.005241454,0.003636803,0.000639053,-0.000468619,-5e-05,-1.559e-06,-0.000100061
262.0,0.002938785,-0.005241454,0.003636803,0.000639053,-0.000468619,-5e-05,-1.559e-06,-0.000100061
263.0,0.002938785,-0.005241454,0.003636803,0.000639053,-0.000468619,-0.0001,4.844e-05,-0.000100061
264.0,0.002938785,-0.005241454,0.003636803,0.000639053,-0.000468619,-0.0001,4.844e-05,-0.000100061
265.0,0.002938785,-0.005241454,0.003636803,0.000639053,-0.000468619,-0.0001,4.844e-05,-0.000100061
266.0,0.002938785,-0.005241454,0.003636803,0.000639053,-0.000468619,-0.0001,4.844e-05,-0.000100061
267.0,0.002938785,-0.005241454,0.003636803,0.000639053,-0.000468619,-0.0001,4.844e-05,-0.000100061
268.0,0.002938785,-0.005241454,0.003636803,0.000639053,-0.000468619,-0.0001,4.844e-05,-0.000100061
269.0,0.002938785,-0.005241454,0.003636803,0.000639053,-0.000468619,-5e-05,-1.559e-06,-0.000100061
270.0,0.002938785,-0.005241454,0.003636803,0.000639053,-0.000468619,-5e-05,-1.559e-06,-0.000100061
271.0,0.002938785,-0.005241454,0.003636803,0.000639053,-0.000468619,-5e-05,-1.559e-06,-0.000100061
272.0,0.002938785,-0.005241454,0.003636803,0.000639053,-0.000468619,-5e-05,-1.559e-06,-0.000100061
273.0,0.002938785,-0.005241454,0.003636803,0.000639053,-0.000468619,-5e-05,-1.559e-06,-0.000100061
274.0,0.002938785,-0.005241454,0.003636803,0.000639053,-0.000468619,-5e-05,-1.559e-06,-0.000100061
275.0,0.002938785,-0.005241454,0.003636803,0.000639053,-0.000468619,-5e-05,-1.559e-06,-0.000100061
276.0,0.002938785,-0.005241454,0.003636803,0.000639053,-0.000468619,-5e-05,-1.559e-06,-0.000100061
277.0,0.002938785,-0.005241454,0.003686803,0.000639053,-0.000518619,-5e-05,-1.559e-06,-0.000100061
278.0,0.002938785,-0.005241454,0.003686803,0.000639053,-0.000518619,-5e-05,-1.559e-06,-0.000100061
279.0,0.002938785,-0.005241454,0.003686803,0.000639053,-0.000518619,-5e-05,-1.559e-06,-0.000100061
280.0,0.002938785,-0.005241454,0.003686803,0.000639053,-0.000518619,-5e-05,-1.559e-06,-0.000100061
281.0,0.002938785,-0.005241454,0.003686803,0.000639053,-0.000518619,-5e-05,-1.559e-06,-0.000100061
282.0,0.002938785,-0.005241454,0.003686803,0.000639053,-0.000518619,-5e-05,-1.559e-06,-0.000100061
283.0,0.002938785,-0.005241454,0.003686803,0.000639053,-0.000518619,-5e-05,-1.559e-06,-0.000100061
284.0,0.002938785,-0.005241454,0.003686803,0.000639053,-0.000518619,-5e-05,-1.559e-06,-0.000100061
285.0,0.002938785,-0.005241454,0.003686803,0.000639053,-0.000518619,-5e-05,-1.559e-06,-0.000100061
286.0,0.002938785,-0.005241454,0.003686803,0.000639053,-0.000518619,-5e-05,-1.559e-06,-0.000100061
287.0,0.002938785,-0.005241454,0.003686803,0.000639053,-0.000518619,-5e-05,-1.559e-06,-0.000100061
288.0,0.002938785,-0.005241454,0.003686803,0.000639053,-0.000518619,-5e-05,-1.559e-06,-0.000100061
289.0,0.002938785,-0.005241454,0.003686803,0.000639053,-0.000518619,-0.0001,4.844e-05,-0.000100061
290.0,0.002938785,-0.005241454,0.003686803,0.000639053,-0.000518619,-0.0001,4.844e-05,-0.000100061
291.0,0.002938785,-0.005241454,0.003686803,0.000639053,-0.000518619,-5e-05,-1.559e-06,-0.000100061
292.0,0.002938785,-0.005241454,0.003686803,0.000639053,-0.000518619,-5e-05,-1.559e-06,-0.000100061
293.0,0.002938785,-0.005241454,0.003686803,0.000639053,-0.000518619,-0.0001,4.844e-05,-0.000100061
294.0,0.002938785,-0.005241454,0.003686803,0.000639053,-0.000518619,-0.0001,4.844e-05,-0.000100061
295.0,0.002938785,-0.005241454,0.003686803,0.000639053,-0.000518619,-0.0001,4.844e-05,-0.000100061
296.0,0.002938785,-0.005241454,0.003686803,0.000639053,-0.000518619,-0.0001,4.844e-05,-0.000100061
297.0,0.002938785,-0.005241454,0.003686803,0.000639053,-0.000518619,-5e-05,-1.559e-06,-0.000100061
298.0,0.002938785,-0.005241454,0.003686803,0.000589053,-0.000468619,-5e-05,-1.559e-06,-0.000100061
299.0,0.002938785,-0.005241454,0.003686803,0.000589053,-0.000468619,-5e-05,-1.559e-06,-0.000100061
300.0,0.002938785,-0.005241454,0.003686803,0.000589053,-0.000468619,-0.0001,4.844e-05,-0.000100061
301.0,0.002938785,-0.005241454,0.003686803,0.000589053,-0.000468619,-5e-05,-1.559e-06,-0.000100061
302.0,0.002938785,-0.005241454,0.003686803,0.000589053,-0.000468619,-5e-05,-1.559e-06,-0.000100061
303.0,0.002938785,-0.005241454,0.003686803,0.000589053,-0.000468619,-5e-05,-1.559e-06,-0.000100061
304.0,0.002938785,-0.005241454,0.003686803,0.000589053,-0.000468619,-5e-05,-1.559e-06,-0.000100061
305.0,0.002938785,-0.005241454,0.003686803,0.000589053,-0.000468619,-5e-05,-1.559e-06,-0.000100061
306.0,0.002938785,-0.005241454,0.003686803,0.000589053,-0.000468619,-5e-05,-1.559e-06,-0.000100061
307.0,0.002938785,-0.005241454,0.003686803,0.000589053,-0.000468619,-5e-05,-1.559e-06,-0.000100061
308.0,0.002938785,-0.005241454,0.003686803,0.000589053,-0.000468619,-5e-05,-1.559e-06,-0.000100061
309.0,0.002938785,-0.005241454,0.003686803,0.000589053,-0.000468619,-5e-05,-1.559e-06,-0.000100061
310.0,0.002938785,-0.005241454,0.003686803,0.000589053,-0.000468619,-5e-05,-1.559e-06,-0.000100061
311.0,0.002938785,-0.005241454,0.003686803,0.000589053,-0.000468619,-5e-05,-1.559e-06,-0.000100061
312.0,0.002938785,-0.005241454,0.003686803,0.000589053,-0.000468619,-5e-05,-1.559e-06,-0.000100061
313.0,0.002938785,-0.005241454,0.003686803,0.000589053,-0.000468619,-5e-05,-1.559e-06,-0.000100061
314.0,0.002938785,-0.005241454,0.003686803,0.000589053,-0.000468619,-5e-05,-1.559e-06,-0.000100061
315.0,0.002938785,-0.005241454,0.003686803,0.000589053,-0.000468619,-5e-05,-1.559e-06,-0.000100061
316.0,0.002938785,-0.005241454,0.003686803,0.000589053,-0.000468619,-5e-05,-1.559e-06,-0.000100061
317.0,0.002938785,-0.005241454,0.003686803,0.000589053,-0.000468619,-5e-05,-1.559e-06,-0.000100061
318.0,0.002938785,-0.005241454,0.003686803,0.000589053,-0.000468619,-5e-05,-1.559e-06,-0.000100061
319.0,0.002938785,-0.005241454,0.003686803,0.000589053,-0.000468619,-5e-05,-1.559e-06,-0.000100061
320.0,0.002938785,-0.005241454,0.003686803,0.000589053,-0.000468619,-5e-05,-1.559e-06,-0.000100061
321.0,0.002938785,-0.005241454,0.003686803,0.000589053,-0.000468619,-5e-05,-1.559e-06,-0.000100061
322.0,0.002938785,-0.005241454,0.003686803,0.000589053,-0.000468619,-0.0001,4.844e-05,-0.000100061
323.0,0.002938785,-0.005241454,0.003686803,0.000589053,-0.000468619,-0.0001,4.844e-05,-0.000100061
324.0,0.002938785,-0.005241454,0.003686803,0.000589053,-0.000468619,-0.0001,4.844e-05,-0.000100061
325.0,0.002938785,-0.005241454,0.003686803,0.000589053,-0.000468619,-0.0001,4.844e-05,-0.000100061
326.0,0.002938785,-0.005191454,0.003686803,0.000589053,-0.000468619,-0.0001,-1.559e-06,-0.000100061
327.0,0.002888785,-0.005191454,0.003686803,0.000589053,-0.000468619,-5e-05,-1.559e-06,-0.000100061
328.0,0.002888785,-0.005191454,0.003686803,0.000589053,-0.000468619,-5e-05,-1.559e-06,-0.000100061
329.0,0.002888785,-0.005191454,0.003686803,0.000589053,-0.000468619,-5e-05,-1.559e-06,-0.000100061
330.0,0.002938785,-0.005191454,0.003686803,0.000589053,-0.000468619,-0.0001,-1.559e-06,-0.000100061
331.0,0.002938785,-0.005191454,0.003686803,0.000589053,-0.000468619,-0.0001,-1.559e-06,-0.000100061
332.0,0.002938785,-0.005191454,0.003686803,0.000589053,-0.000468619,-0.0001,-1.559e-06,-0.000100061
333.0,0.002938785,-0.005191454,0.003636803,0.000589053,-0.000468619,-0.0001,4.844e-05,-0.000100061
334.0,0.002938785,-0.005191454,0.003636803,0.000589053,-0.000468619,-0.0001,4.844e-05,-0.000100061
335.0,0.002938785,-0.005191454,0.003636803,0.000589053,-0.000468619,-0.0001,4.844e-05,-0.000100061
336.0,0.002938785,-0.005191454,0.003636803,0.000589053,-0.000468619,-0.0001,4.844e-05,-0.000100061
337.0,0.002938785,-0.005191454,0.003686803,0.000589053,-0.000468619,-0.0001,-1.559e-06,-0.000100061
338.0,0.002888785,-0.005191454,0.003686803,0.000589053,-0.000468619,-0.0001,-1.559e-06,-5.0061e-05
339.0,0.002888785,-0.005191454,0.003686803,0.000589053,-0.000468619,-0.0001,-1.559e-06,-5.0061e-05
340.0,0.002888785,-0.005191454,0.003686803,0.000589053,-0.000468619,-0.0001,-1.559e-06,-5.0061e-05
341.0,0.002888785,-0.005191454,0.003686803,0.000589053,-0.000468619,-0.0001,-1.559e-06,-5.0061e-05
342.0,0.002888785,-0.005191454,0.003686803,0.000589053,-0.000468619,-0.0001,-1.559e-06,-5.0061e-05
343.0,0.002888785,-0.005191454,0.003686803,0.000589053,-0.000468619,-0.0001,-1.559e-06,-5.0061e-05
344.0,0.002888785,-0.005191454,0.003686803,0.000589053,-0.000468619,-0.0001,-1.559e-06,-5.0061e-05
345.0,0.002888785,-0.005191454,0.003686803,0.000589053,-0.000468619,-5e-05,-1.559e-06,-0.000100061
346.0,0.002888785,-0.005241454,0.003686803,0.000639053,-0.000468619,-5e-05,-1.559e-06,-0.000100061
347.0,0.002888785,-0.005241454,0.003686803,0.000639053,-0.000468619,-5e-05,-1.559e-06,-0.000100061
348.0,0.002888785,-0.005191454,0.003686803,0.000589053,-0.000468619,-5e-05,-1.559e-06,-0.000100061
349.0,0.002888785,-0.005191454,0.003686803,0.000589053,-0.000468619,-5e-05,-1.559e-06,-0.000100061
350.0,0.002888785,-0.005191454,0.003686803,0.000589053,-0.000468619,-0.0001,4.844e-05,-0.000100061
351.0,0.002888785,-0.005191454,0.003686803,0.000589053,-0.000468619,-0.0001,4.844e-05,-0.000100061
352.0,0.002888785,-0.005191454,0.003686803,0.000589053,-0.000468619,-0.0001,4.844e-05,-0.000100061
353.0,0.002888785,-0.005191454,0.003686803,0.000589053,-0.000468619,-0.0001,4.844e-05,-0.000100061
354.0,0.002888785,-0.005191454,0.003686803,0.000589053,-0.000468619,-5e-05,-1.559e-06,-0.000100061
355.0,0.002888785,-0.005191454,0.003686803,0.000589053,-0.000468619,-5e-05,-1.559e-06,-0.000100061
356.0,0.002888785,-0.005241454,0.003686803,0.000589053,-0.000468619,-5e-05,4.844e-05,-0.000100061
357.0,0.002888785,-0.005241454,0.003686803,0.000589053,-0.000468619,-5e-05,4.844e-05,-0.000100061
358.0,0.002888785,-0.005241454,0.003686803,0.000589053,-0.000468619,-5e-05,4.844e-05,-0.000100061
359.0,0.002888785,-0.005241454,0.003686803,0.000589053,-0.000468619,-0.0001,4.844e-05,-5.0061e-05
360.0,0.002888785,-0.005241454,0.003686803,0.000589053,-0.000468619,-0.0001,4.844e-05,-5.0061e-05
361.0,0.002888785,-0.005241454,0.003686803,0.000639053,-0.000518619,-0.0001,4.844e-05,-5.0061e-05
362.0,0.002888785,-0.005241454,0.003686803,0.000639053,-0.000518619,-5e-05,-1.559e-06,-5.0061e-05
363.0,0.002888785,-0.005241454,0.003686803,0.000639053,-0.000518619,-5e-05,-1.559e-06,-5.0061e-05
364.0,0.002888785,-0.005241454,0.003686803,0.000589053,-0.000468619,-5e-05,-1.559e-06,-5.0061e-05
365.0,0.002888785,-0.005241454,0.003686803,0.000589053,-0.000468619,-5e-05,-1.559e-06,-5.0061e-05
366.0,0.002888785,-0.005241454,0.003686803,0.000589053,-0.000468619,-5e-05,-1.559e-06,-5.0061e-05
367.0,0.002888785,-0.005191454,0.003686803,0.000589053,-0.000518619,-5e-05,-1.559e-06,-5.0061e-05
368.0,0.002888785,-0.005191454,0.003686803,0.000589053,-0.000518619,-5e-05,-1.559e-06,-5.0061e-05
369.0,0.002888785,-0.005191454,0.003686803,0.000589053,-0.000518619,-5e-05,-1.559e-06,-5.0061e-05
370.0,0.002888785,-0.005191454,0.003686803,0.000589053,-0.000518619,-5e-05,-1.559e-06,-5.0061e-05
371.0,0.002888785,-0.005191454,0.003686803,0.000589053,-0.000518619,-5e-05,-1.559e-06,-5.0061e-05
372.0,0.002888785,-0.005191454,0.003686803,0.000589053,-0.000518619,-5e-05,-1.559e-06,-5.0061e-05
373.0,0.002888785,-0.005191454,0.003686803,0.000589053,-0.000518619,-5e-05,-1.559e-06,-5.0061e-05
374.0,0.002888785,-0.005191454,0.003686803,0.000589053,-0.000518619,-5e-05,-1.559e-06,-5.0061e-05
375.0,0.002888785,-0.005191454,0.003686803,0.000589053,-0.000518619,-5e-05,-1.559e-06,-5.0061e-05
376.0,0.002938785,-0.005191454,0.003686803,0.000589053,-0.000518619,-5e-05,-1.559e-06,-0.000100061
377.0,0.002938785,-0.005191454,0.003686803,0.000589053,-0.000518619,-5e-05,-1.559e-06,-0.000100061
378.0,0.002938785,-0.005191454,0.003686803,0.000589053,-0.000518619,-5e-05,-1.559e-06,-0.000100061
379.0,0.002938785,-0.005191454,0.003686803,0.000589053,-0.000518619,-5e-05,-1.559e-06,-0.000100061
380.0,0.002938785,-0.005191454,0.003686803,0.000589053,-0.000518619,-5e-05,-1.559e-06,-0.000100061
381.0,0.002938785,-0.005141454,0.003686803,0.000589053,-0.000518619,-5e-05,-5.1559e-05,-0.000100061
382.0,0.002938785,-0.005191454,0.003686803,0.000639053,-0.000518619,-5e-05,-5.1559e-05,-0.000100061
383.0,0.002938785,-0.005191454,0.003686803,0.000639053,-0.000518619,-5e-05,-5.1559e-05,-0.000100061
384.0,0.002938785,-0.005191454,0.003686803,0.000639053,-0.000518619,-5e-05,-5.1559e-05,-0.000100061
385.0,0.002938785,-0.005191454,0.003686803,0.000639053,-0.000518619,-5e-05,-5.1559e-05,-0.000100061
386.0,0.002938785,-0.005191454,0.003686803,0.000639053,-0.000518619,-5e-05,-5.1559e-05,-0.000100061
387.0,0.002938785,-0.005191454,0.003686803,0.000639053,-0.000518619,-5e-05,-5.1559e-05,-0.000100061
388.0,0.002938785,-0.005191454,0.003686803,0.000639053,-0.000518619,-5e-05,-5.1559e-05,-0.000100061
389.0,0.002938785,-0.005191454,0.003686803,0.000639053,-0.000518619,-5e-05,-5.1559e-05,-0.000100061
390.0,0.002938785,-0.005191454,0.003686803,0.000639053,-0.000518619,-5e-05,-5.1559e-05,-0.000100061
391.0,0.002938785,-0.005191454,0.003686803,0.000639053,-0.000518619,-5e-05,-5.1559e-05,-0.000100061
392.0,0.002938785,-0.005191454,0.003686803,0.000639053,-0.000518619,-0.0001,-1.559e-06,-0.000100061
393.0,0.002938785,-0.005191454,0.003686803,0.000639053,-0.000518619,-0.0001,-1.559e-06,-0.000100061
394.0,0.002938785,-0.005191454,0.003686803,0.000639053,-0.000518619,-0.0001,-1.559e-06,-0.000100061
395.0,0.002938785,-0.005241454,0.003686803,0.000639053,-0.000518619,-5e-05,-1.559e-06,-0.000100061
396.0,0.002938785,-0.005241454,0.003686803,0.000639053,-0.000518619,-5e-05,-1.559e-06,-0.000100061
397.0,0.002938785,-0.005241454,0.003686803,0.000639053,-0.000518619,-5e-05,-1.559e-06,-0.000100061
398.0,0.002938785,-0.005241454,0.003686803,0.000639053,-0.000518619,-5e-05,-1.559e-06,-0.000100061
399.0,0.002938785,-0.005241454,0.003686803,0.000639053,-0.000518619,-5e-05,-1.559e-06,-0.000100061
400.0,0.002938785,-0.005241454,0.003686803,0.000639053,-0.000518619,-5e-05,-1.559e-06,-0.000100061
401.0,0.002938785,-0.005241454,0.003686803,0.000639053,-0.000518619,-5e-05,-1.559e-06,-0.000100061
402.0,0.002988785,-0.005291454,0.003686803,0.000639053,-0.000518619,-5e-05,-1.559e-06,-0.000100061
403.0,0.002988785,-0.005291454,0.003686803,0.000639053,-0.000518619,-5e-05,-1.559e-06,-0.000100061
404.0,0.002988785,-0.005291454,0.003686803,0.000639053,-0.000518619,-5e-05,-1.559e-06,-0.000100061
405.0,0.002938785,-0.005291454,0.003686803,0.000639053,-0.000518619,-5e-05,-1.559e-06,-5.0061e-05
406.0,0.002938785,-0.005291454,0.003686803,0.000639053,-0.000518619,-5e-05,-1.559e-06,-5.0061e-05
407.0,0.002938785,-0.005291454,0.003686803,0.000639053,-0.000518619,-5e-05,-1.559e-06,-5.0061e-05
408.0,0.002938785,-0.005291454,0.003686803,0.000639053,-0.000518619,-5e-05,-1.559e-06,-5.0061e-05
409.0,0.002938808,-0.005291454,0.003686803,0.000639053,-0.000518619,-5e-05,-1.559e-06,-5.0084e-05
410.0,0.002938808,-0.005291454,0.003686803,0.000639053,-0.000518619,-5e-05,-1.559e-06,-5.0084e-05
411.0,0.002938808,-0.005291454,0.003686803,0.000639053,-0.000518619,0.0,-1.559e-06,-0.000100084
412.0,0.002938808,-0.005291454,0.003686803,0.000639053,-0.000518619,0.0,-1.559e-06,-0.000100084
413.0,0.002938808,-0.005291454,0.003686803,0.000639053,-0.000518619,0.0,-1.559e-06,-0.000100084
414.0,0.002938808,-0.005291454,0.003686803,0.000639053,-0.000518619,0.0,-1.559e-06,-0.000100084
415.0,0.002938808,-0.005291454,0.003686803,0.000589053,-0.000468619,0.0,-1.559e-06,-0.000100084
416.0,0.002988808,-0.005291454,0.003686803,0.000589053,-0.000468619,0.0,-1.559e-06,-0.000150084
417.0,0.002988808,-0.005291454,0.003686803,0.000639053,-0.000518619,0.0,-1.559e-06,-0.000150084
418.0,0.002988808,-0.005291454,0.003686803,0.000639053,-0.000518619,0.0,-1.559e-06,-0.000150084
419.0,0.002988808,-0.005291454,0.003686803,0.000639053,-0.000518619,0.0,-1.559e-06,-0.000150084
420.0,0.002988808,-0.005291454,0.003686803,0.000639053,-0.000518619,0.0,-1.559e-06,-0.000150084
421.0,0.002988808,-0.005291454,0.003686803,0.000639053,-0.000518619,-5e-05,4.844e-05,-0.000150084
422.0,0.002988808,-0.005291454,0.003686803,0.000639053,-0.000518619,-5e-05,4.844e-05,-0.000150084
423.0,0.002988808,-0.005291454,0.003686803,0.000639053,-0.000518619,-5e-05,4.844e-05,-0.000150084
424.0,0.002988808,-0.005291454,0.003686803,0.000639053,-0.000518619,-5e-05,4.844e-05,-0.000150084
425.0,0.002988808,-0.005291454,0.003686803,0.000639053,-0.000518619,-5e-05,4.844e-05,-0.000150084
426.0,0.002988808,-0.005291454,0.003686803,0.000589053,-0.000468619,-5e-05,4.844e-05,-0.000150084
427.0,0.002988808,-0.005291454,0.003686803,0.000589053,-0.000468619,-0.0001,4.844e-05,-0.000100084
428.0,0.002988808,-0.005291454,0.003686803,0.000589053,-0.000468619,-0.0001,4.844e-05,-0.000100084
429.0,0.002988808,-0.005291454,0.003686803,0.000589056,-0.000468619,-0.0001,4.8436e-05,-0.000100084
430.0,0.002988808,-0.005291454,0.003686803,0.000589056,-0.000468619,-5e-05,-1.563e-06,-0.000100084
431.0,0.002988808,-0.005291454,0.003686803,0.000589056,-0.000468619,-5e-05,-1.563e-06,-0.000100084
432.0,0.002988808,-0.005286203,0.003686803,0.000589056,-0.000468619,-5.5252e-05,-1.563e-06,-0.000100084
433.0,0.002988808,-0.005286203,0.003686803,0.000589056,-0.000468619,-5.5252e-05,-1.563e-06,-0.000100084
434.0,0.002988808,-0.005286203,0.003686803,0.000589056,-0.000468619,-5.5252e-05,-1.563e-06,-0.000100084
435.0,0.002988808,-0.005236203,0.003686803,0.000589056,-0.000468619,-0.000105252,-1.563e-06,-0.000100084
436.0,0.002988808,-0.005236203,0.003686803,0.000589056,-0.000468619,-0.000105252,-1.563e-06,-0.000100084
437.0,0.002988808,-0.005236203,0.003686803,0.000589056,-0.000468619,-0.000105252,-1.563e-06,-0.000100084
438.0,0.002988808,-0.005236203,0.003686803,0.000589056,-0.000468619,-0.000105252,-1.563e-06,-0.000100084
439.0,0.002988808,-0.005236203,0.003686803,0.000589056,-0.000468619,-0.000105252,-1.563e-06,-0.000100084
440.0,0.002988808,-0.005236203,0.003686803,0.000589056,-0.000468619,-0.000105252,-1.563e-06,-0.000100084
441.0,0.002938808,-0.005236203,0.003686803,0.000589056,-0.000468619,-0.000105252,4.8436e-05,-0.000100084
442.0,0.002988808,-0.005236203,0.003686803,0.000589056,-0.000468619,-0.000105252,-1.563e-06,-0.000100084
443.0,0.002988808,-0.005236203,0.003686803,0.000589056,-0.000468619,-0.000105252,-1.563e-06,-0.000100084
444.0,0.002988808,-0.005236203,0.003686803,0.000589056,-0.000468619,-0.000105252,-1.563e-06,-0.000100084
445.0,0.002988808,-0.005236203,0.003686803,0.000589056,-0.000468619,-0.000105252,-1.563e-06,-0.000100084
446.0,0.002988808,-0.005236203,0.003686803,0.000589056,-0.000468619,-0.000105252,-1.563e-06,-0.000100084
447.0,0.002988808,-0.005286203,0.003686803,0.000589056,-0.000468619,-0.000105252,4.8436e-05,-0.000100084
448.0,0.002988808,-0.005286203,0.003686803,0.000589056,-0.000468619,-0.000105252,4.8436e-05,-0.000100084
449.0,0.002988808,-0.005286203,0.003686803,0.000589056,-0.000468619,-0.000105252,4.8436e-05,-0.000100084
450.0,0.002988808,-0.005286203,0.003686803,0.000589056,-0.000468619,-0.000105252,4.8436e-05,-0.000100084
451.0,0.002988808,-0.005286203,0.003686803,0.000589056,-0.000468619,-0.000105252,4.8436e-05,-0.000100084
452.0,0.002988808,-0.005286203,0.003686803,0.000589056,-0.000468619,-0.000105252,4.8436e-05,-0.000100084
453.0,0.002988808,-0.005286203,0.003686803,0.000589056,-0.000468619,-5.5252e-05,-1.563e-06,-0.000100084
454.0,0.002988808,-0.005286203,0.003686803,0.000589056,-0.000468619,-5.5252e-05,-1.563e-06,-0.000100084
455.0,0.002988808,-0.005286203,0.003686803,0.000589056,-0.000468619,-5.5252e-05,-1.563e-06,-0.000100084
456.0,0.002988808,-0.005286203,0.003686803,0.000589056,-0.000468619,-5.5252e-05,-1.563e-06,-0.000100084
457.0,0.002988808,-0.005286203,0.003686803,0.000639056,-0.000518619,-5.5252e-05,-1.563e-06,-0.000100084
458.0,0.002988808,-0.005286203,0.003686803,0.000639056,-0.000518619,-5.5252e-05,-1.563e-06,-0.000100084
459.0,0.002988808,-0.005286203,0.003686803,0.000639056,-0.000518619,-5.5252e-05,-1.563e-06,-0.000100084
460.0,0.002988808,-0.005286203,0.003686803,0.000639056,-0.000518619,-5.5252e-05,-1.563e-06,-0.000100084
461.0,0.002988808,-0.005286203,0.003686803,0.000639056,-0.000518619,-5.5252e-05,-1.563e-06,-0.000100084
462.0,0.002988808,-0.005286203,0.003686803,0.000639056,-0.000518619,-5.5252e-05,-1.563e-06,-0.000100084
463.0,0.002988808,-0.005286203,0.003686803,0.000639056,-0.000518619,-5.5252e-05,-1.563e-06,-0.000100084
464.0,0.002988808,-0.005286203,0.003686803,0.000589056,-0.000468619,-5.5252e-05,-1.563e-06,-0.000100084
465.0,0.002988808,-0.005286203,0.003686803,0.000589056,-0.000468619,-5.5252e-05,-1.563e-06,-0.000100084
466.0,0.002988808,-0.005286203,0.003686803,0.000589056,-0.000468619,-0.000105252,4.8436e-05,-0.000100084
467.0,0.002988808,-0.005286203,0.003686803,0.000589056,-0.000468619,-0.000105252,4.8436e-05,-0.000100084
468.0,0.002988808,-0.005286203,0.003686803,0.000589056,-0.000468619,-0.000105252,4.8436e-05,-0.000100084
469.0,0.002988808,-0.005286203,0.003686803,0.000589056,-0.000468619,-0.000105252,4.8436e-05,-0.000100084
470.0,0.002988808,-0.005286203,0.003686803,0.000589056,-0.000468619,-0.000105252,4.8436e-05,-0.000100084
471.0,0.002988808,-0.005286203,0.003686803,0.000589056,-0.000468619,-0.000105252,4.8436e-05,-0.000100084
472.0,0.002988808,-0.005286203,0.003686803,0.000589056,-0.000468619,-0.000105252,4.8436e-05,-0.000100084
473.0,0.002988808,-0.005286203,0.003686803,0.000589056,-0.000468619,-0.000105252,4.8436e-05,-0.000100084
474.0,0.002988808,-0.005286203,0.003686803,0.000589056,-0.000468619,-0.000105252,4.8436e-05,-0.000100084
475.0,0.002988808,-0.005286203,0.003686803,0.000589056,-0.000468619,-0.000105252,4.8436e-05,-0.000100084
476.0,0.002988808,-0.005286203,0.003686803,0.000589056,-0.000468619,-0.000105252,4.8436e-05,-0.000100084
477.0,0.002988808,-0.005286203,0.003686803,0.000589056,-0.000468619,-0.000105252,4.8436e-05,-0.000100084
478.0,0.002988808,-0.005286203,0.003686803,0.000589056,-0.000468619,-0.000105252,4.8436e-05,-0.000100084
479.0,0.002988808,-0.005286203,0.003686803,0.000589056,-0.000468619,-0.000105252,4.8436e-05,-0.000100084
480.0,0.002988808,-0.005286203,0.003686803,0.000589056,-0.000468619,-0.000105252,4.8436e-05,-0.000100084
481.0,0.002988808,-0.005286203,0.003686803,0.000589056,-0.000468619,-0.000105252,4.8436e-05,-0.000100084
482.0,0.002988808,-0.005286203,0.003686803,0.000589056,-0.000468619,-0.000105252,4.8436e-05,-0.000100084
483.0,0.002988808,-0.005336203,0.003686803,0.000589056,-0.000468619,-5.5252e-05,4.8436e-05,-0.000100084
484.0,0.002988808,-0.005336203,0.003686803,0.000589056,-0.000468619,-5.5252e-05,4.8436e-05,-0.000100084
485.0,0.002988808,-0.005336203,0.003686803,0.000589056,-0.000468619,-5.5252e-05,4.8436e-05,-0.000100084
486.0,0.002988808,-0.005336203,0.003686803,0.000589056,-0.000468619,-5.252e-06,-1.563e-06,-0.000100084
487.0,0.002988808,-0.005336203,0.003686803,0.000589056,-0.000468619,-5.252e-06,-1.563e-06,-0.000100084
488.0,0.002938808,-0.005336203,0.003736803,0.000589056,-0.000468619,-5.252e-06,-1.563e-06,-0.000100084
489.0,0.002938808,-0.005336203,0.003736803,0.000589056,-0.000468619,-5.252e-06,-1.563e-06,-0.000100084
490.0,0.002938808,-0.005336203,0.003736803,0.000589056,-0.000468619,-5.252e-06,-1.563e-06,-0.000100084
491.0,0.002938808,-0.005336203,0.003736803,0.000589056,-0.000468619,-5.252e-06,-1.563e-06,-0.000100084
492.0,0.002938808,-0.005336203,0.003736803,0.000589056,-0.000468619,-5.252e-06,-1.563e-06,-0.000100084
493.0,0.002938808,-0.005336203,0.003736803,0.000589056,-0.000468619,-5.252e-06,-1.563e-06,-0.000100084
494.0,0.002938808,-0.005336203,0.003736803,0.000589056,-0.000468619,-5.252e-06,-1.563e-06,-0.000100084
495.0,0.002938808,-0.005336203,0.003736803,0.000589056,-0.000468619,-5.252e-06,-1.563e-06,-0.000100084
496.0,0.002938808,-0.005336203,0.003736803,0.000589056,-0.000468619,-5.4957e-05,-1.563e-06,-5.0378e-05
497.0,0.002938808,-0.005336203,0.003736803,0.000589056,-0.000468619,-5.4957e-05,-1.563e-06,-5.0378e-05
498.0,0.002938808,-0.005336203,0.003736803,0.000589056,-0.000468619,-5.4957e-05,-1.563e-06,-5.0378e-05
499.0,0.002938808,-0.005336203,0.003736803,0.000589056,-0.000468619,-5.4957e-05,-1.563e-06,-5.0378e-05
500.0,0.002938808,-0.005336203,0.003736803,0.000589056,-0.000468619,-5.4957e-05,-1.563e-06,-5.0378e-05
501.0,0.002938808,-0.005336203,0.003736803,0.000589056,-0.000468619,-5.4957e-05,-1.563e-06,-5.0378e-05
502.0,0.002938808,-0.005336203,0.003736803,0.000589056,-0.000468619,-0.000104957,4.8436e-05,-5.0378e-05
503.0,0.002938808,-0.005336203,0.003736803,0.000589056,-0.000468619,-0.000104957,4.8436e-05,-5.0378e-05
504.0,0.002938808,-0.005336203,0.003736803,0.000589056,-0.000468619,-5.4957e-05,4.8436e-05,-0.000100378
505.0,0.002938808,-0.005336203,0.003736803,0.000589056,-0.000468619,-5.4957e-05,4.8436e-05,-0.000100378
506.0,0.002938808,-0.005336203,0.003736803,0.000589056,-0.000468619,-5.4957e-05,4.8436e-05,-0.000100378
507.0,0.002938808,-0.005336203,0.003736803,0.000589056,-0.000468619,-5.4957e-05,4.8436e-05,-0.000100378
508.0,0.002938808,-0.005336203,0.003736803,0.000589056,-0.000468619,-5.4957e-05,4.8436e-05,-0.000100378
509.0,0.002938808,-0.005336203,0.003736803,0.000589056,-0.000468619,-5.4957e-05,4.8436e-05,-0.000100378
510.0,0.002938808,-0.005336203,0.003736803,0.000589056,-0.000468619,-5.4957e-05,4.8436e-05,-0.000100378
511.0,0.002938808,-0.005336203,0.003736803,0.000589056,-0.000468619,-5.4957e-05,4.8436e-05,-0.000100378
512.0,0.002938808,-0.005336203,0.003736803,0.000589056,-0.000468619,-5.4957e-05,4.8436e-05,-0.000100378
513.0,0.002938808,-0.005336203,0.003736803,0.000589056,-0.000468619,-5.4957e-05,4.8436e-05,-0.000100378
514.0,0.002938808,-0.005336203,0.003736803,0.000589056,-0.000468619,-5.4957e-05,4.8436e-05,-0.000100378
515.0,0.002938808,-0.005336203,0.003736803,0.000589056,-0.000468619,-5.4957e-05,4.8436e-05,-0.000100378
516.0,0.002938808,-0.005336203,0.003736803,0.000589056,-0.000468619,-5.4957e-05,4.8436e-05,-0.000100378
517.0,0.002938808,-0.005336203,0.003736803,0.000589056,-0.000468619,-5.4957e-05,4.8436e-05,-0.000100378
518.0,0.002938808,-0.005336203,0.003736803,0.000589056,-0.000468619,-5.4957e-05,4.8436e-05,-0.000100378
519.0,0.002938808,-0.005336203,0.003736803,0.000589056,-0.000468619,-5.4957e-05,4.8436e-05,-0.000100378
520.0,0.002938808,-0.005336203,0.003736803,0.000589056,-0.000468619,-5.4957e-05,4.8436e-05,-0.000100378
521.0,0.002938808,-0.005336203,0.003736803,0.000589056,-0.000468619,-5.4957e-05,4.8436e-05,-0.000100378
522.0,0.002938808,-0.005336203,0.003736803,0.000589056,-0.000468619,-5.4957e-05,4.8436e-05,-0.000100378
523.0,0.002938808,-0.005336203,0.003736803,0.000589056,-0.000468619,-5.4957e-05,4.8436e-05,-0.000100378
524.0,0.002938808,-0.005336203,0.003736803,0.000589056,-0.000468619,-5.4957e-05,4.8436e-05,-0.000100378
525.0,0.002938808,-0.005336203,0.003736803,0.000589056,-0.000468619,-5.4957e-05,4.8436e-05,-0.000100378
526.0,0.002938808,-0.005336203,0.003736803,0.000589056,-0.000468619,-5.4957e-05,4.8436e-05,-0.000100378
527.0,0.002938808,-0.005336203,0.003736803,0.000589056,-0.000468619,-5.4957e-05,4.8436e-05,-0.000100378
528.0,0.002938808,-0.005336203,0.003736803,0.000589056,-0.000468619,-5.4957e-05,4.8436e-05,-0.000100378
529.0,0.002938808,-0.005336203,0.003736803,0.000589056,-0.000468619,-5.4957e-05,4.8436e-05,-0.000100378
530.0,0.002938808,-0.005336203,0.003736803,0.000589056,-0.000468619,-5.4957e-05,4.8436e-05,-0.000100378
531.0,0.002938808,-0.005336203,0.003736803,0.000589056,-0.000468619,-5.4957e-05,4.8436e-05,-0.000100378
532.0,0.002938808,-0.005336203,0.003736803,0.000589056,-0.000468619,-5.4957e-05,4.8436e-05,-0.000100378
533.0,0.002938808,-0.005336203,0.003736803,0.000589056,-0.000468619,-5.4957e-05,4.8436e-05,-0.000100378
534.0,0.002938808,-0.005336203,0.003736803,0.000589056,-0.000468619,-5.4957e-05,4.8436e-05,-0.000100378
535.0,0.002938808,-0.005336203,0.003686803,0.000589056,-0.000418619,-5.4957e-05,4.8436e-05,-0.000100378
536.0,0.002938808,-0.005336203,0.003686803,0.000589056,-0.000418619,-5.4957e-05,4.8436e-05,-0.000100378
537.0,0.002938808,-0.005336203,0.003686803,0.000589056,-0.000418619,-5.4957e-05,4.8436e-05,-0.000100378
538.0,0.002938808,-0.005336203,0.003686803,0.000589056,-0.000418619,-5.4957e-05,4.8436e-05,-0.000100378
539.0,0.002938808,-0.005336203,0.003686803,0.000589056,-0.000418619,-5.4957e-05,4.8436e-05,-0.000100378
540.0,0.002938808,-0.005336203,0.003686803,0.000589056,-0.000418619,-5.4957e-05,4.8436e-05,-0.000100378
541.0,0.002938808,-0.005336203,0.003686803,0.000589056,-0.000418619,-5.4957e-05,4.8436e-05,-0.000100378
542.0,0.002938808,-0.005336203,0.003686803,0.000589056,-0.000418619,-5.4957e-05,4.8436e-05,-0.000100378
543.0,0.002938808,-0.005336203,0.003686803,0.000589056,-0.000418619,-5.4957e-05,4.8436e-05,-0.000100378
544.0,0.002938808,-0.005336203,0.003686803,0.000589056,-0.000418619,-5.4957e-05,4.8436e-05,-0.000100378
545.0,0.002938808,-0.005336203,0.003686803,0.000589056,-0.000418619,-5.4957e-05,4.8436e-05,-0.000100378
546.0,0.002938808,-0.005336203,0.003686803,0.000589056,-0.000418619,-5.4957e-05,4.8436e-05,-0.000100378
547.0,0.002938808,-0.005336203,0.003686803,0.000589056,-0.000418619,-5.4957e-05,4.8436e-05,-0.000100378
548.0,0.002938808,-0.005336203,0.003686803,0.000589056,-0.000418619,-5.4957e-05,4.8436e-05,-0.000100378
549.0,0.002938808,-0.005336203,0.003686803,0.000589056,-0.000418619,-5.4957e-05,4.8436e-05,-0.000100378
550.0,0.002938808,-0.005336203,0.003686803,0.000589056,-0.000418619,-5.4957e-05,4.8436e-05,-0.000100378
551.0,0.002938808,-0.005336203,0.003686803,0.000589056,-0.000418619,-5.4957e-05,4.8436e-05,-0.000100378
552.0,0.002938808,-0.005336203,0.003686803,0.000589056,-0.000418619,-5.4957e-05,4.8436e-05,-0.000100378
553.0,0.002938808,-0.005336203,0.003686803,0.000589056,-0.000418619,-5.4957e-05,4.8436e-05,-0.000100378
554.0,0.002938808,-0.005336203,0.003686803,0.000589056,-0.000418619,-5.4957e-05,4.8436e-05,-0.000100378
555.0,0.002938808,-0.005286203,0.003686803,0.000539056,-0.000418619,-5.4957e-05,4.8436e-05,-0.000100378
556.0,0.002938808,-0.005286203,0.003686803,0.000539056,-0.000418619,-5.4957e-05,4.8436e-05,-0.000100378
557.0,0.002938808,-0.005286203,0.003686803,0.000539056,-0.000418619,-5.4957e-05,4.8436e-05,-0.000100378
558.0,0.002938808,-0.005286203,0.003686803,0.000539056,-0.000418619,-5.4957e-05,4.8436e-05,-0.000100378
559.0,0.002938808,-0.005286203,0.003686803,0.000539056,-0.000418619,-5.4957e-05,4.8436e-05,-0.000100378
560.0,0.002938808,-0.005286203,0.003686803,0.000539056,-0.000418619,-5.4957e-05,4.8436e-05,-0.000100378
561.0,0.002938808,-0.005286203,0.003686803,0.000539056,-0.000418619,-5.4957e-05,4.8436e-05,-0.000100378
562.0,0.002938808,-0.005286203,0.003686803,0.000539056,-0.000418619,-5.4957e-05,4.8436e-05,-0.000100378
563.0,0.002938808,-0.005286203,0.003686803,0.000539056,-0.000418619,-5.4957e-05,4.8436e-05,-0.000100378
564.0,0.002938808,-0.005286203,0.003686803,0.000589056,-0.000468619,-5.4957e-05,4.8436e-05,-0.000100378
565.0,0.002938808,-0.005286203,0.003686803,0.000589056,-0.000468619,-5.4957e-05,4.8436e-05,-0.000100378
566.0,0.002938808,-0.005286203,0.003686803,0.000639056,-0.000518619,-5.4957e-05,4.8436e-05,-0.000100378
567.0,0.002938808,-0.005286203,0.003686803,0.000639056,-0.000518619,-5.4957e-05,4.8436e-05,-0.000100378
568.0,0.002938808,-0.005286203,0.003686803,0.000639056,-0.000518619,-5.4957e-05,4.8436e-05,-0.000100378
