0.0,-0.002772057,-0.000161659,0.01033222,-0.002655586,0.002996035,0.0,0.0,0.0
1.0,-0.002772057,-0.000161659,0.00933222,-0.002655586,0.002996035,0.001,0.0,0.0
2.0,-0.002772057,0.00083834,0.00933222,-0.002655586,0.002996035,0.0,0.0,0.0
3.0,-0.002772057,-0.000161659,0.00933222,-0.002655586,0.002996035,0.0,0.001,0.0
4.0,-0.002772057,-0.000161659,0.00933222,-0.002655586,0.002996035,0.0,0.0,0.001
5.0,-0.002772057,-0.000161659,0.00933222,-0.002655586,0.003996036,0.0,0.0,0.0
6.0,-0.002772057,-0.000161659,0.00933222,-0.001655586,0.002996035,0.0,0.0,0.0
7.0,-0.002772057,-0.000161659,0.00933222,-0.002655586,0.003996036,0.0,0.0,0.0
8.0,-0.002772057,-0.000161659,0.00933222,-0.002655586,0.003996036,0.0,0.0,0.0
9.0,-0.002772057,-0.000161659,0.00933222,-0.002655586,0.002996035,0.0,0.001,0.0
10.0,-0.001772057,-0.000161659,0.00933222,-0.002655586,0.002996035,0.0,0.0,0.0
11.0,-0.002772057,-0.000161659,0.00933222,-0.002655586,0.002996035,0.001,0.0,0.0
12.0,-0.002772057,-0.000161659,0.00933222,-0.002655586,0.002996035,0.001,0.0,0.0
13.0,-0.001772057,-0.000161659,0.00933222,-0.002655586,0.002996035,0.0,0.0,0.0
14.0,-0.002772057,-0.000161659,0.00933222,-0.002655586,0.003996036,0.0,0.0,0.0
15.0,-0.002772057,-0.000161659,0.00933222,-0.001655586,0.002996035,0.0,0.0,0.0
16.0,-0.002772057,-0.000161659,0.00933222,-0.001655586,0.002996035,0.0,0.001,-0.001
17.0,-0.002772057,-0.000161659,0.01033222,-0.001655586,0.002996035,0.0,0.0,-0.001
18.0,-0.002772057,-0.000161659,0.01033222,-0.001655586,0.002996035,0.0,0.0,-0.001
19.0,-0.002772057,-0.000161659,0.01033222,-0.001655586,0.002996035,0.0,0.0,-0.001
20.0,-0.002772057,-0.000161659,0.01033222,-0.001655586,0.002996035,0.0,-0.001,0.0
21.0,-0.002772057,-0.000161659,0.01033222,-0.001655586,0.002996035,0.0,-0.001,0.0
22.0,-0.002772057,-0.000161659,0.01033222,-0.001655586,0.002996035,0.0,-0.001,0.0
23.0,-0.002772057,-0.000161659,0.01033222,-0.001655586,0.002996035,0.0,-0.001,0.0
24.0,-0.002772057,-0.000161659,0.01033222,-0.001655586,0.002996035,0.0,-0.001,0.0
25.0,-0.002772057,-0.000161659,0.01033222,-0.002655586,0.002996035,0.0,0.0,0.0
26.0,-0.002772057,-0.000161659,0.01033222,-0.002655586,0.002996035,0.0,0.0,0.0
27.0,-0.002772057,-0.000161659,0.01033222,-0.001655586,0.002996035,0.0,-0.001,0.0
28.0,-0.002772057,-0.000161659,0.01033222,-0.001655586,0.002996035,0.0,-0.001,0.0
29.0,-0.002772057,-0.000161659,0.01033222,-0.001655586,0.002996035,0.0,-0.002,0.001
30.0,-0.002772057,-0.000161659,0.01033222,-0.001655586,0.002996035,0.0,-0.002,0.001
31.0,-0.002772057,-0.000161659,0.01033222,-0.001655586,0.002996035,0.001,-0.002,0.0
32.0,-0.002772057,-0.000161659,0.01033222,-0.001655586,0.002996035,0.0,-0.002,0.001
33.0,-0.002772057,-0.000161659,0.01033222,-0.001655586,0.002996035,0.0,-0.002,0.001
34.0,-0.002772057,-0.000161659,0.01033222,-0.001655586,0.002996035,0.001,-0.002,0.0
35.0,-0.002772057,-0.000161659,0.01033222,-0.001655586,0.002996035,0.0,-0.001,0.0
36.0,-0.002772057,-0.000161659,0.01133222,-0.001655586,0.002996035,0.0,-0.002,0.0
37.0,-0.003772057,-0.000161659,0.01133222,-0.001655586,0.002996035,0.0,-0.001,0.0
38.0,-0.003772057,-0.000161659,0.01133222,-0.001655586,0.002996035,0.0,-0.001,0.0
39.0,-0.003772057,-0.000161659,0.01133222,-0.001655586,0.002996035,0.0,-0.001,0.0
40.0,-0.003772057,-0.000161659,0.01133222,-0.001655586,0.002996035,0.0,-0.001,0.0
41.0,-0.003772057,-0.000161659,0.01133222,-0.002655586,0.003996036,0.0,-0.001,0.0
42.0,-0.003772057,-0.000161659,0.01133222,-0.002655586,0.003996036,0.001,-0.002,0.0
43.0,-0.003772057,-0.000161659,0.01133222,-0.001655586,0.002996035,0.001,-0.002,0.0
44.0,-0.003772057,-0.000161659,0.01133222,-0.001655586,0.002996035,0.0,-0.002,0.001
45.0,-0.003772057,0.00083834,0.01133222,-0.001655586,0.002996035,0.0,-0.002,0.0
46.0,-0.003772057,0.00083834,0.01133222,-0.002655586,0.003996036,0.0,-0.002,0.0
47.0,-0.003772057,-0.000161659,0.01133222,-0.002655586,0.003996036,0.0,-0.002,0.001
48.0,-0.003772057,-0.000161659,0.01133222,-0.002655586,0.003996036,0.0,-0.002,0.001
49.0,-0.003772057,0.00083834,0.01133222,-0.002655586,0.003996036,0.0,-0.002,0.0
50.0,-0.003772057,-0.000161659,0.01133222,-0.002655586,0.003996036,0.001,-0.002,0.0
51.0,-0.002772057,-0.000161659,0.01133222,-0.002655586,0.003996036,0.0,-0.002,0.0
52.0,-0.002772057,-0.000161659,0.01133222,-0.002655586,0.003996036,0.0,-0.002,0.0
53.0,-0.002772057,-0.000161659,0.01133222,-0.002655586,0.003996036,0.0,-0.002,0.0
54.0,-0.002772057,-0.000161659,0.01133222,-0.002655586,0.003996036,0.0,-0.002,0.0
55.0,-0.002772057,-0.000161659,0.01133222,-0.002655586,0.003996036,0.001,-0.002,-0.001
56.0,-0.002772057,-0.000161659,0.01133222,-0.002655586,0.003996036,0.0,-0.002,0.0
57.0,-0.002772057,-0.001161659,0.01133222,-0.002655586,0.003996036,0.001,-0.002,0.0
58.0,-0.002772057,-0.001161659,0.01133222,-0.002655586,0.003996036,0.001,-0.002,0.0
59.0,-0.003772057,-0.001161659,0.012332221,-0.002655586,0.003996036,0.001,-0.002,0.0
60.0,-0.003772057,-0.001161659,0.012332221,-0.002655586,0.003996036,0.0,-0.002,0.001
61.0,-0.003772057,-0.001161659,0.012332221,-0.002655586,0.003996036,0.001,-0.002,0.0
62.0,-0.003772057,-0.001161659,0.012332221,-0.002655586,0.003996036,0.0,-0.002,0.001
63.0,-0.003772057,-0.001161659,0.012332221,-0.002655586,0.003996036,0.0,-0.002,0.001
64.0,-0.003772057,-0.001161659,0.012332221,-0.002655586,0.003996036,0.0,-0.002,0.001
65.0,-0.003772057,-0.001161659,0.012332221,-0.002655586,0.003996036,0.0,-0.002,0.001
66.0,-0.003772057,-0.001161659,0.012332221,-0.002655586,0.003996036,0.0,-0.002,0.001
67.0,-0.003772057,-0.001161659,0.012332221,-0.002655586,0.003996036,0.001,-0.002,0.0
68.0,-0.002772057,-0.001161659,0.01133222,-0.002655586,0.003996036,0.001,-0.002,0.0
69.0,-0.002772057,-0.001161659,0.01133222,-0.002655586,0.003996036,0.001,-0.002,0.0
70.0,-0.002772057,-0.001161659,0.01133222,-0.002655586,0.003996036,0.002,-0.002,-0.001
71.0,-0.002772057,-0.001161659,0.01133222,-0.002655586,0.003996036,0.001,-0.002,0.0
72.0,-0.003772057,-0.001161659,0.012332221,-0.002655586,0.003996036,0.001,-0.002,0.0
73.0,-0.003772057,-0.001161659,0.012332221,-0.002655586,0.003996036,0.002,-0.002,-0.001
74.0,-0.003772057,-0.001161659,0.012332221,-0.002655586,0.003996036,0.002,-0.002,-0.001
75.0,-0.003772057,-0.000161659,0.012332221,-0.002655586,0.003996036,0.001,-0.002,-0.001
76.0,-0.003772057,-0.000161659,0.012332221,-0.002655586,0.003996036,0.0,-0.001,-0.001
77.0,-0.003772057,-0.000161659,0.012332221,-0.002655586,0.003996036,0.0,-0.001,-0.001
78.0,-0.003772057,-0.000161659,0.012332221,-0.002655586,0.003996036,0.0,-0.001,-0.001
79.0,-0.003772057,-0.000161659,0.012332221,-0.002655586,0.003996036,0.0,-0.001,-0.001
80.0,-0.003772057,0.00083834,0.01133222,-0.002655586,0.003996036,0.0,-0.001,-0.001
81.0,-0.003772057,0.00083834,0.01133222,-0.002655586,0.003996036,0.0,-0.001,-0.001
82.0,-0.003772057,0.00083834,0.01133222,-0.002655586,0.003996036,0.0,-0.001,-0.001
83.0,-0.003772057,0.00083834,0.01133222,-0.002655586,0.003996036,0.0,-0.001,-0.001
84.0,-0.003772057,0.00083834,0.01133222,-0.002655586,0.003996036,0.0,-0.001,-0.001
85.0,-0.003772057,-0.000161659,0.01133222,-0.001655586,0.003996036,0.0,-0.001,-0.001
86.0,-0.002772057,-0.001161659,0.01133222,-0.001655586,0.003996036,0.0,-0.001,-0.001
87.0,-0.002772057,-0.001161659,0.01133222,-0.001655586,0.003996036,0.0,-0.002,0.0
88.0,-0.003772057,-0.001161659,0.01133222,-0.001655586,0.003996036,0.0,-0.002,0.001
89.0,-0.003772057,-0.001161659,0.01133222,-0.001655586,0.003996036,0.0,-0.002,0.001
90.0,-0.003772057,-0.001161659,0.01133222,-0.001655586,0.003996036,0.001,-0.002,0.0
91.0,-0.003772057,-0.001161659,0.01133222,-0.001655586,0.003996036,0.001,-0.002,0.0
92.0,-0.003772057,-0.001161659,0.01133222,-0.001655586,0.003996036,0.001,-0.002,0.0
93.0,-0.003772057,-0.001161659,0.01133222,-0.001655586,0.003996036,0.001,-0.002,0.0
94.0,-0.003772057,-0.001161659,0.01133222,-0.001655586,0.003996036,0.001,-0.002,0.0
95.0,-0.003772057,-0.001161659,0.01133222,-0.001655586,0.003996036,0.001,-0.002,0.0
96.0,-0.003772057,-0.001161659,0.01133222,-0.001655586,0.003996036,0.001,-0.002,0.0
97.0,-0.003772057,-0.001161659,0.012332221,-0.001655586,0.003996036,0.0,-0.002,0.0
98.0,-0.003772057,-0.001161659,0.012332221,-0.001655586,0.003996036,0.0,-0.002,0.0
99.0,-0.003772057,-0.000161659,0.012332221,-0.002655586,0.003996036,0.0,-0.002,0.0
100.0,-0.003772057,-0.000161659,0.012332221,-0.002655586,0.003996036,0.0,-0.002,0.0
101.0,-0.003772057,-0.000161659,0.012332221,-0.002655586,0.003996036,0.0,-0.002,0.0
102.0,-0.003772057,-0.000161659,0.012332221,-0.002655586,0.003996036,0.0,-0.002,0.0
103.0,-0.003772057,-0.000161659,0.012332221,-0.002655586,0.003996036,0.001,-0.002,-0.001
104.0,-0.003772057,-0.000161659,0.012332221,-0.002655586,0.003996036,0.001,-0.002,-0.001
105.0,-0.003772057,-0.000161659,0.012332221,-0.001655586,0.002996035,0.001,-0.002,-0.001
106.0,-0.003772057,-0.000161659,0.012332221,-0.001655586,0.002996035,0.001,-0.002,-0.001
107.0,-0.003772057,-0.000161659,0.012332221,-0.001655586,0.002996035,0.0,-0.001,-0.001
108.0,-0.003772057,-0.000161659,0.012332221,-0.001655586,0.002996035,0.0,-0.002,0.0
109.0,-0.003772057,-0.000161659,0.01133222,-0.001655586,0.003996036,0.0,-0.002,0.0
110.0,-0.003772057,-0.000161659,0.01133222,-0.001655586,0.003996036,0.0,-0.002,0.0
111.0,-0.003772057,-0.000161659,0.01133222,-0.001655586,0.003996036,0.0,-0.002,0.0
112.0,-0.003772057,-0.000161659,0.01133222,-0.001655586,0.003996036,0.0,-0.002,0.0
113.0,-0.003772057,-0.001161659,0.012332221,-0.001655586,0.003996036,0.0,-0.002,0.0
114.0,-0.003772057,-0.001161659,0.012332221,-0.001655586,0.003996036,0.0,-0.002,0.0
115.0,-0.003772057,-0.001161659,0.012332221,-0.001655586,0.003996036,0.0,-0.002,0.0
116.0,-0.003772057,-0.001161659,0.012332221,-0.001655586,0.003996036,0.0,-0.002,0.0
117.0,-0.003772057,-0.001161659,0.012332221,-0.001655586,0.003996036,0.0,-0.002,0.0
118.0,-0.003772057,-0.001161659,0.012332221,-0.001655586,0.003996036,0.0,-0.002,0.0
119.0,-0.003772057,-0.001161659,0.012332221,-0.001655586,0.003996036,0.0,-0.002,0.0
120.0,-0.003772057,-0.001161659,0.012332221,-0.001655586,0.003996036,0.0,-0.002,0.0
121.0,-0.003772057,-0.001161659,0.012332221,-0.001655586,0.003996036,0.0,-0.002,0.0
122.0,-0.004772058,-0.000161659,0.012332221,-0.001655586,0.003996036,0.0,-0.002,0.0
123.0,-0.003772057,-0.000161659,0.012332221,-0.001655586,0.003996036,0.0,-0.002,-0.001
124.0,-0.003772057,-0.000161659,0.012332221,-0.001655586,0.003996036,0.0,-0.002,-0.001
125.0,-0.003772057,-0.000161659,0.012332221,-0.001655586,0.003996036,0.0,-0.002,-0.001
126.0,-0.003772057,-0.001161659,0.012332221,-0.001655586,0.003996036,0.001,-0.002,-0.001
127.0,-0.003772057,-0.001161659,0.012332221,-0.001655586,0.003996036,0.001,-0.002,-0.001
128.0,-0.003772057,-0.001161659,0.012332221,-0.001655586,0.003996036,0.001,-0.002,-0.001
129.0,-0.003772057,-0.001161659,0.012332221,-0.001655586,0.003996036,0.001,-0.002,-0.001
130.0,-0.003772057,-0.001161659,0.012332221,-0.001655586,0.003996036,0.001,-0.002,-0.001
131.0,-0.003772057,-0.001161659,0.012332221,-0.001655586,0.003996036,0.001,-0.002,-0.001
132.0,-0.003772057,-0.002161659,0.012332221,-0.000655586,0.003996036,0.001,-0.002,-0.001
133.0,-0.003772057,-0.002161659,0.012332221,-0.000655586,0.003996036,0.0,-0.002,0.0
134.0,-0.003772057,-0.002161659,0.012332221,-0.000655586,0.003996036,0.0,-0.002,0.0
135.0,-0.003772057,-0.002161659,0.012332221,-0.000655586,0.003996036,0.0,-0.002,0.0
136.0,-0.003772057,-0.002161659,0.012332221,-0.000655586,0.003996036,0.001,-0.002,-0.001
137.0,-0.003772057,-0.002161659,0.012332221,-0.000655586,0.003996036,0.001,-0.002,-0.001
138.0,-0.003772057,-0.002161659,0.012332221,0.000344413,0.002996035,0.001,-0.002,-0.001
139.0,-0.003772057,-0.002161659,0.013332221,0.000344413,0.002996035,0.0,-0.002,-0.001
140.0,-0.003772057,-0.001161659,0.013332221,-0.000655586,0.002996035,0.0,-0.002,-0.001
141.0,-0.003772057,-0.001161659,0.013332221,-0.000655586,0.002996035,0.0,-0.002,-0.001
142.0,-0.003772057,-0.001161659,0.012332221,-0.000655586,0.002996035,0.001,-0.002,-0.001
143.0,-0.003772057,-0.001161659,0.012332221,-0.000655586,0.002996035,0.001,-0.002,-0.001
144.0,-0.003772057,-0.001161659,0.012332221,-0.000655586,0.002996035,0.001,-0.002,-0.001
145.0,-0.003772057,-0.001161659,0.012332221,-0.000655586,0.002996035,0.001,-0.002,-0.001
146.0,-0.003772057,-0.001161659,0.012332221,-0.000655586,0.002996035,0.001,-0.002,-0.001
147.0,-0.003772057,-0.001161659,0.012332221,-0.000655586,0.002996035,0.0,-0.002,0.0
148.0,-0.003772057,-0.001161659,0.012332221,-0.000655586,0.002996035,0.0,-0.002,0.0
149.0,-0.003772057,-0.001161659,0.012332221,-0.000655586,0.002996035,0.0,-0.002,0.0
150.0,-0.003772057,-0.001161659,0.012332221,-0.000655586,0.002996035,0.001,-0.002,-0.001
151.0,-0.003772057,-0.001161659,0.012332221,-0.001655586,0.003996036,0.001,-0.002,-0.001
152.0,-0.003772057,-0.001161659,0.012332221,-0.001655586,0.003996036,0.001,-0.002,-0.001
153.0,-0.003772057,-0.001161659,0.012332221,-0.001655586,0.003996036,0.001,-0.002,-0.001
154.0,-0.003772057,-0.001161659,0.012332221,-0.001655586,0.003996036,0.001,-0.002,-0.001
155.0,-0.003772057,-0.001161659,0.012332221,-0.001655586,0.003996036,0.001,-0.002,-0.001
156.0,-0.003772057,-0.001161659,0.012332221,-0.001655586,0.003996036,0.0,-0.002,0.0
157.0,-0.003772057,-0.001161659,0.012332221,-0.001655586,0.003996036,0.0,-0.002,0.0
158.0,-0.003772057,-0.001161659,0.012332221,-0.000655586,0.002996035,0.0,-0.002,0.0
159.0,-0.003772057,-0.001161659,0.012332221,-0.000655586,0.002996035,0.0,-0.002,0.0
160.0,-0.003772057,-0.001161659,0.012332221,-0.000655586,0.002996035,0.0,-0.002,0.0
161.0,-0.003772057,-0.001161659,0.012332221,-0.000655586,0.002996035,0.0,-0.002,0.0
162.0,-0.003772057,-0.001161659,0.012332221,-0.000655586,0.002996035,0.0,-0.002,0.0
163.0,-0.003772057,-0.001161659,0.012332221,-0.000655586,0.002996035,0.0,-0.002,0.0
164.0,-0.003772057,-0.001161659,0.012332221,-0.000655586,0.002996035,0.0,-0.002,0.0
165.0,-0.003772057,-0.001161659,0.012332221,-0.000655586,0.002996035,0.0,-0.002,0.0
166.0,-0.003772057,-0.001161659,0.012332221,-0.000655586,0.002996035,0.0,-0.002,0.0
167.0,-0.004772058,-0.001161659,0.012332221,-0.000655586,0.002996035,0.001,-0.002,0.0
168.0,-0.004772058,-0.001161659,0.012332221,-0.001655586,0.003996036,0.001,-0.002,0.0
169.0,-0.004772058,-0.001161659,0.012332221,-0.001655586,0.003996036,0.001,-0.002,0.0
170.0,-0.004772058,-0.001161659,0.012332221,-0.001655586,0.003996036,0.001,-0.002,0.0
171.0,-0.004772058,-0.001161659,0.012332221,-0.001655586,0.003996036,0.0,-0.002,0.001
172.0,-0.004772058,-0.001161659,0.012332221,-0.001655586,0.003996036,0.001,-0.002,0.0
173.0,-0.004772058,-0.001161659,0.012332221,-0.000655586,0.002996035,0.001,-0.002,0.0
174.0,-0.004772058,-0.001161659,0.012332221,-0.000655586,0.002996035,0.001,-0.002,0.0
175.0,-0.004772058,-0.001161659,0.013332221,-0.001655586,0.002996035,0.001,-0.002,0.0
176.0,-0.004772058,-0.001161659,0.013332221,-0.001655586,0.002996035,0.001,-0.002,0.0
177.0,-0.004772058,-0.001161659,0.013332221,-0.001655586,0.002996035,0.001,-0.002,0.0
178.0,-0.004772058,-0.001161659,0.012332221,-0.000655586,0.002996035,0.001,-0.002,0.0
179.0,-0.004772058,-0.001161659,0.012332221,-0.000655586,0.002996035,0.001,-0.002,0.0
180.0,-0.004772058,-0.001161659,0.012332221,-0.000655586,0.002996035,0.001,-0.002,0.0
181.0,-0.004772058,-0.001161659,0.012332221,-0.000655586,0.002996035,0.001,-0.002,0.0
182.0,-0.004772058,-0.001161659,0.012332221,-0.001655586,0.003996036,0.001,-0.002,0.0
183.0,-0.004772058,-0.001161659,0.012332221,-0.001655586,0.003996036,0.001,-0.002,0.0
184.0,-0.004772058,-0.001161659,0.012332221,-0.001655586,0.003996036,0.001,-0.002,0.0
185.0,-0.003772057,-0.001161659,0.012332221,-0.001655586,0.003996036,0.001,-0.003,0.0
186.0,-0.003772057,-0.001161659,0.012332221,-0.001655586,0.003996036,0.001,-0.003,0.0
187.0,-0.003772057,-0.001161659,0.012332221,-0.001655586,0.003996036,0.001,-0.003,0.0
188.0,-0.003772057,-0.001161659,0.012332221,-0.001655586,0.003996036,0.001,-0.003,0.0
189.0,-0.003772057,-0.001161659,0.012332221,-0.001655586,0.003996036,0.001,-0.003,0.0
190.0,-0.003772057,-0.001161659,0.012332221,-0.001655586,0.003996036,0.002,-0.003,-0.001
191.0,-0.003772057,-0.001161659,0.012332221,-0.001655586,0.003996036,0.002,-0.003,-0.001
192.0,-0.003772057,-0.001161659,0.012332221,-0.001655586,0.003996036,0.002,-0.003,-0.001
193.0,-0.004772058,-0.001161659,0.012332221,-0.001655586,0.003996036,0.003,-0.003,-0.001
194.0,-0.004772058,-0.001161659,0.012332221,-0.001655586,0.003996036,0.001999999,-0.003,0.0
195.0,-0.004772058,-0.001161659,0.012332221,-0.001655586,0.003996036,0.000999999,-0.001999999,0.0
196.0,-0.004772058,-0.001161659,0.012332221,-0.001655586,0.003996036,0.001999999,-0.001999999,-0.001
197.0,-0.004772058,-0.001161659,0.012332221,-0.001655586,0.003996036,0.000999999,-0.001999999,0.0
198.0,-0.004772058,-0.001161659,0.012332221,-0.001655586,0.003996036,0.000999999,-0.001999999,0.0
199.0,-0.004772058,-0.001161659,0.012332221,-0.001655586,0.002996035,0.000999999,-0.000999999,0.0
200.0,-0.004772058,-0.001161659,0.012332221,-0.001655586,0.002996035,0.000999999,-0.000999999,0.0
201.0,-0.004772058,-0.001161659,0.012332221,-0.001655586,0.002996035,0.001999999,-0.000999999,-0.001
202.0,-0.004772058,-0.001161659,0.012332221,-0.000655586,0.002996035,0.001999999,-0.001999999,-0.001
203.0,-0.004772058,-0.001161659,0.012332221,-0.000655586,0.002996035,0.003,-0.003,-0.001
204.0,-0.003772057,-0.001161659,0.012332221,-0.000655586,0.002996035,0.001999999,-0.003,-0.001
205.0,-0.004772058,-0.001161659,0.012332221,-0.000655586,0.002996035,0.001999999,-0.003,0.0
206.0,-0.004772058,-0.001161659,0.012332221,-0.000655586,0.002996035,0.001999999,-0.003,0.0
207.0,-0.004772058,-0.001161659,0.012332221,-0.000655586,0.002996035,0.001999999,-0.003,0.0
208.0,-0.004772058,-0.001161659,0.012332221,-0.000655586,0.002996035,0.003,-0.003,-0.001
209.0,-0.004772058,-0.001161659,0.012332221,-0.000655586,0.002996035,0.003,-0.003,-0.001
210.0,-0.004772058,-0.001161659,0.012332221,-0.000655586,0.002996035,0.003,-0.003,-0.001
211.0,-0.004772058,-0.001161659,0.012332221,-0.000655586,0.003996036,0.001999999,-0.003,-0.001
212.0,-0.004772058,-0.001161659,0.012332221,-0.000655586,0.003996036,0.000999999,-0.001999999,-0.001
213.0,-0.004772058,-0.001161659,0.012332221,-0.000655586,0.003996036,0.000999999,-0.003,0.0
214.0,-0.004772058,-0.001161659,0.012332221,-0.000655586,0.003996036,0.000999999,-0.003,0.0
215.0,-0.004772058,-0.001161659,0.013332221,-0.000655586,0.003996036,0.000999999,-0.003,-0.001
216.0,-0.004772058,-0.001161659,0.013332221,-0.000655586,0.003996036,0.000999999,-0.003,-0.001
217.0,-0.004772058,-0.001161659,0.013332221,-0.000655586,0.003996036,0.000999999,-0.001999999,-0.002
218.0,-0.004772058,-0.001161659,0.013332221,-0.000655586,0.003996036,0.001999999,-0.003,-0.002
219.0,-0.004772058,-0.001161659,0.012332221,-0.000655586,0.003996036,0.001999999,-0.001999999,-0.002
220.0,-0.004772058,-0.001161659,0.012332221,-0.000655586,0.003996036,0.001999999,-0.001999999,-0.002
221.0,-0.004772058,-0.001161659,0.012332221,-0.000655586,0.003996036,0.001999999,-0.001999999,-0.002
222.0,-0.003772057,-0.001161659,0.012332221,-0.000655586,0.003996036,0.001999999,-0.003,-0.002
223.0,-0.003772057,-0.001161659,0.012332221,-0.000655586,0.003996036,0.001999999,-0.003,-0.002
224.0,-0.003772057,-0.001161659,0.012332221,-0.000655586,0.003996036,0.000999999,-0.003,-0.001
225.0,-0.003772057,-0.001161659,0.012332221,-0.000655586,0.003996036,0.000999999,-0.003,-0.001
226.0,-0.004772058,-0.001161659,0.012332221,-0.000655586,0.003996036,0.000999999,-0.001999999,-0.001
227.0,-0.004772058,-0.001161659,0.012332221,-0.000655586,0.003996036,0.000999999,-0.001999999,-0.001
228.0,-0.004772058,-0.001161659,0.012332221,-0.000655586,0.003996036,0.000999999,-0.001999999,-0.001
229.0,-0.003772057,-0.002161659,0.012332221,-0.000655586,0.003996036,0.000999999,-0.001999999,-0.001
230.0,-0.003772057,-0.002161659,0.012332221,-0.000655586,0.003996036,0.000999999,-0.001999999,-0.001
231.0,-0.003772057,-0.002161659,0.012332221,-0.000655586,0.003996036,0.001999999,-0.001999999,-0.002
232.0,-0.003772057,-0.002161659,0.012332221,-0.000655586,0.003996036,0.001999999,-0.001999999,-0.002
233.0,-0.004772058,-0.001161659,0.012332221,-0.000655586,0.003996036,0.001999999,-0.001999999,-0.002
234.0,-0.004772058,-0.001161659,0.012332221,-0.000655586,0.003996036,0.001999999,-0.001999999,-0.002
235.0,-0.004772058,-0.001161659,0.013332221,-0.000655586,0.003996036,0.000999999,-0.001999999,-0.002
236.0,-0.004772058,-0.001161659,0.013332221,-0.000655586,0.003996036,0.000999999,-0.001999999,-0.002
237.0,-0.004772058,-0.001161659,0.013332221,-0.000655586,0.003996036,0.000999999,-0.003,-0.001
238.0,-0.004772058,-0.001161659,0.013332221,-0.000655586,0.003996036,0.000999999,-0.003,-0.001
239.0,-0.004772058,-0.001161659,0.013332221,-0.000655586,0.003996036,0.000999999,-0.003,-0.001
240.0,-0.004772058,-0.001161659,0.013332221,-0.000655586,0.003996036,0.000999999,-0.003,-0.001
241.0,-0.004772058,-0.001161659,0.013332221,-0.000655586,0.003996036,0.000999999,-0.003,-0.001
242.0,-0.004772058,-0.001161659,0.013332221,-0.000655586,0.003996036,0.001999999,-0.003,-0.002
243.0,-0.004772058,-0.001161659,0.014332221,-0.000655586,0.003996036,0.000999999,-0.003,-0.002
244.0,-0.004772058,-0.001161659,0.014332221,-0.000655586,0.003996036,0.000999999,-0.003,-0.002
245.0,-0.004772058,-0.001161659,0.013332221,-0.000655586,0.003996036,0.000999999,-0.003,-0.001
246.0,-0.004772058,-0.001161659,0.013332221,-0.000655586,0.003996036,0.000999999,-0.003,-0.001
247.0,-0.004772058,-0.001161659,0.013332221,-0.000655586,0.003996036,0.001999999,-0.004,-0.001
248.0,-0.004772058,-0.001161659,0.013332221,-0.000655586,0.003996036,0.001999999,-0.004,-0.001
249.0,-0.004772058,-0.001161659,0.013332221,-0.000655586,0.003996036,0.001999999,-0.004,-0.001
250.0,-0.003772057,-0.001161659,0.013332221,-0.000655586,0.003996036,0.000999999,-0.004,-0.001
251.0,-0.003772057,-0.001161659,0.013332221,-0.000655586,0.003996036,0.000999999,-0.004,-0.001
252.0,-0.003772057,-0.001161659,0.013332221,-0.000655586,0.003996036,0.000999999,-0.004,-0.001
253.0,-0.003772057,-0.001161659,0.013332221,-0.000655586,0.003996036,0.001999999,-0.004,-0.002
254.0,-0.003772057,-0.001161659,0.013332221,-0.000655586,0.003996036,0.001999999,-0.004,-0.002
255.0,-0.003772057,-0.001161659,0.013332221,-0.000655586,0.003996036,0.001999999,-0.004,-0.002
256.0,-0.003772057,-0.001161659,0.013332221,-0.000655586,0.003996036,0.000999999,-0.004,-0.001
257.0,-0.003772057,-0.001161659,0.013332221,-0.000655586,0.003996036,0.000999999,-0.004,-0.001
258.0,-0.003772057,-0.001161659,0.013332221,-0.000655586,0.003996036,0.000999999,-0.004,-0.001
259.0,-0.003772057,-0.001161659,0.013332221,-0.000655586,0.003996036,0.000999999,-0.004,-0.001
260.0,-0.003772057,-0.001161659,0.013332221,-0.000655586,0.003996036,0.001999999,-0.004,-0.002
261.0,-0.003772057,-0.001161659,0.013332221,-0.000655586,0.003996036,0.000999999,-0.004,-0.001
262.0,-0.003772057,-0.001161659,0.013332221,-0.000655586,0.003996036,0.000999999,-0.004,-0.001
263.0,-0.003772057,-0.002161659,0.013332221,0.000344413,0.003996036,0.000999999,-0.004,-0.001
264.0,-0.003772057,-0.002161659,0.013332221,0.000344413,0.003996036,0.000999999,-0.004,-0.001
265.0,-0.003772057,-0.002161659,0.013332221,0.000344413,0.003996036,0.000999999,-0.004,-0.001
266.0,-0.003772057,-0.002161659,0.013332221,0.000344413,0.003996036,0.000999999,-0.004,-0.001
267.0,-0.003772057,-0.002161659,0.013332221,-0.000655586,0.003996036,0.000999999,-0.004,0.0
268.0,-0.003772057,-0.002161659,0.013332221,-0.000655586,0.003996036,0.000999999,-0.004,0.0
269.0,-0.003772057,-0.002161659,0.013332221,-0.000655586,0.003996036,0.000999999,-0.004,0.0
270.0,-0.004772058,-0.002161659,0.013332221,-0.000655586,0.003996036,0.000999999,-0.003,0.0
271.0,-0.004772058,-0.002161659,0.013332221,-0.000655586,0.003996036,0.000999999,-0.003,0.0
272.0,-0.004772058,-0.002161659,0.013332221,-0.000655586,0.003996036,0.001999999,-0.003,-0.001
273.0,-0.004772058,-0.002161659,0.013332221,-0.000655586,0.003996036,0.001999999,-0.003,-0.001
274.0,-0.003772057,-0.002161659,0.013332221,-0.000655586,0.003996036,0.000999999,-0.003,-0.001
275.0,-0.003772057,-0.002161659,0.013332221,-0.000655586,0.003996036,0.000999999,-0.004,0.0
276.0,-0.003772057,-0.002161659,0.013332221,-0.000655586,0.003996036,0.000999999,-0.004,0.0
277.0,-0.003772057,-0.002161659,0.013332221,-0.000655586,0.003996036,0.000999999,-0.004,0.0
278.0,-0.003772057,-0.002161659,0.013332221,-0.000655586,0.003996036,0.000999999,-0.004,0.0
279.0,-0.003772057,-0.002161659,0.013332221,-0.000655586,0.003996036,0.000999999,-0.004,0.0
280.0,-0.003772057,-0.002161659,0.013332221,-0.000655586,0.003996036,0.000999999,-0.004,0.0
281.0,-0.003772057,-0.002161659,0.013332221,-0.000655586,0.003996036,0.000999999,-0.003,-0.001
282.0,-0.003772057,-0.002161659,0.013332221,-0.000655586,0.003996036,0.001999999,-0.003,-0.002
283.0,-0.003772057,-0.002161659,0.013332221,-0.000655586,0.003996036,0.001999999,-0.003,-0.002
284.0,-0.003772057,-0.002161659,0.013332221,-0.000655586,0.003996036,0.001999999,-0.003,-0.002
285.0,-0.003772057,-0.002161659,0.013332221,-0.000655586,0.003996036,0.001999999,-0.003,-0.002
286.0,-0.003772057,-0.002161659,0.013332221,-0.000655586,0.003996036,0.000999999,-0.003,-0.001
287.0,-0.004772058,-0.002161659,0.013332221,-0.000655586,0.003996036,0.000999999,-0.001999999,-0.001
288.0,-0.004772058,-0.002161659,0.013332221,-0.000655586,0.003996036,0.000999999,-0.001999999,-0.001
289.0,-0.004772058,-0.002161659,0.013332221,-0.000655586,0.003996036,0.000999999,-0.001999999,-0.001
290.0,-0.004772058,-0.002161659,0.013332221,-0.000655586,0.003996036,0.000999999,-0.001999999,-0.001
291.0,-0.004772058,-0.002161659,0.013332221,-0.000655586,0.003996036,0.001999999,-0.003,-0.001
292.0,-0.004772058,-0.002161659,0.013332221,-0.000655586,0.003996036,0.001999999,-0.003,-0.001
293.0,-0.004772058,-0.002161659,0.013332221,-0.000655586,0.003996036,0.001999999,-0.003,-0.001
294.0,-0.004772058,-0.002161659,0.013332221,-0.000655586,0.003996036,0.001999999,-0.003,-0.001
295.0,-0.004772058,-0.002161659,0.013332221,-0.000655586,0.003996036,0.001999999,-0.003,-0.001
296.0,-0.003772057,-0.002161659,0.013332221,-0.000655586,0.003996036,0.001999999,-0.004,-0.001
297.0,-0.003772057,-0.002161659,0.013332221,-0.000655586,0.003996036,0.003,-0.005,-0.001
298.0,-0.004772058,-0.002161659,0.013332221,-0.000655586,0.003996036,0.003,-0.005,0.0
299.0,-0.004772058,-0.002161659,0.013332221,-0.000655586,0.003996036,0.003,-0.005,0.0
300.0,-0.004772058,-0.002161659,0.013332221,-0.000655586,0.003996036,0.001999999,-0.004,0.0
301.0,-0.004772058,-0.002161659,0.013332221,-0.000655586,0.003996036,0.001999999,-0.004,0.0
302.0,-0.004772058,-0.002161659,0.013332221,-0.000655586,0.003996036,0.001999999,-0.004,0.0
303.0,-0.004772058,-0.002161659,0.013332221,-0.000655586,0.003996036,0.001999999,-0.003,-0.001
304.0,-0.004772058,-0.002161659,0.013332221,-0.000655586,0.003996036,0.001999999,-0.003,-0.001
305.0,-0.004772058,-0.002161659,0.013332221,0.000344413,0.003996036,0.000999999,-0.003,-0.001
306.0,-0.004772058,-0.002161659,0.013332221,0.000344413,0.003996036,0.000999999,-0.003,-0.001
307.0,-0.004772058,-0.002161659,0.013332221,0.000344413,0.003996036,0.000999999,-0.003,-0.001
308.0,-0.004772058,-0.002161659,0.013332221,0.000344413,0.003996036,0.000999999,-0.003,-0.001
309.0,-0.004772058,-0.002161659,0.013332221,0.000344413,0.004996036,0.000999999,-0.003,-0.002
310.0,-0.004772058,-0.002161659,0.013332221,0.000344413,0.004996036,0.000999999,-0.003,-0.002
311.0,-0.004772058,-0.002161659,0.014332221,-0.000655586,0.004996036,0.000999999,-0.003,-0.002
312.0,-0.004772058,-0.002161659,0.014332221,-0.000655586,0.004996036,0.000999999,-0.003,-0.002
313.0,-0.004772058,-0.002161659,0.014332221,-0.000655586,0.004996036,0.000999999,-0.003,-0.002
314.0,-0.003772057,-0.002161659,0.014332221,-0.000655586,0.004996036,0.000999999,-0.004,-0.002
315.0,-0.003772057,-0.002161659,0.013332221,0.000344413,0.004996036,0.000999999,-0.004,-0.002
316.0,-0.003772057,-0.002161659,0.013332221,0.000344413,0.003996036,0.000999999,-0.004,-0.001
317.0,-0.003772057,-0.002161659,0.013332221,-0.000655586,0.003996036,0.001999999,-0.004,-0.001
318.0,-0.003772057,-0.002161659,0.013332221,-0.000655586,0.003996036,0.001999999,-0.004,-0.001
319.0,-0.003772057,-0.002161659,0.013332221,-0.000655586,0.003996036,0.001999999,-0.004,-0.001
320.0,-0.003772057,-0.002161659,0.013332221,-0.000655586,0.003996036,0.001999999,-0.004,-0.001
321.0,-0.003772057,-0.002161659,0.013332221,-0.000655586,0.003996036,0.001999999,-0.004,-0.001
322.0,-0.003772057,-0.002161659,0.013332221,-0.000655586,0.003996036,0.000999999,-0.004,0.0
323.0,-0.003772057,-0.002161659,0.013332221,-0.000655586,0.003996036,0.000999999,-0.004,0.0
324.0,-0.003772057,-0.002161659,0.013332221,-0.000655586,0.003996036,0.000999999,-0.004,0.0
325.0,-0.003772057,-0.002161659,0.013332221,-0.000655586,0.003996036,0.000999999,-0.004,0.0
326.0,-0.004772058,-0.002161659,0.013332221,-0.000655586,0.003996036,0.000999999,-0.003,0.0
327.0,-0.004772058,-0.002161659,0.013332221,-0.000655586,0.003996036,0.000999999,-0.003,0.0
328.0,-0.004772058,-0.002161659,0.013332221,-0.000655586,0.003996036,0.000999999,-0.003,0.0
329.0,-0.004772058,-0.002161659,0.012332221,-0.000655586,0.004996036,0.000999999,-0.003,0.0
330.0,-0.004772058,-0.002161659,0.012332221,0.000344413,0.003996036,0.000999999,-0.003,0.0
331.0,-0.004772058,-0.002161659,0.012332221,-0.000655586,0.004996036,0.000999999,-0.003,0.0
332.0,-0.004772058,-0.002161659,0.012332221,-0.000655586,0.004996036,0.000999999,-0.003,0.0
333.0,-0.004772058,-0.002161659,0.012332221,-0.000655586,0.004996036,0.000999999,-0.003,0.0
334.0,-0.004772058,-0.002161659,0.012332221,-0.000655586,0.004996036,0.000999999,-0.003,0.0
335.0,-0.004772058,-0.002161659,0.012332221,-0.000655586,0.004996036,0.001999999,-0.003,-0.001
336.0,-0.004772058,-0.002161659,0.012332221,-0.000655586,0.004996036,0.001999999,-0.003,-0.001
337.0,-0.004772058,-0.002161659,0.012332221,0.000344413,0.003996036,0.001999999,-0.003,-0.001
338.0,-0.004772058,-0.002161659,0.012332221,0.000344413,0.003996036,0.001999999,-0.003,-0.001
339.0,-0.004772058,-0.002161659,0.012332221,0.000344413,0.003996036,0.001999999,-0.003,-0.001
340.0,-0.004772058,-0.002161659,0.012332221,0.000344413,0.003996036,0.001999999,-0.003,-0.001
341.0,-0.004772058,-0.002161659,0.012332221,0.000344413,0.003996036,0.001999999,-0.003,-0.001
342.0,-0.004772058,-0.002161659,0.012332221,0.000344413,0.003996036,0.001999999,-0.003,-0.001
343.0,-0.004772058,-0.002161659,0.012332221,0.000344413,0.003996036,0.001999999,-0.003,-0.001
344.0,-0.004772058,-0.002161659,0.012332221,0.000344413,0.003996036,0.001999999,-0.003,-0.001
345.0,-0.004772058,-0.002161659,0.012332221,0.000344413,0.003996036,0.001999999,-0.003,-0.001
346.0,-0.003772057,-0.002161659,0.012332221,0.000344413,0.003996036,0.001999999,-0.004,-0.001
347.0,-0.003772057,-0.002161659,0.012332221,0.000344413,0.003996036,0.001999999,-0.004,-0.001
348.0,-0.003772057,-0.002161659,0.012332221,0.000344413,0.003996036,0.001999999,-0.004,-0.001
349.0,-0.004772058,-0.002161659,0.012332221,0.000344413,0.003996036,0.001999999,-0.003,-0.001
350.0,-0.004772058,-0.002161659,0.012332221,0.000344413,0.003996036,0.003,-0.004,-0.001
351.0,-0.004772058,-0.002161659,0.012332221,0.000344413,0.003996036,0.003,-0.004,-0.001
352.0,-0.004772058,-0.001161659,0.012332221,0.000344413,0.003996036,0.001999999,-0.004,-0.001
353.0,-0.004772058,-0.001161659,0.012332221,-0.000655586,0.003996036,0.001999999,-0.003,-0.001
354.0,-0.004772058,-0.001161659,0.012332221,-0.000655586,0.003996036,0.001999999,-0.003,-0.001
355.0,-0.004772058,-0.001161659,0.012332221,-0.000655586,0.003996036,0.001999999,-0.003,-0.001
356.0,-0.004772058,-0.001161659,0.012332221,-0.000655586,0.003996036,0.001999999,-0.003,-0.001
357.0,-0.004772058,-0.001161659,0.012332221,-0.000655586,0.003996036,0.003,-0.003,-0.002
358.0,-0.004772058,-0.001161659,0.012332221,-0.000655586,0.003996036,0.003,-0.003,-0.002
359.0,-0.003772057,-0.001161659,0.012332221,-0.000655586,0.003996036,0.001999999,-0.003,-0.002
360.0,-0.003772057,-0.001161659,0.012332221,-0.000655586,0.003996036,0.001999999,-0.003,-0.002
361.0,-0.003772057,-0.001161659,0.012332221,-0.000655586,0.003996036,0.003,-0.004,-0.002
362.0,-0.003772057,-0.001161659,0.012332221,-0.000655586,0.003996036,0.003,-0.004,-0.002
363.0,-0.003772057,-0.001161659,0.012332221,-0.000655586,0.003996036,0.003,-0.004,-0.002
364.0,-0.003772057,-0.001161659,0.012332221,-0.000655586,0.003996036,0.003,-0.004,-0.002
365.0,-0.003772057,-0.001161659,0.012332221,-0.000655586,0.003996036,0.003,-0.004,-0.002
366.0,-0.003772057,-0.001161659,0.012332221,-0.000655586,0.003996036,0.001999999,-0.004,-0.001
367.0,-0.003772057,-0.001161659,0.012332221,-0.000655586,0.003996036,0.001999999,-0.004,-0.001
368.0,-0.003772057,-0.001161659,0.012332221,-0.000655586,0.003996036,0.001999999,-0.004,-0.001
369.0,-0.003772057,-0.001161659,0.012332221,-0.000655586,0.003996036,0.001999999,-0.004,-0.001
370.0,-0.004772058,-0.001161659,0.012332221,-0.000655586,0.003996036,0.001999999,-0.003,-0.001
371.0,-0.004772058,-0.001161659,0.012332221,-0.000655586,0.003996036,0.001999999,-0.003,-0.001
372.0,-0.004772058,-0.001161659,0.012332221,-0.000655586,0.003996036,0.001999999,-0.003,-0.001
373.0,-0.004772058,-0.001161659,0.012332221,-0.000655586,0.003996036,0.003,-0.003,-0.002
374.0,-0.004772058,-0.001161659,0.012332221,-0.000655586,0.003996036,0.001999999,-0.003,-0.001
375.0,-0.004772058,-0.001161659,0.012332221,-0.000655586,0.003996036,0.001999999,-0.003,-0.001
376.0,-0.004772058,-0.000161659,0.012332221,-0.000655586,0.003996036,0.000999999,-0.003,-0.001
377.0,-0.004772058,-0.000161659,0.012332221,-0.000655586,0.003996036,0.000999999,-0.003,-0.001
378.0,-0.004772058,-0.001161659,0.012332221,-0.000655586,0.003996036,0.000999999,-0.001999999,-0.001
379.0,-0.004772058,-0.000161659,0.012332221,-0.000655586,0.003996036,0.000999999,-0.003,-0.001
380.0,-0.004772058,-0.000161659,0.012332221,-0.000655586,0.003996036,0.000999999,-0.003,-0.001
381.0,-0.004772058,-0.000161659,0.012332221,-0.000655586,0.003996036,0.000999999,-0.003,-0.001
382.0,-0.004772058,-0.000161659,0.012332221,-0.000655586,0.003996036,0.000999999,-0.003,-0.001
383.0,-0.004772058,-0.000161659,0.013332221,-0.000655586,0.003996036,0.000999999,-0.004,-0.001
384.0,-0.004772058,-0.000161659,0.013332221,-0.000655586,0.003996036,0.000999999,-0.004,-0.001
385.0,-0.004772058,-0.000161659,0.013332221,-0.000655586,0.003996036,0.000999999,-0.004,-0.001
386.0,-0.004772058,-0.000161659,0.013332221,-0.000655586,0.003996036,0.000999999,-0.004,-0.001
387.0,-0.004772058,-0.000161659,0.013332221,-0.000655586,0.003996036,0.000999999,-0.004,-0.001
388.0,-0.004772058,-0.000161659,0.013332221,-0.000655586,0.003996036,0.000999999,-0.004,-0.001
389.0,-0.004772058,-0.000161659,0.013332221,-0.000655586,0.003996036,0.000999999,-0.004,-0.001
390.0,-0.004772058,-0.000161659,0.013332221,-0.000655586,0.003996036,0.000999999,-0.004,-0.001
391.0,-0.004772058,-0.000161659,0.013332221,-0.000655586,0.003996036,0.000999999,-0.004,-0.001
392.0,-0.004772058,-0.000161659,0.013332221,-0.000655586,0.003996036,0.000999999,-0.004,-0.001
393.0,-0.004772058,-0.000161659,0.013332221,-0.000655586,0.003996036,0.000999999,-0.004,-0.001
394.0,-0.004772058,-0.000161659,0.014332221,-0.000655586,0.002996035,0.000999999,-0.004,-0.001
395.0,-0.004772058,-0.000161659,0.014332221,-0.000655586,0.002996035,0.000999999,-0.004,-0.001
396.0,-0.004772058,-0.000161659,0.014332221,-0.000655586,0.002996035,0.000999999,-0.004,-0.001
397.0,-0.004772058,-0.000161659,0.014332221,-0.001655586,0.003996036,0.000999999,-0.004,-0.001
398.0,-0.004772058,-0.000161659,0.014332221,-0.001655586,0.003996036,0.000999999,-0.004,-0.001
399.0,-0.004772058,-0.000161659,0.014332221,-0.001655586,0.003996036,0.000999999,-0.004,-0.001
400.0,-0.004772058,-0.000161659,0.014332221,-0.001655586,0.003996036,0.000999999,-0.004,-0.001
401.0,-0.004772058,-0.000161659,0.014332221,-0.001655586,0.003996036,0.000999999,-0.004,-0.001
402.0,-0.004772058,-0.000161659,0.014332221,-0.001655586,0.003996036,0.000999999,-0.004,-0.001
403.0,-0.004772058,-0.000161659,0.014332221,-0.001655586,0.003996036,0.000999999,-0.004,-0.001
404.0,-0.004772058,-0.000161659,0.014332221,-0.001655586,0.003996036,0.000999999,-0.004,-0.001
405.0,-0.004772058,-0.000161659,0.014332221,-0.001655586,0.003996036,0.000999999,-0.004,-0.001
406.0,-0.004772058,-0.000161659,0.014332221,-0.001655586,0.003996036,0.000999999,-0.004,-0.001
407.0,-0.004772058,-0.000161659,0.014332221,-0.001655586,0.003996036,0.000999999,-0.004,-0.001
408.0,-0.004772058,-0.000161659,0.014332221,-0.001655586,0.003996036,0.000999999,-0.004,-0.001
409.0,-0.004772058,-0.000161659,0.014332221,-0.001655586,0.003996036,0.000999999,-0.004,-0.001
410.0,-0.004772058,-0.000161659,0.014332221,-0.001655586,0.003996036,0.000999999,-0.004,-0.001
411.0,-0.004772058,-0.001161659,0.014332221,-0.001655586,0.003996036,0.001999999,-0.004,-0.001
412.0,-0.004772058,-0.001161659,0.014332221,-0.001655586,0.003996036,0.000999999,-0.003,-0.001
413.0,-0.004772058,-0.001161659,0.014332221,-0.001655586,0.003996036,0.000999999,-0.003,-0.001
414.0,-0.004772058,-0.001161659,0.014332221,-0.001655586,0.003996036,0.000999999,-0.003,-0.001
415.0,-0.004772058,-0.001161659,0.014332221,-0.001655586,0.003996036,0.000999999,-0.003,-0.001
416.0,-0.004772058,-0.001161659,0.014332221,-0.001655586,0.003996036,0.001999999,-0.003,-0.002
417.0,-0.004772058,-0.001161659,0.014332221,-0.001655586,0.003996036,0.001999999,-0.003,-0.002
418.0,-0.004772058,-0.001161659,0.014332221,-0.001655586,0.003996036,0.001999999,-0.003,-0.002
419.0,-0.004772058,-0.001161659,0.014332221,-0.001655586,0.003996036,0.001999999,-0.003,-0.002
420.0,-0.004772058,-0.001161659,0.014332221,-0.001655586,0.003996036,0.001999999,-0.003,-0.002
421.0,-0.004772058,-0.001161659,0.014332221,-0.001655586,0.003996036,0.001999999,-0.003,-0.002
422.0,-0.004772058,-0.001161659,0.014332221,-0.001655586,0.003996036,0.001999999,-0.003,-0.002
423.0,-0.004772058,-0.001161659,0.014332221,-0.001655586,0.003996036,0.001999999,-0.003,-0.002
424.0,-0.004772058,-0.001161659,0.014332221,-0.001655586,0.003996036,0.001999999,-0.003,-0.002
425.0,-0.004772058,-0.001161659,0.014332221,-0.001655586,0.003996036,0.001999999,-0.003,-0.002
426.0,-0.004772058,-0.001161659,0.014332221,-0.001655586,0.003996036,0.001999999,-0.003,-0.002
427.0,-0.004772058,-0.001161659,0.014332221,-0.001655586,0.003996036,0.000999999,-0.003,-0.001
428.0,-0.003772057,-0.001161659,0.014332221,-0.001655586,0.003996036,0.000999999,-0.004,-0.001
429.0,-0.003772057,-0.001161659,0.014332221,-0.001655586,0.003996036,0.000999999,-0.004,-0.001
430.0,-0.003772057,-0.001161659,0.014332221,-0.001655586,0.003996036,0.000999999,-0.004,-0.001
431.0,-0.003772057,-0.001161659,0.014332221,-0.001655586,0.003996036,0.000999999,-0.004,-0.001
432.0,-0.003772057,-0.001161659,0.014332221,-0.001655586,0.003996036,0.000999999,-0.004,-0.001
433.0,-0.003772057,-0.001161659,0.013332221,-0.000655586,0.003996036,0.000999999,-0.004,-0.001
434.0,-0.004772058,-0.001161659,0.013332221,-0.000655586,0.003996036,0.001999999,-0.004,-0.001
435.0,-0.004772058,-0.001161659,0.013332221,-0.000655586,0.003996036,0.001999999,-0.004,-0.001
436.0,-0.004772058,-0.001161659,0.013332221,-0.000655586,0.003996036,0.001999999,-0.004,-0.001
437.0,-0.004772058,-0.001161659,0.013332221,-0.000655586,0.003996036,0.001999999,-0.004,-0.001
438.0,-0.004772058,-0.001161659,0.013332221,-0.000655586,0.003996036,0.001999999,-0.004,-0.001
439.0,-0.004772058,-0.001161659,0.013332221,-0.000655586,0.003996036,0.001999999,-0.004,-0.001
440.0,-0.004772058,-0.001161659,0.013332221,-0.000655586,0.003996036,0.001999999,-0.004,-0.001
441.0,-0.004772058,-0.001161659,0.013332221,-0.000655586,0.003996036,0.001999999,-0.004,-0.001
442.0,-0.004772058,-0.001161659,0.013332221,-0.000655586,0.003996036,0.001999999,-0.004,-0.001
443.0,-0.004772058,-0.001161659,0.013332221,-0.000655586,0.003996036,0.001999999,-0.004,-0.001
444.0,-0.003772057,-0.001161659,0.013332221,-0.000655586,0.003996036,0.001999999,-0.004,-0.002
445.0,-0.004772058,-0.001161659,0.013332221,0.000344413,0.003996036,0.001999999,-0.004,-0.002
446.0,-0.004772058,-0.001161659,0.013332221,0.000344413,0.003996036,0.001999999,-0.004,-0.002
447.0,-0.004772058,-0.001161659,0.013332221,0.000344413,0.003996036,0.001999999,-0.004,-0.002
448.0,-0.004772058,-0.001161659,0.013332221,0.000344413,0.003996036,0.001999999,-0.004,-0.002
449.0,-0.004772058,-0.001161659,0.013332221,0.000344413,0.003996036,0.001999999,-0.004,-0.002
450.0,-0.004772058,-0.001161659,0.013332221,0.000344413,0.003996036,0.001999999,-0.004,-0.002
451.0,-0.004772058,-0.001161659,0.013332221,0.000344413,0.003996036,0.001999999,-0.004,-0.002
452.0,-0.004772058,-0.001161659,0.013332221,0.000344413,0.003996036,0.001999999,-0.004,-0.002
453.0,-0.004772058,-0.001161659,0.013332221,0.000344413,0.003996036,0.001999999,-0.004,-0.002
454.0,-0.004772058,-0.001161659,0.013332221,0.000344413,0.003996036,0.000999999,-0.004,-0.001
455.0,-0.003772057,-0.001161659,0.013332221,-0.000655586,0.003996036,0.000999999,-0.004,-0.001
456.0,-0.003772057,-0.001161659,0.013332221,-0.000655586,0.003996036,0.000999999,-0.004,-0.001
457.0,-0.003772057,-0.001161659,0.013332221,-0.000655586,0.003996036,0.000999999,-0.004,-0.001
458.0,-0.003772057,-0.001161659,0.013332221,-0.000655586,0.003996036,0.000999999,-0.004,-0.001
459.0,-0.003772057,-0.001161659,0.013332221,-0.000655586,0.003996036,0.000999999,-0.004,-0.001
460.0,-0.003772057,-0.001161659,0.013332221,-0.000655586,0.003996036,0.000999999,-0.004,-0.001
461.0,-0.003772057,-0.001161659,0.013332221,-0.000655586,0.003996036,0.000999999,-0.004,-0.001
462.0,-0.003772057,-0.001161659,0.013332221,-0.000655586,0.003996036,0.000999999,-0.003,-0.002
463.0,-0.003772057,-0.001161659,0.013332221,-0.000655586,0.003996036,0.000999999,-0.003,-0.002
464.0,-0.003772057,-0.001161659,0.013332221,-0.000655586,0.003996036,0.000999999,-0.003,-0.002
465.0,-0.003772057,-0.001161659,0.013332221,-0.000655586,0.003996036,0.001999999,-0.004,-0.002
466.0,-0.003772057,-0.001161659,0.013332221,-0.000655586,0.003996036,0.003,-0.005,-0.002
467.0,-0.003772057,-0.001161659,0.013332221,-0.000655586,0.003996036,0.003,-0.005,-0.002
468.0,-0.003772057,-0.001161659,0.013332221,-0.000655586,0.003996036,0.003,-0.005,-0.002
469.0,-0.003772057,-0.001161659,0.013332221,-0.000655586,0.003996036,0.003,-0.005,-0.002
470.0,-0.003772057,-0.001161659,0.013332221,-0.000655586,0.003996036,0.003,-0.005,-0.002
471.0,-0.003772057,-0.001161659,0.013332221,-0.000655586,0.003996036,0.003,-0.005,-0.002
472.0,-0.003772057,-0.001161659,0.013332221,-0.000655586,0.003996036,0.001999999,-0.005,-0.001
473.0,-0.003772057,-0.001161659,0.013332221,-0.000655586,0.003996036,0.001999999,-0.005,-0.001
474.0,-0.003772057,-0.001161659,0.013332221,-0.000655586,0.003996036,0.001999999,-0.005,-0.001
475.0,-0.003772057,-0.001161659,0.013332221,-0.000655586,0.003996036,0.001999999,-0.005,-0.001
476.0,-0.003772057,-0.001161659,0.013332221,-0.000655586,0.003996036,0.001999999,-0.005,-0.001
477.0,-0.003772057,-0.001161659,0.013332221,-0.000655586,0.003996036,0.001999999,-0.005,-0.001
478.0,-0.003772057,-0.001161659,0.012332221,-0.000655586,0.003996036,0.003,-0.005,-0.001
479.0,-0.003772057,-0.001161659,0.012332221,-0.000655586,0.003996036,0.003,-0.005,-0.001
480.0,-0.003772057,-0.001161659,0.012332221,-0.000655586,0.003996036,0.003,-0.005,-0.001
481.0,-0.003772057,-0.001161659,0.012332221,-0.000655586,0.003996036,0.003,-0.005,-0.001
482.0,-0.003772057,-0.001161659,0.012332221,-0.000655586,0.003996036,0.004,-0.005,-0.002
483.0,-0.003772057,-0.001161659,0.013332221,-0.000655586,0.003996036,0.003,-0.005,-0.002
484.0,-0.003772057,-0.001161659,0.013332221,-0.000655586,0.003996036,0.003,-0.005,-0.002
485.0,-0.003772057,-0.001161659,0.013332221,-0.000655586,0.003996036,0.003,-0.005,-0.002
486.0,-0.003772057,-0.000161659,0.013332221,-0.000655586,0.003996036,0.001999999,-0.005,-0.002
487.0,-0.003772057,-0.000161659,0.013332221,-0.000655586,0.003996036,0.001999999,-0.005,-0.002
488.0,-0.003772057,-0.000161659,0.013332221,-0.000655586,0.003996036,0.001999999,-0.005,-0.002
489.0,-0.003772057,-0.000161659,0.014332221,-0.000655586,0.002996035,0.001999999,-0.005,-0.002
490.0,-0.003772057,-0.000161659,0.014332221,-0.001655586,0.003996036,0.001999999,-0.005,-0.002
491.0,-0.003772057,-0.000161659,0.014332221,-0.001655586,0.003996036,0.001999999,-0.005,-0.002
492.0,-0.003772057,-0.000161659,0.014332221,-0.001655586,0.003996036,0.001999999,-0.005,-0.002
493.0,-0.003772057,-0.000161659,0.014332221,-0.001655586,0.003996036,0.001999999,-0.005,-0.002
494.0,-0.003772057,-0.001161659,0.014332221,-0.000655586,0.003996036,0.001999999,-0.005,-0.002
495.0,-0.003772057,-0.001161659,0.014332221,-0.000655586,0.003996036,0.001999999,-0.005,-0.002
496.0,-0.003772057,-0.001161659,0.014332221,-0.000655586,0.003996036,0.001999999,-0.005,-0.002
497.0,-0.003772057,-0.001161659,0.014332221,-0.000655586,0.003996036,0.001999999,-0.005,-0.002
498.0,-0.003772057,-0.001161659,0.014332221,-0.000655586,0.003996036,0.001999999,-0.005,-0.002
499.0,-0.003772057,-0.001161659,0.014332221,-0.000655586,0.003996036,0.001999999,-0.005,-0.002
500.0,-0.003772057,-0.001161659,0.014332221,-0.000655586,0.003996036,0.001999999,-0.005,-0.002
501.0,-0.003772057,-0.001161659,0.014332221,-0.000655586,0.003996036,0.001999999,-0.005,-0.002
502.0,-0.003772057,-0.001161659,0.014332221,-0.000655586,0.003996036,0.001999999,-0.005,-0.002
503.0,-0.003772057,-0.001161659,0.014332221,-0.000655586,0.003996036,0.001999999,-0.005,-0.002
504.0,-0.003772057,-0.001161659,0.014332221,-0.000655586,0.003996036,0.001999999,-0.005,-0.002
505.0,-0.003772057,-0.001161659,0.014332221,-0.000655586,0.003996036,0.001999999,-0.005,-0.002
506.0,-0.003772057,-0.001161659,0.014332221,-0.000655586,0.003996036,0.001999999,-0.005,-0.002
507.0,-0.003772057,-0.001161659,0.014332221,-0.000655586,0.003996036,0.001999999,-0.005,-0.002
508.0,-0.003772057,-0.001161659,0.014332221,-0.000655586,0.003996036,0.001999999,-0.005,-0.002
509.0,-0.003772057,-0.001161659,0.014332221,-0.000655586,0.003996036,0.001999999,-0.005,-0.002
510.0,-0.003772057,-0.001161659,0.014332221,-0.000655586,0.003996036,0.000999999,-0.005,-0.001
511.0,-0.003772057,-0.001161659,0.014332221,-0.000655586,0.003996036,0.000999999,-0.005,-0.001
512.0,-0.003772057,-0.001161659,0.014332221,-0.000655586,0.003996036,0.000999999,-0.005,-0.001
513.0,-0.003772057,-0.001161659,0.014332221,-0.000655586,0.003996036,0.001999999,-0.005,-0.002
514.0,-0.003772057,-0.001161659,0.014332221,-0.000655586,0.003996036,0.001999999,-0.005,-0.002
515.0,-0.003772057,-0.001161659,0.014332221,-0.000655586,0.003996036,0.001999999,-0.005,-0.002
516.0,-0.003772057,-0.001161659,0.014332221,-0.000655586,0.003996036,0.001999999,-0.005,-0.002
517.0,-0.003772057,-0.001161659,0.014332221,-0.000655586,0.003996036,0.001999999,-0.005,-0.002
518.0,-0.003772057,-0.001161659,0.014332221,-0.000655586,0.003996036,0.001999999,-0.005,-0.002
519.0,-0.003772057,-0.001161659,0.014332221,-0.000655586,0.003996036,0.001999999,-0.005,-0.002
520.0,-0.003772057,-0.001161659,0.014332221,-0.000655586,0.003996036,0.001999999,-0.005,-0.002
521.0,-0.003772057,-0.001161659,0.014332221,-0.000655586,0.003996036,0.001999999,-0.005,-0.002
522.0,-0.003772057,-0.001161659,0.014332221,-0.000655586,0.003996036,0.001999999,-0.005,-0.002
523.0,-0.003772057,-0.001161659,0.015332221,-0.001655586,0.003996036,0.001999999,-0.005,-0.002
524.0,-0.003772057,-0.001161659,0.015332221,-0.001655586,0.003996036,0.001999999,-0.005,-0.002
525.0,-0.004772058,-0.001161659,0.015332221,-0.001655586,0.003996036,0.001999999,-0.004,-0.002
526.0,-0.004772058,-0.000161659,0.014332221,-0.001655586,0.003996036,0.001999999,-0.004,-0.002
527.0,-0.004772058,-0.000161659,0.014332221,-0.001655586,0.003996036,0.001999999,-0.004,-0.002
528.0,-0.004772058,-0.000161659,0.014332221,-0.001655586,0.003996036,0.001999999,-0.004,-0.002
529.0,-0.004772058,-0.000161659,0.014332221,-0.001655586,0.003996036,0.003,-0.005,-0.002
530.0,-0.004772058,-0.000161659,0.014332221,-0.001655586,0.003996036,0.003,-0.005,-0.002
531.0,-0.004772058,-0.000161659,0.015332221,-0.001655586,0.003996036,0.001999999,-0.005,-0.002
532.0,-0.004772058,-0.000161659,0.015332221,-0.001655586,0.003996036,0.001999999,-0.005,-0.002
533.0,-0.004772058,-0.001161659,0.015332221,-0.001655586,0.003996036,0.003,-0.005,-0.002
534.0,-0.004772058,-0.001161659,0.015332221,-0.001655586,0.003996036,0.003,-0.005,-0.002
535.0,-0.004772058,-0.001161659,0.014332221,-0.000655586,0.003996036,0.003,-0.005,-0.002
536.0,-0.004772058,-0.001161659,0.014332221,-0.000655586,0.003996036,0.003,-0.005,-0.002
537.0,-0.004772058,-0.001161659,0.014332221,-0.000655586,0.003996036,0.003,-0.005,-0.002
538.0,-0.004772058,-0.001161659,0.014332221,-0.000655586,0.003996036,0.003,-0.005,-0.002
539.0,-0.004772058,-0.001161659,0.014332221,-0.000655586,0.003996036,0.001999999,-0.004,-0.002
540.0,-0.004772058,-0.001161659,0.014332221,-0.000655586,0.003996036,0.000999999,-0.003,-0.002
541.0,-0.003772057,-0.001161659,0.014332221,-0.000655586,0.003996036,0.000999999,-0.004,-0.002
542.0,-0.003772057,-0.001161659,0.014332221,-0.000655586,0.003996036,0.000999999,-0.004,-0.002
543.0,-0.003772057,-0.001161659,0.014332221,-0.000655586,0.003996036,0.000999999,-0.004,-0.002
544.0,-0.003772057,-0.001161659,0.014332221,-0.000655586,0.003996036,0.000999999,-0.004,-0.002
545.0,-0.003772057,-0.001161659,0.014332221,-0.000655586,0.003996036,0.000999999,-0.004,-0.002
546.0,-0.003772057,-0.001161659,0.014332221,-0.000655586,0.003996036,0.000999999,-0.004,-0.002
547.0,-0.003772057,-0.001161659,0.014332221,-0.000655586,0.003996036,0.001999999,-0.005,-0.002
548.0,-0.004772058,-0.001161659,0.014332221,-0.000655586,0.003996036,0.001999999,-0.005,-0.001
549.0,-0.004772058,-0.001161659,0.014332221,-0.000655586,0.003996036,0.001999999,-0.005,-0.001
550.0,-0.004772058,-0.001161659,0.014332221,-0.000655586,0.003996036,0.001999999,-0.005,-0.001
551.0,-0.004772058,-0.001161659,0.014332221,-0.000655586,0.003996036,0.001999999,-0.005,-0.001
552.0,-0.004772058,-0.001161659,0.014332221,-0.000655586,0.003996036,0.001999999,-0.005,-0.001
553.0,-0.004772058,-0.001161659,0.014332221,-0.000655586,0.003996036,0.001999999,-0.005,-0.001
554.0,-0.004772058,-0.001161659,0.014332221,-0.000655586,0.003996036,0.001999999,-0.005,-0.001
555.0,-0.004772058,-0.001161659,0.014332221,-0.000655586,0.003996036,0.001999999,-0.005,-0.001
556.0,-0.004772058,-0.001161659,0.014332221,-0.000655586,0.003996036,0.001999999,-0.005,-0.001
557.0,-0.004772058,-0.001161659,0.014332221,-0.000655586,0.003996036,0.001999999,-0.005,-0.001
558.0,-0.004772058,-0.001161659,0.014332221,-0.000655586,0.003996036,0.001999999,-0.005,-0.001
559.0,-0.004772058,-0.001161659,0.014332221,-0.000655586,0.003996036,0.001999999,-0.005,-0.001
560.0,-0.004772058,-0.001161659,0.014332221,-0.000655586,0.003996036,0.001999999,-0.005,-0.001
561.0,-0.004772058,-0.001161659,0.014332221,-0.000655586,0.003996036,0.000999999,-0.005,0.0
562.0,-0.004772058,-0.001161659,0.014332221,-0.000655586,0.003996036,0.000999999,-0.005,0.0
563.0,-0.004772058,-0.001161659,0.014332221,-0.000655586,0.003996036,0.000999999,-0.005,0.0
564.0,-0.004772058,-0.001161659,0.014332221,-0.000655586,0.003996036,0.000999999,-0.005,0.0
565.0,-0.004772058,-0.001161659,0.014332221,-0.000655586,0.003996036,0.001999999,-0.005,-0.001
566.0,-0.004772058,-0.001161659,0.014332221,-0.000655586,0.003996036,0.001999999,-0.005,-0.001
567.0,-0.004772058,-0.001161659,0.014332221,-0.000655586,0.003996036,0.001999999,-0.005,-0.001
568.0,-0.004772058,-0.001161659,0.014332221,-0.000655586,0.003996036,0.001999999,-0.005,-0.001
569.0,-0.004772058,-0.001161659,0.014332221,-0.000655586,0.003996036,0.001999999,-0.005,-0.001
570.0,-0.004772058,-0.001161659,0.014332221,-0.000655586,0.003996036,0.000999999,-0.004,-0.001
571.0,-0.004772058,-0.001161659,0.014332221,-0.000655586,0.003996036,0.000999999,-0.004,-0.001
572.0,-0.004772058,-0.001161659,0.014332221,-0.000655586,0.003996036,0.000999999,-0.004,-0.001
573.0,-0.004772058,-0.001161659,0.014332221,-0.000655586,0.003996036,0.000999999,-0.004,-0.001
574.0,-0.004772058,-0.001161659,0.014332221,-0.000655586,0.003996036,0.000999999,-0.004,-0.001
575.0,-0.004772058,-0.001161659,0.013332221,-0.000655586,0.003996036,0.001999999,-0.004,-0.001
576.0,-0.004772058,-0.001161659,0.013332221,-0.000655586,0.003996036,0.001999999,-0.004,-0.001
577.0,-0.004772058,-0.001161659,0.013332221,-0.000655586,0.003996036,0.001999999,-0.004,-0.001
578.0,-0.004772058,-0.001161659,0.013332221,-0.000655586,0.003996036,0.001999999,-0.004,-0.001
579.0,-0.004772058,-0.001161659,0.013332221,-0.000655586,0.003996036,0.001999999,-0.004,-0.001
580.0,-0.004772058,-0.001161659,0.013332221,-0.000655586,0.003996036,0.001999999,-0.004,-0.001
581.0,-0.004772058,-0.001161659,0.013332221,-0.000655586,0.003996036,0.001999999,-0.004,-0.001
582.0,-0.004772058,-0.001161659,0.013332221,-0.000655586,0.003996036,0.001999999,-0.004,-0.001
583.0,-0.004772058,-0.001161659,0.013332221,-0.000655586,0.003996036,0.001999999,-0.004,-0.001
584.0,-0.004772058,-0.000161659,0.012332221,-0.000655586,0.003996036,0.001999999,-0.004,-0.001
585.0,-0.004772058,-0.000161659,0.012332221,-0.000655586,0.003996036,0.001999999,-0.004,-0.001
586.0,-0.004772058,-0.001161659,0.013332221,-0.000655586,0.003996036,0.001999999,-0.004,-0.001
587.0,-0.004772058,-0.001161659,0.013332221,-0.000655586,0.003996036,0.001999999,-0.004,-0.001
588.0,-0.004772058,-0.001161659,0.013332221,-0.000655586,0.003996036,0.000999999,-0.004,0.0
589.0,-0.004772058,-0.001161659,0.013332221,-0.000655586,0.003996036,0.000999999,-0.004,0.0
590.0,-0.004772058,-0.001161659,0.013332221,-0.000655586,0.003996036,0.000999999,-0.004,0.0
591.0,-0.004772058,-0.001161659,0.013332221,-0.000655586,0.003996036,0.000999999,-0.004,0.0
592.0,-0.004772058,-0.001161659,0.013332221,-0.000655586,0.003996036,0.000999999,-0.004,0.0
593.0,-0.004772058,-0.001161659,0.013332221,-0.000655586,0.003996036,0.000999999,-0.004,0.0
594.0,-0.004772058,-0.001161659,0.013332221,-0.000655586,0.003996036,0.001999999,-0.004,-0.001
595.0,-0.004772058,-0.001161659,0.013332221,-0.000655586,0.003996036,0.001999999,-0.004,-0.001
596.0,-0.003772057,-0.001161659,0.013332221,-0.000655586,0.003996036,0.001999999,-0.004,-0.002
597.0,-0.003772057,-0.001161659,0.013332221,-0.000655586,0.003996036,0.001999999,-0.004,-0.002
598.0,-0.003772057,-0.001161659,0.013332221,-0.000655586,0.003996036,0.000999999,-0.004,-0.001
599.0,-0.003772057,-0.001161659,0.013332221,-0.000655586,0.003996036,0.001999999,-0.004,-0.002
600.0,-0.003772057,-0.001161659,0.013332221,-0.000655586,0.003996036,0.001999999,-0.004,-0.002
601.0,-0.003772057,-0.001161659,0.013332221,-0.000655586,0.003996036,0.001999999,-0.004,-0.002
602.0,-0.003772057,-0.001161659,0.013332221,-0.000655586,0.003996036,0.001999999,-0.004,-0.002
603.0,-0.003772057,-0.001161659,0.013332221,-0.000655586,0.003996036,0.001999999,-0.004,-0.002
604.0,-0.003772057,-0.001161659,0.013332221,-0.000655586,0.003996036,0.001999999,-0.004,-0.002
605.0,-0.004772058,-0.001161659,0.013332221,-0.000655586,0.003996036,0.003,-0.004,-0.002
606.0,-0.004772058,-0.001161659,0.013332221,-0.000655586,0.003996036,0.001999999,-0.003,-0.002
607.0,-0.004772058,-0.001161659,0.013332221,-0.000655586,0.003996036,0.000999999,-0.003,-0.001
608.0,-0.004772058,-0.001161659,0.013332221,-0.000655586,0.003996036,0.000999999,-0.003,-0.001
609.0,-0.004772058,-0.001161659,0.013332221,-0.000655586,0.003996036,0.000999999,-0.003,-0.001
610.0,-0.004772058,-0.001161659,0.013332221,-0.000655586,0.003996036,0.000999999,-0.003,-0.001
611.0,-0.003772057,-0.001161659,0.013332221,-0.000655586,0.003996036,0.000999999,-0.004,-0.001
612.0,-0.004772058,-0.001161659,0.013332221,-0.000655586,0.003996036,0.000999999,-0.003,-0.001
613.0,-0.004772058,-0.001161659,0.013332221,-0.000655586,0.003996036,0.000999999,-0.003,-0.001
614.0,-0.004772058,-0.001161659,0.013332221,-0.000655586,0.003996036,0.001999999,-0.004,-0.001
615.0,-0.004772058,-0.001161659,0.013332221,-0.000655586,0.003996036,0.001999999,-0.004,-0.001
616.0,-0.004772058,-0.001161659,0.013332221,-0.000655586,0.003996036,0.001999999,-0.004,-0.001
617.0,-0.004772058,-0.001161659,0.013332221,-0.000655586,0.003996036,0.001999999,-0.004,-0.001
618.0,-0.004772058,-0.001161659,0.013332221,-0.000655586,0.003996036,0.001999999,-0.004,-0.001
619.0,-0.004772058,-0.001161659,0.013332221,-0.000655586,0.003996036,0.001999999,-0.004,-0.001
620.0,-0.004772058,-0.001161659,0.013332221,-0.000655586,0.003996036,0.000999999,-0.003,-0.001
621.0,-0.004772058,-0.001161659,0.013332221,-0.000655586,0.003996036,0.000999999,-0.003,-0.001
622.0,-0.004772058,-0.001161659,0.013332221,-0.000655586,0.003996036,0.000999999,-0.003,-0.001
623.0,-0.004772058,-0.001161659,0.013332221,-0.000655586,0.003996036,0.000999999,-0.003,-0.001
624.0,-0.004772058,-0.001161659,0.013332221,-0.000655586,0.003996036,0.001999999,-0.003,-0.002
625.0,-0.004772058,-0.001161659,0.013332221,-0.000655586,0.003996036,0.001999999,-0.003,-0.002
626.0,-0.004772058,-0.001161659,0.013332221,-0.000655586,0.003996036,0.001999999,-0.003,-0.002
627.0,-0.004772058,-0.001161659,0.013332221,-0.000655586,0.004996036,0.000999999,-0.003,-0.002
628.0,-0.004772058,-0.000161659,0.013332221,-0.000655586,0.004996036,0.000999999,-0.004,-0.002
629.0,-0.004772058,-0.000161659,0.013332221,-0.000655586,0.004996036,0.000999999,-0.004,-0.002
630.0,-0.004772058,-0.001161659,0.013332221,-0.000655586,0.004996036,0.000999999,-0.003,-0.002
631.0,-0.004772058,-0.001161659,0.013332221,-0.000655586,0.004996036,0.001999999,-0.004,-0.002
632.0,-0.004772058,-0.001161659,0.013332221,-0.000655586,0.004996036,0.001999999,-0.004,-0.002
633.0,-0.004772058,-0.001161659,0.013332221,-0.000655586,0.004996036,0.001999999,-0.004,-0.002
634.0,-0.004772058,-0.001161659,0.013332221,-0.000655586,0.004996036,0.001999999,-0.004,-0.002
635.0,-0.004772058,-0.001161659,0.013332221,-0.000655586,0.004996036,0.001999999,-0.004,-0.002
636.0,-0.004772058,-0.001161659,0.013332221,-0.000655586,0.004996036,0.001999999,-0.004,-0.002
637.0,-0.004772058,-0.001161659,0.013332221,-0.000655586,0.004996036,0.001999999,-0.004,-0.002
638.0,-0.004772058,-0.001161659,0.013332221,-0.000655586,0.004996036,0.001999999,-0.004,-0.002
639.0,-0.004772058,-0.001161659,0.013332221,-0.000655586,0.004996036,0.000999999,-0.003,-0.002
640.0,-0.004772058,-0.001161659,0.013332221,-0.000655586,0.004996036,0.000999999,-0.003,-0.002
641.0,-0.004772058,-0.001161659,0.013332221,-0.000655586,0.004996036,0.000999999,-0.003,-0.002
642.0,-0.004772058,-0.001161659,0.014332221,-0.000655586,0.004996036,0.000999999,-0.004,-0.002
643.0,-0.004772058,-0.001161659,0.014332221,-0.000655586,0.004996036,0.000999999,-0.004,-0.002
644.0,-0.004772058,-0.001161659,0.014332221,-0.000655586,0.004996036,0.000999999,-0.004,-0.002
645.0,-0.004772058,-0.001161659,0.014332221,-0.000655586,0.004996036,0.000999999,-0.004,-0.002
646.0,-0.004772058,-0.001161659,0.014332221,-0.000655586,0.004996036,0.000999999,-0.004,-0.002
647.0,-0.004772058,-0.001161659,0.014332221,-0.000655586,0.004996036,0.000999999,-0.005,-0.001
648.0,-0.004772058,-0.001161659,0.014332221,-0.000655586,0.004996036,0.000999999,-0.005,-0.001
649.0,-0.004772058,-0.001161659,0.014332221,-0.000655586,0.004996036,0.000999999,-0.005,-0.001
650.0,-0.004772058,-0.001161659,0.014332221,-0.000655586,0.004996036,0.000999999,-0.005,-0.001
651.0,-0.004772058,-0.001161659,0.014332221,-0.000655586,0.004996036,0.000999999,-0.005,-0.001
652.0,-0.004772058,-0.001161659,0.014332221,-0.000655586,0.004996036,0.000999999,-0.005,-0.001
653.0,-0.004772058,-0.002161659,0.015332221,-0.000655586,0.004996036,0.000999999,-0.005,-0.001
654.0,-0.004772058,-0.002161659,0.015332221,-0.000655586,0.004996036,0.000999999,-0.005,-0.001
655.0,-0.004772058,-0.002161659,0.015332221,-0.000655586,0.004996036,0.000999999,-0.005,-0.001
656.0,-0.004772058,-0.002161659,0.015332221,-0.000655586,0.004996036,0.000999999,-0.005,-0.001
657.0,-0.004772058,-0.002161659,0.015332221,-0.000655586,0.004996036,0.000999999,-0.005,-0.001
658.0,-0.004772058,-0.002161659,0.015332221,0.000344413,0.003996036,0.000999999,-0.005,-0.001
659.0,-0.004772058,-0.002161659,0.015332221,0.000344413,0.003996036,0.000999999,-0.005,-0.001
660.0,-0.004772058,-0.002161659,0.015332221,0.000344413,0.003996036,0.000999999,-0.005,-0.001
661.0,-0.004772058,-0.002161659,0.015332221,0.000344413,0.003996036,0.000999999,-0.005,-0.001
662.0,-0.004772058,-0.002161659,0.015332221,0.000344413,0.003996036,0.000999999,-0.005,-0.001
663.0,-0.004772058,-0.002161659,0.015332221,0.000344413,0.003996036,0.000999999,-0.005,-0.001
664.0,-0.004772058,-0.002161659,0.015332221,0.000344413,0.003996036,0.000999999,-0.005,-0.001
665.0,-0.004772058,-0.002161659,0.015332221,0.000344413,0.003996036,0.000999999,-0.005,-0.001
666.0,-0.004772058,-0.002161659,0.015332221,0.000344413,0.003996036,0.000999999,-0.005,-0.001
667.0,-0.004772058,-0.002161659,0.015332221,0.000344413,0.003996036,0.000999999,-0.005,-0.001
668.0,-0.004772058,-0.002161659,0.015332221,0.000344413,0.003996036,0.000999999,-0.005,-0.001
669.0,-0.004772058,-0.002161659,0.015332221,-0.000655586,0.004996036,0.000999999,-0.005,-0.001
670.0,-0.004772058,-0.002161659,0.014332221,-0.000655586,0.004996036,0.001999999,-0.005,-0.001
671.0,-0.004772058,-0.002161659,0.014332221,-0.000655586,0.004996036,0.001999999,-0.005,-0.001
672.0,-0.004772058,-0.002161659,0.014332221,-0.000655586,0.004996036,0.001999999,-0.005,-0.001
673.0,-0.004772058,-0.002161659,0.014332221,-0.000655586,0.004996036,0.001999999,-0.005,-0.001
674.0,-0.004772058,-0.002161659,0.014332221,-0.000655586,0.004996036,0.001999999,-0.005,-0.001
675.0,-0.004772058,-0.002161659,0.014332221,-0.000655586,0.004996036,0.001999999,-0.005,-0.001
676.0,-0.004772058,-0.002161659,0.014332221,-0.000655586,0.004996036,0.000999999,-0.004,-0.001
677.0,-0.004772058,-0.002161659,0.014332221,-0.000655586,0.004996036,0.000999999,-0.004,-0.001
678.0,-0.004772058,-0.002161659,0.014332221,-0.000655586,0.004996036,0.000999999,-0.004,-0.001
679.0,-0.004772058,-0.002161659,0.014332221,-0.000655586,0.004996036,0.000999999,-0.004,-0.001
680.0,-0.004772058,-0.002161659,0.014332221,-0.000655586,0.004996036,0.000999999,-0.004,-0.001
681.0,-0.004772058,-0.002161659,0.014332221,-0.000655586,0.004996036,0.000999999,-0.004,-0.001
682.0,-0.004772058,-0.002161659,0.014332221,-0.000655586,0.004996036,0.000999999,-0.004,-0.001
683.0,-0.004772058,-0.002161659,0.014332221,-0.000655586,0.003996036,0.001999999,-0.004,-0.001
684.0,-0.004772058,-0.002161659,0.014332221,-0.000655586,0.003996036,0.001999999,-0.004,-0.001
685.0,-0.004772058,-0.002161659,0.014332221,-0.000655586,0.003996036,0.001999999,-0.004,-0.001
686.0,-0.004772058,-0.002161659,0.014332221,-0.000655586,0.003996036,0.001999999,-0.004,-0.001
687.0,-0.004772058,-0.002161659,0.014332221,-0.000655586,0.003996036,0.001999999,-0.004,-0.001
688.0,-0.004772058,-0.002161659,0.014332221,-0.000655586,0.003996036,0.001999999,-0.004,-0.001
689.0,-0.004772058,-0.002161659,0.014332221,-0.000655586,0.003996036,0.001999999,-0.004,-0.001
690.0,-0.004772058,-0.002161659,0.014332221,-0.000655586,0.003996036,0.001999999,-0.004,-0.001
691.0,-0.004772058,-0.002161659,0.014332221,-0.000655586,0.003996036,0.001999999,-0.004,-0.001
692.0,-0.004772058,-0.002161659,0.014332221,-0.000655586,0.003996036,0.001999999,-0.004,-0.001
693.0,-0.004772058,-0.002161659,0.014332221,-0.000655586,0.003996036,0.001999999,-0.004,-0.001
694.0,-0.004772058,-0.002161659,0.014332221,-0.000655586,0.003996036,0.001999999,-0.004,-0.001
695.0,-0.004772058,-0.002161659,0.014332221,-0.000655586,0.003996036,0.001999999,-0.004,-0.001
696.0,-0.004772058,-0.002161659,0.014332221,-0.000655586,0.003996036,0.001999999,-0.004,-0.001
697.0,-0.004772058,-0.002161659,0.014332221,-0.000655586,0.003996036,0.003,-0.004,-0.002
698.0,-0.004772058,-0.002161659,0.014332221,-0.000655586,0.003996036,0.003,-0.004,-0.002
699.0,-0.004772058,-0.002161659,0.014332221,-0.000655586,0.003996036,0.003,-0.004,-0.002
700.0,-0.004772058,-0.002161659,0.014332221,-0.000655586,0.003996036,0.003,-0.004,-0.002
701.0,-0.004772058,-0.002161659,0.014332221,-0.000655586,0.003996036,0.003,-0.004,-0.002
702.0,-0.004772058,-0.002161659,0.014332221,-0.000655586,0.003996036,0.001999999,-0.004,-0.001
703.0,-0.004772058,-0.002161659,0.014332221,-0.000655586,0.003996036,0.003,-0.004,-0.002
704.0,-0.004772058,-0.002161659,0.014332221,-0.000655586,0.003996036,0.003,-0.004,-0.002
705.0,-0.004772058,-0.002161659,0.014332221,-0.000655586,0.003996036,0.003,-0.004,-0.002
706.0,-0.004772058,-0.002161659,0.014332221,-0.000655586,0.003996036,0.003,-0.004,-0.002
707.0,-0.004772058,-0.002161659,0.014332221,-0.000655586,0.003996036,0.003,-0.004,-0.002
708.0,-0.004772058,-0.002161659,0.014332221,-0.000655586,0.003996036,0.003,-0.004,-0.002
709.0,-0.004772058,-0.002161659,0.014332221,-0.000655586,0.003996036,0.003,-0.004,-0.002
710.0,-0.004772058,-0.002161659,0.014332221,-0.000655586,0.003996036,0.003,-0.004,-0.002
711.0,-0.004772058,-0.002161659,0.014332221,-0.000655586,0.003996036,0.001999999,-0.004,-0.001
712.0,-0.004772058,-0.002161659,0.014332221,-0.000655586,0.003996036,0.001999999,-0.004,-0.001
713.0,-0.004772058,-0.002161659,0.014332221,-0.000655586,0.003996036,0.001999999,-0.004,-0.001
714.0,-0.004772058,-0.002161659,0.014332221,-0.000655586,0.003996036,0.001999999,-0.004,-0.001
715.0,-0.004772058,-0.002161659,0.014332221,-0.000655586,0.004996036,0.001999999,-0.004,-0.002
716.0,-0.004772058,-0.002161659,0.014332221,-0.000655586,0.004996036,0.001999999,-0.004,-0.002
717.0,-0.004772058,-0.002161659,0.014332221,-0.000655586,0.004996036,0.001999999,-0.004,-0.002
718.0,-0.004772058,-0.002161659,0.014332221,-0.000655586,0.004996036,0.001999999,-0.004,-0.002
719.0,-0.004772058,-0.002161659,0.014332221,-0.000655586,0.004996036,0.001999999,-0.004,-0.002
720.0,-0.004772058,-0.002161659,0.014332221,-0.000655586,0.004996036,0.001999999,-0.004,-0.002
721.0,-0.004772058,-0.002161659,0.015332221,-0.000655586,0.003996036,0.001999999,-0.004,-0.002
722.0,-0.004772058,-0.002161659,0.015332221,-0.000655586,0.003996036,0.001999999,-0.004,-0.002
723.0,-0.004772058,-0.002161659,0.015332221,-0.000655586,0.003996036,0.001999999,-0.004,-0.002
724.0,-0.004772058,-0.002161659,0.015332221,0.000344413,0.002996035,0.001999999,-0.004,-0.002
725.0,-0.004772058,-0.002161659,0.015332221,0.000344413,0.002996035,0.001999999,-0.004,-0.002
726.0,-0.004772058,-0.002161659,0.015332221,0.000344413,0.002996035,0.001999999,-0.004,-0.002
727.0,-0.004772058,-0.002161659,0.015332221,0.000344413,0.002996035,0.001999999,-0.004,-0.002
728.0,-0.004772058,-0.002161659,0.015332221,0.000344413,0.002996035,0.001999999,-0.004,-0.002
729.0,-0.004772058,-0.002161659,0.014332221,0.000344413,0.002996035,0.003,-0.004,-0.002
730.0,-0.004772058,-0.002161659,0.014332221,0.000344413,0.002996035,0.003,-0.004,-0.002
731.0,-0.004772058,-0.002161659,0.014332221,0.000344413,0.002996035,0.003,-0.004,-0.002
732.0,-0.004772058,-0.002161659,0.014332221,0.000344413,0.002996035,0.003,-0.004,-0.002
733.0,-0.004772058,-0.002161659,0.014332221,0.000344413,0.002996035,0.003,-0.004,-0.002
734.0,-0.004772058,-0.002161659,0.014332221,0.000344413,0.002996035,0.003,-0.004,-0.002
735.0,-0.004772058,-0.002161659,0.014332221,0.000344413,0.002996035,0.003,-0.004,-0.002
736.0,-0.004772058,-0.002161659,0.014332221,0.000344413,0.002996035,0.001999999,-0.004,-0.001
737.0,-0.004772058,-0.002161659,0.014332221,0.000344413,0.002996035,0.001999999,-0.004,-0.001
738.0,-0.004772058,-0.002161659,0.014332221,0.000344413,0.002996035,0.001999999,-0.004,-0.001
739.0,-0.004772058,-0.002161659,0.014332221,0.000344413,0.002996035,0.001999999,-0.004,-0.001
740.0,-0.004772058,-0.002161659,0.014332221,0.000344413,0.002996035,0.001999999,-0.004,-0.001
741.0,-0.004772058,-0.002161659,0.015332221,0.000344413,0.002996035,0.001999999,-0.005,-0.001
742.0,-0.004772058,-0.002161659,0.014332221,0.000344413,0.002996035,0.001999999,-0.004,-0.001
743.0,-0.004772058,-0.002161659,0.014332221,0.000344413,0.002996035,0.001999999,-0.004,-0.001
744.0,-0.004772058,-0.002161659,0.014332221,0.000344413,0.002996035,0.001999999,-0.004,-0.001
745.0,-0.004772058,-0.002161659,0.014332221,0.000344413,0.002996035,0.001999999,-0.004,-0.001
746.0,-0.004772058,-0.002161659,0.014332221,0.000344413,0.002996035,0.001999999,-0.004,-0.001
747.0,-0.004772058,-0.002161659,0.014332221,0.000344413,0.002996035,0.001999999,-0.004,-0.001
748.0,-0.004772058,-0.002161659,0.014332221,0.000344413,0.002996035,0.000999999,-0.004,0.0
749.0,-0.004772058,-0.002161659,0.014332221,0.000344413,0.002996035,0.000999999,-0.004,0.0
750.0,-0.003772057,-0.002161659,0.014332221,0.000344413,0.002996035,0.000999999,-0.004,-0.001
751.0,-0.003772057,-0.002161659,0.014332221,-0.000655586,0.003996036,0.000999999,-0.004,-0.001
752.0,-0.003772057,-0.002161659,0.014332221,-0.000655586,0.003996036,0.000999999,-0.004,-0.001
753.0,-0.003772057,-0.002161659,0.014332221,-0.000655586,0.003996036,0.000999999,-0.004,-0.001
754.0,-0.003772057,-0.002161659,0.014332221,-0.000655586,0.003996036,0.000999999,-0.004,-0.001
755.0,-0.004772058,-0.002161659,0.014332221,-0.000655586,0.003996036,0.001999999,-0.004,-0.001
756.0,-0.004772058,-0.002161659,0.014332221,-0.000655586,0.003996036,0.001999999,-0.004,-0.001
757.0,-0.004772058,-0.002161659,0.014332221,-0.000655586,0.003996036,0.001999999,-0.004,-0.001
758.0,-0.004772058,-0.002161659,0.014332221,-0.000655586,0.003996036,0.003,-0.004,-0.002
759.0,-0.004772058,-0.002161659,0.014332221,-0.000655586,0.003996036,0.003,-0.004,-0.002
760.0,-0.004772058,-0.002161659,0.015332221,-0.001655586,0.003996036,0.003,-0.004,-0.002
761.0,-0.004772058,-0.001161659,0.015332221,-0.001655586,0.003996036,0.001999999,-0.004,-0.002
762.0,-0.004772058,-0.001161659,0.015332221,-0.001655586,0.003996036,0.001999999,-0.004,-0.002
763.0,-0.004772058,-0.001161659,0.014332221,-0.001655586,0.003996036,0.003,-0.004,-0.002
764.0,-0.004772058,-0.001161659,0.014332221,-0.001655586,0.003996036,0.003,-0.004,-0.002
765.0,-0.004772058,-0.001161659,0.014332221,-0.001655586,0.003996036,0.003,-0.004,-0.002
766.0,-0.004772058,-0.001161659,0.014332221,-0.001655586,0.003996036,0.003,-0.004,-0.002
767.0,-0.004772058,-0.001161659,0.014332221,-0.001655586,0.003996036,0.003,-0.004,-0.002
768.0,-0.004772058,-0.001161659,0.014332221,-0.001655586,0.003996036,0.003,-0.004,-0.002
769.0,-0.004772058,-0.001161659,0.014332221,-0.001655586,0.003996036,0.001999999,-0.004,-0.001
770.0,-0.004772058,-0.001161659,0.014332221,-0.001655586,0.003996036,0.001999999,-0.004,-0.001
771.0,-0.004772058,-0.001161659,0.014332221,-0.001655586,0.003996036,0.001999999,-0.004,-0.001
772.0,-0.004772058,-0.001161659,0.014332221,-0.001655586,0.003996036,0.001999999,-0.004,-0.001
773.0,-0.004772058,-0.001161659,0.014332221,-0.001655586,0.003996036,0.001999999,-0.004,-0.001
774.0,-0.004772058,-0.001161659,0.014332221,-0.001655586,0.003996036,0.001999999,-0.004,-0.001
775.0,-0.004772058,-0.001161659,0.014332221,-0.001655586,0.003996036,0.001999999,-0.004,-0.001
776.0,-0.004772058,-0.001161659,0.014332221,-0.001655586,0.003996036,0.001999999,-0.004,-0.001
777.0,-0.004772058,-0.001161659,0.014332221,-0.001655586,0.003996036,0.001999999,-0.004,-0.001
778.0,-0.004772058,-0.001161659,0.014332221,-0.001655586,0.003996036,0.001999999,-0.004,-0.001
779.0,-0.004772058,-0.001161659,0.014332221,-0.001655586,0.003996036,0.001999999,-0.004,-0.001
780.0,-0.004772058,-0.001161659,0.014332221,-0.001655586,0.003996036,0.001999999,-0.004,-0.001
781.0,-0.004772058,-0.001161659,0.014332221,-0.001655586,0.003996036,0.001999999,-0.004,-0.001
782.0,-0.004772058,-0.001161659,0.014332221,-0.001655586,0.003996036,0.001999999,-0.004,-0.001
783.0,-0.004772058,-0.001161659,0.014332221,-0.001655586,0.003996036,0.001999999,-0.004,-0.001
784.0,-0.004772058,-0.001161659,0.014332221,-0.001655586,0.003996036,0.001999999,-0.004,-0.001
785.0,-0.004772058,-0.001161659,0.014332221,-0.001655586,0.003996036,0.001999999,-0.004,-0.001
786.0,-0.004772058,-0.001161659,0.014332221,-0.001655586,0.003996036,0.001999999,-0.004,-0.001
787.0,-0.004772058,-0.001161659,0.014332221,-0.001655586,0.003996036,0.001999999,-0.004,-0.001
788.0,-0.004772058,-0.001161659,0.014332221,-0.001655586,0.003996036,0.001999999,-0.004,-0.001
789.0,-0.004772058,-0.001161659,0.014332221,-0.001655586,0.003996036,0.000999999,-0.004,0.0
790.0,-0.004772058,-0.001161659,0.014332221,-0.001655586,0.003996036,0.000999999,-0.004,0.0
791.0,-0.004772058,-0.001161659,0.014332221,-0.001655586,0.003996036,0.000999999,-0.004,0.0
792.0,-0.004772058,-0.001161659,0.014332221,-0.001655586,0.003996036,0.000999999,-0.004,0.0
793.0,-0.004772058,-0.001161659,0.014332221,-0.001655586,0.003996036,0.000999999,-0.003,-0.001
794.0,-0.004772058,-0.001161659,0.014332221,-0.001655586,0.003996036,0.000999999,-0.004,0.0
795.0,-0.004772058,-0.001161659,0.014332221,-0.001655586,0.003996036,0.000999999,-0.004,0.0
796.0,-0.004772058,-0.001161659,0.014332221,-0.001655586,0.003996036,0.000999999,-0.004,0.0
797.0,-0.004772058,-0.001161659,0.014332221,-0.001655586,0.003996036,0.000999999,-0.004,0.0
798.0,-0.004772058,-0.001161659,0.014332221,-0.001655586,0.003996036,0.001999999,-0.004,-0.001
799.0,-0.004772058,-0.001161659,0.014332221,-0.001655586,0.003996036,0.001999999,-0.004,-0.001
800.0,-0.004772058,-0.001161659,0.014332221,-0.001655586,0.003996036,0.001999999,-0.004,-0.001
801.0,-0.004772058,-0.001161659,0.014332221,-0.001655586,0.003996036,0.001999999,-0.004,-0.001
802.0,-0.004772058,-0.001161659,0.014332221,-0.001655586,0.003996036,0.001999999,-0.004,-0.001
803.0,-0.004772058,-0.001161659,0.014332221,-0.001655586,0.003996036,0.001999999,-0.004,-0.001
804.0,-0.004772058,-0.001161659,0.014332221,-0.001655586,0.003996036,0.001999999,-0.004,-0.001
805.0,-0.004772058,-0.001161659,0.014332221,-0.001655586,0.003996036,0.001999999,-0.004,-0.001
806.0,-0.004772058,-0.001161659,0.014332221,-0.001655586,0.003996036,0.001999999,-0.004,-0.001
807.0,-0.004772058,-0.001161659,0.014332221,-0.001655586,0.003996036,0.001999999,-0.004,-0.001
808.0,-0.004772058,-0.001161659,0.014332221,-0.001655586,0.003996036,0.001999999,-0.004,-0.001
809.0,-0.004772058,-0.001161659,0.014332221,-0.001655586,0.003996036,0.001999999,-0.004,-0.001
810.0,-0.004772058,-0.001161659,0.014332221,-0.001655586,0.003996036,0.001999999,-0.004,-0.001
811.0,-0.004772058,-0.001161659,0.014332221,-0.001655586,0.003996036,0.001999999,-0.004,-0.001
812.0,-0.004772058,-0.001161659,0.014332221,-0.001655586,0.003996036,0.001999999,-0.004,-0.001
813.0,-0.005772058,-0.001161659,0.014332221,-0.000655586,0.003996036,0.001999999,-0.004,-0.001
814.0,-0.005772058,-0.001161659,0.014332221,-0.000655586,0.003996036,0.001999999,-0.004,-0.001
815.0,-0.005772058,-0.001161659,0.014332221,-0.000655586,0.003996036,0.001999999,-0.004,-0.001
816.0,-0.005772058,-0.001161659,0.014332221,-0.000655586,0.003996036,0.001999999,-0.004,-0.001
817.0,-0.005772058,-0.001161659,0.015332221,-0.000655586,0.003996036,0.001999999,-0.005,-0.001
818.0,-0.005772058,-0.002161659,0.015332221,-0.000655586,0.004996036,0.001999999,-0.005,-0.001
819.0,-0.005772058,-0.002161659,0.015332221,-0.000655586,0.004996036,0.001999999,-0.005,-0.001
820.0,-0.005772058,-0.002161659,0.015332221,-0.000655586,0.004996036,0.001999999,-0.005,-0.001
821.0,-0.005772058,-0.002161659,0.015332221,-0.000655586,0.004996036,0.001999999,-0.005,-0.001
822.0,-0.005772058,-0.002161659,0.015332221,-0.000655586,0.003996036,0.001999999,-0.004,-0.001
823.0,-0.004772058,-0.002161659,0.015332221,-0.000655586,0.003996036,0.001999999,-0.005,-0.001
824.0,-0.004772058,-0.002161659,0.015332221,-0.000655586,0.003996036,0.001999999,-0.005,-0.001
825.0,-0.004772058,-0.002161659,0.015332221,-0.000655586,0.003996036,0.001999999,-0.005,-0.001
826.0,-0.004772058,-0.002161659,0.015332221,-0.001655586,0.004996036,0.001999999,-0.005,-0.001
827.0,-0.004772058,-0.002161659,0.015332221,-0.001655586,0.004996036,0.001999999,-0.005,-0.001
828.0,-0.004772058,-0.002161659,0.015332221,-0.001655586,0.004996036,0.001999999,-0.005,-0.001
829.0,-0.004772058,-0.002161659,0.015332221,-0.001655586,0.004996036,0.001999999,-0.005,-0.001
830.0,-0.004772058,-0.002161659,0.015332221,-0.001655586,0.004996036,0.001999999,-0.005,-0.001
831.0,-0.004772058,-0.002161659,0.015332221,-0.001655586,0.004996036,0.001999999,-0.005,-0.001
832.0,-0.004772058,-0.002161659,0.015332221,-0.001655586,0.004996036,0.001999999,-0.005,-0.001
833.0,-0.004772058,-0.002161659,0.015332221,-0.001655586,0.004996036,0.001999999,-0.005,-0.001
834.0,-0.004772058,-0.002161659,0.014332221,-0.001655586,0.004996036,0.001999999,-0.004,-0.001
835.0,-0.004772058,-0.002161659,0.014332221,-0.001655586,0.004996036,0.001999999,-0.004,-0.001
836.0,-0.004772058,-0.002161659,0.014332221,-0.001655586,0.004996036,0.001999999,-0.004,-0.001
837.0,-0.004772058,-0.002161659,0.014332221,-0.001655586,0.004996036,0.001999999,-0.004,-0.001
838.0,-0.004772058,-0.002161659,0.014332221,-0.001655586,0.004996036,0.001999999,-0.004,-0.001
839.0,-0.004772058,-0.002161659,0.014332221,-0.001655586,0.004996036,0.001999999,-0.004,-0.001
840.0,-0.004772058,-0.002161659,0.014332221,-0.001655586,0.004996036,0.001999999,-0.004,-0.001
841.0,-0.004772058,-0.002161659,0.014332221,-0.001655586,0.004996036,0.001999999,-0.004,-0.001
842.0,-0.004772058,-0.002161659,0.014332221,-0.001655586,0.004996036,0.001999999,-0.004,-0.001
843.0,-0.004772058,-0.002161659,0.014332221,-0.001655586,0.004996036,0.001999999,-0.004,-0.001
844.0,-0.004772058,-0.002161659,0.014332221,-0.000655586,0.003996036,0.001999999,-0.004,-0.001
845.0,-0.004772058,-0.002161659,0.014332221,-0.001655586,0.004996036,0.001999999,-0.004,-0.001
846.0,-0.004772058,-0.002161659,0.014332221,-0.001655586,0.004996036,0.001999999,-0.004,-0.001
847.0,-0.004772058,-0.002161659,0.014332221,-0.001655586,0.004996036,0.001999999,-0.004,-0.001
848.0,-0.004772058,-0.002161659,0.014332221,-0.001655586,0.004996036,0.003,-0.004,-0.002
849.0,-0.004772058,-0.002161659,0.014332221,-0.001655586,0.004996036,0.003,-0.004,-0.002
850.0,-0.004772058,-0.002161659,0.015332221,-0.001655586,0.003996036,0.003,-0.004,-0.002
851.0,-0.004772058,-0.002161659,0.015332221,-0.001655586,0.003996036,0.003,-0.004,-0.002
852.0,-0.004772058,-0.002161659,0.015332221,-0.001655586,0.003996036,0.003,-0.004,-0.002
853.0,-0.004772058,-0.002161659,0.015332221,-0.001655586,0.003996036,0.003,-0.004,-0.002
854.0,-0.004772058,-0.002161659,0.015332221,-0.001655586,0.003996036,0.003,-0.004,-0.002
855.0,-0.004772058,-0.002161659,0.015332221,-0.001655586,0.003996036,0.003,-0.004,-0.002
856.0,-0.004772058,-0.002161659,0.015332221,-0.001655586,0.003996036,0.003,-0.004,-0.002
857.0,-0.004772058,-0.002161659,0.015332221,-0.000655586,0.003996036,0.003,-0.005,-0.002
858.0,-0.004772058,-0.002161659,0.015332221,-0.000655586,0.003996036,0.003,-0.005,-0.002
859.0,-0.004772058,-0.002161659,0.015332221,-0.000655586,0.003996036,0.003,-0.005,-0.002
860.0,-0.004772058,-0.002161659,0.015332221,-0.000655586,0.003996036,0.003,-0.005,-0.002
861.0,-0.004772058,-0.002161659,0.015332221,-0.000655586,0.003996036,0.003,-0.005,-0.002
862.0,-0.004772058,-0.002161659,0.015332221,-0.000655586,0.003996036,0.003,-0.005,-0.002
863.0,-0.004772058,-0.002161659,0.015332221,-0.000655586,0.003996036,0.001999999,-0.004,-0.002
864.0,-0.004772058,-0.002161659,0.015332221,-0.000655586,0.003996036,0.001999999,-0.004,-0.002
865.0,-0.004772058,-0.002161659,0.015332221,-0.000655586,0.003996036,0.001999999,-0.004,-0.002
866.0,-0.004772058,-0.002161659,0.015332221,-0.000655586,0.003996036,0.001999999,-0.004,-0.002
867.0,-0.004772058,-0.002161659,0.015332221,-0.000655586,0.003996036,0.001999999,-0.004,-0.002
868.0,-0.004772058,-0.002161659,0.015332221,-0.000655586,0.003996036,0.001999999,-0.004,-0.002
869.0,-0.004772058,-0.002161659,0.015332221,-0.000655586,0.003996036,0.001999999,-0.004,-0.002
870.0,-0.004772058,-0.002161659,0.015332221,-0.000655586,0.003996036,0.001999999,-0.004,-0.002
871.0,-0.004772058,-0.002161659,0.015332221,-0.000655586,0.003996036,0.001999999,-0.004,-0.002
872.0,-0.004772058,-0.002161659,0.015332221,-0.000655586,0.003996036,0.000999999,-0.004,-0.001
873.0,-0.004772058,-0.002161659,0.015332221,-0.000655586,0.003996036,0.001999999,-0.004,-0.002
874.0,-0.004772058,-0.002161659,0.015332221,-0.000655586,0.003996036,0.001999999,-0.004,-0.002
875.0,-0.004772058,-0.002161659,0.015332221,-0.000655586,0.003996036,0.001999999,-0.004,-0.002
876.0,-0.004772058,-0.002161659,0.015332221,-0.000655586,0.003996036,0.001999999,-0.004,-0.002
877.0,-0.004772058,-0.002161659,0.015332221,-0.000655586,0.003996036,0.001999999,-0.004,-0.002
878.0,-0.004772058,-0.002161659,0.015332221,-0.000655586,0.003996036,0.001999999,-0.004,-0.002
879.0,-0.004772058,-0.002161659,0.015332221,-0.000655586,0.003996036,0.001999999,-0.004,-0.002
880.0,-0.004772058,-0.002161659,0.015332221,-0.000655586,0.003996036,0.001999999,-0.004,-0.002
881.0,-0.004772058,-0.002161659,0.015332221,-0.000655586,0.003996036,0.001999999,-0.004,-0.002
882.0,-0.004772058,-0.002161659,0.015332221,-0.000655586,0.003996036,0.000999999,-0.004,-0.001
883.0,-0.004772058,-0.002161659,0.015332221,-0.000655586,0.003996036,0.000999999,-0.004,-0.001
884.0,-0.004772058,-0.002161659,0.015332221,-0.000655586,0.003996036,0.000999999,-0.004,-0.001
885.0,-0.004772058,-0.002161659,0.015332221,-0.000655586,0.003996036,0.001999999,-0.004,-0.002
886.0,-0.004772058,-0.002161659,0.015332221,-0.000655586,0.003996036,0.001999999,-0.004,-0.002
887.0,-0.004772058,-0.002161659,0.015332221,-0.000655586,0.003996036,0.001999999,-0.004,-0.002
888.0,-0.004772058,-0.002161659,0.015332221,-0.000655586,0.003996036,0.001999999,-0.004,-0.002
889.0,-0.004772058,-0.002161659,0.015332221,-0.000655586,0.003996036,0.001999999,-0.004,-0.002
890.0,-0.004772058,-0.002161659,0.015332221,-0.000655586,0.003996036,0.001999999,-0.004,-0.002
891.0,-0.004772058,-0.002161659,0.015332221,-0.000655586,0.003996036,0.000999999,-0.004,-0.001
892.0,-0.004772058,-0.002161659,0.015332221,-0.000655586,0.003996036,0.001999999,-0.005,-0.001
893.0,-0.004772058,-0.002161659,0.015332221,-0.000655586,0.003996036,0.001999999,-0.005,-0.001
894.0,-0.004772058,-0.002161659,0.015332221,-0.000655586,0.003996036,0.001999999,-0.005,-0.001
895.0,-0.004772058,-0.002161659,0.015332221,-0.000655586,0.003996036,0.001999999,-0.005,-0.001
896.0,-0.004772058,-0.002161659,0.015332221,-0.000655586,0.003996036,0.001999999,-0.005,-0.001
897.0,-0.004772058,-0.002161659,0.015332221,-0.000655586,0.003996036,0.001999999,-0.005,-0.001
898.0,-0.004772058,-0.002161659,0.015332221,-0.000655586,0.003996036,0.001999999,-0.005,-0.001
899.0,-0.004772058,-0.002161659,0.015332221,-0.000655586,0.003996036,0.003,-0.005,-0.002
900.0,-0.004772058,-0.002161659,0.015332221,-0.000655586,0.003996036,0.003,-0.005,-0.002
901.0,-0.004772058,-0.002161659,0.015332221,-0.000655586,0.003996036,0.003,-0.005,-0.002
902.0,-0.004772058,-0.002161659,0.015332221,-0.000655586,0.003996036,0.003,-0.005,-0.002
903.0,-0.004772058,-0.002161659,0.015332221,-0.000655586,0.003996036,0.003,-0.005,-0.002
904.0,-0.004772058,-0.002161659,0.015332221,-0.000655586,0.003996036,0.003,-0.005,-0.002
905.0,-0.004772058,-0.002161659,0.015332221,-0.000655586,0.003996036,0.001999999,-0.005,-0.001
906.0,-0.004772058,-0.002161659,0.015332221,-0.000655586,0.003996036,0.001999999,-0.005,-0.001
907.0,-0.004772058,-0.002161659,0.015332221,-0.000655586,0.003996036,0.001999999,-0.005,-0.001
908.0,-0.004772058,-0.002161659,0.015332221,-0.000655586,0.003996036,0.001999999,-0.005,-0.001
909.0,-0.004772058,-0.002161659,0.015332221,-0.000655586,0.003996036,0.001999999,-0.005,-0.001
910.0,-0.004772058,-0.002161659,0.015332221,-0.001655586,0.004996036,0.001999999,-0.005,-0.001
911.0,-0.004772058,-0.002161659,0.015332221,-0.001655586,0.004996036,0.001999999,-0.005,-0.001
912.0,-0.004772058,-0.002161659,0.015332221,-0.000655586,0.003996036,0.001999999,-0.005,-0.001
913.0,-0.004772058,-0.002161659,0.015332221,-0.000655586,0.003996036,0.001999999,-0.005,-0.001
914.0,-0.004772058,-0.002161659,0.015332221,-0.000655586,0.003996036,0.001999999,-0.005,-0.001
915.0,-0.004772058,-0.002161659,0.015332221,-0.000655586,0.003996036,0.001999999,-0.005,-0.001
916.0,-0.004772058,-0.002161659,0.015332221,-0.000655586,0.003996036,0.001999999,-0.005,-0.001
917.0,-0.004772058,-0.002161659,0.015332221,-0.000655586,0.003996036,0.001999999,-0.005,-0.001
918.0,-0.004772058,-0.002161659,0.015332221,-0.000655586,0.003996036,0.001999999,-0.005,-0.001
919.0,-0.004772058,-0.002161659,0.015332221,-0.000655586,0.003996036,0.001999999,-0.005,-0.001
920.0,-0.004772058,-0.002161659,0.015332221,-0.000655586,0.003996036,0.001999999,-0.005,-0.001
921.0,-0.004772058,-0.002161659,0.015332221,-0.000655586,0.003996036,0.001999999,-0.005,-0.001
922.0,-0.004772058,-0.002161659,0.015332221,-0.000655586,0.003996036,0.001999999,-0.005,-0.001
923.0,-0.004772058,-0.002161659,0.015332221,-0.000655586,0.003996036,0.001999999,-0.005,-0.001
924.0,-0.004772058,-0.002161659,0.015332221,-0.000655586,0.003996036,0.001999999,-0.005,-0.001
925.0,-0.004772058,-0.002161659,0.015332221,-0.000655586,0.003996036,0.003,-0.005,-0.002
926.0,-0.004772058,-0.002161659,0.015332221,-0.000655586,0.003996036,0.003,-0.005,-0.002
927.0,-0.004772058,-0.002161659,0.015332221,-0.000655586,0.003996036,0.003,-0.005,-0.002
928.0,-0.004772058,-0.002161659,0.015332221,-0.000655586,0.003996036,0.003,-0.005,-0.002
929.0,-0.004772058,-0.002161659,0.015332221,-0.000655586,0.003996036,0.003,-0.005,-0.002
930.0,-0.004772058,-0.002161659,0.015332221,-0.000655586,0.003996036,0.001999999,-0.005,-0.001
931.0,-0.004772058,-0.002161659,0.015332221,-0.000655586,0.003996036,0.003,-0.005,-0.002
932.0,-0.004772058,-0.002161659,0.015332221,-0.000655586,0.003996036,0.003,-0.005,-0.002
933.0,-0.004772058,-0.002161659,0.015332221,-0.000655586,0.003996036,0.003,-0.005,-0.002
934.0,-0.004772058,-0.002161659,0.015332221,-0.000655586,0.003996036,0.003,-0.005,-0.002
935.0,-0.004772058,-0.002161659,0.015332221,-0.000655586,0.003996036,0.003,-0.005,-0.002
936.0,-0.004772058,-0.002161659,0.015332221,-0.000655586,0.003996036,0.003,-0.005,-0.002
937.0,-0.004772058,-0.002161659,0.015332221,-0.000655586,0.003996036,0.003,-0.005,-0.002
938.0,-0.004772058,-0.002161659,0.015332221,-0.000655586,0.003996036,0.003,-0.005,-0.002
939.0,-0.004772058,-0.002161659,0.015332221,-0.000655586,0.003996036,0.001999999,-0.005,-0.001
940.0,-0.004772058,-0.002161659,0.015332221,-0.000655586,0.003996036,0.001999999,-0.005,-0.001
941.0,-0.004772058,-0.002161659,0.015332221,-0.000655586,0.003996036,0.001999999,-0.005,-0.001
942.0,-0.004772058,-0.002161659,0.015332221,-0.000655586,0.003996036,0.001999999,-0.005,-0.001
943.0,-0.004772058,-0.002161659,0.015332221,-0.000655586,0.003996036,0.001999999,-0.005,-0.001
944.0,-0.004772058,-0.002161659,0.015332221,-0.000655586,0.003996036,0.001999999,-0.005,-0.001
945.0,-0.004772058,-0.002161659,0.015332221,-0.000655586,0.003996036,0.001999999,-0.005,-0.001
946.0,-0.004772058,-0.002161659,0.015332221,-0.000655586,0.003996036,0.001999999,-0.005,-0.001
947.0,-0.004772058,-0.002161659,0.015332221,-0.000655586,0.003996036,0.003,-0.005,-0.002
948.0,-0.004772058,-0.002161659,0.015332221,-0.000655586,0.003996036,0.003,-0.005,-0.002
949.0,-0.004772058,-0.002161659,0.015332221,-0.000655586,0.003996036,0.003,-0.005,-0.002
950.0,-0.004772058,-0.002161659,0.015332221,-0.000655586,0.003996036,0.003,-0.005,-0.002
