0.0,-0.007683989,-0.001033369,0.002994661,0.002251772,0.001442439,5e-05,0.0,0.0
1.0,-0.007633989,-0.001033369,0.002994661,0.002251772,0.001442439,0.0,0.0,0.0
2.0,-0.007633989,-0.001033369,0.002994661,0.002251772,0.001442439,0.0,0.0,0.0
3.0,-0.007633989,-0.001033369,0.002994661,0.002251772,0.001442439,0.0,0.0,0.0
4.0,-0.007633989,-0.001033369,0.002994661,0.002251772,0.001442439,0.0,0.0,0.0
5.0,-0.007633989,-0.001033369,0.002994661,0.002251772,0.001442439,0.0,0.0,0.0
6.0,-0.007633989,-0.001033369,0.002994661,0.002251772,0.001442439,0.0,0.0,0.0
7.0,-0.007633989,-0.001033369,0.002994661,0.002251772,0.001442439,0.0,0.0,0.0
8.0,-0.007633989,-0.001083369,0.002994661,0.002251772,0.001442439,0.0,5e-05,0.0
9.0,-0.007633989,-0.001083369,0.002994661,0.002251772,0.001442439,0.0,0.0,5e-05
10.0,-0.007633989,-0.001083369,0.002994661,0.002251772,0.001442439,0.0,0.0,5e-05
11.0,-0.007633989,-0.001083369,0.002994661,0.002251772,0.001442439,0.0,0.0,5e-05
12.0,-0.007633989,-0.001083369,0.002994661,0.002251772,0.001442439,0.0,0.0,5e-05
13.0,-0.007633989,-0.001083369,0.002994661,0.002251772,0.001442439,0.0,0.0,5e-05
14.0,-0.007633989,-0.001033369,0.002994661,0.002251772,0.001442439,0.0,0.0,0.0
15.0,-0.007633989,-0.001033369,0.002994661,0.002251772,0.001442439,0.0,0.0,0.0
16.0,-0.007633989,-0.001033369,0.002944661,0.002251772,0.001442439,5e-05,0.0,0.0
17.0,-0.007633989,-0.001033369,0.002944661,0.002251772,0.001442439,0.0,5e-05,0.0
18.0,-0.007633989,-0.001033369,0.002944661,0.002251772,0.001442439,0.0,5e-05,0.0
19.0,-0.007633989,-0.001033369,0.002994661,0.002251772,0.001442439,0.0,0.0,0.0
20.0,-0.007633989,-0.001033369,0.002994661,0.002251772,0.001442439,0.0,0.0,0.0
21.0,-0.007633989,-0.001033369,0.002994661,0.002251772,0.001442439,0.0,0.0,0.0
22.0,-0.007633989,-0.001033369,0.002994661,0.002251772,0.001442439,0.0,0.0,0.0
23.0,-0.007633989,-0.001033369,0.002994661,0.002251772,0.001442439,0.0,0.0,0.0
24.0,-0.007633989,-0.001033369,0.002994661,0.002301772,0.001392439,0.0,0.0,0.0
25.0,-0.007633989,-0.001033369,0.002994661,0.002301772,0.001392439,0.0,0.0,0.0
26.0,-0.007633989,-0.001033369,0.002994661,0.002301772,0.001392439,0.0,0.0,0.0
27.0,-0.007683989,-0.001033369,0.002994661,0.002301772,0.001392439,5e-05,0.0,0.0
28.0,-0.007683989,-0.001033369,0.002994661,0.002301772,0.001392439,5e-05,0.0,0.0
29.0,-0.007683989,-0.001033369,0.002994661,0.002251772,0.001442439,5e-05,0.0,0.0
30.0,-0.007683989,-0.001033369,0.002994661,0.002251772,0.001442439,5e-05,0.0,0.0
31.0,-0.007683989,-0.001033369,0.002994661,0.002201772,0.001492439,5e-05,0.0,0.0
32.0,-0.007633993,-0.001033369,0.002994661,0.002201772,0.001492439,5e-05,-4.9995e-05,0.0
33.0,-0.007633993,-0.001033369,0.002994661,0.002201772,0.001492439,5e-05,-4.9995e-05,0.0
34.0,-0.007633993,-0.001033369,0.002994661,0.002201772,0.001492439,5e-05,-4.9995e-05,0.0
35.0,-0.007633993,-0.001033369,0.002994661,0.002251772,0.001442439,5e-05,-4.9995e-05,0.0
36.0,-0.007633993,-0.001033369,0.002994661,0.002251772,0.001442439,5e-05,-4.9995e-05,0.0
37.0,-0.007633993,-0.001033369,0.002994661,0.002251772,0.001442439,5e-05,-4.9995e-05,0.0
38.0,-0.007683993,-0.001033369,0.002994661,0.002251772,0.001442439,5e-05,-4.9995e-05,5e-05
39.0,-0.007683993,-0.001033369,0.002994661,0.002251772,0.001442439,5e-05,-4.9995e-05,5e-05
40.0,-0.007683993,-0.001033369,0.002994661,0.002301772,0.001442439,5e-05,-4.9995e-05,0.0
41.0,-0.007633993,-0.001033369,0.002994661,0.002251772,0.001442439,5e-05,-4.9995e-05,0.0
42.0,-0.007633993,-0.001033369,0.002994661,0.002251772,0.001442439,5e-05,-4.9995e-05,0.0
43.0,-0.007633993,-0.001033369,0.002994661,0.002251772,0.001442439,5e-05,-4.9995e-05,0.0
44.0,-0.007633993,-0.001033369,0.002994661,0.002251772,0.001442439,5e-05,-4.9995e-05,0.0
45.0,-0.007633993,-0.001033369,0.002994661,0.002251772,0.001442439,5e-05,-4.9995e-05,0.0
46.0,-0.007633993,-0.001033369,0.002994661,0.002251772,0.001442439,5e-05,-4.9995e-05,0.0
47.0,-0.007633993,-0.001033369,0.002994661,0.002251772,0.001442439,5e-05,-4.9995e-05,0.0
48.0,-0.007633993,-0.001033369,0.002994661,0.002251772,0.001442439,5e-05,-4.9995e-05,0.0
49.0,-0.007633993,-0.001033369,0.002994661,0.002251772,0.001442439,5e-05,-4.9995e-05,0.0
50.0,-0.007633993,-0.001033369,0.002994661,0.002251772,0.001442439,5e-05,-4.9995e-05,0.0
51.0,-0.007633993,-0.001033369,0.002944661,0.002251772,0.001442439,5e-05,4e-09,0.0
52.0,-0.007633993,-0.001033369,0.002944661,0.002251772,0.001442439,5e-05,4e-09,0.0
53.0,-0.007633993,-0.001033369,0.002944661,0.002251772,0.001442439,5e-05,4e-09,0.0
54.0,-0.007633993,-0.001033369,0.002944661,0.002251772,0.001442439,5e-05,4e-09,0.0
55.0,-0.007633993,-0.001033369,0.002944661,0.002251772,0.001442439,5e-05,4e-09,0.0
56.0,-0.007633993,-0.001033369,0.002944661,0.002251772,0.001442439,5e-05,4e-09,0.0
57.0,-0.007633993,-0.001033369,0.002944661,0.002251772,0.001442439,5e-05,4e-09,0.0
58.0,-0.007633993,-0.001033369,0.002944661,0.002251772,0.001442439,5e-05,4e-09,0.0
59.0,-0.007683993,-0.001033369,0.002944661,0.002251772,0.001442439,5e-05,4e-09,5e-05
60.0,-0.007633993,-0.001033369,0.002944661,0.002251772,0.001442439,5e-05,4e-09,0.0
61.0,-0.007633993,-0.001033369,0.002994661,0.002251772,0.001442439,5e-05,-4.9995e-05,0.0
62.0,-0.007633993,-0.001033369,0.002944661,0.002251772,0.001442439,5e-05,4e-09,0.0
63.0,-0.007633993,-0.001033369,0.002944661,0.002251772,0.001442439,5e-05,4e-09,0.0
64.0,-0.007633993,-0.001033369,0.002994661,0.002251772,0.001442439,5e-05,-4.9995e-05,0.0
65.0,-0.007633993,-0.001033369,0.002994661,0.002201772,0.001492439,5e-05,-4.9995e-05,0.0
66.0,-0.007633993,-0.001033369,0.002994661,0.002201772,0.001492439,5e-05,-4.9995e-05,0.0
67.0,-0.007633993,-0.001033369,0.002994661,0.002201772,0.001492439,5e-05,-4.9995e-05,0.0
68.0,-0.007633993,-0.001033369,0.002994661,0.002201772,0.001492439,5e-05,-4.9995e-05,0.0
69.0,-0.007683993,-0.001033369,0.003044661,0.002201772,0.001492439,5e-05,-4.9995e-05,0.0
70.0,-0.007683993,-0.001033369,0.003044661,0.002201772,0.001492439,5e-05,-4.9995e-05,0.0
71.0,-0.007683993,-0.001033382,0.003044661,0.002201772,0.001492439,1.2e-08,4e-09,0.0
72.0,-0.007683993,-0.000983382,0.003044661,0.002201772,0.001492439,1.2e-08,-4.9995e-05,0.0
73.0,-0.007683993,-0.000983382,0.003044661,0.002201772,0.001492439,1.2e-08,-4.9995e-05,0.0
74.0,-0.007683993,-0.000983382,0.003044661,0.002201772,0.001492439,1.2e-08,-4.9995e-05,0.0
75.0,-0.007683993,-0.000983382,0.003044661,0.002201772,0.001492439,1.2e-08,-4.9995e-05,0.0
76.0,-0.007633993,-0.001033382,0.003044661,0.002201772,0.001492439,1.2e-08,-4.9995e-05,0.0
77.0,-0.007633993,-0.001033382,0.003044661,0.002201772,0.001492439,1.2e-08,-4.9995e-05,0.0
78.0,-0.007683992,-0.000983382,0.003044661,0.002201772,0.001492438,1.2e-08,-4.9995e-05,0.0
79.0,-0.007683992,-0.000983382,0.003044661,0.002201772,0.001492438,1.2e-08,-4.9995e-05,0.0
80.0,-0.007683992,-0.000983382,0.003044661,0.002201772,0.001492438,1.2e-08,-4.9995e-05,0.0
81.0,-0.007683992,-0.000983382,0.003044661,0.002201772,0.001492438,1.2e-08,-4.9995e-05,0.0
82.0,-0.007683992,-0.000983382,0.003044661,0.002201772,0.001492438,1.2e-08,-4.9995e-05,0.0
83.0,-0.007683992,-0.000983382,0.003044661,0.002251772,0.001442438,1.2e-08,-4.9995e-05,0.0
84.0,-0.007683992,-0.000983382,0.003044661,0.002251772,0.001442438,1.2e-08,-4.9995e-05,0.0
85.0,-0.007683992,-0.000983382,0.003044661,0.002251772,0.001442438,1.2e-08,-4.9995e-05,0.0
86.0,-0.007683992,-0.000983382,0.003044661,0.002251772,0.001442438,1.2e-08,-9.9995e-05,5e-05
87.0,-0.007683992,-0.000983382,0.003044661,0.002251772,0.001442438,1.2e-08,-9.9995e-05,5e-05
88.0,-0.007683992,-0.000983382,0.003044661,0.002251772,0.001442438,1.2e-08,-9.9995e-05,5e-05
89.0,-0.007683992,-0.000983382,0.003044661,0.002251772,0.001442438,1.2e-08,-9.9995e-05,5e-05
90.0,-0.007683992,-0.000983382,0.003044661,0.002251772,0.001442438,1.2e-08,-9.9995e-05,5e-05
91.0,-0.007683992,-0.000983382,0.003044661,0.002251772,0.001442438,1.2e-08,-9.9995e-05,5e-05
92.0,-0.007683992,-0.000983382,0.003044661,0.002251772,0.001442438,1.2e-08,-9.9995e-05,5e-05
93.0,-0.007683992,-0.000983382,0.003044661,0.002201772,0.001492438,1.2e-08,-9.9995e-05,5e-05
94.0,-0.007683992,-0.001001239,0.003044661,0.002201772,0.001492438,1.2e-08,-4.9995e-05,1.7857e-05
95.0,-0.007683992,-0.001001239,0.003044661,0.002201772,0.001492438,1.2e-08,-4.9995e-05,1.7857e-05
96.0,-0.007683992,-0.001001239,0.003044661,0.002251772,0.001442438,1.2e-08,-4.9995e-05,1.7857e-05
97.0,-0.007683992,-0.001001239,0.003044661,0.002251772,0.001442438,1.2e-08,-4.9995e-05,1.7857e-05
98.0,-0.007683992,-0.001001239,0.003044661,0.002251772,0.001442438,1.2e-08,-4.9995e-05,1.7857e-05
99.0,-0.007683992,-0.001001239,0.003044661,0.002251772,0.001442438,1.2e-08,-4.9995e-05,1.7857e-05
100.0,-0.007683992,-0.001001239,0.003044661,0.002251772,0.001442438,1.2e-08,-4.9995e-05,1.7857e-05
101.0,-0.007683992,-0.001001239,0.003044661,0.002251772,0.001442438,1.2e-08,-4.9995e-05,1.7857e-05
102.0,-0.007683992,-0.001001239,0.003044661,0.002251772,0.001442438,1.2e-08,-4.9995e-05,1.7857e-05
103.0,-0.007683992,-0.001001239,0.003044661,0.002251772,0.001442438,1.2e-08,-4.9995e-05,1.7857e-05
104.0,-0.007683992,-0.001001239,0.003044661,0.002251772,0.001442438,1.2e-08,-4.9995e-05,1.7857e-05
105.0,-0.007683992,-0.001001239,0.003044661,0.002251772,0.001442438,1.2e-08,-4.9995e-05,1.7857e-05
106.0,-0.007683992,-0.001001239,0.003044661,0.002251772,0.001442438,1.2e-08,-4.9995e-05,1.7857e-05
107.0,-0.007683992,-0.001001239,0.003044661,0.002251772,0.001442438,5.0012e-05,-9.9995e-05,1.7857e-05
108.0,-0.007683992,-0.001001239,0.003044661,0.002251772,0.001442438,5.0012e-05,-9.9995e-05,1.7857e-05
109.0,-0.007683992,-0.001001239,0.003044661,0.002251772,0.001442438,5.0012e-05,-9.9995e-05,1.7857e-05
110.0,-0.007683992,-0.001001239,0.003039301,0.002301772,0.001442438,5.371e-06,-9.9995e-05,1.7857e-05
111.0,-0.007683992,-0.001001239,0.003039301,0.002301772,0.001442438,5.371e-06,-9.9995e-05,1.7857e-05
112.0,-0.007683992,-0.001001239,0.003039301,0.002301772,0.001442438,5.371e-06,-9.9995e-05,1.7857e-05
113.0,-0.007683992,-0.001001239,0.003039301,0.002301772,0.001442438,5.371e-06,-9.9995e-05,1.7857e-05
114.0,-0.007683992,-0.001001239,0.003039301,0.002301772,0.001442438,5.371e-06,-9.9995e-05,1.7857e-05
115.0,-0.007683992,-0.001001239,0.003039301,0.002301772,0.001442438,5.371e-06,-9.9995e-05,1.7857e-05
116.0,-0.007683992,-0.001001239,0.003039301,0.002251772,0.001492438,5.371e-06,-9.9995e-05,1.7857e-05
117.0,-0.007683992,-0.001001239,0.003039301,0.002251772,0.001492438,5.371e-06,-9.9995e-05,1.7857e-05
118.0,-0.007683992,-0.001001239,0.003039301,0.002251772,0.001492438,5.371e-06,-9.9995e-05,1.7857e-05
119.0,-0.007683992,-0.001001239,0.003039301,0.002251772,0.001492438,5.371e-06,-9.9995e-05,1.7857e-05
120.0,-0.007733992,-0.001001239,0.003039301,0.002251772,0.001492438,5.5371e-05,-9.9995e-05,1.7857e-05
121.0,-0.007733992,-0.001001239,0.003039301,0.002251772,0.001492438,5.5371e-05,-9.9995e-05,1.7857e-05
122.0,-0.007733992,-0.001001239,0.003039301,0.002251772,0.001492438,5.5371e-05,-9.9995e-05,1.7857e-05
123.0,-0.007733992,-0.001001239,0.003039301,0.002251772,0.001492438,5.5371e-05,-9.9995e-05,1.7857e-05
124.0,-0.007733992,-0.001001239,0.003039301,0.002301772,0.001492438,5.5371e-05,-0.000149995,1.7857e-05
125.0,-0.007733992,-0.001001239,0.003039301,0.002301772,0.001492438,5.5371e-05,-0.000149995,1.7857e-05
126.0,-0.007733992,-0.001001239,0.003039301,0.002301772,0.001492438,5.5371e-05,-0.000149995,1.7857e-05
127.0,-0.007733992,-0.001001239,0.003039301,0.002301772,0.001492438,5.5371e-05,-0.000149995,1.7857e-05
128.0,-0.007733992,-0.001001239,0.003039301,0.002301772,0.001492438,5.5371e-05,-0.000149995,1.7857e-05
129.0,-0.007733992,-0.001001239,0.003039301,0.002301772,0.001492438,5.5371e-05,-0.000149995,1.7857e-05
130.0,-0.007733992,-0.001001239,0.003039301,0.002301772,0.001492438,5.5371e-05,-0.000149995,1.7857e-05
131.0,-0.007733992,-0.001001239,0.003039301,0.002301772,0.001492438,5.5371e-05,-0.000149995,1.7857e-05
132.0,-0.007733992,-0.001001239,0.003039301,0.002301772,0.001492438,5.5371e-05,-0.000149995,1.7857e-05
133.0,-0.007733992,-0.001001239,0.003039301,0.002301772,0.001492438,5.5371e-05,-0.000149995,1.7857e-05
134.0,-0.007733992,-0.001001239,0.003039301,0.002301772,0.001492438,5.5371e-05,-0.000149995,1.7857e-05
135.0,-0.007733992,-0.001001239,0.003039301,0.002301772,0.001492438,5.371e-06,-0.000149995,6.7857e-05
136.0,-0.007733992,-0.001001239,0.003039301,0.002301772,0.001492438,5.371e-06,-0.000149995,6.7857e-05
137.0,-0.007733992,-0.001001239,0.003039301,0.002301772,0.001492438,5.371e-06,-0.000149995,6.7857e-05
138.0,-0.007733992,-0.001001239,0.003039301,0.002301772,0.001492438,5.371e-06,-0.000149995,6.7857e-05
139.0,-0.007733992,-0.001001239,0.002989301,0.002301772,0.001492438,5.5371e-05,-0.000149995,6.7857e-05
140.0,-0.007733992,-0.001001239,0.002989301,0.002301772,0.001492438,5.5371e-05,-0.000149995,6.7857e-05
141.0,-0.007733992,-0.001001239,0.002989301,0.002301772,0.001492438,5.5371e-05,-0.000149995,6.7857e-05
142.0,-0.007733992,-0.001001239,0.002989301,0.002301772,0.001492438,5.5371e-05,-0.000149995,6.7857e-05
143.0,-0.007733992,-0.001001239,0.002989301,0.002301772,0.001492438,5.5371e-05,-0.000149995,6.7857e-05
144.0,-0.007733992,-0.001001239,0.002989301,0.002301772,0.001492438,5.5371e-05,-0.000149995,6.7857e-05
145.0,-0.007733992,-0.001001239,0.002989301,0.002301772,0.001492438,5.5371e-05,-0.000149995,6.7857e-05
146.0,-0.007683992,-0.001001239,0.002989301,0.002301772,0.001492438,5.5371e-05,-0.000149995,1.7857e-05
147.0,-0.007683992,-0.001001239,0.002989301,0.002301772,0.001492438,5.5371e-05,-0.000149995,1.7857e-05
148.0,-0.007683992,-0.001001239,0.002989301,0.002251772,0.001492438,5.5371e-05,-0.000149995,6.7857e-05
149.0,-0.007683992,-0.001001239,0.002989301,0.002251772,0.001492438,5.5371e-05,-0.000149995,6.7857e-05
150.0,-0.007683992,-0.001001239,0.002989301,0.002251772,0.001492438,5.5371e-05,-0.000149995,6.7857e-05
151.0,-0.007683992,-0.001001239,0.002989301,0.002251772,0.001492438,5.5371e-05,-0.000149995,6.7857e-05
152.0,-0.007683992,-0.001001239,0.002989301,0.002251772,0.001492438,5.5371e-05,-0.000149995,6.7857e-05
153.0,-0.007683992,-0.001001239,0.002989301,0.002251772,0.001492438,5.5371e-05,-0.000149995,6.7857e-05
154.0,-0.007683992,-0.001001239,0.002989301,0.002251772,0.001492438,5.5371e-05,-0.000149995,6.7857e-05
155.0,-0.007699328,-0.001001239,0.002989301,0.002251772,0.001492438,0.000105371,-0.000149995,3.3192e-05
156.0,-0.007699328,-0.001001239,0.002989301,0.002251772,0.001492438,0.000105371,-0.000149995,3.3192e-05
157.0,-0.007699328,-0.001001239,0.002989301,0.002251772,0.001492438,0.000105371,-0.000149995,3.3192e-05
158.0,-0.007699328,-0.001001239,0.002989301,0.002251772,0.001492438,0.000105371,-0.000149995,3.3192e-05
159.0,-0.007699328,-0.001001239,0.002989301,0.002251772,0.001492438,0.000105371,-0.000149995,3.3192e-05
160.0,-0.007699328,-0.000951239,0.002989301,0.002251772,0.001492438,5.5371e-05,-0.000149995,3.3192e-05
161.0,-0.007699328,-0.000951239,0.002989301,0.002251772,0.001492438,5.5371e-05,-0.000149995,3.3192e-05
162.0,-0.007699328,-0.000951239,0.002989301,0.002251772,0.001492438,5.5371e-05,-0.000149995,3.3192e-05
163.0,-0.007699328,-0.000951239,0.002989301,0.002251772,0.001492438,5.5371e-05,-0.000149995,3.3192e-05
164.0,-0.007699328,-0.000951239,0.002989301,0.002251772,0.001492438,5.5371e-05,-0.000149995,3.3192e-05
165.0,-0.007699328,-0.001001239,0.002989301,0.002251772,0.001492438,5.5371e-05,-9.9995e-05,3.3192e-05
166.0,-0.007699328,-0.001001239,0.002989301,0.002251772,0.001492438,5.5371e-05,-9.9995e-05,3.3192e-05
167.0,-0.007699328,-0.001001239,0.002989301,0.002251772,0.001492438,5.5371e-05,-9.9995e-05,3.3192e-05
168.0,-0.007699328,-0.001001239,0.002989301,0.002251772,0.001492438,5.5371e-05,-9.9995e-05,3.3192e-05
169.0,-0.007699328,-0.001001239,0.002989301,0.002251772,0.001492438,5.5371e-05,-9.9995e-05,3.3192e-05
170.0,-0.007699328,-0.001001239,0.002989301,0.002251772,0.001492438,5.5371e-05,-9.9995e-05,3.3192e-05
171.0,-0.007699328,-0.001001239,0.002989301,0.002251772,0.001492438,5.5371e-05,-9.9995e-05,3.3192e-05
172.0,-0.007699328,-0.001001239,0.002989301,0.002251772,0.001492438,5.5371e-05,-9.9995e-05,3.3192e-05
173.0,-0.007699328,-0.001001239,0.002989301,0.002251772,0.001492438,5.5371e-05,-9.9995e-05,3.3192e-05
174.0,-0.007699328,-0.001001239,0.002989301,0.002251772,0.001492438,5.5371e-05,-9.9995e-05,3.3192e-05
175.0,-0.007699328,-0.001001239,0.002989301,0.002251772,0.001492438,5.5371e-05,-9.9995e-05,3.3192e-05
176.0,-0.007699328,-0.001001239,0.002989301,0.002251772,0.001492438,5.5371e-05,-9.9995e-05,3.3192e-05
177.0,-0.007699328,-0.001001239,0.003039301,0.002251772,0.001492438,5.5371e-05,-0.000149995,3.3192e-05
178.0,-0.007699328,-0.001001239,0.003039301,0.002251772,0.001492438,5.5371e-05,-0.000149995,3.3192e-05
179.0,-0.007699328,-0.001001239,0.003039301,0.002251772,0.001492438,5.5371e-05,-0.000149995,3.3192e-05
180.0,-0.007699328,-0.001001239,0.003039301,0.002251772,0.001492438,0.000105371,-0.000199995,3.3192e-05
181.0,-0.007699328,-0.001001239,0.003039301,0.002251772,0.001492438,0.000105371,-0.000199995,3.3192e-05
182.0,-0.007699328,-0.001001239,0.003039301,0.002251772,0.001492438,5.5371e-05,-0.000149995,3.3192e-05
183.0,-0.007699328,-0.001001239,0.003039301,0.002251772,0.001492438,5.5371e-05,-0.000149995,3.3192e-05
184.0,-0.007699328,-0.001001239,0.003039301,0.002251772,0.001492438,5.5371e-05,-0.000149995,3.3192e-05
185.0,-0.007699328,-0.001001239,0.003039301,0.002251772,0.001492438,5.5371e-05,-0.000149995,3.3192e-05
186.0,-0.007699328,-0.001001239,0.003039301,0.002251772,0.001492438,5.5371e-05,-0.000149995,3.3192e-05
187.0,-0.007699328,-0.001001239,0.003039301,0.002251772,0.001492438,0.000105371,-0.000199995,3.3192e-05
188.0,-0.007699328,-0.001001239,0.003039301,0.002251772,0.001492438,5.5371e-05,-0.000149995,3.3192e-05
189.0,-0.007699328,-0.001001239,0.003039301,0.002251772,0.001492438,5.5371e-05,-0.000149995,3.3192e-05
190.0,-0.007699328,-0.001001239,0.003039301,0.002251772,0.001492438,5.5371e-05,-0.000149995,3.3192e-05
191.0,-0.007699328,-0.001001239,0.003039301,0.002251772,0.001492438,5.5371e-05,-0.000149995,3.3192e-05
192.0,-0.007699328,-0.001001239,0.003039301,0.002251772,0.001492438,5.5371e-05,-0.000149995,3.3192e-05
193.0,-0.007699328,-0.001001239,0.003039301,0.002251772,0.001492438,5.5371e-05,-0.000149995,3.3192e-05
194.0,-0.007699328,-0.001001239,0.002989301,0.002251772,0.001542438,5.5371e-05,-0.000149995,3.3192e-05
195.0,-0.007649328,-0.001001239,0.002989301,0.002251772,0.001542438,5.371e-06,-0.000149995,3.3192e-05
196.0,-0.007649328,-0.001001239,0.002989301,0.002251772,0.001542438,5.371e-06,-0.000149995,3.3192e-05
197.0,-0.007649328,-0.001001239,0.003039301,0.002251772,0.001492438,5.371e-06,-0.000149995,3.3192e-05
198.0,-0.007649328,-0.001001239,0.003039301,0.002301772,0.001442438,5.371e-06,-0.000149995,3.3192e-05
199.0,-0.007649328,-0.001001239,0.003039301,0.002301772,0.001442438,5.371e-06,-0.000149995,3.3192e-05
200.0,-0.007649328,-0.001001239,0.003039301,0.002301772,0.001442438,5.371e-06,-0.000149995,3.3192e-05
201.0,-0.007649328,-0.000951239,0.003039301,0.002251772,0.001442438,5.371e-06,-0.000149995,3.3192e-05
202.0,-0.007649328,-0.000951239,0.003039301,0.002251772,0.001442438,5.371e-06,-0.000149995,3.3192e-05
203.0,-0.007649328,-0.000951239,0.003039301,0.002301772,0.001392438,5.371e-06,-0.000149995,3.3192e-05
204.0,-0.007649328,-0.000951239,0.003039301,0.002301772,0.001392438,5.371e-06,-0.000149995,3.3192e-05
205.0,-0.007649328,-0.000951239,0.003039301,0.002251772,0.001442438,5.371e-06,-0.000149995,3.3192e-05
206.0,-0.007649328,-0.000951239,0.003039301,0.002251772,0.001442438,5.371e-06,-0.000149995,3.3192e-05
207.0,-0.007699328,-0.000951239,0.003039301,0.002251772,0.001442438,5.5371e-05,-0.000149995,3.3192e-05
208.0,-0.007699328,-0.000951239,0.003039301,0.002251772,0.001442438,5.5371e-05,-0.000149995,3.3192e-05
209.0,-0.007699328,-0.000951239,0.003039301,0.002251772,0.001442438,5.5371e-05,-0.000149995,3.3192e-05
210.0,-0.007699328,-0.000901239,0.003039301,0.002251772,0.001442438,5.5371e-05,-0.000199995,3.3192e-05
211.0,-0.007699328,-0.000901239,0.003039301,0.002251772,0.001442438,5.5371e-05,-0.000199995,3.3192e-05
212.0,-0.007699328,-0.000901239,0.003039301,0.002251772,0.001442438,5.371e-06,-0.000199995,8.3192e-05
213.0,-0.007699328,-0.000901239,0.003039301,0.002251772,0.001492438,5.371e-06,-0.000199995,3.3192e-05
214.0,-0.007699328,-0.000901239,0.003039301,0.002251772,0.001492438,5.371e-06,-0.000199995,3.3192e-05
215.0,-0.007699328,-0.000901239,0.003039301,0.002251772,0.001492438,5.371e-06,-0.000199995,3.3192e-05
216.0,-0.007699328,-0.000901239,0.003039301,0.002251772,0.001492438,5.371e-06,-0.000199995,3.3192e-05
217.0,-0.007699328,-0.000901239,0.003039301,0.002251772,0.001492438,5.371e-06,-0.000199995,3.3192e-05
218.0,-0.007699328,-0.000901239,0.003039301,0.002251772,0.001492438,5.371e-06,-0.000199995,3.3192e-05
219.0,-0.007699328,-0.000901239,0.003039301,0.002251772,0.001492438,5.371e-06,-0.000199995,3.3192e-05
220.0,-0.007699328,-0.000901239,0.003039301,0.002251772,0.001492438,5.371e-06,-0.000199995,3.3192e-05
221.0,-0.007699328,-0.000901239,0.003039301,0.002301772,0.001442438,5.371e-06,-0.000199995,3.3192e-05
222.0,-0.007699328,-0.000901239,0.003039301,0.002301772,0.001442438,5.371e-06,-0.000199995,3.3192e-05
223.0,-0.007699328,-0.000901239,0.003039301,0.002301772,0.001442438,5.371e-06,-0.000199995,3.3192e-05
224.0,-0.007699328,-0.000901239,0.003039301,0.002301772,0.001442438,5.371e-06,-0.000199995,3.3192e-05
225.0,-0.007699328,-0.000951239,0.003039301,0.002301772,0.001442438,5.371e-06,-0.000149995,3.3192e-05
226.0,-0.007699328,-0.000951239,0.003039301,0.002301772,0.001442438,5.371e-06,-0.000149995,3.3192e-05
227.0,-0.007699328,-0.000951239,0.003039301,0.002301772,0.001442438,5.371e-06,-0.000149995,3.3192e-05
228.0,-0.007699328,-0.000951239,0.003039301,0.002301772,0.001442438,5.371e-06,-0.000149995,3.3192e-05
229.0,-0.007699328,-0.000951239,0.003039301,0.002301772,0.001442438,5.371e-06,-0.000149995,3.3192e-05
230.0,-0.007699328,-0.000951239,0.003039301,0.002301772,0.001442438,5.371e-06,-0.000149995,3.3192e-05
231.0,-0.007699328,-0.000951239,0.002989301,0.002301772,0.001442438,5.5371e-05,-0.000149995,3.3192e-05
232.0,-0.007699328,-0.000951239,0.002989301,0.002301772,0.001442438,5.5371e-05,-0.000149995,3.3192e-05
233.0,-0.007699328,-0.000951239,0.002989301,0.002301772,0.001442438,5.5371e-05,-0.000149995,3.3192e-05
234.0,-0.007699328,-0.000951239,0.002989301,0.002301772,0.001442438,5.5371e-05,-0.000149995,3.3192e-05
235.0,-0.007699328,-0.000951239,0.002989301,0.002251772,0.001492438,5.5371e-05,-0.000149995,3.3192e-05
236.0,-0.007699328,-0.000951239,0.003039301,0.002251772,0.001442438,5.5371e-05,-0.000149995,3.3192e-05
237.0,-0.007699328,-0.000951239,0.003039301,0.002251772,0.001442438,5.5371e-05,-0.000149995,3.3192e-05
238.0,-0.007699328,-0.000951239,0.003039301,0.002251772,0.001442438,5.5371e-05,-0.000149995,3.3192e-05
239.0,-0.007699328,-0.000951239,0.003039301,0.002251772,0.001442438,5.5371e-05,-0.000149995,3.3192e-05
240.0,-0.007699328,-0.000951239,0.003039301,0.002301772,0.001392438,5.5371e-05,-0.000149995,3.3192e-05
241.0,-0.007699328,-0.000951239,0.003039301,0.002301772,0.001392438,5.5371e-05,-0.000149995,3.3192e-05
242.0,-0.007699328,-0.000951239,0.003039301,0.002301772,0.001392438,5.5371e-05,-0.000149995,3.3192e-05
243.0,-0.007699328,-0.000951239,0.003039301,0.002301772,0.001392438,5.5371e-05,-0.000149995,3.3192e-05
244.0,-0.007699328,-0.000951239,0.003039301,0.002301772,0.001392438,5.5371e-05,-0.000149995,3.3192e-05
245.0,-0.007699328,-0.000951239,0.003039301,0.002301772,0.001392438,5.5371e-05,-0.000149995,3.3192e-05
246.0,-0.007699328,-0.000951239,0.003039301,0.002301772,0.001392438,5.5371e-05,-0.000149995,3.3192e-05
247.0,-0.007699328,-0.000951239,0.003039301,0.002301772,0.001392438,0.000105371,-0.000199995,3.3192e-05
248.0,-0.007699328,-0.000951239,0.003039301,0.002301772,0.001392438,5.5371e-05,-0.000149995,3.3192e-05
249.0,-0.007699328,-0.000951239,0.003039301,0.002301772,0.001392438,5.5371e-05,-0.000149995,3.3192e-05
250.0,-0.007699328,-0.000951239,0.003039301,0.002301772,0.001392438,5.5371e-05,-0.000149995,3.3192e-05
251.0,-0.007699328,-0.000951239,0.003039301,0.002301772,0.001392438,5.5371e-05,-0.000149995,3.3192e-05
252.0,-0.007699328,-0.000951239,0.003039301,0.002301772,0.001392438,5.5371e-05,-0.000149995,3.3192e-05
253.0,-0.007699328,-0.000951239,0.003039301,0.002301772,0.001392438,5.5371e-05,-0.000149995,3.3192e-05
254.0,-0.007699328,-0.000901239,0.003039301,0.002301772,0.001392438,5.5371e-05,-0.000199995,3.3192e-05
255.0,-0.007699328,-0.000901239,0.003039301,0.002301772,0.001392438,5.5371e-05,-0.000199995,3.3192e-05
256.0,-0.007699328,-0.000901239,0.003039301,0.002301772,0.001392438,5.5371e-05,-0.000199995,3.3192e-05
257.0,-0.007699328,-0.000951239,0.003039301,0.002301772,0.001442438,5.5371e-05,-0.000199995,3.3192e-05
258.0,-0.007699328,-0.000951239,0.003039301,0.002301772,0.001442438,5.5371e-05,-0.000199995,3.3192e-05
259.0,-0.007699328,-0.000951239,0.003039301,0.002301772,0.001442438,5.5371e-05,-0.000199995,3.3192e-05
260.0,-0.007699328,-0.000951239,0.003039301,0.002301772,0.001442438,5.5371e-05,-0.000199995,3.3192e-05
261.0,-0.007699328,-0.001001239,0.003039301,0.002301772,0.001442438,5.5371e-05,-0.000149995,3.3192e-05
262.0,-0.007699328,-0.001001239,0.003039301,0.002301772,0.001442438,5.5371e-05,-0.000149995,3.3192e-05
263.0,-0.007699328,-0.001001239,0.003039301,0.002251772,0.001492438,5.5371e-05,-0.000149995,3.3192e-05
264.0,-0.007699328,-0.001001239,0.003039301,0.002251772,0.001492438,5.5371e-05,-0.000149995,3.3192e-05
265.0,-0.007699328,-0.001001239,0.003039301,0.002301772,0.001442438,5.5371e-05,-0.000149995,3.3192e-05
266.0,-0.007699328,-0.001001239,0.003039301,0.002301772,0.001442438,5.5371e-05,-0.000149995,3.3192e-05
267.0,-0.007699328,-0.001001239,0.003039301,0.002301772,0.001442438,5.5371e-05,-0.000149995,3.3192e-05
268.0,-0.007699328,-0.001001239,0.003039301,0.002301772,0.001442438,5.5371e-05,-0.000149995,3.3192e-05
269.0,-0.007699328,-0.001001239,0.003039301,0.002301772,0.001442438,5.5371e-05,-0.000149995,3.3192e-05
270.0,-0.007699328,-0.001001239,0.003039301,0.002301772,0.001442438,5.5371e-05,-0.000149995,3.3192e-05
271.0,-0.007699328,-0.001001239,0.003039301,0.002301772,0.001442438,5.5371e-05,-0.000149995,3.3192e-05
272.0,-0.007699328,-0.001001239,0.003039301,0.002301772,0.001442438,5.5371e-05,-0.000149995,3.3192e-05
273.0,-0.007699328,-0.001001239,0.003039301,0.002301772,0.001442438,5.5371e-05,-0.000149995,3.3192e-05
274.0,-0.007699328,-0.001001239,0.003039301,0.002301772,0.001442438,5.5371e-05,-0.000149995,3.3192e-05
275.0,-0.007699328,-0.001001189,0.003039301,0.002301772,0.001442438,5.5371e-05,-0.000149995,3.3142e-05
276.0,-0.007699328,-0.001001189,0.003039301,0.002301772,0.001442438,5.5371e-05,-0.000149995,3.3142e-05
277.0,-0.007699328,-0.001001189,0.003039301,0.002301772,0.001442438,5.5371e-05,-0.000149995,3.3142e-05
278.0,-0.007699328,-0.001001189,0.003039301,0.002301772,0.001442438,5.5371e-05,-0.000149995,3.3142e-05
279.0,-0.007699328,-0.001001189,0.003039301,0.002301772,0.001442438,5.5371e-05,-0.000149995,3.3142e-05
280.0,-0.007699328,-0.001001189,0.003039301,0.002301772,0.001442438,5.5371e-05,-0.000149995,3.3142e-05
281.0,-0.007699328,-0.001001189,0.003039301,0.002301772,0.001442438,5.5371e-05,-0.000149995,3.3142e-05
282.0,-0.007699328,-0.001001189,0.003039301,0.002301772,0.001442438,5.5371e-05,-0.000149995,3.3142e-05
283.0,-0.007699328,-0.001001189,0.003039301,0.002301772,0.001442438,5.5371e-05,-0.000149995,3.3142e-05
284.0,-0.007699328,-0.001001189,0.003039301,0.002251772,0.001492438,5.5371e-05,-0.000149995,3.3142e-05
285.0,-0.007699328,-0.001001189,0.003039301,0.002251772,0.001492438,5.5371e-05,-0.000149995,3.3142e-05
286.0,-0.007699328,-0.001001189,0.003039301,0.002251772,0.001492438,5.5371e-05,-0.000149995,3.3142e-05
287.0,-0.007699328,-0.001001189,0.003039301,0.002251772,0.001492438,5.5371e-05,-0.000149995,3.3142e-05
288.0,-0.007699328,-0.001001189,0.003039301,0.002251772,0.001492438,5.5371e-05,-0.000149995,3.3142e-05
289.0,-0.007699328,-0.001001189,0.003039301,0.002251772,0.001492438,5.5371e-05,-0.000149995,3.3142e-05
290.0,-0.007699328,-0.001001189,0.003039301,0.002251772,0.001492438,5.5371e-05,-0.000149995,3.3142e-05
291.0,-0.007699328,-0.001001189,0.003039301,0.002251772,0.001492438,5.5371e-05,-0.000149995,3.3142e-05
292.0,-0.007699328,-0.001001189,0.003039301,0.002251772,0.001492438,5.5371e-05,-0.000149995,3.3142e-05
293.0,-0.007699328,-0.001001189,0.003039301,0.002251772,0.001492438,5.5371e-05,-0.000149995,3.3142e-05
294.0,-0.007699328,-0.001001189,0.003039301,0.002251772,0.001492438,5.5371e-05,-0.000149995,3.3142e-05
295.0,-0.007699328,-0.001001189,0.003039301,0.002251772,0.001492438,5.5371e-05,-0.000149995,3.3142e-05
296.0,-0.007650647,-0.001001189,0.003039301,0.002251772,0.001492438,6.69e-06,-0.000149995,3.3142e-05
297.0,-0.007650647,-0.001001189,0.003039301,0.002251772,0.001492438,6.69e-06,-0.000149995,3.3142e-05
298.0,-0.007650647,-0.001001189,0.003039301,0.002251772,0.001492438,6.69e-06,-0.000149995,3.3142e-05
299.0,-0.007650647,-0.001001189,0.003039301,0.002251772,0.001492438,6.69e-06,-0.000149995,3.3142e-05
300.0,-0.007650647,-0.001001189,0.003039301,0.002251772,0.001492438,6.69e-06,-0.000149995,3.3142e-05
301.0,-0.007650647,-0.001001189,0.003039301,0.002295707,0.001448504,6.69e-06,-0.000149995,3.3142e-05
302.0,-0.007650647,-0.001001189,0.003039301,0.002295707,0.001448504,6.69e-06,-0.000149995,3.3142e-05
303.0,-0.007650647,-0.001001189,0.003039301,0.002295707,0.001448504,6.69e-06,-0.000149995,3.3142e-05
304.0,-0.007700647,-0.001001189,0.003039301,0.002295707,0.001448504,6.69e-06,-0.000149995,8.3142e-05
305.0,-0.007700647,-0.001001189,0.003039301,0.002295707,0.001448504,6.69e-06,-0.000149995,8.3142e-05
306.0,-0.007700647,-0.001001189,0.003039301,0.002295707,0.001448504,5.669e-05,-0.000199995,8.3142e-05
307.0,-0.007650647,-0.001001189,0.003039301,0.002295707,0.001448504,5.669e-05,-0.000199995,3.3142e-05
308.0,-0.007650647,-0.001001189,0.003039301,0.002295707,0.001448504,5.669e-05,-0.000199995,3.3142e-05
309.0,-0.007650647,-0.001001189,0.003039301,0.002295707,0.001448504,5.669e-05,-0.000199995,3.3142e-05
310.0,-0.007650647,-0.001001189,0.003039301,0.002295707,0.001448504,5.669e-05,-0.000199995,3.3142e-05
311.0,-0.007650647,-0.001001189,0.003039301,0.002295707,0.001448504,5.669e-05,-0.000199995,3.3142e-05
312.0,-0.007650647,-0.001001189,0.003039301,0.002295707,0.001448504,5.669e-05,-0.000199995,3.3142e-05
313.0,-0.007650647,-0.001001189,0.003039301,0.002295707,0.001448504,5.669e-05,-0.000199995,3.3142e-05
314.0,-0.007650647,-0.001001189,0.003039301,0.002295707,0.001448504,5.669e-05,-0.000199995,3.3142e-05
315.0,-0.007650647,-0.001001189,0.003039301,0.002295707,0.001448504,5.669e-05,-0.000199995,3.3142e-05
316.0,-0.007650647,-0.001001189,0.003039301,0.002295707,0.001448504,5.669e-05,-0.000199995,3.3142e-05
317.0,-0.007650647,-0.001001189,0.003039301,0.002295707,0.001448504,5.669e-05,-0.000199995,3.3142e-05
318.0,-0.007650647,-0.001001189,0.003039301,0.002295707,0.001448504,5.669e-05,-0.000199995,3.3142e-05
319.0,-0.007650647,-0.001001189,0.003039301,0.002295707,0.001448504,5.669e-05,-0.000199995,3.3142e-05
320.0,-0.007650647,-0.001001189,0.003039301,0.002295707,0.001448504,5.669e-05,-0.000199995,3.3142e-05
321.0,-0.007650647,-0.001001189,0.003039301,0.002295707,0.001448504,5.669e-05,-0.000199995,3.3142e-05
322.0,-0.007650647,-0.001001189,0.003039301,0.002295707,0.001448504,5.669e-05,-0.000199995,3.3142e-05
323.0,-0.007650647,-0.001001189,0.003039301,0.002295707,0.001448504,5.669e-05,-0.000199995,3.3142e-05
324.0,-0.007650647,-0.001001189,0.003039301,0.002295707,0.001448504,5.669e-05,-0.000199995,3.3142e-05
325.0,-0.007650647,-0.001001189,0.003039301,0.002295707,0.001448504,5.669e-05,-0.000199995,3.3142e-05
326.0,-0.007650647,-0.001001189,0.003039301,0.002295707,0.001448504,5.669e-05,-0.000199995,3.3142e-05
327.0,-0.007650647,-0.001001189,0.003039301,0.002295707,0.001448504,5.669e-05,-0.000199995,3.3142e-05
328.0,-0.007650647,-0.001001189,0.003039301,0.002295707,0.001448504,5.669e-05,-0.000199995,3.3142e-05
329.0,-0.007650647,-0.001001189,0.003039301,0.002295707,0.001448504,5.669e-05,-0.000199995,3.3142e-05
330.0,-0.007650647,-0.001001189,0.003039301,0.002345706,0.001448504,5.669e-05,-0.000199995,-1.6857e-05
331.0,-0.007650647,-0.001001189,0.003039301,0.002295707,0.001498504,5.669e-05,-0.000199995,-1.6857e-05
332.0,-0.007650647,-0.001001189,0.003039301,0.002295707,0.001498504,5.669e-05,-0.000199995,-1.6857e-05
333.0,-0.007650647,-0.001001189,0.003039301,0.002295707,0.001498504,5.669e-05,-0.000199995,-1.6857e-05
334.0,-0.007650647,-0.001001189,0.003039301,0.002295707,0.001498504,5.669e-05,-0.000199995,-1.6857e-05
335.0,-0.007650647,-0.001001189,0.003039301,0.002295707,0.001498504,5.669e-05,-0.000199995,-1.6857e-05
336.0,-0.007650647,-0.001001189,0.003039301,0.002295707,0.001498504,5.669e-05,-0.000199995,-1.6857e-05
337.0,-0.007650647,-0.001001189,0.003039301,0.002295707,0.001498504,5.669e-05,-0.000199995,-1.6857e-05
338.0,-0.007650647,-0.001001189,0.003039301,0.002295707,0.001498504,5.669e-05,-0.000199995,-1.6857e-05
339.0,-0.007650647,-0.001001189,0.003039301,0.002295707,0.001498504,5.669e-05,-0.000199995,-1.6857e-05
340.0,-0.007650647,-0.00095119,0.003039301,0.002295707,0.001498504,5.669e-05,-0.000249995,-1.6857e-05
341.0,-0.007650647,-0.00095119,0.003039301,0.002295707,0.001498504,5.669e-05,-0.000249995,-1.6857e-05
342.0,-0.007650647,-0.00095119,0.003039301,0.002295707,0.001498504,5.669e-05,-0.000249995,-1.6857e-05
343.0,-0.007650647,-0.00095119,0.003039301,0.002295707,0.001498504,5.669e-05,-0.000249995,-1.6857e-05
344.0,-0.007650647,-0.00095119,0.003039301,0.002295707,0.001498504,5.669e-05,-0.000249995,-1.6857e-05
345.0,-0.007650647,-0.00095119,0.003039301,0.002295707,0.001498504,5.669e-05,-0.000249995,-1.6857e-05
346.0,-0.007650647,-0.00095119,0.003039301,0.002295707,0.001498504,5.669e-05,-0.000249995,-1.6857e-05
347.0,-0.007650647,-0.00095119,0.003039301,0.002295707,0.001498504,5.669e-05,-0.000249995,-1.6857e-05
348.0,-0.007650647,-0.00095119,0.003039301,0.002295707,0.001498504,5.669e-05,-0.000249995,-1.6857e-05
349.0,-0.007650647,-0.00095119,0.003039301,0.002295707,0.001498504,5.669e-05,-0.000249995,-1.6857e-05
350.0,-0.007650647,-0.00095119,0.003039301,0.002295707,0.001498504,5.669e-05,-0.000249995,-1.6857e-05
351.0,-0.007650647,-0.00095119,0.003039301,0.002295707,0.001498504,5.669e-05,-0.000249995,-1.6857e-05
352.0,-0.007650647,-0.00095119,0.003039301,0.002295707,0.001498504,5.669e-05,-0.000249995,-1.6857e-05
353.0,-0.007650647,-0.00095119,0.003039301,0.002295707,0.001498504,5.669e-05,-0.000249995,-1.6857e-05
354.0,-0.007650647,-0.00095119,0.003039301,0.002295707,0.001498504,5.669e-05,-0.000249995,-1.6857e-05
355.0,-0.007650647,-0.00095119,0.003039301,0.002295707,0.001498504,5.669e-05,-0.000249995,-1.6857e-05
356.0,-0.007650647,-0.00095119,0.003039301,0.002295707,0.001498504,5.669e-05,-0.000249995,-1.6857e-05
357.0,-0.007650647,-0.00095119,0.003039301,0.002295707,0.001498504,5.669e-05,-0.000249995,-1.6857e-05
358.0,-0.007650647,-0.00095119,0.003039301,0.002295707,0.001498504,5.669e-05,-0.000249995,-1.6857e-05
359.0,-0.007650647,-0.00095119,0.003039301,0.002295707,0.001498504,5.669e-05,-0.000249995,-1.6857e-05
360.0,-0.007650647,-0.00095119,0.003039301,0.002295707,0.001498504,5.669e-05,-0.000249995,-1.6857e-05
361.0,-0.007650647,-0.00095119,0.003039301,0.002295707,0.001498504,5.669e-05,-0.000249995,-1.6857e-05
362.0,-0.007650647,-0.00095119,0.003039301,0.002295707,0.001498504,5.669e-05,-0.000249995,-1.6857e-05
363.0,-0.007650647,-0.00095119,0.003039301,0.002295707,0.001498504,5.669e-05,-0.000249995,-1.6857e-05
364.0,-0.007650647,-0.00095119,0.003039301,0.002295707,0.001498504,5.669e-05,-0.000249995,-1.6857e-05
365.0,-0.007650647,-0.00095119,0.003039301,0.002295707,0.001498504,5.669e-05,-0.000249995,-1.6857e-05
366.0,-0.007650647,-0.00095119,0.003039301,0.002295707,0.001498504,5.669e-05,-0.000249995,-1.6857e-05
367.0,-0.007650647,-0.00095119,0.003039301,0.002295707,0.001498504,5.669e-05,-0.000249995,-1.6857e-05
368.0,-0.007650647,-0.00095119,0.003039301,0.002295707,0.001498504,5.669e-05,-0.000249995,-1.6857e-05
369.0,-0.007650647,-0.00095119,0.003039301,0.002295707,0.001498504,5.669e-05,-0.000249995,-1.6857e-05
370.0,-0.007650647,-0.00095119,0.003039301,0.002295707,0.001498504,5.669e-05,-0.000249995,-1.6857e-05
371.0,-0.007650647,-0.00095119,0.003039301,0.002295707,0.001498504,5.669e-05,-0.000249995,-1.6857e-05
372.0,-0.007650647,-0.00095119,0.003039301,0.002295707,0.001498504,5.669e-05,-0.000249995,-1.6857e-05
373.0,-0.007650647,-0.00095119,0.003039301,0.002295707,0.001498504,5.669e-05,-0.000249995,-1.6857e-05
374.0,-0.007650647,-0.00095119,0.003039301,0.002295707,0.001498504,5.669e-05,-0.000249995,-1.6857e-05
375.0,-0.007650647,-0.00095119,0.003039301,0.002295707,0.001498504,5.669e-05,-0.000249995,-1.6857e-05
376.0,-0.007650647,-0.00095119,0.003039301,0.002295707,0.001498504,5.669e-05,-0.000249995,-1.6857e-05
377.0,-0.007650647,-0.00095119,0.003039301,0.002295707,0.001498504,5.669e-05,-0.000249995,-1.6857e-05
378.0,-0.007650647,-0.00095119,0.003039301,0.002295707,0.001498504,5.669e-05,-0.000249995,-1.6857e-05
379.0,-0.007650647,-0.00095119,0.003039301,0.002295707,0.001498504,5.669e-05,-0.000249995,-1.6857e-05
380.0,-0.007650647,-0.00095119,0.003039301,0.002295707,0.001498504,5.669e-05,-0.000249995,-1.6857e-05
381.0,-0.007650647,-0.00095119,0.003039301,0.002295707,0.001498504,5.669e-05,-0.000249995,-1.6857e-05
382.0,-0.007650647,-0.00100119,0.003039301,0.002295707,0.001498504,0.00010669,-0.000249995,-1.6857e-05
383.0,-0.007650647,-0.00100119,0.003039301,0.002295707,0.001498504,0.00010669,-0.000249995,-1.6857e-05
384.0,-0.007650647,-0.00100119,0.003039301,0.002295707,0.001498504,0.00010669,-0.000249995,-1.6857e-05
385.0,-0.007650647,-0.00100119,0.003039301,0.002295707,0.001498504,0.00010669,-0.000249995,-1.6857e-05
386.0,-0.007650647,-0.00100119,0.003039301,0.002295707,0.001498504,0.00010669,-0.000249995,-1.6857e-05
387.0,-0.007650647,-0.00100119,0.003039301,0.002295707,0.001498504,0.00010669,-0.000249995,-1.6857e-05
388.0,-0.007650647,-0.00100119,0.003039301,0.002295707,0.001498504,0.00010669,-0.000249995,-1.6857e-05
389.0,-0.007650647,-0.00100119,0.003039301,0.002295707,0.001498504,0.00010669,-0.000249995,-1.6857e-05
390.0,-0.007650647,-0.00100119,0.003039301,0.002295707,0.001498504,0.00010669,-0.000249995,-1.6857e-05
391.0,-0.007650647,-0.00100119,0.003039301,0.002295707,0.001498504,0.00010669,-0.000249995,-1.6857e-05
392.0,-0.007650647,-0.00100119,0.003039301,0.002295707,0.001498504,0.00010669,-0.000249995,-1.6857e-05
393.0,-0.007650647,-0.00100119,0.003039301,0.002295707,0.001498504,0.00010669,-0.000249995,-1.6857e-05
394.0,-0.007650647,-0.00100119,0.003039301,0.002295707,0.001498504,0.00010669,-0.000249995,-1.6857e-05
395.0,-0.007650647,-0.00100119,0.003039301,0.002295707,0.001498504,0.00010669,-0.000249995,-1.6857e-05
396.0,-0.007650647,-0.00100119,0.003039301,0.002295707,0.001498504,0.00010669,-0.000249995,-1.6857e-05
397.0,-0.007650647,-0.00100119,0.003039301,0.002295707,0.001498504,0.00010669,-0.000249995,-1.6857e-05
398.0,-0.007650647,-0.00100119,0.003039301,0.002295707,0.001498504,0.00010669,-0.000249995,-1.6857e-05
399.0,-0.007650647,-0.00100119,0.003039301,0.002295707,0.001498504,0.00010669,-0.000249995,-1.6857e-05
400.0,-0.007650647,-0.00100119,0.003089301,0.002295707,0.001498504,5.669e-05,-0.000249995,-1.6857e-05
401.0,-0.007650647,-0.00100119,0.003089301,0.002295707,0.001498504,5.669e-05,-0.000249995,-1.6857e-05
402.0,-0.007650647,-0.00100119,0.003089301,0.002295707,0.001498504,5.669e-05,-0.000249995,-1.6857e-05
403.0,-0.007650647,-0.00100119,0.003089301,0.002295707,0.001498504,5.669e-05,-0.000249995,-1.6857e-05
404.0,-0.007650647,-0.00100119,0.003089301,0.002295707,0.001498504,5.669e-05,-0.000249995,-1.6857e-05
405.0,-0.007650647,-0.00100119,0.003089301,0.002295707,0.001498504,5.669e-05,-0.000249995,-1.6857e-05
406.0,-0.007650647,-0.00100119,0.003089301,0.002295707,0.001498504,5.669e-05,-0.000249995,-1.6857e-05
407.0,-0.007650647,-0.00100119,0.003089301,0.002295707,0.001498504,5.669e-05,-0.000249995,-1.6857e-05
408.0,-0.007650647,-0.00100119,0.003089301,0.002295707,0.001498504,5.669e-05,-0.000249995,-1.6857e-05
409.0,-0.007650647,-0.00100119,0.003089301,0.002295707,0.001498504,5.669e-05,-0.000249995,-1.6857e-05
410.0,-0.007650647,-0.00100119,0.003089301,0.002295707,0.001498504,5.669e-05,-0.000249995,-1.6857e-05
411.0,-0.007650647,-0.00100119,0.003089301,0.002295707,0.001498504,5.669e-05,-0.000249995,-1.6857e-05
412.0,-0.007650647,-0.00100119,0.003089301,0.002295707,0.001498504,5.669e-05,-0.000249995,-1.6857e-05
