0.0,-0.002772057,-0.000161659,0.01033222,-0.002655586,0.002996035,0.0,0.0,0.0
1.0,-0.002772057,-0.000161659,0.01033222,-0.002655586,0.002996035,0.0,0.0,0.0
2.0,-0.002772057,-0.000161659,0.00933222,-0.002655586,0.002996035,0.001,0.0,0.0
3.0,-0.001772057,-0.000161659,0.00933222,-0.002655586,0.002996035,0.0,0.0,0.0
4.0,-0.002772057,-0.000161659,0.00933222,-0.002655586,0.002996035,0.0,0.001,0.0
5.0,-0.001772057,-0.000161659,0.00933222,-0.002655586,0.002996035,0.0,0.0,0.0
6.0,-0.002772057,-0.000161659,0.00933222,-0.002655586,0.002996035,0.0,0.001,0.0
7.0,-0.001772057,-0.000161659,0.00933222,-0.002655586,0.002996035,0.0,0.0,0.0
8.0,-0.002772057,0.00083834,0.00933222,-0.002655586,0.002996035,0.0,0.0,0.0
9.0,-0.002772057,-0.000161659,0.00933222,-0.002655586,0.002996035,0.0,0.0,0.001
10.0,-0.002772057,-0.000161659,0.00933222,-0.002655586,0.003996036,0.0,0.0,0.0
11.0,-0.002772057,-0.000161659,0.00933222,-0.002655586,0.003996036,0.0,0.0,0.0
12.0,-0.002772057,-0.000161659,0.00933222,-0.002655586,0.003996036,0.001,0.0,-0.001
13.0,-0.002772057,-0.000161659,0.00933222,-0.001655586,0.002996035,0.001,0.0,-0.001
14.0,-0.002772057,-0.000161659,0.00933222,-0.001655586,0.002996035,0.001,0.0,-0.001
15.0,-0.002772057,-0.000161659,0.00933222,-0.001655586,0.002996035,0.0,0.0,0.0
16.0,-0.002772057,-0.000161659,0.00933222,-0.001655586,0.002996035,0.0,0.0,0.0
17.0,-0.002772057,0.00083834,0.00933222,-0.001655586,0.002996035,0.0,0.0,-0.001
18.0,-0.002772057,0.00083834,0.00933222,-0.001655586,0.002996035,0.0,0.0,-0.001
19.0,-0.003772057,0.00083834,0.00933222,-0.001655586,0.002996035,0.0,0.0,0.0
20.0,-0.003772057,0.00083834,0.00933222,-0.001655586,0.002996035,0.0,0.001,-0.001
21.0,-0.003772057,0.00083834,0.00933222,-0.001655586,0.002996035,0.001,0.0,-0.001
22.0,-0.003772057,0.00083834,0.00933222,-0.001655586,0.002996035,0.001,0.0,-0.001
23.0,-0.003772057,0.00083834,0.00933222,-0.001655586,0.002996035,0.001,0.0,-0.001
24.0,-0.003772057,0.00083834,0.00933222,-0.001655586,0.002996035,0.001,0.0,-0.001
25.0,-0.003772057,0.00083834,0.00933222,-0.001655586,0.002996035,0.0,0.0,0.0
26.0,-0.002772057,0.00083834,0.00933222,-0.001655586,0.002996035,0.0,0.0,-0.001
27.0,-0.003772057,0.00083834,0.00933222,-0.001655586,0.002996035,0.0,0.0,0.0
28.0,-0.003772057,0.00083834,0.01033222,-0.001655586,0.002996035,0.0,0.0,-0.001
29.0,-0.002772057,0.00083834,0.01033222,-0.001655586,0.002996035,0.0,0.0,-0.002
30.0,-0.002772057,0.00083834,0.01133222,-0.002655586,0.002996035,0.0,0.0,-0.002
31.0,-0.002772057,0.00083834,0.01033222,-0.002655586,0.002996035,0.0,0.001,-0.002
32.0,-0.002772057,0.00083834,0.01033222,-0.002655586,0.002996035,0.0,0.001,-0.002
33.0,-0.002772057,0.00083834,0.01033222,-0.002655586,0.002996035,0.0,0.001,-0.002
34.0,-0.002772057,0.00083834,0.01033222,-0.002655586,0.002996035,0.0,0.0,-0.001
35.0,-0.003772057,0.00083834,0.01033222,-0.002655586,0.003996036,0.0,0.0,-0.001
36.0,-0.003772057,0.00083834,0.01133222,-0.002655586,0.002996035,0.0,0.0,-0.001
37.0,-0.003772057,0.00083834,0.01133222,-0.002655586,0.002996035,0.0,0.0,-0.001
38.0,-0.003772057,0.00083834,0.012332221,-0.002655586,0.002996035,0.0,-0.001,-0.001
39.0,-0.003772057,0.00083834,0.01133222,-0.002655586,0.003996036,0.0,-0.001,-0.001
40.0,-0.003772057,0.00083834,0.012332221,-0.002655586,0.002996035,0.0,-0.001,-0.001
41.0,-0.003772057,0.00083834,0.012332221,-0.002655586,0.002996035,0.001,-0.001,-0.002
42.0,-0.003772057,0.00083834,0.012332221,-0.002655586,0.002996035,0.001,-0.001,-0.002
43.0,-0.003772057,-0.000161659,0.012332221,-0.002655586,0.002996035,0.001,-0.001,-0.001
44.0,-0.003772057,-0.000161659,0.012332221,-0.002655586,0.002996035,0.0,0.0,-0.001
45.0,-0.003772057,-0.000161659,0.012332221,-0.001655586,0.002996035,0.0,-0.001,-0.001
46.0,-0.003772057,-0.000161659,0.012332221,-0.001655586,0.002996035,0.001,-0.001,-0.002
47.0,-0.003772057,-0.000161659,0.01133222,-0.001655586,0.002996035,0.002,-0.001,-0.002
48.0,-0.003772057,-0.000161659,0.01133222,-0.001655586,0.002996035,0.001,0.0,-0.002
49.0,-0.003772057,-0.000161659,0.01133222,-0.001655586,0.002996035,0.001,0.0,-0.002
50.0,-0.003772057,-0.000161659,0.01133222,-0.001655586,0.002996035,0.001,0.0,-0.002
51.0,-0.002772057,-0.000161659,0.01133222,-0.001655586,0.002996035,0.001,-0.001,-0.002
52.0,-0.002772057,-0.000161659,0.01133222,-0.001655586,0.003996036,0.0,-0.001,-0.002
53.0,-0.002772057,-0.000161659,0.01133222,-0.001655586,0.003996036,0.0,-0.001,-0.002
54.0,-0.002772057,-0.000161659,0.01133222,-0.001655586,0.002996035,0.0,0.0,-0.002
55.0,-0.002772057,0.00083834,0.01133222,-0.002655586,0.002996035,0.0,0.0,-0.002
56.0,-0.002772057,0.00083834,0.01133222,-0.002655586,0.002996035,0.0,-0.001,-0.001
57.0,-0.003772057,0.00083834,0.01133222,-0.002655586,0.002996035,0.0,0.0,-0.001
58.0,-0.003772057,0.00083834,0.01133222,-0.002655586,0.002996035,0.0,0.0,-0.001
59.0,-0.003772057,0.00083834,0.01133222,-0.002655586,0.002996035,0.0,0.0,-0.001
60.0,-0.003772057,-0.000161659,0.01133222,-0.002655586,0.002996035,0.001,0.0,-0.001
61.0,-0.003772057,-0.000161659,0.01133222,-0.001655586,0.002996035,0.001,-0.001,-0.001
62.0,-0.003772057,-0.000161659,0.01133222,-0.001655586,0.002996035,0.0,-0.001,0.0
63.0,-0.003772057,-0.000161659,0.01133222,-0.001655586,0.002996035,0.0,-0.001,0.0
64.0,-0.003772057,-0.000161659,0.01133222,-0.001655586,0.002996035,0.0,-0.001,0.0
65.0,-0.003772057,-0.000161659,0.01133222,-0.001655586,0.002996035,0.0,0.0,-0.001
66.0,-0.003772057,-0.000161659,0.01133222,-0.001655586,0.002996035,0.0,0.0,-0.001
67.0,-0.003772057,-0.000161659,0.012332221,-0.001655586,0.002996035,0.0,-0.001,-0.001
68.0,-0.003772057,-0.000161659,0.012332221,-0.001655586,0.002996035,0.0,-0.001,-0.001
69.0,-0.003772057,-0.000161659,0.012332221,-0.002655586,0.003996036,0.0,-0.001,-0.001
70.0,-0.003772057,-0.000161659,0.012332221,-0.002655586,0.003996036,0.0,-0.001,-0.001
71.0,-0.003772057,-0.000161659,0.012332221,-0.001655586,0.002996035,0.0,-0.001,-0.001
72.0,-0.003772057,-0.000161659,0.012332221,-0.001655586,0.002996035,0.0,-0.001,-0.001
73.0,-0.003772057,-0.000161659,0.012332221,-0.001655586,0.002996035,0.0,-0.001,-0.001
74.0,-0.003772057,-0.000161659,0.012332221,-0.000655586,0.002996035,0.0,-0.002,-0.001
75.0,-0.003772057,-0.000161659,0.012332221,-0.001655586,0.002996035,0.0,-0.001,-0.001
76.0,-0.002772057,-0.000161659,0.012332221,-0.001655586,0.002996035,0.0,-0.002,-0.001
77.0,-0.003772057,-0.000161659,0.012332221,-0.001655586,0.002996035,0.0,-0.002,0.0
78.0,-0.003772057,-0.000161659,0.012332221,-0.001655586,0.002996035,0.001,-0.002,-0.001
79.0,-0.003772057,-0.000161659,0.012332221,-0.001655586,0.002996035,0.001,-0.002,-0.001
80.0,-0.003772057,-0.000161659,0.012332221,-0.000655586,0.002996035,0.0,-0.002,-0.001
81.0,-0.003772057,-0.000161659,0.012332221,-0.000655586,0.002996035,0.0,-0.002,-0.001
82.0,-0.003772057,-0.000161659,0.012332221,-0.001655586,0.003996036,0.0,-0.002,-0.001
83.0,-0.003772057,-0.000161659,0.012332221,-0.001655586,0.003996036,-0.001,-0.001,-0.001
84.0,-0.003772057,-0.000161659,0.013332221,-0.001655586,0.003996036,-0.001,-0.002,-0.001
85.0,-0.003772057,-0.000161659,0.013332221,-0.001655586,0.003996036,-0.001,-0.002,-0.001
86.0,-0.003772057,-0.000161659,0.013332221,-0.001655586,0.003996036,0.0,-0.002,-0.002
87.0,-0.003772057,-0.000161659,0.013332221,-0.001655586,0.003996036,0.0,-0.002,-0.002
88.0,-0.003772057,-0.000161659,0.013332221,-0.001655586,0.003996036,0.0,-0.002,-0.002
89.0,-0.003772057,-0.000161659,0.013332221,-0.001655586,0.003996036,0.0,-0.002,-0.002
90.0,-0.002772057,-0.000161659,0.013332221,-0.001655586,0.002996035,0.0,-0.002,-0.002
91.0,-0.003772057,-0.000161659,0.013332221,-0.001655586,0.002996035,0.0,-0.001,-0.002
92.0,-0.003772057,-0.000161659,0.013332221,-0.001655586,0.002996035,0.001,-0.002,-0.002
93.0,-0.003772057,-0.000161659,0.013332221,-0.001655586,0.002996035,0.001,-0.002,-0.002
94.0,-0.002772057,-0.000161659,0.012332221,-0.001655586,0.002996035,0.001,-0.002,-0.002
95.0,-0.002772057,-0.000161659,0.012332221,-0.001655586,0.002996035,0.0,-0.002,-0.001
96.0,-0.002772057,-0.000161659,0.012332221,-0.001655586,0.002996035,0.0,-0.002,-0.001
97.0,-0.001772057,-0.000161659,0.012332221,-0.001655586,0.002996035,0.0,-0.003,-0.001
98.0,-0.001772057,-0.000161659,0.012332221,-0.001655586,0.002996035,0.0,-0.003,-0.001
99.0,-0.001772057,-0.000161659,0.012332221,-0.001655586,0.002996035,0.0,-0.003,-0.001
100.0,-0.001772057,-0.000161659,0.012332221,-0.001655586,0.002996035,0.0,-0.003,-0.001
101.0,-0.002772057,-0.000161659,0.012332221,-0.001655586,0.002996035,0.0,-0.001999999,-0.001
102.0,-0.002772057,-0.000161659,0.012332221,-0.001655586,0.002996035,0.0,-0.001999999,-0.001
103.0,-0.002772057,-0.000161659,0.012332221,-0.001655586,0.002996035,0.0,-0.001999999,-0.001
104.0,-0.002772057,-0.000161659,0.012332221,-0.001655586,0.002996035,0.0,-0.003,0.0
105.0,-0.002772057,0.00083834,0.012332221,-0.001655586,0.002996035,0.0,-0.003,-0.001
106.0,-0.002772057,-0.000161659,0.013332221,-0.001655586,0.002996035,0.0,-0.003,-0.001
107.0,-0.002772057,-0.000161659,0.012332221,-0.001655586,0.002996035,0.0,-0.003,0.0
108.0,-0.002772057,-0.000161659,0.012332221,-0.001655586,0.002996035,0.0,-0.003,0.0
109.0,-0.002772057,-0.001161659,0.012332221,-0.000655586,0.002996035,0.0,-0.003,0.0
110.0,-0.002772057,-0.000161659,0.012332221,-0.000655586,0.001996035,0.0,-0.003,0.0
111.0,-0.002772057,-0.000161659,0.012332221,-0.000655586,0.001996035,0.0,-0.003,0.0
112.0,-0.002772057,-0.000161659,0.012332221,-0.001655586,0.002996035,0.0,-0.003,0.0
113.0,-0.002772057,-0.000161659,0.012332221,-0.001655586,0.002996035,0.0,-0.003,0.0
114.0,-0.002772057,-0.000161659,0.012332221,-0.001655586,0.002996035,0.0,-0.003,0.0
115.0,-0.002772057,-0.000161659,0.012332221,-0.001655586,0.002996035,0.0,-0.003,0.0
116.0,-0.002772057,-0.000161659,0.012332221,-0.001655586,0.002996035,0.0,-0.003,0.0
117.0,-0.002772057,-0.000161659,0.012332221,-0.002655586,0.002996035,0.0,-0.001999999,0.0
118.0,-0.002772057,-0.000161659,0.012332221,-0.002655586,0.002996035,0.0,-0.001999999,0.0
119.0,-0.002772057,-0.000161659,0.012332221,-0.002655586,0.002996035,0.0,-0.001999999,0.0
120.0,-0.002772057,-0.000161659,0.012332221,-0.002655586,0.002996035,0.0,-0.001999999,0.0
121.0,-0.002772057,-0.000161659,0.012332221,-0.002655586,0.002996035,0.0,-0.001999999,0.0
122.0,-0.002772057,-0.000161659,0.012332221,-0.002655586,0.002996035,0.0,-0.001999999,0.0
123.0,-0.002772057,-0.000161659,0.012332221,-0.002655586,0.002996035,0.0,-0.001999999,0.0
124.0,-0.002772057,-0.001161659,0.012332221,-0.001655586,0.002996035,0.0,-0.001999999,0.0
125.0,-0.001772057,-0.002161659,0.012332221,-0.001655586,0.002996035,0.0,-0.001999999,0.0
126.0,-0.001772057,-0.002161659,0.012332221,-0.001655586,0.002996035,0.0,-0.001999999,0.0
127.0,-0.001772057,-0.002161659,0.012332221,-0.001655586,0.002996035,0.0,-0.001999999,0.0
128.0,-0.001772057,-0.002161659,0.012332221,-0.001655586,0.002996035,0.001,-0.001999999,-0.001
129.0,-0.001772057,-0.002161659,0.012332221,-0.001655586,0.002996035,0.001,-0.001999999,-0.001
130.0,-0.001772057,-0.002161659,0.012332221,-0.001655586,0.002996035,0.0,-0.001999999,0.0
131.0,-0.001772057,-0.002161659,0.012332221,-0.001655586,0.002996035,0.001,-0.001999999,-0.001
132.0,-0.001772057,-0.002161659,0.012332221,-0.001655586,0.002996035,0.001,-0.001999999,-0.001
133.0,-0.001772057,-0.002161659,0.012332221,-0.001655586,0.002996035,0.001,-0.001999999,-0.001
134.0,-0.001772057,-0.002161659,0.012332221,-0.001655586,0.002996035,0.001,-0.001999999,-0.001
135.0,-0.001772057,-0.001161659,0.012332221,-0.001655586,0.002996035,0.0,-0.001999999,-0.001
136.0,-0.001772057,-0.001161659,0.012332221,-0.001655586,0.002996035,0.0,-0.001999999,-0.001
137.0,-0.001772057,-0.001161659,0.012332221,-0.001655586,0.002996035,0.0,-0.001999999,-0.001
138.0,-0.002772057,-0.001161659,0.012332221,-0.001655586,0.002996035,0.001,-0.001999999,-0.001
139.0,-0.002772057,-0.001161659,0.013332221,-0.001655586,0.002996035,0.0,-0.001999999,-0.001
140.0,-0.002772057,-0.001161659,0.013332221,-0.001655586,0.002996035,0.0,-0.001999999,-0.001
141.0,-0.002772057,-0.000161659,0.012332221,-0.001655586,0.002996035,0.0,-0.001999999,-0.001
142.0,-0.002772057,-0.000161659,0.012332221,-0.001655586,0.002996035,0.0,-0.001999999,-0.001
143.0,-0.002772057,-0.000161659,0.012332221,-0.000655586,0.001996035,0.0,-0.001999999,-0.001
144.0,-0.002772057,-0.000161659,0.012332221,-0.000655586,0.001996035,0.0,-0.001999999,-0.001
145.0,-0.002772057,-0.000161659,0.012332221,-0.000655586,0.001996035,0.0,-0.001999999,-0.001
146.0,-0.002772057,-0.000161659,0.012332221,-0.000655586,0.001996035,0.0,-0.001999999,-0.001
147.0,-0.002772057,-0.000161659,0.013332221,-0.001655586,0.001996035,0.0,-0.001999999,-0.001
148.0,-0.002772057,-0.000161659,0.013332221,-0.002655586,0.002996035,0.0,-0.001999999,-0.001
149.0,-0.002772057,-0.001161659,0.013332221,-0.002655586,0.002996035,0.0,-0.001999999,0.0
150.0,-0.002772057,-0.001161659,0.013332221,-0.001655586,0.002996035,0.0,-0.003,0.0
151.0,-0.002772057,-0.001161659,0.013332221,-0.001655586,0.002996035,0.0,-0.003,0.0
152.0,-0.002772057,-0.001161659,0.013332221,-0.001655586,0.002996035,0.0,-0.003,0.0
153.0,-0.002772057,-0.001161659,0.013332221,-0.001655586,0.002996035,0.0,-0.003,0.0
154.0,-0.002772057,-0.001161659,0.013332221,-0.001655586,0.002996035,0.001,-0.003,-0.001
155.0,-0.002772057,-0.000161659,0.013332221,-0.001655586,0.002996035,0.0,-0.003,-0.001
156.0,-0.002772057,-0.000161659,0.013332221,-0.001655586,0.002996035,0.0,-0.003,-0.001
157.0,-0.002772057,-0.001161659,0.013332221,-0.001655586,0.002996035,0.001,-0.003,-0.001
158.0,-0.002772057,-0.001161659,0.013332221,-0.001655586,0.002996035,0.001,-0.003,-0.001
159.0,-0.002772057,-0.001161659,0.013332221,-0.001655586,0.002996035,0.0,-0.003,0.0
160.0,-0.002772057,-0.001161659,0.013332221,-0.001655586,0.002996035,0.0,-0.001999999,-0.001
161.0,-0.002772057,-0.001161659,0.013332221,-0.001655586,0.002996035,0.0,-0.003,0.0
162.0,-0.002772057,-0.001161659,0.013332221,-0.001655586,0.002996035,0.0,-0.003,0.0
163.0,-0.002772057,-0.001161659,0.013332221,-0.001655586,0.002996035,0.0,-0.003,0.0
164.0,-0.002772057,-0.001161659,0.013332221,-0.001655586,0.002996035,0.0,-0.003,0.0
165.0,-0.002772057,-0.001161659,0.013332221,-0.001655586,0.002996035,0.0,-0.003,0.0
166.0,-0.002772057,-0.001161659,0.013332221,-0.001655586,0.002996035,0.0,-0.003,0.0
167.0,-0.002772057,-0.001161659,0.013332221,-0.001655586,0.002996035,0.0,-0.003,0.0
168.0,-0.002772057,-0.001161659,0.013332221,-0.001655586,0.002996035,0.0,-0.003,0.0
169.0,-0.002772057,-0.000161659,0.013332221,-0.001655586,0.002996035,0.0,-0.003,-0.001
170.0,-0.002772057,-0.000161659,0.013332221,-0.001655586,0.002996035,0.0,-0.003,-0.001
171.0,-0.002772057,-0.000161659,0.013332221,-0.001655586,0.002996035,0.0,-0.003,-0.001
172.0,-0.002772057,-0.000161659,0.013332221,-0.001655586,0.002996035,0.0,-0.003,-0.001
173.0,-0.002772057,-0.000161659,0.012332221,-0.001655586,0.002996035,0.0,-0.003,0.0
174.0,-0.002772057,-0.000161659,0.012332221,-0.001655586,0.002996035,0.001,-0.003,-0.001
175.0,-0.002772057,-0.000161659,0.012332221,-0.001655586,0.002996035,0.0,-0.001999999,-0.001
176.0,-0.002772057,-0.000161659,0.012332221,-0.001655586,0.002996035,0.0,-0.001999999,-0.001
177.0,-0.002772057,-0.000161659,0.013332221,-0.001655586,0.002996035,0.0,-0.003,-0.001
178.0,-0.002772057,-0.000161659,0.013332221,-0.001655586,0.002996035,0.001,-0.004,-0.001
179.0,-0.002772057,-0.000161659,0.013332221,-0.001655586,0.002996035,0.001,-0.004,-0.001
180.0,-0.002772057,-0.000161659,0.013332221,-0.001655586,0.002996035,0.0,-0.004,0.0
181.0,-0.002772057,-0.000161659,0.013332221,-0.001655586,0.002996035,0.0,-0.003,-0.001
182.0,-0.001772057,-0.000161659,0.013332221,-0.001655586,0.002996035,0.0,-0.004,-0.001
183.0,-0.002772057,-0.000161659,0.013332221,-0.001655586,0.002996035,0.001,-0.004,-0.001
184.0,-0.002772057,-0.000161659,0.013332221,-0.002655586,0.003996036,0.001,-0.004,-0.001
185.0,-0.002772057,-0.000161659,0.013332221,-0.002655586,0.003996036,0.001,-0.004,-0.001
186.0,-0.002772057,-0.000161659,0.013332221,-0.002655586,0.003996036,0.001,-0.004,-0.001
187.0,-0.002772057,-0.000161659,0.013332221,-0.001655586,0.002996035,0.001,-0.004,-0.001
188.0,-0.002772057,-0.000161659,0.013332221,-0.001655586,0.002996035,0.001,-0.004,-0.001
189.0,-0.002772057,-0.000161659,0.013332221,-0.001655586,0.002996035,0.0,-0.003,-0.001
190.0,-0.002772057,-0.000161659,0.013332221,-0.001655586,0.002996035,0.001,-0.004,-0.001
191.0,-0.002772057,-0.000161659,0.013332221,-0.001655586,0.002996035,0.001,-0.004,-0.001
192.0,-0.002772057,-0.000161659,0.013332221,-0.001655586,0.002996035,0.0,-0.004,0.0
193.0,-0.002772057,-0.000161659,0.013332221,-0.002655586,0.003996036,0.0,-0.004,0.0
194.0,-0.002772057,-0.000161659,0.013332221,-0.002655586,0.003996036,0.0,-0.004,0.0
195.0,-0.002772057,-0.000161659,0.013332221,-0.002655586,0.003996036,0.0,-0.004,0.0
196.0,-0.002772057,-0.000161659,0.013332221,-0.002655586,0.003996036,0.0,-0.004,0.0
197.0,-0.002772057,-0.000161659,0.013332221,-0.002655586,0.003996036,0.0,-0.004,0.0
198.0,-0.002772057,-0.000161659,0.013332221,-0.001655586,0.002996035,0.0,-0.004,0.0
199.0,-0.002772057,-0.000161659,0.013332221,-0.001655586,0.002996035,0.001,-0.005,0.0
200.0,-0.002772057,-0.000161659,0.013332221,-0.001655586,0.002996035,0.001,-0.005,0.0
201.0,-0.002772057,-0.000161659,0.013332221,-0.001655586,0.002996035,0.001,-0.005,0.0
202.0,-0.002772057,-0.000161659,0.013332221,-0.001655586,0.002996035,0.001,-0.005,0.0
203.0,-0.002772057,-0.000161659,0.013332221,-0.001655586,0.002996035,0.0,-0.004,0.0
204.0,-0.002772057,-0.000161659,0.013332221,-0.001655586,0.002996035,0.0,-0.004,0.0
205.0,-0.002772057,-0.000161659,0.013332221,-0.001655586,0.002996035,0.001,-0.004,-0.001
206.0,-0.002772057,-0.000161659,0.013332221,-0.001655586,0.002996035,0.001,-0.004,-0.001
207.0,-0.002772057,-0.000161659,0.013332221,-0.001655586,0.002996035,0.001,-0.004,-0.001
208.0,-0.002772057,-0.000161659,0.013332221,-0.001655586,0.002996035,0.001,-0.004,-0.001
209.0,-0.002772057,-0.000161659,0.013332221,-0.001655586,0.002996035,0.001,-0.004,-0.001
210.0,-0.002772057,-0.001161659,0.013332221,-0.000655586,0.002996035,0.001,-0.004,-0.001
211.0,-0.002772057,-0.001161659,0.013332221,-0.001655586,0.003996036,0.001,-0.004,-0.001
212.0,-0.002772057,-0.001161659,0.013332221,-0.001655586,0.003996036,0.0,-0.004,0.0
213.0,-0.002772057,-0.001161659,0.013332221,-0.001655586,0.003996036,0.0,-0.004,0.0
214.0,-0.002772057,-0.001161659,0.013332221,-0.000655586,0.002996035,0.0,-0.004,0.0
215.0,-0.002772057,-0.001161659,0.013332221,-0.001655586,0.003996036,0.0,-0.004,0.0
216.0,-0.002772057,-0.001161659,0.013332221,-0.001655586,0.003996036,0.001,-0.004,-0.001
217.0,-0.002772057,-0.001161659,0.013332221,-0.001655586,0.003996036,0.001,-0.004,-0.001
218.0,-0.002772057,-0.001161659,0.013332221,-0.000655586,0.002996035,0.001,-0.004,-0.001
219.0,-0.002772057,-0.001161659,0.013332221,-0.000655586,0.002996035,0.001,-0.004,-0.001
220.0,-0.002772057,-0.001161659,0.013332221,-0.000655586,0.002996035,0.001,-0.004,-0.001
221.0,-0.002772057,-0.001161659,0.013332221,-0.000655586,0.002996035,0.001,-0.004,-0.001
222.0,-0.002772057,-0.001161659,0.013332221,-0.000655586,0.002996035,0.001,-0.004,-0.001
223.0,-0.002772057,-0.001161659,0.013332221,-0.000655586,0.002996035,0.001,-0.004,-0.001
224.0,-0.002772057,-0.001161659,0.014332221,-0.001655586,0.002996035,0.001,-0.004,-0.001
225.0,-0.002772057,-0.001161659,0.014332221,-0.001655586,0.002996035,0.001,-0.004,-0.001
226.0,-0.002772057,-0.001161659,0.014332221,-0.001655586,0.002996035,0.001,-0.004,-0.001
227.0,-0.003772057,-0.001161659,0.014332221,-0.001655586,0.002996035,0.001,-0.004,0.0
228.0,-0.003772057,-0.001161659,0.014332221,-0.001655586,0.002996035,0.001,-0.004,0.0
229.0,-0.003772057,-0.001161659,0.014332221,-0.001655586,0.002996035,0.001,-0.004,0.0
230.0,-0.003772057,-0.001161659,0.014332221,-0.001655586,0.002996035,0.001,-0.004,0.0
231.0,-0.003772057,-0.001161659,0.014332221,-0.001655586,0.002996035,0.001,-0.004,0.0
232.0,-0.003772057,-0.001161659,0.014332221,-0.001655586,0.002996035,0.001,-0.004,0.0
233.0,-0.003772057,-0.001161659,0.014332221,-0.001655586,0.002996035,0.001,-0.004,0.0
234.0,-0.003772057,-0.001161659,0.014332221,-0.001655586,0.002996035,0.001,-0.004,0.0
235.0,-0.003772057,-0.001161659,0.014332221,-0.001655586,0.002996035,0.002,-0.004,-0.001
236.0,-0.003772057,-0.001161659,0.014332221,-0.001655586,0.002996035,0.001,-0.004,0.0
237.0,-0.003772057,-0.001161659,0.014332221,-0.001655586,0.002996035,0.002,-0.004,-0.001
238.0,-0.003772057,-0.001161659,0.014332221,-0.001655586,0.002996035,0.002,-0.004,-0.001
239.0,-0.003772057,-0.001161659,0.014332221,-0.001655586,0.002996035,0.002,-0.004,-0.001
240.0,-0.003772057,-0.001161659,0.014332221,-0.001655586,0.002996035,0.001,-0.004,0.0
241.0,-0.003772057,-0.001161659,0.014332221,-0.001655586,0.002996035,0.001,-0.004,0.0
242.0,-0.003772057,-0.001161659,0.014332221,-0.001655586,0.002996035,0.002,-0.004,-0.001
243.0,-0.003772057,-0.001161659,0.014332221,-0.001655586,0.002996035,0.002,-0.004,-0.001
244.0,-0.003772057,-0.001161659,0.014332221,-0.000655586,0.001996035,0.002,-0.004,-0.001
245.0,-0.003772057,-0.001161659,0.014332221,-0.000655586,0.001996035,0.002,-0.004,-0.001
246.0,-0.003772057,-0.001161659,0.014332221,-0.000655586,0.001996035,0.002,-0.004,-0.001
247.0,-0.003772057,-0.001161659,0.014332221,-0.000655586,0.001996035,0.002,-0.004,-0.001
248.0,-0.003772057,-0.001161659,0.014332221,-0.000655586,0.001996035,0.002,-0.004,-0.001
249.0,-0.003772057,-0.001161659,0.014332221,-0.000655586,0.001996035,0.002,-0.004,-0.001
250.0,-0.002772057,-0.001161659,0.014332221,-0.001655586,0.001996035,0.002,-0.004,-0.001
251.0,-0.002772057,-0.001161659,0.014332221,-0.002655586,0.002996035,0.002,-0.004,-0.001
252.0,-0.002772057,-0.001161659,0.014332221,-0.002655586,0.002996035,0.002,-0.004,-0.001
253.0,-0.002772057,-0.001161659,0.014332221,-0.002655586,0.002996035,0.002,-0.004,-0.001
254.0,-0.002772057,-0.001161659,0.014332221,-0.002655586,0.002996035,0.002,-0.004,-0.001
255.0,-0.002772057,-0.001161659,0.014332221,-0.002655586,0.002996035,0.002,-0.004,-0.001
256.0,-0.002772057,-0.001161659,0.014332221,-0.002655586,0.002996035,0.001,-0.004,0.0
257.0,-0.002772057,-0.001161659,0.014332221,-0.001655586,0.001996035,0.001,-0.004,0.0
258.0,-0.002772057,-0.001161659,0.014332221,-0.001655586,0.001996035,0.001,-0.003,-0.001
259.0,-0.001772057,-0.001161659,0.014332221,-0.001655586,0.001996035,0.001,-0.004,-0.001
260.0,-0.001772057,-0.001161659,0.014332221,-0.001655586,0.001996035,0.001,-0.004,-0.001
261.0,-0.002772057,-0.001161659,0.014332221,-0.001655586,0.001996035,0.001,-0.004,0.0
262.0,-0.002772057,-0.001161659,0.014332221,-0.001655586,0.001996035,0.001,-0.004,0.0
263.0,-0.002772057,-0.001161659,0.014332221,-0.002655586,0.002996035,0.001,-0.004,0.0
264.0,-0.002772057,-0.001161659,0.014332221,-0.002655586,0.002996035,0.001,-0.004,0.0
265.0,-0.002772057,-0.001161659,0.014332221,-0.002655586,0.002996035,0.001,-0.004,0.0
266.0,-0.002772057,-0.001161659,0.014332221,-0.002655586,0.002996035,0.001,-0.004,0.0
267.0,-0.002772057,-0.001161659,0.013332221,-0.002655586,0.003996036,0.001,-0.004,0.0
268.0,-0.002772057,-0.001161659,0.013332221,-0.002655586,0.003996036,0.001,-0.004,0.0
269.0,-0.002772057,-0.001161659,0.013332221,-0.002655586,0.003996036,0.002,-0.004,-0.001
270.0,-0.002772057,-0.001161659,0.014332221,-0.002655586,0.003996036,0.001,-0.004,-0.001
271.0,-0.002772057,-0.001161659,0.014332221,-0.002655586,0.003996036,0.001,-0.004,-0.001
272.0,-0.003772057,-0.001161659,0.014332221,-0.002655586,0.003996036,0.001,-0.003,-0.001
273.0,-0.003772057,-0.001161659,0.014332221,-0.002655586,0.003996036,0.001,-0.003,-0.001
274.0,-0.003772057,-0.001161659,0.014332221,-0.002655586,0.003996036,0.001,-0.003,-0.001
275.0,-0.002772057,-0.001161659,0.014332221,-0.002655586,0.003996036,0.001,-0.004,-0.001
276.0,-0.002772057,-0.001161659,0.014332221,-0.002655586,0.003996036,0.001,-0.004,-0.001
277.0,-0.002772057,-0.001161659,0.015332221,-0.002655586,0.002996035,0.001,-0.004,-0.001
278.0,-0.002772057,-0.001161659,0.015332221,-0.002655586,0.002996035,0.001,-0.004,-0.001
279.0,-0.002772057,-0.001161659,0.015332221,-0.002655586,0.002996035,0.001,-0.004,-0.001
280.0,-0.002772057,-0.001161659,0.015332221,-0.002655586,0.002996035,0.001,-0.004,-0.001
281.0,-0.002772057,-0.001161659,0.015332221,-0.002655586,0.002996035,0.001,-0.004,-0.001
282.0,-0.002772057,-0.001161659,0.015332221,-0.002655586,0.002996035,0.001,-0.004,-0.001
283.0,-0.002772057,-0.001161659,0.015332221,-0.002655586,0.002996035,0.001,-0.004,-0.001
284.0,-0.002772057,-0.001161659,0.015332221,-0.002655586,0.002996035,0.001,-0.004,-0.001
285.0,-0.002772057,-0.001161659,0.015332221,-0.002655586,0.002996035,0.001,-0.004,-0.001
286.0,-0.002772057,-0.001161659,0.015332221,-0.002655586,0.002996035,0.001,-0.004,-0.001
287.0,-0.002772057,-0.000161659,0.014332221,-0.002655586,0.002996035,0.001,-0.004,-0.001
288.0,-0.002772057,-0.000161659,0.014332221,-0.002655586,0.002996035,0.001,-0.004,-0.001
289.0,-0.002772057,-0.000161659,0.014332221,-0.002655586,0.002996035,0.001,-0.004,-0.001
290.0,-0.002772057,-0.000161659,0.014332221,-0.002655586,0.002996035,0.001,-0.004,-0.001
291.0,-0.002772057,-0.000161659,0.014332221,-0.002655586,0.002996035,0.001,-0.004,-0.001
292.0,-0.002772057,-0.001161659,0.015332221,-0.002655586,0.002996035,0.001,-0.004,-0.001
293.0,-0.002772057,-0.001161659,0.015332221,-0.002655586,0.002996035,0.001,-0.004,-0.001
294.0,-0.001772057,-0.001161659,0.015332221,-0.002655586,0.002996035,0.001,-0.004,-0.002
295.0,-0.002772057,-0.001161659,0.015332221,-0.002655586,0.002996035,0.001,-0.004,-0.001
296.0,-0.002772057,-0.001161659,0.015332221,-0.002655586,0.002996035,0.001,-0.004,-0.001
297.0,-0.002772057,-0.001161659,0.015332221,-0.002655586,0.002996035,0.002,-0.004,-0.002
298.0,-0.002772057,-0.001161659,0.015332221,-0.002655586,0.002996035,0.002,-0.004,-0.002
299.0,-0.002772057,-0.001161659,0.015332221,-0.002655586,0.002996035,0.001,-0.004,-0.001
300.0,-0.002772057,-0.001161659,0.015332221,-0.002655586,0.002996035,0.001,-0.004,-0.001
301.0,-0.002772057,-0.001161659,0.015332221,-0.002655586,0.002996035,0.002,-0.004,-0.002
302.0,-0.002772057,-0.001161659,0.015332221,-0.002655586,0.002996035,0.002,-0.004,-0.002
303.0,-0.002772057,-0.001161659,0.015332221,-0.002655586,0.002996035,0.002,-0.004,-0.002
304.0,-0.002772057,-0.001161659,0.014332221,-0.001655586,0.002996035,0.002,-0.004,-0.002
305.0,-0.002772057,-0.001161659,0.014332221,-0.001655586,0.002996035,0.002,-0.004,-0.002
306.0,-0.002772057,-0.001161659,0.014332221,-0.001655586,0.002996035,0.001,-0.003,-0.002
307.0,-0.002772057,-0.001161659,0.014332221,-0.001655586,0.002996035,0.001,-0.003,-0.002
308.0,-0.003772057,-0.001161659,0.014332221,-0.000655586,0.002996035,0.001,-0.003,-0.002
309.0,-0.002772057,-0.001161659,0.014332221,-0.000655586,0.002996035,0.001,-0.004,-0.002
310.0,-0.002772057,-0.001161659,0.014332221,-0.000655586,0.002996035,0.001,-0.004,-0.002
311.0,-0.002772057,-0.001161659,0.014332221,-0.000655586,0.002996035,0.001,-0.004,-0.002
312.0,-0.002772057,-0.001161659,0.014332221,-0.000655586,0.002996035,0.001,-0.004,-0.002
313.0,-0.002772057,-0.001161659,0.014332221,-0.000655586,0.002996035,0.001,-0.004,-0.002
314.0,-0.002772057,-0.001161659,0.014332221,-0.000655586,0.002996035,0.0,-0.004,-0.001
315.0,-0.002772057,-0.001161659,0.014332221,-0.001655586,0.003996036,0.0,-0.004,-0.001
316.0,-0.002772057,-0.001161659,0.014332221,-0.001655586,0.003996036,0.001,-0.004,-0.002
317.0,-0.002772057,-0.002161659,0.014332221,-0.000655586,0.003996036,0.001,-0.004,-0.002
318.0,-0.002772057,-0.002161659,0.014332221,-0.000655586,0.003996036,0.0,-0.004,-0.001
319.0,-0.002772057,-0.002161659,0.014332221,-0.000655586,0.003996036,0.0,-0.004,-0.001
320.0,-0.002772057,-0.002161659,0.014332221,-0.000655586,0.003996036,0.0,-0.004,-0.001
321.0,-0.002772057,-0.002161659,0.014332221,-0.000655586,0.003996036,0.0,-0.004,-0.001
322.0,-0.002772057,-0.002161659,0.014332221,-0.000655586,0.003996036,0.0,-0.004,-0.001
323.0,-0.002772057,-0.002161659,0.014332221,-0.000655586,0.003996036,0.0,-0.004,-0.001
324.0,-0.002772057,-0.002161659,0.015332221,-0.001655586,0.003996036,0.0,-0.004,-0.001
325.0,-0.002772057,-0.002161659,0.015332221,-0.001655586,0.003996036,0.0,-0.004,-0.001
326.0,-0.002772057,-0.002161659,0.015332221,-0.001655586,0.003996036,0.0,-0.004,-0.001
327.0,-0.002772057,-0.002161659,0.015332221,-0.001655586,0.003996036,0.0,-0.004,-0.001
328.0,-0.002772057,-0.002161659,0.015332221,-0.001655586,0.003996036,0.0,-0.004,-0.001
329.0,-0.002772057,-0.002161659,0.015332221,-0.001655586,0.003996036,0.0,-0.004,-0.001
330.0,-0.002772057,-0.001161659,0.015332221,-0.002655586,0.003996036,0.0,-0.004,-0.001
331.0,-0.002772057,-0.001161659,0.015332221,-0.002655586,0.003996036,0.0,-0.004,-0.001
332.0,-0.002772057,-0.001161659,0.015332221,-0.002655586,0.003996036,0.001,-0.004,-0.002
333.0,-0.002772057,-0.001161659,0.015332221,-0.002655586,0.003996036,0.001,-0.004,-0.002
334.0,-0.002772057,-0.001161659,0.015332221,-0.002655586,0.003996036,0.001,-0.004,-0.002
335.0,-0.002772057,-0.001161659,0.015332221,-0.002655586,0.003996036,0.001,-0.004,-0.002
336.0,-0.002772057,-0.001161659,0.015332221,-0.002655586,0.003996036,0.001,-0.004,-0.002
337.0,-0.002772057,-0.001161659,0.015332221,-0.002655586,0.003996036,0.001,-0.004,-0.002
338.0,-0.002772057,-0.001161659,0.015332221,-0.001655586,0.002996035,0.001,-0.004,-0.002
339.0,-0.002772057,-0.001161659,0.015332221,-0.001655586,0.002996035,0.001,-0.004,-0.002
340.0,-0.002772057,-0.001161659,0.015332221,-0.001655586,0.002996035,0.001,-0.004,-0.002
341.0,-0.002772057,-0.001161659,0.014332221,-0.001655586,0.002996035,0.001,-0.003,-0.002
342.0,-0.002772057,-0.001161659,0.015332221,-0.001655586,0.002996035,0.001,-0.004,-0.002
343.0,-0.002772057,-0.001161659,0.015332221,-0.001655586,0.002996035,0.001,-0.005,-0.001
344.0,-0.002772057,-0.001161659,0.015332221,-0.001655586,0.002996035,0.001,-0.005,-0.001
345.0,-0.002772057,-0.001161659,0.015332221,-0.001655586,0.002996035,0.001,-0.005,-0.001
346.0,-0.002772057,-0.001161659,0.015332221,-0.001655586,0.002996035,0.001,-0.005,-0.001
347.0,-0.002772057,-0.001161659,0.015332221,-0.001655586,0.002996035,0.001,-0.005,-0.001
348.0,-0.002772057,-0.001161659,0.015332221,-0.001655586,0.002996035,0.001,-0.005,-0.001
349.0,-0.002772057,-0.001161659,0.015332221,-0.001655586,0.002996035,0.001,-0.005,-0.001
350.0,-0.002772057,-0.001161659,0.015332221,-0.001655586,0.002996035,0.001,-0.004,-0.002
351.0,-0.002772057,-0.001161659,0.015332221,-0.001655586,0.002996035,0.001,-0.004,-0.002
352.0,-0.002772057,-0.001161659,0.015332221,-0.001655586,0.002996035,0.001,-0.004,-0.002
353.0,-0.002772057,-0.001161659,0.015332221,-0.001655586,0.002996035,0.001,-0.004,-0.002
354.0,-0.002772057,-0.001161659,0.015332221,-0.001655586,0.002996035,0.001,-0.004,-0.002
355.0,-0.002772057,-0.001161659,0.015332221,-0.001655586,0.002996035,0.001,-0.004,-0.002
356.0,-0.002772057,-0.001161659,0.015332221,-0.001655586,0.002996035,0.001,-0.004,-0.002
357.0,-0.002772057,-0.001161659,0.015332221,-0.001655586,0.002996035,0.001,-0.004,-0.002
358.0,-0.002772057,-0.001161659,0.015332221,-0.001655586,0.002996035,0.001,-0.004,-0.002
359.0,-0.002772057,-0.001161659,0.015332221,-0.001655586,0.002996035,0.001,-0.004,-0.002
360.0,-0.002772057,-0.001161659,0.015332221,-0.001655586,0.002996035,0.001,-0.004,-0.002
361.0,-0.002772057,-0.001161659,0.015332221,-0.001655586,0.002996035,0.001,-0.004,-0.002
362.0,-0.002772057,-0.001161659,0.01633222,-0.001655586,0.001996035,0.001,-0.004,-0.002
363.0,-0.002772057,-0.001161659,0.01633222,-0.001655586,0.001996035,0.001,-0.004,-0.002
364.0,-0.002772057,-0.001161659,0.01633222,-0.001655586,0.001996035,0.001,-0.004,-0.002
365.0,-0.002772057,-0.001161659,0.01633222,-0.001655586,0.001996035,0.001,-0.004,-0.002
366.0,-0.002772057,-0.001161659,0.01633222,-0.001655586,0.001996035,0.001,-0.004,-0.002
367.0,-0.002772057,-0.001161659,0.01533222,-0.001655586,0.002996035,0.001,-0.004,-0.002
368.0,-0.002772057,-0.001161659,0.01533222,-0.001655586,0.002996035,0.001,-0.004,-0.002
369.0,-0.002772057,-0.001161659,0.01533222,-0.001655586,0.002996035,0.0,-0.004,-0.001
370.0,-0.002772057,-0.001161659,0.01533222,-0.001655586,0.002996035,0.0,-0.004,-0.001
371.0,-0.002772057,-0.001161659,0.01533222,-0.001655586,0.002996035,0.0,-0.004,-0.001
372.0,-0.002772057,-0.001161659,0.01533222,-0.001655586,0.002996035,0.0,-0.004,-0.001
373.0,-0.002772057,-0.001161659,0.01533222,-0.001655586,0.002996035,0.0,-0.004,-0.001
374.0,-0.002772057,-0.001161659,0.01533222,-0.001655586,0.002996035,0.0,-0.004,-0.001
375.0,-0.002772057,-0.001161659,0.01533222,-0.001655586,0.002996035,0.0,-0.004,-0.001
376.0,-0.002772057,-0.001161659,0.01533222,-0.001655586,0.002996035,0.0,-0.004,-0.001
377.0,-0.002772057,-0.001161659,0.01533222,-0.001655586,0.002996035,0.0,-0.004,-0.001
378.0,-0.002772057,-0.001161659,0.01533222,-0.001655586,0.002996035,0.001,-0.004,-0.002
379.0,-0.002772057,-0.001161659,0.01533222,-0.001655586,0.002996035,0.001,-0.004,-0.002
380.0,-0.002772057,-0.001161659,0.01533222,-0.001655586,0.002996035,0.001,-0.004,-0.002
381.0,-0.002772057,-0.001161659,0.01533222,-0.001655586,0.002996035,0.001,-0.004,-0.002
382.0,-0.002772057,-0.001161659,0.01533222,-0.001655586,0.002996035,0.001,-0.004,-0.002
383.0,-0.002772057,-0.001161659,0.01533222,-0.001655586,0.002996035,0.001,-0.004,-0.002
384.0,-0.002772057,-0.001161659,0.01533222,-0.001655586,0.002996035,0.001,-0.004,-0.002
385.0,-0.002772057,-0.001161659,0.01533222,-0.001655586,0.002996035,0.001,-0.004,-0.002
386.0,-0.002772057,-0.001161659,0.01533222,-0.001655586,0.002996035,0.001,-0.004,-0.002
387.0,-0.002772057,-0.001161659,0.01533222,-0.001655586,0.002996035,0.001,-0.004,-0.002
388.0,-0.002772057,-0.001161659,0.01533222,-0.001655586,0.002996035,0.002,-0.005,-0.002
389.0,-0.003772057,-0.001161659,0.01533222,-0.001655586,0.002996035,0.002,-0.004,-0.002
390.0,-0.003772057,-0.001161659,0.01633222,-0.001655586,0.001996035,0.002,-0.004,-0.002
391.0,-0.003772057,-0.001161659,0.01633222,-0.001655586,0.001996035,0.002,-0.004,-0.002
392.0,-0.003772057,-0.001161659,0.01633222,-0.001655586,0.001996035,0.002,-0.004,-0.002
393.0,-0.003772057,-0.001161659,0.01633222,-0.001655586,0.001996035,0.002,-0.004,-0.002
394.0,-0.003772057,-0.001161659,0.01633222,-0.001655586,0.001996035,0.003,-0.005,-0.002
395.0,-0.003772057,-0.001161659,0.01633222,-0.001655586,0.001996035,0.001999999,-0.005,-0.001
396.0,-0.003772057,-0.001161659,0.01633222,-0.001655586,0.001996035,0.000999999,-0.005,0.0
397.0,-0.003772057,-0.001161659,0.01633222,-0.001655586,0.001996035,0.000999999,-0.005,0.0
398.0,-0.003772057,-0.000161659,0.01533222,-0.001655586,0.001996035,0.000999999,-0.005,0.0
399.0,-0.003772057,-0.000161659,0.01533222,-0.001655586,0.001996035,0.000999999,-0.005,0.0
400.0,-0.003772057,-0.000161659,0.01533222,-0.001655586,0.001996035,0.000999999,-0.004,-0.001
401.0,-0.002772057,-0.000161659,0.01533222,-0.001655586,0.001996035,0.000999999,-0.005,-0.001
402.0,-0.002772057,-0.000161659,0.01533222,-0.001655586,0.001996035,0.000999999,-0.005,-0.001
403.0,-0.002772057,-0.001161659,0.01533222,-0.001655586,0.001996035,0.001999999,-0.005,-0.001
404.0,-0.002772057,-0.001161659,0.01533222,-0.001655586,0.001996035,0.001999999,-0.005,-0.001
405.0,-0.002772057,-0.002161659,0.01633222,-0.001655586,0.001996035,0.001999999,-0.005,-0.001
406.0,-0.002772057,-0.002161659,0.01633222,-0.001655586,0.001996035,0.001999999,-0.005,-0.001
407.0,-0.002772057,-0.002161659,0.01633222,-0.001655586,0.001996035,0.001999999,-0.005,-0.001
408.0,-0.002772057,-0.002161659,0.01633222,-0.001655586,0.001996035,0.001999999,-0.005,-0.001
409.0,-0.002772057,-0.002161659,0.01633222,-0.001655586,0.001996035,0.001999999,-0.005,-0.001
410.0,-0.002772057,-0.002161659,0.01633222,-0.001655586,0.001996035,0.001999999,-0.005,-0.001
411.0,-0.002772057,-0.002161659,0.01633222,-0.001655586,0.001996035,0.001999999,-0.005,-0.001
412.0,-0.002772057,-0.002161659,0.01633222,-0.001655586,0.001996035,0.001999999,-0.005,-0.001
413.0,-0.002772057,-0.002161659,0.01633222,-0.001655586,0.001996035,0.001999999,-0.005,-0.001
414.0,-0.002772057,-0.002161659,0.01633222,-0.001655586,0.001996035,0.001999999,-0.005,-0.001
415.0,-0.002772057,-0.002161659,0.01633222,-0.001655586,0.001996035,0.001999999,-0.005,-0.001
416.0,-0.002772057,-0.002161659,0.01633222,-0.001655586,0.001996035,0.001999999,-0.005,-0.001
417.0,-0.002772057,-0.002161659,0.01633222,-0.001655586,0.001996035,0.001999999,-0.005,-0.001
418.0,-0.002772057,-0.002161659,0.01633222,-0.001655586,0.001996035,0.001999999,-0.005,-0.001
419.0,-0.002772057,-0.002161659,0.01633222,-0.001655586,0.001996035,0.001999999,-0.005,-0.001
420.0,-0.002772057,-0.002161659,0.01633222,-0.001655586,0.001996035,0.001999999,-0.005,-0.001
421.0,-0.002772057,-0.002161659,0.01633222,-0.002655586,0.002996035,0.001999999,-0.005,-0.001
422.0,-0.002772057,-0.002161659,0.01633222,-0.002655586,0.002996035,0.001999999,-0.005,-0.001
423.0,-0.002772057,-0.002161659,0.01633222,-0.002655586,0.002996035,0.001999999,-0.005,-0.001
424.0,-0.002772057,-0.002161659,0.01633222,-0.002655586,0.002996035,0.001999999,-0.005,-0.001
425.0,-0.002772057,-0.002161659,0.01633222,-0.002655586,0.002996035,0.001999999,-0.005,-0.001
426.0,-0.002772057,-0.002161659,0.01633222,-0.002655586,0.002996035,0.001999999,-0.005,-0.001
427.0,-0.002772057,-0.002161659,0.01633222,-0.002655586,0.002996035,0.001999999,-0.005,-0.001
428.0,-0.002772057,-0.001161659,0.01633222,-0.002655586,0.002996035,0.001999999,-0.005,-0.002
429.0,-0.002772057,-0.001161659,0.01633222,-0.002655586,0.002996035,0.000999999,-0.005,-0.001
430.0,-0.002772057,-0.001161659,0.01633222,-0.002655586,0.002996035,0.000999999,-0.005,-0.001
431.0,-0.002772057,-0.001161659,0.01633222,-0.002655586,0.002996035,0.000999999,-0.005,-0.001
432.0,-0.002772057,-0.001161659,0.01633222,-0.002655586,0.002996035,0.000999999,-0.005,-0.001
433.0,-0.002772057,-0.001161659,0.01633222,-0.002655586,0.002996035,0.000999999,-0.005,-0.001
434.0,-0.002772057,-0.001161659,0.01633222,-0.001655586,0.001996035,0.000999999,-0.005,-0.001
435.0,-0.002772057,-0.001161659,0.01633222,-0.001655586,0.001996035,0.000999999,-0.005,-0.001
436.0,-0.002772057,-0.001161659,0.01633222,-0.001655586,0.001996035,0.000999999,-0.005,-0.001
437.0,-0.002772057,-0.001161659,0.01633222,-0.001655586,0.001996035,0.000999999,-0.005,-0.001
438.0,-0.002772057,-0.001161659,0.01633222,-0.001655586,0.001996035,0.001999999,-0.005,-0.002
439.0,-0.002772057,-0.001161659,0.01633222,-0.001655586,0.001996035,0.001999999,-0.005,-0.002
440.0,-0.002772057,-0.001161659,0.01633222,-0.001655586,0.001996035,0.001999999,-0.005,-0.002
441.0,-0.002772057,-0.001161659,0.01533222,-0.001655586,0.002996035,0.001999999,-0.005,-0.002
442.0,-0.002772057,-0.001161659,0.01533222,-0.001655586,0.002996035,0.001999999,-0.005,-0.002
443.0,-0.002772057,-0.001161659,0.01533222,-0.001655586,0.002996035,0.001999999,-0.005,-0.002
444.0,-0.002772057,-0.001161659,0.01533222,-0.001655586,0.002996035,0.000999999,-0.005,-0.001
445.0,-0.002772057,-0.001161659,0.01533222,-0.001655586,0.002996035,0.000999999,-0.005,-0.001
446.0,-0.002772057,-0.001161659,0.01533222,-0.001655586,0.002996035,0.001999999,-0.005,-0.002
447.0,-0.002772057,-0.001161659,0.01533222,-0.001655586,0.002996035,0.001999999,-0.005,-0.002
448.0,-0.002772057,-0.001161659,0.01533222,-0.001655586,0.002996035,0.001999999,-0.005,-0.002
449.0,-0.002772057,-0.001161659,0.01533222,-0.001655586,0.002996035,0.001999999,-0.005,-0.002
450.0,-0.002772057,-0.001161659,0.01533222,-0.001655586,0.002996035,0.001999999,-0.005,-0.002
451.0,-0.002772057,-0.001161659,0.01533222,-0.001655586,0.002996035,0.001999999,-0.005,-0.002
452.0,-0.002772057,-0.001161659,0.01533222,-0.001655586,0.002996035,0.001999999,-0.005,-0.002
453.0,-0.002772057,-0.001161659,0.01533222,-0.001655586,0.002996035,0.001999999,-0.005,-0.002
454.0,-0.002772057,-0.001161659,0.01533222,-0.001655586,0.002996035,0.001999999,-0.005,-0.002
455.0,-0.002772057,-0.001161659,0.01533222,-0.001655586,0.002996035,0.001999999,-0.005,-0.002
456.0,-0.002772057,-0.001161659,0.01533222,-0.001655586,0.002996035,0.001999999,-0.005,-0.002
457.0,-0.002772057,-0.001161659,0.01533222,-0.001655586,0.002996035,0.001999999,-0.005,-0.002
458.0,-0.002772057,-0.001161659,0.01533222,-0.001655586,0.002996035,0.001999999,-0.005,-0.002
459.0,-0.002772057,-0.001161659,0.01533222,-0.001655586,0.002996035,0.001999999,-0.005,-0.002
460.0,-0.002772057,-0.001161659,0.01533222,-0.001655586,0.002996035,0.001999999,-0.005,-0.002
461.0,-0.002772057,-0.001161659,0.01533222,-0.001655586,0.002996035,0.001999999,-0.005,-0.002
462.0,-0.002772057,-0.001161659,0.01533222,-0.001655586,0.002996035,0.001999999,-0.005,-0.002
463.0,-0.002772057,-0.001161659,0.01533222,-0.001655586,0.002996035,0.000999999,-0.005,-0.001
464.0,-0.002772057,-0.001161659,0.01533222,-0.002655586,0.003996036,0.000999999,-0.005,-0.001
465.0,-0.002772057,-0.001161659,0.01533222,-0.002655586,0.003996036,0.000999999,-0.005,-0.001
466.0,-0.002772057,-0.001161659,0.01533222,-0.002655586,0.003996036,0.000999999,-0.005,-0.001
467.0,-0.002772057,-0.001161659,0.01533222,-0.002655586,0.003996036,0.000999999,-0.005,-0.001
468.0,-0.002772057,-0.001161659,0.01533222,-0.002655586,0.003996036,0.000999999,-0.005,-0.001
469.0,-0.002772057,-0.002161659,0.01533222,-0.001655586,0.003996036,0.000999999,-0.005,-0.001
470.0,-0.002772057,-0.002161659,0.01533222,-0.001655586,0.003996036,0.000999999,-0.004,-0.002
471.0,-0.002772057,-0.002161659,0.01533222,-0.001655586,0.003996036,0.000999999,-0.005,-0.001
472.0,-0.002772057,-0.002161659,0.01533222,-0.001655586,0.003996036,0.001999999,-0.005,-0.002
473.0,-0.002772057,-0.002161659,0.01533222,-0.001655586,0.003996036,0.001999999,-0.005,-0.002
474.0,-0.002772057,-0.002161659,0.01533222,-0.001655586,0.003996036,0.001999999,-0.005,-0.002
475.0,-0.002772057,-0.002161659,0.01533222,-0.001655586,0.003996036,0.001999999,-0.005,-0.002
476.0,-0.002772057,-0.002161659,0.01533222,-0.001655586,0.003996036,0.001999999,-0.005,-0.002
477.0,-0.001772057,-0.002161659,0.01533222,-0.001655586,0.003996036,0.001999999,-0.005,-0.003
478.0,-0.001772057,-0.002161659,0.01533222,-0.001655586,0.003996036,0.001999999,-0.005,-0.003
479.0,-0.001772057,-0.002161659,0.01533222,-0.001655586,0.003996036,0.001999999,-0.005,-0.003
480.0,-0.002772057,-0.001161659,0.01533222,-0.001655586,0.003996036,0.001999999,-0.005,-0.003
481.0,-0.002772057,-0.001161659,0.01533222,-0.001655586,0.003996036,0.001999999,-0.005,-0.003
482.0,-0.002772057,-0.001161659,0.01533222,-0.001655586,0.003996036,0.001999999,-0.005,-0.003
483.0,-0.002772057,-0.000161659,0.01433222,-0.001655586,0.003996036,0.001999999,-0.005,-0.003
484.0,-0.002772057,-0.000161659,0.01533222,-0.001655586,0.003996036,0.000999999,-0.005,-0.003
485.0,-0.002772057,-0.000161659,0.01533222,-0.000655586,0.002996035,0.000999999,-0.005,-0.003
486.0,-0.002772057,-0.000161659,0.01533222,-0.000655586,0.002996035,0.000999999,-0.005,-0.003
487.0,-0.002772057,-0.000161659,0.01533222,-0.001655586,0.003996036,0.000999999,-0.005,-0.003
488.0,-0.002772057,-0.000161659,0.01533222,-0.001655586,0.003996036,0.000999999,-0.005,-0.003
489.0,-0.002772057,-0.000161659,0.01533222,-0.001655586,0.003996036,0.000999999,-0.005,-0.003
490.0,-0.002772057,-0.000161659,0.01533222,-0.001655586,0.003996036,0.000999999,-0.005,-0.003
491.0,-0.002772057,-0.000161659,0.01533222,-0.001655586,0.003996036,0.000999999,-0.005,-0.003
492.0,-0.002772057,-0.000161659,0.01533222,-0.001655586,0.003996036,0.000999999,-0.005,-0.003
493.0,-0.002772057,-0.000161659,0.01533222,-0.001655586,0.003996036,0.000999999,-0.005,-0.003
494.0,-0.002772057,-0.000161659,0.01533222,-0.001655586,0.003996036,0.000999999,-0.005,-0.003
495.0,-0.002772057,-0.000161659,0.01533222,-0.001655586,0.003996036,0.000999999,-0.005,-0.003
496.0,-0.002772057,-0.000161659,0.01533222,-0.001655586,0.003996036,0.000999999,-0.005,-0.003
497.0,-0.001772057,-0.001161659,0.01533222,-0.001655586,0.003996036,0.000999999,-0.005,-0.003
498.0,-0.001772057,-0.001161659,0.01533222,-0.001655586,0.003996036,0.000999999,-0.005,-0.003
499.0,-0.002772057,-0.001161659,0.01533222,-0.001655586,0.003996036,0.000999999,-0.005,-0.001999999
500.0,-0.002772057,-0.001161659,0.01533222,-0.001655586,0.003996036,0.000999999,-0.005,-0.001999999
501.0,-0.002772057,-0.001161659,0.01533222,-0.001655586,0.003996036,0.000999999,-0.005,-0.001999999
502.0,-0.002772057,-0.001161659,0.01533222,-0.001655586,0.003996036,0.000999999,-0.005,-0.001999999
503.0,-0.002772057,-0.001161659,0.01533222,-0.001655586,0.003996036,0.000999999,-0.005,-0.001999999
504.0,-0.002772057,-0.001161659,0.01533222,-0.001655586,0.003996036,0.000999999,-0.005,-0.001999999
505.0,-0.002772057,-0.001161659,0.01533222,-0.001655586,0.003996036,0.000999999,-0.005,-0.001999999
506.0,-0.002772057,-0.001161659,0.01533222,-0.001655586,0.003996036,0.000999999,-0.005,-0.001999999
507.0,-0.002772057,-0.001161659,0.01533222,-0.001655586,0.003996036,0.000999999,-0.005,-0.001999999
508.0,-0.002772057,-0.001161659,0.01533222,-0.001655586,0.003996036,0.000999999,-0.005,-0.001999999
509.0,-0.002772057,-0.001161659,0.01533222,-0.001655586,0.003996036,0.001999999,-0.006,-0.001999999
510.0,-0.002772057,-0.001161659,0.01533222,-0.001655586,0.003996036,0.001999999,-0.006,-0.001999999
511.0,-0.002772057,-0.001161659,0.01533222,-0.001655586,0.003996036,0.001999999,-0.006,-0.001999999
512.0,-0.002772057,-0.001161659,0.01533222,-0.001655586,0.003996036,0.000999999,-0.006,-0.000999999
513.0,-0.002772057,-0.001161659,0.01533222,-0.001655586,0.003996036,0.000999999,-0.006,-0.000999999
514.0,-0.002772057,-0.001161659,0.01533222,-0.001655586,0.003996036,0.000999999,-0.006,-0.000999999
515.0,-0.002772057,-0.001161659,0.01533222,-0.001655586,0.003996036,0.001999999,-0.006,-0.001999999
516.0,-0.002772057,-0.001161659,0.01533222,-0.001655586,0.003996036,0.000999999,-0.005,-0.001999999
517.0,-0.002772057,-0.001161659,0.01533222,-0.001655586,0.003996036,0.000999999,-0.005,-0.001999999
518.0,-0.003772057,-0.001161659,0.01533222,-0.001655586,0.003996036,0.000999999,-0.004,-0.001999999
519.0,-0.003772057,-0.001161659,0.01533222,-0.001655586,0.003996036,0.000999999,-0.004,-0.001999999
520.0,-0.003772057,-0.001161659,0.01533222,-0.001655586,0.003996036,0.000999999,-0.004,-0.001999999
521.0,-0.003772057,-0.001161659,0.01533222,-0.001655586,0.003996036,0.000999999,-0.004,-0.001999999
522.0,-0.003772057,-0.001161659,0.01533222,-0.001655586,0.003996036,0.001999999,-0.005,-0.001999999
523.0,-0.003772057,-0.001161659,0.01533222,-0.001655586,0.003996036,0.001999999,-0.005,-0.001999999
524.0,-0.003772057,-0.001161659,0.01533222,-0.001655586,0.004996036,0.000999999,-0.005,-0.001999999
525.0,-0.003772057,-0.001161659,0.01533222,-0.000655586,0.003996036,0.000999999,-0.005,-0.001999999
526.0,-0.003772057,-0.001161659,0.01533222,-0.000655586,0.003996036,0.000999999,-0.005,-0.001999999
527.0,-0.003772057,-0.000161659,0.01533222,-0.001655586,0.003996036,0.000999999,-0.005,-0.001999999
528.0,-0.003772057,-0.000161659,0.01533222,-0.001655586,0.003996036,0.000999999,-0.005,-0.001999999
529.0,-0.003772057,-0.000161659,0.01533222,-0.001655586,0.003996036,0.000999999,-0.005,-0.001999999
530.0,-0.003772057,-0.000161659,0.01533222,-0.001655586,0.003996036,0.000999999,-0.005,-0.001999999
531.0,-0.003772057,-0.000161659,0.01533222,-0.001655586,0.003996036,0.000999999,-0.005,-0.001999999
532.0,-0.003772057,-0.000161659,0.01533222,-0.001655586,0.003996036,0.000999999,-0.005,-0.001999999
533.0,-0.003772057,-0.001161659,0.01533222,-0.001655586,0.003996036,0.000999999,-0.005,-0.000999999
534.0,-0.003772057,-0.001161659,0.01533222,-0.001655586,0.003996036,0.000999999,-0.005,-0.000999999
535.0,-0.003772057,-0.001161659,0.01533222,-0.001655586,0.003996036,0.000999999,-0.005,-0.000999999
536.0,-0.003772057,-0.001161659,0.01533222,-0.001655586,0.003996036,0.000999999,-0.005,-0.000999999
537.0,-0.003772057,-0.001161659,0.01533222,-0.001655586,0.003996036,0.000999999,-0.004,-0.001999999
538.0,-0.003772057,-0.001161659,0.01533222,-0.001655586,0.003996036,0.000999999,-0.004,-0.001999999
539.0,-0.003772057,-0.000161659,0.01533222,-0.001655586,0.003996036,0.0,-0.004,-0.001999999
540.0,-0.003772057,-0.000161659,0.01533222,-0.001655586,0.003996036,0.0,-0.004,-0.001999999
541.0,-0.003772057,-0.000161659,0.01533222,-0.001655586,0.003996036,0.0,-0.004,-0.001999999
542.0,-0.003772057,-0.000161659,0.01533222,-0.001655586,0.003996036,0.0,-0.004,-0.001999999
543.0,-0.003772057,-0.000161659,0.01533222,-0.001655586,0.003996036,0.0,-0.004,-0.001999999
544.0,-0.003772057,-0.000161659,0.01533222,-0.001655586,0.003996036,0.0,-0.004,-0.001999999
545.0,-0.003772057,-0.000161659,0.01533222,-0.001655586,0.004996036,0.0,-0.004,-0.003
546.0,-0.003772057,-0.001161659,0.01533222,-0.001655586,0.004996036,0.0,-0.004,-0.001999999
547.0,-0.003772057,-0.001161659,0.01533222,-0.001655586,0.004996036,0.0,-0.004,-0.001999999
548.0,-0.003772057,-0.001161659,0.01533222,-0.001655586,0.004996036,0.0,-0.004,-0.001999999
549.0,-0.003772057,-0.001161659,0.01533222,-0.001655586,0.004996036,0.000999999,-0.004,-0.003
550.0,-0.003772057,-0.001161659,0.01533222,-0.001655586,0.004996036,0.0,-0.004,-0.001999999
551.0,-0.003772057,-0.001161659,0.01533222,-0.001655586,0.004996036,0.0,-0.004,-0.001999999
552.0,-0.003772057,-0.001161659,0.01533222,-0.001655586,0.004996036,0.0,-0.004,-0.001999999
553.0,-0.003772057,-0.001161659,0.01533222,-0.001655586,0.004996036,0.0,-0.004,-0.001999999
554.0,-0.003772057,-0.001161659,0.01533222,-0.001655586,0.004996036,0.0,-0.004,-0.001999999
555.0,-0.003772057,-0.001161659,0.01533222,-0.001655586,0.004996036,0.0,-0.004,-0.001999999
556.0,-0.003772057,-0.001161659,0.01533222,-0.001655586,0.004996036,0.0,-0.004,-0.001999999
557.0,-0.003772057,-0.001161659,0.01533222,-0.001655586,0.004996036,0.0,-0.004,-0.001999999
558.0,-0.003772057,-0.001161659,0.01533222,-0.001655586,0.004996036,0.000999999,-0.004,-0.003
559.0,-0.003772057,-0.000161659,0.01533222,-0.001655586,0.003996036,0.000999999,-0.004,-0.003
560.0,-0.003772057,-0.000161659,0.01533222,-0.001655586,0.003996036,0.000999999,-0.005,-0.001999999
561.0,-0.003772057,-0.000161659,0.01533222,-0.001655586,0.003996036,0.000999999,-0.005,-0.001999999
562.0,-0.003772057,-0.000161659,0.01533222,-0.001655586,0.003996036,0.000999999,-0.005,-0.001999999
563.0,-0.003772057,-0.000161659,0.01533222,-0.001655586,0.003996036,0.000999999,-0.005,-0.001999999
564.0,-0.003772057,-0.000161659,0.01533222,-0.001655586,0.003996036,0.000999999,-0.005,-0.001999999
565.0,-0.003772057,-0.000161659,0.01533222,-0.001655586,0.003996036,0.000999999,-0.005,-0.001999999
566.0,-0.003772057,-0.000161659,0.01533222,-0.001655586,0.003996036,0.0,-0.005,-0.000999999
567.0,-0.003772057,-0.000161659,0.01533222,-0.001655586,0.003996036,0.0,-0.005,-0.000999999
568.0,-0.003772057,-0.000161659,0.01533222,-0.001655586,0.003996036,0.0,-0.005,-0.000999999
569.0,-0.003772057,-0.000161659,0.01533222,-0.001655586,0.003996036,0.0,-0.005,-0.000999999
570.0,-0.003772057,-0.000161659,0.01533222,-0.001655586,0.003996036,0.0,-0.005,-0.000999999
571.0,-0.003772057,-0.000161659,0.01533222,-0.001655586,0.003996036,0.000999999,-0.005,-0.001999999
572.0,-0.003772057,-0.000161659,0.01533222,-0.001655586,0.003996036,0.000999999,-0.005,-0.001999999
573.0,-0.003772057,-0.000161659,0.01533222,-0.001655586,0.003996036,0.000999999,-0.005,-0.001999999
574.0,-0.003772057,-0.000161659,0.01533222,-0.001655586,0.003996036,0.000999999,-0.005,-0.001999999
575.0,-0.003772057,-0.000161659,0.01533222,-0.001655586,0.003996036,0.000999999,-0.005,-0.001999999
576.0,-0.003772057,-0.000161659,0.01533222,-0.001655586,0.003996036,0.000999999,-0.005,-0.001999999
577.0,-0.003772057,-0.000161659,0.01633222,-0.001655586,0.003996036,0.0,-0.005,-0.001999999
578.0,-0.003772057,-0.000161659,0.01633222,-0.001655586,0.003996036,0.000999999,-0.005,-0.003
579.0,-0.003772057,-0.000161659,0.01633222,-0.001655586,0.003996036,0.000999999,-0.005,-0.003
580.0,-0.003772057,-0.000161659,0.01633222,-0.001655586,0.003996036,0.000999999,-0.005,-0.003
581.0,-0.003772057,-0.000161659,0.01633222,-0.001655586,0.003996036,0.000999999,-0.005,-0.003
582.0,-0.003772057,-0.000161659,0.01633222,-0.001655586,0.003996036,0.000999999,-0.005,-0.003
583.0,-0.003772057,-0.000161659,0.01633222,-0.001655586,0.003996036,0.0,-0.004,-0.003
584.0,-0.003772057,-0.000161659,0.01633222,-0.001655586,0.003996036,0.0,-0.004,-0.003
585.0,-0.003772057,-0.000161659,0.01633222,-0.001655586,0.003996036,0.0,-0.004,-0.003
586.0,-0.003772057,-0.000161659,0.01633222,-0.001655586,0.003996036,0.0,-0.004,-0.003
587.0,-0.003772057,-0.000161659,0.01633222,-0.001655586,0.003996036,0.0,-0.004,-0.003
588.0,-0.003772057,-0.000161659,0.01633222,-0.001655586,0.003996036,0.0,-0.005,-0.001999999
589.0,-0.003772057,-0.000161659,0.01633222,-0.001655586,0.003996036,0.0,-0.005,-0.001999999
590.0,-0.003772057,-0.000161659,0.01633222,-0.001655586,0.003996036,0.0,-0.005,-0.001999999
591.0,-0.003772057,-0.000161659,0.01633222,-0.001655586,0.003996036,0.0,-0.005,-0.001999999
592.0,-0.003772057,-0.000161659,0.01633222,-0.001655586,0.003996036,0.0,-0.005,-0.001999999
593.0,-0.003772057,-0.000161659,0.01633222,-0.001655586,0.003996036,0.0,-0.005,-0.001999999
594.0,-0.003772057,-0.000161659,0.01633222,-0.001655586,0.003996036,0.0,-0.005,-0.001999999
595.0,-0.003772057,-0.000161659,0.01633222,-0.001655586,0.003996036,0.0,-0.005,-0.001999999
596.0,-0.003772057,-0.000161659,0.01633222,-0.001655586,0.003996036,0.0,-0.005,-0.001999999
597.0,-0.003772057,-0.000161659,0.01633222,-0.001655586,0.003996036,0.0,-0.005,-0.001999999
598.0,-0.003772057,-0.000161659,0.01633222,-0.001655586,0.003996036,0.0,-0.005,-0.001999999
599.0,-0.003772057,-0.000161659,0.01633222,-0.001655586,0.003996036,0.0,-0.005,-0.001999999
600.0,-0.003772057,-0.000161659,0.01633222,-0.001655586,0.003996036,0.0,-0.005,-0.001999999
601.0,-0.003772057,-0.000161659,0.01633222,-0.001655586,0.003996036,0.000999999,-0.005,-0.003
602.0,-0.003772057,-0.000161659,0.01633222,-0.001655586,0.003996036,0.000999999,-0.005,-0.003
603.0,-0.003772057,-0.000161659,0.01633222,-0.001655586,0.003996036,0.000999999,-0.005,-0.003
604.0,-0.003772057,-0.000161659,0.01633222,-0.001655586,0.003996036,0.000999999,-0.005,-0.003
605.0,-0.003772057,-0.000161659,0.01633222,-0.001655586,0.003996036,0.000999999,-0.005,-0.003
606.0,-0.003772057,-0.000161659,0.01633222,-0.001655586,0.003996036,0.000999999,-0.005,-0.003
607.0,-0.003772057,-0.000161659,0.01633222,-0.001655586,0.003996036,0.000999999,-0.005,-0.003
608.0,-0.002772057,-0.000161659,0.01633222,-0.001655586,0.003996036,0.0,-0.005,-0.003
609.0,-0.002772057,-0.000161659,0.01633222,-0.001655586,0.003996036,0.0,-0.005,-0.003
610.0,-0.002772057,-0.000161659,0.01633222,-0.001655586,0.003996036,0.0,-0.005,-0.003
611.0,-0.002772057,-0.000161659,0.01633222,-0.001655586,0.003996036,0.000999999,-0.005,-0.004
612.0,-0.002772057,-0.000161659,0.01633222,-0.001655586,0.003996036,0.000999999,-0.005,-0.004
613.0,-0.002772057,-0.000161659,0.01633222,-0.001655586,0.003996036,0.000999999,-0.005,-0.004
614.0,-0.002772057,-0.000161659,0.01633222,-0.001655586,0.003996036,0.000999999,-0.005,-0.004
615.0,-0.002772057,-0.000161659,0.01633222,-0.001655586,0.003996036,0.000999999,-0.005,-0.004
616.0,-0.002772057,-0.000161659,0.01633222,-0.001655586,0.003996036,0.000999999,-0.005,-0.004
617.0,-0.002772057,-0.000161659,0.01633222,-0.001655586,0.003996036,0.0,-0.005,-0.003
618.0,-0.003772057,-0.000161659,0.01633222,-0.000655586,0.003996036,0.0,-0.005,-0.003
619.0,-0.003772057,-0.000161659,0.01633222,-0.000655586,0.003996036,0.0,-0.005,-0.003
620.0,-0.003772057,-0.000161659,0.01633222,-0.000655586,0.003996036,0.0,-0.005,-0.003
621.0,-0.003772057,-0.000161659,0.01633222,-0.001655586,0.003996036,0.0,-0.004,-0.003
622.0,-0.003772057,-0.000161659,0.01633222,-0.001655586,0.003996036,0.000999999,-0.005,-0.003
623.0,-0.003772057,-0.000161659,0.01633222,-0.001655586,0.003996036,0.000999999,-0.005,-0.003
624.0,-0.003772057,-0.000161659,0.01633222,-0.001655586,0.003996036,0.000999999,-0.005,-0.003
625.0,-0.003772057,-0.000161659,0.01633222,-0.001655586,0.003996036,0.000999999,-0.005,-0.003
626.0,-0.003772057,-0.000161659,0.01633222,-0.001655586,0.003996036,0.000999999,-0.005,-0.003
627.0,-0.003772057,-0.000161659,0.01633222,-0.001655586,0.003996036,0.000999999,-0.005,-0.003
628.0,-0.003772057,-0.000161659,0.01633222,-0.001655586,0.003996036,0.000999999,-0.005,-0.003
629.0,-0.003772057,-0.000161659,0.01633222,-0.001655586,0.003996036,0.000999999,-0.005,-0.003
630.0,-0.003772057,-0.000161659,0.01633222,-0.001655586,0.003996036,0.000999999,-0.005,-0.003
631.0,-0.003772057,-0.000161659,0.01633222,-0.001655586,0.003996036,0.000999999,-0.005,-0.003
632.0,-0.003772057,-0.000161659,0.01633222,-0.001655586,0.003996036,0.000999999,-0.005,-0.003
633.0,-0.003772057,-0.000161659,0.01633222,-0.001655586,0.003996036,0.000999999,-0.005,-0.003
634.0,-0.003772057,-0.000161659,0.01633222,-0.001655586,0.003996036,0.000999999,-0.005,-0.003
635.0,-0.003772057,-0.000161659,0.01633222,-0.001655586,0.003996036,0.000999999,-0.005,-0.003
636.0,-0.003772057,-0.000161659,0.01633222,-0.001655586,0.003996036,0.000999999,-0.005,-0.003
637.0,-0.003772057,-0.000161659,0.01633222,-0.001655586,0.003996036,0.000999999,-0.005,-0.003
638.0,-0.003772057,-0.000161659,0.01633222,-0.001655586,0.003996036,0.000999999,-0.005,-0.003
639.0,-0.003772057,-0.000161659,0.01633222,-0.001655586,0.003996036,0.000999999,-0.005,-0.003
640.0,-0.003772057,-0.000161659,0.01633222,-0.001655586,0.003996036,0.000999999,-0.005,-0.003
641.0,-0.003772057,-0.000161659,0.01633222,-0.001655586,0.003996036,0.000999999,-0.005,-0.003
642.0,-0.003772057,-0.000161659,0.01633222,-0.001655586,0.003996036,0.000999999,-0.005,-0.003
643.0,-0.003772057,-0.000161659,0.01633222,-0.001655586,0.003996036,0.000999999,-0.005,-0.003
644.0,-0.003772057,-0.000161659,0.01633222,-0.001655586,0.003996036,0.000999999,-0.005,-0.003
645.0,-0.003772057,-0.000161659,0.01633222,-0.001655586,0.003996036,0.000999999,-0.005,-0.003
646.0,-0.003772057,-0.000161659,0.01633222,-0.001655586,0.003996036,0.0,-0.005,-0.001999999
647.0,-0.003772057,-0.000161659,0.01633222,-0.001655586,0.003996036,0.000999999,-0.005,-0.003
648.0,-0.003772057,-0.000161659,0.01633222,-0.001655586,0.003996036,0.000999999,-0.005,-0.003
649.0,-0.003772057,-0.000161659,0.01633222,-0.001655586,0.003996036,0.000999999,-0.005,-0.003
650.0,-0.003772057,-0.000161659,0.01633222,-0.001655586,0.003996036,0.000999999,-0.005,-0.003
651.0,-0.003772057,-0.000161659,0.01633222,-0.001655586,0.003996036,0.000999999,-0.005,-0.003
652.0,-0.003772057,-0.000161659,0.01633222,-0.001655586,0.003996036,0.000999999,-0.005,-0.003
653.0,-0.003772057,-0.000161659,0.01633222,-0.001655586,0.003996036,0.000999999,-0.005,-0.003
654.0,-0.003772057,-0.000161659,0.01633222,-0.001655586,0.003996036,0.000999999,-0.005,-0.003
655.0,-0.003772057,-0.000161659,0.01633222,-0.001655586,0.003996036,0.000999999,-0.005,-0.003
656.0,-0.003772057,-0.000161659,0.01633222,-0.001655586,0.003996036,0.000999999,-0.005,-0.003
657.0,-0.003772057,-0.000161659,0.01633222,-0.001655586,0.003996036,0.000999999,-0.005,-0.003
658.0,-0.003772057,-0.000161659,0.01633222,-0.001655586,0.003996036,0.000999999,-0.005,-0.003
659.0,-0.003772057,-0.000161659,0.01633222,-0.001655586,0.003996036,0.000999999,-0.005,-0.003
660.0,-0.003772057,-0.000161659,0.01633222,-0.002655586,0.004996036,0.000999999,-0.005,-0.003
661.0,-0.003772057,-0.000161659,0.01633222,-0.002655586,0.004996036,0.000999999,-0.005,-0.003
662.0,-0.003772057,-0.000161659,0.01533222,-0.002655586,0.004996036,0.001999999,-0.005,-0.003
663.0,-0.003772057,-0.000161659,0.01533222,-0.002655586,0.004996036,0.000999999,-0.005,-0.001999999
664.0,-0.003772057,-0.000161659,0.01533222,-0.002655586,0.004996036,0.001999999,-0.005,-0.003
665.0,-0.003772057,-0.000161659,0.01533222,-0.002655586,0.004996036,0.001999999,-0.005,-0.003
666.0,-0.003772057,-0.000161659,0.01533222,-0.002655586,0.004996036,0.001999999,-0.005,-0.003
667.0,-0.003772057,-0.000161659,0.01533222,-0.002655586,0.004996036,0.001999999,-0.005,-0.003
668.0,-0.003772057,-0.000161659,0.01533222,-0.001655586,0.003996036,0.001999999,-0.005,-0.003
669.0,-0.003772057,-0.000161659,0.01533222,-0.001655586,0.003996036,0.001999999,-0.005,-0.003
670.0,-0.003772057,-0.000161659,0.01533222,-0.001655586,0.003996036,0.000999999,-0.005,-0.001999999
671.0,-0.003772057,-0.000161659,0.01533222,-0.001655586,0.003996036,0.000999999,-0.005,-0.001999999
672.0,-0.003772057,-0.000161659,0.01633222,-0.001655586,0.002996035,0.000999999,-0.005,-0.001999999
673.0,-0.003772057,-0.000161659,0.01633222,-0.001655586,0.002996035,0.001999999,-0.005,-0.003
674.0,-0.003772057,-0.000161659,0.01633222,-0.002655586,0.003996036,0.001999999,-0.005,-0.003
675.0,-0.003772057,-0.000161659,0.01633222,-0.002655586,0.003996036,0.001999999,-0.005,-0.003
676.0,-0.003772057,-0.000161659,0.01633222,-0.002655586,0.003996036,0.001999999,-0.005,-0.003
677.0,-0.003772057,-0.000161659,0.01633222,-0.002655586,0.003996036,0.003,-0.005,-0.004
678.0,-0.003772057,-0.000161659,0.01633222,-0.002655586,0.003996036,0.003,-0.005,-0.004
679.0,-0.003772057,-0.000161659,0.01633222,-0.002655586,0.003996036,0.003,-0.005,-0.004
680.0,-0.003772057,-0.000161659,0.01633222,-0.002655586,0.003996036,0.001999999,-0.005,-0.003
681.0,-0.003772057,-0.000161659,0.01633222,-0.002655586,0.003996036,0.001999999,-0.005,-0.003
682.0,-0.003772057,-0.000161659,0.01633222,-0.002655586,0.003996036,0.001999999,-0.005,-0.003
683.0,-0.003772057,-0.000161659,0.01633222,-0.002655586,0.003996036,0.001999999,-0.005,-0.003
684.0,-0.003772057,-0.000161659,0.01633222,-0.002655586,0.003996036,0.001999999,-0.005,-0.003
685.0,-0.003772057,-0.000161659,0.01633222,-0.002655586,0.003996036,0.001999999,-0.005,-0.003
686.0,-0.003772057,-0.000161659,0.01633222,-0.001655586,0.002996035,0.001999999,-0.005,-0.003
687.0,-0.003772057,-0.000161659,0.01633222,-0.001655586,0.002996035,0.001999999,-0.005,-0.003
688.0,-0.003772057,-0.000161659,0.01633222,-0.001655586,0.002996035,0.001999999,-0.005,-0.003
689.0,-0.003772057,-0.000161659,0.01633222,-0.001655586,0.002996035,0.001999999,-0.005,-0.003
690.0,-0.003772057,-0.000161659,0.01633222,-0.001655586,0.002996035,0.001999999,-0.005,-0.003
691.0,-0.003772057,-0.000161659,0.01633222,-0.001655586,0.002996035,0.001999999,-0.005,-0.003
692.0,-0.003772057,-0.000161659,0.01633222,-0.001655586,0.002996035,0.001999999,-0.005,-0.003
693.0,-0.003772057,-0.000161659,0.01633222,-0.001655586,0.002996035,0.001999999,-0.005,-0.003
694.0,-0.003772057,-0.000161659,0.01633222,-0.001655586,0.002996035,0.001999999,-0.005,-0.003
695.0,-0.003772057,-0.000161659,0.01633222,-0.001655586,0.002996035,0.001999999,-0.005,-0.003
696.0,-0.003772057,-0.000161659,0.01633222,-0.001655586,0.002996035,0.000999999,-0.004,-0.003
697.0,-0.003772057,-0.001161659,0.01633222,-0.001655586,0.002996035,0.001999999,-0.004,-0.003
698.0,-0.003772057,-0.001161659,0.01633222,-0.001655586,0.002996035,0.001999999,-0.004,-0.003
699.0,-0.003772057,-0.001161659,0.01633222,-0.002655586,0.003996036,0.001999999,-0.004,-0.003
700.0,-0.003772057,-0.001161659,0.01633222,-0.002655586,0.003996036,0.001999999,-0.004,-0.003
701.0,-0.003772057,-0.001161659,0.01633222,-0.002655586,0.003996036,0.001999999,-0.004,-0.003
702.0,-0.003772057,-0.001161659,0.01633222,-0.001655586,0.003996036,0.001999999,-0.005,-0.003
703.0,-0.003772057,-0.001161659,0.01633222,-0.001655586,0.003996036,0.001999999,-0.005,-0.003
704.0,-0.003772057,-0.001161659,0.01633222,-0.001655586,0.003996036,0.001999999,-0.005,-0.003
705.0,-0.003772057,-0.001161659,0.01633222,-0.001655586,0.003996036,0.001999999,-0.005,-0.003
706.0,-0.003772057,-0.001161659,0.01633222,-0.001655586,0.003996036,0.001999999,-0.005,-0.003
707.0,-0.003772057,-0.001161659,0.01633222,-0.001655586,0.003996036,0.001999999,-0.005,-0.003
708.0,-0.003772057,-0.001161659,0.01633222,-0.001655586,0.003996036,0.001999999,-0.005,-0.003
709.0,-0.003772057,-0.001161659,0.01633222,-0.001655586,0.003996036,0.001999999,-0.005,-0.003
710.0,-0.003772057,-0.001161659,0.01633222,-0.001655586,0.003996036,0.001999999,-0.005,-0.003
711.0,-0.003772057,-0.001161659,0.01633222,-0.001655586,0.003996036,0.001999999,-0.005,-0.003
712.0,-0.003772057,-0.001161659,0.01633222,-0.001655586,0.003996036,0.001999999,-0.005,-0.003
713.0,-0.003772057,-0.001161659,0.01633222,-0.002655586,0.004996036,0.001999999,-0.005,-0.003
714.0,-0.003772057,-0.001161659,0.01633222,-0.002655586,0.004996036,0.000999999,-0.005,-0.001999999
715.0,-0.003772057,-0.001161659,0.01633222,-0.002655586,0.004996036,0.001999999,-0.005,-0.003
716.0,-0.003772057,-0.001161659,0.01633222,-0.002655586,0.004996036,0.000999999,-0.005,-0.001999999
717.0,-0.003772057,-0.001161659,0.01633222,-0.002655586,0.004996036,0.000999999,-0.005,-0.001999999
718.0,-0.003772057,-0.001161659,0.01633222,-0.002655586,0.004996036,0.000999999,-0.005,-0.001999999
719.0,-0.003772057,-0.001161659,0.01533222,-0.002655586,0.004996036,0.000999999,-0.004,-0.001999999
720.0,-0.003772057,-0.001161659,0.01533222,-0.002655586,0.004996036,0.000999999,-0.004,-0.001999999
721.0,-0.003772057,-0.001161659,0.01533222,-0.002655586,0.004996036,0.000999999,-0.004,-0.001999999
722.0,-0.003772057,-0.001161659,0.01533222,-0.002655586,0.004996036,0.000999999,-0.004,-0.001999999
723.0,-0.003772057,-0.001161659,0.01533222,-0.002655586,0.004996036,0.000999999,-0.004,-0.001999999
724.0,-0.003772057,-0.001161659,0.01533222,-0.001655586,0.003996036,0.000999999,-0.004,-0.001999999
725.0,-0.003772057,-0.001161659,0.01533222,-0.001655586,0.003996036,0.000999999,-0.004,-0.001999999
726.0,-0.003772057,-0.001161659,0.01533222,-0.001655586,0.003996036,0.000999999,-0.004,-0.001999999
727.0,-0.003772057,-0.001161659,0.01533222,-0.001655586,0.003996036,0.001999999,-0.005,-0.001999999
728.0,-0.003772057,-0.001161659,0.01533222,-0.001655586,0.003996036,0.001999999,-0.005,-0.001999999
729.0,-0.003772057,-0.001161659,0.01533222,-0.001655586,0.003996036,0.001999999,-0.005,-0.001999999
730.0,-0.003772057,-0.001161659,0.01633222,-0.001655586,0.002996035,0.001999999,-0.005,-0.001999999
731.0,-0.002772057,-0.001161659,0.01633222,-0.001655586,0.002996035,0.001999999,-0.005,-0.003
732.0,-0.002772057,-0.001161659,0.01633222,-0.001655586,0.002996035,0.001999999,-0.005,-0.003
733.0,-0.002772057,-0.001161659,0.01633222,-0.001655586,0.002996035,0.001999999,-0.005,-0.003
734.0,-0.002772057,-0.001161659,0.01633222,-0.001655586,0.002996035,0.001999999,-0.005,-0.003
735.0,-0.002772057,-0.001161659,0.01633222,-0.001655586,0.002996035,0.001999999,-0.005,-0.003
736.0,-0.002772057,-0.001161659,0.01633222,-0.001655586,0.002996035,0.001999999,-0.005,-0.003
737.0,-0.002772057,-0.001161659,0.01633222,-0.001655586,0.002996035,0.001999999,-0.005,-0.003
738.0,-0.002772057,-0.001161659,0.01633222,-0.001655586,0.002996035,0.001999999,-0.005,-0.003
739.0,-0.002772057,-0.001161659,0.01633222,-0.001655586,0.002996035,0.001999999,-0.005,-0.003
740.0,-0.002772057,-0.001161659,0.01633222,-0.001655586,0.002996035,0.001999999,-0.005,-0.003
741.0,-0.002772057,-0.001161659,0.01633222,-0.001655586,0.002996035,0.001999999,-0.005,-0.003
742.0,-0.002772057,-0.001161659,0.01633222,-0.000655586,0.001996035,0.001999999,-0.005,-0.003
743.0,-0.002772057,-0.001161659,0.01633222,-0.000655586,0.001996035,0.001999999,-0.005,-0.003
744.0,-0.002772057,-0.001161659,0.01633222,-0.000655586,0.001996035,0.001999999,-0.005,-0.003
745.0,-0.002772057,-0.001161659,0.01633222,-0.000655586,0.001996035,0.003,-0.005,-0.004
746.0,-0.002772057,-0.001161659,0.01733222,-0.001655586,0.001996035,0.003,-0.005,-0.004
747.0,-0.002772057,-0.001161659,0.01733222,-0.002655586,0.002996035,0.003,-0.005,-0.004
748.0,-0.002772057,-0.001161659,0.01733222,-0.002655586,0.002996035,0.003,-0.005,-0.004
749.0,-0.002772057,-0.001161659,0.01733222,-0.002655586,0.002996035,0.003,-0.005,-0.004
750.0,-0.003772057,-0.001161659,0.01733222,-0.002655586,0.002996035,0.003,-0.005,-0.003
751.0,-0.003772057,-0.001161659,0.01633222,-0.002655586,0.003996036,0.003,-0.005,-0.003
752.0,-0.003772057,-0.001161659,0.01633222,-0.002655586,0.003996036,0.004,-0.005,-0.004
753.0,-0.003772057,-0.001161659,0.01633222,-0.002655586,0.003996036,0.003,-0.005,-0.003
754.0,-0.003772057,-0.001161659,0.01633222,-0.002655586,0.003996036,0.003,-0.005,-0.003
755.0,-0.003772057,-0.001161659,0.01633222,-0.002655586,0.003996036,0.003,-0.005,-0.003
756.0,-0.002772057,-0.001161659,0.01633222,-0.002655586,0.003996036,0.001999999,-0.005,-0.003
757.0,-0.002772057,-0.001161659,0.01633222,-0.002655586,0.003996036,0.001999999,-0.005,-0.003
758.0,-0.002772057,-0.001161659,0.01633222,-0.002655586,0.003996036,0.001999999,-0.005,-0.003
759.0,-0.002772057,-0.001161659,0.01633222,-0.002655586,0.003996036,0.001999999,-0.005,-0.003
760.0,-0.002772057,-0.001161659,0.01633222,-0.002655586,0.003996036,0.001999999,-0.005,-0.003
761.0,-0.002772057,-0.001161659,0.01633222,-0.002655586,0.003996036,0.001999999,-0.005,-0.003
762.0,-0.002772057,-0.001161659,0.01633222,-0.002655586,0.003996036,0.001999999,-0.005,-0.003
763.0,-0.002772057,-0.001161659,0.01633222,-0.002655586,0.003996036,0.001999999,-0.005,-0.003
764.0,-0.002772057,-0.001161659,0.01633222,-0.002655586,0.003996036,0.001999999,-0.005,-0.003
765.0,-0.002772057,-0.001161659,0.01633222,-0.002655586,0.003996036,0.001999999,-0.005,-0.003
766.0,-0.002772057,-0.001161659,0.01633222,-0.002655586,0.003996036,0.001999999,-0.005,-0.003
767.0,-0.002772057,-0.001161659,0.01633222,-0.002655586,0.003996036,0.001999999,-0.005,-0.003
768.0,-0.002772057,-0.001161659,0.01633222,-0.002655586,0.003996036,0.001999999,-0.005,-0.003
769.0,-0.002772057,-0.001161659,0.01633222,-0.002655586,0.003996036,0.001999999,-0.005,-0.003
770.0,-0.002772057,-0.001161659,0.01633222,-0.002655586,0.003996036,0.003,-0.005,-0.004
771.0,-0.002772057,-0.001161659,0.01633222,-0.002655586,0.003996036,0.003,-0.005,-0.004
772.0,-0.002772057,-0.001161659,0.01633222,-0.002655586,0.003996036,0.003,-0.005,-0.004
773.0,-0.002772057,-0.001161659,0.01633222,-0.002655586,0.003996036,0.001999999,-0.005,-0.003
774.0,-0.002772057,-0.001161659,0.01633222,-0.002655586,0.003996036,0.001999999,-0.005,-0.003
775.0,-0.002772057,-0.001161659,0.01633222,-0.002655586,0.003996036,0.001999999,-0.005,-0.003
776.0,-0.002772057,-0.001161659,0.01633222,-0.002655586,0.003996036,0.001999999,-0.005,-0.003
777.0,-0.002772057,-0.001161659,0.01633222,-0.002655586,0.003996036,0.003,-0.005,-0.004
778.0,-0.002772057,-0.001161659,0.01633222,-0.002655586,0.003996036,0.003,-0.005,-0.004
779.0,-0.002772057,-0.001161659,0.01633222,-0.002655586,0.003996036,0.003,-0.005,-0.004
780.0,-0.002772057,-0.001161659,0.01633222,-0.002655586,0.003996036,0.003,-0.005,-0.004
781.0,-0.002772057,-0.001161659,0.01633222,-0.002655586,0.003996036,0.003,-0.005,-0.004
782.0,-0.002772057,-0.001161659,0.01633222,-0.001655586,0.003996036,0.001999999,-0.005,-0.004
783.0,-0.002772057,-0.001161659,0.01633222,-0.001655586,0.003996036,0.003,-0.006,-0.004
784.0,-0.002772057,-0.001161659,0.01633222,-0.001655586,0.003996036,0.003,-0.006,-0.004
785.0,-0.002772057,-0.001161659,0.01633222,-0.001655586,0.003996036,0.003,-0.006,-0.004
786.0,-0.002772057,-0.001161659,0.01633222,-0.001655586,0.003996036,0.003,-0.006,-0.004
787.0,-0.002772057,-0.001161659,0.01633222,-0.001655586,0.003996036,0.003,-0.006,-0.004
788.0,-0.002772057,-0.001161659,0.01633222,-0.001655586,0.003996036,0.003,-0.006,-0.004
789.0,-0.002772057,-0.001161659,0.01633222,-0.001655586,0.003996036,0.003,-0.006,-0.004
790.0,-0.002772057,-0.001161659,0.01633222,-0.001655586,0.003996036,0.003,-0.006,-0.004
791.0,-0.002772057,-0.001161659,0.01633222,-0.001655586,0.003996036,0.001999999,-0.006,-0.003
792.0,-0.002772057,-0.001161659,0.01633222,-0.001655586,0.003996036,0.001999999,-0.006,-0.003
793.0,-0.002772057,-0.001161659,0.01633222,-0.001655586,0.003996036,0.001999999,-0.006,-0.003
794.0,-0.002772057,-0.001161659,0.01633222,-0.001655586,0.003996036,0.001999999,-0.006,-0.003
795.0,-0.002772057,-0.001161659,0.01633222,-0.002655586,0.003996036,0.001999999,-0.005,-0.003
796.0,-0.002772057,-0.001161659,0.01633222,-0.002655586,0.003996036,0.001999999,-0.005,-0.003
797.0,-0.002772057,-0.001161659,0.01633222,-0.002655586,0.003996036,0.001999999,-0.005,-0.003
798.0,-0.002772057,-0.001161659,0.01633222,-0.002655586,0.003996036,0.001999999,-0.005,-0.003
799.0,-0.002772057,-0.001161659,0.01633222,-0.002655586,0.003996036,0.001999999,-0.005,-0.003
800.0,-0.002772057,-0.001161659,0.01633222,-0.002655586,0.003996036,0.001999999,-0.005,-0.003
801.0,-0.002772057,-0.001161659,0.01633222,-0.002655586,0.003996036,0.001999999,-0.005,-0.003
802.0,-0.002772057,-0.001161659,0.01633222,-0.002655586,0.003996036,0.001999999,-0.005,-0.003
803.0,-0.002772057,-0.001161659,0.01633222,-0.002655586,0.003996036,0.003,-0.005,-0.004
804.0,-0.002772057,-0.001161659,0.01633222,-0.002655586,0.003996036,0.003,-0.005,-0.004
805.0,-0.002772057,-0.001161659,0.01633222,-0.002655586,0.003996036,0.001999999,-0.005,-0.003
806.0,-0.002772057,-0.001161659,0.01633222,-0.002655586,0.003996036,0.001999999,-0.005,-0.003
807.0,-0.002772057,-0.001161659,0.01633222,-0.002655586,0.003996036,0.001999999,-0.005,-0.003
808.0,-0.003772057,-0.001161659,0.01633222,-0.002655586,0.003996036,0.001999999,-0.004,-0.003
809.0,-0.003772057,-0.001161659,0.01633222,-0.002655586,0.003996036,0.001999999,-0.004,-0.003
810.0,-0.003772057,-0.001161659,0.01633222,-0.002655586,0.003996036,0.001999999,-0.004,-0.003
811.0,-0.003772057,-0.001161659,0.01633222,-0.002655586,0.003996036,0.001999999,-0.004,-0.003
812.0,-0.003772057,-0.001161659,0.01633222,-0.002655586,0.003996036,0.001999999,-0.004,-0.003
813.0,-0.003772057,-0.001161659,0.01633222,-0.002655586,0.003996036,0.003,-0.004,-0.004
814.0,-0.003772057,-0.001161659,0.01633222,-0.002655586,0.003996036,0.003,-0.004,-0.004
815.0,-0.003772057,-0.001161659,0.01633222,-0.002655586,0.003996036,0.003,-0.004,-0.004
816.0,-0.003772057,-0.001161659,0.01633222,-0.002655586,0.003996036,0.003,-0.004,-0.004
817.0,-0.003772057,-0.001161659,0.01633222,-0.002655586,0.003996036,0.003,-0.004,-0.004
818.0,-0.003772057,-0.001161659,0.01633222,-0.002655586,0.003996036,0.003,-0.004,-0.004
819.0,-0.003772057,-0.001161659,0.01633222,-0.002655586,0.003996036,0.003,-0.004,-0.004
820.0,-0.003772057,-0.001161659,0.01633222,-0.002655586,0.003996036,0.004,-0.005,-0.004
821.0,-0.003772057,-0.001161659,0.01633222,-0.002655586,0.003996036,0.004,-0.005,-0.004
822.0,-0.003772057,-0.001161659,0.01633222,-0.002655586,0.003996036,0.004,-0.005,-0.004
823.0,-0.002772057,-0.001161659,0.01633222,-0.002655586,0.003996036,0.003,-0.005,-0.004
824.0,-0.002772057,-0.001161659,0.017332212,-0.002655586,0.003996036,0.001999999,-0.005,-0.004
825.0,-0.003772057,-0.001161659,0.017332212,-0.002655586,0.003996036,0.001999999,-0.005,-0.003
826.0,-0.003772057,-0.001161659,0.018332214,-0.002655586,0.002996035,0.001999999,-0.005,-0.003
827.0,-0.003772057,-0.001161659,0.018332214,-0.002655586,0.002996035,0.001999999,-0.005,-0.003
828.0,-0.003772057,-0.000161659,0.017332212,-0.002655586,0.002996035,0.001999999,-0.005,-0.003
829.0,-0.003772057,-0.000161659,0.017332212,-0.002655586,0.002996035,0.001999999,-0.005,-0.003
830.0,-0.003772057,-0.000161659,0.016332213,-0.001655586,0.002996035,0.001999999,-0.005,-0.003
831.0,-0.003772057,-0.000161659,0.016332213,-0.001655586,0.002996035,0.001999999,-0.005,-0.003
832.0,-0.003772057,-0.000161659,0.016332213,-0.001655586,0.002996035,0.001999999,-0.005,-0.003
833.0,-0.003772057,-0.001161659,0.016332213,-0.001655586,0.002996035,0.001999999,-0.004,-0.003
834.0,-0.003772057,-0.001161659,0.016332213,-0.001655586,0.002996035,0.001999999,-0.004,-0.003
835.0,-0.003772057,-0.001161659,0.016332213,-0.001655586,0.002996035,0.001999999,-0.004,-0.003
836.0,-0.003772057,-0.001161659,0.016332213,-0.001655586,0.002996035,0.001999999,-0.004,-0.003
837.0,-0.003772057,-0.001161659,0.016332213,-0.001655586,0.002996035,0.001999999,-0.004,-0.003
838.0,-0.003772057,-0.001161659,0.016332213,-0.001655586,0.002996035,0.001999999,-0.004,-0.003
839.0,-0.003772057,-0.001161659,0.016332213,-0.001655586,0.002996035,0.001999999,-0.004,-0.003
840.0,-0.003772057,-0.001161659,0.016332213,-0.001655586,0.002996035,0.001999999,-0.004,-0.003
841.0,-0.003772057,-0.001161659,0.016332213,-0.001655586,0.002996035,0.001999999,-0.004,-0.003
842.0,-0.003772057,-0.001161659,0.016332213,-0.001655586,0.002996035,0.001999999,-0.004,-0.003
843.0,-0.003772057,-0.001161659,0.016332213,-0.001655586,0.002996035,0.001999999,-0.004,-0.003
844.0,-0.003772057,-0.001161659,0.016332213,-0.001655586,0.002996035,0.001999999,-0.004,-0.003
845.0,-0.003772057,-0.001161659,0.016332213,-0.001655586,0.002996035,0.001999999,-0.004,-0.003
846.0,-0.003772057,-0.001161659,0.016332213,-0.001655586,0.002996035,0.001999999,-0.004,-0.003
847.0,-0.003772057,-0.001161659,0.016332213,-0.002655586,0.003996036,0.001999999,-0.004,-0.003
848.0,-0.003772057,-0.001161659,0.016332213,-0.002655586,0.003996036,0.001999999,-0.004,-0.003
849.0,-0.003772057,-0.001161659,0.016332213,-0.002655586,0.003996036,0.001999999,-0.004,-0.003
850.0,-0.003772057,-0.001161659,0.016332213,-0.002655586,0.003996036,0.001999999,-0.004,-0.003
851.0,-0.003772057,-0.001161659,0.016332213,-0.002655586,0.003996036,0.001999999,-0.004,-0.003
852.0,-0.003772057,-0.001161659,0.016332213,-0.001655586,0.003996036,0.001999999,-0.005,-0.003
853.0,-0.003772057,-0.001161659,0.016332213,-0.001655586,0.003996036,0.001999999,-0.005,-0.003
854.0,-0.003772057,-0.001161659,0.016332213,-0.001655586,0.003996036,0.001999999,-0.005,-0.003
855.0,-0.003772057,-0.001161659,0.016332213,-0.001655586,0.003996036,0.001999999,-0.005,-0.003
856.0,-0.003772057,-0.001161659,0.016332213,-0.001655586,0.003996036,0.001999999,-0.005,-0.003
857.0,-0.003772057,-0.001161659,0.016332213,-0.001655586,0.003996036,0.001999999,-0.005,-0.003
858.0,-0.002772057,-0.001161659,0.016332213,-0.001655586,0.003996036,0.001999999,-0.006,-0.003
859.0,-0.002772057,-0.001161659,0.016332213,-0.001655586,0.003996036,0.001999999,-0.006,-0.003
860.0,-0.002772057,-0.001161659,0.016332213,-0.001655586,0.003996036,0.001999999,-0.006,-0.003
861.0,-0.002772057,-0.001161659,0.016332213,-0.001655586,0.003996036,0.001999999,-0.006,-0.003
862.0,-0.002772057,-0.001161659,0.016332213,-0.001655586,0.003996036,0.001999999,-0.006,-0.003
863.0,-0.002772057,-0.001161659,0.016332213,-0.001655586,0.003996036,0.000999999,-0.005,-0.003
864.0,-0.002772057,-0.001161659,0.016332213,-0.002655586,0.004996036,0.000999999,-0.005,-0.003
865.0,-0.002772057,-0.001161659,0.016332213,-0.002655586,0.004996036,0.000999999,-0.005,-0.003
866.0,-0.002772057,-0.001161659,0.016332213,-0.002655586,0.004996036,0.000999999,-0.005,-0.003
867.0,-0.002772057,-0.001161659,0.016332213,-0.002655586,0.004996036,0.000999999,-0.005,-0.003
868.0,-0.002772057,-0.001161659,0.016332213,-0.002655586,0.004996036,0.000999999,-0.005,-0.003
869.0,-0.002772057,-0.001161659,0.016332213,-0.002655586,0.004996036,0.000999999,-0.005,-0.003
870.0,-0.002772057,-0.001161659,0.016332213,-0.002655586,0.004996036,0.000999999,-0.005,-0.003
871.0,-0.002772057,-0.001161659,0.016332213,-0.002655586,0.004996036,0.001999999,-0.006,-0.003
872.0,-0.002772057,-0.001161659,0.016332213,-0.002655586,0.004996036,0.001999999,-0.006,-0.003
873.0,-0.002772057,-0.001161659,0.016332213,-0.002655586,0.004996036,0.001999999,-0.006,-0.003
874.0,-0.002772057,-0.001161659,0.016332213,-0.002655586,0.004996036,0.001999999,-0.006,-0.003
875.0,-0.002772057,-0.001161659,0.016332213,-0.002655586,0.004996036,0.001999999,-0.006,-0.003
876.0,-0.002772057,-0.001161659,0.016332213,-0.002655586,0.004996036,0.001999999,-0.006,-0.003
877.0,-0.002772057,-0.001161659,0.016332213,-0.002655586,0.004996036,0.001999999,-0.006,-0.003
878.0,-0.002772057,-0.001161659,0.016332213,-0.002655586,0.004996036,0.001999999,-0.006,-0.003
879.0,-0.002772057,-0.001161659,0.016332213,-0.002655586,0.004996036,0.001999999,-0.006,-0.003
880.0,-0.002772057,-0.001161659,0.016332213,-0.002655586,0.004996036,0.001999999,-0.006,-0.003
881.0,-0.002772057,-0.001161659,0.016332213,-0.002655586,0.004996036,0.001999999,-0.006,-0.003
882.0,-0.002772057,-0.001161659,0.016332213,-0.002655586,0.004996036,0.001999999,-0.006,-0.003
883.0,-0.002772057,-0.001161659,0.016332213,-0.002655586,0.004996036,0.001999999,-0.006,-0.003
884.0,-0.002772057,-0.001161659,0.016332213,-0.002655586,0.004996036,0.001999999,-0.006,-0.003
885.0,-0.002772057,-0.001161659,0.016332213,-0.002655586,0.004996036,0.001999999,-0.006,-0.003
886.0,-0.002772057,-0.001161659,0.016332213,-0.002655586,0.004996036,0.001999999,-0.006,-0.003
887.0,-0.002772057,-0.001161659,0.016332213,-0.002655586,0.004996036,0.001999999,-0.006,-0.003
888.0,-0.002772057,-0.001161659,0.016332213,-0.001655586,0.003996036,0.001999999,-0.006,-0.003
889.0,-0.002772057,-0.001161659,0.016332213,-0.001655586,0.003996036,0.003,-0.006,-0.004
890.0,-0.002772057,-0.001161659,0.016332213,-0.001655586,0.003996036,0.003,-0.006,-0.004
891.0,-0.002772057,-0.001161659,0.016332213,-0.001655586,0.003996036,0.003,-0.006,-0.004
892.0,-0.002772057,-0.001161659,0.016332213,-0.001655586,0.003996036,0.003,-0.006,-0.004
893.0,-0.002772057,-0.001161659,0.016332213,-0.001655586,0.003996036,0.001999999,-0.006,-0.003
894.0,-0.002772057,-0.001161659,0.016332213,-0.001655586,0.003996036,0.001999999,-0.006,-0.003
895.0,-0.002772057,-0.001161659,0.016332213,-0.001655586,0.003996036,0.001999999,-0.006,-0.003
896.0,-0.002772057,-0.001161659,0.016332213,-0.001655586,0.003996036,0.001999999,-0.006,-0.003
897.0,-0.002772057,-0.001161659,0.016332213,-0.001655586,0.003996036,0.001999999,-0.006,-0.003
898.0,-0.002772057,-0.001161659,0.016332213,-0.001655586,0.003996036,0.001999999,-0.006,-0.003
899.0,-0.002772057,-0.001161659,0.017332212,-0.002655586,0.003996036,0.001999999,-0.006,-0.003
900.0,-0.002772057,-0.001161659,0.017332212,-0.002655586,0.003996036,0.001999999,-0.006,-0.003
901.0,-0.002772057,-0.001161659,0.017332212,-0.002655586,0.003996036,0.001999999,-0.006,-0.003
902.0,-0.002772057,-0.001161659,0.017332212,-0.002655586,0.003996036,0.001999999,-0.006,-0.003
903.0,-0.002772057,-0.001161659,0.017332212,-0.002655586,0.003996036,0.001999999,-0.006,-0.003
904.0,-0.002772057,-0.001161659,0.017332212,-0.002655586,0.003996036,0.001999999,-0.006,-0.003
905.0,-0.002772057,-0.001161659,0.017332212,-0.002655586,0.003996036,0.001999999,-0.006,-0.003
906.0,-0.002772057,-0.001161659,0.017332212,-0.002655586,0.003996036,0.001999999,-0.006,-0.003
907.0,-0.002772057,-0.001161659,0.017332212,-0.002655586,0.003996036,0.001999999,-0.006,-0.003
908.0,-0.002772057,-0.001161659,0.017332212,-0.002655586,0.003996036,0.001999999,-0.006,-0.003
909.0,-0.002772057,-0.001161659,0.017332212,-0.002655586,0.003996036,0.001999999,-0.006,-0.003
910.0,-0.002772057,-0.001161659,0.017332212,-0.002655586,0.003996036,0.001999999,-0.006,-0.003
911.0,-0.002772057,-0.001161659,0.017332212,-0.002655586,0.003996036,0.001999999,-0.006,-0.003
912.0,-0.002772057,-0.001161659,0.017332212,-0.002655586,0.003996036,0.001999999,-0.006,-0.003
913.0,-0.002772057,-0.001161659,0.017332212,-0.002655586,0.003996036,0.001999999,-0.006,-0.003
914.0,-0.002772057,-0.001161659,0.017332212,-0.002655586,0.003996036,0.003,-0.006,-0.004
915.0,-0.002772057,-0.001161659,0.017332212,-0.002655586,0.003996036,0.001999999,-0.005,-0.004
916.0,-0.002772057,-0.001161659,0.017332212,-0.002655586,0.003996036,0.001999999,-0.005,-0.004
917.0,-0.002772057,-0.001161659,0.017332212,-0.002655586,0.003996036,0.001999999,-0.005,-0.004
918.0,-0.002772057,-0.001161659,0.017332212,-0.002655586,0.003996036,0.001999999,-0.005,-0.004
919.0,-0.002772057,-0.001161659,0.017332212,-0.002655586,0.003996036,0.001999999,-0.005,-0.004
920.0,-0.002772057,-0.001161659,0.017332212,-0.002655586,0.003996036,0.001999999,-0.005,-0.004
921.0,-0.002772057,-0.001161659,0.017332212,-0.002655586,0.003996036,0.003,-0.006,-0.004
922.0,-0.002772057,-0.001161659,0.017332212,-0.002655586,0.003996036,0.003,-0.006,-0.004
923.0,-0.002772057,-0.001161659,0.017332212,-0.002655586,0.003996036,0.003,-0.006,-0.004
924.0,-0.002772057,-0.001161659,0.017332212,-0.002655586,0.003996036,0.003,-0.006,-0.004
925.0,-0.002772057,-0.001161659,0.017332212,-0.002655586,0.003996036,0.001999999,-0.006,-0.003
926.0,-0.002772057,-0.001161659,0.017332212,-0.002655586,0.003996036,0.001999999,-0.006,-0.003
927.0,-0.002772057,-0.001161659,0.017332212,-0.002655586,0.003996036,0.001999999,-0.006,-0.003
928.0,-0.002772057,-0.001161659,0.017332212,-0.002655586,0.003996036,0.003,-0.006,-0.004
929.0,-0.002772057,-0.000161659,0.017332212,-0.002655586,0.003996036,0.001999999,-0.006,-0.004
930.0,-0.002772057,-0.000161659,0.017332212,-0.002655586,0.003996036,0.001999999,-0.006,-0.004
931.0,-0.002772057,-0.000161659,0.017332212,-0.002655586,0.003996036,0.003,-0.007,-0.004
932.0,-0.002772057,-0.000161659,0.017332212,-0.002655586,0.003996036,0.003,-0.007,-0.004
933.0,-0.002772057,-0.000161659,0.017332212,-0.002655586,0.003996036,0.003,-0.007,-0.004
934.0,-0.002772057,-0.000161659,0.017332212,-0.002655586,0.003996036,0.003,-0.007,-0.004
935.0,-0.002772057,-0.000161659,0.017332212,-0.002655586,0.003996036,0.003,-0.007,-0.004
936.0,-0.002772057,-0.000161659,0.017332212,-0.002655586,0.003996036,0.001999999,-0.007,-0.003
937.0,-0.002772057,-0.000161659,0.017332212,-0.002655586,0.003996036,0.001999999,-0.007,-0.003
938.0,-0.002772057,-0.000161659,0.017332212,-0.002655586,0.003996036,0.001999999,-0.007,-0.003
939.0,-0.002772057,-0.000161659,0.017332212,-0.002655586,0.003996036,0.001999999,-0.007,-0.003
940.0,-0.002772057,-0.000161659,0.017332212,-0.003655586,0.004996036,0.001999999,-0.007,-0.003
941.0,-0.002772057,-0.000161659,0.017332212,-0.003655586,0.004996036,0.001999999,-0.007,-0.003
942.0,-0.002772057,-0.000161659,0.018332214,-0.004655586,0.004996036,0.001999999,-0.007,-0.003
943.0,-0.002772057,-0.000161659,0.018332214,-0.004655586,0.004996036,0.001999999,-0.007,-0.003
944.0,-0.002772057,-0.000161659,0.018332214,-0.004655586,0.004996036,0.001999999,-0.006,-0.004
945.0,-0.002772057,-0.000161659,0.017332212,-0.004655586,0.004996036,0.003,-0.006,-0.004
946.0,-0.002772057,-0.000161659,0.017332212,-0.004655586,0.004996036,0.003,-0.006,-0.004
947.0,-0.002772057,-0.000161659,0.017332212,-0.004655586,0.004996036,0.003,-0.006,-0.004
948.0,-0.002772057,-0.000161659,0.017332212,-0.004655586,0.004996036,0.003,-0.006,-0.004
949.0,-0.002772057,-0.000161659,0.017332212,-0.004655586,0.004996036,0.003,-0.006,-0.004
950.0,-0.002772057,-0.000161659,0.017332212,-0.004655586,0.004996036,0.003,-0.006,-0.004
