0.0,-0.003237507,-0.00025828,0.006324685,0.001136914,0.001627106,0.0,0.0,0.0
1.0,-0.003237507,-0.00025828,0.006324685,0.001136914,0.001627106,0.0,0.0,0.0
2.0,-0.003237507,-0.00025828,0.006324685,0.001136914,0.001627106,0.0,0.0,0.0
3.0,-0.003287507,-0.00025828,0.006324685,0.001136914,0.001627106,5e-05,0.0,0.0
4.0,-0.003287507,-0.00025828,0.006324685,0.001136914,0.001627106,5e-05,0.0,0.0
5.0,-0.003287507,-0.00020828,0.006324685,0.001136914,0.001627106,0.0,0.0,0.0
6.0,-0.003287507,-0.00020828,0.006274685,0.001136914,0.001627106,0.0,5e-05,0.0
7.0,-0.003287507,-0.00025828,0.006324685,0.001136914,0.001627106,0.0,5e-05,0.0
8.0,-0.003287507,-0.00030828,0.006324685,0.001136914,0.001627106,0.0,5e-05,5e-05
9.0,-0.003287507,-0.00030828,0.006324685,0.001136914,0.001627106,0.0,5e-05,5e-05
10.0,-0.003237507,-0.00030828,0.006324685,0.001136914,0.001627106,0.0,5e-05,0.0
11.0,-0.003287507,-0.00030828,0.006324685,0.001136914,0.001627106,5e-05,5e-05,0.0
12.0,-0.003237507,-0.00030828,0.006324685,0.001136914,0.001627106,0.0,5e-05,0.0
13.0,-0.003287507,-0.00030828,0.006324685,0.001136914,0.001627106,0.0,0.0001,0.0
14.0,-0.003287507,-0.00030828,0.006324685,0.001136914,0.001627106,0.0,0.0001,0.0
15.0,-0.003287507,-0.00030828,0.006324685,0.001136914,0.001627106,0.0,0.0001,0.0
16.0,-0.003237507,-0.00030828,0.006324685,0.001136914,0.001627106,0.0,5e-05,0.0
17.0,-0.003287507,-0.00030828,0.006324685,0.001136914,0.001627106,0.0,5e-05,5e-05
18.0,-0.003287507,-0.00030828,0.006324685,0.001136914,0.001627106,0.0,5e-05,5e-05
19.0,-0.003287507,-0.00030828,0.006324685,0.001136914,0.001627106,0.0,5e-05,5e-05
20.0,-0.003287507,-0.00030828,0.006324685,0.001136914,0.001627106,0.0,5e-05,5e-05
21.0,-0.003287507,-0.00030828,0.006324685,0.001136914,0.001627106,0.0,5e-05,5e-05
22.0,-0.003287507,-0.00030828,0.006324685,0.001136914,0.001627106,0.0,5e-05,5e-05
23.0,-0.003287507,-0.00030828,0.006324685,0.001136914,0.001627106,5e-05,5e-05,0.0
24.0,-0.003287507,-0.00025828,0.006324685,0.001136914,0.001627106,0.0,5e-05,0.0
25.0,-0.003287507,-0.00025828,0.006324685,0.001136914,0.001627106,0.0,5e-05,0.0
26.0,-0.003287507,-0.00025828,0.006324685,0.001136914,0.001627106,0.0,5e-05,0.0
27.0,-0.003287507,-0.00025828,0.006324685,0.001136914,0.001627106,0.0,5e-05,0.0
28.0,-0.003287507,-0.00025828,0.006324685,0.001136914,0.001627106,0.0,5e-05,0.0
29.0,-0.003287507,-0.00025828,0.006324685,0.001136914,0.001627106,0.0,5e-05,0.0
30.0,-0.003287507,-0.00025828,0.006324685,0.001136914,0.001627106,0.0,0.0,5e-05
31.0,-0.003287507,-0.00025828,0.006324685,0.001136914,0.001627106,0.0,5e-05,0.0
32.0,-0.003287507,-0.00025828,0.006324685,0.001136914,0.001627106,0.0,5e-05,0.0
33.0,-0.003287507,-0.00025828,0.006324685,0.001136914,0.001627106,-5e-05,5e-05,5e-05
34.0,-0.003287507,-0.00025828,0.006324685,0.001136914,0.001627106,-5e-05,5e-05,5e-05
35.0,-0.003287507,-0.00025828,0.006324685,0.001136914,0.001627106,-5e-05,5e-05,5e-05
36.0,-0.003287507,-0.00025828,0.006324685,0.001136914,0.001627106,-5e-05,5e-05,5e-05
37.0,-0.003287507,-0.00025828,0.006324685,0.001136914,0.001627106,0.0,5e-05,0.0
38.0,-0.003287507,-0.00025828,0.006324685,0.001136914,0.001627106,0.0,5e-05,0.0
39.0,-0.003287507,-0.00025828,0.006324685,0.001136914,0.001627106,0.0,5e-05,0.0
40.0,-0.003287507,-0.00025828,0.006324685,0.001136914,0.001627106,0.0,5e-05,0.0
41.0,-0.003287507,-0.000308272,0.006324685,0.001136914,0.001627106,0.0,4.9992e-05,5e-05
42.0,-0.003287507,-0.000308272,0.006324685,0.001136914,0.001627106,0.0,9.9992e-05,0.0
43.0,-0.003287507,-0.000308272,0.006324685,0.001136914,0.001627106,5e-05,4.9992e-05,0.0
44.0,-0.003287507,-0.000308272,0.006324685,0.001136914,0.001627106,5e-05,4.9992e-05,0.0
45.0,-0.003287507,-0.000308272,0.006324685,0.001136914,0.001627106,0.0,9.9992e-05,0.0
46.0,-0.003287507,-0.000308272,0.006324685,0.001136914,0.001627106,0.0,9.9992e-05,0.0
47.0,-0.003287507,-0.000258272,0.006324685,0.001136914,0.001627106,0.0,4.9992e-05,0.0
48.0,-0.003287507,-0.000258272,0.006324685,0.001136914,0.001627106,0.0,4.9992e-05,0.0
49.0,-0.003287507,-0.000308272,0.006324685,0.001136914,0.001627106,0.0,4.9992e-05,5e-05
50.0,-0.003287507,-0.000308272,0.006324685,0.001136914,0.001627106,0.0,4.9992e-05,5e-05
51.0,-0.003287507,-0.000308272,0.006324685,0.001136914,0.001627106,0.0,4.9992e-05,5e-05
52.0,-0.003287507,-0.000308272,0.006324685,0.001136914,0.001627106,5e-05,4.9992e-05,0.0
53.0,-0.003287507,-0.000308272,0.006324685,0.001136914,0.001627106,0.0,4.9992e-05,5e-05
54.0,-0.003287507,-0.000308272,0.006324685,0.001136914,0.001627106,0.0,4.9992e-05,5e-05
55.0,-0.003287507,-0.000308272,0.006324685,0.001136914,0.001627106,0.0,4.9992e-05,5e-05
56.0,-0.003287507,-0.000308272,0.006324685,0.001136914,0.001627106,0.0,9.9992e-05,0.0
57.0,-0.003287507,-0.000308272,0.006324685,0.001186914,0.001627106,0.0,4.9992e-05,0.0
58.0,-0.003287507,-0.000308272,0.006324685,0.001186914,0.001627106,0.0,4.9992e-05,0.0
59.0,-0.003287507,-0.000308272,0.006324685,0.001186914,0.001627106,5e-05,-7e-09,0.0
60.0,-0.003287507,-0.000308272,0.006324685,0.001186914,0.001627106,0.0,-7e-09,5e-05
61.0,-0.003287507,-0.000258272,0.006324685,0.001186914,0.001627106,0.0,-7e-09,0.0
62.0,-0.003287507,-0.000258272,0.006324685,0.001186914,0.001627106,5e-05,-7e-09,-5e-05
63.0,-0.003287507,-0.000258272,0.006324685,0.001186914,0.001627106,5e-05,-7e-09,-5e-05
64.0,-0.003287507,-0.000258272,0.006324685,0.001136914,0.001627106,5e-05,4.9992e-05,-5e-05
65.0,-0.003287507,-0.000258272,0.006324685,0.001136914,0.001627106,0.0,9.9992e-05,-5e-05
66.0,-0.003287507,-0.000258272,0.006324685,0.001136914,0.001627106,0.0,9.9992e-05,-5e-05
67.0,-0.003287507,-0.000258272,0.006324685,0.001136914,0.001627106,5e-05,4.9992e-05,-5e-05
68.0,-0.003287507,-0.000258272,0.006324685,0.001136914,0.001627106,5e-05,4.9992e-05,-5e-05
69.0,-0.003287507,-0.000258272,0.006324685,0.001136914,0.001627106,5e-05,4.9992e-05,-5e-05
70.0,-0.003287507,-0.000258272,0.006324685,0.001136914,0.001627106,0.0,4.9992e-05,0.0
71.0,-0.003287507,-0.000258272,0.006324685,0.001136914,0.001627106,0.0,4.9992e-05,0.0
72.0,-0.003287507,-0.000258272,0.006274685,0.001136914,0.001627106,0.0,9.9992e-05,0.0
73.0,-0.003287507,-0.000258272,0.006274685,0.001136914,0.001627106,0.0,9.9992e-05,0.0
74.0,-0.003287507,-0.000258272,0.006274685,0.001136914,0.001627106,0.0,9.9992e-05,0.0
75.0,-0.003287507,-0.000258272,0.006274685,0.001136914,0.001627106,0.0,9.9992e-05,0.0
76.0,-0.003287507,-0.000258272,0.006274685,0.001136914,0.001627106,0.0,9.9992e-05,0.0
77.0,-0.003287507,-0.000258272,0.006274685,0.001186914,0.001627106,0.0,4.9992e-05,0.0
78.0,-0.003287507,-0.000258272,0.006274685,0.001186914,0.001627106,0.0,4.9992e-05,0.0
79.0,-0.003287507,-0.000258272,0.006274685,0.001186914,0.001627106,5e-05,4.9992e-05,-5e-05
80.0,-0.003287507,-0.000258272,0.006274685,0.001186914,0.001627106,0.0,4.9992e-05,0.0
81.0,-0.003287507,-0.000258272,0.006274685,0.001186914,0.001627106,-5e-05,4.9992e-05,5e-05
82.0,-0.003287507,-0.000258272,0.006274685,0.001186914,0.001627106,-5e-05,4.9992e-05,5e-05
83.0,-0.003287507,-0.000258272,0.006274685,0.001186914,0.001627106,-5e-05,4.9992e-05,5e-05
84.0,-0.003287507,-0.000258272,0.006274685,0.001186914,0.001627106,-5e-05,4.9992e-05,5e-05
85.0,-0.003287507,-0.000258272,0.006324685,0.001186914,0.001627106,-5e-05,4.9992e-05,0.0
86.0,-0.003287507,-0.000308272,0.006324685,0.001186914,0.001627106,0.0,4.9992e-05,0.0
87.0,-0.003287507,-0.000308272,0.006324685,0.001186914,0.001627106,0.0,4.9992e-05,0.0
88.0,-0.003287507,-0.000308272,0.006324685,0.001186914,0.001627106,0.0,4.9992e-05,0.0
89.0,-0.003287507,-0.000308272,0.006324685,0.001186914,0.001627106,0.0,4.9992e-05,0.0
90.0,-0.003237507,-0.000308272,0.006324685,0.001136914,0.001627106,0.0,4.9992e-05,0.0
91.0,-0.003237507,-0.000308272,0.006324685,0.001136914,0.001627106,0.0,-7e-09,5e-05
92.0,-0.003237507,-0.000308272,0.006324685,0.001136914,0.001627106,5e-05,-7e-09,0.0
93.0,-0.003237507,-0.000308272,0.006324685,0.001136914,0.001627106,0.0,-7e-09,5e-05
94.0,-0.003237507,-0.000308272,0.006324685,0.001136914,0.001627106,0.0,-7e-09,5e-05
95.0,-0.003237507,-0.000308272,0.006324685,0.001136914,0.001627106,5e-05,-7e-09,0.0
96.0,-0.003237507,-0.000308272,0.006324685,0.001136914,0.001627106,5e-05,-7e-09,0.0
97.0,-0.003237507,-0.000308272,0.006324685,0.001136914,0.001627106,5e-05,-7e-09,0.0
98.0,-0.003237507,-0.000308272,0.006324685,0.001136914,0.001627106,5e-05,-7e-09,0.0
99.0,-0.003237507,-0.000308272,0.006324685,0.001136914,0.001627106,5e-05,-7e-09,0.0
100.0,-0.003237507,-0.000308272,0.006324685,0.001136914,0.001627106,0.0,4.9992e-05,0.0
101.0,-0.003237507,-0.000308272,0.006324685,0.001136914,0.001627106,0.0,4.9992e-05,0.0
102.0,-0.003287507,-0.000308272,0.006324685,0.001136914,0.001627106,0.0,9.9992e-05,0.0
103.0,-0.003287507,-0.000308272,0.006324685,0.001136914,0.001627106,0.0,9.9992e-05,0.0
104.0,-0.003287507,-0.000308272,0.006324685,0.001136914,0.001627106,0.0,9.9992e-05,0.0
105.0,-0.003287507,-0.000308272,0.006324685,0.001136914,0.001627106,0.0,9.9992e-05,0.0
106.0,-0.003287507,-0.000308272,0.006324685,0.001136914,0.001627106,0.0,9.9992e-05,0.0
107.0,-0.003287507,-0.000308272,0.006374685,0.001136914,0.001627106,0.0,4.9992e-05,0.0
108.0,-0.003287507,-0.000308272,0.006374685,0.001136914,0.001627106,0.0,4.9992e-05,0.0
109.0,-0.003287507,-0.000308272,0.006374685,0.001136914,0.001627106,0.0,4.9992e-05,0.0
110.0,-0.003287507,-0.000308272,0.006374685,0.001136914,0.001627106,0.0,4.9992e-05,0.0
111.0,-0.003287507,-0.000308272,0.006374685,0.001136914,0.001627106,0.0,4.9992e-05,0.0
112.0,-0.003287507,-0.000308272,0.006374685,0.001136914,0.001627106,0.0,4.9992e-05,0.0
113.0,-0.003287507,-0.000308272,0.006324685,0.001136914,0.001627106,0.0,4.9992e-05,5e-05
114.0,-0.003287507,-0.000308272,0.006324685,0.001136914,0.001627106,5e-05,4.9992e-05,0.0
115.0,-0.003287507,-0.000308272,0.006324685,0.001136914,0.001627106,5e-05,4.9992e-05,0.0
116.0,-0.003287507,-0.000308272,0.006324685,0.001136914,0.001627106,5e-05,4.9992e-05,0.0
117.0,-0.003287507,-0.000308272,0.006374685,0.001136914,0.001627106,0.0,4.9992e-05,0.0
118.0,-0.003287507,-0.000308272,0.006374685,0.001136914,0.001627106,0.0,4.9992e-05,0.0
119.0,-0.003287507,-0.000308272,0.006374685,0.001136914,0.001627106,0.0,4.9992e-05,0.0
120.0,-0.003287507,-0.000308272,0.006374685,0.001086914,0.001677106,0.0,4.9992e-05,0.0
121.0,-0.003287507,-0.000308272,0.006374685,0.001136914,0.001627106,0.0,4.9992e-05,0.0
122.0,-0.003287507,-0.000308272,0.006374685,0.001136914,0.001627106,0.0,4.9992e-05,0.0
123.0,-0.003287507,-0.000308272,0.006374685,0.001136914,0.001627106,0.0,4.9992e-05,0.0
124.0,-0.003287507,-0.000308272,0.006324685,0.001136914,0.001677106,0.0,4.9992e-05,0.0
125.0,-0.003287507,-0.000308272,0.006324685,0.001136914,0.001677106,0.0,4.9992e-05,0.0
126.0,-0.003287507,-0.000308272,0.006324685,0.001136914,0.001677106,0.0,4.9992e-05,0.0
127.0,-0.003287507,-0.000308272,0.006324685,0.001136914,0.001677106,0.0,4.9992e-05,0.0
128.0,-0.003237507,-0.000308272,0.006324685,0.001136914,0.001677106,0.0,-7e-09,0.0
129.0,-0.003287507,-0.000308272,0.006324685,0.001136914,0.001677106,0.0,4.9992e-05,0.0
130.0,-0.003287507,-0.000308272,0.006324685,0.001136914,0.001677106,-5e-05,4.9992e-05,5e-05
131.0,-0.003287507,-0.000308272,0.006324685,0.001136914,0.001677106,-5e-05,9.9992e-05,0.0
132.0,-0.003287507,-0.000308272,0.006324685,0.001136914,0.001677106,-5e-05,4.9992e-05,5e-05
133.0,-0.003287507,-0.000308272,0.006374685,0.001136914,0.001677106,-5e-05,4.9992e-05,0.0
134.0,-0.003287507,-0.000308272,0.006374685,0.001136914,0.001677106,-5e-05,4.9992e-05,0.0
135.0,-0.003287507,-0.000308272,0.006374685,0.001136914,0.001677106,-5e-05,4.9992e-05,0.0
136.0,-0.003287507,-0.000308272,0.006374685,0.001136914,0.001677106,-5e-05,4.9992e-05,0.0
137.0,-0.003287507,-0.000308272,0.006324685,0.001136914,0.001677106,-5e-05,9.9992e-05,0.0
138.0,-0.003287507,-0.000308272,0.006324685,0.001136914,0.001677106,-5e-05,9.9992e-05,0.0
139.0,-0.003287507,-0.000308272,0.006324685,0.001136914,0.001677106,-5e-05,9.9992e-05,0.0
140.0,-0.003287507,-0.000308272,0.006324685,0.001136914,0.001677106,0.0,4.9992e-05,0.0
141.0,-0.003287507,-0.000308272,0.006324685,0.001136914,0.001677106,0.0,4.9992e-05,0.0
142.0,-0.003287507,-0.000308272,0.006324685,0.001136914,0.001677106,0.0,4.9992e-05,0.0
143.0,-0.003287507,-0.000308272,0.006324685,0.001136914,0.001677106,0.0,4.9992e-05,0.0
144.0,-0.003287507,-0.000308272,0.006324685,0.001136914,0.001677106,0.0,4.9992e-05,0.0
145.0,-0.003287507,-0.000308272,0.006324685,0.001136914,0.001677106,0.0,4.9992e-05,0.0
146.0,-0.003287507,-0.000308272,0.006324685,0.001136914,0.001677106,-5e-05,4.9992e-05,5e-05
147.0,-0.003287507,-0.000258272,0.006324685,0.001136914,0.001677106,-5e-05,4.9992e-05,0.0
148.0,-0.003287507,-0.000258272,0.006324685,0.001136914,0.001677106,-5e-05,4.9992e-05,0.0
149.0,-0.003287507,-0.000258272,0.006324685,0.001136914,0.001677106,-5e-05,4.9992e-05,0.0
150.0,-0.003287507,-0.000258272,0.006324685,0.001136914,0.001677106,-5e-05,4.9992e-05,0.0
151.0,-0.003287507,-0.000258272,0.006324685,0.001136914,0.001677106,0.0,4.9992e-05,-5e-05
152.0,-0.003287507,-0.000258272,0.006324685,0.001136914,0.001677106,0.0,4.9992e-05,-5e-05
153.0,-0.003287507,-0.000258272,0.006324685,0.001136914,0.001677106,-5e-05,4.9992e-05,0.0
154.0,-0.003337507,-0.000258272,0.006324685,0.001136914,0.001677106,0.0,4.9992e-05,0.0
155.0,-0.003337507,-0.000258272,0.006324685,0.001136914,0.001677106,0.0,4.9992e-05,0.0
156.0,-0.003287507,-0.000258272,0.006324685,0.001136914,0.001677106,-5e-05,4.9992e-05,0.0
157.0,-0.003287507,-0.000258272,0.006324685,0.001186914,0.001627106,-5e-05,4.9992e-05,0.0
158.0,-0.003287507,-0.000258272,0.006324685,0.001186914,0.001627106,-5e-05,4.9992e-05,0.0
159.0,-0.003287507,-0.000258272,0.006324685,0.001186914,0.001627106,-5e-05,4.9992e-05,0.0
160.0,-0.003287507,-0.000258272,0.006324685,0.001186914,0.001627106,0.0,4.9992e-05,-5e-05
161.0,-0.003287507,-0.000258272,0.006324685,0.001186914,0.001627106,0.0,4.9992e-05,-5e-05
162.0,-0.003287507,-0.000258272,0.006324685,0.001186914,0.001627106,0.0,4.9992e-05,-5e-05
163.0,-0.003287507,-0.000258272,0.006324685,0.001186914,0.001627106,0.0,4.9992e-05,-5e-05
164.0,-0.003287507,-0.000258272,0.006324685,0.001186914,0.001627106,0.0,4.9992e-05,-5e-05
165.0,-0.003287507,-0.000258272,0.006324685,0.001186914,0.001627106,0.0,4.9992e-05,-5e-05
166.0,-0.003287507,-0.000258272,0.006324685,0.001186914,0.001627106,0.0,4.9992e-05,-5e-05
167.0,-0.003287507,-0.000258272,0.006324685,0.001186914,0.001627106,-5e-05,4.9992e-05,0.0
168.0,-0.003287507,-0.000258272,0.006324685,0.001186914,0.001627106,-5e-05,4.9992e-05,0.0
169.0,-0.003287507,-0.000258272,0.006274685,0.001186914,0.001627106,0.0,4.9992e-05,0.0
170.0,-0.003287507,-0.000258272,0.006274685,0.001186914,0.001627106,0.0,4.9992e-05,0.0
171.0,-0.003287507,-0.000258272,0.006274685,0.001186914,0.001627106,0.0,4.9992e-05,0.0
172.0,-0.003287507,-0.000258272,0.006274685,0.001136914,0.001677106,0.0,4.9992e-05,0.0
173.0,-0.003287507,-0.000258272,0.006274685,0.001136914,0.001677106,0.0,4.9992e-05,0.0
174.0,-0.003287507,-0.000258272,0.006324685,0.001136914,0.001677106,-5e-05,4.9992e-05,0.0
175.0,-0.003287507,-0.000258272,0.006324685,0.001136914,0.001677106,-5e-05,4.9992e-05,0.0
176.0,-0.003287507,-0.000258272,0.006324685,0.001136914,0.001677106,-4.9981e-05,4.9992e-05,-1.7e-08
177.0,-0.003287507,-0.000258272,0.006324685,0.001136914,0.001677106,-4.9981e-05,4.9992e-05,-1.7e-08
178.0,-0.003287507,-0.000258272,0.006324685,0.001136914,0.001677106,-4.9981e-05,4.9992e-05,-1.7e-08
179.0,-0.003287507,-0.000258272,0.006324685,0.001186914,0.001627106,-4.9981e-05,4.9992e-05,-1.7e-08
180.0,-0.003287507,-0.000258272,0.006324685,0.001136914,0.001677106,-4.9981e-05,4.9992e-05,-1.7e-08
181.0,-0.003287507,-0.000258272,0.006324685,0.001136914,0.001677106,-4.9981e-05,4.9992e-05,-1.7e-08
182.0,-0.003287507,-0.000258272,0.006324685,0.001136914,0.001677106,-4.9981e-05,4.9992e-05,-1.7e-08
183.0,-0.003287507,-0.000258272,0.006324685,0.001136914,0.001677106,-4.9981e-05,4.9992e-05,-1.7e-08
184.0,-0.003287507,-0.000258272,0.006324685,0.001136914,0.001677106,-4.9981e-05,4.9992e-05,-1.7e-08
185.0,-0.003287507,-0.000258272,0.006324685,0.001136914,0.001677106,-4.9981e-05,4.9992e-05,-1.7e-08
186.0,-0.003287507,-0.000258272,0.006324685,0.001136914,0.001677106,-4.9981e-05,4.9992e-05,-1.7e-08
187.0,-0.003287507,-0.000258272,0.006324685,0.001136914,0.001677106,-4.9981e-05,4.9992e-05,-1.7e-08
188.0,-0.003287507,-0.000258272,0.006324685,0.001086914,0.001727106,-4.9981e-05,4.9992e-05,-1.7e-08
189.0,-0.003240764,-0.000258272,0.006324685,0.001086914,0.001680364,-4.9981e-05,4.9992e-05,-1.7e-08
190.0,-0.003240764,-0.000258272,0.006324685,0.001086914,0.001680364,1.8e-08,4.9992e-05,-5.0017e-05
191.0,-0.003240764,-0.000258272,0.006324685,0.001086914,0.001680364,1.8e-08,4.9992e-05,-5.0017e-05
192.0,-0.003240764,-0.000258272,0.006324685,0.001086914,0.001680364,1.8e-08,4.9992e-05,-5.0017e-05
193.0,-0.003240764,-0.000258272,0.006324685,0.001086914,0.001680364,-4.9981e-05,4.9992e-05,-1.7e-08
194.0,-0.003240764,-0.000258272,0.006324685,0.001086914,0.001680364,-4.9981e-05,4.9992e-05,-1.7e-08
195.0,-0.003240764,-0.000258272,0.006324685,0.001086914,0.001680364,1.8e-08,4.9992e-05,-5.0017e-05
196.0,-0.003240764,-0.000258272,0.006324685,0.001086914,0.001680364,1.8e-08,4.9992e-05,-5.0017e-05
197.0,-0.003240764,-0.000258272,0.006324685,0.001086914,0.001680364,1.8e-08,4.9992e-05,-5.0017e-05
198.0,-0.003240764,-0.000258272,0.006324685,0.001086914,0.001680364,1.8e-08,4.9992e-05,-5.0017e-05
199.0,-0.003240764,-0.000258272,0.006324685,0.001086914,0.001680364,1.8e-08,4.9992e-05,-5.0017e-05
200.0,-0.003240764,-0.000258272,0.006324685,0.001086914,0.001680364,-4.9981e-05,4.9992e-05,-1.7e-08
201.0,-0.003240764,-0.000258272,0.006324685,0.001086914,0.001680364,-4.9981e-05,4.9992e-05,-1.7e-08
202.0,-0.003240764,-0.000258272,0.006324685,0.001086914,0.001680364,-4.9981e-05,4.9992e-05,-1.7e-08
203.0,-0.003240764,-0.000258272,0.006324685,0.001086914,0.001680364,-4.9981e-05,4.9992e-05,-1.7e-08
204.0,-0.003240764,-0.000258272,0.006324685,0.001086914,0.001680364,-4.9981e-05,4.9992e-05,-1.7e-08
205.0,-0.003240764,-0.000258272,0.006324685,0.001086914,0.001680364,-4.9981e-05,4.9992e-05,-1.7e-08
206.0,-0.003240764,-0.000258272,0.006324685,0.001086914,0.001680364,-4.9981e-05,4.9992e-05,-1.7e-08
207.0,-0.003240764,-0.000258272,0.006324685,0.001086914,0.001680364,-4.9981e-05,4.9992e-05,-1.7e-08
208.0,-0.003290764,-0.000208272,0.006324685,0.001086914,0.001680364,-4.9981e-05,4.9992e-05,-1.7e-08
209.0,-0.003290764,-0.000208272,0.006324685,0.001086914,0.001680364,-4.9981e-05,4.9992e-05,-1.7e-08
210.0,-0.003290764,-0.000258272,0.006324685,0.001086914,0.001680364,1.8e-08,4.9992e-05,-1.7e-08
211.0,-0.003290764,-0.000258272,0.006324685,0.001086914,0.001680364,1.8e-08,4.9992e-05,-1.7e-08
212.0,-0.003290764,-0.000258272,0.006324685,0.001086914,0.001680364,1.8e-08,4.9992e-05,-1.7e-08
213.0,-0.003290764,-0.000258272,0.006324685,0.001086914,0.001680364,1.8e-08,4.9992e-05,-1.7e-08
214.0,-0.003290764,-0.000258272,0.006324685,0.001086914,0.001680364,1.8e-08,4.9992e-05,-1.7e-08
215.0,-0.003290764,-0.000258272,0.006324685,0.001086914,0.001680364,1.8e-08,4.9992e-05,-1.7e-08
216.0,-0.003290764,-0.000258272,0.006324685,0.001086914,0.001680364,1.8e-08,9.9992e-05,-5.0017e-05
217.0,-0.003290764,-0.000258272,0.006324685,0.001086914,0.001680364,1.8e-08,9.9992e-05,-5.0017e-05
218.0,-0.003290764,-0.000258272,0.006324685,0.001086914,0.001680364,1.8e-08,9.9992e-05,-5.0017e-05
219.0,-0.003290764,-0.000258272,0.006324685,0.001086914,0.001680364,1.8e-08,9.9992e-05,-5.0017e-05
220.0,-0.003290764,-0.000258272,0.006324685,0.001086914,0.001680364,1.8e-08,9.9992e-05,-5.0017e-05
221.0,-0.003290764,-0.000258272,0.006324685,0.001086914,0.001680364,1.8e-08,9.9992e-05,-5.0017e-05
222.0,-0.003290764,-0.000258272,0.006324685,0.001086914,0.001680364,1.8e-08,9.9992e-05,-5.0017e-05
223.0,-0.003290764,-0.000258272,0.006324685,0.001136914,0.001680364,-4.9981e-05,9.9992e-05,-5.0017e-05
224.0,-0.003290764,-0.000258272,0.006324685,0.001136914,0.001680364,-4.9981e-05,9.9992e-05,-5.0017e-05
225.0,-0.003290764,-0.000258272,0.006324685,0.001136914,0.001680364,-4.9981e-05,9.9992e-05,-5.0017e-05
226.0,-0.003240764,-0.000258272,0.006324685,0.001136914,0.001680364,-4.9981e-05,4.9992e-05,-5.0017e-05
227.0,-0.003240764,-0.000258272,0.006324685,0.001136914,0.001680364,-4.9981e-05,4.9992e-05,-5.0017e-05
228.0,-0.003290764,-0.000258272,0.006324685,0.001136914,0.001680364,-4.9981e-05,4.9992e-05,-1.7e-08
229.0,-0.003290764,-0.000258272,0.006324685,0.001136914,0.001680364,-4.9981e-05,4.9992e-05,-1.7e-08
230.0,-0.003290764,-0.000258272,0.006324685,0.001136914,0.001680364,-4.9981e-05,4.9992e-05,-1.7e-08
231.0,-0.003290764,-0.000258272,0.006324685,0.001136914,0.001680364,-4.9981e-05,4.9992e-05,-1.7e-08
232.0,-0.003290764,-0.000258272,0.006324685,0.001136914,0.001680364,-4.9981e-05,4.9992e-05,-1.7e-08
233.0,-0.003290764,-0.000258272,0.006324685,0.001136914,0.001680364,-4.9981e-05,4.9992e-05,-1.7e-08
234.0,-0.003290764,-0.000258272,0.006324685,0.001136914,0.001680364,-4.9981e-05,4.9992e-05,-1.7e-08
235.0,-0.003290764,-0.000258272,0.006324685,0.001136914,0.001680364,-4.9981e-05,4.9992e-05,-1.7e-08
236.0,-0.003290764,-0.000258272,0.006324685,0.001136914,0.001680364,-4.9981e-05,4.9992e-05,-1.7e-08
237.0,-0.003290764,-0.000258272,0.006324685,0.001136914,0.001680364,1.8e-08,4.9992e-05,-5.0017e-05
238.0,-0.003290764,-0.000258272,0.006324685,0.001136914,0.001680364,1.8e-08,4.9992e-05,-5.0017e-05
239.0,-0.003290764,-0.000258272,0.006324685,0.001136914,0.001680364,1.8e-08,4.9992e-05,-5.0017e-05
240.0,-0.003290764,-0.000258272,0.006324685,0.001136914,0.001680364,1.8e-08,4.9992e-05,-5.0017e-05
241.0,-0.003290764,-0.000258272,0.006324685,0.001136914,0.001680364,-4.9981e-05,4.9992e-05,-1.7e-08
242.0,-0.003290764,-0.000258272,0.006324685,0.001136914,0.001680364,-4.9981e-05,4.9992e-05,-1.7e-08
243.0,-0.003290764,-0.000258272,0.006324685,0.001136914,0.001680364,-4.9981e-05,4.9992e-05,-1.7e-08
244.0,-0.003290764,-0.000258272,0.006324685,0.001136914,0.001680364,-4.9981e-05,4.9992e-05,-1.7e-08
245.0,-0.003290764,-0.000308272,0.006324685,0.001186914,0.001680364,-4.9981e-05,4.9992e-05,-1.7e-08
246.0,-0.003290764,-0.000308272,0.006324685,0.001186914,0.001680364,-4.9981e-05,4.9992e-05,-1.7e-08
247.0,-0.003290764,-0.000308272,0.006324685,0.001136914,0.001730364,-4.9981e-05,4.9992e-05,-1.7e-08
248.0,-0.003290764,-0.000308272,0.006324685,0.001136914,0.001730364,-4.9981e-05,4.9992e-05,-1.7e-08
249.0,-0.003290764,-0.000308272,0.006324685,0.001186914,0.001680364,-4.9981e-05,4.9992e-05,-1.7e-08
250.0,-0.003290764,-0.000308272,0.006324685,0.001186914,0.001680364,-4.9981e-05,4.9992e-05,-1.7e-08
251.0,-0.003290764,-0.000308272,0.006324685,0.001186914,0.001680364,-4.9981e-05,4.9992e-05,-1.7e-08
252.0,-0.003290764,-0.000308272,0.006324685,0.001186914,0.001680364,1.8e-08,4.9992e-05,-5.0017e-05
253.0,-0.003290764,-0.000308272,0.006324685,0.001186914,0.001680364,1.8e-08,4.9992e-05,-5.0017e-05
254.0,-0.003290764,-0.000308272,0.006324685,0.001186914,0.001680364,-4.9981e-05,4.9992e-05,-1.7e-08
255.0,-0.003290764,-0.000308272,0.006324685,0.001186914,0.001680364,-4.9981e-05,4.9992e-05,-1.7e-08
256.0,-0.003290764,-0.000308272,0.006324685,0.001186914,0.001680364,-4.9981e-05,4.9992e-05,-1.7e-08
257.0,-0.003290764,-0.000308272,0.006324685,0.001186914,0.001680364,-4.9981e-05,4.9992e-05,-1.7e-08
258.0,-0.003290764,-0.000258272,0.006324685,0.001136914,0.001680364,-4.9981e-05,4.9992e-05,-1.7e-08
259.0,-0.003290764,-0.000258272,0.006324685,0.001136914,0.001680364,-4.9981e-05,9.9992e-05,-5.0017e-05
260.0,-0.003290764,-0.000258272,0.006324685,0.001136914,0.001680364,-4.9981e-05,9.9992e-05,-5.0017e-05
261.0,-0.003290764,-0.000258272,0.006324685,0.001136914,0.001680364,-4.9981e-05,9.9992e-05,-5.0017e-05
262.0,-0.003290764,-0.000258272,0.006324685,0.001136914,0.001680364,-4.9981e-05,9.9992e-05,-5.0017e-05
263.0,-0.003290764,-0.000258272,0.006324685,0.001136914,0.001680364,1.8e-08,4.9992e-05,-5.0017e-05
264.0,-0.003290764,-0.000258272,0.006324685,0.001136914,0.001680364,1.8e-08,4.9992e-05,-5.0017e-05
265.0,-0.003290764,-0.000258272,0.006324685,0.001136914,0.001680364,1.8e-08,4.9992e-05,-5.0017e-05
266.0,-0.003290764,-0.000258272,0.006324685,0.001136914,0.001680364,1.8e-08,4.9992e-05,-5.0017e-05
267.0,-0.003290764,-0.000258272,0.006324685,0.001136914,0.001680364,-4.9981e-05,4.9992e-05,-1.7e-08
268.0,-0.003290764,-0.000258272,0.006324685,0.001136914,0.001680364,-4.9981e-05,4.9992e-05,-1.7e-08
269.0,-0.003290764,-0.000258272,0.006274685,0.001186914,0.001680364,-4.9981e-05,4.9992e-05,-1.7e-08
270.0,-0.003290764,-0.000258272,0.006274685,0.001186914,0.001680364,-4.9981e-05,4.9992e-05,-1.7e-08
271.0,-0.003290764,-0.000258272,0.006274685,0.001186914,0.001680364,-4.9981e-05,5.1469e-05,-1.492e-06
272.0,-0.003290764,-0.000258272,0.006274685,0.001186914,0.001680364,-4.9981e-05,5.1469e-05,-1.492e-06
273.0,-0.003240764,-0.000258272,0.006274685,0.001186914,0.001680364,-4.9981e-05,5.1469e-05,-5.1492e-05
274.0,-0.003290764,-0.000258272,0.006274685,0.001186914,0.001680364,1.8e-08,5.1469e-05,-5.1492e-05
275.0,-0.003290764,-0.000258272,0.006274685,0.001186914,0.001680364,-4.9981e-05,0.000101469,-5.1492e-05
276.0,-0.003290764,-0.000258272,0.006274685,0.001186914,0.001680364,-4.9981e-05,0.000101469,-5.1492e-05
277.0,-0.003290764,-0.000258272,0.006274685,0.001186914,0.001680364,-4.9981e-05,0.000101469,-5.1492e-05
278.0,-0.003290764,-0.000258272,0.006274685,0.001186914,0.001680364,-4.9981e-05,0.000101469,-5.1492e-05
279.0,-0.003290764,-0.000258272,0.006274685,0.001186914,0.001680364,-4.9981e-05,0.000101469,-5.1492e-05
280.0,-0.003290764,-0.000258272,0.006274685,0.001186914,0.001680364,-4.9981e-05,0.000101469,-5.1492e-05
281.0,-0.003290764,-0.000258272,0.006274685,0.001186914,0.001680364,-4.9981e-05,0.000101469,-5.1492e-05
282.0,-0.003290764,-0.000258272,0.006274685,0.001186914,0.001680364,-4.9981e-05,0.000101469,-5.1492e-05
283.0,-0.003240764,-0.000258272,0.006274685,0.001186914,0.001680364,-4.9981e-05,5.1469e-05,-5.1492e-05
284.0,-0.003240764,-0.000258272,0.006274685,0.001186914,0.001680364,-4.9981e-05,5.1469e-05,-5.1492e-05
285.0,-0.003240764,-0.000258272,0.006274685,0.001186914,0.001680364,-4.9981e-05,5.1469e-05,-5.1492e-05
286.0,-0.003240764,-0.000258272,0.006274685,0.001186914,0.001680364,-4.9981e-05,5.1469e-05,-5.1492e-05
287.0,-0.003240764,-0.000258272,0.006274685,0.001186914,0.001680364,-4.9981e-05,5.1469e-05,-5.1492e-05
288.0,-0.003240764,-0.000258272,0.006274685,0.001186914,0.001680364,-4.9981e-05,5.1469e-05,-5.1492e-05
289.0,-0.003240764,-0.000258272,0.006274685,0.001186914,0.001680364,-4.9981e-05,5.1469e-05,-5.1492e-05
290.0,-0.003240764,-0.000258272,0.006274685,0.001186914,0.001680364,1.8e-08,5.1469e-05,-0.000101492
291.0,-0.003240764,-0.000258272,0.006274685,0.001186914,0.001680364,-4.9981e-05,5.1469e-05,-5.1492e-05
292.0,-0.003240764,-0.000258272,0.006274685,0.001186914,0.001680364,-4.9981e-05,5.1469e-05,-5.1492e-05
293.0,-0.003290764,-0.000258272,0.006274685,0.001186914,0.001680364,1.8e-08,5.1469e-05,-5.1492e-05
294.0,-0.003290764,-0.000258272,0.006274685,0.001186914,0.001680364,1.8e-08,5.1469e-05,-5.1492e-05
295.0,-0.003290764,-0.000258272,0.006274685,0.001136914,0.001730364,1.8e-08,5.1469e-05,-5.1492e-05
296.0,-0.003290764,-0.000258272,0.006274685,0.001136914,0.001730364,-4.9981e-05,5.1469e-05,-1.492e-06
297.0,-0.003290764,-0.000258272,0.006274685,0.001136914,0.001730364,-4.9981e-05,5.1469e-05,-1.492e-06
298.0,-0.003290764,-0.000258272,0.006274685,0.001136914,0.001730364,-4.9981e-05,5.1469e-05,-1.492e-06
299.0,-0.003290764,-0.000258272,0.006274685,0.001136914,0.001730364,-4.9981e-05,5.1469e-05,-1.492e-06
300.0,-0.003290764,-0.000258272,0.006324685,0.001136914,0.001680364,-4.9981e-05,5.1469e-05,-1.492e-06
301.0,-0.003290764,-0.000258272,0.006324685,0.001136914,0.001680364,-4.9981e-05,5.1469e-05,-1.492e-06
302.0,-0.003290764,-0.000258272,0.006324685,0.001136914,0.001680364,-4.9981e-05,5.1469e-05,-1.492e-06
303.0,-0.003290764,-0.000258272,0.006324685,0.001136914,0.001680364,-4.9981e-05,5.1469e-05,-1.492e-06
304.0,-0.003290764,-0.000258272,0.006324685,0.001136914,0.001680364,-4.9981e-05,0.000101469,-5.1492e-05
305.0,-0.003290764,-0.000258272,0.006324685,0.001136914,0.001680364,-4.9981e-05,0.000101469,-5.1492e-05
306.0,-0.003290764,-0.000258272,0.006324685,0.001136914,0.001680364,-4.9981e-05,0.000101469,-5.1492e-05
307.0,-0.003290764,-0.000258272,0.006324685,0.001136914,0.001680364,-4.9981e-05,5.1469e-05,-1.493e-06
308.0,-0.003290764,-0.000258272,0.006324685,0.001136914,0.001680364,-9.9981e-05,0.000101469,-1.493e-06
309.0,-0.003290764,-0.000258272,0.006324685,0.001136914,0.001680364,-9.9981e-05,0.000101469,-1.493e-06
310.0,-0.003290764,-0.000258272,0.006324685,0.001136914,0.001680364,-9.9981e-05,0.000101469,-1.493e-06
311.0,-0.003290764,-0.000258272,0.006324685,0.001136914,0.001680364,-9.9981e-05,0.000101469,-1.493e-06
312.0,-0.003290764,-0.000258272,0.006324685,0.001136914,0.001680364,-9.9981e-05,0.000101469,-1.493e-06
313.0,-0.003290764,-0.000258272,0.006324685,0.001136914,0.001680364,-4.9981e-05,0.000101469,-5.1493e-05
314.0,-0.003290764,-0.000258272,0.006324685,0.001136914,0.001680364,-4.9981e-05,0.000101469,-5.1493e-05
315.0,-0.003290764,-0.000258272,0.006324685,0.001136914,0.001680364,-4.9981e-05,0.000101469,-5.1493e-05
316.0,-0.003290764,-0.000258272,0.006324685,0.001136914,0.001680364,-4.9981e-05,0.000101469,-5.1493e-05
317.0,-0.003290764,-0.000258272,0.006324685,0.001136914,0.001680364,-4.9981e-05,0.000101469,-5.1493e-05
318.0,-0.003290764,-0.000258272,0.006324685,0.001136914,0.001680364,-4.9981e-05,0.000101469,-5.1493e-05
319.0,-0.003290764,-0.000258272,0.006324685,0.001136914,0.001680364,-4.9981e-05,5.1469e-05,-1.493e-06
320.0,-0.003290764,-0.000258272,0.006324685,0.001136914,0.001680364,-4.9981e-05,5.1469e-05,-1.493e-06
321.0,-0.003290764,-0.000258272,0.006324685,0.001136914,0.001680364,-4.9981e-05,5.1469e-05,-1.493e-06
322.0,-0.003290764,-0.000258272,0.006324685,0.001136914,0.001680364,1.8e-08,5.1469e-05,-5.1493e-05
323.0,-0.003290764,-0.000258272,0.006324685,0.001136914,0.001680364,-4.9981e-05,5.1469e-05,-1.493e-06
324.0,-0.003290764,-0.000258272,0.006324685,0.001136914,0.001680364,-4.9981e-05,5.1469e-05,-1.493e-06
325.0,-0.003290764,-0.000258272,0.006324685,0.001136914,0.001680364,-4.9981e-05,5.1469e-05,-1.493e-06
326.0,-0.003290764,-0.000258272,0.006324685,0.001136914,0.001680364,-4.9981e-05,5.1469e-05,-1.493e-06
327.0,-0.003290764,-0.000258272,0.006324685,0.001136914,0.001680364,-4.9981e-05,5.1469e-05,-1.493e-06
328.0,-0.003290764,-0.000258272,0.006324685,0.001136914,0.001680364,1.8e-08,5.1469e-05,-5.1493e-05
329.0,-0.003290764,-0.000258272,0.006374685,0.001136914,0.001680364,-4.9981e-05,5.1469e-05,-5.1493e-05
330.0,-0.003290764,-0.000258272,0.006374685,0.001136914,0.001680364,-9.9981e-05,5.1469e-05,-1.493e-06
331.0,-0.003290764,-0.000258272,0.006374685,0.001136914,0.001680364,-4.9981e-05,5.1469e-05,-5.1493e-05
332.0,-0.003290764,-0.000258272,0.006374685,0.001136914,0.001680364,-4.9981e-05,5.1469e-05,-5.1493e-05
333.0,-0.003290764,-0.000258272,0.006374685,0.001136914,0.001680364,-4.9981e-05,5.1469e-05,-5.1493e-05
334.0,-0.003290764,-0.000258272,0.006374685,0.001136914,0.001680364,-4.9981e-05,5.1469e-05,-5.1493e-05
335.0,-0.003290764,-0.000258272,0.006374685,0.001136914,0.001680364,-4.9981e-05,5.1469e-05,-5.1493e-05
336.0,-0.003290764,-0.000258272,0.006374685,0.001136914,0.001680364,-4.9981e-05,5.1469e-05,-5.1493e-05
337.0,-0.003290764,-0.000258272,0.006374685,0.001136914,0.001680364,-9.9981e-05,5.1469e-05,-1.493e-06
338.0,-0.003290764,-0.000258272,0.006374685,0.001136914,0.001680364,-9.9981e-05,5.1469e-05,-1.493e-06
339.0,-0.003290764,-0.000258272,0.006374685,0.001136914,0.001680364,-9.9981e-05,5.1469e-05,-1.493e-06
340.0,-0.003290764,-0.000258272,0.006374685,0.001136914,0.001680364,-9.9981e-05,5.1469e-05,-1.493e-06
341.0,-0.003290764,-0.000258272,0.006374685,0.001136914,0.001680364,-4.9981e-05,5.1469e-05,-5.1493e-05
342.0,-0.003290764,-0.000258272,0.006374685,0.001136914,0.001680364,-4.9981e-05,5.1469e-05,-5.1493e-05
343.0,-0.003290764,-0.000258272,0.006374685,0.001136914,0.001680364,-4.9981e-05,5.1469e-05,-5.1493e-05
344.0,-0.003290764,-0.000258272,0.006374685,0.001136914,0.001680364,-4.9981e-05,5.1469e-05,-5.1493e-05
345.0,-0.003290764,-0.000258272,0.006374685,0.001136914,0.001680364,-9.9981e-05,5.1469e-05,-1.493e-06
346.0,-0.003290764,-0.000258272,0.006374685,0.001186914,0.001630364,-9.9981e-05,5.1469e-05,-1.493e-06
347.0,-0.003290764,-0.000258272,0.006374685,0.001136914,0.001680364,-9.9981e-05,5.1469e-05,-1.493e-06
348.0,-0.003290764,-0.000258272,0.006374685,0.001136914,0.001680364,-9.9981e-05,5.1469e-05,-1.493e-06
349.0,-0.003290764,-0.000258272,0.006374685,0.001136914,0.001680364,-9.9981e-05,5.1469e-05,-1.493e-06
350.0,-0.003290764,-0.000258272,0.006374685,0.001136914,0.001680364,-9.9981e-05,5.1469e-05,-1.493e-06
351.0,-0.003290764,-0.000258272,0.006374685,0.001136914,0.001680364,-9.9981e-05,5.1469e-05,-1.493e-06
352.0,-0.003290764,-0.000258272,0.006374685,0.001136914,0.001680364,-9.9981e-05,5.1469e-05,-1.493e-06
353.0,-0.003290764,-0.000258272,0.006374685,0.001136914,0.001680364,-9.9981e-05,5.1469e-05,-1.493e-06
354.0,-0.003290764,-0.000258272,0.006374685,0.001136914,0.001680364,-4.9981e-05,5.1469e-05,-5.1493e-05
355.0,-0.003290764,-0.000258272,0.006374685,0.001136914,0.001680364,-4.9981e-05,5.1469e-05,-5.1493e-05
356.0,-0.003290764,-0.000258272,0.006374685,0.001136914,0.001680364,-4.9981e-05,5.1469e-05,-5.1493e-05
357.0,-0.003290764,-0.000258272,0.006374685,0.001136914,0.001680364,-4.9981e-05,5.1469e-05,-5.1493e-05
358.0,-0.003290764,-0.000258272,0.006374685,0.001136914,0.001680364,-4.9981e-05,5.1469e-05,-5.1493e-05
359.0,-0.003290764,-0.000258272,0.006374685,0.001136914,0.001680364,-4.9981e-05,5.1469e-05,-5.1493e-05
360.0,-0.003290764,-0.000258272,0.006374685,0.001136914,0.001680364,-4.9981e-05,5.1469e-05,-5.1493e-05
361.0,-0.003290764,-0.000258272,0.006374685,0.001136914,0.001680364,-4.9981e-05,5.1469e-05,-5.1493e-05
362.0,-0.003290764,-0.000258272,0.006374685,0.001136914,0.001680364,-4.9981e-05,5.1469e-05,-5.1493e-05
363.0,-0.003290764,-0.000258272,0.006374685,0.001136914,0.001680364,-4.9981e-05,5.1469e-05,-5.1493e-05
364.0,-0.003290764,-0.000258272,0.006374685,0.001136914,0.001680364,-9.9981e-05,5.1469e-05,-1.493e-06
365.0,-0.003290764,-0.000258272,0.006374685,0.001136914,0.001680364,-9.9981e-05,5.1469e-05,-1.493e-06
366.0,-0.003290764,-0.000258272,0.006374685,0.001136914,0.001680364,-9.9981e-05,5.1469e-05,-1.493e-06
367.0,-0.003290764,-0.000258272,0.006374685,0.001186914,0.001630364,-9.9981e-05,5.1469e-05,-1.493e-06
368.0,-0.003290764,-0.000258272,0.006374685,0.001186914,0.001630364,-9.9981e-05,5.1469e-05,-1.493e-06
369.0,-0.003290764,-0.000258272,0.006374685,0.001136914,0.001680364,-9.9981e-05,5.1469e-05,-1.493e-06
370.0,-0.003290764,-0.000258272,0.006374685,0.001136914,0.001680364,-9.9981e-05,5.1469e-05,-1.493e-06
371.0,-0.003290764,-0.000258272,0.006374685,0.001136914,0.001680364,-4.9981e-05,5.1469e-05,-5.1493e-05
372.0,-0.003290764,-0.000258272,0.006374685,0.001136914,0.001680364,-9.9981e-05,5.1469e-05,-1.493e-06
373.0,-0.003340764,-0.000258272,0.006374685,0.001136914,0.001680364,-9.9981e-05,0.000101469,-1.493e-06
374.0,-0.003340764,-0.000258272,0.006374685,0.001136914,0.001680364,-9.9981e-05,0.000101469,-1.493e-06
375.0,-0.003340764,-0.000258272,0.006374685,0.001136914,0.001680364,-9.9981e-05,0.000101469,-1.493e-06
376.0,-0.003340764,-0.000258272,0.006374685,0.001136914,0.001680364,-9.9981e-05,0.000101469,-1.493e-06
377.0,-0.003340764,-0.000258272,0.006374685,0.001136914,0.001680364,-9.9981e-05,0.000101469,-1.493e-06
378.0,-0.003340764,-0.000258272,0.006374685,0.001136914,0.001680364,-9.9981e-05,0.000101469,-1.493e-06
379.0,-0.003340764,-0.000258272,0.006374685,0.001136914,0.001680364,-4.9981e-05,5.1469e-05,-1.493e-06
380.0,-0.003290764,-0.000258272,0.006374685,0.001136914,0.001680364,-9.9981e-05,5.1469e-05,-1.493e-06
381.0,-0.003290764,-0.000258272,0.006374685,0.001136914,0.001680364,-9.9981e-05,5.1469e-05,-1.493e-06
382.0,-0.003290764,-0.000258272,0.006374685,0.001136914,0.001680364,-9.9981e-05,5.1469e-05,-1.493e-06
383.0,-0.003290764,-0.000258272,0.006374685,0.001136914,0.001680364,-9.9981e-05,5.1469e-05,-1.493e-06
384.0,-0.003290764,-0.000258272,0.006374685,0.001136914,0.001680364,-4.9981e-05,5.1469e-05,-5.1493e-05
385.0,-0.003290764,-0.000258272,0.006374685,0.001136914,0.001680364,-4.9981e-05,5.1469e-05,-5.1493e-05
386.0,-0.003290764,-0.000258272,0.006374685,0.001136914,0.001680364,-4.9981e-05,5.1469e-05,-5.1493e-05
387.0,-0.003290764,-0.000258272,0.006374685,0.001136914,0.001680364,-4.9981e-05,5.1469e-05,-5.1493e-05
388.0,-0.003290764,-0.000258272,0.006374685,0.001136914,0.001680364,-4.9981e-05,5.1469e-05,-5.1493e-05
389.0,-0.003290764,-0.000258272,0.006374685,0.001136914,0.001680364,-4.9981e-05,5.1469e-05,-5.1493e-05
390.0,-0.003290764,-0.000258272,0.006374685,0.001136914,0.001680364,-4.9981e-05,5.1469e-05,-5.1493e-05
391.0,-0.003290764,-0.000258272,0.006374685,0.001136914,0.001680364,-9.9981e-05,5.1469e-05,-1.493e-06
392.0,-0.003290764,-0.000258272,0.006374685,0.001136914,0.001680364,-9.9981e-05,5.1469e-05,-1.493e-06
393.0,-0.003290764,-0.000258272,0.006374685,0.001136914,0.001680364,-9.9981e-05,5.1469e-05,-1.493e-06
394.0,-0.003290764,-0.000258272,0.006374685,0.001136914,0.001680364,-9.9981e-05,5.1469e-05,-1.493e-06
395.0,-0.003290764,-0.000258272,0.006374685,0.001136914,0.001680364,-9.9981e-05,5.1469e-05,-1.493e-06
396.0,-0.003290764,-0.000258272,0.006374685,0.001136914,0.001680364,-9.9981e-05,5.1469e-05,-1.493e-06
397.0,-0.003290764,-0.000258272,0.006324685,0.001136914,0.001680364,-9.9981e-05,0.000101469,-1.493e-06
398.0,-0.003290764,-0.000258272,0.006324685,0.001136914,0.001680364,-9.9981e-05,0.000101469,-1.493e-06
399.0,-0.003290764,-0.000258272,0.006324685,0.001136914,0.001680364,-9.9981e-05,0.000101469,-1.493e-06
400.0,-0.003290764,-0.000258272,0.006324685,0.001136914,0.001680364,-9.9981e-05,0.000101469,-1.493e-06
401.0,-0.003290764,-0.000258272,0.006324685,0.001136914,0.001680364,-9.9981e-05,0.000101469,-1.493e-06
402.0,-0.003290764,-0.000258272,0.006324685,0.001136914,0.001680364,-9.9981e-05,0.000101469,-1.493e-06
403.0,-0.003290764,-0.000258272,0.006324685,0.001136914,0.001680364,-9.9981e-05,0.000101469,-1.493e-06
404.0,-0.003290764,-0.000258272,0.006324685,0.001136914,0.001680364,-9.9981e-05,0.000101469,-1.493e-06
405.0,-0.003290764,-0.000258272,0.006324685,0.001136914,0.001680364,-9.9981e-05,0.000101469,-1.493e-06
406.0,-0.003290764,-0.000258272,0.006324685,0.001136914,0.001680364,-9.9981e-05,0.000101469,-1.493e-06
407.0,-0.003290764,-0.000258272,0.006324685,0.001136914,0.001680364,-9.9981e-05,0.000101469,-1.493e-06
408.0,-0.003290764,-0.000258272,0.006324685,0.001136914,0.001680364,-9.9981e-05,0.000101469,-1.493e-06
409.0,-0.003290764,-0.000258272,0.006324685,0.001136914,0.001680364,-9.9981e-05,0.000101469,-1.493e-06
410.0,-0.003290764,-0.000258272,0.006324685,0.001186914,0.001630364,-9.9981e-05,0.000101469,-1.493e-06
411.0,-0.003290764,-0.000258272,0.006324685,0.001186914,0.001630364,-9.9981e-05,0.000101469,-1.493e-06
412.0,-0.003290764,-0.000258272,0.006324685,0.001186914,0.001630364,-9.9981e-05,0.000101469,-1.493e-06
413.0,-0.003290764,-0.000258272,0.006324685,0.001186914,0.001630364,-9.9981e-05,0.000101469,-1.493e-06
414.0,-0.003290764,-0.000258272,0.006324685,0.001186914,0.001630364,-4.9981e-05,0.000101469,-5.1493e-05
415.0,-0.003290764,-0.000258272,0.006374685,0.001186914,0.001630364,-9.9981e-05,0.000101469,-5.1493e-05
416.0,-0.003290764,-0.000258272,0.006374685,0.001186914,0.001630364,-9.9981e-05,0.000101469,-5.1493e-05
417.0,-0.003290764,-0.000258272,0.006374685,0.001136914,0.001630364,-4.9981e-05,0.000101469,-5.1493e-05
418.0,-0.003290764,-0.000258272,0.006374685,0.001136914,0.001630364,-4.9981e-05,0.000101469,-5.1493e-05
419.0,-0.003290764,-0.000258272,0.006374685,0.001136914,0.001630364,-4.9981e-05,0.000101469,-5.1493e-05
420.0,-0.003290764,-0.000258272,0.006374685,0.001136914,0.001630364,-9.9981e-05,0.000101469,-1.493e-06
421.0,-0.003290764,-0.000258272,0.006374685,0.001136914,0.001630364,-9.9981e-05,0.000101469,-1.493e-06
422.0,-0.003290764,-0.000258272,0.006374685,0.001136914,0.001630364,-4.9981e-05,0.000101469,-5.1493e-05
423.0,-0.003290764,-0.000258272,0.006374685,0.001136914,0.001630364,-4.9981e-05,0.000101469,-5.1493e-05
424.0,-0.003290764,-0.000258272,0.006374685,0.001136914,0.001630364,-4.9981e-05,0.000101469,-5.1493e-05
425.0,-0.003290764,-0.000258272,0.006374685,0.001136914,0.001630364,-4.9981e-05,0.000101469,-5.1493e-05
426.0,-0.003290764,-0.000258272,0.006324685,0.001186914,0.001630364,-4.9981e-05,0.000101469,-5.1493e-05
427.0,-0.003290764,-0.000258272,0.006324685,0.001186914,0.001630364,-4.9981e-05,0.000101469,-5.1493e-05
428.0,-0.003290764,-0.000258272,0.006324685,0.001186914,0.001630364,-4.9981e-05,0.000101469,-5.1493e-05
429.0,-0.003290764,-0.000258272,0.006324685,0.001186914,0.001630364,-4.9981e-05,0.000101469,-5.1493e-05
430.0,-0.003290764,-0.000258272,0.006324685,0.001136914,0.001680364,-4.9981e-05,0.000101469,-5.1493e-05
431.0,-0.003290764,-0.000308272,0.006374685,0.001136914,0.001680364,-4.9981e-05,0.000101469,-5.1493e-05
432.0,-0.003290764,-0.000258272,0.006374685,0.001136914,0.001680364,-9.9981e-05,0.000101469,-5.1493e-05
433.0,-0.003290764,-0.000258272,0.006374685,0.001136914,0.001680364,-4.9981e-05,0.000101469,-0.000101493
434.0,-0.003290764,-0.000258272,0.006374685,0.001136914,0.001680364,-4.9981e-05,0.000101469,-0.000101493
435.0,-0.003290764,-0.000258272,0.006374685,0.001136914,0.001680364,-4.9981e-05,0.000101469,-0.000101493
436.0,-0.003290764,-0.000258272,0.006374685,0.001136914,0.001680364,-4.9981e-05,0.000101469,-0.000101493
437.0,-0.003290764,-0.000258272,0.006374685,0.001136914,0.001680364,-4.9981e-05,0.000101469,-0.000101493
438.0,-0.003290764,-0.000258272,0.006374685,0.001136914,0.001680364,-4.9981e-05,0.000101469,-0.000101493
439.0,-0.003290764,-0.000258272,0.006374685,0.001136914,0.001680364,-4.9981e-05,0.000101469,-0.000101493
440.0,-0.003290764,-0.000258272,0.006374685,0.001136914,0.001680364,-4.9981e-05,0.000101469,-0.000101493
441.0,-0.003290764,-0.000258272,0.006374685,0.001136914,0.001680364,-4.9981e-05,0.000101469,-0.000101493
442.0,-0.003290764,-0.000258272,0.006374685,0.001136914,0.001680364,-4.9981e-05,0.000101469,-0.000101493
443.0,-0.003290764,-0.000258272,0.006374685,0.001136914,0.001680364,-9.9981e-05,0.000101469,-5.1493e-05
444.0,-0.003290764,-0.000258272,0.006374685,0.001136914,0.001680364,-9.9981e-05,0.000101469,-5.1493e-05
445.0,-0.003290764,-0.000258272,0.006374685,0.001136914,0.001680364,-9.9981e-05,0.000101469,-5.1493e-05
446.0,-0.003290764,-0.000258272,0.006374685,0.001136914,0.001680364,-9.9981e-05,0.000101469,-5.1493e-05
447.0,-0.003290764,-0.000258272,0.006374685,0.001136914,0.001680364,-9.9981e-05,0.000101469,-5.1493e-05
448.0,-0.003290764,-0.000258272,0.006374685,0.001136914,0.001680364,-9.9981e-05,0.000101469,-5.1493e-05
449.0,-0.003290764,-0.000258272,0.006374685,0.001136914,0.001680364,-9.9981e-05,0.000101469,-5.1493e-05
450.0,-0.003290764,-0.000258272,0.006374685,0.001136914,0.001680364,-9.9981e-05,0.000101469,-5.1493e-05
451.0,-0.003290764,-0.000258272,0.006374685,0.001136914,0.001680364,-9.9981e-05,0.000101469,-5.1493e-05
452.0,-0.003290764,-0.000258272,0.006374685,0.001136914,0.001680364,-9.9981e-05,0.000101469,-5.1493e-05
453.0,-0.003290764,-0.000258272,0.006374685,0.001136914,0.001680364,-9.9981e-05,0.000101469,-5.1493e-05
454.0,-0.003290764,-0.000258272,0.006374685,0.001136914,0.001680364,-9.9981e-05,0.000101469,-5.1493e-05
455.0,-0.003290764,-0.000258272,0.006374685,0.001136914,0.001680364,-4.9981e-05,0.000101469,-0.000101493
456.0,-0.003290764,-0.000258272,0.006374685,0.001136914,0.001680364,-4.9981e-05,0.000101469,-0.000101493
457.0,-0.003290764,-0.000258272,0.006374685,0.001136914,0.001680364,-9.9981e-05,0.000101469,-5.1493e-05
458.0,-0.003290764,-0.000258272,0.006374685,0.001136914,0.001680364,-9.9981e-05,0.000101469,-5.1493e-05
459.0,-0.003290764,-0.000258272,0.006374685,0.001136914,0.001680364,-9.9981e-05,0.000101469,-5.1493e-05
460.0,-0.003290764,-0.000258272,0.006374685,0.001136914,0.001680364,-9.9981e-05,0.000101469,-5.1493e-05
461.0,-0.003290764,-0.000258272,0.006374685,0.001136914,0.001680364,-9.9981e-05,0.000101469,-5.1493e-05
462.0,-0.003290764,-0.000258272,0.006374685,0.001136914,0.001680364,-9.9981e-05,0.000101469,-5.1493e-05
463.0,-0.003290764,-0.000258272,0.006374685,0.001136914,0.001680364,-0.000149981,0.000101469,-1.493e-06
464.0,-0.003290764,-0.000258272,0.006374685,0.001136914,0.001680364,-9.9981e-05,0.000101469,-5.1493e-05
465.0,-0.003290764,-0.000258272,0.006374685,0.001136914,0.001680364,-9.9981e-05,0.000101469,-5.1493e-05
466.0,-0.003290764,-0.000258272,0.006374685,0.001136914,0.001680364,-9.9981e-05,0.000101469,-5.1493e-05
467.0,-0.003335613,-0.000258272,0.006374685,0.001136914,0.001680364,-5.5131e-05,0.000101469,-5.1493e-05
468.0,-0.003335613,-0.000258272,0.006374685,0.001136914,0.001680364,-5.5131e-05,0.000101469,-5.1493e-05
469.0,-0.003335613,-0.000258272,0.006374685,0.001136914,0.001680364,-5.5131e-05,0.000101469,-5.1493e-05
470.0,-0.003335613,-0.000258272,0.006374685,0.001136914,0.001680364,-5.5131e-05,0.000101469,-5.1493e-05
471.0,-0.003335613,-0.000258272,0.006374685,0.001136914,0.001680364,-0.000105131,0.000101469,-1.493e-06
472.0,-0.003335613,-0.000258272,0.006374685,0.001136914,0.001680364,-0.000105131,0.000101469,-1.493e-06
473.0,-0.003335613,-0.000258272,0.006374685,0.001136914,0.001680364,-0.000105131,0.000101469,-1.493e-06
474.0,-0.003335613,-0.000258272,0.006374685,0.001136914,0.001680364,-0.000105131,0.000101469,-1.493e-06
475.0,-0.003335613,-0.000258272,0.006374685,0.001136914,0.001680364,-0.000105131,0.000101469,-1.493e-06
476.0,-0.003335613,-0.000258272,0.006374685,0.001136914,0.001680364,-0.000105131,0.000101469,-1.493e-06
477.0,-0.003335613,-0.000258272,0.006374685,0.001136914,0.001680364,-0.000105131,0.000101469,-1.493e-06
478.0,-0.003335613,-0.000258272,0.006374685,0.001136914,0.001680364,-0.000105131,0.000101469,-1.493e-06
479.0,-0.003335613,-0.000258272,0.006374685,0.001136914,0.001680364,-5.5131e-05,0.000101469,-5.1493e-05
480.0,-0.003335613,-0.000258272,0.006374685,0.001136914,0.001680364,-5.5131e-05,0.000101469,-5.1493e-05
481.0,-0.003335613,-0.000258272,0.006374685,0.001136914,0.001680364,-5.5131e-05,0.000101469,-5.1493e-05
482.0,-0.003335613,-0.000258272,0.006374685,0.001136914,0.001680364,-5.5131e-05,0.000101469,-5.1493e-05
483.0,-0.003335613,-0.000258272,0.006374685,0.001136914,0.001680364,-5.5131e-05,0.000101469,-5.1493e-05
484.0,-0.003335613,-0.000258272,0.006374685,0.001136914,0.001680364,-5.5131e-05,0.000101469,-5.1493e-05
485.0,-0.003335613,-0.000258272,0.006374685,0.001136914,0.001680364,-0.000105131,0.000101469,-1.493e-06
486.0,-0.003335613,-0.000258272,0.006374685,0.001136914,0.001680364,-0.000105131,0.000101469,-1.493e-06
487.0,-0.003335613,-0.000258272,0.006374685,0.001136914,0.001680364,-0.000105131,0.000101469,-1.493e-06
488.0,-0.003335613,-0.000258272,0.006374685,0.001136914,0.001680364,-0.000105131,0.000101469,-1.493e-06
489.0,-0.003335613,-0.000258272,0.006374685,0.001136914,0.001680364,-5.5131e-05,5.1469e-05,-1.493e-06
490.0,-0.003335613,-0.000258272,0.006374685,0.001136914,0.001680364,-5.5131e-05,5.1469e-05,-1.493e-06
491.0,-0.003335613,-0.000208272,0.006374685,0.001086914,0.001680364,-5.5131e-05,5.1469e-05,-1.493e-06
492.0,-0.003335613,-0.000208272,0.006374685,0.001086914,0.001680364,-5.5131e-05,5.1469e-05,-1.493e-06
493.0,-0.003335613,-0.000208272,0.006374685,0.001086914,0.001680364,-5.5131e-05,5.1469e-05,-1.493e-06
494.0,-0.003335613,-0.000208272,0.006374685,0.001136914,0.001680364,-0.000105131,5.1469e-05,-1.493e-06
495.0,-0.003335613,-0.000208272,0.006374685,0.001136914,0.001680364,-0.000105131,5.1469e-05,-1.493e-06
496.0,-0.003335613,-0.000208272,0.006374685,0.001136914,0.001680364,-0.000105131,5.1469e-05,-1.493e-06
497.0,-0.003335613,-0.000208272,0.006374685,0.001136914,0.001680364,-0.000105131,5.1469e-05,-1.493e-06
498.0,-0.003335613,-0.000208272,0.006374685,0.001136914,0.001680364,-0.000155131,0.000101469,-1.493e-06
499.0,-0.003335613,-0.000208272,0.006374685,0.001136914,0.001680364,-0.000155131,0.000101469,-1.493e-06
500.0,-0.003335613,-0.000208272,0.006374685,0.001136914,0.001680364,-0.000155131,0.000101469,-1.493e-06
501.0,-0.003335613,-0.000208272,0.006374685,0.001136914,0.001680364,-0.000155131,0.000101469,-1.493e-06
502.0,-0.003335613,-0.000208272,0.006374685,0.001136914,0.001680364,-0.000155131,0.000101469,-1.493e-06
503.0,-0.003335613,-0.000208272,0.006374685,0.001136914,0.001680364,-0.000105131,0.000101469,-5.1493e-05
504.0,-0.003335613,-0.000208272,0.006374685,0.001136914,0.001680364,-0.000155131,0.000101469,-1.493e-06
505.0,-0.003335613,-0.000208272,0.006374685,0.001136914,0.001680364,-0.000105131,0.000101469,-5.1493e-05
506.0,-0.003335613,-0.000208272,0.006374685,0.001136914,0.001680364,-0.000105131,0.000101469,-5.1493e-05
507.0,-0.003335613,-0.000208272,0.006374685,0.001136914,0.001680364,-0.000105131,0.000101469,-5.1493e-05
508.0,-0.003335613,-0.000208272,0.006374685,0.001136914,0.001680364,-0.000105131,0.000101469,-5.1493e-05
509.0,-0.003285613,-0.000258272,0.006374685,0.001136914,0.001680364,-0.000105131,0.000101469,-5.1493e-05
510.0,-0.003285613,-0.000258272,0.006374685,0.001136914,0.001680364,-0.000105131,0.000101469,-5.1493e-05
511.0,-0.003285613,-0.000258272,0.006374685,0.001136914,0.001680364,-0.000105131,0.000101469,-5.1493e-05
512.0,-0.003285613,-0.000258272,0.006374685,0.001136914,0.001680364,-0.000105131,0.000101469,-5.1493e-05
513.0,-0.003285613,-0.000258272,0.006374685,0.001136914,0.001680364,-0.000105131,0.000101469,-5.1493e-05
514.0,-0.003285613,-0.000258272,0.006374685,0.001136914,0.001680364,-0.000105131,0.000101469,-5.1493e-05
515.0,-0.003285613,-0.000258272,0.006374685,0.001136914,0.001680364,-0.000105131,0.000101469,-5.1493e-05
516.0,-0.003285613,-0.000258272,0.006374685,0.001136914,0.001680364,-0.000105131,0.000101469,-5.1493e-05
517.0,-0.003285613,-0.000258272,0.006374685,0.001136914,0.001680364,-0.000155131,0.000101469,-1.493e-06
518.0,-0.003285613,-0.000258272,0.006374685,0.001136914,0.001680364,-0.000155131,0.000101469,-1.493e-06
519.0,-0.003285613,-0.000258272,0.006374685,0.001136914,0.001680364,-0.000105131,0.000101469,-5.1493e-05
520.0,-0.003285613,-0.000258272,0.006374685,0.001136914,0.001680364,-0.000105131,0.000101469,-5.1493e-05
521.0,-0.003285613,-0.000258272,0.006374685,0.001136914,0.001680364,-0.000105131,0.000101469,-5.1493e-05
522.0,-0.003285613,-0.000258272,0.006374685,0.001136914,0.001680364,-0.000105131,0.000101469,-5.1493e-05
523.0,-0.003285613,-0.000258272,0.006374685,0.001136914,0.001680364,-0.000105131,0.000101469,-5.1493e-05
524.0,-0.003285613,-0.000258272,0.006374685,0.001136914,0.001680364,-0.000105131,0.000101469,-5.1493e-05
525.0,-0.003285613,-0.000258272,0.006374685,0.001136914,0.001680364,-0.000155131,0.000101468,-1.493e-06
526.0,-0.003285613,-0.000258272,0.006374685,0.001136914,0.001680364,-0.000155131,0.000101468,-1.493e-06
527.0,-0.003285613,-0.000258272,0.006374685,0.001136914,0.001680364,-0.000155131,0.000101468,-1.493e-06
528.0,-0.003285613,-0.000258272,0.006374685,0.001186914,0.001630364,-0.000155131,0.000101468,-1.493e-06
529.0,-0.003285613,-0.000258272,0.006374685,0.001186914,0.001630364,-0.000155131,0.000101468,-1.493e-06
530.0,-0.003285613,-0.000208272,0.006374685,0.001136914,0.001630364,-0.000155131,0.000101468,-1.493e-06
531.0,-0.003285613,-0.000208272,0.006374685,0.001136914,0.001630364,-0.000155131,0.000101468,-1.493e-06
532.0,-0.003285613,-0.000208272,0.006374685,0.001136914,0.001630364,-0.000105131,0.000101468,-5.1493e-05
533.0,-0.003285613,-0.000208272,0.006374685,0.001136914,0.001630364,-0.000105131,0.000101468,-5.1493e-05
534.0,-0.003285613,-0.000208272,0.006374685,0.001136914,0.001630364,-0.000105131,0.000101468,-5.1493e-05
535.0,-0.003285613,-0.000208272,0.006374685,0.001136914,0.001630364,-0.000105131,0.000101468,-5.1493e-05
536.0,-0.003285613,-0.000208272,0.006374685,0.001136914,0.001630364,-0.000105131,0.000101468,-5.1493e-05
537.0,-0.003285613,-0.000208272,0.006374685,0.001136914,0.001630364,-0.000105131,0.000101468,-5.1493e-05
538.0,-0.003285613,-0.000208272,0.006374685,0.001136914,0.001630364,-0.000105131,0.000101468,-5.1493e-05
539.0,-0.003285613,-0.000208272,0.006374685,0.001136914,0.001630364,-0.000105131,0.000101468,-5.1493e-05
540.0,-0.003335613,-0.000208272,0.006374685,0.001186914,0.001630364,-0.000105131,0.000101468,-5.1493e-05
541.0,-0.003335613,-0.000208272,0.006374685,0.001186914,0.001630364,-0.000105131,0.000101468,-5.1493e-05
542.0,-0.003335613,-0.000208272,0.006374685,0.001186914,0.001630364,-0.000105131,0.000101468,-5.1493e-05
543.0,-0.003335613,-0.000208272,0.006374685,0.001136914,0.001680364,-0.000105131,0.000101468,-5.1493e-05
544.0,-0.003335613,-0.000208272,0.006374685,0.001136914,0.001680364,-0.000155131,0.000101468,-1.493e-06
545.0,-0.003335613,-0.000208272,0.006374685,0.001136914,0.001680364,-0.000155131,0.000101468,-1.493e-06
546.0,-0.003335613,-0.000208272,0.006374685,0.001136914,0.001680364,-0.000155131,0.000101468,-1.493e-06
547.0,-0.003335613,-0.000208272,0.006374685,0.001136914,0.001680364,-0.000155131,0.000101468,-1.493e-06
548.0,-0.003335613,-0.000208272,0.006374685,0.001136914,0.001680364,-0.000155131,0.000101468,-1.493e-06
549.0,-0.003335613,-0.000208272,0.006374685,0.001136914,0.001680364,-0.000155131,0.000101468,-1.493e-06
550.0,-0.003335613,-0.000208272,0.006374685,0.001136914,0.001680364,-0.000155131,0.000101468,-1.493e-06
551.0,-0.003335613,-0.000208272,0.006374685,0.001136914,0.001680364,-0.000155131,0.000101468,-1.493e-06
552.0,-0.003335613,-0.000208272,0.006374685,0.001136914,0.001680364,-0.000105131,0.000101468,-5.1493e-05
553.0,-0.003335613,-0.000208272,0.006374685,0.001136914,0.001680364,-0.000105131,0.000101468,-5.1493e-05
554.0,-0.003335613,-0.000208272,0.006374685,0.001136914,0.001680364,-0.000105131,0.000101468,-5.1493e-05
555.0,-0.003335613,-0.000208272,0.006374685,0.001136914,0.001680364,-0.000105131,0.000101468,-5.1493e-05
556.0,-0.003335613,-0.000208272,0.006374685,0.001136914,0.001680364,-0.000105131,0.000101468,-5.1493e-05
557.0,-0.003335613,-0.000208272,0.006374685,0.001136914,0.001680364,-0.000105131,0.000101468,-5.1493e-05
558.0,-0.003335613,-0.000208272,0.006374685,0.001136914,0.001680364,-0.000155131,0.000101468,-1.493e-06
559.0,-0.003335613,-0.000208272,0.006374685,0.001136914,0.001680364,-0.000155131,0.000101468,-1.493e-06
560.0,-0.003335613,-0.000208272,0.006374685,0.001136914,0.001680364,-0.000155131,0.000101468,-1.493e-06
561.0,-0.003335613,-0.000208272,0.006374685,0.001136914,0.001680364,-0.000155131,0.000101468,-1.493e-06
562.0,-0.003285613,-0.000208272,0.006374685,0.001136914,0.001680364,-0.000155131,5.1468e-05,-1.493e-06
563.0,-0.003285613,-0.000208272,0.006374685,0.001136914,0.001680364,-0.000155131,5.1468e-05,-1.493e-06
564.0,-0.003335613,-0.000208272,0.006374685,0.001136914,0.001680364,-0.000155131,0.000101468,-1.493e-06
565.0,-0.003335613,-0.000208272,0.006374685,0.001136914,0.001680364,-0.000155131,0.000101468,-1.493e-06
566.0,-0.003335613,-0.000208272,0.006374685,0.001136914,0.001680364,-0.000155131,0.000101468,-1.493e-06
567.0,-0.003335613,-0.000208272,0.006374685,0.001136914,0.001680364,-0.000155131,0.000101468,-1.493e-06
568.0,-0.003335613,-0.000208272,0.006374685,0.001136914,0.001680364,-0.000155131,0.000101468,-1.493e-06
569.0,-0.003335613,-0.000208272,0.006374685,0.001136914,0.001680364,-0.000155131,0.000101468,-1.493e-06
570.0,-0.003335613,-0.000258272,0.006374685,0.001136914,0.001680364,-0.000155131,0.000101468,4.8506e-05
571.0,-0.003285613,-0.000258272,0.006324685,0.001136914,0.001680364,-0.000155131,0.000101468,4.8506e-05
572.0,-0.003285613,-0.000258272,0.006324685,0.001136914,0.001680364,-0.000105131,0.000101468,-1.493e-06
573.0,-0.003285613,-0.000258272,0.006324685,0.001136914,0.001680364,-0.000105131,0.000101468,-1.493e-06
574.0,-0.003285613,-0.000208275,0.006324685,0.001136914,0.001680364,-0.000105131,0.000101468,-5.1493e-05
575.0,-0.003285613,-0.000258275,0.006374685,0.001136914,0.001680364,-0.000105131,0.000101468,-5.1493e-05
576.0,-0.003285613,-0.000258275,0.006374685,0.001136914,0.001680364,-0.000105131,0.000101468,-5.1493e-05
577.0,-0.003285613,-0.000258275,0.006374685,0.001136914,0.001680364,-0.000105131,0.000101468,-5.1493e-05
578.0,-0.003285613,-0.000258275,0.006374685,0.001136914,0.001680364,-0.000155131,0.000101468,-1.493e-06
579.0,-0.003285613,-0.000258275,0.006374685,0.001136914,0.001680364,-0.000155131,0.000101468,-1.493e-06
580.0,-0.003285613,-0.000258275,0.006374685,0.001136914,0.001680364,-0.000155131,0.000101468,-1.493e-06
581.0,-0.003285613,-0.000258275,0.006374685,0.001136914,0.001680364,-0.000155131,0.000101468,-1.493e-06
582.0,-0.003285613,-0.000258275,0.006374685,0.001136914,0.001680364,-0.000155131,0.000101468,-1.493e-06
583.0,-0.003285613,-0.000258275,0.006374685,0.001136914,0.001680364,-0.000155131,0.000101468,-1.493e-06
584.0,-0.003285613,-0.000258275,0.006374685,0.001136914,0.001680364,-0.000105131,0.000101468,-5.1493e-05
585.0,-0.003285613,-0.000258275,0.006374685,0.001136914,0.001680364,-0.000105131,0.000101468,-5.1493e-05
586.0,-0.003285613,-0.000258275,0.006374685,0.001136914,0.001680364,-0.000155131,0.000101468,-1.493e-06
587.0,-0.003285613,-0.000258275,0.006374685,0.001136914,0.001680364,-0.000155131,0.000101468,-1.493e-06
588.0,-0.003285613,-0.000258275,0.006374685,0.001136914,0.001680364,-0.000105131,0.000101468,-5.1493e-05
589.0,-0.003285613,-0.000258275,0.006374685,0.001136914,0.001680364,-0.000105131,0.000101468,-5.1493e-05
590.0,-0.003285613,-0.000258275,0.006374685,0.001136914,0.001680364,-0.000105131,0.000101468,-5.1493e-05
591.0,-0.003285613,-0.000258275,0.006374685,0.001136914,0.001680364,-0.000105131,0.000101468,-5.1493e-05
592.0,-0.003285613,-0.000258275,0.006374685,0.001136914,0.001680364,-0.000105131,0.000101468,-5.1493e-05
593.0,-0.003285613,-0.000258275,0.006374685,0.001136914,0.001680364,-0.000105131,0.000101468,-5.1493e-05
594.0,-0.003285613,-0.000258275,0.006374685,0.001136914,0.001680364,-0.000105131,0.000101468,-5.1493e-05
595.0,-0.003285613,-0.000258275,0.006374685,0.001136914,0.001680364,-0.000105131,0.000101468,-5.1493e-05
596.0,-0.003285613,-0.000258275,0.006374685,0.001136914,0.001680364,-0.000105131,0.000101468,-5.1493e-05
597.0,-0.003285613,-0.000258275,0.006374685,0.001136914,0.001680364,-0.000105131,0.000101468,-5.1493e-05
598.0,-0.003285613,-0.000258275,0.006374685,0.001136914,0.001680364,-0.000105131,0.000101468,-5.1493e-05
599.0,-0.003285613,-0.000258275,0.006374685,0.001136914,0.001680364,-0.000105131,0.000101468,-5.1493e-05
600.0,-0.003285613,-0.000258098,0.006374685,0.001136914,0.001680364,-0.000105307,0.000101468,-5.1493e-05
601.0,-0.003285613,-0.000258098,0.006374685,0.001136914,0.001680364,-0.000105307,0.000101468,-5.1493e-05
602.0,-0.003285613,-0.000258098,0.006374685,0.001136914,0.001680364,-0.000105307,0.000101468,-5.1493e-05
603.0,-0.003285613,-0.000258098,0.006374685,0.001136914,0.001680364,-0.000105307,0.000101468,-5.1493e-05
604.0,-0.003285613,-0.000258098,0.006374685,0.001136914,0.001680364,-0.000155307,0.000101468,-1.493e-06
605.0,-0.003335613,-0.000208098,0.006374685,0.001136914,0.001680364,-0.000155307,0.000101468,-1.493e-06
606.0,-0.003335613,-0.000208098,0.006374685,0.001136914,0.001680364,-0.000155307,0.000101468,-1.493e-06
607.0,-0.003335613,-0.000208098,0.006374685,0.001136914,0.001680364,-0.000155307,0.000101468,-1.493e-06
608.0,-0.003335613,-0.000208098,0.006374685,0.001136914,0.001680364,-0.000155307,0.000101468,-1.493e-06
609.0,-0.003335613,-0.000208098,0.006374685,0.001136914,0.001680364,-0.000155307,0.000101468,-1.493e-06
610.0,-0.003335613,-0.000208098,0.006374685,0.001136914,0.001680364,-0.000155307,0.000101468,-1.493e-06
611.0,-0.003335613,-0.000208098,0.006374685,0.001136914,0.001680364,-0.000155307,0.000101468,-1.493e-06
612.0,-0.003335613,-0.000208098,0.006374685,0.001136914,0.001680364,-0.000155307,0.000101468,-1.493e-06
613.0,-0.003335613,-0.000208098,0.006374685,0.001136914,0.001680364,-0.000155307,0.000101468,-1.493e-06
614.0,-0.003335613,-0.000208098,0.006374685,0.001136914,0.001680364,-0.000155307,0.000101468,-1.493e-06
615.0,-0.003335613,-0.000208098,0.006374685,0.001136914,0.001680364,-0.000105307,0.000101468,-5.1493e-05
616.0,-0.003335613,-0.000208098,0.006374685,0.001136914,0.001680364,-0.000105307,0.000101468,-5.1493e-05
617.0,-0.003335613,-0.000208098,0.006374685,0.001136914,0.001680364,-0.000155307,0.000101468,-1.493e-06
618.0,-0.003335613,-0.000208098,0.006374685,0.001136914,0.001680364,-0.000155307,0.000101468,-1.493e-06
619.0,-0.003335613,-0.000208098,0.006374685,0.001136914,0.001680364,-0.000155307,0.000101468,-1.493e-06
620.0,-0.003335613,-0.000208098,0.006374685,0.001136914,0.001680364,-0.000155307,0.000101468,-1.493e-06
621.0,-0.003335613,-0.000208098,0.006374685,0.001136914,0.001680364,-0.000105307,0.000101468,-5.1493e-05
622.0,-0.003335613,-0.000208098,0.006374685,0.001136914,0.001680364,-0.000105307,0.000101468,-5.1493e-05
623.0,-0.003335613,-0.000208098,0.006374685,0.001136914,0.001680364,-0.000105307,0.000101468,-5.1493e-05
624.0,-0.003335613,-0.000208098,0.006374685,0.001136914,0.001680364,-0.000105307,0.000101468,-5.1493e-05
625.0,-0.003335613,-0.000208098,0.006374685,0.001136914,0.001680364,-0.000105307,0.000101468,-5.1493e-05
626.0,-0.003335613,-0.000208098,0.006374685,0.001136914,0.001680364,-0.000105307,0.000101468,-5.1493e-05
627.0,-0.003335613,-0.000258098,0.006374685,0.001186914,0.001680364,-0.000105307,0.000101468,-5.1493e-05
628.0,-0.003335613,-0.000258098,0.006374685,0.001186914,0.001680364,-0.000105307,0.000101468,-5.1493e-05
629.0,-0.003335613,-0.000258098,0.006374685,0.001186914,0.001680364,-0.000105307,0.000101468,-5.1493e-05
630.0,-0.003335613,-0.000258098,0.006374685,0.001186914,0.001680364,-0.000155307,0.000101468,-1.493e-06
631.0,-0.003335613,-0.000258098,0.006374685,0.001186914,0.001680364,-0.000155307,5.1487e-05,4.849e-05
632.0,-0.003335613,-0.000258098,0.006374685,0.001186914,0.001680364,-0.000155307,5.1487e-05,4.849e-05
633.0,-0.003335613,-0.000258098,0.006374685,0.001136914,0.001730364,-0.000155307,5.1487e-05,4.849e-05
634.0,-0.003335613,-0.000258098,0.006374685,0.001136914,0.001730364,-0.000155307,5.1487e-05,4.849e-05
635.0,-0.003335613,-0.000258098,0.006424685,0.001136914,0.001680364,-0.000155307,5.1487e-05,4.849e-05
636.0,-0.003335613,-0.000258098,0.006424685,0.001136914,0.001680364,-0.000155307,5.1487e-05,4.849e-05
637.0,-0.003335613,-0.000258098,0.006424685,0.001136914,0.001680364,-0.000155307,5.1487e-05,4.849e-05
638.0,-0.003335613,-0.000258098,0.006374685,0.001136914,0.001680364,-0.000155307,0.000101487,4.849e-05
639.0,-0.003335613,-0.000258098,0.006374685,0.001136914,0.001680364,-0.000155307,0.000101487,4.849e-05
640.0,-0.003335613,-0.000258098,0.006374685,0.001136914,0.001680364,-0.000155307,0.000101487,4.849e-05
641.0,-0.003335613,-0.000258098,0.006374685,0.001136914,0.001680364,-0.000155307,0.000101487,4.849e-05
642.0,-0.003335613,-0.000258098,0.006374685,0.001136914,0.001680364,-0.000155307,0.000101487,4.849e-05
643.0,-0.003335613,-0.000258098,0.006374685,0.001136914,0.001680364,-0.000105307,0.000101487,-1.509e-06
644.0,-0.003335613,-0.000258098,0.006374685,0.001136914,0.001680364,-0.000105307,0.000101487,-1.509e-06
645.0,-0.003335613,-0.000258098,0.006374685,0.001136914,0.001680364,-0.000105307,0.000101487,-1.509e-06
646.0,-0.003335613,-0.000258098,0.006374685,0.001136914,0.001680364,-0.000105307,0.000101487,-1.509e-06
647.0,-0.003335613,-0.000258098,0.006374685,0.001136914,0.001680364,-0.000105307,0.000101487,-1.509e-06
648.0,-0.003335613,-0.000258098,0.006374685,0.001136914,0.001680364,-0.000105307,0.000101487,-1.509e-06
649.0,-0.003335613,-0.000258098,0.006374685,0.001136914,0.001680364,-0.000105307,0.000101487,-1.509e-06
650.0,-0.003335613,-0.000258098,0.006374685,0.001136914,0.001680364,-0.000105307,0.000101487,-1.509e-06
651.0,-0.003335613,-0.000258098,0.006374685,0.001186914,0.001630364,-0.000105307,0.000101487,-1.509e-06
652.0,-0.003335613,-0.000258098,0.006374685,0.001186914,0.001630364,-0.000105307,0.000101487,-1.509e-06
653.0,-0.003335613,-0.000258098,0.006374685,0.001186914,0.001630364,-0.000105307,0.000101487,-1.509e-06
654.0,-0.003335613,-0.000258098,0.006374685,0.001186914,0.001630364,-0.000105307,0.000101487,-1.509e-06
655.0,-0.003335613,-0.000258098,0.006374685,0.001136914,0.001680364,-0.000105307,0.000101487,-1.509e-06
656.0,-0.003335613,-0.000258098,0.006374685,0.001136914,0.001680364,-0.000105307,0.000101487,-1.509e-06
657.0,-0.003335613,-0.000258098,0.006374685,0.001136914,0.001680364,-0.000105307,0.000101487,-1.509e-06
658.0,-0.003335613,-0.000258098,0.006374685,0.001136914,0.001680364,-0.000105307,0.000101487,-1.509e-06
659.0,-0.003285613,-0.000308098,0.006374685,0.001136914,0.001680364,-0.000105307,0.000101487,-1.509e-06
660.0,-0.003285613,-0.000308098,0.006374685,0.001136914,0.001680364,-0.000105307,0.000101487,-1.509e-06
661.0,-0.003285613,-0.000308098,0.006374685,0.001136914,0.001680364,-0.000105307,0.000101487,-1.509e-06
662.0,-0.003285613,-0.000308098,0.006374685,0.001136914,0.001680364,-0.000105307,0.000101487,-1.509e-06
663.0,-0.003285613,-0.000308098,0.006374685,0.001136914,0.001680364,-0.000105307,0.000101487,-1.509e-06
664.0,-0.003285613,-0.000308098,0.006374685,0.001136914,0.001680364,-0.000105307,0.000101487,-1.509e-06
665.0,-0.003285613,-0.000308098,0.006374685,0.001136914,0.001680364,-0.000105307,0.000101487,-1.509e-06
666.0,-0.003285613,-0.000308098,0.006374685,0.001136914,0.001680364,-0.000105307,0.000101487,-1.509e-06
667.0,-0.003285613,-0.000308098,0.006324685,0.001136914,0.001680364,-0.000105307,0.000151487,-1.509e-06
668.0,-0.003285613,-0.000308098,0.006324685,0.001136914,0.001680364,-0.000105307,0.000151487,-1.509e-06
669.0,-0.003285613,-0.000308098,0.006324685,0.001136914,0.001680364,-0.000105307,0.000151487,-1.509e-06
670.0,-0.003285613,-0.000308098,0.006324685,0.001136914,0.001680364,-0.000105307,0.000151487,-1.509e-06
671.0,-0.003285613,-0.000308098,0.006324685,0.001136914,0.001680364,-0.000105307,0.000151487,-1.509e-06
672.0,-0.003285613,-0.000308098,0.006324685,0.001136914,0.001680364,-0.000105307,0.000151487,-1.509e-06
673.0,-0.003285613,-0.000308098,0.006324685,0.001136914,0.001680364,-0.000105307,0.000151487,-1.509e-06
674.0,-0.003285613,-0.000308098,0.006374685,0.001136914,0.001680364,-0.000155307,0.000151487,-1.509e-06
675.0,-0.003285613,-0.000308098,0.006374685,0.001136914,0.001680364,-0.000155307,0.000151487,-1.509e-06
676.0,-0.003285613,-0.000308098,0.006374685,0.001136914,0.001680364,-0.000155307,0.000151487,-1.509e-06
677.0,-0.003285613,-0.000258098,0.006374685,0.001086914,0.001680364,-0.000155307,0.000151487,-1.509e-06
678.0,-0.003285613,-0.000258098,0.006374685,0.001086914,0.001680364,-0.000155307,0.000151487,-1.509e-06
679.0,-0.003285613,-0.000258098,0.006374685,0.001086914,0.001680364,-0.000155307,0.000151487,-1.509e-06
680.0,-0.003285613,-0.000258098,0.006374685,0.001086914,0.001680364,-0.000155307,0.000151487,-1.509e-06
681.0,-0.003285613,-0.000258098,0.006374685,0.001086914,0.001680364,-0.000155307,0.000151487,-1.509e-06
682.0,-0.003285613,-0.000258098,0.006374685,0.001136914,0.001630364,-0.000155307,0.000151487,-1.509e-06
683.0,-0.003285613,-0.000258098,0.006374685,0.001136914,0.001630364,-0.000155307,0.000151487,-1.509e-06
684.0,-0.003285613,-0.000258098,0.006374685,0.001086914,0.001680364,-0.000155307,0.000151487,-1.509e-06
685.0,-0.003285613,-0.000258098,0.006374685,0.001086914,0.001680364,-0.000155307,0.000151487,-1.509e-06
686.0,-0.003285613,-0.000258098,0.006374685,0.001086914,0.001680364,-0.000155307,0.000151487,-1.509e-06
687.0,-0.003285613,-0.000258098,0.006374685,0.001086914,0.001680364,-0.000155307,0.000151487,-1.509e-06
688.0,-0.003285613,-0.000258098,0.006374685,0.001086914,0.001680364,-0.000155307,0.000151487,-1.509e-06
689.0,-0.003285613,-0.000258098,0.006374685,0.001086914,0.001680364,-0.000155307,0.000151487,-1.509e-06
690.0,-0.003285613,-0.000258098,0.006374685,0.001086914,0.001680364,-0.000155307,0.000151487,-1.509e-06
691.0,-0.003285613,-0.000258098,0.006374685,0.001086914,0.001680364,-0.000155307,0.000151487,-1.509e-06
692.0,-0.003285613,-0.000258098,0.006374685,0.001086914,0.001680364,-0.000155307,0.000151487,-1.509e-06
693.0,-0.003285613,-0.000258098,0.006374685,0.001086914,0.001680364,-0.000155307,0.000151487,-1.509e-06
694.0,-0.003285613,-0.000258098,0.006374685,0.001086914,0.001680364,-0.000155307,0.000151487,-1.509e-06
695.0,-0.003285613,-0.000258098,0.006374685,0.001086914,0.001680364,-0.000155307,0.000151487,-1.509e-06
696.0,-0.003285613,-0.000258098,0.006374685,0.001086914,0.001680364,-0.000155307,0.000151487,-1.509e-06
697.0,-0.003285613,-0.000258098,0.006374685,0.001086914,0.001680364,-0.000155307,0.000151487,-1.509e-06
698.0,-0.003285613,-0.000258098,0.006374685,0.001086914,0.001680364,-0.000155307,0.000151487,-1.509e-06
699.0,-0.003285613,-0.000258098,0.006374685,0.001086914,0.001680364,-0.000155307,0.000151487,-1.509e-06
700.0,-0.003285613,-0.000258098,0.006374685,0.001086914,0.001680364,-0.000155307,0.000151487,-1.509e-06
701.0,-0.003285613,-0.000258098,0.006374685,0.001086914,0.001680364,-0.000155307,0.000151487,-1.509e-06
