0.0,-0.148402896,0.076763368,-0.17374128,0.076775928,0.118744768,0.05898602,-0.04900702,0.059337696,0.092234176,0.07287288,0.104898,-0.105658248,0.117430568,-0.117318928,0.17012272,-0.005226589,-0.191535088,-0.114925552,0.183874688,-0.013834858,0.086087136,0.1988172,-0.034450536,0.207201408,-0.122948624,-0.171541456,-0.182107056,-0.174883904,-0.133154344,0.137386128,-0.229170208,-0.063889548,-0.193493152,-0.134633344,0.133400232,0.062008372,-0.037019076,-0.091248448,-0.193493152,-0.078571648,-0.19601808,0.029899566,0.026398018,-0.209883056,0.065844388,0.153032496,-0.033790244,0.131046984,0.086290464,0.143900512,-0.040387636,-0.0606629,0.103540592,0.024509606,0.074393392,-0.127847504,0.022862434,-0.09462236,0.0,-0.115439104,0.038057512,-0.013479309,-0.083274088,0.041004924,-0.103055784,0.106338248,-0.005830839,-0.122654336,-0.009777111,0.180418,-0.133128312,0.004341793,-0.0449926,0.082458944,-0.124503464,0.070839056,-0.124503464,0.06412168,0.094499672,0.117589584
1.0,-0.148402896,0.076763368,-0.17374128,0.076775928,0.118744768,0.05898602,-0.04900702,0.059337696,0.092234176,0.07287288,0.104898,-0.105658248,0.117430568,-0.117318928,0.17012272,-0.005226589,-0.191535088,-0.114925552,0.183874688,-0.013834858,0.086087136,0.210633184,-0.034450536,0.207201408,-0.122948624,-0.15684136,-0.182107056,-0.161773024,-0.12857908,0.137386128,-0.229170208,-0.063889548,-0.193493152,-0.134633344,0.133400232,0.062008372,-0.037019076,-0.091248448,-0.193493152,-0.078571648,-0.19601808,0.029899566,0.026398018,-0.209883056,0.045878208,0.127866328,-0.033790244,0.099793592,0.086290464,0.137003664,-0.040387636,-0.0606629,0.103540592,0.024509606,0.074393392,-0.127847504,0.022862434,-0.09462236,0.0,-0.115439104,0.038057512,-0.013479309,-0.083274088,0.041004924,-0.103055784,0.106338248,-0.005830839,-0.122654336,-0.009777111,0.180418,-0.133128312,0.004341793,-0.0449926,0.082458944,-0.124503464,0.070839056,-0.124503464,0.06412168,0.094499672,0.117589584
2.0,-0.17682656,0.076763368,-0.17374128,0.076775928,0.118744768,0.05898602,-0.087585928,0.059337696,0.091158552,0.07077464,0.104898,-0.105658248,0.117430568,-0.117318928,0.17012272,-0.005226589,-0.191535088,-0.114925552,0.183874688,-0.013834858,0.086087136,0.210633184,-0.034450536,0.207201408,-0.122948624,-0.15684136,-0.182107056,-0.161773024,-0.12857908,0.137386128,-0.229170208,-0.063889548,-0.193493152,-0.134633344,0.133400232,0.062008372,-0.037019076,-0.091248448,-0.193493152,-0.078571648,-0.19601808,0.029899566,0.026398018,-0.209883056,0.045878208,0.127866328,-0.033790244,0.099793592,0.086290464,0.137003664,0.035644448,0.0,0.0,0.0,0.016260892,0.0,0.0,0.041190464,0.0,0.0,0.052914896,0.089566144,-0.083430304,0.044133716,-0.074774336,-0.107362072,-0.123312472,-0.023565076,-0.124154528,-0.023291572,-0.010512481,-0.12907608,0.137952224,-0.085001264,0.003713105,0.132527056,0.003713105,0.031584024,-0.095608608,0.018793062
3.0,-0.17682656,0.076763368,-0.17374128,0.076775928,0.118744768,0.05898602,-0.087585928,0.059337696,0.091158552,0.07077464,0.104898,-0.105658248,0.117430568,-0.117318928,0.17012272,-0.005226589,-0.191535088,-0.114925552,0.183874688,-0.013834858,0.086087136,0.210633184,-0.034450536,0.207201408,-0.122948624,-0.15684136,-0.182107056,-0.161773024,-0.12857908,0.137386128,-0.229170208,-0.063889548,-0.193493152,-0.134633344,0.133400232,0.062008372,-0.037019076,-0.091248448,-0.193493152,-0.078571648,-0.19601808,0.029899566,0.026398018,-0.209883056,0.045878208,0.127866328,-0.033790244,0.099793592,0.086290464,0.137003664,0.015418913,0.0,0.0,0.0,-0.011881771,0.0,0.0,0.036444544,0.0,0.0,0.0,0.031685132,0.002376299,0.0,0.0,0.020225536,0.03243367,0.015600056,0.0001082,0.0,0.060643112,0.177853424,0.080092896,0.084018408,-0.160324912,0.049054456,-0.160324912,0.086855872,0.098604936,0.057950968
4.0,-0.17682656,0.076763368,-0.17374128,0.076775928,0.118744768,0.05898602,-0.087585928,0.059337696,0.091158552,0.07077464,0.104898,-0.105658248,0.117430568,-0.117318928,0.17012272,-0.005226589,-0.191535088,-0.114925552,0.183874688,-0.013834858,0.086087136,0.201530848,-0.042415356,0.207201408,-0.123384376,-0.16217208,-0.182107056,-0.17227992,-0.12857908,0.137386128,-0.229170208,-0.063889548,-0.193493152,-0.134633344,0.133400232,0.062008372,-0.037019076,-0.091248448,-0.193493152,-0.078571648,-0.19601808,0.029899566,0.026398018,-0.209883056,0.045878208,0.127866328,-0.033790244,0.099793592,0.086290464,0.137003664,0.015418913,0.0,0.0,0.0,-0.011881771,0.0,0.0,0.036444544,0.0,0.0,0.0,0.031685126,0.002376299,0.0,0.0,0.020225534,0.032433666,0.015600056,0.0001082,0.0,0.010912667,0.032779318,0.0,0.004561781,0.005874814,0.0,0.005874814,0.0,0.0,0.00669168
5.0,-0.17682656,0.076763368,-0.17374128,0.076775928,0.118744768,0.05898602,-0.087585928,0.059337696,0.091158552,0.07077464,0.104898,-0.105658248,0.117430568,-0.117318928,0.17012272,-0.005226589,-0.191535088,-0.114925552,0.183874688,-0.013834858,0.086087136,0.201530848,-0.042415356,0.207201408,-0.123384376,-0.16217208,-0.182107056,-0.17227992,-0.12857908,0.137386128,-0.204396768,-0.063889548,-0.167583024,-0.134633344,0.133400232,0.067090168,-0.037019076,-0.085875792,-0.167583024,-0.078571648,-0.19601808,0.029899566,0.026398018,-0.209883056,0.045878208,0.127866328,-0.033790244,0.099793592,0.086290464,0.137003664,0.015418913,0.0,0.0,0.0,-0.011881771,0.0,0.0,0.036444544,0.0,0.0,0.0,0.000963415,0.002376299,0.0,-0.001304689,0.004756711,0.032433666,0.015600056,0.0001082,0.0,0.010912667,0.032779318,0.0,0.004561781,0.005874814,0.0,0.005874814,0.0,0.0,0.00669168
6.0,-0.151234352,0.076763368,-0.17374128,0.076775928,0.118744768,0.05898602,-0.063288568,0.059337696,0.091158552,0.07077464,0.104898,-0.105658248,0.117430568,-0.117318928,0.17012272,-0.005226589,-0.191535088,-0.114925552,0.183874688,-0.013834858,0.086087136,0.201530848,-0.042415356,0.207201408,-0.123384376,-0.16217208,-0.182107056,-0.17227992,-0.12857908,0.137386128,-0.204396768,-0.063889548,-0.167583024,-0.134633344,0.133400232,0.067090168,-0.037019076,-0.085875792,-0.167583024,-0.078571648,-0.19601808,0.029899566,0.026398018,-0.209883056,0.045878208,0.127866328,-0.033790244,0.099793592,0.086290464,0.137003664,0.015418913,0.0,0.0,0.0,-0.011881771,0.0,0.0,0.036444544,0.0,0.0,0.0,0.000963415,0.002376299,0.0,-0.001304689,0.004756711,0.032433666,0.015600056,0.0001082,0.0,-0.01447657,-0.01749808,0.0,0.004561781,-0.01226447,0.0,-0.01226447,0.0,0.0,-0.01760568
7.0,-0.18661504,0.076763368,-0.17374128,0.076775928,0.118744768,0.05898602,-0.091323608,0.059337696,0.090338304,0.07077464,0.104898,-0.105658248,0.117430568,-0.117318928,0.17012272,-0.005226589,-0.191535088,-0.114925552,0.183874688,-0.013834858,0.086087136,0.201530848,-0.042415356,0.207201408,-0.123384376,-0.16217208,-0.182107056,-0.17227992,-0.12857908,0.137386128,-0.204396768,-0.063889548,-0.167583024,-0.134633344,0.133400232,0.067090168,-0.037019076,-0.085875792,-0.167583024,-0.078571648,-0.19601808,0.029899566,0.026398018,-0.209883056,0.045878208,0.127866328,-0.033790244,0.099793592,0.086290464,0.137003664,0.026761868,0.0,0.0,0.0,-0.009765912,0.0,0.0,0.067462912,0.0,0.0,0.0,0.000963414,0.002376299,0.0,-0.001304689,0.004756711,0.032433666,0.015600056,0.000108199,0.0,-0.01447657,-0.01749808,0.0,0.004561781,-0.01226447,0.0,-0.01226447,0.0,0.0,-0.01760568
8.0,-0.18661504,0.076763368,-0.17374128,0.076775928,0.118744768,0.05898602,-0.091323608,0.059337696,0.090338304,0.07077464,0.104898,-0.105658248,0.117430568,-0.117318928,0.17012272,-0.005226589,-0.191535088,-0.114925552,0.183874688,-0.013834858,0.086087136,0.201530848,-0.042415356,0.207201408,-0.123384376,-0.16217208,-0.182107056,-0.17227992,-0.12857908,0.137386128,-0.204396768,-0.063889548,-0.167583024,-0.134633344,0.133400232,0.067090168,-0.037019076,-0.085875792,-0.167583024,-0.078571648,-0.19601808,0.029899566,0.026398018,-0.209883056,0.045878208,0.127866328,-0.033790244,0.099793592,0.086290464,0.137003664,0.026761868,0.0,0.0,0.0,-0.009765912,0.0,0.0,0.067462912,0.0,0.0,0.0,0.000963414,0.002376299,0.0,-0.001304689,0.004756711,0.032433666,0.015600056,0.000108199,0.0,-0.01447657,-0.01749808,0.0,0.004561781,-0.01226447,0.0,-0.01226447,0.0,0.0,-0.01760568
9.0,-0.18661504,0.076763368,-0.17374128,0.076775928,0.118744768,0.05898602,-0.091323608,0.059337696,0.090338304,0.07077464,0.104898,-0.105658248,0.117430568,-0.117318928,0.17012272,-0.005226589,-0.191535088,-0.114925552,0.183874688,-0.013834858,0.086087136,0.201530848,-0.042415356,0.207201408,-0.123384376,-0.16217208,-0.182107056,-0.17227992,-0.12857908,0.137386128,-0.204396768,-0.063889548,-0.167583024,-0.134633344,0.133400232,0.067090168,-0.037019076,-0.085875792,-0.167583024,-0.078571648,-0.19601808,0.029899566,0.026398018,-0.209883056,0.045878208,0.127866328,-0.033790244,0.099793592,0.086290464,0.137003664,0.026761868,0.0,0.0,0.0,-0.009765912,0.0,0.0,0.067462912,0.0,0.0,0.0,0.000963414,0.002376299,0.0,-0.001304689,0.004756711,0.032433666,0.015600056,0.000108199,0.0,-0.01447657,-0.01749808,0.0,0.004561781,-0.01226447,0.0,-0.01226447,0.0,0.0,-0.01760568
10.0,-0.18661504,0.076763368,-0.17374128,0.076775928,0.118744768,0.05898602,-0.091323608,0.059337696,0.090338304,0.07077464,0.104898,-0.105658248,0.117430568,-0.117318928,0.17012272,-0.005226589,-0.191535088,-0.114925552,0.183874688,-0.013834858,0.086087136,0.201530848,-0.042415356,0.207201408,-0.123384376,-0.16217208,-0.182107056,-0.17227992,-0.12857908,0.137386128,-0.204396768,-0.063889548,-0.167583024,-0.134633344,0.133400232,0.067090168,-0.037019076,-0.085875792,-0.167583024,-0.078571648,-0.19601808,0.029899566,0.026398018,-0.209883056,0.045878208,0.127866328,-0.033790244,0.099793592,0.086290464,0.137003664,0.026761868,0.0,0.0,0.0,-0.009765912,0.0,0.0,0.067462912,0.0,0.0,0.0,0.000963414,0.002376299,0.0,-0.001304689,0.004756711,0.032433666,0.015600056,0.000108199,0.0,-0.01447657,-0.01749808,0.0,0.004561781,-0.01226447,0.0,-0.01226447,0.0,0.0,-0.01760568
11.0,-0.18661504,0.076763368,-0.17374128,0.076775928,0.118744768,0.05898602,-0.091323608,0.059337696,0.090338304,0.07077464,0.104898,-0.105658248,0.117430568,-0.117318928,0.17012272,-0.005226589,-0.191535088,-0.114925552,0.183874688,-0.013834858,0.086087136,0.201530848,-0.042415356,0.207201408,-0.123384376,-0.16217208,-0.182107056,-0.17227992,-0.12857908,0.137386128,-0.151572704,-0.063889548,-0.134372768,-0.134633344,0.14583656,0.083247568,-0.037019076,-0.065192968,-0.134372768,-0.078571648,-0.218549088,0.029899566,0.026398018,-0.209883056,0.032898098,0.094656072,-0.033790244,0.051129012,0.037713824,0.08166268,0.026761868,0.0,0.0,0.0,-0.009765912,0.0,0.0,0.067462912,0.0,0.0,0.0,0.000963414,0.002376299,0.0,-0.001304689,0.004756711,0.032433666,0.015600056,0.000108199,0.0,-0.01447657,-0.01749808,0.0,0.004561781,-0.01226447,0.0,-0.01226447,0.0,0.0,-0.01760568
12.0,-0.18661504,0.076763368,-0.17374128,0.076775928,0.118744768,0.05898602,-0.091323608,0.059337696,0.090338304,0.07077464,0.104898,-0.105658248,0.117430568,-0.117318928,0.17012272,-0.005226589,-0.191535088,-0.114925552,0.183874688,-0.013834858,0.086087136,0.201530848,-0.042415356,0.207201408,-0.123384376,-0.16217208,-0.182107056,-0.17227992,-0.12857908,0.137386128,-0.151572704,-0.063889548,-0.134372768,-0.134633344,0.14583656,0.083247568,-0.037019076,-0.065192968,-0.134372768,-0.078571648,-0.218549088,0.029899566,0.026398018,-0.209883056,0.032898098,0.094656072,-0.033790244,0.051129012,0.037713824,0.08166268,0.026761856,0.0,0.0,0.0,-0.009765912,0.0,0.0,0.067462912,0.0,0.0,0.0,-0.019993414,0.001867935,0.0,-0.001304689,-0.021691332,0.032433666,-0.003015496,0.000108199,0.0,-0.013609258,0.040926624,0.0,0.004561781,0.02208166,0.0,0.02208166,0.0,0.0,0.024337034
13.0,-0.18661504,0.076763368,-0.17374128,0.076775928,0.118744768,0.05898602,-0.091323608,0.059337696,0.090338304,0.07077464,0.104898,-0.105658248,0.117430568,-0.117318928,0.17012272,-0.005226589,-0.191535088,-0.114925552,0.183874688,-0.013834858,0.086087136,0.201530848,-0.042415356,0.207201408,-0.123384376,-0.16217208,-0.182107056,-0.17227992,-0.12857908,0.137386128,-0.176683584,-0.063889548,-0.145355072,-0.134633344,0.137454224,0.083247568,-0.037019076,-0.065192968,-0.145355072,-0.078571648,-0.207973328,0.029899566,0.026398018,-0.209883056,0.032898098,0.105638368,-0.033790244,0.051453808,0.037713824,0.105209232,0.026761856,0.0,0.0,0.0,-0.009765912,0.0,0.0,0.067462912,0.0,0.0,0.0,-0.019993414,0.001867935,0.0,-0.001304689,-0.021691332,0.032433666,-0.003015496,0.000108199,0.0,-0.013609258,0.040926624,0.0,0.004561781,0.02208166,0.0,0.02208166,0.0,0.0,0.024337034
14.0,-0.18661504,0.076763368,-0.17374128,0.076775928,0.118744768,0.05898602,-0.091323608,0.059337696,0.090338304,0.07077464,0.104898,-0.105658248,0.117430568,-0.117318928,0.17012272,-0.005226589,-0.191535088,-0.114925552,0.183874688,-0.013834858,0.086087136,0.201530848,-0.042415356,0.207201408,-0.123384376,-0.16217208,-0.182107056,-0.17227992,-0.12857908,0.137386128,-0.176683584,-0.063889548,-0.145355072,-0.134633344,0.137454224,0.083247568,-0.037019076,-0.065192968,-0.145355072,-0.078571648,-0.207973328,0.029899566,0.026398018,-0.209883056,0.032898098,0.105638368,-0.033790244,0.051453808,0.037713824,0.105209232,0.026761856,0.0,0.0,0.0,-0.009765912,0.0,0.0,0.067462912,0.0,0.0,0.0,-0.019993414,0.001867935,0.0,-0.001304689,-0.021691332,0.032433666,-0.003015496,0.000108199,0.0,-0.013609258,0.040926624,0.0,0.004561781,0.02208166,0.0,0.02208166,0.0,0.0,0.024337034
15.0,-0.157051072,0.076763368,-0.17374128,0.076775928,0.118744768,0.05898602,-0.073240096,0.059575708,0.090338304,0.07077464,0.104898,-0.105658248,0.117430568,-0.117318928,0.17012272,-0.005226589,-0.191535088,-0.114925552,0.183874688,-0.013834858,0.086087136,0.201530848,-0.042415356,0.207201408,-0.123384376,-0.16217208,-0.182107056,-0.17227992,-0.12857908,0.137386128,-0.176683584,-0.063889548,-0.145355072,-0.134633344,0.137454224,0.083247568,-0.037019076,-0.065192968,-0.145355072,-0.078571648,-0.207973328,0.029899566,0.026398018,-0.209883056,0.032898098,0.105638368,-0.033790244,0.051453808,0.037713824,0.105209232,0.008180668,0.0,-0.006413315,0.0,-0.009765912,0.0,0.0,0.058765028,0.0,0.0,0.0,-0.019993414,0.001867935,0.0,-0.001304689,-0.021691332,0.032433666,-0.003015496,0.000108199,0.0,-0.013609258,0.040926624,0.0,0.004561781,0.02208166,0.0,0.02208166,0.0,0.0,0.024337034
16.0,-0.157051072,0.076763368,-0.17374128,0.076775928,0.118744768,0.05898602,-0.073240096,0.059575708,0.090338304,0.07077464,0.104898,-0.105658248,0.117430568,-0.117318928,0.17012272,-0.005226589,-0.191535088,-0.114925552,0.183874688,-0.013834858,0.086087136,0.201530848,-0.042415356,0.207201408,-0.123384376,-0.16217208,-0.182107056,-0.17227992,-0.12857908,0.137386128,-0.176683584,-0.063889548,-0.145355072,-0.134633344,0.137454224,0.083247568,-0.037019076,-0.065192968,-0.145355072,-0.078571648,-0.207973328,0.029899566,0.026398018,-0.209883056,0.032898098,0.105638368,-0.033790244,0.051453808,0.037713824,0.105209232,0.008180668,0.0,-0.006413315,0.0,-0.009765912,0.0,0.0,0.058765028,0.0,0.0,0.0,-0.019993414,0.001867935,0.0,-0.001304689,-0.021691332,0.032433666,-0.003015496,0.000108199,0.0,-0.013609258,0.040926624,0.0,0.004561781,0.02208166,0.0,0.02208166,0.0,0.0,0.024337034
17.0,-0.157051072,0.076763368,-0.17374128,0.076775928,0.118744768,0.05898602,-0.073240096,0.059575708,0.090338304,0.07077464,0.104898,-0.105658248,0.117430568,-0.117318928,0.17012272,-0.005226589,-0.191535088,-0.114925552,0.183874688,-0.013834858,0.086087136,0.220573456,-0.042415356,0.207201408,-0.123384376,-0.152938864,-0.182107056,-0.152949136,-0.12857908,0.137386128,-0.176683584,-0.063889548,-0.145355072,-0.134633344,0.137454224,0.083247568,-0.037019076,-0.065192968,-0.145355072,-0.078571648,-0.207973328,0.029899566,0.026398018,-0.209883056,0.032898098,0.105638368,-0.033790244,0.051453808,0.037713824,0.105209232,0.008180668,0.0,-0.006413315,0.0,-0.009765912,0.0,0.0,0.058765028,0.0,0.0,0.0,-0.019993414,0.001867935,0.0,-0.001304689,-0.021691332,0.032433666,-0.003015496,0.000108199,0.0,-0.013609258,0.040926624,0.0,0.004561781,0.02208166,0.0,0.02208166,0.0,0.0,-0.022358984
18.0,-0.157051072,0.076763368,-0.17374128,0.076775928,0.118744768,0.05898602,-0.073240096,0.059575708,0.090338304,0.07077464,0.104898,-0.105658248,0.117430568,-0.117318928,0.17012272,-0.005226589,-0.191535088,-0.114925552,0.183874688,-0.013834858,0.086087136,0.220573456,-0.042415356,0.207201408,-0.123384376,-0.152938864,-0.182107056,-0.152949136,-0.12857908,0.137386128,-0.176683584,-0.063889548,-0.145355072,-0.134633344,0.137454224,0.083247568,-0.037019076,-0.065192968,-0.145355072,-0.078571648,-0.207973328,0.029899566,0.026398018,-0.209883056,0.032898098,0.105638368,-0.033790244,0.051453808,0.037713824,0.105209232,0.008180668,0.0,-0.006413315,0.0,-0.009765912,0.0,0.0,0.058765028,0.0,0.0,0.0,-0.019993414,0.001867935,0.0,-0.001304689,-0.021691332,0.032433666,-0.003015496,0.000108199,0.0,-0.013609258,0.040926624,0.0,0.004561781,0.02208166,0.0,0.02208166,0.0,0.0,-0.022358984
19.0,-0.157051072,0.076763368,-0.17374128,0.076775928,0.118744768,0.05898602,-0.073240096,0.059575708,0.090338304,0.07077464,0.104898,-0.105658248,0.117430568,-0.117318928,0.17012272,-0.005226589,-0.191535088,-0.114925552,0.183874688,-0.013834858,0.086087136,0.1839644,-0.05952942,0.207201408,-0.155688464,-0.156254176,-0.182107056,-0.177908816,-0.12857908,0.137386128,-0.176683584,-0.063889548,-0.145355072,-0.134633344,0.137454224,0.083247568,-0.037019076,-0.065192968,-0.145355072,-0.078571648,-0.207973328,0.029899566,0.026398018,-0.209883056,0.032898098,0.105638368,-0.033790244,0.051453808,0.037713824,0.105209232,0.008180668,0.0,-0.006413315,0.0,-0.009765912,0.0,0.0,0.058765028,0.0,0.0,0.0,-0.019993414,0.001867935,0.0,-0.001304689,-0.021691332,0.032433666,-0.003015496,0.000108199,0.0,-0.008346084,0.092973952,0.0,0.004561781,0.02208166,0.0,0.02208166,0.0,0.0,0.016986724
20.0,-0.157051072,0.076763368,-0.17374128,0.076775928,0.136480016,0.05898602,-0.073240096,0.059575708,0.090338304,0.07077464,0.104898,-0.105658248,0.117430568,-0.117318928,0.17012272,-0.005226589,-0.191535088,-0.114925552,0.183874688,-0.013834858,0.086087136,0.1839644,-0.05952942,0.207201408,-0.155688464,-0.156254176,-0.182107056,-0.177908816,-0.12857908,0.137386128,-0.176683584,-0.063889548,-0.145355072,-0.134633344,0.137454224,0.083247568,-0.037019076,-0.065192968,-0.145355072,-0.078571648,-0.207973328,0.029899566,0.026398018,-0.209883056,0.032898098,0.105638368,-0.033790244,0.051453808,0.037713824,0.105209232,0.008180668,0.0,-0.006413315,0.0,-0.009765912,0.0,0.0,0.058765028,0.0,0.0,0.0,-0.019993414,0.001867935,0.0,-0.001304689,-0.021691332,0.032433666,-0.003015496,0.000108199,0.0,-0.0281167,0.092973952,0.0,-0.018802308,0.02208166,-0.017735244,0.02208166,0.0,0.0,0.016986724
21.0,-0.157051072,0.076763368,-0.17374128,0.076775928,0.136480016,0.05898602,-0.073240096,0.059575708,0.090338304,0.07077464,0.104898,-0.105658248,0.117430568,-0.117318928,0.17012272,-0.005226589,-0.191535088,-0.114925552,0.183874688,-0.013834858,0.086087136,0.1839644,-0.05952942,0.207201408,-0.155688464,-0.156254176,-0.182107056,-0.177908816,-0.12857908,0.137386128,-0.176683584,-0.063889548,-0.145355072,-0.134633344,0.137454224,0.083247568,-0.037019076,-0.065192968,-0.145355072,-0.078571648,-0.207973328,0.029899566,0.026398018,-0.209883056,0.032898098,0.105638368,-0.033790244,0.051453808,0.037713824,0.105209232,0.008180668,0.0,-0.006413315,0.0,-0.009765912,0.0,0.0,0.058765028,0.0,0.0,0.0,-0.019993414,0.001867935,0.0,-0.001304689,-0.021691332,0.032433666,-0.003015496,0.000108199,0.0,-0.0281167,0.092973952,0.0,-0.018802308,0.02208166,-0.017735244,0.02208166,0.0,0.0,0.016986724
22.0,-0.157051072,0.076763368,-0.17374128,0.076775928,0.136480016,0.05898602,-0.073240096,0.059575708,0.090338304,0.07077464,0.104898,-0.105658248,0.117430568,-0.117318928,0.17012272,-0.005226589,-0.191535088,-0.114925552,0.183874688,-0.013834858,0.086087136,0.1839644,-0.05952942,0.207201408,-0.155688464,-0.156254176,-0.182107056,-0.177908816,-0.12857908,0.137386128,-0.176683584,-0.063889548,-0.145355072,-0.134633344,0.137454224,0.083247568,-0.037019076,-0.065192968,-0.145355072,-0.078571648,-0.207973328,0.029899566,0.026398018,-0.209883056,0.032898098,0.105638368,-0.033790244,0.051453808,0.037713824,0.105209232,0.008180668,0.0,-0.006413315,0.0,-0.009765912,0.0,0.0,0.058765028,0.0,0.0,0.0,-0.019993414,0.001867935,0.0,-0.001304689,-0.021691332,0.032433666,-0.003015496,0.000108199,0.0,-0.0281167,0.092973952,0.0,-0.018802308,0.02208166,-0.017735244,0.02208166,0.0,0.0,0.016986724
23.0,-0.157051072,0.076763368,-0.17374128,0.076775928,0.136480016,0.05898602,-0.073240096,0.059575708,0.090338304,0.07077464,0.104898,-0.105658248,0.117430568,-0.117318928,0.17012272,-0.005226589,-0.191535088,-0.114925552,0.183874688,-0.013834858,0.086087136,0.1839644,-0.05952942,0.207201408,-0.155688464,-0.156254176,-0.182107056,-0.177908816,-0.12857908,0.137386128,-0.176683584,-0.063889548,-0.145355072,-0.134633344,0.137454224,0.083247568,-0.037019076,-0.065192968,-0.145355072,-0.078571648,-0.207973328,0.029899566,0.026398018,-0.209883056,0.032898098,0.105638368,-0.033790244,0.051453808,0.037713824,0.105209232,0.008180668,0.0,-0.006413315,0.0,-0.009765912,0.0,0.0,0.058765028,0.0,0.0,0.0,-0.019993414,0.001867935,0.0,-0.001304689,-0.021691332,0.032433666,-0.003015496,0.000108199,0.0,-0.0281167,0.092973952,0.0,-0.018802308,0.02208166,-0.017735244,0.02208166,0.0,0.0,0.016986724
24.0,-0.157051072,0.076763368,-0.17374128,0.076775928,0.136480016,0.05898602,-0.073240096,0.059575708,0.090338304,0.07077464,0.104898,-0.105658248,0.117430568,-0.117318928,0.17012272,-0.005226589,-0.191535088,-0.114925552,0.183874688,-0.013834858,0.086087136,0.1839644,-0.05952942,0.207201408,-0.155688464,-0.156254176,-0.182107056,-0.177908816,-0.12857908,0.137386128,-0.176683584,-0.063889548,-0.145355072,-0.134633344,0.137454224,0.083247568,-0.037019076,-0.065192968,-0.145355072,-0.078571648,-0.207973328,0.029899566,0.026398018,-0.209883056,0.032898098,0.105638368,-0.033790244,0.051453808,0.037713824,0.105209232,0.030224368,0.0,-0.006413315,0.0,0.005491456,0.0,0.0,0.102134112,0.0,0.0,0.0,-0.019993414,0.001867935,0.0,-0.001304689,-0.021691332,0.032433666,-0.003015496,0.000108199,0.0,-0.05420234,0.057645764,0.0,-0.018802308,0.02208166,-0.017735244,0.02208166,0.0,0.0,-0.031054054
25.0,-0.157051072,0.076763368,-0.17374128,0.076775928,0.136480016,0.05898602,-0.073240096,0.059575708,0.090338304,0.07077464,0.104898,-0.105658248,0.117430568,-0.117318928,0.17012272,-0.005226589,-0.191535088,-0.114925552,0.183874688,-0.013834858,0.086087136,0.1839644,-0.05952942,0.207201408,-0.155688464,-0.156254176,-0.182107056,-0.177908816,-0.12857908,0.137386128,-0.176683584,-0.063889548,-0.145355072,-0.134633344,0.137454224,0.083247568,-0.037019076,-0.065192968,-0.145355072,-0.078571648,-0.207973328,0.029899566,0.026398018,-0.209883056,0.032898098,0.105638368,-0.033790244,0.051453808,0.037713824,0.105209232,0.030224368,0.0,-0.006413315,0.0,0.005491456,0.0,0.0,0.102134112,0.0,0.0,0.0,-0.019993414,0.001867935,0.0,-0.001304689,-0.021691332,0.032433666,-0.003015496,0.000108199,0.0,-0.05420234,0.057645764,0.0,-0.018802308,0.02208166,-0.017735244,0.02208166,0.0,0.0,-0.031054054
26.0,-0.157051072,0.076763368,-0.17374128,0.076775928,0.136480016,0.05898602,-0.073240096,0.059575708,0.090338304,0.07077464,0.104898,-0.105658248,0.117430568,-0.117318928,0.17012272,-0.005226589,-0.191535088,-0.114925552,0.183874688,-0.013834858,0.086087136,0.1839644,-0.05952942,0.207201408,-0.155688464,-0.156254176,-0.182107056,-0.177908816,-0.12857908,0.137386128,-0.176683584,-0.063889548,-0.145355072,-0.134633344,0.137454224,0.083247568,-0.037019076,-0.065192968,-0.145355072,-0.078571648,-0.207973328,0.029899566,0.026398018,-0.209883056,0.032898098,0.105638368,-0.033790244,0.051453808,0.037713824,0.105209232,0.030224368,0.0,-0.006413315,0.0,0.005491456,0.0,0.0,0.102134112,0.0,0.0,0.0,-0.019993414,0.001867935,0.0,-0.001304689,-0.021691332,0.032433666,-0.003015496,0.000108199,0.0,-0.05420234,0.057645764,0.0,-0.018802308,0.02208166,-0.017735244,0.02208166,0.0,0.0,-0.031054054
27.0,-0.157051072,0.076763368,-0.17374128,0.076775928,0.136480016,0.05898602,-0.073240096,0.059575708,0.090338304,0.07077464,0.104898,-0.105658248,0.117430568,-0.117318928,0.17012272,-0.005226589,-0.191535088,-0.114925552,0.183874688,-0.013834858,0.086087136,0.1839644,-0.05952942,0.207201408,-0.155688464,-0.156254176,-0.182107056,-0.177908816,-0.12857908,0.137386128,-0.176683584,-0.063889548,-0.145355072,-0.134633344,0.137454224,0.083247568,-0.037019076,-0.065192968,-0.145355072,-0.078571648,-0.207973328,0.029899566,0.026398018,-0.209883056,0.032898098,0.105638368,-0.033790244,0.051453808,0.037713824,0.105209232,0.030224368,0.0,-0.006413315,0.0,0.005491456,0.0,0.0,0.102134112,0.0,0.0,0.0,-0.019993414,0.001867935,0.0,-0.001304689,-0.021691332,0.032433666,-0.003015496,0.000108199,0.0,-0.05420234,0.057645764,0.0,-0.018802308,0.02208166,-0.017735244,0.02208166,0.0,0.0,-0.031054054
28.0,-0.157051072,0.076763368,-0.17374128,0.076775928,0.136480016,0.05898602,-0.073240096,0.059575708,0.090338304,0.07077464,0.104898,-0.105658248,0.117430568,-0.117318928,0.17012272,-0.005226589,-0.191535088,-0.114925552,0.183874688,-0.013834858,0.086087136,0.1839644,-0.05952942,0.207201408,-0.155688464,-0.156254176,-0.182107056,-0.177908816,-0.12857908,0.137386128,-0.195174288,-0.063889548,-0.180086224,-0.134633344,0.133785192,0.07776308,-0.037019076,-0.065192968,-0.180086224,-0.078571648,-0.206259104,0.029899566,0.026398018,-0.209883056,0.032898098,0.14036952,-0.022982006,0.060861772,0.044444392,0.126037256,0.030224368,0.0,-0.006413315,0.0,0.005491456,0.0,0.0,0.102134112,0.0,0.0,0.0,-0.019993414,0.001867935,0.0,-0.001304689,-0.021691332,0.032433666,-0.003015496,0.000108199,0.0,-0.05420234,0.057645764,0.0,-0.018802308,0.02208166,-0.017735244,0.02208166,0.0,0.0,-0.031054054
29.0,-0.157051072,0.076763368,-0.17374128,0.076775928,0.136480016,0.05898602,-0.073240096,0.059575708,0.090338304,0.07077464,0.104898,-0.063695028,0.117430568,-0.117318928,0.181444624,-0.005226589,-0.191535088,-0.114925552,0.183874688,-0.013834858,0.086087136,0.1839644,-0.05952942,0.207201408,-0.155688464,-0.156254176,-0.182107056,-0.177908816,-0.12857908,0.137386128,-0.195174288,-0.063889548,-0.180086224,-0.134633344,0.133785192,0.07776308,-0.037019076,-0.065192968,-0.180086224,-0.078571648,-0.206259104,0.029899566,0.026398018,-0.209883056,0.032898098,0.14036952,-0.022982006,0.060861772,0.044444392,0.126037256,0.005327627,0.0,-0.006413315,0.0,-0.011956457,0.0,0.0,0.102134112,0.0,0.0,0.0,-0.019993414,0.001867935,0.0,-0.001304689,-0.021691332,0.032433666,-0.003015496,0.000108199,0.0,-0.05420234,0.057645764,0.0,-0.018802308,0.02208166,-0.017735244,0.02208166,0.0,0.0,-0.031054054
30.0,-0.157051072,0.076763368,-0.17374128,0.076775928,0.136480016,0.05898602,-0.073240096,0.059575708,0.090338304,0.07077464,0.104898,-0.063695028,0.117430568,-0.117318928,0.181444624,-0.005226589,-0.191535088,-0.114925552,0.183874688,-0.013834858,0.086087136,0.1839644,-0.05952942,0.207201408,-0.155688464,-0.156254176,-0.182107056,-0.177908816,-0.12857908,0.137386128,-0.195174288,-0.063889548,-0.180086224,-0.134633344,0.133785192,0.07776308,-0.037019076,-0.065192968,-0.180086224,-0.078571648,-0.206259104,0.029899566,0.026398018,-0.209883056,0.032898098,0.14036952,-0.022982006,0.060861772,0.044444392,0.126037256,0.005327627,0.0,-0.006413315,0.0,-0.011956457,0.0,0.0,0.102134112,0.0,0.0,0.0,-0.019993414,0.001867935,0.0,-0.001304689,-0.021691332,0.032433666,-0.003015496,0.000108199,0.0,-0.05420234,0.057645764,0.0,-0.018802308,0.02208166,-0.017735244,0.02208166,0.0,0.0,-0.031054054
31.0,-0.157051072,0.076763368,-0.17374128,0.076775928,0.136480016,0.05898602,-0.073240096,0.059575708,0.090338304,0.07077464,0.104898,-0.063695028,0.117430568,-0.117318928,0.181444624,-0.005226589,-0.191535088,-0.114925552,0.183874688,-0.013834858,0.086087136,0.1839644,-0.05952942,0.207201408,-0.155688464,-0.156254176,-0.182107056,-0.177908816,-0.12857908,0.137386128,-0.186904176,-0.063889548,-0.180086224,-0.134633344,0.133785192,0.07776308,-0.037019076,-0.065192968,-0.180086224,-0.078571648,-0.206259104,0.029899566,0.026398018,-0.209883056,0.032898098,0.14036952,-0.039289128,0.059787256,0.044444392,0.103478448,0.005327627,0.0,-0.006413315,0.0,-0.011956457,0.0,0.0,0.102134112,0.0,0.0,0.0,-0.019993414,0.001867935,0.0,-0.001304689,-0.021691332,0.032433666,-0.003015496,0.000108199,0.0,-0.05420234,0.057645764,0.0,-0.018802308,0.02208166,-0.017735244,0.02208166,0.0,0.0,-0.031054054
32.0,-0.157051072,0.076763368,-0.17374128,0.076775928,0.136480016,0.05898602,-0.073240096,0.059575708,0.090338304,0.07077464,0.104898,-0.10723292,0.117430568,-0.117318928,0.181444624,-0.005226589,-0.195746944,-0.114925552,0.183874688,-0.013834858,0.086087136,0.1839644,-0.05952942,0.207201408,-0.155688464,-0.156254176,-0.182107056,-0.177908816,-0.12857908,0.137386128,-0.186904176,-0.063889548,-0.180086224,-0.134633344,0.133785192,0.07776308,-0.037019076,-0.065192968,-0.180086224,-0.078571648,-0.206259104,0.029899566,0.026398018,-0.209883056,0.032898098,0.14036952,-0.039289128,0.059787256,0.044444392,0.103478448,0.005327627,0.0,-0.006413315,0.0,-0.011956457,0.0,0.0,0.102134112,0.0,0.0,0.0,0.00705879,0.001867935,0.0,-0.001304689,0.000279072,0.051701724,0.006021167,0.007919032,0.0,-0.05420234,0.057645764,0.0,-0.018802308,0.02208166,-0.017735244,0.02208166,0.0,0.0,-0.031054054
33.0,-0.157051072,0.076763368,-0.17374128,0.076775928,0.136480016,0.05898602,-0.073240096,0.059575708,0.090338304,0.07077464,0.104898,-0.10723292,0.117430568,-0.117318928,0.181444624,-0.005226589,-0.195746944,-0.114925552,0.183874688,-0.013834858,0.086087136,0.1839644,-0.05952942,0.207201408,-0.155688464,-0.156254176,-0.182107056,-0.177908816,-0.12857908,0.137386128,-0.186904176,-0.063889548,-0.180086224,-0.134633344,0.133785192,0.07776308,-0.037019076,-0.065192968,-0.180086224,-0.078571648,-0.206259104,0.029899566,0.026398018,-0.209883056,0.032898098,0.14036952,-0.039289128,0.059787256,0.044444392,0.103478448,0.005327627,0.0,-0.006413315,0.0,-0.011956457,0.0,0.0,0.102134112,0.0,0.0,0.0,0.00705879,0.001867935,0.0,-0.001304689,0.000279072,0.051701724,0.006021167,0.007919032,0.0,-0.05420234,0.057645764,0.0,-0.018802308,0.02208166,-0.017735244,0.02208166,0.0,0.0,-0.031054054
34.0,-0.157051072,0.076763368,-0.17374128,0.076775928,0.136480016,0.05898602,-0.073240096,0.059575708,0.090338304,0.07077464,0.104898,-0.10723292,0.117430568,-0.117318928,0.181444624,-0.005226589,-0.195746944,-0.114925552,0.183874688,-0.013834858,0.086087136,0.1839644,-0.05952942,0.207201408,-0.155688464,-0.156254176,-0.182107056,-0.177908816,-0.12857908,0.137386128,-0.186904176,-0.063889548,-0.180086224,-0.134633344,0.133785192,0.07776308,-0.037019076,-0.065192968,-0.180086224,-0.078571648,-0.206259104,0.029899566,0.026398018,-0.209883056,0.032898098,0.14036952,-0.039289128,0.059787256,0.044444392,0.103478448,0.005327627,0.0,-0.006413315,0.0,-0.011956457,0.0,0.0,0.102134112,0.0,0.0,0.0,0.00705879,0.001867935,0.0,-0.001304689,0.000279072,0.051701724,0.006021167,0.007919032,0.0,-0.05420234,0.057645764,0.0,-0.018802308,0.02208166,-0.017735244,0.02208166,0.0,0.0,-0.031054054
35.0,-0.157051072,0.076763368,-0.17374128,0.076775928,0.136480016,0.05898602,-0.073240096,0.059575708,0.090338304,0.07077464,0.104898,-0.10723292,0.117430568,-0.117318928,0.181444624,-0.005226589,-0.195746944,-0.114925552,0.183874688,-0.013834858,0.086087136,0.1839644,-0.05952942,0.207201408,-0.155688464,-0.156254176,-0.182107056,-0.177908816,-0.12857908,0.137386128,-0.186904176,-0.063889548,-0.180086224,-0.134633344,0.133785192,0.07776308,-0.037019076,-0.065192968,-0.180086224,-0.078571648,-0.206259104,0.029899566,0.026398018,-0.209883056,0.032898098,0.14036952,-0.039289128,0.059787256,0.044444392,0.103478448,0.005327627,0.0,-0.006413315,0.0,-0.011956457,0.0,0.0,0.102134112,0.0,0.0,0.0,0.00705879,0.001867935,0.0,-0.001304689,0.000279072,0.051701724,0.006021167,0.007919032,0.0,-0.05420234,0.057645764,0.0,-0.018802308,0.02208166,-0.017735244,0.02208166,0.0,0.0,-0.031054054
36.0,-0.157051072,0.076763368,-0.17374128,0.076775928,0.136480016,0.05898602,-0.073240096,0.059575708,0.090338304,0.07077464,0.104898,-0.10723292,0.117430568,-0.117318928,0.181444624,-0.005226589,-0.195746944,-0.114925552,0.183874688,-0.013834858,0.086087136,0.187632272,-0.05952942,0.207201408,-0.155688464,-0.156254176,-0.182107056,-0.160925408,-0.12857908,0.137386128,-0.186904176,-0.063889548,-0.180086224,-0.134633344,0.133785192,0.07776308,-0.037019076,-0.065192968,-0.180086224,-0.078571648,-0.206259104,0.029899566,0.026398018,-0.209883056,0.032898098,0.14036952,-0.039289128,0.059787256,0.044444392,0.103478448,0.005327627,0.0,-0.006413315,0.0,-0.011956457,0.0,0.0,0.102134112,0.0,0.0,0.0,-0.031515128,0.001867935,0.0,-0.001304689,-0.009574401,0.051701724,0.006021167,0.007919032,0.0,-0.05420234,0.057645764,0.0,-0.018802308,0.02208166,-0.017735244,0.02208166,0.0,0.0,-0.031054054
37.0,-0.157051072,0.076763368,-0.17374128,0.076775928,0.136480016,0.05898602,-0.073240096,0.059575708,0.090338304,0.07077464,0.104898,-0.10723292,0.117430568,-0.117318928,0.181444624,-0.005226589,-0.195746944,-0.114925552,0.183874688,-0.013834858,0.086087136,0.187632272,-0.05952942,0.207201408,-0.155688464,-0.156254176,-0.182107056,-0.160925408,-0.12857908,0.137386128,-0.186904176,-0.063889548,-0.180086224,-0.134633344,0.133785192,0.07776308,-0.037019076,-0.065192968,-0.180086224,-0.078571648,-0.206259104,0.029899566,0.026398018,-0.209883056,0.032898098,0.14036952,-0.039289128,0.059787256,0.044444392,0.103478448,0.005327627,0.0,-0.006413315,0.0,-0.011956457,0.0,0.0,0.102134112,0.0,0.0,0.0,-0.031515128,0.001867935,0.0,-0.001304689,-0.009574401,0.051701724,0.006021167,0.007919032,0.0,-0.05420234,0.057645764,0.0,-0.018802308,0.02208166,-0.017735244,0.02208166,0.0,0.0,-0.031054054
38.0,-0.17682896,0.076763368,-0.17374128,0.076775928,0.136480016,0.05898602,-0.095962312,0.059575708,0.090338304,0.07077464,0.104898,-0.10723292,0.117430568,-0.117318928,0.181444624,-0.005226589,-0.195746944,-0.114925552,0.183874688,-0.013834858,0.086087136,0.187632272,-0.05952942,0.207201408,-0.155688464,-0.156254176,-0.182107056,-0.160925408,-0.12857908,0.137386128,-0.186904176,-0.063889548,-0.180086224,-0.134633344,0.133785192,0.07776308,-0.037019076,-0.065192968,-0.180086224,-0.078571648,-0.206259104,0.029899566,0.026398018,-0.209883056,0.032898098,0.14036952,-0.039289128,0.059787256,0.044444392,0.103478448,0.013506921,0.0,0.002618438,0.0,-0.011956457,0.0,0.0,0.1333632,0.0,0.0,0.0,-0.031515128,0.001867935,0.0,-0.001304689,-0.009574401,0.051701724,0.006021167,0.007919032,0.0,-0.05420234,0.057645764,0.0,-0.018802308,0.02208166,-0.017735244,0.02208166,0.0,0.0,-0.031054054
39.0,-0.17682896,0.076763368,-0.17374128,0.076775928,0.136480016,0.05898602,-0.095962312,0.059575708,0.090338304,0.07077464,0.104898,-0.10723292,0.117430568,-0.117318928,0.181444624,-0.005226589,-0.195746944,-0.114925552,0.183874688,-0.013834858,0.086087136,0.187632272,-0.05952942,0.207201408,-0.155688464,-0.156254176,-0.182107056,-0.160925408,-0.12857908,0.137386128,-0.186904176,-0.063889548,-0.180086224,-0.134633344,0.133785192,0.07776308,-0.037019076,-0.065192968,-0.180086224,-0.078571648,-0.206259104,0.029899566,0.026398018,-0.209883056,0.032898456,0.140371792,-0.039289128,0.059788992,0.044446856,0.103480112,0.01350477,0.0,0.002617403,0.0,-0.011956457,0.0,0.0,0.13336268,0.0,0.0,0.0,-0.031515128,0.001867935,0.0,-0.001304689,-0.009574401,0.051701724,0.006021167,0.007919032,0.0,-0.05420234,0.057645764,0.0,-0.018802308,0.02208166,-0.017735244,0.02208166,0.0,0.0,-0.031054054
40.0,-0.17682896,0.076763368,-0.17374128,0.076775928,0.136480016,0.05898602,-0.095962312,0.059575708,0.090338304,0.07077464,0.104898,-0.10723292,0.117430568,-0.117318928,0.181444624,-0.005226589,-0.195746944,-0.114925552,0.183874688,-0.013834858,0.086087136,0.187632272,-0.05952942,0.207201408,-0.155688464,-0.156254176,-0.182107056,-0.160925408,-0.12857908,0.137386128,-0.186904176,-0.063889548,-0.180086224,-0.134633344,0.133785192,0.07776308,-0.037019076,-0.065192968,-0.180086224,-0.078571648,-0.206259104,0.029899566,0.026398018,-0.209883056,0.032898456,0.140371792,-0.039289128,0.059788992,0.044446856,0.103480112,0.01350477,0.0,0.002617403,0.0,-0.011956457,0.0,0.0,0.13336268,0.0,0.0,0.0,-0.031515128,0.001867935,0.0,-0.001304689,-0.009574401,0.051701724,0.006021167,0.007919032,0.0,-0.05420234,0.057645764,0.0,-0.018802308,0.02208166,-0.017735244,0.02208166,0.0,0.0,-0.031054054
41.0,-0.17682896,0.076763368,-0.17374128,0.076775928,0.136480016,0.05898602,-0.095962312,0.059575708,0.090338304,0.07077464,0.104898,-0.10723292,0.117430568,-0.117318928,0.181444624,-0.005226589,-0.195746944,-0.114925552,0.183874688,-0.013834858,0.086087136,0.187632272,-0.05952942,0.207201408,-0.155688464,-0.156254176,-0.182107056,-0.160925408,-0.12857908,0.137386128,-0.186904176,-0.063889548,-0.180086224,-0.134633344,0.133785192,0.07776308,-0.037019076,-0.065192968,-0.180086224,-0.078571648,-0.206259104,0.029899566,0.026398018,-0.209883056,0.032898456,0.140371792,-0.039289128,0.059788992,0.044446856,0.103480112,0.01350477,0.0,0.002617403,0.0,-0.011956457,0.0,0.0,0.13336268,0.0,0.0,0.0,-0.031515128,0.001867935,0.0,-0.001304689,-0.009574401,0.051701724,0.006021167,0.007919032,0.0,-0.05420234,0.057645764,0.0,-0.018802308,0.02208166,-0.017735244,0.02208166,0.0,0.0,-0.031054054
42.0,-0.17682896,0.076763368,-0.17374128,0.076775928,0.136480016,0.05898602,-0.095962312,0.059575708,0.090338304,0.07077464,0.104898,-0.10723292,0.117430568,-0.117318928,0.181444624,-0.005226589,-0.195746944,-0.114925552,0.183874688,-0.013834858,0.086087136,0.187632272,-0.05952942,0.207201408,-0.155688464,-0.156254176,-0.182107056,-0.160925408,-0.12857908,0.137386128,-0.186904176,-0.063889548,-0.180086224,-0.134633344,0.133785192,0.07776308,-0.037019076,-0.065192968,-0.180086224,-0.078571648,-0.206259104,0.029899566,0.026398018,-0.209883056,0.032898456,0.140371792,-0.039289128,0.059788992,0.044446856,0.103480112,-0.004191948,0.0,0.002617403,0.0,-0.027614654,0.0,0.0,0.119895632,0.0,0.0,0.0,-0.031515128,0.001867935,0.0,-0.001304689,-0.009574401,0.051701724,0.006021167,0.007919032,0.0,-0.05420234,0.111210568,0.0,-0.018802308,0.023757878,-0.017735244,0.023757878,0.0,0.0,0.006105177
43.0,-0.17682896,0.076763368,-0.17374128,0.076775928,0.136480016,0.05898602,-0.095962312,0.059575708,0.090338304,0.07077464,0.104898,-0.10723292,0.117430568,-0.117318928,0.181444624,-0.005226589,-0.195746944,-0.114925552,0.183874688,-0.013834858,0.086087136,0.187632272,-0.05952942,0.207201408,-0.155688464,-0.156254176,-0.182107056,-0.160925408,-0.12857908,0.137386128,-0.186904176,-0.063889548,-0.180086224,-0.134633344,0.133785192,0.07776308,-0.037019076,-0.065192968,-0.180086224,-0.078571648,-0.206259104,0.029899566,0.026398018,-0.209883056,0.032898456,0.140371792,-0.039289128,0.059788992,0.044446856,0.103480112,-0.004191948,0.0,0.002617403,0.0,-0.027614654,0.0,0.0,0.119895632,0.0,0.0,0.0,-0.031515128,0.001867935,0.0,-0.001304689,-0.009574401,0.051701724,0.006021167,0.007919032,0.0,-0.05420234,0.111210568,0.0,-0.018802308,0.023757878,-0.017735244,0.023757878,0.0,0.0,0.006105177
44.0,-0.17682896,0.076763368,-0.17374128,0.076775928,0.136480016,0.05898602,-0.095962312,0.059575708,0.090338304,0.07077464,0.104898,-0.10723292,0.117430568,-0.117318928,0.181444624,-0.005226589,-0.195746944,-0.114925552,0.183874688,-0.013834858,0.086087136,0.187632272,-0.05952942,0.207201408,-0.155688464,-0.156254176,-0.182107056,-0.160925408,-0.12857908,0.137386128,-0.186904176,-0.063889548,-0.180086224,-0.134633344,0.133785192,0.07776308,-0.037019076,-0.065192968,-0.180086224,-0.078571648,-0.206259104,0.029899566,0.026398018,-0.209883056,0.032898456,0.140371792,-0.039289128,0.059788992,0.044446856,0.103480112,-0.004191948,0.0,0.002617403,0.0,-0.027614654,0.0,0.0,0.119895632,0.0,0.0,0.0,0.003563862,0.001867935,0.0,-0.001304689,-6.4161e-05,0.052468052,0.006509783,0.007919032,0.0,-0.057093568,0.069881944,-0.010945498,-0.018802308,0.008128965,-0.017735244,0.008128965,0.0,-0.000671287,-0.021739328
45.0,-0.17682896,0.076763368,-0.17374128,0.076775928,0.136480016,0.05898602,-0.095962312,0.059575708,0.090338304,0.07077464,0.104898,-0.10723292,0.117430568,-0.117318928,0.181444624,-0.005226589,-0.195746944,-0.114925552,0.183874688,-0.013834858,0.086087136,0.187632272,-0.05952942,0.207201408,-0.155688464,-0.156254176,-0.182107056,-0.160925408,-0.12857908,0.137386128,-0.186904176,-0.063889548,-0.180086224,-0.134633344,0.133785192,0.07776308,-0.037019076,-0.065192968,-0.180086224,-0.078571648,-0.206259104,0.029899566,0.026398018,-0.209883056,0.032898456,0.140371792,-0.039289128,0.059788992,0.044446856,0.103480112,-0.004191948,0.0,0.002617403,0.0,-0.027614654,0.0,0.0,0.119895632,0.0,0.0,0.0,0.003563862,0.001867935,0.0,-0.001304689,-6.4161e-05,0.052468052,0.006509783,0.007919032,0.0,-0.057093568,0.069881944,-0.010945498,-0.018802308,0.008128965,-0.017735244,0.008128965,0.0,-0.000671287,-0.021739328
46.0,-0.17682896,0.076763368,-0.17374128,0.076775928,0.136480016,0.05898602,-0.095962312,0.059575708,0.090338304,0.07077464,0.104898,-0.10723292,0.117430568,-0.117318928,0.181444624,-0.005226589,-0.195746944,-0.114925552,0.183874688,-0.013834858,0.086087136,0.187632272,-0.05952942,0.207201408,-0.155688464,-0.156254176,-0.182107056,-0.160925408,-0.12857908,0.137386128,-0.186904176,-0.063889548,-0.180086224,-0.134633344,0.133785192,0.07776308,-0.037019076,-0.065192968,-0.180086224,-0.078571648,-0.206259104,0.029899566,0.026398018,-0.209883056,0.032898456,0.140371792,-0.039289128,0.059788992,0.044446856,0.103480112,-0.004191948,0.0,0.002617403,0.0,-0.027614654,0.0,0.0,0.119895632,0.0,0.0,0.0,-0.025862648,-0.002250378,0.0,-0.001304689,-0.031933412,0.052468052,0.002658337,0.003806058,0.0,-0.057093568,0.127686632,-0.010945498,-0.018802308,0.035504876,-0.017735244,0.035504876,0.0,-0.000671287,0.020931988
47.0,-0.17682896,0.076763368,-0.17374128,0.076775928,0.136480016,0.05898602,-0.095962312,0.059575708,0.090338304,0.07077464,0.104898,-0.10723292,0.117430568,-0.117318928,0.181444624,-0.005226589,-0.195746944,-0.114925552,0.183874688,-0.013834858,0.086087136,0.187632272,-0.05952942,0.207201408,-0.155688464,-0.156254176,-0.182107056,-0.160925408,-0.12857908,0.137386128,-0.186904176,-0.063889548,-0.180086224,-0.134633344,0.133785192,0.07776308,-0.037019076,-0.065192968,-0.180086224,-0.078571648,-0.206259104,0.029899566,0.026398018,-0.209883056,0.032898456,0.140371792,-0.039289128,0.059788992,0.044446856,0.103480112,-0.004191948,0.0,0.002617403,0.0,-0.027614654,0.0,0.0,0.119895632,0.0,0.0,0.0,-0.025862648,-0.002250378,0.0,-0.001304689,-0.031933412,0.052468052,0.002658337,0.003806058,0.0,-0.057093568,0.127686632,-0.010945498,-0.018802308,0.035504876,-0.017735244,0.035504876,0.0,-0.000671287,0.020931988
48.0,-0.17682896,0.076763368,-0.17374128,0.076775928,0.136480016,0.05898602,-0.095962312,0.059575708,0.090338304,0.07077464,0.104898,-0.10723292,0.117430568,-0.117318928,0.181444624,-0.005226589,-0.195746944,-0.114925552,0.183874688,-0.013834858,0.086087136,0.187632272,-0.05952942,0.207201408,-0.155688464,-0.156254176,-0.182107056,-0.160925408,-0.12857908,0.137386128,-0.186904176,-0.063889548,-0.180086224,-0.134633344,0.133785192,0.07776308,-0.037019076,-0.065192968,-0.180086224,-0.078571648,-0.206259104,0.029899566,0.026398018,-0.209883056,0.032898456,0.140371792,-0.039289128,0.059788992,0.044446856,0.103480112,0.024194654,0.0,0.002617403,0.0,-0.011517683,0.0,0.0,0.157908416,0.0,0.0,0.0,-0.025862648,-0.002250378,0.0,-0.001304689,-0.031933412,0.052468052,0.002658337,0.003806058,0.0,-0.07265848,0.09519444,-0.010945498,-0.018802308,0.035504876,-0.017735244,0.035504876,0.0,-0.000671287,-0.019407942
49.0,-0.149338176,0.076763368,-0.17374128,0.076775928,0.136480016,0.061005412,-0.077221904,0.059575708,0.091939264,0.07077464,0.104898,-0.10723292,0.117430568,-0.117318928,0.181444624,-0.005226589,-0.195746944,-0.114925552,0.183874688,-0.013834858,0.086087136,0.187632272,-0.05952942,0.207201408,-0.155688464,-0.156254176,-0.182107056,-0.160925408,-0.12857908,0.137386128,-0.186904176,-0.063889548,-0.180086224,-0.134633344,0.133785192,0.07776308,-0.037019076,-0.065192968,-0.180086224,-0.078571648,-0.206259104,0.029899566,0.026398018,-0.209883056,0.032898456,0.140371792,-0.039289128,0.059788992,0.044446856,0.103480112,0.013899812,0.0,-0.000325904,0.0,-0.015217667,0.0,0.0,0.155073008,0.0,0.0,0.0,-0.025862648,-0.002250378,0.0,-0.001304689,-0.031933412,0.052468052,0.002658337,0.003806058,0.0,-0.07265848,0.09519444,-0.010945498,-0.018802308,0.035504876,-0.017735244,0.035504876,0.0,-0.000671287,-0.019407942
50.0,-0.185001792,0.076763368,-0.180007184,0.076775928,0.136480016,0.061005412,-0.115217488,0.059575708,0.091939264,0.063856668,0.104898,-0.10723292,0.117430568,-0.117318928,0.181444624,-0.005226589,-0.195746944,-0.114925552,0.183874688,-0.013834858,0.086087136,0.187632272,-0.05952942,0.207201408,-0.155688464,-0.156254176,-0.182107056,-0.160925408,-0.12857908,0.137386128,-0.186904176,-0.063889548,-0.180086224,-0.134633344,0.133785192,0.07776308,-0.037019076,-0.065192968,-0.180086224,-0.078571648,-0.206259104,0.029899566,0.026398018,-0.209883056,0.032898456,0.140371792,-0.039289128,0.059788992,0.044446856,0.103480112,0.013899812,0.0,-0.000325904,0.0,-0.015217667,0.0,0.0,0.155073008,0.0,0.0,0.0,-0.025862648,-0.002250378,0.0,-0.001304689,-0.031933412,0.052468052,0.002658337,0.003806058,0.0,-0.05393154,0.156348352,-0.010945498,-0.018802308,0.082292232,-0.017735244,0.082292232,0.0,-0.000671287,0.01858765
51.0,-0.185001792,0.076763368,-0.180007184,0.076775928,0.136480016,0.061005412,-0.115217488,0.059575708,0.091939264,0.063856668,0.104898,-0.10723292,0.117430568,-0.117318928,0.181444624,-0.005226589,-0.195746944,-0.114925552,0.183874688,-0.013834858,0.086087136,0.187632272,-0.05952942,0.207201408,-0.155688464,-0.156254176,-0.182107056,-0.160925408,-0.12857908,0.137386128,-0.186904176,-0.063889548,-0.180086224,-0.134633344,0.133785192,0.07776308,-0.037019076,-0.065192968,-0.180086224,-0.078571648,-0.206259104,0.029899566,0.026398018,-0.209883056,0.032898456,0.140371792,-0.039289128,0.059788992,0.044446856,0.103480112,0.013899812,0.0,-0.000325904,0.0,-0.015217667,0.0,0.0,0.155073008,0.0,0.0,0.0,-0.025862648,-0.002250378,0.0,-0.001304689,-0.031933412,0.052468052,0.002658337,0.003806058,0.0,-0.05393154,0.156348352,-0.010945498,-0.018802308,0.082292232,-0.017735244,0.082292232,0.0,-0.000671287,0.01858765
52.0,-0.149341728,0.076763368,-0.180007184,0.076775928,0.136480016,0.061005412,-0.082840144,0.059575708,0.091939264,0.063856668,0.104898,-0.10723292,0.117430568,-0.117318928,0.181444624,-0.005226589,-0.195746944,-0.114925552,0.183874688,-0.013834858,0.086087136,0.187632272,-0.05952942,0.207201408,-0.155688464,-0.156254176,-0.182107056,-0.160925408,-0.12857908,0.137386128,-0.186904176,-0.063889548,-0.180086224,-0.134633344,0.133785192,0.07776308,-0.037019076,-0.065192968,-0.180086224,-0.078571648,-0.206259104,0.029899566,0.026398018,-0.209883056,0.032898456,0.140371792,-0.039289128,0.059788992,0.044446856,0.103480112,0.013899812,0.0,-0.000325904,0.0,-0.015217667,0.0,0.0,0.155073008,0.0,0.0,0.0,-0.025862648,-0.002250378,0.0,-0.001304689,-0.031933412,0.052468052,0.002658337,0.003806058,0.0,-0.073529776,0.121051896,-0.010945498,-0.018802308,0.063561812,-0.017735244,0.063561812,0.0,-0.000671287,-0.0137897
53.0,-0.149341728,0.076763368,-0.180007184,0.076775928,0.136480016,0.061005412,-0.082840144,0.059575708,0.091939264,0.063856668,0.104898,-0.10723292,0.117430568,-0.117318928,0.181444624,-0.005226589,-0.195746944,-0.114925552,0.183874688,-0.013834858,0.086087136,0.187632272,-0.05952942,0.207201408,-0.155688464,-0.156254176,-0.182107056,-0.160925408,-0.12857908,0.137386128,-0.186904176,-0.063889548,-0.180086224,-0.134633344,0.133785192,0.07776308,-0.037019076,-0.065192968,-0.180086224,-0.078571648,-0.206259104,0.029899566,0.026398018,-0.209883056,0.032898456,0.140371792,-0.039289128,0.059788992,0.044446856,0.103480112,0.013899812,0.0,-0.000325904,0.0,-0.015217667,0.0,0.0,0.155073008,0.0,0.0,0.0,-0.025862648,-0.002250378,0.0,-0.001304689,-0.031933412,0.052468052,0.002658337,0.003806058,0.0,-0.073529776,0.121051896,-0.010945498,-0.018802308,0.063561812,-0.017735244,0.063561812,0.0,-0.000671287,-0.0137897
54.0,-0.149341728,0.076763368,-0.180007184,0.076775928,0.136480016,0.061005412,-0.082840144,0.059575708,0.091939264,0.063856668,0.104898,-0.10723292,0.117430568,-0.117318928,0.181444624,-0.005226589,-0.195746944,-0.114925552,0.183874688,-0.013834858,0.086087136,0.187632272,-0.05952942,0.207201408,-0.155688464,-0.156254176,-0.182107056,-0.160925408,-0.12857908,0.137386128,-0.186904176,-0.063889548,-0.180086224,-0.134633344,0.133785192,0.07776308,-0.037019076,-0.065192968,-0.180086224,-0.078571648,-0.206259104,0.029899566,0.026398018,-0.209883056,0.032898456,0.140371792,-0.039289128,0.059788992,0.044446856,0.103480112,0.013899812,0.0,-0.000325904,0.0,-0.015217667,0.0,0.0,0.155073008,0.0,0.0,0.0,-0.025862648,-0.002250378,0.0,-0.001304689,-0.031933412,0.052468052,0.002658337,0.003806058,0.0,-0.073529776,0.121051896,-0.010945498,-0.018802308,0.063561812,-0.017735244,0.063561812,0.0,-0.000671287,-0.0137897
55.0,-0.191393904,0.076763368,-0.180007184,0.076775928,0.136480016,0.061005412,-0.12896076,0.059575708,0.091939264,0.063856668,0.104898,-0.10723292,0.117430568,-0.117318928,0.181444624,-0.005226589,-0.195746944,-0.114925552,0.183874688,-0.013834858,0.086087136,0.187632272,-0.05952942,0.207201408,-0.155688464,-0.156254176,-0.182107056,-0.160925408,-0.12857908,0.137386128,-0.186904176,-0.063889548,-0.180086224,-0.134633344,0.133785192,0.07776308,-0.037019076,-0.065192968,-0.180086224,-0.078571648,-0.206259104,0.029899566,0.026398018,-0.209883056,0.032898456,0.140371792,-0.039289128,0.059788992,0.044446856,0.103480112,0.013899812,0.0,-0.000325904,0.0,-0.015217667,0.0,0.0,0.155073008,0.0,0.0,0.0,-0.025862648,-0.002250378,0.0,-0.001304689,-0.031933412,0.052468052,0.002658337,0.003806058,0.0,-0.071028264,0.167385168,-0.010945498,-0.018802308,0.063561812,-0.017735244,0.063561812,0.0,-0.000671287,0.032330922
56.0,-0.191393904,0.076763368,-0.180007184,0.076775928,0.136480016,0.061005412,-0.12896076,0.059575708,0.091939264,0.063856668,0.104898,-0.10723292,0.117430568,-0.117318928,0.181444624,-0.005226589,-0.195746944,-0.114925552,0.183874688,-0.013834858,0.086087136,0.187632272,-0.05952942,0.207201408,-0.155688464,-0.156254176,-0.182107056,-0.160925408,-0.12857908,0.137386128,-0.186904176,-0.063889548,-0.180086224,-0.134633344,0.133785192,0.07776308,-0.037019076,-0.065192968,-0.180086224,-0.078571648,-0.206259104,0.029899566,0.026398018,-0.209883056,0.032898456,0.140371792,-0.039289128,0.059788992,0.044446856,0.103480112,0.013899812,0.0,-0.000325904,0.0,-0.015217667,0.0,0.0,0.155073008,0.0,0.0,0.0,-0.025862648,-0.002250378,0.0,-0.001304689,-0.031933412,0.052468052,0.002658337,0.003806058,0.0,-0.071028264,0.167385168,-0.010945498,-0.018802308,0.063561812,-0.017735244,0.063561812,0.0,-0.000671287,0.032330922
57.0,-0.191393904,0.076763368,-0.180007184,0.076775928,0.136480016,0.061005412,-0.12896076,0.059575708,0.091939264,0.063856668,0.104898,-0.10723292,0.117430568,-0.117318928,0.181444624,-0.005226589,-0.195746944,-0.114925552,0.183874688,-0.013834858,0.086087136,0.187632272,-0.05952942,0.207201408,-0.155688464,-0.156254176,-0.182107056,-0.160925408,-0.12857908,0.137386128,-0.186904176,-0.063889548,-0.180086224,-0.134633344,0.133785192,0.07776308,-0.037019076,-0.065192968,-0.180086224,-0.078571648,-0.206259104,0.029899566,0.026398018,-0.209883056,0.032898456,0.140371792,-0.039289128,0.059788992,0.044446856,0.103480112,0.013899812,0.0,-0.000325904,0.0,-0.015217667,0.0,0.0,0.155073008,0.0,0.0,0.0,-0.025862648,-0.002250378,0.0,-0.001304689,-0.031933412,0.052468052,0.002658337,0.003806058,0.0,-0.071028264,0.167385168,-0.010945498,-0.018802308,0.063561812,-0.017735244,0.063561812,0.0,-0.000671287,0.032330922
58.0,-0.191393904,0.076763368,-0.180007184,0.076775928,0.136480016,0.061005412,-0.12896076,0.059575708,0.091939264,0.063856668,0.104898,-0.10723292,0.117430568,-0.117318928,0.181444624,-0.005226589,-0.195746944,-0.114925552,0.183874688,-0.013834858,0.086087136,0.187632272,-0.05952942,0.207201408,-0.155688464,-0.156254176,-0.182107056,-0.160925408,-0.12857908,0.137386128,-0.186904176,-0.063889548,-0.180086224,-0.134633344,0.133785192,0.07776308,-0.037019076,-0.065192968,-0.180086224,-0.078571648,-0.206259104,0.029899566,0.026398018,-0.209883056,0.032898456,0.140371792,-0.039289128,0.059788992,0.044446856,0.103480112,0.013899812,0.0,-0.000325904,0.0,-0.015217667,0.0,0.0,0.155073008,0.0,0.0,0.0,-0.025862648,-0.002250378,0.0,-0.001304689,-0.031933412,0.052468052,0.002658337,0.003806058,0.0,-0.071028264,0.167385168,-0.010945498,-0.018802308,0.063561812,-0.017735244,0.063561812,0.0,-0.000671287,0.032330922
59.0,-0.191393904,0.076763368,-0.180007184,0.076775928,0.136480016,0.061005412,-0.12896076,0.059575708,0.091939264,0.063856668,0.104898,-0.10723292,0.117430568,-0.117318928,0.181444624,-0.005226589,-0.195746944,-0.114925552,0.183874688,-0.013834858,0.086087136,0.187632272,-0.05952942,0.207201408,-0.155688464,-0.156254176,-0.182107056,-0.160925408,-0.12857908,0.137386128,-0.186904176,-0.063889548,-0.180086224,-0.134633344,0.133785192,0.07776308,-0.037019076,-0.065192968,-0.180086224,-0.078571648,-0.206259104,0.029899566,0.026398018,-0.209883056,0.032898456,0.140371792,-0.039289128,0.059788992,0.044446856,0.103480112,0.04907194,0.0,0.00020576,0.0,-0.007752779,0.0,0.0,0.186252384,0.0,0.0,0.0,-0.025862648,-0.002250378,0.0,-0.001304689,-0.031933412,0.052468052,0.002658337,0.003806058,0.0,-0.093785968,0.132447568,-0.010945498,-0.018802308,0.06259738,-0.017735244,0.06259738,0.0,-0.000671287,-0.009279825
60.0,-0.191393904,0.076763368,-0.180007184,0.076775928,0.136480016,0.061005412,-0.12896076,0.059575708,0.091939264,0.063856668,0.104898,-0.10723292,0.117430568,-0.117318928,0.181444624,-0.005226589,-0.195746944,-0.114925552,0.183874688,-0.013834858,0.086087136,0.187632272,-0.05952942,0.207201408,-0.155688464,-0.156254176,-0.182107056,-0.160925408,-0.12857908,0.137386128,-0.186904176,-0.063889548,-0.180086224,-0.134633344,0.133785192,0.07776308,-0.037019076,-0.065192968,-0.180086224,-0.078571648,-0.206259104,0.029899566,0.026398018,-0.209883056,0.032898456,0.140371792,-0.039289128,0.059788992,0.044446856,0.103480112,0.04907194,0.0,0.00020576,0.0,-0.007752779,0.0,0.0,0.186252384,0.0,0.0,0.0,-0.025862648,-0.002250378,0.0,-0.001304689,-0.031933412,0.052468052,0.002658337,0.003806058,0.0,-0.093785968,0.132447568,-0.010945498,-0.018802308,0.06259738,-0.017735244,0.06259738,0.0,-0.000671287,-0.009279825
61.0,-0.191393904,0.076763368,-0.180007184,0.076775928,0.136480016,0.061005412,-0.12896076,0.059575708,0.091939264,0.063856668,0.104898,-0.10723292,0.117430568,-0.117318928,0.181444624,-0.005226589,-0.195746944,-0.114925552,0.183874688,-0.013834858,0.086087136,0.187632272,-0.05952942,0.207201408,-0.155688464,-0.156254176,-0.182107056,-0.160925408,-0.12857908,0.137386128,-0.186904176,-0.063889548,-0.180086224,-0.134633344,0.133785192,0.07776308,-0.037019076,-0.065192968,-0.180086224,-0.078571648,-0.206259104,0.029899566,0.026398018,-0.209883056,0.032898456,0.140371792,-0.039289128,0.059788992,0.044446856,0.103480112,0.04907194,0.0,0.00020576,0.0,-0.007752779,0.0,0.0,0.186252384,0.0,0.0,0.0,-0.025862648,-0.002250378,0.0,-0.001304689,-0.031933412,0.052468052,0.002658337,0.003806058,0.0,-0.093785968,0.132447568,-0.010945498,-0.018802308,0.06259738,-0.017735244,0.06259738,0.0,-0.000671287,-0.009279825
62.0,-0.191393904,0.076763368,-0.180007184,0.076775928,0.136480016,0.061005412,-0.12896076,0.059575708,0.091939264,0.063856668,0.104898,-0.10723292,0.117430568,-0.117318928,0.181444624,-0.005226589,-0.195746944,-0.114925552,0.183874688,-0.013834858,0.086087136,0.187632272,-0.05952942,0.207201408,-0.155688464,-0.156254176,-0.182107056,-0.160925408,-0.12857908,0.137386128,-0.186904176,-0.063889548,-0.180086224,-0.134633344,0.133785192,0.07776308,-0.037019076,-0.065192968,-0.180086224,-0.078571648,-0.206259104,0.029899566,0.026398018,-0.209883056,0.032898456,0.140371792,-0.039289128,0.059788992,0.044446856,0.103480112,0.02971193,0.0,0.00020576,0.0,-0.011650847,0.0,0.0,0.182739152,0.0,0.0,0.0,-0.002237258,-0.001944566,0.0,-0.001304689,-0.012573401,0.052468052,0.019694338,0.003806058,0.0,-0.093785968,0.132447568,-0.010945498,-0.018802308,0.06259738,-0.017735244,0.06259738,0.0,-0.000671287,-0.009279825
63.0,-0.191393904,0.076763368,-0.180007184,0.076775928,0.136480016,0.061005412,-0.12896076,0.059575708,0.091939264,0.063856668,0.104898,-0.10723292,0.117430568,-0.117318928,0.181444624,-0.005226589,-0.195746944,-0.114925552,0.183874688,-0.013834858,0.086087136,0.187632272,-0.05952942,0.207201408,-0.155688464,-0.156254176,-0.182107056,-0.160925408,-0.12857908,0.137386128,-0.186904176,-0.063889548,-0.180086224,-0.134633344,0.133785192,0.07776308,-0.037019076,-0.065192968,-0.180086224,-0.078571648,-0.206259104,0.029899566,0.026398018,-0.209883056,0.032898456,0.140371792,-0.039289128,0.059788992,0.044446856,0.103480112,0.02971193,0.0,0.00020576,0.0,-0.011650847,0.0,0.0,0.182739152,0.0,0.0,0.0,-0.002237258,-0.001944566,0.0,-0.001304689,-0.012573401,0.052468052,0.019694338,0.003806058,0.0,-0.093785968,0.132447568,-0.010945498,-0.018802308,0.06259738,-0.017735244,0.06259738,0.0,-0.000671287,-0.009279825
64.0,-0.191393904,0.076763368,-0.180007184,0.076775928,0.136480016,0.061005412,-0.12896076,0.059575708,0.091939264,0.063856668,0.104898,-0.10723292,0.117430568,-0.117318928,0.181444624,-0.005226589,-0.195746944,-0.114925552,0.183874688,-0.013834858,0.086087136,0.187632272,-0.05952942,0.207201408,-0.155688464,-0.156254176,-0.182107056,-0.160925408,-0.12857908,0.137386128,-0.186904176,-0.063889548,-0.180086224,-0.134633344,0.133785192,0.07776308,-0.037019076,-0.065192968,-0.180086224,-0.078571648,-0.206259104,0.029899566,0.026398018,-0.209883056,0.032898456,0.140371792,-0.039289128,0.059788992,0.044446856,0.103480112,0.02971193,0.0,0.00020576,0.0,-0.011650847,0.0,0.0,0.182739152,0.0,0.0,0.0,-0.002237258,-0.001944566,0.0,-0.001304689,-0.012573401,0.052468052,0.019694338,0.003806058,0.0,-0.093785968,0.132447568,-0.010945498,-0.018802308,0.06259738,-0.017735244,0.06259738,0.0,-0.000671287,-0.009279825
65.0,-0.191393904,0.076763368,-0.180007184,0.076775928,0.136480016,0.061005412,-0.12896076,0.059575708,0.091939264,0.063856668,0.104898,-0.10723292,0.117430568,-0.117318928,0.181444624,-0.005226589,-0.195746944,-0.114925552,0.183874688,-0.013834858,0.086087136,0.187632272,-0.05952942,0.207201408,-0.155688464,-0.156254176,-0.182107056,-0.160925408,-0.12857908,0.137386128,-0.186904176,-0.063889548,-0.180086224,-0.134633344,0.133785192,0.07776308,-0.037019076,-0.065192968,-0.180086224,-0.078571648,-0.206259104,0.029899566,0.026398018,-0.209883056,0.032898456,0.140371792,-0.039289128,0.059788992,0.044446856,0.103480112,0.02971193,0.0,0.00020576,0.0,-0.011650847,0.0,0.0,0.182739152,0.0,0.0,0.0,-0.002237258,-0.001944566,0.0,-0.001304689,-0.012573401,0.052468052,0.019694338,0.003806058,0.0,-0.093785968,0.132447568,-0.010945498,-0.018802308,0.06259738,-0.017735244,0.06259738,0.0,-0.000671287,-0.009279825
66.0,-0.191393904,0.076763368,-0.180007184,0.076775928,0.136480016,0.061005412,-0.12896076,0.059575708,0.091939264,0.063856668,0.104898,-0.10723292,0.117430568,-0.117318928,0.181444624,-0.005226589,-0.195746944,-0.114925552,0.183874688,-0.013834858,0.086087136,0.187632272,-0.05952942,0.207201408,-0.155688464,-0.156254176,-0.182107056,-0.160925408,-0.12857908,0.137386128,-0.186904176,-0.063889548,-0.180086224,-0.134633344,0.133785192,0.07776308,-0.037019076,-0.065192968,-0.180086224,-0.078571648,-0.206259104,0.029899566,0.026398018,-0.209883056,0.032898456,0.140371792,-0.039289128,0.059788992,0.044446856,0.103480112,0.054779052,0.0,0.001292888,0.0,-0.011109838,0.0,0.0,0.211903904,0.0,0.0,0.0,-0.034393936,-0.006432753,0.0,-0.011176135,-0.037640528,0.041062348,0.019694338,-0.006909742,0.0,-0.093785968,0.132447568,-0.010945498,-0.018802308,0.06259738,-0.017735244,0.06259738,0.0,-0.000671287,-0.009279825
67.0,-0.191393904,0.076763368,-0.180007184,0.076775928,0.136480016,0.061005412,-0.12896076,0.059575708,0.091939264,0.063856668,0.104898,-0.10723292,0.117430568,-0.117318928,0.181444624,-0.005226589,-0.195746944,-0.114925552,0.183874688,-0.013834858,0.086087136,0.187632272,-0.05952942,0.207201408,-0.155688464,-0.156254176,-0.182107056,-0.160925408,-0.12857908,0.137386128,-0.186904176,-0.063889548,-0.180086224,-0.134633344,0.133785192,0.07776308,-0.037019076,-0.065192968,-0.180086224,-0.078571648,-0.206259104,0.029899566,0.026398018,-0.209883056,0.032898456,0.140371792,-0.039289128,0.059788992,0.044446856,0.103480112,0.03343033,0.0,0.001292888,0.0,-0.034253968,0.0,0.0,0.211903904,0.0,0.0,0.0,-0.008647244,-0.006432753,0.0,-0.011176135,-0.016291806,0.055688208,0.030144188,-0.002173759,0.0,-0.093785968,0.132447568,-0.010945498,-0.018802308,0.06259738,-0.017735244,0.06259738,0.0,-0.000671287,-0.009279825
68.0,-0.191393904,0.076763368,-0.180007184,0.076775928,0.136480016,0.061005412,-0.12896076,0.059575708,0.091939264,0.063856668,0.104898,-0.10723292,0.117430568,-0.117318928,0.181444624,-0.005226589,-0.195746944,-0.114925552,0.183874688,-0.013834858,0.086087136,0.187632272,-0.05952942,0.207201408,-0.155688464,-0.156254176,-0.182107056,-0.160925408,-0.12857908,0.137386128,-0.186904176,-0.063889548,-0.180086224,-0.134633344,0.133785192,0.07776308,-0.037019076,-0.065192968,-0.180086224,-0.078571648,-0.206259104,0.029899566,0.026398018,-0.209883056,0.032898456,0.140371792,-0.039289128,0.059788992,0.044446856,0.103480112,0.03343033,0.0,0.001292888,0.0,-0.034253968,0.0,0.0,0.211903904,0.0,0.0,0.0,-0.008647244,-0.006432753,0.0,-0.011176135,-0.016291806,0.055688208,0.030144188,-0.002173759,0.0,-0.093785968,0.132447568,-0.010945498,-0.018802308,0.06259738,-0.017735244,0.06259738,0.0,-0.000671287,-0.009279825
69.0,-0.191393904,0.076763368,-0.180007184,0.076775928,0.136480016,0.061005412,-0.12896076,0.059575708,0.091939264,0.063856668,0.104898,-0.10723292,0.117430568,-0.117318928,0.181444624,-0.005226589,-0.195746944,-0.114925552,0.183874688,-0.013834858,0.086087136,0.187632272,-0.05952942,0.207201408,-0.155688464,-0.156254176,-0.182107056,-0.160925408,-0.12857908,0.137386128,-0.186904176,-0.063889548,-0.180086224,-0.134633344,0.133785192,0.07776308,-0.037019076,-0.065192968,-0.180086224,-0.078571648,-0.206259104,0.029899566,0.026398018,-0.209883056,0.032898456,0.140371792,-0.039289128,0.059788992,0.044446856,0.103480112,0.03343033,0.0,0.001292888,0.0,-0.034253968,0.0,0.0,0.211903904,0.0,0.0,0.0,-0.008647244,-0.006432753,0.0,-0.011176135,-0.016291806,0.055688208,0.030144188,-0.002173759,0.0,-0.093785968,0.132447568,-0.010945498,-0.018802308,0.06259738,-0.017735244,0.06259738,0.0,-0.000671287,-0.009279825
70.0,-0.191393904,0.076763368,-0.180007184,0.076775928,0.136480016,0.061005412,-0.12896076,0.059575708,0.091939264,0.063856668,0.104898,-0.10723292,0.117430568,-0.117318928,0.181444624,-0.005226589,-0.195746944,-0.114925552,0.183874688,-0.013834858,0.086087136,0.187632272,-0.05952942,0.207201408,-0.155688464,-0.156254176,-0.182107056,-0.160925408,-0.12857908,0.137386128,-0.186904176,-0.063889548,-0.180086224,-0.134633344,0.133785192,0.07776308,-0.037019076,-0.065192968,-0.180086224,-0.078571648,-0.206259104,0.029899566,0.026398018,-0.209883056,0.032898456,0.140371792,-0.039289128,0.059788992,0.044446856,0.103480112,0.03343033,0.0,0.001292888,0.0,-0.034253968,0.0,0.0,0.211903904,0.0,0.0,0.0,-0.032071226,-0.006432753,0.0,-0.011176135,-0.033217966,0.046643628,0.000994445,-0.01569731,0.0,-0.093785968,0.176269408,-0.010945498,-0.018802308,0.092021872,-0.017735244,0.092021872,0.001359865,-0.000671287,0.027973012
71.0,-0.191393904,0.076763368,-0.180007184,0.076775928,0.136480016,0.061005412,-0.12896076,0.059575708,0.091939264,0.063856668,0.104898,-0.10723292,0.117430568,-0.117318928,0.181444624,-0.005226589,-0.195746944,-0.114925552,0.183874688,-0.013834858,0.086087136,0.187632272,-0.05952942,0.207201408,-0.155688464,-0.156254176,-0.182107056,-0.160925408,-0.12857908,0.137386128,-0.186904176,-0.063889548,-0.180086224,-0.134633344,0.133785192,0.07776308,-0.037019076,-0.065192968,-0.180086224,-0.078571648,-0.206259104,0.029899566,0.026398018,-0.209883056,0.032898456,0.140371792,-0.039289128,0.059788992,0.044446856,0.103480112,0.03343033,0.0,0.001292888,0.0,-0.034253968,0.0,0.0,0.211903904,0.0,0.0,0.0,-0.032071226,-0.006432753,0.0,-0.011176135,-0.033217966,0.046643628,0.000994445,-0.01569731,0.0,-0.093785968,0.176269408,-0.010945498,-0.018802308,0.092021872,-0.017735244,0.092021872,0.001359865,-0.000671287,0.027973012
72.0,-0.191393904,0.076763368,-0.180007184,0.076775928,0.136480016,0.061005412,-0.12896076,0.059575708,0.091939264,0.063856668,0.104898,-0.10723292,0.117430568,-0.117318928,0.181444624,-0.005226589,-0.195746944,-0.114925552,0.183874688,-0.013834858,0.086087136,0.187632272,-0.05952942,0.207201408,-0.155688464,-0.156254176,-0.182107056,-0.160925408,-0.12857908,0.137386128,-0.186904176,-0.063889548,-0.180086224,-0.134633344,0.133785192,0.07776308,-0.037019076,-0.065192968,-0.180086224,-0.078571648,-0.206259104,0.029899566,0.026398018,-0.209883056,0.032898456,0.140371792,-0.039289128,0.059788992,0.044446856,0.103480112,0.03343033,0.0,0.001292888,0.0,-0.034253968,0.0,0.0,0.211903904,0.0,0.0,0.0,-0.032071226,-0.006432753,0.0,-0.011176135,-0.033217966,0.046643628,0.000994445,-0.01569731,0.0,-0.093785968,0.176269408,-0.010945498,-0.018802308,0.092021872,-0.017735244,0.092021872,0.001359865,-0.000671287,0.027973012
73.0,-0.191393904,0.076763368,-0.180007184,0.076775928,0.136480016,0.061005412,-0.12896076,0.059575708,0.091939264,0.063856668,0.104898,-0.10723292,0.117430568,-0.117318928,0.181444624,-0.005226589,-0.195746944,-0.114925552,0.183874688,-0.013834858,0.086087136,0.187632272,-0.05952942,0.207201408,-0.155688464,-0.156254176,-0.182107056,-0.160925408,-0.12857908,0.137386128,-0.186904176,-0.063889548,-0.180086224,-0.134633344,0.133785192,0.07776308,-0.037019076,-0.065192968,-0.180086224,-0.078571648,-0.206259104,0.029899566,0.026398018,-0.209883056,0.032898456,0.140371792,-0.039289128,0.059788992,0.044446856,0.103480112,0.03343033,0.0,0.001292888,0.0,-0.034253968,0.0,0.0,0.211903904,0.0,0.0,0.0,-0.032071226,-0.006432753,0.0,-0.011176135,-0.033217966,0.046643628,0.000994445,-0.01569731,0.0,-0.093785968,0.176269408,-0.010945498,-0.018802308,0.092021872,-0.017735244,0.092021872,0.001359865,-0.000671287,0.027973012
74.0,-0.191393904,0.076763368,-0.180007184,0.076775928,0.136480016,0.061005412,-0.12896076,0.059575708,0.091939264,0.063856668,0.104898,-0.10723292,0.117430568,-0.117318928,0.181444624,-0.005226589,-0.195746944,-0.114925552,0.183874688,-0.013834858,0.086087136,0.187632272,-0.05952942,0.207201408,-0.155688464,-0.156254176,-0.182107056,-0.160925408,-0.12857908,0.137386128,-0.186904176,-0.063889548,-0.180086224,-0.134633344,0.133785192,0.07776308,-0.037019076,-0.065192968,-0.180086224,-0.078571648,-0.206259104,0.029899566,0.026398018,-0.209883056,0.032898456,0.140371792,-0.039289128,0.059788992,0.044446856,0.103480112,0.03343033,0.0,0.001292888,0.0,-0.034253968,0.0,0.0,0.211903904,0.0,0.0,0.0,-0.032071226,-0.006432753,0.0,-0.011176135,-0.033217966,0.046643628,0.000994445,-0.01569731,0.0,-0.093785968,0.176269408,-0.010945498,-0.018802308,0.092021872,-0.017735244,0.092021872,0.001359865,-0.000671287,0.027973012
75.0,-0.191393904,0.076763368,-0.180007184,0.076775928,0.136480016,0.061005412,-0.12896076,0.059575708,0.091939264,0.063856668,0.104898,-0.10723292,0.117430568,-0.117318928,0.181444624,-0.005226589,-0.195746944,-0.114925552,0.183874688,-0.013834858,0.086087136,0.187632272,-0.05952942,0.207201408,-0.155688464,-0.156254176,-0.182107056,-0.160925408,-0.12857908,0.137386128,-0.186904176,-0.063889548,-0.180086224,-0.134633344,0.133785192,0.07776308,-0.037019076,-0.065192968,-0.180086224,-0.078571648,-0.206259104,0.029899566,0.026398018,-0.209883056,0.032898456,0.140371792,-0.039289128,0.059788992,0.044446856,0.103480112,0.049008056,0.0,0.030028846,0.0,-0.03313547,0.0,0.0,0.229232112,0.0,0.0,0.0,-0.032071226,-0.006432753,0.0,-0.011176135,-0.033217966,0.046643628,0.000994445,-0.01569731,0.0,-0.111383032,0.161574704,-0.010945498,-0.018802308,0.073824992,-0.017735244,0.073824992,0.001359865,-0.020366356,-0.003921236
76.0,-0.191393904,0.076763368,-0.180007184,0.076775928,0.136480016,0.061005412,-0.12896076,0.059575708,0.091939264,0.063856668,0.104898,-0.10723292,0.117430568,-0.117318928,0.181444624,-0.005226589,-0.195746944,-0.114925552,0.183874688,-0.013834858,0.086087136,0.187632272,-0.05952942,0.207201408,-0.155688464,-0.156254176,-0.182107056,-0.160925408,-0.12857908,0.137386128,-0.186904176,-0.063889548,-0.180086224,-0.134633344,0.133785192,0.07776308,-0.037019076,-0.065192968,-0.180086224,-0.078571648,-0.206259104,0.029899566,0.026398018,-0.209883056,0.032898456,0.178257344,-0.039289128,0.086896784,0.057471256,0.12573248,0.020398578,0.0,0.009693533,0.0,-0.03313547,0.0,0.0,0.229128768,0.0,0.0,0.0,-0.032071226,-0.006432753,0.0,-0.011176135,-0.033217966,0.046643628,0.000994445,-0.01569731,0.0,-0.111383032,0.161574704,-0.010945498,-0.018802308,0.073824992,-0.017735244,0.073824992,0.001359865,-0.020366356,-0.003921236
77.0,-0.178490992,0.076763368,-0.180007184,0.076775928,0.136480016,0.061005412,-0.09532148,0.059575708,0.091939264,0.063856668,0.104898,-0.10723292,0.117430568,-0.117318928,0.181444624,-0.005226589,-0.195746944,-0.114925552,0.183874688,-0.013834858,0.086087136,0.187632272,-0.05952942,0.207201408,-0.155688464,-0.156254176,-0.182107056,-0.160925408,-0.12857908,0.137386128,-0.186904176,-0.063889548,-0.180086224,-0.134633344,0.133785192,0.07776308,-0.037019076,-0.065192968,-0.180086224,-0.078571648,-0.206259104,0.029899566,0.026398018,-0.209883056,0.032898456,0.178257344,-0.039289128,0.086896784,0.057471256,0.12573248,-0.019694602,0.0,0.009693533,0.0,-0.037680728,0.0,0.0,0.187385664,0.0,0.0,0.0,-0.032071226,-0.006432753,0.0,-0.011176135,-0.033217966,0.046643628,0.000994445,-0.01569731,0.0,-0.111383032,0.161574704,-0.010945498,-0.018802308,0.073824992,-0.017735244,0.073824992,0.001359865,-0.020366356,-0.003921236
78.0,-0.178490992,0.076763368,-0.180007184,0.076775928,0.136480016,0.061005412,-0.09532148,0.059575708,0.091939264,0.063856668,0.104898,-0.10723292,0.117430568,-0.117318928,0.181444624,-0.005226589,-0.195746944,-0.114925552,0.183874688,-0.013834858,0.086087136,0.187632272,-0.05952942,0.207201408,-0.155688464,-0.156254176,-0.182107056,-0.160925408,-0.12857908,0.137386128,-0.186904176,-0.063889548,-0.180086224,-0.134633344,0.133785192,0.07776308,-0.037019076,-0.065192968,-0.180086224,-0.078571648,-0.206259104,0.029899566,0.026398018,-0.209883056,0.032898456,0.178257344,-0.039289128,0.086896784,0.057471256,0.12573248,-0.019694602,0.0,0.009693533,0.0,-0.037680728,0.0,0.0,0.187385664,0.0,0.0,0.0,-0.032071226,-0.006432753,0.0,-0.011176135,-0.033217966,0.046643628,0.000994445,-0.01569731,0.0,-0.111383032,0.161574704,-0.010945498,-0.018802308,0.073824992,-0.017735244,0.073824992,0.001359865,-0.020366356,-0.003921236
79.0,-0.178490992,0.076763368,-0.180007184,0.076775928,0.136480016,0.061005412,-0.09532148,0.059575708,0.091939264,0.063856668,0.104898,-0.10723292,0.117430568,-0.117318928,0.181444624,-0.005226589,-0.195746944,-0.114925552,0.183874688,-0.013834858,0.086087136,0.187632272,-0.05952942,0.207201408,-0.155688464,-0.156254176,-0.182107056,-0.160925408,-0.12857908,0.137386128,-0.186904176,-0.063889548,-0.180086224,-0.134633344,0.133785192,0.07776308,-0.037019076,-0.065192968,-0.180086224,-0.078571648,-0.206259104,0.029899566,0.026398018,-0.209883056,0.032898456,0.178257344,-0.039289128,0.086896784,0.057471256,0.12573248,-0.019694602,0.0,0.009693533,0.0,-0.037680728,0.0,0.0,0.187385664,0.0,0.0,0.0,0.009215318,-0.006432753,0.0,-0.011176135,-0.013019944,0.046643628,0.008638501,-0.01569731,0.0,-0.111383032,0.11513172,-0.015637111,-0.018802308,0.06281752,-0.017735244,0.06281752,0.001359865,-0.020366356,-0.0387128
80.0,-0.178490992,0.076763368,-0.180007184,0.076775928,0.136480016,0.061005412,-0.09532148,0.059575708,0.091939264,0.063856668,0.104898,-0.10723292,0.117430568,-0.117318928,0.181444624,-0.005226589,-0.195746944,-0.114925552,0.183874688,-0.013834858,0.086087136,0.187632272,-0.05952942,0.207201408,-0.155688464,-0.156254176,-0.182107056,-0.160925408,-0.12857908,0.137386128,-0.186904176,-0.063889548,-0.180086224,-0.134633344,0.133785192,0.07776308,-0.037019076,-0.065192968,-0.180086224,-0.078571648,-0.206259104,0.029899566,0.026398018,-0.209883056,0.032898456,0.178257344,-0.039289128,0.086896784,0.057471256,0.12573248,-0.019694602,0.0,0.009693533,0.0,-0.037680728,0.0,0.0,0.187385664,0.0,0.0,0.0,0.009215318,-0.006432753,0.0,-0.011176135,-0.013019944,0.046643628,0.008638501,-0.01569731,0.0,-0.111383032,0.11513172,-0.015637111,-0.018802308,0.06281752,-0.017735244,0.06281752,0.001359865,-0.020366356,-0.0387128
81.0,-0.178490992,0.076763368,-0.180007184,0.076775928,0.136480016,0.061005412,-0.09532148,0.059575708,0.091939264,0.063856668,0.104898,-0.10723292,0.117430568,-0.117318928,0.181444624,-0.005226589,-0.195746944,-0.114925552,0.183874688,-0.013834858,0.086087136,0.187632272,-0.05952942,0.207201408,-0.155688464,-0.156254176,-0.182107056,-0.160925408,-0.12857908,0.137386128,-0.170262064,-0.063889548,-0.139995296,-0.134633344,0.133785192,0.08949012,-0.037019076,-0.063873796,-0.139995296,-0.078571648,-0.206259104,0.029899566,0.026398018,-0.209883056,0.032898456,0.138166416,-0.051468592,0.059220328,0.051684652,0.115331144,-0.019694602,0.0,0.009693533,0.0,-0.037680728,0.0,0.0,0.187385664,0.0,0.0,0.0,0.009215318,-0.006432753,0.0,-0.011176135,-0.013019944,0.046643628,0.008638501,-0.01569731,0.0,-0.111383032,0.11513172,-0.015637111,-0.018802308,0.06281752,-0.017735244,0.06281752,0.001359865,-0.020366356,-0.0387128
82.0,-0.178490992,0.076763368,-0.180007184,0.076775928,0.136480016,0.061005412,-0.09532148,0.059575708,0.091939264,0.063856668,0.104898,-0.10723292,0.117430568,-0.117318928,0.181444624,-0.005226589,-0.195746944,-0.114925552,0.183874688,-0.013834858,0.086087136,0.19623664,-0.05952942,0.207201408,-0.155688464,-0.154539968,-0.182107056,-0.155987808,-0.12857908,0.137386128,-0.170262064,-0.063889548,-0.139995296,-0.134633344,0.133785192,0.08949012,-0.037019076,-0.063873796,-0.139995296,-0.078571648,-0.206259104,0.029899566,0.026398018,-0.209883056,0.032898456,0.138166416,-0.051468592,0.059220328,0.051684652,0.115331144,-0.019694602,0.0,0.009693533,0.0,-0.037680728,0.0,0.0,0.187385664,0.0,0.0,0.0,-0.009378236,-0.006432753,0.0,-0.011176135,-0.027550994,0.04124552,0.008638501,-0.01569731,0.0,-0.111383032,0.11513172,-0.015637111,-0.018802308,0.06281752,-0.017735244,0.06281752,0.001359865,-0.020366356,-0.0387128
83.0,-0.178490992,0.076763368,-0.180007184,0.076775928,0.136480016,0.061005412,-0.09532148,0.059575708,0.091939264,0.063856668,0.104898,-0.10723292,0.117430568,-0.117318928,0.181444624,-0.005226589,-0.195746944,-0.114925552,0.183874688,-0.013834858,0.086087136,0.19623664,-0.05952942,0.207201408,-0.155688464,-0.154539968,-0.182107056,-0.155987808,-0.12857908,0.137386128,-0.170262064,-0.063889548,-0.139995296,-0.134633344,0.133785192,0.08949012,-0.037019076,-0.063873796,-0.139995296,-0.078571648,-0.206259104,0.029899566,0.026398018,-0.209883056,0.032898456,0.138166416,-0.051468592,0.059220328,0.051684652,0.115331144,0.004342448,0.0,0.009693533,0.0,-0.017302478,0.0,0.0,0.21847368,0.0,0.0,0.0,-0.044742216,-0.006432753,0.0,-0.011176135,-0.051588044,0.039124032,0.008638501,-0.023012394,0.0,-0.111383032,0.11513172,-0.015637111,-0.018802308,0.06281752,-0.017735244,0.06281752,0.001359865,-0.020366356,-0.0387128
84.0,-0.178490992,0.076763368,-0.180007184,0.076775928,0.136480016,0.061005412,-0.09532148,0.059575708,0.091939264,0.063856668,0.104898,-0.10723292,0.117430568,-0.117318928,0.181444624,-0.005226589,-0.195746944,-0.114925552,0.183874688,-0.013834858,0.086087136,0.196236624,-0.059529424,0.207201408,-0.155688464,-0.154539968,-0.182107056,-0.155987824,-0.12857908,0.137386128,-0.251862224,-0.063889548,-0.146817376,-0.134633344,0.133785192,0.054356452,-0.0543797,-0.100313664,-0.146817376,-0.078571648,-0.206259104,0.029899566,0.026398018,-0.209883056,0.032898456,0.138166416,-0.051468592,0.059220328,0.051684652,0.115331144,0.004342448,0.0,0.009693533,0.0,-0.017302478,0.0,0.0,0.21847368,0.0,0.0,0.0,-0.020729504,-0.006432753,0.0,-0.011176135,-0.020374536,0.046109908,0.02930626,-0.020579496,0.0,-0.111383032,0.11513172,-0.015637111,-0.018802308,0.06281752,-0.017735244,0.06281752,0.001359865,-0.020366356,-0.0387128
85.0,-0.178490992,0.076763368,-0.180007184,0.076775928,0.136480016,0.061005412,-0.09532148,0.059575708,0.091939264,0.063856668,0.104898,-0.10723292,0.117430568,-0.117318928,0.181444624,-0.005226589,-0.195746944,-0.114925552,0.183874688,-0.013834858,0.086087136,0.196236624,-0.059529424,0.207201408,-0.155688464,-0.190850496,-0.182107056,-0.19095432,-0.13997408,0.137386128,-0.229470976,-0.063889548,-0.09922856,-0.134633344,0.133785192,0.08171332,-0.0543797,-0.09397576,-0.09922856,-0.078571648,-0.206259104,0.029899566,0.026398018,-0.209883056,0.032898456,0.138166416,-0.051468592,0.059220328,0.051684652,0.115331144,0.004342448,0.0,0.009693533,0.0,-0.017302478,0.0,0.0,0.21847368,0.0,0.0,0.0,-0.020729504,-0.006432753,0.0,-0.011176135,-0.020374536,0.046109908,0.02930626,-0.020579496,0.0,-0.111383032,0.11513172,-0.015637111,-0.018802308,0.06281752,-0.017735244,0.06281752,0.001359865,-0.020366356,-0.0387128
86.0,-0.178490992,0.076763368,-0.180007184,0.076775928,0.136480016,0.061005412,-0.09532148,0.059575708,0.091939264,0.063856668,0.104898,-0.10723292,0.117430568,-0.117318928,0.181444624,-0.005226589,-0.195746944,-0.114925552,0.183874688,-0.013834858,0.086087136,0.196236624,-0.059529424,0.207201408,-0.155688464,-0.190850496,-0.182107056,-0.19095432,-0.13997408,0.137386128,-0.229470976,-0.063889548,-0.09922856,-0.134633344,0.133785192,0.08171332,-0.0543797,-0.09397576,-0.09922856,-0.078571648,-0.206259104,0.029899566,0.026398018,-0.209883056,0.032898456,0.138166416,-0.051468592,0.059220328,0.051684652,0.115331144,0.004342448,0.0,0.009693533,0.0,-0.017302478,0.0,0.0,0.21847368,0.0,0.0,0.0,-0.020729504,-0.006432753,0.0,-0.011176135,-0.020374536,0.046109908,0.02930626,-0.020579496,0.0,-0.111383032,0.11513172,-0.015637111,-0.018802308,0.06281752,-0.017735244,0.06281752,0.001359865,-0.020366356,-0.0387128
87.0,-0.178490992,0.076763368,-0.180007184,0.076775928,0.136480016,0.061005412,-0.09532148,0.059575708,0.091939264,0.063856668,0.104898,-0.10723292,0.117430568,-0.117318928,0.181444624,-0.005226589,-0.195746944,-0.114925552,0.183874688,-0.013834858,0.086087136,0.196236624,-0.059529424,0.207201408,-0.155688464,-0.190850496,-0.182107056,-0.19095432,-0.13997408,0.137386128,-0.229470976,-0.063889548,-0.09922856,-0.134633344,0.133785192,0.08171332,-0.0543797,-0.09397576,-0.09922856,-0.078571648,-0.206259104,0.029899566,0.026398018,-0.209883056,0.032898456,0.138166416,-0.051468592,0.059220328,0.051684652,0.115331144,0.004342448,0.0,0.009693533,0.0,-0.017302478,0.0,0.0,0.21847368,0.0,0.0,0.0,-0.020729504,-0.006432753,0.0,-0.011176135,-0.020374536,0.046109908,0.02930626,-0.020579496,0.0,-0.111383032,0.11513172,-0.015637111,-0.018802308,0.06281752,-0.017735244,0.06281752,0.001359865,-0.020366356,-0.0387128
88.0,-0.178490992,0.076763368,-0.180007184,0.076775928,0.136480016,0.061005412,-0.09532148,0.059575708,0.091939264,0.063856668,0.104898,-0.10723292,0.117430568,-0.117318928,0.181444624,-0.005226589,-0.195746944,-0.114925552,0.183874688,-0.013834858,0.086087136,0.196236624,-0.059529424,0.207201408,-0.155688464,-0.190850496,-0.182107056,-0.19095432,-0.13997408,0.137386128,-0.229470976,-0.063889548,-0.09922856,-0.134633344,0.133785192,0.08171332,-0.0543797,-0.09397576,-0.09922856,-0.078571648,-0.206259104,0.029899566,0.026398018,-0.209883056,0.032898456,0.138166416,-0.051468592,0.059220328,0.051684652,0.115331144,0.004342448,0.0,0.009693533,0.0,-0.017302478,0.0,0.0,0.21847368,0.0,0.0,0.0,-0.020729504,-0.006432753,0.0,-0.011176135,-0.020374536,0.046109908,0.02930626,-0.020579496,0.0,-0.111383032,0.11513172,-0.015637111,-0.018802308,0.06281752,-0.017735244,0.06281752,0.001359865,-0.020366356,-0.0387128
89.0,-0.178490992,0.076763368,-0.180007184,0.076775928,0.136480016,0.061005412,-0.09532148,0.059575708,0.091939264,0.063856668,0.104898,-0.10723292,0.117430568,-0.117318928,0.181444624,-0.005226589,-0.195746944,-0.114925552,0.183874688,-0.013834858,0.086087136,0.196236624,-0.059529424,0.207201408,-0.155688464,-0.190850496,-0.182107056,-0.19095432,-0.13997408,0.137386128,-0.229470976,-0.063889548,-0.09922856,-0.134633344,0.133785192,0.08171332,-0.0543797,-0.09397576,-0.09922856,-0.078571648,-0.206259104,0.029899566,0.026398018,-0.209883056,0.032898456,0.138166416,-0.051468592,0.059220328,0.051684652,0.115331144,0.004342448,0.0,0.009693533,0.0,-0.017302478,0.0,0.0,0.21847368,0.0,0.0,0.0,-0.020729504,-0.006432753,0.0,-0.011176135,-0.020374536,0.046109908,0.02930626,-0.020579496,0.0,-0.111383032,0.11513172,-0.015637111,-0.018802308,0.06281752,-0.017735244,0.06281752,0.001359865,-0.020366356,-0.0387128
90.0,-0.178490992,0.076763368,-0.180007184,0.076775928,0.136480016,0.061005412,-0.09532148,0.059575708,0.091939264,0.063856668,0.104898,-0.10723292,0.117430568,-0.117318928,0.181444624,-0.005226589,-0.195746944,-0.114925552,0.183874688,-0.013834858,0.086087136,0.196236624,-0.059529424,0.207201408,-0.155688464,-0.190850496,-0.182107056,-0.19095432,-0.13997408,0.137386128,-0.229470976,-0.063889548,-0.09922856,-0.134633344,0.133785192,0.08171332,-0.0543797,-0.09397576,-0.09922856,-0.078571648,-0.206259104,0.029899566,0.026398018,-0.209883056,0.032898456,0.138166416,-0.051468592,0.059220328,0.051684652,0.115331144,0.004342448,0.0,0.009693533,0.0,-0.017302478,0.0,0.0,0.21847368,0.0,0.0,0.0,-0.020729504,-0.006432753,0.0,-0.011176135,-0.020374536,0.046109908,0.02930626,-0.020579496,0.0,-0.111383032,0.11513172,-0.015637111,-0.018802308,0.06281752,-0.017735244,0.06281752,0.001359865,-0.020366356,-0.0387128
91.0,-0.178490992,0.076763368,-0.180007184,0.076775928,0.136480016,0.061005412,-0.09532148,0.059575708,0.091939264,0.063856668,0.104898,-0.10723292,0.117430568,-0.117318928,0.181444624,-0.005226589,-0.195746944,-0.114925552,0.183874688,-0.013834858,0.086087136,0.196236624,-0.059529424,0.207201408,-0.155688464,-0.190850496,-0.182107056,-0.19095432,-0.13997408,0.137386128,-0.229470976,-0.063889548,-0.09922856,-0.134633344,0.133785192,0.08171332,-0.0543797,-0.09397576,-0.09922856,-0.078571648,-0.206259104,0.029899566,0.026398018,-0.209883056,0.032898456,0.138166416,-0.051468592,0.059220328,0.051684652,0.115331144,0.004342448,0.0,0.009693533,0.0,-0.017302478,0.0,0.0,0.21847368,0.0,0.0,0.0,-0.053721092,-0.006432753,0.0,-0.011176135,-0.032260944,0.046109908,0.016417783,-0.020579496,0.0,-0.110176776,0.154671408,-0.015637111,-0.018802308,0.072846928,-0.017735244,0.072846928,0.001359865,-0.020366356,-0.023539056
92.0,-0.178490992,0.076763368,-0.180007184,0.076775928,0.136480016,0.061005412,-0.09532148,0.059575708,0.091939264,0.063856668,0.104898,-0.10723292,0.117430568,-0.117318928,0.181444624,-0.005226589,-0.195746944,-0.114925552,0.183874688,-0.013834858,0.086087136,0.196236624,-0.059529424,0.207201408,-0.155688464,-0.190850496,-0.182107056,-0.19095432,-0.13997408,0.137386128,-0.229470976,-0.063889548,-0.09922856,-0.134633344,0.133785192,0.08171332,-0.0543797,-0.09397576,-0.09922856,-0.078571648,-0.206259104,0.029899566,0.026398018,-0.209883056,0.032898456,0.138166416,-0.051468592,0.059220328,0.051684652,0.115331144,0.004342448,0.0,0.009693533,0.0,-0.017302478,0.0,0.0,0.21847368,0.0,0.0,0.0,-0.053721092,-0.006432753,0.0,-0.011176135,-0.032260944,0.046109908,0.016417783,-0.020579496,0.0,-0.110176776,0.154671408,-0.015637111,-0.018802308,0.072846928,-0.017735244,0.072846928,0.001359865,-0.020366356,-0.023539056
93.0,-0.178490992,0.076763368,-0.180007184,0.076775928,0.136480016,0.061005412,-0.09532148,0.059575708,0.091939264,0.063856668,0.104898,-0.10723292,0.117430568,-0.117318928,0.181444624,-0.005226589,-0.195746944,-0.114925552,0.183874688,-0.013834858,0.086087136,0.196236624,-0.059529424,0.207201408,-0.155688464,-0.190850496,-0.182107056,-0.19095432,-0.13997408,0.137386128,-0.229470976,-0.063889548,-0.09922856,-0.134633344,0.133785192,0.08171332,-0.0543797,-0.09397576,-0.09922856,-0.078571648,-0.206259104,0.029899566,0.026398018,-0.209883056,0.032898456,0.138166416,-0.051468592,0.059220328,0.051684652,0.115331144,0.004342448,0.0,0.009693533,0.0,-0.017302478,0.0,0.0,0.21847368,0.0,0.0,0.0,-0.053721092,-0.006432753,0.0,-0.011176135,-0.032260944,0.046109908,0.016417783,-0.020579496,0.0,-0.110176776,0.154671408,-0.015637111,-0.018802308,0.072846928,-0.017735244,0.072846928,0.001359865,-0.020366356,-0.023539056
94.0,-0.178490992,0.076763368,-0.180007184,0.076775928,0.136480016,0.061005412,-0.09532148,0.059575708,0.091939264,0.063856668,0.104898,-0.10723292,0.117430568,-0.117318928,0.181444624,-0.005226589,-0.195746944,-0.114925552,0.183874688,-0.013834858,0.086087136,0.196236624,-0.059529424,0.207201408,-0.155688464,-0.190850496,-0.182107056,-0.19095432,-0.13997408,0.137386128,-0.229470976,-0.063889548,-0.09922856,-0.134633344,0.133785192,0.08171332,-0.0543797,-0.09397576,-0.09922856,-0.078571648,-0.206259104,0.029899566,0.026398018,-0.209883056,0.032898456,0.138166416,-0.051468592,0.059220328,0.051684652,0.115331144,0.004342448,0.0,0.009693533,0.0,-0.017302478,0.0,0.0,0.21847368,0.0,0.0,0.0,-0.053721092,-0.006432753,0.0,-0.011176135,-0.032260944,0.046109908,0.016417783,-0.020579496,0.0,-0.110176776,0.154671408,-0.015637111,-0.018802308,0.072846928,-0.017735244,0.072846928,0.001359865,-0.020366356,-0.023539056
95.0,-0.178490992,0.076763368,-0.180007184,0.076775928,0.136480016,0.061005412,-0.09532148,0.059575708,0.091939264,0.063856668,0.104898,-0.10723292,0.117430568,-0.117318928,0.181444624,-0.005226589,-0.195746944,-0.114925552,0.183874688,-0.013834858,0.086087136,0.196236624,-0.059529424,0.207201408,-0.155688464,-0.190850496,-0.182107056,-0.19095432,-0.13997408,0.137386128,-0.229470976,-0.063889548,-0.09922856,-0.134633344,0.133785192,0.08171332,-0.0543797,-0.09397576,-0.09922856,-0.078571648,-0.206259104,0.029899566,0.026398018,-0.209883056,0.032898456,0.138166416,-0.051468592,0.059220328,0.051684652,0.115331144,0.004342448,0.0,0.009693533,0.0,-0.017302478,0.0,0.0,0.21847368,0.0,0.0,0.0,-0.053721092,-0.006432753,0.0,-0.011176135,-0.032260944,0.046109908,0.016417783,-0.020579496,0.0,-0.110176776,0.154671408,-0.015637111,-0.018802308,0.072846928,-0.017735244,0.072846928,0.001359865,-0.020366356,-0.023539056
96.0,-0.178490992,0.076763368,-0.180007184,0.076775928,0.136480016,0.061005412,-0.09532148,0.059575708,0.091939264,0.063856668,0.104898,-0.10723292,0.117430568,-0.117318928,0.181444624,-0.005226589,-0.195746944,-0.114925552,0.183874688,-0.013834858,0.086087136,0.196236624,-0.059529424,0.207201408,-0.155688464,-0.190850496,-0.182107056,-0.19095432,-0.13997408,0.137386128,-0.229470976,-0.063889548,-0.09922856,-0.134633344,0.133785192,0.08171332,-0.0543797,-0.09397576,-0.09922856,-0.078571648,-0.206259104,0.029899566,0.026398018,-0.209883056,0.032898456,0.138166416,-0.051468592,0.059220328,0.051684652,0.115331144,0.004342448,0.0,0.009693533,0.0,-0.017302478,0.0,0.0,0.21847368,0.0,0.0,0.0,-0.053721092,-0.006432753,0.0,-0.011176135,-0.032260944,0.046109908,0.016417783,-0.020579496,0.0,-0.110176776,0.154671408,-0.015637111,-0.018802308,0.072846928,-0.017735244,0.072846928,0.001359865,-0.020366356,-0.023539056
97.0,-0.178490992,0.076763368,-0.180007184,0.076775928,0.136480016,0.061005412,-0.09532148,0.059575708,0.091939264,0.063856668,0.104898,-0.10723292,0.117430568,-0.117318928,0.181444624,-0.005226589,-0.195746944,-0.114925552,0.183874688,-0.013834858,0.086087136,0.196236624,-0.059529424,0.207201408,-0.155688464,-0.190850496,-0.182107056,-0.19095432,-0.13997408,0.137386128,-0.267625296,-0.063889548,-0.12506728,-0.134633344,0.133785192,0.0650706,-0.0543797,-0.103400688,-0.12506728,-0.078571648,-0.20343104,0.029899566,0.026398018,-0.209883056,0.033824216,0.164005136,-0.051468592,0.087889784,0.063382492,0.13516472,0.004342448,0.0,0.009693533,0.0,-0.017302478,0.0,0.0,0.21847368,0.0,0.0,0.0,-0.053721092,-0.006432753,0.0,-0.011176135,-0.032260944,0.046109908,0.016417783,-0.020579496,0.0,-0.110176776,0.154671408,-0.015637111,-0.018802308,0.072846928,-0.017735244,0.072846928,0.001359865,-0.020366356,-0.023539056
98.0,-0.178490992,0.076763368,-0.180007184,0.076775928,0.136480016,0.061005412,-0.09532148,0.059575708,0.091939264,0.063856668,0.104898,-0.10723292,0.117430568,-0.117318928,0.181444624,-0.005226589,-0.195746944,-0.114925552,0.183874688,-0.013834858,0.086087136,0.196236624,-0.059529424,0.207201408,-0.155688464,-0.190850496,-0.182107056,-0.19095432,-0.13997408,0.137386128,-0.267625296,-0.063889548,-0.12506728,-0.134633344,0.133785192,0.0650706,-0.0543797,-0.103400688,-0.12506728,-0.078571648,-0.20343104,0.029899566,0.026398018,-0.209883056,0.033824216,0.164005136,-0.051468592,0.087889784,0.063382492,0.13516472,0.004342448,0.0,0.009693533,0.0,-0.017302478,0.0,0.0,0.21847368,0.0,0.0,0.0,-0.053721092,-0.006432753,0.0,-0.011176135,-0.032260944,0.046109908,0.016417783,-0.020579496,0.0,-0.110176776,0.154671408,-0.015637111,-0.018802308,0.072846928,-0.017735244,0.072846928,0.001359865,-0.020366356,-0.023539056
99.0,-0.178490992,0.076763368,-0.180007184,0.076775928,0.136480016,0.061005412,-0.09532148,0.059575708,0.091939264,0.063856668,0.104898,-0.10723292,0.117430568,-0.117318928,0.181444624,-0.005226589,-0.195746944,-0.114925552,0.183874688,-0.013834858,0.086087136,0.196236624,-0.059529424,0.207201408,-0.155688464,-0.190850496,-0.182107056,-0.19095432,-0.13997408,0.137386128,-0.267625296,-0.063889548,-0.12506728,-0.134633344,0.133785192,0.0650706,-0.0543797,-0.103400688,-0.12506728,-0.078571648,-0.20343104,0.029899566,0.026398018,-0.209883056,0.033824216,0.164005136,-0.051468592,0.087889784,0.063382492,0.13516472,0.004342448,0.0,0.009693533,0.0,-0.017302478,0.0,0.0,0.21847368,0.0,0.0,0.0,-0.053721092,-0.006432753,0.0,-0.011176135,-0.032260944,0.046109908,0.016417783,-0.020579496,0.0,-0.110176776,0.154671408,-0.015637111,-0.018802308,0.072846928,-0.017735244,0.072846928,0.001359865,-0.020366356,-0.023539056
100.0,-0.174605632,0.076763368,-0.180007184,0.076775928,0.136480016,0.061005412,-0.081168304,0.061049172,0.091939264,0.063856668,0.104898,-0.10723292,0.117430568,-0.117318928,0.181444624,-0.005226589,-0.195746944,-0.114925552,0.183874688,-0.013834858,0.086087136,0.196236624,-0.059529424,0.207201408,-0.155688464,-0.190850496,-0.182107056,-0.19095432,-0.13997408,0.137386128,-0.267625296,-0.063889548,-0.12506728,-0.134633344,0.133785192,0.0650706,-0.0543797,-0.103400688,-0.12506728,-0.078571648,-0.20343104,0.029899566,0.026398018,-0.209883056,0.033824216,0.164005136,-0.051468592,0.087889784,0.063382492,0.13516472,-0.019199426,0.0,0.009693533,0.0,-0.017302478,0.0,0.0,0.200498432,0.0,0.0,0.0,-0.053721092,-0.006432753,0.0,-0.011176135,-0.032260944,0.046109908,0.016417783,-0.020579496,0.0,-0.110176776,0.154671408,-0.015637111,-0.018802308,0.072846928,-0.017735244,0.072846928,0.001359865,-0.020366356,-0.023539056
101.0,-0.174605632,0.076763368,-0.180007184,0.076775928,0.136480016,0.061005412,-0.081168304,0.061049172,0.091939264,0.063856668,0.104898,-0.10723292,0.117430568,-0.117318928,0.181444624,-0.005226589,-0.195746944,-0.114925552,0.183874688,-0.013834858,0.086087136,0.196236624,-0.059529424,0.207201408,-0.155688464,-0.190850496,-0.182107056,-0.19095432,-0.13997408,0.137386128,-0.267625296,-0.063889548,-0.12506728,-0.134633344,0.133785192,0.0650706,-0.0543797,-0.103400688,-0.12506728,-0.078571648,-0.20343104,0.029899566,0.026398018,-0.209883056,0.033824216,0.164005136,-0.051468592,0.087889784,0.063382492,0.13516472,-0.019199426,0.0,0.009693533,0.0,-0.017302478,0.0,0.0,0.200498432,0.0,0.0,0.0,-0.053721092,-0.006432753,0.0,-0.011176135,-0.032260944,0.046109908,0.016417783,-0.020579496,0.0,-0.110176776,0.154671408,-0.015637111,-0.018802308,0.072846928,-0.017735244,0.072846928,0.001359865,-0.020366356,-0.023539056
102.0,-0.205024864,0.076763368,-0.18157952,0.076775928,0.136480016,0.061005412,-0.116343856,0.061049172,0.087936128,0.063856668,0.104898,-0.10723292,0.117430568,-0.117318928,0.181444624,-0.005226589,-0.195746944,-0.114925552,0.183874688,-0.013834858,0.086087136,0.196236624,-0.059529424,0.207201408,-0.155688464,-0.190850496,-0.182107056,-0.19095432,-0.13997408,0.137386128,-0.267625296,-0.063889548,-0.12506728,-0.134633344,0.133785192,0.0650706,-0.0543797,-0.103400688,-0.12506728,-0.078571648,-0.20343104,0.029899566,0.026398018,-0.209883056,0.033824216,0.164005136,-0.051468592,0.087889784,0.063382492,0.13516472,-0.019199426,0.0,0.009693533,0.0,-0.017302478,0.0,0.0,0.200498432,0.0,0.0,0.0,-0.053721092,-0.006432753,0.0,-0.011176135,-0.032260944,0.046109908,0.016417783,-0.020579496,0.0,-0.089931192,0.192618864,-0.015637111,-0.018802308,0.07643536,-0.017735244,0.07643536,0.001359865,-0.020366356,0.011636503
103.0,-0.205024864,0.076763368,-0.18157952,0.076775928,0.136480016,0.061005412,-0.116343856,0.061049172,0.087936128,0.063856668,0.104898,-0.10723292,0.117430568,-0.117318928,0.181444624,-0.005226589,-0.195746944,-0.114925552,0.183874688,-0.013834858,0.086087136,0.196236624,-0.059529424,0.207201408,-0.155688464,-0.190850496,-0.182107056,-0.19095432,-0.13997408,0.137386128,-0.267625296,-0.063889548,-0.12506728,-0.134633344,0.133785192,0.0650706,-0.0543797,-0.103400688,-0.12506728,-0.078571648,-0.20343104,0.029899566,0.026398018,-0.209883056,0.033824216,0.164005136,-0.051468592,0.087889784,0.063382492,0.13516472,-0.019199426,0.0,0.009693533,0.0,-0.017302478,0.0,0.0,0.200498432,0.0,0.0,0.0,-0.053721092,-0.006432753,0.0,-0.011176135,-0.032260944,0.046109908,0.016417783,-0.020579496,0.0,-0.089931192,0.192618864,-0.015637111,-0.018802308,0.07643536,-0.017735244,0.07643536,0.001359865,-0.020366356,0.011636503
104.0,-0.205024864,0.076763368,-0.18157952,0.076775928,0.136480016,0.061005412,-0.116343856,0.061049172,0.087936128,0.063856668,0.104898,-0.10723292,0.117430568,-0.117318928,0.181444624,-0.005226589,-0.195746944,-0.114925552,0.183874688,-0.013834858,0.086087136,0.212072176,-0.059529424,0.207201408,-0.155688464,-0.187634432,-0.182107056,-0.172871424,-0.13997408,0.137386128,-0.267625296,-0.063889548,-0.12506728,-0.134633344,0.133785192,0.0650706,-0.0543797,-0.103400688,-0.12506728,-0.078571648,-0.20343104,0.029899566,0.026398018,-0.209883056,0.0240898,0.146176128,-0.051468592,0.069559496,0.063382492,0.12274556,-0.019199426,0.0,0.009693533,0.0,-0.017302478,0.0,0.0,0.200498432,0.0,0.0,0.0,-0.053721092,-0.006432753,0.0,-0.011176135,-0.032260944,0.046109908,0.016417783,-0.020579496,0.0,-0.089931192,0.192618864,-0.015637111,-0.018802308,0.07643536,-0.017735244,0.07643536,0.001359865,-0.020366356,0.011636503
105.0,-0.205024864,0.076763368,-0.18157952,0.076775928,0.136480016,0.061005412,-0.116343856,0.061049172,0.087936128,0.063856668,0.104898,-0.10723292,0.117430568,-0.117318928,0.181444624,-0.005226589,-0.195746944,-0.114925552,0.183874688,-0.013834858,0.086087136,0.212072176,-0.059529424,0.207201408,-0.155688464,-0.187634432,-0.182107056,-0.172871424,-0.13997408,0.137386128,-0.267625296,-0.063889548,-0.12506728,-0.134633344,0.133785192,0.0650706,-0.0543797,-0.103400688,-0.12506728,-0.078571648,-0.20343104,0.029899566,0.026398018,-0.209883056,0.0240898,0.146176128,-0.051468592,0.069559496,0.063382492,0.12274556,-0.019199426,0.0,0.009693533,0.0,-0.017302478,0.0,0.0,0.200498432,0.0,0.0,0.0,-0.053721092,-0.006432753,0.0,-0.011176135,-0.032260944,0.046109908,0.016417783,-0.020579496,0.0,-0.089931192,0.192618864,-0.015637111,-0.018802308,0.07643536,-0.017735244,0.07643536,0.001359865,-0.020366356,0.011636503
106.0,-0.205024864,0.076763368,-0.18157952,0.076775928,0.136480016,0.061005412,-0.116343856,0.061049172,0.087936128,0.063856668,0.104898,-0.103653336,0.117430568,-0.117318928,0.181444624,-0.005226589,-0.195746944,-0.114925552,0.184820512,-0.008533782,0.086087136,0.212072176,-0.059529424,0.207201408,-0.155688464,-0.187634432,-0.182107056,-0.172871424,-0.13997408,0.137386128,-0.267625296,-0.063889548,-0.12506728,-0.134633344,0.133785192,0.0650706,-0.0543797,-0.103400688,-0.12506728,-0.078571648,-0.20343104,0.029899566,0.026398018,-0.209883056,0.0240898,0.146176128,-0.057896956,0.065979892,0.063382492,0.122456216,-0.019199426,0.0,0.009693533,0.0,-0.017302478,0.0,0.0,0.200498432,0.0,0.0,0.0,-0.053721092,-0.006432753,0.0,-0.011176135,-0.032260944,0.046109908,0.016417783,-0.020579496,0.0,-0.089931192,0.192618864,-0.015637111,-0.018802308,0.07643536,-0.017735244,0.07643536,0.001359865,-0.020366356,0.011636503
107.0,-0.205024864,0.076763368,-0.18157952,0.076775928,0.136480016,0.061005412,-0.116343856,0.061049172,0.087936128,0.063856668,0.104898,-0.103653336,0.117430568,-0.117318928,0.181444624,-0.005226589,-0.195746944,-0.114925552,0.184820512,-0.008533782,0.086087136,0.212072176,-0.059529424,0.207201408,-0.155688464,-0.187634432,-0.182107056,-0.172871424,-0.13997408,0.137386128,-0.267625296,-0.063889548,-0.12506728,-0.134633344,0.133785192,0.0650706,-0.0543797,-0.103400688,-0.12506728,-0.078571648,-0.20343104,0.029899566,0.026398018,-0.209883056,0.0240898,0.146176128,-0.057896956,0.065979892,0.063382492,0.122456216,-0.019199426,0.0,0.009693533,0.0,-0.017302478,0.0,0.0,0.200498432,0.0,0.0,0.0,-0.053721092,-0.006432753,0.0,-0.011176135,-0.032260944,0.046109908,0.016417783,-0.020579496,0.0,-0.089931192,0.192618864,-0.015637111,-0.018802308,0.07643536,-0.017735244,0.07643536,0.001359865,-0.020366356,0.011636503
108.0,-0.205024864,0.076763368,-0.18157952,0.076775928,0.136480016,0.061005412,-0.116343856,0.061049172,0.087936128,0.063856668,0.104898,-0.103653336,0.117430568,-0.117318928,0.181444624,-0.005226589,-0.195746944,-0.114925552,0.184820512,-0.008533782,0.086087136,0.212072176,-0.059529424,0.207201408,-0.155688464,-0.187634432,-0.182107056,-0.172871424,-0.13997408,0.137386128,-0.267625296,-0.063889548,-0.12506728,-0.134633344,0.133785192,0.0650706,-0.0543797,-0.103400688,-0.12506728,-0.078571648,-0.20343104,0.029899566,0.026398018,-0.209883056,0.0240898,0.146176128,-0.057896956,0.065979892,0.063382492,0.122456216,-0.019199426,0.0,0.009693533,0.0,-0.017302478,0.0,0.0,0.200498432,0.0,0.0,0.0,-0.053721092,-0.006432753,0.0,-0.011176135,-0.032260944,0.046109908,0.016417783,-0.020579496,0.0,-0.089931192,0.192618864,-0.015637111,-0.018802308,0.07643536,-0.017735244,0.07643536,0.001359865,-0.020366356,0.011636503
109.0,-0.205024864,0.076763368,-0.18157952,0.076775928,0.136480016,0.061005412,-0.116343856,0.061049172,0.087936128,0.063856668,0.104898,-0.103653336,0.117430568,-0.117318928,0.181444624,-0.005226589,-0.195746944,-0.114925552,0.184820512,-0.008533782,0.086087136,0.212072176,-0.059529424,0.207201408,-0.155688464,-0.187634432,-0.182107056,-0.172871424,-0.13997408,0.137386128,-0.267625296,-0.063889548,-0.12506728,-0.134633344,0.133785192,0.0650706,-0.0543797,-0.103400688,-0.12506728,-0.078571648,-0.20343104,0.029899566,0.026398018,-0.209883056,0.0240898,0.146176128,-0.057896956,0.065979892,0.063382492,0.122456216,-0.019199426,0.0,0.009693533,0.0,-0.017302478,0.0,0.0,0.200498432,0.0,0.0,0.0,-0.053721092,-0.006432753,0.0,-0.011176135,-0.032260944,0.046109908,0.016417783,-0.020579496,0.0,-0.089931192,0.192618864,-0.015637111,-0.018802308,0.07643536,-0.017735244,0.07643536,0.001359865,-0.020366356,0.011636503
