0.0,-0.04168153,0.14137009,-0.01513007,-0.05839827,-0.05453862,-0.16897614,0.04483248,-0.08351732,-0.09848526,0.10831462,-0.18742204,-0.02055733,-0.14850038,0.0312136,0.05674099,-0.07023688,0.03447674,0.15057105,0.01660674,0.16498624,0.03176695,0.09907899,-0.13622215,0.20786148,0.07174969,-0.07875959,-0.01114525,-0.16089524,0.00976219,-0.03416104,-0.0101806,0.12566264,0.16287412,0.20443058,0.171381,-0.0896017,-0.01864845,-0.02769985,0.16287412,-0.09832903,0.12231805,-0.08714101,0.04070951,-0.12708552,0.18039072,0.06937675,-0.12719175,-0.06894175,0.0026621,-0.07130397,0.0,21.47483647,0.0,0.0,0.0,0.0,7.3e-07,0.0,0.0,0.0,0.0,-7e-08,0.0,0.0,3.03884352,0.0,14.25197184,0.0,0.0,-2.985e-05,21.47483647,21.47483647,21.47483647,21.47483647,-7.27e-06,0.0,-7.27e-06,0.0,21.47483647,0.0
1.0,-0.04168153,0.14137009,-0.01513007,-0.05839827,-0.05453862,-0.16897614,0.04483248,-0.08351732,-0.09848526,0.10831462,-0.18742204,-0.02055733,-0.14850038,0.0312136,0.05674099,-0.07023688,0.03447674,0.15057105,0.01660674,0.16498624,-0.47964396,0.09907899,-1.3347708,0.20786148,-0.01017334,-0.07875959,-0.01114525,-0.16089524,-0.6161242,-0.03416104,-0.0101806,0.12566264,0.16287412,0.20443058,0.171381,-0.0896017,-0.01864845,-0.02769985,0.16287412,-0.09832903,0.12231805,-0.08714101,0.04070951,-0.12708552,0.18039072,0.06937675,-0.12719175,-0.06894175,0.0026621,-0.07130397,0.0,0.0,0.5202636,0.0,1.19854864,0.0,0.0,0.0,0.08129565,0.0,0.0,-2e-08,21.47483647,21.47483647,0.0,0.0,0.0,0.0,0.0,0.0,0.0,0.0,21.47483647,0.0,21.47483647,0.0,21.47483647,21.47483647,21.47483647,0.0
2.0,-0.04168153,0.14137009,-0.01513007,-0.05839827,-0.05453862,-0.16897614,0.04483248,-0.08351732,-0.09848526,0.10831462,-0.18742204,-0.02055733,-0.14850038,0.5618316,0.12143514,0.2916042,0.51949704,0.15057105,0.01660674,0.45687456,-0.47964396,0.09907899,-1.3347708,0.20786148,-0.01017334,-0.07875959,-0.01114525,-0.16089524,-0.6161242,-0.03416104,-0.0101806,0.12566264,0.16287412,0.20443058,0.171381,-0.0896017,-0.01864845,-0.02769985,0.16287412,-0.09832903,0.12231805,-0.08714101,0.04070951,-0.12708552,0.18039072,0.06937675,-0.12719175,-0.06894175,0.0026621,-0.07130397,0.0,0.0,0.2128076,0.0,0.58649444,0.0,0.0,0.0,0.08129565,0.0,0.0,-2e-08,21.47483647,21.47483647,0.0,0.0,0.0,0.0,0.0,0.0,0.0,0.0,21.47483647,0.0,21.47483647,0.0,21.47483647,21.47483647,21.47483647,0.0
3.0,-0.04168153,0.14137009,-0.01513007,-0.05839827,-0.05453862,-0.16897614,0.04483248,-0.08351732,-0.09848526,0.10831462,-0.7254972,-0.02055733,-0.14850038,-0.30471916,0.12143514,-0.53679048,0.51949704,0.15057105,-0.10180281,0.45687456,-0.47964396,0.09907899,-1.3347708,0.20786148,-0.01017334,-0.07875959,-0.01114525,-0.16089524,-0.6161242,-0.03416104,-0.0101806,0.12566264,0.16287412,0.20443058,0.171381,-0.0896017,-0.01864845,-0.02769985,0.16287412,-0.09832903,0.66039316,-0.08714101,0.04070951,-0.12708552,0.18039072,0.06937675,-0.12719175,-0.06894175,0.06911345,-0.07130397,0.0,0.0,0.2128076,0.0,0.58649444,0.0,0.0,0.0,0.08129565,0.0,0.0,-2e-08,21.47483647,21.47483647,0.0,0.0,0.0,0.0,0.0,0.0,0.0,0.0,21.47483647,0.0,21.47483647,0.0,21.47483647,21.47483647,21.47483647,0.0
4.0,-0.04168153,0.14137009,-0.01513007,-0.05839827,-0.05453862,-0.16897614,0.04483248,-0.08351732,-0.09848526,0.10831462,-0.7254972,-0.02055733,-0.14850038,-0.30471916,0.12143514,-0.53679048,0.51949704,0.15057105,-0.10180281,0.45687456,-0.47964396,0.09907899,-1.3347708,0.20786148,-0.01017334,-0.07875959,-0.01114525,-0.16089524,-0.6161242,-0.03416104,-0.0101806,0.12566264,0.16287412,0.20443058,0.171381,-0.0896017,-0.01864845,-0.02769985,0.16287412,-0.09832903,0.66039316,-0.08714101,0.04070951,-0.12708552,0.18039072,0.06937675,-0.12719175,-0.06894175,0.06911345,-0.07130397,0.0,0.0,0.2128076,0.0,0.58649444,0.0,0.0,0.0,0.08129565,0.0,0.0,-2e-08,21.47483647,21.47483647,0.0,0.0,0.0,0.0,0.0,0.0,0.0,0.0,21.47483647,0.0,21.47483647,0.0,21.47483647,21.47483647,21.47483647,0.0
5.0,-0.04168153,0.14137009,-0.01513007,-0.05839827,-0.05453862,-0.16897614,0.04483248,-0.08351732,-0.09848526,0.10831462,-0.915388,-0.02055733,-0.14850038,-0.53443128,-0.08887833,-0.94216984,0.38553168,0.15057105,-0.10180281,-0.07168108,-0.47964396,0.09907899,-1.3347708,0.20786148,-0.01017334,-0.07875959,-0.01114525,-0.16089524,-0.6161242,-0.03416104,-0.0101806,0.12566264,0.16287412,0.20443058,0.171381,-0.0896017,-0.01864845,-0.02769985,0.16287412,-0.09832903,0.66039316,-0.08714101,0.04070951,-0.12708552,0.18039072,0.06937675,-0.12719175,-0.06894175,0.06911345,-0.07130397,0.0,0.0,0.2128076,0.0,0.58649444,0.0,0.0,0.0,0.08129565,0.0,0.28369004,0.0,0.22971212,0.0,0.0,0.0,0.0,0.34330632,0.41192652,0.39569752,21.47483647,0.0,21.47483647,21.47483647,0.0,21.47483647,0.0,0.0,0.0,0.8341156
6.0,-0.04168153,0.14137009,-0.01513007,-0.05839827,-0.05453862,-0.16897614,0.04483248,-0.08351732,-0.09848526,0.10831462,-0.915388,-0.02055733,-0.14850038,-0.53443128,-0.08887833,-0.94216984,0.38553168,0.15057105,-0.10180281,-0.07168108,-0.47964396,0.09907899,-1.3347708,0.20786148,-0.01017334,-0.07875959,-0.01114525,-0.16089524,-0.6161242,-0.03416104,-0.0101806,0.12566264,0.16287412,0.20443058,0.171381,-0.0896017,-0.01864845,-0.02769985,0.16287412,-0.09832903,0.66039316,-0.08714101,0.04070951,-0.12708552,0.18039072,0.06937675,-0.12719175,-0.06894175,0.06911345,-0.07130397,0.0,0.0,0.2128076,0.0,0.58649444,0.0,0.0,0.0,0.08129565,0.0,0.28369004,0.0,0.22971212,0.0,0.0,0.0,0.0,0.34330632,0.41192652,0.39569752,21.47483647,0.0,21.47483647,21.47483647,0.0,21.47483647,0.0,0.0,0.0,0.8341156
7.0,-0.04168153,0.14137009,-0.01513007,-0.05839827,-0.05453862,-0.16897614,0.04483248,-0.08351732,-0.09848526,0.10831462,-0.915388,-0.02055733,-0.14850038,-0.53443128,-0.08887833,-0.94216984,0.38553168,0.15057105,-0.10180281,-0.07168108,-0.47964396,0.09907899,-1.3347708,0.20786148,-0.01017334,-0.07875959,-0.01114525,-0.16089524,-0.6161242,-0.03416104,-0.0101806,0.12566264,0.16287412,0.20443058,0.171381,-0.0896017,-0.01864845,-0.02769985,0.16287412,-0.09832903,0.66039316,-0.08714101,0.04070951,-0.12708552,0.18039072,0.06937675,-0.12719175,-0.06894175,0.06911345,-0.07130397,0.0,0.0,0.5037996,0.0,1.41531808,0.0,0.0,0.0,0.08129565,0.0,0.2773132,0.0,-0.54463256,-0.44271716,0.0,0.0,-0.15014194,0.34330632,-0.20083878,0.02667129,21.47483647,0.0,21.47483647,21.47483647,0.0,21.47483647,0.0,0.0,0.0,0.8341156
8.0,-0.04168153,0.14137009,-0.01513007,-0.05839827,-0.05453862,-0.16897614,0.04483248,-0.08351732,-0.09848526,0.10831462,-0.915388,-0.02055733,-0.14850038,-0.53443128,-0.08887833,-0.94216984,0.38553168,0.15057105,-0.10180281,-0.07168108,-0.47964396,0.09907899,-1.3347708,0.20786148,-0.01017334,-0.07875959,-0.01114525,-0.16089524,-0.6161242,-0.03416104,-0.0101806,0.12566264,0.16287412,0.20443058,0.171381,-0.0896017,-0.01864845,-0.02769985,0.16287412,-0.09832903,0.66039316,-0.08714101,0.04070951,-0.12708552,0.18039072,0.06937675,-0.12719175,-0.06894175,0.06911345,-0.07130397,0.0,-0.10914495,-0.19390178,0.0,0.60320048,0.0,0.0,0.0,0.08129565,0.0,0.2773132,0.0,-0.54463256,-0.44271716,0.0,0.0,-0.15014194,0.34330632,-0.20083878,0.02667129,0.0,0.14264564,0.677604,0.0,0.0,0.0,0.0,0.0,0.56154996,0.0
9.0,0.33003252,0.1486402,-0.01513007,0.18995344,-0.05453862,0.59638596,0.04483248,-0.08351732,-0.09848526,0.23430502,-0.915388,-0.02055733,-0.14850038,-0.53443128,-0.08887833,-0.94216984,0.38553168,0.15057105,-0.10180281,-0.07168108,-0.47964396,0.09907899,-1.3347708,0.20786148,-0.01017334,-0.07875959,-0.01114525,-0.16089524,-0.6161242,-0.03416104,-0.0101806,0.12566264,0.16287412,0.20443058,0.171381,-0.0896017,-0.01864845,-0.02769985,0.16287412,-0.09832903,0.66039316,-0.08714101,0.04070951,-0.12708552,0.18039072,0.06937675,-0.12719175,-0.06894175,0.06911345,-0.07130397,0.0,-0.10914495,-0.19390178,0.0,0.60320048,0.0,0.0,0.0,0.08129565,0.0,0.2773132,0.0,-0.54463256,-0.44271716,0.0,0.0,-0.15014194,0.34330632,-0.20083878,0.02667129,0.0,0.14264564,-0.27258998,0.0,-0.0407161,0.0,-0.0407161,0.0,-0.20381212,0.0
10.0,0.26894086,0.04959032,-0.01513007,0.18995344,-0.05453862,0.54978788,0.04483248,-0.22031612,-0.09848526,-0.30829448,-0.915388,-0.02055733,-0.14850038,-0.53443128,-0.08887833,-0.94216984,0.38553168,0.15057105,-0.10180281,-0.07168108,-0.47964396,0.09907899,-1.3347708,0.20786148,-0.01017334,-0.07875959,-0.01114525,-0.16089524,-0.6161242,-0.03416104,-0.0101806,0.12566264,0.16287412,0.20443058,0.171381,-0.0896017,-0.01864845,-0.02769985,0.16287412,-0.09832903,0.66039316,-0.08714101,0.04070951,-0.12708552,0.18039072,0.06937675,-0.12719175,-0.06894175,0.06911345,-0.07130397,0.0,-0.10914495,-0.19390178,0.0,0.60320048,0.0,0.0,0.0,0.08129565,0.0,0.71867336,0.0,-0.53453076,-0.4011624,0.0,0.0,-0.15014194,0.47710072,-0.02199785,0.44126688,0.0,0.14264564,-0.27258998,0.0,-0.0407161,0.0,-0.0407161,0.0,-0.20381212,0.0
11.0,0.26894086,0.04959032,-0.01513007,0.18995344,-0.05453862,0.54978788,0.04483248,-0.22031612,-0.09848526,-0.30829448,-0.915388,-0.02055733,-0.14850038,-0.53443128,-0.08887833,-0.94216984,0.38553168,0.15057105,-0.10180281,-0.07168108,-0.47964396,0.09907899,-1.3347708,0.20786148,-0.01017334,-0.07875959,-0.01114525,-0.16089524,-0.6161242,-0.03416104,-0.0101806,0.12566264,0.16287412,0.20443058,0.171381,-0.0896017,-0.01864845,-0.02769985,0.16287412,-0.09832903,0.66039316,-0.08714101,0.04070951,-0.12708552,0.18039072,0.06937675,-0.12719175,-0.06894175,0.06911345,-0.07130397,0.0,-0.10914495,-0.19390178,0.0,0.60320048,0.0,0.0,0.0,0.08129565,0.0,0.5846944,0.0,-1.07635056,-0.4011624,0.0,0.0,-0.15014194,0.47710072,-0.61750608,0.14143077,0.0,0.1864742,-0.24424248,0.0,-0.0407161,0.0,-0.0407161,0.0,0.30312688,0.0
12.0,0.26894086,0.04959032,-0.01513007,0.18995344,-0.05453862,0.54978788,0.04483248,-0.22031612,-0.09848526,-0.30829448,-0.915388,-0.02055733,-0.14850038,-0.53443128,-0.08887833,-0.94216984,0.38553168,0.15057105,-0.10180281,-0.07168108,-0.47964396,0.09907899,-1.3347708,0.20786148,-0.01017334,-0.07875959,-0.01114525,-0.16089524,-0.6161242,-0.03416104,-0.0101806,0.12566264,0.16287412,0.20443058,0.171381,-0.0896017,-0.01864845,-0.02769985,0.16287412,-0.09832903,0.66039316,-0.08714101,0.04070951,-0.12708552,0.18039072,0.06937675,-0.12719175,-0.06894175,0.06911345,-0.07130397,0.20448578,0.12140218,0.47270776,0.0,1.65924576,0.0,0.0,0.0,0.08129565,0.0,0.5846944,0.0,-1.07635056,-0.4011624,0.0,0.0,-0.15014194,0.47710072,-0.61750608,0.14143077,0.0,0.01387682,-0.98239528,0.0,-0.0407161,0.0,-0.0407161,0.0,-0.35866584,0.0
13.0,0.26894086,0.04959032,-0.01513007,0.18995344,-0.05453862,0.54978788,0.04483248,-0.22031612,-0.09848526,-0.30829448,-0.915388,-0.02055733,-0.14850038,-0.53443128,-0.08887833,-0.94216984,0.38553168,0.15057105,-0.10180281,-0.07168108,-0.47964396,0.09907899,-1.3347708,0.20786148,-0.01017334,-0.07875959,-0.01114525,-0.16089524,-0.6161242,-0.03416104,-0.0101806,0.12566264,0.16287412,0.20443058,0.171381,-0.0896017,-0.01864845,-0.02769985,0.16287412,-0.09832903,0.66039316,-0.08714101,0.04070951,-0.12708552,0.18039072,0.06937675,-0.12719175,-0.06894175,0.06911345,-0.07130397,0.20448578,0.12140218,0.47270776,0.0,1.65924576,0.0,0.0,0.0,0.08129565,0.0,0.5846944,0.0,-1.07635056,-0.4011624,0.0,0.0,-0.15014194,0.47710072,-0.61750608,0.14143077,0.0,0.01387682,-0.98239528,0.0,-0.0407161,0.0,-0.0407161,0.0,-0.35866584,0.0
14.0,0.26894086,0.04959032,-0.01513007,0.18995344,-0.05453862,0.54978788,0.04483248,-0.22031612,-0.09848526,-0.30829448,-0.915388,-0.02055733,-0.14850038,-0.53443128,-0.08887833,-0.94216984,0.38553168,0.15057105,-0.10180281,-0.07168108,-0.47964396,0.09907899,-1.3347708,0.20786148,-0.01017334,-0.07875959,-0.01114525,-0.16089524,-0.6161242,-0.03416104,-0.0101806,0.12566264,0.16287412,0.20443058,0.171381,-0.0896017,-0.01864845,-0.02769985,0.16287412,-0.09832903,0.66039316,-0.08714101,0.04070951,-0.12708552,0.18039072,0.06937675,-0.12719175,-0.06894175,0.06911345,-0.07130397,0.20448578,0.12140218,0.41514108,0.0,0.81914024,0.0,0.0,0.0,0.08129565,0.0,0.66311,0.0,-0.74321816,-0.4011624,0.0,0.0,-0.15014194,0.77302928,-0.04842776,0.55034624,0.0,0.01387682,-0.98239528,0.0,-0.0407161,0.0,-0.0407161,0.0,-0.35866584,0.0
15.0,0.26894086,0.04959032,-0.01513007,0.18995344,-0.05453862,0.54978788,0.04483248,-0.22031612,-0.09848526,-0.30829448,-0.915388,-0.02055733,-0.14850038,-0.53443128,-0.08887833,-0.94216984,0.38553168,0.15057105,-0.10180281,-0.07168108,-0.47964396,0.09907899,-1.3347708,0.20786148,-0.01017334,-0.07875959,-0.01114525,-0.16089524,-0.6161242,-0.03416104,-0.0101806,0.12566264,0.16287412,0.20443058,0.171381,-0.0896017,-0.01864845,-0.02769985,0.16287412,-0.09832903,0.66039316,-0.08714101,0.04070951,-0.12708552,0.18039072,0.06937675,-0.12719175,-0.06894175,0.06911345,-0.07130397,0.20448578,0.12140218,0.41514108,0.0,0.81914024,0.0,0.0,0.0,0.08129565,0.0,0.66311,0.0,-0.74321816,-0.4011624,0.0,0.0,-0.15014194,0.77302928,-0.04842776,0.55034624,0.0,0.01387682,-0.98239528,0.0,-0.0407161,0.0,-0.0407161,0.0,-0.35866584,0.0
16.0,0.26894086,0.04959032,-0.01513007,0.18995344,-0.05453862,0.54978788,0.04483248,-0.22031612,-0.09848526,-0.30829448,-0.915388,-0.02055733,-0.14850038,-0.53443128,-0.08887833,-0.94216984,0.38553168,0.15057105,-0.10180281,-0.07168108,-0.47964396,0.09907899,-0.72384688,0.20786148,0.11203904,0.01965443,-0.01114525,-0.16089524,-0.4332806,-0.03416104,-0.0101806,0.12566264,0.16287412,0.20443058,0.171381,-0.0896017,-0.01864845,-0.02769985,0.16287412,-0.09832903,0.56732916,-0.15074155,-0.02673987,-0.12708552,0.18039072,0.06937675,-0.37313296,-0.14155543,0.06911345,-0.07130397,0.20448578,0.12140218,0.41514108,0.0,0.81914024,0.0,0.0,0.0,0.08129565,0.0,0.66311,0.0,-0.74321816,-0.4011624,0.0,0.0,-0.15014194,0.77302928,-0.04842776,0.55034624,0.0,0.01387682,-0.98239528,0.0,-0.0407161,0.0,-0.0407161,0.0,-0.35866584,0.0
17.0,0.26894086,0.04959032,-0.01513007,0.18995344,-0.05453862,0.54978788,0.04483248,-0.22031612,-0.09848526,-0.30829448,-0.915388,-0.02055733,-0.14850038,-0.53443128,-0.08887833,-0.94216984,0.38553168,0.15057105,-0.10180281,-0.07168108,-0.47964396,0.09907899,-0.72384688,0.20786148,0.11203904,0.01965443,-0.01114525,-0.16089524,-0.4332806,-0.03416104,-0.0101806,0.12566264,0.16287412,0.20443058,0.171381,-0.0896017,-0.01864845,-0.02769985,0.16287412,-0.09832903,0.56732916,-0.15074155,-0.02673987,-0.12708552,0.18039072,0.06937675,-0.37313296,-0.14155543,0.06911345,-0.07130397,0.20448578,0.12140218,1.05400088,0.0,1.91007536,0.0,0.0,0.0,0.1192169,0.0,0.54746956,0.0,-1.51531632,-0.61563092,0.0,0.0,-0.32036498,0.77302928,-0.28484142,0.34793532,0.0,0.01387682,-0.98239528,0.0,-0.0407161,0.0,-0.0407161,0.0,-0.35866584,0.0
18.0,0.26894086,0.04959032,-0.01513007,0.18995344,-0.05453862,0.54978788,0.04483248,-0.22031612,-0.09848526,-0.30829448,-0.915388,-0.02055733,-0.14850038,-0.53443128,-0.08887833,-0.94216984,0.38553168,0.15057105,-0.10180281,-0.07168108,-0.47964396,0.09907899,-0.72384688,0.20786148,0.11203904,0.01965443,-0.01114525,-0.16089524,-0.4332806,-0.03416104,-0.0101806,0.12566264,0.16287412,0.20443058,0.171381,-0.0896017,-0.01864845,-0.02769985,0.16287412,-0.09832903,1.09880664,-0.15074155,-0.02673987,-0.12708552,0.18039072,0.06937675,-0.37313296,-0.11386554,0.06911345,-0.07130397,0.20448578,0.12140218,0.69717416,0.0,1.2843376,-0.10692166,0.0,-0.00346506,0.1192169,0.0,0.54746956,0.0,-1.51531632,-0.61563092,0.0,0.0,-0.32036498,0.77302928,-0.28484142,0.34793532,0.0,0.01387682,-0.98239528,0.0,-0.0407161,0.0,-0.0407161,0.0,-0.35866584,0.0
19.0,0.26894086,0.04959032,-0.01513007,0.18995344,-0.05453862,0.54978788,0.04483248,-0.22031612,-0.09848526,-0.30829448,-0.915388,-0.02055733,-0.14850038,-0.53443128,-0.08887833,-0.94216984,0.38553168,0.15057105,-0.10180281,-0.07168108,-0.47964396,0.09907899,-0.72384688,0.20786148,0.11203904,0.01965443,-0.01114525,-0.16089524,-0.4332806,-0.03416104,-0.0101806,0.12566264,0.16287412,0.20443058,0.171381,-0.0896017,-0.01864845,-0.02769985,0.16287412,-0.09832903,1.09880664,-0.15074155,-0.02673987,-0.12708552,0.18039072,0.06937675,-0.37313296,-0.11386554,0.06911345,-0.07130397,0.20448578,0.12140218,0.69717416,0.0,1.2843376,-0.10692166,0.0,-0.00346506,0.1192169,0.0,0.54746956,0.0,-1.51531632,-0.61563092,0.0,0.0,-0.32036498,0.77302928,-0.28484142,0.34793532,0.0,0.01387682,-0.98239528,0.0,-0.0407161,0.0,-0.0407161,0.0,-0.35866584,0.0
20.0,0.26894086,0.04959032,-0.01513007,0.18995344,-0.05453862,0.54978788,0.04483248,-0.22031612,-0.09848526,-0.30829448,-0.915388,-0.02055733,-0.14850038,-0.53443128,-0.08887833,-0.94216984,0.38553168,0.15057105,-0.10180281,-0.07168108,-0.47964396,0.09907899,-0.72384688,0.20786148,0.11203904,0.01965443,-0.01114525,-0.16089524,-0.4332806,-0.03416104,-0.0101806,0.12566264,0.16287412,0.20443058,0.171381,-0.0896017,-0.01864845,-0.02769985,0.16287412,-0.09832903,1.09880664,-0.15074155,-0.02673987,-0.12708552,0.18039072,0.06937675,-0.37313296,-0.11386554,0.06911345,-0.07130397,0.20448578,0.12140218,0.69717416,0.0,0.5081256,-0.10692166,0.0,-0.00346506,0.1192169,0.0,0.58886896,0.0,-1.28232792,-0.61563092,0.0,0.0,-0.32036498,0.90280016,0.2431398,0.6248468,0.0,0.01387682,-0.98239528,0.0,-0.0407161,0.0,-0.0407161,0.0,-0.35866584,0.0
21.0,0.26894086,0.04959032,-0.01513007,0.18995344,-0.05453862,0.54978788,0.04483248,-0.22031612,-0.09848526,-0.30829448,-0.915388,-0.02055733,-0.14850038,-0.53443128,-0.08887833,-0.94216984,0.38553168,0.15057105,-0.10180281,-0.07168108,-0.47964396,0.09907899,-0.72384688,0.20786148,0.11203904,0.01965443,-0.01114525,-0.16089524,-0.4332806,-0.03416104,-0.0101806,0.12566264,0.16287412,0.20443058,0.171381,-0.0896017,-0.01864845,0.61999004,0.16287412,-0.09336123,0.77953712,-0.15074155,-0.02673987,-0.12708552,0.18039072,0.06937675,-0.49338116,-0.11386554,0.06911345,-0.68262256,0.20448578,0.12140218,0.69717416,0.0,0.5081256,-0.10692166,0.0,-0.00346506,0.1192169,0.0,0.58886896,0.0,-1.28232792,-0.61563092,0.0,0.0,-0.32036498,0.90280016,0.2431398,0.6248468,0.0,0.01387682,-0.98239528,0.0,-0.0407161,0.0,-0.0407161,0.0,-0.35866584,0.0
22.0,0.99752928,0.04959032,-0.01513007,0.44645456,-0.05453862,1.07493624,0.04483248,-0.22031612,-0.09848526,-0.30829448,-0.915388,-0.02055733,-0.14850038,-0.53443128,-0.08887833,-0.94216984,0.38553168,0.15057105,-0.10180281,-0.07168108,-0.47964396,0.09907899,-0.72384688,0.20786148,0.11203904,0.01965443,-0.01114525,-0.16089524,-0.4332806,-0.03416104,-0.0101806,0.12566264,0.16287412,0.20443058,0.171381,-0.0896017,-0.01864845,0.61999004,0.16287412,-0.09336123,0.77953712,-0.15074155,-0.02673987,-0.12708552,0.18039072,0.06937675,-0.49338116,-0.11386554,0.06911345,-0.68262256,0.20448578,0.12140218,0.69717416,0.0,0.5081256,-0.10692166,0.0,-0.00346506,0.1192169,0.0,0.58886896,0.0,-1.86667328,-0.61563092,0.0,-0.16055594,-0.63329752,0.75282304,0.2431398,0.6248468,0.0,0.01387682,-0.98239528,0.0,-0.0407161,0.0,-0.0407161,0.0,-0.35866584,0.0
23.0,0.87049792,-0.15425657,-0.01513007,0.44645456,-0.05453862,0.55314792,0.04483248,-0.22031612,-0.09848526,-0.30829448,-0.915388,-0.02055733,-0.14850038,-0.53443128,-0.08887833,-0.94216984,0.38553168,0.15057105,-0.10180281,-0.07168108,-0.47964396,0.09907899,-0.72384688,0.20786148,0.11203904,0.01965443,-0.01114525,-0.16089524,-0.4332806,-0.03416104,-0.0101806,0.12566264,0.16287412,0.20443058,0.171381,-0.0896017,-0.01864845,0.61999004,0.16287412,-0.09336123,0.77953712,-0.15074155,-0.02673987,-0.12708552,0.18039072,0.06937675,-0.49338116,-0.11386554,0.06911345,-0.68262256,0.20448578,0.12140218,0.69717416,0.0,0.5081256,-0.10692166,0.0,-0.00346506,0.1192169,0.0,0.58886896,0.0,-1.86667328,-0.61563092,0.0,-0.16055594,-0.63329752,0.75282304,0.2431398,0.6248468,0.16480045,0.01387682,-0.98239528,0.0,-0.0407161,0.0,-0.0407161,0.0,0.16312253,0.0
24.0,0.87049792,-0.15425657,-0.01513007,0.44645456,-0.05453862,0.55314792,0.04483248,-0.22031612,-0.09848526,-0.30829448,-0.915388,-0.02055733,-0.14850038,-0.53443128,-0.08887833,-0.94216984,0.38553168,0.15057105,-0.10180281,-0.07168108,-0.47964396,0.09907899,-0.72384688,0.20786148,0.11203904,0.01965443,-0.01114525,-0.16089524,-0.4332806,-0.03416104,-0.0101806,0.12566264,0.16287412,0.20443058,0.171381,-0.0896017,-0.01864845,0.61999004,0.16287412,-0.09336123,0.77953712,-0.15074155,-0.02673987,-0.12708552,0.18039072,0.06937675,-0.49338116,-0.11386554,0.06911345,-0.68262256,0.20448578,0.12140218,0.69717416,0.0,0.5081256,-0.10692166,0.0,-0.00346506,0.1192169,0.0,0.58886896,0.0,-2.23497776,-0.89856264,0.0,-0.16055594,-0.63329752,0.75282304,-0.19636676,-0.04303294,0.32936198,0.01387682,-0.98239528,0.0,-0.0407161,0.0,-0.0407161,0.0,0.52656388,0.0
25.0,0.87049792,-0.15425657,-0.01513007,0.44645456,-0.05453862,0.55314792,0.04483248,-0.22031612,-0.09848526,-0.30829448,-0.915388,-0.02055733,-0.14850038,-0.53443128,-0.08887833,-0.94216984,0.38553168,0.15057105,-0.10180281,-0.07168108,-0.47964396,0.09907899,-0.72384688,0.20786148,0.11203904,0.01965443,-0.01114525,-0.16089524,-0.4332806,-0.03416104,-0.0101806,0.12566264,0.16287412,0.20443058,0.171381,-0.0896017,-0.01864845,0.61999004,0.16287412,-0.09336123,0.77953712,-0.15074155,-0.02673987,-0.12708552,0.18039072,0.06937675,-0.49338116,-0.11386554,0.06911345,-0.68262256,0.20448578,0.12140218,1.47485296,0.0,1.44172912,-0.10692166,0.0,-0.00346506,0.2204541,0.0,0.58886896,0.0,-2.23497776,-0.89856264,0.0,-0.16055594,-0.63329752,0.75282304,-0.19636676,-0.04303294,0.32936198,-0.1705055,-1.4724472,0.0,-0.0407161,0.0,-0.0407161,0.0,-0.39564256,0.0
26.0,0.87049792,-0.15425657,-0.01513007,0.44645456,-0.05453862,0.55314792,0.04483248,-0.22031612,-0.09848526,-0.30829448,-0.915388,-0.02055733,-0.14850038,-0.53443128,-0.08887833,-0.94216984,0.38553168,0.15057105,-0.10180281,-0.07168108,-0.47964396,0.09907899,-0.72384688,0.20786148,0.11203904,0.01965443,-0.01114525,-0.16089524,-0.4332806,-0.03416104,-0.0101806,0.12566264,0.16287412,0.20443058,0.171381,-0.0896017,-0.01864845,0.61999004,0.16287412,-0.09336123,0.77953712,-0.15074155,-0.02673987,-0.12708552,0.18039072,0.06937675,-0.49338116,-0.11386554,0.06911345,-0.68262256,0.17397944,-0.06468782,0.67598064,0.0,0.22712814,-0.10692166,0.0,-0.00346506,0.0757522,-0.06012599,0.58886896,0.0,-2.23497776,-0.89856264,0.0,-0.16055594,-0.63329752,0.75282304,-0.19636676,-0.04303294,0.32936198,0.52217048,-1.11812928,0.0,-0.0407161,0.0,-0.0407161,0.0,-0.17708162,0.0
27.0,0.87049792,-0.15425657,-0.01513007,0.44645456,-0.05453862,0.55314792,0.04483248,-0.22031612,-0.09848526,-0.30829448,-0.915388,-0.02055733,-0.14850038,-0.53443128,-0.08887833,-0.94216984,0.38553168,0.15057105,-0.10180281,-0.07168108,-0.47964396,0.09907899,-0.72384688,0.20786148,0.11203904,0.01965443,-0.01114525,-0.16089524,-0.4332806,-0.03416104,-0.0101806,0.12566264,0.16287412,0.20443058,0.171381,-0.0896017,-0.01864845,0.61999004,0.16287412,-0.09336123,0.77953712,-0.15074155,-0.02673987,-0.12708552,0.18039072,0.06937675,-0.49338116,-0.11386554,0.06911345,-0.68262256,0.17397944,-0.06468782,1.4341536,0.0,1.46967552,-0.10692166,0.0,-0.00346506,0.2249308,-0.06012599,0.58886896,0.0,-2.23497776,-0.89856264,0.0,-0.16055594,-0.63329752,0.75282304,-0.19636676,-0.04303294,0.32936198,0.37564848,-1.6598752,0.0,-0.0407161,0.0,-0.0407161,0.0,-0.91139368,0.0
28.0,0.87049792,-0.15425657,-0.01513007,0.44645456,-0.05453862,0.55314792,0.04483248,-0.22031612,-0.09848526,-0.30829448,-0.915388,-0.02055733,-0.14850038,-0.53443128,-0.08887833,-0.94216984,0.38553168,0.15057105,-0.10180281,-0.07168108,-0.47964396,0.09907899,-0.72384688,0.20786148,0.11203904,0.01965443,-0.01114525,-0.16089524,-0.4332806,-0.03416104,-0.0101806,0.12566264,0.16287412,0.20443058,0.171381,-0.0896017,-0.01864845,0.61999004,0.16287412,-0.09336123,0.77953712,-0.15074155,-0.02673987,-0.12708552,0.18039072,0.06937675,-0.49338116,-0.11386554,0.06911345,-0.68262256,0.17397944,-0.1102098,0.9589072,0.0,0.83116504,-0.10692166,0.0,-0.00346506,0.2249308,-0.06012599,0.58886896,0.0,-2.23497776,-0.89856264,0.0,-0.16055594,-0.63329752,0.75282304,-0.19636676,-0.04303294,0.32936198,0.57240332,-1.21604992,0.0,-0.0407161,0.0,-0.0407161,0.0,-0.2689699,0.0
29.0,0.87049792,-0.15425657,-0.01513007,0.44645456,-0.05453862,0.55314792,0.04483248,-0.22031612,-0.09848526,-0.30829448,-0.915388,-0.02055733,-0.14850038,-0.53443128,-0.08887833,-0.94216984,0.38553168,0.15057105,-0.10180281,-0.07168108,-0.47964396,0.09907899,-0.72384688,0.20786148,0.11203904,0.01965443,-0.01114525,-0.16089524,-0.4332806,-0.03416104,-0.0101806,0.12566264,0.16287412,0.20443058,0.171381,-0.0896017,-0.01864845,0.61999004,0.16287412,-0.09336123,0.77953712,-0.15074155,-0.02673987,-0.12708552,0.18039072,0.06937675,-0.49338116,-0.11386554,0.06911345,-0.68262256,0.17397944,-0.1102098,0.9589072,0.0,0.83116504,-0.10692166,0.0,-0.00346506,0.2249308,-0.06012599,0.58886896,0.0,-2.23497776,-0.89856264,0.0,-0.16055594,-0.63329752,0.75282304,-0.19636676,-0.04303294,0.32936198,0.57240332,-1.21604992,0.0,-0.0407161,0.0,-0.0407161,0.0,-0.2689699,0.0
30.0,0.87049792,-0.15425657,-0.01513007,0.44645456,-0.05453862,0.55314792,0.04483248,-0.22031612,-0.09848526,-0.30829448,-0.915388,-0.02055733,-0.14850038,-0.53443128,-0.08887833,-0.94216984,0.38553168,0.15057105,-0.10180281,-0.07168108,-0.47964396,0.09907899,-0.72384688,0.20786148,0.11203904,0.01965443,-0.01114525,-0.16089524,-0.4332806,-0.03416104,-0.0101806,0.12566264,0.16287412,0.20443058,0.171381,-0.0896017,-0.01864845,0.61999004,0.16287412,-0.09336123,0.77953712,-0.15074155,-0.02673987,-0.12708552,0.18039072,0.06937675,-0.49338116,-0.11386554,0.06911345,-0.68262256,0.17397944,-0.1102098,0.9589072,0.0,0.83116504,-0.10692166,0.0,-0.00346506,0.2249308,-0.06012599,0.61961436,0.0,-2.18019296,-0.89856264,0.0,-0.16055594,-0.63329752,0.75282304,-0.12725103,0.36262352,0.32936198,0.57240332,-1.31604912,0.0,-0.24487958,0.0,-0.24487958,0.0,-0.67279184,0.0
31.0,0.87049792,-0.15425657,-0.01513007,0.44645456,-0.05453862,0.55314792,0.04483248,-0.22031612,-0.09848526,-0.30829448,-0.915388,0.04057363,-0.00647082,-0.23202816,0.09529939,-0.63983936,1.26356504,0.15057105,-0.10180281,-0.03807766,-0.47964396,0.09907899,-0.72384688,0.20786148,0.11203904,0.01965443,-0.01114525,-0.16089524,-0.4332806,-0.03416104,-0.0101806,0.12566264,0.16287412,0.20443058,0.171381,-0.0896017,-0.01864845,0.61999004,0.16287412,-0.09336123,0.77953712,-0.15074155,-0.02673987,-0.12708552,0.18039072,0.06937675,-0.49338116,-0.11386554,0.06911345,-0.68262256,0.17397944,-0.1102098,0.9589072,0.0,0.83116504,-0.10692166,0.0,-0.00346506,0.2249308,-0.06012599,0.61961436,0.0,-2.18019296,-0.89856264,0.0,-0.16055594,-0.63329752,0.75282304,-0.12725103,0.36262352,0.11975074,0.57240332,-1.31604912,0.0,-0.24487958,0.0,-0.24487958,0.0,-0.67279184,0.0
32.0,0.87049792,-0.15425657,-0.01513007,0.44645456,-0.05453862,0.55314792,0.04483248,-0.22031612,-0.09848526,-0.30829448,-0.915388,0.04057363,-0.00647082,-0.23202816,0.09529939,-0.63983936,1.26356504,0.15057105,-0.10180281,-0.03807766,-0.47964396,0.09907899,-0.72384688,0.20786148,0.11203904,0.01965443,-0.01114525,-0.16089524,-0.4332806,-0.03416104,-0.0101806,0.12566264,0.16287412,0.20443058,0.171381,-0.0896017,-0.01864845,0.61999004,0.16287412,-0.09336123,0.77953712,-0.15074155,-0.02673987,-0.12708552,0.18039072,0.06937675,-0.49338116,-0.11386554,0.06911345,-0.68262256,0.17397944,-0.1102098,0.9589072,0.0,0.83116504,-0.10692166,0.0,-0.00346506,0.2249308,-0.06012599,0.61961436,0.0,-2.18019296,-0.89856264,0.0,-0.16055594,-0.63329752,0.75282304,-0.12725103,0.36262352,0.11975074,0.57240332,-1.31604912,0.0,-0.24487958,0.0,-0.24487958,0.0,-0.67279184,0.0
33.0,0.87049792,-0.15425657,-0.01513007,0.44645456,-0.05453862,0.55314792,0.04483248,-0.22031612,-0.09848526,-0.30829448,-0.915388,0.04057363,-0.00647082,-0.23202816,0.09529939,-0.63983936,1.26356504,0.15057105,-0.10180281,-0.03807766,-0.47964396,0.09907899,-0.72384688,0.20786148,0.11203904,0.01965443,-0.01114525,-0.16089524,-0.4332806,-0.03416104,-0.0101806,0.12566264,0.16287412,0.20443058,0.171381,-0.0896017,-0.01864845,0.61999004,0.16287412,-0.09336123,0.77953712,-0.15074155,-0.02673987,-0.12708552,0.18039072,0.06937675,-0.49338116,-0.11386554,0.06911345,-0.68262256,0.17397944,-0.1102098,0.9589072,0.0,0.83116504,-0.10692166,0.0,-0.00346506,0.2249308,-0.06012599,0.61961436,0.0,-2.18019296,-0.89856264,0.0,-0.16055594,-0.63329752,0.75282304,-0.12725103,0.36262352,0.11975074,0.57240332,-1.31604912,0.0,-0.24487958,0.0,-0.24487958,0.0,-0.67279184,0.0
34.0,0.87049792,-0.15425657,-0.01513007,0.44645456,-0.05453862,0.55314792,0.04483248,-0.22031612,-0.09848526,-0.30829448,-0.915388,0.04057363,-0.00647082,-0.23202816,0.09529939,-0.63983936,1.26356504,0.15057105,-0.10180281,-0.03807766,-0.47964396,0.09907899,-0.72384688,0.20786148,0.11203904,0.01965443,-0.01114525,-0.16089524,-0.4332806,-0.03416104,-0.0101806,0.12566264,0.16287412,0.20443058,0.171381,-0.0896017,-0.01864845,0.61999004,0.16287412,-0.09336123,0.77953712,-0.15074155,-0.02673987,-0.12708552,0.18039072,0.06937675,-0.49338116,-0.11386554,0.06911345,-0.68262256,0.17397944,-0.1102098,0.9589072,0.0,0.83116504,-0.10692166,0.0,-0.00346506,0.2249308,-0.06012599,0.4108464,0.0,-2.73383808,-0.89856264,0.0,-0.18381966,-0.63329752,0.75282304,-0.12725103,0.12730232,0.11975074,0.9180676,-1.01245416,0.0,-0.24487958,0.0,-0.24487958,0.0,-0.26046968,0.0
35.0,0.87049792,-0.15425657,-0.01513007,0.44645456,-0.05453862,0.55314792,0.04483248,-0.22031612,-0.09848526,-0.30829448,-0.915388,-0.07199808,-0.00647082,-0.41233876,-0.26846144,-0.78435144,1.07564088,0.15057105,-0.10180281,-0.50702028,-0.47964396,0.09907899,-0.72384688,0.20786148,0.11203904,0.01965443,-0.01114525,-0.16089524,-0.4332806,-0.03416104,-0.0101806,0.12566264,0.16287412,0.20443058,0.171381,-0.0896017,-0.01864845,0.61999004,0.16287412,-0.09336123,0.77953712,-0.15074155,-0.02673987,-0.12708552,0.18039072,0.06937675,-0.49338116,-0.11386554,0.06911345,-0.68262256,0.17397944,-0.1102098,0.9589072,0.0,0.83116504,-0.10692166,0.0,-0.00346506,0.2249308,-0.06012599,0.48927316,0.0,-2.55352736,-0.7040252,0.0,-0.18381966,-0.63329752,0.75282304,0.14973983,0.49917944,0.11975074,0.9180676,-1.01245416,0.0,-0.24487958,0.0,-0.24487958,0.0,-0.26046968,0.0
36.0,0.87049792,-0.15425657,-0.01513007,0.44645456,-0.05453862,0.55314792,0.04483248,-0.22031612,-0.09848526,-0.30829448,-0.915388,-0.07199808,-0.00647082,-0.41233876,-0.26846144,-0.78435144,1.07564088,0.15057105,-0.10180281,-0.50702028,-0.47964396,0.09907899,-0.72384688,0.20786148,0.11203904,0.01965443,-0.01114525,-0.16089524,-0.4332806,-0.03416104,-0.0101806,0.12566264,0.16287412,0.20443058,0.171381,-0.0896017,-0.01864845,0.61999004,0.16287412,-0.09336123,0.77953712,-0.15074155,-0.02673987,-0.12708552,0.18039072,0.06937675,-0.49338116,-0.11386554,0.06911345,-0.68262256,0.17397944,-0.1102098,0.9589072,0.0,0.83116504,-0.10692166,0.0,-0.00346506,0.2249308,-0.06012599,0.48927316,0.0,-2.55352736,-0.7040252,0.0,-0.18381966,-0.63329752,0.75282304,0.14973983,0.49917944,0.11975074,0.9180676,-1.01245416,0.0,-0.24487958,0.0,-0.24487958,0.0,-0.26046968,0.0
37.0,0.87049792,-0.15425657,-0.01513007,0.44645456,-0.05453862,0.55314792,0.04483248,-0.22031612,-0.09848526,-0.30829448,-0.915388,-0.07199808,-0.00647082,-0.41233876,-0.26846144,-0.78435144,1.07564088,0.15057105,-0.10180281,-0.50702028,-0.47964396,0.09907899,-0.72384688,0.20786148,0.11203904,0.01965443,-0.01114525,-0.16089524,-0.4332806,-0.03416104,-0.0101806,0.12566264,0.16287412,0.20443058,0.171381,-0.0896017,-0.01864845,0.61999004,0.16287412,-0.09336123,0.77953712,-0.15074155,-0.02673987,-0.12708552,0.18039072,0.06937675,-0.49338116,-0.11386554,0.06911345,-0.68262256,0.17397944,-0.1102098,0.9589072,0.0,0.83116504,-0.10692166,0.0,-0.00346506,0.2249308,-0.06012599,0.48927316,0.0,-3.16226304,-0.89713848,0.0,-0.18381966,-0.74111456,0.75282304,-0.44458548,-0.01635277,0.28025526,0.92562928,-1.01245416,0.0,-0.24487958,0.0,-0.24487958,0.0,0.2559951,0.0
38.0,0.87049792,-0.15425657,-0.01513007,0.44645456,-0.05453862,0.55314792,0.04483248,-0.22031612,-0.09848526,-0.30829448,-0.915388,-0.07199808,-0.00647082,-0.41233876,-0.26846144,-0.78435144,1.07564088,0.15057105,-0.10180281,-0.50702028,-0.47964396,0.09907899,-0.72384688,0.20786148,0.11203904,0.01965443,-0.01114525,-0.16089524,-0.4332806,-0.03416104,-0.0101806,0.12566264,0.16287412,0.20443058,0.171381,-0.0896017,-0.01864845,0.61999004,0.16287412,-0.09336123,0.77953712,-0.15074155,-0.02673987,-0.12708552,0.18039072,0.06937675,-0.49338116,-0.11386554,0.06911345,-0.68262256,0.17397944,-0.1102098,1.5022488,0.0,1.9093648,-0.10692166,0.0,-0.00346506,0.3098324,-0.06012599,0.48927316,0.0,-3.16226304,-0.89713848,0.0,-0.18381966,-0.74111456,0.75282304,-0.44458548,-0.01635277,0.28025526,0.79470504,-1.29221272,0.0,-0.24487958,0.0,-0.24487958,0.0,-0.57518548,0.0
39.0,0.87049792,-0.15425657,-0.01513007,0.44645456,-0.05453862,0.55314792,0.04483248,-0.22031612,-0.09848526,-0.30829448,-0.915388,-0.07199808,-0.00647082,-0.41233876,-0.26846144,-0.78435144,1.07564088,0.15057105,-0.10180281,-0.50702028,-0.47964396,0.09907899,-0.72384688,0.20786148,0.11203904,0.01965443,-0.01114525,-0.16089524,-0.4332806,-0.03416104,-0.0101806,0.12566264,0.16287412,0.20443058,0.171381,-0.0896017,-0.01864845,0.61999004,0.16287412,-0.09336123,0.77953712,-0.15074155,-0.02673987,-0.12708552,0.18039072,0.06937675,-0.49338116,-0.11386554,0.06911345,-0.68262256,0.17397944,-0.1102098,1.41848976,0.0,1.07344792,-0.10692166,0.0,-0.00346506,0.2350862,-0.06012599,0.6248142,0.0,-2.82693568,-0.89713848,0.0,-0.18381966,-0.74111456,1.01047872,0.14185038,0.46371628,0.28025526,0.79470504,-1.29221272,0.0,-0.24487958,0.0,-0.24487958,0.0,-0.57518548,0.0
40.0,0.87049792,-0.15425657,-0.01513007,0.44645456,-0.05453862,0.55314792,0.04483248,-0.22031612,-0.09848526,-0.30829448,-0.915388,-0.07199808,-0.00647082,-0.41233876,-0.26846144,-0.78435144,1.07564088,0.15057105,-0.10180281,-0.50702028,-0.47964396,0.09907899,-0.72384688,0.20786148,0.11203904,0.01965443,-0.01114525,-0.16089524,-0.4332806,-0.03416104,-0.0101806,0.12566264,0.16287412,0.20443058,0.171381,-0.0896017,-0.01864845,0.61999004,0.16287412,-0.09336123,0.77953712,-0.15074155,-0.02673987,-0.12708552,0.18039072,0.06937675,-0.49338116,-0.11386554,0.06911345,-0.68262256,0.17397944,-0.1102098,1.41848976,0.0,1.07344792,-0.10692166,0.0,-0.00346506,0.2350862,-0.06012599,0.6248142,0.0,-2.82693568,-0.89713848,0.0,-0.18381966,-0.74111456,1.01047872,0.14185038,0.46371628,0.28025526,0.79470504,-1.29221272,0.0,-0.24487958,0.0,-0.24487958,0.0,-0.57518548,0.0
41.0,0.87049792,-0.15425657,-0.01513007,0.44645456,-0.05453862,0.55314792,0.04483248,-0.22031612,-0.09848526,-0.30829448,-0.915388,-0.07199808,-0.00647082,-0.41233876,-0.26846144,-0.78435144,1.07564088,0.15057105,-0.10180281,-0.50702028,-0.47964396,0.09907899,-0.72384688,0.20786148,0.11203904,0.01965443,-0.01114525,-0.16089524,-0.4332806,-0.03416104,-0.0101806,0.12566264,0.16287412,0.20443058,0.171381,-0.0896017,-0.01864845,0.61999004,0.16287412,-0.09336123,0.77953712,-0.15074155,-0.02673987,-0.12708552,0.18039072,0.06937675,-0.49338116,-0.11386554,0.06911345,-0.68262256,0.17397944,-0.1102098,1.41848976,0.0,1.07344792,-0.10692166,0.0,-0.00346506,0.2350862,-0.06012599,0.6248142,0.0,-2.82693568,-0.89713848,0.0,-0.18381966,-0.74111456,1.01047872,0.14185038,0.46371628,0.28025526,0.79470504,-1.29221272,0.0,-0.24487958,0.0,-0.24487958,0.0,-0.57518548,0.0
42.0,0.87049792,-0.15425657,-0.01513007,0.44645456,-0.05453862,0.55314792,0.04483248,-0.22031612,-0.09848526,-0.30829448,-0.915388,-0.07199808,-0.00647082,-0.41233876,-0.26846144,-0.78435144,1.07564088,0.15057105,-0.10180281,-0.50702028,-0.47964396,0.09907899,-0.72384688,0.20786148,0.11203904,0.01965443,-0.01114525,-0.16089524,-0.4332806,-0.03416104,-0.0101806,0.12566264,0.16287412,0.20443058,0.171381,-0.0896017,-0.01864845,0.61999004,0.16287412,-0.09336123,0.77953712,-0.15074155,-0.02673987,-0.12708552,0.18039072,0.06937675,-0.49338116,-0.11386554,0.06911345,-0.68262256,0.17397944,-0.1102098,1.41848976,0.0,1.07344792,-0.10692166,0.0,-0.00346506,0.2350862,-0.06012599,0.40400516,0.0,-3.03165088,-1.25181784,0.0,-0.18381966,-0.74111456,1.01047872,-0.05655539,-0.09827742,0.28025526,0.79470504,-1.29221272,0.0,-0.24487958,0.0,-0.24487958,0.0,-0.49634548,0.0
43.0,0.87049792,-0.15425657,-0.01513007,0.44645456,-0.05453862,0.55314792,0.04483248,-0.22031612,-0.09848526,-0.30829448,-0.915388,-0.07199808,-0.00647082,-0.41233876,-0.26846144,-0.78435144,1.07564088,0.15057105,-0.10180281,-0.50702028,-0.47964396,0.09907899,-0.72384688,0.20786148,0.11203904,0.01965443,-0.01114525,-0.16089524,-0.4332806,-0.03416104,-0.0101806,0.12566264,0.16287412,0.20443058,0.171381,-0.0896017,-0.01864845,0.61999004,0.16287412,-0.09336123,0.77953712,-0.15074155,-0.02673987,-0.12708552,0.18039072,0.06937675,-0.49338116,-0.11386554,0.06911345,-0.68262256,0.17397944,-0.1102098,1.41848976,0.0,1.07344792,-0.10692166,0.0,-0.00346506,0.2350862,-0.06012599,0.40400516,0.0,-3.03165088,-1.25181784,0.0,-0.18381966,-0.74111456,1.01047872,-0.05655539,-0.09827742,0.28025526,0.79470504,-1.29221272,0.0,-0.24487958,0.0,-0.24487958,0.0,-0.49634548,0.0
44.0,0.87049792,-0.15425657,-0.01513007,0.44645456,-0.05453862,0.55314792,0.04483248,-0.22031612,-0.09848526,-0.30829448,-0.915388,-0.07199808,-0.00647082,0.08684832,-0.21859524,-0.24842454,1.45953104,0.15057105,-0.10180281,-0.14144444,-0.47964396,0.09907899,-0.72384688,0.20786148,0.11203904,0.01965443,-0.01114525,-0.16089524,-0.4332806,-0.03416104,-0.0101806,0.12566264,0.16287412,0.20443058,0.171381,-0.0896017,-0.01864845,0.61999004,0.16287412,-0.09336123,0.77953712,-0.15074155,-0.02673987,-0.12708552,0.18039072,0.06937675,-0.49338116,-0.11386554,0.06911345,-0.68262256,0.17397944,-0.1102098,1.41848976,0.0,1.07344792,-0.10692166,0.0,-0.00346506,0.2350862,-0.06012599,0.40400516,0.0,-3.03165088,-1.25181784,0.0,-0.18381966,-0.74111456,1.01047872,-0.05655539,-0.09827742,0.28025526,0.79470504,-1.29221272,0.0,-0.24487958,0.0,-0.24487958,0.0,-0.49634548,0.0
45.0,0.76653624,-0.15425657,-0.24875276,0.3629484,-0.32273942,-0.2667507,0.04483248,-0.22031612,-0.09848526,-0.47703392,-0.915388,-0.07199808,-0.00647082,0.08684832,-0.21859524,-0.24842454,1.45953104,0.15057105,-0.10180281,-0.14144444,-0.47964396,0.09907899,-0.72384688,0.20786148,0.11203904,0.01965443,-0.01114525,-0.16089524,-0.4332806,-0.03416104,-0.0101806,0.12566264,0.16287412,0.20443058,0.171381,-0.0896017,-0.01864845,0.61999004,0.16287412,-0.09336123,0.77953712,-0.15074155,-0.02673987,-0.12708552,0.18039072,0.06937675,-0.49338116,-0.11386554,0.06911345,-0.68262256,0.17397944,-0.09903566,2.1268552,0.0,1.80724448,0.12670103,0.0,-0.00346506,0.2350862,-0.06012599,0.40400516,0.0,-3.03165088,-1.25181784,0.0,-0.18381966,-0.74111456,1.01047872,-0.05655539,-0.09827742,0.28025526,0.79470504,-1.29221272,0.0,-0.24487958,0.0,-0.24487958,0.0,-0.49634548,0.0
46.0,0.76653624,-0.15425657,-0.24875276,0.3629484,-0.32273942,-0.2667507,0.04483248,-0.22031612,-0.09848526,-0.47703392,-0.915388,-0.1131036,-0.08861105,-0.76908784,-0.21859524,-0.86738656,0.9239948,0.15057105,-0.10180281,-0.65337712,-0.47964396,0.09907899,-0.72384688,0.20786148,0.11203904,0.01965443,-0.01114525,-0.16089524,-0.4332806,-0.03416104,-0.0101806,0.12566264,0.16287412,0.20443058,0.171381,-0.0896017,-0.01864845,0.61999004,0.16287412,-0.09336123,0.77953712,-0.15074155,-0.02673987,-0.12708552,0.18039072,0.06937675,-0.49338116,-0.11386554,0.06911345,-0.68262256,0.17397944,-0.09903566,2.35516192,0.0,2.42366576,0.12670103,0.0,-0.00346506,0.27100548,-0.06012599,0.40400516,0.0,-3.03165088,-1.25181784,0.0,-0.18381966,-0.74111456,1.01047872,-0.05655539,-0.09827742,0.28025526,0.79470504,-1.29221272,0.0,-0.24487958,0.0,-0.24487958,0.0,-0.49634548,0.0
47.0,0.76653624,-0.15425657,-0.24875276,0.3629484,-0.32273942,-0.2667507,0.04483248,-0.22031612,-0.09848526,-0.47703392,-0.915388,-0.1131036,-0.08861105,-0.76908784,-0.21859524,-0.86738656,0.9239948,0.15057105,-0.10180281,-0.65337712,-0.47964396,0.09907899,-0.72384688,0.20786148,0.11203904,0.01965443,-0.01114525,-0.16089524,-0.4332806,-0.03416104,0.34646408,0.45456584,0.16287412,0.25835836,0.51471496,-0.0896017,-0.00554581,1.61527344,0.16287412,-0.09336123,0.77953712,-0.15074155,-0.02673987,-0.12708552,0.18039072,0.06937675,-0.49338116,-0.11386554,0.06911345,-0.68262256,0.17397944,-0.22629144,2.35516192,0.0,2.32316944,0.01051691,0.0,-0.00346506,-0.19283062,-0.06012599,0.40400516,0.0,-3.03165088,-1.25181784,0.0,-0.18381966,-0.74111456,1.01047872,-0.05655539,-0.09827742,0.28025526,0.79470504,-1.29221272,0.0,-0.24487958,0.0,-0.24487958,0.0,-0.49634548,0.0
48.0,0.76653624,-0.15425657,-0.24875276,0.3629484,-0.32273942,-0.2667507,0.04483248,-0.22031612,-0.09848526,-0.47703392,-0.915388,-0.1131036,-0.08861105,-0.76908784,-0.21859524,-0.86738656,0.9239948,0.15057105,-0.10180281,-0.65337712,-0.47964396,0.09907899,-0.72384688,0.20786148,0.11203904,0.01965443,-0.01114525,-0.16089524,-0.4332806,-0.03416104,0.34646408,0.23268706,0.16287412,0.25835836,0.51471496,-0.0896017,-0.25919586,0.91296072,0.16287412,-0.09336123,0.77953712,-0.15074155,-0.02673987,-0.12708552,0.18039072,0.06937675,-0.49338116,-0.11386554,0.06911345,-0.68262256,0.17397944,-0.22629144,2.35516192,0.0,2.32316944,0.01051691,0.0,-0.00346506,-0.19283062,-0.06012599,0.67089964,0.0,-2.72700256,-1.25181784,0.0,-0.06404679,-0.74111456,1.01047872,0.57047872,0.05323899,0.28025526,0.79470504,-1.29221272,0.0,-0.24487958,0.0,-0.24487958,0.0,-0.49634548,0.0
49.0,0.76653624,-0.15425657,-0.24875276,0.3629484,-0.32273942,-0.2667507,0.04483248,-0.22031612,-0.09848526,-0.47703392,-0.915388,-0.1131036,-0.08861105,-0.76908784,-0.21859524,-0.86738656,0.9239948,0.15057105,-0.10180281,-0.65337712,-0.47964396,0.09907899,-0.72384688,0.20786148,0.11203904,0.01965443,-0.01114525,-0.16089524,-0.4332806,-0.03416104,0.34646408,0.23268706,0.16287412,0.25835836,0.51471496,-0.0896017,-0.25919586,0.91296072,0.16287412,-0.09336123,1.39012688,-0.15074155,-0.02673987,-0.12708552,0.18039072,0.06937675,-0.46389772,-0.11386554,0.27383912,-0.64198028,0.0731881,-0.22629144,1.76916384,0.0,1.5411,-0.0992143,0.0,-0.00346506,-0.2360223,-0.29248294,0.67089964,0.0,-2.72700256,-1.25181784,0.0,-0.06404679,-0.74111456,1.01047872,0.57047872,0.05323899,0.28025526,0.79470504,-1.29221272,0.0,-0.24487958,0.0,-0.24487958,0.0,-0.49634548,0.0
50.0,0.76653624,-0.15425657,-0.24875276,0.3629484,-0.32273942,-0.2667507,0.04483248,-0.22031612,-0.09848526,-0.47703392,-0.915388,-0.1131036,-0.08861105,-0.76908784,-0.21859524,-0.86738656,0.9239948,0.15057105,-0.10180281,-0.65337712,-0.34137596,0.09907899,-0.13841873,0.20786148,0.278467,0.09337435,-0.01114525,-0.15883151,-0.24033118,-0.03416104,0.34646408,0.09441906,0.16287412,0.25835836,0.51471496,-0.0896017,-0.50643872,0.08401805,0.16287412,-0.09336123,1.39012688,-0.15074155,-0.02673987,-0.12708552,0.18039072,0.06937675,-0.46389772,-0.11386554,0.27383912,-0.64198028,0.0731881,-0.22629144,1.76916384,0.0,1.5411,-0.0992143,0.0,-0.00346506,-0.2360223,-0.29248294,0.67089964,0.0,-2.72700256,-1.25181784,0.0,-0.06404679,-0.74111456,1.01047872,0.57047872,0.05323899,0.28025526,0.79470504,-1.29221272,0.0,-0.24487958,0.0,-0.24487958,0.0,-0.49634548,0.0
51.0,0.76653624,-0.15425657,-0.24875276,0.3629484,-0.32273942,-0.2667507,0.04483248,-0.22031612,-0.09848526,-0.47703392,-0.915388,-0.1131036,-0.08861105,-0.76908784,-0.21859524,-0.86738656,0.9239948,0.15057105,-0.10180281,-0.65337712,-0.34137596,0.09907899,-0.13841873,0.20786148,0.278467,0.09337435,-0.01114525,-0.15883151,-0.24033118,-0.03416104,0.34646408,0.09441906,0.16287412,0.25835836,0.51471496,-0.0896017,-0.50643872,0.08401805,0.16287412,-0.09336123,1.39012688,-0.15074155,-0.02673987,-0.12708552,0.18039072,0.06937675,-0.46389772,-0.11386554,0.27383912,-0.64198028,0.0731881,-0.22629144,1.76916384,0.0,1.5411,-0.0992143,0.0,-0.00346506,-0.2360223,-0.29248294,0.50391716,0.0,-3.04625472,-1.2834704,0.0,-0.06404679,-0.74111456,1.01047872,0.28314596,-0.42760748,0.28025526,0.94843696,-1.18882224,0.0,-0.24487958,0.0,-0.24487958,0.0,-0.37975036,0.0
52.0,1.298424,-0.15425657,-0.18195776,0.3629484,-0.32273942,0.46874668,0.04483248,-0.22031612,-0.09848526,-0.46262848,-0.915388,-0.1131036,-0.08861105,-0.76908784,-0.21859524,-0.86738656,0.9239948,0.15057105,-0.10180281,-0.65337712,-0.34137596,0.09907899,-0.13841873,0.20786148,0.278467,0.09337435,-0.01114525,-0.15883151,-0.24033118,-0.03416104,0.34646408,0.09441906,0.16287412,0.25835836,0.51471496,-0.0896017,-0.50643872,0.08401805,0.16287412,-0.09336123,1.39012688,-0.15074155,-0.02673987,-0.12708552,0.18039072,0.06937675,-0.46389772,-0.11386554,0.27383912,-0.64198028,0.0731881,-0.22629144,1.76916384,0.0,1.5411,-0.0992143,0.0,-0.00346506,-0.2360223,-0.29248294,0.50391716,0.0,-3.04625472,-1.2834704,0.0,-0.06404679,-0.74111456,1.01047872,0.28314596,-0.42760748,0.28025526,0.94843696,-1.77869984,0.0,-0.43338464,0.0,-0.43338464,0.0,-1.11524776,0.0
53.0,1.298424,-0.15425657,-0.18195776,0.3629484,-0.32273942,0.46874668,0.04483248,-0.22031612,-0.09848526,-0.46262848,-0.915388,-0.1131036,-0.08861105,-0.76908784,-0.21859524,-0.86738656,0.9239948,0.15057105,-0.10180281,-0.65337712,-0.34137596,0.09907899,0.45175028,0.20786148,0.278467,0.09337435,-0.01114525,-0.15883151,-0.15333986,-0.03416104,0.34646408,0.09441906,0.16287412,0.25835836,0.51471496,-0.0896017,-0.50643872,0.08401805,0.16287412,-0.09336123,1.1942468,-0.17009664,-0.02673987,-0.12708552,0.18039072,0.06937675,-0.65388012,-0.11741082,0.27383912,-0.64198028,0.0731881,-0.22629144,1.76916384,0.0,1.5411,-0.0992143,0.0,-0.00346506,-0.2360223,-0.29248294,0.50391716,0.0,-3.04625472,-1.2834704,0.0,-0.06404679,-0.74111456,1.01047872,0.28314596,-0.42760748,0.28025526,0.94843696,-1.77869984,0.0,-0.43338464,0.0,-0.43338464,0.0,-1.11524776,0.0
54.0,1.298424,-0.15425657,-0.18195776,0.3629484,-0.32273942,0.46874668,0.04483248,-0.22031612,-0.09848526,-0.46262848,-0.68463232,-0.1131036,-0.08861105,0.20424402,-0.12578292,-0.86738656,1.55262656,0.15057105,-0.10180281,-0.25142956,-0.34137596,-0.1930264,0.03573131,0.11099216,0.278467,0.09337435,-0.52989124,-0.52264868,-0.15333986,-0.03416104,0.34646408,0.09441906,0.16287412,0.25835836,0.51471496,-0.0896017,-0.50643872,0.08401805,0.16287412,-0.09336123,1.1942468,-0.17009664,-0.02673987,-0.12708552,0.18039072,0.06937675,-0.65388012,-0.11741082,0.27383912,-0.64198028,0.0731881,-0.22629144,1.76916384,0.0,1.5411,-0.0992143,0.0,-0.00346506,-0.2360223,-0.29248294,0.50391716,0.0,-3.04625472,-1.2834704,0.0,-0.06404679,-0.74111456,1.01047872,0.28314596,-0.42760748,0.28025526,0.94843696,-1.77869984,0.0,-0.43338464,0.0,-0.43338464,0.0,-1.11524776,0.0
55.0,1.298424,-0.15425657,-0.18195776,0.3629484,-0.32273942,0.46874668,0.04483248,-0.22031612,-0.09848526,-0.46262848,-0.68463232,-0.1131036,-0.08861105,0.20424402,-0.12578292,-0.86738656,1.55262656,0.15057105,-0.10180281,-0.25142956,-0.34137596,-0.1930264,0.03573131,0.11099216,0.278467,0.09337435,-0.52989124,-0.52264868,-0.15333986,-0.03416104,0.34646408,0.09441906,0.16287412,0.25835836,0.51471496,-0.0896017,-0.50643872,0.08401805,0.16287412,-0.09336123,1.1942468,-0.17009664,-0.02673987,-0.12708552,0.18039072,0.06937675,-0.65388012,-0.11741082,0.27383912,-0.64198028,0.0731881,-0.22629144,1.76916384,0.0,1.5411,-0.0992143,0.0,-0.00346506,-0.2360223,-0.29248294,0.50391716,0.0,-3.04625472,-1.2834704,0.0,-0.06404679,-0.74111456,1.01047872,0.28314596,-0.42760748,0.28025526,0.94843696,-1.77869984,0.0,-0.43338464,0.0,-0.43338464,0.0,-1.11524776,0.0
56.0,1.298424,-0.15425657,-0.18195776,0.3629484,-0.32273942,0.46874668,0.04483248,-0.22031612,-0.09848526,-0.46262848,-0.68463232,-0.1131036,-0.08861105,0.20424402,-0.12578292,-0.86738656,1.55262656,0.15057105,-0.10180281,-0.25142956,-0.3232775,-0.1930264,0.64671992,0.11099216,0.32186502,0.09472717,-0.52989124,-0.52264868,0.13554552,-0.03416104,0.34646408,0.09441906,0.16287412,0.25835836,0.51471496,-0.0896017,-0.50643872,0.08401805,0.16287412,-0.09336123,1.1942468,-0.17009664,-0.02673987,-0.12708552,0.18039072,0.06937675,-0.65388012,-0.11741082,0.27383912,-0.64198028,0.0731881,-0.22629144,1.76916384,0.0,1.5411,-0.0992143,0.0,-0.00346506,-0.2360223,-0.29248294,0.50391716,0.0,-3.04625472,-1.2834704,0.0,-0.06404679,-0.74111456,1.01047872,0.28314596,-0.42760748,0.28025526,0.80995296,-1.77869984,0.0,-0.43338464,0.0,-0.43338464,0.0,-1.59623568,0.0
57.0,1.298424,-0.15425657,-0.18195776,0.3629484,-0.32273942,0.46874668,0.04483248,-0.22031612,-0.09848526,-0.46262848,-1.1159372,-0.1131036,-0.08861105,0.20424402,-0.68175776,-1.3385428,1.55262656,0.15057105,-0.10180281,-0.64922576,-0.3232775,-0.1930264,0.64671992,0.11099216,0.32186502,0.09472717,-0.52989124,-0.52264868,0.13554552,-0.03416104,0.34646408,0.09441906,0.16287412,0.25835836,0.51471496,-0.0896017,-0.50643872,0.08401805,0.16287412,-0.09336123,1.1942468,-0.17009664,-0.02673987,-0.12708552,0.18039072,0.06937675,-0.65388012,-0.11741082,0.27383912,-0.64198028,0.0731881,-0.22629144,1.76916384,0.0,1.5411,-0.0992143,0.0,-0.00346506,-0.2360223,-0.29248294,0.97930432,0.0,-3.04625472,-1.2834704,0.0,-0.06404679,-0.74111456,1.1877904,0.52531636,-0.07700142,0.28025526,0.80995296,-1.77869984,0.0,-0.43338464,0.0,-0.43338464,0.0,-1.59623568,0.0
58.0,0.80870576,-0.15425657,-0.18195776,0.1295817,-0.32273942,-0.51656468,0.04483248,-0.22031612,-0.09848526,-0.46262848,-1.1159372,-0.1131036,-0.08861105,0.20424402,-0.68175776,-1.3385428,1.55262656,0.15057105,-0.10180281,-0.64922576,-0.3232775,-0.1930264,0.64671992,0.11099216,0.32186502,0.09472717,-0.52989124,-0.52264868,0.13554552,-0.03416104,0.34646408,0.09441906,0.16287412,0.25835836,0.51471496,-0.0896017,-0.50643872,0.08401805,0.16287412,-0.09336123,1.1942468,-0.17009664,-0.02673987,-0.12708552,0.18039072,0.06937675,-0.65388012,-0.11741082,0.27383912,-0.64198028,0.23752004,-0.00086392,2.35348368,0.0,2.2759072,-0.0992143,0.0,-0.00346506,-0.2360223,-0.29248294,0.97930432,0.0,-3.04625472,-1.2834704,0.0,-0.06404679,-0.74111456,1.1877904,0.52531636,-0.07700142,0.28025526,0.80995296,-1.77869984,0.0,-0.43338464,0.0,-0.43338464,0.0,-1.59623568,0.0
59.0,0.80870576,-0.15425657,-0.18195776,0.1295817,-0.32273942,-0.51656468,0.04483248,-0.22031612,-0.09848526,-0.46262848,-1.1159372,-0.1131036,-0.08861105,0.20424402,-0.68175776,-1.3385428,1.55262656,0.15057105,-0.10180281,-0.64922576,-0.2333604,-0.1930264,1.03923384,0.11099216,0.33753128,0.32145744,-0.52989124,-0.52264868,0.40958912,-0.03416104,0.34646408,0.09441906,0.16287412,0.25835836,0.51471496,-0.0896017,-0.50643872,0.08401805,0.16287412,-0.09336123,1.1942468,-0.17009664,-0.02673987,-0.12708552,0.18039072,0.06937675,-0.65388012,-0.11741082,0.27383912,-0.64198028,0.23752004,-0.2266221,1.9153984,0.0,1.88339344,-0.0992143,0.0,-0.00346506,-0.2360223,-0.29248294,0.97930432,0.0,-3.04625472,-1.2834704,0.0,-0.06404679,-0.74111456,1.1877904,0.52531636,-0.07700142,0.28025526,0.80995296,-1.77869984,0.0,-0.43338464,0.0,-0.43338464,0.0,-1.59623568,0.0
60.0,0.80870576,-0.15425657,-0.18195776,0.1295817,-0.32273942,-0.51656468,0.04483248,-0.22031612,-0.09848526,-0.46262848,-1.1159372,-0.1131036,-0.08861105,0.20424402,-0.68175776,-1.3385428,1.55262656,0.15057105,-0.10180281,-0.64922576,-0.37551732,-0.1930264,0.23574942,0.11099216,0.33753128,0.32145744,-0.52989124,-0.52264868,-0.37512964,-0.03416104,0.34646408,0.09441906,0.16287412,0.25835836,0.51471496,-0.0896017,-0.50643872,0.08401805,0.16287412,-0.09336123,1.1942468,-0.17009664,-0.02673987,-0.12708552,0.18039072,0.06937675,-0.65388012,-0.11741082,0.27383912,-0.64198028,0.23752004,-0.2266221,1.9153984,0.0,1.88339344,-0.0992143,0.0,-0.00346506,-0.2360223,-0.29248294,1.23884056,0.0,-2.27553456,-1.2834704,0.0,0.05557196,-0.74111456,1.49456192,0.52531636,0.02248278,0.28025526,0.80995296,-1.77869984,0.0,-0.43338464,0.0,-0.43338464,0.0,-1.59623568,0.0
61.0,0.80870576,-0.15425657,-0.18195776,0.1295817,-0.32273942,-0.51656468,0.04483248,-0.22031612,-0.09848526,-0.46262848,-1.1159372,-0.1131036,-0.08861105,0.20424402,-0.68175776,-1.3385428,1.55262656,0.15057105,-0.10180281,-0.64922576,-0.37551732,-0.1930264,-0.4131716,0.11099216,0.33753128,0.32145744,-0.52989124,-0.52264868,-0.48981084,-0.03416104,0.34646408,0.09441906,0.16287412,0.25835836,0.51471496,-0.0896017,-0.50643872,0.08401805,0.16287412,-0.09336123,1.58762352,-0.14300099,-0.02673987,-0.12708552,0.18039072,0.06937675,-0.57343356,-0.11741082,0.27383912,-0.64198028,0.23752004,-0.2266221,1.9153984,0.0,1.88339344,-0.0992143,0.0,-0.00346506,-0.2360223,-0.29248294,1.23884056,0.0,-2.27553456,-1.2834704,0.0,0.05557196,-0.74111456,1.49456192,0.52531636,0.02248278,0.28025526,0.80995296,-1.77869984,0.0,-0.43338464,0.0,-0.43338464,0.0,-1.59623568,0.0
62.0,0.80870576,-0.15425657,-0.18195776,0.1295817,-0.32273942,-0.51656468,0.04483248,-0.22031612,-0.09848526,-0.46262848,-1.1159372,-0.1131036,-0.08861105,0.20424402,-0.68175776,-1.3385428,1.55262656,0.15057105,-0.10180281,-0.64922576,-0.37551732,-0.1930264,-0.4131716,0.11099216,0.33753128,0.32145744,-0.52989124,-0.52264868,-0.48981084,-0.03416104,0.36056792,0.11208124,0.16287412,0.25835836,0.51471496,-0.0896017,-0.50643872,0.93834632,0.16287412,-0.09336123,1.39014528,-0.40462588,-0.02673987,-0.12708552,0.18039072,0.06937675,-0.57343356,-0.28439944,0.27383912,-0.64449256,0.23752004,-0.2266221,1.9153984,0.0,1.88339344,-0.0992143,0.0,-0.00346506,-0.2360223,-0.29248294,1.23884056,0.0,-2.27553456,-1.2834704,0.0,0.05557196,-0.74111456,1.49456192,0.52531636,0.02248278,0.28025526,0.80995296,-1.77869984,0.0,-0.43338464,0.0,-0.43338464,0.0,-1.59623568,0.0
63.0,0.80870576,-0.15425657,-0.18195776,0.1295817,-0.32273942,-0.51656468,0.04483248,-0.22031612,-0.09848526,-0.46262848,-1.1159372,-0.1131036,-0.08861105,0.20424402,-0.68175776,-1.3385428,1.55262656,0.15057105,-0.10180281,-0.64922576,-0.37551732,-0.1930264,-0.4131716,0.11099216,0.33753128,0.32145744,-0.52989124,-0.52264868,-0.48981084,-0.03416104,0.36056792,0.11208124,0.16287412,0.25835836,0.51471496,-0.0896017,-0.53154956,-0.1823687,0.16287412,-0.09336123,2.15374464,-0.16501455,-0.02673987,-0.12708552,0.18039072,0.06937675,-0.57343356,-0.22252942,0.43346112,-0.64449256,0.23752004,-0.2266221,1.9153984,0.0,1.88339344,-0.0992143,0.0,-0.00346506,-0.2360223,-0.29248294,1.23884056,0.0,-2.27553456,-1.2834704,0.0,0.05557196,-0.74111456,1.49456192,0.52531636,0.02248278,0.28025526,0.80995296,-1.77869984,0.0,-0.43338464,0.0,-0.43338464,0.0,-1.59623568,0.0
64.0,0.80870576,-0.15425657,-0.18195776,0.1295817,-0.32273942,-0.51656468,0.04483248,-0.22031612,-0.09848526,-0.46262848,-1.07453296,-0.1131036,-0.08861105,0.61379896,-0.65278096,-1.10908592,2.26389264,0.15057105,-0.10180281,-0.46820072,-0.37551732,-0.1930264,-0.4131716,0.11099216,0.33753128,0.32145744,-0.52989124,-0.52264868,-0.48981084,-0.03416104,0.36056792,0.11208124,0.16287412,0.25835836,0.51471496,-0.0896017,-0.53154956,-0.1823687,0.16287412,-0.09336123,2.15374464,-0.16501455,-0.02673987,-0.12708552,0.18039072,0.06937675,-0.57343356,-0.22252942,0.43346112,-0.64449256,0.23752004,-0.2266221,1.9153984,0.0,1.88339344,-0.0992143,0.0,-0.00346506,-0.2360223,-0.29248294,0.78237712,-0.05767893,-2.6850896,-1.97521184,0.0,0.05557196,-0.74111456,1.29635144,0.08598295,-0.83151472,0.28025526,0.80995296,-1.77869984,0.0,-0.43338464,0.0,-0.43338464,0.0,-1.59623568,0.0
65.0,0.80870576,-0.15425657,-0.18195776,0.1295817,-0.32273942,-0.51656468,0.04483248,-0.22031612,-0.09848526,-0.46262848,-1.07453296,-0.1131036,-0.08861105,0.61379896,-0.65278096,-1.10908592,2.26389264,0.15057105,-0.10180281,-0.46820072,-0.37551732,-0.1930264,-0.4131716,0.11099216,0.33753128,0.32145744,-0.52989124,-0.52264868,-0.48981084,-0.03416104,0.36056792,0.11208124,0.16287412,0.25835836,0.51471496,-0.0896017,-0.53154956,-0.1823687,0.16287412,-0.09336123,2.15374464,-0.16501455,-0.02673987,-0.12708552,0.18039072,0.06937675,-0.57343356,-0.22252942,0.43346112,-0.64449256,0.23752004,-0.2266221,1.9153984,0.0,1.88339344,-0.0992143,0.0,-0.00346506,-0.2360223,-0.29248294,0.6447422,-0.05767893,-3.52524768,-1.97521184,0.0,0.0512921,-0.74111456,1.29635144,0.04462991,-0.98594024,0.28025526,1.20171968,-1.35489136,0.0,-0.43338464,0.0,-0.43338464,0.0,-1.1199896,0.0
66.0,0.80870576,-0.15425657,-0.18195776,0.1295817,-0.32273942,-0.51656468,0.04483248,-0.22031612,-0.09848526,-0.46262848,-1.07453296,-0.1131036,-0.08861105,0.61379896,-0.65278096,-1.10908592,2.26389264,0.15057105,-0.10180281,-0.46820072,-0.37551732,-0.1930264,0.26627666,0.11099216,0.33753128,0.32145744,-0.52989124,-0.52264868,-0.38735272,-0.03416104,0.36056792,0.11208124,0.16287412,0.25835836,0.51471496,-0.0896017,-0.53154956,-0.1823687,0.16287412,-0.09336123,1.803752,-0.601882,-0.02673987,-0.12708552,0.18039072,0.06937675,-0.59414416,-0.39235832,0.43346112,-0.64449256,0.23752004,-0.2266221,1.9153984,0.0,1.88339344,-0.0992143,0.0,-0.00346506,-0.2360223,-0.29248294,0.6447422,-0.05767893,-3.52524768,-1.97521184,0.0,0.0512921,-0.74111456,1.29635144,0.04462991,-0.98594024,0.28025526,1.20171968,-1.35489136,0.0,-0.43338464,0.0,-0.43338464,0.0,-1.1199896,0.0
67.0,0.80870576,-0.15425657,-0.18195776,0.1295817,-0.32273942,-0.51656468,0.04483248,-0.22031612,-0.09848526,-0.46262848,-1.63701728,-0.1131036,-0.08861105,-0.07285261,-0.68144136,-1.54080016,2.26389264,0.15057105,-0.61990292,-0.46820072,-0.37551732,-0.1930264,0.26627666,0.11099216,0.33753128,0.32145744,-0.52989124,-0.52264868,-0.38735272,-0.03416104,0.36056792,0.11208124,0.16287412,0.25835836,0.51471496,-0.0896017,-0.27533712,0.24859348,0.16287412,0.051841,1.803752,-0.601882,-0.02673987,-0.12708552,0.18039072,0.06937675,-0.59414416,-0.39235832,0.43346112,-0.64449256,0.23752004,-0.2266221,1.9153984,0.0,1.88339344,-0.0992143,0.0,-0.00346506,-0.2360223,-0.29248294,0.6447422,-0.05767893,-3.52524768,-1.97521184,0.0,0.0512921,-0.74111456,1.29635144,0.04462991,-0.98594024,0.28025526,1.20171968,-1.35489136,0.0,-0.43338464,0.0,-0.43338464,0.0,-1.1199896,0.0
68.0,0.80870576,-0.15425657,-0.18195776,0.1295817,-0.32273942,-0.51656468,0.04483248,-0.22031612,-0.09848526,-0.46262848,-1.63701728,-0.1131036,-0.08861105,-0.07285261,-0.68144136,-1.54080016,2.26389264,0.15057105,-0.61990292,-0.46820072,-0.37551732,-0.1930264,0.26627666,0.11099216,0.33753128,0.32145744,-0.52989124,-0.52264868,-0.38735272,-0.03416104,0.36056792,0.11208124,0.16287412,0.25835836,0.51471496,-0.0896017,-0.27533712,0.24859348,0.16287412,0.051841,1.803752,-0.601882,-0.02673987,-0.12708552,0.18039072,0.06937675,-0.59414416,-0.39235832,0.43346112,-0.64449256,0.23752004,-0.2266221,1.9153984,0.0,1.88339344,-0.0992143,0.0,-0.00346506,-0.2360223,-0.29248294,0.6447422,-0.05767893,-3.52524768,-1.97521184,0.0,0.0512921,-0.74111456,1.29635144,0.04462991,-0.98594024,0.28025526,1.20171968,-1.35489136,0.0,-0.43338464,0.0,-0.43338464,0.0,-1.1199896,0.0
69.0,0.80870576,-0.15425657,-0.18195776,0.1295817,-0.32273942,-0.51656468,0.04483248,-0.22031612,-0.09848526,-0.46262848,-1.63701728,-0.1131036,-0.08861105,-0.07285261,-0.68144136,-1.54080016,2.26389264,0.15057105,-0.61990292,-0.46820072,-0.37551732,-0.1930264,0.26627666,0.11099216,0.33753128,0.32145744,-0.52989124,-0.52264868,-0.38735272,-0.03416104,0.36056792,0.11208124,0.16287412,0.25835836,0.51471496,-0.0896017,-0.27533712,0.24859348,0.16287412,0.051841,1.803752,-0.601882,-0.02673987,-0.12708552,0.18039072,0.06937675,-0.59414416,-0.39235832,0.43346112,-0.64449256,0.23752004,-0.2266221,1.52531104,0.0,0.87114248,-0.0992143,0.0,-0.00346506,-0.2360223,-0.29248294,0.6447422,-0.05767893,-3.52524768,-1.97521184,0.0,0.0512921,-0.74111456,1.29635144,0.04462991,-0.98594024,0.28025526,1.20342592,-1.1046116,0.0,-0.43338464,0.0,-0.43338464,0.0,-0.788574,0.0
70.0,0.80870576,-0.15425657,-0.18195776,0.1295817,-0.32273942,-0.51656468,0.04483248,-0.22031612,-0.09848526,-0.46262848,-1.63701728,-0.1131036,-0.08861105,-0.07285261,-0.68144136,-1.54080016,2.26389264,0.15057105,-0.61990292,-0.46820072,-0.37551732,-0.1930264,0.26627666,0.11099216,0.33753128,0.32145744,-0.52989124,-0.52264868,-0.38735272,-0.03416104,0.36056792,0.11208124,0.16287412,0.25835836,0.51471496,-0.0896017,-0.27533712,0.24859348,0.16287412,0.051841,1.803752,-0.601882,-0.02673987,-0.12708552,0.18039072,0.06937675,-0.59414416,-0.39235832,0.43346112,-0.64449256,0.23752004,-0.2266221,1.52531104,0.0,0.87114248,-0.0992143,0.0,-0.00346506,-0.2360223,-0.29248294,0.6447422,-0.05767893,-3.52524768,-1.97521184,0.0,0.0512921,-0.74111456,1.29635144,0.04462991,-0.98594024,0.28025526,1.20342592,-1.1046116,0.0,-0.43338464,0.0,-0.43338464,0.0,-0.788574,0.0
71.0,0.80870576,-0.15425657,-0.18195776,0.1295817,-0.32273942,-0.51656468,0.04483248,-0.22031612,-0.09848526,-0.46262848,-1.63701728,-0.1131036,-0.08861105,-0.07285261,-0.68144136,-1.54080016,2.26389264,0.15057105,-0.61990292,-0.46820072,-0.37551732,-0.1930264,0.26627666,0.11099216,0.33753128,0.32145744,-0.52989124,-0.52264868,-0.38735272,-0.03416104,0.36056792,0.11208124,0.16287412,0.25835836,0.51471496,-0.0896017,-0.27533712,0.24859348,0.16287412,0.051841,1.803752,-0.601882,-0.02673987,-0.12708552,0.18039072,0.06937675,-0.59414416,-0.39235832,0.43346112,-0.64449256,0.23752004,-0.2266221,1.52531104,0.0,0.87114248,-0.0992143,0.0,-0.00346506,-0.2360223,-0.29248294,0.6447422,-0.05767893,-3.52524768,-1.97521184,0.0,0.0512921,-0.74111456,1.29635144,0.04462991,-0.98594024,0.28025526,1.20342592,-1.1046116,0.0,-0.43338464,0.0,-0.43338464,0.0,-0.788574,0.0
72.0,0.80870576,-0.15425657,-0.18195776,0.1295817,-0.32273942,-0.51656468,0.04483248,-0.22031612,-0.09848526,-0.46262848,-1.63701728,-0.1131036,-0.08861105,-0.07285261,-0.68144136,-1.54080016,2.26389264,0.15057105,-0.61990292,-0.46820072,-0.15642022,-0.1930264,0.72688048,0.11099216,0.33753128,0.55475228,-0.52989124,-0.52264868,0.20515872,-0.03416104,0.36056792,0.11208124,0.16287412,0.25835836,0.51471496,-0.0896017,-0.27533712,0.24859348,0.16287412,0.051841,1.803752,-0.601882,-0.02673987,-0.12708552,0.18039072,0.06937675,-0.59414416,-0.39235832,0.43346112,-0.64449256,0.23752004,-0.2266221,1.52531104,0.0,0.87114248,-0.0992143,0.0,-0.00346506,-0.2360223,-0.29248294,0.6447422,-0.05767893,-3.52524768,-1.97521184,0.0,0.0512921,-0.74111456,1.29635144,0.04462991,-0.98594024,0.27559352,1.20342592,-1.1046116,0.0,-0.43338464,0.0,-0.43338464,0.0,-1.21986128,-0.2123005
73.0,0.80870576,-0.15425657,-0.18195776,0.1295817,-0.32273942,-0.51656468,0.04483248,-0.22031612,-0.09848526,-0.46262848,-1.63701728,-0.1131036,-0.08861105,-0.07285261,-0.68144136,-1.54080016,2.26389264,0.15057105,-0.61990292,-0.46820072,-0.15642022,-0.1930264,0.72688048,0.11099216,0.33753128,0.55475228,-0.52989124,-0.52264868,0.20515872,-0.03416104,0.36056792,0.11208124,0.16287412,0.25835836,0.51471496,-0.0896017,-0.27533712,0.24859348,0.16287412,0.051841,1.803752,-0.601882,-0.02673987,-0.12708552,0.18039072,0.06937675,-0.59414416,-0.39235832,0.43346112,-0.64449256,0.23752004,-0.2266221,1.52531104,0.0,0.87114248,-0.0992143,0.0,-0.00346506,-0.2360223,-0.29248294,0.6447422,-0.05767893,-3.52524768,-1.97521184,0.0,0.0512921,-0.74111456,1.29635144,0.04462991,-0.98594024,0.27559352,1.20342592,-1.1046116,0.0,-0.43338464,0.0,-0.43338464,0.0,-1.21986128,-0.2123005
74.0,0.80870576,-0.15425657,-0.18195776,0.1295817,-0.32273942,-0.51656468,0.04483248,-0.22031612,-0.09848526,-0.46262848,-1.63701728,-0.1131036,-0.08861105,-0.07285261,-0.68144136,-1.54080016,2.26389264,0.15057105,-0.61990292,-0.46820072,-0.15642022,-0.1930264,0.72688048,0.11099216,0.33753128,0.55475228,-0.52989124,-0.52264868,0.20515872,-0.03416104,0.36056792,0.11208124,0.16287412,0.25835836,0.51471496,-0.0896017,-0.27533712,0.24859348,0.16287412,0.051841,1.803752,-0.601882,-0.02673987,-0.12708552,0.18039072,0.06937675,-0.59414416,-0.39235832,0.43346112,-0.64449256,0.23752004,-0.2266221,1.52531104,0.0,0.87114248,-0.0992143,0.0,-0.00346506,-0.2360223,-0.29248294,0.6447422,-0.05767893,-3.52524768,-1.97521184,0.0,0.0512921,-0.74111456,1.29635144,0.04462991,-0.98594024,0.27559352,1.20342592,-1.1046116,0.0,-0.43338464,0.0,-0.43338464,0.0,-1.21986128,-0.2123005
75.0,0.80870576,-0.15425657,-0.18195776,0.1295817,-0.32273942,-0.51656468,0.04483248,-0.22031612,-0.09848526,-0.46262848,-1.63701728,-0.1131036,-0.08861105,-0.07285261,-0.68144136,-1.54080016,2.26389264,0.15057105,-0.61990292,-0.46820072,-0.15642022,-0.1930264,0.72688048,0.11099216,0.33753128,0.55475228,-0.52989124,-0.52264868,0.20515872,-0.03416104,0.36056792,0.11208124,0.16287412,0.25835836,0.51471496,-0.0896017,-0.27533712,0.24859348,0.16287412,0.051841,1.803752,-0.601882,-0.02673987,-0.12708552,0.18039072,0.06937675,-0.59414416,-0.39235832,0.43346112,-0.64449256,0.23752004,-0.2266221,1.52531104,0.0,0.87114248,-0.0992143,0.0,-0.00346506,-0.2360223,-0.29248294,0.6447422,-0.05767893,-3.52524768,-1.97521184,0.0,0.0512921,-0.74111456,1.29635144,0.04462991,-0.98594024,0.27559352,1.20342592,-1.1046116,0.0,-0.43338464,0.0,-0.43338464,0.0,-1.21986128,-0.2123005
76.0,0.80870576,-0.15425657,-0.18195776,0.1295817,-0.32273942,-0.51656468,0.04483248,-0.22031612,-0.09848526,-0.46262848,-1.63701728,-0.1131036,-0.08861105,-0.07285261,-0.68144136,-1.54080016,2.26389264,0.15057105,-0.61990292,-0.46820072,-0.15642022,-0.1930264,0.72688048,0.11099216,0.33753128,0.55475228,-0.52989124,-0.52264868,0.20515872,-0.03416104,0.36056792,0.11208124,0.16287412,0.25835836,0.51471496,-0.0896017,-0.27533712,0.24859348,0.16287412,0.051841,1.803752,-0.601882,-0.02673987,-0.12708552,0.18039072,0.06937675,-0.59414416,-0.39235832,0.43346112,-0.64449256,0.23752004,-0.2266221,1.52531104,0.0,0.87114248,-0.0992143,0.0,-0.00346506,-0.2360223,-0.29248294,0.6447422,-0.05767893,-3.52524768,-1.97521184,0.0,0.0512921,-0.74111456,1.29635144,0.04462991,-0.98594024,0.27559352,1.20342592,-1.1046116,0.0,-0.43338464,0.0,-0.43338464,0.0,-1.21986128,-0.2123005
77.0,0.80870576,-0.15425657,-0.18195776,0.1295817,-0.32273942,-0.51656468,0.04483248,-0.22031612,-0.09848526,-0.46262848,-1.63701728,-0.1131036,-0.08861105,-0.07285261,-0.68144136,-1.54080016,2.26389264,0.15057105,-0.61990292,-0.46820072,-0.3970746,-0.1930264,0.12512696,0.11099216,0.14686294,0.39057712,-0.52989124,-0.52264868,-0.05712414,-0.03416104,0.36056792,0.11208124,0.16287412,0.25835836,0.51471496,-0.0896017,-0.27533712,0.24859348,0.16287412,0.051841,1.803752,-0.601882,-0.02673987,-0.12708552,0.18039072,0.06937675,-0.59414416,-0.39235832,0.43346112,-0.64449256,0.23752004,-0.2266221,2.24466608,0.0,1.47289616,-0.06099768,0.0,-0.00346506,-0.22030498,-0.29248294,0.6447422,-0.05767893,-3.52524768,-1.97521184,0.0,0.0512921,-0.74111456,1.29635144,0.04462991,-0.98594024,0.27559352,1.20342592,-1.1046116,0.0,-0.43338464,0.0,-0.43338464,0.0,-1.21986128,-0.2123005
78.0,0.80870576,-0.15425657,-0.18195776,0.1295817,-0.32273942,-0.51656468,0.04483248,-0.22031612,-0.09848526,-0.46262848,-1.63701728,-0.1131036,-0.08861105,-0.07285261,-0.68144136,-1.54080016,2.26389264,0.15057105,-0.61990292,-0.46820072,-0.3970746,-0.1930264,0.12512696,0.11099216,0.14686294,0.39057712,-0.52989124,-0.52264868,-0.05712414,-0.03416104,0.36056792,0.11208124,0.16287412,0.25835836,0.51471496,-0.0896017,-0.27533712,0.24859348,0.16287412,0.051841,1.803752,-0.601882,-0.02673987,-0.12708552,0.18039072,0.06937675,-0.59414416,-0.39235832,0.43346112,-0.64449256,0.23752004,-0.2266221,2.24466608,0.0,1.47289616,-0.06099768,0.0,-0.00346506,-0.22030498,-0.29248294,0.6447422,-0.05767893,-3.52524768,-1.97521184,0.0,0.0512921,-0.74111456,1.29635144,0.04462991,-0.98594024,0.27559352,1.20342592,-1.1046116,0.0,-0.43338464,0.0,-0.43338464,0.0,-1.21986128,-0.2123005
79.0,0.80870576,-0.15425657,-0.18195776,0.1295817,-0.32273942,-0.51656468,0.04483248,-0.22031612,-0.09848526,-0.46262848,-1.63701728,-0.1131036,-0.08861105,-0.07285261,-0.68144136,-1.54080016,2.26389264,0.15057105,-0.61990292,-0.46820072,-0.3970746,-0.1930264,0.12512696,0.11099216,0.14686294,0.39057712,-0.52989124,-0.52264868,-0.05712414,-0.03416104,0.36056792,0.11208124,0.16287412,0.25835836,0.51471496,-0.0896017,-0.27533712,0.24859348,0.16287412,0.051841,1.803752,-0.601882,-0.02673987,-0.12708552,0.18039072,0.06937675,-0.59414416,-0.39235832,0.43346112,-0.64449256,0.23752004,-0.2266221,2.24466608,0.0,1.47289616,-0.06099768,0.0,-0.00346506,-0.22030498,-0.29248294,0.6447422,-0.05767893,-3.52524768,-1.97521184,0.0,0.0512921,-0.74111456,1.29635144,0.04462991,-0.98594024,0.27559352,1.20342592,-1.1046116,0.0,-0.43338464,0.0,-0.43338464,0.0,-1.21986128,-0.2123005
80.0,0.80870576,-0.15425657,-0.18195776,0.1295817,-0.32273942,-0.51656468,0.04483248,-0.22031612,-0.09848526,-0.46262848,-1.63701728,-0.1131036,-0.08861105,-0.07285261,-0.68144136,-1.54080016,2.26389264,0.15057105,-0.61990292,-0.46820072,-0.3970746,-0.1930264,0.12512696,0.11099216,0.14686294,0.39057712,-0.52989124,-0.52264868,-0.05712414,-0.03416104,0.36056792,0.11208124,0.16287412,0.25835836,0.51471496,-0.0896017,-0.27533712,0.24859348,0.16287412,0.051841,1.803752,-0.601882,-0.02673987,-0.12708552,0.18039072,0.06937675,-0.59414416,-0.39235832,0.43346112,-0.64449256,0.23752004,-0.2266221,2.24466608,0.0,1.47289616,-0.06099768,0.0,-0.00346506,-0.22030498,-0.29248294,0.6447422,-0.05767893,-3.52524768,-1.97521184,0.0,0.0512921,-0.74111456,1.29635144,0.04462991,-0.98594024,0.27559352,1.20342592,-1.1046116,0.0,-0.43338464,0.0,-0.43338464,0.0,-1.21986128,-0.2123005
81.0,0.80870576,-0.15425657,-0.18195776,0.1295817,-0.32273942,-0.51656468,0.04483248,-0.22031612,-0.09848526,-0.46262848,-1.63701728,-0.1131036,-0.08861105,-0.07285261,-0.68144136,-1.54080016,2.26389264,0.15057105,-0.61990292,-0.46820072,-0.3970746,-0.1930264,0.84074712,0.11099216,0.14686294,0.59643324,-0.52989124,-0.43946568,0.35178004,-0.03416104,0.36056792,0.11208124,0.16287412,0.25835836,0.51471496,-0.0896017,-0.66792516,-0.56381572,0.16287412,0.051841,1.803752,-0.601882,-0.02673987,-0.12708552,0.18039072,0.06937675,-0.59414416,-0.39235832,0.43346112,-0.64449256,0.23752004,-0.2266221,2.24466608,0.0,1.47289616,-0.06099768,0.0,-0.00346506,-0.22030498,-0.29248294,0.6447422,-0.05767893,-3.52524768,-1.97521184,0.0,0.0512921,-0.74111456,1.29635144,0.04462991,-0.98594024,0.27559352,1.20342592,-1.1046116,0.0,-0.43338464,0.0,-0.43338464,0.0,-1.21986128,-0.2123005
82.0,0.80870576,-0.15425657,-0.18195776,0.1295817,-0.32273942,-0.51656468,0.04483248,-0.22031612,-0.09848526,-0.46262848,-1.63701728,-0.1131036,-0.08861105,-0.07285261,-0.68144136,-1.54080016,2.26389264,0.15057105,-0.61990292,-0.46820072,-0.3970746,-0.1930264,0.84074712,0.11099216,0.14686294,0.59643324,-0.52989124,-0.43946568,0.35178004,-0.03416104,0.36056792,0.11208124,0.16287412,0.25835836,0.51471496,-0.0896017,-0.66792516,-0.56381572,0.16287412,0.051841,1.803752,-0.601882,-0.02673987,-0.12708552,0.18039072,0.06937675,-0.59414416,-0.39235832,0.43346112,-0.64449256,0.23752004,-0.2266221,2.24466608,0.0,1.47289616,-0.06099768,0.0,-0.00346506,-0.22030498,-0.29248294,0.6447422,-0.05767893,-3.52524768,-1.97521184,0.0,0.0512921,-0.74111456,1.29635144,0.04462991,-0.98594024,0.27559352,1.20342592,-1.1046116,0.0,-0.43338464,0.0,-0.43338464,0.0,-1.21986128,-0.2123005
83.0,0.80870576,-0.15425657,-0.18195776,0.1295817,-0.32273942,-0.51656468,0.04483248,-0.22031612,-0.09848526,-0.46262848,-1.63701728,-0.1131036,-0.08861105,-0.07285261,-0.68144136,-1.54080016,2.26389264,0.15057105,-0.61990292,-0.46820072,-0.3970746,-0.1930264,0.84074712,0.11099216,0.14686294,0.59643324,-0.52989124,-0.43946568,0.35178004,-0.03416104,0.36056792,0.11208124,0.16287412,0.25835836,0.51471496,-0.0896017,-0.66792516,-0.56381572,0.16287412,0.051841,1.803752,-0.601882,-0.02673987,-0.12708552,0.18039072,0.06937675,-0.59414416,-0.39235832,0.43346112,-0.64449256,0.23752004,-0.2266221,2.24466608,0.0,1.47289616,-0.06099768,0.0,-0.00346506,-0.22030498,-0.29248294,0.6447422,-0.05767893,-3.52524768,-1.97521184,0.0,0.0512921,-0.74111456,1.29635144,0.04462991,-0.98594024,0.27559352,1.20342592,-1.1046116,0.0,-0.43338464,0.0,-0.43338464,0.0,-1.21986128,-0.2123005
84.0,0.80870576,-0.15425657,-0.18195776,0.1295817,-0.32273942,-0.51656468,0.04483248,-0.22031612,-0.09848526,-0.46262848,-1.63701728,-0.1131036,-0.08861105,-0.07285261,-0.68144136,-1.54080016,2.26389264,0.15057105,-0.61990292,-0.46820072,-0.3970746,-0.1930264,0.84074712,0.11099216,0.14686294,0.59643324,-0.52989124,-0.43946568,0.35178004,-0.03416104,0.36056792,0.11208124,0.16287412,0.25835836,0.51471496,-0.0896017,-0.66792516,-0.56381572,0.16287412,0.051841,1.803752,-0.601882,-0.02673987,-0.12708552,0.18039072,0.06937675,-0.59414416,-0.39235832,0.43346112,-0.64449256,0.23752004,-0.2266221,2.24466608,0.0,1.47289616,-0.06099768,0.0,-0.00346506,-0.22030498,-0.29248294,0.6447422,-0.05767893,-3.52524768,-1.97521184,0.0,0.0512921,-0.74111456,1.29635144,0.04462991,-0.98594024,0.27559352,1.20342592,-1.1046116,0.0,-0.43338464,0.0,-0.43338464,0.0,-1.21986128,-0.2123005
85.0,0.80870576,-0.15425657,-0.18195776,0.1295817,-0.32273942,-0.51656468,0.04483248,-0.22031612,-0.09848526,-0.46262848,-1.63701728,-0.1131036,-0.08861105,-0.07285261,-0.68144136,-1.54080016,2.26389264,0.15057105,-0.61990292,-0.46820072,-0.3970746,-0.1930264,0.84074712,0.11099216,0.14686294,0.59643324,-0.52989124,-0.43946568,0.35178004,-0.03416104,0.36056792,0.11208124,0.16287412,0.25835836,0.51471496,-0.0896017,-0.66792516,-0.56381572,0.16287412,0.051841,1.803752,-0.601882,-0.02673987,-0.12708552,0.18039072,0.06937675,-0.59414416,-0.39235832,0.43346112,-0.64449256,0.23752004,-0.2266221,2.24466608,0.0,1.47289616,-0.06099768,0.0,-0.00346506,-0.22030498,-0.29248294,0.6447422,-0.05767893,-3.52524768,-1.97521184,0.0,0.0512921,-0.74111456,1.29635144,0.04462991,-0.98594024,0.27559352,1.20342592,-1.1046116,0.0,-0.43338464,0.0,-0.43338464,0.0,-1.21986128,-0.2123005
86.0,0.80870576,-0.15425657,-0.18195776,0.1295817,-0.32273942,-0.51656468,0.04483248,-0.22031612,-0.09848526,-0.46262848,-1.63701728,-0.1131036,-0.08861105,-0.07285261,-0.68144136,-1.54080016,2.26389264,0.15057105,-0.61990292,-0.46820072,-1.04922744,-0.1930264,0.36287196,0.11099216,0.0374254,0.55671484,-0.52989124,-0.51174432,-0.04366296,-0.03416104,0.36056792,0.11208124,0.16287412,0.25835836,0.51471496,-0.0896017,-0.66792516,-0.56381572,0.16287412,0.051841,1.803752,-0.601882,-0.02673987,-0.12708552,0.18039072,0.06937675,-0.59414416,-0.39235832,0.43346112,-0.64449256,0.23752004,-0.2266221,2.24466608,0.0,1.47289616,-0.06099768,0.0,-0.00346506,-0.22030498,-0.29248294,0.6447422,-0.05767893,-3.52524768,-1.97521184,0.0,0.0512921,-0.74111456,1.29635144,0.04462991,-0.98594024,0.284066,1.27582096,-1.1046116,0.0,-0.43338464,0.0,-0.43338464,0.0,-0.52725684,-0.2123005
87.0,0.80870576,-0.15425657,-0.18195776,0.1295817,-0.32273942,-0.51656468,0.04483248,-0.22031612,-0.09848526,-0.46262848,-1.63701728,-0.1131036,-0.08861105,-0.07285261,-0.68144136,-1.54080016,2.26389264,0.15057105,-0.61990292,-0.46820072,-1.04922744,-0.1930264,0.36287196,0.11099216,0.0374254,0.55671484,-0.52989124,-0.51174432,-0.04366296,-0.03416104,0.36056792,0.11208124,0.16287412,0.25835836,0.51471496,-0.0896017,-0.66792516,-0.56381572,0.16287412,0.051841,1.803752,-0.601882,-0.02673987,-0.12708552,0.18039072,0.06937675,-0.59414416,-0.39235832,0.43346112,-0.64449256,0.23752004,-0.2266221,2.24466608,0.0,1.47289616,-0.06099768,0.0,-0.00346506,-0.22030498,-0.29248294,0.6447422,-0.05767893,-3.52524768,-1.97521184,0.0,0.0512921,-0.74111456,1.29635144,0.04462991,-0.98594024,0.284066,1.27582096,-1.1046116,0.0,-0.43338464,0.0,-0.43338464,0.0,-0.52725684,-0.2123005
88.0,0.80870576,-0.15425657,-0.18195776,0.1295817,-0.32273942,-0.51656468,0.04483248,-0.22031612,-0.09848526,-0.46262848,-1.63701728,-0.1131036,-0.08861105,-0.07285261,-0.68144136,-1.54080016,2.26389264,0.15057105,-0.61990292,-0.46820072,-1.04922744,-0.1930264,0.36287196,0.11099216,0.0374254,0.55671484,-0.52989124,-0.51174432,-0.04366296,-0.03416104,0.36056792,0.11208124,0.16287412,0.25835836,0.51471496,-0.0896017,-0.66792516,-0.56381572,0.16287412,0.051841,1.803752,-0.601882,-0.02673987,-0.12708552,0.18039072,0.06937675,-0.59414416,-0.39235832,0.43346112,-0.64449256,0.23752004,-0.2266221,2.24466608,0.0,1.47289616,-0.06099768,0.0,-0.00346506,-0.22030498,-0.29248294,0.6447422,-0.05767893,-2.75719776,-1.59860928,0.0,0.0512921,-0.68748968,1.29635144,0.56612284,-0.57770312,0.284066,1.1306964,-1.1046116,0.0,-0.55755512,0.0,-0.55755512,0.0,-1.28520712,-0.2123005
89.0,0.80870576,-0.15425657,-0.18195776,0.1295817,-0.32273942,-0.51656468,0.04483248,-0.22031612,-0.09848526,-0.46262848,-1.63701728,-0.1131036,-0.08861105,-0.07285261,-0.68144136,-1.54080016,2.26389264,0.15057105,-0.61990292,-0.46820072,-1.04922744,-0.1930264,0.36287196,0.11099216,0.0374254,0.55671484,-0.52989124,-0.51174432,-0.04366296,-0.03416104,0.36056792,0.11208124,0.16287412,0.25835836,0.51471496,-0.0896017,-0.66792516,-0.56381572,0.16287412,0.051841,1.803752,-0.601882,-0.02673987,-0.12708552,0.18039072,0.06937675,-0.59414416,-0.39235832,0.43346112,-0.64449256,0.23752004,-0.2266221,2.24466608,0.0,1.47289616,-0.06099768,0.0,-0.00346506,-0.22030498,-0.29248294,0.6447422,-0.05767893,-2.75719776,-1.59860928,0.0,0.0512921,-0.68748968,1.29635144,0.56612284,-0.57770312,0.284066,1.1306964,-1.1046116,0.0,-0.55755512,0.0,-0.55755512,0.0,-1.28520712,-0.2123005
90.0,0.80870576,-0.15425657,-0.18195776,0.1295817,-0.32273942,-0.51656468,0.04483248,-0.22031612,-0.09848526,-0.46262848,-1.63701728,-0.1131036,-0.08861105,-0.07285261,-0.68144136,-1.54080016,2.26389264,0.15057105,-0.61990292,-0.46820072,-1.04922744,-0.1930264,0.36287196,0.11099216,0.0374254,0.55671484,-0.52989124,-0.51174432,-0.04366296,-0.03416104,0.36056792,0.11208124,0.16287412,0.25835836,0.51471496,-0.0896017,-0.66792516,-0.56381572,0.16287412,0.051841,1.803752,-0.601882,-0.02673987,-0.12708552,0.18039072,0.06937675,-0.59414416,-0.39235832,0.43346112,-0.64449256,0.23752004,-0.2266221,2.24466608,0.0,1.47289616,-0.06099768,0.0,-0.00346506,-0.22030498,-0.29248294,0.6447422,-0.05767893,-2.75719776,-1.59860928,0.0,0.0512921,-0.68748968,1.29635144,0.56612284,-0.57770312,0.284066,1.1306964,-1.1046116,0.0,-0.55755512,0.0,-0.55755512,0.0,-1.28520712,-0.2123005
91.0,0.80870576,-0.15425657,-0.18195776,0.1295817,-0.32273942,-0.51656468,0.04483248,-0.22031612,-0.09848526,-0.46262848,-1.63701728,-0.1131036,-0.08861105,-0.07285261,-0.68144136,-1.54080016,2.26389264,0.15057105,-0.61990292,-0.46820072,-1.04922744,-0.1930264,0.36287196,0.11099216,0.0374254,0.55671484,-0.52989124,-0.51174432,-0.04366296,-0.03416104,0.36056792,0.11208124,0.16287412,0.25835836,0.51471496,-0.0896017,-0.66792516,-0.56381572,0.16287412,0.051841,1.803752,-0.601882,-0.02673987,-0.12708552,0.18039072,0.06937675,-0.59414416,-0.39235832,0.43346112,-0.64449256,0.23752004,-0.2266221,2.24466608,0.0,1.47289616,-0.06099768,0.0,-0.00346506,-0.22030498,-0.29248294,0.6447422,-0.05767893,-2.75719776,-1.59860928,0.0,0.0512921,-0.68748968,1.29635144,0.56612284,-0.57770312,0.284066,1.1306964,-1.1046116,0.0,-0.55755512,0.0,-0.55755512,0.0,-1.28520712,-0.2123005
92.0,0.80870576,-0.15425657,-0.18195776,0.1295817,-0.32273942,-0.51656468,0.04483248,-0.22031612,-0.09848526,-0.46262848,-1.63701728,-0.1131036,-0.08861105,-0.07285261,-0.68144136,-1.54080016,2.26389264,0.15057105,-0.61990292,-0.46820072,-1.04922744,-0.1930264,0.36287196,0.11099216,0.0374254,0.55671484,-0.52989124,-0.51174432,-0.04366296,-0.03416104,0.36056792,0.11208124,0.16287412,0.25835836,0.51471496,-0.0896017,-0.66792516,-0.56381572,0.16287412,0.051841,1.803752,-0.601882,-0.02673987,-0.12708552,0.18039072,0.06937675,-0.59414416,-0.39235832,0.43346112,-0.64449256,0.23752004,-0.2266221,2.24466608,0.0,1.47289616,-0.06099768,0.0,-0.00346506,-0.22030498,-0.29248294,0.6447422,-0.05767893,-2.75719776,-1.59860928,0.0,0.0512921,-0.68748968,1.29635144,0.56612284,-0.57770312,0.284066,1.1306964,-1.1046116,0.0,-0.55755512,0.0,-0.55755512,0.0,-1.28520712,-0.2123005
93.0,0.80870576,-0.15425657,-0.18195776,0.1295817,-0.32273942,-0.51656468,0.04483248,-0.22031612,-0.09848526,-0.46262848,-1.63701728,-0.1131036,-0.08861105,-0.07285261,-0.68144136,-1.54080016,2.26389264,0.15057105,-0.61990292,-0.46820072,-1.04922744,-0.1930264,0.36287196,0.11099216,0.0374254,0.55671484,-0.52989124,-0.51174432,-0.04366296,-0.03416104,0.36056792,0.11208124,0.16287412,0.25835836,0.51471496,-0.0896017,-0.66792516,-0.56381572,0.16287412,0.051841,1.803752,-0.601882,-0.02673987,-0.12708552,0.18039072,0.06937675,-0.59414416,-0.39235832,0.43346112,-0.64449256,0.23752004,-0.2266221,2.24466608,0.0,1.47289616,-0.06099768,0.0,-0.00346506,-0.22030498,-0.29248294,0.6447422,-0.05767893,-2.75719776,-1.59860928,0.0,0.0512921,-0.68748968,1.29635144,0.56612284,-0.57770312,0.284066,1.1306964,-1.1046116,0.0,-0.55755512,0.0,-0.55755512,0.0,-1.28520712,-0.2123005
94.0,0.80870576,-0.15425657,-0.18195776,0.1295817,-0.32273942,-0.51656468,0.04483248,-0.22031612,-0.09848526,-0.46262848,-1.63701728,-0.1131036,-0.08861105,-0.07285261,-0.68144136,-1.54080016,2.26389264,0.15057105,-0.61990292,-0.46820072,-1.04922744,-0.1930264,0.36287196,0.11099216,0.0374254,0.55671484,-0.52989124,-0.51174432,-0.04366296,-0.03416104,0.36056792,0.11208124,0.16287412,0.25835836,0.51471496,-0.0896017,-0.66792516,-0.56381572,0.16287412,0.051841,1.803752,-0.601882,-0.02673987,-0.12708552,0.18039072,0.06937675,-0.59414416,-0.39235832,0.43346112,-0.64449256,0.23752004,-0.2266221,2.24466608,0.0,1.47289616,-0.06099768,0.0,-0.00346506,-0.22030498,-0.29248294,0.6447422,-0.05767893,-2.75719776,-1.59860928,0.0,0.0512921,-0.68748968,1.29635144,0.56612284,-0.57770312,0.284066,1.1306964,-1.1046116,0.0,-0.55755512,0.0,-0.55755512,0.0,-1.28520712,-0.2123005
95.0,1.30702352,-0.13568333,-0.18195776,0.18025718,-0.32273942,-0.01964724,0.04483248,-0.22031612,-0.09848526,-0.46262848,-1.63701728,-0.1131036,-0.08861105,-0.07285261,-0.68144136,-1.54080016,2.26389264,0.15057105,-0.61990292,-0.46820072,-1.04922744,-0.1930264,0.36287196,0.11099216,0.0374254,0.55671484,-0.52989124,-0.51174432,-0.04366296,-0.03416104,0.36056792,0.11208124,0.16287412,0.25835836,0.51471496,-0.0896017,-0.66792516,-0.56381572,0.16287412,0.051841,1.803752,-0.601882,-0.02673987,-0.12708552,0.18039072,0.06937675,-0.59414416,-0.39235832,0.43346112,-0.64449256,0.17827302,-0.37788112,1.63059024,0.0,0.68742464,-0.06099768,0.0,-0.00346506,-0.23887822,-0.29248294,0.6447422,-0.05767893,-2.75719776,-1.59860928,0.0,0.0512921,-0.68748968,1.29635144,0.56612284,-0.57770312,0.284066,1.1306964,-1.1046116,0.0,-0.55755512,0.0,-0.55755512,0.0,-1.28520712,-0.2123005
96.0,1.30702352,-0.13568333,-0.18195776,0.18025718,-0.32273942,-0.01964724,0.04483248,-0.22031612,-0.09848526,-0.46262848,-1.63701728,-0.1131036,-0.08861105,-0.07285261,-0.68144136,-1.54080016,2.26389264,0.15057105,-0.61990292,-0.46820072,-1.04922744,-0.1930264,0.36287196,0.11099216,0.0374254,0.55671484,-0.52989124,-0.51174432,-0.04366296,-0.03416104,0.36056792,0.11208124,0.16287412,0.25835836,0.51471496,-0.0896017,-0.66792516,-0.56381572,0.16287412,0.051841,1.803752,-0.601882,-0.02673987,-0.12708552,0.18039072,0.06937675,-0.59414416,-0.39235832,0.43346112,-0.64449256,0.17827302,-0.37788112,1.63059024,0.0,0.68742464,-0.06099768,0.0,-0.00346506,-0.23887822,-0.29248294,0.6447422,-0.05767893,-2.75719776,-1.59860928,0.0,0.0512921,-0.68748968,1.29635144,0.56612284,-0.57770312,0.284066,1.1306964,-1.1046116,0.0,-0.55755512,0.0,-0.55755512,0.0,-1.28520712,-0.2123005
97.0,1.30702352,-0.13568333,-0.18195776,0.18025718,-0.32273942,-0.01964724,0.04483248,-0.22031612,-0.09848526,-0.46262848,-1.63701728,-0.1131036,-0.08861105,-0.07285261,-0.68144136,-1.54080016,2.26389264,0.15057105,-0.61990292,-0.46820072,-1.04922744,-0.1930264,0.36287196,0.11099216,0.0374254,0.55671484,-0.52989124,-0.51174432,-0.04366296,-0.03416104,0.36056792,0.11208124,0.16287412,0.25835836,0.51471496,-0.0896017,-0.35744004,-0.02316218,0.16287412,0.051841,1.19386176,-0.601882,-0.02673987,-0.12708552,0.18039072,0.06937675,-0.84173816,-0.39235832,0.18703266,-1.00549768,0.17827302,-0.37788112,1.63059024,0.0,0.68742464,-0.06099768,0.0,-0.00346506,-0.23887822,-0.29248294,0.6447422,-0.05767893,-2.75719776,-1.59860928,0.0,0.0512921,-0.68748968,1.29635144,0.56612284,-0.57770312,0.284066,1.1306964,-1.1046116,0.0,-0.55755512,0.0,-0.55755512,0.0,-1.28520712,-0.2123005
98.0,1.30702352,-0.13568333,-0.18195776,0.18025718,-0.32273942,-0.01964724,0.04483248,-0.22031612,-0.09848526,-0.46262848,-1.63701728,-0.1131036,-0.08861105,-0.07285261,-0.68144136,-1.54080016,2.26389264,0.15057105,-0.61990292,-0.46820072,-1.04922744,-0.1930264,0.36287196,0.11099216,0.0374254,0.55671484,-0.52989124,-0.51174432,-0.04366296,-0.03416104,0.36056792,0.11208124,0.16287412,0.25835836,0.51471496,-0.0896017,-0.35744004,-0.02316218,0.16287412,0.051841,1.19386176,-0.601882,-0.02673987,-0.12708552,0.18039072,0.06937675,-0.84173816,-0.39235832,0.18703266,-1.00549768,0.17827302,-0.37788112,1.63059024,0.0,0.68742464,-0.06099768,0.0,-0.00346506,-0.23887822,-0.29248294,0.6447422,-0.05767893,-2.75719776,-1.59860928,0.0,0.0512921,-0.68748968,1.29635144,0.56612284,-0.57770312,0.284066,1.1306964,-1.1046116,0.0,-0.55755512,0.0,-0.55755512,0.0,-1.28520712,-0.2123005
99.0,1.30702352,-0.13568333,-0.18195776,0.18025718,-0.32273942,-0.01964724,0.04483248,-0.22031612,-0.09848526,-0.46262848,-1.63701728,-0.1131036,-0.08861105,-0.07285261,-0.68144136,-1.54080016,2.26389264,0.15057105,-0.61990292,-0.46820072,-1.04922744,-0.1930264,0.36287196,0.11099216,0.0374254,0.55671484,-0.52989124,-0.51174432,-0.04366296,-0.03416104,0.36056792,0.11208124,0.16287412,0.25835836,0.51471496,-0.0896017,-0.35744004,-0.02316218,0.16287412,0.051841,1.19386176,-0.601882,-0.02673987,-0.12708552,0.18039072,0.06937675,-0.84173816,-0.39235832,0.18703266,-1.00549768,0.17827302,-0.37788112,1.63059024,0.0,0.68742464,-0.06099768,0.0,-0.00346506,-0.23887822,-0.29248294,0.6447422,-0.05767893,-2.75719776,-1.59860928,0.0,0.0512921,-0.68748968,1.29635144,0.56612284,-0.57770312,0.284066,1.1306964,-1.1046116,0.0,-0.55755512,0.0,-0.55755512,0.0,-1.28520712,-0.2123005
100.0,1.30702352,-0.13568333,-0.18195776,0.18025718,-0.32273942,-0.01964724,0.04483248,-0.22031612,-0.09848526,-0.46262848,-1.63701728,-0.1131036,-0.08861105,-0.07285261,-0.68144136,-1.54080016,2.26389264,0.15057105,-0.61990292,-0.46820072,-1.04922744,-0.1930264,0.36287196,0.11099216,0.0374254,0.55671484,-0.52989124,-0.51174432,-0.04366296,-0.03416104,0.36056792,0.11208124,0.16287412,0.25835836,0.51471496,-0.0896017,-0.35744004,-1.25576088,0.16287412,0.051841,2.11153728,-0.34381388,-0.02673987,-0.12708552,0.18039072,0.06937675,-0.84173816,-0.22862738,0.2743744,-1.00549768,0.17827302,-0.37788112,1.63059024,0.0,0.68742464,-0.06099768,0.0,-0.00346506,-0.23887822,-0.29248294,0.6447422,-0.05767893,-2.75719776,-1.59860928,0.0,0.0512921,-0.68748968,1.29635144,0.56612284,-0.57770312,0.284066,1.1306964,-1.1046116,0.0,-0.55755512,0.0,-0.55755512,0.0,-1.28520712,-0.2123005
101.0,1.30702352,-0.13568333,-0.18195776,0.18025718,-0.32273942,-0.01964724,0.04483248,-0.22031612,-0.09848526,-0.46262848,-1.63701728,-0.1131036,-0.08861105,-0.07285261,-0.68144136,-1.54080016,2.26389264,0.15057105,-0.61990292,-0.46820072,-0.77911976,-0.1930264,0.59224344,0.11099216,0.14727664,0.55671484,-0.4473222,-0.51174432,-0.04366296,-0.03416104,0.36056792,0.11208124,0.16287412,0.25835836,0.51471496,-0.0896017,-0.35744004,-1.25576088,0.16287412,0.051841,1.86563952,-0.57221828,-0.02673987,-0.12708552,0.18039072,0.06937675,-1.1036668,-0.36478104,0.2743744,-1.00549768,0.17827302,-0.37788112,1.63059024,0.0,0.68742464,-0.06099768,0.0,-0.00346506,-0.23887822,-0.29248294,0.6447422,-0.05767893,-2.75719776,-1.59860928,0.0,0.0512921,-0.68748968,1.29635144,0.56612284,-0.57770312,0.284066,1.1306964,-1.1046116,0.0,-0.55755512,0.0,-0.55755512,0.0,-1.28520712,-0.2123005
102.0,1.30702352,-0.13568333,-0.18195776,0.18025718,-0.32273942,-0.01964724,0.04483248,-0.22031612,-0.09848526,-0.46262848,-1.63701728,-0.1131036,-0.08861105,-0.07285261,-0.68144136,-1.54080016,2.26389264,0.15057105,-0.61990292,-0.46820072,-0.77911976,-0.1930264,0.59224344,0.11099216,0.14727664,0.55671484,-0.4473222,-0.51174432,-0.04366296,-0.03416104,0.36056792,0.11208124,0.16287412,0.25835836,0.51471496,-0.0896017,-0.35744004,-1.25576088,0.16287412,0.051841,1.86563952,-0.57221828,-0.02673987,-0.12708552,0.18039072,0.06937675,-1.1036668,-0.36478104,0.2743744,-1.00549768,0.17827302,-0.37788112,1.63059024,0.0,0.68742464,-0.06099768,0.0,-0.00346506,-0.23887822,-0.29248294,0.6447422,-0.05767893,-2.75719776,-1.59860928,0.0,0.0512921,-0.68748968,1.29635144,0.56612284,-0.57770312,0.284066,1.1306964,-1.1046116,0.0,-0.55755512,0.0,-0.55755512,0.0,-1.28520712,-0.2123005
103.0,1.30702352,-0.13568333,-0.18195776,0.18025718,-0.32273942,-0.01964724,0.04483248,-0.22031612,-0.09848526,-0.46262848,-1.63701728,-0.1131036,-0.08861105,-0.07285261,-0.68144136,-1.54080016,2.26389264,0.15057105,-0.61990292,-0.46820072,-0.77911976,-0.1930264,0.59224344,0.11099216,0.14727664,0.55671484,-0.4473222,-0.51174432,-0.04366296,-0.03416104,0.36056792,0.11208124,0.16287412,0.25835836,0.51471496,-0.0896017,-0.35744004,-1.25576088,0.16287412,0.051841,1.86563952,-0.57221828,-0.02673987,-0.12708552,0.18039072,0.06937675,-1.1036668,-0.36478104,0.2743744,-1.00549768,0.17827302,-0.37788112,1.63059024,0.0,0.68742464,-0.06099768,0.0,-0.00346506,-0.23887822,-0.29248294,0.6447422,-0.05767893,-2.75719776,-1.59860928,0.0,0.0512921,-0.68748968,1.29635144,0.56612284,-0.57770312,0.284066,1.1306964,-1.1046116,0.0,-0.55755512,0.0,-0.55755512,0.0,-1.28520712,-0.2123005
104.0,1.30702352,-0.13568333,-0.18195776,0.18025718,-0.32273942,-0.01964724,0.04483248,-0.22031612,-0.09848526,-0.46262848,-1.63701728,-0.1131036,-0.08861105,-0.07285261,-0.68144136,-1.54080016,2.26389264,0.15057105,-0.61990292,-0.46820072,-0.94741728,-0.1930264,-0.49171352,0.11099216,0.01990743,0.55671484,-0.4473222,-0.51174432,-0.61461888,-0.03416104,0.36056792,0.11208124,0.16287412,0.25835836,0.51471496,-0.0896017,-0.35744004,-1.25576088,0.16287412,0.051841,1.86563952,-0.57221828,-0.02673987,-0.12708552,0.18039072,0.06937675,-1.1036668,-0.36478104,0.2743744,-1.00549768,0.17827302,-0.32123446,2.31310656,0.0,1.7713816,-0.06099768,0.0,-0.00346506,-0.16670483,-0.29248294,0.6447422,-0.05767893,-2.75719776,-1.59860928,0.0,0.0512921,-0.68748968,1.29635144,0.56612284,-0.57770312,0.284066,1.1306964,-1.1046116,0.0,-0.55755512,0.0,-0.55755512,0.0,-1.28520712,-0.2123005
105.0,1.30702352,-0.13568333,-0.18195776,0.18025718,-0.32273942,-0.01964724,0.04483248,-0.22031612,-0.09848526,-0.46262848,-1.63701728,-0.1131036,-0.08861105,-0.07285261,-0.68144136,-1.54080016,2.26389264,0.15057105,-0.61990292,-0.46820072,-0.94741728,-0.1930264,-0.49171352,0.11099216,0.01990743,0.55671484,-0.4473222,-0.51174432,-0.61461888,-0.03416104,0.36056792,0.11208124,0.16287412,0.25835836,0.51471496,-0.0896017,-0.35744004,-1.25576088,0.16287412,0.051841,1.86563952,-0.57221828,-0.02673987,-0.12708552,0.18039072,0.06937675,-1.1036668,-0.36478104,0.2743744,-1.00549768,0.17827302,-0.32123446,2.31310656,0.0,1.7713816,-0.06099768,0.0,-0.00346506,-0.16670483,-0.29248294,0.6447422,-0.05767893,-2.75719776,-1.59860928,0.0,0.0512921,-0.68748968,1.29635144,0.56612284,-0.57770312,0.284066,1.1306964,-1.1046116,0.0,-0.55755512,0.0,-0.55755512,0.0,-1.28520712,-0.2123005
106.0,1.30702352,-0.13568333,-0.18195776,0.18025718,-0.32273942,-0.01964724,0.04483248,-0.22031612,-0.09848526,-0.46262848,-1.63701728,-0.1131036,-0.08861105,-0.07285261,-0.68144136,-1.54080016,2.26389264,0.15057105,-0.61990292,-0.46820072,-0.94741728,-0.1930264,-0.49171352,0.11099216,0.01990743,0.55671484,-0.4473222,-0.51174432,-0.61461888,-0.03416104,0.36056792,0.11208124,0.16287412,0.25835836,0.51471496,-0.0896017,-0.35744004,-1.25576088,0.16287412,0.051841,1.86563952,-0.57221828,-0.02673987,-0.12708552,0.18039072,0.06937675,-1.1036668,-0.36478104,0.2743744,-1.00549768,0.17827302,-0.32123446,2.31310656,0.0,1.7713816,-0.06099768,0.0,-0.00346506,-0.16670483,-0.29248294,0.6447422,-0.05767893,-2.75719776,-1.59860928,0.0,0.0512921,-0.68748968,1.29635144,0.56612284,-0.57770312,0.284066,1.1306964,-1.1046116,0.0,-0.55755512,0.0,-0.55755512,0.0,-1.28520712,-0.2123005
107.0,1.7761144,-0.06368355,-0.18195776,0.38976592,-0.32273942,0.49928556,0.04483248,-0.22031612,-0.09848526,-0.23213426,-1.63701728,-0.1131036,-0.08861105,-0.07285261,-0.68144136,-1.54080016,2.26389264,0.15057105,-0.61990292,-0.46820072,-0.94741728,-0.1930264,-0.49171352,0.11099216,0.01990743,0.55671484,-0.4473222,-0.51174432,-0.61461888,-0.03416104,0.36056792,0.11208124,0.16287412,0.25835836,0.51471496,-0.0896017,-0.35744004,-1.25576088,0.16287412,0.051841,1.86563952,-0.57221828,-0.02673987,-0.12708552,0.18039072,0.06937675,-1.1036668,-0.36478104,0.2743744,-1.00549768,0.17827302,-0.32123446,2.31310656,0.0,1.7713816,-0.06099768,0.0,-0.00346506,-0.16670483,-0.29248294,0.26510432,-0.05767893,-3.186296,-1.59860928,0.0,-0.08345992,-0.68748968,1.161106,0.462299,-0.57770312,0.284066,1.1306964,-1.1046116,0.0,-0.55755512,0.0,-0.55755512,0.0,-1.28520712,-0.2123005
108.0,1.64261824,-0.06368355,-0.34197672,0.38976592,-1.01167568,-0.18646628,0.04483248,-0.22031612,-0.09848526,-0.66090108,-1.63701728,-0.1131036,-0.08861105,-0.07285261,-0.68144136,-1.54080016,2.26389264,0.15057105,-0.61990292,-0.46820072,-0.94741728,-0.1930264,-0.49171352,0.11099216,0.01990743,0.55671484,-0.4473222,-0.51174432,-0.61461888,-0.03416104,0.36056792,0.11208124,0.16287412,0.25835836,0.51471496,-0.0896017,-0.35744004,-1.25576088,0.16287412,0.051841,2.4768984,-0.57221828,-0.02673987,-0.12708552,0.18039072,0.06937675,-1.1036668,-0.36478104,0.54970884,-1.00549768,0.17827302,-0.32123446,2.31310656,0.0,1.7713816,-0.06099768,0.0,-0.00346506,-0.16670483,-0.29248294,0.26510432,-0.05767893,-3.186296,-1.59860928,0.0,-0.08345992,-0.68748968,1.161106,0.462299,-0.57770312,0.284066,1.1306964,-1.1046116,0.0,-0.55755512,0.0,-0.55755512,0.0,-1.28520712,-0.2123005
109.0,1.5424568,-0.06368355,-0.34197672,0.2684445,-1.01167568,-0.55390548,0.04483248,-0.22031612,-0.09848526,-1.27275392,-1.63701728,-0.1131036,-0.08861105,-0.07285261,-0.68144136,-1.54080016,2.26389264,0.15057105,-0.61990292,-0.46820072,-0.94741728,-0.1930264,-0.49171352,0.11099216,0.01990743,0.55671484,-0.4473222,-0.51174432,-0.61461888,-0.03416104,0.36056792,0.11208124,0.16287412,0.25835836,0.51471496,-0.0896017,-0.35744004,-1.25576088,0.16287412,0.051841,2.4768984,-0.57221828,-0.02673987,-0.12708552,0.18039072,0.06937675,-1.1036668,-0.36478104,0.54970884,-1.00549768,0.17827302,-0.32123446,2.31310656,0.0,1.7713816,-0.06099768,0.0,-0.00346506,-0.16670483,-0.29248294,0.52736612,-0.05767893,-2.65862224,-1.59860928,0.0,0.21355238,-0.68748968,1.37906944,0.462299,-0.29706488,0.284066,1.1306964,-1.1046116,0.0,-0.55755512,0.0,-0.55755512,0.0,-1.28520712,-0.2123005
110.0,1.5424568,-0.06368355,-0.34197672,0.2684445,-1.01167568,-0.55390548,0.04483248,-0.22031612,-0.09848526,-1.27275392,-1.63701728,-0.1131036,-0.08861105,-0.07285261,-0.68144136,-1.54080016,2.26389264,0.15057105,-0.61990292,-0.46820072,-0.94741728,-0.1930264,-0.49171352,0.11099216,0.01990743,0.55671484,-0.4473222,-0.51174432,-0.61461888,-0.03416104,0.36056792,0.11208124,0.16287412,0.25835836,0.51471496,-0.0896017,-0.35744004,-1.25576088,0.16287412,0.051841,2.4768984,-0.57221828,-0.02673987,-0.12708552,0.18039072,0.06937675,-1.1036668,-0.36478104,0.54970884,-1.00549768,0.17827302,-0.32123446,2.31310656,0.0,1.7713816,-0.06099768,0.0,-0.00346506,-0.16670483,-0.29248294,0.52736612,-0.05767893,-2.65862224,-1.59860928,0.0,0.21355238,-0.68748968,1.37906944,0.462299,-0.29706488,0.284066,1.1306964,-1.1046116,0.0,-0.55755512,0.0,-0.55755512,0.0,-1.28520712,-0.2123005
111.0,1.5424568,-0.06368355,-0.34197672,0.2684445,-1.01167568,-0.55390548,0.04483248,-0.22031612,-0.09848526,-1.27275392,-1.63701728,-0.1131036,-0.08861105,-0.07285261,-0.68144136,-1.54080016,2.26389264,0.15057105,-0.61990292,-0.46820072,-0.94741728,-0.1930264,-0.49171352,0.11099216,0.01990743,0.55671484,-0.4473222,-0.51174432,-0.61461888,-0.03416104,0.36056792,0.11208124,0.16287412,0.25835836,0.51471496,-0.0896017,-0.35744004,-1.25576088,0.16287412,0.051841,2.4768984,-0.57221828,-0.02673987,-0.12708552,0.18039072,0.06937675,-1.1036668,-0.36478104,0.54970884,-1.00549768,0.17827302,-0.32123446,2.31310656,0.0,1.7713816,-0.06099768,0.0,-0.00346506,-0.16670483,-0.29248294,0.84932456,-0.05767893,-2.07625456,-1.59860928,0.0,0.21355238,-0.68748968,1.60678576,0.462299,-0.08287869,0.284066,0.77778304,-1.72049776,0.0,-0.55755512,0.0,-0.55755512,0.0,-1.7447096,-0.2123005
112.0,1.5424568,-0.06368355,-0.34197672,0.2684445,-1.01167568,-0.55390548,0.04483248,-0.22031612,-0.09848526,-1.27275392,-1.63701728,-0.1131036,-0.08861105,-0.07285261,-0.68144136,-1.54080016,2.26389264,0.15057105,-0.61990292,-0.46820072,-0.94741728,-0.1930264,-0.49171352,0.11099216,0.01990743,0.55671484,-0.4473222,-0.51174432,-0.61461888,-0.03416104,0.36056792,0.11208124,0.16287412,0.25835836,0.51471496,-0.0896017,-0.35744004,-1.25576088,0.16287412,0.051841,2.4768984,-0.57221828,-0.02673987,-0.12708552,0.18039072,0.06937675,-1.1036668,-0.36478104,0.54970884,-1.00549768,0.17827302,-0.32123446,2.31310656,0.0,1.7713816,-0.06099768,0.0,-0.00346506,-0.16670483,-0.29248294,0.84932456,-0.05767893,-2.07625456,-1.59860928,0.0,0.21355238,-0.68748968,1.60678576,0.462299,-0.08287869,0.284066,0.77778304,-1.72049776,0.0,-0.55755512,0.0,-0.55755512,0.0,-1.7447096,-0.2123005
113.0,1.5424568,-0.06368355,-0.34197672,0.2684445,-1.01167568,-0.55390548,0.04483248,-0.22031612,-0.09848526,-1.27275392,-1.63701728,-0.1131036,-0.08861105,-0.07285261,-0.68144136,-1.54080016,2.26389264,0.15057105,-0.61990292,-0.46820072,-0.94741728,-0.1930264,-0.49171352,0.11099216,0.01990743,0.55671484,-0.4473222,-0.51174432,-0.61461888,-0.03416104,0.36056792,0.11208124,0.16287412,0.25835836,0.51471496,-0.0896017,-0.35744004,-1.25576088,0.16287412,0.051841,2.4768984,-0.57221828,-0.02673987,-0.12708552,0.18039072,0.06937675,-1.1036668,-0.36478104,0.54970884,-1.00549768,0.17827302,-0.32123446,2.31310656,0.0,1.7713816,-0.06099768,0.0,-0.00346506,-0.16670483,-0.29248294,0.84932456,-0.05767893,-2.07625456,-1.59860928,0.0,0.21355238,-0.68748968,1.60678576,0.462299,-0.08287869,0.284066,0.77778304,-1.72049776,0.0,-0.55755512,0.0,-0.55755512,0.0,-1.7447096,-0.2123005
114.0,2.24648672,0.24745626,-0.34197672,0.2684445,-0.97878008,0.52356624,0.04483248,-0.22031612,-0.09848526,-1.27275392,-1.63701728,-0.1131036,-0.08861105,-0.07285261,-0.68144136,-1.54080016,2.26389264,0.15057105,-0.61990292,-0.46820072,-0.94741728,-0.1930264,-0.49171352,0.11099216,0.01990743,0.55671484,-0.4473222,-0.51174432,-0.61461888,-0.03416104,0.36056792,0.11208124,0.16287412,0.25835836,0.51471496,-0.0896017,-0.35744004,-1.25576088,0.16287412,0.051841,2.4768984,-0.57221828,-0.02673987,-0.12708552,0.18039072,0.06937675,-1.1036668,-0.36478104,0.54970884,-1.00549768,0.17827302,-0.32123446,2.31310656,0.0,1.7713816,-0.06099768,0.0,-0.00346506,-0.16670483,-0.29248294,0.72665744,-0.05767893,-2.92849056,-1.59860928,0.0,0.12043299,-0.8487476,1.60678576,0.28945244,-0.08287869,0.284066,0.77778304,-1.72049776,0.0,-0.55755512,0.0,-0.55755512,0.0,-1.7447096,-0.2123005
115.0,2.24648672,0.24745626,-0.34197672,0.2684445,-0.97878008,0.52356624,0.04483248,-0.22031612,-0.09848526,-1.27275392,-1.63701728,-0.1131036,-0.08861105,-0.07285261,-0.68144136,-1.54080016,2.26389264,0.15057105,-0.61990292,-0.46820072,-0.94741728,-0.1930264,-0.49171352,0.11099216,0.01990743,0.55671484,-0.4473222,-0.51174432,-0.61461888,-0.03416104,0.36056792,0.11208124,0.16287412,0.25835836,0.51471496,-0.0896017,-0.35744004,-1.25576088,0.16287412,0.051841,2.4768984,-0.57221828,-0.02673987,-0.12708552,0.18039072,0.06937675,-1.1036668,-0.36478104,0.54970884,-1.00549768,0.17827302,-0.32123446,2.31310656,0.0,1.7713816,-0.06099768,0.0,-0.00346506,-0.16670483,-0.29248294,0.72665744,-0.05767893,-2.92849056,-1.59860928,0.0,0.12043299,-0.8487476,1.60678576,0.28945244,-0.08287869,0.284066,0.77778304,-1.72049776,0.0,-0.55755512,0.0,-0.55755512,0.0,-1.7447096,-0.2123005
116.0,2.24648672,0.24745626,-0.34197672,0.2684445,-0.97878008,0.52356624,0.04483248,-0.22031612,-0.09848526,-1.27275392,-1.63701728,-0.1131036,-0.08861105,-0.07285261,-0.68144136,-1.54080016,2.26389264,0.15057105,-0.61990292,-0.46820072,-0.94741728,-0.1930264,-0.49171352,0.11099216,0.01990743,0.55671484,-0.4473222,-0.51174432,-0.61461888,-0.03416104,0.36056792,0.11208124,0.16287412,0.25835836,0.51471496,-0.0896017,-0.35744004,-1.25576088,0.16287412,0.051841,2.4768984,-0.57221828,-0.02673987,-0.12708552,0.18039072,0.06937675,-1.1036668,-0.36478104,0.54970884,-1.00549768,0.17827302,-0.32123446,2.31310656,0.0,1.7713816,-0.06099768,0.0,-0.00346506,-0.16670483,-0.29248294,0.72665744,-0.05767893,-2.92849056,-1.59860928,0.0,0.12043299,-0.8487476,1.60678576,0.28945244,-0.08287869,0.284066,0.77778304,-1.72049776,0.0,-0.55755512,0.0,-0.55755512,0.0,-1.7447096,-0.2123005
