0.0,-0.098731168,-0.173590032,-0.050493556,-0.140180416,0.07784588,-0.082497136,-0.03628046,0.122124344,-0.031001254,-0.179234064,-0.115236912,0.0366193,0.06504108,0.014781766,-0.205256128,-0.012304282,0.143232896,-0.144958624,0.028333588,-0.202265376,0.152697616,-0.08560528,0.154739104,-0.221532944,-0.07804988,0.170738496,0.017639484,-0.042509032,0.12082324,-0.186942064,-0.003958856,0.1060998,0.123660824,0.0280524,-0.139423856,0.137619312,0.0013909,0.148569408,0.123660824,-0.035687428,-0.149940672,-0.163232752,-0.20205504,0.105101856,0.179048768,0.179075472,-0.05271458,0.140326256,0.050913816,-0.127945064,0.05375172,0.101405808,0.010660942,-0.122126712,-0.13620192,0.07361776,-0.08380244,-0.135177232,0.0,-0.00170949,-0.007152363,0.078226376,-0.035981468,0.10442444,-0.129291368,-0.097734144,0.08872544,-0.164102272,-0.067035744,-0.032786362,-0.106441272,0.038596824,-0.090827352,0.141358944,0.092985432,-0.034602012,0.092985432,-0.008877303,0.053022632,-0.046253404
1.0,-0.098731168,-0.173590032,-0.050493556,-0.140180416,0.07784588,-0.082497136,-0.03628046,0.122124344,-0.031001254,-0.179234064,-0.115236912,0.0366193,0.06504108,0.014781766,-0.205256128,-0.012304282,0.143232896,-0.144958624,0.028333588,-0.202265376,0.167356096,-0.08560528,0.154739104,-0.19330336,-0.07804988,0.170738496,0.017639484,-0.029468884,0.155391168,-0.156288944,-0.003958856,0.091441344,0.123660824,-0.002600724,-0.139423856,0.137619312,0.0013909,0.148569408,0.123660824,-0.035687428,-0.149940672,-0.163232752,-0.20205504,0.105101856,0.179048768,0.179075472,-0.05271458,0.140326256,0.050913816,-0.127945064,0.05375172,0.101405808,0.010660942,-0.122126712,-0.13620192,0.07361776,-0.08380244,-0.135177232,0.0,-0.00170949,-0.007152363,0.078226376,-0.035981468,0.10442444,-0.129291368,-0.097734144,0.08872544,-0.164102272,-0.067035744,-0.032786362,-0.106441272,0.038596824,-0.090827352,0.141358944,0.092985432,-0.034602012,0.092985432,-0.008877303,0.053022632,-0.046253404
2.0,-0.098731168,-0.173590032,-0.050493556,-0.140180416,0.07784588,-0.082497136,-0.03628046,0.122124344,-0.031001254,-0.179234064,-0.115236912,0.0366193,0.06504108,0.014781766,-0.205256128,-0.012304282,0.143232896,-0.144958624,0.028333588,-0.202265376,0.167356096,-0.107557096,0.140414736,-0.19330336,-0.07804988,0.170738496,0.017639484,-0.042486512,0.131882696,-0.176607024,-0.003958856,0.091441344,0.123660824,-0.002600724,-0.139423856,0.137619312,0.0013909,0.148569408,0.123660824,-0.035687428,-0.149940672,-0.163232752,-0.20205504,0.105101856,0.179048768,0.179075472,-0.05271458,0.140326256,0.050913816,-0.127945064,0.0,0.0,0.024433856,0.0,0.014324368,0.011922366,0.0,0.0,0.013752482,0.035063056,-0.10731052,-0.105873304,0.120383184,0.11611804,-0.059587524,-0.067346248,-0.043672052,0.09115348,0.125345512,-0.129453824,0.12410064,0.116857288,0.123812776,0.03879594,-0.085068208,-0.04272914,-0.085068208,0.121867832,0.145965232,-0.08691332
3.0,-0.098731168,-0.173590032,-0.050493556,-0.140180416,0.07784588,-0.082497136,-0.03628046,0.122124344,-0.031001254,-0.179234064,-0.115236912,0.0366193,0.06504108,0.014781766,-0.205256128,-0.012304282,0.143232896,-0.144958624,0.028333588,-0.202265376,0.167356096,-0.107557096,0.140414736,-0.19330336,-0.07804988,0.170738496,0.017639484,-0.042486512,0.131882696,-0.176607024,-0.003958856,0.091441344,0.123660824,-0.002600724,-0.139423856,0.137619312,0.0013909,0.148569408,0.123660824,-0.035687428,-0.149940672,-0.163232752,-0.20205504,0.105101856,0.179048768,0.179075472,-0.05271458,0.140326256,0.050913816,-0.127945064,0.0,0.0,-0.020997262,0.0,0.014324368,0.00172325,0.0,0.0,0.00356676,-0.00030978,0.019847034,0.019996556,0.0,0.0,0.021965846,0.0,0.0,0.013319709,0.019672362,0.027218182,-0.129883872,0.0763564,0.152776288,-0.004042033,0.091224808,0.146206416,0.091224808,-0.028749426,-0.086216952,0.1253556
4.0,-0.098731168,-0.173590032,-0.050493556,-0.140180416,0.07784588,-0.082497136,-0.03628046,0.122124344,-0.031001254,-0.179234064,-0.115236912,0.0366193,0.06504108,0.014781766,-0.205256128,-0.012304282,0.143232896,-0.144958624,0.028333588,-0.202265376,0.167356096,-0.107557096,0.140414736,-0.19330336,-0.07804988,0.170738496,0.017639484,-0.042486512,0.131882696,-0.176607024,-0.003958856,0.091441344,0.123660824,-0.002600724,-0.139423856,0.137619312,0.0013909,0.148569408,0.123660824,-0.035687428,-0.149940672,-0.163232752,-0.20205504,0.105101856,0.179048768,0.179075472,-0.05271458,0.140326256,0.050913816,-0.127945064,0.0,0.0,-0.020997262,0.0,0.014324368,0.00172325,0.0,0.0,0.00356676,-0.00030978,0.019847034,0.01750122,-0.000616896,0.0,0.009686279,0.0,0.0,0.001533562,-0.018680642,0.013993837,0.0,0.037955496,0.0,0.031086018,0.0,0.0,0.0,0.0,0.0,0.0
5.0,-0.098731168,-0.145866608,0.014506776,-0.140180416,0.07784588,-0.082497136,-0.03628046,0.122124344,-0.004780475,-0.14536896,-0.115236912,0.0366193,0.06504108,0.014781766,-0.205256128,-0.012304282,0.143232896,-0.144958624,0.028333588,-0.202265376,0.167356096,-0.107557096,0.140414736,-0.19330336,-0.07804988,0.170738496,0.017639484,-0.042486512,0.131882696,-0.176607024,-0.003958856,0.091441344,0.123660824,-0.002600724,-0.139423856,0.137619312,0.0013909,0.148569408,0.123660824,-0.035687428,-0.149940672,-0.163232752,-0.20205504,0.105101856,0.179048768,0.179075472,-0.05271458,0.140326256,0.050913816,-0.127945064,0.0,0.0,-0.020997262,0.0,0.014324368,0.00172325,0.0,0.0,0.00356676,-0.00030978,0.019847034,0.01750122,-0.000616896,0.0,0.009686279,0.0,0.0,0.001533562,-0.018680642,0.013993837,0.0,0.037955496,0.0,0.029684338,-0.007988949,0.0,-0.007988949,0.0,0.0,0.0
6.0,-0.098731168,-0.145866608,0.000564535,-0.140180416,0.07784588,-0.082497136,-0.044239072,0.122124344,-0.019614784,-0.169490032,-0.115236912,0.0366193,0.06504108,0.014781766,-0.205256128,-0.012304282,0.143232896,-0.144958624,0.028333588,-0.202265376,0.167356096,-0.107557096,0.140414736,-0.19330336,-0.07804988,0.170738496,0.017639484,-0.042486512,0.131882696,-0.176607024,-0.003958856,0.091441344,0.123660824,-0.002600724,-0.139423856,0.137619312,0.0013909,0.148569408,0.123660824,-0.035687428,-0.149940672,-0.163232752,-0.20205504,0.105101856,0.179048768,0.179075472,-0.05271458,0.140326256,0.050913816,-0.127945064,0.0,0.0,-0.020997262,0.0,0.014324368,0.00172325,0.0,0.0,0.00356676,-0.00030978,0.019847034,0.01750122,-0.000616896,0.0,0.009686279,0.0,0.0,0.001533562,-0.018680642,0.013993837,0.0,0.037955496,0.0,0.068823624,0.010495885,0.0,0.010495885,0.0,0.0,0.007958613
7.0,-0.098731168,-0.145866608,0.000564535,-0.140180416,0.07784588,-0.082497136,-0.044239072,0.122124344,-0.019614784,-0.169490032,-0.115236912,0.0366193,0.06504108,0.014781766,-0.205256128,-0.012304282,0.143232896,-0.144958624,0.028333588,-0.202265376,0.167356096,-0.107557096,0.140414736,-0.19330336,-0.07804988,0.170738496,0.017639484,-0.042486512,0.131882696,-0.176607024,-0.003958856,0.091441344,0.123660824,-0.002600724,-0.139423856,0.137619312,0.0013909,0.148569408,0.123660824,-0.035687428,-0.149940672,-0.163232752,-0.20205504,0.105101856,0.179048768,0.179075472,-0.05271458,0.140326256,0.050913816,-0.127945064,0.0,0.0,-0.020997262,0.0,0.014324368,0.00172325,0.0,0.0,0.00356676,-0.00030978,0.019847034,0.01750122,-0.000616896,0.0,0.009686279,0.0,0.0,0.001533562,-0.018680642,0.013993837,0.0,0.037955496,0.0,0.068823624,0.010495885,0.0,0.010495885,0.0,0.0,0.007958613
8.0,-0.098731168,-0.145866608,0.000564535,-0.140180416,0.07784588,-0.082497136,-0.044239072,0.122124344,-0.019614784,-0.169490032,-0.115236912,0.0366193,0.06504108,0.014781766,-0.205256128,-0.012304282,0.143232896,-0.144958624,0.028333588,-0.202265376,0.167356096,-0.107557096,0.140414736,-0.19330336,-0.07804988,0.170738496,0.017639484,-0.042486512,0.131882696,-0.176607024,-0.003958856,0.092458568,0.123660824,0.023824504,-0.139423856,0.137619312,0.003026315,0.148569408,0.123660824,-0.035687428,-0.149940672,-0.163232752,-0.20205504,0.105101856,0.179048768,0.179075472,-0.05271458,0.140326256,0.050913816,-0.127945064,0.0,0.0,-0.020997262,0.0,0.014324368,0.00172325,0.0,0.0,0.00356676,-0.00030978,0.019847034,0.01750122,-0.000616896,0.0,0.009686279,0.0,0.0,0.001533562,-0.018680642,0.013993837,0.0,-0.011150658,0.0,0.0645208,0.010495885,0.0,0.010495885,0.0,0.0,0.007958613
9.0,-0.098731168,-0.145866608,0.000564535,-0.140180416,0.07784588,-0.082497136,-0.044239072,0.122124344,-0.019614784,-0.169490032,-0.115236912,0.0366193,0.06504108,0.014781766,-0.205256128,-0.012304282,0.143232896,-0.144958624,0.028333588,-0.202265376,0.167356096,-0.107557096,0.140414736,-0.19330336,-0.07804988,0.170738496,0.017639484,-0.042486512,0.131882696,-0.176607024,-0.003958856,0.092458568,0.123660824,0.023824504,-0.139423856,0.137619312,0.003026315,0.148569408,0.123660824,-0.035687428,-0.149940672,-0.163232752,-0.20205504,0.105101856,0.179048768,0.179075472,-0.05271458,0.140326256,0.050913816,-0.127945064,0.0,0.0,-0.020997262,0.0,0.014324368,0.00172325,0.0,0.0,0.00356676,-0.00030978,0.019847034,0.01750122,-0.000616896,0.0,0.009686279,0.0,0.0,0.001533562,-0.018680642,0.013993837,0.0,-0.011150658,0.0,0.0645208,0.010495885,0.0,0.010495885,0.0,0.0,0.007958613
10.0,-0.098731168,-0.145866608,0.000564535,-0.140180416,0.07784588,-0.082497136,-0.044239072,0.122124344,-0.019614784,-0.169490032,-0.115236912,0.0366193,0.064224832,0.014781766,-0.205256128,-0.012304282,0.141648336,-0.149662032,0.028333588,-0.240843248,0.167356096,-0.107557096,0.140414736,-0.19330336,-0.07804988,0.170738496,0.017639484,-0.042486512,0.131882696,-0.176607024,-0.003958856,0.092458568,0.123660824,0.023824504,-0.139423856,0.137619312,0.003026315,0.148569408,0.123660824,-0.035687428,-0.149940672,-0.163232752,-0.20205504,0.105101856,0.179048768,0.179075472,-0.05271458,0.140326256,0.050913816,-0.127945064,0.0,0.004703407,-0.008557079,0.0,0.017585366,0.00172325,0.0,0.0,0.012040633,0.01751682,0.019847034,0.01750122,-0.000616896,0.0,0.009686279,0.0,0.0,0.001533562,-0.018680642,0.013993837,0.0,-0.011150658,0.0,0.0645208,0.010495885,0.0,0.010495885,0.0,0.0,0.007958613
11.0,-0.098731168,-0.145866608,0.000564535,-0.140180416,0.07784588,-0.082497136,-0.044239072,0.122124344,-0.019614784,-0.169490032,-0.115236912,0.0366193,0.064224832,0.014781766,-0.205256128,-0.012304282,0.158631536,-0.149662032,0.028333588,-0.225379168,0.167356096,-0.107557096,0.140414736,-0.19330336,-0.07804988,0.170738496,0.017639484,-0.042486512,0.131882696,-0.176607024,-0.003958857,0.092458568,0.123660824,0.023824504,-0.139423856,0.137619312,0.003026314,0.148569408,0.123660824,-0.035687428,-0.149940672,-0.163232752,-0.20205504,0.105101856,0.179048768,0.179075472,-0.05271458,0.140326256,0.050913816,-0.127945064,0.0,0.004703407,-0.008557079,-0.010823842,-0.015115112,-0.014385393,0.0,0.0,0.012040633,-0.004694104,0.019847034,0.01750122,-0.000616896,0.0,0.009686279,0.0,0.0,0.001533562,-0.018680642,0.013993837,0.0,-0.011150658,0.0,0.0645208,0.010495885,0.0,0.010495885,0.0,0.0,0.007958613
12.0,-0.098731168,-0.145866608,0.000564535,-0.140180416,0.07784588,-0.082497136,-0.044239072,0.122124344,-0.019614784,-0.169490032,-0.115236912,0.0366193,0.064224832,0.014781766,-0.205256128,-0.012304282,0.158631536,-0.149662032,0.028333588,-0.225379168,0.167356096,-0.107557096,0.140414736,-0.19330336,-0.07804988,0.170738496,0.017639484,-0.042486512,0.131882696,-0.176607024,-0.003958857,0.092458568,0.123660824,0.036971196,-0.139423856,0.137619312,0.003026314,0.148569408,0.123660824,-0.035687428,-0.149940672,-0.163232752,-0.20205504,0.105101856,0.155323552,0.179075472,-0.0586592,0.132917944,0.050913816,-0.133847072,0.0,0.004703407,-0.008557079,-0.010823842,-0.015115112,-0.014385393,0.0,0.0,0.012040633,-0.004694104,0.019847034,0.01750122,-0.000616896,0.0,0.009686279,0.0,0.0,0.001533562,-0.018680642,0.013993837,0.0,-0.011150658,0.0,0.0645208,0.010495885,0.0,0.010495885,0.0,0.0,0.007958613
13.0,-0.098731168,-0.145866608,0.000564535,-0.140180416,0.07784588,-0.082497136,-0.044239072,0.122124344,-0.019614784,-0.169490032,-0.115236912,0.0366193,0.064224832,0.014781766,-0.205256128,-0.012304282,0.158631536,-0.149662032,0.028333588,-0.225379168,0.167356096,-0.103917944,0.164188288,-0.184825072,-0.055371532,0.170738496,0.01995862,-0.012001237,0.17468464,-0.170136224,-0.003958857,0.092458568,0.123660824,0.030500398,-0.139423856,0.137619312,-0.017113096,0.148569408,0.123660824,-0.052668908,-0.149940672,-0.163232752,-0.20205504,0.105101856,0.155323552,0.179075472,-0.0586592,0.132917944,0.050913816,-0.133847072,0.0,0.004703407,-0.008557079,-0.010823842,-0.015115112,-0.014385393,0.0,0.0,0.012040633,-0.004694104,0.019847034,0.01750122,-0.000616896,0.0,0.009686279,0.0,0.0,0.001533562,-0.018680642,0.013993837,0.0,-0.011150658,0.0,0.0645208,0.010495885,0.0,0.010495885,0.0,0.0,0.007958613
14.0,-0.098731168,-0.145866608,0.000564535,-0.140180416,0.07784588,-0.082497136,-0.044239072,0.122124344,-0.019614784,-0.169490032,-0.115236912,0.0366193,0.064224832,0.014781766,-0.205256128,-0.012304282,0.158631536,-0.149662032,0.028333588,-0.225379168,0.167356096,-0.103917944,0.159276592,-0.184825072,-0.063267588,0.170738496,0.01995862,-0.029566094,0.144009392,-0.2072952,-0.003958857,0.092458568,0.123660824,0.030500398,-0.139423856,0.137619312,-0.017113096,0.148569408,0.123660824,-0.052668908,-0.149940672,-0.163232752,-0.20205504,0.105101856,0.155323552,0.179075472,-0.0586592,0.132917944,0.050913816,-0.133847072,0.0,0.004703407,-0.008557079,-0.010823842,-0.015115112,-0.014385393,0.0,0.0,0.012040633,-0.004694104,0.032532636,0.02856123,-0.000616896,0.0,0.016363723,0.0,0.0,0.027482826,-0.011257775,0.029985684,0.0,-0.011150658,0.0,0.0645208,0.010495885,0.0,0.010495885,0.0,0.0,0.007958613
15.0,-0.098731168,-0.145866608,0.000564535,-0.140180416,0.07784588,-0.082497136,-0.044239072,0.122124344,-0.019614784,-0.169490032,-0.115236912,0.0366193,0.064224832,0.014781766,-0.205256128,-0.012304282,0.158631536,-0.149662032,0.028333588,-0.225379168,0.167356096,-0.103917944,0.159276592,-0.184825072,-0.063267588,0.170738496,0.01995862,-0.029566094,0.144009392,-0.2072952,-0.003958857,0.092458568,0.123660824,0.030500398,-0.139423856,0.137619312,-0.017113096,0.148569408,0.123660824,-0.052668908,-0.149940672,-0.163232752,-0.20205504,0.105101856,0.155323552,0.179075472,-0.0586592,0.132917944,0.050913816,-0.133847072,0.0,0.008885868,0.017661892,-0.010823842,0.013202965,0.003827499,0.0,0.0,0.012040633,0.003908808,0.02847069,0.01858497,-0.000616896,0.0,0.016363723,0.0,0.0,-0.010587219,-0.05339128,0.008971239,0.0,-0.011150658,0.0,0.0645208,0.010495885,0.0,0.010495885,0.0,0.0,0.007958613
16.0,-0.098731168,-0.145866608,0.000564535,-0.140180416,0.07784588,-0.082497136,-0.044239072,0.122124344,-0.019614784,-0.169490032,-0.115236912,0.0366193,0.064224832,0.014781766,-0.205256128,-0.012304282,0.158631536,-0.149662032,0.028333588,-0.225379168,0.167356096,-0.103917944,0.159276592,-0.184825072,-0.063267588,0.170738496,0.01995862,-0.029566094,0.144009392,-0.2072952,-0.003958857,0.092458568,0.123660824,0.030500398,-0.139423856,0.137619312,-0.017113096,0.148569408,0.123660824,-0.052668908,-0.149940672,-0.163232752,-0.20205504,0.105101856,0.155323552,0.179075472,-0.0586592,0.132917944,0.050913816,-0.133847072,0.0,0.008885868,-0.004323952,-0.010823842,-0.000762586,-0.011100885,0.0,0.0,-0.004402389,-0.03124163,0.042233104,0.022154912,-0.000616896,0.0,0.027434024,0.0,0.0,0.014009105,-0.031428948,0.025956558,0.0,-0.011150658,0.0,0.0645208,0.010495885,0.0,0.010495885,0.0,0.0,0.007958613
17.0,-0.098731168,-0.145866608,0.000564535,-0.140180416,0.07784588,-0.082497136,-0.044239072,0.122124344,-0.019614784,-0.169490032,-0.115236912,0.0366193,0.064224832,0.014781766,-0.205256128,-0.012304282,0.158631536,-0.149662032,0.028333588,-0.225379168,0.167356096,-0.103917944,0.159276592,-0.184825072,-0.063267588,0.170738496,0.01995862,-0.029566094,0.144009392,-0.2072952,-0.003958857,0.095481976,0.123660824,0.055204112,-0.139423856,0.137619312,-0.017113096,0.148569408,0.123660824,-0.052668908,-0.149940672,-0.163232752,-0.20205504,0.105101856,0.155323552,0.179075472,-0.0586592,0.132917944,0.050913816,-0.133847072,0.0,0.008885868,-0.004323952,-0.010823842,-0.000762586,-0.011100885,0.0,0.0,-0.004402389,-0.03124163,0.042233104,0.022039986,-0.000616896,-0.006200685,0.027434024,0.0,0.0,0.005327776,-0.072367848,0.025956558,0.0,-0.011150658,0.0,0.0645208,0.010495885,0.0,0.010495885,0.0,0.0,0.007958613
18.0,-0.098731168,-0.145866608,0.000564535,-0.140180416,0.07784588,-0.082497136,-0.044239072,0.122124344,-0.019614784,-0.169490032,-0.115236912,0.0366193,0.064224832,0.014781766,-0.205256128,-0.012304282,0.142602912,-0.149662032,0.028333588,-0.238114816,0.167356096,-0.103917944,0.159276592,-0.184825072,-0.063267588,0.170738496,0.01995862,-0.029566094,0.144009392,-0.2072952,-0.003958857,0.095481976,0.123660824,0.055204112,-0.139423856,0.137619312,-0.017113096,0.148569408,0.123660824,-0.052668908,-0.149940672,-0.163232752,-0.20205504,0.105101856,0.155323552,0.179075472,-0.0586592,0.132917944,0.050913816,-0.133847072,0.0,0.008885868,-0.004323952,-0.010823842,-0.000762586,-0.011100885,0.0,0.0,-0.004402389,-0.03124163,0.042464116,0.02616896,-0.000616896,-0.006200685,0.03745126,0.0,0.0,0.00948418,-0.037856984,0.050521768,0.0,-0.011150658,0.0,0.0645208,0.010495885,0.0,0.010495885,0.0,0.0,0.007958613
19.0,-0.098731168,-0.145866608,0.000564535,-0.140180416,0.07784588,-0.082497136,-0.044239072,0.122124344,-0.019614784,-0.169490032,-0.115236912,0.0366193,0.064224832,0.014781766,-0.205256128,-0.012304282,0.142602912,-0.149662032,0.028333588,-0.238114816,0.167356096,-0.103917944,0.159276592,-0.184825072,-0.063267588,0.170738496,0.01995862,-0.029566094,0.144009392,-0.2072952,-0.003958857,0.095481976,0.123660824,0.055204112,-0.139423856,0.137619312,-0.017113096,0.148569408,0.123660824,-0.052668908,-0.149940672,-0.163232752,-0.20205504,0.105101856,0.155323552,0.179075472,-0.0586592,0.132917944,0.050913816,-0.133847072,0.0,0.008885868,0.03784256,-0.010823842,0.015680257,-0.004005663,0.0,0.0,-0.00204315,-0.006272766,0.01890728,0.02616896,-0.000616896,-0.006200685,0.028103274,0.0,0.0,-0.020675332,-0.062329748,0.033195964,0.0,-0.011150658,0.0,0.0645208,0.010495885,0.0,0.010495885,0.0,0.0,0.007958613
20.0,-0.098731168,-0.145866608,0.019754444,-0.140180416,0.07784588,-0.082497136,-0.03930592,0.122124344,0.0061952,-0.148708016,-0.115236912,0.0366193,0.064224832,0.014781766,-0.205256128,-0.012304282,0.142602912,-0.149662032,0.028333588,-0.238114816,0.167356096,-0.103917944,0.159276592,-0.184825072,-0.063267588,0.170738496,0.01995862,-0.029566094,0.144009392,-0.2072952,-0.003958857,0.095481976,0.123660824,0.055204112,-0.139423856,0.137619312,-0.017113096,0.148569408,0.123660824,-0.052668908,-0.149940672,-0.163232752,-0.20205504,0.105101856,0.155323552,0.179075472,-0.0586592,0.132917944,0.050913816,-0.133847072,0.0,-0.008204698,-0.020805084,-0.012385671,-0.007613199,-0.023195572,0.0,0.0,-0.00204315,-0.023416234,0.01890728,0.02616896,-0.000616896,-0.006200685,0.028103274,0.0,0.0,-0.020675332,-0.062329748,0.033195964,0.0,-0.011150658,0.0,0.0645208,0.010495885,0.0,0.010495885,0.0,0.0,0.007958613
21.0,-0.098731168,-0.145866608,0.019754444,-0.140180416,0.07784588,-0.082497136,-0.03930592,0.122124344,0.0061952,-0.148708016,-0.115236912,0.0366193,0.064224832,0.014781766,-0.205256128,-0.012304282,0.142602912,-0.149662032,0.028333588,-0.238114816,0.167356096,-0.103917944,0.159276592,-0.159922224,-0.057320936,0.170738496,0.01995862,-0.008419655,0.177505664,-0.195074384,-0.003958857,0.095481976,0.123660824,0.042983292,-0.139423856,0.137619312,-0.017113096,0.148569408,0.123660824,-0.052668908,-0.149940672,-0.163232752,-0.20205504,0.105101856,0.155323552,0.179075472,-0.0586592,0.132917944,0.050913816,-0.133847072,0.0,-0.008204698,-0.020805084,-0.012385671,-0.007613199,-0.023195572,0.0,0.0,-0.00204315,-0.023416234,0.01890728,0.02616896,-0.000616896,-0.006200685,0.028103274,0.0,0.0,-0.020675332,-0.062329748,0.033195964,0.0,-0.011150658,0.0,0.0645208,0.010495885,0.0,0.010495885,0.0,0.0,0.007958613
22.0,-0.098731168,-0.145866608,0.019754444,-0.140180416,0.07784588,-0.082497136,-0.03930592,0.122124344,0.0061952,-0.148708016,-0.115236912,0.0366193,0.064224832,0.014781766,-0.205256128,-0.012304282,0.142602912,-0.149662032,0.028333588,-0.238114816,0.167356096,-0.103917944,0.159276592,-0.159922224,-0.057320936,0.170738496,0.01995862,-0.008419655,0.177505664,-0.195074384,-0.003958857,0.095481976,0.123660824,0.042983292,-0.139423856,0.137619312,-0.017113096,0.148569408,0.123660824,-0.052668908,-0.149940672,-0.163232752,-0.20205504,0.105101856,0.155323552,0.179075472,-0.0586592,0.132917944,0.050913816,-0.133847072,0.0,-0.008204698,-0.020805084,-0.012385671,-0.007613199,-0.023195572,0.0,0.0,-0.00204315,-0.023416234,0.01890728,0.02616896,-0.000616896,-0.006200685,0.028103274,0.0,0.0,-0.020675332,-0.062329748,0.033195964,0.0,-0.011150658,0.0,0.0645208,0.010495885,0.0,0.010495885,0.0,0.0,0.007958613
23.0,-0.098731168,-0.161821424,0.011403071,-0.145436944,0.07784588,-0.082497136,-0.03930592,0.112272864,0.006091317,-0.188581776,-0.115236912,0.0366193,0.064224832,0.014781766,-0.205256128,-0.012304282,0.142602912,-0.149662032,0.028333588,-0.238114816,0.167356096,-0.103917944,0.159276592,-0.159922224,-0.057320936,0.170738496,0.01995862,-0.008419655,0.177505664,-0.195074384,-0.003958857,0.095481976,0.123660824,0.042983292,-0.139423856,0.137619312,-0.017113096,0.148569408,0.123660824,-0.052668908,-0.149940672,-0.163232752,-0.20205504,0.105101856,0.155323552,0.179075472,-0.0586592,0.132917944,0.050913816,-0.133847072,0.0,-0.008204698,-0.020805084,-0.012385671,-0.007613199,-0.023195572,0.0,0.0,-0.00204315,-0.023416234,0.01890728,0.02616896,-0.000616896,-0.006200685,0.028103274,0.0,0.0,-0.020675332,-0.062329748,0.033195964,0.0,0.014539408,0.0,0.1107776,0.014237104,0.0,0.014237104,0.0,0.0,0.007958613
24.0,-0.098731168,-0.161821424,0.011403071,-0.145436944,0.07784588,-0.082497136,-0.03930592,0.112272864,0.006091317,-0.188581776,-0.115236912,0.0366193,0.064224832,0.014781766,-0.205256128,-0.012304282,0.142602912,-0.149662032,0.028333588,-0.238114816,0.167356096,-0.103917944,0.159276592,-0.159922224,-0.057320936,0.170738496,0.01995862,-0.008419655,0.177505664,-0.195074384,-0.003958857,0.095481976,0.123660824,0.042983292,-0.139423856,0.137619312,-0.017113096,0.148569408,0.123660824,-0.052668908,-0.149940672,-0.163232752,-0.20205504,0.105101856,0.155323552,0.179075472,-0.0586592,0.132917944,0.050913816,-0.133847072,0.0,-0.008204698,-0.020805084,-0.012385671,-0.007613199,-0.023195572,0.0,0.0,-0.00204315,-0.023416234,0.032283946,0.031188458,-0.000616896,-0.006200685,0.029032114,0.0,0.0,0.007646817,-0.044510236,0.050008968,-0.002805972,0.004792038,0.0,0.090653552,0.01221829,0.0,0.01221829,0.0,0.0,0.007958613
25.0,-0.098731168,-0.161821424,0.033208006,-0.145436944,0.07784588,-0.082497136,-0.028516422,0.112272864,0.01630355,-0.176579088,-0.115236912,0.0366193,0.064224832,0.014781766,-0.205256128,-0.012304282,0.142602912,-0.149662032,0.028333588,-0.238114816,0.167356096,-0.103917944,0.159276592,-0.159922224,-0.057320936,0.170738496,0.01995862,-0.008419655,0.177505664,-0.195074384,-0.003958857,0.095481976,0.123660824,0.042983292,-0.139423856,0.137619312,-0.017113096,0.148569408,0.123660824,-0.052668908,-0.149940672,-0.163232752,-0.20205504,0.105101856,0.155323552,0.179075472,-0.0586592,0.132917944,0.050913816,-0.133847072,0.0,-0.008204698,-0.020805084,-0.012385671,-0.007613199,-0.023195572,0.0,0.0,-0.00204315,-0.023416234,0.00560325,0.015688213,-0.000616896,-0.006200685,0.029032114,0.0,0.0,-0.010951607,-0.0608652,0.040489484,-0.002805972,0.004792038,0.0,0.090653552,0.01221829,0.0,0.01221829,0.0,0.0,0.007958613
26.0,-0.098731168,-0.161821424,0.033208006,-0.145436944,0.07784588,-0.082497136,-0.028516422,0.112272864,0.01630355,-0.176579088,-0.115236912,0.0366193,0.064224832,0.014781766,-0.205256128,-0.012304282,0.142602912,-0.149662032,0.028333588,-0.238114816,0.167356096,-0.103917944,0.159276592,-0.159922224,-0.057320936,0.170738496,0.01995862,-0.008419655,0.177505664,-0.195074384,-0.003958857,0.095481976,0.123660824,0.042983292,-0.139423856,0.137619312,-0.017113096,0.148569408,0.123660824,-0.052668908,-0.149940672,-0.163232752,-0.20205504,0.105101856,0.155323552,0.179075472,-0.0586592,0.132917944,0.050913816,-0.133847072,0.0,-0.008204698,-0.020805084,-0.012385671,-0.007613199,-0.023195572,0.0,0.0,-0.00204315,-0.023416234,0.00560325,0.015688213,-0.000616896,-0.006200685,0.029032114,0.0,0.0,-0.010951607,-0.0608652,0.040489484,-0.002805972,0.004792038,0.0,0.090653552,0.01221829,0.0,0.01221829,0.0,0.0,0.007958613
27.0,-0.098731168,-0.167946784,0.021025606,-0.148343552,0.07784588,-0.082497136,-0.03015116,0.112272864,0.013288916,-0.197226592,-0.115236912,0.0366193,0.064224832,0.014781766,-0.205256128,-0.012304282,0.142602912,-0.149662032,0.028333588,-0.238114816,0.167356096,-0.103917944,0.159276592,-0.159922224,-0.057320936,0.170738496,0.01995862,-0.008419655,0.177505664,-0.195074384,-0.003958857,0.095481976,0.123660824,0.042983292,-0.139423856,0.137619312,-0.017113096,0.148569408,0.123660824,-0.052668908,-0.149940672,-0.163232752,-0.20205504,0.105101856,0.155323552,0.179075472,-0.0586592,0.132917944,0.050913816,-0.133847072,0.0,-0.008204698,0.009132238,-0.012385671,0.002040703,-0.011013172,0.0,0.0,0.004082206,0.001466628,0.00560325,0.015688213,-0.000616896,-0.006200685,0.029032114,0.0,0.0,-0.010951607,-0.0608652,0.040489484,-0.002805972,0.004792038,0.0,0.090653552,0.01221829,0.0,0.01221829,0.0,0.0,0.007958613
28.0,-0.098731168,-0.167946784,0.021025606,-0.148343552,0.07784588,-0.082497136,-0.03015116,0.112272864,0.013288916,-0.197226592,-0.115236912,0.045796856,0.0686788,0.014781766,-0.205256128,-0.012304282,0.142602912,-0.149662032,0.03390674,-0.204705808,0.167356096,-0.103917944,0.159276592,-0.159922224,-0.057320936,0.170738496,0.01995862,-0.008419655,0.177505664,-0.195074384,-0.003958857,0.095481976,0.123660824,0.042983292,-0.139423856,0.137619312,-0.017113096,0.148569408,0.123660824,-0.052668908,-0.149940672,-0.163232752,-0.20205504,0.105101856,0.155323552,0.179075472,-0.0586592,0.132917944,0.050913816,-0.133847072,0.0,-0.008204698,0.009102684,-0.012385671,0.00201032,-0.011035519,0.0,0.0,0.004068317,0.001415124,-0.008942072,0.013646612,-0.000616896,-0.006200685,0.01894826,0.0,0.0,-0.010951607,-0.07066284,0.040489484,-0.002805972,0.004792038,0.0,0.090653552,0.01221829,0.0,0.01221829,0.0,0.0,0.007958613
29.0,-0.098731168,-0.167946784,0.021025606,-0.148343552,0.07784588,-0.082497136,-0.03015116,0.112272864,0.013288916,-0.197226592,-0.115236912,0.045796856,0.0686788,0.014781766,-0.205256128,-0.012304282,0.142602912,-0.149662032,0.03390674,-0.204705808,0.167356096,-0.103917944,0.159276592,-0.159922224,-0.057320936,0.170738496,0.01995862,-0.008419655,0.177505664,-0.195074384,-0.003958857,0.095481976,0.123660824,0.042983292,-0.139423856,0.137619312,-0.017113096,0.148569408,0.123660824,-0.052668908,-0.149940672,-0.163232752,-0.20205504,0.105101856,0.155323552,0.179075472,-0.0586592,0.132917944,0.050913816,-0.133847072,0.0,-0.008204698,0.009102684,-0.012385671,0.00201032,-0.011035519,0.0,0.0,0.004068317,0.001415124,-0.008942072,0.013646612,-0.000616896,-0.006200685,0.01894826,0.0,0.0,-0.010951607,-0.07066284,0.040489484,-0.002805972,0.004792038,0.0,0.090653552,0.01221829,0.0,0.01221829,0.0,0.0,0.007958613
30.0,-0.098731168,-0.167946784,0.021025606,-0.148343552,0.07784588,-0.082497136,-0.03015116,0.112272864,0.013288916,-0.197226592,-0.115236912,0.045796856,0.0686788,0.014781766,-0.205256128,-0.012304282,0.142602912,-0.149662032,0.03390674,-0.204705808,0.167356096,-0.103917944,0.159276592,-0.159922224,-0.057320936,0.170738496,0.01995862,-0.008419655,0.177505664,-0.195074384,0.003856363,0.112197584,0.123660824,0.043652728,-0.139423856,0.137619312,-0.017113096,0.155693136,0.123660824,-0.052668908,-0.149940672,-0.1648168,-0.20205504,0.105101856,0.114841392,0.179075472,-0.076944656,0.124363496,0.038717732,-0.1393384,0.0,-0.008204698,0.009102684,-0.012385671,0.00201032,-0.011035519,0.0,0.0,0.004068317,0.001415124,-0.008942072,0.013646612,-0.000616896,-0.006200685,0.01894826,0.0,0.0,-0.010951607,-0.07066284,0.040489484,-0.002805972,0.004792038,0.0,0.090653552,0.01221829,0.0,0.01221829,0.0,0.0,0.007958613
31.0,-0.098731168,-0.167946784,0.021025606,-0.148343552,0.07784588,-0.082497136,-0.03015116,0.112272864,0.013288916,-0.197226592,-0.115236912,0.045796856,0.0686788,0.014781766,-0.205256128,-0.012304282,0.142602912,-0.149662032,0.03390674,-0.204705808,0.167356096,-0.103917944,0.159276592,-0.159922224,-0.057320936,0.170738496,0.01995862,-0.008419655,0.177505664,-0.195074384,0.003856363,0.112197584,0.123660824,0.043652728,-0.139423856,0.137619312,-0.017113096,0.155693136,0.123660824,-0.052668908,-0.149940672,-0.1648168,-0.20205504,0.105101856,0.114841392,0.179075472,-0.076944656,0.124363496,0.038717732,-0.1393384,0.0,-0.008204698,0.009102684,-0.012385671,0.00201032,-0.011035519,0.0,0.0,0.004068317,0.001415124,-0.008942072,0.013646612,-0.000616896,-0.006200685,0.01894826,0.0,0.0,-0.010951607,-0.07066284,0.040489484,-0.002805972,0.004792038,0.0,0.090653552,0.01221829,0.0,0.01221829,0.0,0.0,0.007958613
32.0,-0.098731168,-0.167946784,0.021025606,-0.148343552,0.07784588,-0.082497136,-0.03015116,0.112272864,0.013288916,-0.197226592,-0.115236912,0.045796856,0.0686788,0.014781766,-0.205256128,-0.012304282,0.142602912,-0.149662032,0.03390674,-0.204705808,0.1643904,-0.103917944,0.159276592,-0.166342048,-0.06714872,0.170738496,0.01995862,-0.013909277,0.145024784,-0.23215608,0.003856363,0.112197584,0.123660824,0.043652728,-0.139423856,0.137619312,-0.017113096,0.155693136,0.123660824,-0.052668908,-0.149940672,-0.1648168,-0.20205504,0.105101856,0.114841392,0.179075472,-0.076944656,0.124363496,0.038717732,-0.1393384,0.0,-0.008204698,0.009102684,-0.012385671,0.00201032,-0.011035519,0.0,0.0,0.004068317,0.001415124,-0.003641925,0.022701492,-0.000616896,-0.006200685,0.023233996,0.0,0.0,0.002364467,-0.054384996,0.054616328,-0.002805972,0.004792038,0.0,0.090653552,0.01221829,0.0,0.01221829,0.0,0.0,0.007958613
33.0,-0.098731168,-0.167946784,0.021025606,-0.148343552,0.07784588,-0.082497136,-0.03015116,0.112272864,0.013288916,-0.197226592,-0.115236912,0.045796856,0.0686788,0.014781766,-0.205256128,-0.012304282,0.142602912,-0.149662032,0.03390674,-0.204705808,0.1643904,-0.103917944,0.159276592,-0.166342048,-0.06714872,0.170738496,0.01995862,-0.013909277,0.145024784,-0.23215608,0.003856363,0.112197584,0.123660824,0.043652728,-0.139423856,0.137619312,-0.017113096,0.155693136,0.123660824,-0.052668908,-0.149940672,-0.1648168,-0.20205504,0.105101856,0.114841392,0.179075472,-0.076944656,0.124363496,0.038717732,-0.1393384,0.0,-0.008204698,0.009102684,-0.012385671,0.00201032,-0.011035519,0.0,0.0,0.004068317,0.001415124,-0.003641925,0.022701492,-0.000616896,-0.006200685,0.023233996,0.0,0.0,0.002364467,-0.054384996,0.054616328,-0.002805972,0.004792038,0.0,0.090653552,0.01221829,0.0,0.01221829,0.0,0.0,0.007958613
34.0,-0.098731168,-0.167946784,0.021025606,-0.148343552,0.07784588,-0.082497136,-0.03015116,0.112272864,0.013288916,-0.197226592,-0.115236912,0.045796856,0.0686788,0.014781766,-0.205256128,-0.012304282,0.142602912,-0.149662032,0.03390674,-0.204705808,0.1643904,-0.103917944,0.159276592,-0.166342048,-0.06714872,0.170738496,0.01995862,-0.013909277,0.145024784,-0.23215608,0.003856363,0.112197584,0.123660824,0.043652728,-0.139423856,0.137619312,-0.017113096,0.155693136,0.123660824,-0.052668908,-0.149940672,-0.1648168,-0.20205504,0.105101856,0.114841392,0.179075472,-0.076944656,0.124363496,0.038717732,-0.1393384,0.0,-0.008204698,0.009102684,-0.012385671,0.00201032,-0.011035519,0.0,0.0,0.004068317,0.001415124,-0.003641925,0.022701492,-0.000616896,-0.006200685,0.023233996,0.0,0.0,0.002364467,-0.054384996,0.054616328,-0.002805972,0.004792038,0.0,0.090653552,0.01221829,0.0,0.01221829,0.0,0.0,0.007958613
35.0,-0.098731168,-0.167946784,0.021025606,-0.148343552,0.07784588,-0.082497136,-0.03015116,0.112272864,0.013288916,-0.197226592,-0.115236912,0.045796856,0.0686788,0.014781766,-0.205256128,-0.012304282,0.142602912,-0.149662032,0.03390674,-0.204705808,0.1643904,-0.103917944,0.159276592,-0.166342048,-0.06714872,0.170738496,0.01995862,-0.013909277,0.145024784,-0.23215608,0.003856363,0.112197584,0.123660824,0.043652728,-0.139423856,0.137619312,-0.017113096,0.155693136,0.123660824,-0.052668908,-0.149940672,-0.1648168,-0.20205504,0.105101856,0.114841392,0.179075472,-0.076944656,0.124363496,0.038717732,-0.1393384,0.0,-0.008204698,0.009102684,-0.012385671,0.00201032,-0.011035519,0.0,0.0,0.004068317,0.001415124,-0.003641925,0.022701492,-0.000616896,-0.006200685,0.023233996,0.0,0.0,0.002364467,-0.054384996,0.054616328,-0.002805972,0.004792038,0.0,0.090653552,0.01221829,0.0,0.01221829,0.0,0.0,0.007958613
36.0,-0.098731168,-0.167946784,0.021025606,-0.148343552,0.07784588,-0.082497136,-0.03015116,0.112272864,0.013288916,-0.197226592,-0.115236912,0.045796856,0.0686788,0.014781766,-0.205256128,-0.012304282,0.142602912,-0.149662032,0.03390674,-0.204705808,0.1643904,-0.103917944,0.159276592,-0.166342048,-0.06714872,0.170738496,0.01995862,-0.013909277,0.145024784,-0.23215608,0.003856363,0.112197584,0.123660824,0.043652728,-0.139423856,0.137619312,-0.017113096,0.155693136,0.123660824,-0.052668908,-0.149940672,-0.1648168,-0.20205504,0.105101856,0.114841392,0.179075472,-0.076944656,0.124363496,0.038717732,-0.1393384,0.0,-0.008204698,0.009102684,-0.012385671,0.00201032,-0.011035519,0.0,0.0,0.004068317,0.001415124,-0.003641925,0.022701492,-0.000616896,-0.006200685,0.023233996,0.0,0.0,0.002364467,-0.054384996,0.054616328,-0.002805972,0.004792038,0.0,0.090653552,0.01221829,0.0,0.01221829,0.0,0.0,0.007958613
37.0,-0.098731168,-0.167946784,0.021025606,-0.148343552,0.07784588,-0.082497136,-0.03015116,0.112272864,0.013288916,-0.197226592,-0.115236912,0.045796856,0.0686788,0.014781766,-0.205256128,-0.012304282,0.142602912,-0.149662032,0.03390674,-0.204705808,0.1643904,-0.103917944,0.159276592,-0.166342048,-0.06714872,0.170738496,0.01995862,-0.013909277,0.145024784,-0.23215608,0.003856363,0.112197584,0.123660824,0.043652728,-0.139423856,0.137619312,-0.017113096,0.155693136,0.123660824,-0.052668908,-0.149940672,-0.1648168,-0.20205504,0.105101856,0.114841392,0.179075472,-0.076944656,0.124363496,0.038717732,-0.1393384,0.0,-0.008204698,0.009102684,-0.012385671,0.00201032,-0.011035519,0.0,0.0,0.004068317,0.001415124,-0.003641925,0.022701492,-0.000616896,-0.006200685,0.023233996,0.0,0.0,0.002364467,-0.054384996,0.054616328,-0.002805972,0.004792038,0.0,0.090653552,0.01221829,0.0,0.01221829,0.0,0.0,0.007958613
38.0,-0.098731168,-0.167946784,0.021025606,-0.148343552,0.07784588,-0.082497136,-0.03015116,0.112272864,0.013288916,-0.197226592,-0.115236912,0.045796856,0.0686788,0.014781766,-0.205256128,-0.012304282,0.142602912,-0.149662032,0.03390674,-0.204705808,0.1643904,-0.103917944,0.159276592,-0.166342048,-0.06714872,0.170738496,0.01995862,-0.013909277,0.145024784,-0.23215608,0.003856363,0.112197584,0.123660824,0.03832532,-0.139423856,0.137619312,-0.017113096,0.155693136,0.123660824,-0.052668908,-0.149940672,-0.1648168,-0.18769408,0.118539032,0.132003832,0.179075472,-0.052174272,0.124363496,0.038717732,-0.130481792,0.0,-0.008204698,0.009102684,-0.012385671,0.00201032,-0.011035519,0.0,0.0,0.004068317,0.001415124,-0.003641925,0.022701492,-0.000616896,-0.006200685,0.023233996,0.0,0.0,0.002364467,-0.054384996,0.054616328,-0.002805972,0.004792038,0.0,0.090653552,0.01221829,0.0,0.01221829,0.0,0.0,0.007958613
39.0,-0.098731168,-0.167946784,0.021025606,-0.148343552,0.07784588,-0.082497136,-0.03015116,0.112272864,0.013288916,-0.197226592,-0.115236912,0.045796856,0.0686788,0.014781766,-0.205256128,-0.012304282,0.142602912,-0.149662032,0.03390674,-0.204705808,0.1643904,-0.103917944,0.159276592,-0.166342048,-0.06714872,0.170738496,0.01995862,-0.013909277,0.145024784,-0.23215608,0.003856363,0.112197584,0.123660824,0.03832532,-0.139423856,0.137619312,-0.017113096,0.155693136,0.123660824,-0.052668908,-0.149940672,-0.1648168,-0.18769408,0.118539032,0.132003832,0.179075472,-0.052174272,0.124363496,0.038717732,-0.130481792,0.0,-0.008204698,0.009102684,-0.012385671,0.00201032,-0.011035519,0.0,0.0,0.004068317,0.001415124,-0.003641925,0.022701492,-0.000616896,-0.006200685,0.023233996,0.0,0.0,0.002364467,-0.054384996,0.054616328,-0.002805972,0.004792038,0.0,0.090653552,0.01221829,0.0,0.01221829,0.0,0.0,0.007958613
40.0,-0.098731168,-0.167946784,0.021025606,-0.148343552,0.07784588,-0.082497136,-0.03015116,0.112272864,0.013288916,-0.197226592,-0.115236912,0.045796856,0.0686788,0.014781766,-0.205256128,-0.012304282,0.142602912,-0.149662032,0.03390674,-0.204705808,0.1643904,-0.103917944,0.159276592,-0.166342048,-0.06714872,0.170738496,0.01995862,-0.013909277,0.145024784,-0.23215608,0.003856363,0.12337028,0.123660824,0.041244208,-0.139423856,0.137619312,-0.017113096,0.155693136,0.123660824,-0.052668908,-0.149940672,-0.1648168,-0.2007956,0.107048392,0.1002084,0.179075472,-0.069400816,0.124363496,0.038717732,-0.130481792,0.0,-0.008204698,0.009102684,-0.012385671,0.00201032,-0.011035519,0.0,0.0,0.004068317,0.001415124,-0.003641925,0.022701492,-0.000616896,-0.006200685,0.023233996,0.0,0.0,0.002364467,-0.054384996,0.054616328,-0.002805972,0.004792038,0.0,0.090653552,0.01221829,0.0,0.01221829,0.0,0.0,0.007958613
41.0,-0.098731168,-0.167946784,0.021025606,-0.148343552,0.07784588,-0.082497136,-0.03015116,0.112272864,0.013288916,-0.197226592,-0.115236912,0.045796856,0.0686788,0.014781766,-0.205256128,-0.012304282,0.142602912,-0.149662032,0.03390674,-0.204705808,0.1643904,-0.103917944,0.159276592,-0.166342048,-0.06714872,0.170738496,0.01995862,-0.013909277,0.145024784,-0.23215608,0.003856363,0.120706488,0.123660824,0.026542462,-0.139423856,0.137619312,-0.017113096,0.155693136,0.123660824,-0.052668908,-0.149940672,-0.1648168,-0.189703536,0.119018,0.123547504,0.179075472,-0.041843608,0.124363496,0.038717732,-0.116936176,0.0,-0.008204698,0.009102684,-0.012385671,0.00201032,-0.011035519,0.0,0.0,0.004068317,0.001415124,-0.003641925,0.022701492,-0.000616896,-0.006200685,0.023233996,0.0,0.0,0.002364467,-0.054384996,0.054616328,-0.002805972,0.004792038,0.0,0.090653552,0.01221829,0.0,0.01221829,0.0,0.0,0.007958613
42.0,-0.098731168,-0.167946784,0.021025606,-0.148343552,0.07784588,-0.082497136,-0.03015116,0.112272864,0.013288916,-0.197226592,-0.115236912,0.045796856,0.0686788,0.014781766,-0.205256128,-0.012304282,0.142602912,-0.149662032,0.03390674,-0.204705808,0.1643904,-0.103917944,0.159276592,-0.166342048,-0.06714872,0.170738496,0.01995862,-0.013909277,0.145024784,-0.23215608,0.003856363,0.120706488,0.123660824,0.026542462,-0.139423856,0.137619312,-0.017113096,0.155693136,0.123660824,-0.052668908,-0.149940672,-0.1648168,-0.189703536,0.119018,0.123547504,0.179075472,-0.041843608,0.124363496,0.038717732,-0.116936176,0.0,-0.008204698,0.009102684,-0.012385671,0.00201032,-0.011035519,0.0,0.0,0.004068317,0.001415124,-0.003641925,0.022701492,-0.000616896,-0.006200685,0.023233996,0.0,0.0,0.002364467,-0.054384996,0.054616328,-0.002805972,0.004792038,0.0,0.090653552,0.01221829,0.0,0.01221829,0.0,0.0,0.007958613
43.0,-0.098731168,-0.167946784,0.021025606,-0.148343552,0.07784588,-0.082497136,-0.03015116,0.112272864,0.013288916,-0.197226592,-0.115236912,0.045796856,0.0686788,0.014781766,-0.205256128,-0.012304282,0.142602912,-0.149662032,0.03390674,-0.204705808,0.1643904,-0.103917944,0.159276592,-0.166342048,-0.06714872,0.170738496,0.01995862,-0.013909277,0.145024784,-0.23215608,0.003856363,0.120706488,0.123660824,0.005852427,-0.139423856,0.137619312,-0.017113096,0.155693136,0.123660824,-0.052668908,-0.149940672,-0.1648168,-0.189703536,0.1276432,0.155950688,0.179075472,-0.015921252,0.124363496,0.038717732,-0.094359424,0.0,-0.008204698,0.009102684,-0.012385671,0.00201032,-0.011035519,0.0,0.0,0.004068317,0.001415124,-0.003641925,0.022701492,-0.000616896,-0.006200685,0.023233996,0.0,0.0,0.002364467,-0.054384996,0.054616328,-0.002805972,0.004792038,0.0,0.090653552,0.01221829,0.0,0.01221829,0.0,0.0,0.007958613
44.0,-0.098731168,-0.167946784,0.021025606,-0.148343552,0.07784588,-0.082497136,-0.03015116,0.112272864,0.013288916,-0.197226592,-0.115236912,0.045796856,0.0686788,0.014781766,-0.205256128,-0.012304282,0.142602912,-0.149662032,0.03390674,-0.204705808,0.1643904,-0.103917944,0.159276592,-0.166342048,-0.06714872,0.170738496,0.01995862,-0.013909277,0.145024784,-0.23215608,0.003856363,0.120706488,0.123660824,0.005852427,-0.139423856,0.137619312,-0.017113096,0.155693136,0.123660824,-0.052668908,-0.149940672,-0.1648168,-0.189703536,0.1276432,0.155950688,0.179075472,-0.015921252,0.124363496,0.038717732,-0.094359424,0.0,-0.008204698,0.009102684,-0.012385671,0.00201032,-0.011035519,0.0,0.0,0.004068317,0.001415124,-0.003641925,0.022701492,-0.000616896,-0.006200685,0.023233996,0.0,0.0,0.002364467,-0.054384996,0.054616328,-0.002805972,0.004792038,0.0,0.090653552,0.01221829,0.0,0.01221829,0.0,0.0,0.007958613
45.0,-0.098731168,-0.167946784,0.021025606,-0.148343552,0.07784588,-0.082497136,-0.03015116,0.112272864,0.013288916,-0.197226592,-0.115236912,0.045796856,0.0686788,0.014781766,-0.205256128,-0.012304282,0.142602912,-0.149662032,0.03390674,-0.204705808,0.1643904,-0.103917944,0.159276592,-0.166342048,-0.06714872,0.170738496,0.01995862,-0.013909277,0.145024784,-0.23215608,0.004004552,0.120706488,0.123660824,0.023128138,-0.138833552,0.137619312,-0.017113096,0.155693136,0.123660824,-0.045207764,-0.149940672,-0.1648168,-0.217815984,0.113227224,0.14599824,0.179075472,-0.054470896,0.124363496,0.038717732,-0.132244248,0.0,-0.008204698,0.009102684,-0.012385671,0.00201032,-0.011035519,0.0,0.0,0.004068317,0.001415124,-0.003641925,0.022701492,-0.000616896,-0.006200685,0.023233996,0.0,0.0,0.002364467,-0.054384996,0.054616328,-0.002805972,0.004792038,0.0,0.090653552,0.01221829,0.0,0.01221829,0.0,0.0,0.007958613
46.0,-0.098731168,-0.167946784,0.000506347,-0.148343552,0.07784588,-0.082497136,-0.044835144,0.112272864,0.001190166,-0.20341904,-0.115236912,0.045796856,0.0686788,0.014781766,-0.205256128,-0.012304282,0.142602912,-0.149662032,0.03390674,-0.204705808,0.1643904,-0.103917944,0.159276592,-0.166342048,-0.06714872,0.170738496,0.01995862,-0.013909277,0.145024784,-0.23215608,0.004004552,0.120706488,0.123660824,0.023128138,-0.138833552,0.137619312,-0.017113096,0.155693136,0.123660824,-0.045207764,-0.149940672,-0.1648168,-0.217815984,0.113227224,0.14599824,0.179075472,-0.054470896,0.124363496,0.038717732,-0.132244248,0.0,-0.008204698,0.009102684,-0.012385671,0.00201032,-0.011035519,0.0,0.0,0.004068317,0.001415124,0.009562227,0.040171168,-0.000616896,-0.006200685,0.023233996,0.0,0.0,0.030198972,-0.037245504,0.070093896,-0.002805972,0.004792038,0.0,0.090653552,0.01221829,0.0,0.01221829,0.0,0.0,0.007958613
47.0,-0.098731168,-0.167946784,0.000506347,-0.148343552,0.07784588,-0.082497136,-0.044835144,0.112272864,0.001190166,-0.20341904,-0.115236912,0.045796856,0.0686788,0.014781766,-0.205256128,-0.012304282,0.142602912,-0.149662032,0.03390674,-0.204705808,0.1643904,-0.103917944,0.159276592,-0.166342048,-0.06714872,0.170738496,0.01995862,-0.013909277,0.145024784,-0.23215608,0.004004552,0.120706488,0.123660824,0.023128138,-0.138833552,0.137619312,-0.017113096,0.155693136,0.123660824,-0.045207764,-0.149940672,-0.1648168,-0.217815984,0.113227224,0.14599824,0.179075472,-0.054470896,0.124363496,0.038717732,-0.132244248,0.0,-0.008204698,-0.0422839,-0.012385671,-0.019328734,-0.022986536,0.0,-0.008834659,0.004068317,-0.00873143,0.009562227,0.040171168,-0.000616896,-0.006200685,0.023233996,0.0,0.0,0.030198972,-0.037245504,0.070093896,-0.002805972,0.004792038,0.0,0.133269768,0.021511912,0.0,0.021511912,0.0,0.0,0.037442132
48.0,-0.098731168,-0.167946784,0.000506347,-0.148343552,0.07784588,-0.082497136,-0.044835144,0.112272864,0.001190166,-0.20341904,-0.115236912,0.045796856,0.0686788,0.014781766,-0.205256128,-0.012304282,0.142602912,-0.149662032,0.03390674,-0.204705808,0.1643904,-0.103917944,0.159276592,-0.166342048,-0.06714872,0.170738496,0.01995862,-0.013909277,0.145024784,-0.23215608,0.004004552,0.120706488,0.123660824,0.023128138,-0.138833552,0.137619312,-0.017113096,0.155693136,0.123660824,-0.045207764,-0.149940672,-0.1648168,-0.217815984,0.113227224,0.14599824,0.179075472,-0.054470896,0.124363496,0.038717732,-0.132244248,0.0,-0.008204698,-0.001680385,-0.012385671,0.001684712,-0.017403224,0.0,-0.008834659,0.00953059,0.014292391,0.009562227,0.040171168,-0.000616896,-0.006200685,0.023233996,0.0,0.0,0.030198972,-0.037245504,0.070093896,-0.002805972,-0.001044244,0.0,0.094933208,0.002712255,0.0,0.002712255,0.0,0.0,0.032892882
49.0,-0.098731168,-0.167946784,0.000506347,-0.148343552,0.07784588,-0.082497136,-0.044835144,0.112272864,0.001190166,-0.20341904,-0.115236912,0.045796856,0.0686788,0.014781766,-0.205256128,-0.012304282,0.142602912,-0.149662032,0.03390674,-0.204705808,0.1643904,-0.103917944,0.159276592,-0.166342048,-0.06714872,0.170738496,0.01995862,-0.013909277,0.145024784,-0.23215608,0.004004552,0.120706488,0.123660824,0.023128138,-0.138833552,0.137619312,-0.017113096,0.155693136,0.123660824,-0.045207764,-0.149940672,-0.1648168,-0.217815984,0.113227224,0.14599824,0.179075472,-0.054470896,0.124363496,0.038717732,-0.132244248,0.0,-0.008204698,-0.032525316,-0.016112681,0.001684712,-0.017403224,0.0,-0.008834659,-0.008543004,-0.000171354,0.009562227,0.040171168,-0.000616896,-0.006200685,0.023233996,0.0,0.0,0.030198972,-0.037245504,0.070093896,-0.002805972,0.017229642,0.0,0.1374572,0.002712255,0.0,0.002712255,0.0,0.0,0.032892882
50.0,-0.098731168,-0.167946784,0.000506347,-0.148343552,0.07784588,-0.082497136,-0.044835144,0.112272864,0.001190166,-0.20341904,-0.115236912,0.045796856,0.0686788,0.014781766,-0.205256128,-0.012304282,0.142602912,-0.149662032,0.03390674,-0.204705808,0.1643904,-0.103917944,0.159276592,-0.166342048,-0.06714872,0.170738496,0.01995862,-0.013909277,0.145024784,-0.23215608,0.004004552,0.120706488,0.123660824,0.023128138,-0.138833552,0.137619312,-0.017113096,0.155693136,0.123660824,-0.045207764,-0.149940672,-0.1648168,-0.217815984,0.113227224,0.14599824,0.179075472,-0.054470896,0.124363496,0.038717732,-0.132244248,0.0,0.003678923,0.011621974,-0.016112681,0.013992062,-0.013071455,0.0,-0.008834659,-0.007135066,0.02457812,0.009562227,0.040171168,-0.000616896,-0.006200685,0.023233996,0.0,0.0,0.030198972,-0.037245504,0.070093896,-0.002805972,0.015701471,0.0,0.108371392,-0.02041069,0.0,-0.02041069,0.0,0.0,0.032892882
51.0,-0.098731168,-0.167946784,0.000506347,-0.148343552,0.07784588,-0.082497136,-0.044835144,0.112272864,0.001190166,-0.20341904,-0.115236912,0.045796856,0.0686788,0.014781766,-0.205256128,-0.012304282,0.142602912,-0.149662032,0.03390674,-0.204705808,0.1643904,-0.103917944,0.159276592,-0.166342048,-0.06714872,0.170738496,0.01995862,-0.013909277,0.145024784,-0.23215608,0.004004552,0.120706488,0.123660824,0.023128138,-0.138833552,0.137619312,-0.017113096,0.155693136,0.123660824,-0.045207764,-0.149940672,-0.1648168,-0.217815984,0.113227224,0.14599824,0.179075472,-0.054470896,0.124363496,0.038717732,-0.132244248,0.0,0.003678923,0.011621974,-0.016112681,0.013992062,-0.013071455,0.0,-0.008834659,-0.007135066,0.02457812,0.009562227,0.040171168,-0.000616896,-0.006200685,0.023233996,0.0,0.0,0.030198972,-0.037245504,0.070093896,-0.002805972,0.015701471,0.0,0.108371392,-0.02041069,0.0,-0.02041069,0.0,0.0,0.032892882
52.0,-0.098731168,-0.167946784,0.006838991,-0.148343552,0.07784588,-0.082497136,-0.044835144,0.112272864,0.001190166,-0.187866144,-0.115236912,0.045796856,0.0686788,0.014781766,-0.205256128,-0.012304282,0.142602912,-0.149662032,0.03390674,-0.204705808,0.1643904,-0.103917944,0.159276592,-0.166342048,-0.06714872,0.170738496,0.01995862,-0.013909277,0.145024784,-0.23215608,0.004004552,0.120706488,0.123660824,0.023128138,-0.138833552,0.137619312,-0.017113096,0.155693136,0.123660824,-0.045207764,-0.149940672,-0.1648168,-0.217815984,0.113227224,0.14599824,0.179075472,-0.054470896,0.124363496,0.038717732,-0.132244248,0.0,0.003678923,0.011621974,-0.016112681,0.013992062,-0.013071455,0.0,-0.008834659,-0.007135066,0.02457812,-0.029305372,0.025525782,-0.000616896,-0.006200685,0.009168985,0.0,0.0,0.016935826,-0.037245504,0.06466142,-0.002805972,0.015701471,0.0,0.108371392,-0.02041069,0.0,-0.02041069,0.0,0.0,0.032892882
53.0,-0.098731168,-0.167946784,-0.003374494,-0.148343552,0.07784588,-0.082497136,-0.049051332,0.112272864,-0.013604429,-0.206330704,-0.115236912,0.045796856,0.0686788,0.014781766,-0.205256128,-0.012304282,0.142602912,-0.149662032,0.03390674,-0.204705808,0.1643904,-0.103917944,0.159276592,-0.166342048,-0.06714872,0.170738496,0.01995862,-0.013909277,0.145024784,-0.23215608,0.004004552,0.120706488,0.123660824,0.023128138,-0.138833552,0.137619312,-0.017113096,0.155693136,0.123660824,-0.045207764,-0.149940672,-0.1648168,-0.217815984,0.113227224,0.14599824,0.179075472,-0.054470896,0.124363496,0.038717732,-0.132244248,0.0,0.003678923,0.011621974,-0.016112681,0.013992062,-0.013071455,0.0,-0.008834659,-0.007135066,0.02457812,0.000850863,0.051295072,-0.000616896,-0.006200685,0.019963652,0.0,0.0,0.047465816,-0.00627158,0.094366456,-0.002805972,0.015701471,0.0,0.108371392,-0.02041069,0.0,-0.02041069,0.0,0.0,0.032892882
54.0,-0.098731168,-0.167946784,-0.003374494,-0.148343552,0.07784588,-0.082497136,-0.049051332,0.112272864,-0.013604429,-0.206330704,-0.115236912,0.045796856,0.0686788,0.014781766,-0.205256128,-0.012304282,0.142602912,-0.149662032,0.03390674,-0.204705808,0.1643904,-0.103917944,0.159276592,-0.166342048,-0.06714872,0.170738496,0.01995862,-0.013909277,0.145024784,-0.23215608,0.004004552,0.120706488,0.123660824,0.023128138,-0.138833552,0.137619312,-0.017113096,0.155693136,0.123660824,-0.045207764,-0.149940672,-0.1648168,-0.217815984,0.113227224,0.14599824,0.179075472,-0.054470896,0.124363496,0.038717732,-0.132244248,0.0,0.003678923,0.011621974,-0.016112681,0.013992062,-0.013071455,0.0,-0.008834659,-0.007135066,0.02457812,0.000850863,0.051295072,-0.000616896,-0.006200685,0.019963652,0.0,0.0,0.047465816,-0.00627158,0.094366456,-0.002805972,0.015701471,0.0,0.108371392,-0.02041069,0.0,-0.02041069,0.0,0.0,0.032892882
55.0,-0.098731168,-0.167946784,-0.003374494,-0.148343552,0.07784588,-0.082497136,-0.049051332,0.112272864,-0.013604429,-0.206330704,-0.115236912,0.045796856,0.0686788,0.014781766,-0.205256128,-0.012304282,0.142602912,-0.149662032,0.03390674,-0.204705808,0.1643904,-0.103917944,0.159276592,-0.166342048,-0.06714872,0.170738496,0.01995862,-0.013909277,0.145024784,-0.23215608,0.004004552,0.120706488,0.123660824,0.023128138,-0.138833552,0.137619312,-0.017113096,0.155693136,0.123660824,-0.045207764,-0.149940672,-0.1648168,-0.217815984,0.113227224,0.14599824,0.179075472,-0.054470896,0.124363496,0.038717732,-0.132244248,0.0,0.003678923,0.011621974,-0.016112681,0.013992062,-0.013071455,0.0,-0.008834659,-0.007135066,0.02457812,0.000850863,0.051295072,-0.000616896,-0.006200685,0.019963652,0.0,0.0,0.047465816,-0.00627158,0.094366456,-0.002805972,0.015701471,0.0,0.108371392,-0.02041069,0.0,-0.02041069,0.0,0.0,0.032892882
56.0,-0.098731168,-0.155013856,0.032222162,-0.148343552,0.07784588,-0.082497136,-0.049051332,0.112272864,0.025703456,-0.16923184,-0.115236912,0.045796856,0.0686788,0.014781766,-0.205256128,-0.012304282,0.142602912,-0.149662032,0.03390674,-0.204705808,0.1643904,-0.103917944,0.159276592,-0.166342048,-0.06714872,0.170738496,0.01995862,-0.013909277,0.145024784,-0.23215608,0.004004552,0.110579712,0.123660824,-0.01430154,-0.138833552,0.137619312,-0.05421196,0.155693136,0.123660824,-0.061093296,-0.149940672,-0.1648168,-0.217815984,0.113227224,0.14599824,0.179075472,-0.054470896,0.124363496,0.038717732,-0.132244248,0.0,0.003678923,0.011621974,-0.016112681,0.013992062,-0.013071455,0.0,-0.008834659,-0.007135066,0.02457812,0.000850863,0.051295072,-0.000616896,-0.006200685,0.019963652,0.0,0.0,0.047465816,-0.00627158,0.094366456,-0.002805972,0.015701471,0.0,0.108371392,-0.02041069,0.0,-0.02041069,0.0,0.0,0.032892882
57.0,-0.098731168,-0.155013856,0.032222162,-0.148343552,0.07784588,-0.082497136,-0.049051332,0.112272864,0.025703456,-0.16923184,-0.115236912,0.045796856,0.0686788,0.014781766,-0.205256128,-0.012304282,0.142602912,-0.149662032,0.03390674,-0.204705808,0.1643904,-0.103917944,0.159276592,-0.166342048,-0.06714872,0.170738496,0.01995862,-0.013909277,0.145024784,-0.23215608,0.004004552,0.110579712,0.123660824,-0.01430154,-0.138833552,0.137619312,-0.05421196,0.155693136,0.123660824,-0.061093296,-0.149940672,-0.1648168,-0.217815984,0.113227224,0.14599824,0.179075472,-0.054470896,0.124363496,0.038717732,-0.132244248,0.0,0.003678923,0.011621974,-0.016112681,0.013992062,-0.013071455,0.0,-0.008834659,-0.007135066,0.02457812,0.000850863,0.051295072,-0.000616896,-0.006200685,0.019963652,0.0,0.0,0.047465816,-0.00627158,0.094366456,-0.002805972,0.015701471,0.0,0.108371392,-0.02041069,0.0,-0.02041069,0.0,0.0,0.032892882
58.0,-0.098731168,-0.155013856,0.032222162,-0.148343552,0.07784588,-0.082497136,-0.049051332,0.112272864,0.025703456,-0.16923184,-0.115236912,0.045796856,0.0686788,0.014781766,-0.205256128,-0.012304282,0.142602912,-0.149662032,0.03390674,-0.204705808,0.1643904,-0.103917944,0.159276592,-0.166342048,-0.06714872,0.170738496,0.01995862,-0.013909277,0.145024784,-0.23215608,0.004004552,0.110579712,0.123660824,-0.01430154,-0.138833552,0.137619312,-0.05421196,0.155693136,0.123660824,-0.061093296,-0.149940672,-0.1648168,-0.217815984,0.113227224,0.14599824,0.179075472,-0.054470896,0.124363496,0.038717732,-0.132244248,0.0,0.003678923,0.011621974,-0.016112681,0.013992062,-0.013071455,0.0,-0.008834659,-0.007135066,0.02457812,0.000850863,0.051295072,-0.000616896,-0.006200685,0.019963652,0.0,0.0,0.047465816,-0.00627158,0.094366456,-0.002805972,0.015701471,0.0,0.108371392,-0.02041069,0.0,-0.02041069,0.0,0.0,0.032892882
59.0,-0.098731168,-0.155013856,0.032222162,-0.148343552,0.07784588,-0.082497136,-0.049051332,0.112272864,0.025703456,-0.16923184,-0.115236912,0.045796856,0.0686788,0.014781766,-0.205256128,-0.012304282,0.142602912,-0.149662032,0.03390674,-0.204705808,0.1643904,-0.103917944,0.159276592,-0.166342048,-0.06714872,0.170738496,0.01995862,-0.013909277,0.145024784,-0.23215608,0.004004552,0.110579712,0.123660824,-0.01430154,-0.138833552,0.137619312,-0.05421196,0.155693136,0.123660824,-0.061093296,-0.149940672,-0.1648168,-0.217815984,0.113227224,0.14599824,0.179075472,-0.054470896,0.124363496,0.038717732,-0.132244248,0.0,0.002254482,-0.02758146,-0.016112681,-0.003388803,-0.02827167,0.0,-0.008834659,-0.02336789,-0.003977261,0.000850863,0.051295072,-0.000616896,-0.006200685,0.019963652,0.0,0.0,0.047465816,-0.00627158,0.094366456,-0.002805972,0.022104294,0.0,0.14595936,-0.011870882,0.0,-0.011870882,0.0,0.0,0.032892882
60.0,-0.098731168,-0.155013856,0.032222162,-0.148343552,0.07784588,-0.082497136,-0.049051332,0.112272864,0.025703456,-0.16923184,-0.115236912,0.045796856,0.0686788,0.014781766,-0.205256128,-0.012304282,0.142602912,-0.149662032,0.03390674,-0.204705808,0.1643904,-0.103917944,0.159276592,-0.166342048,-0.06714872,0.170738496,0.01995862,-0.013909277,0.145024784,-0.23215608,0.004004552,0.110579712,0.123660824,-0.01430154,-0.138833552,0.137619312,-0.05421196,0.155693136,0.123660824,-0.061093296,-0.149940672,-0.1648168,-0.217815984,0.113227224,0.14599824,0.179075472,-0.054470896,0.124363496,0.038717732,-0.132244248,0.0,0.002254482,-0.02758146,-0.016112681,-0.003388803,-0.02827167,0.0,-0.008834659,-0.02336789,-0.003977261,0.000850863,0.051295072,-0.000616896,-0.006200685,0.019963652,0.0,0.0,0.047465816,-0.00627158,0.094366456,-0.002805972,0.022104294,0.0,0.14595936,-0.011870882,0.0,-0.011870882,0.0,0.0,0.032892882
61.0,-0.098731168,-0.155013856,0.032222162,-0.148343552,0.07784588,-0.082497136,-0.049051332,0.112272864,0.025703456,-0.16923184,-0.115236912,0.045796856,0.0686788,0.014781766,-0.205256128,-0.012304282,0.142602912,-0.149662032,0.03390674,-0.204705808,0.1643904,-0.103917944,0.159276592,-0.166342048,-0.06714872,0.170738496,0.01995862,-0.013909277,0.145024784,-0.23215608,0.004004552,0.110579712,0.123660824,-0.01430154,-0.138833552,0.137619312,-0.05421196,0.155693136,0.123660824,-0.061093296,-0.149940672,-0.1648168,-0.217815984,0.113227224,0.14599824,0.179075472,-0.054470896,0.124363496,0.038717732,-0.132244248,0.0,0.002254482,-0.02758146,-0.016112681,-0.003388803,-0.02827167,0.0,-0.008834659,-0.02336789,-0.003977261,0.000850863,0.051295072,-0.000616896,-0.006200685,0.019963652,0.0,0.0,0.047465816,-0.00627158,0.094366456,-0.002805972,0.022104294,0.0,0.14595936,-0.011870882,0.0,-0.011870882,0.0,0.0,0.032892882
62.0,-0.098731168,-0.155013856,0.032222162,-0.148343552,0.07784588,-0.082497136,-0.049051332,0.112272864,0.025703456,-0.16923184,-0.115236912,0.045796856,0.0686788,0.014781766,-0.205256128,-0.012304282,0.142602912,-0.149662032,0.03390674,-0.204705808,0.1643904,-0.103917944,0.159276592,-0.166342048,-0.06714872,0.170738496,0.01995862,-0.013909277,0.145024784,-0.23215608,0.004004552,0.110579712,0.123660824,-0.01430154,-0.138833552,0.137619312,-0.05421196,0.155693136,0.123660824,-0.061093296,-0.149940672,-0.1648168,-0.217815984,0.113227224,0.14599824,0.179075472,-0.054470896,0.124363496,0.038717732,-0.132244248,0.0,0.002254482,-0.02758146,-0.016112681,-0.003388803,-0.02827167,0.0,-0.008834659,-0.02336789,-0.003977261,0.000850863,0.051295072,-0.000616896,-0.006200685,0.019963652,0.0,0.0,0.047465816,-0.00627158,0.094366456,-0.002805972,0.022104294,0.0,0.14595936,-0.011870882,0.0,-0.011870882,0.0,0.0,0.032892882
63.0,-0.098731168,-0.155013856,0.032222162,-0.148343552,0.07784588,-0.082497136,-0.049051332,0.112272864,0.025703456,-0.16923184,-0.115236912,0.045796856,0.0686788,0.014781766,-0.205256128,-0.012304282,0.142602912,-0.149662032,0.03390674,-0.204705808,0.1643904,-0.103917944,0.159276592,-0.166342048,-0.06714872,0.170738496,0.01995862,-0.013909277,0.145024784,-0.23215608,0.004004552,0.110579712,0.123660824,-0.01430154,-0.138833552,0.137619312,-0.05421196,0.155693136,0.123660824,-0.061093296,-0.149940672,-0.1648168,-0.217815984,0.113227224,0.14599824,0.179075472,-0.054470896,0.124363496,0.038717732,-0.132244248,0.0,0.002254482,-0.02758146,-0.016112681,-0.003388803,-0.02827167,0.0,-0.008834659,-0.02336789,-0.003977261,0.000850863,0.051295072,-0.000616896,-0.006200685,0.019963652,0.0,0.0,0.047465816,-0.00627158,0.094366456,-0.002805972,0.022104294,0.0,0.145958352,-0.011871415,0.0,-0.011871415,0.0,0.0,0.032892882
64.0,-0.098731168,-0.155013856,0.032222162,-0.148343552,0.07784588,-0.082497136,-0.049051332,0.112272864,0.025703456,-0.16923184,-0.115236912,0.045796856,0.0686788,0.014781766,-0.205256128,-0.012304282,0.142602912,-0.149662032,0.03390674,-0.204705808,0.1643904,-0.103917944,0.159276592,-0.166342048,-0.06714872,0.170738496,0.01995862,-0.013909277,0.145024784,-0.23215608,0.004004552,0.110579712,0.123660824,-0.01430154,-0.138833552,0.137619312,-0.05421196,0.155693136,0.123660824,-0.061093296,-0.149940672,-0.1648168,-0.217815984,0.113227224,0.14599824,0.179075472,-0.054470896,0.124363496,0.038717732,-0.132244248,0.0,0.002254482,-0.02758146,-0.016112681,-0.003388803,-0.02827167,0.0,-0.008834659,-0.02336789,-0.003977261,0.018507788,0.071622768,-0.000616896,-0.006200685,0.033852852,0.0,0.0,0.073934152,0.017020508,0.122716664,-0.007372197,0.0006136,0.0,0.108498864,-0.011871415,0.0,-0.011871415,0.0,0.0,0.032892882
65.0,-0.098731168,-0.155013856,0.032222162,-0.148343552,0.07784588,-0.082497136,-0.049051332,0.112272864,0.025703456,-0.16923184,-0.115236912,0.045796856,0.0686788,0.014781766,-0.205256128,-0.012304282,0.142602912,-0.149662032,0.03390674,-0.204705808,0.1643904,-0.103917944,0.159276592,-0.166342048,-0.06714872,0.170738496,0.01995862,-0.013909277,0.145024784,-0.23215608,0.004004552,0.110579712,0.123660824,-0.01430154,-0.138833552,0.137619312,-0.05421196,0.155693136,0.123660824,-0.061093296,-0.149940672,-0.1648168,-0.217815984,0.113227224,0.14599824,0.179075472,-0.054470896,0.124363496,0.038717732,-0.132244248,0.0,0.013065033,0.030185048,-0.016112681,0.01039136,-0.018401856,0.0,-0.008834659,-0.02336789,0.015639711,-0.004643641,0.071622768,-0.000616896,-0.006200685,0.033852852,0.0,0.0,0.040564832,0.016349109,0.120553376,-0.007372197,0.0006136,0.0,0.108498864,-0.011871415,0.0,-0.011871415,0.0,0.0,0.032892882
66.0,-0.098731168,-0.155013856,0.032222162,-0.148343552,0.07784588,-0.082497136,-0.049051332,0.112272864,0.025703456,-0.16923184,-0.115236912,0.045796856,0.0686788,0.014781766,-0.205256128,-0.012304282,0.142602912,-0.149662032,0.03390674,-0.204705808,0.1643904,-0.103917944,0.159276592,-0.166342048,-0.06714872,0.170738496,0.01995862,-0.013909277,0.145024784,-0.23215608,0.004004552,0.110579712,0.123660824,-0.01430154,-0.138833552,0.137619312,-0.05421196,0.155693136,0.123660824,-0.061093296,-0.149940672,-0.1648168,-0.217815984,0.113227224,0.14599824,0.179075472,-0.054470896,0.124363496,0.038717732,-0.132244248,0.0,0.013065033,0.030185048,-0.016112681,0.01039136,-0.018401856,0.0,-0.008834659,-0.02336789,0.015639711,-0.004643641,0.071622768,-0.000616896,-0.006200685,0.033852852,0.0,0.0,0.040564832,0.016349109,0.120553376,-0.007372197,0.0006136,0.0,0.108498864,-0.011871415,0.0,-0.011871415,0.0,0.0,0.032892882
67.0,-0.098731168,-0.155013856,0.032222162,-0.148343552,0.07784588,-0.082497136,-0.049051332,0.112272864,0.025703456,-0.16923184,-0.115236912,0.045796856,0.0686788,0.014781766,-0.205256128,-0.012304282,0.142602912,-0.149662032,0.03390674,-0.204705808,0.1643904,-0.103917944,0.159276592,-0.166342048,-0.06714872,0.170738496,0.01995862,-0.013909277,0.145024784,-0.23215608,0.004004552,0.110579712,0.123660824,-0.01430154,-0.138833552,0.137619312,-0.05421196,0.155693136,0.123660824,-0.061093296,-0.149940672,-0.1648168,-0.217815984,0.113227224,0.14599824,0.179075472,-0.054470896,0.124363496,0.038717732,-0.132244248,0.0,0.013065033,0.030185048,-0.016112681,0.01039136,-0.018401856,0.0,-0.008834659,-0.02336789,0.015639711,-0.004643641,0.071622768,-0.000616896,-0.006200685,0.033852852,0.0,0.0,0.040564832,0.016349109,0.120553376,-0.007372197,0.0006136,0.0,0.108498864,-0.011871415,0.0,-0.011871415,0.0,0.0,0.032892882
68.0,-0.098731168,-0.155013856,0.032222162,-0.148343552,0.07784588,-0.082497136,-0.049051332,0.112272864,0.025703456,-0.16923184,-0.115236912,0.045796856,0.0686788,0.014781766,-0.205256128,-0.012304282,0.142602912,-0.149662032,0.03390674,-0.204705808,0.1643904,-0.103917944,0.159276592,-0.166342048,-0.06714872,0.170738496,0.01995862,-0.013909277,0.145024784,-0.23215608,0.004004552,0.110579712,0.123660824,-0.01430154,-0.138833552,0.137619312,-0.05421196,0.155693136,0.123660824,-0.061093296,-0.149940672,-0.1648168,-0.217815984,0.113227224,0.14599824,0.179075472,-0.054470896,0.124363496,0.038717732,-0.132244248,0.0,0.013065033,0.030185048,-0.016112681,0.01039136,-0.018401856,0.0,-0.008834659,-0.02336789,0.015639711,-0.004643641,0.071622768,-0.000616896,-0.006200685,0.033852852,0.0,0.0,0.040564832,0.016349109,0.120553376,-0.007372197,0.0006136,0.0,0.108498864,-0.011871415,0.0,-0.011871415,0.0,0.0,0.032892882
69.0,-0.098731168,-0.155013856,0.032222162,-0.148343552,0.07784588,-0.082497136,-0.049051332,0.112272864,0.025703456,-0.16923184,-0.115236912,0.045796856,0.0686788,0.014781766,-0.205256128,-0.012304282,0.142602912,-0.149662032,0.03390674,-0.204705808,0.1643904,-0.103917944,0.159276592,-0.166342048,-0.06714872,0.170738496,0.01995862,-0.013909277,0.145024784,-0.23215608,0.004004552,0.110579712,0.123660824,-0.01430154,-0.138833552,0.137619312,-0.05421196,0.155693136,0.123660824,-0.061093296,-0.149940672,-0.1648168,-0.217815984,0.113227224,0.14599824,0.179075472,-0.054470896,0.124363496,0.038717732,-0.132244248,0.0,0.013065033,0.030185048,-0.016112681,0.01039136,-0.018401856,0.0,-0.008834659,-0.02336789,0.015639711,-0.004643641,0.071622768,-0.000616896,-0.006200685,0.033852852,0.0,0.0,0.040564832,0.016349109,0.120553376,-0.007372197,0.0006136,0.0,0.108498864,-0.011871415,0.0,-0.011871415,0.0,0.0,0.032892882
70.0,-0.098731168,-0.155013856,0.032222162,-0.148343552,0.07784588,-0.082497136,-0.049051332,0.112272864,0.025703456,-0.16923184,-0.115236912,0.045796856,0.0686788,0.014781766,-0.205256128,-0.012304282,0.142602912,-0.149662032,0.03390674,-0.204705808,0.1643904,-0.103917944,0.159276592,-0.166342048,-0.06714872,0.170738496,0.01995862,-0.013909277,0.145024784,-0.23215608,0.004004552,0.110579712,0.123660824,-0.01430154,-0.138833552,0.137619312,-0.05421196,0.155693136,0.123660824,-0.061093296,-0.149940672,-0.1648168,-0.217815984,0.113227224,0.14599824,0.179075472,-0.054470896,0.124363496,0.038717732,-0.132244248,0.0,0.011329624,0.003776824,-0.030233908,-0.011341974,-0.023609654,0.0,-0.008834659,-0.038703832,-0.003607299,-0.004643641,0.071622768,-0.000616896,-0.006200685,0.033852852,0.0,0.0,0.040564832,0.016349109,0.120553376,-0.007372197,0.02671353,0.0,0.149163216,-0.00877656,0.0,-0.00877656,0.0,0.0,0.032892882
71.0,-0.098731168,-0.155013856,0.032222162,-0.148343552,0.07784588,-0.082497136,-0.049051332,0.112272864,0.025703456,-0.16923184,-0.115236912,0.045796856,0.0686788,0.014781766,-0.205256128,-0.012304282,0.142602912,-0.149662032,0.03390674,-0.204705808,0.1643904,-0.103917944,0.159276592,-0.166342048,-0.06714872,0.170738496,0.01995862,-0.013909277,0.145024784,-0.23215608,0.004004552,0.110579712,0.123660824,-0.01430154,-0.138833552,0.137619312,-0.05421196,0.155693136,0.123660824,-0.061093296,-0.149940672,-0.1648168,-0.217815984,0.113227224,0.14599824,0.179075472,-0.054470896,0.124363496,0.038717732,-0.132244248,0.0,0.013938193,0.033368572,-0.030233908,-0.001437023,-0.022928554,0.0,-0.008834659,-0.02572311,0.015224895,-0.004643641,0.071622768,-0.000616896,-0.006200685,0.033852852,0.0,0.0,0.040564832,0.016349109,0.120553376,-0.007372197,0.015274707,0.0,0.101504224,-0.02347652,0.0,-0.02347652,0.0,0.0,0.032892882
72.0,-0.098731168,-0.155013856,0.032222162,-0.148343552,0.07784588,-0.082497136,-0.049051332,0.112272864,0.025703456,-0.16923184,-0.115236912,0.045796856,0.0686788,0.014781766,-0.205256128,-0.012304282,0.142602912,-0.149662032,0.03390674,-0.204705808,0.1643904,-0.103917944,0.159276592,-0.166342048,-0.06714872,0.170738496,0.01995862,-0.013909277,0.145024784,-0.23215608,0.004004552,0.110579712,0.123660824,-0.01430154,-0.138833552,0.137619312,-0.05421196,0.155693136,0.123660824,-0.061093296,-0.149940672,-0.1648168,-0.217815984,0.113227224,0.14599824,0.179075472,-0.054470896,0.124363496,0.038717732,-0.132244248,0.0,0.008451371,-0.011023346,-0.030513864,-0.017055106,-0.030345288,0.0,-0.008834659,-0.037432336,-0.009188792,-0.004643641,0.071622768,-0.000616896,-0.006200685,0.033852852,0.0,0.0,0.040564832,0.016349109,0.120553376,-0.007372197,0.017983762,0.0,0.135110192,-0.006471812,0.0,-0.006471812,0.0,0.0,0.032892882
73.0,-0.098731168,-0.155013856,0.032222162,-0.148343552,0.07784588,-0.082497136,-0.049051332,0.112272864,0.025703456,-0.16923184,-0.115236912,0.045796856,0.0686788,0.014781766,-0.205256128,-0.012304282,0.142602912,-0.149662032,0.03390674,-0.204705808,0.1643904,-0.103917944,0.159276592,-0.166342048,-0.06714872,0.170738496,0.01995862,-0.013909277,0.145024784,-0.23215608,0.004004552,0.110579712,0.123660824,-0.01430154,-0.138833552,0.137619312,-0.05421196,0.155693136,0.123660824,-0.061093296,-0.149940672,-0.1648168,-0.217815984,0.113227224,0.14599824,0.179075472,-0.054470896,0.124363496,0.038717732,-0.132244248,0.0,0.008451371,-0.011023346,-0.030513864,-0.017055106,-0.030345288,0.0,-0.008834659,-0.037432336,-0.009188792,-0.004643641,0.071622768,-0.000616896,-0.006200685,0.033852852,0.0,0.0,0.040564832,0.016349109,0.120553376,-0.007372197,0.017983762,0.0,0.135110192,-0.006471812,0.0,-0.006471812,0.0,0.0,0.032892882
74.0,-0.098731168,-0.155013856,0.032222162,-0.148343552,0.07784588,-0.082497136,-0.049051332,0.112272864,0.025703456,-0.16923184,-0.115236912,0.045796856,0.0686788,0.014781766,-0.205256128,-0.012304282,0.142602912,-0.149662032,0.03390674,-0.204705808,0.1643904,-0.103917944,0.159276592,-0.166342048,-0.06714872,0.170738496,0.01995862,-0.013909277,0.145024784,-0.23215608,0.004004552,0.110579712,0.123660824,-0.01430154,-0.138833552,0.137619312,-0.05421196,0.155693136,0.123660824,-0.061093296,-0.149940672,-0.1648168,-0.217815984,0.113227224,0.14599824,0.179075472,-0.054470896,0.124363496,0.038717732,-0.132244248,0.0,0.008451371,-0.011023346,-0.030513864,-0.017055106,-0.030345288,0.0,-0.008834659,-0.037432336,-0.009188792,-0.004643641,0.071622768,-0.000616896,-0.006200685,0.033852852,0.0,0.0,0.040564832,0.016349109,0.120553376,-0.007372197,0.017983762,0.0,0.135110192,-0.006471812,0.0,-0.006471812,0.0,0.0,0.032892882
75.0,-0.098731168,-0.155013856,0.032222162,-0.148343552,0.07784588,-0.082497136,-0.049051332,0.112272864,0.025703456,-0.16923184,-0.115236912,0.045796856,0.0686788,0.014781766,-0.205256128,-0.012304282,0.142602912,-0.149662032,0.03390674,-0.204705808,0.1643904,-0.103917944,0.17651128,-0.153368544,-0.06714872,0.170738496,0.01995862,-0.004217123,0.173628352,-0.226652928,0.004004552,0.110579712,0.123660824,-0.01430154,-0.138833552,0.137619312,-0.05421196,0.155693136,0.123660824,-0.061093296,-0.149940672,-0.1648168,-0.217815984,0.113227224,0.14599824,0.179075472,-0.054470896,0.124363496,0.038717732,-0.132244248,0.0,0.008451371,-0.011023346,-0.030513864,-0.017055106,-0.030345288,0.0,-0.008834659,-0.037432336,-0.009188792,-0.004643641,0.071622768,-0.000616896,-0.006200685,0.033852852,0.0,0.0,0.040564832,-0.003425836,0.120553376,-0.007372197,0.017983762,0.0,0.135110192,-0.006471812,0.0,-0.006471812,0.0,0.0,0.032892882
76.0,-0.098731168,-0.14717472,0.058430312,-0.148343552,0.07784588,-0.082497136,-0.048014608,0.112272864,0.025703456,-0.157605936,-0.115236912,0.045796856,0.0686788,0.014781766,-0.205256128,-0.012304282,0.142602912,-0.149662032,0.03390674,-0.204705808,0.1643904,-0.103917944,0.17651128,-0.153368544,-0.06714872,0.170738496,0.01995862,-0.004217123,0.173628352,-0.226652928,0.004004552,0.110579712,0.123660824,-0.01430154,-0.138833552,0.137619312,-0.05421196,0.155693136,0.123660824,-0.061093296,-0.149940672,-0.1648168,-0.217815984,0.113227224,0.14599824,0.179075472,-0.054470896,0.124363496,0.038717732,-0.132244248,0.0,0.008451371,-0.011023346,-0.030513864,-0.017055106,-0.030345288,0.0,-0.008834659,-0.037432336,-0.009188792,-0.004643641,0.071622768,-0.000616896,-0.006200685,0.033852852,0.0,0.0,0.040564832,-0.003425836,0.120553376,-0.007372197,0.017983762,0.0,0.116839824,-0.017474812,0.0,-0.017474812,0.0,0.0,0.031856156
77.0,-0.098731168,-0.151563376,0.047994756,-0.148343552,0.07784588,-0.082497136,-0.059062888,0.112272864,0.025703456,-0.186646496,-0.115236912,0.045796856,0.0686788,0.014781766,-0.205256128,-0.012304282,0.142602912,-0.149662032,0.03390674,-0.204705808,0.1643904,-0.103917944,0.17651128,-0.153368544,-0.06714872,0.170738496,0.01995862,-0.004217123,0.173628352,-0.226652928,0.004004552,0.110579712,0.123660824,-0.01430154,-0.138833552,0.137619312,-0.05421196,0.155693136,0.123660824,-0.061093296,-0.149940672,-0.1648168,-0.217815984,0.113227224,0.14599824,0.179075472,-0.054470896,0.124363496,0.038717732,-0.132244248,0.0,0.008451371,-0.011023346,-0.030513864,-0.017055106,-0.030345288,0.0,-0.008834659,-0.037432336,-0.009188792,-0.004643641,0.071622768,-0.000616896,-0.006200685,0.033852852,0.0,0.0,0.040564832,-0.003425836,0.120553376,-0.007372197,0.017983762,0.0,0.158158112,0.007217316,0.0,0.007217316,0.0,0.0,0.042904436
78.0,-0.098731168,-0.151563376,0.047994756,-0.148343552,0.07784588,-0.082497136,-0.059062888,0.112272864,0.025703456,-0.186646496,-0.115236912,0.045796856,0.0686788,0.014781766,-0.205256128,-0.012304282,0.142602912,-0.149662032,0.03390674,-0.204705808,0.1643904,-0.103917944,0.17651128,-0.153368544,-0.06714872,0.170738496,0.01995862,-0.004217123,0.173628352,-0.226652928,0.004004552,0.110579712,0.123660824,-0.01430154,-0.138833552,0.137619312,-0.05421196,0.155693136,0.123660824,-0.061093296,-0.149940672,-0.1648168,-0.217815984,0.113227224,0.14599824,0.179075472,-0.054470896,0.124363496,0.038717732,-0.132244248,0.0,0.008451371,-0.011023346,-0.030513864,-0.017055106,-0.030345288,0.0,-0.008834659,-0.037432336,-0.009188792,-0.004643641,0.071622768,-0.000616896,-0.006200685,0.033852852,0.0,0.0,0.040564832,-0.003425836,0.120553376,-0.007372197,0.017983762,0.0,0.158158112,0.007217316,0.0,0.007217316,0.0,0.0,0.042904436
79.0,-0.098731168,-0.151563376,0.047994756,-0.148343552,0.07784588,-0.082497136,-0.059062888,0.112272864,0.025703456,-0.186646496,-0.115236912,0.045796856,0.0686788,0.014781766,-0.205256128,-0.012304282,0.142602912,-0.149662032,0.03390674,-0.204705808,0.1643904,-0.103917944,0.17651128,-0.153368544,-0.06714872,0.170738496,0.01995862,-0.004217123,0.173628352,-0.226652928,0.004004552,0.110579712,0.123660824,-0.01430154,-0.138833552,0.137619312,-0.05421196,0.155693136,0.123660824,-0.061093296,-0.149940672,-0.1648168,-0.217815984,0.113227224,0.14599824,0.179075472,-0.054470896,0.124363496,0.038717732,-0.132244248,0.0,0.008451371,-0.011023346,-0.030513864,-0.017055106,-0.030345288,0.0,-0.008834659,-0.037432336,-0.009188792,-0.004643641,0.071622768,-0.000616896,-0.006200685,0.033852852,0.0,0.0,0.040564832,-0.003425836,0.120553376,-0.007372197,0.017983762,0.0,0.158158112,0.007217316,0.0,0.007217316,0.0,0.0,0.042904436
80.0,-0.098731168,-0.139364832,0.048191228,-0.143313296,0.07784588,-0.082497136,-0.059062888,0.112272864,0.025703456,-0.156246208,-0.115236912,0.045796856,0.0686788,0.014781766,-0.205256128,-0.012304282,0.142602912,-0.149662032,0.03390674,-0.204705808,0.1643904,-0.103917944,0.17651128,-0.153368544,-0.06714872,0.170738496,0.01995862,-0.004217123,0.173628352,-0.226652928,0.004004552,0.110579712,0.123660824,-0.01430154,-0.138833552,0.137619312,-0.05421196,0.155693136,0.123660824,-0.061093296,-0.149940672,-0.1648168,-0.217815984,0.113227224,0.14599824,0.179075472,-0.054470896,0.124363496,0.038717732,-0.132244248,0.0,0.008451371,-0.011023346,-0.030513864,-0.017055106,-0.030345288,0.0,-0.008834659,-0.037432336,-0.009188792,-0.004643641,0.071622768,-0.000616896,-0.006200685,0.033852852,0.0,0.0,0.040564832,-0.003425836,0.120553376,-0.007422241,0.006966235,0.0,0.14893064,0.007217316,0.0,0.007217316,0.0,0.0,0.042904436
81.0,-0.098731168,-0.142784336,0.0376997,-0.153106528,0.07784588,-0.082497136,-0.059062888,0.112272864,0.025703456,-0.190573264,-0.115236912,0.045796856,0.0686788,0.014781766,-0.205256128,-0.012304282,0.142602912,-0.149662032,0.03390674,-0.204705808,0.1643904,-0.103917944,0.17651128,-0.153368544,-0.06714872,0.170738496,0.01995862,-0.004217123,0.173628352,-0.226652928,0.004004552,0.110579712,0.123660824,-0.01430154,-0.138833552,0.137619312,-0.05421196,0.155693136,0.123660824,-0.061093296,-0.149940672,-0.1648168,-0.217815984,0.113227224,0.14599824,0.179075472,-0.054470896,0.124363496,0.038717732,-0.132244248,0.0,0.010566377,0.031421762,-0.030513864,-0.007026971,-0.019853762,0.0,-0.008834659,-0.034012832,0.01384056,-0.004643641,0.071622768,-0.000616896,-0.006200685,0.033852852,0.0,0.0,0.040564832,-0.003425836,0.120553376,-0.007422241,0.006966235,0.0,0.14893064,0.007217316,0.0,0.007217316,0.0,0.0,0.042904436
82.0,-0.098731168,-0.142784336,0.0376997,-0.153106528,0.07784588,-0.082497136,-0.059062888,0.112272864,0.025703456,-0.190573264,-0.115236912,0.045796856,0.0686788,0.014781766,-0.205256128,-0.012304282,0.142602912,-0.149662032,0.03390674,-0.204705808,0.1643904,-0.103917944,0.17651128,-0.153368544,-0.06714872,0.170738496,0.01995862,-0.004217123,0.173628352,-0.226652928,0.004004552,0.110579712,0.123660824,-0.01430154,-0.138833552,0.137619312,-0.05421196,0.155693136,0.123660824,-0.061093296,-0.149940672,-0.1648168,-0.217815984,0.113227224,0.14599824,0.179075472,-0.054470896,0.124363496,0.038717732,-0.132244248,0.0,0.010566377,0.031421762,-0.030513864,-0.007026971,-0.019853762,0.0,-0.008834659,-0.034012832,0.01384056,-0.004643641,0.071622768,-0.000616896,-0.006200685,0.033852852,0.0,0.0,0.040564832,-0.003425836,0.120553376,-0.007422241,0.006966235,0.0,0.14893064,0.007217316,0.0,0.007217316,0.0,0.0,0.042904436
83.0,-0.098731168,-0.142784336,0.0376997,-0.153106528,0.07784588,-0.082497136,-0.059062888,0.112272864,0.025703456,-0.190573264,-0.115236912,0.045796856,0.0686788,0.014781766,-0.205256128,-0.012304282,0.142602912,-0.149662032,0.03390674,-0.204705808,0.1643904,-0.103917944,0.17651128,-0.153368544,-0.06714872,0.170738496,0.01995862,-0.004217123,0.173628352,-0.226652928,0.004004552,0.110579712,0.123660824,-0.01430154,-0.138833552,0.137619312,-0.05421196,0.155693136,0.123660824,-0.061093296,-0.149940672,-0.1648168,-0.217815984,0.113227224,0.14599824,0.179075472,-0.054470896,0.124363496,0.038717732,-0.132244248,0.0,0.010566377,-0.005404744,-0.030513864,-0.015216882,-0.028052134,0.0,-0.008834659,-0.045314536,-0.007961195,-0.004643641,0.071622768,-0.000616896,-0.006200685,0.033852852,0.0,0.0,0.040564832,-0.003425836,0.120553376,-0.007422241,0.006966235,0.0,0.186981888,0.01614742,0.0,0.01614742,0.0,0.0,0.048999304
84.0,-0.098731168,-0.142784336,0.0376997,-0.153106528,0.07784588,-0.082497136,-0.059062888,0.112272864,0.025703456,-0.190573264,-0.115236912,0.045796856,0.0686788,0.014781766,-0.205256128,-0.012304282,0.142602912,-0.149662032,0.03390674,-0.204705808,0.1643904,-0.103917944,0.17651128,-0.153368544,-0.06714872,0.170738496,0.01995862,-0.004217123,0.173628352,-0.226652928,0.004004552,0.110579712,0.123660824,-0.01430154,-0.138833552,0.137619312,-0.05421196,0.155693136,0.123660824,-0.061093296,-0.149940672,-0.1648168,-0.217815984,0.113227224,0.14599824,0.179075472,-0.054470896,0.124363496,0.038717732,-0.132244248,0.0,0.010566377,-0.005404744,-0.030513864,-0.015216882,-0.028052134,0.0,-0.008834659,-0.045314536,-0.007961195,-0.004643641,0.071622768,-0.000616896,-0.006200685,0.033852852,0.0,0.0,0.040564832,-0.003425836,0.120553376,-0.007422241,0.006966235,0.0,0.186981888,0.01614742,0.0,0.01614742,0.0,0.0,0.048999304
85.0,-0.098731168,-0.142784336,0.0376997,-0.153106528,0.07784588,-0.082497136,-0.059062888,0.112272864,0.025703456,-0.190573264,-0.115236912,0.045796856,0.0686788,0.014781766,-0.205256128,-0.012304282,0.142602912,-0.149662032,0.03390674,-0.204705808,0.1643904,-0.103917944,0.17651128,-0.153368544,-0.06714872,0.170738496,0.01995862,-0.004217123,0.173628352,-0.226652928,0.004004552,0.110579712,0.123660824,-0.01430154,-0.138833552,0.137619312,-0.05421196,0.155693136,0.123660824,-0.061093296,-0.149940672,-0.1648168,-0.217815984,0.113227224,0.14599824,0.179075472,-0.054470896,0.124363496,0.038717732,-0.132244248,0.0,0.010566377,-0.005404744,-0.030513864,-0.015216882,-0.028052134,0.0,-0.008834659,-0.045314536,-0.007961195,-0.004643641,0.071622768,-0.000616896,-0.006200685,0.033852852,0.0,0.0,0.040564832,-0.003425836,0.120553376,-0.007422241,0.006966235,0.0,0.186981888,0.01614742,0.0,0.01614742,0.0,0.0,0.048999304
86.0,-0.098731168,-0.142784336,0.0376997,-0.153106528,0.07784588,-0.082497136,-0.059062888,0.112272864,0.025703456,-0.190573264,-0.115236912,0.045796856,0.0686788,0.014781766,-0.205256128,-0.012304282,0.142602912,-0.149662032,0.03390674,-0.204705808,0.1643904,-0.103917944,0.17651128,-0.153368544,-0.06714872,0.170738496,0.01995862,-0.004217123,0.173628352,-0.226652928,0.004004552,0.110579712,0.123660824,-0.01430154,-0.138833552,0.137619312,-0.05421196,0.155693136,0.123660824,-0.061093296,-0.149940672,-0.1648168,-0.217815984,0.113227224,0.14599824,0.179075472,-0.054470896,0.124363496,0.038717732,-0.132244248,0.0,0.015104422,0.04042834,-0.030513864,0.002913852,-0.01975074,0.0,-0.008834659,-0.045314536,0.012195686,-0.004643641,0.071622768,-0.000616896,-0.006200685,0.033852852,0.0,0.0,0.040564832,-0.003425836,0.120553376,-0.007422241,0.004591805,0.0,0.153198864,-0.005700651,0.0,-0.005700651,0.0,0.0,0.048999304
87.0,-0.098731168,-0.142784336,0.0376997,-0.153106528,0.07784588,-0.082497136,-0.059062888,0.112272864,0.025703456,-0.190573264,-0.115236912,0.045796856,0.0686788,0.014781766,-0.205256128,-0.012304282,0.142602912,-0.149662032,0.03390674,-0.204705808,0.1643904,-0.103917944,0.17651128,-0.153368544,-0.06714872,0.170738496,0.01995862,-0.004217123,0.173628352,-0.226652928,0.004004552,0.110579712,0.123660824,-0.01430154,-0.138833552,0.137619312,-0.05421196,0.155693136,0.123660824,-0.061093296,-0.149940672,-0.1648168,-0.217815984,0.113227224,0.14599824,0.179075472,-0.054470896,0.124363496,0.038717732,-0.132244248,0.0,0.015104422,0.04042834,-0.030513864,0.002913852,-0.01975074,0.0,-0.008834659,-0.045314536,0.012195686,-0.004643641,0.071622768,-0.000616896,-0.006200685,0.033852852,0.0,0.0,0.040564832,-0.003425836,0.120553376,-0.007422241,0.004591805,0.0,0.153198864,-0.005700651,0.0,-0.005700651,0.0,0.0,0.048999304
88.0,-0.098731168,-0.142784336,0.0376997,-0.153106528,0.07784588,-0.082497136,-0.059062888,0.112272864,0.025703456,-0.190573264,-0.115236912,0.045796856,0.0686788,0.014781766,-0.205256128,-0.012304282,0.142602912,-0.149662032,0.03390674,-0.204705808,0.1643904,-0.103917944,0.17651128,-0.153368544,-0.06714872,0.170738496,0.01995862,-0.004217123,0.173628352,-0.226652928,0.004004552,0.110579712,0.123660824,-0.01430154,-0.138833552,0.137619312,-0.05421196,0.155693136,0.123660824,-0.061093296,-0.149940672,-0.1648168,-0.217815984,0.113227224,0.14599824,0.179075472,-0.054470896,0.124363496,0.038717732,-0.132244248,0.0,0.015104422,0.04042834,-0.030513864,0.002913852,-0.01975074,0.0,-0.008834659,-0.045314536,0.012195686,-0.004643641,0.071622768,-0.000616896,-0.006200685,0.033852852,0.0,0.0,0.040564832,-0.003425836,0.120553376,-0.007422241,0.004591805,0.0,0.153198864,-0.005700651,0.0,-0.005700651,0.0,0.0,0.048999304
89.0,-0.098731168,-0.142784336,0.0376997,-0.153106528,0.07784588,-0.082497136,-0.059062888,0.112272864,0.025703456,-0.190573264,-0.115236912,0.045796856,0.0686788,0.014781766,-0.205256128,-0.012304282,0.142602912,-0.149662032,0.03390674,-0.204705808,0.1643904,-0.103917944,0.17651128,-0.153368544,-0.06714872,0.170738496,0.01995862,-0.004217123,0.173628352,-0.226652928,0.004004552,0.110579712,0.123660824,-0.01430154,-0.138833552,0.137619312,-0.05421196,0.155693136,0.123660824,-0.061093296,-0.149940672,-0.1648168,-0.217815984,0.113227224,0.14599824,0.179075472,-0.054470896,0.124363496,0.038717732,-0.132244248,0.0,0.009501854,-0.004628721,-0.030513864,-0.003353419,-0.033781724,0.0,-0.008834659,-0.053930388,-0.024226872,0.010111479,0.083177648,-0.000616896,-0.006200685,0.040756444,0.0,0.003489758,0.072017968,0.011955836,0.1419404,-0.007422241,0.004591805,0.0,0.153198864,-0.005700651,0.0,-0.005700651,0.0,0.0,0.048999304
90.0,-0.098731168,-0.142784336,0.0376997,-0.153106528,0.07784588,-0.082497136,-0.059062888,0.112272864,0.025703456,-0.190573264,-0.115236912,0.045796856,0.0686788,0.014781766,-0.205256128,-0.012304282,0.142602912,-0.149662032,0.03390674,-0.204705808,0.1643904,-0.103917944,0.17651128,-0.153368544,-0.06714872,0.170738496,0.01995862,-0.004217123,0.173628352,-0.226652928,0.004004552,0.110579712,0.123660824,-0.01430154,-0.138833552,0.137619312,-0.05421196,0.155693136,0.123660824,-0.061093296,-0.149940672,-0.1648168,-0.217815984,0.113227224,0.14599824,0.179075472,-0.054470896,0.124363496,0.038717732,-0.132244248,0.0,0.009501854,-0.004628721,-0.030513864,-0.003353419,-0.033781724,0.0,-0.008834659,-0.053930388,-0.024226872,0.010111479,0.083177648,-0.000616896,-0.006200685,0.040756444,0.0,0.003489758,0.072017968,0.011955836,0.1419404,-0.007422241,0.004591805,0.0,0.153198864,-0.005700651,0.0,-0.005700651,0.0,0.0,0.048999304
91.0,-0.098731168,-0.142784336,0.0376997,-0.153106528,0.07784588,-0.082497136,-0.059062888,0.112272864,0.025703456,-0.190573264,-0.115236912,0.045796856,0.0686788,0.014781766,-0.205256128,-0.012304282,0.142602912,-0.149662032,0.03390674,-0.204705808,0.1643904,-0.103917944,0.17651128,-0.153368544,-0.06714872,0.170738496,0.01995862,-0.004217123,0.173628352,-0.226652928,0.004004552,0.110579712,0.123660824,-0.01430154,-0.138833552,0.137619312,-0.05421196,0.155693136,0.123660824,-0.061093296,-0.149940672,-0.1648168,-0.217815984,0.113227224,0.14599824,0.179075472,-0.054470896,0.124363496,0.038717732,-0.132244248,0.0,0.009501854,-0.004628721,-0.030513864,-0.003353419,-0.033781724,0.0,-0.008834659,-0.053930388,-0.024226872,0.010111479,0.083177648,-0.000616896,-0.006200685,0.040756444,0.0,0.003489758,0.072017968,0.011955836,0.1419404,-0.007422241,0.004591805,0.0,0.153198864,-0.005700651,0.0,-0.005700651,0.0,0.0,0.048999304
92.0,-0.098731168,-0.142784336,0.0376997,-0.153106528,0.07784588,-0.082497136,-0.059062888,0.112272864,0.025703456,-0.190573264,-0.115236912,0.045796856,0.0686788,0.014781766,-0.205256128,-0.012304282,0.142602912,-0.149662032,0.03390674,-0.204705808,0.1643904,-0.103917944,0.17651128,-0.153368544,-0.06714872,0.170738496,0.01995862,-0.004217123,0.173628352,-0.226652928,0.004004552,0.110579712,0.123660824,-0.01430154,-0.138833552,0.137619312,-0.05421196,0.155693136,0.123660824,-0.061093296,-0.149940672,-0.1648168,-0.217815984,0.113227224,0.14599824,0.179075472,-0.054470896,0.124363496,0.038717732,-0.132244248,0.0,0.009501854,-0.004628721,-0.030513864,-0.003353419,-0.033781724,0.0,-0.008834659,-0.053930388,-0.024226872,0.010111479,0.083177648,-0.000616896,-0.006200685,0.040756444,0.0,0.003489758,0.072017968,0.011955836,0.1419404,-0.007422241,0.004591805,0.0,0.153198864,-0.005700651,0.0,-0.005700651,0.0,0.0,0.048999304
93.0,-0.098731168,-0.142784336,0.0376997,-0.153106528,0.07784588,-0.082497136,-0.059062888,0.112272864,0.025703456,-0.190573264,-0.115236912,0.045796856,0.0686788,0.014781766,-0.205256128,-0.012304282,0.142602912,-0.149662032,0.03390674,-0.204705808,0.1643904,-0.103917944,0.17651128,-0.153368544,-0.06714872,0.170738496,0.01995862,-0.004217123,0.173628352,-0.226652928,0.004004552,0.110579712,0.123660824,-0.01430154,-0.138833552,0.137619312,-0.05421196,0.155693136,0.123660824,-0.061093296,-0.149940672,-0.1648168,-0.217815984,0.113227224,0.14599824,0.179075472,-0.054470896,0.124363496,0.038717732,-0.132244248,0.0,0.009501854,-0.004628721,-0.030513864,-0.003353419,-0.033781724,0.0,-0.008834659,-0.053930388,-0.024226872,0.002069626,0.083177648,-0.007569086,-0.006200685,0.040756444,0.0,0.003489758,0.025799092,-0.002826057,0.1419404,-0.007422241,0.004591805,0.0,0.185958592,0.003253812,0.0,0.003253812,0.0,0.0,0.072880336
94.0,-0.098731168,-0.142784336,0.0376997,-0.153106528,0.07784588,-0.082497136,-0.059062888,0.112272864,0.025703456,-0.190573264,-0.115236912,0.045796856,0.0686788,0.014781766,-0.205256128,-0.012304282,0.142602912,-0.149662032,0.03390674,-0.204705808,0.1643904,-0.103917944,0.17651128,-0.153368544,-0.06714872,0.170738496,0.01995862,-0.004217123,0.173628352,-0.226652928,0.004004552,0.110579712,0.123660824,-0.01430154,-0.138833552,0.137619312,-0.05421196,0.155693136,0.123660824,-0.061093296,-0.149940672,-0.1648168,-0.217815984,0.113227224,0.14599824,0.179075472,-0.054470896,0.124363496,0.038717732,-0.132244248,0.0,0.009501854,-0.004628721,-0.030513864,-0.003353419,-0.033781724,0.0,-0.008834659,-0.053930388,-0.024226872,0.002069626,0.083177648,-0.007569086,-0.006200685,0.040756444,0.0,0.003489758,0.025799092,-0.002826057,0.1419404,-0.007422241,0.004591805,0.0,0.185958592,0.003253812,0.0,0.003253812,0.0,0.0,0.072880336
95.0,-0.098731168,-0.142784336,0.016076604,-0.153106528,0.07784588,-0.082497136,-0.069044392,0.112272864,0.013790998,-0.204092208,-0.115236912,0.045796856,0.0686788,0.014781766,-0.205256128,-0.012304282,0.142602912,-0.149662032,0.03390674,-0.204705808,0.1643904,-0.103917944,0.17651128,-0.153368544,-0.06714872,0.170738496,0.01995862,-0.004217123,0.173628352,-0.226652928,0.004004552,0.110579712,0.123660824,-0.01430154,-0.138833552,0.137619312,-0.05421196,0.155693136,0.123660824,-0.061093296,-0.149940672,-0.1648168,-0.217815984,0.113227224,0.14599824,0.179075472,-0.054470896,0.124363496,0.038717732,-0.132244248,0.0,0.009501854,-0.004628721,-0.030513864,-0.003353419,-0.033781724,0.0,-0.008834659,-0.053930388,-0.024226872,0.020830424,0.08935044,-0.007569086,-0.006200685,0.040756444,0.0,0.00531458,0.050693416,0.005447102,0.164699888,-0.007422241,0.004591805,0.0,0.18164768,-0.000621374,0.0,-0.000621374,0.0,0.0,0.071357448
96.0,-0.098731168,-0.142784336,0.016076604,-0.153106528,0.07784588,-0.082497136,-0.069044392,0.112272864,0.013790998,-0.204092208,-0.115236912,0.045796856,0.0686788,0.014781766,-0.205256128,-0.012304282,0.142602912,-0.149662032,0.03390674,-0.204705808,0.1643904,-0.103917944,0.17651128,-0.153368544,-0.06714872,0.170738496,0.01995862,-0.004217123,0.173628352,-0.226652928,0.004004552,0.110579712,0.123660824,-0.01430154,-0.138833552,0.137619312,-0.05421196,0.155693136,0.123660824,-0.061093296,-0.149940672,-0.1648168,-0.217815984,0.113227224,0.14599824,0.179075472,-0.054470896,0.124363496,0.038717732,-0.132244248,0.0,0.009501854,-0.004628721,-0.030513864,-0.003353419,-0.033781724,0.0,-0.008834659,-0.053930388,-0.024226872,0.020830424,0.08935044,-0.007569086,-0.006200685,0.040756444,0.0,0.00531458,0.050693416,0.005447102,0.164699888,-0.007422241,0.004591805,0.0,0.18164768,-0.000621374,0.0,-0.000621374,0.0,0.0,0.071357448
97.0,-0.098731168,-0.142784336,0.016076604,-0.153106528,0.07784588,-0.082497136,-0.069044392,0.112272864,0.013790998,-0.204092208,-0.115236912,0.045796856,0.0686788,0.014781766,-0.205256128,-0.012304282,0.142602912,-0.149662032,0.03390674,-0.204705808,0.1643904,-0.103917944,0.17651128,-0.153368544,-0.06714872,0.170738496,0.01995862,-0.004217123,0.173628352,-0.226652928,0.004004552,0.110579712,0.123660824,-0.01430154,-0.138833552,0.137619312,-0.05421196,0.155693136,0.123660824,-0.061093296,-0.149940672,-0.1648168,-0.217815984,0.113227224,0.14599824,0.179075472,-0.054470896,0.124363496,0.038717732,-0.132244248,0.0,0.009501854,-0.004628721,-0.030513864,-0.003353419,-0.033781724,0.0,-0.008834659,-0.053930388,-0.024226872,0.020830424,0.08935044,-0.007569086,-0.006200685,0.040756444,0.0,0.00531458,0.050693416,0.005447102,0.164699888,-0.007422241,0.004591805,0.0,0.18164768,-0.000621374,0.0,-0.000621374,0.0,0.0,0.071357448
98.0,-0.098731168,-0.142784336,0.016076604,-0.153106528,0.07784588,-0.082497136,-0.069044392,0.112272864,0.013790998,-0.204092208,-0.115236912,0.045796856,0.0686788,0.014781766,-0.205256128,-0.012304282,0.142602912,-0.149662032,0.03390674,-0.204705808,0.1643904,-0.103917944,0.17651128,-0.153368544,-0.06714872,0.170738496,0.01995862,-0.004217123,0.173628352,-0.226652928,0.004004552,0.110579712,0.123660824,-0.01430154,-0.138833552,0.137619312,-0.05421196,0.155693136,0.123660824,-0.061093296,-0.149940672,-0.1648168,-0.217815984,0.113227224,0.14599824,0.179075472,-0.054470896,0.124363496,0.038717732,-0.132244248,0.0,0.009501854,-0.004628721,-0.030513864,-0.003353419,-0.033781724,0.0,-0.008834659,-0.053930388,-0.024226872,0.020830424,0.08935044,-0.007569086,-0.006200685,0.040756444,0.0,0.00531458,0.050693416,0.005447102,0.164699888,-0.007422241,0.004591805,0.0,0.18164768,-0.000621374,0.0,-0.000621374,0.0,0.0,0.071357448
99.0,-0.098731168,-0.142784336,0.016076604,-0.153106528,0.07784588,-0.082497136,-0.069044392,0.112272864,0.013790998,-0.204092208,-0.115236912,0.045796856,0.0686788,0.014781766,-0.205256128,-0.012304282,0.142602912,-0.149662032,0.03390674,-0.204705808,0.1643904,-0.103917944,0.17651128,-0.153368544,-0.06714872,0.170738496,0.01995862,-0.004217123,0.173628352,-0.226652928,0.004004552,0.110579712,0.123660824,-0.01430154,-0.138833552,0.137619312,-0.05421196,0.155693136,0.123660824,-0.061093296,-0.149940672,-0.1648168,-0.217815984,0.113227224,0.14599824,0.179075472,-0.054470896,0.124363496,0.038717732,-0.132244248,0.0,0.009501854,-0.004628721,-0.030513864,-0.003353419,-0.033781724,0.0,-0.008834659,-0.053930388,-0.024226872,0.020830424,0.08935044,-0.007569086,-0.006200685,0.040756444,0.0,0.00531458,0.050693416,0.005447102,0.164699888,-0.007422241,0.004591805,0.0,0.18164768,-0.000621374,0.0,-0.000621374,0.0,0.0,0.071357448
100.0,-0.098731168,-0.142784336,0.016076604,-0.153106528,0.07784588,-0.082497136,-0.069044392,0.112272864,0.013790998,-0.204092208,-0.115236912,0.045796856,0.0686788,0.014781766,-0.205256128,-0.012304282,0.142602912,-0.149662032,0.03390674,-0.204705808,0.1643904,-0.103917944,0.17651128,-0.153368544,-0.06714872,0.170738496,0.01995862,-0.004217123,0.173628352,-0.226652928,0.004004552,0.110579712,0.123660824,-0.01430154,-0.138833552,0.137619312,-0.05421196,0.155693136,0.123660824,-0.061093296,-0.149940672,-0.1648168,-0.217815984,0.113227224,0.14599824,0.179075472,-0.054470896,0.124363496,0.038717732,-0.132244248,0.0,0.009501854,-0.004628721,-0.030513864,-0.003353419,-0.033781724,0.0,-0.008834659,-0.053930388,-0.024226872,0.020830424,0.08935044,-0.007569086,-0.006200685,0.040756444,0.0,0.00531458,0.050693416,0.005447102,0.164699888,-0.007422241,0.004591805,0.0,0.18164768,-0.000621374,0.0,-0.000621374,0.0,0.0,0.071357448
101.0,-0.098731168,-0.142784336,0.016076604,-0.153106528,0.07784588,-0.082497136,-0.069044392,0.112272864,0.013790998,-0.204092208,-0.115236912,0.045796856,0.0686788,0.014781766,-0.205256128,-0.012304282,0.142602912,-0.149662032,0.03390674,-0.204705808,0.1643904,-0.103917944,0.17651128,-0.153368544,-0.06714872,0.170738496,0.01995862,-0.004217123,0.173628352,-0.226652928,0.004004552,0.110579712,0.123660824,-0.01430154,-0.138833552,0.137619312,-0.05421196,0.155693136,0.123660824,-0.061093296,-0.149940672,-0.1648168,-0.217815984,0.113227224,0.14599824,0.179075472,-0.054470896,0.124363496,0.038717732,-0.132244248,0.0,0.009501854,0.024633918,-0.030513864,0.004978239,-0.027414416,0.0,-0.008834659,-0.043480308,0.008245164,0.020830424,0.08935044,-0.007569086,-0.006200685,0.040756444,0.0,0.00531458,0.050693416,0.005447102,0.164699888,-0.007422241,-0.002135679,0.0,0.142517264,-0.014196673,0.0,-0.014196673,0.0,0.0,0.071357448
102.0,-0.098731168,-0.142784336,0.016076604,-0.153106528,0.07784588,-0.082497136,-0.069044392,0.112272864,0.013790998,-0.204092208,-0.115236912,0.045796856,0.0686788,0.014781766,-0.205256128,-0.012304282,0.142602912,-0.149662032,0.03390674,-0.204705808,0.1643904,-0.103917944,0.17651128,-0.153368544,-0.06714872,0.170738496,0.01995862,-0.004217123,0.173628352,-0.226652928,0.004004552,0.110579712,0.123660824,-0.01430154,-0.138833552,0.137619312,-0.05421196,0.155693136,0.123660824,-0.061093296,-0.149940672,-0.1648168,-0.217815984,0.113227224,0.14599824,0.179075472,-0.054470896,0.124363496,0.038717732,-0.132244248,0.0,0.009501854,0.024633918,-0.030513864,0.004978239,-0.027414416,0.0,-0.008834659,-0.043480308,0.008245164,0.020830424,0.08935044,-0.007569086,-0.006200685,0.040756444,0.0,0.00531458,0.050693416,0.005447102,0.164699888,-0.007422241,-0.002135679,0.0,0.142517264,-0.014196673,0.0,-0.014196673,0.0,0.0,0.071357448
103.0,-0.098731168,-0.142784336,0.016076604,-0.153106528,0.07784588,-0.082497136,-0.069044392,0.112272864,0.013790998,-0.204092208,-0.115236912,0.045796856,0.0686788,0.014781766,-0.205256128,-0.012304282,0.142602912,-0.149662032,0.03390674,-0.204705808,0.1643904,-0.103917944,0.17651128,-0.153368544,-0.06714872,0.170738496,0.01995862,-0.004217123,0.173628352,-0.226652928,0.004004552,0.110579712,0.123660824,-0.01430154,-0.138833552,0.137619312,-0.05421196,0.155693136,0.123660824,-0.061093296,-0.149940672,-0.1648168,-0.217815984,0.113227224,0.14599824,0.179075472,-0.054470896,0.124363496,0.038717732,-0.132244248,0.0,0.009501854,0.024633918,-0.030513864,0.004978239,-0.027414416,0.0,-0.008834659,-0.043480308,0.008245164,0.020830424,0.08935044,-0.007569086,-0.006200685,0.040756444,0.0,0.00531458,0.050693416,0.005447102,0.164699888,-0.007422241,-0.002135679,0.0,0.142517264,-0.014196673,0.0,-0.014196673,0.0,0.0,0.071357448
104.0,-0.098731168,-0.142784336,0.016076604,-0.153106528,0.07784588,-0.082497136,-0.069044392,0.112272864,0.013790998,-0.204092208,-0.115236912,0.045796856,0.0686788,0.014781766,-0.205256128,-0.012304282,0.142602912,-0.149662032,0.03390674,-0.204705808,0.1643904,-0.103917944,0.17651128,-0.153368544,-0.06714872,0.170738496,0.01995862,-0.004217123,0.173628352,-0.226652928,0.004004552,0.110579712,0.123660824,-0.01430154,-0.138833552,0.137619312,-0.05421196,0.155693136,0.123660824,-0.061093296,-0.149940672,-0.1648168,-0.217815984,0.113227224,0.14599824,0.179075472,-0.054470896,0.124363496,0.038717732,-0.132244248,0.0,0.009501854,0.024633918,-0.030513864,0.004978239,-0.027414416,0.0,-0.008834659,-0.043480308,0.008245164,0.020830424,0.08935044,-0.007569086,-0.006200685,0.040756444,0.0,0.00531458,0.050693416,0.005447102,0.164699888,-0.007422241,-0.002135679,0.0,0.142517264,-0.014196673,0.0,-0.014196673,0.0,0.0,0.071357448
105.0,-0.098731168,-0.142784336,0.016076604,-0.153106528,0.07784588,-0.082497136,-0.069044392,0.112272864,0.013790998,-0.204092208,-0.115236912,0.045796856,0.0686788,0.014781766,-0.205256128,-0.012304282,0.142602912,-0.149662032,0.03390674,-0.204705808,0.1643904,-0.103917944,0.17651128,-0.153368544,-0.06714872,0.170738496,0.01995862,-0.004217123,0.173628352,-0.226652928,0.004004552,0.110579712,0.123660824,-0.01430154,-0.138833552,0.137619312,-0.05421196,0.155693136,0.123660824,-0.061093296,-0.149940672,-0.15222456,-0.217815984,0.113227224,0.158279984,0.179075472,-0.054470896,0.124363496,0.048582328,-0.132244248,0.0,0.009501854,0.018669498,-0.030513864,-0.01032092,-0.058467256,0.0,-0.008834659,-0.067747712,-0.041072272,0.020830424,0.08935044,-0.007569086,-0.006200685,0.040756444,0.0,0.00531458,0.050693416,0.005447102,0.164699888,-0.007422241,-0.002135679,0.0,0.142517264,-0.014196673,0.0,-0.014196673,0.0,0.0,0.071357448
106.0,-0.098731168,-0.142784336,0.016076604,-0.153106528,0.07784588,-0.082497136,-0.069044392,0.112272864,0.013790998,-0.204092208,-0.115236912,0.045796856,0.0686788,0.014781766,-0.205256128,-0.012304282,0.142602912,-0.149662032,0.03390674,-0.204705808,0.1643904,-0.103917944,0.17651128,-0.153368544,-0.06714872,0.170738496,0.01995862,-0.004217123,0.173628352,-0.226652928,0.004004552,0.110579712,0.123660824,-0.01430154,-0.138833552,0.137619312,-0.05421196,0.155693136,0.123660824,-0.061093296,-0.149940672,-0.15222456,-0.217815984,0.113227224,0.158279984,0.179075472,-0.054470896,0.124363496,0.048582328,-0.132244248,0.0,0.013621733,0.062357948,-0.030513864,-0.002591981,-0.048665184,0.0,-0.003725,-0.067747712,-0.02772593,0.012301371,0.08623096,-0.007569086,-0.006200685,0.040756444,0.0,0.00531458,0.010915875,-0.014365914,0.161620352,-0.007422241,-0.002135679,0.0,0.142517264,-0.014196673,0.0,-0.014196673,0.0,0.0,0.071357448
107.0,-0.098731168,-0.142784336,0.016076604,-0.153106528,0.07784588,-0.082497136,-0.069044392,0.112272864,0.013790998,-0.204092208,-0.115236912,0.045796856,0.0686788,0.014781766,-0.205256128,-0.012304282,0.142602912,-0.149662032,0.03390674,-0.204705808,0.1643904,-0.103917944,0.17651128,-0.153368544,-0.06714872,0.170738496,0.01995862,-0.004217123,0.173628352,-0.226652928,0.004004552,0.110579712,0.123660824,-0.01430154,-0.138833552,0.137619312,-0.05421196,0.155693136,0.123660824,-0.061093296,-0.149940672,-0.15222456,-0.217815984,0.113227224,0.158279984,0.179075472,-0.054470896,0.124363496,0.048582328,-0.132244248,0.0,0.011462782,0.022064332,-0.042797248,-0.028168302,-0.06283304,0.0,-0.003725,-0.082406656,-0.048383344,0.012301371,0.08623096,-0.007569086,-0.006200685,0.040756444,0.0,0.00531458,0.010915875,-0.014365914,0.161620352,-0.007422241,0.00465302,0.0,0.175613264,0.002604127,0.0,0.002604127,0.0,0.0,0.071357448
108.0,-0.098731168,-0.142784336,0.016076604,-0.153106528,0.07784588,-0.082497136,-0.069044392,0.112272864,0.013790998,-0.204092208,-0.115236912,0.045796856,0.0686788,0.014781766,-0.205256128,-0.012304282,0.142602912,-0.149662032,0.03390674,-0.204705808,0.1643904,-0.103917944,0.17651128,-0.153368544,-0.06714872,0.170738496,0.01995862,-0.004217123,0.173628352,-0.226652928,0.004004552,0.110579712,0.123660824,-0.01430154,-0.138833552,0.137619312,-0.05421196,0.155693136,0.123660824,-0.061093296,-0.149940672,-0.15222456,-0.217815984,0.113227224,0.158279984,0.179075472,-0.054470896,0.124363496,0.048582328,-0.132244248,0.0,0.014189808,0.05496864,-0.042797248,-0.01858108,-0.05698794,0.0,-0.003725,-0.074875992,-0.024603876,0.012301371,0.08623096,-0.007569086,-0.006200685,0.040756444,0.0,0.00531458,0.010915875,-0.014365914,0.161620352,-0.007422241,-0.000578691,0.0,0.138322704,-0.013952674,0.0,-0.013952674,0.0,0.0,0.071357448
