0.0,-0.041681532,0.14137008,-0.01513007,-0.058398272,-0.054538624,-0.168976144,0.044832488,-0.08351732,-0.098485264,0.108314616,-0.187422032,-0.020557338,-0.148500384,0.0312136,0.056740996,-0.070236888,0.034476744,0.150571056,0.016606746,0.16498624,0.031766958,0.099078992,-0.13622216,0.207861488,0.071749696,-0.078759592,-0.011145253,-0.160895248,0.009762191,-0.034161044,-0.010180601,0.12566264,0.162874112,0.204430576,0.171380992,-0.089601696,-0.018648458,-0.02769985,0.162874112,-0.098329032,0.122318048,-0.087141008,0.040709516,-0.12708552,0.18039072,0.069376752,-0.127191752,-0.068941752,0.002662104,-0.071303968,0.10499908,-0.004183322,-0.111368224,-0.017145568,-0.026053008,-0.074242728,0.13326244,0.044510996,0.0,0.125421792,0.13432264,0.109941432,-0.139739696,-0.1133248,-0.120051104,-0.114029128,-0.054904472,0.083652936,0.118232888,-0.051074788,0.048891024,-0.034463584,-0.033558812,0.13290852,-0.034322208,-0.01339272,-0.034322208,0.094516136,0.130317344,-0.133566976
1.0,-0.041681532,0.14137008,-0.01513007,-0.058398272,-0.054538624,-0.168976144,0.044832488,-0.08351732,-0.098485264,0.108314616,-0.187422032,-0.020557338,-0.148500384,0.0312136,0.056740996,-0.070236888,0.034476744,0.150571056,0.016606746,0.16498624,0.031766958,0.099078992,-0.13622216,0.207861488,0.071749696,-0.078759592,-0.011145253,-0.160895248,0.009762191,-0.034161044,-0.010180601,0.12566264,0.162874112,0.204430576,0.171380992,-0.089601696,-0.018648458,-0.02769985,0.162874112,-0.098329032,0.122318048,-0.087141008,0.040709516,-0.12708552,0.18039072,0.069376752,-0.127191752,-0.068941752,0.002662104,-0.071303968,0.10499908,-0.004183322,-0.111368224,-0.017145568,-0.026053008,-0.074242728,0.13326244,0.044510996,0.0,0.125421792,0.13432264,0.109941432,-0.139739696,-0.1133248,-0.120051104,-0.114029128,-0.054904472,0.083652936,0.118232888,-0.051074788,0.048891024,-0.034463584,-0.033558812,0.13290852,-0.034322208,-0.01339272,-0.034322208,0.094516136,0.130317344,-0.133566976
2.0,-0.041681532,0.14137008,-0.01513007,-0.058398272,-0.054538624,-0.168976144,0.044832488,-0.08351732,-0.098485264,0.108314616,-0.187422032,-0.020557338,-0.148500384,0.0312136,0.056740996,-0.070236888,0.034476744,0.150571056,0.016606746,0.16498624,-0.121180128,0.099078992,-1.04654944,0.207861488,0.007071927,-0.078759592,-0.011145253,-0.160895248,-0.545707136,-0.034161044,-0.010180601,0.12566264,0.162874112,0.204430576,0.171380992,-0.089601696,-0.018648458,-0.02769985,0.162874112,-0.098329032,0.122318048,-0.087141008,0.040709516,-0.12708552,0.18039072,0.069376752,-0.127191752,-0.068941752,0.002662104,-0.071303968,0.0,0.0,0.793505024,0.0,0.910327232,0.0,0.0,0.0,0.0430442,0.0,0.150661696,0.033439264,-0.119668928,-0.019153506,0.029358416,0.137920752,0.033413864,-0.09390448,0.022255584,-0.11375276,0.144566368,0.05202852,0.016380727,0.063160272,0.036963256,0.107727776,0.036963256,-0.128096792,0.009601739,-0.014739453
3.0,-0.041681532,0.14137008,-0.01513007,-0.058398272,-0.054538624,-0.168976144,0.044832488,-0.08351732,-0.098485264,0.108314616,-0.187422032,-0.020557338,-0.148500384,0.0312136,0.056740996,-0.070236888,0.034476744,0.150571056,0.016606746,0.16498624,-0.121180128,0.099078992,-1.04654944,0.207861488,0.007071927,-0.078759592,-0.011145253,-0.160895248,-0.545707136,-0.034161044,-0.010180601,0.12566264,0.162874112,0.204430576,0.171380992,-0.089601696,-0.018648458,-0.02769985,0.162874112,-0.098329032,0.465244256,0.004616879,0.040709516,-0.12708552,0.18039072,0.069376752,-0.127191752,0.008787416,0.002662104,-0.071303968,0.0,0.0,0.532798528,0.0,0.306625184,0.0,0.0,0.0,-0.039304052,0.0,0.150661696,0.033439264,-0.119668928,-0.019153506,0.029358416,0.137920752,0.033413864,-0.09390448,0.022255584,-0.11375276,0.144566368,0.05202852,0.016380727,0.063160272,0.036963256,0.107727776,0.036963256,-0.128096792,0.009601739,-0.014739453
4.0,-0.041681532,0.14137008,-0.01513007,-0.058398272,-0.054538624,-0.168976144,0.044832488,-0.08351732,-0.098485264,0.108314616,-0.187422032,-0.020557338,-0.148500384,0.0312136,0.056740996,-0.070236888,0.034476744,0.150571056,0.016606746,0.16498624,-0.121180128,0.099078992,-0.401820672,0.207861488,0.007071927,0.116017896,-0.011145253,-0.160895248,0.026558518,-0.034161044,-0.010180601,0.12566264,0.162874112,0.204430576,0.171380992,-0.089601696,-0.018648458,-0.02769985,0.162874112,-0.098329032,0.456006944,-0.470401728,0.040709516,-0.12708552,0.18039072,0.069376752,-0.247362832,-0.004000568,0.002662104,-0.071303968,0.0,0.0,0.532798528,0.0,0.306625184,0.0,0.0,0.0,-0.039304052,0.0,0.150661696,0.033439264,-0.119668928,-0.019153506,0.029358416,0.137920752,0.033413864,-0.09390448,0.022255584,-0.11375276,0.144566368,0.05202852,0.016380727,0.063160272,0.036963256,0.107727776,0.036963256,-0.128096792,0.009601739,-0.014739453
5.0,-0.041681532,0.14137008,-0.01513007,-0.058398272,-0.054538624,-0.168976144,0.044832488,-0.08351732,-0.098485264,0.108314616,-0.187422032,-0.020557338,-0.148500384,0.0312136,0.056740996,-0.070236888,0.034476744,0.150571056,0.016606746,0.16498624,-0.121180128,0.099078992,-0.401820672,0.207861488,0.007071927,0.116017896,-0.011145253,-0.160895248,0.026558518,-0.034161044,-0.010180601,0.12566264,0.162874112,0.204430576,0.171380992,-0.089601696,-0.018648458,-0.02769985,0.162874112,-0.098329032,0.456006944,-0.470401728,0.040709516,-0.12708552,0.18039072,0.069376752,-0.247362832,-0.004000568,0.002662104,-0.071303968,0.0,0.0,0.532798528,0.0,0.306625184,0.0,0.0,0.0,-0.039304052,0.0,0.150661696,0.033439264,-0.119668928,-0.019153506,0.029358416,0.137920752,0.033413864,-0.09390448,0.022255584,-0.11375276,0.144566368,0.05202852,0.016380727,0.063160272,0.036963256,0.107727776,0.036963256,-0.128096792,0.009601739,-0.014739453
6.0,-0.041681532,0.14137008,-0.01513007,-0.058398272,-0.054538624,-0.168976144,0.044832488,-0.08351732,-0.098485264,0.108314616,-0.187422032,-0.020557338,-0.148500384,0.0312136,0.056740996,-0.070236888,0.034476744,0.150571056,0.016606746,0.16498624,-0.121180128,0.099078992,-0.401820672,0.207861488,0.007071927,0.116017896,-0.011145253,-0.160895248,0.026558518,-0.034161044,-0.010180601,0.12566264,0.162874112,0.204430576,0.171380992,-0.089601696,-0.018648458,-0.02769985,0.162874112,-0.098329032,0.456006944,-0.470401728,0.040709516,-0.12708552,0.18039072,0.069376752,-0.247362832,-0.004000568,0.002662104,-0.071303968,0.0,0.0,0.532798528,0.0,0.306625184,0.0,0.0,0.0,-0.039304052,0.0,0.150661696,0.033439264,-0.119668928,-0.019153506,0.029358416,0.137920752,0.033413864,-0.09390448,0.022255584,-0.11375276,0.144566368,0.05202852,0.016380727,0.063160272,0.036963256,0.107727776,0.036963256,-0.128096792,0.009601739,-0.014739453
7.0,-0.041681532,0.14137008,-0.01513007,-0.058398272,-0.054538624,-0.168976144,0.044832488,-0.08351732,-0.098485264,0.108314616,-0.187422032,-0.020557338,-0.148500384,0.0312136,0.056740996,-0.070236888,0.034476744,0.150571056,0.016606746,0.16498624,-0.121180128,0.099078992,0.33076448,0.207861488,0.007071927,0.116017896,-0.011145253,-0.160895248,0.546536,-0.034161044,-0.010180601,0.12566264,0.162874112,0.204430576,0.171380992,-0.089601696,-0.018648458,-0.02769985,0.162874112,-0.098329032,0.456006944,-0.470401728,0.040709516,-0.12708552,0.18039072,0.069376752,-0.247362832,-0.004000568,0.002662104,-0.071303968,0.0,0.0,-0.10704684,0.0,-0.425959936,0.0,0.0,-0.044525312,-0.039304052,-0.098770552,0.150661696,0.033439264,-0.119668928,-0.019153506,0.029358416,0.137920752,0.033413864,-0.09390448,0.022255584,-0.11375276,0.144566368,0.05202852,0.016380727,0.063160272,0.036963256,0.107727776,0.036963256,-0.128096792,0.009601739,-0.014739453
8.0,-0.041681532,0.14137008,-0.01513007,-0.058398272,-0.054538624,-0.168976144,0.044832488,-0.08351732,-0.098485264,0.108314616,-0.187422032,-0.020557338,-0.148500384,0.0312136,0.056740996,-0.070236888,0.034476744,0.150571056,0.016606746,0.16498624,-0.121180128,0.099078992,-0.315068736,0.207861488,0.007071927,0.116017896,-0.011145253,-0.160895248,0.182417984,-0.034161044,-0.010180601,0.12566264,0.162874112,0.204430576,0.171380992,-0.089601696,0.348833312,0.610186752,0.162874112,-0.034922108,0.456006944,-0.470401728,0.040709516,-0.12708552,0.18039072,0.069376752,-0.247362832,-0.004000568,0.002662104,-0.071303968,0.0,0.0,-0.10704684,0.0,-0.425959936,0.0,0.0,-0.044525312,-0.039304052,-0.098770552,0.150661696,0.033439264,-0.119668928,-0.019153506,0.029358416,0.137920752,0.033413864,-0.09390448,0.022255584,-0.11375276,0.144566368,0.05202852,0.016380727,0.063160272,0.036963256,0.107727776,0.036963256,-0.128096792,0.009601739,-0.014739453
9.0,-0.041681532,0.14137008,-0.01513007,-0.058398272,-0.054538624,-0.168976144,0.044832488,-0.08351732,-0.098485264,0.108314616,-0.187422032,-0.020557338,-0.148500384,0.0312136,0.056740996,-0.070236888,0.034476744,0.150571056,0.016606746,0.16498624,-0.121180128,0.099078992,-0.315068736,0.207861488,0.007071927,0.116017896,-0.011145253,-0.160895248,0.182417984,-0.034161044,-0.190249392,-0.343610176,0.162874112,0.204430576,0.171380992,-0.089601696,-0.208690112,-0.319766528,0.162874112,-0.034922108,0.456006944,-0.470401728,0.040709516,-0.12708552,0.18039072,0.069376752,-0.247362832,-0.004000568,0.002662104,-0.071303968,0.0,0.0,-0.10704684,0.0,-0.425959936,0.0,0.0,-0.044525312,-0.039304052,-0.098770552,0.235912272,0.0,0.399439872,0.06059834,0.0,0.0,0.0,0.002561674,0.342636064,0.42040496,0.117394248,0.035280812,0.045162888,0.121392456,-0.052636152,0.136582944,-0.052636152,-0.076248104,-0.052373468,-0.011811515
10.0,0.737408768,0.14137008,0.020834356,0.034105484,-0.054538624,0.405478592,0.044832488,-0.08351732,-0.098485264,0.190243488,-0.187422032,-0.020557338,-0.148500384,0.0312136,0.056740996,-0.070236888,0.034476744,0.150571056,0.016606746,0.16498624,-0.121180128,0.099078992,-0.315068736,0.207861488,0.007071927,0.116017896,-0.011145253,-0.160895248,0.182417984,-0.034161044,-0.190249392,-0.343610176,0.162874112,0.204430576,0.171380992,-0.089601696,-0.208690112,-0.319766528,0.162874112,-0.034922108,0.456006944,-0.470401728,0.040709516,-0.12708552,0.18039072,0.069376752,-0.247362832,-0.004000568,0.002662104,-0.071303968,0.0,0.0,-0.10704684,0.0,-0.425959936,0.0,0.0,-0.044525312,-0.039304052,-0.098770552,0.235912272,0.0,-0.28002064,0.06059834,0.0,-0.118969008,-0.247755376,-0.063467964,0.342636064,0.42040496,0.117394248,0.035280812,0.045162888,0.121392456,-0.052636152,0.136582944,-0.052636152,-0.076248104,-0.052373468,-0.011811515
11.0,0.737408768,0.070632536,0.020834356,-0.00256785,-0.054538624,0.035931556,0.044832488,-0.100191016,-0.098485264,-0.163344704,-0.187422032,-0.020557338,-0.148500384,0.0312136,0.056740996,-0.070236888,0.034476744,0.150571056,0.016606746,0.16498624,-0.121180128,0.099078992,-0.315068736,0.207861488,0.007071927,0.116017896,-0.011145253,-0.160895248,0.182417984,-0.034161044,-0.190249392,-0.343610176,0.162874112,0.204430576,0.171380992,-0.089601696,-0.208690112,-0.319766528,0.162874112,-0.034922108,0.456006944,-0.470401728,0.040709516,-0.12708552,0.18039072,0.069376752,-0.247362832,-0.004000568,0.002662104,-0.071303968,0.0,0.0,-0.10704684,0.0,-0.425959936,0.0,0.0,-0.044525312,-0.039304052,-0.098770552,0.235912272,0.0,-0.28002064,0.06059834,0.0,-0.118969008,-0.247755376,-0.063467964,0.342636064,0.42040496,0.0,0.259463632,0.291711296,0.0,0.0,0.0,0.0,0.0,0.36954704,0.0
12.0,0.737408768,0.070632536,0.020834356,-0.00256785,-0.054538624,0.035931556,0.044832488,-0.100191016,-0.098485264,-0.163344704,-0.187422032,-0.020557338,-0.148500384,0.0312136,0.056740996,-0.070236888,0.034476744,0.150571056,0.016606746,0.16498624,-0.121180128,0.099078992,-0.315068736,0.207861488,0.007071927,0.116017896,-0.011145253,-0.160895248,0.182417984,-0.034161044,-0.190249392,-0.343610176,0.162874112,0.204430576,0.171380992,-0.089601696,-0.208690112,-0.319766528,0.162874112,-0.034922108,0.456006944,-0.470401728,0.040709516,-0.12708552,0.18039072,0.069376752,-0.247362832,-0.004000568,0.002662104,-0.071303968,0.050224988,0.0,0.5051464,0.0,0.565752576,0.0,0.0,-0.044525312,0.090428624,-0.098770552,0.235912272,0.0,-0.28002064,0.06059834,0.0,-0.118969008,-0.247755376,-0.063467964,0.342636064,0.42040496,0.0,0.181816768,-0.22046504,0.0,0.0,0.0,0.0,0.0,-0.193424608,0.0
13.0,0.737408768,0.070632536,0.020834356,-0.00256785,-0.054538624,0.035931556,0.044832488,-0.100191016,-0.098485264,-0.163344704,-0.187422032,-0.020557338,-0.148500384,0.0312136,0.056740996,-0.070236888,0.034476744,0.150571056,0.016606746,0.16498624,-0.121180128,0.099078992,-0.315068736,0.207861488,0.007071927,0.116017896,-0.011145253,-0.160895248,0.182417984,-0.034161044,-0.190249392,-0.343610176,0.162874112,0.204430576,0.171380992,-0.089601696,-0.208690112,-0.319766528,0.162874112,-0.034922108,0.456006944,-0.470401728,0.040709516,-0.12708552,0.18039072,0.069376752,-0.247362832,-0.004000568,0.002662104,-0.071303968,0.050224988,0.0,0.378270976,0.0,-0.240260608,0.0,0.0,-0.044525312,-0.008262433,-0.098770552,0.520431392,0.0,0.215564336,0.06059834,0.0,-0.118969008,-0.247755376,-0.063467964,0.648474816,0.919742272,0.0,0.181816768,-0.22046504,0.0,0.0,0.0,0.0,0.0,-0.193424608,0.0
14.0,0.737408768,0.070632536,0.020834356,-0.00256785,-0.054538624,0.035931556,0.044832488,-0.100191016,-0.098485264,-0.163344704,-0.187422032,-0.020557338,-0.148500384,0.0312136,0.056740996,-0.070236888,0.034476744,0.150571056,0.016606746,0.16498624,-0.121180128,0.099078992,-0.315068736,0.207861488,0.007071927,0.116017896,-0.011145253,-0.160895248,0.182417984,-0.034161044,-0.190249392,0.10555732,0.205091776,0.393810144,0.296612672,-0.089601696,-0.208690112,0.560885568,0.205091776,-0.034922108,0.456006944,-0.470401728,0.040709516,-0.12708552,0.18039072,0.069376752,-0.247362832,-0.004000568,0.002662104,-0.071303968,0.050224988,0.0,0.378270976,0.0,-0.240260608,0.0,0.0,-0.044525312,-0.008262433,-0.098770552,0.246129744,0.0,-0.743719232,0.06059834,0.0,-0.118969008,-0.247755376,-0.063467964,-0.250748032,0.919742272,0.0,0.181816768,-0.22046504,0.0,0.0,0.0,0.0,0.0,-0.193424608,0.0
15.0,0.737408768,0.070632536,0.020834356,-0.00256785,-0.054538624,0.035931556,0.044832488,-0.100191016,-0.098485264,-0.163344704,-0.07067276,-0.020557338,-0.148500384,0.581341056,0.303450688,0.254252672,0.201161104,0.150571056,0.016606746,0.634913728,-0.121180128,0.099078992,-0.315068736,0.207861488,0.007071927,0.116017896,-0.011145253,-0.160895248,0.182417984,-0.034161044,-0.190249392,0.10555732,0.205091776,0.393810144,0.296612672,-0.089601696,-0.208690112,0.560885568,0.205091776,-0.034922108,0.456006944,-0.470401728,0.040709516,-0.12708552,0.18039072,0.069376752,-0.247362832,-0.004000568,0.002662104,-0.071303968,0.050224988,0.0,0.378270976,0.0,-0.240260608,0.0,0.0,-0.044525312,-0.008262433,-0.098770552,0.052874252,0.0,-1.293846784,-0.330553344,0.0,-0.118969008,-0.247755376,-0.249030688,-0.2778992,0.25265592,0.0,0.181816768,-0.22046504,0.0,0.0,0.0,0.0,0.0,-0.193424608,0.0
16.0,0.737408768,0.070632536,0.020834356,-0.00256785,-0.054538624,0.035931556,0.044832488,-0.100191016,-0.098485264,-0.163344704,-0.092102152,-0.038731952,-0.148500384,-0.063931048,0.303450688,-0.331724768,0.201161104,0.150571056,0.016606746,0.634913728,-0.121180128,0.099078992,0.345517824,0.207861488,0.007071927,0.209680384,-0.011145253,-0.095470552,0.608667264,-0.034161044,-0.190249392,0.10555732,0.205091776,0.393810144,0.296612672,-0.089601696,-0.208690112,0.560885568,0.205091776,-0.034922108,0.456006944,-0.470401728,0.040709516,-0.12708552,0.18039072,0.069376752,-0.247362832,-0.004000568,0.002662104,-0.071303968,0.050224988,0.0,0.378270976,0.0,-0.240260608,0.0,0.0,-0.044525312,-0.008262433,-0.098770552,0.052874252,0.0,-1.293846784,-0.330553344,0.0,-0.118969008,-0.247755376,-0.249030688,-0.2778992,0.25265592,0.0,0.181816768,-0.22046504,0.0,0.0,0.0,0.0,0.0,-0.193424608,0.0
17.0,1.132909952,0.292688576,0.020834356,0.147046384,-0.054538624,0.618891456,0.044832488,-0.100191016,-0.098485264,-0.050903148,-0.856449024,-0.038731952,-0.148500384,-0.738608768,-0.167751136,-1.087578624,0.201161104,0.150571056,0.016606746,-0.01526922,-0.121180128,0.099078992,0.345517824,0.207861488,0.007071927,0.209680384,-0.011145253,-0.095470552,0.608667264,-0.034161044,-0.190249392,0.10555732,0.205091776,0.393810144,0.296612672,-0.089601696,-0.208690112,0.560885568,0.205091776,-0.034922108,0.456006944,-0.470401728,0.040709516,-0.12708552,0.18039072,0.069376752,-0.247362832,-0.004000568,0.002662104,-0.071303968,0.050224988,0.0,0.378270976,0.0,-0.240260608,0.0,0.0,-0.044525312,-0.008262433,-0.098770552,0.052874252,0.0,-1.293846784,-0.330553344,0.0,-0.118969008,-0.247755376,-0.249030688,-0.2778992,0.25265592,0.0,0.181816768,-0.22046504,0.0,0.0,0.0,0.0,0.0,-0.193424608,0.0
18.0,0.5011568,0.292688576,0.020834356,0.147046384,-0.098121376,-0.093688432,0.044832488,-0.100191016,-0.098485264,-0.252177648,-0.856449024,-0.038731952,-0.148500384,-0.738608768,-0.167751136,-1.087578624,0.201161104,0.150571056,0.016606746,-0.01526922,-0.034712048,0.099078992,0.69382176,0.207861488,0.039571776,0.209680384,0.073252648,-0.095470552,0.608667264,-0.034161044,-0.190249392,0.10555732,0.205091776,0.393810144,0.296612672,-0.089601696,-0.208690112,0.560885568,0.205091776,-0.034922108,0.456006944,-0.470401728,0.040709516,-0.12708552,0.18039072,0.069376752,-0.247362832,-0.004000568,0.002662104,-0.071303968,0.050224988,0.0,0.378270976,0.0,-0.240260608,0.0,0.0,-0.044525312,-0.008262433,-0.098770552,0.052874252,0.0,-1.293846784,-0.330553344,0.0,-0.118969008,-0.247755376,-0.249030688,-0.2778992,0.25265592,0.0,0.181816768,-0.22046504,0.0,0.0,0.0,0.0,0.0,-0.193424608,0.0
19.0,0.5011568,0.292688576,0.020834356,0.147046384,-0.098121376,-0.093688432,0.044832488,-0.100191016,-0.098485264,-0.252177648,-0.856449024,-0.038731952,-0.148500384,-0.738608768,-0.167751136,-1.087578624,0.201161104,0.150571056,0.016606746,-0.01526922,-0.034712048,0.099078992,-0.090368272,0.207861488,0.039571776,0.172117728,0.073252648,-0.095470552,0.50999344,-0.034161044,-0.190249392,0.10555732,0.205091776,0.393810144,0.296612672,-0.089601696,-0.208690112,0.560885568,0.205091776,-0.034922108,1.202462848,-0.470401728,0.040709516,-0.12708552,0.18039072,0.069376752,-0.247362832,-0.004000568,0.180395712,-0.071303968,0.050224988,0.0,0.378270976,0.0,-0.240260608,0.0,0.0,-0.044525312,-0.008262433,-0.098770552,0.052874252,0.0,-1.293846784,-0.330553344,0.0,-0.118969008,-0.247755376,-0.249030688,-0.2778992,0.25265592,0.0,0.181816768,-0.22046504,0.0,0.0,0.0,0.0,0.0,-0.193424608,0.0
20.0,0.5011568,0.292688576,0.020834356,0.147046384,-0.098121376,-0.093688432,0.044832488,-0.100191016,-0.098485264,-0.252177648,-0.493723776,-0.038731952,-0.148500384,1.019916032,-0.167751136,-1.087578624,0.709182976,0.150571056,0.016606746,0.699872,-0.034712048,0.099078992,-0.090368272,0.207861488,0.039571776,0.172117728,0.073252648,-0.095470552,0.50999344,-0.034161044,-0.609774208,-0.125793744,0.205091776,0.393810144,0.296612672,-0.089601696,-0.208690112,-0.850278272,0.205091776,-0.034922108,1.202462848,-0.470401728,0.040709516,-0.12708552,0.18039072,0.069376752,-0.247362832,-0.004000568,0.180395712,-0.071303968,0.050224988,0.0,0.378270976,0.0,-0.240260608,0.0,0.0,-0.044525312,-0.008262433,-0.098770552,0.052874252,0.0,-1.293846784,-0.330553344,0.0,-0.118969008,-0.247755376,-0.249030688,-0.2778992,0.25265592,0.0,0.181816768,-0.22046504,0.0,0.0,0.0,0.0,0.0,-0.193424608,0.0
21.0,0.5011568,0.292688576,0.020834356,0.147046384,-0.098121376,-0.093688432,0.044832488,-0.100191016,-0.098485264,-0.252177648,-1.199492096,-0.337787584,-0.148500384,0.168547392,-0.167751136,-1.087578624,0.492632768,0.136114928,0.016606746,0.53474368,-0.034712048,0.099078992,-0.090368272,0.207861488,0.039571776,0.172117728,0.073252648,-0.095470552,0.50999344,-0.034161044,-0.482030944,0.24416576,0.205091776,0.400175296,0.36885744,-0.089601696,-0.208690112,0.186274048,0.205091776,-0.034922108,1.202462848,-0.470401728,0.040709516,-0.12708552,0.18039072,0.069376752,-0.247362832,-0.004000568,0.180395712,-0.071303968,0.050224988,0.0,0.378270976,0.0,-0.240260608,0.0,0.0,-0.044525312,-0.008262433,-0.098770552,0.052874252,0.0,-1.293846784,-0.330553344,0.0,-0.118969008,-0.247755376,-0.249030688,-0.2778992,0.25265592,0.0,0.181816768,-0.22046504,0.0,0.0,0.0,0.0,0.0,-0.193424608,0.0
22.0,0.326549472,0.292688576,0.020834356,0.147046384,-0.098121376,-0.093688432,0.044832488,-0.100191016,-0.098485264,-0.77244352,-1.199492096,-0.337787584,-0.148500384,0.168547392,-0.167751136,-1.087578624,0.492632768,0.136114928,0.016606746,0.53474368,-0.034712048,0.099078992,-0.090368272,0.207861488,0.039571776,0.172117728,0.073252648,-0.095470552,0.50999344,-0.034161044,-0.482030944,0.24416576,0.205091776,0.400175296,0.36885744,-0.089601696,-0.208690112,0.186274048,0.205091776,-0.034922108,1.202462848,-0.470401728,0.040709516,-0.12708552,0.18039072,0.069376752,-0.247362832,-0.004000568,0.180395712,-0.071303968,0.050224988,0.0,0.378270976,0.0,-0.240260608,0.0,0.0,-0.044525312,-0.008262433,-0.098770552,0.052874252,0.0,-1.293846784,-0.330553344,0.0,-0.118969008,-0.247755376,-0.249030688,-0.2778992,0.25265592,0.0,0.181816768,0.033665268,0.0,0.0,0.0,0.0,0.0,-0.193424608,0.0
23.0,0.326549472,0.292688576,0.020834356,0.147046384,-0.098121376,-0.093688432,0.044832488,-0.100191016,-0.098485264,-0.77244352,-1.199492096,-0.337787584,-0.148500384,0.168547392,-0.167751136,-1.087578624,0.492632768,0.136114928,0.016606746,0.53474368,-0.034712048,0.099078992,-0.090368272,0.207861488,0.039571776,0.172117728,0.073252648,-0.095470552,0.50999344,-0.034161044,-0.482030944,0.24416576,0.205091776,0.400175296,0.36885744,-0.089601696,-0.208690112,0.186274048,0.205091776,-0.034922108,1.202462848,-0.470401728,0.040709516,-0.12708552,0.18039072,0.069376752,-0.247362832,-0.004000568,0.180395712,-0.071303968,0.050224988,0.0,0.378270976,0.0,-0.240260608,0.0,0.0,-0.044525312,-0.008262433,-0.098770552,0.052874252,0.0,-1.293846784,-0.330553344,0.0,-0.118969008,-0.247755376,-0.249030688,-0.2778992,0.25265592,0.0,0.181816768,0.033665268,0.0,0.0,0.0,0.0,0.0,-0.193424608,0.0
24.0,0.326549472,0.292688576,0.020834356,0.147046384,-0.098121376,-0.093688432,0.044832488,-0.100191016,-0.098485264,-0.77244352,-1.199492096,-0.337787584,-0.148500384,0.168547392,-0.167751136,-1.087578624,0.492632768,0.136114928,0.016606746,0.53474368,-0.034712048,0.099078992,-0.090368272,0.207861488,0.039571776,0.172117728,0.073252648,-0.095470552,0.50999344,-0.034161044,-0.482030944,0.24416576,0.205091776,0.400175296,0.36885744,-0.089601696,-0.208690112,0.980943232,0.205091776,-0.034922108,0.928545344,-0.53269536,0.040709516,-0.12708552,0.18039072,0.069376752,-0.319012736,-0.077533008,0.180395712,-0.467052832,0.050224988,0.0,0.378270976,0.0,-0.240260608,0.0,0.0,-0.044525312,-0.008262433,-0.098770552,0.052874252,0.0,-1.293846784,-0.330553344,0.0,-0.118969008,-0.247755376,-0.249030688,-0.2778992,0.25265592,0.0,0.181816768,0.033665268,0.0,0.0,0.0,0.0,0.0,-0.193424608,0.0
25.0,0.326549472,0.292688576,0.020834356,0.147046384,-0.098121376,-0.093688432,0.044832488,-0.100191016,-0.098485264,-0.77244352,-1.199492096,-0.337787584,-0.148500384,0.168547392,-0.167751136,-1.087578624,0.492632768,0.136114928,0.016606746,0.53474368,-0.034712048,0.099078992,-0.090368272,0.207861488,0.039571776,0.172117728,0.073252648,-0.095470552,0.50999344,-0.034161044,-0.482030944,0.24416576,0.205091776,0.400175296,0.36885744,-0.089601696,-0.208690112,0.980943232,0.205091776,-0.034922108,0.928545344,-0.53269536,0.040709516,-0.12708552,0.18039072,0.069376752,-0.319012736,-0.077533008,0.180395712,-0.467052832,0.050224988,0.0,0.378270976,0.0,-0.240260608,0.0,0.0,-0.044525312,-0.008262433,-0.098770552,0.38396304,0.0,-0.89600992,-0.26037336,0.0,-0.000351697,-0.247755376,-0.249030688,-0.038078232,0.865086272,0.0,0.011922121,0.033665268,0.0,0.0,0.0,0.0,0.0,-0.354243584,0.0
26.0,0.98680896,0.673521856,0.020834356,0.147046384,-0.098121376,0.961432384,0.044832488,-0.100191016,-0.098485264,-0.77244352,-1.199492096,-0.337787584,-0.148500384,0.168547392,-0.167751136,-1.087578624,0.492632768,0.136114928,0.016606746,0.53474368,-0.034712048,0.099078992,-0.090368272,0.207861488,0.039571776,0.172117728,0.073252648,-0.095470552,0.50999344,-0.034161044,-0.482030944,-0.251388016,0.205091776,0.400175296,0.36885744,-0.089601696,-0.208690112,0.247332928,0.205091776,-0.034922108,0.928545344,-0.53269536,0.040709516,-0.12708552,0.18039072,0.069376752,-0.319012736,-0.077533008,0.180395712,-0.467052832,0.050224988,0.0,0.378270976,0.0,-0.240260608,0.0,0.0,-0.044525312,-0.008262433,-0.098770552,0.38396304,0.0,-0.89600992,-0.26037336,0.0,-0.000351697,-0.247755376,-0.249030688,-0.038078232,0.865086272,0.0,0.011922121,0.033665268,0.0,0.0,0.0,0.0,0.0,-0.354243584,0.0
27.0,0.98680896,0.673521856,0.020834356,0.147046384,-0.098121376,0.961432384,0.044832488,-0.100191016,-0.098485264,-0.77244352,-1.199492096,-0.337787584,-0.148500384,0.168547392,-0.167751136,-1.087578624,0.492632768,0.136114928,0.016606746,0.53474368,-0.034712048,0.099078992,-0.090368272,0.207861488,0.039571776,0.172117728,0.073252648,-0.095470552,0.50999344,-0.034161044,-0.482030944,-0.251388016,0.205091776,0.400175296,0.36885744,-0.089601696,-0.208690112,0.247332928,0.205091776,-0.034922108,0.928545344,-0.53269536,0.040709516,-0.12708552,0.18039072,0.069376752,-0.319012736,-0.077533008,0.180395712,-0.467052832,0.050224988,0.0,0.378270976,0.0,-0.240260608,0.0,0.0,-0.044525312,-0.008262433,-0.098770552,0.38396304,0.0,-0.89600992,-0.26037336,0.0,-0.000351697,-0.247755376,-0.249030688,-0.038078232,0.865086272,0.0,0.011922121,0.033665268,0.0,0.0,0.0,0.0,0.0,-0.354243584,0.0
28.0,0.98680896,0.673521856,0.020834356,0.147046384,-0.098121376,0.961432384,0.044832488,-0.100191016,-0.098485264,-0.77244352,-1.199492096,-0.337787584,-0.148500384,0.168547392,-0.167751136,-1.087578624,0.492632768,0.136114928,0.016606746,0.53474368,-0.034712048,0.099078992,-0.090368272,0.207861488,0.039571776,0.172117728,0.073252648,-0.095470552,0.50999344,-0.034161044,-0.482030944,-0.251388016,0.205091776,0.400175296,0.36885744,-0.089601696,-0.208690112,0.247332928,0.205091776,-0.034922108,0.928545344,-0.53269536,0.040709516,-0.12708552,0.18039072,0.069376752,-0.319012736,-0.077533008,0.180395712,-0.467052832,0.050224988,0.0,0.378270976,0.0,-0.240260608,0.0,0.0,-0.044525312,-0.008262433,-0.098770552,0.38396304,0.0,-0.89600992,-0.26037336,0.0,-0.000351697,-0.247755376,-0.249030688,-0.038078232,0.865086272,0.0,0.011922121,0.033665268,0.0,0.0,0.0,0.0,0.0,-0.354243584,0.0
29.0,0.98680896,0.673521856,0.020834356,0.147046384,-0.098121376,0.961432384,0.044832488,-0.100191016,-0.098485264,-0.77244352,-1.199492096,-0.337787584,-0.148500384,0.781449408,-0.167751136,-0.786967936,0.794671168,0.136114928,0.016606746,1.196310016,-0.034712048,0.099078992,-0.872391936,0.207861488,0.039571776,0.172117728,0.073252648,-0.095470552,-0.269340576,-0.034161044,-0.482030944,-0.251388016,0.205091776,0.400175296,0.36885744,-0.089601696,-0.208690112,0.247332928,0.205091776,-0.034922108,0.928545344,-0.53269536,0.040709516,-0.12708552,0.18039072,0.069376752,-0.319012736,-0.077533008,0.180395712,-0.467052832,0.050224988,0.0,0.378270976,0.0,-0.240260608,0.0,0.0,-0.044525312,-0.008262433,-0.098770552,0.38396304,0.0,-0.89600992,-0.26037336,0.0,-0.000351697,-0.247755376,-0.249030688,-0.038078232,0.865086272,0.0,0.011922121,0.033665268,0.0,0.0,0.0,0.0,0.0,-0.354243584,0.0
30.0,0.98680896,0.673521856,0.020834356,0.147046384,-0.098121376,0.961432384,0.044832488,-0.100191016,-0.098485264,-0.77244352,-1.199492096,-0.337787584,-0.148500384,0.781449408,-0.167751136,-0.786967936,0.794671168,0.136114928,0.016606746,1.196310016,-0.034712048,0.099078992,-0.872391936,0.207861488,0.039571776,0.172117728,0.073252648,-0.095470552,-0.269340576,-0.034161044,-0.482030944,-0.251388016,0.205091776,0.400175296,0.36885744,-0.089601696,-0.208690112,0.247332928,0.205091776,-0.034922108,0.928545344,-0.53269536,0.040709516,-0.12708552,0.18039072,0.069376752,-0.319012736,-0.077533008,0.180395712,-0.467052832,0.050224988,0.0,0.378270976,0.0,-0.240260608,0.0,0.0,-0.044525312,-0.008262433,-0.098770552,0.38396304,0.0,-0.89600992,-0.26037336,0.0,-0.000351697,-0.247755376,-0.249030688,-0.038078232,0.865086272,0.0,0.011922121,0.033665268,0.0,0.0,0.0,0.0,0.0,-0.354243584,0.0
31.0,0.98680896,0.673521856,0.020834356,0.147046384,-0.098121376,0.961432384,0.044832488,-0.100191016,-0.098485264,-0.77244352,-1.2837536,-0.337787584,-0.148500384,0.142020048,-0.507067488,-1.086291072,0.770103936,0.136114928,0.016606746,0.249711936,-0.034712048,0.099078992,-0.872391936,0.207861488,0.039571776,0.172117728,0.073252648,-0.095470552,-0.269340576,-0.034161044,-0.482030944,-0.251388016,0.205091776,0.400175296,0.36885744,-0.089601696,-0.208690112,0.247332928,0.205091776,-0.034922108,0.928545344,-0.53269536,0.040709516,-0.12708552,0.18039072,0.069376752,-0.319012736,-0.077533008,0.180395712,-0.467052832,0.050224988,0.0,0.378270976,0.0,-0.240260608,0.0,0.0,-0.044525312,-0.008262433,-0.098770552,0.572012992,0.0,-0.256580528,-0.26037336,0.0,-0.000351697,-0.247755376,-0.090440808,-0.007370861,1.492790528,0.0,0.011922121,0.033665268,0.0,0.0,0.0,0.0,0.0,-0.354243584,0.0
32.0,0.98680896,0.673521856,0.020834356,0.147046384,-0.098121376,0.961432384,0.044832488,-0.100191016,-0.098485264,-0.77244352,-1.2837536,-0.337787584,-0.148500384,0.142020048,-0.507067488,-1.086291072,0.770103936,0.136114928,0.016606746,0.249711936,-0.034712048,0.099078992,-0.246233648,0.207861488,0.062704288,0.172117728,0.073252648,-0.095470552,-0.092511608,-0.034161044,-0.482030944,-0.251388016,0.205091776,0.400175296,0.36885744,-0.089601696,-0.208690112,0.247332928,0.205091776,-0.034922108,0.928545344,-0.53269536,0.040709516,-0.12708552,0.18039072,0.069376752,-0.319012736,-0.077533008,0.180395712,-0.467052832,0.050224988,0.0,0.378270976,0.0,-0.240260608,0.0,0.0,-0.044525312,-0.008262433,-0.098770552,0.572012992,0.0,-0.959213504,-0.26037336,0.0,-0.000351697,-0.247755376,-0.090440808,-0.36694656,1.342131584,0.0,0.011922121,0.033665268,0.0,0.0,0.0,0.0,0.0,-0.354243584,0.0
33.0,0.98680896,0.673521856,0.020834356,0.147046384,-0.098121376,0.961432384,0.044832488,-0.100191016,-0.098485264,-0.77244352,-1.2837536,-0.337787584,-0.148500384,0.142020048,-0.507067488,-1.086291072,0.770103936,0.136114928,0.016606746,0.249711936,-0.034712048,0.099078992,-0.246233648,0.207861488,0.062704288,0.172117728,0.073252648,-0.095470552,-0.092511608,-0.034161044,-0.482030944,-0.251388016,0.205091776,0.400175296,0.36885744,-0.089601696,-0.208690112,0.247332928,0.205091776,-0.034922108,0.928545344,-0.53269536,0.040709516,-0.12708552,0.18039072,0.069376752,-0.319012736,-0.077533008,0.180395712,-0.467052832,0.050224988,0.0,0.378270976,0.0,-0.240260608,0.0,0.0,-0.044525312,-0.008262433,-0.098770552,0.406001312,0.0,-1.513638528,-0.26037336,0.0,-0.000351697,-0.247755376,-0.309442016,-0.468926432,0.892089216,0.0,0.328537408,0.364616032,0.0,0.0,0.0,0.0,0.0,0.040926488,0.0
34.0,0.98680896,0.673521856,0.020834356,0.147046384,-0.098121376,0.961432384,0.044832488,-0.100191016,-0.098485264,-0.77244352,-1.2837536,-0.337787584,-0.148500384,0.142020048,-0.507067488,-1.086291072,0.770103936,0.136114928,0.016606746,0.249711936,-0.034712048,0.099078992,-0.246233648,0.207861488,0.062704288,0.172117728,0.073252648,-0.095470552,-0.092511608,-0.034161044,-0.482030944,-0.251388016,0.205091776,0.400175296,0.36885744,-0.089601696,-0.208690112,0.247332928,0.205091776,-0.034922108,0.928545344,-0.53269536,0.040709516,-0.12708552,0.18039072,0.069376752,-0.319012736,-0.077533008,0.180395712,-0.467052832,0.050224988,0.0,0.378270976,0.0,-0.240260608,0.0,0.0,-0.044525312,-0.008262433,-0.098770552,0.419575456,0.0,-1.17590528,-0.137621872,0.0,-0.000351697,-0.247755376,-0.309442016,-0.043216884,1.368682624,0.0,0.328537408,0.364616032,0.0,0.0,0.0,0.0,0.0,-0.302884544,0.0
35.0,0.844527936,0.673521856,0.020834356,0.11512208,-0.098121376,0.182216048,0.044832488,-0.100191016,-0.098485264,-1.010328768,-1.2837536,-0.337787584,-0.148500384,0.142020048,-0.507067488,-1.086291072,0.770103936,0.136114928,0.016606746,0.249711936,-0.034712048,0.099078992,-0.246233648,0.207861488,0.062704288,0.172117728,0.073252648,-0.095470552,-0.092511608,-0.034161044,-0.482030944,-0.251388016,0.205091776,0.400175296,0.36885744,-0.089601696,-0.208690112,0.247332928,0.205091776,-0.034922108,0.928545344,-0.53269536,0.040709516,-0.12708552,0.18039072,0.069376752,-0.319012736,-0.077533008,0.180395712,-0.467052832,0.050224988,0.0,1.162586496,0.0,0.720371968,0.0,0.0,-0.044525312,-0.008262433,-0.098770552,0.419575456,0.0,-1.17590528,-0.137621872,0.0,-0.000351697,-0.247755376,-0.309442016,-0.043216884,1.368682624,0.0,0.328537408,0.364616032,0.0,0.0,0.0,0.0,0.0,-0.302884544,0.0
36.0,0.844527936,0.673521856,0.020834356,0.11512208,-0.098121376,0.182216048,0.044832488,-0.100191016,-0.098485264,-1.010328768,-1.2837536,-0.337787584,-0.148500384,0.142020048,-0.507067488,-1.086291072,0.770103936,0.136114928,0.016606746,0.249711936,-0.034712048,0.099078992,-0.246233648,0.207861488,0.062704288,0.172117728,0.073252648,-0.095470552,-0.092511608,-0.034161044,-0.482030944,-0.251388016,0.205091776,0.400175296,0.36885744,-0.089601696,-0.208690112,0.247332928,0.205091776,-0.034922108,0.928545344,-0.53269536,0.040709516,-0.12708552,0.18039072,0.069376752,-0.319012736,-0.077533008,0.180395712,-0.467052832,0.050224988,0.0,1.162586496,0.0,0.720371968,0.0,0.0,-0.044525312,-0.008262433,-0.098770552,0.419575456,0.0,-1.17590528,-0.137621872,0.0,-0.000351697,-0.247755376,-0.309442016,-0.043216884,1.368682624,0.0,0.328537408,0.364616032,0.0,0.0,0.0,0.0,0.0,-0.302884544,0.0
37.0,0.844527936,0.673521856,0.020834356,0.11512208,-0.098121376,0.182216048,0.044832488,-0.100191016,-0.098485264,-1.010328768,-1.2837536,-0.337787584,-0.148500384,0.142020048,-0.507067488,-1.086291072,0.770103936,0.136114928,0.016606746,0.249711936,-0.034712048,0.099078992,-0.246233648,0.207861488,0.062704288,0.172117728,0.073252648,-0.095470552,-0.092511608,-0.034161044,-0.482030944,-0.251388016,0.205091776,0.400175296,0.36885744,-0.089601696,-0.208690112,0.247332928,0.205091776,-0.034922108,0.928545344,-0.53269536,0.040709516,-0.12708552,0.18039072,0.069376752,-0.319012736,-0.077533008,0.180395712,-0.467052832,0.050224988,0.0,1.162586496,0.0,0.720371968,0.0,0.0,-0.044525312,-0.008262433,-0.098770552,0.40044736,0.0,-1.70634176,-0.606491072,0.0,-0.000351697,-0.247755376,-0.309442016,-0.598425152,0.94286432,0.0,0.328537408,0.364616032,0.0,0.066626364,0.0,0.066626364,0.0,0.475036416,0.0
38.0,0.844527936,0.673521856,0.020834356,0.11512208,-0.098121376,0.182216048,0.044832488,-0.100191016,-0.098485264,-1.010328768,-1.2837536,-0.337787584,-0.148500384,0.142020048,-0.507067488,-1.086291072,0.770103936,0.136114928,0.016606746,0.249711936,-0.034712048,0.099078992,-0.246233648,0.207861488,0.062704288,0.172117728,0.073252648,-0.095470552,-0.092511608,-0.034161044,-0.482030944,-0.251388016,0.205091776,0.400175296,0.36885744,-0.089601696,-0.208690112,0.247332928,0.205091776,-0.034922108,0.928545344,-0.53269536,0.040709516,-0.12708552,0.18039072,0.069376752,-0.319012736,-0.077533008,0.180395712,-0.467052832,0.050224988,0.0,1.162586496,0.0,0.720371968,0.0,0.0,-0.044525312,-0.008262433,-0.098770552,0.40044736,0.0,-1.70634176,-0.606491072,0.0,-0.000351697,-0.247755376,-0.309442016,-0.598425152,0.94286432,0.0,0.328537408,0.364616032,0.0,0.066626364,0.0,0.066626364,0.0,0.475036416,0.0
39.0,0.844527936,0.673521856,0.020834356,0.11512208,-0.098121376,0.182216048,0.044832488,-0.100191016,-0.098485264,-1.010328768,-1.2837536,-0.337787584,-0.148500384,0.142020048,-0.507067488,-1.086291072,0.770103936,0.136114928,0.016606746,0.249711936,-0.034712048,0.099078992,-0.003894329,0.207861488,0.062704288,0.172117728,0.247769664,-0.095470552,-0.092511608,-0.034161044,-0.482030944,-0.251388016,0.205091776,0.400175296,0.36885744,-0.089601696,-0.208690112,0.247332928,0.205091776,-0.034922108,0.928545344,-0.53269536,0.040709516,-0.12708552,0.18039072,0.069376752,-0.319012736,-0.077533008,0.180395712,-0.467052832,0.050224988,0.0,1.162586496,0.0,0.720371968,0.0,0.0,-0.044525312,-0.008262433,-0.098770552,0.40044736,0.0,-1.70634176,-0.606491072,0.0,-0.000351697,-0.247755376,-0.309442016,-0.598425152,0.94286432,-0.255902048,0.1955556,0.044120968,-0.12921104,0.066626364,0.0,0.066626364,0.0,-0.591137664,0.0
40.0,0.844527936,0.673521856,0.020834356,0.11512208,-0.098121376,0.182216048,0.044832488,-0.100191016,-0.098485264,-1.010328768,-1.2837536,-0.337787584,-0.148500384,0.142020048,-0.507067488,-1.086291072,0.770103936,0.136114928,0.016606746,0.249711936,-0.034712048,0.099078992,-0.003894329,0.207861488,0.062704288,0.172117728,0.247769664,-0.095470552,-0.092511608,-0.034161044,-0.482030944,-0.251388016,0.205091776,0.400175296,0.36885744,-0.089601696,-0.407421664,-0.611447424,0.205091776,-0.034922108,1.611638528,-0.53269536,0.040709516,-0.12708552,0.18039072,0.069376752,-0.319012736,-0.077533008,0.358626848,-0.467052832,0.050224988,0.0,1.162586496,0.0,0.720371968,0.0,0.0,-0.044525312,-0.008262433,-0.098770552,0.40044736,0.0,-1.70634176,-0.606491072,0.0,-0.000351697,-0.247755376,-0.309442016,-0.598425152,0.94286432,-0.255902048,0.1955556,0.044120968,-0.12921104,0.066626364,0.0,0.066626364,0.0,-0.591137664,0.0
41.0,0.844527936,0.673521856,0.020834356,0.11512208,-0.098121376,0.182216048,0.044832488,-0.100191016,-0.098485264,-1.010328768,-1.2837536,-0.337787584,-0.148500384,0.142020048,-0.507067488,-1.086291072,0.770103936,0.136114928,0.016606746,0.249711936,-0.034712048,0.099078992,-0.324916032,0.207861488,0.062704288,0.172117728,-0.012765482,-0.095470552,-0.092511608,-0.034161044,-0.482030944,-0.251388016,0.205091776,0.400175296,0.36885744,-0.089601696,-0.407421664,-0.611447424,0.205091776,-0.034922108,2.147483647,-0.452898304,0.040709516,-0.12708552,0.18039072,0.069376752,-0.319012736,-0.077533008,0.358626848,-0.467052832,0.050224988,0.0,1.162586496,0.0,0.720371968,0.0,0.0,-0.044525312,-0.008262433,-0.098770552,0.40044736,0.0,-1.70634176,-0.606491072,0.0,-0.000351697,-0.247755376,-0.309442016,-0.598425152,0.94286432,-0.255902048,0.1955556,0.044120968,-0.12921104,0.066626364,0.0,0.066626364,0.0,-0.591137664,0.0
42.0,0.844527936,0.673521856,0.020834356,0.11512208,-0.098121376,0.182216048,0.044832488,-0.100191016,-0.098485264,-1.010328768,-1.2837536,-0.337787584,-0.148500384,0.142020048,-0.507067488,-1.086291072,0.770103936,0.136114928,0.016606746,0.249711936,0.028913744,0.099078992,0.057953,0.207861488,0.14559,0.424597216,-0.012765482,-0.095470552,0.116807624,-0.034161044,-0.482030944,-0.251388016,0.205091776,0.400175296,0.36885744,-0.089601696,-0.407421664,-0.611447424,0.205091776,-0.034922108,1.936305536,-0.452898304,-0.188441808,-0.12708552,0.18039072,0.069376752,-0.757386752,-0.286882432,0.358626848,-0.467052832,0.050224988,0.0,1.162586496,0.0,0.720371968,0.0,0.0,-0.044525312,-0.008262433,-0.098770552,0.40044736,0.0,-1.70634176,-0.606491072,0.0,-0.000351697,-0.247755376,-0.309442016,-0.598425152,0.94286432,-0.255902048,0.1955556,0.044120968,-0.12921104,0.066626364,0.0,0.066626364,0.0,-0.591137664,0.0
43.0,0.844527936,0.673521856,0.020834356,0.11512208,-0.098121376,0.182216048,0.044832488,-0.100191016,-0.098485264,-1.010328768,-1.164331648,-0.337787584,-0.148500384,0.563505728,-0.245651104,-0.744914112,0.997796672,0.136114928,0.016606746,0.794776064,0.028913744,0.099078992,0.057953,0.207861488,0.14559,0.424597216,-0.012765482,-0.095470552,0.116807624,-0.034161044,-0.482030944,-0.251388016,0.205091776,0.400175296,0.36885744,-0.089601696,-0.407421664,-0.611447424,0.205091776,-0.034922108,1.936305536,-0.452898304,-0.188441808,-0.12708552,0.18039072,0.069376752,-0.757386752,-0.286882432,0.358626848,-0.467052832,0.050224988,0.0,1.162586496,0.0,0.720371968,0.0,0.0,-0.044525312,-0.008262433,-0.098770552,0.40044736,0.0,-1.70634176,-0.606491072,0.0,-0.000351697,-0.247755376,-0.309442016,-0.598425152,0.94286432,-0.255902048,0.1955556,-0.07530104,-0.12921104,0.066626364,0.0,0.066626364,0.0,-0.88772448,0.0
44.0,1.303302016,0.673521856,0.020834356,0.442001856,-0.098121376,0.814229632,0.044832488,-0.100191016,-0.098485264,-1.010328768,-1.164331648,-0.337787584,-0.148500384,0.563505728,-0.245651104,-0.744914112,0.997796672,0.136114928,0.016606746,0.794776064,0.028913744,0.099078992,0.057953,0.207861488,0.14559,0.424597216,-0.012765482,-0.095470552,0.116807624,-0.034161044,-0.482030944,-0.251388016,0.205091776,0.400175296,0.36885744,-0.089601696,-0.407421664,-0.611447424,0.205091776,-0.034922108,1.936305536,-0.452898304,-0.188441808,-0.12708552,0.18039072,0.069376752,-0.757386752,-0.286882432,0.358626848,-0.467052832,0.050224988,0.0,0.66334816,0.0,-0.074237112,0.0,0.0,-0.044525312,-0.008262433,-0.098770552,0.40044736,0.0,-1.70634176,-0.606491072,0.0,-0.000351697,-0.247755376,-0.309442016,-0.598425152,0.94286432,-0.255902048,0.1955556,-0.07530104,-0.12921104,0.066626364,0.0,0.066626364,0.0,-0.88772448,0.0
45.0,1.009877696,0.592620864,0.020834356,0.278883648,-0.098121376,0.321570624,0.044832488,-0.100191016,-0.098485264,-1.643241856,-1.164331648,-0.337787584,-0.148500384,0.563505728,-0.245651104,-0.744914112,0.997796672,0.136114928,0.016606746,0.794776064,0.028913744,0.099078992,0.057953,0.207861488,0.14559,0.424597216,-0.012765482,-0.095470552,0.116807624,-0.034161044,-0.482030944,-0.251388016,0.205091776,0.400175296,0.36885744,-0.089601696,-0.407421664,-0.611447424,0.205091776,-0.034922108,1.936305536,-0.452898304,-0.188441808,-0.12708552,0.18039072,0.069376752,-0.757386752,-0.286882432,0.358626848,-0.467052832,0.050224988,0.0,0.66334816,0.0,-0.074237112,0.0,0.0,-0.044525312,-0.008262433,-0.098770552,0.645261248,0.0,-1.137530624,-0.606491072,0.0,-0.000351697,-0.247755376,-0.309442016,-0.450103296,1.261842432,-0.255902048,0.1955556,-0.07530104,-0.12921104,0.066626364,0.0,0.066626364,0.0,-0.88772448,0.0
46.0,1.009877696,0.592620864,0.020834356,0.278883648,-0.098121376,0.321570624,0.044832488,-0.100191016,-0.098485264,-1.643241856,-1.164331648,-0.337787584,-0.148500384,0.563505728,-0.245651104,-0.744914112,0.997796672,0.136114928,0.016606746,0.794776064,0.028913744,0.099078992,0.057953,0.207861488,0.14559,0.424597216,-0.012765482,-0.095470552,0.116807624,-0.034161044,-0.482030944,-0.251388016,0.205091776,0.400175296,0.36885744,-0.089601696,-0.1238032,0.260540016,0.205091776,-0.034922108,1.486573184,-0.795442944,-0.188441808,-0.12708552,0.18039072,0.069376752,-0.757386752,-0.286882432,0.358626848,-0.467052832,0.050224988,0.0,0.66334816,0.0,-0.074237112,0.0,0.0,-0.044525312,-0.008262433,-0.098770552,0.645261248,0.0,-1.137530624,-0.606491072,0.0,-0.000351697,-0.247755376,-0.309442016,-0.450103296,1.261842432,-0.255902048,0.1955556,-0.07530104,-0.12921104,0.066626364,0.0,0.066626364,0.0,-0.88772448,0.0
47.0,1.009877696,0.592620864,0.020834356,0.278883648,-0.098121376,0.321570624,0.044832488,-0.100191016,-0.098485264,-1.643241856,-1.164331648,-0.337787584,-0.148500384,0.563505728,-0.245651104,-0.744914112,0.997796672,0.136114928,0.016606746,0.794776064,0.028913744,0.099078992,0.057953,0.207861488,0.14559,0.424597216,-0.012765482,-0.095470552,0.116807624,-0.034161044,-0.482030944,-0.251388016,0.205091776,0.400175296,0.36885744,-0.089601696,-0.1238032,0.260540016,0.205091776,-0.034922108,1.486573184,-0.795442944,-0.188441808,-0.12708552,0.18039072,0.069376752,-0.757386752,-0.286882432,0.358626848,-0.467052832,0.050224988,0.0,0.66334816,0.0,-0.074237112,0.0,0.0,-0.044525312,-0.008262433,-0.098770552,0.645261248,0.0,-1.137530624,-0.606491072,0.0,-0.000351697,-0.247755376,-0.309442016,-0.450103296,1.261842432,-0.255902048,0.1955556,-0.07530104,-0.12921104,0.066626364,0.0,0.066626364,0.0,-0.88772448,0.0
48.0,1.009877696,0.592620864,0.020834356,0.278883648,-0.098121376,0.321570624,0.044832488,-0.100191016,-0.098485264,-1.643241856,-1.164331648,-0.337787584,-0.148500384,0.563505728,-0.245651104,-0.744914112,0.997796672,0.136114928,0.016606746,0.794776064,0.028913744,0.099078992,0.057953,0.207861488,0.14559,0.424597216,-0.012765482,-0.095470552,0.116807624,-0.034161044,-0.482030944,-0.251388016,0.205091776,0.400175296,0.36885744,-0.089601696,-0.1238032,0.260540016,0.205091776,-0.034922108,1.486573184,-0.795442944,-0.188441808,-0.12708552,0.18039072,0.069376752,-0.757386752,-0.286882432,0.358626848,-0.467052832,0.050224988,0.0,0.66334816,0.0,-0.074237112,0.0,0.0,-0.044525312,-0.008262433,-0.098770552,0.645261248,0.0,-1.137530624,-0.606491072,0.0,-0.000351697,-0.247755376,-0.309442016,-0.450103296,1.261842432,-0.255902048,0.1955556,-0.07530104,-0.12921104,0.066626364,0.0,0.066626364,0.0,-0.88772448,0.0
49.0,1.009877696,0.592620864,0.020834356,0.278883648,-0.098121376,0.321570624,0.044832488,-0.100191016,-0.098485264,-1.643241856,-1.164331648,-0.337787584,-0.148500384,0.563505728,-0.245651104,-0.744914112,0.997796672,0.136114928,0.016606746,0.794776064,0.028913744,0.099078992,0.057953,0.207861488,0.14559,0.424597216,-0.012765482,-0.095470552,0.116807624,-0.034161044,-0.482030944,-0.251388016,0.205091776,0.400175296,0.36885744,-0.089601696,-0.1238032,0.260540016,0.205091776,-0.034922108,1.486573184,-0.795442944,-0.188441808,-0.12708552,0.18039072,0.069376752,-0.757386752,-0.286882432,0.358626848,-0.467052832,0.050224988,0.0,0.66334816,0.0,-0.074237112,0.0,0.0,-0.044525312,-0.008262433,-0.098770552,0.136688704,0.0,-1.285650816,-0.816243776,0.0,-0.000351697,-0.247755376,-0.36415424,-0.454117216,0.923811584,-0.255902048,0.1955556,0.223909024,-0.12921104,0.066626364,0.0,0.066626364,0.0,-0.821164928,0.0
50.0,1.009877696,0.592620864,0.020834356,0.278883648,-0.098121376,0.321570624,0.044832488,-0.100191016,-0.098485264,-1.643241856,-1.164331648,-0.337787584,-0.148500384,0.563505728,-0.245651104,-0.744914112,0.997796672,0.136114928,0.016606746,0.794776064,0.028913744,0.099078992,0.057953,0.207861488,0.14559,0.424597216,-0.012765482,-0.095470552,0.116807624,-0.034161044,-0.482030944,-0.251388016,0.205091776,0.400175296,0.36885744,-0.089601696,-0.1238032,0.260540016,0.205091776,-0.034922108,1.486573184,-0.795442944,-0.188441808,-0.12708552,0.18039072,0.069376752,-0.757386752,-0.286882432,0.358626848,-0.467052832,0.050224988,0.0,0.66334816,0.0,-0.074237112,0.0,0.0,-0.044525312,-0.008262433,-0.098770552,0.136688704,0.0,-1.285650816,-0.816243776,0.0,-0.000351697,-0.247755376,-0.36415424,-0.454117216,0.923811584,-0.255902048,0.1955556,0.223909024,-0.12921104,0.066626364,0.0,0.066626364,0.0,-0.821164928,0.0
51.0,1.746182144,0.943768512,0.020834356,0.538680768,0.095463736,1.310884096,0.044832488,-0.100191016,-0.098485264,-1.643241856,-1.164331648,-0.337787584,-0.148500384,0.563505728,-0.245651104,-0.744914112,0.997796672,0.136114928,0.016606746,0.794776064,0.028913744,0.099078992,0.057953,0.207861488,0.14559,0.424597216,-0.012765482,-0.095470552,0.116807624,-0.034161044,-0.482030944,-0.251388016,0.205091776,0.400175296,0.36885744,-0.089601696,-0.1238032,0.260540016,0.205091776,-0.034922108,1.486573184,-0.795442944,-0.188441808,-0.12708552,0.18039072,0.069376752,-0.757386752,-0.286882432,0.358626848,-0.467052832,0.050224988,0.0,0.66334816,0.0,-0.074237112,0.0,0.0,-0.044525312,-0.008262433,-0.098770552,0.136688704,0.0,-1.285650816,-0.816243776,0.0,-0.000351697,-0.247755376,-0.36415424,-0.454117216,0.923811584,-0.255902048,0.108143384,-0.794695616,-0.12921104,-0.100122,-0.19358512,-0.100122,0.0,-1.810478464,0.0
52.0,1.746182144,0.943768512,0.020834356,0.538680768,0.095463736,1.310884096,0.044832488,-0.100191016,-0.098485264,-1.643241856,-1.164331648,-0.337787584,-0.148500384,0.563505728,-0.245651104,-0.744914112,0.997796672,0.136114928,0.016606746,0.794776064,0.028913744,0.099078992,0.057953,0.207861488,0.14559,0.424597216,-0.012765482,-0.095470552,0.116807624,-0.034161044,-0.482030944,-0.251388016,0.205091776,0.400175296,0.36885744,-0.089601696,-0.1238032,0.260540016,0.205091776,-0.034922108,1.486573184,-0.795442944,-0.188441808,-0.12708552,0.18039072,0.069376752,-0.757386752,-0.286882432,0.358626848,-0.467052832,0.050224988,0.0,0.66334816,0.0,-0.074237112,0.0,0.0,-0.044525312,-0.008262433,-0.098770552,0.136688704,0.0,-1.285650816,-0.816243776,0.0,-0.000351697,-0.247755376,-0.36415424,-0.454117216,0.923811584,-0.255902048,0.108143384,-0.794695616,-0.12921104,-0.100122,-0.19358512,-0.100122,0.0,-1.810478464,0.0
53.0,1.746182144,0.943768512,0.020834356,0.538680768,0.095463736,1.310884096,0.044832488,-0.100191016,-0.098485264,-1.643241856,-1.164331648,-0.337787584,-0.148500384,0.563505728,-0.245651104,-0.744914112,0.997796672,0.136114928,0.016606746,0.794776064,0.028913744,0.099078992,0.057953,0.207861488,0.14559,0.424597216,-0.012765482,-0.095470552,0.116807624,-0.034161044,-0.482030944,-0.251388016,0.205091776,0.400175296,0.36885744,-0.089601696,-0.1238032,0.260540016,0.205091776,-0.034922108,1.486573184,-0.795442944,-0.188441808,-0.12708552,0.18039072,0.069376752,-0.757386752,-0.286882432,0.358626848,-0.467052832,0.050224988,0.0,0.66334816,0.0,-0.074237112,0.0,0.0,-0.044525312,-0.008262433,-0.098770552,0.136688704,0.0,-1.285650816,-0.816243776,0.0,-0.000351697,-0.247755376,-0.36415424,-0.454117216,0.923811584,-0.255902048,0.108143384,-0.794695616,-0.12921104,-0.100122,-0.19358512,-0.100122,0.0,-1.810478464,0.0
54.0,1.746182144,0.943768512,0.020834356,0.538680768,0.095463736,1.310884096,0.044832488,-0.100191016,-0.098485264,-1.643241856,-1.55780672,-0.337787584,-0.148500384,-0.178309504,-0.245651104,-1.276764672,0.997796672,0.136114928,-0.229501184,0.794776064,0.028913744,0.099078992,0.057953,0.207861488,0.14559,0.424597216,-0.012765482,-0.095470552,0.116807624,-0.034161044,-0.482030944,-0.251388016,0.205091776,0.400175296,0.36885744,-0.089601696,0.070555192,0.8000624,0.205091776,-0.034922108,1.486573184,-0.795442944,-0.188441808,-0.12708552,0.18039072,0.069376752,-0.757386752,-0.286882432,0.358626848,-0.467052832,0.050224988,0.0,0.66334816,0.0,-0.074237112,0.0,0.0,-0.044525312,-0.008262433,-0.098770552,0.136688704,0.0,-1.285650816,-0.816243776,0.0,-0.000351697,-0.247755376,-0.36415424,-0.454117216,0.923811584,-0.255902048,0.108143384,-0.794695616,-0.12921104,-0.100122,-0.19358512,-0.100122,0.0,-1.810478464,0.0
55.0,1.746182144,0.943768512,0.020834356,0.538680768,0.095463736,1.310884096,0.044832488,-0.100191016,-0.098485264,-1.643241856,-1.55780672,-0.337787584,-0.148500384,-0.178309504,-0.245651104,-1.276764672,0.997796672,0.136114928,-0.229501184,0.794776064,0.028913744,0.099078992,0.057953,0.207861488,0.14559,0.424597216,-0.012765482,-0.095470552,0.116807624,-0.034161044,-0.482030944,-0.251388016,0.205091776,0.400175296,0.36885744,-0.089601696,-0.364859456,0.143585504,0.205091776,-0.034922108,2.115880704,-0.795442944,-0.188441808,-0.12708552,0.18039072,0.069376752,-0.757386752,-0.286882432,0.71685056,-0.424953408,0.050224988,0.0,0.66334816,0.0,-0.074237112,0.0,0.0,-0.044525312,-0.008262433,-0.098770552,0.136688704,0.0,-1.285650816,-0.816243776,0.0,-0.000351697,-0.247755376,-0.36415424,-0.454117216,0.923811584,-0.255902048,0.108143384,-0.794695616,-0.12921104,-0.100122,-0.19358512,-0.100122,0.0,-1.810478464,0.0
56.0,1.746182144,0.943768512,0.020834356,0.538680768,0.095463736,1.310884096,0.044832488,-0.100191016,-0.098485264,-1.643241856,0.0,-0.337787584,-0.148500384,-0.473408864,-0.643987712,-1.5844032,0.885360704,0.136114928,-0.229501184,0.057119964,0.028913744,0.099078992,0.057953,0.207861488,0.14559,0.424597216,-0.012765482,-0.095470552,0.116807624,-0.034161044,-0.482030944,-0.251388016,0.205091776,0.400175296,0.36885744,-0.089601696,-0.364859456,0.143585504,0.205091776,-0.034922108,2.115880704,-0.795442944,-0.188441808,-0.12708552,0.18039072,0.069376752,-0.757386752,-0.286882432,0.71685056,-0.424953408,0.050224988,0.0,0.66334816,0.0,-0.074237112,0.0,0.0,-0.044525312,-0.008262433,-0.098770552,0.136688704,0.0,-1.285650816,-0.816243776,0.0,-0.000351697,-0.247755376,-0.36415424,-0.454117216,0.923811584,-0.255902048,0.108143384,-0.201038416,-0.12921104,-0.100122,-0.19358512,-0.100122,0.0,-1.534198272,0.0
57.0,1.746182144,0.943768512,0.020834356,0.538680768,0.095463736,1.310884096,0.044832488,-0.100191016,-0.098485264,-1.643241856,0.0,-0.337787584,-0.148500384,-0.473408864,-0.643987712,-1.5844032,0.885360704,0.136114928,-0.229501184,0.057119964,0.028913744,0.099078992,0.057953,0.207861488,0.14559,0.424597216,-0.012765482,-0.095470552,0.116807624,-0.034161044,-0.482030944,-0.251388016,0.205091776,0.400175296,0.36885744,-0.089601696,-0.364859456,0.143585504,0.205091776,-0.034922108,2.115880704,-0.795442944,-0.188441808,-0.12708552,0.18039072,0.069376752,-0.757386752,-0.286882432,0.71685056,-0.424953408,0.050224988,0.0,0.66334816,0.0,-0.074237112,0.0,0.0,-0.044525312,-0.008262433,-0.098770552,0.136688704,0.0,-1.285650816,-0.816243776,0.0,-0.000351697,-0.247755376,-0.36415424,-0.454117216,0.923811584,-0.255902048,0.108143384,-0.201038416,-0.12921104,-0.100122,-0.19358512,-0.100122,0.0,-1.534198272,0.0
58.0,1.746182144,0.943768512,0.020834356,0.538680768,0.095463736,1.310884096,0.044832488,-0.100191016,-0.098485264,-1.643241856,0.0,-0.337787584,-0.148500384,-0.473408864,-0.643987712,-1.5844032,0.885360704,0.136114928,-0.229501184,0.057119964,0.028913744,0.099078992,0.057953,0.207861488,0.14559,0.424597216,-0.012765482,-0.095470552,0.116807624,-0.034161044,-0.482030944,-0.251388016,0.205091776,0.400175296,0.36885744,-0.089601696,-0.364859456,0.143585504,0.205091776,-0.034922108,2.115880704,-0.795442944,-0.188441808,-0.12708552,0.18039072,0.069376752,-0.757386752,-0.286882432,0.71685056,-0.424953408,0.050224988,0.0,0.66334816,0.0,-0.074237112,0.0,0.0,-0.044525312,-0.008262433,-0.098770552,0.136688704,0.0,-1.285650816,-0.816243776,0.0,-0.000351697,-0.247755376,-0.36415424,-0.454117216,0.923811584,-0.255902048,0.108143384,-0.201038416,-0.12921104,-0.100122,-0.19358512,-0.100122,0.0,-1.534198272,0.0
59.0,1.746182144,0.943768512,0.020834356,0.538680768,0.095463736,1.310884096,0.044832488,-0.100191016,-0.098485264,-1.643241856,0.0,-0.337787584,-0.148500384,-0.473408864,-0.643987712,-1.5844032,0.885360704,0.136114928,-0.229501184,0.057119964,0.028913744,0.099078992,0.057953,0.207861488,0.14559,0.424597216,-0.012765482,-0.095470552,0.116807624,-0.034161044,-0.482030944,-0.251388016,0.205091776,0.400175296,0.36885744,-0.089601696,-0.364859456,0.143585504,0.205091776,-0.034922108,2.115880704,-0.795442944,-0.188441808,-0.12708552,0.18039072,0.069376752,-0.757386752,-0.286882432,0.71685056,-0.424953408,0.050224988,0.0,0.66334816,0.0,-0.074237112,0.0,0.0,-0.044525312,-0.008262433,-0.098770552,0.136688704,0.0,-0.46374304,-0.816243776,0.0,-0.000351697,-0.247755376,-0.089164736,-0.365157472,1.04000544,-0.255902048,0.049493004,-0.5225768,-0.12921104,-0.100122,-0.19358512,-0.100122,0.0,-2.119476992,0.0
60.0,1.746182144,0.943768512,0.020834356,0.538680768,0.095463736,1.310884096,0.044832488,-0.100191016,-0.098485264,-1.643241856,0.0,-0.337787584,-0.148500384,-0.473408864,-0.643987712,-1.5844032,0.885360704,0.136114928,-0.229501184,0.057119964,0.028913744,0.099078992,0.057953,0.207861488,0.14559,0.424597216,-0.012765482,-0.095470552,0.116807624,-0.034161044,-0.482030944,-0.251388016,0.205091776,0.400175296,0.36885744,-0.089601696,-0.364859456,0.143585504,0.205091776,-0.034922108,2.115880704,-0.795442944,-0.188441808,-0.12708552,0.18039072,0.069376752,-0.757386752,-0.286882432,0.71685056,-0.424953408,0.050224988,0.0,0.66334816,0.0,-0.074237112,0.0,0.0,-0.044525312,-0.008262433,-0.098770552,0.136688704,0.0,-0.46374304,-0.816243776,0.0,-0.000351697,-0.247755376,-0.089164736,-0.365157472,1.04000544,-0.255902048,0.049493004,-0.5225768,-0.12921104,-0.100122,-0.19358512,-0.100122,0.0,-2.119476992,0.0
61.0,1.746182144,0.943768512,0.020834356,0.538680768,0.095463736,1.310884096,0.044832488,-0.100191016,-0.098485264,-1.643241856,0.0,-0.337787584,-0.148500384,-0.473408864,-0.643987712,-1.5844032,0.885360704,0.136114928,-0.229501184,0.057119964,0.028913744,0.099078992,0.057953,0.207861488,0.14559,0.424597216,-0.012765482,-0.095470552,0.116807624,-0.034161044,-0.482030944,-0.251388016,0.205091776,0.400175296,0.36885744,-0.089601696,-0.364859456,0.143585504,0.205091776,-0.034922108,2.115880704,-0.795442944,-0.188441808,-0.12708552,0.18039072,0.069376752,-0.757386752,-0.286882432,0.71685056,-0.424953408,0.050224988,0.0,0.66334816,0.0,-0.074237112,0.0,0.0,-0.044525312,-0.008262433,-0.098770552,0.136688704,0.0,-0.46374304,-0.816243776,0.0,-0.000351697,-0.247755376,-0.089164736,-0.365157472,1.04000544,-0.255902048,0.049493004,-0.5225768,-0.12921104,-0.100122,-0.19358512,-0.100122,0.0,-2.119476992,0.0
62.0,1.746182144,0.943768512,0.020834356,0.538680768,0.095463736,1.310884096,0.044832488,-0.100191016,-0.098485264,-1.643241856,0.0,-0.337787584,-0.148500384,-0.473408864,-0.643987712,-1.5844032,0.885360704,0.136114928,-0.229501184,0.057119964,0.028913744,0.099078992,0.057953,0.207861488,0.14559,0.424597216,-0.012765482,-0.095470552,0.116807624,-0.034161044,-0.482030944,-0.251388016,0.205091776,0.400175296,0.36885744,-0.089601696,-0.364859456,0.143585504,0.205091776,-0.034922108,2.115880704,-0.795442944,-0.188441808,-0.12708552,0.18039072,0.069376752,-0.757386752,-0.286882432,0.71685056,-0.424953408,0.050224988,0.0,0.66334816,0.0,-0.074237112,0.0,0.0,-0.044525312,-0.008262433,-0.098770552,-0.114749488,0.0,-0.631677504,-0.879819968,0.0,-0.000351697,-0.247755376,-0.089164736,-0.673379392,0.651039296,-0.255902048,0.216312768,-0.2746032,-0.12921104,-0.100122,-0.19358512,-0.100122,0.0,-1.830222976,0.0
63.0,1.746182144,0.943768512,0.020834356,0.538680768,0.095463736,1.310884096,0.044832488,-0.100191016,-0.098485264,-1.643241856,0.0,-0.337787584,-0.148500384,-0.473408864,-0.643987712,-1.5844032,0.885360704,0.136114928,-0.229501184,0.057119964,0.028913744,0.099078992,0.057953,0.207861488,0.14559,0.424597216,-0.012765482,-0.095470552,0.116807624,-0.034161044,-0.482030944,-0.251388016,0.205091776,0.400175296,0.36885744,-0.089601696,-0.364859456,0.143585504,0.205091776,-0.034922108,2.115880704,-0.795442944,-0.188441808,-0.12708552,0.18039072,0.069376752,-0.757386752,-0.286882432,0.71685056,-0.424953408,0.050224988,0.0,0.66334816,0.0,-0.074237112,0.0,0.0,-0.044525312,-0.008262433,-0.098770552,-0.114749488,0.0,-0.631677504,-0.879819968,0.0,-0.000351697,-0.247755376,-0.089164736,-0.673379392,0.651039296,-0.255902048,0.216312768,-0.2746032,-0.12921104,-0.100122,-0.19358512,-0.100122,0.0,-1.830222976,0.0
64.0,1.746182144,0.943768512,0.020834356,0.538680768,0.095463736,1.310884096,0.044832488,-0.100191016,-0.098485264,-1.643241856,0.0,-0.337787584,-0.148500384,-0.473408864,-0.643987712,-1.5844032,0.885360704,0.136114928,-0.229501184,0.057119964,0.028913744,0.099078992,0.057953,0.207861488,0.14559,0.424597216,-0.012765482,-0.095470552,0.116807624,-0.034161044,-0.482030944,-0.251388016,0.205091776,0.400175296,0.36885744,-0.089601696,-0.364859456,0.143585504,0.205091776,-0.034922108,2.115880704,-0.795442944,-0.188441808,-0.12708552,0.18039072,0.069376752,-0.757386752,-0.286882432,0.71685056,-0.424953408,0.050224988,0.0,0.66334816,0.0,-0.074237112,0.0,0.0,-0.044525312,-0.008262433,-0.098770552,-0.114749488,0.0,-0.631677504,-0.879819968,0.0,-0.000351697,-0.247755376,-0.089164736,-0.673379392,0.651039296,-0.255902048,0.216312768,-0.2746032,-0.12921104,-0.100122,-0.19358512,-0.100122,0.0,-1.830222976,0.0
65.0,1.746182144,0.943768512,0.020834356,0.538680768,0.095463736,1.310884096,0.044832488,-0.100191016,-0.098485264,-1.643241856,0.0,-0.337787584,-0.148500384,-0.473408864,-0.643987712,-1.5844032,0.885360704,0.136114928,-0.229501184,0.057119964,0.028913744,0.099078992,0.057953,0.207861488,0.14559,0.424597216,-0.012765482,-0.095470552,0.116807624,-0.034161044,-0.482030944,-0.251388016,0.205091776,0.400175296,0.36885744,-0.089601696,-0.364859456,0.143585504,0.205091776,-0.034922108,2.115880704,-0.795442944,-0.188441808,-0.12708552,0.18039072,0.069376752,-0.757386752,-0.286882432,0.71685056,-0.424953408,0.050224988,0.0,0.66334816,0.0,-0.074237112,0.0,0.0,-0.044525312,-0.008262433,-0.098770552,0.158623664,0.0,-0.203544592,-0.879819968,0.0,-0.000351697,-0.247755376,0.112935128,-0.673379392,1.161133312,-0.255902048,0.070864152,-0.729504256,-0.12921104,-0.100122,-0.19358512,-0.100122,0.0,0.0,0.0
66.0,1.746182144,0.943768512,0.020834356,0.538680768,0.095463736,1.310884096,0.044832488,-0.100191016,-0.098485264,-1.643241856,0.0,-0.337787584,-0.148500384,-0.473408864,-0.643987712,-1.5844032,0.885360704,0.136114928,-0.229501184,0.057119964,0.028913744,0.099078992,0.057953,0.207861488,0.14559,0.424597216,-0.012765482,-0.095470552,0.116807624,-0.034161044,-0.482030944,-0.251388016,0.205091776,0.400175296,0.36885744,-0.089601696,-0.364859456,0.143585504,0.205091776,-0.034922108,2.115880704,-0.795442944,-0.188441808,-0.12708552,0.18039072,0.069376752,-0.757386752,-0.286882432,0.71685056,-0.424953408,0.050224988,0.0,0.66334816,0.0,-0.074237112,0.0,0.0,-0.044525312,-0.008262433,-0.098770552,0.158623664,0.0,-0.203544592,-0.879819968,0.0,-0.000351697,-0.247755376,0.112935128,-0.673379392,1.161133312,-0.255902048,0.070864152,-0.729504256,-0.12921104,-0.100122,-0.19358512,-0.100122,0.0,0.0,0.0
67.0,1.746182144,0.943768512,0.020834356,0.538680768,0.095463736,1.310884096,0.044832488,-0.100191016,-0.098485264,-1.643241856,0.0,-0.337787584,-0.148500384,-0.473408864,-0.643987712,-1.5844032,0.885360704,0.136114928,-0.229501184,0.057119964,0.028913744,0.099078992,0.057953,0.207861488,0.14559,0.424597216,-0.012765482,-0.095470552,0.116807624,-0.034161044,-0.482030944,-0.251388016,0.205091776,0.400175296,0.36885744,-0.089601696,-0.364859456,0.143585504,0.205091776,-0.034922108,2.115880704,-0.795442944,-0.188441808,-0.12708552,0.18039072,0.069376752,-0.757386752,-0.286882432,0.71685056,-0.424953408,0.050224988,0.0,0.66334816,0.0,-0.074237112,0.0,0.0,-0.044525312,-0.008262433,-0.098770552,0.158623664,0.0,-0.203544592,-0.879819968,0.0,-0.000351697,-0.247755376,0.112935128,-0.673379392,1.161133312,-0.255902048,0.070864152,-0.729504256,-0.12921104,-0.100122,-0.19358512,-0.100122,0.0,0.0,0.0
68.0,1.746182144,0.943768512,0.020834356,0.538680768,0.095463736,1.310884096,0.044832488,-0.100191016,-0.098485264,-1.643241856,0.0,-0.337787584,-0.148500384,-0.473408864,-0.643987712,-1.5844032,0.885360704,0.136114928,-0.229501184,0.057119964,0.028913744,0.099078992,0.057953,0.207861488,0.14559,0.424597216,-0.012765482,-0.095470552,0.116807624,-0.034161044,-0.482030944,-0.251388016,0.222213216,0.400175296,0.36885744,-0.089601696,-0.364859456,0.995142272,0.222213216,-0.034922108,1.60983872,-0.84446304,-0.188441808,-0.12708552,0.18039072,0.052255304,-0.757386752,-0.319644096,0.71685056,-0.749695104,0.050224988,0.0,0.66334816,0.0,-0.074237112,0.0,0.0,-0.044525312,-0.008262433,-0.098770552,0.158623664,0.0,-0.203544592,-0.879819968,0.0,-0.000351697,-0.247755376,0.112935128,-0.673379392,1.161133312,-0.255902048,0.070864152,-0.729504256,-0.12921104,-0.100122,-0.19358512,-0.100122,0.0,0.0,0.0
69.0,1.441524992,0.898909824,-0.089116632,0.538680768,0.092051464,0.466655776,0.044832488,-0.100191016,-0.098485264,-1.67718912,0.0,-0.337787584,-0.148500384,-0.473408864,-0.643987712,-1.5844032,0.885360704,0.136114928,-0.229501184,0.057119964,0.028913744,0.099078992,0.057953,0.207861488,0.14559,0.424597216,-0.012765482,-0.095470552,0.116807624,-0.034161044,-0.482030944,-0.251388016,0.222213216,0.400175296,0.36885744,-0.089601696,-0.364859456,0.995142272,0.222213216,-0.034922108,1.60983872,-0.84446304,-0.188441808,-0.12708552,0.18039072,0.052255304,-0.757386752,-0.319644096,0.71685056,-0.749695104,0.086206672,0.124862664,1.44859264,0.0,0.60009504,0.109950992,0.0,-0.044525312,0.036596232,-0.098770552,0.158623664,0.0,-0.203544592,-0.879819968,0.0,-0.000351697,-0.247755376,0.112935128,-0.673379392,1.161133312,-0.255902048,0.070864152,-0.729504256,-0.12921104,-0.100122,-0.19358512,-0.100122,0.0,0.0,0.0
70.0,1.441524992,0.898909824,-0.089116632,0.538680768,0.092051464,0.466655776,0.044832488,-0.100191016,-0.098485264,-1.67718912,0.0,-0.337787584,-0.148500384,-0.473408864,-0.643987712,-1.5844032,0.885360704,0.136114928,-0.229501184,0.057119964,0.028913744,0.099078992,0.057953,0.207861488,0.14559,0.424597216,-0.012765482,-0.095470552,0.116807624,-0.034161044,-0.482030944,-0.251388016,0.222213216,0.400175296,0.36885744,-0.089601696,-0.364859456,0.995142272,0.222213216,-0.034922108,1.60983872,-0.84446304,-0.188441808,-0.12708552,0.18039072,0.052255304,-0.757386752,-0.319644096,0.71685056,-0.749695104,0.086206672,0.124862664,1.44859264,0.0,0.60009504,0.109950992,0.0,-0.044525312,0.036596232,-0.098770552,0.158623664,0.0,-0.203544592,-0.879819968,0.0,-0.000351697,-0.247755376,0.112935128,-0.673379392,1.161133312,-0.255902048,0.070864152,-0.729504256,-0.12921104,-0.100122,-0.19358512,-0.100122,0.0,0.0,0.0
71.0,2.126099072,0.898909824,-0.089116632,0.538680768,0.092051464,1.152752896,0.044832488,-0.100191016,-0.098485264,-1.67718912,0.0,-0.337787584,-0.148500384,-0.473408864,-0.643987712,-1.5844032,0.885360704,0.136114928,-0.229501184,0.057119964,0.028913744,0.099078992,0.057953,0.207861488,0.14559,0.424597216,-0.012765482,-0.095470552,0.116807624,-0.034161044,-0.832728256,-0.540973248,0.222213216,0.400175296,0.261559456,-0.089601696,-0.364859456,0.212437744,0.222213216,-0.14467096,1.60983872,-0.84446304,-0.188441808,-0.12708552,0.18039072,0.052255304,-0.757386752,-0.319644096,0.71685056,-0.749695104,0.086206672,0.124862664,1.44859264,0.0,0.60009504,0.109950992,0.0,-0.044525312,0.036596232,-0.098770552,0.158623664,0.0,-0.203544592,-0.879819968,0.0,-0.000351697,-0.247755376,0.112935128,-0.673379392,1.161133312,-0.255902048,0.070864152,-0.729504256,-0.12921104,-0.100122,-0.19358512,-0.100122,0.0,0.0,0.0
72.0,2.126099072,0.898909824,-0.089116632,0.538680768,0.092051464,1.152752896,0.044832488,-0.100191016,-0.098485264,-1.67718912,0.0,-0.337787584,-0.148500384,-0.473408864,-0.643987712,-1.5844032,0.885360704,0.136114928,-0.229501184,0.057119964,0.028913744,0.099078992,0.057953,0.207861488,0.14559,0.424597216,-0.012765482,-0.095470552,0.116807624,-0.034161044,-0.832728256,-0.540973248,0.222213216,0.400175296,0.261559456,-0.089601696,-0.364859456,0.212437744,0.222213216,-0.14467096,1.60983872,-0.84446304,-0.188441808,-0.12708552,0.18039072,0.052255304,-0.757386752,-0.319644096,0.71685056,-0.749695104,0.086206672,0.124862664,1.44859264,0.0,0.60009504,0.109950992,0.0,-0.044525312,0.036596232,-0.098770552,0.158623664,0.0,-0.203544592,-0.879819968,0.0,-0.000351697,-0.247755376,0.112935128,-0.673379392,1.161133312,-0.255902048,0.070864152,-0.729504256,-0.12921104,-0.100122,-0.19358512,-0.100122,0.0,0.0,0.0
73.0,2.126099072,0.898909824,-0.089116632,0.538680768,0.092051464,1.152752896,0.044832488,-0.100191016,-0.098485264,-1.67718912,0.0,-0.337787584,-0.148500384,-0.473408864,-0.643987712,-1.5844032,0.885360704,0.136114928,-0.229501184,0.057119964,0.028913744,0.099078992,0.057953,0.207861488,0.14559,0.424597216,-0.012765482,-0.095470552,0.116807624,-0.034161044,-0.832728256,-0.540973248,0.222213216,0.400175296,0.261559456,-0.089601696,-0.40071936,-0.93703104,0.222213216,-0.14467096,2.147483647,-0.741010432,-0.188441808,-0.12708552,0.18039072,0.052255304,-0.757386752,-0.319644096,0.823902144,-0.749695104,0.086206672,0.124862664,1.44859264,0.0,0.60009504,0.109950992,0.0,-0.044525312,0.036596232,-0.098770552,0.158623664,0.0,-0.203544592,-0.879819968,0.0,-0.000351697,-0.247755376,0.112935128,-0.673379392,1.161133312,-0.255902048,0.070864152,-0.729504256,-0.12921104,-0.100122,-0.19358512,-0.100122,0.0,0.0,0.0
74.0,2.126099072,0.898909824,-0.089116632,0.538680768,0.092051464,1.152752896,0.044832488,-0.100191016,-0.098485264,-1.67718912,0.0,-0.337787584,-0.148500384,-0.473408864,-0.643987712,-1.5844032,0.885360704,0.136114928,-0.229501184,0.057119964,0.028913744,0.099078992,0.057953,0.207861488,0.14559,0.424597216,-0.012765482,-0.095470552,0.116807624,-0.034161044,-0.832728256,-0.540973248,0.222213216,0.400175296,0.261559456,-0.089601696,-0.40071936,-0.93703104,0.222213216,-0.14467096,2.147483647,-0.741010432,-0.188441808,-0.12708552,0.18039072,0.052255304,-0.757386752,-0.319644096,0.823902144,-0.749695104,0.086206672,0.124862664,1.44859264,0.0,0.60009504,0.109950992,0.0,-0.044525312,0.036596232,-0.098770552,0.158623664,0.0,-0.203544592,-0.879819968,0.0,-0.000351697,-0.247755376,0.112935128,-0.673379392,1.161133312,-0.255902048,0.070864152,-0.729504256,-0.12921104,-0.100122,-0.19358512,-0.100122,0.0,0.0,0.0
75.0,2.126099072,0.898909824,-0.089116632,0.538680768,0.092051464,1.152752896,0.044832488,-0.100191016,-0.098485264,-1.67718912,0.0,-0.337787584,-0.148500384,-0.473408864,-0.643987712,-1.5844032,0.885360704,0.136114928,-0.229501184,0.057119964,0.028913744,0.099078992,0.057953,0.207861488,0.14559,0.424597216,-0.012765482,-0.095470552,0.116807624,-0.034161044,-0.832728256,-0.540973248,0.222213216,0.400175296,0.261559456,-0.089601696,-0.40071936,-0.93703104,0.222213216,-0.14467096,2.147483647,-0.741010432,-0.188441808,-0.12708552,0.18039072,0.052255304,-0.757386752,-0.319644096,0.823902144,-0.749695104,0.086206672,0.124862664,1.44859264,0.0,0.60009504,0.109950992,0.0,-0.044525312,0.036596232,-0.098770552,0.158623664,0.0,-0.203544592,-0.879819968,0.0,-0.000351697,-0.247755376,0.112935128,-0.673379392,1.161133312,-0.255902048,0.070864152,-0.729504256,-0.12921104,-0.100122,-0.19358512,-0.100122,0.0,0.0,0.0
76.0,2.126099072,0.898909824,-0.089116632,0.538680768,0.092051464,1.152752896,0.044832488,-0.100191016,-0.098485264,-1.67718912,0.0,-0.337787584,-0.148500384,-0.473408864,-0.643987712,-1.5844032,0.885360704,0.136114928,-0.229501184,0.057119964,0.028913744,0.099078992,0.057953,0.207861488,0.14559,0.424597216,-0.012765482,-0.095470552,0.116807624,-0.034161044,-0.832728256,-0.540973248,0.222213216,0.400175296,0.261559456,-0.089601696,-0.40071936,-0.93703104,0.222213216,-0.14467096,2.147483647,-0.741010432,-0.188441808,-0.12708552,0.18039072,0.052255304,-0.757386752,-0.319644096,0.823902144,-0.749695104,0.086206672,0.124862664,1.44859264,0.0,0.60009504,0.109950992,0.0,-0.044525312,0.036596232,-0.098770552,-0.17915872,0.0,-0.412201696,-1.132297344,0.0,-0.000351697,-0.247755376,0.112935128,-1.038422848,0.765893184,-0.255902048,0.155961104,-0.729504256,-0.12921104,-0.100122,-0.19358512,-0.100122,0.0,-2.141764352,0.0
77.0,2.126099072,0.898909824,-0.089116632,0.538680768,0.092051464,1.152752896,0.044832488,-0.100191016,-0.098485264,-1.67718912,0.0,-0.337787584,-0.148500384,-0.473408864,-0.643987712,-1.5844032,0.885360704,0.136114928,-0.229501184,0.057119964,0.028913744,0.099078992,0.057953,0.207861488,0.14559,0.424597216,-0.012765482,-0.095470552,0.116807624,-0.034161044,-0.832728256,-0.540973248,0.222213216,0.400175296,0.261559456,-0.089601696,-0.40071936,-0.93703104,0.222213216,-0.14467096,2.147483647,-0.741010432,-0.188441808,-0.12708552,0.18039072,0.052255304,-0.757386752,-0.319644096,0.823902144,-0.749695104,0.086206672,0.124862664,1.44859264,0.0,0.60009504,0.109950992,0.0,-0.044525312,0.036596232,-0.098770552,-0.17915872,0.0,-0.412201696,-1.132297344,0.0,-0.000351697,-0.247755376,0.112935128,-1.038422848,0.765893184,-0.255902048,0.155961104,-0.729504256,-0.12921104,-0.100122,-0.19358512,-0.100122,0.0,-2.141764352,0.0
78.0,2.126099072,0.898909824,-0.089116632,0.538680768,0.092051464,1.152752896,0.044832488,-0.100191016,-0.098485264,-1.67718912,0.0,-0.337787584,-0.148500384,-0.473408864,-0.643987712,-1.5844032,0.885360704,0.136114928,-0.229501184,0.057119964,0.028913744,0.099078992,0.057953,0.207861488,0.14559,0.424597216,-0.012765482,-0.095470552,0.116807624,-0.034161044,-0.832728256,-0.540973248,0.222213216,0.400175296,0.261559456,-0.089601696,-0.40071936,-0.93703104,0.222213216,-0.14467096,2.147483647,-0.741010432,-0.188441808,-0.12708552,0.18039072,0.052255304,-0.757386752,-0.319644096,0.823902144,-0.749695104,0.086206672,0.124862664,1.44859264,0.0,0.60009504,0.109950992,0.0,-0.044525312,0.036596232,-0.098770552,-0.17915872,0.0,-0.412201696,-1.132297344,0.0,-0.000351697,-0.247755376,0.112935128,-1.038422848,0.765893184,-0.255902048,0.155961104,-0.729504256,-0.12921104,-0.100122,-0.19358512,-0.100122,0.0,-2.141764352,0.0
79.0,2.126099072,0.898909824,-0.089116632,0.538680768,0.092051464,1.152752896,0.044832488,-0.100191016,-0.098485264,-1.67718912,0.0,-0.337787584,-0.148500384,-0.473408864,-0.643987712,-1.5844032,0.885360704,0.136114928,-0.229501184,0.057119964,0.028913744,0.099078992,0.057953,0.207861488,0.14559,0.424597216,-0.012765482,-0.095470552,0.116807624,-0.034161044,-0.832728256,-0.540973248,0.222213216,0.400175296,0.261559456,-0.089601696,-0.40071936,-0.93703104,0.222213216,-0.14467096,2.147483647,-0.741010432,-0.188441808,-0.12708552,0.18039072,0.052255304,-0.757386752,-0.319644096,0.823902144,-0.749695104,0.086206672,0.124862664,1.44859264,0.0,0.60009504,0.109950992,0.0,-0.044525312,0.036596232,-0.098770552,-0.17915872,0.0,-0.412201696,-1.132297344,0.0,-0.000351697,-0.247755376,0.112935128,-1.038422848,0.765893184,-0.255902048,0.155961104,-0.729504256,-0.12921104,-0.100122,-0.19358512,-0.100122,0.0,-2.141764352,0.0
80.0,2.126099072,0.898909824,-0.089116632,0.538680768,0.092051464,1.152752896,0.044832488,-0.100191016,-0.098485264,-1.67718912,0.0,-0.337787584,-0.148500384,-0.473408864,-0.643987712,-1.5844032,0.885360704,0.136114928,-0.229501184,0.057119964,0.028913744,0.099078992,0.057953,0.207861488,0.14559,0.424597216,-0.012765482,-0.095470552,0.116807624,-0.034161044,-0.832728256,-0.540973248,0.222213216,0.400175296,0.261559456,-0.089601696,-0.40071936,-0.93703104,0.222213216,-0.14467096,2.147483647,-0.741010432,-0.188441808,-0.12708552,0.18039072,0.052255304,-0.757386752,-0.319644096,0.823902144,-0.749695104,0.086206672,0.124862664,1.44859264,0.0,0.60009504,0.109950992,0.0,-0.044525312,0.036596232,-0.098770552,-0.17915872,0.0,-0.412201696,-1.132297344,0.0,-0.000351697,-0.247755376,0.112935128,-1.038422848,0.765893184,-0.255902048,0.155961104,-0.729504256,-0.12921104,-0.100122,-0.19358512,-0.100122,0.0,-2.141764352,0.0
81.0,2.126099072,0.898909824,-0.089116632,0.538680768,0.092051464,1.152752896,0.044832488,-0.100191016,-0.098485264,-1.67718912,0.0,-0.337787584,-0.148500384,-0.473408864,-0.643987712,-1.5844032,0.885360704,0.136114928,-0.229501184,0.057119964,0.028913744,0.099078992,0.057953,0.207861488,0.14559,0.424597216,-0.012765482,-0.095470552,0.116807624,-0.034161044,-0.832728256,-0.540973248,0.222213216,0.400175296,0.261559456,-0.089601696,-0.40071936,-0.93703104,0.222213216,-0.14467096,2.147483647,-0.741010432,-0.188441808,-0.12708552,0.18039072,0.052255304,-0.757386752,-0.319644096,0.823902144,-0.749695104,0.086206672,0.124862664,1.44859264,0.0,0.60009504,0.109950992,0.0,-0.044525312,0.036596232,-0.098770552,-0.17915872,0.0,-0.412201696,-1.132297344,0.0,-0.000351697,-0.247755376,0.112935128,-1.038422848,0.765893184,-0.255902048,0.155961104,-0.729504256,-0.12921104,-0.100122,-0.19358512,-0.100122,0.0,-2.141764352,0.0
82.0,2.126099072,0.898909824,-0.089116632,0.538680768,0.092051464,1.152752896,0.044832488,-0.100191016,-0.098485264,-1.67718912,0.0,-0.337787584,-0.148500384,-0.473408864,-0.643987712,-1.5844032,0.885360704,0.136114928,-0.229501184,0.057119964,0.028913744,0.099078992,0.057953,0.207861488,0.14559,0.424597216,-0.012765482,-0.095470552,0.116807624,-0.034161044,-0.832728256,-0.540973248,0.227441808,0.400175296,0.261559456,-0.089601696,-0.39099232,-0.244218704,0.227441808,-0.14467096,2.100706048,-0.764594176,-0.188441808,-0.12708552,0.18039072,0.04702672,-0.775963904,-0.336615616,0.823902144,-1.042839552,0.086206672,0.124862664,1.44859264,0.0,0.60009504,0.109950992,0.0,-0.044525312,0.036596232,-0.098770552,-0.17915872,0.0,-0.412201696,-1.132297344,0.0,-0.000351697,-0.247755376,0.112935128,-1.038422848,0.765893184,-0.255902048,0.155961104,-0.729504256,-0.12921104,-0.100122,-0.19358512,-0.100122,0.0,-2.141764352,0.0
83.0,2.126099072,0.898909824,-0.089116632,0.538680768,0.092051464,1.152752896,0.044832488,-0.100191016,-0.098485264,-1.67718912,0.0,0.078588544,0.134023216,-0.31904272,-0.449006976,-1.086753664,1.462557696,0.136114928,-0.229501184,0.121828432,0.028913744,0.099078992,0.057953,0.207861488,0.14559,0.424597216,-0.012765482,-0.095470552,0.116807624,-0.034161044,-0.832728256,-0.540973248,0.227441808,0.400175296,0.261559456,-0.089601696,-0.39099232,-0.244218704,0.227441808,-0.14467096,2.100706048,-0.764594176,-0.188441808,-0.12708552,0.18039072,0.04702672,-0.775963904,-0.336615616,0.823902144,-1.042839552,0.086206672,0.124862664,1.44859264,0.0,0.60009504,0.109950992,0.0,-0.044525312,0.036596232,-0.098770552,-0.17915872,0.0,-0.412201696,-1.132297344,0.0,-0.000351697,-0.247755376,0.112935128,-1.038422848,0.765893184,-0.255902048,0.155961104,-0.729504256,-0.12921104,-0.100122,-0.19358512,-0.100122,0.0,-2.141764352,0.0
84.0,2.126099072,0.898909824,-0.089116632,0.538680768,0.092051464,1.152752896,0.044832488,-0.100191016,-0.098485264,-1.67718912,0.0,0.078588544,0.134023216,-0.31904272,-0.449006976,-1.086753664,1.462557696,0.136114928,-0.229501184,0.121828432,0.028913744,0.099078992,0.057953,0.207861488,0.14559,0.424597216,-0.012765482,-0.095470552,0.116807624,-0.034161044,-0.832728256,-0.540973248,0.227441808,0.400175296,0.261559456,-0.089601696,-0.39099232,-0.244218704,0.227441808,-0.14467096,2.100706048,-0.764594176,-0.188441808,-0.12708552,0.18039072,0.04702672,-0.775963904,-0.336615616,0.823902144,-1.042839552,0.086206672,0.076939808,0.729186112,0.0,-0.334897344,0.109950992,0.0,-0.044525312,-0.239569872,-0.098770552,-0.17915872,0.0,-0.412201696,-1.132297344,0.0,-0.000351697,-0.247755376,0.112935128,-1.038422848,0.765893184,-0.255902048,0.432699168,-0.454319936,-0.12921104,-0.07685984,-0.19358512,-0.07685984,0.0,-1.491372288,0.0
85.0,1.923797376,0.898909824,-0.213374464,0.514499296,-0.0300261,0.376144288,0.044832488,-0.100191016,-0.098485264,-1.698684928,0.0,0.078588544,0.134023216,-0.31904272,-0.449006976,-1.086753664,1.462557696,0.136114928,-0.229501184,0.121828432,0.028913744,0.099078992,0.057953,0.207861488,0.14559,0.424597216,-0.012765482,-0.095470552,0.116807624,-0.034161044,-0.832728256,-0.540973248,0.227441808,0.400175296,0.261559456,-0.089601696,-0.39099232,-0.244218704,0.227441808,-0.14467096,2.100706048,-0.764594176,-0.188441808,-0.12708552,0.18039072,0.04702672,-0.775963904,-0.336615616,0.823902144,-1.042839552,0.086206672,0.098726776,1.516211584,0.0,0.195260224,0.234208816,0.0,-0.044525312,-0.239569872,-0.098770552,-0.17915872,0.0,-0.412201696,-1.132297344,0.0,-0.000351697,-0.247755376,0.112935128,-1.038422848,0.765893184,-0.255902048,0.432699168,-0.454319936,-0.12921104,-0.07685984,-0.19358512,-0.07685984,0.0,-1.491372288,0.0
86.0,1.923797376,0.898909824,-0.213374464,0.514499296,-0.0300261,0.376144288,0.044832488,-0.100191016,-0.098485264,-1.698684928,0.0,0.078588544,0.134023216,-0.31904272,-0.449006976,-1.086753664,1.462557696,0.136114928,-0.229501184,0.121828432,0.028913744,0.099078992,0.057953,0.207861488,0.14559,0.424597216,-0.012765482,-0.095470552,0.116807624,-0.034161044,-0.832728256,-0.540973248,0.227441808,0.400175296,0.261559456,-0.089601696,-0.39099232,-0.244218704,0.227441808,-0.14467096,2.100706048,-0.764594176,-0.188441808,-0.12708552,0.18039072,0.04702672,-0.775963904,-0.336615616,0.823902144,-1.042839552,0.086206672,0.098726776,1.516211584,0.0,0.195260224,0.234208816,0.0,-0.044525312,-0.239569872,-0.098770552,-0.17915872,0.0,-0.412201696,-1.132297344,0.0,-0.000351697,-0.247755376,0.112935128,-1.038422848,0.765893184,-0.255902048,0.432699168,-0.454319936,-0.12921104,-0.07685984,-0.19358512,-0.07685984,0.0,-1.491372288,0.0
87.0,1.923797376,0.898909824,-0.213374464,0.514499296,-0.0300261,0.376144288,0.044832488,-0.100191016,-0.098485264,-1.698684928,0.0,0.078588544,0.134023216,-0.31904272,-0.449006976,-1.086753664,1.462557696,0.136114928,-0.229501184,0.121828432,0.028913744,0.099078992,0.057953,0.207861488,0.14559,0.424597216,-0.012765482,-0.095470552,0.116807624,-0.034161044,-0.832728256,-0.540973248,0.227441808,0.400175296,0.261559456,-0.089601696,-0.39099232,-0.244218704,0.227441808,-0.14467096,2.100706048,-0.764594176,-0.188441808,-0.12708552,0.18039072,0.04702672,-0.775963904,-0.336615616,0.823902144,-1.042839552,0.086206672,0.098726776,1.516211584,0.0,0.195260224,0.234208816,0.0,-0.044525312,-0.239569872,-0.098770552,-0.17915872,0.0,-0.412201696,-1.132297344,0.0,-0.000351697,-0.247755376,0.112935128,-1.038422848,0.765893184,-0.255902048,0.432699168,-0.454319936,-0.12921104,-0.07685984,-0.19358512,-0.07685984,0.0,-1.491372288,0.0
88.0,1.923797376,0.898909824,-0.213374464,0.514499296,-0.0300261,0.376144288,0.044832488,-0.100191016,-0.098485264,-1.698684928,0.0,0.078588544,0.134023216,-0.31904272,-0.449006976,-1.086753664,1.462557696,0.136114928,-0.229501184,0.121828432,0.028913744,0.099078992,0.057953,0.207861488,0.14559,0.424597216,-0.012765482,-0.095470552,0.116807624,-0.034161044,-0.832728256,-0.540973248,0.227441808,0.400175296,0.261559456,-0.089601696,-0.39099232,-0.244218704,0.227441808,-0.14467096,2.100706048,-0.764594176,-0.188441808,-0.12708552,0.18039072,0.04702672,-0.775963904,-0.336615616,0.823902144,-1.042839552,0.086206672,0.098726776,1.516211584,0.0,0.195260224,0.234208816,0.0,-0.044525312,-0.239569872,-0.098770552,-0.17915872,0.0,-0.412201696,-1.132297344,0.0,-0.000351697,-0.247755376,0.112935128,-1.038422848,0.765893184,-0.255902048,0.432699168,-0.454319936,-0.12921104,-0.07685984,-0.19358512,-0.07685984,0.0,-1.491372288,0.0
89.0,1.923797376,0.898909824,-0.213374464,0.514499296,-0.0300261,0.376144288,0.044832488,-0.100191016,-0.098485264,-1.698684928,0.0,0.078588544,0.134023216,-0.31904272,-0.449006976,-1.086753664,1.462557696,0.136114928,-0.229501184,0.121828432,0.028913744,0.099078992,0.057953,0.207861488,0.14559,0.424597216,-0.012765482,-0.095470552,0.116807624,-0.034161044,-0.832728256,-0.540973248,0.227441808,0.400175296,0.261559456,-0.089601696,-0.39099232,-0.244218704,0.227441808,-0.14467096,2.100706048,-0.764594176,-0.188441808,-0.12708552,0.18039072,0.04702672,-0.775963904,-0.336615616,0.823902144,-1.042839552,0.086206672,0.098726776,1.516211584,0.0,0.195260224,0.234208816,0.0,-0.044525312,-0.239569872,-0.098770552,-0.17915872,0.0,-0.412201696,-1.132297344,0.0,-0.000351697,-0.247755376,0.112935128,-1.038422848,0.765893184,-0.255902048,0.432699168,-0.454319936,-0.12921104,-0.07685984,-0.19358512,-0.07685984,0.0,-1.491372288,0.0
90.0,1.923797376,0.898909824,-0.213374464,0.514499296,-0.0300261,0.376144288,0.044832488,-0.100191016,-0.098485264,-1.698684928,0.0,0.078588544,0.134023216,-0.31904272,-0.449006976,-1.086753664,1.462557696,0.136114928,-0.229501184,0.121828432,0.028913744,0.099078992,0.057953,0.207861488,0.14559,0.424597216,-0.012765482,-0.095470552,0.116807624,-0.034161044,-0.832728256,-0.540973248,0.227441808,0.400175296,0.261559456,-0.089601696,-0.39099232,-0.244218704,0.227441808,-0.14467096,2.100706048,-0.764594176,-0.188441808,-0.12708552,0.18039072,0.04702672,-0.775963904,-0.336615616,0.823902144,-1.042839552,0.086206672,0.098726776,1.516211584,0.0,0.195260224,0.234208816,0.0,-0.044525312,-0.239569872,-0.098770552,-0.17915872,0.0,-0.412201696,-1.132297344,0.0,-0.000351697,-0.247755376,0.112935128,-1.038422848,0.765893184,-0.255902048,0.432699168,-0.454319936,-0.12921104,-0.07685984,-0.19358512,-0.07685984,0.0,-1.491372288,0.0
91.0,1.923797376,0.898909824,-0.213374464,0.514499296,-0.0300261,0.376144288,0.044832488,-0.100191016,-0.098485264,-1.698684928,0.0,0.078588544,0.134023216,-0.31904272,-0.449006976,-1.086753664,1.462557696,0.136114928,-0.229501184,0.121828432,0.028913744,0.099078992,0.057953,0.207861488,0.14559,0.424597216,-0.012765482,-0.095470552,0.116807624,-0.034161044,-0.832728256,-0.540973248,0.227441808,0.400175296,0.261559456,-0.089601696,-0.39099232,-0.244218704,0.227441808,-0.14467096,2.100706048,-0.764594176,-0.188441808,-0.12708552,0.18039072,0.04702672,-0.775963904,-0.336615616,0.823902144,-1.042839552,0.086206672,0.098726776,1.516211584,0.0,0.195260224,0.234208816,0.0,-0.044525312,-0.239569872,-0.098770552,-0.17915872,0.0,-0.412201696,-1.132297344,0.0,-0.000351697,-0.247755376,0.112935128,-1.038422848,0.765893184,-0.255902048,0.432699168,-0.454319936,-0.12921104,-0.07685984,-0.19358512,-0.07685984,0.0,-1.491372288,0.0
92.0,1.923797376,0.898909824,-0.213374464,0.514499296,-0.0300261,0.376144288,0.044832488,-0.100191016,-0.098485264,-1.698684928,0.0,0.078588544,0.134023216,-0.31904272,-0.449006976,-1.086753664,1.462557696,0.136114928,-0.229501184,0.121828432,0.028913744,0.099078992,0.057953,0.207861488,0.14559,0.424597216,-0.012765482,-0.095470552,0.116807624,-0.034161044,-0.832728256,-0.540973248,0.227441808,0.400175296,0.261559456,-0.089601696,-0.39099232,-0.244218704,0.227441808,-0.14467096,2.100706048,-0.764594176,-0.188441808,-0.12708552,0.18039072,0.04702672,-0.775963904,-0.336615616,0.823902144,-1.042839552,0.086206672,0.098726776,1.516211584,0.0,0.195260224,0.234208816,0.0,-0.044525312,-0.239569872,-0.098770552,0.012491077,0.0,-0.01937747,-0.766368256,0.0,-0.000351697,-0.247755376,0.112935128,-0.559810752,1.220943488,-0.255902048,0.432699168,-0.454319936,-0.12921104,-0.07685984,-0.19358512,-0.07685984,0.0,-1.988628352,0.0
93.0,1.923797376,0.898909824,-0.213374464,0.514499296,-0.0300261,0.376144288,0.044832488,-0.100191016,-0.098485264,-1.698684928,0.0,0.078588544,0.134023216,-0.31904272,-0.449006976,-1.086753664,1.462557696,0.136114928,-0.229501184,0.121828432,0.028913744,0.099078992,0.057953,0.207861488,0.14559,0.424597216,-0.012765482,-0.095470552,0.116807624,-0.034161044,-0.832728256,-0.540973248,0.227441808,0.400175296,0.261559456,-0.089601696,-0.39099232,-0.244218704,0.227441808,-0.14467096,2.100706048,-0.764594176,-0.188441808,-0.12708552,0.18039072,0.04702672,-0.775963904,-0.336615616,0.823902144,-1.042839552,0.086206672,0.098726776,1.516211584,0.0,0.195260224,0.234208816,0.0,-0.044525312,-0.239569872,-0.098770552,-0.136088064,0.0,-0.48191136,-0.766368256,0.0,-0.000351697,-0.247755376,0.012821861,-0.648142784,0.783083776,-0.255902048,0.752082112,0.029659868,-0.12921104,-0.07685984,-0.19358512,-0.07685984,0.0,-1.792420224,0.0
94.0,1.923797376,0.898909824,-0.213374464,0.514499296,-0.0300261,0.376144288,0.044832488,-0.100191016,-0.098485264,-1.698684928,0.0,0.078588544,0.134023216,-0.31904272,-0.449006976,-1.086753664,1.462557696,0.136114928,-0.229501184,0.121828432,0.028913744,0.099078992,0.057953,0.207861488,0.14559,0.424597216,-0.012765482,-0.095470552,0.116807624,-0.034161044,-0.832728256,-0.540973248,0.227441808,0.400175296,0.261559456,-0.089601696,-0.39099232,-0.244218704,0.227441808,-0.14467096,2.100706048,-0.764594176,-0.188441808,-0.12708552,0.18039072,0.04702672,-0.775963904,-0.336615616,0.823902144,-1.042839552,0.086206672,0.098726776,1.516211584,0.0,0.195260224,0.234208816,0.0,-0.044525312,-0.239569872,-0.098770552,-0.136088064,0.0,-0.48191136,-0.766368256,0.0,-0.000351697,-0.247755376,0.012821861,-0.648142784,0.783083776,-0.255902048,0.752082112,0.029659868,-0.12921104,-0.07685984,-0.19358512,-0.07685984,0.0,-1.792420224,0.0
95.0,1.923797376,0.898909824,-0.213374464,0.514499296,-0.0300261,0.376144288,0.044832488,-0.100191016,-0.098485264,-1.698684928,0.0,0.078588544,0.134023216,-0.31904272,-0.449006976,-1.086753664,1.462557696,0.136114928,-0.229501184,0.121828432,0.028913744,0.099078992,0.057953,0.207861488,0.14559,0.424597216,-0.012765482,-0.095470552,0.116807624,-0.034161044,-0.832728256,-0.540973248,0.227441808,0.400175296,0.261559456,-0.089601696,-0.39099232,-0.244218704,0.227441808,-0.14467096,2.100706048,-0.764594176,-0.188441808,-0.12708552,0.18039072,0.04702672,-0.775963904,-0.336615616,0.823902144,-1.042839552,0.086206672,0.098726776,1.516211584,0.0,0.195260224,0.234208816,0.0,-0.044525312,-0.239569872,-0.098770552,-0.136088064,0.0,-0.48191136,-0.766368256,0.0,-0.000351697,-0.247755376,0.012821861,-0.648142784,0.783083776,-0.255902048,0.752082112,0.029659868,-0.12921104,-0.07685984,-0.19358512,-0.07685984,0.0,-1.792420224,0.0
96.0,1.923797376,0.898909824,-0.213374464,0.514499296,-0.0300261,0.376144288,0.044832488,-0.100191016,-0.098485264,-1.698684928,0.0,0.078588544,0.134023216,-0.31904272,-0.449006976,-1.086753664,1.462557696,0.136114928,-0.229501184,0.121828432,0.028913744,0.099078992,0.057953,0.207861488,0.14559,0.424597216,-0.012765482,-0.095470552,0.116807624,-0.034161044,-0.832728256,-0.540973248,0.227441808,0.400175296,0.261559456,-0.089601696,-0.39099232,-0.244218704,0.227441808,-0.14467096,2.100706048,-0.764594176,-0.188441808,-0.12708552,0.18039072,0.04702672,-0.775963904,-0.336615616,0.823902144,-1.042839552,0.086206672,0.098726776,2.147483647,0.0,1.057447424,0.234208816,0.0,-0.044525312,-0.239569872,-0.098770552,-0.136088064,0.0,-0.48191136,-0.766368256,0.0,-0.000351697,-0.247755376,0.012821861,-0.648142784,0.783083776,-0.255902048,0.752082112,-0.712531008,-0.12921104,-0.07685984,-0.298022688,-0.07685984,0.0,0.0,0.0
97.0,1.923797376,0.898909824,-0.213374464,0.514499296,-0.0300261,0.376144288,0.044832488,-0.100191016,-0.098485264,-1.698684928,0.0,0.078588544,0.134023216,-0.31904272,-0.449006976,-1.086753664,1.462557696,0.136114928,-0.229501184,0.121828432,0.028913744,0.099078992,0.057953,0.207861488,0.14559,0.424597216,-0.012765482,-0.095470552,0.116807624,-0.034161044,-0.832728256,-0.540973248,0.227441808,0.400175296,0.261559456,-0.089601696,-0.39099232,-0.244218704,0.227441808,-0.14467096,2.147483647,-0.764594176,-0.188441808,-0.12708552,0.18039072,0.04702672,-0.775963904,-0.336615616,0.992409088,-1.042839552,0.085926992,0.098726776,1.746744704,0.0,0.381005696,0.048129468,0.0,-0.044525312,-0.239569872,-0.098770552,-0.136088064,0.0,-0.48191136,-0.766368256,0.0,-0.000351697,-0.247755376,0.012821861,-0.648142784,0.783083776,-0.255902048,0.752082112,-0.712531008,-0.12921104,-0.07685984,-0.298022688,-0.07685984,0.0,0.0,0.0
98.0,1.923797376,0.898909824,-0.213374464,0.514499296,-0.0300261,0.376144288,0.044832488,-0.100191016,-0.098485264,-1.698684928,0.0,0.078588544,0.134023216,-0.31904272,-0.449006976,-1.086753664,1.462557696,0.136114928,-0.229501184,0.121828432,0.028913744,0.099078992,0.057953,0.207861488,0.14559,0.424597216,-0.012765482,-0.095470552,0.116807624,-0.034161044,-0.832728256,-0.540973248,0.227441808,0.400175296,0.261559456,-0.089601696,-0.39099232,-0.244218704,0.227441808,-0.14467096,2.147483647,-0.764594176,-0.188441808,-0.12708552,0.18039072,0.04702672,-0.775963904,-0.336615616,0.992409088,-1.042839552,0.085926992,0.098726776,1.746744704,0.0,0.381005696,0.048129468,0.0,-0.044525312,-0.239569872,-0.098770552,-0.136088064,0.0,-0.48191136,-0.766368256,0.0,-0.000351697,-0.247755376,0.012821861,-0.648142784,0.783083776,-0.255902048,0.752082112,-0.712531008,-0.12921104,-0.07685984,-0.298022688,-0.07685984,0.0,0.0,0.0
99.0,1.923797376,0.898909824,-0.213374464,0.514499296,-0.0300261,0.376144288,0.044832488,-0.100191016,-0.098485264,-1.698684928,0.0,0.007235281,0.134023216,-0.757704704,-0.449006976,-1.379823104,0.978169088,0.136114928,-0.229501184,-0.248570112,0.028913744,0.099078992,0.057953,0.207861488,0.14559,0.424597216,-0.012765482,-0.095470552,0.116807624,-0.034161044,-0.832728256,-0.540973248,0.227441808,0.400175296,0.261559456,-0.089601696,-0.39099232,-0.244218704,0.227441808,-0.14467096,2.147483647,-0.764594176,-0.188441808,-0.12708552,0.18039072,0.04702672,-0.775963904,-0.336615616,0.992409088,-1.042839552,0.085926992,0.098726776,1.746744704,0.0,0.381005696,0.048129468,0.0,-0.044525312,-0.239569872,-0.098770552,-0.136088064,0.0,-0.043249308,-0.490347136,0.0,-0.000351697,-0.247755376,0.012821861,-0.20242048,1.409992448,-0.255902048,0.752082112,-0.712531008,-0.12921104,-0.07685984,-0.298022688,-0.07685984,0.0,0.0,0.0
100.0,1.923797376,0.898909824,-0.213374464,0.514499296,-0.0300261,0.376144288,0.044832488,-0.100191016,-0.098485264,-1.698684928,0.0,0.007235281,0.134023216,-0.757704704,-0.449006976,-1.379823104,0.978169088,0.136114928,-0.229501184,-0.248570112,0.028913744,0.099078992,0.057953,0.207861488,0.14559,0.424597216,-0.012765482,-0.095470552,0.116807624,-0.034161044,-0.832728256,-0.540973248,0.227441808,0.400175296,0.261559456,-0.089601696,-0.39099232,-0.244218704,0.227441808,-0.14467096,2.147483647,-0.764594176,-0.188441808,-0.12708552,0.18039072,0.04702672,-0.775963904,-0.336615616,0.992409088,-1.042839552,0.085926992,0.098726776,1.746744704,0.0,0.381005696,0.048129468,0.0,-0.044525312,-0.239569872,-0.098770552,-0.136088064,0.0,-0.043249308,-0.490347136,0.0,-0.000351697,-0.247755376,0.012821861,-0.20242048,1.409992448,-0.255902048,0.752082112,-0.712531008,-0.12921104,-0.07685984,-0.298022688,-0.07685984,0.0,0.0,0.0
101.0,1.923797376,0.898909824,-0.213374464,0.514499296,-0.0300261,0.376144288,0.044832488,-0.100191016,-0.098485264,-1.698684928,0.0,0.007235281,0.134023216,-0.757704704,-0.449006976,-1.379823104,0.978169088,0.136114928,-0.229501184,-0.248570112,0.028913744,0.099078992,0.057953,0.207861488,0.14559,0.424597216,-0.012765482,-0.095470552,0.116807624,-0.034161044,-0.832728256,-0.540973248,0.227441808,0.400175296,0.261559456,-0.089601696,-0.39099232,-0.244218704,0.227441808,-0.14467096,2.147483647,-0.764594176,-0.188441808,-0.12708552,0.18039072,0.04702672,-0.775963904,-0.336615616,0.992409088,-1.042839552,0.085926992,0.098726776,1.746744704,0.0,0.381005696,0.048129468,0.0,-0.044525312,-0.239569872,-0.098770552,-0.136088064,0.0,-0.043249308,-0.490347136,0.0,-0.000351697,-0.247755376,0.012821861,-0.20242048,1.409992448,-0.255902048,0.752082112,-0.712531008,-0.12921104,-0.07685984,-0.298022688,-0.07685984,0.0,0.0,0.0
102.0,1.923797376,0.898909824,-0.213374464,0.514499296,-0.0300261,0.376144288,0.044832488,-0.100191016,-0.098485264,-1.698684928,0.0,0.007235281,0.134023216,-0.757704704,-0.449006976,-1.379823104,0.978169088,0.136114928,-0.229501184,-0.248570112,0.028913744,0.099078992,0.057953,0.207861488,0.14559,0.424597216,-0.012765482,-0.095470552,0.116807624,-0.034161044,-0.832728256,-0.540973248,0.227441808,0.400175296,0.261559456,-0.089601696,-0.39099232,-0.244218704,0.227441808,-0.14467096,2.147483647,-0.764594176,-0.188441808,-0.12708552,0.18039072,0.04702672,-0.775963904,-0.336615616,0.992409088,-1.042839552,0.085926992,0.098726776,1.746744704,0.0,0.381005696,0.048129468,0.0,-0.044525312,-0.239569872,-0.098770552,-0.136088064,0.0,-0.043249308,-0.490347136,0.0,-0.000351697,-0.247755376,0.012821861,-0.20242048,1.409992448,-0.255902048,0.752082112,-0.712531008,-0.12921104,-0.07685984,-0.298022688,-0.07685984,0.0,0.0,0.0
103.0,1.923797376,0.898909824,-0.213374464,0.514499296,-0.0300261,0.376144288,0.044832488,-0.100191016,-0.098485264,-1.698684928,0.0,0.007235281,0.134023216,-0.757704704,-0.449006976,-1.379823104,0.978169088,0.136114928,-0.229501184,-0.248570112,0.028913744,0.099078992,0.057953,0.207861488,0.14559,0.424597216,-0.012765482,-0.095470552,0.116807624,-0.034161044,-0.832728256,-0.540973248,0.227441808,0.400175296,0.261559456,-0.089601696,-0.39099232,-0.244218704,0.227441808,-0.14467096,2.039933696,-1.287399808,-0.188441808,-0.12708552,0.18039072,0.04702672,-1.431195776,-0.336615616,0.920860096,-1.042839552,0.085926992,0.098726776,1.746744704,0.0,0.381005696,0.048129468,0.0,-0.044525312,-0.239569872,-0.098770552,-0.007048994,0.0,0.541312,-0.490347136,0.0,-0.000351697,-0.247755376,0.04891524,-0.201124704,1.703065216,-0.255902048,0.752082112,-0.712531008,-0.12921104,-0.07685984,-0.298022688,-0.07685984,0.0,0.0,0.0
104.0,1.923797376,0.898909824,-0.213374464,0.514499296,-0.0300261,0.376144288,0.044832488,-0.100191016,-0.098485264,-1.698684928,0.0,0.007235281,0.134023216,-0.757704704,-0.449006976,-1.379823104,0.978169088,0.136114928,-0.229501184,-0.248570112,0.028913744,0.099078992,0.057953,0.207861488,0.14559,0.424597216,-0.012765482,-0.095470552,0.116807624,-0.034161044,-0.832728256,-0.540973248,0.227441808,0.400175296,0.261559456,-0.089601696,-0.39099232,-0.244218704,0.227441808,-0.14467096,2.039933696,-1.287399808,-0.188441808,-0.12708552,0.18039072,0.04702672,-1.431195776,-0.336615616,0.920860096,-1.042839552,0.085926992,0.098726776,1.746744704,0.0,0.381005696,0.048129468,0.0,-0.044525312,-0.239569872,-0.098770552,-0.007048994,0.0,0.541312,-0.490347136,0.0,-0.000351697,-0.247755376,0.04891524,-0.201124704,1.703065216,-0.255902048,0.752082112,-0.712531008,-0.12921104,-0.07685984,-0.298022688,-0.07685984,0.0,0.0,0.0
105.0,1.923797376,0.898909824,-0.213374464,0.514499296,-0.0300261,0.376144288,0.044832488,-0.100191016,-0.098485264,-1.698684928,0.0,0.007235281,0.134023216,-0.757704704,-0.449006976,-1.379823104,0.978169088,0.136114928,-0.229501184,-0.248570112,0.028913744,0.099078992,0.057953,0.207861488,0.14559,0.424597216,-0.012765482,-0.095470552,0.116807624,-0.034161044,-0.832728256,-0.540973248,0.227441808,0.400175296,0.261559456,-0.089601696,-0.39099232,-0.244218704,0.227441808,-0.14467096,2.039933696,-1.287399808,-0.188441808,-0.12708552,0.18039072,0.04702672,-1.431195776,-0.336615616,0.920860096,-1.042839552,0.085926992,0.098726776,1.746744704,0.0,0.381005696,0.048129468,0.0,-0.044525312,-0.239569872,-0.098770552,-0.007048994,0.0,0.541312,-0.490347136,0.0,-0.000351697,-0.247755376,0.04891524,-0.201124704,1.703065216,-0.255902048,0.752082112,-0.712531008,-0.12921104,-0.07685984,-0.298022688,-0.07685984,0.0,0.0,0.0
106.0,1.923797376,0.898909824,-0.213374464,0.514499296,-0.0300261,0.376144288,0.044832488,-0.100191016,-0.098485264,-1.698684928,0.0,0.007235281,0.134023216,-0.757704704,-0.449006976,-1.379823104,0.978169088,0.136114928,-0.229501184,-0.248570112,0.028913744,0.099078992,0.057953,0.207861488,0.14559,0.424597216,-0.012765482,-0.095470552,0.116807624,-0.034161044,-0.832728256,-0.540973248,0.227441808,0.400175296,0.261559456,-0.089601696,-0.39099232,-0.244218704,0.227441808,-0.14467096,2.039933696,-1.287399808,-0.188441808,-0.12708552,0.18039072,0.04702672,-1.431195776,-0.336615616,0.920860096,-1.042839552,0.085926992,0.098726776,1.746744704,0.0,0.381005696,0.048129468,0.0,-0.044525312,-0.239569872,-0.098770552,-0.007048994,0.0,0.541312,-0.490347136,0.0,-0.000351697,-0.247755376,0.04891524,-0.201124704,1.703065216,-0.255902048,0.752082112,-0.712531008,-0.12921104,-0.07685984,-0.298022688,-0.07685984,0.0,0.0,0.0
107.0,1.923797376,0.898909824,-0.213374464,0.514499296,-0.0300261,0.376144288,0.044832488,-0.100191016,-0.098485264,-1.698684928,0.0,0.007235281,0.134023216,-0.757704704,-0.449006976,-1.379823104,0.978169088,0.136114928,-0.229501184,-0.248570112,0.028913744,0.099078992,0.057953,0.207861488,0.14559,0.424597216,-0.012765482,-0.095470552,0.116807624,-0.034161044,-0.832728256,-0.540973248,0.227441808,0.400175296,0.261559456,-0.089601696,-0.39099232,-0.244218704,0.227441808,-0.14467096,2.039933696,-1.287399808,-0.188441808,-0.12708552,0.18039072,0.04702672,-1.431195776,-0.336615616,0.920860096,-1.042839552,0.085926992,0.098726776,1.746744704,0.0,0.381005696,0.048129468,0.0,-0.044525312,-0.239569872,-0.098770552,-0.007048994,0.0,0.025792122,-0.61586176,0.0,-0.000351697,-0.27703632,0.04891524,-0.769685376,1.181834752,-0.20330984,0.752082112,-0.712531008,-0.12921104,-0.07685984,-0.298022688,-0.07685984,0.0,-2.10111424,0.0
108.0,1.923797376,0.898909824,-0.213374464,0.514499296,-0.0300261,0.376144288,0.044832488,-0.100191016,-0.098485264,-1.698684928,0.0,0.007235281,0.134023216,-0.757704704,-0.449006976,-1.379823104,0.978169088,0.136114928,-0.229501184,-0.248570112,0.028913744,0.099078992,0.057953,0.207861488,0.14559,0.424597216,-0.012765482,-0.095470552,0.116807624,-0.034161044,-0.832728256,-0.540973248,0.227441808,0.400175296,0.261559456,-0.089601696,-0.39099232,-0.244218704,0.227441808,-0.14467096,2.039933696,-1.287399808,-0.188441808,-0.12708552,0.18039072,0.04702672,-1.431195776,-0.336615616,0.920860096,-1.042839552,0.085926992,0.098726776,1.746744704,0.0,0.381005696,0.048129468,0.0,-0.044525312,-0.239569872,-0.098770552,-0.007048994,0.0,0.025792122,-0.61586176,0.0,-0.000351697,-0.27703632,0.04891524,-0.769685376,1.181834752,-0.20330984,0.752082112,-0.712531008,-0.12921104,-0.07685984,-0.298022688,-0.07685984,0.0,-2.10111424,0.0
