0.0,-0.177565984,0.029992484,-0.18347656,-0.049494396,0.212801456,0.01967787,-0.024238014,-0.172478416,0.172848768,-0.103613752,0.064479484,0.125767216,-0.103644056,0.132515384,-0.176286784,-0.089045096,0.081576016,0.17161488,0.004432891,0.183929504,-0.094888616,-0.19945576,-0.138921904,-0.209598496,0.021132004,-0.126532688,-0.105675944,-0.064966268,0.113438464,-0.054118784,0.042033752,-0.187588304,0.184444624,0.141643424,0.215066512,-0.021663488,-0.185448096,-0.004162013,0.184444624,0.142410528,-0.00706344,-0.064352312,-0.163710352,-0.062815488,-0.164231328,-0.046555148,0.079753008,-0.08581668,-0.022541284,0.15902224,0.12713152,-0.095503688,0.143088496,0.050277088,0.009125354,0.102051984,0.115730048,0.033608996,0.0,-0.03640366,-0.032495498,-0.132316304,0.079507928,-0.110373696,0.042312752,0.044986316,0.124795784,0.015752815,-0.04393816,-0.102441032,0.063175388,0.050387964,-0.025562632,0.037945512,0.120762808,0.051260676,0.120762808,-0.14292744,0.034325212,-0.106744576
1.0,-0.177565984,0.029992484,-0.18347656,-0.049494396,0.212801456,0.01967787,-0.024238014,-0.172478416,0.172848768,-0.103613752,0.064479484,0.125767216,-0.103644056,0.132515384,-0.176286784,-0.089045096,0.081576016,0.17161488,0.004432891,0.183929504,-0.094888616,-0.19945576,-0.138921904,-0.209598496,0.021132004,-0.126532688,-0.105675944,-0.064966268,0.113438464,-0.054118784,0.042033752,-0.187588304,0.184444624,0.141643424,0.215066512,-0.021663488,-0.185448096,-0.004162013,0.184444624,0.142410528,-0.00706344,-0.064352312,-0.163710352,-0.062815488,-0.164231328,-0.046555148,0.079753008,-0.08581668,-0.022541284,0.15902224,0.12713152,-0.095503688,0.143088496,0.050277088,0.009125354,0.102051984,0.115730048,0.033608996,0.0,-0.03640366,-0.032495498,-0.132316304,0.079507928,-0.110373696,0.042312752,0.044986316,0.124795784,0.015752815,-0.04393816,-0.102441032,0.063175388,0.050387964,-0.025562632,0.037945512,0.120762808,0.051260676,0.120762808,-0.14292744,0.034325212,-0.106744576
2.0,-0.177565984,0.029992484,-0.18347656,-0.049494396,0.212801456,0.01967787,-0.024238014,-0.172478416,0.172848768,-0.103613752,0.064479484,0.125767216,-0.103644056,0.132515384,-0.176286784,-0.089045096,0.081576016,0.17161488,0.004432891,0.183929504,-0.094888616,-0.19945576,-0.138921904,-0.209598496,0.021132004,-0.126532688,-0.105675944,-0.064966268,0.113438464,-0.054118784,0.042033752,-0.187588304,0.184444624,0.141643424,0.215066512,-0.021663488,-0.185448096,-0.004162013,0.184444624,0.142410528,-0.00706344,-0.064352312,-0.163710352,-0.062815488,-0.164231328,-0.046555148,0.079753008,-0.08581668,-0.022541284,0.15902224,0.12713152,-0.095503688,0.143088496,0.050277088,0.009125354,0.102051984,0.115730048,0.033608996,0.0,-0.03640366,-0.032495498,-0.132316304,0.079507928,-0.110373696,0.042312752,0.044986316,0.124795784,0.015752815,-0.04393816,-0.102441032,0.063175388,0.050387964,-0.025562632,0.037945512,0.120762808,0.051260676,0.120762808,-0.14292744,0.034325212,-0.106744576
3.0,-0.177565984,0.029992484,-0.18347656,-0.049494396,0.150585952,0.01967787,-0.07415388,-0.172478416,0.172848768,-0.103613752,0.064479484,0.125767216,-0.103644056,0.132515384,-0.176286784,-0.089045096,0.081576016,0.17161488,0.004432891,0.183929504,-0.094888616,-0.19945576,-0.138921904,-0.209598496,0.021132004,-0.126532688,-0.105675944,-0.064966268,0.113438464,-0.054118784,0.042033752,-0.187588304,0.184444624,0.141643424,0.215066512,-0.021663488,-0.185448096,-0.004162013,0.184444624,0.142410528,-0.00706344,-0.064352312,-0.163710352,-0.062815488,-0.164231328,-0.046555148,0.079753008,-0.08581668,-0.022541284,0.15902224,0.0,0.0,0.009931128,0.0,0.0,0.0,0.0,0.0,0.0,0.0,-0.120973104,0.117592128,-0.010924503,-0.065091984,0.154976256,-0.029827164,-0.12620872,-0.108102504,-0.116035768,-0.093228936,0.110719608,-0.1344848,-0.123151056,0.093589544,-0.073595184,-0.008922234,-0.073595184,0.100551856,-0.049575432,-0.09011032
4.0,-0.177565984,0.029992484,-0.18347656,-0.049494396,0.150585952,0.01967787,-0.07415388,-0.172478416,0.172848768,-0.103613752,0.064479484,0.125767216,-0.103644056,0.132515384,-0.176286784,-0.089045096,0.081576016,0.17161488,0.004432891,0.183929504,-0.094888616,-0.19945576,-0.138921904,-0.209598496,0.021132004,-0.126532688,-0.105675944,-0.064966268,0.113438464,-0.054118784,0.042033752,-0.187588304,0.184444624,0.141643424,0.215066512,-0.021663488,-0.185448096,-0.004162013,0.184444624,0.142410528,-0.00706344,-0.064352312,-0.163710352,-0.062815488,-0.164231328,-0.046555148,0.079753008,-0.08581668,-0.022541284,0.15902224,0.0,0.0,0.009931128,0.0,0.0,0.0,0.0,0.0,0.0,0.0,-0.120973104,0.117592128,-0.010924503,-0.065091984,0.154976256,-0.029827164,-0.12620872,-0.108102504,-0.116035768,-0.093228936,0.110719608,-0.1344848,-0.123151056,0.093589544,-0.073595184,-0.008922234,-0.073595184,0.100551856,-0.049575432,-0.09011032
5.0,-0.177565984,0.029992484,-0.18347656,-0.049494396,0.150585952,0.01967787,-0.07415388,-0.172478416,0.172848768,-0.103613752,0.064479484,0.125767216,-0.103644056,0.171336736,-0.176286784,-0.089045096,0.086426968,0.17161488,0.005592467,0.191144944,-0.094888616,-0.19945576,-0.138921904,-0.209598496,0.021132004,-0.126532688,-0.105675944,-0.064966268,0.113438464,-0.054118784,0.042033752,-0.187588304,0.184444624,0.141643424,0.215066512,-0.021663488,-0.185448096,-0.004162013,0.184444624,0.142410528,-0.00706344,-0.064352312,-0.163710352,-0.062815488,-0.164231328,-0.046555148,0.079753008,-0.08581668,-0.022541284,0.15902224,0.0,0.0,-0.00038911,0.0,0.0,0.0,-0.024093698,0.0,0.0,0.0,-0.120973104,0.117592128,-0.010924503,-0.065091984,0.154976256,-0.029827164,-0.12620872,-0.108102504,-0.116035768,-0.093228936,0.110719608,-0.1344848,-0.123151056,0.093589544,-0.073595184,-0.008922234,-0.073595184,0.100551856,-0.049575432,-0.09011032
6.0,-0.177565984,0.029992484,-0.18347656,-0.049494396,0.150585952,0.01967787,-0.07415388,-0.172478416,0.172848768,-0.103613752,0.064479484,0.125767216,-0.103644056,0.171336736,-0.176286784,-0.089045096,0.086426968,0.17161488,0.005592467,0.191144944,-0.094888616,-0.19945576,-0.138921904,-0.209598496,0.021132004,-0.126532688,-0.105675944,-0.064966268,0.09308764,-0.06649472,0.042033752,-0.187588304,0.184444624,0.141643424,0.215066512,-0.021663488,-0.185448096,-0.004162013,0.184444624,0.142410528,-0.00706344,-0.064352312,-0.163710352,-0.062815488,-0.164231328,-0.046555148,0.079753008,-0.08581668,-0.022541284,0.15902224,0.0,0.0,-0.00038911,0.0,0.0,0.0,-0.024093698,0.0,0.0,0.0,0.008221665,0.02711928,0.041248352,0.002182372,0.0,0.0,0.0,0.008451151,0.0,0.0,-0.137068752,0.093167448,0.132102624,-0.077089152,-0.054974988,-0.10888576,-0.054974988,0.001371507,0.114287512,-0.15271416
7.0,-0.177565984,0.029992484,-0.18347656,-0.049494396,0.150585952,0.01967787,-0.07415388,-0.172478416,0.172848768,-0.103613752,0.064479484,0.125767216,-0.103644056,0.118830512,-0.176286784,-0.089045096,0.068978136,0.17161488,-0.002690493,0.191144944,-0.080746816,-0.19945576,-0.138921904,-0.209598496,0.021132004,-0.126532688,-0.105675944,-0.058810284,0.09308764,-0.06649472,0.042033752,-0.187588304,0.184444624,0.141643424,0.215066512,-0.021663488,-0.185448096,-0.004162013,0.184444624,0.142410528,-0.00706344,-0.064352312,-0.163710352,-0.062815488,-0.164231328,-0.046555148,0.079753008,-0.08581668,-0.022541284,0.15902224,0.0,0.0,-0.00038911,0.0,0.0,0.0,-0.024093698,0.0,0.0,0.0,0.008221665,0.02711928,0.041248352,0.002182372,0.0,0.0,0.0,0.008451151,0.0,0.0,-0.137068752,0.093167448,0.132102624,-0.077089152,-0.054974988,-0.10888576,-0.054974988,0.001371507,0.114287512,-0.15271416
8.0,-0.177565984,0.029992484,-0.18347656,-0.049494396,0.150585952,0.01967787,-0.07415388,-0.172478416,0.172848768,-0.103613752,0.064479484,0.125767216,-0.152004224,0.082358912,-0.176286784,-0.089045096,0.068978136,0.17161488,-0.002690493,0.191144944,-0.080746816,-0.19945576,-0.138921904,-0.209598496,0.021132004,-0.126532688,-0.105675944,-0.058810284,0.09308764,-0.06649472,0.042033752,-0.187588304,0.184444624,0.141643424,0.215066512,-0.021663488,-0.185448096,-0.004162013,0.184444624,0.142410528,-0.00706344,-0.064352312,-0.163710352,-0.062815488,-0.164231328,-0.046555148,0.079753008,-0.08581668,-0.022541284,0.15902224,0.0,0.0,-0.00038911,0.0,0.0,0.0,-0.024093698,0.0,0.0,0.0,0.008221665,0.02711928,0.041248352,0.002182372,0.0,0.0,0.0,0.008451151,0.0,0.0,0.0,0.0,0.0,0.0236811,0.02921097,0.044448236,0.02921097,0.011632696,0.0,0.037043748
9.0,-0.177565984,0.029992484,-0.18347656,-0.049494396,0.150585952,0.01967787,-0.07415388,-0.172478416,0.172848768,-0.103613752,0.064479484,0.125767216,-0.152004224,0.082358912,-0.176286784,-0.089045096,0.068978136,0.17161488,-0.002690493,0.191144944,-0.080746816,-0.19945576,-0.138921904,-0.209598496,0.021132004,-0.126532688,-0.105675944,-0.058810284,0.09308764,-0.06649472,0.042033752,-0.187588304,0.184444624,0.141643424,0.215066512,-0.021663488,-0.185448096,-0.004162013,0.184444624,0.142410528,-0.00706344,-0.064352312,-0.163710352,-0.062815488,-0.164231328,-0.046555148,0.079753008,-0.08581668,-0.022541284,0.15902224,0.0,0.0,-0.00038911,0.0,0.0,0.0,-0.024093698,0.0,0.0,0.0,0.008221665,0.02711928,0.041248352,0.002182372,0.0,0.0,0.0,0.008451151,0.0,0.0,0.0,0.0,0.0,0.0236811,0.02921097,0.044448236,0.02921097,0.011632696,0.0,0.037043748
10.0,-0.177565984,0.029992484,-0.18347656,-0.049494396,0.2229416,0.01967787,-0.045698272,-0.172478416,0.179428704,-0.103613752,0.064479484,0.125767216,-0.152004224,0.082358912,-0.176286784,-0.089045096,0.068978136,0.17161488,-0.002690493,0.191144944,-0.080746816,-0.19945576,-0.138921904,-0.209598496,0.021132004,-0.126532688,-0.105675944,-0.058810284,0.09308764,-0.06649472,0.042033752,-0.187588304,0.184444624,0.141643424,0.215066512,-0.021663488,-0.185448096,-0.004162013,0.184444624,0.142410528,-0.00706344,-0.064352312,-0.163710352,-0.062815488,-0.164231328,-0.046555148,0.079753008,-0.08581668,-0.022541284,0.15902224,0.0,0.0,-0.00038911,0.0,0.0,0.0,-0.024093698,0.0,0.0,0.0,0.008221665,0.02711928,0.041248352,0.002182372,0.0,0.0,0.0,0.008451151,0.0,0.0,0.0,0.0,-0.012306674,-0.018163252,0.002722552,-0.027907406,0.002722552,-0.000756053,0.0,0.008588139
11.0,-0.177565984,0.029992484,-0.18347656,-0.049494396,0.173014176,0.01967787,-0.105585576,-0.172478416,0.179428704,-0.103613752,0.064479484,0.125767216,-0.152004224,0.082358912,-0.176286784,-0.089045096,0.068978136,0.17161488,-0.002690493,0.191144944,-0.080746816,-0.19945576,-0.138921904,-0.209598496,0.021132004,-0.126532688,-0.105675944,-0.058810284,0.09308764,-0.06649472,0.042033752,-0.187588304,0.184444624,0.141643424,0.215066512,-0.021663488,-0.185448096,-0.004162013,0.184444624,0.142410528,-0.00706344,-0.064352312,-0.163710352,-0.062815488,-0.164231328,-0.046555148,0.079753008,-0.08581668,-0.022541284,0.15902224,0.0,0.0,0.017086662,0.0,0.0,0.0,-0.024093698,0.0,0.0,0.0,0.008221665,0.02711928,0.041248352,0.002182372,0.0,0.0,0.0,0.008451151,0.0,0.0,0.0,0.0,-0.012306674,-0.018163252,0.002722552,-0.027907406,0.002722552,-0.000756053,0.0,0.008588139
12.0,-0.177565984,0.029992484,-0.18347656,-0.049494396,0.253151856,0.01967787,-0.076994864,-0.172478416,0.195564128,-0.103613752,0.064479484,0.125767216,-0.152004224,0.082358912,-0.176286784,-0.089045096,0.068978136,0.17161488,-0.002690493,0.191144944,-0.080746816,-0.19945576,-0.138921904,-0.209598496,0.021132004,-0.126532688,-0.105675944,-0.058810284,0.09308764,-0.06649472,0.042033752,-0.187588304,0.184444624,0.141643424,0.215066512,-0.021663488,-0.185448096,-0.004162013,0.184444624,0.142410528,-0.00706344,-0.064352312,-0.163710352,-0.062815488,-0.164231328,-0.046555148,0.079753008,-0.08581668,-0.022541284,0.15902224,0.0,0.0,-0.004837431,0.0,0.0,0.0,-0.024093698,-0.005948751,0.0,0.0,0.008221665,0.02711928,0.041248352,0.002182372,0.0,0.0,0.0,0.008451151,0.0,0.0,0.0,0.0,-0.012306674,-0.018163252,0.002722552,-0.027907406,0.002722552,-0.000756053,0.0,0.008588139
13.0,-0.177565984,0.029992484,-0.18347656,-0.049494396,0.223778576,0.01967787,-0.092578928,-0.172478416,0.195564128,-0.103613752,0.064479484,0.125767216,-0.152004224,0.082358912,-0.176286784,-0.089045096,0.068978136,0.17161488,-0.002690493,0.191144944,-0.080746816,-0.19945576,-0.138921904,-0.209598496,0.021132004,-0.126532688,-0.105675944,-0.058810284,0.09308764,-0.06649472,0.042033752,-0.187588304,0.184444624,0.141643424,0.215066512,-0.021663488,-0.185448096,-0.004162013,0.184444624,0.142410528,-0.00706344,-0.064352312,-0.163710352,-0.062815488,-0.164231328,-0.046555148,0.079753008,-0.08581668,-0.022541284,0.15902224,0.0,0.0,-0.004837431,0.0,0.0,0.0,-0.024093698,-0.005948751,0.0,0.0,0.008221665,0.057868744,0.075589,0.02897985,0.0,0.0,0.0,0.008451151,0.0,0.0,0.0,0.0,-0.012306674,-0.018163252,0.002722552,-0.027907406,0.002722552,-0.000756053,0.0,0.008588139
14.0,-0.177565984,0.029992484,-0.18347656,-0.049494396,0.223778576,0.01967787,-0.092578928,-0.172478416,0.195564128,-0.103613752,0.064479484,0.125767216,-0.152004224,0.082358912,-0.176286784,-0.089045096,0.068978136,0.17161488,-0.002690493,0.191144944,-0.080746816,-0.19945576,-0.138921904,-0.209598496,0.021132004,-0.126532688,-0.105675944,-0.058810284,0.09308764,-0.06649472,0.042033752,-0.187588304,0.184444624,0.141643424,0.215066512,-0.021663488,-0.185448096,-0.004162013,0.184444624,0.142410528,-0.00706344,-0.064352312,-0.163710352,-0.062815488,-0.164231328,-0.046555148,0.079753008,-0.08581668,-0.022541284,0.15902224,0.0,0.0,-0.004837431,0.0,0.0,0.0,-0.024093698,-0.005948751,0.0,0.0,0.008221665,0.057868744,0.075589,0.02897985,0.0,0.0,0.0,0.008451151,0.0,0.0,0.0,0.0,-0.012306674,-0.018163252,0.002722552,-0.027907406,0.002722552,-0.000756053,0.0,0.008588139
15.0,-0.177565984,0.029992484,-0.18347656,-0.049494396,0.223778576,0.01967787,-0.092578928,-0.172478416,0.195564128,-0.103613752,0.064479484,0.125767216,-0.152004224,0.082358912,-0.176286784,-0.089045096,0.068978136,0.17161488,-0.002690493,0.191144944,-0.080746816,-0.19945576,-0.138921904,-0.209598496,0.021132004,-0.126532688,-0.105675944,-0.058810284,0.09308764,-0.06649472,0.042033752,-0.187588304,0.184444624,0.141643424,0.215066512,-0.021663488,-0.185448096,-0.004162013,0.184444624,0.142410528,-0.00706344,-0.064352312,-0.163710352,-0.062815488,-0.164231328,-0.046555148,0.079753008,-0.08581668,-0.022541284,0.15902224,0.0,0.0,-0.004837431,0.0,0.0,0.0,-0.024093698,-0.005948751,0.0,0.0,0.008221665,0.057868744,0.075589,0.02897985,0.0,0.0,0.0,0.008451151,0.0,0.0,0.0,0.0,-0.012306674,-0.018163252,0.002722552,-0.027907406,0.002722552,-0.000756053,0.0,0.008588139
16.0,-0.177565984,0.029992484,-0.18347656,-0.049494396,0.280583456,0.01967787,-0.066434144,-0.172478416,0.201218576,-0.103613752,0.064479484,0.125767216,-0.152004224,0.082358912,-0.176286784,-0.089045096,0.068978136,0.17161488,-0.002690493,0.191144944,-0.080746816,-0.19945576,-0.138921904,-0.209598496,0.021132004,-0.126532688,-0.105675944,-0.058810284,0.09308764,-0.06649472,0.042033752,-0.187588304,0.184444624,0.141643424,0.215066512,-0.021663488,-0.185448096,-0.004162013,0.184444624,0.142410528,-0.00706344,-0.064352312,-0.163710352,-0.062815488,-0.164231328,-0.046555148,0.079753008,-0.08581668,-0.022541284,0.15902224,0.0,0.0,-0.004837431,0.0,0.0,0.0,-0.024093698,-0.005948751,0.0,0.0,0.008221665,0.013883967,0.052043164,-0.007570747,0.0,0.0,0.0,-0.015796931,0.0,0.0,0.0,0.0,-0.012306674,-0.018163252,0.002722552,-0.027907406,0.002722552,-0.000756053,0.0,0.008588139
17.0,-0.177565984,0.029992484,-0.18347656,-0.049494396,0.235220896,0.01967787,-0.098511968,-0.172478416,0.201218576,-0.103613752,0.064479484,0.125767216,-0.152004224,0.082358912,-0.176286784,-0.089045096,0.068978136,0.17161488,-0.002690493,0.191144944,-0.080746816,-0.19945576,-0.138921904,-0.209598496,0.021132004,-0.126532688,-0.105675944,-0.058810284,0.09308764,-0.06649472,0.042033752,-0.187588304,0.184444624,0.141643424,0.215066512,-0.021663488,-0.185448096,-0.004162013,0.184444624,0.142410528,-0.00706344,-0.064352312,-0.163710352,-0.062815488,-0.164231328,-0.046555148,0.079753008,-0.08581668,-0.022541284,0.15902224,0.0,0.0,-0.004837431,0.0,0.0,0.0,-0.024093698,-0.005948751,0.0,0.0,0.008221665,0.013883967,0.052043164,-0.007570747,0.0,0.0,0.0,-0.015796931,0.0,0.0,0.0,0.0,-0.012306674,0.016995904,0.0228373,0.017455172,0.0228373,0.004792979,0.0,0.040665956
18.0,-0.177565984,0.029992484,-0.18347656,-0.049494396,0.235220896,0.01967787,-0.098511968,-0.172478416,0.201218576,-0.103613752,0.064479484,0.125767216,-0.152004224,0.082358912,-0.176286784,-0.089045096,0.068978136,0.17161488,-0.002690493,0.191144944,-0.080746816,-0.19945576,-0.138921904,-0.209598496,0.021132004,-0.126532688,-0.105675944,-0.058810284,0.09308764,-0.06649472,0.042033752,-0.187588304,0.184444624,0.141643424,0.215066512,-0.021663488,-0.185448096,-0.004162013,0.184444624,0.142410528,-0.00706344,-0.064352312,-0.163710352,-0.062815488,-0.164231328,-0.046555148,0.079753008,-0.08581668,-0.022541284,0.15902224,0.0,0.0,-0.004837431,0.0,0.0,0.0,-0.024093698,-0.005948751,0.0,0.0,0.008221665,0.013883967,0.052043164,-0.007570747,0.0,0.0,0.0,-0.015796931,0.0,0.0,0.0,0.0,-0.012306674,0.016995904,0.0228373,0.017455172,0.0228373,0.004792979,0.0,0.040665956
19.0,-0.177565984,0.029992484,-0.18347656,-0.049494396,0.235220896,0.01967787,-0.098511968,-0.172478416,0.201218576,-0.103613752,0.064479484,0.125767216,-0.152004224,0.082358912,-0.176286784,-0.089045096,0.068978136,0.17161488,-0.002690493,0.191144944,-0.080746816,-0.19945576,-0.138921904,-0.209598496,0.021132004,-0.126532688,-0.105675944,-0.058810284,0.09308764,-0.06649472,0.042033752,-0.187588304,0.184444624,0.141643424,0.215066512,-0.021663488,-0.185448096,-0.004162013,0.184444624,0.142410528,-0.00706344,-0.064352312,-0.163710352,-0.062815488,-0.164231328,-0.046555148,0.079753008,-0.08581668,-0.022541284,0.15902224,0.0,0.0,-0.004837431,0.0,0.0,0.0,-0.024093698,-0.005948751,0.0,0.0,0.008221665,0.013883967,0.052043164,-0.007570747,0.0,0.0,0.0,-0.015796931,0.0,0.0,0.0,0.0,-0.012306674,0.016995904,0.0228373,0.017455172,0.0228373,0.004792979,0.0,0.040665956
20.0,-0.177565984,0.029992484,-0.18347656,-0.049494396,0.235220896,0.01967787,-0.098511968,-0.172478416,0.201218576,-0.103613752,0.064479484,0.125767216,-0.152004224,0.082358912,-0.176286784,-0.089045096,0.068978136,0.17161488,-0.002690493,0.191144944,-0.080746816,-0.19945576,-0.138921904,-0.209598496,0.021132004,-0.126532688,-0.105675944,-0.058810284,0.09308764,-0.06649472,0.042033752,-0.187588304,0.184444624,0.141643424,0.215066512,-0.021663488,-0.185448096,-0.004162013,0.184444624,0.142410528,-0.00706344,-0.064352312,-0.163710352,-0.062815488,-0.164231328,-0.046555148,0.079753008,-0.08581668,-0.022541284,0.15902224,0.0,0.0,-0.004837431,0.0,0.0,0.0,-0.024093698,-0.005948751,0.0,0.0,0.008221665,0.013883967,0.052043164,-0.007570747,0.0,0.0,0.0,-0.015796931,0.0,0.0,0.0,0.0,-0.012306674,0.016995904,0.0228373,0.017455172,0.0228373,0.004792979,0.0,0.040665956
21.0,-0.177565984,0.029992484,-0.18347656,-0.049494396,0.235220896,0.01967787,-0.098511968,-0.172478416,0.201218576,-0.103613752,0.064479484,0.125767216,-0.152004224,0.082358912,-0.176286784,-0.089045096,0.068978136,0.17161488,-0.002690493,0.191144944,-0.080746816,-0.19945576,-0.138921904,-0.209598496,0.021132004,-0.126532688,-0.105675944,-0.058810284,0.09308764,-0.06649472,0.042033752,-0.187588304,0.184444624,0.141643424,0.215066512,-0.021663488,-0.185448096,-0.004162013,0.184444624,0.142410528,-0.00706344,-0.064352312,-0.163710352,-0.062815488,-0.164231328,-0.046555148,0.079753008,-0.08581668,-0.022541284,0.15902224,0.0,0.0,-0.004837431,0.0,0.0,0.0,-0.024093698,-0.005948751,0.0,0.0,0.008221665,0.013883967,0.052043164,-0.007570747,0.0,0.0,0.0,-0.015796931,0.0,0.0,0.0,0.0,-0.012306674,0.016995904,0.0228373,0.017455172,0.0228373,0.004792979,0.0,0.040665956
22.0,-0.177565984,0.029992484,-0.18347656,-0.049494396,0.235220896,0.01967787,-0.098511968,-0.172478416,0.201218576,-0.103613752,0.064479484,0.125767216,-0.152004224,0.082358912,-0.176286784,-0.089045096,0.068978136,0.17161488,-0.002690493,0.191144944,-0.080746816,-0.19945576,-0.138921904,-0.209598496,0.021132004,-0.126532688,-0.105675944,-0.058810284,0.09308764,-0.06649472,0.042033752,-0.187588304,0.184444624,0.141643424,0.215066512,-0.021663488,-0.185448096,-0.004162013,0.184444624,0.142410528,-0.00706344,-0.064352312,-0.163710352,-0.062815488,-0.164231328,-0.046555148,0.079753008,-0.08581668,-0.022541284,0.15902224,0.0,0.0,-0.004837431,0.0,0.0,0.0,-0.024093698,-0.005948751,0.0,0.0,0.008221665,0.013883967,0.052043164,-0.007570747,0.0,0.0,0.0,-0.015796931,0.0,0.0,0.0,0.0,-0.012306674,0.016995904,0.0228373,0.017455172,0.0228373,0.004792979,0.0,0.040665956
23.0,-0.177565984,0.029992484,-0.18347656,-0.049494396,0.235220896,0.01967787,-0.098511968,-0.172478416,0.201218576,-0.103613752,0.064479484,0.125767216,-0.152004224,0.082358912,-0.176286784,-0.089045096,0.068978136,0.17161488,-0.002690493,0.191144944,-0.080746816,-0.19945576,-0.138921904,-0.209598496,0.021132004,-0.126532688,-0.105675944,-0.058810284,0.09308764,-0.06649472,0.042033752,-0.187588304,0.184444624,0.141643424,0.215066512,-0.021663488,-0.185448096,-0.004162013,0.184444624,0.142410528,-0.00706344,-0.064352312,-0.163710352,-0.062815488,-0.164231328,-0.046555148,0.079753008,-0.08581668,-0.022541284,0.15902224,0.0,0.0,0.005926039,0.0,0.0,0.0,-0.024093698,0.000145471,0.0,0.0,0.008221665,0.013883967,0.052043164,-0.007570747,0.0,0.0,0.0,-0.015796931,0.0,0.0,0.0,0.0,-0.012306674,-0.015306618,0.009077228,-0.021065574,0.009077228,-0.012405062,0.0,0.001817762
24.0,-0.177565984,0.029992484,-0.18347656,-0.049494396,0.235220896,0.01967787,-0.098511968,-0.172478416,0.201218576,-0.103613752,0.064479484,0.125767216,-0.136015264,0.130835768,-0.176286784,-0.089045096,0.068978136,0.17161488,-0.002690493,0.191144944,-0.080746816,-0.19945576,-0.138921904,-0.209598496,0.021132004,-0.126532688,-0.105675944,-0.058810284,0.09308764,-0.06649472,0.042033752,-0.187588304,0.184444624,0.141643424,0.215066512,-0.021663488,-0.185448096,-0.004162013,0.184444624,0.142410528,-0.00706344,-0.064352312,-0.163710352,-0.062815488,-0.164231328,-0.046555148,0.079753008,-0.08581668,-0.022541284,0.15902224,-0.012285706,0.0,-0.005604606,-0.01322821,-0.012520364,0.0,-0.024093698,-0.019630938,0.0,0.0,0.008221665,0.013883967,0.052043164,-0.007570747,0.0,0.0,0.0,-0.015796931,0.0,0.0,0.0,0.0,-0.012306674,-0.015306618,0.009077228,-0.021065574,0.009077228,-0.012405062,0.0,0.001817762
25.0,-0.177565984,0.029992484,-0.18347656,-0.049494396,0.235220896,0.01967787,-0.098511968,-0.172478416,0.201218576,-0.103613752,0.064479484,0.125767216,-0.136015264,0.130835768,-0.176286784,-0.089045096,0.068978136,0.17161488,-0.002690493,0.191144944,-0.080746816,-0.19945576,-0.138921904,-0.209598496,0.021132004,-0.126532688,-0.105675944,-0.058810284,0.09308764,-0.06649472,0.042033752,-0.187588304,0.184444624,0.141643424,0.215066512,-0.021663488,-0.185448096,-0.004162013,0.184444624,0.142410528,-0.00706344,-0.064352312,-0.163710352,-0.062815488,-0.164231328,-0.046555148,0.079753008,-0.08581668,-0.022541284,0.15902224,-0.012285706,0.0,-0.005604606,-0.01322821,-0.012520364,0.0,-0.024093698,-0.019630938,0.0,0.0,0.008221665,0.013883967,0.052043164,-0.007570747,0.0,0.0,0.0,-0.015796931,0.0,0.0,0.0,0.0,-0.012306674,-0.015306618,0.009077228,-0.021065574,0.009077228,-0.012405062,0.0,0.001817762
26.0,-0.177565984,0.029992484,-0.18347656,-0.049494396,0.235220896,0.01967787,-0.098511968,-0.172478416,0.201218576,-0.103613752,0.064479484,0.125767216,-0.136015264,0.130835768,-0.176286784,-0.089045096,0.068978136,0.17161488,-0.002690493,0.191144944,-0.080746816,-0.19945576,-0.138921904,-0.209598496,0.021132004,-0.126532688,-0.105675944,-0.058810284,0.09308764,-0.06649472,0.042033752,-0.187588304,0.184444624,0.141643424,0.215066512,-0.021663488,-0.185448096,-0.004162013,0.184444624,0.142410528,-0.00706344,-0.064352312,-0.163710352,-0.062815488,-0.164231328,-0.046555148,0.079753008,-0.08581668,-0.022541284,0.15902224,-0.012285706,0.0,-0.005604606,-0.01322821,-0.012520364,0.0,-0.024093698,-0.019630938,0.0,0.0,0.008221665,0.013883967,0.052043164,-0.007570747,0.0,0.0,0.0,-0.015796931,0.0,0.0,0.0,0.0,-0.012306674,-0.015306618,0.009077228,-0.021065574,0.009077228,-0.012405062,0.0,0.001817762
27.0,-0.177565984,0.029992484,-0.18347656,-0.049494396,0.235220896,0.01967787,-0.098511968,-0.172478416,0.201218576,-0.103613752,0.064479484,0.125767216,-0.136015264,0.130835768,-0.176286784,-0.089045096,0.068978136,0.17161488,-0.002690493,0.191144944,-0.080746816,-0.19945576,-0.138921904,-0.209598496,0.021132004,-0.126532688,-0.105675944,-0.058810284,0.09308764,-0.06649472,0.042033752,-0.187588304,0.184444624,0.141643424,0.215066512,-0.021663488,-0.185448096,-0.004162013,0.184444624,0.142410528,-0.00706344,-0.064352312,-0.163710352,-0.062815488,-0.164231328,-0.046555148,0.079753008,-0.08581668,-0.022541284,0.15902224,-0.012285706,0.0,-0.005604606,-0.01322821,-0.012520364,0.0,-0.024093698,-0.019630938,0.0,0.0,0.008221665,0.013883967,0.052043164,-0.007570747,0.0,0.0,0.0,-0.015796931,0.0,0.0,0.0,0.0,-0.012306674,-0.015306618,0.009077228,-0.021065574,0.009077228,-0.012405062,0.0,0.001817762
28.0,-0.177565984,0.029992484,-0.18347656,-0.049494396,0.235220896,0.01967787,-0.098511968,-0.172478416,0.201218576,-0.103613752,0.064479484,0.125767216,-0.136015264,0.130835768,-0.176286784,-0.089045096,0.068978136,0.17161488,-0.002690493,0.191144944,-0.080746816,-0.19945576,-0.138921904,-0.209598496,0.021132004,-0.126532688,-0.105675944,-0.058810284,0.09308764,-0.06649472,0.042033752,-0.187588304,0.184444624,0.141643424,0.215066512,-0.021663488,-0.185448096,-0.004162013,0.184444624,0.142410528,-0.00706344,-0.064352312,-0.163710352,-0.062815488,-0.164231328,-0.046555148,0.079753008,-0.08581668,-0.022541284,0.15902224,-0.012285706,0.0,-0.005604606,-0.01322821,-0.012520364,0.0,-0.024093698,-0.019630938,0.0,0.0,0.008221665,0.013883967,0.052043164,-0.007570747,0.0,0.0,0.0,-0.015796931,0.0,0.0,0.0,0.0,-0.012306674,-0.015306618,0.009077228,-0.021065574,0.009077228,-0.012405062,0.0,0.001817762
29.0,-0.177565984,0.029992484,-0.18347656,-0.049494396,0.235220896,0.01967787,-0.098511968,-0.172478416,0.201218576,-0.103613752,0.064479484,0.125767216,-0.136015264,0.130835768,-0.176286784,-0.089045096,0.068978136,0.17161488,-0.002690493,0.191144944,-0.080746816,-0.19945576,-0.138921904,-0.209598496,0.021132004,-0.126532688,-0.105675944,-0.058810284,0.09308764,-0.06649472,0.042033752,-0.187588304,0.184444624,0.141643424,0.215066512,-0.021663488,-0.185448096,-0.004162013,0.184444624,0.142410528,-0.00706344,-0.064352312,-0.163710352,-0.062815488,-0.164231328,-0.046555148,0.079753008,-0.08581668,-0.022541284,0.15902224,-0.012285706,0.0,-0.005604606,-0.01322821,-0.012520364,0.0,-0.024093698,-0.019630938,0.0,0.0,0.008221665,0.013883967,0.052043164,-0.007570747,0.0,0.0,0.0,-0.015796931,0.0,0.0,0.0,0.0,-0.012306674,-0.015306618,0.009077228,-0.021065574,0.009077228,-0.012405062,0.0,0.001817762
30.0,-0.177565984,0.029992484,-0.18347656,-0.049494396,0.235220896,0.01967787,-0.098511968,-0.172478416,0.201218576,-0.103613752,0.064479484,0.125767216,-0.136015264,0.130835768,-0.176286784,-0.089045096,0.068978136,0.17161488,-0.002690493,0.191144944,-0.080746816,-0.19945576,-0.138921904,-0.209598496,0.021132004,-0.126532688,-0.105675944,-0.058810284,0.09308764,-0.06649472,0.042033752,-0.187588304,0.184444624,0.141643424,0.215066512,-0.021663488,-0.185448096,-0.004162013,0.184444624,0.142410528,-0.00706344,-0.064352312,-0.163710352,-0.062815488,-0.164231328,-0.046555148,0.079753008,-0.08581668,-0.022541284,0.15902224,-0.012285706,0.0,-0.005604606,-0.01322821,-0.012520364,0.0,-0.024093698,-0.019630938,0.0,0.0,0.008221665,-0.005494851,0.011680506,-0.007570747,0.0,0.0,0.0,-0.024250268,0.0,0.0,0.0,0.0,-0.012306674,0.010239795,0.030609056,0.023541138,0.030609056,-0.009141811,0.0,0.03432146
31.0,-0.177565984,0.029992484,-0.18347656,-0.049494396,0.235220896,0.01967787,-0.098511968,-0.172478416,0.201218576,-0.103613752,0.064479484,0.125767216,-0.136015264,0.130835768,-0.176286784,-0.089045096,0.068978136,0.17161488,-0.002690493,0.191144944,-0.080746816,-0.19945576,-0.138921904,-0.209598496,0.021132004,-0.126532688,-0.105675944,-0.058810284,0.09308764,-0.06649472,0.042033752,-0.187588304,0.184444624,0.141643424,0.215066512,-0.021663488,-0.185448096,-0.004162013,0.184444624,0.142410528,-0.00706344,-0.064352312,-0.163710352,-0.062815488,-0.164231328,-0.046555148,0.079753008,-0.08581668,-0.022541284,0.15902224,-0.012285706,0.0,-0.005604606,-0.01322821,-0.012520364,0.0,-0.024093698,-0.019630938,0.0,0.0,0.008221665,0.0287152,0.044508064,0.008258441,0.0,0.0,0.0,-0.024250268,0.0,0.0,0.0,0.0,-0.012306674,-0.011570243,0.023277434,-0.010649808,0.023277434,-0.02062336,0.0,0.008678438
32.0,-0.177565984,0.029992484,-0.18347656,-0.049494396,0.235220896,0.01967787,-0.098511968,-0.172478416,0.201218576,-0.103613752,0.064479484,0.125767216,-0.136015264,0.130835768,-0.176286784,-0.089045096,0.068978136,0.17161488,-0.002690493,0.191144944,-0.080746816,-0.19945576,-0.138921904,-0.209598496,0.021132004,-0.126532688,-0.105675944,-0.058810284,0.09308764,-0.06649472,0.042033752,-0.187588304,0.184444624,0.141643424,0.215066512,-0.021663488,-0.185448096,-0.004162013,0.184444624,0.142410528,-0.00706344,-0.064352312,-0.163710352,-0.062815488,-0.164231328,-0.046555148,0.079753008,-0.08581668,-0.022541284,0.15902224,-0.012285706,0.0,-0.005604606,-0.01322821,-0.012520364,0.0,-0.024093698,-0.019630938,0.0,0.0,0.008221665,0.0287152,0.044508064,0.008258441,0.0,0.0,0.0,-0.024250268,0.0,0.0,0.0,0.0,-0.012306674,-0.011570243,0.023277434,-0.010649808,0.023277434,-0.02062336,0.0,0.008678438
33.0,-0.177565984,0.029992484,-0.18347656,-0.049494396,0.235220896,0.01967787,-0.098511968,-0.172478416,0.201218576,-0.103613752,0.064479484,0.125767216,-0.136015264,0.130835768,-0.176286784,-0.089045096,0.068978136,0.17161488,-0.002690493,0.191144944,-0.080746816,-0.19945576,-0.138921904,-0.209598496,0.021132004,-0.126532688,-0.105675944,-0.058810284,0.09308764,-0.06649472,0.042033752,-0.187588304,0.184444624,0.141643424,0.215066512,-0.021663488,-0.185448096,-0.004162013,0.184444624,0.142410528,-0.00706344,-0.064352312,-0.163710352,-0.062815488,-0.164231328,-0.046555148,0.079753008,-0.08581668,-0.022541284,0.15902224,-0.012285706,0.0,-0.040119816,-0.01322821,-0.012520364,0.0,-0.024093698,-0.027752722,0.0,0.0,0.008221665,0.0287152,0.044508064,0.008258441,0.0,0.0,0.0,-0.024250268,0.0,0.0,0.0,0.0,-0.012306674,0.016452586,0.045819268,0.040719728,0.045819268,-0.003332294,0.0,0.050884924
34.0,-0.177565984,0.029992484,-0.18347656,-0.049494396,0.235220896,0.01967787,-0.098511968,-0.172478416,0.201218576,-0.103613752,0.064479484,0.125767216,-0.136015264,0.130835768,-0.176286784,-0.089045096,0.068978136,0.17161488,-0.002690493,0.191144944,-0.080746816,-0.19945576,-0.138921904,-0.209598496,0.021132004,-0.126532688,-0.105675944,-0.058810284,0.09308764,-0.06649472,0.042033752,-0.187588304,0.184444624,0.141643424,0.215066512,-0.021663488,-0.185448096,-0.004162013,0.184444624,0.142410528,-0.00706344,-0.064352312,-0.163710352,-0.062815488,-0.164231328,-0.046555148,0.079753008,-0.08581668,-0.022541284,0.15902224,-0.012285706,0.0,-0.040119816,-0.01322821,-0.012520364,0.0,-0.024093698,-0.027752722,0.0,0.0,0.008221665,0.0287152,0.044508064,0.008258441,0.0,0.0,0.0,-0.024250268,0.0,0.0,0.0,0.0,-0.012306674,0.016452586,0.045819268,0.040719728,0.045819268,-0.003332294,0.0,0.050884924
35.0,-0.177565984,0.029992484,-0.18347656,-0.049494396,0.235220896,0.01967787,-0.098511968,-0.172478416,0.201218576,-0.103613752,0.064479484,0.125767216,-0.136015264,0.130835768,-0.176286784,-0.089045096,0.068978136,0.17161488,-0.002690493,0.191144944,-0.080746816,-0.19945576,-0.138921904,-0.209598496,0.021132004,-0.126532688,-0.105675944,-0.058810284,0.09308764,-0.06649472,0.042033752,-0.187588304,0.184444624,0.141643424,0.215066512,-0.021663488,-0.185448096,-0.004162013,0.184444624,0.142410528,-0.00706344,-0.064352312,-0.163710352,-0.062815488,-0.164231328,-0.046555148,0.079753008,-0.08581668,-0.022541284,0.15902224,-0.012285706,0.0,-0.040119816,-0.01322821,-0.012520364,0.0,-0.024093698,-0.027752722,0.0,0.0,0.008221665,0.0287152,0.044508064,0.008258441,0.0,0.0,0.0,-0.024250268,0.0,0.0,0.0,0.0,-0.012306674,0.016452586,0.045819268,0.040719728,0.045819268,-0.003332294,0.0,0.050884924
36.0,-0.177565984,0.029992484,-0.18347656,-0.049494396,0.235220896,0.01967787,-0.098511968,-0.172478416,0.201218576,-0.103613752,0.064479484,0.125767216,-0.136015264,0.130835768,-0.176286784,-0.089045096,0.068978136,0.17161488,-0.002690493,0.191144944,-0.080746816,-0.19945576,-0.138921904,-0.209598496,0.021132004,-0.126532688,-0.105675944,-0.058810284,0.09308764,-0.06649472,0.042033752,-0.187588304,0.184444624,0.141643424,0.215066512,-0.021663488,-0.185448096,-0.004162013,0.184444624,0.142410528,-0.00706344,-0.064352312,-0.163710352,-0.062815488,-0.164231328,-0.046555148,0.079753008,-0.08581668,-0.022541284,0.15902224,-0.012285706,0.0,-0.040119816,-0.01322821,-0.012520364,0.0,-0.024093698,-0.027752722,0.0,0.0,0.008221665,0.0287152,0.044508064,0.008258441,0.0,0.0,0.0,-0.024250268,0.0,0.0,0.0,0.0,-0.012306674,0.016452586,0.045819268,0.040719728,0.045819268,-0.003332294,0.0,0.050884924
37.0,-0.177565984,0.029992484,-0.18347656,-0.049494396,0.235220896,0.01967787,-0.098511968,-0.172478416,0.201218576,-0.103613752,0.064479484,0.125767216,-0.136015264,0.130835768,-0.176286784,-0.089045096,0.068978136,0.17161488,-0.002690493,0.191144944,-0.080746816,-0.19945576,-0.138921904,-0.209598496,0.021132004,-0.126532688,-0.105675944,-0.058810284,0.09308764,-0.06649472,0.042033752,-0.187588304,0.184444624,0.141643424,0.215066512,-0.021663488,-0.185448096,-0.004162013,0.184444624,0.142410528,-0.00706344,-0.064352312,-0.163710352,-0.062815488,-0.164231328,-0.046555148,0.079753008,-0.08581668,-0.022541284,0.15902224,-0.007112967,0.0,-0.040119816,-0.01322821,0.001036332,0.0,-0.017205414,-0.018569254,0.0,0.0,0.008221665,0.0287152,0.044508064,0.008258441,0.0,0.0,0.0,-0.024250268,0.0,0.0,0.0,0.0,-0.012306674,-0.014374461,0.045819268,0.002260927,0.045819268,-0.003332294,0.0,0.050330556
38.0,-0.177565984,0.029992484,-0.18347656,-0.049494396,0.235220896,0.01967787,-0.098511968,-0.172478416,0.201218576,-0.103613752,0.064479484,0.125767216,-0.136015264,0.130835768,-0.176286784,-0.089045096,0.068978136,0.17161488,-0.002690493,0.191144944,-0.080746816,-0.19945576,-0.138921904,-0.209598496,0.021132004,-0.126532688,-0.105675944,-0.058810284,0.09308764,-0.06649472,0.042033752,-0.187588304,0.184444624,0.141643424,0.215066512,-0.021663488,-0.185448096,-0.004162013,0.184444624,0.142410528,-0.00706344,-0.064352312,-0.163710352,-0.062815488,-0.164231328,-0.046555148,0.079753008,-0.08581668,-0.022541284,0.15902224,-0.007112967,0.0,-0.040119816,-0.01322821,0.001036332,0.0,-0.017205414,-0.018569254,0.0,0.0,0.008221665,0.0287152,0.044508064,0.008258441,0.0,0.0,0.0,-0.024250268,0.0,0.0,0.0,0.0,-0.012306674,-0.014374461,0.045819268,0.002260927,0.045819268,-0.003332294,0.0,0.050330556
39.0,-0.177565984,0.029992484,-0.18347656,-0.049494396,0.235220896,0.01967787,-0.098511968,-0.172478416,0.201218576,-0.103613752,0.064479484,0.125767216,-0.136015264,0.130835768,-0.176286784,-0.089045096,0.068978136,0.17161488,-0.002690493,0.191144944,-0.080746816,-0.19945576,-0.138921904,-0.209598496,0.021132004,-0.126532688,-0.105675944,-0.058810284,0.09308764,-0.06649472,0.042033752,-0.187588304,0.184444624,0.141643424,0.215066512,-0.021663488,-0.185448096,-0.004162013,0.184444624,0.142410528,-0.00706344,-0.064352312,-0.163710352,-0.062815488,-0.164231328,-0.046555148,0.079753008,-0.08581668,-0.022541284,0.15902224,-0.007112967,0.0,-0.040119816,-0.01322821,0.001036332,0.0,-0.017205414,-0.018569254,0.0,0.0,0.008221665,0.0287152,0.044508064,0.008258441,0.0,0.0,0.0,-0.024250268,0.0,0.0,0.0,0.0,-0.012306674,-0.014374461,0.045819268,0.002260927,0.045819268,-0.003332294,0.0,0.050330556
40.0,-0.177565984,0.029992484,-0.18347656,-0.049494396,0.235220896,0.01967787,-0.098511968,-0.172478416,0.201218576,-0.103613752,0.064479484,0.125767216,-0.136015264,0.130835768,-0.176286784,-0.089045096,0.068978136,0.17161488,-0.002690493,0.191144944,-0.080746816,-0.19945576,-0.138921904,-0.209598496,0.021132004,-0.126532688,-0.105675944,-0.058810284,0.09308764,-0.06649472,0.042033752,-0.187588304,0.184444624,0.141643424,0.215066512,-0.021663488,-0.185448096,-0.004162013,0.184444624,0.142410528,-0.00706344,-0.064352312,-0.163710352,-0.062815488,-0.164231328,-0.046555148,0.079753008,-0.08581668,-0.022541284,0.15902224,-0.007112967,0.0,-0.040119816,-0.01322821,0.001036332,0.0,-0.017205414,-0.018569254,0.0,0.0,0.008221665,0.0287152,0.044508064,0.008258441,0.0,0.0,0.0,-0.024250268,0.0,0.0,0.0,0.0,-0.012306674,-0.014374461,0.045819268,0.002260927,0.045819268,-0.003332294,0.0,0.050330556
41.0,-0.177565984,0.029992484,-0.18347656,-0.049494396,0.235220896,0.01967787,-0.098511968,-0.172478416,0.201218576,-0.103613752,0.064479484,0.125767216,-0.17809368,0.087219216,-0.176286784,-0.089045096,0.068978136,0.17161488,-0.002690493,0.191144944,-0.080746816,-0.19945576,-0.138921904,-0.209598496,0.021132004,-0.126532688,-0.105675944,-0.058810284,0.09308764,-0.06649472,0.042033752,-0.187588304,0.184444624,0.141643424,0.215066512,-0.021663488,-0.185448096,-0.004162013,0.184444624,0.142410528,-0.00706344,-0.064352312,-0.163710352,-0.062815488,-0.164231328,-0.046555148,0.079753008,-0.08581668,-0.022541284,0.15902224,-0.007112967,0.0,-0.040119816,-0.01322821,0.001036332,0.0,-0.017205414,-0.018569254,0.0,0.0,0.008221665,0.028710736,0.044501952,0.008258441,0.0,0.0,0.0,-0.024251202,0.0,0.0,0.0,0.0,-0.012306674,0.017784334,0.064001336,0.038127836,0.064001336,0.00723067,0.0,0.086560976
42.0,-0.177565984,0.029992484,-0.18347656,-0.049494396,0.235220896,0.01967787,-0.098511968,-0.172478416,0.201218576,-0.103613752,0.064479484,0.125767216,-0.17809368,0.087219216,-0.176286784,-0.089045096,0.068978136,0.17161488,-0.002690493,0.191144944,-0.080746816,-0.19945576,-0.138921904,-0.209598496,0.021132004,-0.126532688,-0.105675944,-0.058810284,0.09308764,-0.06649472,0.042033752,-0.187588304,0.184444624,0.141643424,0.215066512,-0.021663488,-0.185448096,-0.004162013,0.184444624,0.142410528,-0.00706344,-0.064352312,-0.163710352,-0.062815488,-0.164231328,-0.046555148,0.079753008,-0.08581668,-0.022541284,0.15902224,-0.007112967,0.0,-0.040119816,-0.01322821,0.001036332,0.0,-0.017205414,-0.018569254,0.0,0.0,0.008221665,0.053304844,0.08154824,0.030229656,0.0,0.011497785,0.0,-0.023711742,0.0,0.0,0.0,0.0,-0.012809224,-0.009932004,0.047344356,-0.008621372,0.047344356,-0.010786907,0.0,0.068852576
43.0,-0.177565984,0.029992484,-0.18347656,-0.049494396,0.235220896,0.01967787,-0.098511968,-0.172478416,0.201218576,-0.103613752,0.064479484,0.125767216,-0.17809368,0.087219216,-0.176286784,-0.089045096,0.068978136,0.17161488,-0.002690493,0.191144944,-0.080746816,-0.19945576,-0.138921904,-0.209598496,0.021132004,-0.126532688,-0.105675944,-0.058810284,0.09308764,-0.06649472,0.042033752,-0.187588304,0.184444624,0.141643424,0.215066512,-0.021663488,-0.185448096,-0.004162013,0.184444624,0.142410528,-0.00706344,-0.064352312,-0.163710352,-0.062815488,-0.164231328,-0.046555148,0.079753008,-0.08581668,-0.022541284,0.15902224,-0.007112967,0.0,-0.02592183,-0.01322821,0.001036332,0.0,-0.017205414,-0.018569254,0.0,0.0,0.008221665,0.019673594,0.046111984,0.030229656,0.0,0.011497785,0.0,-0.031807662,0.0,0.0,0.0,0.0,-0.012809224,-0.009932004,0.047344356,-0.008621372,0.047344356,-0.010786907,0.0,0.068852576
44.0,-0.177565984,0.029992484,-0.18347656,-0.049494396,0.235220896,0.01967787,-0.098511968,-0.172478416,0.201218576,-0.103613752,0.064479484,0.125767216,-0.17809368,0.087219216,-0.176286784,-0.089045096,0.068978136,0.17161488,-0.002690493,0.191144944,-0.080746816,-0.19945576,-0.138921904,-0.209598496,0.021132004,-0.126532688,-0.105675944,-0.058810284,0.09308764,-0.06649472,0.042033752,-0.187588304,0.184444624,0.141643424,0.215066512,-0.021663488,-0.185448096,-0.004162013,0.184444624,0.142410528,-0.00706344,-0.064352312,-0.163710352,-0.062815488,-0.164231328,-0.046555148,0.079753008,-0.08581668,-0.022541284,0.15902224,-0.007112967,0.0,-0.02592183,-0.01322821,0.001036332,0.0,-0.017205414,-0.018569254,0.0,0.0,0.008221665,0.019673594,0.046111984,0.030229656,0.0,0.011497785,0.0,-0.031807662,0.0,0.0,0.0,0.0,-0.012809224,-0.009932004,0.047344356,-0.008621372,0.047344356,-0.010786907,0.0,0.068852576
45.0,-0.177565984,0.029992484,-0.18347656,-0.049494396,0.235220896,0.01967787,-0.098511968,-0.172478416,0.201218576,-0.103613752,0.064479484,0.125767216,-0.17809368,0.087219216,-0.176286784,-0.089045096,0.068978136,0.17161488,-0.002690493,0.191144944,-0.080746816,-0.19945576,-0.138921904,-0.209598496,0.021132004,-0.126532688,-0.105675944,-0.058810284,0.09308764,-0.06649472,0.042033752,-0.187588304,0.184444624,0.141643424,0.215066512,-0.021663488,-0.185448096,-0.004162013,0.184444624,0.142410528,-0.00706344,-0.064352312,-0.163710352,-0.062815488,-0.164231328,-0.046555148,0.079753008,-0.08581668,-0.022541284,0.15902224,-0.007112967,0.0,-0.047195844,-0.01322821,0.001036332,0.0,-0.017205414,-0.022075328,0.0,0.0,0.008221665,0.050938188,0.089493032,0.038361676,0.0,0.011497785,0.0,-0.02870782,0.0,0.0,0.0,0.0,-0.012809224,-0.009932004,0.047344356,-0.008621372,0.047344356,-0.010786907,0.0,0.068852576
46.0,-0.177565984,0.029992484,-0.18347656,-0.049494396,0.235220896,0.01967787,-0.098511968,-0.172478416,0.201218576,-0.103613752,0.064479484,0.125767216,-0.17809368,0.087219216,-0.176286784,-0.089045096,0.068978136,0.17161488,-0.002690493,0.191144944,-0.080746816,-0.19945576,-0.138921904,-0.209598496,0.021132004,-0.126532688,-0.105675944,-0.058810284,0.09308764,-0.06649472,0.042033752,-0.187588304,0.184444624,0.141643424,0.215066512,-0.021663488,-0.185448096,-0.004162013,0.184444624,0.142410528,-0.00706344,-0.064352312,-0.163710352,-0.062815488,-0.164231328,-0.046555148,0.079753008,-0.08581668,-0.022541284,0.15902224,-0.007112967,0.0,-0.047195844,-0.01322821,0.001036332,0.0,-0.017205414,-0.022075328,0.0,0.0,0.008221665,0.050938188,0.089493032,0.038361676,0.0,0.011497785,0.0,-0.02870782,0.0,0.0,0.0,0.0,-0.012809224,-0.009932004,0.047344356,-0.008621372,0.047344356,-0.010786907,0.0,0.068852576
47.0,-0.177565984,0.029992484,-0.18347656,-0.049494396,0.235220896,0.01967787,-0.098511968,-0.172478416,0.201218576,-0.103613752,0.064479484,0.125767216,-0.11532436,0.128617512,-0.176286784,-0.089045096,0.068978136,0.17161488,-0.002690493,0.191144944,-0.080746816,-0.19945576,-0.138921904,-0.209598496,0.021132004,-0.126532688,-0.105675944,-0.058810284,0.09308764,-0.06649472,0.042033752,-0.187588304,0.184444624,0.141643424,0.215066512,-0.021663488,-0.185448096,-0.004162013,0.184444624,0.142410528,-0.00706344,-0.064352312,-0.163710352,-0.062815488,-0.164231328,-0.046555148,0.079753008,-0.08581668,-0.022541284,0.15902224,-0.007112967,0.0,-0.047195844,-0.01322821,0.001036332,0.0,-0.017205414,-0.022075328,0.0,0.0,0.008221665,0.006077658,0.048094732,0.026897594,0.0,0.011497785,0.0,-0.045711304,-0.000538946,0.0,0.0,0.0,-0.012809224,-0.009932004,0.047344356,-0.008621372,0.047344356,-0.010786907,0.0,0.068852576
48.0,-0.177565984,0.029992484,-0.18347656,-0.049494396,0.235220896,0.01967787,-0.098511968,-0.172478416,0.201218576,-0.103613752,0.064479484,0.125767216,-0.11532436,0.128617512,-0.176286784,-0.089045096,0.068978136,0.17161488,-0.002690493,0.191144944,-0.080746816,-0.19945576,-0.138921904,-0.209598496,0.021132004,-0.126532688,-0.105675944,-0.058810284,0.09308764,-0.06649472,0.042033752,-0.187588304,0.184444624,0.141643424,0.215066512,-0.021663488,-0.185448096,-0.004162013,0.184444624,0.142410528,-0.00706344,-0.064352312,-0.163710352,-0.062815488,-0.164231328,-0.046555148,0.079753008,-0.08581668,-0.022541284,0.15902224,-0.007112967,0.0,-0.047195844,-0.01322821,0.001036332,0.0,-0.017205414,-0.022075328,0.0,0.0,0.008221665,0.006077658,0.048094732,0.026897594,0.0,0.011497785,0.0,-0.045711304,-0.000538946,0.0,0.0,0.0,-0.012809224,-0.009932004,0.047344356,-0.008621372,0.047344356,-0.010786907,0.0,0.068852576
49.0,-0.177565984,0.029992484,-0.18347656,-0.049494396,0.235220896,0.01967787,-0.098511968,-0.172478416,0.201218576,-0.103613752,0.064479484,0.125767216,-0.152936496,0.075979008,-0.176286784,-0.089045096,0.068978136,0.17161488,-0.002690493,0.191144944,-0.080746816,-0.19945576,-0.138921904,-0.209598496,0.021132004,-0.126532688,-0.105675944,-0.058810284,0.09308764,-0.06649472,0.042033752,-0.187588304,0.184444624,0.141643424,0.215066512,-0.021663488,-0.185448096,-0.004162013,0.184444624,0.142410528,-0.00706344,-0.064352312,-0.163710352,-0.062815488,-0.164231328,-0.046555148,0.079753008,-0.08581668,-0.022541284,0.15902224,-0.007112967,0.0,-0.047195844,-0.01322821,0.001036332,0.0,-0.017205414,-0.022075328,0.0,0.0,0.008221665,0.006077658,0.048094732,0.026897594,0.0,0.011497785,0.0,-0.045711304,-0.000538946,0.0,0.0,0.0,-0.012809224,0.010012766,0.072316976,0.046341244,0.072316976,0.00258767,0.0,0.094016176
50.0,-0.177565984,0.029992484,-0.18347656,-0.049494396,0.235220896,0.01967787,-0.098511968,-0.172478416,0.201218576,-0.103613752,0.064479484,0.125767216,-0.152936496,0.075979008,-0.176286784,-0.089045096,0.068978136,0.17161488,-0.002690493,0.191144944,-0.080746816,-0.19945576,-0.138921904,-0.209598496,0.021132004,-0.126532688,-0.105675944,-0.058810284,0.09308764,-0.06649472,0.042033752,-0.187588304,0.184444624,0.141643424,0.215066512,-0.021663488,-0.185448096,-0.004162013,0.184444624,0.142410528,-0.00706344,-0.064352312,-0.163710352,-0.062815488,-0.164231328,-0.046555148,0.079753008,-0.08581668,-0.022541284,0.15902224,-0.007112967,0.0,-0.047195844,-0.01322821,0.001036332,0.0,-0.017205414,-0.022075328,0.0,0.0,0.008221665,0.006077658,0.048094732,0.026897594,0.0,0.011497785,0.0,-0.045711304,-0.000538946,0.0,0.0,0.0,-0.012809224,0.010012766,0.072316976,0.046341244,0.072316976,0.00258767,0.0,0.094016176
51.0,-0.177565984,0.029992484,-0.18347656,-0.049494396,0.235220896,0.01967787,-0.098511968,-0.172478416,0.201218576,-0.103613752,0.064479484,0.125767216,-0.152936496,0.075979008,-0.176286784,-0.089045096,0.068978136,0.17161488,-0.002690493,0.191144944,-0.080746816,-0.19945576,-0.138921904,-0.209598496,0.021132004,-0.126532688,-0.105675944,-0.058810284,0.09308764,-0.06649472,0.042033752,-0.187588304,0.184444624,0.141643424,0.215066512,-0.021663488,-0.185448096,-0.004162013,0.184444624,0.142410528,-0.00706344,-0.064352312,-0.163710352,-0.062815488,-0.164231328,-0.046555148,0.079753008,-0.08581668,-0.022541284,0.15902224,-0.007112967,0.0,-0.047195844,-0.01322821,0.001036332,0.0,-0.017205414,-0.022075328,0.0,0.0,0.008221665,0.006077658,0.048094732,0.026897594,0.0,0.011497785,0.0,-0.045711304,-0.000538946,0.0,0.0,0.0,-0.012809224,0.010012766,0.072316976,0.046341244,0.072316976,0.00258767,0.0,0.094016176
52.0,-0.177565984,0.029992484,-0.18347656,-0.049494396,0.235220896,0.01967787,-0.098511968,-0.172478416,0.201218576,-0.103613752,0.064479484,0.125767216,-0.152936496,0.075979008,-0.176286784,-0.089045096,0.068978136,0.17161488,-0.002690493,0.191144944,-0.080746816,-0.19945576,-0.138921904,-0.209598496,0.021132004,-0.126532688,-0.105675944,-0.058810284,0.09308764,-0.06649472,0.042033752,-0.187588304,0.184444624,0.141643424,0.215066512,-0.021663488,-0.185448096,-0.004162013,0.184444624,0.142410528,-0.00706344,-0.064352312,-0.163710352,-0.062815488,-0.164231328,-0.046555148,0.079753008,-0.08581668,-0.022541284,0.15902224,-0.007112967,0.0,-0.042469644,-0.01322821,0.001036332,0.0,-0.017205414,-0.022075328,0.0,0.0,0.008221665,0.006077658,0.048094732,0.026897594,0.0,0.011497785,0.0,-0.045711304,-0.000538946,0.0,0.0,0.0,-0.012809224,-0.018621652,0.04660564,-0.00823963,0.04660564,-0.012231213,0.0,0.042039016
53.0,-0.177565984,0.029992484,-0.18347656,-0.049494396,0.235220896,0.01967787,-0.098511968,-0.172478416,0.201218576,-0.103613752,0.064479484,0.125767216,-0.152936496,0.075979008,-0.176286784,-0.089045096,0.068978136,0.17161488,-0.002690493,0.191144944,-0.080746816,-0.19945576,-0.138921904,-0.209598496,0.021132004,-0.126532688,-0.105675944,-0.058810284,0.09308764,-0.06649472,0.042033752,-0.187588304,0.184444624,0.141643424,0.215066512,-0.021663488,-0.185448096,-0.004162013,0.184444624,0.142410528,-0.00706344,-0.064352312,-0.163710352,-0.062815488,-0.164231328,-0.046555148,0.079753008,-0.08581668,-0.022541284,0.15902224,-0.007112967,0.0,-0.048938088,-0.01322821,0.001036332,0.0,-0.017205414,-0.022075328,0.0,0.0,0.008221665,0.006077658,0.048094732,0.026897594,0.0,0.011497785,0.0,-0.045711304,-0.000538946,0.0,0.0,0.0,-0.012809224,0.018969408,0.075054032,0.041591064,0.075054032,0.00853742,0.0,0.079482024
54.0,-0.177565984,0.029992484,-0.18347656,-0.049494396,0.235220896,0.01967787,-0.098511968,-0.172478416,0.201218576,-0.103613752,0.064479484,0.125767216,-0.152936496,0.075979008,-0.176286784,-0.089045096,0.068978136,0.17161488,-0.002690493,0.191144944,-0.080746816,-0.19945576,-0.138921904,-0.209598496,0.021132004,-0.126532688,-0.105675944,-0.058810284,0.09308764,-0.06649472,0.042033752,-0.187588304,0.184444624,0.141643424,0.215066512,-0.021663488,-0.185448096,-0.004162013,0.184444624,0.142410528,-0.00706344,-0.064352312,-0.163710352,-0.062815488,-0.164231328,-0.046555148,0.079753008,-0.08581668,-0.022541284,0.15902224,-0.007112967,0.0,-0.048938088,-0.01322821,0.001036332,0.0,-0.017205414,-0.022075328,0.0,0.0,0.008221665,0.006077658,0.048094732,0.026897594,0.0,0.011497785,0.0,-0.045711304,-0.000538946,0.0,0.0,0.0,-0.012809224,0.018969408,0.075054032,0.041591064,0.075054032,0.00853742,0.0,0.079482024
55.0,-0.177565984,0.029992484,-0.18347656,-0.049494396,0.235220896,0.01967787,-0.098511968,-0.172478416,0.201218576,-0.103613752,0.064479484,0.125767216,-0.152936496,0.075979008,-0.176286784,-0.089045096,0.068978136,0.17161488,-0.002690493,0.191144944,-0.080746816,-0.19945576,-0.138921904,-0.209598496,0.021132004,-0.126532688,-0.105675944,-0.058810284,0.09308764,-0.06649472,0.042033752,-0.187588304,0.184444624,0.141643424,0.215066512,-0.021663488,-0.185448096,-0.004162013,0.184444624,0.142410528,-0.00706344,-0.064352312,-0.163710352,-0.062815488,-0.164231328,-0.046555148,0.079753008,-0.08581668,-0.022541284,0.15902224,-0.007112967,0.0,-0.048938088,-0.01322821,0.001036332,0.0,-0.017205414,-0.022075328,0.0,0.0,0.008221665,0.006077658,0.048094732,0.026897594,0.0,0.011497785,0.0,-0.045711304,-0.000538946,0.0,0.0,0.0,-0.012809224,0.018969408,0.075054032,0.041591064,0.075054032,0.00853742,0.0,0.079482024
56.0,-0.177565984,0.029992484,-0.18347656,-0.049494396,0.235220896,0.01967787,-0.098511968,-0.172478416,0.201218576,-0.103613752,0.064479484,0.125767216,-0.152936496,0.075979008,-0.176286784,-0.089045096,0.068978136,0.17161488,-0.002690493,0.191144944,-0.080746816,-0.19945576,-0.138921904,-0.209598496,0.021132004,-0.126532688,-0.105675944,-0.058810284,0.09308764,-0.06649472,0.042033752,-0.187588304,0.184444624,0.141643424,0.215066512,-0.021663488,-0.185448096,-0.004162013,0.184444624,0.142410528,-0.00706344,-0.064352312,-0.163710352,-0.062815488,-0.164231328,-0.046555148,0.079753008,-0.08581668,-0.022541284,0.15902224,-0.007112967,0.0,-0.048938088,-0.01322821,0.001036332,0.0,-0.017205414,-0.022075328,0.0,0.0,0.008221665,0.047550764,0.084303264,0.040579164,0.0,0.011497785,0.0,-0.045711304,-0.000538946,0.0,0.0,0.0,-0.012809224,-0.005492586,0.05660654,-0.00142017,0.05660654,-0.001601572,0.0,0.063073048
57.0,-0.177565984,0.029992484,-0.18347656,-0.049494396,0.235220896,0.01967787,-0.098511968,-0.172478416,0.201218576,-0.103613752,0.064479484,0.125767216,-0.152936496,0.075979008,-0.176286784,-0.089045096,0.068978136,0.17161488,-0.002690493,0.191144944,-0.080746816,-0.19945576,-0.138921904,-0.209598496,0.021132004,-0.126532688,-0.105675944,-0.058810284,0.09308764,-0.06649472,0.042033752,-0.187588304,0.210017616,0.141643424,0.241116176,0.00396109,-0.185448096,-0.004162013,0.210017616,0.142410528,-0.00706344,-0.064352312,-0.163710352,-0.062815488,-0.164231328,-0.046555148,0.079753008,-0.08581668,-0.022541284,0.15902224,-0.007112967,0.0,-0.048938088,-0.01322821,0.001036332,0.0,-0.017205414,-0.022075328,0.0,0.0,0.008221665,0.035415748,0.03607108,0.021996,0.0,-0.036046964,0.0,-0.058301896,-0.000538946,0.0,0.0,0.0,-0.012809224,-0.005492586,0.05660654,-0.00142017,0.05660654,-0.001601572,0.0,0.063073048
58.0,-0.177565984,0.029992484,-0.18347656,-0.049494396,0.235220896,0.01967787,-0.098511968,-0.172478416,0.201218576,-0.103613752,0.064479484,0.125767216,-0.152936496,0.075979008,-0.176286784,-0.089045096,0.068978136,0.17161488,-0.002690493,0.191144944,-0.080746816,-0.19945576,-0.138921904,-0.209598496,0.021132004,-0.126532688,-0.105675944,-0.058810284,0.09308764,-0.06649472,0.042033752,-0.187588304,0.210017616,0.141643424,0.241116176,0.00396109,-0.185448096,-0.004162013,0.210017616,0.142410528,-0.00706344,-0.064352312,-0.163710352,-0.062815488,-0.164231328,-0.046555148,0.079753008,-0.08581668,-0.022541284,0.15902224,-0.007112967,0.0,-0.048938088,-0.01322821,0.001036332,0.0,-0.017205414,-0.022075328,0.0,0.0,0.008221665,0.035415748,0.03607108,0.021996,0.0,-0.036046964,0.0,-0.058301896,-0.000538946,0.0,0.0,0.0,-0.012809224,-0.005492586,0.05660654,-0.00142017,0.05660654,-0.001601572,0.0,0.063073048
59.0,-0.177565984,0.029992484,-0.18347656,-0.049494396,0.235220896,0.01967787,-0.098511968,-0.172478416,0.201218576,-0.103613752,0.064479484,0.125767216,-0.152936496,0.075979008,-0.176286784,-0.089045096,0.068978136,0.17161488,-0.002690493,0.191144944,-0.080746816,-0.19945576,-0.138921904,-0.209598496,0.021132004,-0.126532688,-0.105675944,-0.058810284,0.09308764,-0.06649472,0.042033752,-0.187588304,0.210017616,0.141643424,0.241116176,0.00396109,-0.185448096,-0.004162013,0.210017616,0.142410528,-0.00706344,-0.064352312,-0.163710352,-0.062815488,-0.164231328,-0.046555148,0.079753008,-0.08581668,-0.022541284,0.15902224,-0.007112967,0.0,-0.044104724,-0.01322821,0.001036332,0.0,-0.008602086,-0.011569384,0.0,0.0,0.008221665,0.027738852,-0.009456523,0.021996,0.0,-0.036046964,0.0,-0.077330392,-0.000538946,0.0,0.0,0.0,-0.012809224,-0.005492586,0.05660654,-0.00142017,0.05660654,-0.001601572,0.0,0.063073048
60.0,-0.177565984,0.029992484,-0.18347656,-0.049494396,0.235220896,0.01967787,-0.098511968,-0.172478416,0.201218576,-0.103613752,0.064479484,0.125767216,-0.152936496,0.075979008,-0.176286784,-0.089045096,0.068978136,0.17161488,-0.002690493,0.191144944,-0.080746816,-0.19945576,-0.138921904,-0.209598496,0.021132004,-0.126532688,-0.105675944,-0.058810284,0.09308764,-0.06649472,0.042033752,-0.187588304,0.210017616,0.141643424,0.241116176,0.00396109,-0.185448096,-0.004162013,0.210017616,0.142410528,-0.00706344,-0.064352312,-0.163710352,-0.062815488,-0.164231328,-0.046555148,0.079753008,-0.08581668,-0.022541284,0.15902224,-0.007112967,0.0,-0.059463432,-0.01322821,0.001036332,0.0,-0.008602086,-0.026919154,0.0,0.0,0.008221665,0.027738852,-0.009456523,0.021996,0.0,-0.036046964,0.0,-0.077330392,-0.000538946,0.0,0.0,0.0,-0.012809224,0.016161479,0.072597096,0.033375428,0.072597096,0.010752591,0.0,0.098324824
61.0,-0.177565984,0.029992484,-0.18347656,-0.049494396,0.235220896,0.01967787,-0.098511968,-0.172478416,0.201218576,-0.103613752,0.064479484,0.13194984,-0.152936496,0.171418256,-0.176286784,-0.089045096,0.078753272,0.17161488,0.036148144,0.191144944,-0.080746816,-0.19945576,-0.138921904,-0.209598496,0.021132004,-0.126532688,-0.105675944,-0.058810284,0.09308764,-0.06649472,0.042033752,-0.187588304,0.210017616,0.141643424,0.241116176,0.00396109,-0.185448096,-0.004162013,0.210017616,0.142410528,-0.00706344,-0.064352312,-0.163710352,-0.062815488,-0.164231328,-0.046555148,0.079753008,-0.08581668,-0.022541284,0.15902224,-0.007112967,0.0,-0.059463432,-0.01322821,0.001036332,0.0,-0.008602086,-0.026919154,0.0,0.0,0.008221665,0.027738852,-0.009456523,0.021996,0.0,-0.036046964,0.0,-0.077330392,-0.000538946,0.0,-0.018432946,0.0,-0.012809224,0.016161479,0.072597096,0.008736065,0.072597096,0.010752591,0.0,0.074943024
62.0,-0.177565984,0.029992484,-0.18347656,-0.049494396,0.235220896,0.01967787,-0.098511968,-0.172478416,0.201218576,-0.103613752,0.064479484,0.13194984,-0.152936496,0.171418256,-0.176286784,-0.089045096,0.078753272,0.17161488,0.036148144,0.191144944,-0.080746816,-0.19945576,-0.138921904,-0.209598496,0.021132004,-0.126532688,-0.105675944,-0.058810284,0.09308764,-0.06649472,0.042033752,-0.187588304,0.210017616,0.141643424,0.241116176,0.00396109,-0.185448096,-0.004162013,0.210017616,0.142410528,-0.00706344,-0.064352312,-0.163710352,-0.062815488,-0.164231328,-0.046555148,0.079753008,-0.08581668,-0.022541284,0.15902224,-0.007112967,0.0,-0.044997848,-0.01322821,0.001036332,0.0,0.000695517,-0.026919154,0.0,0.0,0.008221665,0.027738852,-0.009456523,0.021996,0.0,-0.036046964,0.0,-0.077330392,-0.000538946,0.0,-0.018432946,0.0,-0.012809224,-0.022866152,0.047088796,-0.034077956,0.047088796,0.004826521,0.0,0.045996344
63.0,-0.177565984,0.029992484,-0.18347656,-0.049494396,0.235220896,0.01967787,-0.098511968,-0.172478416,0.201218576,-0.103613752,0.064479484,0.13194984,-0.152936496,0.171418256,-0.176286784,-0.089045096,0.078753272,0.17161488,0.036148144,0.191144944,-0.080746816,-0.19945576,-0.138921904,-0.209598496,0.021132004,-0.126532688,-0.105675944,-0.058810284,0.09308764,-0.06649472,0.042033752,-0.187588304,0.210017616,0.141643424,0.241116176,0.00396109,-0.185448096,-0.004162013,0.210017616,0.142410528,-0.00706344,-0.064352312,-0.163710352,-0.062815488,-0.164231328,-0.046555148,0.079753008,-0.08581668,-0.022541284,0.15902224,-0.007112967,0.0,-0.044997848,-0.01322821,0.001036332,0.0,0.000695517,-0.026919154,0.0,0.0,0.008221665,0.027738852,-0.009456523,0.021996,0.0,-0.036046964,0.0,-0.077330392,-0.000538946,0.0,-0.018432946,0.0,-0.012809224,-0.022866152,0.047088796,-0.034077956,0.047088796,0.004826521,0.0,0.045996344
64.0,-0.177565984,0.029992484,-0.18347656,-0.049494396,0.235220896,0.01967787,-0.098511968,-0.172478416,0.201218576,-0.103613752,0.064479484,0.13194984,-0.152936496,0.171418256,-0.176286784,-0.089045096,0.078753272,0.17161488,0.036148144,0.191144944,-0.080746816,-0.19945576,-0.138921904,-0.209598496,0.021132004,-0.126532688,-0.105675944,-0.058810284,0.09308764,-0.06649472,0.042033752,-0.187588304,0.20607288,0.134666272,0.237999728,-0.018910692,-0.185448096,-0.004162013,0.20607288,0.142410528,-0.00706344,-0.064352312,-0.163710352,-0.062815488,-0.164231328,-0.046555148,0.079753008,-0.08581668,-0.022541284,0.15902224,-0.007112967,0.0,-0.044997848,-0.01322821,0.001036332,0.0,0.000695517,-0.026919154,0.0,0.0,0.008221665,0.055666076,0.030067674,0.048414364,0.0,-0.024492256,0.0,-0.072619112,-0.000538946,0.0,-0.018432946,0.0,-0.012809224,-0.022866152,0.047088796,-0.034077956,0.047088796,0.004826521,0.0,0.045996344
65.0,-0.177565984,0.029992484,-0.18347656,-0.049494396,0.235220896,0.01967787,-0.098511968,-0.172478416,0.201218576,-0.103613752,0.064479484,0.13194984,-0.152936496,0.171418256,-0.176286784,-0.089045096,0.078753272,0.17161488,0.036148144,0.191144944,-0.080746816,-0.19945576,-0.138921904,-0.209598496,0.021132004,-0.126532688,-0.105675944,-0.058810284,0.09308764,-0.06649472,0.042033752,-0.187588304,0.20607288,0.134666272,0.237999728,-0.018910692,-0.185448096,-0.004162013,0.20607288,0.142410528,-0.00706344,-0.064352312,-0.163710352,-0.062815488,-0.164231328,-0.046555148,0.079753008,-0.08581668,-0.022541284,0.15902224,-0.007112967,0.0,-0.054726924,-0.01322821,0.001036332,0.0,0.000695517,-0.03004219,0.0,0.0,0.008221665,0.071915584,0.0814508,0.05720486,0.0,-0.024492256,0.0,-0.068377256,-0.000538946,0.0,-0.018432946,0.0,-0.012809224,-0.022866152,0.047088796,-0.034077956,0.047088796,0.004826521,0.0,0.045996344
66.0,-0.177565984,0.029992484,-0.18347656,-0.049494396,0.235220896,0.01967787,-0.098511968,-0.172478416,0.201218576,-0.103613752,0.064479484,0.13194984,-0.152936496,0.171418256,-0.176286784,-0.089045096,0.078753272,0.17161488,0.036148144,0.191144944,-0.080746816,-0.19945576,-0.138921904,-0.209598496,0.021132004,-0.126532688,-0.105675944,-0.058810284,0.09308764,-0.06649472,0.042033752,-0.187588304,0.20607288,0.134666272,0.237999728,-0.018910692,-0.185448096,-0.004162013,0.20607288,0.142410528,-0.00706344,-0.064352312,-0.163710352,-0.062815488,-0.164231328,-0.046555148,0.079753008,-0.08581668,-0.022541284,0.15902224,-0.007112967,0.0,-0.054726924,-0.01322821,0.001036332,0.0,0.000695517,-0.03004219,0.0,0.0,0.008221665,0.071915584,0.0814508,0.05720486,0.0,-0.024492256,0.0,-0.068377256,-0.000538946,0.0,-0.018432946,0.0,-0.012809224,-0.022866152,0.047088796,-0.034077956,0.047088796,0.004826521,0.0,0.045996344
67.0,-0.177565984,0.029992484,-0.18347656,-0.049494396,0.235220896,0.01967787,-0.098511968,-0.172478416,0.201218576,-0.103613752,0.064479484,0.13194984,-0.152936496,0.171418256,-0.176286784,-0.089045096,0.078753272,0.17161488,0.036148144,0.191144944,-0.080746816,-0.19945576,-0.138921904,-0.209598496,0.021132004,-0.126532688,-0.105675944,-0.058810284,0.09308764,-0.06649472,0.042033752,-0.187588304,0.20607288,0.134666272,0.237999728,-0.018910692,-0.185448096,-0.004162013,0.20607288,0.142410528,-0.00706344,-0.064352312,-0.163710352,-0.062815488,-0.164231328,-0.046555148,0.079753008,-0.08581668,-0.022541284,0.15902224,-0.007112967,0.0,-0.038603452,-0.01322821,0.001036332,0.0,0.009215413,-0.016366288,0.0,0.0,0.008221665,0.067735512,0.03050726,0.05720486,0.0,-0.024492256,0.0,-0.07616748,-0.000538946,0.0,-0.018432946,0.0,-0.012809224,-0.022866152,0.047088796,-0.034077956,0.047088796,0.004826521,0.0,0.045996344
68.0,-0.177565984,0.029992484,-0.18347656,-0.049494396,0.235220896,0.01967787,-0.098511968,-0.172478416,0.201218576,-0.103613752,0.064479484,0.13194984,-0.152936496,0.171418256,-0.176286784,-0.089045096,0.078753272,0.17161488,0.036148144,0.191144944,-0.080746816,-0.19945576,-0.138921904,-0.209598496,0.021132004,-0.126532688,-0.105675944,-0.058810284,0.09308764,-0.06649472,0.042033752,-0.187588304,0.20607288,0.134666272,0.237999728,-0.018910692,-0.185448096,-0.004162013,0.20607288,0.142410528,-0.00706344,-0.064352312,-0.163710352,-0.062815488,-0.164231328,-0.046555148,0.079753008,-0.08581668,-0.022541284,0.15902224,-0.007112967,0.0,-0.038603452,-0.01322821,0.001036332,0.0,0.009215413,-0.016366288,0.0,0.0,0.008221665,0.067735512,0.03050726,0.05720486,0.0,-0.024492256,0.0,-0.07616748,-0.000538946,0.0,-0.018432946,0.0,-0.012809224,-0.022866152,0.047088796,-0.034077956,0.047088796,0.004826521,0.0,0.045996344
69.0,-0.177565984,0.029992484,-0.18347656,-0.049494396,0.235220896,0.01967787,-0.098511968,-0.172478416,0.201218576,-0.103613752,0.064479484,0.13194984,-0.152936496,0.171418256,-0.176286784,-0.089045096,0.078753272,0.17161488,0.036148144,0.191144944,-0.080746816,-0.19945576,-0.138921904,-0.209598496,0.021132004,-0.126532688,-0.105675944,-0.058810284,0.09308764,-0.06649472,0.042033752,-0.187588304,0.20607288,0.134666272,0.237999728,-0.018910692,-0.185448096,-0.004162013,0.20607288,0.142410528,-0.00706344,-0.064352312,-0.163710352,-0.062815488,-0.164231328,-0.046555148,0.079753008,-0.08581668,-0.022541284,0.15902224,-0.007112967,0.0,-0.038603452,-0.01322821,0.001036332,0.0,0.009215413,-0.016366288,0.0,0.0,0.008221665,0.067735512,0.03050726,0.05720486,0.0,-0.024492256,0.0,-0.07616748,-0.000538946,0.0,-0.018432946,0.0,-0.012809224,-0.022866152,0.047088796,-0.034077956,0.047088796,0.004826521,0.0,0.045996344
70.0,-0.177565984,0.029992484,-0.18347656,-0.049494396,0.235220896,0.01967787,-0.098511968,-0.172478416,0.201218576,-0.103613752,0.064479484,0.13194984,-0.152936496,0.171418256,-0.176286784,-0.089045096,0.078753272,0.17161488,0.036148144,0.191144944,-0.080746816,-0.19945576,-0.138921904,-0.209598496,0.021132004,-0.126532688,-0.105675944,-0.058810284,0.09308764,-0.06649472,0.042033752,-0.187588304,0.20607288,0.134666272,0.237999728,-0.018910692,-0.185448096,-0.004162013,0.20607288,0.142410528,-0.00706344,-0.064352312,-0.163710352,-0.062815488,-0.164231328,-0.046555148,0.079753008,-0.08581668,-0.022541284,0.15902224,-0.007112967,0.0,-0.055323072,-0.01322821,0.001036332,0.0,0.009215413,-0.037681868,0.0,0.0,0.008221665,0.067735512,0.03050726,0.05720486,0.0,-0.024492256,0.0,-0.07616748,-0.000538946,0.0,-0.018432946,0.0,-0.012809224,0.007044814,0.0570125,0.011051346,0.0570125,0.016271111,0.0,0.074473456
71.0,-0.177565984,0.029992484,-0.18347656,-0.049494396,0.235220896,0.01967787,-0.098511968,-0.172478416,0.201218576,-0.103613752,0.064479484,0.13194984,-0.152936496,0.171418256,-0.176286784,-0.089045096,0.078753272,0.17161488,0.036148144,0.191144944,-0.080746816,-0.19945576,-0.138921904,-0.209598496,0.021132004,-0.126532688,-0.105675944,-0.058810284,0.09308764,-0.06649472,0.042033752,-0.187588304,0.20607288,0.134666272,0.237999728,-0.018910692,-0.185448096,-0.004162013,0.20607288,0.142410528,-0.00706344,-0.064352312,-0.163710352,-0.062815488,-0.164231328,-0.046555148,0.079753008,-0.08581668,-0.022541284,0.15902224,-0.007112967,0.0,-0.055323072,-0.01322821,0.001036332,0.0,0.009215413,-0.037681868,0.0,0.0,0.008221665,0.067735512,0.03050726,0.05720486,0.0,-0.024492256,0.0,-0.07616748,-0.000538946,0.0,-0.018432946,0.0,-0.012809224,0.007044814,0.0570125,0.011051346,0.0570125,0.016271111,0.0,0.074473456
72.0,-0.177565984,0.029992484,-0.18347656,-0.049494396,0.235220896,0.01967787,-0.098511968,-0.172478416,0.201218576,-0.103613752,0.064479484,0.13194984,-0.152936496,0.171418256,-0.176286784,-0.089045096,0.078753272,0.17161488,0.036148144,0.191144944,-0.09038372,-0.19945576,-0.138921904,-0.209598496,0.021132004,-0.126532688,-0.105675944,-0.058810284,0.071457896,-0.076989384,0.042033752,-0.187588304,0.20607288,0.134666272,0.237999728,-0.018910692,-0.185448096,-0.004162013,0.20607288,0.142410528,-0.00706344,-0.064352312,-0.163710352,-0.062815488,-0.164231328,-0.046555148,0.079753008,-0.08581668,-0.022541284,0.15902224,-0.007112967,0.0,-0.055323072,-0.01322821,0.001036332,0.0,0.009215413,-0.037681868,0.0,0.0,0.009619623,0.088412,0.0747734,0.06346622,0.0,-0.024492256,0.0,-0.069943352,-0.000538946,0.0,-0.018432946,0.0,-0.012809224,0.007044814,0.0570125,0.011051346,0.0570125,0.016271111,0.0,0.074473456
73.0,-0.177565984,0.029992484,-0.18347656,-0.049494396,0.235220896,0.01967787,-0.098511968,-0.172478416,0.201218576,-0.103613752,0.064479484,0.13194984,-0.152936496,0.171418256,-0.176286784,-0.089045096,0.078753272,0.17161488,0.036148144,0.191144944,-0.09038372,-0.19945576,-0.138921904,-0.209598496,0.021132004,-0.126532688,-0.105675944,-0.058810284,0.071457896,-0.076989384,0.042033752,-0.187588304,0.20607288,0.134666272,0.237999728,-0.018910692,-0.185448096,-0.004162013,0.20607288,0.142410528,-0.00706344,-0.064352312,-0.163710352,-0.062815488,-0.164231328,-0.046555148,0.079753008,-0.08581668,-0.022541284,0.15902224,-0.007112967,0.0,-0.055323072,-0.01322821,0.001036332,0.0,0.009215413,-0.037681868,0.0,0.0,0.009619623,0.088412,0.0747734,0.06346622,0.0,-0.024492256,0.0,-0.069943352,-0.000538946,0.0,-0.018432946,0.0,-0.012809224,0.007044814,0.0570125,0.011051346,0.0570125,0.016271111,0.0,0.074473456
74.0,-0.177565984,0.029992484,-0.18347656,-0.049494396,0.235220896,0.01967787,-0.098511968,-0.172478416,0.201218576,-0.103613752,0.064479484,0.13194984,-0.152936496,0.171418256,-0.176286784,-0.089045096,0.078753272,0.17161488,0.036148144,0.191144944,-0.09038372,-0.19945576,-0.138921904,-0.209598496,0.021132004,-0.126532688,-0.105675944,-0.058810284,0.071457896,-0.076989384,0.042033752,-0.187588304,0.20607288,0.134666272,0.237999728,-0.018910692,-0.185448096,-0.004162013,0.20607288,0.142410528,-0.00706344,-0.064352312,-0.163710352,-0.062815488,-0.164231328,-0.046555148,0.079753008,-0.08581668,-0.022541284,0.15902224,-0.007112967,0.0,-0.055323072,-0.01322821,0.001036332,0.0,0.009215413,-0.037681868,0.0,0.0,0.009619623,0.088412,0.0747734,0.06346622,0.0,-0.024492256,0.0,-0.069943352,-0.000538946,0.0,-0.018432946,0.0,-0.012809224,0.007044814,0.0570125,0.011051346,0.0570125,0.016271111,0.0,0.074473456
75.0,-0.177565984,0.029992484,-0.18347656,-0.049494396,0.235220896,0.01967787,-0.098511968,-0.172478416,0.201218576,-0.103613752,0.064479484,0.13194984,-0.152936496,0.171418256,-0.176286784,-0.089045096,0.078753272,0.17161488,0.036148144,0.191144944,-0.09038372,-0.19945576,-0.138921904,-0.209598496,0.021132004,-0.126532688,-0.105675944,-0.058810284,0.071457896,-0.076989384,0.042033752,-0.187588304,0.20607288,0.134666272,0.237999728,-0.018910692,-0.185448096,-0.004162013,0.20607288,0.142410528,-0.00706344,-0.064352312,-0.163710352,-0.062815488,-0.164231328,-0.046555148,0.079753008,-0.08581668,-0.022541284,0.15902224,-0.007112967,0.0,-0.055323072,-0.01322821,0.001036332,0.0,0.009215413,-0.037681868,0.0,0.0,0.009619623,0.088412,0.0747734,0.06346622,0.0,-0.024492256,0.0,-0.069943352,-0.000538946,0.0,-0.018432946,0.0,-0.012809224,0.007044814,0.0570125,0.011051346,0.0570125,0.016271111,0.0,0.074473456
76.0,-0.177565984,0.029992484,-0.18347656,-0.049494396,0.235220896,0.01967787,-0.098511968,-0.172478416,0.201218576,-0.103613752,0.064479484,0.13194984,-0.152936496,0.171418256,-0.176286784,-0.089045096,0.078753272,0.17161488,0.036148144,0.191144944,-0.09038372,-0.19945576,-0.138921904,-0.209598496,0.021132004,-0.126532688,-0.105675944,-0.058810284,0.071457896,-0.076989384,0.042033752,-0.187588304,0.20607288,0.134666272,0.237999728,-0.018910692,-0.185448096,-0.004162013,0.20607288,0.142410528,-0.00706344,-0.064352312,-0.163710352,-0.062815488,-0.164231328,-0.046555148,0.079753008,-0.08581668,-0.022541284,0.15902224,-0.007112967,0.0,-0.055323072,-0.01322821,0.001036332,0.0,0.009215413,-0.037681868,0.0,0.0,0.009619623,0.088412,0.0747734,0.06346622,0.0,-0.024492256,0.0,-0.069943352,-0.000538946,0.0,-0.018432946,0.0,-0.012809224,0.007044814,0.0570125,0.011051346,0.0570125,0.016271111,0.0,0.074473456
77.0,-0.177565984,0.029992484,-0.18347656,-0.049494396,0.235220896,0.01967787,-0.098511968,-0.172478416,0.201218576,-0.103613752,0.064479484,0.13194984,-0.152936496,0.171418256,-0.176286784,-0.089045096,0.078753272,0.17161488,0.036148144,0.191144944,-0.09038372,-0.19945576,-0.138921904,-0.209598496,0.021132004,-0.126532688,-0.105675944,-0.058810284,0.071457896,-0.076989384,0.042033752,-0.187588304,0.234274144,0.134666272,0.26533296,0.017186336,-0.185448096,-0.004162013,0.234274144,0.142410528,-0.00706344,-0.064352312,-0.163710352,-0.062815488,-0.164231328,-0.046555148,0.079753008,-0.08581668,-0.022541284,0.15902224,-0.007112967,0.0,-0.055323072,-0.01322821,0.001036332,0.0,0.009215413,-0.037681868,0.0,0.0,0.009619623,0.076741208,0.030912902,0.035464784,0.0,-0.0732294,0.0,-0.075442136,-0.000538946,0.0,-0.018432946,0.0,-0.012809224,0.007044814,0.0570125,0.011051346,0.0570125,0.016271111,0.0,0.074473456
78.0,-0.177565984,0.029992484,-0.18347656,-0.049494396,0.235220896,0.01967787,-0.098511968,-0.172478416,0.201218576,-0.103613752,0.064479484,0.13194984,-0.152936496,0.171418256,-0.176286784,-0.089045096,0.078753272,0.17161488,0.036148144,0.191144944,-0.09038372,-0.19945576,-0.138921904,-0.209598496,0.021132004,-0.126532688,-0.105675944,-0.058810284,0.071457896,-0.076989384,0.042033752,-0.187588304,0.234274144,0.134666272,0.26533296,0.017186336,-0.185448096,-0.004162013,0.234274144,0.142410528,-0.00706344,-0.064352312,-0.163710352,-0.062815488,-0.164231328,-0.046555148,0.079753008,-0.08581668,-0.022541284,0.15902224,-0.007112967,0.0,-0.055323072,-0.01322821,0.001036332,0.0,0.009215413,-0.037681868,0.0,0.0,0.009619623,0.076741208,0.030912902,0.035464784,0.0,-0.0732294,0.0,-0.075442136,-0.000538946,0.0,-0.018432946,0.0,-0.012809224,0.007044814,0.0570125,0.011051346,0.0570125,0.016271111,0.0,0.074473456
79.0,-0.177565984,0.029992484,-0.18347656,-0.049494396,0.235220896,0.01967787,-0.098511968,-0.172478416,0.201218576,-0.103613752,0.064479484,0.13194984,-0.152936496,0.171418256,-0.176286784,-0.089045096,0.078753272,0.17161488,0.036148144,0.191144944,-0.09038372,-0.19945576,-0.138921904,-0.209598496,0.021132004,-0.126532688,-0.105675944,-0.058810284,0.071457896,-0.076989384,0.042033752,-0.187588304,0.234274144,0.134666272,0.26533296,0.017186336,-0.185448096,-0.004162013,0.234274144,0.142410528,-0.00706344,-0.064352312,-0.163710352,-0.062815488,-0.164231328,-0.046555148,0.079753008,-0.08581668,-0.022541284,0.15902224,-0.007112967,0.0,-0.029492588,-0.01322821,0.001036332,0.0,0.009215413,-0.037681868,0.0,0.0,0.009619623,0.076741208,0.030912902,0.035464784,0.0,-0.0732294,0.0,-0.075442136,-0.000538946,0.0,-0.018432946,0.0,-0.012809224,-0.022751186,0.021752406,-0.032908458,0.021752406,0.005616351,0.0,0.03075495
80.0,-0.177565984,0.029992484,-0.18347656,-0.049494396,0.235220896,0.01967787,-0.098511968,-0.172478416,0.201218576,-0.103613752,0.064479484,0.13194984,-0.152936496,0.171418256,-0.176286784,-0.089045096,0.078753272,0.17161488,0.036148144,0.191144944,-0.09038372,-0.19945576,-0.138921904,-0.209598496,0.021132004,-0.126532688,-0.105675944,-0.058810284,0.071457896,-0.076989384,0.042033752,-0.187588304,0.234274144,0.134666272,0.26533296,0.017186336,-0.185448096,-0.004162013,0.234274144,0.142410528,-0.00706344,-0.064352312,-0.163710352,-0.062815488,-0.164231328,-0.046555148,0.079753008,-0.08581668,-0.022541284,0.15902224,-0.007112967,0.0,-0.055458492,-0.01322821,0.001036332,0.0,0.009215413,-0.043142484,0.0,0.0,0.009619623,0.076741208,0.030912902,0.035464784,0.0,-0.0732294,0.0,-0.075442136,-0.000538946,0.0,-0.018432946,0.0,-0.012809224,0.006296836,0.039627844,0.004679214,0.039627844,0.019582878,0.0,0.066644468
81.0,-0.177565984,0.029992484,-0.18347656,-0.049494396,0.235220896,0.01967787,-0.098511968,-0.172478416,0.201218576,-0.103613752,0.064479484,0.13194984,-0.152936496,0.171418256,-0.176286784,-0.089045096,0.078753272,0.17161488,0.036148144,0.191144944,-0.09038372,-0.19945576,-0.138921904,-0.209598496,0.021132004,-0.126532688,-0.105675944,-0.058810284,0.071457896,-0.076989384,0.042033752,-0.187588304,0.234274144,0.134666272,0.26533296,0.017186336,-0.185448096,-0.004162013,0.234274144,0.142410528,-0.00706344,-0.064352312,-0.163710352,-0.062815488,-0.164231328,-0.046555148,0.079753008,-0.08581668,-0.022541284,0.15902224,-0.007112967,0.0,-0.070594696,-0.01322821,0.001036332,0.0,0.009215413,-0.043994336,0.0,0.0,0.009619623,0.076741208,0.030912902,0.035464784,0.0,-0.0732294,0.0,-0.075442136,-0.000538946,0.0,-0.018432946,0.0,-0.012809224,0.035076796,0.06072618,0.045143568,0.06072618,0.034972948,0.0,0.095621616
82.0,-0.177565984,0.029992484,-0.18347656,-0.049494396,0.235220896,0.01967787,-0.098511968,-0.172478416,0.201218576,-0.103613752,0.064479484,0.13194984,-0.152936496,0.171418256,-0.176286784,-0.089045096,0.078753272,0.17161488,0.036148144,0.191144944,-0.09038372,-0.19945576,-0.138921904,-0.209598496,0.021132004,-0.126532688,-0.105675944,-0.058810284,0.071457896,-0.076989384,0.042033752,-0.187588304,0.234274144,0.134666272,0.26533296,0.017186336,-0.185448096,-0.004162013,0.234274144,0.142410528,-0.00706344,-0.064352312,-0.163710352,-0.062815488,-0.164231328,-0.046555148,0.079753008,-0.08581668,-0.022541284,0.15902224,-0.007112967,0.0,-0.070594696,-0.01322821,0.001036332,0.0,0.009215413,-0.043994336,0.0,0.0,0.009619623,0.076741208,0.030912902,0.035464784,0.0,-0.0732294,0.0,-0.075442136,-0.000538946,0.0,-0.018432946,0.0,-0.012809224,0.035076796,0.06072618,0.045143568,0.06072618,0.034972948,0.0,0.095621616
83.0,-0.177565984,0.029992484,-0.18347656,-0.049494396,0.235220896,0.01967787,-0.098511968,-0.172478416,0.201218576,-0.103613752,0.064479484,0.13194984,-0.152936496,0.171418256,-0.176286784,-0.089045096,0.078753272,0.17161488,0.036148144,0.191144944,-0.09038372,-0.19945576,-0.138921904,-0.209598496,0.021132004,-0.126532688,-0.105675944,-0.058810284,0.071457896,-0.076989384,0.042033752,-0.187588304,0.234274144,0.134666272,0.26533296,0.017186336,-0.185448096,-0.004162013,0.234274144,0.142410528,-0.00706344,-0.064352312,-0.163710352,-0.062815488,-0.164231328,-0.046555148,0.079753008,-0.08581668,-0.022541284,0.15902224,-0.007112967,0.0,-0.070594696,-0.01322821,0.001036332,0.0,0.009215413,-0.043994336,0.0,0.0,0.009619623,0.076741208,0.030912902,0.035464784,0.0,-0.0732294,0.0,-0.075442136,-0.000538946,0.0,-0.018432946,0.0,-0.012809224,0.035076796,0.06072618,0.045143568,0.06072618,0.034972948,0.0,0.095621616
84.0,-0.177565984,0.029992484,-0.18347656,-0.049494396,0.235220896,0.01967787,-0.098511968,-0.172478416,0.201218576,-0.103613752,0.064479484,0.13194984,-0.152936496,0.171418256,-0.176286784,-0.089045096,0.078753272,0.17161488,0.036148144,0.191144944,-0.09038372,-0.19945576,-0.138921904,-0.209598496,0.021132004,-0.126532688,-0.105675944,-0.058810284,0.071457896,-0.076989384,0.042033752,-0.187588304,0.234274144,0.134666272,0.26533296,0.017186336,-0.185448096,-0.004162013,0.234274144,0.142410528,-0.00706344,-0.064352312,-0.163710352,-0.062815488,-0.164231328,-0.046555148,0.079753008,-0.08581668,-0.022541284,0.15902224,-0.007112967,0.0,-0.070594696,-0.01322821,0.001036332,0.0,0.009215413,-0.043994336,0.0,0.0,0.009619623,0.076741208,0.030912902,0.035464784,0.0,-0.0732294,0.0,-0.075442136,-0.000538946,0.0,-0.018432946,0.0,-0.012809224,0.035076796,0.06072618,0.045143568,0.06072618,0.034972948,0.0,0.095621616
85.0,-0.177565984,0.029992484,-0.18347656,-0.049494396,0.235220896,0.01967787,-0.098511968,-0.172478416,0.201218576,-0.103613752,0.064479484,0.13194984,-0.152936496,0.171418256,-0.176286784,-0.089045096,0.078753272,0.17161488,0.036148144,0.191144944,-0.05965578,-0.19945576,-0.138921904,-0.209598496,0.021132004,-0.126532688,-0.105675944,-0.058810284,0.076427552,-0.076989384,0.042033752,-0.187588304,0.234274144,0.134666272,0.26533296,0.017186336,-0.185448096,-0.004162013,0.234274144,0.142410528,-0.00706344,-0.064352312,-0.163710352,-0.062815488,-0.164231328,-0.046555148,0.079753008,-0.08581668,-0.022541284,0.15902224,-0.007112967,0.0,-0.070594696,-0.01322821,0.001036332,0.0,0.009215413,-0.043994336,0.0,0.0,0.009619623,0.076741208,0.030912902,0.035464784,0.0,-0.0732294,0.0,-0.075442136,-0.000538946,0.0,-0.018432946,0.0,-0.012809224,-0.000350508,0.06072618,0.019617704,0.06072618,0.010680245,0.0,0.068186904
86.0,-0.177565984,0.029992484,-0.18347656,-0.049494396,0.235220896,0.01967787,-0.098511968,-0.172478416,0.201218576,-0.103613752,0.064479484,0.13194984,-0.166578272,0.12528208,-0.176286784,-0.089045096,0.078753272,0.17161488,0.036148144,0.189446496,-0.05965578,-0.19945576,-0.138921904,-0.209598496,0.021132004,-0.126532688,-0.105675944,-0.058810284,0.076427552,-0.076989384,0.042033752,-0.187588304,0.234274144,0.134666272,0.26533296,0.017186336,-0.185448096,-0.004162013,0.234274144,0.142410528,-0.00706344,-0.064352312,-0.163710352,-0.062815488,-0.164231328,-0.046555148,0.079753008,-0.08581668,-0.022541284,0.15902224,-0.007112967,0.0,-0.06259256,-0.01322821,0.015718041,0.0,0.024607416,-0.02266043,0.0,0.0,0.009619623,0.076741208,0.030912902,0.035464784,0.0,-0.0732294,0.0,-0.075442136,-0.000538946,0.0,-0.018432946,0.0,-0.012809224,-0.000350508,0.06072618,0.019617704,0.06072618,0.010680245,0.0,0.068186904
87.0,-0.177565984,0.029992484,-0.18347656,-0.049494396,0.235220896,0.01967787,-0.098511968,-0.172478416,0.201218576,-0.103613752,0.064479484,0.13194984,-0.166578272,0.12528208,-0.176286784,-0.089045096,0.078753272,0.17161488,0.036148144,0.189446496,-0.05965578,-0.19945576,-0.138921904,-0.209598496,0.021132004,-0.126532688,-0.105675944,-0.058810284,0.076427552,-0.076989384,0.042033752,-0.187588304,0.234274144,0.134666272,0.26533296,0.017186336,-0.185448096,-0.004162013,0.234274144,0.142410528,-0.00706344,-0.064352312,-0.163710352,-0.062815488,-0.164231328,-0.046555148,0.079753008,-0.08581668,-0.022541284,0.15902224,-0.007112967,0.0,-0.06259256,-0.01322821,0.015718041,0.0,0.024607416,-0.02266043,0.0,0.0,0.009619623,0.076741208,0.030912902,0.035464784,0.0,-0.0732294,0.0,-0.075442136,-0.000538946,0.0,-0.018432946,0.0,-0.012809224,-0.000350508,0.06072618,0.019617704,0.06072618,0.010680245,0.0,0.068186904
88.0,-0.177565984,0.029992484,-0.18347656,-0.049494396,0.235220896,0.01967787,-0.098511968,-0.172478416,0.201218576,-0.103613752,0.064479484,0.13194984,-0.166578272,0.12528208,-0.176286784,-0.089045096,0.078753272,0.17161488,0.036148144,0.189446496,-0.05965578,-0.19945576,-0.138921904,-0.209598496,0.021132004,-0.126532688,-0.105675944,-0.058810284,0.076427552,-0.076989384,0.042033752,-0.187588304,0.234274144,0.134666272,0.26533296,0.017186336,-0.185448096,-0.004162013,0.234274144,0.142410528,-0.00706344,-0.064352312,-0.163710352,-0.062815488,-0.164231328,-0.046555148,0.079753008,-0.08581668,-0.022541284,0.15902224,-0.007112967,0.0,-0.06259256,-0.01322821,0.015718041,0.0,0.024607416,-0.02266043,0.0,0.0,0.009619623,0.076741208,0.030912902,0.035464784,0.0,-0.0732294,0.0,-0.075442136,-0.000538946,0.0,-0.018432946,0.0,-0.012809224,-0.000350508,0.06072618,0.019617704,0.06072618,0.010680245,0.0,0.068186904
89.0,-0.177565984,0.029992484,-0.18347656,-0.049494396,0.235220896,0.01967787,-0.098511968,-0.172478416,0.201218576,-0.103613752,0.064479484,0.13194984,-0.166578272,0.12528208,-0.176286784,-0.089045096,0.078753272,0.17161488,0.036148144,0.189446496,-0.05965578,-0.19945576,-0.138921904,-0.209598496,0.021132004,-0.126532688,-0.105675944,-0.058810284,0.076427552,-0.076989384,0.042033752,-0.187588304,0.234274144,0.134666272,0.26533296,0.017186336,-0.185448096,-0.004162013,0.234274144,0.142410528,-0.00706344,-0.064352312,-0.163710352,-0.062815488,-0.164231328,-0.046555148,0.079753008,-0.08581668,-0.022541284,0.15902224,-0.007112967,0.0,-0.06259256,-0.01322821,0.015718041,0.0,0.024607416,-0.02266043,0.0,0.0,0.009619623,0.076741208,0.030912902,0.035464784,0.0,-0.0732294,0.0,-0.075442136,-0.000538946,0.0,-0.018432946,0.0,-0.012809224,-0.000350508,0.06072618,0.019617704,0.06072618,0.010680245,0.0,0.068186904
90.0,-0.177565984,0.029992484,-0.18347656,-0.049494396,0.26717872,0.01967787,-0.077036128,-0.172478416,0.201218576,-0.103613752,0.064479484,0.13194984,-0.166578272,0.12528208,-0.176286784,-0.089045096,0.078753272,0.17161488,0.036148144,0.189446496,-0.05965578,-0.19945576,-0.138921904,-0.209598496,0.021132004,-0.126532688,-0.105675944,-0.058810284,0.076427552,-0.076989384,0.038073816,-0.187588304,0.234274144,0.134666272,0.25265184,-0.004368314,-0.185448096,-0.004162013,0.234274144,0.142410528,-0.00706344,-0.064352312,-0.163710352,-0.062815488,-0.164231328,-0.046555148,0.079753008,-0.08581668,-0.022541284,0.15902224,-0.007112967,0.0,-0.06259256,-0.01322821,0.015718041,0.0,0.024607416,-0.02266043,0.0,0.0,0.009619623,0.076741128,0.030912834,0.035464716,0.0,-0.0732294,0.0,-0.075442168,-0.000538946,0.0,-0.018432946,0.0,-0.012809224,-0.000350508,0.06072618,0.019617704,0.06072618,0.010680245,0.0,0.068186904
91.0,-0.177565984,0.029992484,-0.18347656,-0.049494396,0.26717872,0.01967787,-0.077036128,-0.172478416,0.201218576,-0.103613752,0.064479484,0.13194984,-0.166578272,0.12528208,-0.176286784,-0.089045096,0.078753272,0.17161488,0.036148144,0.189446496,-0.05965578,-0.19945576,-0.138921904,-0.209598496,0.021132004,-0.126532688,-0.105675944,-0.058810284,0.076427552,-0.076989384,0.038073816,-0.187588304,0.234274144,0.134666272,0.25265184,-0.004368314,-0.185448096,-0.004162013,0.234274144,0.142410528,-0.00706344,-0.064352312,-0.163710352,-0.062815488,-0.164231328,-0.046555148,0.079753008,-0.08581668,-0.022541284,0.15902224,-0.007112967,0.0,-0.06259256,-0.01322821,0.015718041,0.0,0.024607416,-0.02266043,0.0,0.0,0.009619623,0.060253392,-0.024336164,0.035362968,0.0,-0.0732294,0.0,-0.086627272,-0.000538946,0.0,-0.018432946,0.0,-0.012809224,0.013153516,0.066470252,0.057838492,0.066470252,0.018429756,0.0,0.091455776
92.0,-0.177565984,0.029992484,-0.18347656,-0.049494396,0.26717872,0.01967787,-0.077036128,-0.172478416,0.201218576,-0.103613752,0.064479484,0.13194984,-0.166578272,0.12528208,-0.176286784,-0.089045096,0.078753272,0.17161488,0.036148144,0.189446496,-0.05965578,-0.19945576,-0.138921904,-0.209598496,0.021132004,-0.126532688,-0.105675944,-0.058810284,0.076427552,-0.076989384,0.038073816,-0.187588304,0.234274144,0.134666272,0.25265184,-0.004368314,-0.185448096,-0.004162013,0.234274144,0.142410528,-0.00706344,-0.064352312,-0.163710352,-0.062815488,-0.164231328,-0.046555148,0.079753008,-0.08581668,-0.022541284,0.15902224,-0.007112967,0.0,-0.039408104,-0.01322821,0.015718041,0.0,0.024607416,-0.02266043,0.0,0.0,0.009619623,0.060253392,-0.024336164,0.035362968,0.0,-0.0732294,0.0,-0.086627272,-0.000538946,0.0,-0.018432946,0.0,-0.012809224,-0.01586039,0.033693168,0.009229142,0.033693168,-0.006744815,0.0,0.05199412
93.0,-0.177565984,0.029992484,-0.18347656,-0.049494396,0.26717872,0.01967787,-0.077036128,-0.172478416,0.201218576,-0.103613752,0.064479484,0.13194984,-0.166578272,0.12528208,-0.176286784,-0.089045096,0.078753272,0.17161488,0.036148144,0.189446496,-0.05965578,-0.19945576,-0.138921904,-0.209598496,0.021132004,-0.126532688,-0.105675944,-0.058810284,0.076427552,-0.076989384,0.038073816,-0.187588304,0.234274144,0.134666272,0.25265184,-0.004368314,-0.185448096,-0.004162013,0.234274144,0.142410528,-0.00706344,-0.064352312,-0.163710352,-0.062815488,-0.164231328,-0.046555148,0.079753008,-0.08581668,-0.022541284,0.15902224,-0.007112967,0.0,-0.050904288,-0.01322821,0.015718041,0.0,0.024607416,-0.032639604,0.0,0.0,0.009619623,0.060253392,-0.024336164,0.035362968,0.0,-0.0732294,0.0,-0.086627272,-0.000538946,0.0,-0.018432946,0.0,-0.012809224,0.003673231,0.045685364,0.054100016,0.045685364,-0.001962116,0.0,0.084349168
94.0,-0.177565984,0.029992484,-0.18347656,-0.049494396,0.26717872,0.01967787,-0.077036128,-0.172478416,0.201218576,-0.103613752,0.064479484,0.13194984,-0.166578272,0.12528208,-0.176286784,-0.089045096,0.078753272,0.17161488,0.036148144,0.189446496,-0.05965578,-0.19945576,-0.138921904,-0.209598496,0.021132004,-0.126532688,-0.105675944,-0.058810284,0.076427552,-0.076989384,0.038073816,-0.187588304,0.234274144,0.134666272,0.25265184,-0.004368314,-0.185448096,-0.004162013,0.234274144,0.142410528,-0.00706344,-0.064352312,-0.163710352,-0.062815488,-0.164231328,-0.046555148,0.079753008,-0.08581668,-0.022541284,0.15902224,-0.007112967,0.0,-0.050904288,-0.01322821,0.015718041,0.0,0.024607416,-0.032639604,0.0,0.0,0.009619623,0.060253392,-0.024336164,0.035362968,0.0,-0.0732294,0.0,-0.086627272,-0.000538946,0.0,-0.018432946,0.0,-0.012809224,0.003673231,0.045685364,0.054100016,0.045685364,-0.001962116,0.0,0.084349168
95.0,-0.177565984,0.029992484,-0.18347656,-0.049494396,0.26717872,0.01967787,-0.077036128,-0.172478416,0.201218576,-0.103613752,0.064479484,0.13194984,-0.166578272,0.12528208,-0.176286784,-0.089045096,0.078753272,0.17161488,0.036148144,0.189446496,-0.05965578,-0.19945576,-0.138921904,-0.209598496,0.021132004,-0.126532688,-0.105675944,-0.058810284,0.076427552,-0.076989384,0.038073816,-0.187588304,0.234274144,0.134666272,0.25265184,-0.004368314,-0.185448096,-0.004162013,0.234274144,0.142410528,-0.00706344,-0.064352312,-0.163710352,-0.062815488,-0.164231328,-0.046555148,0.079753008,-0.08581668,-0.022541284,0.15902224,-0.007112967,0.0,-0.040065976,-0.01322821,0.015718041,0.0,0.027223932,-0.03070777,0.0,0.0,0.009619623,0.060253392,-0.024336164,0.035362968,0.0,-0.0732294,0.0,-0.086627272,-0.000538946,0.0,-0.018432946,0.0,-0.012809224,-0.037440196,0.03109404,0.00742504,0.03109404,-0.011281893,0.0,0.060799776
96.0,-0.177565984,0.029992484,-0.18347656,-0.049494396,0.26717872,0.01967787,-0.077036128,-0.172478416,0.201218576,-0.103613752,0.064479484,0.13194984,-0.166578272,0.12528208,-0.176286784,-0.089045096,0.078753272,0.17161488,0.036148144,0.189446496,-0.05965578,-0.19945576,-0.138921904,-0.209598496,0.021132004,-0.126532688,-0.105675944,-0.058810284,0.076427552,-0.076989384,0.038073816,-0.187588304,0.234274144,0.134666272,0.25265184,-0.004368314,-0.185448096,-0.004162013,0.234274144,0.142410528,-0.00706344,-0.064352312,-0.163710352,-0.062815488,-0.164231328,-0.046555148,0.079753008,-0.08581668,-0.022541284,0.15902224,-0.007112967,0.0,-0.040065976,-0.01322821,0.015718041,0.0,0.027223932,-0.03070777,0.0,0.0,0.009619623,0.060253392,-0.024336164,0.035362968,0.0,-0.0732294,0.0,-0.086627272,-0.000538946,0.0,-0.018432946,0.0,-0.012809224,-0.037440196,0.03109404,0.00742504,0.03109404,-0.011281893,0.0,0.060799776
97.0,-0.177565984,0.029992484,-0.18347656,-0.049494396,0.26717872,0.01967787,-0.077036128,-0.172478416,0.201218576,-0.103613752,0.064479484,0.13194984,-0.166578272,0.12528208,-0.176286784,-0.089045096,0.078753272,0.17161488,0.036148144,0.189446496,-0.05965578,-0.19945576,-0.138921904,-0.209598496,0.021132004,-0.126532688,-0.105675944,-0.058810284,0.076427552,-0.076989384,0.038073816,-0.187588304,0.234274144,0.134666272,0.25265184,-0.004368314,-0.185448096,-0.004162013,0.234274144,0.142410528,-0.00706344,-0.064352312,-0.163710352,-0.062815488,-0.164231328,-0.046555148,0.079753008,-0.08581668,-0.022541284,0.15902224,-0.007112967,0.0,-0.040065976,-0.01322821,0.015718041,0.0,0.027223932,-0.03070777,0.0,0.0,0.009619623,0.060253392,-0.024336164,0.035362968,0.0,-0.0732294,0.0,-0.086627272,-0.000538946,0.0,-0.018432946,0.0,-0.012809224,-0.037440196,0.03109404,0.00742504,0.03109404,-0.011281893,0.0,0.060799776
98.0,-0.177565984,0.029992484,-0.18347656,-0.049494396,0.26717872,0.01967787,-0.077036128,-0.172478416,0.201218576,-0.103613752,0.064479484,0.13194984,-0.166578272,0.12528208,-0.176286784,-0.089045096,0.078753272,0.17161488,0.036148144,0.189446496,-0.05965578,-0.19945576,-0.138921904,-0.209598496,0.021132004,-0.126532688,-0.105675944,-0.058810284,0.076427552,-0.076989384,0.038073816,-0.187588304,0.234274144,0.134666272,0.25265184,-0.004368314,-0.185448096,-0.004162013,0.234274144,0.142410528,-0.00706344,-0.064352312,-0.163710352,-0.062815488,-0.164231328,-0.046555148,0.079753008,-0.08581668,-0.022541284,0.15902224,-0.007112967,0.0,-0.040065976,-0.01322821,0.015718041,0.0,0.027223932,-0.03070777,0.0,0.0,0.009619623,0.060253392,-0.024336164,0.035362968,0.0,-0.0732294,0.0,-0.086627272,-0.000538946,0.0,-0.018432946,0.0,-0.012809224,-0.037440196,0.03109404,0.00742504,0.03109404,-0.011281893,0.0,0.060799776
99.0,-0.177565984,0.029992484,-0.18347656,-0.049494396,0.26717872,0.01967787,-0.077036128,-0.172478416,0.201218576,-0.103613752,0.064479484,0.13194984,-0.166578272,0.12528208,-0.176286784,-0.089045096,0.078753272,0.17161488,0.036148144,0.189446496,-0.05965578,-0.19945576,-0.138921904,-0.209598496,0.021132004,-0.126532688,-0.105675944,-0.058810284,0.076427552,-0.076989384,0.038073816,-0.187588304,0.234274144,0.134666272,0.25265184,-0.004368314,-0.185448096,-0.004162013,0.234274144,0.142410528,-0.00706344,-0.064352312,-0.163710352,-0.062815488,-0.164231328,-0.046555148,0.079753008,-0.08581668,-0.022541284,0.15902224,-0.007112967,0.0,-0.040065976,-0.01322821,0.015718041,0.0,0.027223932,-0.03070777,0.0,0.0,0.009619623,0.060253392,-0.024336164,0.035362968,0.0,-0.0732294,0.0,-0.086627272,-0.000538946,0.0,-0.018432946,0.0,-0.012809224,-0.037440196,0.03109404,0.00742504,0.03109404,-0.011281893,0.0,0.060799776
100.0,-0.177565984,0.029992484,-0.18347656,-0.049494396,0.26717872,0.01967787,-0.077036128,-0.172478416,0.201218576,-0.103613752,0.064479484,0.13194984,-0.166578272,0.12528208,-0.176286784,-0.089045096,0.078753272,0.17161488,0.036148144,0.189446496,-0.05965578,-0.19945576,-0.138921904,-0.209598496,0.021132004,-0.126532688,-0.105675944,-0.058810284,0.076427552,-0.076989384,0.038073816,-0.187588304,0.234274144,0.134666272,0.25265184,-0.004368314,-0.185448096,-0.004162013,0.234274144,0.142410528,-0.00706344,-0.064352312,-0.163710352,-0.062815488,-0.164231328,-0.046555148,0.079753008,-0.08581668,-0.022541284,0.15902224,-0.007112967,0.0,-0.055744648,-0.01322821,0.015718041,0.0,0.027223932,-0.03070777,0.0,0.0,0.014218499,0.091440128,0.015115032,0.05061442,0.0,-0.0732294,0.0,-0.086627272,-0.000538946,0.0,-0.018432946,0.0,-0.012809224,-0.037440196,0.03109404,0.00742504,0.03109404,-0.011281893,0.0,0.060799776
101.0,-0.177565984,0.029992484,-0.18347656,-0.049494396,0.26717872,0.01967787,-0.077036128,-0.172478416,0.201218576,-0.103613752,0.064479484,0.13194984,-0.166578272,0.12528208,-0.176286784,-0.089045096,0.078753272,0.17161488,0.036148144,0.189446496,-0.05965578,-0.19945576,-0.138921904,-0.209598496,0.021132004,-0.126532688,-0.105675944,-0.058810284,0.076427552,-0.076989384,0.038073816,-0.187588304,0.234274144,0.134666272,0.25265184,-0.004368314,-0.185448096,-0.004162013,0.234274144,0.142410528,-0.00706344,-0.064352312,-0.163710352,-0.062815488,-0.164231328,-0.046555148,0.079753008,-0.08581668,-0.022541284,0.15902224,-0.007112967,0.0,-0.055744648,-0.01322821,0.015718041,0.0,0.027223932,-0.03070777,0.0,0.0,0.014218499,0.091440128,0.015115032,0.05061442,0.0,-0.0732294,0.0,-0.086627272,-0.000538946,0.0,-0.018432946,0.0,-0.012809224,-0.037440196,0.03109404,0.00742504,0.03109404,-0.011281893,0.0,0.060799776
102.0,-0.177565984,0.029992484,-0.18347656,-0.049494396,0.230936256,0.01967787,-0.103918504,-0.172478416,0.201218576,-0.103613752,0.064479484,0.13194984,-0.166578272,0.12528208,-0.176286784,-0.089045096,0.078753272,0.17161488,0.036148144,0.189446496,-0.05965578,-0.19945576,-0.138921904,-0.209598496,0.021132004,-0.126532688,-0.105675944,-0.058810284,0.076427552,-0.076989384,0.038073816,-0.187588304,0.234274144,0.134666272,0.25265184,-0.004368314,-0.185448096,-0.004162013,0.234274144,0.142410528,-0.00706344,-0.064352312,-0.163710352,-0.062815488,-0.164231328,-0.046555148,0.079753008,-0.08581668,-0.022541284,0.15902224,-0.007112967,0.0,-0.055744648,-0.01322821,0.015718041,0.0,0.027223932,-0.03070777,0.0,0.0,0.014218499,0.123114152,0.052792684,0.076787424,0.0,-0.0732294,0.0,-0.086627272,-0.000538946,0.0,-0.018432946,0.0,-0.012809224,-0.037440196,0.03109404,0.00742504,0.03109404,-0.011281893,0.0,0.060799776
103.0,-0.177565984,0.029992484,-0.18347656,-0.049494396,0.230936256,0.01967787,-0.103918504,-0.172478416,0.201218576,-0.103613752,0.064479484,0.13194984,-0.166578272,0.12528208,-0.176286784,-0.089045096,0.078753272,0.17161488,0.036148144,0.189446496,-0.05965578,-0.19945576,-0.138921904,-0.209598496,0.021132004,-0.126532688,-0.105675944,-0.058810284,0.076427552,-0.076989384,0.038073816,-0.187588304,0.234274144,0.134666272,0.25265184,-0.004368314,-0.185448096,-0.004162013,0.234274144,0.142410528,-0.00706344,-0.064352312,-0.163710352,-0.062815488,-0.164231328,-0.046555148,0.079753008,-0.08581668,-0.022541284,0.15902224,-0.007112967,0.0,-0.055744648,-0.01322821,0.015718041,0.0,0.027223932,-0.03070777,0.0,0.0,0.014218499,0.123114152,0.052792684,0.076787424,0.0,-0.0732294,0.0,-0.086627272,-0.000538946,0.0,-0.018432946,0.0,-0.012809224,-0.037440196,0.03109404,0.00742504,0.03109404,-0.011281893,0.0,0.060799776
104.0,-0.177565984,0.029992484,-0.18347656,-0.049494396,0.230936256,0.01967787,-0.103918504,-0.172478416,0.201218576,-0.103613752,0.064479484,0.13194984,-0.166578272,0.12528208,-0.176286784,-0.089045096,0.078753272,0.17161488,0.036148144,0.189446496,-0.05965578,-0.19945576,-0.138921904,-0.209598496,0.021132004,-0.126532688,-0.105675944,-0.058810284,0.076427552,-0.076989384,0.038073816,-0.187588304,0.234274144,0.134666272,0.25265184,-0.004368314,-0.185448096,-0.004162013,0.234274144,0.142410528,-0.00706344,-0.064352312,-0.163710352,-0.062815488,-0.164231328,-0.046555148,0.079753008,-0.08581668,-0.022541284,0.15902224,-0.007112967,0.0,-0.055744648,-0.01322821,0.015718041,0.0,0.027223932,-0.03070777,0.0,0.0,0.014218499,0.123114152,0.052792684,0.076787424,0.0,-0.0732294,0.0,-0.086627272,-0.000538946,0.0,-0.018432946,0.0,-0.012809224,-0.037440196,0.03109404,0.00742504,0.03109404,-0.011281893,0.0,0.060799776
105.0,-0.177565984,0.029992484,-0.18347656,-0.049494396,0.230936256,0.01967787,-0.103918504,-0.172478416,0.201218576,-0.103613752,0.064479484,0.13194984,-0.166578272,0.12528208,-0.176286784,-0.089045096,0.078753272,0.17161488,0.036148144,0.189446496,-0.05965578,-0.19945576,-0.138921904,-0.209598496,0.021132004,-0.126532688,-0.105675944,-0.058810284,0.076427552,-0.076989384,0.038073816,-0.187588304,0.234274144,0.134666272,0.25265184,-0.004368314,-0.185448096,-0.004162013,0.234274144,0.142410528,-0.00706344,-0.064352312,-0.163710352,-0.062815488,-0.164231328,-0.046555148,0.079753008,-0.08581668,-0.022541284,0.15902224,-0.007112967,0.0,-0.055744648,-0.01322821,0.015718041,0.0,0.027223932,-0.03070777,0.0,0.0,0.014218499,0.123114152,0.052792684,0.076787424,0.0,-0.0732294,0.0,-0.086627272,-0.000538946,0.0,-0.018432946,0.0,-0.012809224,-0.037440196,0.03109404,0.00742504,0.03109404,-0.011281893,0.0,0.060799776
106.0,-0.177565984,0.029992484,-0.18347656,-0.049494396,0.230936256,0.01967787,-0.103918504,-0.172478416,0.201218576,-0.103613752,0.064479484,0.13194984,-0.166578272,0.12528208,-0.176286784,-0.089045096,0.078753272,0.17161488,0.036148144,0.189446496,-0.05965578,-0.19945576,-0.138921904,-0.209598496,0.021132004,-0.126532688,-0.105675944,-0.058810284,0.076427552,-0.076989384,0.038073816,-0.187588304,0.234274144,0.134666272,0.25265184,-0.004368314,-0.185448096,-0.004162013,0.234274144,0.142410528,-0.00706344,-0.064352312,-0.163710352,-0.062815488,-0.164231328,-0.046555148,0.079753008,-0.08581668,-0.022541284,0.15902224,-0.007112967,0.0,-0.055744648,-0.01322821,0.015718041,0.0,0.027223932,-0.03070777,0.0,0.0,0.014218499,0.123114152,0.052792684,0.076787424,0.0,-0.0732294,0.0,-0.086627272,-0.000538946,0.0,-0.018432946,0.0,-0.012809224,-0.037440196,0.03109404,0.00742504,0.03109404,-0.011281893,0.0,0.060799776
107.0,-0.177565984,0.029992484,-0.18347656,-0.049494396,0.230936256,0.01967787,-0.103918504,-0.172478416,0.201218576,-0.103613752,0.064479484,0.13194984,-0.166578272,0.12528208,-0.176286784,-0.089045096,0.078753272,0.17161488,0.036148144,0.189446496,-0.04897336,-0.19945576,-0.138921904,-0.1990312,0.021132004,-0.126532688,-0.105675944,-0.058810284,0.104501552,-0.076989384,0.038073816,-0.187588304,0.234274144,0.134666272,0.25265184,-0.004368314,-0.185448096,-0.004162013,0.234274144,0.142410528,-0.00706344,-0.064352312,-0.163710352,-0.062815488,-0.164231328,-0.046555148,0.079753008,-0.08581668,-0.022541284,0.15902224,-0.007112967,0.0,-0.055744648,-0.01322821,0.015718041,0.0,0.027223932,-0.03070777,0.0,0.0,0.014218499,0.11849084,0.005667239,0.076787424,0.0,-0.099701976,0.0,-0.11777944,-0.000538946,0.0,-0.018432946,0.0,-0.012809224,-0.037440196,0.03109404,0.00742504,0.03109404,-0.011281893,0.0,0.060799776
108.0,-0.177565984,0.029992484,-0.18347656,-0.049494396,0.230936256,0.01967787,-0.103918504,-0.172478416,0.201218576,-0.103613752,0.064479484,0.13194984,-0.166578272,0.12528208,-0.176286784,-0.089045096,0.078753272,0.17161488,0.036148144,0.189446496,-0.04897336,-0.19945576,-0.138921904,-0.1990312,0.021132004,-0.126532688,-0.105675944,-0.058810284,0.104501552,-0.076989384,0.038073816,-0.187588304,0.234274144,0.134666272,0.25265184,-0.004368314,-0.185448096,-0.004162013,0.234274144,0.142410528,-0.00706344,-0.064352312,-0.163710352,-0.062815488,-0.164231328,-0.046555148,0.079753008,-0.08581668,-0.022541284,0.15902224,-0.007112967,0.0,-0.055744648,-0.01322821,0.015718041,0.0,0.027223932,-0.03070777,0.0,0.0,0.014218499,0.11849084,0.005667239,0.076787424,0.0,-0.099701976,0.0,-0.11777944,-0.000538946,0.0,-0.018432946,0.0,-0.012809224,-0.037440196,0.03109404,0.00742504,0.03109404,-0.011281893,0.0,0.060799776
109.0,-0.177565984,0.029992484,-0.18347656,-0.049494396,0.230936256,0.01967787,-0.103918504,-0.172478416,0.201218576,-0.103613752,0.064479484,0.13194984,-0.166578272,0.12528208,-0.176286784,-0.089045096,0.078753272,0.17161488,0.036148144,0.189446496,-0.04897336,-0.19945576,-0.138921904,-0.1990312,0.021132004,-0.126532688,-0.105675944,-0.058810284,0.104501552,-0.076989384,0.038073816,-0.187588304,0.234274144,0.134666272,0.25265184,-0.004368314,-0.185448096,-0.004162013,0.234274144,0.142410528,-0.00706344,-0.064352312,-0.163710352,-0.062815488,-0.164231328,-0.046555148,0.079753008,-0.08581668,-0.022541284,0.15902224,-0.007112967,0.0,-0.055744648,-0.01322821,0.015718041,0.0,0.027223932,-0.03070777,0.0,0.0,0.014218499,0.11849084,0.005667239,0.076787424,0.0,-0.099701976,0.0,-0.11777944,-0.000538946,0.0,-0.018432946,0.0,-0.012809224,-0.037440196,0.03109404,0.00742504,0.03109404,-0.011281893,0.0,0.060799776
